{"architecture":[["Dense",[4,20]],["Dense",[20,20]],["Dense",[20,60]]],"weights":[[[0.5095211,-1.7589369,1.9703982,-0.4176792,-0.76437813,1.5678477,0.7575113,0.25076586,3.3202474,-2.0445507,1.5918994,0.0629491,1.6721315,1.5289062,2.2435489,-1.0620683,-0.8977824,-0.03766028,-0.035715383,0.8201007],[-1.5335507,1.19253,0.5906786,-1.6657985,1.2268257,-1.2249485,1.1787591,-0.6470937,4.204313,0.9429247,1.1771008,-0.50507885,-0.6625045,1.7504339,2.100906,0.4195937,-0.69387394,0.09738073,-0.0900122,1.1083162],[0.5642801,-2.0370026,1.77877,2.9260223,-1.7207313,2.280857,-3.5033126,-0.3336629,-5.722366,-2.7911441,-3.7181478,0.3252362,0.110470735,0.8323016,0.2870712,-1.3675689,-1.6411144,0.96272105,-1.2858849,0.47908857],[0.2298871,0.2410678,1.003769,-0.7466253,-0.2591297,0.56795114,-0.53714937,-0.8287107,1.0276903,-0.028167427,0.21672249,0.06529451,0.9667325,0.7294856,1.5895821,-1.5247674,-0.2038006,-0.263607,0.38652313,-0.24906345]],[[-0.37487504,-0.5326184,-0.35632494,0.59868264,0.15946361,-0.47535416,-0.39981794,-0.3621892,-0.17024644,0.16935852,-0.030725753,-0.54706883,0.023765663,0.2864604,-0.2494341,-0.32357213,-0.001617709,-0.5451834,0.2870874,0.025012149],[-0.15284106,0.35744527,0.20023549,0.5859823,0.4239016,0.46593243,-0.5184993,0.22172268,0.64170694,0.08224373,-0.101876765,0.13374591,0.051819663,-0.27552193,-0.13655566,-0.0072929505,-0.07746675,-0.3743092,0.4248974,0.043419942],[-0.034985982,-0.028051788,-0.33918157,-0.12815705,0.3271584,0.14134564,0.6602819,-0.052631713,-0.26641455,-0.26901963,0.19196466,-0.2117703,-0.009434362,-0.1266394,-0.260096,0.2392974,0.032393884,-0.55654377,-0.5345666,0.1260843],[-0.36880586,-0.0981094,0.09433281,0.33908153,-0.31925523,-0.82918847,-0.5740113,-0.30987427,-0.3008533,-0.03967045,-0.4199136,-0.0013467573,-0.21057208,-0.16419815,-0.20738323,-0.081689216,0.26552325,-0.3976851,-0.7400485,-0.34963056],[0.06722125,-0.073153764,-0.44774622,-0.15223387,0.23565415,0.3976905,-0.17741044,0.23625243,0.27419835,0.19944543,0.10992543,0.3154939,-0.030881722,-0.06742357,-0.109779626,0.24586205,-0.39913985,-0.1269516,0.47539523,0.08722796],[-0.3501664,-0.5520824,-0.556607,0.049851667,0.55360985,-0.31629625,0.6294455,-0.5936599,-0.57651484,-0.46143925,-0.5781268,-0.62180704,-0.07957575,-0.016817864,-0.5701309,0.3311442,0.2410182,-0.5304386,-0.6079767,-0.24623074],[-0.16735259,0.012452349,0.0348561,-0.7272814,-0.47213277,-0.4586975,-0.507412,0.11448017,0.17730203,-0.16661088,-0.10980579,-0.359602,0.18684985,0.11296711,-0.2336636,-0.34867316,-0.23459625,-0.062511735,0.36640286,-0.30318004],[0.11422517,-0.12114799,0.04093916,-0.016937912,-0.06899154,-0.11445249,-0.19173098,-0.21263508,0.13453043,-0.3177462,-0.07153457,0.06159543,-0.1289317,-0.07547579,-0.12290412,0.22876321,-0.13982673,-0.22392502,0.21537505,-0.10018847],[-0.037359733,-0.36932582,-0.099342145,-0.63017267,-0.42227829,-0.87516224,-0.3233647,0.16588128,-0.6774902,-0.25283214,-0.54110044,-0.30837178,-0.45676425,-0.3568881,-0.35959443,-0.62860304,-0.20755348,0.033525474,-1.2321103,-0.32744038],[-0.26426375,0.27809843,0.032988455,0.6657507,0.2702122,0.72947913,-0.708151,0.056733802,0.8621182,0.5647291,-0.3653723,-0.35755777,-0.55055285,-0.026725814,0.2466034,0.2160169,-0.4914876,-0.19709536,1.3947648,0.05926014],[-0.29430744,-0.32386038,-0.25047085,-0.2537901,-0.29846674,-0.6692647,-0.3630606,0.082363635,-0.13923481,-0.39067304,-0.31539348,-0.36070073,-0.15672547,0.2238797,-0.07846967,-0.39402193,-0.32885846,0.11271975,-0.122463405,-0.11672103],[-0.42558956,-0.16598111,0.022279266,0.27528316,0.38059086,-0.35718822,0.02866363,-0.06831085,0.20392118,-0.24339083,-0.34425554,0.01456681,0.01547264,0.02693336,-0.016947232,-0.33992025,0.034027513,-0.41728643,-0.015282293,0.07328326],[0.117764995,-0.0101644285,-0.068648785,0.24451691,0.17901945,0.24753176,0.3888887,-0.44449967,0.06962693,-0.23984149,0.16849604,0.21681888,-0.2704173,-0.047775023,0.117283046,0.36932313,0.22108817,-0.34567893,-0.039084382,-0.2326622],[-0.007396602,-0.33494836,-0.24324848,-0.26275015,-0.09144857,0.40819556,0.47344118,0.1612519,-0.23939097,-0.12782733,-0.22501498,-0.19754127,-0.25247708,0.22956426,-0.098630734,0.2949357,-0.19183166,0.032835912,-0.2426029,0.28324738],[-0.30635142,0.11538137,-0.15125145,0.009026176,-0.35207298,0.25494856,0.6526085,-0.349608,-0.31695893,0.017686848,0.07875501,0.20312095,0.30338606,-0.23593742,-0.060502175,0.55661094,-0.27295446,-0.20894232,-0.43922237,0.1317461],[-0.21012513,-0.110463925,0.08539765,-0.41777855,-0.1171371,0.3242781,-0.53118384,0.09742262,0.28921726,0.17974211,-0.35305357,-0.08844451,-0.102363355,-0.10643224,0.1734516,0.0131303705,-0.45047793,-0.10830803,0.1594982,-0.0633142],[-0.41077316,0.3841932,0.20186207,0.20746405,-0.23574711,0.2269041,-0.65962005,0.004760611,0.5760258,-0.1662352,-0.2988316,0.22960585,-0.3717459,0.13567941,-0.2746667,-0.3171511,-0.27942136,-0.092986174,0.93307364,0.13480607],[-0.09026226,0.039215986,-0.08609251,0.13528505,0.25145864,0.23976013,-0.049727585,-0.016734047,-0.32345968,0.08403853,-0.5838636,0.18412763,-0.013450176,-0.17602895,-0.23728375,-0.3314332,-0.21150754,0.17171746,-0.32295308,-0.22893466],[0.2486322,0.0666479,-0.12762526,0.41936576,-0.18812454,-0.17676593,-0.30876794,0.2860427,0.12089324,-0.06958015,-0.38890985,0.098751724,0.08497054,0.07489992,-0.029085852,0.37587985,0.042348173,-0.26225257,0.61376137,0.13141339],[-0.49631667,-0.11099931,-0.55914533,0.08544211,-0.40684012,-0.18176606,-0.04951674,0.32135335,-0.36108607,-0.20210592,-0.5104658,-0.44213307,-0.17491868,0.025325153,0.26251215,0.1784277,0.16541289,-0.3835756,0.13986504,-0.45228958]],[[0.0023694613,0.08453242,-0.0641713,0.015353257,-0.015722828,0.06085127,-0.1427074,0.30890694,0.132377,0.19039504,-0.07322758,0.04918413,0.30465373,-0.0604773,-0.0042080474,0.14440641,-0.18093428,-0.12718832,-0.14846225,-0.16215937,-0.0657947,0.30963954,-0.09928107,0.24412824,-0.1204272,0.20842934,-0.17220595,-0.16352624,-0.06513135,0.23117922,-0.036233556,-0.092958026,0.12345626,-0.021414828,0.16966455,-0.2263478,0.054259628,0.13914426,0.2553649,-0.106897205,0.2850595,0.1988544,0.12082437,0.07211981,0.030679734,-0.08456401,0.30560538,0.16521905,0.15956534,-0.07037445,0.11003036,0.3277248,0.26009694,-0.121821776,0.091389455,0.3287217,-0.1291273,0.060933996,-0.09314537,-0.13958335],[0.17740937,-0.13378173,0.07504859,-0.07462045,0.32032385,0.32338038,-0.1790822,0.21490973,0.25156158,0.018911814,0.17048536,0.20029129,0.17322135,0.30604136,0.10519078,0.14877556,0.29571453,-0.0074657532,-0.034861315,0.36942083,0.12121342,0.42957988,0.100844994,0.07746414,0.17590758,-0.02034272,-0.014422954,0.114128694,0.12028748,0.25020027,0.2759749,-0.22273141,-0.069262974,-0.13713433,-0.03740456,-0.03996577,0.18321012,-0.1459001,-0.025851684,-0.16019751,-0.13971551,-0.28077754,-0.1479753,-0.13151915,0.18488307,-0.19724685,0.31861356,0.11963274,0.13894877,-0.13494046,-0.16422254,0.07379849,0.11240347,-0.03985486,0.16952954,0.01783916,-0.1875272,0.19793169,0.32079822,0.2173999],[-0.26535222,-0.13637993,0.014070695,-0.081014715,-0.08261155,-0.04952369,0.3230471,0.2542413,-0.15420406,0.21495987,0.16355759,0.18823396,-0.10599704,0.10097042,-0.10010687,0.14134273,-0.086847045,0.27056858,0.23297893,0.022338256,-0.029744914,-0.08600946,0.023761531,-0.14130637,-0.08617351,-0.09461221,-0.0063674613,0.30130795,-0.03952666,0.08961049,0.3116536,0.12762894,-0.04087058,0.06289426,0.0010331844,0.23885332,-0.084378116,-0.14322293,0.057106875,0.17883462,-0.03787404,0.16406272,0.053491123,0.27926368,0.06873698,-0.09771931,-0.017991489,-0.06366862,0.28651226,0.2817651,0.1877168,0.28561166,-0.17012763,-0.039051622,-0.16552258,0.25124958,0.25784343,0.23886882,0.25265953,0.113982655],[-0.065567225,0.087564595,-0.0714537,-0.07647434,-0.075753205,-0.006387515,-0.1405896,-0.18991446,-0.18334073,-0.11910069,-0.000515845,-0.040899564,-0.014581911,-0.34499955,-0.17285414,-0.15765968,-0.23590297,-0.29019922,-0.19808574,-0.058001753,-0.16413628,-0.10698985,-0.16072638,-0.3271173,-0.08011202,-0.12770697,-0.2289596,-0.12929381,-0.081666574,-0.03806604,0.112476096,0.18240725,0.08655981,-0.04373588,0.027567128,0.19262165,0.3868031,0.20533985,0.1245817,0.36007398,0.068442546,0.29402927,0.30725273,0.036372215,0.33661819,0.20407596,0.37057912,-0.0020442335,0.36383322,0.1100164,0.00450967,0.17288429,0.4983193,0.016362328,-0.110091895,0.050799664,0.17071348,0.2280923,-0.04986354,0.25868332],[-0.028542457,-0.22272547,-0.21318166,0.12759075,-0.074605435,-0.030736266,-0.037716955,0.20359786,0.015862193,-0.17629045,-0.14242227,-0.4075233,-0.12775153,0.24057208,-0.06283829,-0.117174365,0.15079722,0.09314128,-0.12617835,-0.13038011,0.15884776,0.041282836,-0.3206082,0.30750096,-0.026505174,0.07717848,0.008112133,-0.034168333,0.02042247,-0.5044648,0.18209547,0.08431616,0.12575403,0.014208678,0.15216023,0.3174609,0.17741248,-0.028724343,0.28802964,0.2821759,-0.20580009,0.37714013,0.12142202,0.2663982,0.32843882,0.17529766,0.02507337,0.48539498,0.29072338,0.12449394,0.20168114,-0.12170867,0.06770839,0.40273017,0.10700278,0.38439053,0.35607085,0.41191298,0.34488133,0.4570841],[0.15079314,0.3854071,-0.013783832,-0.040278565,0.26401725,0.40186808,0.27781528,-0.029660465,0.32340685,0.23609994,0.0790427,0.43116462,0.033522632,0.35644218,0.118258104,0.09043556,0.3859855,0.2373233,-0.107332945,0.24914472,0.19516762,-0.11511334,0.17277287,0.15026009,0.18838535,0.38010436,0.20479864,0.3447196,0.33361673,0.102793574,0.23322605,0.15618154,0.22840357,-0.028543478,0.017032713,0.027022222,0.23266809,0.08743702,0.293333,0.12526028,0.032922115,0.35763964,0.13241097,0.32651442,0.029135004,0.004918403,0.0072080074,0.33893028,0.11478308,0.29497454,0.20989579,0.3229722,0.23514189,0.23532774,-0.0060957316,0.12574863,0.2972613,0.24964517,0.1392059,0.4139685],[0.22591624,0.022664951,0.22688927,-0.06840497,0.17960969,0.57783866,0.63998884,0.19244224,0.3837997,0.61322474,-0.0043137795,0.6232097,0.2763041,0.3418899,0.6381673,0.20409398,0.23700808,0.05374457,0.43794745,0.15243259,0.2623404,0.0014636734,0.4408648,0.39788458,-0.04048469,0.28658986,0.31600502,0.55588615,0.12149415,0.5931713,0.066231884,-0.1350331,-0.20432882,-0.11310004,-0.13029398,-0.23527008,-0.33201265,-0.069498196,-0.07143769,0.01649725,-0.11872557,-0.20878534,-0.2952694,-0.154028,-0.33983818,-0.05972683,0.087405816,-0.017946376,-0.075917594,-0.087859206,-0.1888302,0.037432093,-0.19792412,-0.064271115,-0.069489434,-0.05253563,-0.07271389,-0.09524739,-0.10552086,-0.12301434],[0.07977054,0.20111482,0.0029444045,0.26926976,0.001198026,0.21966034,-0.029479707,0.10582192,0.211561,-0.3012189,0.16907446,-0.42315218,0.116263606,0.055374447,-0.045294154,0.0429905,-0.26675826,-0.04852943,-0.09997715,0.16168162,0.29045585,0.099216595,-0.6263266,0.36804357,-0.033949006,-0.050744683,-0.18887249,-0.052544855,0.29106605,-0.44653788,0.08863128,0.24264193,-0.13535278,-0.028278451,0.14222541,-0.16797164,-0.5477074,0.21532696,0.21920101,0.04629014,-0.12418966,-0.38091075,-0.40022805,0.0072008474,-0.36228693,0.17281501,-0.10194035,0.11747701,-0.08403336,-0.004663259,0.049831316,0.25629327,-0.14997542,-0.033949755,-0.013823885,0.23661733,-0.047530923,-0.23448125,-0.13936347,-0.36815742],[0.22022066,0.19857979,0.29042965,0.33137897,0.084999844,0.07236589,0.3491117,0.30426177,0.13572048,0.39102858,-0.10999671,0.31301522,0.16572058,0.011939619,0.47959283,0.17025447,0.16745895,0.39367074,0.33072785,-0.054389197,0.20905794,0.058690187,0.30794334,0.28097898,-0.20526502,0.3460934,0.14492948,0.2527269,0.08951724,0.23060834,-0.18480399,-0.06090259,-0.03326452,0.26996815,-0.2652943,-0.27591297,-0.076755494,0.1579089,-0.06624461,-0.31545696,-0.10021393,-0.117540844,0.005400064,-0.16379598,-0.38072786,-0.026347576,0.09944852,0.0010052449,-0.17418945,0.04383108,0.06648624,-0.22655743,-0.14671242,-0.28446877,-0.04681653,-0.010724641,-0.25201625,-0.15000682,0.120481715,-0.3695033],[0.19968837,-0.078286275,0.20610929,0.06469408,-0.14634821,0.09188369,-0.0524239,0.22113521,-0.045108944,0.2732056,-0.06566918,-0.015633442,-0.121528454,0.13539796,0.23130038,0.022305453,0.10963928,0.23746206,0.21037307,-0.04696375,0.040797453,0.18981929,0.14063399,0.28371,-0.03128492,0.20639928,0.21846752,-0.13544647,0.14963119,0.23780094,0.006893202,0.1697929,0.18324526,0.29891974,0.18729866,0.18571611,0.1879094,0.23552504,0.06074237,0.23197281,0.049229316,-0.1123905,-0.093385756,0.07965267,0.02938742,0.30585143,0.3691432,0.17835796,0.28138545,0.13577561,-0.12260278,0.17916152,-0.073333986,-0.022859862,0.067348085,-0.025986046,0.018949594,0.061722264,0.15167761,0.29935396],[0.20697781,-0.030887514,0.09781596,-0.0065948325,-0.14819206,-0.15203063,-0.1240039,-0.1521148,-0.086319864,-0.011591799,0.087489106,-0.058525655,-0.12481725,0.13208796,0.08748574,0.13385135,0.15038842,0.08217586,0.30957577,0.20045082,0.013960421,0.38590547,-0.18542929,0.0020248115,0.042292245,-0.24445638,0.29663637,-0.013104495,0.3628842,-0.24890809,-0.080829464,0.08477971,-0.008831515,0.04488018,-0.03527875,0.29702872,0.057020128,0.11408419,0.24482037,0.13517833,0.19634536,0.096024334,0.31093183,0.33185923,0.23284842,0.11655303,0.26847708,0.010098862,-0.058036402,-0.058749273,0.34297782,0.05346814,-0.02847943,0.04935577,-0.12913665,-0.01356232,0.21370071,0.34374067,0.028200919,-0.038921874],[-0.13009538,-0.050943196,-0.15449664,-0.040708553,-0.2112891,0.1260987,0.015172701,0.022249822,0.17159048,0.36391267,0.073585495,-0.23243813,-0.05929218,0.17895569,0.2750494,-0.19472852,-0.049317695,-0.23531263,0.18894997,0.26598307,0.20735186,0.23713908,-0.077113666,-0.10446446,0.025633145,0.1975596,0.29194224,-0.11120208,0.08840527,0.061287377,0.078585014,0.12335543,0.1934243,0.25178343,0.08073998,0.057715133,0.15036272,0.061034605,0.0021211966,0.18226333,-0.10272165,0.13880199,0.24203302,0.07229547,0.3330876,0.0296719,-0.08385536,0.21623315,0.33431607,-0.013287914,0.063076705,-0.006057244,0.2790669,-0.020730197,-0.18358529,0.2322641,0.20853746,-0.04547316,-0.0049174214,0.030391727],[-0.12695596,0.2629517,0.008801819,-0.06596126,0.13973749,0.13349178,0.12271275,0.31092054,0.17213131,0.20683539,0.08987358,0.011475582,-0.1618348,0.09655803,-0.07025644,0.21024783,-0.15451984,-0.1648833,-0.10728482,-0.050080378,0.23048997,0.30630383,0.28122523,0.26268217,0.29354322,-0.2276476,0.20641895,0.33062577,0.021448145,0.085037716,-0.15516466,-0.024563583,-0.08411689,0.14729927,0.23670793,0.10999832,0.1297729,0.27630413,-0.012791896,0.031873807,0.058162134,-0.01573318,0.13423212,0.04914649,-0.050799415,0.14732012,-0.038120948,0.2509856,0.03959431,0.19751914,0.21635184,0.14838292,-0.19165595,-0.14603159,0.12801415,0.36996704,-0.19727938,-0.11098291,0.17360051,0.026171505],[0.19100851,0.19698538,-0.005156798,0.034209482,-0.1853257,-0.19500886,0.32208416,0.10083513,0.28328663,-0.083416365,0.41429612,0.3469852,-0.18866694,-0.14955159,0.034393314,-0.056282755,-0.06026888,0.20428422,-0.023111379,0.031210687,-0.1139305,-0.047287628,0.3477142,0.06579017,0.25608844,-0.018705469,-0.13446042,-0.05327928,-0.0012291052,0.19409765,0.096528724,-0.13002826,-0.13434622,-0.045931447,0.06769897,-0.07408796,0.18621224,-0.021596398,-0.1101437,-0.14040612,0.23350145,0.024490219,0.00017946199,0.2717856,-0.16159219,-0.1424614,0.17729957,0.10776784,0.31571335,-0.011429394,0.26005092,0.19421065,0.35055906,-0.121158995,0.1152087,-0.13075739,-0.03345317,0.25046727,0.013121337,0.39044604],[0.21918684,0.25079516,0.029387105,0.21846794,0.29701293,0.35887724,-0.15251279,0.10731618,0.35759416,0.05960925,-0.040652137,0.31311718,0.09033832,0.09160928,0.053083412,0.26142266,0.13629866,-0.13055256,-0.013514731,0.2143018,0.21361394,0.14462522,0.17769814,0.15994978,0.08334649,-0.016424764,0.23680627,0.1756342,-0.06762448,0.0075816773,-0.11302301,0.03322292,0.064771354,0.36274588,0.011822188,-0.017785478,-0.123602375,0.14858237,-0.082016766,0.23005831,0.13358541,0.27675748,-0.15342121,-0.04456664,0.20439519,-0.21076353,-0.04563615,0.101967916,-0.22058432,-0.08142506,0.27506682,-0.14615017,-0.08923211,-0.12653005,0.1322051,-0.005898583,0.23912166,0.00054114114,-0.08080583,-0.03937685],[0.29875156,0.30575454,0.22794081,0.37121403,0.17678097,-0.078636184,-0.109357536,0.07962622,0.15014559,0.08320388,0.13564923,0.06752929,0.26725927,0.11259354,-0.036969513,0.5221087,0.33233994,0.38275772,0.25597537,0.24982071,0.20360339,0.30639958,0.3839648,0.0141650615,0.28167427,0.30682442,0.387345,0.12891477,0.26870137,0.14521009,-0.1159254,0.16451003,0.25923547,0.19669761,0.14576817,0.17768554,0.19626676,0.04715725,-0.027401328,-0.16872229,0.18649714,-0.06175633,0.20562033,0.049277633,0.21665221,0.17260699,-0.14639035,-0.09712571,-0.16450411,0.06912816,0.17920369,-0.10650157,0.045631394,0.07117454,0.065066494,-0.11300026,-0.054530334,-0.1652936,0.05947269,-0.21949904],[-0.2500478,-0.12289664,0.30111745,0.027081862,0.18949482,-0.16272312,-0.17298448,-0.13123827,0.06971148,-0.16945522,0.11214247,-0.027545433,0.012588601,0.26653677,0.12514916,0.05850404,-0.2251486,0.25818416,0.09676575,0.18955833,-0.023268854,-0.053521145,-0.3059805,0.22943828,-0.064892724,-0.27376282,-0.1744086,-0.1533594,0.04283338,0.017883949,0.329824,0.30350715,0.13710406,0.29084447,0.37003133,0.117496565,-0.07440251,0.1329232,0.45125657,0.100325435,0.03785911,0.11009947,0.28191057,0.35888934,0.032030713,0.07255673,0.07254082,0.045116678,0.12500437,0.26257983,0.36180457,0.34521526,0.07475074,0.19625215,0.11718258,0.51946115,0.133729,0.17646281,0.3694326,0.048836533],[-0.19862497,-0.032448854,0.16269502,-0.10234618,-0.17945942,0.15014265,0.24795364,0.023474518,0.1853186,-0.009961282,-0.050646517,0.09795402,0.030207608,-0.018918656,0.28221762,-0.04668844,0.24643621,-0.028866418,0.028230663,-0.14367212,0.0028769989,0.39640057,-0.27416444,-0.09659441,0.31730333,0.07222863,0.18526143,-0.22769202,-0.00024455233,0.119882435,0.1219196,0.053006366,-0.27453387,0.24615672,0.056421846,-0.08168625,0.05599601,-0.037837192,0.12172662,0.061591685,0.24847755,0.0907879,-0.090087235,-0.20721075,-0.08696276,-0.110944115,0.017329633,-0.030348198,0.20221096,0.24110034,-0.0031885877,0.056495007,-0.21695806,0.041089766,0.20966454,0.11489004,0.1054372,-0.03182286,0.049954075,0.23233531],[0.16234273,-0.0134701375,0.1761478,-0.093645155,0.2010928,0.36363107,0.47674242,0.0049525057,0.3169988,0.46103084,0.026002046,0.50245893,0.45030722,0.39901486,0.4356437,0.41664693,0.386608,0.11855944,0.56539947,0.21063128,0.18852544,0.04253454,0.61186796,0.24897645,0.14299147,0.23112112,0.49419007,0.5283419,0.1444162,0.6085197,0.032778494,-0.052062053,-0.037559446,-0.12544003,0.12424345,0.08691624,-0.14415298,-0.18777114,-0.060395613,0.028096875,0.040387265,-0.106238835,-0.024014726,-0.010076417,0.042798344,0.03879748,-0.14342622,-0.13489394,-0.13471359,-0.07416737,-0.051052094,-0.046979386,-0.1460596,0.17039452,0.017417548,-0.05729137,0.016417172,-0.10057058,-0.07408382,-0.09068231],[0.11510752,-0.09439351,0.23287518,0.036274657,0.24383843,0.09238961,0.06750052,-0.00512562,0.013981499,0.27416283,0.3662628,0.16518699,0.19921152,0.09566775,0.063636385,0.13616483,0.10723605,-0.0030816,0.20203677,-0.020756721,-0.055105936,0.28263062,0.29045707,-0.099005416,0.110199,-0.1836836,0.2079036,0.10043973,-0.027602032,0.2644823,0.044494275,0.025153624,0.037601106,0.027658103,0.27060422,-0.08644816,-0.1338589,0.05120221,-0.047308765,-0.15904367,0.30744666,0.38033757,-0.13056768,0.13435246,0.12922607,-0.21735694,-0.13140674,-0.04572399,0.111906745,-0.1540254,0.056188703,0.031550914,0.2692094,0.079524875,0.24433006,0.19593008,0.1068679,0.37244296,-0.06064571,0.22625941]]],"bias":[[0.3243145,0.1164599,0.046925187,0.021977225,0.12313937,0.42876703,-0.38302296,-0.12557258,-0.9894621,0.69322044,-0.51723105,-0.062955834,-0.12718232,-0.16465028,-0.10520001,0.023758665,0.18091321,-0.14616871,-0.07596166,0.1291922],[-0.14008865,-0.1180477,-0.1702749,0.09493053,0.040338267,-0.019786231,-0.20304416,0.0029746997,0.016791718,-0.04247382,-0.21220373,-0.15748623,-0.16019145,-0.12453428,-0.18128374,-0.02407612,-0.107818596,-0.17286703,0.13562386,-0.14344843],[0.0048339437,0.10968867,0.32354814,0.2903315,0.29637945,-0.111461714,-0.08814529,0.43668735,-0.15853699,-0.14355813,0.45173883,-0.2312839,-0.13828701,0.08031719,-0.12181974,-0.2421508,-0.122411765,0.13428612,-0.1781328,0.17186548,0.05360826,0.28432623,-0.35074255,0.11440872,0.3961844,-0.06770873,-0.19201015,-0.2965068,0.008651526,-0.17100866,0.011410932,-0.14297609,-0.06422207,0.13046367,-0.1458075,-0.14217298,-0.28962064,0.0010108184,-0.096172854,-0.049364943,0.20048256,-0.19807963,-0.15117198,-0.16868508,-0.28580096,-0.14846219,-0.034360312,-0.13083027,-0.2710019,-0.005282997,-0.2291394,0.06745276,-0.43611133,-0.020913854,0.31613195,-0.09743108,-0.079066284,-0.2032296,0.0053969165,-0.21443331]],"Losses":[1.0395742214084838,0.8515528403691666,0.6945824723697772,0.568318227679892,0.47401091255819944,0.40766440369295653,0.3596066702362771,0.3227021023776105,0.2976242974175647,0.28598628151787325,0.28411190282512666,0.2863041332583402,0.28867685743804306,0.28937177177748097,0.28783436177695876,0.28429874860343196,0.27939189682091037,0.27386058707994315,0.26836953090943,0.26335272062661635,0.25897864929282355,0.25525084954031413,0.25214738761926914,0.24968499699358732,0.24789137405643072,0.24674046243661293,0.24612073076791657,0.24585889988800388,0.24577724884475308,0.2457358107646976,0.24562747659111686,0.2453592152535083,0.24485953246630615,0.24410814974316206,0.24315471036490333,0.24210364770821913,0.2410753234389428,0.2401674835658021,0.23943417443108922,0.23888779810485203,0.2385123414078503,0.23827335845792155,0.2381248457235374,0.23801871719144033,0.2379151204049726,0.23778633285609008,0.23761431386142368,0.23738933955745464,0.23711146209902656,0.2367902307098144,0.23644093663943266,0.2360803674240607,0.235724972895936,0.23539141940066022,0.23509672629412978,0.23485417705448658,0.2346660682935729,0.2345204948103763,0.2343964898239611,0.2342723281331252,0.23413030958199296,0.23395855311145133,0.23375338159027334,0.23352132693610997,0.23327693050547768,0.23303584127607482,0.23280763059335915,0.23259355752685815,0.23238995412917518,0.2321928810175772,0.2320001338127714,0.23181091604583598,0.23162499693085367,0.23144162990102077,0.2312586272521086,0.231072789070324,0.23088159359068328,0.23068445898748813,0.23048260724069236,0.2302781280051942,0.23007317032184937,0.2298695265488697,0.22966832317448316,0.2294696954878279,0.22927290003909095,0.22907693631744852,0.22888106652544865,0.22868482213828273,0.22848783076783905,0.228289830588488,0.22809081605161557,0.2278910268732352,0.22769070522531495,0.2274899422682735,0.22728881569679263,0.2270875526397965,0.22688642124705186,0.2266855513404813,0.22648488014004117,0.22628416116303135,0.22608306411286563,0.2258813771311811,0.2256791211681593,0.22547643231091455,0.22527335750724367,0.2250697786463327,0.22486552421665323,0.22466046747548288,0.2244545254764342,0.22424765040912786,0.22403982785178753,0.22383100584634869,0.2236210436813835,0.22340971056661993,0.22319676456047963,0.22298202260888014,0.22276534469327416,0.2225465828659465,0.22232555871748674,0.22210206355155387,0.2218758835582696,0.22164681419113852,0.22141466946966576,0.22117924707061395,0.22094031929180594,0.22069764838575898,0.2204510093601611,0.22020018032241828,0.21994494842174894,0.2196851163667927,0.21942051010448657,0.21915098382630885,0.2188764176587174,0.21859671673789732,0.21831181007091116,0.21802165610000243,0.21772625201374468,0.21742564305339365,0.2171199325673072,0.2168092897592255,0.21649393787221993,0.2161741628459659,0.2158503204444839,0.21552284279621167,0.2151922382720951,0.21485908284088662,0.21452401320694675,0.21418773290584806,0.2138509984494096,0.21351461361058346,0.21317942017079605,0.21284627627201244,0.21251603802304322,0.21218953733859514,0.21186755922920333,0.21155083369961672,0.21124000255720604,0.21093560423030047,0.2106380542434745,0.2103476395957975,0.21006450223709872,0.20978864357290575,0.20951993177458436,0.20925811737557337,0.2090028470400042,0.20875369807545083,0.20851020312277146,0.20827188879384598,0.20803829808981505,0.20780902594555467,0.2075837402850032,0.20736219703565195,0.2071442471539949,0.20692983859062666,0.20671900300363596,0.2065118508027718,0.20630854446873229,0.2061092740217218,0.2059142460727921,0.20572365527109668,0.2055376713964896,0.20535642592532985,0.20518000155349292,0.20500843114791564,0.20484170045298508,0.20467974926677768,0.20452247769803245,0.20436976296680404,0.2042214580994556,0.20407740783583248,0.203937457674879,0.20380145347892167,0.20366925347585607,0.20354072500047965,0.20341575103192283,0.20329422494608015,0.20317604765470976,0.2030611324874543,0.20294939141923304,0.20284073533840294,0.20273507476760633,0.2026323167378219,0.20253235604105083,0.20243508073392005,0.2023403754614453,0.2022481161576728,0.20215817526422766,0.20207042357351676,0.2019847361612699,0.20190098616451763,0.20181905510627482,0.20173883315170624,0.20166021490849972,0.20158310425121334,0.20150741327274876,0.20143306602893765,0.20135998402601996,0.20128810081963783,0.20121735352390824,0.2011476789342478,0.20107902082962026,0.20101132006475148,0.20094452178301495,0.20087857247208152,0.20081341865584607,0.20074900699995907,0.20068528735672253,0.20062221310347556,0.20055973961393514,0.20049782263661708,0.20043642185222976,0.20037550069983315,0.20031502585933653,0.20025496459576939,0.20019528828937713,0.20013596846049309,0.20007698271891777,0.2000183038625911,0.19995991178114966,0.19990178415996773,0.19984389977878803,0.19978624015888144,0.19972878642760833,0.19967151930260216,0.19961442332995624,0.19955748058943348,0.19950067776679634,0.19944399967325355,0.19938742903209086,0.19933096006605883,0.19927457630906817,0.19921826802495562,0.19916202596940358,0.19910583911242183,0.19904970041893402,0.19899360236252722,0.19893753435276235,0.19888149039734554,0.19882546711657875,0.19876945362810963,0.19871344509400382,0.19865743666676297,0.19860142216851182,0.19854539511255517,0.198489353894029,0.19843329127127007,0.19837720255055646,0.19832108514779692,0.19826493334860623,0.19820874501656915,0.19815251355189983,0.19809623770740886,0.1980399116157103,0.19798353147420605,0.19792709450776874,0.1978705957259464,0.19781403139327208,0.1977573956144309,0.1977006859488356,0.19764389493050824,0.19758701953739316,0.19753005414047753,0.19747299201093613,0.197415829960394,0.19735855983266745,0.19730117619294407,0.1972436720525391,0.1971860423434154,0.1971282777649297,0.1970703720650034,0.19701231973673652,0.19695410996194448,0.19689573531303234,0.19683718837420994,0.1967784604433772,0.19671954166128697,0.19666042432810962,0.19660109868982567,0.1965415548458847,0.19648178404000016,0.19642177627594123,0.19636151993686785,0.1963010067201931,0.1962402239474512,0.1961791628160495,0.19611781259059444,0.19605615984234798,0.19599419653147668,0.1959319077905098,0.1958692836959649,0.19580631056512066,0.19574297851253375,0.19567927255665107,0.19561518199733863,0.19555069278657414,0.19548578993382518,0.1954204633019062,0.19535469457487978,0.19528847316465392,0.19522178216429004,0.19515460711282104,0.1950869330336801,0.19501874223031435,0.19495002028272035,0.19488074872249578,0.19481091193990407,0.19474049017214876,0.1946694679624765,0.1945978213071235,0.19452553557074875,0.19445258895693493,0.19437895956821374,0.194304626057717,0.19422956799088806,0.19415375977719934,0.19407717979009748,0.1939998016313358,0.19392159952306545,0.19384254669305592,0.1937626162580193,0.19368178016348644,0.19360000720485507,0.19351726535996702,0.1934335229054121,0.19334874666255075,0.19326290151878286,0.19317595023271114,0.1930878549478736,0.19299857636207524,0.19290807136627597,0.19281629753726856,0.19272320885421892,0.19262875796044476,0.19253289534026113,0.1924355692510302,0.1923367256696248,0.19223630698094915,0.1921342528216979,0.19203050263365948,0.19192499058815585,0.1918176470382997,0.1917084011152257,0.19159717915467164,0.19148389952167896,0.19136848258066194,0.1912508416087889,0.19113088440841636,0.19100851703001273,0.1908836422694021,0.19075615403598678,0.19062594512796388,0.19049290131343252,0.19035690642354686,0.19021784501627056,0.1900755863206991,0.1899300718281703,0.1897813053968192,0.1896300313771116,0.18947912250221666,0.1893407543112734,0.18923825767707272,0.18918488137563588,0.18916378116228097,0.189135099507579,0.1889198963410526,0.18852578775518616,0.18812430111192832,0.18805221980175427,0.18806023034269684,0.18775651286469291,0.18736070726682122,0.18718904544958936,0.18704976997779224,0.18678871624223078,0.1865679278238587,0.18642019033460855,0.18615546119383203,0.18580858657727375,0.18556653920514507,0.18534929408812606,0.18504337802199738,0.18476228776571077,0.18455348976881553,0.1843242863201648,0.1841071907919174,0.18409403678437142,0.1844455694327582,0.1853169903301765,0.18523528656952995,0.18392533935236674,0.18253802569046174,0.18275971474834046,0.18349278118115014,0.1826395596428237,0.18143358634470477,0.18177451843502876,0.18208783227993272,0.1811601685051511,0.1805699874362168,0.1807997354042271,0.18078502717361958,0.18011582569024562,0.1796094841076019,0.17973372826880288,0.17971382317744622,0.1791503663526009,0.1787243907975553,0.17871355695404573,0.1786814321122386,0.17844167945804348,0.17804005894604893,0.17769302718322277,0.1776121251096527,0.17760181780001247,0.17745419939653084,0.17722089279985598,0.17691005722349612,0.17659996464316757,0.17639942815522208,0.17626565898367139,0.17615275523065782,0.17610376132658553,0.17612187719681321,0.17620353485434218,0.17642013665132222,0.17662318560555565,0.17667250791518685,0.17615222382662063,0.17531676335592902,0.17462798161720586,0.17447573517517567,0.1747283812314754,0.17497130475934003,0.17489496501832932,0.1743890160016575,0.17381811524758314,0.173523297941197,0.17355623267103523,0.17370324756596786,0.17371821101608176,0.1735100073912395,0.1731187288811278,0.1727528392813939,0.17254867575086907,0.1724999982021456,0.17252881353089167,0.17254488640770801,0.17249164495386254,0.17232576071524233,0.17209324833646936,0.17182773405223772,0.17158247363022922,0.17138777735973515,0.17124621788056227,0.17114400823803141,0.17107367030845905,0.17103774339219413,0.17104489082128757,0.17112921734052516,0.1713142041757764,0.17164040130348776,0.17196118700857585,0.1720789545278154,0.17156939235613536,0.17068517751565357,0.1699391727576653,0.16978171123152788,0.17009424247291505,0.17040745990434386,0.1703402292865184,0.16982569703390732,0.16930222896801705,0.1691165730545022,0.16925096589043395,0.16941967919979492,0.1693440513611386,0.16902881194719455,0.1686745589067455,0.16849345162559382],"R2":0.6633974408185036}