{"architecture":[["Dense",[4,20]],["Dense",[20,20]],["Dense",[20,20]],["Dense",[20,20]]],"weights":[[[1.7690343,-0.27337876,3.2104597,-1.6144189,0.655135,2.4835737,-2.0894997,0.6100804,1.700849,-1.9749149,-0.31640676,1.0435401,0.08593877,0.85902333,0.057027094,-1.467556,0.30617675,2.9231722,0.87450314,1.4537067],[-0.49749818,0.28326708,1.1380011,0.3030655,-0.7581204,0.9549,-1.4778724,-1.922966,-0.5722271,-1.4428971,3.4760797,1.2335663,-0.8495463,-0.041734617,0.062470272,-2.697573,-0.04005321,-0.68906987,0.41898653,-0.87921053],[-4.320849,-0.45483252,0.15348923,1.7162994,-0.64036745,1.6083871,1.9951092,-0.22288184,-2.4956234,-0.7207458,6.608823,7.912863,0.55675894,3.0016975,8.74604,0.86773926,-2.711134,-3.0072763,-3.2633312,3.8362727],[-0.53045416,-1.6932696,2.188395,-0.24541008,-2.4659665,3.0857053,-0.7085273,-2.2224805,-0.20349115,-1.1890844,3.8451207,3.729479,-1.7371929,2.8074396,1.8172946,-1.8344204,-1.272484,0.1342637,-1.8011492,2.2066379]],[[-0.82825804,-0.5988148,-0.08588313,-0.5292435,-0.20633997,-0.6306928,-0.66952175,0.20375098,-0.53304404,0.52563757,0.09073828,-0.4788057,-0.04379388,0.13316803,0.19049779,0.13427967,0.17669685,-0.33416948,0.05618794,-0.60954607],[-0.6388846,0.22802508,-0.36877972,0.15601058,-0.43284127,-1.3444619,0.48044923,0.021364573,-0.24553338,-0.31476918,0.031480238,0.04442357,0.20949784,0.06407972,0.34502593,-0.15437593,-0.4866626,0.3881675,0.2994034,0.33357254],[-0.23340906,0.015980283,-0.3245644,-0.61027783,-0.27527744,1.1232831,-0.115122385,0.122622624,-0.36229348,0.4106104,-0.35386935,-0.16831607,0.011837053,0.24295773,-0.527974,-0.38401127,0.6861251,-0.39710295,0.15011673,-0.42448825],[0.3662152,0.078161165,-0.021750545,0.46214658,0.050545897,-0.51657176,0.11881986,0.09733332,-0.27790466,-0.20430863,-0.29263327,-0.31266543,-0.18613566,-0.49601808,-0.5149647,-0.28135452,-0.54269797,0.06962183,-0.22993012,0.35487598],[-0.7681206,0.081880264,-0.07678611,-0.53105474,-0.24073935,-1.6314293,-0.63974524,0.63126427,0.10390942,-0.13618526,0.2794956,0.2028271,0.35487336,-0.4391039,0.6663677,0.75185865,-0.30104637,-0.25985658,-0.27385223,-0.39760908],[0.22310846,-0.24279544,0.1233501,0.16704683,-0.5022601,1.2003218,0.07239093,-0.53369284,-0.1724732,0.46843964,-0.20874178,-0.107927404,-0.2051737,0.57738453,-0.37343535,-0.35093132,0.26865366,0.19532801,-0.23694073,-0.123375826],[0.4495518,-0.13151829,-0.24741603,0.07522432,0.032910116,-0.65826935,-0.30299255,-0.013287484,-0.23469803,-0.25920781,0.60651,0.18447028,-0.1648706,-0.5481558,0.13381156,0.89673764,-0.5576344,-0.40372017,-0.02105069,0.106467664],[-0.2857657,-0.109122805,0.1559187,0.12076081,-0.3087575,-1.1766152,-0.57993084,0.78568137,-0.27200288,-0.30106026,0.5121078,0.108473614,-0.15216579,-0.36441725,1.2066655,0.58458954,0.03747776,-0.39812016,0.21712668,0.12825139],[-0.3801056,-0.06382364,-0.36830294,-0.535323,0.030133776,-0.3946579,-0.33054578,0.112483025,-0.30365807,0.49369282,-0.19565666,-0.43698707,-0.38689414,0.27858356,0.39899355,-0.086730555,0.5526125,-0.064055346,0.07561353,-0.5009597],[-0.10041405,-0.26645082,-0.10165809,-0.19634467,-0.0060135815,-0.9539983,-0.14813459,-0.18249938,-0.21714345,-0.5074388,0.5061625,-0.058020495,-0.289772,-0.4554951,0.22419477,0.6783145,-0.31083068,-0.0248976,-0.12563066,-0.34159645],[0.19738339,0.40247542,-0.24899298,-0.2963893,0.06571387,0.7862165,0.94656813,-0.22380358,0.19531879,0.05722941,-0.45445496,-0.2184247,-0.059466034,-0.029954653,-0.6476253,-0.80953276,-0.27307478,0.68664265,-0.2971665,-0.15729867],[0.79155016,-0.16792905,-0.48722816,0.19454385,0.04147655,1.3969185,0.04473252,-0.2331899,0.34717724,-0.119608596,-0.4737815,-0.43067202,-0.23203343,-0.0029433444,-0.07472064,-0.89384615,-0.105524264,0.25299987,-0.24340382,-0.2206077],[-0.47094572,-0.16292599,0.1121725,-0.4178201,-0.45871526,-1.0649741,-0.5587588,0.6483488,0.14530656,-0.6611961,-0.14586061,0.23201399,-0.16180958,-0.44687834,0.39569297,0.5153598,-0.26075855,-0.05796103,-0.24076614,0.20350108],[0.6261559,-0.42387995,-0.1720342,0.025524102,-0.08982626,0.88060045,0.32910144,-0.7214374,-0.27966937,0.030459253,0.34946012,-0.27122143,-0.06292211,-0.10132018,-0.4865409,0.06764269,0.31206402,0.018027663,-0.12997453,-0.17729527],[0.6466641,0.0048924712,-0.32156566,0.18003356,-0.011075005,0.5570594,-0.045456924,-0.016575733,0.42728275,0.0057005323,-0.35764238,0.16553874,0.06817186,-0.2048673,0.5200601,0.008648639,-0.025698861,0.24705793,-0.08021127,0.38122514],[0.35752687,0.004494624,-0.022005768,-0.4142917,-0.15904965,-1.302086,-0.72866744,0.43933654,0.22561866,0.17063849,0.51823354,0.103100605,-0.15919094,-0.5657743,0.6578494,1.0573773,0.008534865,-0.5587205,0.09653489,-0.14319846],[-0.7105542,-0.18947585,-0.08944499,-0.16101386,0.1582618,-0.7506926,0.26850334,0.35149962,-0.6484598,-0.02928967,-0.17389783,0.018229702,-0.4624387,0.04655233,0.07663992,0.3119549,-0.36927006,-0.3811222,-0.114749014,-0.21809867],[-0.5105,-0.6234072,0.22148994,-0.25212696,-0.73930496,-0.25390223,-0.7141149,-0.19246693,0.07299486,0.30520275,-0.08947725,-0.13099721,-0.3958646,0.6823062,-0.013052497,0.44756532,0.57551134,-0.8598696,-0.27395236,0.03659464],[-1.1517758,0.021108314,-0.4389538,-0.43249357,0.06926976,-1.456502,0.36427385,-0.13544719,-0.63851553,0.17310639,-0.486192,-0.36949515,-0.14051704,0.4145758,-0.14368856,0.42949358,-0.011331754,-0.2564985,-0.11799561,0.037991],[0.17813104,-0.06544344,-0.4486614,-0.30176324,-0.38667488,0.72948843,-0.08397826,-0.29999524,0.73296964,-0.25879294,0.3314024,0.12694255,-0.053954195,0.026189309,-0.1158823,0.20521319,0.35561967,-0.6125763,-0.07746402,0.06802429]],[[0.290689,-0.3340337,-0.2688761,-0.64786834,0.32930127,0.38275817,-0.6374334,-0.0510201,0.17462781,-0.5217091,-0.5293218,0.115217395,-0.02628295,-0.24287118,-0.30567533,0.1392296,-0.11478672,-0.7066728,-0.6487565,0.21909751],[-0.77696013,-0.1661645,-0.27188557,0.15572226,-0.2509614,-0.14736564,-0.12683742,-0.001124629,0.34627792,-0.015129429,-0.19845167,-0.2938422,0.12117655,-0.34689486,0.08458442,0.26174486,-0.22364837,0.13935007,0.5839117,0.21285318],[-0.08912476,-0.019289812,-0.51963204,-0.2732557,-0.06592628,-0.19710234,0.020128708,-0.62558216,0.36462864,-0.45821446,0.1807039,-0.23704575,-0.19215265,0.12514386,-0.28166133,-0.029378476,0.18818067,-0.21167865,0.08822516,-0.004608068],[-0.027118744,-0.035272446,-0.19612837,-0.20836446,-0.19118054,-0.1757479,0.1608579,0.15346254,0.24615058,-0.0056305192,-0.07734751,-0.6166544,-0.13003796,0.2839269,-0.09903191,0.27112103,-0.53930223,0.13121143,0.20807646,0.15283564],[0.0064380257,-0.07419484,-0.10193668,0.11542251,0.265404,0.07336744,-0.4268346,-0.2616993,0.078136705,-0.23649688,-0.24944662,-0.32341167,0.14867583,-0.26655468,-0.18944578,-0.04901174,-0.34255838,-0.09276453,0.22616996,0.31433824],[0.2759368,0.05829726,0.6359665,-0.97092265,-0.6791236,-0.7195089,-0.17231409,-0.26223424,-1.6404132,-0.8904728,-0.45842516,-0.20740412,-0.3028758,-1.0043929,0.19262072,-0.35832104,-0.08533659,-2.0544703,-1.9814998,-0.56119335],[-0.7278478,-0.8010269,0.5150522,-0.14136672,0.41711864,-0.56971925,0.052146275,-0.7208125,0.22435933,0.060636714,-0.01022246,-0.518121,0.19386691,0.04446477,0.1909625,0.023091868,-0.10612662,0.3299892,0.5788582,-0.0641749],[-0.58354455,-0.07857599,0.011668834,-0.42820987,-0.4226646,-0.42506936,0.02071468,-0.29282048,0.3116334,-0.25230554,-0.13622971,-0.2514393,0.20797174,-0.29728577,-0.65511715,0.1466293,-0.45298824,0.31645107,0.3763814,-0.23285216],[0.0973858,-0.31614718,-0.42190388,-0.07886024,-0.017845327,0.66057295,-0.17970799,-0.21297541,0.6664421,-0.24068548,0.13751714,0.10362519,0.015345595,-0.024674784,-0.25439638,-0.013710126,0.25671482,-0.26192966,-0.18098402,-0.18235122],[0.1356031,-0.39493716,-0.19266145,0.17760682,-0.11698915,-0.31546217,-0.45750406,-0.37188965,-0.15876712,-0.4140841,0.034156103,0.049413603,-0.3753103,0.25050676,-0.5350567,0.24723971,-0.2209671,-0.57630914,0.2014276,-0.24767862],[-0.50053686,-0.20189175,-0.030137394,-0.055705044,-0.40341666,-0.6105329,-0.36758655,-0.50867337,0.10073906,-0.4385581,-0.26374745,-0.16036925,-0.16600764,-0.38105637,-0.23757097,-0.17108698,-0.23883116,0.084259786,-0.24548367,0.34930184],[-0.25502712,-0.118697226,-0.21593672,-0.28250453,-0.5161369,0.15140444,-0.402965,-0.7527117,0.512626,-0.114980735,0.24569328,-0.10372265,0.13277976,-0.53873104,-0.7661156,-0.028586864,0.34062523,-0.44158655,0.24514093,0.08849506],[-0.122744605,-0.21220581,-0.20479728,0.08644015,-0.013353624,-0.40507495,-0.38134846,0.026680708,0.54227173,-0.1959071,-0.059190474,-0.50065637,-0.08505515,0.045436505,-0.34640458,0.098546974,0.09792919,0.20013864,0.54037243,0.09838969],[0.0056791003,-0.762189,0.018973408,0.60556996,0.11092949,-0.66577125,-0.39279053,-0.65922487,-0.47372842,-0.18265621,0.18374804,-0.46558508,-0.30128783,0.20926394,-0.20197368,-0.11882455,-0.20148069,-0.37360388,0.088631354,-0.4188141],[-0.1367095,0.029798416,-0.3379317,-0.6954063,-0.55754626,0.20524774,-0.04461242,-0.24333243,0.21452759,-0.3096227,-0.011224528,-0.13502944,0.049327455,-0.7849362,-0.63825387,0.17524347,-0.3943975,0.17332594,0.36771494,-0.049617022],[-0.44153562,0.01196031,-0.7147302,-0.7666513,-0.64930093,-0.8169372,0.040379025,-0.34342664,-0.25675082,-0.30705923,0.08613461,0.26609114,-0.10149126,-0.84659564,-0.103615366,-0.059427727,0.032062348,-0.35906598,-0.3262981,-0.0638539],[-0.031195568,0.15928687,-0.468195,0.2797942,-0.46968085,-0.46844542,-0.1462328,-0.287033,-0.27064675,-0.39396727,0.17480764,-0.20961684,-0.013233255,-0.08324284,-0.29006836,-0.27016798,-0.42871293,-0.29382327,-0.38275063,-0.28657436],[-0.34137285,-0.110197544,-0.14755501,-0.21594182,0.36472523,-0.23828702,-0.4663559,-0.19410601,0.553906,0.1140647,-0.050741218,-0.285026,0.23227467,0.10328838,-0.045413624,0.16464357,-0.47260186,-0.07184771,0.23071332,-0.13230695],[-0.31448445,-0.25883237,0.0011895676,-0.12185373,-0.26527458,-0.290525,-0.02045337,0.04744268,0.12047795,-0.6558984,0.2002516,-0.42766193,0.23644225,0.019761687,-0.31401065,-0.15330088,-0.22198653,0.10188041,0.13319248,-0.047827285],[-0.34917372,0.12604158,0.19036971,0.36994892,-0.37805355,0.16460186,-0.5655999,-0.46100968,1.0656034,-0.34235996,-0.10239834,-0.26996836,0.21976471,-0.47597608,-0.9319432,0.37540385,0.33549112,-0.33787954,0.50776064,0.4865468]],[[0.08106585,0.72751737,0.07863875,-0.14042561,0.210559,0.008769058,0.6970552,0.06691598,-0.08817409,0.04913169,0.17297772,0.2170042,0.16795664,-0.09704112,0.072000295,0.14189816,0.03753432,0.074827954,-0.14760408,-0.030942235],[0.44075418,-0.0070261573,-0.074428074,0.028957792,0.29129702,0.13177678,0.39246783,0.09477683,0.25420016,0.5390376,-0.094691284,-0.24331897,-0.16480027,0.099128574,-0.027505187,-0.037021525,-0.26298818,-0.009883451,-0.25992337,0.18334843],[0.10366042,-0.0073569133,0.26229197,0.27769613,-0.021326907,0.17510915,0.07468665,-0.0033490376,0.26232874,0.09267221,0.05450565,0.35923573,0.06702569,0.23422506,0.08851646,0.040030107,0.62537664,0.17572519,0.2871387,0.22174102],[-0.21431728,0.10718317,-0.038199116,-0.5005886,-0.1362816,-0.13171363,0.3636416,-0.48659945,-0.52908725,-0.16542788,0.14531125,-0.7493441,0.03223855,-0.10158619,0.010197103,-0.16554634,-0.73503506,0.12309973,-0.14233482,-0.08887975],[0.035351634,-0.06534149,-0.11047255,0.6488431,0.07844911,0.44812134,0.17835152,0.29164895,0.61986107,0.65685564,0.1632025,-0.0213838,-0.039979797,0.097819045,-0.26903313,-0.10182199,-0.051210348,0.241759,-0.14017484,0.21921037],[0.15115023,0.016905235,0.17326143,-0.25962296,0.19204454,-0.19780524,0.120290354,-0.2021077,0.082585044,-0.11481842,-0.022819811,-0.41330308,-0.14734218,0.45251048,-0.04233769,-0.14800169,-0.17602144,0.19294934,0.30951348,-0.081442304],[0.13552204,0.22538503,0.05094078,0.094468296,-0.019207446,0.10390292,0.12714635,0.067325234,0.30729726,0.31341723,0.22348493,0.53737915,-0.07474145,0.046919648,0.22238523,0.2427263,-0.4552422,-0.31703675,-0.23092821,-0.43737283],[-0.14132671,-0.23496033,0.04048807,0.40790698,-0.18427207,0.15555471,0.27684405,-0.03337569,0.1388456,0.047838546,-0.21035287,-0.06353176,0.18670312,0.4624547,0.2472552,0.08982755,-0.59906685,-0.27415532,0.25427946,0.18749826],[-0.043088567,0.32917973,-0.070315614,-0.027541183,0.015130663,-0.071213976,0.3630028,-0.046741933,-0.028017743,-0.055720493,-0.08922998,0.6796477,-0.07151555,-0.095649,-0.06487782,-0.1079394,0.63762736,-0.14841154,-0.09809928,-0.1211308],[-0.15560459,0.41952288,-0.14106998,-0.113771774,-0.35044754,0.15467481,-0.009501925,0.3454184,0.06448006,-0.048639435,-0.037472706,-0.31115553,-0.008467614,-0.26711106,-0.27845702,0.3840426,-0.5105134,-0.1416248,0.28406698,0.21900298],[0.23872988,-0.08768334,0.35747677,0.27464435,0.34776473,0.26722112,-0.12610757,0.311659,0.3429557,0.2786196,-0.18912426,0.030788556,-0.04834607,-0.3202753,-0.14005153,-0.33304352,0.2108924,-0.22597693,-0.33140546,-0.35118082],[-0.31195328,0.27106288,-0.10728966,0.6294157,-0.31375507,0.21703757,-0.0261038,0.15940289,0.27887085,0.47401768,0.2193815,-0.33661368,-0.0065396503,-0.13550189,-0.042183574,0.0004645316,-0.050349236,0.40811297,-0.026141217,0.06432435],[-0.2526342,-0.031170396,0.30199623,0.0056344788,0.273333,-0.099802546,-0.22203875,0.08129063,0.52837425,0.51237184,0.21631482,-0.1044908,0.22381029,0.35707474,-0.25820005,0.12496769,0.077153236,0.37772873,0.3045028,0.094171934],[0.3448969,0.42415586,-0.17609781,0.41437218,-0.07053336,-0.13696127,-0.13136454,0.5726845,0.3536285,0.110574484,-0.32960436,-0.52136093,-0.18207316,-0.45637512,0.18340221,0.14316009,-0.51324844,-0.33692905,-0.2006658,-0.14530127],[0.04006895,0.27706027,-0.119531564,0.41618517,0.3687807,-0.11925929,-0.019777345,0.36474746,0.03399717,0.28659165,-0.04154694,0.289284,-0.07362715,0.28887656,0.11482435,-0.30922732,0.06767268,0.1889842,0.14269254,-0.4197623],[0.4976808,-0.51115936,0.32410365,0.31286448,0.20706737,0.33543366,-0.2803866,0.35669088,-0.023834625,0.024173366,0.19989154,-0.13947216,0.41183838,0.071281515,0.43650582,0.33435103,-0.22070253,0.08923389,0.3844507,0.38220444],[0.24008632,0.15176083,-0.09196491,0.21407065,0.12819788,0.084650144,0.33080503,0.035981525,-0.10993331,0.33232582,0.08470324,0.35946247,0.043444816,-0.15237653,0.15905075,0.08917877,0.545295,-0.011194896,-0.06013086,0.33233237],[0.11672813,0.46332565,-0.013259303,-0.381801,0.13151209,-0.12157355,0.46001697,-0.07022751,-0.6838166,-0.123972304,-0.058335796,0.21087793,0.028060291,0.1682442,-0.035392087,-0.2917547,0.3335609,0.24357302,0.5968437,0.38579568],[-0.07887929,0.7086245,-0.065922484,0.14675574,-0.119347304,-0.017392904,0.7406836,-0.03976929,0.17673884,-0.0106064165,0.061926194,-0.58626693,0.012710268,-0.017475583,0.051241692,0.11299432,-0.5237502,0.053143,-0.13345905,-0.026936786],[0.13008888,-0.3488857,0.08817569,0.09738911,-0.12324252,0.22144963,-0.54812,0.07294048,0.16150457,0.085188046,0.25638214,0.38948548,0.04421113,0.5272216,0.17233261,0.29384404,0.33986062,0.5089283,0.2804295,0.39082274]]],"bias":[[0.09415015,0.51517415,-0.00588553,0.047085382,0.93695736,-0.02972113,0.24904937,1.1334944,-0.14246878,0.66014856,-0.2982073,-0.022289034,0.5958859,-0.06442688,-0.34730887,1.3774006,0.42129233,0.12437119,0.6538075,-0.1124706],[-0.23711033,-0.061716083,-0.16932131,-0.015063752,-0.17671578,-0.44461694,0.16405104,-0.12381587,-0.26582256,-0.043810226,-0.007044906,-0.09109018,0.060151666,-0.009168397,-0.12565804,0.011972527,-0.16697724,-0.011432754,-0.08793606,0.02275834],[-0.07775485,-0.2578094,-0.12929136,0.07702074,-0.07202588,-0.19356833,-0.31186453,-0.32625479,0.46658626,-0.35855877,-0.059350535,-0.1681234,-0.10855849,-0.048962988,-0.33138263,0.11885003,-0.15523548,-0.046960358,0.27468097,0.011286352],[0.45169586,0.09529137,0.43652838,0.09411564,0.53748715,0.39645496,0.016372973,0.33317888,0.18451305,0.07370334,0.14300275,0.20510018,0.12407567,0.31828856,0.24028592,0.2447972,0.14476264,0.08771203,0.26963717,0.17556812]],"Losses":[1.6659307370048644,1.3879859405006125,1.1616818830125881,0.9778713522259248,0.8290665927644993,0.7082727597690748,0.6041242839763374,0.5082303713764936,0.4183421323475795,0.33931300593902314,0.2839981056119596,0.26117836718757015,0.25415698817866267,0.2442591057457217,0.22963951323686918,0.21524614720702365,0.2063665758302495,0.20461895128028504,0.2072524649866232,0.211102183731478,0.2132812917281763,0.2113526832849971,0.2056062228695316,0.19796763610013743,0.19048961692418187,0.18494840739141571,0.18169247524215115,0.1798299236813646,0.17865258529029826,0.1775112129673386,0.17596057707767584,0.17435094356557557,0.17307254766856686,0.17211269490834746,0.1715244678401756,0.1712213563084778,0.1709352681522869,0.17061142623572234,0.17020070173023982,0.1696230363956399,0.16897808574206666,0.16829321563007654,0.1675245658353236,0.1667609176230822,0.1660354772835369,0.1653117109300843,0.16462528466669285,0.16396734764305984,0.16336709110905634,0.16292428551270718,0.16260680774882103,0.16235126020802307,0.1621101188217619,0.1617941462802515,0.1614018456486272,0.1609568499020593,0.16047560213029097,0.16000199744294022,0.15951565589721134,0.15900260240857,0.15846359536260074,0.15788955682961867,0.1573074875772672,0.15672349759998186,0.1561512218963764,0.15559717964813738,0.1550477006211343,0.1545040581623824,0.15394616109016251,0.1533601837131512,0.1527228799715329,0.15202306780704286,0.15126896261984787,0.1504727379643758,0.14965728442386458,0.14882813998199398,0.1479877861434092,0.14712108736239937,0.14622351384803073,0.1452907444583689,0.14432824525478674,0.14333270796528308,0.14230481401963305,0.1412384160530653,0.14013280337727702,0.1389887487626213,0.13781214577485734,0.13661124655543277,0.13539433958483946,0.1341736730167605,0.1329572713371947,0.1317493414828276,0.13055494933802306,0.1293811254539604,0.12823803269989764,0.12713608819730488,0.12608327326533092,0.12508688115540206,0.12417324935151801,0.12351993035058945,0.12431914863546087,0.12857203117615715,0.12447744597677635,0.11991673773130958,0.12268042680355207,0.11963284233020643,0.11773820240003553,0.11905611566262594,0.11560810322619039,0.11581020179254592,0.11518989069718337,0.11248124071806541,0.11332946847020973,0.11110151013053512,0.10977398626538987,0.10982653735081482,0.10729293483024403,0.10688714881492022,0.10586010003773005,0.1039293284275527,0.10361524163443864,0.1020806648930122,0.10069796898664804,0.10015344017617564,0.09857966803721595,0.097377331704528,0.09668744364916994,0.09526551958662663,0.09398925259189435,0.09322136159617922,0.09212587041752247,0.09078136640617146,0.0897269003359058,0.08892204592878256,0.08800393946419977,0.0868498218276617,0.08570663152001237,0.08471206566839469,0.0838663161340684,0.08313199383541887,0.08249379328197108,0.08208238547367885,0.08185324988320378,0.0821334756306321,0.08167090551048733,0.08074070532115328,0.07832255035936145,0.07644164144480438,0.07552088853319816,0.07544034741081429,0.0758627483710074,0.07575074438856451,0.07500959216135708,0.07311269379348462,0.07158700223001156,0.07081334862068966,0.07071208796241062,0.07100993458360927,0.07104119154789544,0.0707071362941025,0.06941672672632891,0.06815873736802915,0.06722063968339148,0.0667497153922354,0.06664805089647213,0.06679580769493115,0.06717904260244661,0.06727512017870663,0.06718069795974317,0.0661775938305873,0.0651447969969911,0.06422133650104578,0.06368206760392368,0.06346552358284861,0.06349463494764128,0.06374593782267975,0.06408341110340615,0.06454909185787813,0.06442760661043183,0.06405470081608425,0.06307335646104197,0.062275941261477175,0.06174933308700143,0.06158386843423113,0.061722709839356245,0.062093068896941786,0.06262132832818346,0.06281483439598952,0.06251462887986722,0.06160826047574491,0.06084729249028493,0.06067393624864252,0.06109463869176552,0.06189844196356676,0.062351080734862376,0.0625994025681304,0.062069636503329396,0.06194580700297088,0.061427425469275564,0.060975336288123204,0.060415567390164855,0.06021596979851682,0.0605744433572097,0.06088530347892528,0.060855006730151845,0.06003109330892891,0.05945441059945201,0.059519325482257274,0.05997866061358135,0.06031870970830064,0.05991102676926873,0.05935395115782861,0.05906879526832307,0.05920449823546446,0.05949563576920458,0.059531870108902124,0.05933259859347301,0.05901873075436122,0.05888710080001596,0.058963149142061425,0.05911448522978121,0.05918722851285876,0.05907865237572217,0.05888415369454176,0.058708818786699625,0.05863478805355759,0.058661237010181576,0.05873257068703756,0.05880877849979612,0.05881828601560517,0.05880162727988216,0.0587326399889169,0.058699329531778845,0.05871417796058831,0.05887218086976516,0.059202354071763025,0.059853957488339216,0.06055768376502547,0.06118559548115522,0.060674121984275894,0.0597320853344258,0.058749418108482214,0.05836368695580764,0.05850349697759013,0.05893553535907076,0.059243779429510916,0.05916756932182715,0.05875104929580034,0.05832554596445526,0.05819182018187161,0.05837105020302122,0.058755514184312824,0.058995984240645644,0.05906803013189045,0.058736830561276286,0.058466022800666935,0.058343852191786845,0.058497543534198324,0.0587400390398387,0.05894600182870134,0.0588556432517274,0.0586353974047914,0.058358537704724864,0.05825629217566895,0.05829189612074026,0.05845272252437548,0.05849681728406942,0.05848031508879342,0.058265078668819664,0.058080143594984465,0.05794702091455696,0.05794292251244056,0.058017805417622706,0.05813851848725357,0.058215997412535525,0.05825920573494027,0.05822471718997846,0.05821069880349988,0.058203690766953906,0.058315326045719436,0.058453956995771716,0.058723011361794565,0.05880810005926392,0.058893456628810764,0.058599516318094985,0.05831332384856728,0.057958069133262784,0.05774836115153086,0.0576551495345484,0.05767158080079925,0.05774048652225734,0.05781176438711364,0.057857989645394625,0.057831465699493725,0.05776550143438551,0.05765250073962219,0.0575442485204091,0.05745583617090639,0.05740681802400165,0.05740900222528155,0.057468203088432764,0.05761640739247325,0.057859924583116944,0.05830186704617271,0.05879164082908539,0.05947606923758635,0.05958039559713977,0.05951068912243124,0.0587580132819824,0.058139515108385054,0.05766327157890466,0.057479848845095216,0.0575226120855408,0.057679596058954924,0.0579211250286697,0.05798489766629489,0.05798863680218278,0.05774223104496093,0.05752064135536603,0.05732880216615688,0.057284624450668904,0.05737468668142591,0.0575916716008025,0.05787498778413309,0.05810119765685079,0.05819775814088755,0.05804719756041647,0.05776312426255865,0.05747496325739808,0.05728371563670418,0.057258614697931594,0.057338343557326754,0.057513051989066304,0.05760398608728967,0.057669926634465116,0.057524161103423455,0.05736661869400887,0.05715756297163213,0.05703802611743624,0.05699948135132336,0.05706749560056022,0.057209764827445816,0.05741829389203622,0.057632534903384734,0.05781943403435477,0.057884148352069745,0.05785661411067022,0.05768524592358569,0.05753588127393143,0.05737486571144549,0.057341404260383665,0.05732988181350854,0.057421947721317666,0.0574181276298794,0.05743303848990553,0.0572661618272346,0.05710302562366542,0.056872555046156056,0.056699886529047734,0.05657237863676693,0.056509607198077384,0.05649812172491001,0.05652904396108503,0.05659417724769974,0.05669090743643311,0.05682480491332406,0.056995152259050615,0.057210189391207866,0.057455957128095675,0.05768565658984385,0.057891353400420856,0.05792616240165088,0.057944358852276445,0.057786112334963176,0.05778490992171031,0.05770254595780374,0.057827331509412785,0.057688648357189606,0.05758363871661925,0.057153906416996095,0.05677823458019269,0.05643989144244356,0.05626785123977237,0.056260266715892904,0.05639314073655436,0.05664168775311489,0.0568978899561043,0.05718067518332101,0.057232441935314946,0.05724534464529781,0.05703494989074568,0.05689646607835402,0.056766775048524266,0.056779275975264436,0.05684894051007046,0.05697585888431133,0.057047667267396095,0.0570204339089135,0.05686925178134939,0.0566290681861717,0.05637646611006814,0.05616472985751369,0.056021825941538435,0.055949696406694394,0.05593488081232744,0.05596448997915158,0.05602323305203748,0.05611211688679299,0.05620769071468014,0.056336731513468026,0.056438540286973295,0.056578206675548796,0.056631432345383724,0.056724096262596446,0.05669295634751273,0.05673965888820691,0.05672294512919295,0.05688906973554159,0.057090352409242026,0.05755528223782726,0.05788667058301302,0.05817595394071004,0.05785030953121104,0.05729064624913805,0.05658266485596537,0.056055304781020714,0.055770787250743824,0.055712276664099294,0.05584641794603579,0.056112627305227876,0.0564852087907351,0.05677114348330714,0.056977729185681426,0.056838118448327805,0.05659681255369415,0.05621331458245503,0.055920569463797594,0.05570843945582226,0.055616765657469355,0.05561371166347006,0.055696737438694556,0.05584024821000796,0.056054274705996235,0.056280135327031106,0.05652324841209918,0.05662773206621237,0.056643621664253255,0.0564336704081654,0.05619603521286229,0.05591080686639396,0.05574281147682287,0.05566926974878865,0.05575408501844602,0.05594155798844111,0.05627543988516157,0.05656823645736696,0.05686909273036687,0.056818708679569646,0.05666751241279837,0.05625574449457504,0.05592904597425708,0.05564331435913132,0.055511654479043895,0.055471903882334465,0.055540751526958206,0.055654680648265446,0.055824037914196455,0.05595624556730446,0.056065702667779674,0.056039417748608024,0.05594720194942298,0.05574233084086719,0.05553706288080294,0.055331823005839297,0.05518311349688271,0.055083283282826814,0.055041575677659584,0.05505114535710195,0.0551237429115542,0.05526729629920513,0.055533484390903144,0.055910058733740234,0.05649170555323331,0.05696075825699348,0.0574088985579492,0.0571118082492414,0.056703089770235096,0.05599784181854013,0.05556512711415192,0.05530529437187283,0.055302816035268605,0.05545050668227431,0.05572563971263252,0.0559883354744617,0.056131963313533435,0.056050263482412634,0.05577024216794835,0.055402030604093974,0.05506515081886827,0.05482913259703398,0.05470530399202941,0.054684747183510234,0.05474692731287158,0.054886800162379096,0.05508049379577034,0.05535408375881078,0.05560702609486617,0.05590360127969827,0.05598609643660779,0.05607019549749223,0.05588182300692957,0.05581635332567036,0.055678536517277645,0.05575942055024577,0.055810571708383036,0.05594833126325337,0.05588150690034061,0.05572145653068783,0.05538240436311947,0.055037385356900566,0.05472807938705011,0.054511660531309535,0.054387243089899964,0.05434123258694312,0.05435926290570905,0.05443035171012652,0.05455517073509937,0.05472384832678368,0.05495979698652576,0.05520499600309973,0.05550832799095694,0.05567285451779855,0.05582582093226765,0.05569131123785481,0.05557559364281744,0.05529589981852025,0.055160585979815886,0.05502586861633056,0.05506619802184418,0.05511790955083146,0.05527574397770611,0.055331117972662526,0.055348233526043955,0.05518339255403952,0.05495555450863472,0.054679290657039976,0.05444840954105235,0.054289774494996425,0.054214328543605354,0.05422789263793511,0.054313363647943674,0.05449159224529155,0.05470066627453478,0.055001602852867634,0.055180856016951906,0.05537678826262105,0.05525516463825704,0.055118980373218544,0.05478350994929793,0.05453106116713925,0.05429299290618677,0.05416343760230526,0.05410467793950292,0.05413509850544002,0.05424018455087424,0.05443207907586261,0.05469447472615848,0.0549946492018787,0.05524537899252325,0.05533441057181946,0.05520270213233425,0.054892197437225905,0.0545211380763342,0.05420600498363368,0.05399344565047781,0.05390903350086294,0.05393153286236121,0.05407401086490839,0.05428367687326239,0.05460846315490656,0.054851132445467826,0.055124165614557706,0.055056478457641216,0.05496101933115424,0.05461790927173398,0.05438238740353366,0.054169992418763926,0.054117942298894536,0.05415707108311036,0.0543121325980629,0.05449738431516036,0.054675176551903445,0.05473813556335696,0.05465737217403003,0.05443639378255498,0.05415460891748785,0.05387982798669794,0.053667749585097776,0.05352741439554733,0.053461323494275265,0.05345492677316002,0.053508256725696715,0.05360778984364555,0.053777891037379656,0.053975727642134874,0.054265010575931555,0.05447820755504966,0.05474347552511972,0.054730515515569046,0.05472758322156114,0.05447327278244132,0.054326239890240276,0.05415428326663539,0.05414679951087849,0.05419188528336444,0.05433127176355682,0.05443082118570739,0.054457134780646614,0.05433880878750065,0.0540992794449342,0.05381017560783333,0.05352926697180898,0.0533089592898183,0.053154858705424385,0.053063628859766676,0.05302129992661837,0.053016157092261165,0.05304003550657286,0.053089849872591625,0.05316667865782221,0.05327786339637325,0.053429749591483146,0.05363807918960962,0.05388885375633285,0.05419039014265075,0.05443299487664455,0.05463544054517871,0.05459774090333962,0.05452188346733295,0.054269384633811944,0.054165306507605065,0.05405082087659715,0.0541586348508903,0.054204511644985715,0.05434584227786999,0.05422166261767862,0.05404605628526957,0.0536795280675579,0.053348689190334225,0.05306251827906357,0.052882615202682504,0.05280028624608463,0.05280504304681678,0.05288760861754711,0.05303169607516719,0.05325081775170421,0.053476067152867554,0.05376120339254799,0.053900106481303146,0.05404275218006905,0.05392744300005032,0.05383649344849442,0.05361750172014078,0.0535018007666252,0.05340049171472681,0.053402476604274655,0.053430070222278234,0.053493028632768495,0.053524526933220504,0.053505744447917725,0.05342247328969787,0.0532738930359303,0.05310365399761374,0.052926438916805534,0.05277608711519809,0.052655339454420906,0.05256832936780267,0.052509219165708415,0.05247245981437522,0.052452837065274385,0.052446556355485716,0.05245269845047364,0.052471874304560386,0.05251140876362392,0.052576748889298794,0.05269483041489969,0.052868804075928734,0.053169388279218195,0.05352235906246065,0.054044992505422815,0.05432556922253989,0.05458280841787796,0.0542537692826823,0.053928897323871024,0.05346254641845154,0.0532169823917823,0.053119745089336465,0.0532110691625495,0.05340864637832298,0.05360408671547614,0.053719742768377036,0.05358230325959937,0.05332061556283102,0.05293458658144219,0.05260771357027452,0.05235951213848362,0.05221705696572155,0.052161297677951794,0.05217213482929545,0.05223112209568784,0.052321187197464904,0.052433450453782,0.05254340472018375,0.05265328946461136,0.0527254396040569,0.05278077183820178,0.052790033263963726,0.052795857162054385,0.052801763147199164,0.05285218422944359,0.052987492526048195,0.053203638264726884,0.05356468146136319,0.053845476385447184,0.054138161479777784,0.0539564862337385,0.05370353771238201,0.053162681816293,0.052753199492883464,0.05239689244138402,0.05218142539951403,0.05205099646329514,0.0519938166226396,0.05198840088132422,0.05202732604572602,0.052111447627280656,0.05224109649132643,0.0524375236594017,0.05266878353335809,0.05297185044304498,0.053186036126795434,0.05337991867880058,0.05329449692464731,0.053145509564309884,0.052813777892764265,0.05253102737263264,0.05225885489436393,0.05207034645575137,0.05193304030553754,0.051846202160049405,0.05179102441185365,0.051758440003528645,0.05174021523819938,0.0517315623803725,0.05173001728467971,0.051735224767556744,0.05174915235764121,0.05177530337387915,0.051822040285957806,0.051897662885583284,0.05202394816196349,0.052209375589598775,0.05249161401135481,0.052821950276679824,0.053207973206201915,0.053415848576890156,0.05346308793103582,0.053169619322714294,0.05278427529885361,0.05235573152141567,0.0520303548746426,0.051811968391042566,0.05170015141278252,0.05168495317954326,0.05176513359339452,0.05197792344768479,0.05233468129972394,0.05294621731322882,0.05353234579886322,0.054171440837978826,0.0539321100078637,0.05348371997210369,0.052638776653584796,0.052050127161610046,0.051678734811965735,0.05153806859060767,0.05156862430644415,0.0517297259405225,0.052002399319283736,0.052291619924300245,0.05259350554657568,0.05265658129176307,0.05261893932482486,0.05233115732150132,0.052056519821619664,0.05178117631785439,0.05160412951952703,0.05150525729955157,0.051484180431033734,0.0515252757040172,0.05161923929189211,0.05176585272188904,0.05193212695015054,0.052132420554419114,0.05225720994386878,0.05235837045661328,0.05229521790794969,0.052202224208056654,0.05202825745993208,0.05190038031453603,0.05182154604981738,0.051823651672350986,0.051913765090932644,0.05203618880868537,0.052205811171453155,0.05227140252014961,0.05230774897033252,0.05216060605894261,0.05199840740379293,0.05175782007184864,0.051565958403268906,0.05139440396269543,0.0512777301863705,0.05119554795784022,0.05114655905293859,0.051119514245453745,0.051110241133476474,0.05111508658390806,0.051133338769878044,0.051168071864925446,0.05122042425897653,0.051302214530757416,0.05140923739513903,0.051564010164287855,0.051732395234634236,0.05194023235574415,0.05208406206099316,0.05219529329304067,0.05215268504727705,0.05204187703244516,0.051851345636331196,0.051668080232129925,0.0515410749379929,0.05147973442155358,0.05153379458930906,0.05164991174154778,0.05188613876719636,0.052067694791603565,0.052279940086063334,0.0522081721102053,0.052085415050436686,0.05174018408735892,0.05145231060161889,0.051183059581284496,0.051023723519409744,0.050942293690978545,0.05093870873858573,0.05098969657362938,0.05108275080683932,0.05120650213941188,0.051330935768496615,0.051453893855532215,0.051525621134479296,0.05155884552562922,0.05153254420152905,0.05147105036767982,0.051411254168881454,0.051353209185432576,0.05135982717913414,0.0513840997441255,0.051493360365798345,0.05157225738787023,0.05170016788427955,0.05168113196559906,0.05165240977648601,0.05144861137699006,0.05125912680500277,0.051021873526643544,0.05084910595107731,0.05071519374093974,0.05064413447018262,0.05061715033790701,0.050633169887705755,0.05067988719587706,0.05075573980854244,0.05085335544991069,0.05096689182312222,0.05108702952309004,0.05119880756963281,0.051282949987394987,0.05133564954281737,0.051330230167806426,0.05131159411221783,0.05124278358057626,0.05121402705127043,0.05115674710344291,0.051173618142064656,0.05115254970642119,0.051196629428544145,0.05115970917630706,0.05115649808351839,0.051048855510455134,0.050968970865185426,0.05082717808040851,0.05074319886273084,0.05066782711687837,0.05069533564731937,0.0507911914441478,0.05105371513603488,0.05137190056411837,0.05180409243280372,0.05193855740785893,0.051858588771517035,0.051339142611769216,0.05079356890976248,0.05033085550499047,0.05007610351261595,0.050009968633089145,0.050087975279868316,0.05025474988947684,0.050437005574296055,0.0505880997309962,0.0506226548259262,0.05059276171391966,0.05048042504627541,0.05040440086672834,0.050351683182831744,0.050381129777870536,0.050423229034358814,0.050507162632694086,0.050537776658643625,0.050595032264654935,0.050612114466431525,0.05072931752948324,0.050878133861366005,0.05117164828169352,0.05141506855711846,0.05158943313216029,0.05146783051245998,0.05113448168939464,0.05068450580461253,0.05027204560540598,0.04996860034428562,0.049778729245174895,0.049683051410418774,0.049654200607002506,0.04967342698475774,0.049728948039775935,0.0498237950763299,0.049958659037213936,0.05016546880221159,0.05042249928196256,0.05078848422841771,0.0510895714362128,0.05141581837467443,0.051380614710735656,0.05129714724667026,0.050909836570975586,0.050642912750519915,0.05035145839202043,0.05025299434911613,0.05019423144276844,0.05028287884939576,0.05035072335488933,0.05044919638644659,0.05043702358085908,0.050338751021211915,0.050162027041886714,0.049944942977340305,0.049770505506177266,0.04964378750226191,0.04960616595837406,0.0496337427434574,0.04974746232725607,0.04988972152319905,0.05009588225538317,0.05021301503910706,0.050328032926661256,0.050220822530846546,0.050090207907005455,0.049813113928247055,0.04958302724072873,0.049358009967275455,0.049203656455381446,0.049096432776889125,0.04903793658464578,0.049015695591159286,0.04902667444921714,0.04906909390706421,0.049148587867677826,0.04927418747952984,0.049450225957003796,0.04968266048053459,0.04993064634804868,0.05014876568697154,0.05023691115299324,0.05015203591743954,0.049923045540775576,0.04961426734891729,0.049345494258568594,0.049145352472563054,0.049075332493182994,0.04913989241055429,0.04942131276187591,0.049906007765946066,0.05071469432392154,0.05121107845828326,0.051473360598081774,0.05065182735668085,0.04983301488882066,0.049114960446565686,0.048768955954652596,0.048693345420690086,0.048811084239854946,0.04905170749663383,0.04929469312851229,0.04950882267562767,0.04948847822573912,0.049353765900344765,0.04905774857811371,0.048779610976893595,0.04854843140159608,0.048398653208110445,0.048322891633795946,0.04830238273031829,0.04832664822715507,0.0483820065445394,0.04848226207021833,0.04860972667415469,0.04882285888564323,0.04905503115217185,0.049420906171145494,0.04969323443734829,0.05004391897381793,0.050073140610785986,0.05011574358489995,0.049898581336439506,0.0498009522011567,0.04961436033537377,0.04951476857590169,0.04928837625904159,0.04904412060748032,0.04870927795923616,0.04840043218595236,0.04812332322778866,0.047919016028381056,0.04777890915593384,0.047695931966777676,0.0476567279465354,0.04765099714870431,0.047672414669887295,0.047718723996808245,0.0477947518848009,0.047904321997906514,0.04806558289955974,0.04827046048007854,0.048534427448788754,0.04877777845400899,0.048995200384611304,0.04904133716686339,0.04905226057968786,0.049009892072832274,0.04931971560676078,0.04996234662884364,0.051345570176094694,0.05160401896497954,0.05123579061479666,0.04921911771947974,0.047894188233788694,0.047238119006725574,0.0471870803533832,0.04761680170668521,0.04841250956780728,0.049433388758378174,0.049617354088365394,0.049251162380780825,0.048258227594548765,0.04764008118541929,0.047447508661397214,0.047624472656966566,0.04796108494210106,0.04814218916416497,0.048110654892322274,0.04775195293007572,0.04736493030478481,0.047047633593459315,0.046867682545272966,0.04681054924157374,0.046826534208321204,0.04689403472321808,0.04696964212393826,0.04708683330666639,0.04719214397608588,0.047375424595280255,0.047528218522091645,0.047775447338137586,0.04791309553085238,0.04811988836207673,0.04815116589763725,0.048277057407272825,0.04825484261674765,0.04833105993944223,0.04816303738216729,0.04797420299643155,0.04753522021602486,0.04713213151533112,0.04672811139310214,0.046448485090285055,0.046263303183919885,0.04618069977997136,0.04617943985291077,0.04627755761094174,0.046491354931579375,0.0469310380885875,0.04756217648404935,0.04852199156639288,0.048931175615292276,0.04901077126793819,0.04796398847344954,0.047078048779326545,0.046318484546681395,0.04590074932582248,0.045669692531869574,0.04556883589446762,0.04555062417131343,0.04561288838987917,0.04578421055360046,0.04611926082645608,0.04670734065219627,0.04745305737753652,0.04814757386675125,0.04810503925698278,0.047443731101754254,0.04649002613555522,0.04574837189450474,0.045291071971715904,0.0450604808665123,0.04497778786758914,0.045001288381237264,0.04512797960391328,0.0453943304114146,0.04584703329059237,0.0465547039146751,0.04730873240169536,0.048020869053656844,0.048041919542569034,0.04826233905143823,0.048429682792946134,0.049494201855816086,0.04895077004559349,0.04812458638527498,0.04635450669199717,0.0452916738905815,0.04472476697177237,0.04456883960362539,0.04475019083344956,0.04531439989640127,0.04644394355657671,0.047530605391217576,0.04824213623094154,0.047029797685304464,0.04578562963047286,0.044804113840604884,0.0443540514873336,0.044215590548059215,0.04427957298325956,0.044510710337478575,0.04486464073829001,0.0453828098679727,0.0457353965580222,0.04595751202843253,0.045603492688711944,0.045129841413132234,0.04455613563224913,0.04414083796607745,0.04384624963658206,0.04366313187018714,0.043544724587415436,0.04346711659064886,0.04341179320790525,0.04337079154922399,0.043340224395018306,0.043323883095974985,0.04333089985109633,0.043392846209779935,0.04355956495369783,0.04398462858701212,0.04477041286671246,0.046245457569562824,0.04714141474191591,0.04756071431263615,0.04596188387051652,0.045024089799893044,0.04481034402170902,0.04581732698119614,0.047292359129803646,0.04821679463961653,0.04691253389515112,0.04524593926773706,0.04403501435213805,0.04355244121845476,0.043369601374436094,0.04342580558009932,0.043579060429124725,0.044036051200758874,0.044557120589258495,0.04535721162522866,0.04533988481083732,0.04509825297673939,0.04428458340502381,0.04390024614128537,0.04393722393235134,0.04471769304572728,0.04567985692334171,0.04617314858807382,0.04515857833939032,0.043783669254998235,0.042731775482718615,0.04220275474536089,0.04201039510065588,0.042021626955597066,0.04217136881458385,0.04249967416072712,0.04303174588810917,0.043951610366493706,0.04465613022000908,0.045208316047727376,0.04432867981692593,0.04350347458726547,0.042732128006030164,0.042541446053628675,0.04279526298428903,0.04360774044666904,0.044515208596999783,0.04497777569374781,0.04430179776219023,0.043211477038528484,0.042286968262763874,0.04173320437684336,0.041427155919943136,0.041260125460051,0.04115720046261607,0.041094899951532246,0.04106805061965909,0.04110029395258417,0.041236622707127135,0.04158017595500515,0.04224062139049151,0.043312335120856756,0.044214015726516315,0.044477172138295516,0.043511010569584764,0.04265380498130222,0.04218847932609976,0.04268332549547453,0.043911791886627506,0.04593284090930245,0.04528788047771806,0.04401748699441831,0.042274341330328334,0.041449293852825204,0.04109938323606994,0.04107726294589994,0.04125711449269031,0.04159035000340074,0.0420217773397435,0.042296224624987895,0.04233674381539697,0.04197272697458937,0.041569596830584206,0.041184124290697725,0.041080933836340275,0.041225555881310126,0.04190193729160523,0.04285000000641783,0.04420600286836041,0.04392242795354012,0.04337768329373077,0.04218413933715769,0.0416555728389025,0.0413683391069365,0.04131515286107261,0.04126185966803024,0.041137426538392585,0.0409480245485408,0.04068050324947011,0.04043715323795862,0.04021229272248202,0.040078062088099296,0.04000456403630063,0.040035434349482105,0.04011870426344121,0.04031699063671375,0.04052648589407082,0.04087626486420808,0.041137317038336334,0.041608205391347526,0.041898425748589006,0.04263791957550166,0.042928232946192635,0.04353116260284187,0.04277657931188473,0.04200726014252205,0.04093625118497826,0.04018479119430601,0.0396656643848321,0.03934098960257389,0.03914669681434215,0.03903284270235891,0.038986613322075765,0.038995945386462234,0.03908574702584918,0.03929449949707952,0.03971199340315055,0.0404692362194001,0.04146111319704232,0.04260633532882438,0.042519936199434234,0.04232896523451771,0.04142149012035578,0.041129304977740415,0.04062530720549182,0.04029297893859368,0.0397386431333584,0.03933279511978785,0.038973934745435375,0.03879645018317472,0.03875665245283426,0.03900244254982781,0.039613339869066115,0.04093184955085456,0.04203713028855383,0.0426660751926438,0.04114176149221448,0.03989018533184788,0.03903046064367718,0.03868841539594601,0.0385993397574759,0.03866931734673805,0.03884652494922329,0.03909989932133652,0.03940451290685111,0.039764926386649586,0.04003342405583342,0.040392535967707546,0.04037935514101485,0.04050980454008222,0.04011626382771367,0.03987704591022705,0.03932902582044375,0.038962667277909833,0.03856057077693899,0.038344296276134726,0.03820104357280986,0.0382618375818702,0.03849391200619335,0.03912603911956433,0.03987596088355307,0.04076981935231642,0.04045104544766802,0.039795981468049524,0.03881007474406488,0.03820450753448376,0.03784983593168739,0.037708922899923725,0.03769900356118325,0.03780471148385416,0.03803199592529467,0.03841214167360177,0.038880362575869847,0.039411474918809995,0.03954726155563513,0.03954987049366479,0.03907036545697577,0.038826255527275394,0.03851614253137707,0.0384725192280673,0.038326849257910175,0.03828566117671532,0.03809017386654139,0.03799531553282999,0.03787005108697515,0.03796912335015241,0.038166048198243985,0.038705730409849266,0.039088414876406095,0.03943891580245443,0.03901220901491084,0.03847722631181936,0.037849625630926226,0.03745250557886817,0.03721953672533071,0.037145144587429665,0.037191169478123724,0.03737427647118378,0.037678320899489935,0.03813174456698699,0.03848552492939029,0.038761527610827066,0.03850704206648131,0.03825635925515542,0.03781195774594708,0.03764108725502159,0.03747986024392793,0.037526794381917215,0.03749842059697177,0.037573450863992164,0.037497203472815085,0.03752965313715071,0.037467786649770816,0.0376122039611248,0.037698559621616404,0.037986996613204385,0.03803012942984761,0.03806537842295843,0.0377789007286082,0.03748260757342581,0.03715377600362354,0.03692298335154746,0.03677989782430428,0.036736400960702034,0.03678187494606056,0.03693231252503088,0.037139572565723124,0.03743125067738602,0.03758362911940947,0.03772047368509896,0.03752285339937711,0.037396045948731,0.03709584253681395,0.03699657603088231,0.03683920315430282,0.03685967685684832,0.03679623732125545,0.03686044700218593,0.03679912631553105,0.03685828096508558,0.03679388558756882,0.03687984071480335,0.036857503989137154,0.03699192670032488,0.036991958544284706,0.03707943395166901,0.03700049299342743,0.03692494459813922,0.03675194465167374,0.036583387513196126,0.03642486592890389,0.0363007451975628,0.03623362678988801,0.03621584974165723,0.03625851006533245,0.03635961323087691,0.03648276682345055,0.03665517385610518,0.03673032304635467,0.036836333390707084,0.03672741160526516,0.03670289528639689,0.03649129313358638,0.03643670993485506,0.03625976518350242,0.036242331276472646,0.036116778213869355,0.03612377574592202,0.036020872073807594,0.03604006620067456,0.03596003025448097,0.036015853487369485,0.03598680588713345,0.03611466194680801,0.036148195761945556,0.03632639012679363,0.036359496562798216,0.03644987781654048,0.036375937806733184,0.03627525025548362,0.03611349306743833,0.035927254262050276,0.03578731961816801,0.03564275332501079,0.0355791105968074,0.035518656665431726,0.03554349834632038,0.03558133278077956,0.0356977913532924,0.03583782017406613,0.03599777542878998,0.036175627509617274,0.036213141161499394,0.03627665903742631,0.03608172116068761,0.0359967468216123,0.035720643254901874,0.03561476444605753,0.03540543796404913,0.03535795807860138,0.03524026091659015,0.03527023221209488,0.03523628501250877,0.035356184610332554,0.03539485913569691,0.03559024687012729,0.035647304108661924,0.0358099896322025,0.03578507304743,0.035774331371343546,0.03564429841306318,0.035484343420766624,0.03532726236730931,0.03514645111422662,0.03503420561223402,0.03491985476779841,0.03489741869710396,0.034899812682544,0.03500020694504492,0.03514259955568956,0.035323954073159525,0.03550932841809387,0.03554618235162665,0.03555982774202569,0.03533590698145181,0.03520733741747791,0.03495076117626728,0.03486656173424827,0.03471690417501027,0.034728751944245996,0.03467184284981829,0.034757155924449314,0.03474918756376095,0.03487084141172248,0.03487367761508461,0.034983892319840816,0.034973676816196925,0.03502074521862634,0.03498184140061915,0.03492856928066271,0.034845150819650755,0.03470780040277289,0.034601369121143456,0.03445897593269478,0.034392190440771915,0.03432441726878445,0.03435035316051979,0.034397306400823134,0.03452013203092629,0.034655017585007275,0.03476860656608734,0.03486168059285027,0.03479976587530332,0.034762317805018,0.03456133034920554,0.03448216710271573,0.03429596675142845,0.0342613135097603,0.03413937835577911,0.03415660797776147,0.034084073725487656,0.034141489605760335,0.03410695751983762,0.03420214998703229,0.03420758919044487,0.034328744056618773,0.034361557412139636,0.034445633024529854,0.03444860181808919,0.034404053779993865,0.03432658434762047,0.03416500616869081,0.034049470271618275,0.033883104767624565,0.03381131583986322,0.03372224523631677,0.03374121036953785,0.033756914118810676,0.033872761645180424,0.033977366681691726,0.03412546770914411,0.03423726034130781,0.03427187027374264,0.03429289730754337,0.034151556749605606,0.03408647966433936,0.03387222403255362,0.033793774987775804,0.03361020349859271,0.03357275363737408,0.03346167254529088,0.0334963322745277,0.03347018020187061,0.0335896727394675,0.03363578747455538,0.033799742515404095,0.033854203333429776,0.0339422011409583,0.033924241535238625,0.03385428301251258,0.03376323776990195,0.0335982500823134,0.03349322625932186,0.03333333452049528,0.03326953941884833,0.03317969097508771,0.033201122486506085,0.033218512269816765,0.033343320550016896,0.03345783264976591,0.03360908257681929,0.0337084219754475,0.03370442172018745,0.033672869755577366,0.033490023565977675,0.033390389753612595,0.033188821357360926,0.03312571077046303,0.03299286278787933,0.03299932857213166,0.032944244316975624,0.03302171801788714,0.0330332281000907,0.033158903408164596,0.03320179995535508,0.033300390803400505,0.033312349862125355,0.03329652310171524,0.033244805150679325,0.033120930136942,0.033035475889913665,0.0328844008019448,0.032817094062008514,0.03270866790265358,0.03270218348568555,0.03267487815636128,0.03275056725899565,0.032807728038141866,0.032932308033902395,0.03301675013207944,0.03307615593920213,0.03309686053519948,0.033010565843691775,0.03295741425579701,0.03279125706858227,0.03272709642761831,0.032573433924986024,0.03254291252031208,0.03244087974911073,0.03246271903597196,0.032422901770566954,0.032501876258488424,0.032518815203039036,0.032629481106370394,0.0326706844627935,0.03274179371728045,0.03275542318156545,0.03272011778297907,0.03267942141649548,0.03255128202907295,0.03247812425961088,0.03232842644331035,0.032269881161179154,0.03216215605802266,0.03216036698788437,0.032128000588079936,0.032202267425548756,0.03224554861161842,0.032369325962558065,0.03244373550651244,0.0325261053489363,0.032560711756797804,0.032517302508990265,0.03248591352424406,0.03233971864877694,0.03227446600390028,0.032107281587014876,0.03205408109166008,0.031926709279368214,0.031922233992072016,0.03186357410334826,0.03192737997347935,0.031940627148523956,0.03205844148921105,0.03211286940402371,0.032213520215183956,0.03224807831033032,0.03224289250934469,0.03221697759121358,0.03209878324477859,0.03202711641531075,0.03186738023240769,0.03179722155181318,0.03166869542092382,0.03164803026366864,0.03159318309863096,0.03165153284746755,0.03167985402181268,0.03180543113144313,0.031878176109504115,0.031986004798810246,0.032022836017910686,0.03201057023440552,0.031977618907683004,0.031855191176749294,0.03179111372580874,0.0316388620881915,0.03158492900607317,0.03145923321220585,0.031443351020253495,0.03137478511185257,0.03141849647066588,0.03142031426917442,0.03152087948078298,0.03157370541348956,0.03167074686043257,0.03171189176714371,0.03171138627244682,0.03168935488198389,0.03157793817039247,0.031512503878858476,0.031365779307027594,0.03130808554216178,0.031191409882279846,0.03117706863055525,0.031118767864183907,0.031164159197154276,0.03116749630475738,0.03126307828078856,0.03130399350473763,0.03139826552364481,0.03143018479522537,0.031452663982992964,0.03144534443003594,0.031374643138946993,0.03133397620786595,0.03120770803606685,0.031155612009589603,0.03102561543479278,0.030990590261724335,0.030897640033813678,0.030906577493875844,0.030872437743700715,0.030935368997960778,0.030958208949952888,0.031050775400615547,0.031099954173969862,0.03115750695453141,0.031184992385248852,0.03114903242061909,0.03112794822986618,0.031009764837467153,0.030956513328709984,0.03081699170670468,0.03077048801548333,0.030661539641648805,0.030654959443080144,0.03060066492544854,0.030649123542729237,0.030648726186432475,0.030741139149804825,0.03077076383640179,0.030864291424655743,0.030890558268351295,0.030932123412530165,0.03093724338773029,0.030899730366439705,0.030876551137633098,0.030767662384691887,0.03071568714629204,0.030576632106934423,0.03052340118538695,0.03040930866675312,0.03039512276942,0.030341584018370366,0.030387843814777542,0.030399509695841778,0.03049199870582771,0.030542517970792875,0.03062402487710904,0.030667410810656662,0.03067043751677143,0.03067350132342145,0.030583570257826004,0.030544745054542907,0.030405355124647825,0.030350649061182795,0.03021894346456974,0.03018720762439358,0.03010342577102657,0.03012497705872883,0.030103198332879385,0.030183636624999798,0.030207679736337575,0.03031334056300246,0.03034028143900366,0.03040886327318648,0.030408589427150176,0.030405465881410253,0.030385271878159613,0.03031862942775658,0.030283449897670185,0.030172794778039552,0.03012337282324042,0.030003877646217605,0.029966100778095486,0.029882339497962276,0.029889894609045647,0.02986811860003614,0.029930926592697235,0.029965273221998958,0.03005009476652836,0.030100831990269496,0.030138296759046113,0.03015963447780072,0.030109248505533003,0.030091793030412095,0.029981086414784915,0.029944476769248433,0.02982096399135051,0.02978817103539977,0.029685078524852415,0.029677886336089983,0.02961435310050214,0.029648136419443017,0.029627717027840308,0.029700095929698262,0.029707436168828327,0.029791779973297475,0.029802151599084413,0.02986142271986302,0.029863797822577816,0.029874911612001263,0.029869434691393783,0.029822674400158847,0.02979819898459862,0.029697658782324436,0.02965030836592739,0.02952985262008583,0.029485773574550313,0.029390558209250947,0.029381535225595855,0.029336214728000923,0.029373194644792502,0.029376794825309093,0.02944490378897077,0.029481161083182574,0.029545787105430772,0.0295950053708491,0.0296152090428155,0.029652177884745265,0.029595992131922533,0.02958902637905386,0.02946243938184743,0.029413740326849794,0.02927093463234224,0.02922572933825147,0.029120818130659636,0.029119432988828048,0.029071836583060912,0.02912485472345923,0.02912149326858254,0.02920887076358219,0.029216120832046666,0.029299270884511657,0.02929441113556538,0.029349570961555924,0.029343780134460016,0.02936502464068481,0.029362939955004407,0.029328279613811428,0.02930116916312603,0.029199474195108505,0.029141059136648412,0.02901697824660294,0.028967639110704137,0.028878343200556014,0.028874489298756308,0.02884202453217479,0.02888655136753531,0.028899482195442337,0.028964139468813578,0.0289968941961544,0.029041976509666865,0.029078953067571748,0.029078700659990617,0.029109102537591795,0.02904868513877137,0.029046780053968196,0.02892884319135097,0.028890000393576917,0.028756660277761078,0.028719431144742992,0.028619768153026564,0.02862203479566042,0.02857357282304792,0.028623030368456433,0.028610336523252476,0.028685244286321493,0.02867673513610246,0.02874581097336595,0.028728166759230667,0.028782262720225715,0.028774333986671823,0.02881567411169893,0.028823908377128307,0.028823949530837993,0.028814228280150688,0.02874003574945024,0.02869176081149389,0.028572024741339186,0.028517155691818202,0.0284112032175222,0.02838697310306664,0.02832249508731182,0.02833562867481222,0.028306934880155926,0.028342380030128553,0.028337587241970084,0.028381799119240252,0.02840746264856214,0.028459002477442517,0.02852724057669752,0.02856158455087107,0.028632351305992714,0.028580173764934304,0.028577788842318513,0.02843051559763381,0.028369109016925798,0.028215392314310316,0.028171166807722317,0.02807231686386334,0.028080709075468564,0.02803734162070073,0.02809092056561195,0.028075338493370024,0.028147958531816838,0.02813219586302237,0.028204194145986645,0.02818614320201939,0.028257404836168277,0.028251590170562293,0.028310236479565383,0.028306276453614852,0.02830796937732409,0.02827616928831182,0.0282021366020328,0.028145834314815876,0.02803911692425699,0.027991538469304068,0.02790048828219404,0.02788233983723718,0.027823557214751285,0.02783353164037833,0.02780376782884385,0.02783113050428293,0.027827997337701898,0.027865083634000563,0.0278959936910361,0.027934497942483632,0.027997201043268412,0.028004039551237384,0.028056641848764302,0.027986648355377654,0.02798466996972183,0.02785288057807403,0.027817019553473064,0.02768687235191453,0.027664486707357383,0.027571180836199843,0.027580782445242157,0.027521398649785665,0.027556681809255214,0.02751497768936328,0.02756447667053712,0.027530495932012393,0.02759213978710948,0.027570158257205997,0.027649039105380885,0.027645386479693244,0.027729465204555128,0.02773222133717428,0.027778210742265816,0.027763685041379528,0.02773582468786722,0.027698741159790114,0.027610735249242534,0.027565230445052456,0.02745529734386582,0.027415645290515985,0.02731321604989121,0.027289867248771752,0.027211720373510228,0.027211815805089853,0.027166015886325678,0.027191946843539688,0.027184371963117467,0.027235635583977975,0.02727675471621998,0.02734562790899625,0.02743631891789804,0.02747949600184939,0.027566205723274183,0.027505867830938384,0.027510066794982423,0.027350159701106488,0.02729243781648646,0.027127852251148356,0.027084042333260335,0.02697237232527838,0.026977692053237825,0.026922269044673076,0.026976682156355587,0.026957777110870232,0.027043418644188518,0.027033175690272748,0.027125384723942544,0.02710572884350873,0.027185244623457925,0.027155092588428735,0.027200879920964427,0.02715936821462115,0.02714814597163026,0.02709445627469952,0.027031225266494735,0.026978180215047044,0.026896321062425826,0.02685988988347678,0.0267871549095623,0.026771973958780042,0.026718151461986625,0.02671903153483265,0.026685852649020562,0.026696656497257682,0.026690050629515648,0.02670917887864903,0.02674041966538666,0.026762613741110705,0.02683063509857659,0.0268300880023505,0.026902409217456954,0.026844673459366645,0.02688197836464518,0.026769873552541203,0.026771298814297823,0.026640493604552142,0.02662897137634922,0.026505588142011396,0.026498077608586395,0.026393800052307476,0.0264015535134175,0.02632218916324369,0.026352354984292586,0.0262975654559354,0.026352413290896826,0.026319407249948783,0.026403104982711693,0.02639433767616879,0.026513209188036572,0.02652646231054537,0.026655041961126162,0.026655816048798114,0.0267122706862108,0.026662784247113862,0.02660350150615262,0.026526786209391563,0.026407258206512556,0.026343811022129442,0.026222681809908076,0.026184773719649675,0.0260887789114818,0.02608146361889109,0.026028333335793862,0.026058897790722794,0.02606115985039453,0.02612482003912198,0.02618224067274845,0.026245045051578954,0.02633221319244505,0.02633170887293481,0.026393411943252242,0.026292803931316167,0.026293315093601846,0.026133291665365727,0.026101007064500414,0.025947243614622535,0.025929874662617043,0.025817753802543527,0.025841699409028928,0.025775151979655984,0.025841325037422303,0.025803140047148187,0.02589340355121056,0.025861198545168045,0.025955734257327123,0.025920972974899766,0.026005928293712795,0.025966256247918755,0.026016325934240664,0.025964482513261656,0.025956702074976058,0.025899928112487723,0.025846726458092696,0.025803138536799313,0.025728968442350654,0.025699989452238614,0.02561390535553787,0.025588684872691687,0.025498367250750775,0.02547699598000361,0.025401910929954027,0.025397097117800718,0.02535815985039678,0.02537913624205886,0.0253890564466334,0.02543401549467168,0.025502815343311103,0.025560493804432607,0.02569096178593269,0.025722164577161376,0.025863186289613493,0.025788171890688806,0.02583921642482124,0.025640294563888222,0.025591576949854578,0.02536479851039487,0.025306080839780237,0.02514299335952002,0.025147638375703614,0.02507638897493622,0.025164934007515977,0.025160189417571227,0.02530204576938149,0.025304549519179972,0.025446622092311643,0.025417609391602484,0.025523719628673825,0.025451476986224533,0.025469290315532026,0.025346848064841068,0.025270033810319267,0.025151269559111084,0.025072067244306207,0.025021285132584024,0.025001039021017253,0.025013138102726866,0.025031445048440713,0.025044806560832845,0.025056722502534347,0.02503176857745777,0.025044097795106676,0.025003164327443924,0.02504350024306146,0.02499442286242818,0.025040380547818476,0.024958193035312198,0.024981035306647668,0.024877742070798615,0.02489649336945681,0.024805602673181187,0.02484148615722682,0.024767153554521023,0.024827442115619828,0.02477471639970553,0.02490980855996839,0.024914494124800294,0.025211323328184335,0.02520923176517243,0.025498709281519025,0.025253114062441847,0.025173355750504455,0.024927295731809074,0.024776895226224737,0.024740208745037604,0.024635151120080582,0.02460860468306639,0.024429888178438556,0.024345241025154136,0.024210558166567434,0.024232214629399583,0.024289109906846115,0.02449195000377782,0.024716730691479165,0.024895610885404238,0.02503659137172766,0.024930642480507484,0.024930114593701355,0.024732258079329297,0.024705035797557107,0.024491646112956025,0.024443100453310305,0.024268382365139795,0.024329258242664936,0.024306065665528787,0.02456431141409883,0.024578525612540043,0.024769921954626108,0.02455169706304777,0.024454948200849386,0.024232790257003055,0.02414553060499643,0.02410179974753979,0.02409251702076433,0.024105580838499868,0.024074291573381437,0.024063537601120052,0.024072411134921576,0.024152652643970443,0.02436528656100019,0.024567588133248004,0.02484358143327441,0.02477696112669504,0.024714577836033657,0.024399427952197437,0.024264242460678508,0.024074402276443578,0.024053999199148527,0.02397374761384012,0.023982506653046205,0.023929926288950017,0.023908469727536172,0.023867743323573217,0.02380998103671807,0.023773904509946,0.023691031034280923,0.02366094972361509,0.023617123948794123,0.023657811563961472,0.023760810923274745,0.023930466978570958,0.0241555033364583,0.024246870047649187,0.02431529929685876,0.02412039450145458,0.024130352365485795,0.02395962240116031,0.024136579916281892,0.02403920416471899,0.02415939409877242,0.023944344127993622,0.023873344060854767,0.023641562229737057,0.023595637765944134,0.023487454991780912,0.023560860633422467,0.02356404514459019,0.02373369144983032,0.023772638536376567,0.023958385647192527,0.023912784509822545,0.023996927984451914,0.023814890178613428,0.023767221532742723,0.023538917317268874,0.02345283290066679,0.02328997051185652,0.023277292463318257,0.023229322048729146,0.023330549280645776,0.023356517469270074,0.02351017389759553,0.023500708862019493,0.023611387063651717,0.023530652533481695,0.023590122553990855,0.0234676982007375,0.023476060080025122,0.023320173542130784,0.023300751898088314,0.0231704652445232,0.02319697682805354,0.023133767675364264,0.023218514790613418,0.02317785820016329,0.023266042520874643,0.023199284705593785,0.023290416738590714,0.02321861240934214,0.023362478174607793,0.02325125477959169,0.023379900580634005,0.023132980244840493,0.023138636848154263,0.022848850528007798,0.022808041895226613,0.0226187763543265,0.0226197276365497,0.02253844852484659,0.02256629775329945,0.022547448237420845,0.02256812267344269,0.022613706132190558,0.022650872312429605,0.022803589068285394,0.022866234747024376,0.02304958491352293,0.022997467305820203,0.023028382587838264,0.02281584789854425,0.02277504582591589,0.022571960015280043,0.02258773944716525,0.022453724803881914,0.022519147161900895,0.022503614546008167,0.02271578626098268,0.02305430663445572,0.02351562655763744,0.023927552253178847,0.023633895501695736,0.023242097977699886,0.022626626825418186,0.02238062363017661,0.022196390824991103,0.02235446230496739,0.02256997042632847,0.02307651241883887,0.023281212199811142,0.023364880561417792,0.022976907383821625,0.022675734666144493,0.022431817996505135,0.022376311115122546,0.02241037542840464,0.02253550745900141,0.02264434888014773,0.022772080092456733,0.02276116453892448,0.022781133463851952,0.022628822998200637,0.022585834980311654,0.022391029794068935,0.022376063265339502,0.022250516363429288,0.022345711408691828,0.02233571379531269,0.022520899680024655,0.022506388592164465,0.022597705518439887,0.022445884147927992,0.02241701448971971,0.022260307786547993,0.022276738378051934,0.022207606004267372,0.022289405315798143,0.022237136485271054,0.02230450251610104,0.02221376359129556,0.022257122923819813,0.02216014139977383,0.02220922049776217,0.02210252582705057,0.022132370478776836,0.021993908399883424,0.022003892295033755,0.021876040253651717,0.02191458406414965,0.021843943280061517,0.021939704067614526,0.02195055271477969,0.02212279383157017,0.022259543857666528,0.022462819369474148,0.022631589717002798,0.022536472723505976,0.02248515016615175,0.0221251682915615,0.022016248071413086,0.02176117102105074,0.02177411852604267,0.021670717055519116,0.02180873542868033,0.021810050256591065,0.022034805000940932,0.022057822313127824,0.02222200727325705,0.02213902690477055,0.022103847739085494,0.021948370158140842,0.02183843364023762,0.02174693074372906,0.021701581240727047,0.02170162387323539,0.021728786063449156,0.021757258206727685,0.021811146938913378,0.021804219923298895,0.021868035211156166,0.02182157064328744,0.021888912312303558,0.021799638828681828,0.021833118297220497,0.021703990067881342,0.02171517535132359,0.021597975359055426,0.021640005053538507,0.02156766743181495,0.021656224034077798,0.021627129778496224,0.02174296504929418,0.021768549024698915,0.021844094513953662,0.02191374766621912,0.02181213640058301,0.021860410178239066,0.021642599993498178,0.021704428203275016,0.021563937813591255,0.02166329543894047,0.021551155460474352,0.0215782702949861,0.021415490735268543,0.021394208783891228,0.021271203023388533,0.02130388306749374,0.021251024020355228,0.021317476710804622,0.021265982179670087,0.021314622993059314,0.021261343003882962,0.021338822212103533,0.021341042125036343,0.02146957683109252,0.02147226357651345,0.021547129298544337,0.02145553576110479,0.021448288586168162,0.021308308372110302,0.02128556906297646,0.021133862143175617,0.021097154839547078,0.0209366891465299,0.020900565780406024,0.02076891293499517,0.020770456226270176,0.020679953825636203,0.020715123805505612,0.020635930501193504,0.020682173704017995,0.02060841098518056,0.020697296594717772,0.02069497618004185,0.020925470250673026,0.021068818032950885,0.021431977500573077,0.02149397639454288,0.021566575947726416,0.021263119875351004,0.021075636265490236,0.020831178002764385,0.020825571615996595,0.020859519100219385,0.02116079378390764,0.021363696107301367,0.0216656223167327,0.021475272220670215,0.02135411909840287,0.020955599471825907,0.020855591944091808,0.02068587372199256,0.020781411036752507,0.020825925105105343,0.02102629947620519,0.02109365492370455,0.021135724577223992,0.021027778236448403,0.02087623496519341,0.020774992309046888,0.02066757052292439,0.020733258026589423,0.02073841526684948,0.020930315537882303,0.02093211972181798,0.02105356342242226,0.020911203477761767,0.020888088654948497,0.020704600845794414,0.020691884538470397,0.020588684306364163,0.020652182151591536,0.020598897992110937,0.020676052577930832,0.02059046336990129,0.020624359493411862,0.020502523014878458,0.020522477600329627,0.02039997355695185,0.020427706699891204,0.020302767591785398,0.02032973774993535,0.020206739673930257,0.020244488985312475,0.02014987586835376,0.020227137090663,0.020192368921049933,0.0203573330929175,0.02043392888270599,0.02075087125523602,0.02090237211119206,0.021149400074149307,0.021041034397418102,0.020840744428490994,0.020606502355424654,0.0203714603563958,0.020311555889111675,0.020252846652722967,0.020363161969568788,0.02042611779677727,0.02057663151567838,0.02062575745232834,0.020612537837428467,0.02058670043497643,0.02041397633837868,0.020390314441577222,0.020223324151975638,0.020263426529112213,0.020180836601407667,0.020299997107776885,0.02029317538464227,0.020443440818413174,0.02041594776262998,0.020479556002132856,0.02038002642000086,0.020352383515852595,0.020269872055023785,0.02021749112881999,0.020172161183185235,0.020095208048009076,0.020056007073111125,0.01998592116124784,0.019968580798887667,0.019956439277951182,0.019958571857413065,0.02000165853954799,0.019983746270733817,0.02005852256801431,0.02001238214495754,0.0200985788673274,0.020017586893066843,0.020062939901845933,0.019925221452009634,0.019925256731081826,0.019785989988442346,0.019814672053023903,0.019747912947534082,0.01985755712686945,0.01990501840088751,0.020112619350713245,0.02028418380814052,0.020436404210920474,0.020525239414932787,0.0202903380659145,0.020187182664856546,0.019856620398316635,0.019810656893961606,0.019636125976162346,0.019723316218766225,0.019687504300177388,0.019882557805616808,0.019908673895029327,0.02009869054793753,0.02004083087879587,0.02006714690424703,0.019920916644380587,0.019852361353849136,0.019761851020030533,0.019723411868725643,0.01971379083656443,0.019706776494335464,0.01972444947511528,0.019724667972633277,0.019736153515486573,0.019745282544559196,0.019726032265120097,0.019735689861170528,0.01965289505376471,0.01965420295424354,0.019521430158562426,0.019531522644238027,0.01939272321281139,0.01942295133326164,0.01929768162002816,0.019340341450043274,0.019232930047428674,0.019283757067446873,0.019205906691074928,0.01927167995238007,0.019238468329601636,0.019326216189879692,0.01934836031480185,0.019466573017220188,0.01954267995436001,0.019687877164192638,0.019760416304289808,0.01984412785279295,0.01981224917785004,0.019753651448237635,0.019651237132906785,0.019629812682768845,0.019614635967842783,0.019807838782797522,0.019838925202403324,0.019980841020566905,0.019741481594819133,0.019612457900393183,0.01930869726558176,0.019254484209736102,0.01911413454697531,0.019201087092780934,0.019150878939588657,0.01927801349391387,0.01925495785787821,0.019408660442860305,0.01942479740871122,0.019589516098392133,0.019517099484076355,0.01953299690722918,0.01937853857777655,0.01933775393912767,0.01928920528287186,0.019333777180865454,0.01937344970317121,0.019449208274805303,0.019451699306977887,0.019454758924861894,0.01936074933524948,0.019283014702608483,0.019141546557347015,0.019080406908156204,0.018993275741622663,0.0190161996146797,0.01900376680257899,0.019073580573762572,0.019073892458587535,0.01912872014589974,0.019112381665401777,0.019157387395589174,0.019128806137572753,0.019160350573745363,0.01910144239191112,0.01911243623750465,0.01904607508003319,0.01907757511406176,0.019028797566904673,0.019095144354997463,0.01904539261887999,0.019135420914347945,0.019079275368870514,0.019179662713370925,0.01909560331791923,0.01915189507153668,0.0190024043400068,0.019009024473227155,0.018845413484969143,0.018866791284873435,0.01873628716046819,0.01877970703126981,0.01866867598870104,0.01871596404012672,0.01864036814712837,0.01872646922966541,0.018737382747970252,0.018892008415793225,0.01898240154440298,0.019100077200053002,0.019157938851447717,0.019061183043617855,0.019046649912579636,0.01882761143056824,0.018822113624919357,0.018639741307095798,0.018685902454366753,0.018590043082890837,0.01871269177948144,0.01870821888904393,0.01888809906040877,0.018880826593549005,0.01899140556849572,0.018890316466727893,0.01888932134977955,0.018785762403517026,0.01873961353033678,0.018679869823371897,0.01860766654141768,0.018577763710983932,0.018523538050087454,0.018532707697720346,0.01853458414401312,0.018554159013260654,0.018598950966691574,0.018581676314944257,0.018654330673197852,0.01859572201606707,0.018669764761074705,0.018563550177954892,0.01860328298682082,0.01847425464938419,0.018528215243864457,0.018459838708598127,0.018607119483402032,0.018646551363238135,0.018852663620459433,0.018926128822061957,0.018934224030756824,0.0189056049425371,0.01866165150385659,0.0186031001557067,0.018396105619436824,0.018427319445788116,0.018322263967736962,0.018420558219518168,0.018366458597969468,0.01849093690089719,0.0184522510959321,0.018559205647137755,0.01850371061768014,0.01854160640012858,0.018477771120074406,0.0184570195247352,0.018424533953418122,0.018378126356847643,0.018377913354996712,0.018315110006312738,0.018335859894498454,0.0182735340581588,0.018317239658637654,0.018265551637764416,0.018315949375964077,0.018266975462811433,0.018298212352420986,0.01826125115304202,0.018264341044108918,0.018257040358053533,0.018223699437642536,0.018241819890726776,0.018178098135729893,0.018215083227795244,0.018171042866545105,0.018230429445946487,0.018262792111686247,0.018319656885567297,0.018409125415409292,0.018378410673710238,0.018410517625960268,0.018263234885206616,0.018231645274987947,0.01807192283815648,0.01807989406426834,0.01796829690190784,0.018036975150348074,0.01795285035499901,0.018058346161630788,0.017996654443929765,0.018134863766219884,0.018098741727850146,0.018230106184944556,0.01815761531019601,0.018216874802535272,0.018085962088346293,0.018111892974235388,0.01798578903705186,0.01802310723600146,0.017911266006860466,0.017947619284245802,0.01784491257360429,0.01789510301774945,0.017816996950233,0.017896896545770667,0.017832875595852626,0.017932762873957668,0.017883356081563044,0.018016756533923314,0.018015750745858435,0.01818260074985663,0.018208258234619877,0.01830512936648597,0.018267118237761868,0.01819466593799821,0.01810051908166398,0.01795054527266241,0.017909795544427034,0.017809207012321714,0.0178587484453309,0.017804040686515653,0.017888925582261603,0.017833615704112883,0.017927369472738125,0.01788103610313262,0.017977307930918132,0.01792186918385161,0.017948032629004976,0.017875012429257677,0.017835898628073395,0.01781153186169349,0.01776653659764727,0.017797390336337895,0.01774008016719554,0.017791399596320097,0.017729665260106765,0.01780552207861007,0.01775067394751098,0.01783728921376309,0.01774716613022104,0.017817411609755345,0.01767664807376568,0.017736220271542615,0.017576821134401486,0.017621424071990927,0.017482444813816025,0.017509964792630076,0.017432447467138498,0.017450737894838562,0.01744925832050015,0.017447666277039364,0.01751104342719136,0.017488031330729077,0.017597355258301237,0.017558474843150103,0.01765799587904024,0.017573398088874977,0.017626675743181667,0.017510028824358058,0.017586503578183702,0.017506615229407992,0.017662495024045623,0.017646749138716316,0.01781794188342507,0.01781767167097023,0.017830209338754014,0.01776881997839569,0.01762641115560448,0.017553678116053524,0.017422274271395095,0.01741666859995918,0.017358149129474053,0.01741487708856336,0.017421677173349977,0.017493447740244736,0.017542288209791815,0.017566737986843276,0.017613274095484674,0.0175381558837979,0.017546378969438465,0.017404973855375018,0.017417764277602353,0.017292986315652445,0.01734763932406093,0.01725753253013346,0.017337188174728894,0.01726485044767192,0.017350274912813206,0.01728481629671414,0.01736407210165578,0.017292431334707415,0.017353968733780225,0.017280328217530692,0.017328414261520902,0.017270789851794643,0.017298951601356378,0.017254302133811343,0.01724107196370759,0.01720640095996429,0.017156645724275627,0.01714165120621771,0.01707422518105068,0.017078634930953303,0.017006399058966937,0.017027261469707365,0.016971026219758243,0.017021016392878164,0.017016885891957337,0.01713167997447161,0.017222072355309575,0.017435772431339393,0.017541722388514147,0.017695370771639407,0.017554622138193064,0.017449299609242123,0.017234336141607475,0.017113901242269327,0.017021151330811567,0.017035812449790782,0.017043556870913384,0.017183579919328146,0.017196798247029643,0.017355700936317324,0.017257007763798186,0.01729329886348538,0.017087122522032185,0.017058606350845287,0.01688924823440421,0.016925626406076203,0.016849993483201695,0.016958458095678097,0.01693029811451238,0.0170754163528498,0.017077849235412647,0.017236537578213678,0.01723905583296958,0.017247727169810125,0.01719516337533103,0.017054977167580594,0.017070112781747204,0.017000186309739714,0.017127040638949823,0.017085241981947382,0.017174505970067127,0.017063105792061047,0.017090621613964883,0.01697398292159713,0.016990377675183348,0.016892659945425482,0.016901115446948983,0.016836851227944365,0.016872749748030533,0.016845608164014956,0.016900950169657997,0.016865677999694847,0.016917325888280745,0.016878922743496907,0.016948654523980852,0.016926569041787066,0.016988748094885885,0.01695342904917271,0.016965125290472262,0.016927025567082827,0.01690153214993599,0.01689502148177322,0.016846634705493586,0.016891548435968733,0.016832799734131113,0.016929214500866197,0.016851201907693476,0.01694403531674138,0.01682746879655692,0.01687867277800108,0.016749622510233386,0.016787507301948768,0.016666593634189483,0.01670708173086701,0.016590050817429067,0.016634535507552776,0.016528546925755446,0.016584771576610507,0.016499925887783536,0.01657499240692222,0.016525018615646547,0.016645165907531095,0.016659266788351206,0.016853879259567946,0.016909598709512835,0.017073574842375188,0.017045607131501078,0.016988039465542046,0.016894197300414054,0.0167148599750057,0.016664734048805162,0.016533149339493732,0.016584318574722874,0.016551495720713516,0.016673320802099312,0.016693046993343088,0.016775884594117597,0.01680708826330597,0.016779136560032003,0.016785698657039407,0.016652336523202964,0.0166316012599474,0.016500903414858485,0.01652843542821151,0.01645750842405998,0.016527985163688273,0.016478189511845338,0.01655032571135939,0.016516315588044818,0.01658699393990046,0.016575247750118424,0.01660725455066676,0.016600442888229514,0.016580477174495675,0.016616287811329452,0.016590618590151485,0.016695246184635568,0.016663465376150828,0.016809139738414452,0.016769197749569354,0.016895930957404253,0.016843111827475672,0.016808620020775617,0.016715704119356696,0.016551740537221606,0.016486820593122224,0.016373930594591857,0.016381091870092148,0.01633721815286814,0.016348865779733445,0.016334084822873702,0.016322096054326503,0.01635472576570909,0.016330210561910252,0.016390484997156906,0.016326476577765456,0.016376795754310565,0.016296955815146782,0.01635771942577203,0.01628670110735341,0.016352513484744226,0.016273361866610072,0.01635113149954253,0.016297270972930364,0.016448466462239738,0.016450532317670512,0.01666986654602918,0.016659681852677397,0.01675515809414477,0.01665158023468833,0.01650329926967756,0.016399153646306886,0.016245665055638483,0.016254945407235988,0.01619280804737598,0.016270439829414673,0.016239181159301442,0.01631447802810208,0.016305742242232718,0.01636636664389696,0.016385971336120603,0.016382540515522494,0.0163987482713785,0.01631647574188439,0.01633978812849351,0.01622953405372669,0.016267145348139774,0.016154709529534513,0.016206148992700675,0.016114424572572637,0.01619308159383365,0.01612388906437852,0.0162144887136616,0.016145502763966268,0.016219567975585315,0.016152129275822488,0.016190224349903925,0.016137490194115013,0.016125612028510296,0.01610010758821595,0.01605750927961388,0.016073810700425302,0.016036821108324013,0.01609602564530348,0.016102486229560994,0.016197959559120192,0.016285619013422938,0.01635882165394295,0.01645650130669547,0.016372944459404983,0.01635313973516274,0.016184440841338656,0.016138411410581505,0.01603781094894265,0.016044530512570813,0.01603042065257024,0.01607059196894967,0.016112993361923577,0.016147493839163526,0.01620096065067635,0.016167986271160655,0.01617926099568556,0.016059999003949842,0.016049117626183215,0.015921953628979482,0.015945464867188775,0.015864065974081475,0.015927849734931877,0.015886508215056022,0.01596326980299155,0.01594857245467144,0.01600902436945997,0.015997896218109885,0.01600122545702003,0.015967230033568054,0.015916462791422434,0.015893356909144417,0.01584465348043828,0.015869845915060587,0.01584004993942276,0.01590529581147905,0.015884375754739773,0.015983007992270152,0.01597144127881295,0.016091348840783237,0.016063604840884232,0.016160569390604135,0.01609412592569196,0.016163739384103308,0.016068371125187657,0.016128275643541592,0.016001797916410515,0.01605235673309981,0.01591838529173377,0.015971854008384308,0.01585154504732199,0.015902925937354387,0.015788511837150996,0.015834355583162003,0.015730922155524844,0.015783456802487574,0.01569262822849235,0.015748625503141114,0.01566278296509736,0.015722061436650392,0.015646900495357042,0.015718737080445116,0.015652241397122544,0.015728775876935094,0.015662033558623712,0.015732861109043556,0.015678332095370725,0.01573794208165295,0.01571079518398891,0.015745910456040724,0.015758127497831592,0.015791648733206903,0.015866951948361394,0.015961798933640383,0.016057832716990243,0.016169879835548497,0.016109183415325336,0.016077437090875744,0.015888113200474462,0.015801875852061276,0.015672642830699975,0.015667515481620736,0.015636115031114454,0.015700790684845527,0.015711402021746274,0.015797007609148993,0.01580330705296312,0.01587806196426338,0.01584508373323288,0.0158564872379911,0.015772665607493287,0.01573339300007267,0.015655580753089298,0.01563962425543102,0.015595459746176064,0.015622938379695861,0.01559333164185021,0.01565765906612265,0.01562998163664556,0.0157161643568163,0.015667532160623387,0.01573248129550855,0.01564565466473693,0.01568374720682486,0.015589055514561304,0.015634730419652004,0.015551894423036543,0.01561939451391051,0.015550411296755147,0.01564841145216275,0.01559429053940995,0.015716264451728676,0.015657337329026907,0.015773090458269363,0.015701827033310925,0.015776372692009908,0.015702468446017803,0.01569302596057511,0.015635868811571977,0.015582874349278688,0.015586270292254146,0.015554947188261557,0.015607309098964055,0.015575174836220847,0.015619540987204106,0.015569397034965696,0.015592171351297727,0.015546800413841532,0.015540599412189984,0.015503806756638708,0.015468127257959258,0.015453063834387373,0.01542124725072309,0.015439084935180215,0.015426996208659432,0.01546617130650391,0.015474987412999686,0.015535570595331786,0.01555785902481031,0.015633873210235873,0.01561342908772777,0.015670497333389512,0.015578337431675167,0.015617198754199268,0.015509107846504383,0.015558332097758367,0.015463638242271777,0.015523923637345791,0.015433810585757435,0.015494649268310227,0.015403719568461254,0.01545654000381806,0.015361929735739018,0.015403926957916127,0.015310102950633082,0.015350593204929036,0.015265246229141785,0.015310020719135778,0.015232341283051424,0.015280336775066572,0.015209365418186354,0.015263595188018626,0.01520184483498636,0.015264883163025206,0.015210434419836582,0.015275660404851161,0.015224542814619166,0.015277764613665928,0.01522882007367296,0.015251791272061823,0.015207045176208293,0.015191871840570437,0.01515820074160272,0.015116517409415667,0.015099199487442722,0.015047574452371735,0.015043466920973489,0.014992270728239039,0.014994856015635839,0.014953679735237256,0.014961804554042583,0.014949114264936947,0.014978042202255664,0.01504656743535503,0.015159912265180224,0.015427100694213937,0.015667238488526972,0.015978789837986163,0.01590843684200125,0.015719487251966865,0.015430614513983122,0.015239887009021342,0.015190318946051884,0.015235920555077182,0.01543864382755832,0.015555050437436891,0.015661808406159446,0.015521376660490839,0.015409222455040736,0.015296962675836509,0.01528752876973582,0.01536983905203197,0.015434542754933068,0.015553486426813113,0.015483090230461868,0.015473847847027837,0.015292615831564563,0.015262463522076886,0.015147770769228288,0.015217738058085302,0.015209746831585007,0.015348344567755036,0.015321847869763698,0.015369190571787117,0.015257001885388902,0.015232316446093692,0.015168329862321379,0.015184869047794983,0.015204653082779122,0.015232807033956427,0.015264120340555989,0.01523823174123474,0.01524001360631216,0.015168400954192493,0.01516067248667633,0.015089512207486087,0.015108979557258664,0.015067172131430648,0.015118959569751438,0.01508154596571595,0.0151238868005849,0.015058798809731816,0.01508097743126119,0.015011885913318652,0.015041970370407687,0.014985722273956321,0.01502508795291713,0.014971652200257212,0.015013242311604011,0.014960089342056358,0.015002093870693846,0.014944909675661299,0.014981186163776477,0.014919589777749428,0.014956841100144247,0.0149012772072213,0.01494847135683872,0.014898610866395224,0.014954186671662865,0.014910208334530453,0.014986994200179966,0.014972101576834367,0.015109802510350158,0.01515858594298892,0.015394966115392221,0.015443709068711536,0.015646197813182227,0.015469614879816556,0.01545314165000519,0.015229055959707968,0.015159157366240539,0.015043005773803984,0.015020974616312638,0.014995037665808343,0.015045674574380689,0.015062267631043381,0.015160482533449555,0.015138359860143964,0.015237298362897625,0.015141585345386819,0.015208141257654661,0.015064321274108807,0.015097073303682098,0.01496305597235621,0.015008193855727976,0.014913815935298246,0.014981357890935776,0.014901657607821502,0.014971712060791955,0.014897441586883426,0.014969911591774798,0.014903467520268157,0.014958587268287625,0.01488520116388185,0.014906928656918754,0.01484024475917383,0.014857349723469611,0.014814235288501775,0.014847383844720544,0.01481986080985905,0.014876818215714262,0.014866291104813457,0.01495252353477376,0.014962016210996163,0.015046947518257149,0.015048799496294264,0.015084237564318332,0.015036540045001105,0.015016754168301881,0.014927751805001858,0.014890761829966733,0.014829460662297827,0.014815543743920873,0.014816926456814922,0.014815015987454534,0.014853885952641113,0.014831460829036193,0.014877547043395216,0.014831043461817059,0.014868039520218725,0.014805979083613766,0.014827225992776263,0.014768754628661685,0.014788229012888367,0.014759335687863057,0.014785949263769593,0.014799332185705064,0.014825354138271197,0.0148911414121006,0.014900636857860618,0.015007723830826825,0.014954996013072276,0.015036649183191008,0.014897225911456318,0.014925668642274868,0.014772946021094448,0.014805298147476732,0.014695381587510145,0.014749419143875453,0.014666060369055477,0.01472307633133596,0.014652863171921873,0.014716394995674353,0.014658120492261683,0.014724624980179023,0.014663653183226488,0.014717350975551281,0.014655889526626479,0.014690483303342557,0.014637827182336633,0.014643559404470369,0.014600910109095588,0.014585373049534561,0.014562350620363195,0.01455297681615722,0.01455376725696241,0.014570500585240707,0.01459292740313984,0.01465859553545591,0.014714607037834487,0.014838697311381044,0.014913130769578732,0.01499324011735147,0.014998179400345903,0.014908555432931125,0.01484982748689488,0.014712941006179718,0.014718896205374995,0.014647051005901085,0.014735997662106775,0.014679403451279157,0.014767616293976361,0.014676881996685473,0.014744052351171454,0.014647379046675565,0.014708035065020445,0.01461900109707999,0.014669260980026355,0.014617619979683496,0.014679605066532212,0.014685908029467037,0.014737495001145271,0.014751827386281701,0.014729549343663799,0.01471090281422326,0.01463321731430352,0.014613355167489064,0.01454318087259126,0.014553596383431126,0.014511149161394298,0.014550035288135728,0.014524678944999599,0.014572753106833237,0.014547250350638734,0.014581563925817073,0.014550630042169888,0.014565503096594908,0.014546343967082615,0.01455189638672666,0.014564588872877883,0.014561331183006749,0.014612205210728988,0.014587132270060447,0.014662886299089512,0.014599012934978832,0.01466953140389566,0.014573530652190185,0.014633792977864752,0.014538643839128607,0.014603408699682444,0.014516427823414859,0.01457746501647313,0.014490320283840242,0.014540766688350621,0.014461854966571153,0.014502725385889934,0.014434532967736332,0.014463016587409889,0.014405135241378653,0.0144308675195079,0.014385685827697583,0.014416797415283946,0.014374913689174436,0.0144092991885581,0.014364766611914177,0.014407464807568817,0.014366641086772965,0.014423566276663696,0.01439173186303752,0.014463525655989993,0.014448244795983145,0.014529926929367462,0.014532840632055828,0.014590073557458606,0.014598264856969493,0.014586881250703182,0.014605118876433303,0.014535875487115123,0.014582749753093689,0.014491667941154125,0.014558806461030024,0.014457501665194094,0.014521744707537315,0.014413558935656129,0.014470444953385852,0.014360831401363273,0.014415100411012705,0.0143068077227926,0.014362511159961086,0.014265222426038126,0.01433184639986041,0.01426182009628634,0.014349471142841198,0.01432462113586479,0.014433041969285333,0.01445829338661041,0.014540063009944298,0.014561666572693416,0.014531769743097707,0.014502240129351418,0.014399724271457418,0.01438219946017586,0.014297366901559742,0.01432416477985701,0.014260347660118982,0.014306093036247093,0.01425832914524797,0.014314949966444227,0.014295713021278822,0.014348497890054672,0.014348451447806485,0.014369880658197467,0.014381150824328818,0.014366550759775842,0.014387524990832247,0.014335991337724218,0.014358709270979122,0.014277407060418187,0.014306412036823426,0.014217477281850086,0.014259900567412352,0.014177750174171628,0.014232812257220787,0.014162917493410903,0.01422864559002107,0.014170868967698735,0.014243175031157237,0.01419139604585387,0.014262224333912063,0.014210582125527971,0.014267753559472985,0.01421616986248807,0.014246756571365747,0.01420332998092752,0.014207819208700552,0.014183351638635516,0.014177552360716427,0.014176778680327037,0.01418576540797084,0.014210505103189181,0.014265539172418172,0.014308851373001412,0.014417829591272713,0.014429460063208792,0.014522533756005384,0.014435680998734216,0.014445580171421989,0.014305837339616783,0.014288392467741376,0.014182603510955778,0.014195816765295414,0.014147664025099182,0.014198313459826339,0.014188128296120843,0.014252987021367043,0.014244671685680605,0.014284217471566508,0.014248619717998049,0.014239251642051245,0.01418436647159307,0.014149837106177888,0.014109271886089169,0.014086086170781047,0.014077351685357552,0.01407601222787339,0.014088786134615762,0.014099075730995843,0.0141116156187239,0.014120930896275292,0.014119976167889648,0.01412243776966234,0.014120011235166562,0.01412305669370576,0.014151497024984656,0.014160801658312946,0.014243786500440737,0.014242935704979547,0.014379200012010807,0.014340208393237464,0.014478620475974363,0.014374357055566406,0.014429535373960993,0.014270643643638437,0.014270162600862158,0.014129763583570806,0.014155480574184908,0.014061799946129154,0.014115745487061834,0.014043542541020455,0.014109359366904465,0.01405303091728206,0.014131682626502108,0.014078795790024017,0.014153529503056839,0.014087646989254597,0.0141590222969564,0.01409063762633527,0.014168689175898568,0.014094967597708102,0.014169195986643157,0.014088768201202908,0.014157164754732285,0.01408309671835417,0.014141421746888934,0.0140803992536631,0.014121516940584607,0.014081767924292676,0.014104886128500168,0.014084019617445216,0.014084152654628784,0.01407319357045476,0.014055335478211547,0.014052563827683332,0.014024332059484553,0.014024853622971956,0.01398890275722584,0.013991893474342907,0.013955512413127213,0.013964233999922209,0.01393028946255738,0.013942420570457938,0.0139102547293813,0.01392550432868869,0.013898000507169266,0.013917340266878646,0.013896058978105297,0.01391826593104372,0.013908973945641877,0.01393638676102269,0.01395347306491611,0.013984338351605586,0.014041678635779068,0.01405742539177238,0.01415278018757506,0.014117832715852974,0.01421535893964238,0.014118492742133084,0.014186695698790285,0.014068020436523018,0.014115853698427905,0.014003883748464988,0.014047675657265304,0.013947928939380242,0.013999908289665922,0.013904605437971467,0.013961728220234032,0.013858995140021379,0.013918110595422183,0.013811884298317105,0.013876447111352976,0.013771778215853367,0.01383842855558385,0.013736399036323175,0.013803325130425424,0.013710839711341325,0.013784704078859128,0.013711408905235846,0.013806235980402922,0.013767770739053256,0.013912542185955765,0.013923055933811119,0.014110011969017651,0.014108063751445455,0.01416381278705328,0.014074280547310828,0.013932959844053685,0.013859709481222024,0.013741228729635558,0.013768218322917272,0.013731026275331569,0.013813551214700154,0.013822675823449877,0.013917446122561383,0.013956232483014561,0.014015567769430458,0.014021944994808107,0.013981963831530796,0.013947034887591006,0.01386135366133855,0.013846897344552514,0.01378451502233578,0.01380905528286824,0.013795164917136848,0.013840234745519923,0.01386534118489107,0.013876440288424082,0.013901204718374326,0.013844623826153092,0.013855428464244073,0.013771343146058804,0.013794449936848113,0.013723403403514535,0.013770774510097276,0.013713928297437117,0.013776314061059081,0.013725140470775325,0.013797139285092101,0.01375296359998826,0.013839231507563839,0.013807798105172957,0.013912401743150697,0.013886448420415684,0.013989560124153899,0.013934854480802516,0.013995734166335936,0.01390718635839665,0.013927842109528125,0.013851010070817146,0.013854987618059377,0.013801035942348373,0.013792700992153057,0.013753315232723957,0.013749080357284981,0.013724222989098325,0.013733775215153428,0.01371440176040022,0.01373714135462423,0.013719256337689709,0.013760079228603965,0.013735630050177616,0.013787532238591464,0.013739100863529882,0.013795574499630116,0.01372630254702774,0.013789158452664702,0.01370784462562921,0.013769771334432206,0.013682535881493919,0.013742427853492138,0.013659504634834648,0.013719829165966665,0.013640692053954915,0.013697611116171873,0.013620556438707198,0.013675825821733665,0.0136034789943395,0.013658799213027865,0.013590095590934107,0.013645040489257168,0.013581772566326788,0.013639538641635997,0.013584108671037536,0.013644631615225073,0.013596064640735423,0.013658529026660446,0.013618849885037783,0.013683767167159216,0.013655092728745825,0.013716858265879364,0.013703173809864707,0.013747513588431477,0.01375317795662042,0.013750267296168956,0.01376665501858965,0.013699015573823584,0.013721443721046805,0.013621815373873428,0.013661272618948476,0.01356404490058088,0.013620931128757573,0.013530923818383387,0.013597393442646885,0.01351391595220633,0.013586656581127194,0.013508749703205295,0.01358294815821901,0.013509431427066742,0.013585220475846552,0.013522051161955208,0.013601141831883599,0.013550897798686007,0.013620009388802827,0.013583243251021677,0.01361933346028244,0.013601771242463909,0.013590836058537835,0.013598084276801108,0.01355144058797251,0.013585123316238233,0.013526231635630277,0.013581143306060504,0.013523335403316265,0.013593999878420355,0.013540852335920166,0.01362610194399196,0.013568603100087432,0.01365857632164858,0.013582300911230265,0.013655812325927684,0.013569524568450071,0.013610021983286176,0.013546915348296657,0.013556097799561604,0.013542225549267407,0.013526282556298478,0.013559489237858815,0.013515960059092906,0.013574891458097552,0.013505678711073017,0.013570451420749662,0.013484409112433452,0.013544131840491228,0.013448736121297083,0.013502968512381286,0.013407927692492556,0.013461561902238748,0.013377540054204995,0.013432993556764639,0.013372199220454574,0.013432060915635662,0.013409979549237568,0.013471952308049031,0.013493801581896546,0.013532592105547971,0.01357277602533289,0.013549829760294016,0.013573856376504241,0.013497470389852204,0.013516107086697501,0.013427896023200162,0.013463362678180915,0.013377483044183324,0.013430377207887407,0.013347475977571436,0.013412568636631626,0.013333315743569156,0.013401660595102772,0.013327837142601598,0.013396431329508348,0.01333303036358517,0.013402788322340401,0.013345265481451962,0.013410553929503282,0.013351817549849355,0.013407515877735466,0.013349801274718128,0.01338816538855827,0.013336176993006101,0.01334835958857098,0.013307901106993121,0.013297143543338169,0.013271752240460068,0.013251576253192692,0.0132401960310582,0.013231337168137978,0.013234499520880672,0.01326716922257533,0.013291486612174002,0.013406916590765035,0.013452434914686612,0.01364693584226739,0.013625741056350298,0.01373720195606103,0.013573919699490665,0.013560430781769274,0.013420654733948956,0.013421878605810086,0.01337554916741783,0.013397861062673922,0.013404145484361963,0.013432532334312535,0.013447028301178986,0.013457307211570528,0.013432096710703596,0.013413461422645533,0.013369257347286317,0.01337042793368672,0.013336226384729638,0.013372364479699245,0.013334987741528765,0.01339740748387888,0.013353971861465162,0.013432321788123347,0.013364045552405087,0.013431594654552107,0.013326766387526048,0.013387981617899284,0.013272156959097163,0.013335569235661858,0.013218109679454575,0.013275284276908786,0.013164766349067035,0.013225328888415972,0.013131716033402456,0.013204059076279712,0.013122940589321305,0.01320592046137316,0.013133186903193952,0.013219945150520038,0.013149039979202588,0.013224982869410054,0.013157271407979454,0.013222781850460372,0.013173534288503388,0.013230551194774773,0.013206366810043578,0.013243581602144163,0.013257455433558177,0.0132795853809419,0.013349617985595863,0.013360269852471966,0.013457245546873041,0.01341746069182879,0.01346703403167326,0.013352772090910011,0.013347545163943052,0.013228128744819816,0.013228765729117147,0.0131618085431734,0.013190766572273265,0.013166891294662378,0.013213179452232039,0.013207928495779658,0.013262800436042197,0.013250264920968716,0.013289826403299475,0.013253534506213,0.013267993598737204,0.013232219072384772,0.013234741210238841,0.013206587768326918,0.013190376638727132,0.013161580709877385,0.013133650207759931,0.013122255124677202,0.013099983014969929,0.013119031818943437,0.013102655212279036,0.013150666507769844,0.013135734492451355,0.01320086908874352,0.013174494357007205,0.013237386676418274,0.013181212424816449,0.013241967170081376,0.013146294795760934,0.01321787318456049,0.013096870173264679,0.013193214785682144,0.013081043306767428,0.01319980833925705,0.013104478857095337,0.013214270023418791,0.013127236689192679,0.013213587693996704,0.013133671427637455,0.013202766500786847,0.01312613950086538,0.013178658993420444,0.013107421607405433,0.013145737926288592,0.01308653511218403,0.013117007550987825,0.013075223294591569,0.013105379515571476,0.013085241067037238,0.013113863475336246,0.01311400790074741,0.013128324529698551,0.013138855114688482,0.013123023829742796,0.013127753389635146,0.013081725048960557,0.013082267515827292,0.013027862627794432,0.01304029840114765,0.012989365515886812,0.013019873627085572,0.012970734147079064,0.013022474082711963,0.012972718895445788,0.01304558976953776,0.012988426183317366,0.013073825720214979,0.013001839000062325,0.013088482720877951,0.012995654064560509,0.013074679493261503,0.012962086143932426,0.013037645335873914,0.012919096574072305,0.013000582808302838,0.012889108354369377,0.01298070164830802,0.012890593391796148,0.013000083105914573,0.012948978230984285,0.013078541904463031,0.013063555492647871,0.013179502978628337,0.013154402106868641,0.013194428506128097,0.01313597575731848,0.013097045891497251,0.013050069309432455,0.012978884224204765,0.012966921183179452,0.012903430164477907,0.012928564361997673,0.01289739365451117,0.012942105108067042,0.01294406579970283,0.012978809477549357,0.013006553808269218,0.013004026263016943,0.01302880136784194,0.012977520573271695,0.012992099911825525,0.012923791668892987,0.01295145040603604,0.012878958576911292,0.012916488455381072,0.012836521397027272,0.012881792610761292,0.012806569695743555,0.012859582598936135,0.012793173076028444,0.012846841514795232,0.012793278386929698,0.01284786853425249,0.012807062719448235,0.012856347084954292,0.012818524874407803,0.012858703344119461,0.012823666509126986,0.012855564054853184,0.012824047417237876,0.01283946356040097,0.012816820587924133,0.012813236884499563,0.012812115166992077,0.012789524283924054,0.012818595507634582,0.012783883291054765,0.012863226349756791,0.012841597935687083,0.013000324212356293,0.013002748454505891,0.013210790282432988,0.013152010259960588,0.01325704452509949,0.013081884882574585,0.013066130515318165,0.01290750298571304,0.012883449821425823,0.01279488235135236,0.012816247998794964,0.012791514988417811,0.012882158566568646,0.0128826245288681,0.013014776651176672,0.01297021274791493,0.01306840662949169,0.012931474408075346,0.012963053104507391,0.012807071224286454,0.012850588700524967,0.012749727598838924,0.012827335090246854,0.012761407715062442,0.012848609103666607,0.012805133133890936,0.012892185610047558,0.012847476337174065,0.012885670535417343,0.01282498398080576,0.012815364195381668,0.012782262458009216,0.01276046690726022,0.012758337820554357,0.012728320232821123,0.012748939722603117,0.012725522408856495,0.01276825011592916,0.01274465799262471,0.012791672412626602,0.012756533821396557,0.012807299388827473,0.012761105357157897,0.012809400657917972,0.012743988669834918,0.012785561944763118,0.012714203245683158,0.01276571386275499,0.01270368654313695,0.012779182603034123,0.012735962705601823,0.012846741451456485,0.012810892152997262,0.01292952919654397,0.012842856874513659,0.012924479188966062,0.01278189445106304,0.012842519887987968,0.01270581305848005,0.012768611649055421,0.01266390276664951,0.01272979552581726,0.012662798713155779,0.012730860642542315,0.012691862350367655,0.012741388401237931,0.012709728118301745,0.012726436896014461,0.012700083587560357,0.012691862974668679,0.012675966403095387,0.012652789558969396,0.0126536063721958,0.012623955120167034,0.012643750701352633,