{"architecture":[["Dense",[4,10]],["Dense",[10,10]],["Dense",[10,10]],["Dense",[10,10]],["Dense",[10,10]],["Dense",[10,10]],["Dense",[10,80]]],"Node_Indices":[65,129,46,34,110,105,59,24,133,16,84,32,2,74,97,108,132,95,111,45,42,36,38,68,103,61,120,27,89,14,104,118,100,5,101,79,55,127,98,85],"weights":[[[-2.0468955,-2.5659442,2.6324897,1.0225154,1.5136513,-2.2008836,0.9018521,-1.735488,-1.5000196,2.3361943],[-0.48334265,-0.73476744,0.270065,-0.35573304,0.084741235,0.43650478,0.27727762,0.31724077,0.5631792,-0.11510505],[0.384817,2.0155194,-0.23456366,-2.3533297,4.6367426,2.1900332,-2.982558,3.1090252,-1.7326413,-1.0037886],[-0.7497984,0.84476477,0.6868137,-1.1405891,-0.35920686,0.031050086,-0.6106759,-0.32800904,0.9197604,0.13229242]],[[0.71226275,-0.36564824,0.47666103,0.28786388,0.060341135,-0.11763718,0.20202102,0.81412596,0.7786473,0.6754089],[1.2168823,-0.7487153,0.04691499,-0.7373318,1.0477957,-0.30006182,-0.14955837,-0.24870275,0.88146037,0.41951612],[-0.662145,1.1940348,-0.20225914,0.6216904,-0.29238135,-1.0615304,0.8446196,0.82160676,-0.28557903,-0.41342556],[-0.36175168,0.31713438,0.6961923,0.44431284,-0.6058849,-0.46449012,0.85444117,0.70282984,-0.02650183,0.06297581],[0.32986456,0.86471,-0.843695,0.09617344,1.5824162,-0.75871605,-0.747406,-0.1916324,-0.27733362,0.07076218],[0.78785366,-0.8520635,0.19887078,-0.20177442,0.9686645,-0.4418592,-0.40513375,-0.34035698,0.17975363,0.61538464],[-0.2223842,0.48477492,1.4264024,0.5322354,-0.8931441,-0.9821607,1.4098667,0.23182392,-0.57058775,0.3801297],[0.7235998,-0.4081118,-0.13048442,-0.24372187,1.2964503,-0.7729205,-0.645746,-0.5424539,0.55420643,0.44620165],[0.36398402,0.20498917,1.2234858,-0.057459004,-0.14110066,-0.04732999,1.1896895,-0.31128675,0.6263377,0.5360335],[-0.46497494,0.8860662,0.034537,0.7077874,-0.5898377,-0.15480626,0.8819113,0.39138335,-0.2841625,-0.33041862]],[[-0.20001568,-0.42022672,0.6781134,0.52472144,0.6483763,-0.37726116,0.37320554,-0.60151345,0.3345069,0.2794832],[-0.6162782,-0.0020755655,-0.7062219,-0.6004817,-0.7286942,0.479475,-0.5904498,1.0040615,0.013395091,-0.7660071],[-0.05855671,0.6560671,0.35572305,-1.3564982,0.80711347,-0.7025434,-0.28348455,-0.33344552,-0.69664603,0.7541923],[-0.42159536,0.6278588,-0.23339932,-0.2964596,-0.42004243,-0.0862539,-0.5233896,0.44081885,0.058615666,0.03136416],[-0.21789536,-0.4782798,0.46379322,1.3805201,0.19698271,0.90675,0.45249334,0.09470009,0.9623955,0.6738205],[-0.0551254,-0.2638161,-0.252068,-0.07883923,0.19993204,0.4671001,-0.13045006,0.16695495,-0.042795446,-0.03423112],[-0.76956594,1.0338597,-0.1726625,-1.9135362,0.36819214,-0.071089186,0.16863598,-0.4061522,-0.4731752,-0.49454197],[0.06439043,0.3084779,-0.1275442,-0.81446606,-0.13392007,0.5258357,0.04296188,0.52527463,-0.32190183,0.16286394],[-0.4438119,0.28296074,-0.16630052,0.3923,0.3049399,-0.33417973,0.40829453,-0.007471803,-0.30385327,0.68905145],[-0.5780794,0.580375,-0.34626415,0.29892385,0.42126238,0.09009186,-0.4545619,-0.60283434,-0.28345305,0.037250116]],[[-0.034649093,0.38301215,0.0965196,-0.50133497,-0.43797836,0.45032603,0.32356742,0.03445706,0.21245342,-0.35152814],[0.046947885,0.051815137,-0.42211828,-0.17638122,0.20639275,0.2718472,-0.20680143,0.09397389,-1.1928073,-0.35496277],[-0.7447101,0.57861954,0.4539188,-0.8134351,-0.059218463,0.29128224,-0.105050676,-0.3670189,-0.1779715,0.5005314],[-0.41967252,0.12553471,0.82528627,-0.76539844,0.5241381,-1.4216958,-0.012625952,-1.7515545,1.1474353,0.42260784],[-0.26118302,-0.1726829,1.0715584,-0.27385288,0.514012,0.0075857164,-0.37994584,-0.06294372,-0.4795375,-0.4483132],[0.52192765,0.48042336,-0.14973788,0.29240596,-0.7035482,-0.3794372,-0.101868674,0.67035604,0.73121834,-0.009707408],[0.15712069,-0.27053836,0.83445597,-0.32581735,0.59714717,0.07846151,-0.6479828,0.13101362,0.46712533,-0.33948916],[1.1806755,-0.32425988,-0.6306291,0.4066557,-0.23734416,0.6650329,-0.24064347,0.9376253,-0.40696496,0.24564502],[0.6676995,0.0058162715,0.39653063,0.6154177,0.53639334,-0.49626115,-0.2377617,-0.027560344,0.6453806,-0.3452101],[-0.43812788,0.3446491,1.0540309,0.22643502,0.44046018,0.75030303,-0.3385722,-0.20648474,-0.1866194,-0.450466]],[[-0.10527385,-0.28673488,-0.1456454,0.79212874,0.4053465,0.53867304,-0.4329983,-0.025769306,-0.15893789,0.35270897],[-0.6413877,-0.55221415,-0.13032623,-0.49061656,0.0020435618,-0.6634923,0.39436355,0.41300398,0.06607662,-0.27197954],[-0.6335874,-0.3623046,-0.14012715,-0.6255421,0.14120425,-0.6748305,-0.19951476,-0.40542242,-0.47213233,-1.0220611],[-0.36591092,0.10923963,-0.29534635,1.0686529,0.35243005,0.029995007,-0.06416113,1.1710397,0.19023688,0.7598734],[-0.14242956,-0.3586313,0.27275807,-1.1906356,-0.07627103,0.18436979,0.27396262,-0.44415006,-0.30287308,-0.81319886],[-0.5608755,-0.3771921,0.043513313,0.29964316,-0.12321473,-0.22615546,0.45572853,0.5090964,-0.59455764,-0.0010598835],[0.28212002,-0.6236851,0.33181342,-0.1101352,-0.47275352,0.18626319,0.12522236,0.26011005,0.4505898,0.30387223],[-0.5051092,0.1763867,-0.047244634,0.08002379,0.5292402,-0.13832621,0.54785115,0.5649016,-0.18884675,1.1331735],[-0.68009645,-0.058698073,-0.26681075,-0.17424068,-1.0965958,-0.0008479801,0.42051238,-1.1428313,-0.6283785,-0.28455862],[0.3232967,-0.100417994,-0.62082225,-0.080341905,-0.48427287,0.38599852,0.062310517,-0.15789379,-0.34374884,0.29033002]],[[-0.053726777,0.31595683,-0.39306316,-0.22937766,-0.41280696,-0.108637676,0.48614797,0.28737894,-0.13728026,0.05794256],[-0.34279776,-0.056406945,0.47236732,0.1808836,0.5220705,0.05038525,-0.40855107,0.1080705,0.139767,-0.6427287],[0.07927301,-0.1300726,0.031722564,-0.7211908,0.5411929,0.3017986,-0.0025225054,0.13955651,0.5179413,-0.256114],[-0.43087813,-0.91940206,0.24067904,-1.1739366,-0.52285725,-0.9347099,0.05423176,-0.0020388593,-0.078032956,-0.36431623],[-0.06327678,0.07782291,0.4876218,0.32307264,-0.07895762,0.6252867,0.01694335,0.5205618,0.004871229,6.397376e-5],[-0.4898977,-0.07693072,-0.119795546,-0.5733761,-0.2643408,0.27169338,-0.3332724,-0.35772333,0.43521118,-0.44970247],[0.07945431,-0.65597427,0.33759323,-0.0120461695,-0.19958405,-0.20134644,-0.13688259,0.34765312,-0.0073107337,-0.12756538],[0.050118927,-0.84975755,-0.35830358,-0.8830407,0.31537905,-0.63377565,-0.27391988,-0.24073167,-0.15836523,-0.030437924],[0.16429438,0.095477305,-0.4192934,-0.016316004,0.48860142,0.20276079,-0.24948193,-0.21467483,-0.20825846,0.059003886],[0.49197224,-0.55183816,-0.6494232,-1.8401132,0.25306013,-1.7932583,0.09371469,-0.8039142,0.9915804,-0.4263724]],[[0.25869694,0.1751839,0.0070626438,-0.080792755,0.05733289,-0.05172096,0.18883982,0.19797194,0.21622844,0.07639114,0.2612589,-0.08603397,0.26573426,0.09055407,0.059130922,0.33545452,-0.124354936,-0.06029499,0.20851439,0.2559708,0.20534253,-0.042500988,-0.014029252,0.07524554,-0.15821695,0.29272565,0.17431879,-0.0099641355,-0.008542812,0.09949151,-0.0051170774,0.19073263,-0.016272055,0.13693032,0.02737437,-0.033523347,0.10987814,-0.063065544,-0.02709923,0.28507945,-0.05703888,0.26675946,0.16209349,0.35022578,0.00068149046,0.27211365,0.3665026,0.3170418,0.1781069,0.25767627,0.042260084,0.052343052,0.5428826,0.08352104,0.013891809,0.09816096,0.15694307,-0.007166215,0.11167388,0.2468365,-0.03481173,0.27927706,0.3083267,0.17408767,0.24361466,-0.092602804,-0.06409241,-0.08705664,0.057220384,0.2230487,0.06583057,0.1397114,0.31126553,-0.0017311247,0.3012092,0.023264306,-0.010243074,0.11864214,0.1518021,0.07025577],[-0.041996002,-0.027163986,-0.2454064,-0.35241485,0.11231431,-0.08046807,-0.030766027,-0.5452098,-0.06748846,-0.23462857,-0.11631265,-0.14029345,-0.24011253,-0.011509703,0.059711702,0.11999211,-0.32174468,-0.15069292,0.27335188,0.20316924,0.0013787259,-0.11871727,-0.17189407,0.015490011,-0.31220573,0.26391098,0.04800094,-0.09822611,-0.23230241,-0.25416127,-0.33272266,0.20028794,0.008474233,0.33852097,-0.12125972,-0.025804324,0.06430027,-0.17787066,0.18921539,0.060333807,0.16564445,0.10104099,-0.19810316,-0.031243728,0.13860634,0.033836678,0.0058259484,-0.044228166,-0.14316864,-0.18470572,0.35048673,-0.083974764,0.21267158,0.29128754,0.17935966,0.06387997,-0.061379477,0.22028333,0.19264176,-0.108630665,-0.07115622,0.12636074,0.01551141,0.4103557,0.13492583,0.18252248,0.09861693,0.19943622,0.32199904,-0.031304143,0.013250114,0.33646712,0.17489897,0.07010327,0.124779746,0.32360932,0.092782244,0.19097017,0.23136996,0.15468815],[-0.0010271143,0.2203171,0.005174662,0.46204433,0.1582334,0.10639756,-0.030672166,0.30138224,0.1277084,0.36556053,0.08792302,0.14675528,0.41747707,0.010665605,0.09464702,-0.100586675,0.24919808,0.39550152,0.030688928,0.120526925,0.06223719,0.31030455,0.39302385,0.098555334,0.24188231,0.18292652,0.014046371,0.28462797,0.07961946,0.33232224,0.2520061,0.3116711,0.40431565,0.20951356,0.2738463,0.18196037,0.19384395,0.21286227,0.20728117,0.10490379,-0.024144305,-0.09068313,-0.07057702,0.0460477,0.06823664,0.1199463,-0.15859847,0.1354903,0.05716426,0.03211618,-0.06666565,0.0447933,0.025039075,0.07205817,0.13605316,0.057292245,0.24630578,-0.03619868,-0.01262608,0.044725556,0.213645,0.17001747,0.08592348,-0.078609236,0.09678575,-0.017870685,-0.100811064,-0.0050245454,0.22967099,-0.07328836,0.13199358,-0.1638112,-0.06751208,-0.08990508,0.012398459,-0.028796017,-0.19354598,0.024270605,-0.18195412,-0.23757526],[-0.12333071,-0.26971096,-0.0045065903,-0.24286401,-0.1395855,-0.096616805,0.0660876,-0.15990387,-0.2965274,-0.27343237,-0.35574833,-0.18373352,-0.17473173,-0.1751945,-0.17808804,0.027874071,-0.20543955,-0.30229416,0.025787218,-0.023343014,0.042246692,-0.23032252,-0.20431964,-0.11183021,-0.094521664,-0.10676369,-0.27279478,-0.2803649,-0.22126167,-0.18416741,-0.24515298,-0.36812946,-0.26234305,-0.1874167,-0.17350574,-0.15062198,-0.16739805,-0.31928736,-0.28818437,-0.35438457,0.10114942,0.46178788,0.067025065,0.5619348,0.09175135,0.3136723,0.07842315,0.675399,0.4406353,0.6232431,0.25096694,0.46588272,0.6531129,0.05046097,0.22039095,0.08270007,0.36729828,0.2550799,0.12565233,0.02086893,0.03713679,0.65168756,0.6718002,0.20556888,0.44254032,0.19335498,0.20166966,0.16090585,0.19835877,0.46933284,0.44035438,0.15037163,0.40602648,0.26183102,0.33043426,0.111684985,0.25489935,0.32985172,0.4651503,0.22910762],[0.27809986,-0.17456137,0.24625629,-0.17490524,0.27409777,-0.062408,0.34298113,-0.4560086,-0.26404634,-0.32468706,-0.03040468,-0.1438605,-0.579845,0.23011802,-0.0028865044,0.1788646,-0.12237064,0.031020109,0.31059673,0.22485422,0.2755075,-0.30616385,-0.36810258,0.3405044,0.0033715963,0.30375138,0.08550746,0.17267998,0.027915638,-0.09076902,-0.12903577,0.18307464,-0.081127346,0.18897389,-0.0051330915,0.21148415,0.27490884,-0.035672683,-0.065554544,-0.0056917393,0.02077128,0.10155195,0.035494324,0.15386944,0.0016475683,0.114090964,-0.13317813,0.27039477,0.19660695,0.23467855,-0.011016571,0.14516158,0.14374942,-0.039462037,0.084013306,-0.004125662,0.21322995,0.018346885,-0.060942616,0.03536749,0.159571,0.25782752,0.24836546,-0.035751887,0.1565944,0.015212701,0.029658973,0.037202265,0.1426482,0.17123668,0.17653863,-0.09722043,0.08894998,0.07341454,0.07052399,-0.020794282,0.034819063,0.12920904,0.09744662,-0.05808814],[0.17308442,0.12985736,-0.013479137,0.064346276,0.04116651,0.036879614,0.0035390572,0.102753565,0.08617225,0.067219935,0.23459168,0.0288313,0.07092144,0.16130218,0.08871345,0.0014139964,0.033376504,0.14602852,0.007579484,-0.090669855,-0.09232757,-0.008101322,0.0038241697,0.1083471,-0.0145234475,0.08317076,0.1963697,0.1880651,0.13882141,0.08614636,0.114217326,0.18884955,0.079506144,0.056696452,0.04762473,0.13264903,0.10121486,0.1093547,0.041274425,0.22607434,-0.13374043,0.26868302,-0.047751587,0.42863265,-0.14525256,0.3295378,0.0046676123,0.60504085,0.3720201,0.47847328,0.11333325,0.32601294,0.7021943,-0.016029408,0.1976066,-0.09096099,0.3724668,0.1820548,-0.11000465,-0.019194141,-0.12164368,0.40534902,0.48265883,-0.10570282,0.29504064,-0.16415003,0.03971695,0.0145333605,0.14080174,0.29839084,0.30057457,0.02906595,0.28535557,0.019248711,0.3224062,0.03892875,-0.18706052,0.1930348,0.18102504,0.1177353],[0.27571785,-0.23037434,0.44681016,-0.23424418,0.35861325,-0.06011198,0.30787468,-0.23172542,0.01937763,-0.21859202,0.123055086,-0.084845334,-0.39792398,0.27173275,-0.018988814,0.2229497,0.025052221,-0.09946945,0.14704795,0.31232572,0.36265758,-0.12331627,-0.25432128,0.28455865,-0.021037944,0.0925314,0.19154686,0.008687586,0.17310014,-0.2744585,-0.06986543,0.16256544,-0.18282735,0.04821359,-0.01196625,-0.016850412,0.26490238,0.19692305,0.08167451,0.04798011,0.46446723,0.025016043,0.3198637,-0.14228731,0.21727878,0.021691306,0.13938451,0.09568748,0.23616491,0.08315924,0.0961717,0.010888029,-0.008348782,0.21540816,0.10324763,0.08311891,0.13801871,0.15785497,0.10905092,0.15431626,0.24425778,-0.11517648,-0.013010262,0.084671244,-0.004262259,0.21246853,0.3268239,0.3216874,0.1642253,0.2420821,0.0014784089,0.15970726,0.048142493,0.2987059,0.039163478,0.2863916,0.3747149,0.20586742,0.08974467,0.24675006],[0.1715287,0.26372534,0.044883896,0.12902957,-0.014955302,0.39530593,0.1794595,0.3173578,0.41115516,0.25088838,0.24729124,0.3776977,0.23898181,0.22301562,0.33944106,0.19032453,0.3053872,0.036979742,0.16999164,0.018770546,0.054601308,0.33515608,0.2783273,0.14771229,0.3161046,0.043400254,0.2734298,0.0311431,0.3113008,0.20496476,0.24264167,0.006918904,0.12347007,0.19514978,0.25806344,0.15374383,-0.039774086,0.23287733,0.29070222,0.21581954,0.054309864,0.02693865,0.05779,-0.14626177,-0.029149942,-0.19336073,0.10906351,-0.26420867,-0.15159531,-0.15856633,0.050649934,-0.13583925,-0.18227395,-0.0441853,-0.17317252,-0.030681215,-0.31253058,-0.015358777,0.030207364,-0.033268284,-0.13745925,-0.21810153,-0.18018925,0.13285609,-0.13511881,0.060424395,0.07727053,0.01715114,-0.2077222,-0.0024857942,-0.19282258,0.14352772,-0.003331318,0.09079646,-0.09485515,0.03115264,0.2202166,-0.05044868,0.12970054,0.17707783],[-0.074968345,0.13939743,-0.0054130387,0.2474305,-0.033955935,0.18086705,-0.04398882,0.26543412,0.1784933,0.2522727,0.034793902,0.22345456,0.26035658,-0.022134963,0.11862196,-0.060352877,0.24447691,0.1233246,-0.04904115,-0.02600132,-0.016479658,0.28316244,0.29336306,-0.02864083,0.23561154,-0.07209822,0.004163894,0.037023522,0.118738145,0.18161248,0.19081435,-0.020378731,0.17061703,0.031596325,0.17010419,0.048684638,-0.052969802,0.15538548,0.16258451,0.0076363096,0.07153711,0.016577486,-0.02803752,-0.026750924,0.024314579,0.0027168193,-0.054882206,-0.058565225,0.0068964027,-0.028186597,0.085850336,0.036572795,-0.10697455,0.07137399,0.06308346,-0.0104415305,0.010903832,0.07520086,0.013396704,-0.039543763,0.015907332,-0.016135536,-0.02626553,0.055322923,0.014533353,0.066650115,0.10348996,0.115036465,0.06907317,0.013870398,0.037701372,0.06685653,0.00010200869,0.09806832,-0.0020003964,0.09265707,0.03998888,0.04869516,0.04168147,0.08083223],[-0.077636175,0.09007005,0.075813234,0.20886351,-0.056422964,-0.14312576,0.0044205007,0.06603675,0.007816909,0.13875328,0.031100705,0.030546505,-0.062969625,-0.18217836,-0.07057485,0.0345897,0.070070855,0.11170681,-0.08928759,0.16777408,0.21592422,0.0036468524,-0.0006204139,-0.12949839,0.10599237,0.013036088,-0.14652576,0.059558805,-0.049329408,0.27037942,0.122496545,-0.018144011,0.03695462,-0.09001296,0.045364976,-0.03916642,-0.043684833,-0.01235616,-0.10476469,0.003580388,0.39257455,0.03910306,0.24875087,-0.11918298,0.32903326,0.2081182,0.35845143,-0.72572184,-0.099594325,-0.3606584,0.19651507,-0.054854557,-0.95217,0.5492755,0.23354506,0.2640864,0.017714417,0.08712712,0.37807426,0.32159996,0.2804167,-0.31790552,-0.41777033,0.48306167,0.027813869,0.33887225,0.35990438,0.38503554,0.31509134,-0.0648679,0.005860707,0.39627776,0.036359116,0.41029373,0.10306308,0.378373,0.21421616,0.10635406,-0.010446786,0.24003048]]],"bias":[[-0.016991902,0.9073384,0.46858582,0.2577477,0.34142995,0.45842284,0.6533234,0.5179608,0.7154405,0.2714992],[-0.026114602,0.3023642,0.47812518,-0.022851871,0.2863768,-0.48799118,0.5403969,0.34017897,0.1041106,-0.12494261],[-0.14646168,0.17480357,0.066344544,-0.13962863,0.037006397,0.17709918,0.054537233,0.16450965,0.1072848,0.10632199],[0.06271683,0.06535763,-0.093725815,0.30525315,-0.11943553,0.3813192,-0.10565449,0.39013296,-0.03938158,-0.07903481],[-0.13769366,-0.16298355,0.09283403,-0.0023030203,0.0327796,0.043821648,0.09804443,0.23925768,-0.12526834,0.31538218],[-0.3504617,-0.23135108,-0.14983718,-0.12740472,-0.059635732,-0.20604324,-0.09593679,-0.21016407,-0.31890693,-0.11077336],[0.22648679,0.07128695,0.5381389,-0.0030550566,0.44313654,0.08928851,0.23447901,-0.18044764,-0.07843027,-0.07169271,0.1139196,0.077578284,-0.13691476,0.27970803,0.095449574,0.37851933,-0.011906278,0.18533707,0.25533482,0.30470467,0.28442073,-0.048915625,-0.051779736,0.20092627,-0.07079581,0.18389647,0.22423305,0.2689092,0.115941346,-0.087745726,0.04713294,0.1557263,0.09124234,0.05587799,-0.08552858,0.23018771,0.41510707,0.11041436,0.094361424,0.16860217,0.11365422,-0.03102564,0.20525993,-0.007657657,0.25755915,-0.023542296,0.22287087,0.010867675,-0.023191847,0.005312852,0.12773713,0.15005334,0.06356764,0.052325632,0.12561068,0.29835233,-0.02798317,0.19811875,0.24306008,0.16516039,0.17689465,-0.07399795,-0.06287516,0.0018688694,-0.06341407,0.22704563,0.0962123,0.065263055,-0.055368554,-0.081048384,0.080670916,0.11750172,-0.02505111,-0.026085544,0.013545503,0.07179139,0.1639692,-0.029467888,0.03534044,0.13841487]],"Losses":[1.005777065873611,0.9111047101265523,0.8252057593094152,0.7447228546286028,0.6676313153922085,0.5937386136938333,0.5245764073138368,0.46270270664586366,0.41079249345351165,0.370111404290812,0.3380702287482146,0.30983720581531926,0.2834873766790246,0.26047556193948107,0.2432880282324633,0.2336347546287029,0.23115540135042528,0.23345222892219397,0.23744115174140526,0.2406641973339176,0.24185486388417807,0.24084646508805596,0.23814582475699098,0.23446718245912657,0.23038798586298673,0.2262217947167727,0.2221230191366363,0.21827744155412404,0.21498706120207822,0.2125779097727107,0.21118014159009654,0.21055824263940628,0.21024003292129606,0.20988816599069815,0.209483497049917,0.20915789276493035,0.20893223429282604,0.20865770834870692,0.208197639460751,0.20759688066014068,0.20703126903258892,0.20661600730485818,0.20629934969194494,0.20595779435356396,0.2055588232885018,0.20518473348534402,0.20491450013777066,0.20473028779387628,0.20455784956495401,0.2043686007233926,0.20420109378508244,0.20408905886491582,0.2040096348834209,0.20391971291573197,0.2038167641809835,0.20373428068331054,0.20368482677480002,0.20363616493858008,0.20355294360506476,0.20344210199566495,0.20334031249982226,0.2032677579753156,0.20321444384076476,0.20316955933555594,0.20314065408160173,0.20313491648499035,0.20313937063187243,0.2031337562469738,0.20311404035726235,0.20309037422909793,0.20306693826827832,0.20303693937904818,0.20299768414229485,0.20295873151307262,0.20293029834121354,0.20291170452704305,0.20289700377217515,0.20288573602199142,0.20288083309996413,0.20287996848645665,0.20287677232734913,0.20286909508029122,0.20285973772326668,0.20284975249277337,0.20283685649124897,0.20282073690408103,0.2028049448976901,0.20279220325966027,0.20278147596722876,0.2027710252078637,0.20276110707200476,0.20275194951103104,0.20274191924410292,0.20272969368806762,0.20271614061669246,0.20270242731832736,0.20268813243437497,0.2026725542202926,0.20265609842399102,0.20263911670362725,0.20262080361299956,0.20260029937677443,0.20257771691229298,0.20255325601248866,0.2025263985999547,0.2024966469718313,0.2024639761570349,0.20242800520335089,0.2023876831759471,0.20234210855604737,0.2022907126024656,0.20223254189227874,0.20216618043936355,0.20209023035420653,0.2020030469870808,0.20190219103748283,0.20178465874010262,0.20164716057988935,0.2014856914055962,0.20129527235323083,0.20107010194295433,0.2008032002095394,0.20048606835305421,0.20010933500167608,0.19966327510336798,0.19913763689533223,0.19852176157483709,0.19780514229890353,0.19697965457250047,0.19604304590724114,0.19500139995839152,0.1938743845004692,0.19270652370722124,0.19158026862167188,0.19062184066852417,0.18999108742196902,0.18981624680588713,0.1900540974453415,0.1906694909594542,0.19757214159178577,0.19456591581925775,0.19269192086859077,0.19160434376537425,0.19235054983213687,0.18881534879903428,0.19150596402630898,0.18852441933667502,0.18924072982496654,0.1897152470382709,0.18776780155973305,0.18909888223297763,0.18862118338838268,0.18766250962800662,0.18864645527620635,0.18794226361075028,0.1874092799863964,0.18804544522370076,0.1872948373029855,0.18699475562533235,0.1873193703288552,0.18657463360009868,0.18647782975925342,0.18655105247063153,0.1859252908173336,0.18603842517530933,0.1858561837524613,0.18545792349910412,0.18561594114711383,0.18524719002238382,0.18514626844130225,0.1851084084817031,0.1847511955085799,0.1847760413222001,0.18449067504424035,0.1843155376558144,0.1842076630513801,0.1838918976806499,0.1838142198796483,0.1835434987500772,0.18336861389782272,0.18321203259111482,0.18295371561895227,0.18283447641627992,0.1825829809767334,0.18241421936837685,0.1822066458302038,0.18196862344630832,0.18178447532315228,0.18151520435388654,0.18131993487724765,0.18105191602322562,0.18082837235957905,0.1805747895188105,0.18033116630310436,0.1800864339533936,0.1798255357501358,0.17957965002980897,0.17931055334863427,0.1790600684024762,0.1787855679041721,0.17853064202879293,0.178261387986787,0.17800638268623775,0.1777439518110458,0.1774891630146819,0.17723994726136005,0.17698773032516413,0.17675126032390245,0.17650796071996913,0.17628642552536838,0.17605901731444953,0.17584641956827016,0.1756417567512269,0.1754370017659552,0.17524751126135077,0.17505672754569992,0.17487179453130922,0.17469342551293052,0.17451098120581557,0.174332801514626,0.17415379828253802,0.17396887139347153,0.17378441134579872,0.17359515112778776,0.17339929153885864,0.17320184933641192,0.17299905871795837,0.1727910350314952,0.1725817981786656,0.17236872988982543,0.17215278267183434,0.17193661313267566,0.17171793372506922,0.17149784213926117,0.17127738731952236,0.17105446504792116,0.17083009141034008,0.1706038994557451,0.1703742791210511,0.17014188929078927,0.1699052893255512,0.16966336905583645,0.16941585500693984,0.16916080819320245,0.16889732504405708,0.16862414030480682,0.16833963102122687,0.16804302046318184,0.16773281027848533,0.16740808167637417,0.16706803614931368,0.16671110031012595,0.1663363680279983,0.16594253553395596,0.16552768289324085,0.16509058697095283,0.164629524988368,0.16414266315652085,0.16362857675026912,0.16308503654914858,0.16251112791785616,0.16190568939350625,0.16126834559420988,0.16059981894155012,0.15989960375158974,0.15917223258518065,0.15843526075723852,0.15793242201192892,0.15983322575008177,0.16334058355038417,0.16142908867547198,0.15689892518390366,0.16247784167655555,0.1541903042312512,0.1582294661766113,0.15207455267844638,0.15628426697782716,0.15117059781275535,0.15360528685413827,0.14907848539645885,0.15097236972201453,0.14799262603542124,0.14823154162742957,0.1467131103250522,0.1450061855199357,0.14539667467410888,0.14234873156974395,0.14369858430575141,0.14072662074120518,0.14065638709894188,0.13976637856954505,0.1376788161115536,0.13756312409894322,0.13592415041145886,0.13496339922444553,0.1337566948072184,0.1324351031669475,0.13238331303488782,0.13067304902758028,0.12874634959081402,0.1284746436677334,0.12711891694338442,0.12611301247479914,0.12741272844927062,0.13170488230260347,0.13631572282039967,0.138632434429657,0.12194900016208753,0.14044415349552053,0.13716457878457608,0.12796096340398458,0.14136109337091948,0.1211137925886205,0.13289314866489976,0.1209976538642212,0.13045201290242006,0.12120556252906055,0.12469821781427666,0.1204036248487661,0.12180029780526196,0.1208306927007515,0.1192254598181793,0.1203477178946111,0.11732738396526403,0.11978531583898777,0.11621293081470997,0.11906627066285984,0.11535993796069996,0.11773842750786112,0.11476111683926324,0.11668765816914374,0.11451441342928048,0.1153464538066396,0.11411102165614832,0.11411015116923792,0.11393881327021488,0.11299396856215284,0.11357890792609442,0.11204705973144062,0.11290727868718195,0.11157801699840156,0.1119414810235872,0.11144085930304493,0.11088627973213291,0.11115638208573213,0.11028252526761527,0.11034238470772752,0.11005191852496359,0.10953828174214807,0.10951783636088665,0.10922273591506526,0.10875729045560736,0.10884488391024333,0.10842553583607185,0.10810688385362786,0.10815383279835425,0.10774919121583856,0.10751701794139883,0.10744381018637196,0.10718989050369025,0.10695823178354015,0.10677323835860367,0.10665212163163211,0.1064665187605683,0.1062078446317489,0.10609044961101195,0.10598662529417728,0.10576752004008945,0.1055815907407364,0.1054567396926308,0.10532704800858426,0.10518678242685577,0.10501337100841618,0.10484125437676914,0.10472553226475317,0.10461551837735306,0.10446806174750602,0.10431662337665751,0.10417576121453795,0.1040327521005322,0.10390334895357543,0.10379087870675148,0.10367010694902415,0.10353509470928288,0.10340095369422649,0.10326695512469278,0.10312551541195011,0.10298536624131506,0.10285210870846159,0.10271956988267929,0.10258424054259065,0.10245286577490077,0.10233413113339174,0.10224020386959873,0.10221321491419191,0.10237949503286256,0.10310604843711987,0.10482127306474447,0.10781795956787044,0.10738961210264884,0.10380348788188613,0.10137014632291513,0.10176628662832232,0.10396138537464426,0.10470713912072939,0.10203195192452308,0.1003977656168721,0.10116198117527767,0.1023801870614397,0.10205216291987251,0.1004997987887494,0.09974672631166254,0.10023110155898438,0.1010315841995,0.10044779692537029,0.09923563748177586,0.09874702807232956,0.09909398987764112,0.09962296101044896,0.0993511075896224,0.09864933399654091,0.09794623085851958,0.09755383001268693,0.09757752752301439,0.09778419021503472,0.09800126580490902,0.09812089411052702,0.09825712361980593,0.0978544479049362,0.09735019084683617,0.09669564371561236,0.09617479565112307,0.09572496865588387,0.09534361605520003,0.09506892468090661,0.09484435142527262,0.0946240344311225,0.09437925452801507,0.09415818855572053,0.09399156837317943,0.09396145345572442,0.09432313915117381,0.09585079388898236,0.10044761614301902,0.1029820553698116,0.10023596825974344,0.09380488899832927,0.09389789541736279,0.09774195684443487,0.09761419298709624,0.09484241822472353,0.0932837090314951,0.09338403290736155,0.0940672497676189,0.09499350859569967,0.09283757769483585,0.09125320991926918,0.09250566022406251,0.09348588614807463,0.09157448276269747,0.08965828386262205,0.0910393604827377,0.09190554465010652,0.09039443140736204,0.08928146128608783,0.08966062828597153,0.08954060973376043,0.08907898175819444,0.08938551184600686,0.0892064831401849,0.08827923552271093,0.08731541827727672,0.08743440912375493,0.08771755971287226,0.08761767922891121,0.08735431387044583,0.08739959785505466,0.0874505346599439,0.08704883823777458,0.08640856997267042,0.0859784341289028,0.0859617910966437,0.08583285295751088,0.08563112175244571,0.08531844148558745,0.08534628597217353,0.08546903963033468,0.08578472608203351,0.08593742864920674,0.0859400518582447,0.08521237279709803,0.08453187193573315,0.08367825583356088,0.08298653032134648,0.08231439964037095,0.0817629029577313,0.08131721332411536,0.08095688603328163,0.08063699299844865,0.08036299822300709,0.08011268950046647,0.07993910073390663,0.07994495005764828,0.08056406379760667,0.0829956803564974,0.08789999779353205,0.09073907933377033,0.08289404707482075,0.07841948337285234,0.0800479688261812,0.08502360986300997,0.08508555594758385,0.07905827079017343,0.07720877382563965,0.07958109259042613,0.08257482477944846,0.07915012308531044,0.07619700382360138,0.07667622600038351,0.07893106356775241,0.07881801933108229,0.0760202546673803,0.07476718758944112,0.07585317690125652,0.07681105556977744,0.0760514130881705,0.07423468967734026,0.07364948791428351,0.07436376998528735,0.07491368279404793,0.07439533318282261,0.07311450433853171,0.07249773749748767,0.0727114540805807,0.0732899302512845,0.0735142453126532,0.07397777371194479,0.07622722953264822,0.08182216411013696,0.08316116397562438,0.0755945469386003,0.07112342502004229,0.07158815396721101,0.0750260404870782,0.07826894217871136,0.07618992647529646,0.07225666515449491,0.07047384216786477,0.0704744427503311,0.07202408949236036,0.07396964815171089,0.07282071159127011,0.07035734787010715,0.06861537911137658,0.06853520086517895,0.06943129745833496,0.07014417089184942,0.07066042109407739,0.0706255848945682,0.06985708954438005,0.06854156672182733,0.0674061002841182,0.0668109776216526,0.06665802179709544,0.0666933839046367,0.0667357096056697,0.0669629480079451,0.06763515702143305,0.06892237682484623,0.07012383842205397,0.07010725843477683,0.06843011836342187,0.06674875414804624,0.06564564357470577,0.0649640406365274,0.06456681707792555,0.06431393147944754,0.06420695775324786,0.06427222971980633,0.064587661359222,0.06535888371677934,0.0666379972330449,0.06824426183419327,0.06877511513154587,0.06725391036841537,0.06522376840790844,0.06368214784832489,0.06285452278583117,0.06244069744909841,0.062257645064067786,0.06220538455866381,0.0622970910267862,0.06269041074173116,0.06365353831695165,0.0655043901461805,0.06744532404025351,0.06726498272206852,0.0649776963798998,0.06267091296087497,0.061378212727629555,0.06079391023533063,0.060565429955661894,0.06053915288063344,0.06073870062870277,0.06139058139264227,0.06281566657683121,0.06503965903197916,0.06623753072248771,0.06472163415889902,0.0622938449218932,0.06054117802698559,0.05967122099398726,0.05925634400126995,0.05905157670965086,0.0589591194206959,0.05898703350973525,0.059243799821427204,0.06002965781721742,0.06190644572982801,0.064770310995478,0.06591926333024616,0.06340880915582546,0.06030533458278823,0.05861998965423078,0.05794431629197778,0.05778343883847897,0.0579546038482441,0.05861744782300237,0.06017449401117754,0.06266894096963542,0.06405224547566707,0.06228817008327262,0.059526588144914044,0.05786200817838497,0.05713152173172088,0.05683653152285991,0.056751715541291416,0.05685653143249508,0.057268600841441,0.0583378971249401,0.06032475317103842,0.062633704365558,0.062457929059204505,0.06009067150867669,0.05798208902654798,0.05680616933749493,0.05637663679404163,0.05627801642863537,0.05638669335699025,0.056633725262968185,0.05701150536175127,0.05740062259162498,0.05775915390805759,0.057875742966648054,0.05823837088728185,0.05870266094723517,0.06004504623122211,0.06108598520291342,0.05999642379155775,0.058513957905550924,0.05657565872607356,0.055479156083362104,0.05487475901002746,0.05462137962091949,0.05456919524677335,0.05464329293835733,0.05479654220360428,0.05498646208447017,0.05520226880165746,0.0553901799796411,0.05563272237102272,0.05600682510752659,0.0571943539315371,0.05902648320125752,0.06144100374602616,0.06117897163635483,0.05791480523391871,0.05580774865010939,0.054487068350543705,0.05387769749316586,0.05362845276637396,0.053692219515407376,0.05422517926013241,0.055670997256042874,0.05841600211039291,0.06040287142441975,0.0593225208560217,0.05640196707862853,0.05440157522293831,0.05360414766275666,0.053340034167692334,0.05328177364175208,0.05328315319413832,0.05333283801490008,0.05344986802764171,0.053853044179798464,0.05478201307892984,0.05691457641747173,0.059420738188350385,0.059156049322665376,0.05673834598031973,0.054195421567247576,0.053012247918059655,0.052542349049034286,0.05242471698364331,0.0525475033907122,0.05307325726040512,0.05435537135332386,0.056592432504519535,0.05862423525195759,0.0574505989564496,0.055011679777650487,0.05321138674858308,0.05238398314340745,0.052039667485536484,0.05188664076655307,0.051812987266212626,0.05178811858206666,0.0518218136586593,0.05197918145121377,0.052467898685532775,0.053689358368061685,0.05629452799816199,0.0583690824331736,0.057908181728094546,0.054763273514081286,0.05268804073890192,0.05200938902186438,0.052035749838879326,0.05245851748669563,0.053095149011143504,0.05400886116202,0.054581133364190924,0.055241008226260005,0.05496632231859838,0.05489125683631058,0.05501743025986742,0.05415430418841478,0.05329981773069933,0.052148453459220465,0.05143295594409955,0.05107522316724121,0.05103785034024773,0.05126620899268208,0.05176242840625013,0.05266305129234852,0.05371447991312373,0.05509818022632847,0.0551221965352635,0.05475031517723726,0.05403468459199941,0.05313241045803201,0.05250831901932792,0.051669589746016216,0.05106293146822619,0.05064301155619521,0.05047180886503801,0.050507232734692854,0.050761032731478896,0.0513579984478646,0.052381925862999154,0.05415056769577029,0.05513955973442778,0.055207953021269185,0.05375441117605289,0.05237762837471444,0.05168072619014884,0.05108627550657186,0.05065382067906967,0.050284744239680844,0.05009404267390905,0.050133066086473256,0.05054649632927727,0.05163900726413065,0.05376068272683672,0.05589531758681705,0.05558494205612446,0.05287192699171073,0.05094916030340915,0.05005643702955236,0.04979480745127235,0.04986406129909954,0.05023105826167797,0.051018288720654247,0.052579368445748155,0.05457571383785003,0.05482934545697942,0.05351532942269038,0.05140922959251962,0.0502314795984989,0.04965935344699552,0.04942046496161673,0.04935404562920307,0.04945335478455328,0.049811189705061286,0.05067485315926196,0.05239512295921417,0.054166587175325666,0.054816715065922374,0.052681242529708676,0.05071717507293767,0.04961957934655226,0.04917071242792541,0.04906888644512438,0.04913315854509946,0.049355560343356766,0.04987846885908587,0.05100155655778824,0.05247130535915295,0.0539861274265877,0.05324547265000329,0.05179347606208012,0.05067248441694181,0.05000821065448125,0.04984510398375501,0.04970392367675094,0.04957061606994863,0.04934518601048867,0.0491653926275701,0.0490316287561027,0.049013147891656686,0.0492241514254234,0.05001548026139833,0.05158405019976019,0.05365567888264549,0.05373163762270886,0.05196327286076802,0.05008717246855622,0.049021108792573466,0.04858145067675119,0.04842563811365045,0.04843299650850552,0.048608737307844485,0.049111308724492334,0.0501757025056298,0.052125978155199724,0.053366022923789426,0.05304242748983384,0.0510694097587173,0.049572102994829115,0.04899429111539861,0.0488330205798849,0.0489439851963412,0.049103664401103184,0.04936834759360382,0.04984656724599923,0.05085172256609608,0.05180282059883996,0.052542539832937274,0.051800227059465374,0.05040018432907875,0.049433092231067254,0.048644799964295875,0.04823892689027877,0.048009409418871565,0.04794162673947213,0.0480946716175472,0.04870314101760234,0.050024009531291574,0.05209122297540495,0.052644828409351904,0.051405476415996444,0.04952301521579613,0.04824451809251696,0.04763046741919396,0.047400194074138674,0.04739385788854202,0.04755198677778115,0.04795661338664305,0.048894149988078534,0.05069939999416351,0.0522585219779885,0.052333266759787965,0.050147500292007714,0.048450584565255465,0.04763544212070487,0.047300309150620876,0.04728686737133938,0.04756845041971638,0.04821603117709793,0.04930824833817657,0.05079230305460753,0.051517723774884,0.05117533700197193,0.049564725556662435,0.04861725919919588,0.04851493661341539,0.04861211577501418,0.04883248222783631,0.04855885088302002,0.04816692705587001,0.04765997049914129,0.04731586929052289,0.04728642163878071,0.047812109207397216,0.049073389294875654,0.05094437438013702,0.0515269279622692,0.05026237329687432,0.04857180653593037,0.0474117372746946,0.046861032849641625,0.04667872000225891,0.04668904031365121,0.04679584731138329,0.04693694806863359,0.047123698377936035,0.04736376813080505,0.04774646075803946,0.048287795400754965,0.04906464878533416,0.0498187124552528,0.05046266803342617,0.05015346441363852,0.049418513101814235,0.048662651028846,0.04787453467358214,0.04739960889972573,0.04696695110286925,0.04674949320570637,0.04670149037685664,0.046971768022453106,0.04777584658161595,0.0491779029777711,0.05077983441425486,0.050529951230953524,0.04906161057292175,0.047522233861547636,0.04664263627527738,0.046249456566273904,0.046118534861342826,0.046130486501877614,0.0462108037359958,0.0463682125399519,0.046596243972830166,0.047042721653821507,0.04772014935556602,0.04888224282676862,0.04990126892166401,0.050183129060914045,0.049480695352696086,0.048307399061716154,0.04753373836864141,0.047047093849019846,0.04677255929279257,0.04654437036559948,0.04637689911331826,0.04627019900632855,0.046313305440657836,0.0466169671446021,0.04745059607808439,0.04879958562080145,0.050189182421623915,0.04987904035915766,0.04840874146836541,0.047037398107540235,0.04620605099224254,0.045833574790014715,0.0456648600447415,0.045611231029727015,0.04560323393068111,0.045661696521350464,0.04578696279378901,0.04609512769549708,0.046700040170028836,0.047857980829812796,0.049286615272523954,0.05000492176362458,0.049306938082802815,0.04786803097283348,0.0468851830873829,0.04638943510566168,0.04622347965180149,0.04615641006937535,0.04615222049007459,0.046153639547116015,0.04624309233615244,0.04645599913533881,0.047030246233620975,0.04789615604386766,0.04900805855104799,0.04917831608845452,0.04837710183371283,0.04728372083663731,0.04633383119645633,0.04583757526904498,0.045528691057231147,0.045401626404653485,0.04533748824016151,0.04540229292727475,0.045607815075124986,0.046124180746246954,0.04712213785878507,0.04845173080227585,0.04938232482582194,0.048675365618788165,0.04732502779442171,0.04618106188152295,0.045548623115779965],"R2":0.9798446410700277,"Training_Indices":[12043,15373,3797,8831,14429,17779,378,16294,7955,1247,18501,1102,17841,4918,2752,1616,8075,2016,1340,16938,10829,8051,20089,47,14069,20488,12152,20456,12483,19754,7514,11715,1668,13528,15683,13621,14946,16841,18188,17997,10100,20537,1209,17249,2894,15408,19299,1972,20594,8930,16511,707,384,17607,11799,2250,13167,1254,19120,3466,13134,14539,9522,17287,11380,996,9615,2171,17476,4297,15312,16973,2475,8635,9373,16457,394,7820,12689,5896,5557,6876,14642,6521,14152,3764,9559,17831,10720,16059,6856,6266,13112,19619,2724,15136,15225,6093,13341,16897,6552,9020,3426,7018,4160,11596,18139,4934,14407,1894,14991,7123,1206,7980,15338,20455,18477,14541,13942,2117,7091,9332,8611,10134,18177,16092,3249,10560,9371,17148,2037,10364,8148,13128,6630,6631,14307,6973,8531,10108,17623,9296,9417,9721,5708,7745,5342,2547,2541,8379,337,14178,16317,16745,8614,4430,7877,4705,13997,7643,17817,17907,13434,13711,9363,1604,7383,19915,10170,19138,15290,10782,2600,7217,10094,15682,13394,5220,17913,10965,535,10336,13150,7301,20460,8207,20493,17981,8086,4026,10722,12698,20227,5155,10064,14633,17923,5400,7447,5850,4800,4166,14783,20586,13313,17681,18307,10195,8936,7294,18762,712,4592,8325,8397,10363,15051,1506,14045,18270,5224,10096,4366,19420,1388,15434,12912,1379,6703,18290,12447,15334,14221,5420,18927,19091,19039,17866,9766,1596,13657,9662,9771,6913,4323,7065,10636,16281,817,13591,18752,15786,19501,1199,11132,10917,1158,101,11323,18354,15449,1159,6546,8765,10822,16862,16045,9043,15608,1666,12394,7697,4151,3280,4445,14827,14919,7583,11228,12657,14480,233,8077,17532,9195,17019,12289,3661,9312,16639,8110,19109,7882,5106,19473,3454,5131,1992,4941,4807,16675,19403,4164,15897,12940,11053,5523,10950,11753,14605,69,7095,7040,8783,19253,14734,7549,6807,13797,619,5806,2459,6308,8709,16893,13616,11028,1339,7310,15677,16528,163,19775,18294,10499,13258,4299,14195,12755,19725,15319,6545,6222,8949,6625,3128,5434,10053,504,7638,20538,1000,10104,12177,9742,20521,12442,20012,1185,1982,11087,15514,18868,6534,15097,14798,9445,7357,18114,18789,18639,18533,4233,6020,10523,15069,7976,9073,12975,12393,7245,7096,19632,15393,4098,513,17472,14011,6247,4139,1348,14386,5672,17040,16276,14422,5905,12441,20356,1296,14282,6535,10983,14607,19049,2135,3387,20214,9010,15701,10302,19362,10462,20445,13149,5206,6782,5116,4009,18389,10838,12382,3373,14620,10429,8025,13611,6434,19391,8392,12231,1597,1950,15934,20411,6773,9883,613,1365,1765,523,9973,16852,12140,9932,10928,17680,12213,15951,5181,1986,11035,10455,2254,15360,687,12839,2757,3692,10682,13961,19361,2616,7581,1677,20497,4965,12931,3713,1739,7150,8631,8708,15188,672,9016,13427,1281,9431,7230,1146,17325,10328,2839,11573,20066,8290,15502,15134,6504,9922,8320,2598,5946,1197,8225,9906,4928,14266,17853,16922,540,1420,2,16952,19092,6269,11532,5491,2472,16566,16287,376,11997,17217,10086,14980,16440,18632,3196,12134,8594,10163,15238,15581,16732,7973,1012,4409,17956,11366,18001,15726,983,3826,837,15185,10214,184,3268,19262,13844,7429,3312,13101,3162,15770,18047,12640,1300,18740,19462,7183,20224,8840,18991,10469,5320,367,10516,9740,7460,4570,13084,12738,11662,4612,18460,2046,9783,1634,20105,1805,7279,4735,7219,12840,7732,14886,15250,649,16358,656,7665,19451,334,3880,18398,11123,14566,19620,6701,3125,16429,18821,1708,11482,13918,11679,2583,18146,9935,19033,9939,1756,2721,5120,3751,18393,4116,2172,794,1682,19731,7612,12953,19066,18878,7709,20367,6380,7017,6751,8326,12771,19579,13437,15727,15664,16014,162,6918,19131,270,13448,4812,1603,5769,6710,371,14966,15178,5527,3535,12744,15707,6430,14568,12320,9339,15598,4282,17901,7593,3569,18696,15468,17928,6872,9645,8133,9738,5456,16581,11502,18032,8399,3203,2704,15455,15028,15956,2173,6061,20256,12996,7143,2970,18553,17916,18705,13963,4827,16594,8801,16854,106,14512,7948,11535,4841,14922,20582,5652,16802,2722,17246,7260,11694,20432,3330,5387,10712,6437,13321,13005,15021,17781,1064,18726,852,18782,14883,688,11979,19745,3996,9628,16527,16349,12494,10825,536,20162,375,8942,4710,16254,9456,4063,11444,16736,17827,3979,5532,6427,572,7199,12949,17281,15425,7324,18220,13446,4584,15815,17631,7057,2484,14915,2300,13179,12776,1129,19767,5024,10558,11732,9630,9145,1104,6412,16558,10503,14256,11942,11925,16868,9362,19831,18647,16621,17207,11127,16509,19174,17621,7218,1239,5335,241,11014,8350,4556,2750,13078,15017,13964,1143,13569,18351,15002,11904,2354,15712,15303,5364,4293,18784,18575,2331,19111,11917,185,12217,11434,10888,14060,10797,5977,13922,3050,14399,19352,17450,4883,13356,10292,9318,18053,19793,10549,15439,3747,9014,5302,16579,7303,2410,17103,19354,2075,12204,16303,13534,14816,15003,17564,15337,4915,7232,2936,8121,17741,1620,2190,10994,11360,6808,11093,12247,11453,9265,13232,20055,16691,11059,13959,17299,5580,509,10804,13831,676,10912,19556,11004,847,12976,18594,20245,13485,14992,3168,9085,8754,1309,9367,11298,2553,16495,5922,5453,17765,5815,3374,5445,13392,11090,20099,1845,4464,7387,13276,14929,15512,20504,15347,6842,13798,10921,10383,3288,50,18072,17919,2622,1485,18160,13004,19251,5791,9924,8968,13990,19491,18346,16942,15190,5854,8591,10604,7471,20282,15445,6499,4635,13284,20484,10352,2141,15270,13843,10384,15200,9469,5748,13544,11246,8896,10553,10083,12983,5241,6786,18797,9260,1977,2433,146,9474,7867,17005,18733,16822,13560,16650,15055,152,1293,4375,7458,1825,9050,14070,17465,2889,1210,4466,20318,18113,2042,6218,19995,12409,12553,859,19720,8712,10527,4999,8905,16708,2325,20524,13784,11084,7286,8740,19597,9327,13275,6986,14532,17412,13226,9135,6229,19392,14138,5205,1629,1419,13807,9858,669,13490,9879,19974,3070,4611,3032,12947,13676,4613,18753,18920,10156,5060,16104,12697,2595,19245,7597,14928,13609,1223,6057,20048,11691,4191,16404,3461,14322,12816,10454,6501,19224,6278,13622,2140,5092,20029,16979,9119,10098,17634,19568,5149,2984,4755,11210,4537,10559,9624,11185,11592,12078,14218,13726,6966,286,4439,608,19508,17697,6468,12237,11562,13920,18509,1911,14751,15596,11883,602,3273,11952,4878,12262,6033,13700,12954,17290,11300,3515,456,15489,13523,5265,18942,10018,9442,12375,11429,8517,13848,2239,12573,18518,19242,5077,8656,4534,5955,2165,8865,13589,3822,6021,14611,18009,9605,19784,15753,16981,12021,2097,10807,14438,10981,5752,8143,5660,8782,17205,15849,12985,17160,975,17076,485,16132,13733,11114,11119,12392,8850,14701,626,20369,9481,17609,3285,2342,4032,1387,2627,5121,1211,3402,5184,1088,7148,15368,4127,15968,16272,18552,14223,4651,16774,77,13868,19141,7205,9956,100,12769,9262,3033,2643,13469,17337,11358,16102,16365,3377,7691,598,4129,9457,4615,9579,9634,11884,1405,14194,13173,2917,6336,16964,12174,20127,13790,11957,15566,14683,12973,8573,20144,11696,19249,11044,11545,1294,12176,13494,2127,3842,2108,4384,13774,11079,2797,18321,14296,18168,10342,18068,12125,20457,10891,4545,12710,17392,12870,14839,15963,19666,373,17910,6144,11188,6126,3276,2510,20126,17109,232,6482,95,13031,19179,4186,4972,12791,3683,15926,6590,16445,18433,17460,5096,9444,11835,11067,18531,11311,10777,13857,4696,15084,4657,11512,7127,19694,17657,6475,18251,6920,12978,16958,8444,11138,2230,12319,14838,5725,18369,9079,4241,14040,12571,19986,8874,8706,7015,16896,1579,17282,5620,9357,4158,13362,18645,977,19992,17018,9518,10980,17093,1534,7530,16311,9946,20199,14036,1713,7905,2669,18454,2796,1788,20477,7154,5938,10051,8244,18094,14538,6798,6156,1403,20024,10206,16510,8657,7047,8859,6330,10932,8131,17593,410,8883,20361,14131,7345,19599,5549,17079,13045,17266,19569,1516,11019,11037,12385,2596,19312,2213,6406,10081,417,8560,7136,15880,6452,11930,7642,18890,9511,11728,19860,357,7561,11029,2869,5943,9307,13691,20094,17390,3895,16844,3084,1482,4523,2139,18731,11321,16829,14973,11723,3397,17415,18211,4994,3470,11836,19248,16060,15304,1967,1504,18962,14509,13352,2188,15734,8567,13099,16086,15040,19085,1555,16636,12481,8633,19459,15411,14552,16002,12187,7489,2445,6220,5838,8305,11633,1747,11197,13880,432,14132,3538,10580,9996,12759,7899,11076,17887,10291,6623,2455,1683,17507,10820,12157,5630,7207,10360,6634,8498,5789,15841,14634,131,141,957,2474,20383,6836,9978,16262,18417,3784,3568,1827,12639,279,8212,19450,6323,10554,13878,4444,14202,20193,16870,4252,19531,17651,13163,16297,5713,3858,5887,10887,18377,7155,17976,5565,11758,15814,7984,9817,6955,3488,2243,3099,18298,18863,18671,3773,6828,15106,1988,14454,467,7360,234,15737,19588,8264,10713,14658,2214,8478,17066,780,11947,19103,8265,16182,18587,11497,17613,14977,5966,2380,11610,5011,14537,7718,7922,15649,1681,16588,13709,6679,8790,16490,5770,11517,7625,12584,20194,3630,15574,11111,12337,5720,8341,14747,7214,538,14556,12411,10414,6410,16212,9392,8303,10046,7618,15027,19332,6940,5644,14110,10957,14463,5012,591,15098,5307,4754,11908,12807,13264,3209,7354,9539,3327,19521,5036,4524,8726,10786,3250,15748,17647,5961,14022,15500,12945,6646,14170,16526,5894,12914,1418,8539,7069,7932,14351,12402,8039,1701,867,13512,15076,12374,5861,18100,4706,15130,9921,9521,17804,4224,19729,3738,20296,9903,3406,2115,18826,9342,16681,3044,2320,3884,260,3620,13893,13852,10281,17375,18276,19404,14983,7250,13158,3478,10677,10741,12212,575,3022,5711,3124,13688,12923,15546,18384,3211,2841,15616,12085,16826,3916,1752,16441,18981,16425,19805,5050,13184,13369,6714,14767,12617,19095,9075,6389,5281,10274,4742,2310,18421,4140,7515,510,8255,9735,18199,9413,13677,5879,15499,8269,7320,17589,17273,5633,20328,17288,13744,17016,10622,12545,19799,16976,9315,14114,4090,20471,17020,9951,15600,5262,3494,6661,11045,13145,19866,8301,8304,13561,11770,12172,3763,8119,5867,10132,13345,16719,3297,19788,9463,19516,3090,331,18536,19691,8351,12220,18746,10735,8371,8876,14400,7509,16459,10906,16750,1454,12370,2849,6993,18484,10315,10593,3871,11487,2446,9141,4876,14265,7724,14660,3031,18748,18372,15107,7674,10055,16881,20147,14865,18315,19455,15662,1737,12567,18326,20163,19674,2164,10479,1667,15111,4636,15117,3536,6600,15888,9668,14123,16329,2529,10524,4179,5100,5416,19322,8637,14526,11318,18809,2729,3762,4575,9192,14168,14711,4287,316,7609,16415,5658,10878,18368,16539,4919,16534,14806,2388,4830,14577,17085,17409,545,15833,19830,19912,5442,3824,15787,18446,15505,10977,4280,18949,19387,347,1908,15094,10299,18930,15081,5461,667,10989,9204,6026,7646,12894,17751,5574,2397,15779,10361,522,9716,15289,2176,10285,7006,11495,8470,2112,10702,17710,16190,16331,6832,10703,15488,17211,18040,17598,8302,5475,252,12227,731,16195,12959,34,9580,5136,875,1344,2821,9799,4489,20204,411,9225,9506,10689,12461,5870,11340,6707,12882,385,13406,26,9477,14161,18584,3324,3571,9334,18804,19989,12971,4003,6316,14698,13221,18806,7529,3543,14730,14341,16017,17973,1638,5198,13070,10327,13445,6258,17874,8868,12352,2976,330,18328,3202,2949,8729,7678,1912,16877,8532,14261,12533,8199,531,5763,18117,10444,13640,8377,1038,5266,11000,6192,16,2517,15827,19902,16470,1030,17530,19623,9880,2706,18190,9325,3665,18597,4637,16972,17439,5431,19394,5972,16776,4866,6371,18505,10356,8739,11160,19927,19656,14467,9110,7526,11546,12124,7035,15594,968,14263,20541,17286,8556,18922,9564,5835,2536,12412,181,19101,19382,1751,11379,1914,15091,16040,2499]}