{"architecture":[["Dense",[4,20]],["Dense",[20,20]],["Dense",[20,20]],["Dense",[20,20]],["Dense",[20,20]]],"Node_Indices":[107,95,69,67,126,98,86,75,34,92],"weights":[[[3.093346,-1.4273975,3.0900378,0.8343089,-1.5260086,2.1680117,3.7011845,1.2218686,0.65301234,0.8445447,-2.164635,4.1844645,0.01840474,3.5711114,-1.9500489,-2.1250405,-1.2055396,-1.4043825,2.6222022,-1.6757847],[0.7636282,1.0354717,-0.712747,-0.5363908,0.2815838,-0.43541062,1.0191035,0.30145383,-0.2876712,-0.0894375,0.021442313,-0.056036882,0.2768016,1.1395503,1.1149585,0.8294232,0.68499094,0.73706245,0.98495996,0.637889],[-1.365366,-1.4676167,-0.30168006,4.682586,0.09574665,-1.4066291,1.5066345,0.80343854,-1.5823464,-1.7955127,0.10052804,-0.2665313,3.2329152,-1.8575418,-1.7807083,2.5242615,3.5230446,0.18034469,0.62768096,1.6050967],[0.058537316,-0.4023365,-0.2005069,-1.133909,1.0695626,0.10130816,0.9544385,-0.2830653,-0.32210082,-0.503646,0.99508727,-1.2257409,0.9340298,0.40314597,0.4382118,-0.4973803,0.22065327,-0.04923782,0.813288,0.17176478]],[[-0.09805594,0.87898195,-0.6055662,0.037113767,-0.004578168,-0.06877253,0.33101514,-0.095278926,-0.67449766,0.87596667,0.4299487,-0.874376,0.12215801,-0.5887547,-0.07136171,-0.006957004,-0.51201856,0.10625047,-0.14387141,0.055533864],[0.098603666,-0.64432603,-0.35644847,-0.21416526,0.28831112,0.35718587,0.49702162,-0.19913879,-0.31285858,-0.5585762,-0.063125804,-0.5223791,0.044338435,0.38574666,-0.4485525,0.29277873,-0.088621505,0.18891047,-0.166176,0.714413],[0.09997762,0.5741553,-0.06736002,0.33387133,0.30899107,0.32944486,0.32029787,-0.08314983,-0.37964326,0.25856403,0.06693969,-0.6174045,-0.060560435,-0.002758493,0.41334268,-0.3564742,-0.2106892,0.23827614,-0.08365255,-0.44822523],[1.0762252,-0.48186013,0.25059116,0.48075455,0.022300597,-0.73790866,-0.75204456,0.70958686,1.2591388,0.046388425,-0.61423486,1.8514124,-0.07655712,1.1697965,1.150641,0.45005143,0.82785195,-0.48667637,0.045972016,-0.11947845],[-0.39580762,-0.4858858,0.15373208,-0.20776713,-0.48047626,0.15579112,0.19117118,-0.38954115,0.5995583,-0.55703187,0.41341206,-0.32261598,-0.21761696,0.2800249,0.0005909483,-0.045845643,0.38297153,-0.4507762,-0.28921616,-0.0017690461],[-0.48391557,0.12805003,0.039557904,0.41148192,0.13530403,0.39366704,0.55993265,-0.12335397,-0.44256458,0.45437348,0.50624776,-1.3035022,0.38823503,0.03169409,0.10382591,0.35667685,-0.4680633,0.1132657,-0.23193318,-0.2341662],[-0.122165985,0.7292701,0.1032527,0.63521856,0.04897439,-0.6402084,0.4388003,-0.16765168,0.11910319,0.63299733,-0.31560636,-0.15194859,-0.0035316958,-0.3289184,0.44196492,-0.33927774,0.19390197,0.26387432,-0.29342926,0.17788827],[0.24717706,0.32294562,0.17534068,-0.13483982,0.23326015,-0.19079827,-0.2393157,0.31014064,0.07795214,0.09239351,-0.20047344,0.27967608,0.27349174,-0.0987111,-0.10865866,-0.17023973,-0.08139621,0.21132568,-0.03658115,-0.19229074],[-0.40857822,0.087795384,-0.36734456,-0.19904663,0.1810112,0.5335878,0.26136497,0.30586118,-0.6455258,0.036580298,0.61524576,-0.9274637,-0.3926492,0.042291,-0.5142807,0.26140097,-0.22518061,0.15831615,0.30903974,0.083073705],[-0.29165447,-0.09108457,0.046700645,0.0052681956,0.14666207,0.7764957,0.5421446,0.088884994,-0.8485487,0.13843137,0.5581765,-0.5027594,-0.0057844687,-0.11466696,-0.4859923,0.04321953,-0.272796,-0.124681056,0.20701776,-0.21867739],[-0.21740344,-0.99682045,0.009592345,-0.255236,-0.3558439,0.09729404,0.3876449,-0.29647627,0.40677676,-0.8133318,0.1552406,-0.009146917,-0.36700562,0.5746498,-0.5173675,0.25564995,0.19988117,-0.05118284,-0.34806648,0.17532207],[-0.060499348,0.7028947,0.15669532,0.45117226,0.12841038,0.18119398,-0.2332996,-0.1235139,-0.84096766,0.5017826,0.27702862,-0.79512215,-0.13220073,-0.57379353,0.5078452,-0.11381245,-0.23981795,-0.008854277,0.023645578,-0.03249894],[0.030145299,0.16751583,0.39808178,0.087848514,-0.20475931,-0.5266427,0.14176755,0.05371879,0.8791084,-0.33494738,-0.19556896,0.9065354,-0.18503022,0.79553837,0.22839463,-0.26493347,0.37588897,0.19713882,-0.31291756,0.23802853],[-0.19653231,1.0459667,-0.311739,0.294536,0.41186303,0.52693003,0.17690337,-0.3848839,-1.1320548,1.0155586,0.23838112,-1.0889647,0.56108654,-0.84690106,-0.54650915,-0.2756982,-0.3523594,-0.13671467,-0.62417257,-0.05246574],[-0.19860171,-0.82466006,-0.31943706,-0.8412041,-0.23365535,0.6212927,0.30577046,0.15031391,-0.33601573,-0.79609257,0.24002331,-0.5993224,-0.21356337,0.20706864,-0.5847245,0.576201,0.4322006,-0.47313166,-0.37264904,0.63898534],[-0.01950418,-0.69301283,-0.0993154,-0.60826206,-0.14209265,-0.33929276,-0.4375357,0.4575455,0.54750997,-0.32429755,0.21794507,0.67969,-0.3577577,0.23974916,-0.10779646,0.57989895,0.18022327,0.01479407,-0.1424315,0.5094693],[0.08220803,-0.17119776,0.34805834,-0.30336642,-0.4531924,-0.16706367,-0.4016988,-0.09231629,0.9535431,-0.32069266,-0.0869617,1.6076877,0.09298183,0.7294962,0.021361303,-0.05809072,0.17525958,-0.20386797,0.006017965,0.30298477],[0.26574397,-0.20675717,0.13314451,-0.33665758,-0.48867607,0.52059454,-0.2205826,-0.10530981,0.15640001,-0.4646814,0.22658145,0.12903544,-0.44207343,0.09612645,0.039987136,0.3208706,0.24033393,-0.48347908,0.23841946,0.5585542],[-0.6176341,0.1996787,0.06744019,0.3722925,0.33949068,-0.14627676,0.40573987,-0.46039683,0.080790035,0.5565787,-0.38554692,0.28301784,0.40606856,-0.5866446,-0.084474705,-0.10378118,0.38980418,0.2554927,-0.10969457,-0.3481304],[0.096359976,-0.58645827,0.19315366,-0.3780616,-0.2820026,0.18663491,0.16334924,-0.24788058,0.799859,-0.67410576,-0.15273099,0.9490661,-0.32225817,0.68745863,0.3397927,0.35775983,0.3312943,-0.1093102,0.33283743,0.56807584]],[[0.36840048,0.34009472,-0.030418307,-0.22371145,0.31990442,0.23524712,-0.39914376,-0.10094958,0.05199843,-0.0876892,-0.4946494,-0.19173484,0.6129529,-0.38263127,-0.17782378,0.032635126,-0.35766098,0.15060483,-0.06135025,-0.19443901],[-0.013040715,0.16763635,0.3870625,-0.42151433,-0.008556448,-0.24583314,0.023144953,-0.10727392,0.097375475,0.22831279,1.2016816,0.109551586,-0.90061533,0.30115226,0.08418736,0.48274586,0.44488868,0.0305111,-0.36528957,0.8280133],[-0.022949334,0.20968574,-0.3908248,0.24323417,-0.3138238,-0.4862786,-0.05499584,0.05817377,-0.25023398,-0.0056033027,-0.16382565,-0.08099692,0.30451572,-0.026100904,0.24404408,-0.25386614,0.17323232,-0.34428734,0.092614435,-0.18857637],[-0.13088484,0.2835101,0.25158137,0.08792637,-0.3480772,-0.3371058,0.11434837,0.27001336,0.20539756,0.3544131,0.6034473,0.22487251,-0.12795155,0.14124106,-0.06611637,0.47894245,-0.06941186,-0.46417078,-0.028558427,0.04494917],[0.06975966,0.054767888,0.10404547,0.15230395,0.29203433,-0.3345295,0.3382007,0.20292822,0.4441205,0.07925171,0.4277329,-0.29518872,-0.33368868,-0.19862399,0.32035768,-0.13420695,0.21126795,-0.11349133,0.20989189,0.2657806],[-0.4868694,-0.14676927,0.044501,-0.034618948,0.21893585,0.45318586,-0.19441563,-0.27170148,0.024740238,0.67654955,-0.6824841,0.1310429,0.5508721,-0.35055527,-0.18736362,-0.5836981,0.16413131,-0.17935356,-0.35415894,0.064847484],[-0.38183668,0.27082795,0.2581298,0.28008842,-0.153669,0.37025887,-0.3812167,-0.33964255,0.38159722,0.3284996,-0.19722015,-0.23218904,-0.5247473,-0.05769073,0.3264993,-0.21421218,0.2232631,-0.15406603,-0.28420213,0.34577423],[0.17171562,0.07198447,-0.045976214,0.047439147,-0.19155943,-0.12048947,-0.3099928,0.051971857,0.4271961,0.09285839,-0.37469622,0.25863472,0.23763952,-0.12953699,0.3154713,-0.27845493,-0.32896715,-0.21441947,0.36198536,-0.090287305],[0.15315649,-0.34876487,-1.1813203,0.075835966,-0.025583323,-0.4269516,0.028194511,-0.4495207,0.1142676,-0.5034646,-0.8709401,0.14338335,0.07395271,-0.22997004,-0.6059186,0.08098397,-0.6620043,-0.43052444,0.35536763,-0.50804204],[0.15814489,-0.34944102,0.24607317,-0.08915069,-0.29883206,-0.37677518,-0.3257002,-0.448401,0.10039837,0.22052181,1.4856412,0.367458,-0.7885476,-0.08222521,0.11285167,0.5541029,0.29640144,-0.41595304,-0.36108968,0.8314065],[-0.47862372,0.06936509,0.28960493,-0.14568497,-0.24038453,0.46754435,-0.2604608,-0.22808874,0.4853329,0.2815662,-0.22867231,-0.20662166,-0.086577415,-0.1768148,-0.31401858,-0.47058398,0.11242471,-0.27212176,0.012520284,0.14079909],[0.37049174,0.19495717,-1.1342683,-0.1265701,0.0149929505,-0.2730322,-0.34337726,0.07726111,-0.6006659,-0.51153076,-1.0002592,-0.45901188,0.50363463,-0.24324419,-0.417934,-0.27190277,-0.6784746,-0.29254666,-0.081358775,-0.17098954],[-0.08717847,-0.12832823,-0.2503905,-0.4903162,0.21413448,-0.28052902,-0.031585757,0.11073556,0.026267106,-0.120167956,0.113415025,0.28938845,-0.37905538,-0.23666383,0.43238235,0.01888696,-0.07111787,-0.123965204,-0.14406997,0.26755327],[-0.19119638,0.06616755,-0.7993518,-0.23268862,-0.01622029,-0.20972727,-0.09071358,-0.0923033,-0.0047146007,-0.5927052,-0.8531176,0.23086336,0.5396445,0.12514678,-0.40556997,-0.075068206,-0.02137745,0.2362409,-0.0053083766,-0.375204],[0.39894074,0.5406353,-0.13563742,-0.20726316,-0.31248626,-0.3701461,-0.32416907,-0.24691956,-0.53900665,-0.47211194,0.38329673,0.08031075,0.3358782,0.35364527,-0.28667125,0.40019274,-0.19906817,-0.22009544,0.09470046,-0.6638635],[-0.23242566,-0.47576055,-0.2001984,-0.2944381,-0.077265084,-0.35716778,0.11809776,0.1208657,0.21919584,0.009222447,-0.6625182,-0.23329912,0.425872,-0.02896139,0.05418503,-0.6503487,0.36938938,-0.11409983,0.30213735,-0.058650654],[0.35838997,0.29849485,-0.5065626,-0.34096935,-0.5451016,-0.3811623,-0.15177782,-0.14630692,-0.46608692,-0.31128234,-0.5651246,-0.2511534,0.3292288,0.5028986,-0.110378265,-0.079681665,0.014169099,-0.4057975,0.28722566,-0.44006667],[-0.0049667954,-0.03510997,-0.20597269,-0.04612006,-0.20623548,-0.16511562,-0.056947187,-0.14277986,0.37656993,-0.13503855,0.13200979,0.32854286,-0.15487038,-0.03048097,0.34366855,-0.298555,0.2981927,0.23602222,0.2933461,0.17917876],[-0.062367465,-0.50290436,0.21529308,0.061429143,-0.0665033,0.062347632,0.19059059,0.08296507,0.08137935,0.08090778,-0.15744507,-0.0881617,0.40742087,-0.21964157,0.33491507,-0.23079157,0.29826143,0.036427405,0.11443836,-0.01243978],[0.32723436,-0.32137254,-0.45595875,-0.19926812,-0.35299018,-0.52135354,-0.36556557,-0.2827454,-0.10923884,0.076098315,-0.70215195,-0.38553208,0.37266684,0.44870093,0.11820434,-0.02025074,0.1554048,0.08531657,-0.0015334603,0.111973606]],[[-0.40864557,-0.2535645,-0.1560391,0.12593105,0.56387043,-0.17604455,0.43799913,0.51164347,-0.0056040916,-0.0352043,-0.34811682,0.44708207,0.00849273,-0.31042275,-0.27644008,0.12949292,0.21943687,-0.13439961,0.2821759,-0.49411795],[-0.23763794,-0.10754071,-0.3884501,0.2978415,0.07538679,-0.58629674,0.20572823,-0.38997868,-0.62137854,0.16100332,-0.24907994,0.022778481,0.056622557,-0.1397854,0.46408117,-0.42529598,-0.37141854,-0.22976321,0.18438324,0.15161715],[-0.06444713,0.62631375,-0.0048370687,-0.30441144,-0.39660484,-0.20726699,0.32332143,0.8403443,0.20674744,-0.3422712,0.23168017,-0.52185106,0.35347643,-0.0467077,-0.2062969,0.19057755,-0.41650143,0.108577885,0.3235136,0.16092356],[-0.13892366,0.3544366,0.16353013,0.29449373,-0.053053807,-0.062135782,-0.009505423,-0.47224668,-0.29473534,-0.14610472,-0.37748808,0.26904112,-0.16612148,-0.03844393,0.31833094,-0.023468357,0.1285327,0.19643216,0.18023197,0.22704545],[0.18834437,-0.14698878,0.25612402,0.03385277,-0.19496441,0.13934557,-0.30175942,0.0015076747,-0.6145253,-0.32389185,0.044576783,0.046709582,0.2824432,0.2734494,-0.4670192,0.06932179,0.17670612,-0.11927593,0.13982086,-0.23411459],[-0.13041833,0.3599169,-0.07089397,0.022577954,0.01049064,-0.43662313,0.18093973,-0.22149603,0.01797031,-0.2856904,0.3492739,-0.28867358,-0.14312479,0.24219926,-0.57477427,-0.12835093,-0.23412594,0.040095117,0.005841042,0.08221632],[-0.14480364,-0.2992033,0.2220476,-0.31446642,-0.4720587,0.02502255,-0.23952898,0.036415845,-0.24703573,0.11191541,0.34355736,-0.105685934,-0.013187367,-0.29455057,0.09766643,-0.019968068,-0.065242484,0.07241677,-0.29370028,-0.09891279],[0.2187713,-0.3141519,0.124709934,-0.05993675,0.07803739,0.17871034,-0.10028053,-0.14356683,-0.49482706,-0.4084619,-0.1182115,-0.13043062,0.123829335,0.16727252,-0.2640567,-0.35352656,0.05988674,0.34460354,-0.22334251,-0.027904622],[-0.34250754,0.03775008,-0.15474989,-0.24535614,-0.6644007,-0.66481835,-0.4206963,-0.37745866,-0.23741515,-0.28700343,0.23812352,-0.3355799,0.3581864,-0.29725036,-0.13532495,-0.33611947,0.033043224,0.11270273,-0.19570068,0.15749635],[-0.6859847,0.18129015,0.25673318,0.40372375,-0.51868635,-0.11005694,-0.022027971,0.10734618,-0.44320706,-0.29155502,0.27084532,-0.3579913,-0.24805003,0.14446767,-0.779723,0.13090645,0.2861577,-0.09311112,-0.22050816,0.2819013],[-0.51167864,-0.9979878,0.077403314,0.35431772,0.04166939,-0.41056544,-1.9694132,-0.22276221,-0.68004847,0.029991286,-0.91534615,-0.9690639,-0.8617265,-0.15919961,-1.5084317,0.07092038,0.46254066,-0.35482946,-0.19032177,-0.49646765],[0.044805847,-0.06481572,-0.18757193,-0.022033103,-0.5890238,-0.24436763,0.08849995,-0.14780337,-0.4927359,-0.21006776,-0.383317,-0.124956995,-0.2174295,-0.056182347,0.37679842,-0.1592386,-0.2719111,0.17288285,-0.29414752,0.13506554],[-0.019216344,0.041995715,0.14739625,-0.5348193,-0.23605199,0.12046342,-0.52058595,-0.99862784,0.04685625,-0.052440383,0.08072702,-0.8324277,0.06546385,0.08615717,-0.21343558,0.089191325,-0.46787387,0.056131374,-0.14477925,-0.12475808],[0.09375065,0.14413796,-0.055284753,0.029535197,0.003510798,0.2901025,0.5296651,0.047508642,-0.30745336,-0.24958295,0.26793057,0.04703065,0.02291039,-0.13232435,0.21718328,-0.53022116,0.20381995,-0.15890528,-0.17443685,-0.19530585],[-0.13243932,-0.34820122,0.20991285,0.12406476,-0.43446732,-0.29144895,-0.070753224,0.13862789,-0.14352176,-0.49723643,-0.2972337,-0.35770607,-0.27306905,-0.15708531,-0.21958295,-0.19579941,0.0010927115,0.2198307,-0.07786177,-0.07307584],[0.3010475,0.1445682,-0.14519146,-0.04711542,-0.24888869,0.15804283,0.30747986,0.46240404,0.012825088,0.097102985,-0.24573363,-0.051618647,0.059072603,-0.06283216,0.37579972,-0.12433189,-0.34173098,0.11441653,0.08837137,0.1454841],[-0.50808674,-0.21971855,-0.0042454605,0.05511718,0.1684496,-0.6686157,-0.68992776,0.0071572247,-0.1972656,-0.12809882,-0.18203318,-0.14650436,0.052659977,-0.020192701,-0.14708109,0.007949314,0.24783039,0.1291183,0.21329272,-0.46717498],[-0.4914537,0.19967292,0.33103693,-0.23029868,-0.44854307,0.1649185,-0.21424767,0.11090517,-0.08435172,0.13967986,0.29577118,-0.16901787,0.40915748,-0.33508143,0.22055323,-0.18171236,-0.4337406,-0.19994819,0.35208082,0.23173966],[-0.042168394,-0.10368887,-0.39171028,0.0666101,0.13733046,-0.40067494,-0.001974405,-0.54826075,-0.2164169,-0.23251016,0.2742173,-0.30330434,-0.13601676,-0.3619464,0.078982376,-0.22906113,0.15770417,0.090087086,-0.3462308,-0.42326537],[-0.37832078,-0.14600292,-0.37396333,-0.20063402,-0.4017662,-0.6759314,-0.97019684,-0.046289172,-0.33907086,-0.6691557,-0.23515703,-0.387527,0.012137582,-0.024089793,-0.23966734,-0.4130596,-0.50777674,-0.18354356,0.16006753,-0.19203462]],[[0.15270011,-0.0821398,0.106117025,0.3726039,-0.017626066,-0.049743623,0.28282568,0.38538125,-0.2993725,-0.4671774,-0.13941187,0.24327944,-0.039725598,-0.5044083,0.10660149,0.20397656,0.45343858,0.42610985,0.3772029,0.12853633],[-0.07156898,0.06509243,-0.38325343,0.16978367,-0.17861395,0.015841737,0.01678468,0.22939542,0.28456298,0.4610132,-0.3863371,-0.09614153,0.16631147,-0.012218228,-0.19752248,0.4415668,0.3919597,-0.17796326,-0.03035534,0.15566295],[0.35550433,-0.2559757,0.38258088,0.4970498,-0.09411912,0.21597609,-0.09795275,0.057915013,-0.006623666,0.2863018,0.026879327,0.28314042,0.09787236,-0.14997423,0.07213844,0.20121068,0.30659992,-0.23056822,0.032277547,0.10201925],[-0.089410596,0.2496568,0.13461152,-0.053176396,0.26412818,0.24105822,0.02505088,0.04811448,0.40037712,0.25401387,-0.029530926,0.16811503,0.31721509,0.13532162,0.24490443,0.3202803,0.38617274,0.29000738,0.31365514,0.045983672],[0.049606077,0.020863524,-0.280738,-0.18184678,-0.041870624,-0.22893265,-0.0721009,-0.16457897,0.19202328,-0.15670365,0.13380495,-0.3442188,0.097917855,-0.01656921,-0.28238964,-0.31500667,-0.014886136,-0.03732465,-0.55779034,-0.40422916],[0.29726288,-0.34878698,-0.10864455,0.043414943,-0.4196256,-0.16835913,-0.36198613,-0.25209898,-0.59887433,-0.094081655,0.0640325,0.29542935,0.03515614,0.4145522,0.43950686,0.21938068,-0.040770967,-0.07169651,0.13608567,0.29480276],[-0.15899567,-0.65983784,-0.25611183,-0.23587301,-0.58368814,-0.6219558,-0.5036343,-0.2862811,-0.8976037,-0.65829843,0.07234637,0.42285448,0.2528455,0.20631249,0.37170613,0.35716832,0.26559955,0.25615993,0.54016525,0.40042982],[-0.071414575,0.14597005,0.056992494,0.027072972,0.37931162,0.25823897,0.6836279,0.3700037,0.15160349,0.33664072,0.11855522,-0.14973542,-0.016085105,-0.010152574,-0.17844173,-0.426718,-0.32850325,-0.20633307,-0.2540865,-0.011915574],[-0.1663856,-0.0528681,0.23344968,0.15396821,0.04797147,-0.22469619,-0.09595495,-0.13402991,0.34399483,0.013073819,0.07021517,0.61263824,0.4972424,0.13613479,0.038959336,0.1387081,-0.12451588,0.074426144,0.3252581,0.06697422],[0.13739035,-0.19678724,0.48299193,0.20525736,0.1507214,-0.23765686,0.22292997,-0.1513164,-0.24410713,0.29127273,-0.038811997,-0.077344224,-0.11033218,-0.11842753,-0.029517101,0.17959043,-0.24527575,0.039882928,0.047910336,0.40614238],[-0.038436048,0.39086893,0.034405056,-0.22309332,0.309951,0.30658963,0.14088303,-0.058710184,0.29392025,0.012426963,0.14973696,0.18805508,0.004607534,0.17046481,0.39303166,0.21548183,0.15964276,0.389759,0.37584874,0.44809702],[0.13891838,0.14335191,0.021601295,0.39777958,0.021184726,-0.11158681,0.2053615,-0.007440117,0.72442096,-0.03771264,-0.28377035,0.49036804,-0.1815461,-0.09594113,0.30451995,0.01573793,0.040634234,0.33798715,0.30248937,0.5193705],[-0.23845954,0.09330857,0.37769052,-0.079668194,0.35938364,0.37220457,0.21324661,0.11678243,0.28595766,0.38989806,0.1315848,-0.0054306965,0.3148242,0.097698934,-0.1550719,-0.31005406,-0.0021633853,0.101841666,-0.42036033,-0.4081397],[0.060041264,0.36017483,0.5653374,0.058630228,0.09226959,-0.27130595,0.124863245,0.13383032,-0.106159374,-0.17852473,0.31921354,0.41166627,0.33325902,0.42766967,0.2280633,-0.20469101,-0.0518995,-0.12467172,0.25328392,-0.009197876],[0.10794468,0.613286,0.25668508,0.06746822,0.58364373,0.6924647,0.42661262,0.3053092,0.6094115,0.57536155,0.10561333,0.19211012,0.07704414,0.18209828,0.33688763,0.26744702,0.15366228,0.029384201,0.4563072,0.2488653],[0.1404484,-0.16664346,-0.12409446,-0.0129840905,-0.27721316,0.41799292,0.025637507,-0.15085751,0.00242779,-0.106924236,0.4447296,0.12770262,-0.043569185,0.17532368,-0.08176445,-0.01928531,-0.031841952,-0.105093926,0.2883951,0.011025842],[0.39456987,-0.13658394,-0.060396545,0.14515701,-0.038165737,0.07184455,0.42154863,0.05740964,-0.069194734,0.0064728544,0.19363783,0.42755067,0.0127054965,0.0073810285,0.1957796,0.09763211,-0.118600234,-0.0365178,0.26088575,0.5325639],[0.3663207,0.2095931,-0.05934017,0.243443,0.2293943,-0.10179197,0.349222,0.41885293,0.16604148,0.0027286094,-0.12721208,-0.20353603,-0.079486564,-0.09135685,0.05026856,0.15600769,-0.13561052,0.12489172,0.12357942,-0.01383455],[0.5498004,0.2067181,0.40364155,0.47278517,-0.060995422,0.27514386,-0.07268723,0.1251835,-0.04613379,0.048861314,0.13162102,-0.10286017,-0.18652748,-0.048172686,-0.11932075,0.16065145,-0.030919824,-0.05883979,-0.29647154,0.021677786],[0.048986666,0.07232426,0.18769678,0.3828295,0.12493459,0.33064365,0.077339105,-0.1656302,0.21407641,0.08608053,0.09420942,-0.04859346,-0.34479633,-0.14648415,-0.034549445,-0.20267506,-0.2407255,-0.17135435,0.23359065,-0.22312538]]],"bias":[[0.2612849,0.29438996,0.03877073,0.13341552,0.16343649,0.12757397,0.07233333,-0.1894982,0.18579747,0.14360568,0.3959649,0.11764259,0.0790564,0.340701,0.4545597,0.30541578,0.12621467,0.14632261,-0.09128578,0.2111098],[0.021600112,-0.10914819,-0.08695914,-0.19894846,-0.045924578,0.20714146,0.09619047,-0.02450319,0.00419048,-0.034526486,0.14569868,-0.15606476,-0.06547614,0.07839432,-0.018519165,0.19629368,0.018608917,-0.07329517,-0.008963668,0.10754494],[-0.10029523,-0.03416718,-0.056331515,-0.113172114,-0.013305297,-0.12137365,-0.06869761,-0.049484372,0.08611443,0.10975278,-0.22027847,-0.059373673,0.053777978,0.040418886,-0.06764574,-0.13705848,0.020153008,-0.071800105,0.016950594,0.08693501],[0.02982074,0.041871313,-0.006432345,-0.021060532,-0.21459424,-0.060735676,0.23200102,-0.24593313,-0.15080722,-0.23026617,0.07427409,-0.06686112,0.07072214,-0.07905268,0.09412169,-0.14765891,-0.13844757,0.025504133,-0.022931846,-0.11245675],[0.38141778,0.101846606,0.15507087,0.3347586,0.096568026,-0.07407301,0.06494725,0.2873958,-0.09961294,0.022963284,0.20368941,-0.017456016,-0.006865348,0.20138073,0.06306682,-0.03823246,0.058712594,0.13189083,0.0681907,0.069933526]],"Losses":[0.912747426646126,0.7070585045157,0.5505239951817307,0.439681492912706,0.3375519861744506,0.2577974583178759,0.24753892200772024,0.24709252244297922,0.23864407446913677,0.233142444417862,0.2322838638911636,0.22985020501921716,0.22518022922025338,0.22037823768218268,0.21576579043430633,0.20974058049482502,0.20120404937598108,0.1914130074990685,0.18354690174503144,0.17954917901603396,0.1779088835443864,0.1773360401634232,0.1784623720315401,0.18074379017421616,0.1822811392086651,0.18209278978482113,0.18072794855058028,0.17911948209615106,0.1775125823293612,0.1756584770594074,0.17362638560941698,0.17198387573145885,0.171159456215571,0.17096625686719638,0.17104238542107997,0.17133324212213555,0.17177069575718318,0.17202401376399784,0.1718804715797118,0.17150785868504767,0.17116102055218393,0.17085456980370206,0.17047340653255086,0.17002347755966418,0.1696095966854166,0.1692831745512339,0.16905499038366864,0.16896900315921312,0.16903973854894516,0.16916440079394657,0.16919063255417952,0.16908441549265849,0.16894547330659349,0.16883215239230115,0.1687148583761348,0.16859758137674907,0.1685058522802714,0.168412018729055,0.16828656825070706,0.16814598263709746,0.16803101198565792,0.1679631479933028,0.16792089111412214,0.16788454230188307,0.16785341207122847,0.1678075471538505,0.16773102743573925,0.16763513244392234,0.1675263053607995,0.1674032384786499,0.16727626742001392,0.1671662549892238,0.167081064092066,0.16700568904653906,0.16692566433821762,0.1668339212707385,0.16672355129294095,0.16659381939356818,0.16645640400423284,0.16632306777882813,0.16619017519677023,0.16605089896541797,0.16590163417683343,0.16574003085059932,0.1655667532597016,0.16538496853004336,0.16519841626955203,0.16500382501201474,0.16479816218021465,0.1645808750575397,0.16435010904067884,0.1641031463130997,0.16383978636862337,0.16356097370334086,0.16326774381251988,0.1629609140867692,0.1626416963458117,0.162308245490485,0.16195903388462296,0.16159440756392826,0.16121547984417325,0.16082412649791938,0.1604230099555053,0.16001472810052292,0.15960130152111743,0.15918645392723776,0.15877464500323793,0.15836951395249851,0.1579747086885988,0.15759359741465492,0.1572321029933791,0.15691597327249096,0.15690422824009045,0.1591864029892829,0.16624040204908133,0.16460269028284177,0.15666977609731178,0.16692546195622054,0.15560529596704956,0.1621364342275854,0.15509552776604932,0.1599498905602895,0.15520342539819487,0.15797362465841788,0.15426349458751773,0.15684125800469303,0.15383076358228562,0.1558254463027913,0.15310467572319045,0.15511536886605312,0.15268154052919516,0.15430220224390703,0.15223750176949338,0.1536823712018923,0.15188476951384272,0.15299751736959927,0.1515639428191028,0.15244576403871588,0.15122994300672638,0.15188415708562716,0.1509213223661556,0.15142078665091235,0.1505840228782972,0.15097372034356768,0.15026783985650077,0.15059203199585758,0.14994766592361886,0.15021094998583162,0.14965399711098257,0.14986774035003791,0.14938206094387843,0.14951526593143968,0.14913313386582797,0.1491793155126319,0.14891311621718023,0.14884351862912468,0.14869959395445018,0.14852532079035363,0.14848039202168234,0.148242099395109,0.14823963938113338,0.14799764344227562,0.14796529256426136,0.14778426768589686,0.14768087114889444,0.1475777284501874,0.14741064714211322,0.14735081709048697,0.147172196805512,0.14709346496660045,0.1469573942045158,0.14682955427414326,0.14673788673290183,0.14658451494361618,0.14649578773254449,0.14636187243003745,0.14624018671184713,0.14613833662264625,0.14599729694627644,0.1458940035415673,0.1457697879601149,0.14564183414652973,0.14553453825438223,0.14540134585153197,0.14528243926920426,0.14516471665431185,0.14503086780932017,0.14491256629051388,0.14478648492824647,0.1446527250563568,0.14453024495193512,0.14439869501474087,0.14426276679417707,0.1441343686796572,0.1439986767521627,0.14385843796906164,0.14372325948340534,0.14358360132416242,0.14343813103441744,0.14329509022941542,0.14315092336427765,0.1430008194483561,0.1428493865077938,0.14269892109234902,0.14254541301556514,0.1423877867268513,0.14222948683102937,0.1420714928579668,0.14191170084192212,0.14174947274659863,0.14158635626131702,0.1414240543386166,0.14126279933329836,0.1411021457794072,0.14094234524298235,0.14078416739090857,0.14062884487164082,0.14047727763651843,0.14033034297537272,0.1401886863712595,0.14005291431516717,0.13992371649034313,0.13980175178098972,0.13968823316211912,0.13958579147976966,0.1395027480284893,0.13946768877523125,0.13956913908567184,0.14013731877432678,0.14165231450954194,0.14493989147526087,0.14432903495001015,0.1410603277715026,0.1388891446627681,0.14102520977898986,0.14224692614917223,0.13918768974017814,0.13934734408215904,0.14106289326742996,0.13912839139856092,0.13878634709077928,0.14002016992374147,0.1387681828670031,0.13848999230389888,0.13929727052315488,0.1383982194781491,0.13823406346829326,0.13877215109938346,0.13808157475990387,0.13797768836776494,0.13836246809433878,0.13781730010068172,0.13772654315663374,0.13801489403882344,0.13760246918558336,0.13749032333163227,0.13769872667412852,0.13743270295211607,0.1372751164037072,0.13739604844551848,0.1372802214775456,0.1370955442703712,0.13711311973042,0.13710959114490986,0.13695170151253314,0.13687135662516942,0.1369034225566276,0.13681696027746335,0.1366857641273185,0.13668069019693632,0.13665657785254468,0.1365399489894716,0.13647755656428726,0.13646567392888698,0.13639782108365653,0.13631048844594362,0.13627008407984628,0.13623585206628644,0.13616392605380406,0.1360938630101872,0.13605694528533702,0.13601110421992607,0.1359379328832705,0.13587972125811865,0.1358406399654541,0.13578407461959116,0.13571589105293086,0.1356633345396146,0.13561676749619145,0.13555718008051515,0.13549372085651618,0.1354396489015029,0.13538785424231006,0.13532838620279727,0.1352658162519159,0.13520829837346413,0.13515331906619832,0.13509345337325002,0.13502974017927838,0.13496883727161924,0.13491044573404995,0.13484880868081503,0.134783483078028,0.13471897417160705,0.13465617550014025,0.13459170759082076,0.13452423204904088,0.13445588037585948,0.13438802958072757,0.13431944545762753,0.13424882121572104,0.13417646446171597,0.13410322178320844,0.134029269427483,0.1339539830236863,0.13387692470375281,0.13379816493737776,0.1337178766476854,0.1336362086261825,0.13355297977886443,0.13346788246862892,0.1333807507923255,0.1332914621725781,0.13320017168134993,0.1331068675472731,0.13301142968952348,0.13291362064026002,0.13281311568157728,0.1327098590123279,0.1326037447282407,0.13249478651399654,0.13238282276160382,0.1322676586647861,0.1321491188703039,0.13202696978426312,0.13190109833487274,0.13177124330848586,0.1316373793332951,0.1314993708899184,0.1313577636252269,0.13121371861225437,0.131071842947688,0.13094571814385994,0.13087536910323383,0.13100380180458374,0.13160917021892826,0.13356139654917268,0.1347556864380665,0.13460979490483932,0.1305411533278415,0.13036508828898136,0.13262283425799629,0.13088754765028596,0.12946889927087915,0.13038495354483562,0.129983547478129,0.12887837851062986,0.12885253460899343,0.1289284143509882,0.12844690467471767,0.12786197486386897,0.12760016766910146,0.12747879549259805,0.1273831747091193,0.12701692997754302,0.1261127919016618,0.12565304629188398,0.12574329122505853,0.12547681227870927,0.1247445899564996,0.1240862778429494,0.12379533869987597,0.12349074538325404,0.12289272602030804,0.1223088253240808,0.12190418623230817,0.12155561405802895,0.12105411307933342,0.12065024489370274,0.12060819515501567,0.12172946044598608,0.12264928617846378,0.12382340194437397,0.12007287930948074,0.11741493013904848,0.11709791227696018,0.1175803959558187,0.11811680257933282,0.11708223533187903,0.11610905848779676,0.11474030049298098,0.11341981071807461,0.11333027795550664,0.11439610761341859,0.11518267781834318,0.11377777997220401,0.1119307390742549,0.1115729394863364,0.1122964977601061,0.11227055714305413,0.11145713320484577,0.11104882143396932,0.11087523878610964,0.11055721437546111,0.11035516893292138,0.11034191138917665,0.11005034013508024,0.10948378129960781,0.1093878940483535,0.10953623557162527,0.10915025774201129,0.10865710286538462,0.10860078153229273,0.10859676022625318,0.10829419024547657,0.10798311902884046,0.10787897741077035,0.10775360838986721,0.10752384078685087,0.10733861177173616,0.10718008116137294,0.10699205206083631,0.10683052306303631,0.10668761064990716,0.10649796173555723,0.10630175789351076,0.10616152207931352,0.10602591764715577,0.10583961577078334,0.10564704696522166,0.10549623564638912,0.10535857888396902,0.10518983465423648,0.10500133664296149,0.10483111997586964,0.10468007209207168,0.10452269531341761,0.10435003483175748,0.10417024620617775,0.1039910479167296,0.10381715209975385,0.10364755795216515,0.10347929974144575,0.10330614236948688,0.1031201969487248,0.1029269458405241,0.10273132222777931,0.10253630734840356,0.10233876904091302,0.10213737797129169,0.10193447905665998,0.10173717310118521,0.10155615302724719,0.10143687011110353,0.10151436241114739,0.10232333660318833,0.10488048883971635,0.11099980079557385,0.10916926871084696,0.10345764703944042,0.09991170691590734,0.1027845840133053,0.10600781913582885,0.10147309500628289,0.09921817444625199,0.10167854182718855,0.10200299275162729,0.09940432781471067,0.09841254652298209,0.09984286174096109,0.10015825913650565,0.09805266043769834,0.09732169800301756,0.0983131798813126,0.0983378434567985,0.09702138225095676,0.09596533280259721,0.0962914425957291,0.09691866118712152,0.09639616935849923,0.09541762497304723,0.09456668346321134,0.09413103497567715,0.09414194345729102,0.09449953608847574,0.0951162235702925,0.09572916976042252,0.09688393582202902,0.09666640127761308,0.09614369967393883,0.09413968215422885,0.09248731606308937,0.09120245513594848,0.0904865968919487,0.09007502630294237,0.0898275325257308,0.08991863843742356,0.0908342185709321,0.09437596850751785,0.10096591631297865,0.1066293802040549,0.0933235223465098,0.0878969806435144,0.09185474784505884,0.09730442373962253,0.09469025399196976,0.08748271126305004,0.0892677842661012,0.09451630154804135,0.0897389792990006,0.08623564070182449,0.08865355021442094,0.09037853758668384,0.08764129729101873,0.0853432329878437,0.08705897117566981,0.08832702464059877,0.08577597584000778,0.08463820448037192,0.08599553163999449,0.08616780441925762,0.0846158470487829,0.08380382879545396,0.08457732555799208,0.08499089909405971,0.08385950904544162,0.08301955634992098,0.08323221544751812,0.08367850884055815,0.08342206251379874,0.08257387892135534,0.08207316096615203,0.08214630289879324,0.08238497241018752,0.08239239338012999,0.08193598385397337,0.08140123460562344,0.08100377276131314,0.08083530846221314,0.08084474344457615,0.0809165262828111,0.0810130373114396,0.08102896713238991,0.08108653758728646,0.08101958752226229,0.08107669755939359,0.08100796630867213,0.08113043744086151,0.08103663880744286,0.08113968893245091,0.08086555875442393,0.08072524164181571,0.08020189059572871,0.07983044328892082,0.07929336854246204,0.07893322490072797,0.07856033494615582,0.07833628018188771,0.07814293560193294,0.07811033859464149,0.07813787761969689,0.07846194209185985,0.0788294239762345,0.07964881039451546,0.0797641093354252,0.07989820732286516,0.07860541526316593,0.07747632012075706,0.07635167178510763,0.07567911805404545,0.07532907027556296,0.07522278819224236,0.07532865775672445,0.07565647957557552,0.07643499260685613,0.07731694635350432,0.07880215182614662,0.07820238444430966,0.07730694308185028,0.07521256900177375,0.07389964830783831,0.07330715344599882,0.07333430210099447,0.07385089692648862,0.07458015513897703,0.07569156557113378,0.07560890057384867,0.0754753047555418,0.0739789441424137,0.07287301929711774,0.07191220607842157,0.07135604876138767,0.07106992073859504,0.07098128874985263,0.07109089804450572,0.07144466084724206,0.07241983034941087,0.07350750178091198,0.0754415102618965,0.07401019190019191,0.07253798970369818,0.07045668413603719,0.06946902685246577,0.06919134835754923,0.06940157358054865,0.06976056963117694,0.07000382294904922,0.07049903059876843,0.07071314264457175,0.07196255539618533,0.07160188665852435,0.07108467781911998,0.06881283471191343,0.06721862219122676,0.0663731608308685,0.06625049865531317,0.06671617782790275,0.06763547808286144,0.06912159129135653,0.0693292756067293,0.06930913272642251,0.06747597701942383,0.06655850279711682,0.0659512962017733,0.0662144149252411,0.0666446419204023,0.06632011923151405,0.06546383139635899,0.06434080863418147,0.0641100251983126,0.06491435240662916,0.06719152533083507,0.06765769996100536,0.06775695079867788,0.06491691922575527,0.06395655835341567,0.06412268712140123,0.06491172578793736,0.06406986856291792,0.06267194479523198,0.06148943911520079,0.061427295123940746,0.062243793873708576,0.0639349299108579,0.06433449505802286,0.06543205783531815,0.06499904964501665,0.06595985705032391,0.06413874163924345,0.06187100347317701,0.05979786517568319,0.05904042275448865,0.05914974792511919,0.059516194273939504,0.05957205918225799,0.05913407282621506,0.05859924963195258,0.05854945808316801,0.06001079313373057,0.06363554405461316,0.06955855370165673,0.06395941720247561,0.060325623174502255,0.05849176665188768,0.05786489355833077,0.05726392265562386,0.056826080447446005,0.05718211738569585,0.059238771627185646,0.064160391322165,0.06476991123628659,0.0622068486307058,0.05753243998885525,0.05562290184627314,0.055063313149246125,0.05512315581768581,0.05577511512695806,0.05740495069829583,0.06094115918022825,0.0619002167042137,0.0608698824895287,0.05643209929646134,0.054236071529244645,0.05326595519048529,0.052894660185505135,0.05291623241934631,0.05338205610510187,0.05491879034974855,0.057914807801637345,0.06240564373244684,0.058887332848309396,0.055783337099560334,0.05397349613479802,0.053823891936172825,0.05377938454454479,0.05368920094185236,0.05288625523751222,0.05207087806567948,0.05156275224677086,0.052389571878020465,0.05555948626045835,0.061719918392512806,0.057816925374259386,0.05387507248940068,0.051058849648957724,0.05024059293818211,0.05035670167121723,0.05159763593924978,0.05382240525902913,0.05701124416344088,0.05540195046745872,0.05372079376494866,0.0517083186237643,0.05139248946400091,0.05066528584846356,0.05024198056809043,0.04953187434941391,0.04983356440200654,0.050886880601865456,0.0537881808608143,0.05402688009891457,0.052772428234336075,0.04947415845204907,0.04787139617381111,0.04720343869478653,0.0473595093626801,0.04843493157978418,0.051221580821781326,0.052634637421838645,0.0524568340452485,0.048752363109057985,0.04683760264497102,0.046022876979668184,0.04612703899141172,0.0470375297198423,0.049379212530403116,0.050888288909890556,0.05104254350208409,0.04789639745022099,0.046179721033019615,0.04553061414525318,0.04619385721922491,0.0474682323480993,0.049587792673349035,0.04831718208497882,0.046833632113393774,0.04509277823716243,0.04470607243207203,0.04534183887618236,0.04760488219469691,0.04920532956329248,0.04925325043972119,0.045813040191667084,0.0437974628540807,0.04283002869658512,0.04258336784545771,0.0428453190170493,0.044099403769255835,0.046640807653257,0.04994723664663825,0.047242282024704235,0.04455688944669192,0.04277599623039554,0.04223752279565096,0.0422944074481849,0.04319932652907545,0.0449061293460891,0.047464360814227516,0.04637518951544417,0.04469637250368363,0.042886029821376515,0.04242488847282772,0.042839021913183846,0.04451222216411141,0.045799419757415076,0.046094518129377496,0.04340736649772036,0.041531042158942016,0.0405078196895439,0.0400964240062015,0.039961867602955184,0.040046754890219805,0.04063923350722498,0.042431165276558845,0.046447989540906454,0.04700262379373149,0.04521609594920196,0.04181940959674857,0.04053136888544434,0.040334011288058184,0.04104565714225788,0.04244391781671351,0.04432398103837974,0.04372776163284327,0.04252454060438681,0.04136669263684003,0.04184550284669967,0.043239594516730845,0.04527254252168125,0.04314462935357357,0.041152508321025974,0.03967624254923878,0.03915996922824872,0.039208233420410174,0.04000113601028694,0.041572585113763945,0.04376786534360916,0.043176134389789664,0.041639571394666494,0.039885226497964735,0.03917091952114732,0.03902198581530171,0.03953989904339943,0.04051292818208203,0.042156769710228824,0.04202639673726036,0.04131406987003005,0.03974605261388471,0.039004812885219654,0.03875909161521528,0.039184321490250223,0.040087126986047696,0.041522991176002826,0.041645248886082564,0.04104166962724987,0.039556030748613934,0.038779758223611197,0.03841538717813109,0.03859776512271288,0.03901016425690892,0.039716959234604096,0.0398667493991412,0.03955389956372631,0.03880189032210063,0.038275619848656406,0.03845832861439097,0.03938297780188227,0.041463507933102384,0.04166292260116593,0.040786276959489304,0.03877987931789899,0.03775564816665461,0.03731117257872572,0.03735516626169943,0.03770007148184143,0.03856949989439693,0.039498207063566326,0.040452126479949405,0.0399158791466321,0.03950898350253831,0.038753604218323724,0.03878349803253155,0.03856330402063828,0.03850497730545501,0.03797339903700551,0.037617225855498544,0.037276192737039984,0.03744956960945721,0.03784269971955395,0.038851674181289576,0.03913993042345702,0.03914188208149132,0.038100075965073435,0.037426621874685255,0.03695991931832436,0.03696402970189233,0.03708399467617002,0.0374704704627839,0.03759990826147597,0.03775991083490859,0.03751906700355999,0.03752817804991345,0.03746969275355467,0.03789663521839034,0.037890475695178914,0.03807018777440734,0.037396493590940265,0.036963376492688264,0.036409467845533464,0.036237265239976627,0.036145246679635486,0.036352625107903436,0.03649208613871172,0.036802571873706245,0.03671062511221398,0.03680672317669737,0.03659362036591623,0.03683510761218111,0.03695012480358252,0.03735659589368791,0.03719416009725536,0.03697768596892932,0.03633413772280039,0.03595918793224011,0.03560188632671029,0.03557276928187237,0.03558342664363867,0.03586221384408718,0.03603125201798541,0.0363483631748391,0.03636106387817141,0.036570303420850825,0.036520903335735225,0.0368773275260327,0.036637558161652484,0.036628017580560175,0.03597562923849372,0.03556614500739766,0.03509891059437859,0.03493598423636831,0.03485985265812428,0.035073029987031136,0.03526834804096996,0.03573472855730669,0.03579298688529537,0.03608288062520785,0.03585008661961318,0.03591921438094332,0.03568701737133686,0.03562224738352192,0.03524341850672212,0.03500275674860153,0.03463700720306379,0.0345345554985401,0.034485630025137166,0.03476259856818559,0.0350577207996285,0.0355629257318391,0.035584002028195956,0.03565867111103961,0.03517792434121245,0.03512215111261259,0.034831443085658456,0.034898103868575336,0.03465408857494994,0.03452741586644131,0.03418530182316763,0.03402249815842147,0.033844637982582484,0.03396476883813484,0.034064251857898575,0.0345048108108222,0.034616702337678606,0.034934513189923876,0.034707518075890884,0.03468686572886819,0.03443441689128036,0.034397780640837566,0.03413820961173123,0.03401383661618272,0.03368282241621057,0.0335554504866497,0.033382784468307884,0.03348227085076703,0.033592785672135334,0.033952620417169205,0.03414419526186113,0.03445707957810976,0.03432786860611673,0.03448254494642554,0.03418063986546731,0.03425218953274257,0.0338668021677437,0.03365396008487342,0.033245434330078746,0.033013761764391115,0.032820301717785605,0.032851518630869665,0.032910867818516626,0.03321957744453123,0.03332800658517258,0.03369866844790956,0.03361685310161823,0.033833844936438755,0.03365762196266757,0.03363931365821729,0.0332858213090487,0.03304952332126531,0.0326646650376341,0.03252530829271114,0.0323932025461568,0.03254354486147775,0.03268965748871516,0.03304185051505519,0.0331530140459694,0.03336141315585937,0.03317621162506854,0.033330156617070526,0.03309312770893084,0.0332139019497068,0.03284904849407199,0.032649528170595944,0.032252515037957286,0.032060381803548206,0.0319023517603768,0.03196157233380202,0.03199706530295486,0.03221440205870957,0.032194101812479566],"R2":0.9827854960610916,"Training_Indices":[16386,19863,15870,10003,16387,18122,2643,3031,7053,5998,19334,11623,9878,2450,2966,4202,5887,480,2225,19884,7864,12365,11153,4766,4406,12640,16272,4302,13119,3200,15508,17539,3908,1024,6782,4158,3257,4542,5764,8095,18693,7519,19488,17941,13307,15512,10103,17678,16624,7520,12260,11748,13587,11467,2918,7371,629,2635,3232,6452,4172,7596,12818,17584,13045,20131,397,8156,18059,17213,15787,6021,2674,3956,2286,7386,11183,10979,2365,17518,8420,20388,9166,9574,14587,1432,4020,12826,7281,15353,14845,20449,8992,13464,9013,1516,17692,11708,15625,11833,9946,16355,12863,1577,943,4974,1569,12672,6667,17392,13622,2150,11409,6554,14680,15237,8343,17765,2893,8589,4620,18726,13628,10494,7964,10463,9985,12895,19136,9630,17056,19335,12000,20163,3349,14652,4204,17434,13350,13629,16493,18606,849,1571,11824,13928,9322,9167,16591,8817,10130,16855,7605,12912,19560,6110,1965,10278,6893,6077,14844,18249,3029,16766,1677,5590,348,10045,8105,14283,11743,17479,2717,13600,6860,16965,1581,18182,19473,5209,18812,5168,7002,16434,4881,9200,2337,2715,14892,19636,8696,9556,2207,16798,16343,5828,2910,13195,789,3395]}