{"architecture":[["Dense",[4,20]],["Dense",[20,20]],["Dense",[20,60]]],"Node_Indices":[103,121,42,125,40,93,117,108,67,77,11,98,82,5,62,16,75,56,9,106,129,110,57,31,20,131,76,60,32,81],"weights":[[[-1.1178309,1.4069663,-3.3988724,-0.68847656,10.612858,1.6369656,2.1791854,0.19810495,0.6465999,-0.32761693,-2.5272267,6.5463777,-1.3249664,1.8949207,6.705348,-1.9271917,10.796508,-1.1402751,-1.9490173,-1.5442978],[0.15150452,-0.56504947,1.7602434,-0.4691582,-0.040240627,0.38490364,-0.5906143,-1.1186574,-0.040931758,0.42638025,-0.38903376,-0.3176268,0.28016394,1.2850302,1.4835593,0.8476879,0.6971638,-1.7786463,1.2412865,-1.5505478],[1.0687712,-0.6566303,1.1867166,4.6153564,-4.810897,6.941387,0.0037844982,-5.7173657,0.39896277,0.20012468,4.408908,-0.73517305,0.24846557,1.0447054,-3.3446288,-2.5726335,-7.6624217,3.7116501,4.2589245,-2.0364761],[-0.12695432,-0.45366096,3.7661474,-1.2827264,-0.23575956,-1.6036594,0.86760235,-2.0115423,0.45792985,-0.4359094,-0.644228,1.7683227,-0.07272141,-3.2146955,2.4530075,0.1956207,0.13002394,-0.77809864,-0.6867683,3.8238149]],[[0.22638915,0.41111356,0.72019595,-0.28978902,-0.037826926,0.0022341337,0.28621474,0.08513268,0.33145592,-0.06395705,0.23445664,0.02134088,0.23595719,-0.27354783,-0.49096414,0.40780646,-0.1818475,0.20404345,0.29457211,0.3472093],[-0.004313494,0.1207187,0.066318035,0.089767106,0.25535113,-0.29954228,0.28668678,-0.11596397,0.09575517,-0.04919587,0.26819032,0.075015925,-0.25273275,-0.10394215,-0.109559596,-0.15672989,0.32822865,0.04367645,-0.06220047,0.38400882],[0.14707275,-0.032465003,0.66406596,0.47566834,-0.2082542,-0.5210708,-0.15446496,-0.60249335,-0.31030944,-0.1662507,0.11163449,-0.8129983,1.3882287,-1.3185642,-0.8588975,-0.23799041,-0.10166179,0.22804286,-0.070405975,-0.1621819],[-0.6057471,0.02500177,0.6072985,0.10426109,-0.37542272,0.060432877,-0.18783988,0.04218869,-0.3677873,-0.23638506,-0.07978529,-0.26472887,0.8748617,-0.68335927,-0.3983276,-0.317644,-0.18180342,0.23493311,0.14702237,0.3802956],[-0.061653987,-1.1857053,-1.6641412,-0.08400891,-0.13414495,-0.66629595,-0.3035305,0.49871692,-0.53920126,-0.3291494,-1.0043252,-0.74808747,-1.4159029,1.0467236,0.95580167,-0.19013712,0.07448197,-0.5769121,-0.3288849,-0.5071386],[-0.17687689,0.9630232,0.63734883,-0.52996343,-0.3292444,-0.50204706,-0.53788275,-0.40345854,-0.28861013,-0.24290948,-0.6189207,0.5609216,0.92314166,0.3721,-0.7437291,-0.3666426,0.44546145,-0.54377353,0.47448525,0.29989073],[0.5310636,0.6895446,-0.53788805,0.2869601,0.354846,0.07941994,0.23745267,-0.15234637,-0.07246123,0.3201509,-0.16519488,0.056132484,-0.2978337,0.05097276,0.058807198,0.27205038,-0.023348136,0.1003855,-0.1310123,-0.23595782],[0.2963503,-0.5201171,-0.38155463,-0.8084188,-0.77549875,-0.5109855,-0.37071967,-1.1650547,-0.015456619,-0.6924541,-0.4725966,-0.47179925,0.29460368,-1.3390325,-0.9731619,-0.6317646,0.41390613,-0.089222975,-0.34459463,-0.48300728],[0.54770553,0.67239404,0.17141065,0.24869397,0.10773759,0.32579362,-0.027152292,-0.43459862,0.29884467,0.08900779,0.17673256,0.030968772,-0.111525826,-0.09411367,-0.2856513,0.41920128,0.05425078,0.30874056,0.25804734,-0.27243337],[0.75588864,0.096648656,0.6293889,-0.09328864,0.3527331,-0.22976565,0.1444132,-0.08971045,0.19013102,0.15541545,0.23821972,0.12994847,0.27523667,-0.084648505,0.15295765,0.20702456,0.032589257,0.32515648,-0.103493616,0.39651033],[-0.2912453,-0.3252565,0.64868563,-0.11587871,-0.10432094,0.026239252,-0.0891566,-0.18525803,-0.12639226,-0.39275554,0.09449171,-0.66294426,0.7570309,-1.2470324,-0.56949335,-0.23012964,-0.2858664,0.14532189,0.67570144,0.30290854],[-0.07351656,0.5356189,-1.094746,-0.09510496,0.20470898,0.35718116,0.10694194,0.2931949,-0.046949767,0.31450653,-0.55709517,-0.06507264,-0.9646317,1.0895357,0.43080974,0.1614051,0.23755948,-0.61053157,-0.22545044,0.2368992],[0.6323578,0.4987424,1.0787857,0.0742621,-0.18998411,0.3712533,0.72469133,-0.1926395,-0.31763816,-0.26863274,0.64496034,0.20652014,0.1699887,-0.336374,-0.19235957,-0.1338393,-0.4159019,0.4653566,0.19287354,0.46301085],[-0.30162492,0.8519514,-0.14004374,-0.27969047,0.44450176,0.078080654,-0.24325632,0.30154297,0.13393867,0.37601203,-0.15108062,0.68936276,0.39544645,0.40642783,0.056658287,0.059794858,0.04501888,-0.24210833,-0.6827368,-0.57502127],[-0.5007192,-0.7147903,-1.5996482,0.048280954,-0.5211514,0.03902777,-0.18473755,0.116072245,-0.6542785,-0.64759153,-0.3255899,-0.43156445,-1.7400184,0.5076632,0.053313877,-0.10954555,0.5170184,-0.4302571,0.17623314,0.1314959],[-0.22635277,-0.22562252,1.1996828,0.3970007,-0.20238562,-0.022274658,0.6045144,0.11892741,-0.011484562,-0.017776987,0.53845644,-0.1680705,0.10059482,-1.5343034,-0.2924462,-0.65361696,0.39285314,-0.041795038,0.1527565,-0.28447953],[-0.8253063,-2.3467128,-1.7443986,-1.1468711,-0.6261976,-0.7410324,-0.45659432,0.28810903,-0.44286254,-0.64058,-1.2582815,-1.3275487,-1.7978587,0.898271,0.6604481,-0.577577,-0.5017464,-0.69625705,-0.5652404,-0.60425806],[-0.33291784,0.11602657,0.31983292,0.45072788,-0.5311641,-0.40354925,0.0058214804,-0.11081458,-0.6860981,-0.52800155,0.72797865,-0.636693,0.60184085,-0.53535646,-0.20092174,-0.27754965,0.25902224,-0.29061866,0.290037,0.17196786],[0.1601176,0.43322277,0.43226525,0.0046940576,-0.071236186,0.21023427,0.19780475,0.34353304,0.27898866,0.12612158,0.585586,-0.04214925,0.9275814,-0.71076965,-0.26430228,0.25470388,-0.1743208,0.30742455,0.29489794,0.41790664],[0.5631906,0.18991923,0.9816537,-0.36545077,0.42842904,0.12327687,-0.32533973,-0.6470402,0.23130682,0.005978494,-0.09418799,0.07998357,1.2386544,-0.62950957,-0.20606595,0.21161179,-0.2911217,-0.5961983,-0.2763327,-0.14566177]],[[0.22985895,0.09699423,0.07195679,0.19312961,0.45924127,0.21338548,0.07382777,0.048686184,-0.03779065,0.09545275,0.06557817,0.22022359,0.09676677,0.119661465,0.047878467,0.3600257,0.027603514,0.040845394,-0.014346188,0.22945799,0.21779588,0.016509479,0.0004917679,0.27598792,0.5171645,0.2326392,0.05899977,0.0468435,0.2831145,0.046429846,0.18091735,0.14242975,0.09283928,0.17652321,0.72314173,0.11464709,0.18738876,0.14354344,0.1993431,0.18151505,0.0676261,0.13856733,0.2029467,0.19402264,0.1910382,0.6240079,0.20125988,0.14971839,0.1511427,0.18537599,0.2383062,0.14774017,0.14195773,0.28582776,0.9934688,0.20084858,0.1964237,0.16758057,0.16923736,0.16453831],[0.013263032,0.03781992,-0.0015118471,0.04319836,0.29647902,0.011740609,0.06336293,0.031185737,0.09427279,0.11156817,-0.062494576,0.02914781,0.060760528,0.059559956,0.018462252,0.14011726,0.07898701,0.027778467,0.019480767,-0.029890504,0.0058541405,0.016554145,0.029799312,0.010845149,0.3432616,0.049807068,0.065260604,0.053852037,-0.0068835677,0.077048734,0.59409493,0.42043024,0.009882438,0.5137905,0.9095738,0.5321415,0.26632214,0.018099193,0.21718417,0.341098,-0.012923801,0.53314877,0.4060487,0.3797321,0.17604248,0.7923002,0.3182652,0.08303425,0.09131435,0.52699405,0.576592,0.07773217,0.07686263,0.61096483,1.0235223,0.6516002,0.3664278,0.116494656,0.64842916,0.40448257],[0.19413929,0.17713647,0.0027501886,0.21794364,0.2659763,0.22134306,0.18802764,0.05835783,0.16104883,0.22261392,-0.018375613,0.2204841,0.22326633,0.20473869,0.12546226,0.2526298,0.21391633,0.084679574,0.061010472,0.18649378,0.24296185,0.064675644,0.07734992,0.23686972,0.2386691,0.21848871,0.23070915,0.10971752,0.22607756,0.24884573,-0.69191253,-0.47328267,-0.002495219,-0.53681225,-0.97423613,-0.6120067,-0.33651906,-0.03740685,-0.1921676,-0.45358846,-0.035805468,-0.5965565,-0.49565935,-0.41205692,-0.20624982,-0.8350681,-0.34916762,-0.12497349,-0.034103688,-0.69254637,-0.6419286,-0.06282959,-0.06278369,-0.692605,-1.0243645,-0.674713,-0.44434777,-0.10635692,-0.69011647,-0.4217481],[0.08323367,0.3057441,-0.03860171,0.15398374,-0.090100415,0.13974848,0.43649915,0.1633358,0.49028495,0.39373884,-0.025372904,0.1864199,0.30690822,0.36799547,0.32594085,0.03620498,0.53162605,0.21887222,0.28068408,0.12230674,0.22521663,0.23182607,0.31222224,0.10257381,-0.327558,0.23684967,0.500032,0.25535315,0.23456897,0.60083365,0.41295907,0.4306895,-0.032152515,0.33923066,-0.19900963,0.4453383,0.23124553,-0.010069796,0.14368434,0.25218377,-0.06765416,0.50811243,0.097955555,0.28981957,0.21937789,-0.06990222,0.33214968,0.19584303,0.07604806,0.30990916,0.29240546,0.12553157,0.110051855,0.26042476,-0.5129126,0.4074279,0.24103999,0.12075486,0.32982653,0.3302574],[0.37062845,0.28328747,-0.08015134,0.5624064,-0.19468604,0.59051806,0.29104802,0.015751028,0.21391907,0.07526641,0.1076633,0.4785664,0.35469756,0.043515258,0.30364612,0.31702042,0.53801656,-0.00303309,0.41162387,0.31508544,0.5707198,0.212949,0.11134851,0.43207347,-0.16090739,0.45185587,0.51974034,0.027433926,0.42303994,0.40548977,0.37470278,-0.018830376,-0.09535076,-0.035705056,0.5504909,0.15159392,-0.3385924,-0.1692301,-0.077840075,0.010058655,-0.0897219,0.14919844,-0.013373413,0.095790744,-0.072552316,0.04783586,-0.049502485,-0.19108932,-0.16007744,0.17168514,-0.046139468,-0.22499357,-0.024809811,0.11988341,0.65908575,0.058807835,-0.19025458,-0.03198394,0.26158985,-0.36359832],[0.3607237,0.44243744,0.22409676,0.3934132,0.07784652,0.37878364,0.24717003,0.18941602,0.072345875,0.3922888,-0.23460028,0.5508149,0.10085415,0.4370202,-0.022280661,0.26882154,0.05464866,-0.034603592,0.02217518,0.37439895,0.318061,-0.05937982,-0.04890871,0.22285414,-0.10437977,0.40947628,0.3158605,-0.00061273744,0.51514834,0.33562016,0.07853169,0.036009368,-0.058844566,-0.06888216,0.11212782,-0.005539472,-0.113243066,-0.25342405,-0.2719458,-0.085291356,0.029424947,0.35624507,-0.24654874,-0.03787869,-0.19472939,0.084436156,-0.18316863,-0.09383205,0.115546525,0.103495754,0.30055785,-0.26166287,-0.48921263,0.4922005,0.6310071,0.124603115,-0.03910462,-0.10444357,0.12459638,0.0519066],[0.5023209,0.17586951,-0.058197618,0.235888,0.7759544,0.30647713,-0.07273446,-0.14003858,0.025102828,0.14035074,-0.0821079,0.2859606,0.22052346,0.0609187,-0.07457943,0.59141713,-0.021551,0.0061208443,-0.072767936,0.3322511,0.36373973,-0.024506688,-0.060759068,0.42088908,0.7158514,0.4203978,0.020036174,-0.09107374,0.3029281,0.018375369,0.56034577,0.45162174,-0.038521547,0.5180342,-0.04891,0.5794042,0.3238883,-0.020339228,0.19814503,0.39285955,0.00031132868,0.3826645,0.58204144,0.35704345,0.1941205,0.105104454,0.30561194,0.086723484,-0.018383125,0.49306417,0.4447263,0.098768055,0.08420935,0.39091545,-0.5477627,0.54390913,0.44048172,0.09663333,0.6116386,0.48381457],[0.433474,0.40463886,0.073086806,0.47293273,0.11751425,0.47145608,0.3218424,0.07036917,0.17743702,0.36810404,0.07580262,0.4743571,0.4130463,0.37721232,0.23789084,0.31607231,0.31926045,0.17493814,0.07135503,0.46426308,0.4583764,0.12892191,0.118663296,0.46795395,-0.043102976,0.4053779,0.34932128,0.18701676,0.46399945,0.36312157,-0.040807735,-0.0027782205,0.05206137,0.016071875,0.44854254,-0.051731367,0.08462297,0.09451137,0.11028418,0.05318346,0.038379464,-0.063525476,0.04754301,0.053994857,0.07801654,0.2326023,0.07808931,0.07223538,0.079883315,-0.07090585,0.0051811733,0.07088579,0.09140401,0.0044425074,0.7251013,-0.021123081,0.04382425,0.093814425,-0.04222751,0.019316953],[0.20448768,0.10231984,-0.308115,0.003663155,0.22033627,-0.040151928,-0.05506079,-0.22739577,0.04261928,-0.09901322,-0.05421127,0.02269898,0.1417509,-0.041738447,-0.19101802,0.13887905,0.17778517,-0.2111763,-0.0977528,0.33287317,0.11881478,-0.16912538,-0.0007741839,0.09348668,0.3923974,0.22903612,0.09482999,-0.07974945,0.30077124,0.21613708,0.12630165,0.3331779,-0.14318988,0.08304352,0.3380518,0.29958057,0.35533482,0.066122726,0.09309491,0.21266103,-0.17927445,0.23957305,0.036081716,0.1617006,0.0430802,0.2443998,0.3522928,0.22616075,-0.047775425,0.24780346,0.06479606,0.06079917,0.20742735,0.032812875,0.34962022,0.3661488,0.25299892,0.06512129,0.12690777,0.2594667],[0.1821021,0.18418069,0.021500135,0.20725957,-0.19654757,0.3008548,0.37295568,0.28037018,0.30301094,0.5217231,-0.03649062,0.2651216,0.05070768,0.49323562,0.45604846,-0.3250176,0.27929497,0.25357994,-0.074348316,0.28470126,0.44112968,0.026973471,0.11356175,0.4241242,-0.12519202,0.25260255,0.26479602,0.009539401,0.2533985,0.22174707,0.21562637,0.01896726,0.11312516,0.07201391,0.5515757,0.10043856,-0.14514059,-0.13456711,-0.304439,-0.091538675,0.18326516,0.33468828,0.018273192,-0.08782821,0.18172538,0.37508214,-0.15425256,-0.17404155,-0.1843615,0.37251365,0.29612458,0.0053915395,-0.30822077,0.13996252,0.6677874,-0.06427369,0.09828132,-0.3724359,-0.06312587,0.19827458],[0.3633485,0.26521087,-0.008487279,0.22655866,0.31383663,0.25136,0.08701031,-0.036196314,0.11071567,0.2197805,-0.02085503,0.25443247,0.22716339,0.19007653,0.08455113,0.25143552,0.12682156,0.075507335,-0.013409617,0.29598716,0.2768186,0.03209404,0.03445223,0.29495564,0.24159782,0.30631223,0.12726365,0.005930993,0.25478095,0.12302352,0.61526275,0.3909911,-0.014236357,0.4319049,0.96746725,0.53565216,0.2842368,-0.0024114107,0.1305219,0.35007563,0.036457513,0.45088488,0.45452884,0.31972596,0.17704004,0.7133122,0.2435055,0.0795741,-0.020997988,0.57184523,0.50968724,0.053023666,0.028616138,0.5329122,0.9465075,0.5909765,0.39329153,0.047997955,0.6103575,0.4063546],[-0.035838395,-0.22438413,0.11436925,-0.35622966,0.20593278,-0.15537912,-0.12826467,0.1264786,-0.24990879,-0.36190283,0.41920233,-0.14621434,-0.3638332,-0.099123865,0.034516994,0.1739544,-0.14047092,-0.010998923,0.13579084,0.032239977,-0.0059958794,0.08487045,0.15045767,0.06706426,0.3823172,-0.0018919756,-0.22183533,0.005762888,0.18240023,-0.06049866,0.36693162,0.19418277,0.09758124,0.15551724,0.85878897,0.20375983,0.26829726,0.20864893,0.15403686,0.29958704,0.14681657,0.1931828,-0.047304504,0.2067654,0.298362,0.29096898,0.22337836,0.29558766,0.024733245,0.13341764,0.2075716,0.19303586,0.1761327,0.09435615,0.81022763,0.06147922,0.080550365,0.08653724,0.083246775,0.06645877],[-0.5278133,-0.36523694,-0.0014631217,-0.45971358,-0.82720506,-0.48215356,-0.2868544,-0.068123735,-0.23168342,-0.4007061,0.043598007,-0.49079338,-0.4053694,-0.36612672,-0.16460055,-0.70671123,-0.34985042,-0.098940216,-0.07003925,-0.47131494,-0.53403246,-0.06935978,-0.091500774,-0.5594641,-0.8026005,-0.5648034,-0.3846343,-0.13467008,-0.5476647,-0.40848643,0.21303841,0.116771765,-0.0015791521,0.14057903,0.31063706,0.17891727,0.09705738,0.021418508,0.020032467,0.14377052,0.033676356,0.1695608,0.1446874,0.08888483,0.046437327,0.24724732,0.07604204,0.044399697,-0.021302087,0.24275732,0.18022282,0.006163768,0.0068025477,0.2086267,0.31661156,0.1802162,0.12067215,0.01630108,0.19026946,0.08368215],[-0.21561196,-0.30715162,-0.054917663,-0.28624123,-0.03540446,-0.27097094,-0.3186408,-0.089520104,-0.24562877,-0.30016536,-0.06234709,-0.26782,-0.3080771,-0.3054729,-0.28695166,-0.12513667,-0.3148273,-0.21093094,-0.12594491,-0.26001918,-0.2615744,-0.17378642,-0.1687799,-0.24001159,-0.031730376,-0.20656534,-0.3205656,-0.19942127,-0.25020427,-0.3242727,0.31327915,0.1675484,-0.04388218,0.2186001,0.423067,0.26355284,0.054166965,-0.069448166,-0.0034721207,0.118325286,-0.03474092,0.25966832,0.16855995,0.13008119,-0.018317925,0.389587,0.07858809,-0.052401397,-0.05113611,0.29708052,0.2858951,-0.057166632,-0.06407254,0.3149887,0.40620467,0.33045134,0.12704465,-0.04977842,0.34217733,0.14680165],[0.44518027,0.4459804,0.06421396,0.4672153,0.3354229,0.47433916,0.40887916,0.096125364,0.29352996,0.4075579,0.09182284,0.4668204,0.44601366,0.41851103,0.3572481,0.39512536,0.41669798,0.25138018,0.15000066,0.486456,0.49219292,0.20738813,0.19679295,0.48277968,0.36891675,0.42866597,0.445587,0.22081658,0.4944844,0.44898736,-0.35028276,-0.15901686,0.048115753,-0.23753972,-0.6571077,-0.28498423,-0.03124874,0.082733184,0.018760875,-0.09732765,0.045795005,-0.29046062,-0.15759331,-0.12020925,0.055990957,-0.5437472,-0.05118158,0.07952,0.05206827,-0.32590836,-0.32900777,0.07859164,0.085405976,-0.37503228,-0.73348284,-0.39782953,-0.10815407,0.06774557,-0.40690154,-0.14059116],[0.22215028,0.43805578,0.31009403,0.37198228,0.21965714,0.10889205,0.45010373,0.18434958,0.41057596,0.4983526,0.18814053,0.10252184,0.44086945,0.3976315,0.44152793,0.21140358,0.5775709,0.31694695,0.14332227,0.2632759,0.049170505,0.23174922,0.3758017,0.22050531,-0.23067236,0.07137289,0.311802,0.5079232,0.008235989,0.39282444,-0.17515954,-0.15693694,0.042185657,0.15919124,0.39483243,0.06775493,-0.06449483,0.04429577,0.06462791,0.009587568,0.08447505,-0.19705857,0.06191203,-0.058124334,-0.29798216,0.21724574,-0.2737827,-0.41880924,-0.08963976,-0.20987172,0.16991863,-0.2951372,-0.108043894,-0.14911526,0.37764233,0.01905979,-0.011239693,-0.27262464,0.16328388,-0.06626302],[-0.43424004,0.13850997,0.27659708,-0.06510258,-0.649609,-0.2451136,0.45903438,0.2965745,0.487976,0.25187343,0.1880941,-0.232107,0.08256336,0.18928237,0.5767354,-0.6654675,0.39227936,0.4643139,0.3845207,-0.3186595,-0.31155115,0.43723843,0.45303908,-0.40020543,-0.49306953,-0.4230478,0.2647363,0.42490405,-0.37620506,0.25402305,-0.0139680235,0.016742112,0.10908845,0.041727148,-0.33917,0.05254381,0.017700424,0.12133406,0.09630998,0.05908975,0.13578247,0.019253992,0.0063511073,0.012373343,0.14065382,-0.17778566,-0.024410158,0.06934035,0.12158752,-0.019741993,0.01782561,0.07631957,0.09134446,-0.033663403,-0.4730753,-0.0616742,0.07016076,0.094506525,-0.037865594,-0.012363215],[-0.24954826,-0.11907024,0.13314925,0.018951401,0.39355713,-0.04295867,0.16277097,0.1704473,-0.048143208,-0.10000064,0.14638636,-0.061582483,-0.09615279,-0.03655494,0.1453994,0.25330323,0.032873243,0.09181145,0.1397196,-0.13626625,-0.1874177,0.13568462,0.058244046,-0.14145175,0.9162236,-0.16528727,0.05412831,0.21077707,-0.088430285,-0.012842028,0.33468273,0.19767039,0.033486214,0.38413996,0.46084356,0.2374062,0.059434406,0.0342165,0.133382,0.25737014,-0.021882892,0.430278,0.20071808,0.28036338,-0.010547707,0.71434194,0.25271276,-0.050273415,0.083425164,0.39878416,0.4996425,-0.08976147,-0.01130803,0.6209318,0.809057,0.36431673,0.12719053,0.069295816,0.39119387,0.040996145],[0.46480143,0.04054861,0.18137829,0.2545099,0.7489581,0.16227373,-0.12952143,0.06309115,-0.09461431,0.058027048,-0.074523084,0.18376292,-0.06196697,-0.040863063,-0.19398613,0.5850093,0.14819156,-0.39316392,-0.000861055,0.31553966,0.34915188,-0.27249888,-0.09584678,0.45390972,0.32864797,0.5336593,0.034609612,-0.20884278,0.48116565,0.02510564,-0.49485964,-0.13631015,0.17438184,-0.29604733,-0.7894855,-0.18576549,-0.15547426,0.11285218,0.1883058,-0.10078547,0.16143411,-0.25076365,-0.14118919,-0.02488748,0.091624744,-0.5177353,-0.24795716,-0.073374756,0.26670194,-0.35565668,-0.20469253,-0.010316201,0.060564306,-0.39039323,-0.8480175,-0.43344447,0.0052759633,0.06846728,-0.3142336,-0.08907224],[0.37827095,0.2695158,-0.23658004,0.27980813,0.14447954,0.49780887,0.13614987,-0.1621671,-0.022264598,0.102570474,0.070809156,0.4551539,0.38031885,0.24401207,0.100134335,0.36068633,-0.045168027,0.24070446,-0.09903393,0.4610086,0.4281002,0.1345145,-0.042806923,0.39978147,0.4091178,0.2795315,0.1681437,0.059996113,0.38394746,0.16863957,-0.17690633,-0.21482436,-0.15198568,-0.2318398,-0.35439324,-0.36958304,-0.012664043,-0.071536206,-0.2608684,-0.17542414,-0.1497863,-0.32548276,-0.17353366,-0.24815364,-0.14563258,-0.39150202,0.0494719,0.08819531,-0.25555837,-0.22048129,-0.411496,0.0360136,-0.023369525,-0.2834052,-0.46314582,-0.27475613,-0.27398527,-0.06210351,-0.39267907,-0.2114819]]],"bias":[[0.120688096,-0.32993436,0.25112498,-0.22128649,-0.17996892,-0.12402823,-0.08407203,0.22773086,-0.04101106,0.111356765,-0.09563984,-0.18636985,0.27342767,-0.34506753,-0.59774095,0.29553595,0.16218632,-0.0736996,0.3568958,0.3065295],[0.32052207,0.3997899,0.39466384,0.018476909,0.09703323,0.07695652,0.34525764,-0.013054768,-0.04866206,-0.023414614,0.27082896,0.042626105,0.0947989,-0.30211216,-0.09371072,0.086217694,0.039272215,0.09481001,-0.008417453,0.14805664],[0.04872499,0.08432254,0.67051744,-0.008121148,0.020209827,0.05250323,0.14293866,0.6888548,0.3382933,0.12354639,0.7165876,0.05227471,0.11856303,0.17579882,0.19999827,0.0724962,0.126519,0.40296197,0.58223706,0.02732274,0.022489624,0.47967142,0.48730615,-0.009902968,-0.037684534,0.09486916,0.13842444,0.45318028,0.01378992,0.14028697,0.07660413,0.109642364,0.35904476,0.050193653,0.12468801,0.05735291,0.13194616,0.28022355,0.119555034,0.036920603,0.33315045,0.16692331,0.0125518795,0.0869091,0.10703409,0.09704489,0.13888264,0.27927175,0.29353744,0.12801783,0.048584808,0.29276687,0.24909176,0.111802876,0.21442695,0.14590675,0.026873529,0.23087698,0.101449266,0.13203822]],"Losses":[1.1034242465624828,0.8928035036715227,0.7093864748524117,0.5491950036061133,0.4168175071708123,0.3298955525970477,0.3024984780160489,0.30271602692897487,0.2978856001343101,0.2813888186944603,0.26068568186440083,0.24530750496183804,0.23901288912933544,0.2388183592960103,0.23983350453836785,0.23889675667337612,0.23511117837248058,0.22906409569763161,0.2220036355448217,0.21524283558499352,0.20974217523520644,0.205844824878677,0.2033059437853038,0.201638610770346,0.20046634150264384,0.19955772244223952,0.19869744134777959,0.19771302509739608,0.19657210362271604,0.1953632254963349,0.19421646442160231,0.1932467274409422,0.1925037644273665,0.19194832696508948,0.1914912323335828,0.19104561624521166,0.1905418776589654,0.1899347996402409,0.18922345104324628,0.18845871402849543,0.18772953631375267,0.18713401748309438,0.1867348389845449,0.1865204211772463,0.18640921094907628,0.18629773298744529,0.18611075087134907,0.18582223891058605,0.18545506322659225,0.1850697811986456,0.18473369024012026,0.18447917333189504,0.1842866668216922,0.18410685795933981,0.183900244169705,0.1836617210513936,0.183412467985315,0.1831738241410279,0.18295414621662265,0.1827535965629566,0.18256997205938566,0.18240008356488183,0.18223909370159716,0.18207861755757987,0.181908655015828,0.1817241379760023,0.18152811672016422,0.18132868817233766,0.18113418900195097,0.18095006115877932,0.18077746416763696,0.18061345861285688,0.18045319899369594,0.18029272348127282,0.18012991230891628,0.17996377227684626,0.17979397049762055,0.17962157050249394,0.17944897892491518,0.17927779418696788,0.17910793198087105,0.17893949219536112,0.17877355873792036,0.17861054441390087,0.1784487836498333,0.1782853872528686,0.1781185593561635,0.1779487193129707,0.17777757511403072,0.17760685661231168,0.17743766849264175,0.1772702004603193,0.17710377489849977,0.17693724820092221,0.17676964656445665,0.17660052888706704,0.17642988738577584,0.17625802845804223,0.1760855934013852,0.1759132436725263,0.1757411064627834,0.1755688095376826,0.17539596904983737,0.17522244615842492,0.17504823176091736,0.17487327043415254,0.17469745919233826,0.17452070801620284,0.17434295012946638,0.17416420612623076,0.17398457959121877,0.17380416727991096,0.17362299469582182,0.17344099844834351,0.17325800819796386,0.17307378597321169,0.17288813481919044,0.1727010207923475,0.1725125504213811,0.17232280651857457,0.1721317358643826,0.17193919948863326,0.1717450493839028,0.17154916975792123,0.1713514860672802,0.17115198251513222,0.17095065290123854,0.1707474480040845,0.1705422908879375,0.170335111659211,0.17012583670987658,0.1699144231266348,0.16970085665295698,0.16948514298274645,0.16926729410152383,0.16904732924725943,0.16882526455068972,0.16860111312928053,0.16837490455145399,0.1681467006184635,0.16791658783310193,0.16768465092746496,0.16745096867097087,0.16721562006787308,0.16697869704726295,0.16674031091122024,0.16650056673854916,0.1662595687044129,0.16601739084846298,0.1657741017577481,0.16552975807857548,0.16528440025034202,0.16503805438813698,0.16479072586426735,0.16454241111675605,0.1642930888004697,0.16404273974414044,0.1637913427672657,0.16353888498694746,0.16328536818967648,0.16303080998335862,0.16277525343565066,0.16251877157793815,0.16226146051567997,0.16200345592866733,0.16174492373742422,0.16148606236542679,0.16122710177084318,0.16096829100259333,0.16070991623767317,0.16045226957060496,0.1601956729328438,0.15994045141037616,0.15968694332535158,0.15943548811924532,0.1591864247278389,0.158940089341247,0.1586968113921485,0.15845690584796715,0.15822067966878392,0.15798841366471336,0.15776036754904718,0.15753678020498477,0.15731785583070718,0.15710376733152417,0.15689465799730928,0.1566906275159328,0.15649174613959763,0.15629804496029165,0.15610952034949688,0.15592614088835494,0.15574783476299192,0.1555745172983563,0.15540607231572243,0.15524237151396927,0.15508327452261478,0.15492863324968112,0.15477829512471133,0.15463211608060898,0.15448994530496915,0.1543516443476404,0.15421708081004612,0.1540861295976904,0.15395867360963655,0.1538346017308302,0.1537138050570228,0.15359618449211027,0.15348164047237683,0.15337007355462817,0.1532613878495549,0.15315548346954672,0.15305226093743554,0.15295161741646043,0.15285345215954513,0.15275765755403495,0.15266413166367496,0.15257277425652738,0.15248347272784796,0.15239613288677353,0.15231064905966846,0.15222692845925148,0.152144875448832,0.1520643989080508,0.15198541712587665,0.15190784495759854,0.15183160718098118,0.1517566325492629,0.15168285075430377,0.15161019687016378,0.151538616642904,0.15146805281057565,0.15139845434578936,0.15132977319109206,0.15126196807453623,0.15119499832274036,0.15112882917250298,0.15106342835804445,0.15099876345147786,0.15093481208485832,0.15087154753813414,0.15080894765297706,0.1507469942444676,0.15068567065362912,0.1506249597812914,0.1505648476111745,0.1505053230259651,0.15044637035785988,0.15038798339389464,0.15033014585914553,0.15027285132654428,0.15021609171935632,0.15015985442816235,0.15010413456487223,0.1500489219468584,0.1499942085250072,0.1499399883185267,0.14988625252503143,0.14983299438355796,0.14978020719750762,0.14972788725989558,0.14967602657453463,0.14962461964354346,0.14957366032384142,0.14952314489408228,0.1494730675519033,0.14942342487092805,0.1493742108369706,0.1493254188502186,0.14927704854668247,0.14922909577401666,0.1491815503286653,0.14913441356713877,0.14908767799318093,0.14904133760507068,0.1489953916454108,0.1489498302041597,0.14890465151739693,0.1488598493546704,0.14881541957002534,0.14877135230783428,0.1487276474104464,0.14868429585474424,0.14864129233261522,0.1485986297705893,0.14855630283857338,0.14851430469928234,0.1484726307511856,0.14843127010774773,0.14839022078358496,0.14834947390984254,0.14830902122893405,0.14826885712330393,0.14822897617473255,0.14818937379778005,0.14815005903008785,0.14811107083360087,0.1480725634854571,0.14803513267229176,0.14800082788260463,0.14797644238440044,0.1479779645817533,0.14801724399728683,0.14805698616805227,0.14803935694244993,0.14790934876044032,0.14775687419468564,0.1477264815942944,0.14777388336814828,0.1477590737542716,0.1476554882844144,0.14757335582001377,0.14755094593646992,0.1475667452690833,0.14753001687396428,0.14744179688870213,0.1473968781754764,0.14738075851772978,0.1473715402919507,0.14732509288992937,0.1472595438620447,0.1472245595487012,0.14720695856240132,0.147184114668413,0.14714060877349594,0.14708975386026843,0.14705338101936544,0.1470317397237099,0.14700415300978756,0.14696718985901303,0.1469237676747799,0.14688446675461994,0.1468567791633804,0.146828401574455,0.1467964644359684,0.14675889559631258,0.14671910316824258,0.146684545741034,0.1466532325827046,0.14662262894520547,0.14659040559307646,0.1465547087921305,0.14651754481303286,0.14648169506801534,0.14644716940831046,0.1464142126126584,0.14638174448473193,0.14634787302643976,0.1463130245376722,0.1462772592902291,0.1462407596052945,0.14620466455878442,0.14616896980690317,0.14613345777440576,0.14609837640840997,0.1460632004289684,0.14602766534790063,0.1459919895634797,0.14595587846674116,0.14591937001134617,0.1458826772813851,0.14584571120394585,0.14580856336832404,0.14577139663156927,0.14573432005774384,0.1456974024873931,0.14566112688592597,0.1456259555554279,0.14559278298105321,0.14556341304035833,0.14554058454180124,0.14552910763570756,0.14553586657940593,0.14557015470184986,0.14563447927762208,0.14571695796675574,0.14575804148954852,0.14569088902012453,0.14548211507625283,0.14523770616635331,0.1450926346918195,0.14509468007819454,0.14517113732927767,0.14520348372865918,0.14512721208466497,0.14497409709270204,0.14484686654801074,0.14480607868596534,0.1448257932811336,0.14483430582914808,0.1447812404213598,0.14467994048422167,0.14458154230616535,0.1445260184077545,0.14450907846464986,0.14449648659676306,0.14445804386824937,0.1443884218547867,0.14430754069112733,0.14423878519620492,0.14419173144518274,0.14415881216230497,0.14412490353280055,0.14407883374103828,0.1440186729929268,0.14395101781536226,0.14388461063007582,0.14382515701798945,0.14377330304094044,0.14372590325775783,0.1436786018927611,0.14362811127463204,0.14357299603370152,0.14351350546094443,0.14345092928581396,0.14338677178309742,0.14332223081498272,0.14325803731796272,0.14319433917382937,0.14313106789535818,0.14306792437468982,0.14300466714508006,0.14294112413605897,0.14287722186876473,0.1428131026624764,0.14274905138408156,0.14268583046692318,0.14262477322103637,0.14256867078743193,0.14252295387873493,0.14249808911355813,0.14251517491922547,0.1426068820818355,0.1428256510470675,0.14316201684272706,0.14350592764084055,0.14339955406551758,0.14276636186402894,0.14199556525032492,0.1417703697776432,0.14208225582052647,0.14234683141571433,0.14213177002605343,0.14160649961464908,0.14137116960739285,0.14153099427694127,0.1416626289303285,0.14146623995885685,0.14111359749322125,0.14097794558933144,0.1410648400633826,0.1410837360597148,0.14089565677078222,0.14065063346757503,0.14055260859699742,0.1405736442889347,0.14054131177804308,0.14038660735065087,0.14019713107467896,0.14008763630322144,0.14005420306079053,0.14000800492900772,0.13989386477366508,0.13973647636166303,0.13960112807403577,0.13951470729936546,0.1394518265990756,0.13937161046254695,0.13925555345553603,0.13911919293990044,0.13898776051470985,0.1388765612419311,0.13878244253193867,0.13869231400965584,0.1385943265074511,0.13848289646720396,0.13836073587391612,0.1382326198328617,0.13810406210403817,0.1379779109346769,0.13785489742596796,0.13773445277356192,0.13761563652578684,0.13749788145281594,0.13738148806551956,0.13726798245663166,0.13716080806920858,0.13706796267404378,0.13700408890323912,0.1370047211259917,0.13712565462789514,0.13749483204995203,0.13814742373218158,0.13905360698416738,0.1390984199717117,0.13803316552599795,0.13633192851348558,0.13573296518578853,0.1363764385036675,0.1370356643854357,0.13669773125214166,0.135570624321227,0.13508719582519357,0.13549084119886493,0.13581954278557698,0.13542699812427073,0.13468842118167382,0.1344604354321691,0.13472098959283885,0.13480827273532897,0.13444404172710345,0.13394770486632168,0.13377740239441918,0.13388554936903277,0.13390512292647574,0.1336651127967573,0.13329466052677308,0.1330574262349194,0.13301091418583508,0.13301921910609085,0.13293711010934045,0.13271629133748705,0.13245013470900618,0.13223046958311513,0.13209768768981495,0.1320264729990015,0.13196602180317565,0.1318827318142353,0.13175472921045667,0.1315980446600359,0.13141884141751617,0.13124017384083594,0.13106627022317824,0.13090435270324907,0.13075216168368808,0.13060980538419426,0.13047577113806708,0.13035292676485527,0.130247307718249,0.13017876780824847,0.13018709486886978,0.13038365691502501,0.13095663070847857,0.1323399862022618,0.1342576968723193,0.13579267825638666,0.13334806422527962,0.13007776527045337,0.12903405721216663,0.13061272812572533,0.1322157484126969,0.13086922356133418,0.1288589047428372,0.1287623150343755,0.1300270732247788,0.1302557367871291,0.12881838356184128,0.12809651380588946,0.12876448463135703,0.1292282233560373,0.1285751655846132,0.12775666775793504,0.12788169858351298,0.12838276600280482,0.12819115960700336,0.1275544383642249,0.12730166383735278,0.12756157533963514,0.12771852638859046,0.12739409362023665,0.1269950975255569,0.1269246775506259,0.1270820471246313,0.12710769507772549,0.12686473827286462,0.1265964015290528,0.12651179364422008,0.12657323487226818,0.12659893533108169,0.126476773959301,0.12628249089272478,0.12613710880351037,0.12609366825808194,0.12610572615844698,0.12609226958631134,0.12601720200290598,0.12589260491455118,0.12576859242735317,0.12567844244219098,0.12562888143777032,0.12560385816914085,0.12558070385439435,0.12554510154825846,0.12548955247309154,0.12542021121617242,0.12534180954011617,0.1252634923343945,0.12518854795839893,0.1251197057014258,0.1250565337190361,0.1249981972855106,0.12494343471456389,0.12489125314530539,0.12484102000966242,0.12479255018962307,0.12474613184213462,0.12470274643520182,0.12466472187122749,0.12463672411279687,0.12462949985357949,0.12466407355786037,0.12479161375767066,0.12510052063969873,0.12579946888370175,0.12701155769003536,0.1288453980843733,0.1295568692437867,0.12854879862617744,0.12577129322010197,0.12419260490656919,0.12462216146013402,0.12606811123384065,0.12674637401859726,0.12551119546738704,0.12415945228505565,0.12408887846393177,0.12497404071368258,0.12541507098386898,0.12466072974994602,0.12386320828051695,0.12392318229227918,0.12447503450928349,0.12459259978774127,0.12404562295127271,0.12363215548586363,0.12377315498163284,0.12408380618620264,0.12404594360995314,0.123676257275247,0.12346240100155854,0.12357576843985227,0.123739273830104,0.1236779645901825,0.12344114160110971,0.12330294601033794,0.12335483089218528,0.12344552238007386,0.12341520689502007,0.12326951751755243,0.12315093706108547,0.1231384779591164,0.12318403024694344,0.12319187363295071,0.12312176234650268,0.12302315568965026,0.1229587999463424,0.12294814782082003,0.12295970248121635,0.12294993930300954,0.12290444292931671,0.12283808502723335,0.12277942386447567,0.12274399787091964,0.12272865293058476,0.12271882453195564,0.12270016609000439,0.12266769278537104,0.12262393713671921,0.12257704637757214,0.12253365653342323,0.12249738282322398,0.12246810636559821,0.1224435642515109,0.12242107854599722,0.12239851085933678,0.12237494890154373,0.12234994686583148,0.12232441872001616,0.12229877992033353,0.12227487459778597,0.12225355171675163,0.12223809726036655,0.12223079747349781,0.12223953966923504,0.12227121252605927,0.12234806760962813,0.12248728702883367,0.12274751664483138,0.12313343860013237,0.12372857463738157,0.12427656766409138,0.12470670223496937,0.12434731601678761,0.12354561990483319,0.12250925243971442,0.12185999908213181,0.12175011091133531,0.12207197855215143,0.12255467070306754,0.12281361429080666,0.1227149783592778,0.12224657283630416,0.12177302686119094,0.12152043861798448,0.12155418021979796,0.12176155301024733,0.12195091707879482,0.12199951918572327,0.121847445338764,0.12161045945944686,0.12139187321096201,0.12127900987830707,0.12127835001783119,0.12134653431093664,0.12142642435597441,0.12146317350403825,0.121445704464444,0.12136533978781257,0.12125862598607645,0.12114323149982101,0.12104579465886102,0.12097346710585477,0.12092722239866162,0.12090199835189289,0.12089202003547617,0.12089405106077283,0.12090751084364054,0.12093953325123556,0.12099554586517913,0.12110011685661876,0.12125412046642317,0.1214993665763378,0.12176214723293362,0.12206495623985268,0.12217136033316763,0.12216364381838196,0.12188528222038504,0.12157219847099056,0.12121056031695415,0.12092157547887036,0.12066175127730532,0.12047018187276927,0.12037076492987957,0.12039448520217118,0.12053070684415676,0.12070886457992354,0.12086931537520415,0.12090710296207521,0.12085336106094313,0.12068940706910875,0.12052371880651816,0.12037640480469175,0.12029295912183147,0.12024866659847971,0.12023879658440115,0.12022083301853914,0.12018632698535925,0.12011358393763553,0.12001921165877223,0.11991518752536512,0.11983061904819421,0.1197754520160786,0.1197618433766099,0.11978741690086855,0.11986475951598669,0.11999694763174769,0.12023052123829042,0.12056372238605526,0.1210877098350835,0.12163273627835221,0.12220527187742224,0.12214915399093361,0.12163045621615814,0.12056482224804009,0.11973617070263493,0.11946674518297587,0.11979340539640873,0.12045395004609273,0.12087452752402619,0.12082481363681101,0.12016122492075987,0.1194518582558569,0.11902364154348284,0.11901483467783615,0.11928415222381981,0.11955193351134794,0.11962238618512153,0.119386506041692,0.11903220054618922,0.11873186677416289,0.11861188005639338,0.11866294315028347,0.11879604406338791,0.11891212347473724,0.11892586033312229,0.11884401369911148,0.11868871050481605,0.11854381622829592,0.11847340362275625,0.11857219381322227,0.1190184873304362,0.12016182518790064,0.12249405066195533,0.12455497180970472,0.12366458300980439,0.1199543582533917,0.1185387246932667,0.1203411526580547,0.12142767994181496,0.11972381295104242,0.11811216177071526,0.11914591071249737,0.12043772711147113,0.11916086140881181,0.11789004959686007,0.11852777838266698,0.11923520807326496,0.11849880151240003,0.11780622967131263,0.11835858661536544,0.11875894956232405,0.11808391194946927,0.11763228899401683,0.11800883523412042,0.11817585965199452,0.11774150253608583,0.11751914260234719,0.11780531815877851,0.11792472362232986,0.11759695259624282,0.11740256750218978,0.11755662061718265,0.11764210917938332,0.11744431156997456,0.11726171494394766,0.11731349403519656,0.11740644493042776,0.11732157706882836,0.1171786348142547,0.1171755010103254,0.11731318224869447,0.1174595284953062,0.11763338204623527,0.11800712471762625,0.11882723023123684,0.11990443579783332,0.12101363042315068,0.12087423640461643,0.11975139028054443,0.11797769037255668,0.11687561040061142,0.11680582846381397,0.11752432197235008,0.11840038619915123,0.11854716846694227,0.11790556127712236,0.11695182646640134,0.11648849947290141,0.11668728584712369,0.11719581818247474,0.11750504366723435,0.11727266421466201,0.11676164563040542,0.1163625102871748,0.11631778151525199,0.11654336890738005,0.11677832796148511,0.116823066113701,0.11662163817384127,0.1163406986287809,0.11613644763931466,0.11608458278517257,0.11615095339617625,0.11625127390517817,0.11631864087735581,0.11631430220585606,0.11625671421939206,0.11616415390370136,0.11606375619140838,0.11596756952046028,0.11587970733315955,0.11580453980522182,0.11574361158559891,0.11569844951867372,0.1156675960091817,0.11564804682142082,0.11563768790836973,0.11563834254023861,0.11566102892726085,0.11573102133848154,0.11590529094216258,0.11629590810508778,0.11709768554772701,0.11855386195107645,0.12043298869861803,0.12155813684608298,0.12014840947180806,0.11737139002992089,0.11548376685768981,0.11550300184446644,0.11686560471015932,0.11805753220110339,0.11771654925134681,0.1161910418471263,0.11518716664811088,0.11543899552519932,0.11633460849873423,0.1167026921506588,0.11607170966702994,0.11523711332003214,0.11503808641060403,0.11547181907061076,0.1158818049369326,0.11573957548003225,0.11522876632475679,0.11489097496328926,0.1149753107058773,0.11526118305580867,0.11537664053094814,0.11518880928304781,0.11488539770412429,0.11472381872156084,0.11477590375793711,0.11492155492730552,0.114992449552535,0.1149153992948459,0.11474756015268513,0.11459745389671962,0.11453482915714591,0.11455728317182329,0.11461603965533348,0.11465683108898034,0.11464878791162575,0.11459206140564698,0.11450706398932176,0.11441904660980914,0.11434550769866647,0.11429330508699262,0.11426124767189029,0.11424458513218036,0.11423887773897004,0.11424191565871139,0.11425485258571977,0.11428271082037285,0.11433575527375495,0.11443186697449892,0.11459921434004995,0.11488174464402813,0.11532611220390887,0.11596520505669584,0.11669962717932308,0.11726542663157016,0.11721756325269403,0.11644591073114233,0.11529152447623449,0.11431683807867536,0.11383883761685007,0.11387077986280415,0.11425645811542837,0.11474853439120973,0.11508428090485852,0.11505635908409592,0.11468813602152822,0.11418839424459207,0.11378949615212591,0.11361799278830573,0.1136636331822901,0.11384018615593455,0.11402996780561137,0.1141426045590548,0.11412425680199793,0.11399164915569034,0.11380264767983767,0.11361603803822032,0.11347688381020071,0.11339471462104499,0.1133629479521567,0.11336513247689073,0.11338906348998873,0.11342591519060129,0.11347607661256402,0.11353828488658652,0.11361467671775481,0.1137078245041072,0.11381505782592499,0.11394336505053473,0.1140753733564393,0.11421416657716649,0.11431721081350014,0.11437850993431532,0.11435363564906806,0.11424677430958621,0.1140624250407301,0.11382490800150186,0.11357984330272876,0.11334333038049574,0.11314831573611206,0.11299062081782851,0.11287617687127309,0.11279422202864792,0.11273951481810704,0.1127048317712751,0.11268664419501964,0.11268399750973046,0.11270006288424782,0.11274224895413465,0.11282437485586636,0.11297155561645006,0.11321703211632539,0.1136173307971254,0.11419452419179928,0.114946663418631,0.11561591950265328,0.11589388154298945,0.11541004265368769,0.11438821704430656,0.11329858054452784,0.11256190814658523,0.11231196521123837,0.11247054349626767,0.11287200225279129,0.11328436549385551,0.11351725241826995,0.11342046884286525,0.1130704265403373,0.11263984837864885,0.11230226756774407,0.11214565856723648,0.1121554994045437,0.11226950719853405,0.11240046641721557,0.1124925266839371,0.11249858045965853,0.11243234339989171,0.1123181345459679,0.11218989917208502,0.11207602434005054,0.11198121603911042,0.11190883726060316,0.11185090760418687,0.11180632603824242,0.11177251768810663,0.11175270462559209,0.11174750358751095,0.11176233942642912,0.11180131149970504,0.1118742168540861,0.11199410682041373,0.11217608746052933,0.11244492233329573,0.11280353606663579,0.11325198615798134,0.1136960790037903,0.11400557473744952,0.11400166461925926,0.11360630059700715,0.11296773070610087,0.11226574325594986,0.11172827935081284,0.11140908259248117,0.11131122534391466,0.11137623323064108,0.11154204487928088,0.1117392892688919,0.11191731202612352,0.11202576560140615,0.11203510273432178,0.11195658212379579,0.111789571265393,0.1115971150081251,0.11138750930835133,0.11120913113614683,0.11106122663787858,0.11095630048093033,0.110888120547913,0.11085344228984874,0.11084742499574991,0.11086800954169941,0.11091562301048896,0.11099239400206247,0.11110906449982468,0.11126757908243867,0.11149538655878496,0.11177295576906623,0.11212996596396432,0.11245942467482187,0.11274371641259338,0.11278016978305926,0.11258564034042762,0.11213341437759365,0.11159070348464097,0.11108734185994253,0.11070943542420039,0.110486559493151,0.11039696200239663,0.11041064691948722,0.11049283814940579,0.11062249024253482,0.11076839463839568,0.11092172745406982,0.11104632979292882,0.11113113690023955,0.1111469092978129,0.11108841147986004,0.11096152589081179,0.11078344013303301,0.11058675627436093,0.1103942302524581,0.11022719835938342,0.1100931240027461,0.10999234293743797,0.1099202951093029,0.10986918446573651,0.10983253977338323,0.10980383486745017,0.109779452389574,0.10975612040833187,0.10973343926427474,0.10971056098841098,0.10968971912964645,0.10967222013935514,0.10966460286836313,0.10967411042638282,0.10972297976449828,0.1098429335468406,0.11012012475041358,0.11066612358152773,0.11173690252018804,0.11332601982716015,0.11524633047554636,0.11572002893313388,0.11438179867311507,0.11189762227276331,0.11008858990027752,0.10953262256024983,0.11000361799316702,0.11098498186177407,0.11159153404298311,0.111447499792365,0.11056385550991733,0.10974611448978835,0.10945504767438514,0.10964930122157424,0.10999565936229642,0.1100482087805088,0.1097981556832154,0.10940912014875256,0.10919234902738179,0.10922380889339565,0.10935934078669314,0.10941832244082147,0.10927263436080197,0.10903545856364684,0.10884292920430379,0.10880176452137263,0.10888718249189822,0.10898595351196853,0.10900017336454865,0.10888298149668865,0.10870395670297185,0.10854293808385075,0.1084636430461195,0.10846982704114197,0.10852168196744359,0.10856691924843662,0.10856296923903823,0.10850842965312074,0.10841945340406195,0.10833301884770383,0.10827340195939368,0.10825289840450773,0.10826993422101786,0.10831633726183712,0.1083927140420813,0.10850103298124464,0.10868418930185364,0.10897525718222023,0.10947688880212077,0.11019767966453291,0.11112601807208645,0.11186917670633968,0.11199437555257566,0.11120807033739327,0.1099157368834953,0.1087082447948677,0.10795677098748241,0.10771192009794792,0.10787449518566093,0.10829259150802514,0.10878279339024507,0.10913570139343408,0.10918529506106768,0.10893164437242092,0.10848058192146454,0.10804740243231381,0.10772476769498371,0.10756061292644659,0.10751816452234145,0.10755450724826787,0.10762662423687508,0.1077123316758414,0.10779932254187066,0.10787231360619319,0.10793704127846997,0.10794912695471462,0.10793473923958531,0.107842213298226,0.10772853266726916,0.1075727441590201,0.10743235544259168,0.10730363411255871,0.10721016399291476,0.10714332675953492,0.10710142179409582,0.1070748985311193,0.10705958597995516,0.10705507207109578,0.1070673588239203,0.1071089357199126,0.10720376181339868,0.10737767347832716,0.10768717354591915,0.1081404485231215,0.10880648804575309,0.10944889285098675,0.11001024757948193,0.10986859767048278,0.10928274183758623,0.10824113515697079,0.10732431513627913,0.10668558545068274,0.10639217755430025,0.10638099701483694,0.10656512227280227,0.10686640899973171,0.10717281412082197,0.10743732135976708,0.10751772249001872,0.1074559687580196,0.10721515056319537,0.10691504485296349,0.10660619616289391,0.10634858473640733,0.10616110308617863,0.10603977255490016,0.10597534397756472,0.10595472929852173,0.10597119990827131,0.10601789096902897,0.10609854413009398,0.10620819268488174,0.10635891491958734,0.10653822574564162,0.10675922133538741,0.10697987000873407,0.10720374313386717,0.10733558223482723,0.10739298394373432,0.1072695878109516,0.10706447499642845,0.10673265424683974,0.10641422562613534,0.10609213677338653,0.10584341011744759,0.10564125653597903,0.10550052155987746,0.10539613435015524,0.1053231081028521,0.10526722281126921,0.10522423938398869,0.10518898405656167,0.1051616364554446,0.10514283868157759,0.10513778849810114,0.10515443353183819,0.10520839555953167,0.10532822295872164,0.1055555882641985,0.10597557621467808,0.10663741114095505,0.10765533036474322,0.10865143805535134,0.1094280588727788,0.1089147845414098,0.10775903102803147,0.10622026512595738,0.10514259569216619,0.10462490195655391,0.10461894720191067,0.10498519470541598,0.10554324806965032,0.10610820663188661,0.1063392153783684,0.1062170451385698,0.10568412257012647,0.10508825213991843,0.10459668711409593,0.10433316247353484,0.10429011704674673,0.10440871245047047,0.10461571416350941,0.10481612413425115,0.10496904751211482,0.10498504643388688,0.10491168849660985,0.10473014566776256,0.1045308205026753,0.10433398024536689,0.10418123083301968,0.10407670093916578,0.1040181742232119,0.10399846859413674,0.10400695999905808,0.1040408204774922,0.10408867590466048,0.10415705800893854,0.1042244389097616,0.104307668440066,0.10436282095258229,0.10441822202104617,0.10440751576216338,0.10437841335155228,0.10427109295995275,0.10415903350143053,0.10401964040465701,0.10393855807882965,0.10393160944358269,0.1041065018248148,0.10452959024911618,0.1053744678036867,0.10659964827229719,0.10799733921156343,0.10854378616680073,0.10782386713509097,0.1060423253452416,0.10440082249145603,0.10339334845368246,0.10309485368214336,0.10333008016145577,0.10388775718657357,0.10450290191565566,0.10488132453900181,0.10485466347353099,0.1044279043195552,0.10391328152308867,0.10347347451806155,0.10325692440075411,0.10319152320214117,0.10321036380969512,0.10320520084008947,0.10315566279878313,0.10306682889537727,0.10299427773959217,0.10298335060019864,0.10303899770819094,0.10316325626046158,0.1032720825236245,0.10336319639090985,0.10332647629545261,0.10323618396776062,0.10305734086444986,0.10290656858132438,0.10278601679470879,0.10274620494177827,0.10275908382592583,0.10281558500213236,0.10287834108073662,0.1029384690903059,0.10298431981772413,0.10304213752346156,0.10311334431236575,0.1032525438773764,0.1034096333088904,0.10364685581824801,0.10378466370873494,0.10390935264702218,0.10376437041019619,0.10354722539382212,0.10313986979298823,0.1027691994818606,0.10242187449166358,0.102176987548926,0.10200967123880678,0.10190482399303907,0.10183526888294048,0.10177977874725158,0.10172851009254061,0.10167570080423162,0.10162450638365883,0.10157756988163703,0.10154070546478035,0.10151796303190729,0.10151603040065456,0.1015430143855203,0.10161744383373833,0.10176631591431001,0.10204960342489476,0.10252906943839919,0.10332933162440598,0.1043544733778509,0.10551913585661515,0.10586892221962159,0.10543365684212264,0.10396949900967958,0.10260054904961874,0.10160395511409784,0.10115697953295474,0.10114895539408728,0.10145715910641048,0.10195097335273391,0.1024434985307164,0.10278477525994577,0.10273873285270103,0.10242777788227612,0.10189554916369761,0.10142078095856097,0.10107290118224276,0.10090827909196246,0.1008933007459145,0.1009825574090753,0.10112021016061526,0.10125852997952627,0.10136005757636793,0.10139507200072652,0.10137451966181232,0.10129244778062084,0.10119848896988343,0.1010900356207521,0.10101453113974168,0.10095478760529221,0.10094132338415814,0.10094251965478221,0.10098088661791842,0.10101153747025614,0.10105942744749041,0.10106730693276655,0.10107117461173634,0.10101441366977691,0.10094994727749058,0.1008412711199794,0.10074998426833313,0.10066110519240772,0.10063011985475334,0.10065257800389163,0.10078296486848641,0.10101865175071875,0.10142115212427301,0.10192855999567951,0.10252979646057317,0.10293096343206379,0.10303915280945143,0.10260813986469837,0.10192477825108615,0.10113472323307762,0.10051754608448718,0.10010795766430741,0.09991247632205222,0.09987614923438616,0.09995024822464786,0.10008628399377988,0.10024887263848761,0.100398578848939,0.10051435169596427,0.10057908605688211,0.10059003673338411,0.10057439426167512,0.10053487401912738,0.10053286582410945,0.10054281922399945,0.10063759533794653,0.10072815826619222,0.1008867615571387,0.10093381464438081,0.10095589123050988,0.10076328563494107,0.10051320526156925,0.10015034670813189,0.09983054290031154,0.09956470414679709,0.09939891658126582,0.09932066275720956,0.09931277276949768,0.09935012979800066,0.09940723425006157,0.09946655827260151,0.09950651358369157,0.0995262535355353,0.09951293562477624,0.09948302356111627,0.09943656501849274,0.099399408386316,0.09938455302752477,0.09942544554407529,0.09955932171291268,0.09984217964254413,0.10036729296379457,0.10114467298745665,0.10222235146075653,0.10299855266295313,0.103318174889853,0.1024080396679337,0.10117707754764282,0.09991212027438064,0.09911268701101628,0.0987557590480651,0.0987652775545043,0.09904126083762478,0.09947673650287632,0.09996971174951379,0.10029535297772912,0.10040634420325302,0.10013874263203514,0.09971777777846536,0.09921989935033625,0.09883018247853884,0.09858243584051411,0.09848247625343728,0.09850068286724835,0.09860083370831693,0.09874932961515004,0.09890552450724033,0.09905222596615482,0.0991392379626724,0.09918236436880716,0.09913936952629746,0.0990610310920976,0.09892821763677898,0.09879515566329553,0.09865398640819989,0.09853546613609974,0.0984317257494637,0.09835265566545569,0.09829052437869884,0.09824712420155557,0.09821773732733179,0.09820485123198061,0.09820872506541534,0.09823884224661317,0.09830347193926711,0.0984299659621908,0.0986360213360684,0.0989801595691272,0.09943717484338907,0.10004169838953018,0.10047913660996796,0.10067966905195407,0.10022052429931096,0.09947697678242952,0.09863202401750802,0.09805496367234248,0.09781905791645254,0.09789296172591984,0.09817745532666595,0.09852568197663006,0.09881900491462284,0.09888332100937769,0.09879577139009231,0.09859732568562467,0.09856322601927839,0.098821956814146,0.09955335040860766,0.10065374733133646,0.10177844366370348,0.10215449155870554,0.1014961535519224,0.10014887583766775,0.098967107479604,0.09821173595175882,0.09791791909650696,0.09788711712321413,0.09798848256896615,0.09812576152091097,0.09829253730009613,0.09848876404273153,0.09867105389980259,0.09881871797907954,0.09875845087505589,0.09856404091610782,0.09818413372804487,0.09780777713731802,0.09749178185471846,0.09730731589828426,0.09725161670766412,0.09729611225241977,0.09740042479009314,0.09752070224312609,0.09763637968558757,0.09771317128294957,0.09777309628130286,0.09779264677748456,0.09781315930105515,0.09781018283125188,0.09781209319013846,0.09779172596726782,0.097762616222423,0.09770790767585034,0.09764020664742079,0.09755721573835081,0.09747415371094405,0.09739322861282286,0.09732729923208298,0.0972744592384102,0.09724402293717875,0.09722952812077296,0.09724117934307815,0.0972695920976769,0.09733167610438086,0.09741253521467898,0.09754124292583359,0.09768469035744905,0.09788661376518534,0.09806622645000805,0.09828084196151314,0.09837843644355934,0.09844693449124386,0.09832252733055502,0.09815239969785942,0.09785502843643279,0.09757531337607236,0.09729002209323669,0.09706551365897018,0.09688662535109935,0.09676184764371797,0.09667805682583894,0.09662827012849434,0.09660535069898463,0.09660508767752969,0.0966281416145985,0.09667698540121834,0.09676334051874215,0.0968951051073145,0.09710047378071007,0.09737349922120905,0.09774677608871281,0.09811232912641193,0.09845524674553102,0.09850081151555937,0.09831332733582426,0.09779753951024751,0.09723607522544468,0.09673001857965279,0.09640490074488031,0.09626581016376304,0.09628441588478934,0.09641372992941415,0.09659822785159183,0.09679058877277918,0.09692030676572864,0.09697570998213563,0.09691227597897853,0.09678920381200597,0.09662162168900666,0.09648883764292154,0.09642290912508573,0.09648748913425292,0.09673054180821275,0.09725482660911895,0.0981202220086506,0.09934197432941926,0.10045460225405398,0.10090545819335071,0.10006922664704852,0.09867331884378365,0.09730024364099735,0.09647406585380135,0.09615739769106041,0.09623822117209013,0.09655510288574022,0.09695832853422089,0.097271333378409,0.09737683317631592,0.09725541746479514,0.0969663872639274,0.0966792855134647,0.0964533342892775,0.0963668007918485,0.09637077672876783,0.09644154391347107,0.09648809238485145,0.09648594992919683,0.0963873999454831,0.09623266209606868,0.09604358920075577,0.09587314828776447,0.0957443478355647,0.09567044043491997,0.09564909999071868,0.09567135880266608,0.0957273285011848,0.09580576193784876,0.09590352836608051,0.09600879474980376,0.09613123504455644,0.09625102686150536,0.09639392234698888,0.09652006814527207,0.09667568202374449,0.09678701712156469,0.09692971623559585,0.09698996436916156,0.09707990767375538,0.09705823998685988,0.09705792070273664,0.09694338143182743,0.09683264302444144,0.0966387582945842,0.09644297992350456,0.09622005797252496,0.09601181571450966,0.09582346768314304,0.09566608662132196,0.09554547545681158,0.09545806650517451,0.0954043995855842,0.09537878194673571,0.09538160616197451,0.09540949634015305,0.09546882190929326,0.0955565856477987,0.09569079652513328,0.0958573906037157,0.09608906601694432,0.09632644301653091,0.09661212009062851,0.09679267846286162,0.0969357577768724,0.09684379356961473,0.09667349652212817,0.09632961459831646,0.09599704681780999,0.09565841368810588,0.09539766436109984,0.09519875293301472,0.0950676799070131,0.09498705105470809,0.09494526305335987,0.09493147876303297,0.09493873649233142,0.0949637161541792,0.09500584814643892,0.09506967284789815,0.09515796989182254,0.09528546769202806,0.09545067884861087,0.09567930650776944,0.09593906910306792,0.09625379265820737,0.0965076381576476,0.09671485685244705,0.09670338400911833,0.09655905796383141,0.09622498193922244,0.09586061784775338,0.09550543527871908,0.09524520227068761,0.09511202963638093,0.09513797321512497,0.09538300964861125,0.09590864246588594,0.09682421332166703,0.0979297650232464,0.09893887699262256,0.09879876986861671,0.0977736350987743,0.09622531076838944,0.09509311361596423,0.09457919994358228,0.0946371594880985,0.09509658541715113,0.09570388043054986,0.09619487692690128,0.09620956200666043,0.09583007714730114,0.09520625994884913,0.09469457135817348,0.09443744674092522,0.0944513174741205,0.09465600295830824,0.09492322317574538,0.09513675388377188,0.09517571233354404,0.09506237461306631,0.09482649624624047,0.09458944384738936,0.09441113996745036,0.09432913911943709,0.09433738797558,0.09441140078144186,0.09452089581937059,0.09463236283052684,0.09473044716678988,0.09479398310883846,0.09484044243838574,0.09487086123591242,0.09492807002182276,0.09502823950749648,0.0952133080931755,0.09549558917197207,0.09585299703277382,0.09625213830773145,0.09649862949801857,0.09656867866664508,0.09626519069975355,0.09581125182507785,0.09523243294963858,0.09475068091520956,0.09438257381358567,0.09416273985555619,0.09406195691572108,0.0940560542692523,0.09411893636288181,0.09423109171937542,0.09437298762219656,0.09452723059988186,0.09467306891114399,0.09478598128808555,0.09484916512727716,0.09484361427461512,0.09477593761905866,0.09465184513616347,0.0944990459702133,0.0943361171984856,0.09418476529801548,0.09405564778764122,0.09395437726114468,0.09388277667944843,0.09384025485343558,0.09383009920477572,0.09386005365016269,0.09395301497909421,0.09414863314397384,0.09453426789869457,0.09519883725649722,0.09629561183701871,0.09754662117316358,0.09861700655337541,0.09826086376137343,0.09700537158395628,0.09531634301426374,0.09415286043503575,0.09362080352496727,0.09363657002317534,0.09404669505898632,0.09466245658421238,0.09526839553246705,0.09549406760767026,0.09531104892873721,0.09473037857665402,0.09413957178668321,0.09371738231280455,0.09356401666209618,0.09364342555768167,0.09386971228718692,0.09413870061233592,0.09432100595324906,0.0943638404128506,0.09422577314416522,0.0939987132036609,0.09374792672459951,0.0935574285861282,0.0934553012374644,0.09344571304283435,0.09351405582322696,0.09363335255184543,0.09378875358690406,0.09394293271512176,0.09410729067684868,0.09423380374494927,0.09437356891417292,0.09446570668995588,0.09459147816935291,0.09466790822169245,0.09477280427193492,0.0948023863009024,0.09480848349477598,0.09471416393799076,0.0945607955264933,0.09434646529131872,0.09410814300877589,0.09388339450548279,0.09368538450328012,0.09353900192342686,0.09343740126333125,0.09338807973019651,0.09337941943857182,0.0934154863103441,0.0934833971938593,0.09359370999777829,0.09372192062192627,0.09388861958360017,0.09403776492877039,0.09420215733603131,0.0942846824171287,0.09434385028417416,0.09427650237685825,0.09418014898421312,0.09399257892835908,0.09381598630710661,0.09362194545881507,0.09347229132972074,0.09334809135730954,0.09327376766581258,0.09323423454962339,0.09324033183369518,0.09328052782078093,0.09336680963702529,0.09348482430177199,0.09364949391361198,0.09382545535935115,0.09402223524315939,0.09416275876387063,0.09425655839330646,0.0942146775645677,0.09409069625560733,0.09385407590312828,0.0935949798212873,0.09332332170583733,0.09309395298231442,0.09290717584411533,0.09277249129920757,0.09268002895361063,0.09262355705865276,0.09259492624838062,0.09258999301365492,0.09260738634075463,0.09265208322024562,0.09273271539854788,0.09287301585482265,0.0930956512557939,0.09346186288280137,0.09397637152867777,0.09471809198424937,0.09543461204351052,0.09610245042956247,0.09608078681915617,0.0957169737259352,0.09489723888858095,0.09424544042982287,0.09378823474167851,0.09364954596823191,0.09368358344298128,0.09381484433491266,0.09385811230044012,0.09377107777460832,0.09351519647457054,0.09317442894194934,0.09283841444688982,0.09257425781797815,0.09242393799407368,0.09238922532868146,0.09246507479372762,0.09263107831205736,0.09287164686421155,0.09313977707811746,0.09341572734393311,0.09360701793977678,0.09372244752002691,0.09368014972983552,0.09357177635416497,0.09337921257297262,0.09321641045510393,0.09306721522913214,0.09299121701425847,0.0929351515536888,0.09292171335178115,0.09288251541473341,0.09284193320988665,0.09275218153584798,0.09265287675886515,0.09252739773318658,0.09241390529608436,0.09230867632775216,0.0922335077027102,0.09218506134098371,0.0921742285905131,0.09219981785440191,0.09227554267381476,0.09240596943875867,0.0926194302182417,0.09291299770519837,0.09332145388250346,0.09375389262749773,0.09419653984602919,0.09437934244169097,0.0943401361843501,0.09392387931815689,0.09341705686937973,0.09287361958105725,0.0924758723173561,0.09221249639540482,0.09209232820603584,0.09206743431067929,0.09211023201015342,0.09218509889706478,0.0922659528811056,0.09233603222437584,0.09237282428394925,0.0923815371610893,0.09234863454406565,0.09229801172975609,0.09222550814467087,0.09215966631292333,0.09209956146854364,0.09206928453869279,0.0920690879863038,0.09212373249623683,0.09223539502398578,0.09244209811502002,0.09272862190538105,0.09314377243096661,0.09355965036228713,0.0939998210505879,0.09413586047502222,0.09408743901993956,0.09363940134962766,0.09313006257759039,0.09256038968507291,0.09212093798828457,0.09179110166767011,0.09158234653194339,0.09146026080667823,0.09140233443400698,0.09138914361945467,0.09140872416324576,0.09145545000084973,0.09152753415191843,0.09163125049114623,0.09176705786464738,0.09195576991194268,0.09218313375893661,0.09248508114944069,0.09278968102167202,0.09313923896884233,0.09335794685968202,0.09351960392456019,0.09343190044890962,0.09327048396171629,0.09296072211581179,0.09268912598157485,0.09242692433316177,0.09226054770244971,0.09214375501432437,0.09209684360023203,0.09207024659757343,0.09206113231719815,0.09203864198986751,0.09199352976310224,0.09192696536039141,0.09183155101848765,0.09173328458142008,0.09162653404362113,0.0915415914057896,0.09147177333208745,0.0914413896567893,0.0914445470682071,0.09150453441809746,0.09161789766275644,0.09181571794631636,0.0920803935863547,0.09244088145793884,0.09279600460423007,0.09313671244006366,0.09324019178446732,0.09315782305984108,0.09278240395540813,0.09233287093114237,0.09185280772181485,0.0914753986182703,0.09120200375643489,0.09103887315067506,0.09095921302040957,0.09094358289203056,0.09097275197396887,0.09103519957865393,0.09112220186929265,0.0912271037811804,0.09134669941366998,0.09146953398574661,0.09159308304650386,0.09169449113716438,0.09177255470345934,0.09179903319510142,0.09178429842685211,0.09171195174340699,0.09160917756695383,0.09147558695011719,0.09134115948286405,0.09120888680762966,0.0910981645966313,0.09100895826147294,0.09095348449700047,0.09093555010691656,0.09097682579338148,0.09110352506848124,0.09138268438260706,0.09188240124381761,0.09274229461355747,0.09384408164058762,0.09507738203410086,0.09539748721763683,0.09492993288871983,0.09351235586856306,0.0922473346447969,0.09130094290258582,0.09079171578755663,0.09058834114522428,0.09060022018044557,0.09076775630955124,0.09105525889896299,0.09144733075624016,0.0918640711329875,0.0922756569498919,0.09246701238984585,0.09248757361679236,0.09218999556969591,0.09181086782868707,0.09135576056005386,0.090986778081408,0.09069827446599622,0.09051267849206639,0.09040677183960567,0.09036481955648484,0.0903703254372592,0.09041153711984587,0.09048285981754134,0.09057977935292057,0.09070934029879764,0.09086491818045704,0.09106544183702014,0.09127949622401213,0.09153024324340728,0.09172938145885702,0.09190497606685863,0.09192726964719904,0.09187362383283006,0.09166340329643818,0.09142648925071205,0.09114227572861874,0.0909029622418683,0.09069164616532685,0.09053814895615044,0.09042153876338464,0.09034443345226134,0.09029161169517534,0.09026235116419441,0.09024909630309219,0.09025490668588491,0.0902778137097012,0.09032694035243441,0.09040385511280226,0.09052699238907343,0.09069519952273455,0.0909369051672434,0.09121862317248608,0.09156277424538369,0.09183781996955026,0.0920592585750444,0.09202905365697359,0.09187507905155402,0.09152308118819213,0.09119483283552207,0.09089756363132391,0.09076544400663601,0.09079848410261981,0.09107083203145784,0.09155267272986191,0.09225380789988191,0.09286534756946728,0.09322481722597961,0.09289787349645771,0.09220209385995265,0.09131304522898072,0.09061782536959977,0.09017428797469386,0.0899824827977462,0.08997257368420301,0.09008112866357351,0.09024470050916754,0.0904090806265619,0.09053289400520825,0.09058018445454318,0.09056219343098108,0.09048314214111217,0.09039665465265619,0.09032291925585609,0.09030883950309761,0.09036233425063779,0.09051552588023774,0.09074920245454336,0.0910907284673527,0.09143221232752055,0.09179367295907384,0.09193268824349453,0.0919547164566573,0.09167263939334348,0.09134221157463422,0.09091613034361096,0.09057199050886015,0.09027544407443557,0.09007318189153461,0.08993278857710395,0.08985353713580128,0.08981120300477426,0.08979679506190524,0.08979368839116904,0.08979696115916606,0.08979760153380134,0.08979828582640811,0.08979844083284443,0.08980934571803166,0.0898361858448844,0.08989791393430578,0.0900024143625471,0.09018134032136266,0.09043534347312276,0.09080962621850652,0.09123475404599865,0.09173361124197534,0.09204510820389909,0.09221446533882272,0.0919653488004869,0.09158716012296043,0.09103608215019421,0.09058180669051176,0.0901926374997594,0.08993537486033741,0.08975667691960318,0.08965068962263573,0.08958476481219776,0.08954855329564422,0.0895294938292756,0.08952215060735007,0.08952513501788623,0.08953639404833763,0.08956151374052819,0.08960095303952763,0.08966768181528718,0.08976423231972502,0.0899148239914187,0.09011747764220508,0.09040848146279419,0.09074367180028677,0.09115245702348439,0.09146665582297121,0.09172157372400999,0.09167528694078582,0.0915209835814334,0.09114450317659019,0.09081776786100335,0.09047485996348621,0.09025025837914069,0.09006130180256346,0.08994255242820669,0.08983496496775616,0.08974669151188332,0.08965499586197287,0.08956537913978554,0.08947810298242177,0.0893970466428687,0.08932906782198322,0.089275028577512,0.08924164373671938,0.08922939673924395,0.08924730167213342,0.08930044140823544,0.08940861310624562,0.08958457135309293,0.08987001870686254,0.09026045208659607,0.09080223524111099,0.09133561993876137,0.09184583291871173,0.09193473322837631,0.09176256344975706,0.09117236766619255,0.09057623994028084,0.08999025429787401,0.08957674529120317,0.08928579954816693,0.08911329482778638,0.08901446281992849,0.08896894130519421,0.08895698534324857,0.0889689506287392,0.08900045756512819,0.08904912442054098,0.089120232770951,0.08921386843929995,0.0893444674743656,0.08950734487044953,0.08972496577818088,0.08996686746388832,0.090254694932735,0.09049574750831103,0.09071526811804043,0.0907747470129581,0.09077213703386415,0.09061887336214863,0.09049662079036337,0.09034621815645742,0.0903198917793064,0.0903016128529717,0.09037073323738394,0.09035658655850722,0.09031053606839452,0.09011479019730444,0.08986210303445798,0.08954723917742005,0.08925592143211646,0.08900392219497637,0.08881589387050189,0.0886861604606593,0.08860724944779888,0.08856701802618937,0.08855533299661003,0.08856438718135144,0.08858897390684255,0.08862588280668852,0.08867367969217904,0.0887317440659133,0.08880052782739649,0.08887966326976786,0.08896923628440098,0.08906606315309605,0.08916726401416496,0.08926355830594236,0.08934858101968823,0.0894077207443977,0.08943835281131408,0.08942934998077516,0.08939444795846967,0.08933434858046971,0.08928467451350498,0.08926084525946466,0.08932840525795702,0.08953408701601785,0.09000920804156205,0.09079866525667497,0.09200241071006664,0.09304513660864802,0.09365318638612631,0.09285523497643264,0.09164294464590693,0.09026573757186007,0.08933877285844803,0.0887635158937117,0.08848153684743866,0.08839083096030685,0.0884424197298121,0.08862219279428872,0.08892832869870826,0.08938325489153662,0.08991495333409755,0.09050622844075595,0.09084048976781949,0.09094707257714028,0.0905729621340762,0.09006562114527687,0.08945622812463878,0.08897761854857805,0.08861816605802314,0.08839240401806489,0.08825929247704876,0.08819208086313893,0.08816654948422917,0.0881677446292524,0.08818717470424432,0.08822137959916723,0.088272922865882,0.08834451344438239,0.08845056962057969,0.08859507913871825,0.08880951728977576,0.08908160615578746,0.0894567645270147,0.08984036939061153,0.09026360598170381,0.09047854755264906,0.09055988157316058,0.09029887209236795,0.08993855509255436,0.08945626323071411,0.08904487754758368,0.08869253678664844,0.08844182556208184,0.08826184221150762,0.08814306226689596,0.08806364870955506,0.0880122407523473,0.08797820711602725,0.0879555916353578,0.08794005284775436,0.08792934027503894,0.08792226663985891,0.08791875544784056,0.08791972292526473,0.08792708721940296,0.087944912624006,0.0879790898455863,0.0880419741628528,0.08814916588052892,0.08833592852098468,0.08863258278577621,0.08911728537973393,0.08976540294526998,0.09062946784965002,0.09128860642789996,0.09171753908500607,0.09134448148483516,0.09075761282349257,0.08999508956040135,0.08954206539424407,0.08934088457685262,0.08942577693536087,0.08960135659582072,0.08978180845826368,0.08974169490440309,0.08951002379689166,0.08907784904628582,0.08862004314847655,0.08821144154901006,0.08791878159957456,0.08774226401407621,0.08766728344363423,0.08767190144510616,0.08773638636552956,0.08784483391977099,0.08798166146742242,0.08813867715848031,0.08829721804186548,0.08846161388360992,0.08860727054268402,0.08876287804173434,0.08890255321577786,0.08909027589429236,0.08929102241579091,0.08959439054312762,0.08988952991082384,0.09025927019690008,0.09041502099430022,0.09048624986544673,0.09016331746711101,0.08975744549622822,0.08917239293563324,0.08867167233928512,0.08822827407166565,0.0879125622737389,0.08769197893084833,0.08755647636060336,0.0874813588397104,0.08744964050641132,0.08744767278761406,0.08746631517368873,0.08750055006466124,0.08754840547362013,0.08761313938555215,0.08769806328346094,0.08781940440722075,0.08798382581478165,0.08823168756744541,0.08855597900366337,0.08902628366183893,0.08953154986405687,0.09012904523032116,0.0904565271538757,0.09062134385432437,0.09029224583149983,0.08984083601621182,0.08922905331011192,0.08872667459845172,0.0883007912663638,0.08800226006507071,0.08778220786376538,0.08763365497626137,0.08752956104866036,0.0874628277044893,0.08742436667297851,0.08741219705445408,0.0874285662535608,0.08747607060595598,0.0875697119396902,0.08771634120770125,0.08795167485084776,0.08826938458303545,0.08872064721157648,0.08919349439440324,0.08970582911299711,0.08993361108351668,0.08996599106003209,0.0895772546264314,0.08909985298549311,0.0885353887162401,0.08809082328068277,0.08773959722722137,0.08750530118137517,0.08734648921448988,0.0872464634340156,0.08718180165157338,0.08714092614322685,0.0871141271800229,0.08709671822577046,0.08708546022022869,0.08707939580306595,0.08707827019505174,0.08708360078660188,0.08709750101758085,0.0871250387186523,0.08717232365999555,0.08725231586634483,0.08737835489751267,0.08757905118767093,0.08786897987375723,0.08828593948062612,0.0887742719647187,0.08930802407103312,0.08962590363519173,0.0896970497108444,0.08934649181518055,0.08885857308100306,0.08833568638739908,0.08802614240072132,0.08797716027378946,0.0883110262273855,0.08899065767470132,0.09004292409286128,0.09086524618191132,0.09119888960689211,0.09041968113878926,0.08932663290279513,0.08824081389655884,0.08758289500381909,0.0872830564229117,0.08726052137614534,0.08738313929210903,0.08755708819786943,0.08767731409326208,0.08770688386607887,0.08761163645162875,0.08744067996470317,0.08723024149723989,0.0870359338559127,0.08688267518779505,0.08678364398798971,0.08673810958622578,0.08674023334501058,0.08678467087505434,0.08686921271556079,0.08700178788676496,0.08719421376964774,0.08748573055962623,0.08789652225090458,0.08850264778511899,0.08921426263321128,0.09004376274116155,0.09048876564804051,0.09062928748408475,0.09004427303805108,0.08935878050855771,0.08854799269833728,0.0879554196031244,0.08749144023821909,0.08718032441258808,0.0869581705410151,0.08680577887766795,0.08670452879126035,0.08664619193080186,0.08662947040510108,0.0866557888046694,0.08673476961702162,0.08687818231047888,0.0871176560016354,0.08746296958953084,0.08796821672909581,0.0885346509736818,0.08917098903809988,0.08948698356638213,0.08956274026286835,0.08911140196870987,0.08856180579646997,0.08792760876189279,0.0874555758230211,0.0871046827134312,0.0868897467144757,0.08675625869681872,0.08668289688480961,0.08664078803553443,0.08661978570252077,0.08660754403991548,0.08660270072898862,0.08659986526845745,0.08660144247590036,0.08660456342222748,0.08661317835753403,0.08662505566210735,0.08664525095554639,0.0866712027958991,0.08670939666589879,0.0867558911947342,0.08681928400312257,0.08689200295735656,0.08698533229343144,0.08708366961249812,0.08720193708702909,0.087311807485275,0.08743730037147693,0.0875407383093843,0.08767214046834414,0.0878009757074134,0.08802849164482326,0.08832791336300652,0.0888525427874586,0.08942061467596195,0.0901261135167344,0.09032351645563416,0.09021076143135223,0.08938176381670568,0.08849033376308918,0.0875940678902813,0.08694863797200539,0.086511300230419,0.08625708105801302,0.08613375062052561,0.08610691140282098,0.08615657045547387,0.08627579635005761,0.08647325244233509,0.08675464158648567,0.087154454649837,0.08762684204174226,0.08819883858334165,0.0886245240672185,0.08894207765849096,0.08882090393558477,0.08855372452761408,0.08805574000106174,0.08763929263492087,0.08726043182354054,0.0870061193036988,0.08680723441150585,0.08666779036246186,0.0865438767990252,0.0864395127484096,0.08633811272229065,0.08624848577575189,0.08616616997389413,0.08609687315981461,0.0860383811265021,0.08599187680780591,0.08595493807608551,0.08592645876952908,0.0859042806125412,0.08588712172265531,0.08587370912697113,0.08586355169256128,0.08585655459232995,0.08585367434053195,0.08585694439517384,0.08587119412421679,0.08590483521734699,0.08597617730167217,0.0861150810149346,0.08638678509108261,0.08687212511559057,0.08773429628929612,0.08892930332774915,0.09040264670935987,0.09103771118785028,0.09080934445920502,0.08938633968422842,0.08806550852497211,0.08704053524815336,0.08648925240523322,0.0862420266949403,0.08620464790268195,0.08629820834685804,0.0864725933350632,0.08670689704852232,0.08693938536431639,0.08715769087849429,0.08726020421118981,0.08727272861938687,0.08713534248341771,0.08695272936860013,0.0867333171424937,0.0865800687591236,0.08650384344130028,0.08657609031852398,0.08679052191284879,0.08721972954452234,0.08774796581853607,0.08837747747075993,0.08868242941727994,0.08869755577387568,0.0881576351832196,0.08749891321831796,0.08680037902140812,0.0862948062118209,0.0859530483442079,0.08576853281971496,0.08568659335688816,0.08567681684678023,0.0857106249413541,0.08577501145811779,0.0858549155043854,0.08594918705926075,0.08604259142969348,0.0861415759184824,0.08622469369210771,0.08630759265517864,0.08636446698132055,0.08642608690050156,0.08646928525213457,0.08654555969848664,0.08663560624895414,0.08681398812770415,0.08703991052417039,0.08740274079384992,0.08774873514793843,0.08815293964579536,0.08827337129479595,0.08826003282116507,0.08785997171744188,0.08739569700811003,0.08683420468761205,0.08637631069227165,0.08599812811242645,0.08573187497820876,0.0855433549152822,0.0854193341156072,0.08533785416119109,0.0852867467636813,0.08525531010594825,0.08523761189829399,0.08522962743309469,0.08523020691366912,0.08523994539946089,0.08526276896154866,0.08530506921098402,0.08538122769126358,0.08550987206265503,0.08573160392505702,0.08608158714123981,0.08663988524791354,0.08736321195195551,0.08825768015395667,0.08884316049969067,0.08908203968918985,0.08854157845837812,0.08784482066913488,0.08706584859169651,0.08658476362349868,0.08631588360129024,0.0862767098266307,0.08635153165166679,0.08647761570841128,0.08656822536285222,0.08655204261351375,0.08642339889995536,0.08618477350624246,0.08590968991547394,0.08563522994531093,0.08540720022681565,0.08523227131957152,0.08511153497757021,0.0850344427596048,0.08499079424018131,0.08497186279777719,0.08497177143177234,0.08498890654286263,0.08502490981817656,0.08508894522105301,0.08519454715626473,0.08537496035352575,0.08566455194031225,0.08614460173354527,0.08682179569256325,0.08775861844889728,0.08857447341812061,0.08916478435913361,0.08887579019266777,0.08826822457454253,0.08737713260900039,0.08676588770274085,0.08635570789977369,0.08619205524180948,0.08613076231614908,0.08610656564072697,0.08604942230787319,0.08592242128652981,0.08574505273530811,0.08552943439617089,0.08532220128803944,0.0851363524872428,0.08499053447345574,0.08488164408427136,0.08480845642859981,0.08476476642937632,0.08474821901751316,0.08475899769648704,0.08480507572397401,0.08490174012970751,0.08508534798975252,0.08539899805687041,0.08593665165004721,0.08670257022043952,0.0877496486788899,0.08856757052583945,0.08902141948274757,0.08844159887040669,0.08755792263198947,0.08652014705969473,0.08580226011292968,0.08533703385871225,0.08510618600361712,0.08501128576071013,0.08500886362591968,0.08505255701819447,0.08512879275260647,0.08520999531358435,0.08529649416535719,0.08536210911186076,0.0854143898115639,0.08542860445658977,0.08542026500960861,0.08537390434273859,0.08531187952408778,0.08523091106474386,0.08515270488541925,0.08508268228810266,0.085037140558585,0.08503191255347949,0.08508404743037923,0.08523666614116196,0.08551517609064693,0.08601298945037851,0.08668110772216926,0.08757439540288103,0.08819516812719566,0.08851786671958704,0.0879906435334391,0.08722846268493854,0.08630584874543114,0.0856238694908291,0.08513146157396946,0.08483191246645938,0.08464540254959499,0.08453649190587259,0.08446988856515418,0.08443126299165471,0.08440926447611105,0.08440148948859497,0.08440672016157517,0.08442875038301938,0.08447401239209815,0.08455338010563983,0.08468706170119374,0.08489607733894984,0.08522560187568551,0.08567998566247273,0.08630516027755779,0.08692127712851429,0.08749897474264684,0.08759330675228226,0.08743505855438755,0.0868733013035974,0.08639569545013567,0.08596173121685632,0.08574544398836659,0.0856166195525751,0.08558336788858566,0.08552070846835091,0.08544057019725029,0.08527788884218582,0.0850882916110434,0.08486439521793339,0.08465945150449358,0.08447502760485137,0.08433034997817558,0.08421858922731111,0.08413892282221412,0.08408317531359,0.0840471958528156,0.08402661738349516,0.08402089770988481,0.0840319480917495,0.08406836925385258,0.08414510662561107,0.08429661381515136,0.08456860331660304,0.08506074330190692,0.08581840104836234,0.08694227360225702,0.0879766677470384,0.08869926505791714,0.08821068430093526,0.08724714647480376,0.08601617961344979,0.08513220104183788,0.0845417653913607,0.08421323989454003,0.08403419384435204,0.08394406836522063,0.08389954370385008,0.08387810657428997,0.08386721816180193,0.08386072047689562,0.08385725093377819,0.08385776903541667,0.083868296128244,0.08389736924233708,0.08396422561071962,0.08409375530634353,0.08434013471682533,0.08475401288060572,0.08544331659218646,0.0863403455562111,0.08740852893609906,0.08794629581364656,0.08793046459431614,0.08702658487387464,0.08606088582389071,0.08518526673224297,0.08466566082629108,0.08441270811120315,0.08441335026201989,0.08462454269542273,0.08504099641914835,0.08562905132181103,0.08622328378730194,0.08662660891643358,0.08653034480004758,0.08602797884419792,0.08527260176302552,0.08458308295922436,0.08406138217849185,0.08373729480058421,0.08356827100489189,0.08351217072877772,0.08353678111895534,0.08362367494258652,0.0837655745602348,0.08395880700381983,0.08420381000303821,0.08448103249129775,0.08477068830236834,0.08500577915325447,0.08514727619570528,0.08513902139038897,0.08500696181992075,0.08480345953326376,0.08460805805789347,0.08452248760810567,0.08459657906791535,0.08495044169413697,0.08555468050001047,0.08647162598019942,0.08720378239110559,0.08760510860616033,0.08706154630375329,0.08618803947352423,0.0851655025991738,0.08442617856341864,0.08393432164445107,0.08366739624388846,0.08353709965565106,0.08349540168627911,0.08350310730893201,0.08354104080694931,0.08359622586094641,0.08366331057451179,0.08374061873597557,0.08382913788551906,0.08393246519946418,0.08405856139917117,0.0842117892029061,0.08441554399410996,0.08466104921555802,0.08499812362115429,0.08535082047634235,0.08579293479665229,0.08608404595571967,0.08634457597094394,0.08624313689158672,0.08605063469877738,0.08559468555386059,0.08516615735394745,0.08469963381956325,0.08432772329566243,0.08400240314078819,0.08375677135153767,0.08355959938522921,0.08341421011457587,0.08330346124379542,0.08322398108100418,0.08316639595723678,0.08312746493584823,0.08310295982991014,0.08309272851086419,0.0830976037827835,0.08312411794012793,0.08318227843152809,0.08329665392508047,0.08349780960637536,0.08385561685470477,0.08441020889296538,0.08526287263423944,0.08618815940942363,0.08707465433904335,0.08713311426925915,0.08666687266698282,0.08563004696376494,0.08473816219785849,0.08403555915422337,0.083614566965079,0.08337242623366792,0.08326054246772444,0.08322742776850292,0.08325049305759803,0.083318864412597,0.08342787119336316,0.08358441297474956,0.08378079911851458,0.08402386641085433,0.0842696781920593,0.08450412478714465,0.08463043181797683,0.08464771074985157,0.08449431819591367,0.08425268179078012,0.08394208771693902,0.0836500093142588,0.08339058091365231,0.08319000401275714,0.08303831275579344,0.08293118596027592,0.08285623179307736,0.08280637018467135,0.08277602353241241,0.08276433434391857,0.08277606090292211,0.08282355562983078,0.08293719885947612,0.08316809677899266,0.0836271625194007,0.08442425528966886,0.08573911799656699,0.08717418950815882,0.08833175522872169,0.08785233947023709,0.08662746303885555,0.08506228977242362,0.08400659287388881,0.08336817631769142,0.08306681421522549,0.08295222088484792,0.08295690770102564,0.08303225033514662,0.0831662987715902,0.08333607416507044,0.08354051452025785,0.08373828728114513,0.083918221097895,0.08401642524932815,0.08403438053787587,0.08394111026372937,0.08378458297933827,0.08358922670597208,0.0834096806750315,0.08328257264271531,0.0832375593406144,0.08332423913085933,0.08356834466912613,0.08406581041901856,0.08476353538727709,0.0856913829471453,0.08630670784086501,0.08654355798322821,0.08590708601261868,0.08505498543246935,0.08411670566672584,0.08344602076859572,0.08298120621209436,0.0827033165335018,0.08253415859779176,0.08243607492137126,0.08237720727320226,0.08234260141260655,0.0823223806472599,0.08231305913622777,0.08231362114218004,0.08232768775918341,0.08236183006850854,0.08243211183406034,0.08256100337157633,0.08279801884878672,0.08319153759036503,0.08384569114294242,0.0847077136208615,0.08575954545122794,0.08634118737748102,0.08640117141031074,0.08555509825272993,0.08459271007210026,0.0836707850005853,0.08306145789774347,0.0826717862210632,0.08245678740389666,0.08234075088329677,0.08228848812432529,0.08227360088157182,0.08228662847264408,0.08232214740512536,0.08238446690532568,0.08247849053457959,0.08262278071089169,0.08283022423235728,0.08313966137974135,0.08354624268605784,0.08407721563869415,0.08457876187167215,0.08498773164742356,0.08499391908269821,0.08471461557061158,0.08412583224780752,0.0835368423087294,0.08299867238747274,0.08260648155301696,0.08232684473268825,0.08214869710515603,0.08204552592117251,0.08200929604329395,0.08203803712706279,0.08214927153267138,0.08238539181596928,0.08284016092903954,0.08363085013226594,0.08487436401755806,0.08627897284213994,0.08726204627005561,0.08683092169560316,0.08556333369576925,0.08408441382050973,0.08311902410345677,0.08262160294394254,0.08251789243108242,0.08265596503509043,0.08296676990160079,0.08332096013952453,0.08363875325913551,0.08373760426030444,0.0836270768099854,0.08328513673259876,0.08288105365551733,0.08248300664495858,0.08217440799451686,0.08195698006230887,0.08182518996224712,0.08175870158857404,0.08174360956155109,0.08177224346207757,0.08184798363739762,0.08198474443262614,0.08221695093778975,0.08258850167935851,0.08317371033468238,0.08395988806096179,0.08491451517176628,0.08557123244931743,0.08580373780549726,0.08523477778585971,0.0845181249696829,0.08376880345516931,0.08335141300794105,0.08313294398260025,0.08310926290557526,0.08310608200225046,0.08309650960780429,0.08297647024979612,0.08279656597427018,0.08254836204695762,0.08230904603240016,0.08208999063187795,0.08192460177583313,0.08180815013324122,0.08174662797864449,0.08173549615356328,0.08178649983854501,0.08191105835428622,0.08215205406175656,0.08253480498154801,0.08313569115868986,0.08386015905471939,0.08467463082107739,0.08506099741283259,0.08504309472090985,0.08436920394071412,0.0836091333293598,0.08285808021227888,0.08234292124822602,0.08199720499908374,0.08180478566989789,0.08170274047128089,0.08166953875190577,0.0816806238791167,0.08173565555894323,0.0818280329450787,0.08197191100393268,0.08215916779218747,0.08240942963998289,0.0826792992286843,0.0829770557354486,0.08318671759130715,0.08332788501118364,0.0832757442705552,0.08314738729013489,0.08290322380931076,0.0827053862688098,0.08253836060974717,0.08251678835353136,0.08260667721404916,0.08289366366047159,0.08328636047733155,0.08379822165513476,0.08415165831904625,0.0842759503810083,0.08396686472392381,0.08342687159864019,0.08278478530084879,0.08223519738483548,0.0818186555433606,0.08153775998802776,0.08135801258343671,0.08124797012327133,0.08118234144752735,0.08114412073572452,0.08112286953811333,0.08111262189982424,0.08111094425729104,0.08111794571641115,0.0811368202575168,0.08117354980355636,0.08124108367718892,0.08135704730554526,0.08155918712003264,0.08188239036380389,0.08240481550848294,0.08309613157612725,0.08397079375282737,0.08458354491717672,0.08486351183886498,0.0843722530418271,0.08366074709155558,0.08283261422945666,0.08223706723012754,0.08182492475875683,0.08159781696125248,0.08147824222202527,0.08143769690767702,0.08144415827044706,0.08150204969140157,0.0816170231975788,0.08182989257572876,0.08215673533885305,0.08264312693949273,0.08319278290501089,0.08373079704782155,0.083926095422711,0.08377429112723057,0.08321694535493049,0.08258426986541977,0.08199653709634495,0.08158161339414809,0.08132459355017556,0.08121404506368396,0.08123019166691327,0.0813735104695,0.0816724633413488,0.08214114546910414,0.08282873783053787,0.08355651849514752,0.08422680489712978,0.0843120837590629,0.0839851258988074,0.08319937902107095,0.0824604210652079,0.08182831301656542,0.08140933819201873,0.0811344792927153,0.08097179264888696,0.08087398211409114,0.08081952192824944,0.08079124661849216,0.08078375693921662,0.08079401758403312,0.08082680596297204,0.08088809584684081,0.08099619504235422,0.08116721235794555,0.08144249108513169,0.08182911495894821,0.08237212655344646,0.08293859905259816,0.08348666285858487,0.08364378631766808,0.08351011511124734,0.08296883144497474,0.08240261630705552,0.08185585994816286,0.0814862286355739,0.08125387410744116,0.081180983653136,0.08124677343039202,0.08149666442530619,0.08195382904292546,0.08266725641438537,0.0835095117045132,0.08422180921368558,0.08435484249559441,0.08382646072837346,0.08290355263630822,0.08200278173604862,0.08133172600981838,0.08090631649113343,0.08067052870714184,0.08055996505067725,0.0805336506352309,0.0805693566335541,0.08066447043572597,0.08082406938568457,0.08107432960886171,0.08141608186330794,0.08188399580495384,0.08237154323279852,0.08286340200028733,0.08305966489022143,0.08303857768455403,0.08264326794891255,0.0821863438015162,0.08168309608166688,0.08130420817234936,0.08101472608969425,0.0808356099577642,0.08072609363843318,0.08068381335311163,0.08069170728791607,0.08076193803306,0.08089772004031603,0.08113387641266698,0.08147305658174842,0.0819510459833408,0.08246722867985833,0.08296895316839539,0.08316628606875977,0.0830783516251944,0.082629223088763,0.08211014887108714,0.081615406511137,0.08128752567484245,0.08112670911707988,0.08114542392582334,0.08133425618039093,0.08167216850367079,0.08214107189313345,0.08258159181165187,0.08292336487016261,0.08289597915154753,0.08264072303396222,0.08212846111051476,0.08164534740064454,0.08120607180350929,0.08090518723750302,0.0806951393646565,0.08057472257119266,0.08050274495456199,0.08047179092106417,0.08045956906371272,0.08046913055743792,0.0804917962169526,0.08054335167322291,0.08062385812048183,0.08076273220178933,0.08095775898759389,0.08124467256765837,0.08157275678040092,0.08194550019770645,0.08219534286668959,0.08231979940790399,0.08216640874499045,0.08188335493030059,0.08147761069946693,0.08111211748717934,0.0807946249581156,0.08057061065385611,0.08041548859205802,0.08032771927105382,0.08029035621989628,0.08030731552415342,0.0803857284095189,0.08055915642561536,0.08087539190846571,0.08141101600540085,0.08221270196694802,0.08319765019617817,0.08404328779345295,0.08421384889076367,0.08365525640636393,0.0826233467671341,0.08171514323311546,0.08106849633245143,0.08075371511509526,0.08065504548786329,0.08073614402778838,0.08090518347496203,0.08114101157106207,0.08133651734340465,0.08147765336235258,0.08146064798671962,0.08134095024775999,0.08110082189430985,0.08084214985938083,0.08058065929851733,0.08036843343121264,0.08020097647948231,0.08008592389801873,0.08001275083151468,0.07998103941551454,0.07999024769680788,0.0800517068687968,0.08018766291970732,0.08043571826266405,0.08085538597392648,0.08147788863262706,0.08231315385539272,0.08308342704031063,0.0835585947581403,0.08328102122224561,0.08260231586434877,0.08170491692152083,0.08102071760445848,0.08055062316740946,0.08032015007125629,0.08024292045422853,0.08029588927439855,0.08042846126127777,0.08063531111814273,0.08085910666498619,0.08108964912033118,0.08123223929027598,0.08129305872462123,0.08120157831524762,0.08103352066333036,0.08078668713111517,0.0805481768397849,0.08032250560257406,0.08014651717733583,0.08000840067623714,0.07991394888257099,0.07985001682576501,0.07981728069712724,0.07980914058978963,0.07983223848291507,0.07988890776810761,0.08000071152791041,0.08018187344910598,0.08048435497490099,0.08091748826408475,0.08155616892770322,0.08225010533279128,0.08298511155273557,0.08325545409166227,0.0832009854624414,0.08261437851588846,0.08200340714447044,0.08141748507280354,0.08103089008136817,0.08079531393366446,0.08067829244887054,0.08063794517661654,0.08062052293236525,0.08061742380616109,0.08058685959073049,0.08054780243674763,0.0804742142731984,0.08040072342843664,0.08031125939475692,0.0802403517491938,0.08017256061874385,0.08013477359051854,0.08010809855475413,0.08011520919630931,0.0801333904201821,0.08018919719763895,0.0802570004578212,0.0803816643766159,0.08053654971778441,0.080798152508438,0.0811064529280393,0.0815385970772301,0.0818970731641121,0.08220948857759258,0.08218727181263286,0.08196985378556171,0.08150740645034989,0.08103633966154745,0.0806069979997484,0.08029607384268979,0.08009540458233297,0.07998644038856338,0.07995058822981614,0.07995942222105322,0.0800070055470731,0.08006704753670522,0.0801435519957684,0.08020698194591712,0.0802704662563008,0.08030083435106578,0.08032216354809243,0.08030160964244161,0.08027348186044189,0.08020975604620706,0.08014963690582715,0.08007015880416175,0.08000852727228455,0.07994457220588927,0.07991217368230384,0.07989368454600393,0.07992668519125626,0.07999685876175638,0.08015851015821004,0.08039128946651379,0.08077105294447381,0.08120662475452156,0.0817427062238349,0.08208969652505074,0.0822650813151927,0.08201608328414497,0.08158653578274638,0.08102917301443759,0.08055004834116809,0.08018078663434872,0.07993592420401985,0.07979560044369699,0.07972765305063881,0.0797193424778117,0.07974283650917968,0.0797981268468437,0.07985833353595284,0.0799316474865308,0.0799854592773626,0.08003652606369197,0.0800486966549109,0.08005127187120803,0.0800122661986619,0.07997244231760912,0.0799066251224369,0.0798589741375028,0.07980778776258673,0.07979664492277344,0.0798049478018008,0.07988247445967493,0.0800066379798619,0.08024436896935555,0.0805452079988416,0.0809765849779236,0.08137067307330724,0.08174004748853214,0.08180608253205429,0.08165863012386868,0.08123940013557104,0.08076958469616051,0.08032091402859289,0.0799752309016474,0.07973797210787012,0.07959094092092885,0.07951955569750571,0.079495311884161,0.07951323422986047,0.07954912290310369,0.07960806957128252,0.07966373806396436,0.07972898172644044,0.07977105134816811,0.07981149643317384,0.07981473420371098,0.07981343720867311,0.0797759254280078,0.07974265312979599,0.07968722269799468,0.07965036894516225,0.07960874568863537,0.07960095980645768,0.07960567525606044,0.07966534793053884,0.07975937312272245,0.07994476825817463,0.08018747940957688,0.08055600137001516,0.08093937305680683,0.08136814054797142,0.0815910057356394,0.08163906400642568,0.08136459575217411,0.08095704049809535,0.08048497493882956,0.08007746611014271,0.07976873074295168,0.07955525488487872,0.07942777435098862,0.0793536243936788,0.07932609991425181,0.07931919739947756,0.07933704350329558,0.07935841258935754,0.07939582957507302,0.07942678448295647,0.0794702607484824,0.07949873271875268,0.07953667811647429,0.07955081572006767,0.07957129524214418,0.07956126481112387,0.07955668043337251,0.07952091379899788,0.07949539048880226,0.0794480657135076,0.07942679010880417,0.07940839943634691,0.07945231603466821,0.07954462595235291,0.07976443218201161,0.0800844380710453,0.08057924058935984,0.08108938443162264,0.08157378163269441,0.08169518272431932,0.08149345200199949,0.0809592395220414,0.0803673726805337,0.07984818929177401,0.07947589588826526,0.07924994615714875,0.07913146428304843,0.07909820024015907,0.07911186845693167,0.07916489147376732,0.07922489963411426,0.07929622091779186,0.0793445189288813,0.07938662978055079,0.07938838816889758,0.07938115813100835,0.07933591130606815,0.07929313784328153,0.07922836353927187,0.07918167167612895,0.0791299359014438,0.07910952762231024,0.07909768115541209,0.07913240940226106,0.07919177636423648,0.07932663927765111,0.07951112896418008,0.07981571355451196,0.08017342908313041,0.08063785359910827,0.08100805859396504,0.08127508361712722,0.08121055287048382,0.08092951161469436,0.08047198340765664,0.0800152520860362,0.07963681196636999,0.0793629329668457,0.07919635627651755,0.0790998981548366,0.0790652205762773,0.07905413477532214,0.07906933342114794,0.07907702865517557,0.07909160917962017,0.07908241460914557,0.07907348500326344,0.0790384528199291,0.07900666802227695,0.07895622436537021,0.07891617352074075,0.0788675160869173,0.0788358054566177,0.07880338081085357,0.07879321976570597,0.07878854122753415,0.07881384648120804,0.07885294137007338,0.07893905785191083,0.07905498266118104,0.07925303474578392,0.0795028289625171,0.07987710121571599,0.08027614590217215,0.08074716854593084,0.08104298644977356,0.08118773462849412,0.08100004069410877,0.08065045469236654,0.0802088337065954,0.07980972438649682,0.07950816912205959,0.07929303634312987,0.0791640836103431,0.07907154520717927,0.07901572254901901,0.07895558466033953,0.07890684534212938,0.07884162400156278,0.07878589468835423,0.07871982686786833,0.07867024571033378,0.07862001783726019,0.07859196851593228,0.07856881116485014,0.07856947234207813,0.07857409136000033,0.07859864934417135,0.07861736349055876,0.07864495996784321,0.07865175423179316,0.07866215366627578,0.07865836557600092,0.078689695119615,0.07875652030932953,0.07893295960165647,0.07921817178701338,0.07969718328796763,0.08026960716485562,0.0809136429814463,0.08126507566799011,0.08127634136171279,0.0808321025463418,0.08024500928617788,0.07969582430774666,0.0793105153293195,0.07910300480873793,0.07901349913563813,0.07900875173248437,0.07901417885579909,0.07901968286313701,0.07897262884752945,0.07890104884503271,0.07878253721543642,0.07866539834357734,0.07853845368311643,0.07843692393822412,0.0783444387727211,0.07827837820237181,0.07822140758341721,0.07818432749636091,0.07815368055427138,0.07813957743494908,0.07813196230730689,0.07814217878157867,0.0781618978112611,0.07820471707338604,0.07826068726568376,0.07834501254037184,0.07843968656677108,0.07855968030695586,0.07867073599918527,0.078787613791298,0.07886004812390449,0.07891187806385554,0.0788971827205616,0.07886181302738375,0.07878667801042473,0.0787354795409421,0.07872072100252567,0.07882503367641001,0.07910770948826631,0.07968518195985688,0.08060135143447848,0.08167842740009937,0.0824724368792538,0.08226448205351672,0.08134470525795466,0.08007767960600716,0.07911352893734878,0.07846018464193223,0.07810267922160755,0.077912364090413,0.077834016687839,0.07781752598142709,0.07785058070329014,0.07792248045387666,0.07804387907804504,0.07821971701692901,0.07847322932205578,0.07880532987914488,0.07921961868752174,0.07965790564695012,0.08003287708560394,0.08023212203622819,0.08016909972033825,0.07991450382492651,0.07952061991350587,0.07916295581712898,0.07884511925892534,0.07864735318970897,0.07850476719945734,0.07844729586729207,0.07840444141739726,0.07840305118738487,0.07838334727708915,0.0783798028796937,0.07834520905003542,0.07832034254635774,0.07826957141320127,0.07823328815257172,0.07818324047932669,0.078153697743051,0.07811962621506284,0.07810856673183039,0.07809645803634387,0.07810673490702608,0.07811486700817306,0.07814333653304148,0.07816597066628361,0.07820815828622912,0.0782422488846776,0.07830271386321205,0.07836189976846213,0.07847135935114433,0.07860049775656637,0.07882210094350385,0.07908083185775623,0.07944838558754427,0.07978385665583353,0.08010012724633275,0.08019385779556756,0.08009950588562584,0.07980074134844507,0.07942299291039069,0.07906475404945511,0.07876383818953503,0.07855511819008687,0.07840007753551936,0.0783041108082018,0.07822195175637026,0.07816579297566777,0.07810110476714051,0.07804952777219629,0.07798553547001555,0.07793329824255843,0.07787306653150841,0.07782640644353923,0.07777788604855242,0.07774572688140176,0.07771926477265123,0.07771596139929532,0.0777315353495689,0.077787460710964,0.07788827478062703,0.07806533383674429,0.078329037966904,0.07870840908091012,0.07917471190180042,0.07966895507106186,0.08004812706132446,0.08015548359795312,0.07997595060882652,0.07954002569622293,0.07907488795976289,0.07862842119199978,0.07832052652799995,0.07809421750087014,0.07797772930699906,0.07790356637752151,0.07788912481954675,0.07788212844720231,0.07790556797525623,0.07791563578715138,0.07794098048324222,0.07794144629632595,0.07795044492736508,0.07793116339284278,0.07792019697867932,0.07788467631288078,0.0778617153930517,0.07782167980110265,0.07780005055106859,0.07776921408744507,0.07776323174548734,0.07775530150677423,0.07778125542474582,0.07781414396336404,0.07789802266838326,0.07800357201053082,0.07819083278825763,0.07841649743473457,0.07875141578409413,0.07909517002249489,0.07948400911524843,0.07972577762451669,0.0798281570048323,0.07968673557839343,0.07940261580988311,0.07905616575633964,0.07872261403532682,0.07846294745914617,0.0782528259549683,0.07810659029449792,0.07797493717767347,0.07787260903807856,0.07776315360793397,0.07767110832160189,0.07757404241477309,0.07749704750986425,0.07742506264343384,0.07737785400121006,0.07734433599776454,0.07734040393320168,0.07735896967993872,0.07741670232000095,0.07751121452564187,0.07766365647690986,0.07787395605121987,0.0781618195402219,0.07851219557646566,0.07890391450228433,0.07926766467943644,0.07949631801143518,0.07953379842441245,0.07931932534868068,0.07897983437926247,0.07855320351367948,0.0781844268573374,0.07785973150054216,0.07762869050705308,0.07744459730649024,0.07732196823233137,0.07722623271752353,0.07717088912088084,0.07713581773385447,0.0771375152597551,0.07716218400707632,0.07723078112564292,0.07732772064185965,0.0774789958870447,0.07765096014596078,0.07786998648430211,0.07805945504767332,0.07824656476596734,0.07831850471182909,0.0783398931805208,0.07822992263820182,0.07810355323115173,0.07792800084946426,0.07780365621530218,0.07770943065588938,0.07770478762338541,0.07777335290896475,0.07794561292767849,0.07820150982926592,0.07852061742896341,0.07884345507744477,0.07906140579153782,0.07912361577848527,0.07895767070859244,0.0786684612675428,0.07828878982585166,0.07794869142591455,0.0776486000206851,0.07743493013717044,0.07727270995074055,0.07717287330736751,0.07710249408442914,0.0770704402985718,0.07705183335060974,0.07705956318411515,0.07707194601884071,0.07710583006111961,0.0771381319440606,0.07718966469763679,0.07723242533776366,0.07729147772494865,0.07733188978683374,0.07738357127834296,0.07740572305155669,0.07743386620620181,0.07742591234684651,0.07742218929455072,0.07738452549546591,0.07735430642807957,0.07729946082900785,0.07725762391364209,0.0772024156002073,0.0771659705260878,0.07712725458692267,0.07711703061805152,0.0771221480999006,0.07718502378942929,0.07730898833527677,0.0775748980128384,0.07800210318768885,0.07870137727040004,0.07953326555519498,0.08036046267595513,0.08062687899080075,0.0802665008287348,0.07942475288745258,0.07855421475355572,0.07789544419361602,0.07746770021277077,0.07723249918444121,0.07710203832569801,0.07704410371543544,0.0770072638292887,0.0769942848066398,