{"architecture":[["Dense",[4,20]],["Dense",[20,20]],["Dense",[20,60]]],"weights":[[[-0.2535937,0.56840706,0.7611016,0.39538553,-1.1632357,0.07822198,-0.8874607,-0.265231,0.64680153,0.35374475,2.3799727,-1.388665,-1.3479352,-1.3393536,1.4511933,0.57725364,2.2716873,-0.6697368,1.5638765,1.0501611],[0.1609913,-0.5549781,-0.58995694,-0.4785625,0.50570685,-0.2347751,0.2216918,0.32126075,-0.704313,-0.8041512,0.22881551,0.7129764,0.34017298,0.997571,-0.17583881,-0.50120455,0.9415853,0.13422033,0.1436296,-0.47014558],[0.51123756,0.041841134,1.026721,0.07315492,-1.4928879,-0.29445404,-1.3956593,-0.9129259,0.36538577,-0.22838156,2.2724278,-1.506607,-1.8150173,-1.3496053,1.0816832,1.4433147,2.8606746,-1.092728,1.4041337,0.5474748],[-0.025608113,-0.08044754,0.9890461,0.37365705,-0.42840305,-0.058414195,-1.3682399,-0.45066896,-0.34374034,-0.5098815,1.8982087,-0.2869026,-1.550378,-0.042190544,1.072717,0.5086171,2.16456,-0.87897414,1.6319792,0.097167864]],[[0.15247107,-0.087904625,0.025863921,0.092950694,-0.28503832,-0.3685075,0.23575142,-0.21950445,-0.09023086,-0.22094148,-0.05597219,0.18641548,-0.075672396,0.33695784,-0.032690026,-0.37040067,0.041556317,-0.0025389264,-0.14889893,-0.029332772],[0.61441576,-0.10149098,-0.11232973,0.2595362,0.31389204,0.26048335,-0.14787412,-0.44929236,-0.25368282,0.0979692,0.23700473,-0.28542727,-0.33705342,0.26148757,-0.055757817,-0.15097147,-0.108334266,0.010427283,-0.3300196,-0.27377978],[0.30424508,-0.41935158,-0.20663477,0.10324453,0.30198365,-0.07118617,-0.14260879,-0.43015128,-0.5653196,-0.1182555,-0.047818784,0.45111287,-0.41204545,-0.08311194,0.1929238,-0.07857464,0.08721755,0.06758283,-0.09218678,-0.003365139],[0.042436153,-0.35862792,0.10816123,0.19876766,0.2329315,0.44231036,0.11486046,-0.11432883,-0.10606024,0.5397934,-0.2521073,-0.29934922,-0.049483392,-0.28836524,0.0037402909,-0.035793893,0.1739417,-0.058541015,-0.17240542,0.118651204],[-0.2816462,-0.2121613,0.1596887,0.2205713,0.010626817,0.22986452,-0.32011786,-0.13316531,-0.0831553,-0.38183156,-0.31458157,-0.17276032,0.6514417,0.49336463,-0.008052644,-0.3860794,-0.026687773,0.20188586,0.035511583,-0.15538453],[0.3353942,0.2703047,0.4829048,0.11109424,-0.29424748,0.10294894,-0.12204526,-0.055245418,-0.09491146,-0.2621289,-0.30395246,-0.27527642,0.23238815,-0.092135794,-0.40600467,-0.06082868,-0.31483248,0.013145315,-0.42101967,-0.2312985],[0.05671371,-0.3960089,0.079174444,-0.14201131,-0.06991253,0.29193205,0.26512486,-0.09817999,0.608147,-0.14652994,-0.0038176782,-0.7202623,0.65610445,0.3500768,-0.17351826,-0.10650111,-0.23846881,-0.15616366,0.24214715,-0.3836196],[-0.08804699,-0.3478599,-0.066379845,-0.21185881,-0.41929108,0.03844966,0.25868422,0.066264756,0.17135398,-0.28688797,-0.22756444,-0.0758214,-0.069635265,0.4531854,-0.28405353,-0.2862579,-0.3432751,-0.25125825,0.14988886,-0.13285187],[0.5312923,0.02229831,0.46953252,0.058074962,-0.006832376,0.35186946,-0.05161537,-0.2714388,-0.34965307,-0.17412156,-0.18601613,-0.38531986,0.026859315,-0.3426409,0.098838605,-0.49775934,-0.18679881,-0.48600507,0.16655493,-0.31962407],[0.59137726,-0.20709215,0.48758677,-0.40138528,-0.25611404,0.4417288,-0.2862544,0.22378246,0.2535891,0.20416497,0.24756192,-0.51005214,-0.050781585,0.46691534,0.099638596,-0.10716428,0.31447402,-0.5443298,0.17181696,0.13771915],[-0.72520185,-0.37593302,-0.2789995,-0.5137397,-0.43432966,-0.3352546,-0.4586743,-0.27603188,-0.4302243,-0.15825956,-0.011712741,0.45459926,-0.64688164,-0.47137251,0.11313663,0.12690534,-0.37422508,-0.12701514,0.08617421,0.120536104],[-0.33789232,-0.051398393,-0.29331112,0.09855471,0.26064494,0.24400213,0.06435531,0.015057747,0.11244221,-0.24911918,-0.20621215,-0.47459617,0.6597675,-0.036533855,-0.15468296,0.06829687,0.23031703,0.04890519,-0.39991108,-0.24090843],[-0.25437024,-0.16250275,-0.09976513,-0.032077312,-0.18049197,0.2591887,-0.2479976,-0.007666305,0.5845311,-0.27708274,0.15292853,-0.62625694,0.53448933,0.687821,0.010585949,0.27693486,-0.36186823,-0.18063869,0.011798393,-0.36389285],[-0.5055786,-0.26671705,-0.045284998,0.052339215,-0.14483683,0.34882358,-0.3231068,0.36471668,0.33642125,0.051487237,-0.2686718,-0.035070524,0.22826684,0.28971457,-0.38424826,0.13434902,0.0006940006,0.17326161,-0.38265926,-0.19415481],[-0.3761878,0.028377166,0.05040863,0.059166167,0.21378313,-0.358173,-0.09533134,0.0037283185,8.898252e-5,-0.15183422,0.13860181,0.056351855,-0.19530737,-0.13069706,0.20761108,-0.2056287,-0.07158945,-0.38973734,-0.48973727,0.20252244],[0.3379235,0.026539415,0.29017723,-0.23383503,-0.03660125,-0.385682,-0.2509623,-0.2869509,-0.6001428,-0.07395257,0.19401862,0.4394935,-0.6567311,-0.293929,-0.01222937,-0.11512327,0.23134261,0.07271898,-0.09204901,0.29230222],[-0.36853907,-0.016718773,-0.48788658,0.112778634,-0.49936122,-0.10537492,0.094636366,0.38326165,0.035360914,-0.28539202,-0.30852154,0.32929137,-0.74930006,-0.42214894,-0.513066,-0.013108325,-0.38091213,0.22948048,-0.2000638,0.16009761],[-0.039135598,0.25339922,0.03553762,0.03415217,-0.40761465,0.052897092,-0.18352549,0.09837412,0.39943847,0.048120774,0.06824071,0.025556277,0.6232152,0.40363476,0.05421592,-0.11892487,-0.38634515,-0.4820445,-0.008853741,0.062727176],[-0.22251634,0.026021563,-0.043255415,-0.13188422,0.018394478,-0.203225,-0.06599723,0.06472592,-0.3071013,-0.17803837,-0.27342692,0.44088617,-0.2178491,-0.039369095,0.13515972,0.27555183,-0.033717126,-0.3088825,-0.149476,-0.24187712],[0.5124496,-0.28123954,0.17394556,0.12092967,0.31191897,0.31861347,0.41530696,-0.5093187,-0.46976626,0.029796321,0.084100895,0.37868097,0.123491116,-0.20834056,-0.39146864,0.0095551675,-0.33610937,-0.08379666,0.16420044,-0.24926633]],[[-0.10529715,-0.007866165,-0.050474428,-0.0108346855,-0.12030899,-0.15257224,-0.03527441,-0.0073186755,0.1653881,-0.3264802,-0.029071951,-0.32933757,-0.098412134,-0.26681396,-0.059829056,-0.064853884,-0.16323985,-0.1389564,-0.07630732,-0.23080805,-0.058506932,0.020234743,0.047537994,-0.12825012,-0.10357041,0.16886064,-0.0027841115,-0.13807063,-0.08126783,0.01841918,0.18041484,1.0637274,0.17689455,0.3911003,0.0679703,0.72056395,0.97247934,0.0041878135,0.10830363,0.7373851,0.7785359,0.13878684,0.032114193,0.2847414,0.6731227,-0.012081361,0.2521331,0.6679246,-0.06319787,0.13504651,0.8217514,0.16815,-0.059435815,-0.013345711,0.6108254,-0.0013951263,-0.046090983,0.5624844,-0.019956352,0.5601237],[-0.21309656,0.053959463,0.030747592,0.19956934,-0.038215764,-0.47693756,0.21371032,0.13714677,0.30876356,-0.3018761,0.09242383,0.083467074,0.0043229978,-0.021446858,-0.1961613,0.3091212,-0.04310815,-0.1266134,0.03640185,0.21157937,-0.20213658,0.023640983,0.18499057,0.098710544,0.0073483293,-0.16067523,-0.07973622,0.05232256,0.15796173,-0.06862968,0.0041621886,0.16336662,0.13835177,-0.024342533,0.29549465,0.22141224,0.18539056,0.16655065,0.38714075,-0.13967696,0.07684472,0.20342226,0.07657971,0.021540781,-0.16576353,-0.09820313,-0.08280268,0.13521239,0.21151614,0.10896327,0.02524844,0.27693194,0.09976295,0.17217335,0.23806378,-0.055520903,0.081179835,0.0698843,0.22969916,-0.0005099763],[-0.02932267,-0.22686042,0.13293053,0.09709372,0.28924197,0.09447182,-0.14425883,0.101403184,-0.16726403,0.23998824,-0.17471632,0.5019737,0.12736182,0.27629644,-0.041058403,-0.005111748,0.29958305,0.031306624,0.07592032,0.31418285,0.102512255,-0.12549077,-0.074380666,0.06238847,0.008004293,-0.17974941,-0.110728286,0.13432291,0.20290302,-0.06471517,0.19545953,0.10438937,-0.026753016,-0.09119193,0.017625183,0.47872558,0.16930746,-0.018271742,0.18225226,0.32128176,0.30064914,0.1672194,-0.028183715,0.13871118,0.39007866,-0.104622684,0.26655063,0.41980317,0.15912923,0.26606777,0.28159198,0.07283859,0.15361494,-0.14073394,0.10215328,0.27336207,0.17174062,0.019929137,0.07300286,0.648384],[0.37531224,0.15883154,-0.08269231,0.30506945,0.010192917,0.025628272,-0.004258452,0.12357834,0.1347206,0.07107721,0.14847586,-0.047607113,0.30833754,0.36488077,0.2090337,-0.02757367,0.31910664,0.067056626,0.3329193,0.26357165,-0.18044843,0.16521975,-0.049776725,0.21177402,0.087567374,0.29176813,0.20742752,-0.05380548,0.08725867,0.30757207,0.33290985,-0.038497314,0.1470741,0.07761873,-0.027236402,0.07267777,0.086890675,0.13608187,0.3562977,0.008955663,-0.06902287,0.07753838,0.31969875,0.25546756,0.031754218,0.17079967,0.35865742,-0.060898643,0.26546,0.25417387,0.35469407,0.25084457,-0.07395549,0.08003966,0.37839198,0.042143576,-0.038543053,0.1261485,0.059668727,0.3942913],[0.19892903,-0.20526399,0.37238383,-0.096704364,-0.11728669,0.1188432,-0.15143616,-0.10055359,-0.12283057,0.13533297,0.1777722,0.6597615,-0.14831476,0.19749402,0.047142718,0.40783486,0.114859514,-0.11040733,0.14775145,0.2682204,-0.14758027,0.3693203,-0.069849625,-0.114429325,-0.14258108,0.070517875,0.18333444,-0.08282112,0.3220153,0.009424927,0.26154643,0.47136256,0.25673816,-0.064261325,0.3175722,0.23835154,0.09649435,0.3367312,0.23955065,0.44550654,0.08001193,0.20405783,-0.06140017,0.13977365,0.45153862,-0.12946792,-0.105810344,0.12088855,-0.038964096,0.25219244,0.20346323,0.31722784,0.2953645,0.29543057,0.24135432,0.11160388,0.29084808,-0.02900288,0.3702754,0.5260292],[0.31121978,0.23799683,0.22687127,0.0001302391,0.0978284,0.35077703,0.19401334,0.15803418,0.20191835,0.30322745,0.15970913,-0.022616891,0.091749705,0.23158948,0.0673487,-0.048828714,-0.004819761,0.21065517,-0.018892458,0.21527097,0.20598808,0.18553674,0.17243934,0.18311067,0.45469037,-0.0424147,0.08349818,0.045496915,-0.07179107,0.09468693,-0.256132,0.080061875,-0.23968963,-0.11819288,-0.055811908,0.28093538,-0.1734631,-0.16903201,0.19707353,-0.005129411,0.36350954,-0.023786137,-0.08028044,-0.17176084,0.155542,0.28987822,-0.011325568,-0.13319458,-0.119278625,0.009494414,0.31669128,-0.10716027,0.2158933,0.13822351,0.094534814,-0.13082023,-0.09989282,0.04777671,0.23809092,-0.28488415],[-0.091087736,-0.0924151,0.11369669,-0.09575122,0.07428865,-0.24046646,-0.1481509,0.29751462,0.16103412,0.014622405,-0.045159485,0.14441475,0.08704709,0.090459555,0.17777395,0.44992566,0.09214021,-0.1208565,0.12397011,0.13369001,0.15820737,0.36140928,0.21347255,0.08635299,0.15861383,0.05008621,0.26754376,-0.15703216,0.08000553,0.08546295,0.3377786,0.0046179118,0.34774423,0.20587324,-0.053793535,0.22993009,0.064949736,0.3405262,-0.1308761,0.22474346,-0.027197573,0.20797977,0.006836907,-0.10832325,0.3175488,0.1507779,0.34792542,-0.03611881,0.19113316,-0.1928891,0.01051323,-0.03277492,0.28198382,0.21266896,0.037839916,-0.0814656,0.16423076,0.3675784,0.02698272,0.3706244],[0.07282172,0.019798193,0.21849795,0.008062592,0.15769126,-0.3210479,0.031219216,0.36951244,0.39221913,0.20813586,-0.07975466,0.2488143,-0.081374615,-0.06025175,-0.20161211,0.11540904,0.48436394,0.014092005,0.08854341,-0.09724461,0.18043815,-0.00611401,0.19682272,0.055168953,0.35797447,0.3862424,0.2943545,0.25503442,0.29765084,0.19729139,-0.025987811,-0.23137766,-0.106727056,0.26059574,0.091667,-0.29135144,0.023116082,0.22961889,0.054294173,-0.07211291,0.08738254,0.26063776,-0.12129243,0.002580276,0.02831851,-0.114918806,-0.15933478,-0.16860478,-0.2608898,0.22291188,-0.11845178,-0.099840336,-0.22527377,0.23885264,-0.12714,0.118169,0.12453829,0.18860021,-0.11580844,0.10161662],[0.056199025,0.09944228,0.02344213,0.27132654,0.15014406,0.33009118,0.015009786,-0.051196508,0.3199409,0.15477918,0.2822916,0.09056154,0.048180204,0.017362105,0.3475663,-0.052772257,0.4270138,0.20223188,0.32217476,-0.018745614,0.16618614,0.040451013,-0.054103617,-0.19532634,0.53474736,0.24622938,-0.0674944,0.44082275,0.07554597,-0.04845026,0.077662185,-0.29630655,-0.2601779,0.055409558,0.10410952,-0.55366313,-0.15545589,-0.25434217,-0.052347396,-0.24953999,-0.043821864,-0.29298478,-0.07097705,-0.2620859,-0.40861943,0.034097828,-0.18906072,0.07509903,0.16349109,-0.07353534,-0.5166822,0.14204586,0.056036197,0.022186669,-0.120779514,0.12707315,0.036109757,-0.2900872,0.3144769,-0.7934617],[-0.038837124,0.0507641,0.2702139,0.06744199,0.18968245,0.11221608,0.2557942,-0.19752699,0.38767707,0.024997002,0.112017445,0.5120606,0.25371528,0.2187673,-0.22540021,0.13437673,0.2990257,-0.13771431,0.0052584796,0.13471752,-0.20194843,0.06307771,0.06731791,0.20340689,-0.06589328,0.29846802,0.40619624,0.16578561,0.31806695,-0.06959839,-0.052632738,0.28213462,-0.050753996,0.32945004,0.1111745,0.2590056,0.14159667,0.29798484,-0.15521714,0.2709158,0.33905894,-0.0072097876,0.13849804,0.3993197,0.26930553,-0.16563003,0.007380396,0.18275677,-0.20722292,0.24180628,0.0913011,0.2799779,0.16868456,0.0561373,-0.022713188,0.11750616,0.20037603,0.44151664,-0.12093119,0.6868729],[0.050586883,0.2736938,0.039953,0.11148789,0.13264085,-0.12722395,-0.044030678,0.2469972,0.08914546,0.12009089,0.114018895,0.05737234,0.28889865,-0.16456036,0.07735495,-0.016187029,0.068398766,0.046261698,0.32498094,-0.18275082,0.056604076,-0.04137151,-0.0008508493,0.24402468,-0.10850665,0.11869953,0.09209964,-0.03726497,0.26024908,-0.15034045,0.310898,-0.063579924,0.27609676,0.03369238,0.24253276,0.22975032,0.1552406,0.3639967,0.09322775,0.4071197,0.17438139,-0.19202083,0.22093873,0.2894558,0.36986408,0.12065777,0.2511176,-0.08462614,0.09993071,-0.19370502,0.23706752,-0.11643061,-0.052042264,0.16112697,0.26515368,0.097216435,0.33565477,-0.040424287,-0.13166143,0.36448225],[-0.2668269,0.034294773,-0.21678175,0.004754684,0.20818578,0.17105524,-0.07219679,0.078197025,-0.24231747,-0.17682718,0.095855124,-0.19351402,0.029329346,-0.08967254,0.11099778,0.11479072,-0.15912901,-0.05660869,0.15352666,0.020867847,0.03153451,0.008069274,0.104736045,0.14492057,-0.11147942,-0.1340394,-0.14035463,-0.084947005,0.13387007,-0.06282511,0.11356557,-0.36327824,0.06584318,0.1309517,0.11808738,-0.6346907,-0.23579574,0.049256854,0.04626787,-0.55453223,-0.4194293,0.07701999,0.27339914,-0.049374785,-0.41264707,0.047052026,-0.25381896,0.0063112937,0.106854446,0.12754044,-0.4123537,0.19784807,-0.009241782,-0.03503956,-0.3436783,0.07437848,0.017316308,-0.23606966,0.14045976,-0.73866534],[-0.11450902,0.3744332,-0.010902875,-0.09975448,0.25126043,0.27236405,0.38251927,0.07157445,-0.1513689,0.32145908,0.4327057,0.06032756,-0.027535737,0.22331634,0.39649883,-0.19150117,0.15609095,0.3664956,0.23690213,-0.098618105,0.15512322,-0.015968572,0.34639925,0.07904174,0.033628408,-0.07385811,-0.15296115,0.05861683,0.047273055,0.19632706,-0.13950217,-0.35925677,-0.070055544,-0.1325444,-0.05873845,-0.5439524,-0.22951052,0.14696951,-0.3719356,-0.60859233,-0.48589548,-0.25992584,-0.09015468,-0.20281008,-0.59988725,-0.11783337,-0.39989856,0.048082076,0.074032776,-0.16935536,-0.50011444,0.11478838,-0.3208274,-0.16573294,-0.4275354,-0.22466956,-0.085910596,-0.18545681,-0.1142434,-0.5971154],[0.21619721,0.3698804,0.16285102,0.4811879,0.07269516,0.4164732,0.38486436,-0.0038941517,0.20778331,0.11549674,0.35955626,0.068252236,0.13141969,0.14935821,0.43691075,0.28362125,0.1512896,0.36189592,-0.17746568,0.20687549,0.5057798,0.2631044,0.16405322,0.04613363,0.15149845,0.1748542,0.24907662,0.48935673,0.104156725,0.49795866,-0.009334131,-0.096841015,0.091517486,0.084972635,-0.04548457,-0.2343717,0.026949648,-0.053410772,-0.12287885,-0.009299058,-0.30431446,0.06276427,0.19770147,0.04578448,-0.058997862,-0.07039396,-0.028758656,-0.1590002,-0.049525373,-0.05833414,-0.16382971,-0.12629683,-0.10488473,-0.014554565,-0.13376793,0.02453795,-0.115747854,-0.0965315,-0.1829479,-0.014477018],[0.24714394,-0.20655227,-0.07681876,0.016315429,-0.066105396,-0.17962424,-0.22537369,0.045087457,-0.19006644,0.038810287,0.07712126,0.15441278,0.02898066,-0.10870628,-0.1946005,0.06579506,-0.14124049,-0.05167239,0.32519776,0.03394318,-0.18624471,0.17269565,0.3004219,0.35119888,-0.23565604,0.24390131,0.2777148,-0.014593269,-0.08236015,-0.083057344,0.035733618,0.31929013,0.39043733,0.17899826,0.34319216,-0.19495508,0.23612176,-0.071425416,0.08025045,0.06295013,-0.15349726,0.13847962,-0.077086814,0.17915767,-0.15841448,0.23251373,0.29866168,-0.09667943,0.17382811,-0.080103606,0.020220483,-0.055130795,0.3116167,0.039092988,0.22142054,0.35765472,0.41140258,0.11339187,-0.14255263,0.24082117],[0.22487506,-0.02697326,0.37457883,0.038895946,-0.060836274,0.10545163,0.27813613,0.20763955,0.32884175,0.21739446,0.051476452,0.38594148,-0.04270367,-0.1219496,0.022787673,0.15988854,0.26798728,0.2703741,0.0535756,0.19072872,-0.15478194,-0.014542402,-0.088699065,0.01819699,0.117076285,0.3610482,0.11890911,0.006000553,0.28986308,0.019483026,-0.15687856,-0.021315387,0.24185054,-0.1535795,0.29314148,0.25531355,-0.20040609,-0.11510325,-0.0029519526,-0.08588352,-0.18133155,0.03891795,-0.1737075,0.38050303,-0.08031909,0.2824168,0.040897157,-0.19869025,0.26689947,0.21163535,-0.29301262,0.19300741,0.06176739,-0.17287539,0.2890149,0.33632195,0.059021287,0.017799925,0.112284996,0.05101352],[0.09482821,0.07597703,-0.14323507,0.28372654,0.042686827,-0.30706894,0.09811272,-0.012511104,0.21826267,0.20200913,-0.22413112,0.3563869,0.1629591,0.2710229,0.21629497,0.09207323,-0.12142164,0.2043442,0.16532886,0.02598048,0.008388048,0.108445056,-0.117373616,0.12377591,0.07349439,0.3038856,-0.07853478,0.21162677,-0.11738079,0.049679846,-0.1325341,0.3216124,0.15900038,0.12327779,-0.05540776,0.3935267,-0.0195197,-0.061908852,-0.044915974,-0.10679736,0.17885694,-0.035536267,0.08934806,0.3827442,0.2054956,0.18223815,0.3830375,0.26460552,0.113661736,-0.17691153,0.22542565,-0.031346347,-0.13738929,0.22188546,-0.1004165,-0.16092023,-0.16186468,0.19210096,0.019333238,0.16779111],[-0.081842475,-0.15431388,0.306995,0.12086884,-0.07855749,-0.13916141,0.227705,0.0855953,0.2269534,-0.1737242,0.23310235,0.3845108,0.37094596,0.027564107,-0.21247184,0.2902442,-0.06392761,-0.22605321,-0.049880277,0.03165737,-0.023737647,0.073453635,0.17942837,0.29336384,-0.18491288,0.06444129,0.2806981,-0.14373894,0.23106806,0.02523253,0.1368056,0.2621597,0.22077788,-0.16290477,0.07160104,-0.06126763,0.13795123,0.36246386,-0.10477819,-0.12186788,0.12720998,0.23165828,-0.16899274,0.2647199,-0.28138012,0.18598424,0.102742076,-0.1877479,-0.10421239,0.23675689,-0.10224807,-0.16160528,0.19732068,-0.002789424,-0.07541244,0.07903875,0.31288707,-0.068646654,0.10356181,0.10069245],[0.34309956,0.23838705,0.024828155,-0.049086135,0.109042756,0.13019516,0.21516478,-0.10149999,0.026353413,0.07531582,-0.13548742,0.2616677,-0.036419343,-0.026675962,-0.04128491,0.21601138,0.2506818,-0.1895382,0.12919779,0.19081712,-0.12767161,0.010985395,0.27068493,-0.12798442,0.21881823,0.21370265,0.34430155,0.16793807,0.017381245,0.05456149,0.21930748,0.07172371,0.009522412,-0.15544592,0.114112966,0.021017922,-0.13214307,-0.030379571,0.27177972,0.3593129,-0.12012356,0.22021106,0.134026,-0.10107756,0.18841012,0.18595429,-0.045606088,0.24683976,0.022767548,-0.22984165,0.245411,-0.1654889,0.170536,-0.04338297,0.24414837,-0.11545554,0.06446228,0.08067507,0.11153063,0.43523806],[0.12509333,-0.13585772,0.21927324,-0.20737933,0.028054867,-0.057320226,-0.08156323,0.121457815,-0.061834447,0.015122681,-0.34516755,-0.2488355,0.13884631,-0.15653127,-0.044008333,0.31155938,-0.20240368,0.18989074,0.2568601,-0.2135815,-0.13273203,0.0462554,0.2570081,0.37684003,-0.07059943,0.3192399,0.20429927,0.108507395,0.26695555,-0.17851475,-0.269631,-0.38928938,-0.06520836,0.24500538,0.27649006,-0.008850439,-0.19886467,0.19930403,-0.248791,0.06771516,0.11905569,0.024529317,0.260743,-0.27684852,-0.32692122,0.0981794,0.10871772,-0.16607657,0.09255245,0.045193117,-0.16580048,0.33658805,0.3379558,0.30517942,-0.08426459,0.15435086,0.08406379,0.25767967,0.27390608,-0.41877097]]],"bias":[[-0.06544113,-3.324519e-5,-0.03777992,-0.08281039,0.056101505,0.10153716,0.3728526,0.03775967,0.05691249,0.20856786,-0.15361625,-0.060350586,0.28952494,0.09413845,-0.36595863,0.0105098095,-0.19653891,0.026520444,-0.27298337,-0.01660219],[0.22121023,-0.12189312,0.104239844,-0.060022533,-0.043491974,0.02206266,0.031796597,-0.09527367,-0.06268277,0.11646637,-0.10313228,-0.10074632,0.0061640637,0.07397796,-0.10564328,-0.10767349,-0.08848262,-0.13382743,-0.12032304,-0.1002052],[0.13429348,-0.08043338,0.10103983,0.061740167,0.16317731,-0.23881912,0.015590918,0.23748288,0.09804414,-0.08516661,-0.088537075,0.07102574,0.23842019,0.12178471,-0.14578009,0.24246971,-0.016851855,-0.008427733,0.25245038,0.097977296,-0.06460515,0.11660527,0.042867456,0.18839967,-0.062160254,0.13080563,0.15554523,0.04913623,0.1353187,-0.11184684,0.21487057,-0.08184985,0.23151726,0.121956445,0.070235044,-0.057021644,-0.011168055,0.22476326,0.17582011,0.029540444,-0.05432402,0.14405733,0.10876884,0.15809892,-0.0370829,0.033469535,0.12066008,0.023352504,0.18946159,0.09140914,-0.17092068,0.11058063,0.14107692,0.20153837,0.014194204,0.18479735,0.23805791,0.030408435,0.06681314,0.01799292]],"Losses":[1.0490326347644394,0.8627054723821518,0.7048988319902424,0.5689819147377886,0.45804058471506104,0.3777521739545803,0.32943980498188913,0.305824099209576,0.29604683336949117,0.2921365749121516,0.28883929356380883,0.28372099243458343,0.27679804368382366,0.26925381724836767,0.2620652665321584,0.255693049367776,0.2503424341778208,0.24608266687528124,0.2428795714047642,0.2406218247795032,0.2390831069039923,0.23792833212565667,0.2368149658007692,0.23550050528249514,0.2338746957474191,0.2319349941291011,0.22977933777062076,0.2276120041504837,0.2256819926335401,0.2241535351378445,0.22302624601893328,0.22217927707355553,0.2214693784303283,0.22078638809946483,0.22005892302577407,0.2192474625905694,0.21834279354406919,0.21736748232165817,0.2163678151388031,0.21539273937360293,0.21447302950682207,0.21361442147247922,0.21280663790301918,0.21203565337817157,0.21128477857581524,0.21052893140772813,0.20973820615817046,0.20888896490910017,0.20796639578602402,0.2069593002749144,0.2058612016756456,0.20467739958591288,0.2034263885045897,0.20213282996678425,0.20081772485794008,0.19949178747982596,0.19815374115546955,0.19679099116824855,0.19538145517973618,0.19389844173439433,0.1923185619226085,0.1906293067188059,0.1888315672574236,0.18693504910213984,0.18495212253719784,0.18289579691609906,0.180779244577941,0.1786137141474247,0.17640619696804496,0.17415947900557674,0.17187647491114152,0.16956719674563303,0.16725199851149058,0.1649561404587654,0.16270144775814493,0.1605026018181815,0.15836519857253142,0.15628453346207852,0.154246738790846,0.1522325691514665,0.1502199728143623,0.14818790250157743,0.14612344849769407,0.14402545511016732,0.14190354828766674,0.13977788758420234,0.1376760410741231,0.13562470710894656,0.13364732427328282,0.13176715593091046,0.1300049454070884,0.1283724664877174,0.1268690025471419,0.1254832860418263,0.12420035869646591,0.12300727923943529,0.12189491590977582,0.12085735553333539,0.11989077382675406,0.1189932662596027,0.11816365645972969,0.1173986797497449,0.11669134566941283,0.11603349960215115,0.11541884268520404,0.11484160170828889,0.11429658638368585,0.11378070906293436,0.11329207949060274,0.11282941573527715,0.11239259151640789,0.11198259601728301,0.11159928132602787,0.11123999494312753,0.1109006527773538,0.11057676360124336,0.11026478035312925,0.10996267396582894,0.109669340157987,0.10938419270730544,0.10910711610257848,0.10883854839900448,0.10857937375979826,0.10833023718450621,0.10809079561811015,0.10785979526750718,0.10763561113236934,0.10741660322009684,0.1072015465416007,0.10698982041961334,0.10678126192198596,0.10657604353710243,0.1063746496394662,0.1061776051663326,0.10598528303425646,0.10579775436403152,0.10561483100829196,0.10543601869113466,0.10526067857929851,0.10508818107660209,0.10491813304885983,0.10475041280034543,0.10458557877676204,0.10442653628673979,0.10428577297817786,0.10421599223660064,0.10438598129518552,0.10497590428867598,0.10508377042797835,0.1039382253888363,0.10346726905904752,0.1041087600226447,0.10373319504430234,0.10300114460101666,0.10334728848627762,0.10326723941188592,0.10264286248901844,0.10279232982036725,0.10278655532392729,0.10228402558312731,0.10232827575205851,0.1023276986828705,0.10192678070831307,0.10190212880965921,0.10189602694168932,0.10157486970950824,0.10149555155132925,0.10148515778930452,0.10122576906165595,0.10110367464300196,0.10108434641508406,0.10087894359532232,0.10072489925405087,0.10068840154021935,0.10053248955067823,0.10035881936351769,0.10029550897375915,0.10018069103345925,0.10000591650662928,0.09990694050867481,0.09981773714441154,0.09966229759805312,0.09952982858199215,0.099441408378508,0.09931754049522101,0.0991708717620606,0.09906022841975022,0.09895798908814603,0.09882494659263596,0.09869128967284002,0.09858268495025656,0.09847162577972886,0.09834051615990705,0.09821262853620501,0.09810052602399716,0.09798707264292575,0.09786092522317412,0.09773448334831014,0.09761834428825385,0.09750508584406387,0.09738491740498056,0.09726064542943448,0.0971407350726528,0.09702645001932465,0.09691200274109679,0.09679374592213043,0.09667404849167342,0.09655706537915837,0.09644374814159289,0.09633190275511858,0.09621917070440221,0.09610537200769873,0.0959919801723336,0.09588053858480693,0.0957714701188921,0.09566425538582164,0.09555805981809874,0.09545243059423153,0.09534731388495751,0.09524299685920362,0.09513979875815808,0.09503798213276682,0.09493764834677991,0.0948388252627781,0.09474148157869594,0.09464558560576228,0.09455111013504855,0.09445806244092177,0.09436650388468901,0.09427654496825189,0.09418848125109998,0.09410293283061356,0.09402136788439144,0.09394722958043215,0.09388893918154195,0.09386685582908541,0.09392896105062051,0.09417101185436853,0.09470240042490738,0.09535985311621527,0.095304288760673,0.09426532833264982,0.09333084150441767,0.09349647138756896,0.09413042751222747,0.09398107046741057,0.09320359127536618,0.09297065810852143,0.09341216710260017,0.09347815685594305,0.09290648761466229,0.09269389844994294,0.09298816115084671,0.09299117459694557,0.09262076212755793,0.09247655538369536,0.09262085770032216,0.09261558600136803,0.09239330728924647,0.09226905841396567,0.09231090519579106,0.09231352101828293,0.09219120641270427,0.09206675386282283,0.09204677897947634,0.09206533276639552,0.09200382871148446,0.0918843704203315,0.09182831898613268,0.09184213855025644,0.0918187676801254,0.09172708068344643,0.09164959289765587,0.0916363911146811,0.09163274485236236,0.0915817858871798,0.09150827660646488,0.09146170000010577,0.09144498101612335,0.09142501560371637,0.09138258620856567,0.09132972880969675,0.09128577208113854,0.09125730769005816,0.0912358826632966,0.09120828820611779,0.09116926846923941,0.09112532246996417,0.09108751364466805,0.09106012398795264,0.09103762267324127,0.09101196777393826,0.09098035490747519,0.09094574400701959,0.09091187041300558,0.09088011926700872,0.09085008485632119,0.09082153774731862,0.0907947897733731,0.09076972860700565,0.09074552036477855,0.09072124399184026,0.09069697562222998,0.09067341157104575,0.09065209148099347,0.09063415342876707,0.09062218091283435,0.0906194355140352,0.09063474886958026,0.09067790962221044,0.0907719260181586,0.09091814733060088,0.09112182192146134,0.09124466039370172,0.09120207121208461,0.09088603741817007,0.09052695861170972,0.09033208206666365,0.09036470645277797,0.09051953045102619,0.09062288825686386,0.0905833158604743,0.09041172025371005,0.09025138697401243,0.0901917260914578,0.09021297899706093,0.09024982281072885,0.09025220218155089,0.09021748298499518,0.0901511982851364,0.09007998982201944,0.0900281140206869,0.08999945979865971,0.0899854653033929,0.08997646416787085,0.08997065024735763,0.08995982206193735,0.08993489738102631,0.0898921178348185,0.08983872231858857,0.08978517175336308,0.08973718658545173,0.08969970480761046,0.08967505009815914,0.08966128537027607,0.0896532621307792,0.08964696455590987,0.08964387944690627,0.08965173680419142,0.08968508306282025,0.0897757370071299,0.08996622563733021,0.09033827190695931,0.0908265047803551,0.09125665879153175,0.09096228804594157,0.09014527707998697,0.08942247563668598,0.08938951370964347,0.08986235223859783,0.09019314639936311,0.08999051976276566,0.08943514068685028,0.08918812262284376,0.0893941817408545,0.08965509546654321,0.0896089201718776,0.08928662357803847,0.08907388149894462,0.0891287157351721,0.08928858575535854,0.08931691425764554,0.08914252858192165,0.08895072605336123,0.08890241235520494,0.08897894663194267,0.08904516532819606,0.08900080866722099,0.08887749270569835,0.08876040059094803,0.08871599964090823,0.08873684019874319,0.08876510417325455,0.08875287005338307,0.08868983723352829,0.08860981115143335,0.08854359948593853,0.0885066442330287,0.08849333900952873,0.08848426063162207,0.08846215693598802,0.08841814075603704,0.08836042474161396,0.08829877654376109,0.08824398186623252,0.08820118222219386,0.08817064542980554,0.08814857437899436,0.08813208556819377,0.08812657919854625,0.08815271612402091,0.08827453825820114,0.08863898747455239,0.08960023037547499,0.09138090232158962,0.09329829619168425,0.0920481991977927,0.08905465019047637,0.08788049477598248,0.0892359518924128,0.09060238434291543,0.08936830491669366,0.0878587147487526,0.08824798938371668,0.08920133886027704,0.08874993675878412,0.08767478637366152,0.08784270862438792,0.0885401026719423,0.08814749464025078,0.08741475065221409,0.08752592541860331,0.0879625840004092,0.08775455103726286,0.0872085147659665,0.08720881174960236,0.08753136221372801,0.08742836616266451,0.08703351516710774,0.0869245666641497,0.08710783307076128,0.08712852081915383,0.08687622798786547,0.08670068770179619,0.08673667990720495,0.08677807335947749,0.08667547945262721,0.0865201378743582,0.08645655433162826,0.08644537649523898,0.08637644734898066,0.08626720260567682,0.0862002930834684,0.08618279205823698,0.08613972722011534,0.08602793314760684,0.08589794776777267,0.085814105250405,0.08577464012825611,0.08572694957273602,0.08564290708659732,0.08554912114937206,0.08548250326600777,0.08545448954534145,0.08546135091867878,0.08552472545174315,0.08576060779730607,0.08638524168481677,0.08776305654097327,0.08962184931652038,0.09053618058552483,0.08834312481926004,0.08558644298547231,0.0846035006097194,0.08562299622900976,0.08727673871062808,0.08730520500005201,0.08567326620847929,0.08429833737287534,0.08444355322472363,0.08549258771132409,0.08593108485349893,0.08517154998710245,0.08406094715330956,0.08372534053592556,0.08417828809937745,0.08470140231535561,0.08465791476451358,0.08400459963725473,0.08336969783127984,0.08313451307463757,0.08328593718441234,0.0835793472503591,0.08372812461876318,0.08362148682137019,0.08324795384849325,0.0828160416510789,0.08244915334899679,0.08221537418226882,0.08209941789322873,0.08206872797907006,0.08211649109327894,0.08227498745900542,0.08266264857278094,0.08338832203497114,0.08458602571204328,0.08561227892547715,0.08571110392322973,0.08405242621241878],"R2":0.3619044808097619}