{"architecture":[["Dense",[4,20]],["Dense",[20,20]],["Dense",[20,20]],["Dense",[20,20]],["Dense",[20,20]]],"Node_Indices":[55,86,72,39,41,15,90,29,69,103],"weights":[[[0.62704194,1.0645497,-1.7879063,3.4482183,-1.5222291,-1.6268303,-1.1741084,1.5444298,-1.2401403,-1.1067303,-1.4174163,1.9819081,-1.7952553,-1.3406659,-0.69859064,-1.4067887,0.4243138,1.9289305,-1.617835,2.1255538],[-0.33321518,0.2751956,1.1038162,0.99851036,0.35351312,0.7432957,0.502331,0.9395802,0.116140105,-0.4592065,0.3922891,0.37147716,0.42393595,0.050243545,0.36764014,-0.06315134,-0.12944464,0.063120216,-0.16581681,-0.6075078],[-0.028390292,-1.3046964,0.6469622,-1.4814734,1.1712885,2.6400678,-0.96774954,-1.415801,3.2057416,-0.90811104,-0.8258958,-0.6645095,4.0748897,-0.93625945,-0.713827,-0.6306578,1.0288879,1.3521563,-1.1585728,-0.8799348],[-0.19739671,-0.2523242,0.7176265,1.0477881,1.0527856,0.23347618,-0.179261,0.38875175,0.044096682,0.24013807,0.094342835,0.024475679,-0.17571963,0.6546966,-0.43337464,-0.24893261,-0.27087712,0.36465982,0.3254659,0.049730472]],[[-0.046314433,0.067551546,-0.29927814,-0.08670578,-0.1218651,-0.39155215,0.077169746,0.012091796,0.073226884,0.109145276,-0.38497803,-0.25713843,-0.26454422,-0.34966427,0.19117385,0.5142059,-0.15017723,0.23919715,0.08958427,0.344938],[-0.26996547,0.257064,-0.121662796,-0.070403434,-0.21506682,-0.028960928,-0.25799176,0.5971626,0.14845504,0.083078265,0.25163013,0.6696436,0.0032249056,-0.008631387,0.45465398,0.37105322,-0.48177955,-0.29001558,-0.37041813,0.13144782],[0.39768752,-0.3660097,-0.49987796,-0.29931453,0.58234566,0.17135398,-0.095346965,0.055104956,0.05874514,-0.117676266,0.3427443,0.23568341,0.34856945,-0.0738943,0.18688148,-0.21889691,-0.13907859,-0.29274753,-0.0056874948,0.22007929],[-0.7240755,-0.21571764,0.764337,-0.008726321,-0.24550307,-0.13938913,0.023467578,0.8346553,-0.1963536,-0.12784979,-0.45028535,0.94208,-0.527976,0.28885064,0.95181996,0.42798674,-0.14532001,-0.036927465,0.0024734617,-0.28801376],[0.7001625,0.11641237,0.15215503,0.093561225,0.53911465,0.33929962,0.38643935,-0.24305926,-0.06514339,0.1652157,0.21687828,0.16779466,0.7523357,-0.27334565,-0.07030502,-0.2533437,0.17178892,0.015885735,-0.33395526,0.49130493],[0.6415174,-0.41422087,-0.041003626,0.060824174,0.4383642,0.40482867,-0.414225,0.04862899,-0.17293522,-0.28565195,0.38231584,-0.544827,0.4345201,0.012122694,-0.41943917,-0.4563508,-0.029611917,0.027537296,-0.4937103,0.5476826],[0.23020189,-0.286067,0.14851028,0.34880897,-0.01884823,0.41693404,-0.112667456,-0.3465525,-0.044606905,-0.44224578,0.17279075,0.26027197,0.34323004,0.05154112,0.48018226,-0.21104221,-0.37295505,0.02223787,0.07383892,-0.18538865],[-0.38578936,-0.057602484,0.24361722,-0.22195292,0.046526708,0.07702358,0.35249794,0.43098524,-0.080886096,-0.3678232,-0.11311893,0.51897454,0.1250692,-0.38142174,0.65906465,0.19044225,-0.26301804,-0.17364623,0.07507994,0.034862652],[0.5548743,0.1529786,-0.14335749,-0.16553342,0.5082519,0.2188223,-0.50091547,-0.47164965,-0.3941249,-0.39142635,0.43630412,-0.63598967,0.57407105,-0.0048960885,-0.09231661,0.120033406,0.11606376,0.1407536,0.19276212,0.32349163],[0.12853122,-0.12282555,-0.2328983,0.2596032,-0.27195457,0.2630824,-0.12014477,0.11023566,-0.22367112,-0.41654733,-0.0936385,0.45497432,0.5052668,-0.1315996,0.22244434,-0.37704995,-0.27184346,-0.33926392,-0.34311202,-0.105121076],[-0.0050895773,-0.45382455,-0.47068444,-0.17195097,-0.21110214,0.33685,0.12343486,-0.25670055,-0.17731932,-0.22885625,-0.01390024,0.40512657,0.6333784,-0.3542201,0.10704293,-0.08669897,0.1167554,-0.45257324,-0.04990811,-0.17356698],[-0.062462594,0.0018921065,0.51611096,-0.41859946,-0.20780477,-0.05742879,0.07320708,0.7236749,-0.32428694,0.23278809,-0.0065385113,0.30652094,0.06120606,0.4030324,0.6518768,0.49943984,0.022024268,-0.12388513,0.2735056,-0.108281106],[1.003386,-0.17306297,-0.5328048,0.119337924,0.9357971,-0.014240891,-0.19168867,-0.70544505,-0.107715644,-0.18915835,-0.011194335,-0.53698796,0.17768952,0.05989967,-0.7168408,-0.50783205,-0.1369928,0.34310666,0.093646996,0.17356235],[0.1707233,0.13219176,-0.13219403,0.24860986,0.21940415,0.55776674,0.19047618,-0.3615009,-0.11314413,0.2293152,-0.087380335,-0.045225203,0.60670334,-0.4323409,0.5811329,-0.25869066,-0.12874642,-0.21250232,-0.031685825,0.091814876],[0.09013038,-0.060501464,-0.28441396,-0.20318966,0.14614487,0.41898733,0.1232696,-0.014257532,-0.4369447,-0.4436623,0.33447272,0.6028772,0.50358456,0.02526356,0.19181745,0.40046975,0.056523476,0.18155625,0.17885341,-0.056359783],[-0.09370933,-0.33319485,0.07505691,-0.10410552,-0.33277136,0.42489597,-0.2303992,-0.11080226,0.22343427,-0.33418822,0.1982198,-0.127079,0.33406052,-0.50042164,0.059610292,-0.13498946,-0.42576745,-0.1480189,0.26967102,-0.27753904],[0.35998166,-0.14063787,0.36959833,-0.38448232,0.019579064,-0.20855539,0.3369562,-0.1432082,0.024740241,-0.19046998,-0.032233782,0.3395632,0.48597947,-0.21043633,0.03119659,0.32603526,-0.4498229,0.19600584,-0.47639635,-0.15537493],[0.20966941,0.43139562,0.39667192,-0.4361826,0.20007493,0.14106008,-0.4008195,0.65802807,-0.5079918,-0.50249845,0.29534295,-0.13089466,-0.14446399,0.29076377,0.23240593,-0.12097181,0.04672622,-0.19936259,-0.1385889,-0.3116643],[-0.27644664,-0.21869637,-0.39016673,0.22649121,0.28028774,0.355461,0.28488356,-0.23988463,-0.021530781,-0.03779929,0.14332435,0.36697045,0.6092045,-0.120844446,0.27725294,-0.40904534,0.050066564,-0.3592369,-0.06033608,0.048348658],[-0.4563963,-0.17697917,0.437335,0.2264915,-0.24506703,0.19023335,-0.15121067,0.22323218,-0.34554356,-0.32271674,-0.26024753,0.4481327,-0.34529674,0.30321625,0.11437975,0.48590705,0.29701674,-0.39477724,0.23893157,0.017929211]],[[-0.26001853,-0.8433023,0.88500595,0.25112233,0.09243197,-0.4435303,-0.37076372,0.076129146,0.38085306,0.16684717,0.22144885,-0.41245764,0.10477071,0.07741089,-0.29942706,0.030784696,0.16448799,-0.28877476,0.6315625,-0.46049646],[-0.0031428554,0.36160845,0.053793862,-0.09726133,-0.059418544,-0.45629874,-0.36837044,0.18802965,0.027550135,-0.36136195,0.20178394,0.07479248,-0.094217725,0.081529014,0.37249494,-0.3987447,0.053988654,-0.4932749,-0.1833308,0.1041506],[0.04584499,1.2297803,-0.17060202,-0.21344613,0.27321944,0.20083036,0.20175073,-0.08300674,-0.15764649,0.016842823,0.05181419,0.4602017,-0.32982236,-0.28048083,-0.21648276,-0.27244458,0.22894025,-0.23436064,0.18999639,0.18961546],[-0.17265087,-0.33605123,-0.21369343,0.23639813,0.2700578,0.06832947,0.047676492,-0.06763492,0.27846754,0.01113799,0.30096692,0.37780845,-0.0007258754,-0.16125163,0.3226378,0.23842429,-0.43171674,-0.017565781,-0.39827818,-0.16017267],[-0.43124235,-0.32974616,0.6352528,-0.0572436,-0.22197922,-0.21841705,-0.13503698,-0.2749827,0.08023336,-0.37547794,-0.30701032,0.05550672,-0.49186495,0.010490022,-0.34100854,-0.1729374,-0.20553902,-0.60901874,0.4104261,0.1053768],[0.088520564,-0.45009035,-0.23247099,-0.01408663,0.07780601,0.3675447,0.1769733,0.11307456,0.21979403,-0.34557503,0.14132048,-0.27812815,0.14363791,-0.0109714875,0.31528288,0.21455033,-0.24179704,-0.53759843,-0.37515554,-0.5008222],[-0.2636974,0.09894836,-0.38658175,-0.07242473,-0.08923093,0.0019195154,-0.09713007,0.04110692,0.1856982,-0.00013717855,-0.23988377,-0.101792395,0.36382192,-0.24880646,-0.08393592,-0.09101336,0.019209767,-0.51828516,0.26879063,-0.35331926],[-0.18160914,0.7466635,-0.5862798,-0.25188693,0.11286137,0.340214,0.4960256,0.039379664,-0.2772489,-0.0690009,0.26701614,0.39874572,-0.0026818402,0.19107084,-0.00943961,0.10357235,-0.132064,-0.12172288,-0.36184597,-0.3048313],[-0.40316647,0.08523987,-0.0043830248,0.1308241,-0.40095195,0.12121338,0.2882558,-0.008096271,-0.24807344,0.12482198,0.15985051,0.09610761,-0.13290437,-0.3460046,-0.039142363,-0.39559987,-0.3978186,-0.42222992,-0.22657865,-0.25965667],[-0.08907594,0.21085894,-0.03658068,0.0023337363,-0.10488725,0.0504879,0.345073,-0.1292772,0.25521737,-0.23854662,-0.36348397,-0.25320065,-0.29078937,0.2848252,-0.025732398,0.070153214,-0.30957136,0.079287745,-0.4518046,0.27910778],[-0.298417,-0.554689,0.15973285,0.26146945,-0.082956135,0.3175004,-0.40856582,-0.23896326,-0.10012761,-0.27430308,0.23843312,-0.09111195,-0.3006976,0.22178824,0.07199604,0.24325271,-0.37708867,-0.4492394,0.36605883,-0.059603743],[-0.41622448,0.36739013,-0.64137405,0.0725723,0.10082461,0.15773748,-0.118358806,-0.3240711,0.29794753,-0.10391832,-0.06756613,0.52904683,0.38706335,-0.028229952,0.28923556,0.013778619,-0.13224061,-0.16444378,-0.34492922,0.18536355],[-0.46377692,-0.7117039,0.03793224,-0.27188104,-0.43181643,0.20655285,-0.43770993,-0.05149961,-0.018312126,-0.0121692745,0.002722495,-0.36767736,0.2003637,-0.12998524,0.32741198,-0.35982132,-0.44457874,-0.19194674,-0.19293176,0.037816513],[-0.19045961,0.6317838,0.10058077,-0.25507897,0.2892248,0.13281535,0.2380135,0.028386671,0.044570863,0.16840237,0.21924372,0.42121586,0.30640772,0.11952574,0.3435203,-0.3852346,-0.36835513,-0.034806255,-0.12927079,0.1077314],[0.0019781096,0.24531819,-0.68766606,-0.14486723,-0.2936044,-0.10075688,0.040854618,8.1847844e-5,-0.41618705,-0.47141036,-0.37525687,0.23031797,-0.10059752,-0.023808798,0.018911209,0.29807064,-0.23237085,0.022244196,-0.47637486,0.05674721],[0.018330924,1.0244907,-0.08232657,-0.20534578,-0.035922453,-0.042620704,-0.20938534,-0.5248589,-0.23398754,0.16362427,-0.031752393,0.28103113,-0.31596333,0.055323984,-0.025249017,0.028072847,-0.47311988,-0.4434424,-0.22791468,-0.3145782],[0.19370162,0.37959832,0.24630268,-0.45012158,-0.043642383,-0.29153618,0.2899601,-0.18367966,-0.16299142,0.018621445,0.13489425,-0.23986235,0.3009583,0.28566167,-0.1596425,-0.010242769,-0.11620243,-0.45678073,-0.35798317,0.05478396],[-0.41911316,0.07609653,0.52326465,-0.40652025,-0.19456746,0.19248389,0.32821345,0.13916844,-0.058573954,-0.21864283,0.3556234,-0.21312325,0.12853827,0.0569464,-0.20516287,0.15842727,-0.14173338,-0.1774108,-0.26928788,0.0013553386],[0.016023798,0.12444231,-0.17172489,-0.033080332,-0.1158743,-0.13349776,-0.16275443,0.18952915,0.18000095,0.14853172,0.15743439,0.0028194892,0.116453394,-0.42788297,-0.28873026,-0.23263046,-0.34831962,-0.42530444,-0.17922273,0.1701852],[-0.046777494,-0.14363205,0.32631394,-0.29460338,0.10922126,-0.32506138,-0.37202746,-0.37436524,0.04859396,0.10660409,-0.2586945,0.07193661,-0.017714469,-0.12554704,-0.09779835,-0.17153156,0.20639904,0.035953574,-0.20091303,-0.32070875]],[[-0.39228508,0.094408505,-0.30996785,-0.0062853205,-0.25049993,-0.4051422,-0.053676073,-0.33112592,0.038848728,-0.24329312,-0.08602285,0.15908365,0.08485875,-0.14350383,-0.466581,0.050654512,-0.015294983,0.39803204,-0.08508008,0.26489466],[-0.40458903,-0.21548167,0.14879438,-0.31489447,-0.33326495,0.27496827,-0.6476689,-0.19675268,-0.4443204,0.058931068,-0.62281245,-0.14185616,-0.06992066,-0.48507124,-0.9129253,-0.26965597,0.54232603,0.3221848,-0.16363166,-1.0562978],[-1.2971308,-0.23033941,-0.36124834,-1.1938753,0.06495134,-0.04211227,0.032656055,-0.16631617,-0.26820514,0.0021585727,-0.59459835,0.29565078,-0.21393406,-0.103614375,-0.2712201,-0.00082543876,-0.22371344,-0.15778261,-0.18851395,-0.3840349],[-0.12318168,-0.06593233,0.16393292,-0.16367148,0.15954545,-0.15700588,-0.22360769,-0.27106786,-0.008141898,-0.036034252,0.07264953,-0.031597655,-0.008095403,-0.17202039,-0.026703227,-0.13792107,-0.4358113,-0.17512873,-0.011724931,-0.32096314],[-0.10190454,0.0790607,0.2177301,0.15346737,-0.17373326,-0.29734975,0.15863127,0.11665107,-0.4186445,0.16174588,0.09564809,-0.07010745,0.21230556,-0.3503446,-0.18342958,-0.36394593,0.27544838,-0.011167103,-0.05740104,0.16841026],[0.17156701,-0.24879515,-0.2773708,0.13031547,0.06047814,0.113598235,0.11131571,-0.14966837,-0.44312358,0.045689575,0.25787592,0.08801159,-0.13515536,-0.16681801,-0.17911454,0.27130356,-0.22083132,-0.19606702,-0.13716249,-0.19539602],[0.21209587,0.052778337,-0.08801977,0.12444947,-0.044513237,0.043609545,-0.24573289,0.31871867,0.16709508,-0.2219106,-0.3123856,-0.39643955,-0.33074206,0.04700997,0.0033366024,-0.115478486,0.1071766,-0.30479768,-0.12984501,-0.34646153],[-0.2680342,-0.0051530357,-0.089547545,-0.08077077,0.042255532,0.08865522,-0.4067453,-0.02608954,0.06100562,0.042886067,-0.27652997,-0.4307486,0.113515206,0.2201817,0.15064555,-0.15555711,-0.47051653,-0.04409458,-0.046367347,-0.023256356],[-0.273293,0.09778628,-0.004208509,-0.27705628,0.10409908,0.1175821,-0.10220083,-0.3356144,0.0757934,-0.32784122,0.34386143,-0.22768943,-0.4556705,0.15755264,-0.16912942,0.01811342,-0.47110164,-0.09709713,-0.50384986,0.3059134],[-0.016986713,-0.22502987,-0.2970045,-0.46453825,-0.28288737,0.046942838,0.188037,0.10620199,0.25349197,0.197477,-0.009262484,-0.08523028,0.24274795,-0.22645307,-0.38277954,-0.11985105,-0.061926216,-0.1698545,0.14350268,-0.13710496],[-0.44707268,-0.3657325,-0.47320512,-0.35896373,0.050876852,-0.31734556,0.18610995,-0.022619031,-0.19158164,-0.22541468,-0.37118885,-0.50894237,0.2718108,-0.37293684,0.06229951,0.027985906,-0.115570545,0.019811166,0.23261185,0.2782602],[0.23587924,-0.086934924,-0.15123768,0.40779823,0.17263365,-0.30657163,-0.34291136,0.060712446,-0.11240975,0.17617941,-0.22684917,0.23641105,-0.25386265,-0.16570947,-0.2591964,0.008682212,-0.0689995,-0.3397994,-0.47545874,-0.1863949],[-0.46824238,0.12236551,-0.2329433,0.17330039,0.07300369,-0.32051146,0.061316762,0.2893042,0.16302985,0.17109057,-0.23279187,0.14556772,-0.48941332,-0.123358674,-0.23282619,0.29308847,-0.17271897,-0.21120393,-0.41928726,-0.38367984],[-0.20499271,-0.39925927,0.19912541,-0.3150599,-0.21131484,0.2888943,0.0017705313,-0.10333218,-0.3055334,-0.18808758,-0.05628769,-0.3514906,0.24558009,0.1430946,0.27770695,-0.2588745,-0.1754591,-0.11174407,-0.10473809,0.19875927],[0.36275062,0.055511575,-0.2273204,-0.18259057,0.07289095,-0.028403008,-0.33015057,0.42363274,0.09407046,-0.2992477,0.19086884,-0.3241614,-0.4713653,-0.18244159,-0.024764553,0.286477,-0.20393232,-0.24286547,-0.449667,-0.1572533],[-0.38458747,0.10141713,-0.06960325,-0.29116833,0.27237877,-0.28894803,-0.41805696,-0.18630743,-0.0072421865,0.2870252,0.045931537,0.111108035,0.23259376,-0.41596302,-0.3180952,0.22220947,-0.46615773,-0.071186766,-0.23563373,0.084131345],[-0.29153562,-0.15954551,-0.08147128,-0.059253637,-0.22084217,0.11899789,-0.28763923,0.17849228,0.24961513,0.3083656,0.22327635,-0.25697014,0.027060023,0.20795503,0.1363785,0.13868071,-0.20707932,-0.10069893,-0.28397855,0.15891308],[-0.43924668,0.16361457,0.16329831,0.19721736,-0.006133192,0.28552997,0.17212638,0.21515079,-0.29878122,0.01097537,-0.12470404,-0.1643759,-0.27356976,-0.27878484,-0.009904827,0.071279794,0.1298256,-0.12331824,0.15838365,0.181942],[-0.6633792,-0.07441291,-0.2684148,-0.48133272,0.1615781,-0.37679362,0.013009606,0.14945121,-0.20652574,-0.43387887,-0.3030891,-0.31557932,0.2846591,-0.44714642,-0.10434794,0.29104325,-0.08845959,-0.03137371,0.06215389,-0.08775857],[-0.119748265,-0.16806166,-0.3008126,0.28632906,-0.34691826,-0.25385833,0.049805902,-0.22295214,0.012556692,-0.072163165,0.16922255,0.0032538332,0.054834876,-0.036366887,-0.42778236,-0.13876998,-0.37589923,0.21082416,0.21098797,-0.29090106]],[[0.103825845,0.46014833,0.26445258,0.33874702,-0.082451925,0.2817496,0.026706146,0.039654665,0.22535086,0.18507294,-0.21689361,-0.27496365,-0.33780324,-0.5164152,-0.28527504,-0.5803962,-0.5005392,-0.43396333,-0.14019,-0.44846404],[0.10995478,0.042031053,0.2911697,0.39298177,0.44593847,0.4156139,-0.12055616,0.014060203,0.14503932,-0.057982724,-0.28411612,-0.09742837,-0.21919332,-0.25104007,-0.103982106,0.024874747,-0.27962962,0.15570764,-0.065061405,0.14482705],[0.40704623,-0.37929374,-0.33328605,-0.42582744,0.24599946,-0.10355404,-0.05772939,0.3143586,0.3458091,-0.19441535,-0.033889588,0.19542843,0.031656846,-0.15445837,-0.1852468,0.42809603,0.31421158,0.0724803,-0.08297975,0.0013821028],[0.030692253,0.26787442,-0.007036032,0.18431234,-0.024050687,-0.1991499,0.16712913,0.04166174,0.12286703,0.16522792,-0.00396996,-0.40752324,0.15451494,-0.097512126,0.23118551,-0.37172467,0.1385799,-0.18234514,-0.19628835,-0.40386364],[-0.08891338,0.1773951,-0.06678101,-0.11691903,0.41374046,0.23948991,0.19274503,0.43417597,0.31419697,0.37323508,0.0061899493,0.27260542,-0.20528235,-0.1605564,0.3663755,0.052544568,0.2967376,-0.17287885,-0.14361121,0.1384423],[0.45453662,0.3991817,0.28919995,0.18716992,0.023117369,-0.30703956,0.0907676,0.40198597,-0.14863132,0.0751551,-0.2335169,-0.32909036,0.29132527,-0.11455615,0.0065329294,0.35748821,-0.122904055,-0.057834145,0.32749438,-0.0040168636],[0.0034858135,0.08435109,-0.10696815,0.30936602,-0.01456487,0.22680591,-0.08359224,-0.31300044,0.17460358,0.31548366,-0.094498016,0.14941715,0.113965236,0.3867474,0.073338665,-0.23480788,-0.19011125,0.18864597,0.34516245,0.0018505185],[-0.18608733,0.08519246,0.19582003,-0.08162958,0.3953284,0.3581689,0.32857406,0.071884625,-0.18756929,0.05474048,-0.09394764,0.21516044,-0.2428391,0.28034273,0.11142642,0.36716732,-0.15495366,0.4828705,0.40842098,0.43636304],[0.39854497,0.15602043,-0.12493631,-0.17218263,-0.14990851,0.02543604,-0.16017272,0.39280587,0.34703183,-0.40230042,0.13271292,0.30637878,-0.13643128,0.51684207,0.2072455,0.07702765,0.32865775,0.20501237,0.26113468,0.21976759],[0.32665122,-0.08002036,0.27347752,-0.20265113,0.14119165,-0.1632301,-0.09888591,-0.17880268,0.36832264,0.19804856,0.09755942,0.28478795,0.24064152,0.39527187,-0.070269324,-0.13005663,0.2274516,-0.040734883,0.023385629,0.4084144],[0.08003986,-0.018713687,0.09939939,0.39529523,-0.35842472,0.31637803,0.16594829,0.3838151,-0.033460353,0.4149009,0.091603816,0.17169552,0.07778664,0.21252011,0.123139925,0.34913716,0.04035041,0.098348685,-0.060522094,0.17607968],[0.47048092,-0.10500802,0.50053215,-0.14798379,-0.18541643,0.10959157,0.05313367,-0.07084902,-0.13285974,-0.40753388,0.48281685,0.09991777,0.07966764,-0.1482661,0.33784732,-0.25591257,-0.33197558,-0.057521317,0.30844066,0.07621138],[-0.009087609,-0.23854418,-0.2840355,-0.45579645,-0.08004,-0.21764694,-0.08188179,-0.20911731,0.18515764,0.22834505,0.2609039,-0.30577797,-0.012087636,-0.10408452,-0.2796919,0.32262573,-0.108898394,0.366605,0.21835211,-0.23032914],[0.05868209,0.23065443,0.31256875,0.149514,0.31832436,0.0010991505,-0.1682876,0.17670423,0.09611854,-0.019241067,0.37697068,-0.24897656,-0.099237114,-0.149196,-0.17599986,0.3979313,0.4216996,0.12006235,0.38177165,-0.03905537],[-0.19898637,0.21749492,0.12806568,0.039442956,0.22901872,-0.13757576,0.16021985,-0.33658388,-0.15810327,0.28953373,-0.16057096,0.26750666,0.17865922,0.47089654,-0.03554995,-0.21977845,0.09085104,0.20058303,0.24372351,0.22134209],[0.110037826,-0.04352213,-0.100166,0.3580279,0.0080334535,0.12169197,0.1607656,0.072575614,0.11035093,0.10306585,0.23393175,-0.036938425,0.39590478,-0.088209495,-0.18223141,0.071286626,0.21733738,-0.045582443,-0.0051760273,-0.1609251],[-0.26339373,0.04169003,-0.31153566,0.3443089,0.08454193,0.5006343,-0.079179235,0.19478992,-0.007617326,0.1063932,0.044490706,0.30263788,-0.16991216,0.37089667,0.08927633,0.5600321,0.34866408,0.34941992,0.17668954,0.23876052],[0.010508476,0.32116383,0.39528897,0.0068989703,0.39502752,-0.3390242,0.26894206,-0.27690646,-0.17702535,-0.2434663,0.16210748,0.3277798,0.20957732,0.054085832,0.2115357,-0.05455657,0.17828861,0.41681305,-0.37796268,0.209007],[-0.08546901,0.17317575,0.20351975,0.009193808,-0.1390099,0.029792067,-0.25702143,0.2715341,0.40170547,-0.30561545,-0.081047766,-0.025322907,-0.1864833,0.23777266,0.17542699,0.38302052,0.35955697,0.048428204,0.17473334,0.061376918],[0.061374616,0.1472792,0.15979116,0.0033719013,-0.14893793,-0.16450323,0.07508,-0.3281866,0.017697617,-0.120736636,0.18076746,0.16118845,0.48116273,0.57337475,-0.062349465,0.11064824,0.43649244,0.11018511,-0.10871921,0.42240733]]],"bias":[[-0.07919081,0.23990826,0.27237082,0.39005536,0.24257378,0.28151312,0.051961303,0.3027801,0.18373844,0.12974368,0.1506972,0.17848985,0.2834665,0.14268106,0.03146467,0.026648475,0.21952802,0.13168174,0.122677416,0.07551378],[0.12324792,-0.02838397,0.019935237,-0.09981112,0.12254112,0.038894005,0.03514063,0.118722156,-0.12925257,-0.14697282,0.0071048555,0.12361885,0.11345082,-0.098859295,0.11249081,0.092952244,-0.10868792,-0.072955355,-0.10592919,0.034082826],[-0.097417474,0.24663237,0.0068269386,-0.08898173,-0.083745226,0.0016902069,-0.041016072,-0.13629635,0.014978626,-0.081072494,-0.048243105,0.06901938,-0.0027085752,-0.0846637,0.05570225,-0.054413706,-0.121898405,-0.19292986,-0.021024913,-0.11887823],[-0.045691244,-0.18650569,-0.07473737,-0.083421946,-0.03637207,-0.07869548,-0.1040953,0.01610813,-0.14644262,0.020970345,-0.044822127,-0.109445736,-0.10415592,-0.16575903,0.0753496,-0.07998147,-0.15493311,0.026406381,-0.14406268,0.008879327],[0.20164077,0.10640649,0.1675244,-0.004749216,0.15240969,-0.004569241,0.11153985,0.06193222,0.14701496,0.051801722,0.10156678,-0.028499445,0.097237006,0.11780764,0.15774177,0.015084163,-0.080737196,0.113170505,0.006101305,-0.12592301]],"Losses":[1.2765527230246339,1.0191570034877095,0.8305906630192357,0.6796317968668097,0.5515339605664858,0.4441340680764521,0.36805936064800315,0.3310552233472085,0.3113866926542592,0.29615793611590213,0.28371640799322456,0.2719824691577778,0.2604749171247423,0.25086680679144785,0.24528103078008134,0.24413320816596318,0.24500432634330185,0.24476584257585698,0.24200632952142867,0.23716284540721824,0.23153689660071908,0.22620959373151775,0.2215071842225775,0.21733595293879324,0.21371139943230108,0.21088275834107142,0.20912510326010023,0.20845148473119943,0.20855226429142537,0.20900415882333806,0.2094796545058019,0.20979107497637248,0.20981125534614015,0.20940595762989875,0.20848315658134484,0.20710355351190193,0.2055083435169817,0.204020648610666,0.20290171622985548,0.20226300528304988,0.2020685576630111,0.20219190890963185,0.20248222995873663,0.2028068349056036,0.2030562700482151,0.20313603302782512,0.20298031512963902,0.20258924505661496,0.20205004505961788,0.20150756745267137,0.20109820043294752,0.2008916191489832,0.20087039207034335,0.2009499279379154,0.2010270635996259,0.20103265422125546,0.20095625696817843,0.200830642655216,0.200696955366342,0.20058132278984753,0.20049266314135425,0.20042959760954027,0.2003847455174656,0.2003466611231788,0.20030343002077,0.20024711726356859,0.20017546830258362,0.20009058085290488,0.1999982245821364,0.19990944057405746,0.19983902211421128,0.19979628338539043,0.19977530167381694,0.19975708064496395,0.19972313239200343,0.1996665945967197,0.19959187172109621,0.19950763257522935,0.199421773156077,0.19934028781901877,0.19926695289489577,0.19920222442305682,0.19914291170811071,0.19908407686335264,0.1990215003166836,0.19895214928777977,0.1988734795111848,0.19878444618414187,0.1986875613092523,0.1985881383600358,0.19849030954467625,0.19839405251749112,0.19829620357791136,0.1981935317630507,0.19808453978342808,0.19796903490504084,0.19784705133477945,0.1977184911099675,0.19758325365967327,0.19744130088914155,0.19729270072390367,0.19713744124077004,0.19697493520287773,0.1968039526271761,0.19662327026658963,0.19643220795462016,0.19623050552657403,0.19601797127990064,0.19579422412218042,0.19555860031266623,0.19531011788735314,0.19504764601067245,0.19477023038090394,0.1944771482966166,0.1941676959363815,0.19384122705568715,0.1934973299520764,0.19313569161599875,0.19275591145584986,0.19235752301223277,0.19194026758501956,0.19150423239672287,0.19105001942321798,0.1905789152667895,0.1900928931628651,0.18959451326109417,0.18908700841916715,0.18857445928703043,0.18806178853503788,0.18755475479568628,0.18705995224216862,0.18658448537463027,0.18613546051804403,0.18571949096189766,0.18534186213620232,0.1850055952886612,0.18471083781454745,0.1844541884070282,0.18422862521955538,0.18402404492760868,0.18382843844993582,0.1836296368500216,0.18341725672826753,0.18318462183958165,0.18293205905895865,0.18268147610329297,0.1825796260548201,0.18331061317904113,0.18507577969766956,0.1839668735615664,0.18122315110605092,0.18329365336729994,0.18183530116436555,0.1809789629005976,0.18204724952307308,0.1800561782782577,0.18116328871691675,0.1798898194972376,0.18017967129503704,0.1798354304792269,0.17936133706300383,0.17960912290541778,0.17874917874881607,0.17919099574924774,0.17835041325713533,0.17866504784221182,0.17809374523524088,0.17805610504268277,0.1778799646790363,0.17749287200927458,0.1776071876745747,0.1771023371906156,0.17719324304025816,0.17689653817621862,0.1766920784359438,0.1766954822923774,0.17632163214035043,0.17630239773673456,0.17611729386048788,0.1758476614061691,0.17581557523062288,0.17554963561388753,0.1753558748572938,0.17525909575444135,0.17498015612267548,0.1748119126540728,0.1746633133482708,0.1743927478801114,0.17422327989076508,0.17404219577885804,0.1737798258993423,0.17359551461148806,0.17339359492878623,0.1731310368628072,0.17292316034146796,0.1727054645644771,0.17243576799516588,0.17219815232297167,0.17196722701290945,0.1716923949898821,0.17142310611684908,0.17117605106120407,0.17090858222800215,0.1706217692919224,0.17034653139649783,0.1700845820468696,0.169816499595718,0.16953558697988597,0.16925594389947865,0.16898655625015854,0.16872859416399852,0.16847958388657341,0.1682362784793431,0.16800254705746964,0.16778066738615893,0.16758360371614997,0.16742921876133213,0.16736804636187222,0.16749214437835055,0.16789004705958152,0.16842450456834557,0.1681706737457004,0.1668806296135205,0.1659127321937585,0.16623057694433993,0.16667154440708098,0.16599780726061014,0.16520412400810486,0.16538397523984036,0.16555375683733836,0.16492881673140866,0.16450598510569858,0.16469454009390963,0.1645680570819392,0.164028173745073,0.16387284037449218,0.16395373813773023,0.1636637633975028,0.1632880897722599,0.16323960376404342,0.16318398222693636,0.16286721432945295,0.1626200537183071,0.1625697584251989,0.16241642629086178,0.16212615604138136,0.1619523990278237,0.16185747776542733,0.16164363083040217,0.16139445877782083,0.16124542339520692,0.16108956836906455,0.16084817634993923,0.1606291181166085,0.16046010741402622,0.1602473323407023,0.15999742547487789,0.15977868686916682,0.15956135399238383,0.15930402798153703,0.1590430305704348,0.15879165215514152,0.15851307503375744,0.15821144631167644,0.157915415068334,0.15760728330955162,0.15726391404256349,0.15690248547689772,0.15653260952317719,0.15613504894552782,0.1557061383407019,0.15525901575735024,0.15478646690631678,0.15427509805612927,0.1537309232589669,0.15315779472200577,0.15254885975766327,0.15191835247578883,0.15137344873415812,0.15147174344565945,0.15549868228938046,0.16848905090445854,0.17247397748693014,0.14800098384749868,0.17162144700481138,0.15493934171696971,0.15595572531204382,0.1567861637759541,0.14836596966009638,0.15598442809522095,0.14692013320446315,0.1543065961080774,0.14474698096548858,0.1515144878330542,0.14406937173617343,0.14933367784577428,0.14246837241777444,0.147076467398788,0.14161005709677307,0.1454142291779075,0.14022824067679138,0.14368424704338142,0.13938499498824614,0.1423942224959673,0.13850782370294598,0.14084156812809762,0.13802377875436111,0.13959753395131877,0.13782583840837323,0.13826774922606444,0.13768674981562684,0.13716703038262604,0.13755802066211767,0.13633691089785901,0.13718806353162485,0.1357652181502745,0.13654366578513638,0.135441096905584,0.13579781067350288,0.13525778268423827,0.13507133171381414,0.13504493621842326,0.134501540913192,0.13472188669815893,0.13412163249255785,0.13431652725780552,0.13386214583074593,0.13388652702905585,0.133631793058613,0.13351978758400407,0.13337114815573153,0.13323468662840657,0.1330793395193977,0.1329970860790544,0.13278444807990464,0.13274995924915975,0.13252065505564617,0.1324628935036958,0.13229297260870507,0.13215894393091326,0.13207203699336034,0.13187482221413124,0.1318242348821567,0.13162709860001848,0.1315459763947471,0.13139375963194666,0.13126831660782615,0.13114432496656037,0.13100911121805422,0.13087753938356517,0.1307530200775717,0.13061286939498665,0.13048077786592857,0.13035338678674743,0.13019864919875368,0.13008102242976702,0.12992182955094062,0.12978855283390328,0.12964358317526714,0.12949034086660746,0.12934870117524322,0.12919149729406418,0.12904004222102225,0.12888184574140613,0.12872446550731473,0.12855809047258054,0.1283965704758005,0.12822497831418048,0.12805110583902846,0.1278785878974818,0.1276934313373793,0.12751227950739158,0.12732327936056637,0.12712994905026423,0.1269343709309701,0.12673325144674266,0.1265281193582138,0.12631836945536107,0.12610603321574448,0.12588676647006566,0.125665475825326,0.12543999713896603,0.12520876239072337,0.12497613458906816,0.12473879294989144,0.12449838443707172,0.12425547753397716,0.12400999620818105,0.12376275942964851,0.12351316905015698,0.1232634285315655,0.12301293963964172,0.12276189538581991,0.12251209907901213,0.12226322392005433,0.12201604157355993,0.12177082870685461,0.12152807941435868,0.12128862891208207,0.12105192644285646,0.12081842068611164,0.12058835337930225,0.12036142429293945,0.12013771397204194,0.11991662745507459,0.11969778355401056,0.11948097866350703,0.1192655802182875,0.11905116742810373,0.11883725153551328,0.11862323682374551,0.11840877244923846,0.11819355103570019,0.11797719209871489,0.11775972893278035,0.11754094507936466,0.11732106378815986,0.11710026138003758,0.11687928617950523,0.11665922284562483,0.11644398938377311,0.1162416835000483,0.11607848502778595,0.11601508648914094,0.1162139935876584,0.11680921478263953,0.1179616045003889,0.11773372632326529,0.11646820469905887,0.11467134694658468,0.11457752889390135,0.11557521705759684,0.1154022979308541,0.11425432572590566,0.11347999351011924,0.1138537686721261,0.11430340486560722,0.11362047019197745,0.11278746046439934,0.11264352254197896,0.11294798908839208,0.11294224093582061,0.11230768979316304,0.11180774861690256,0.1117835568153243,0.1119158889454755,0.1118112128741709,0.11136039346395041,0.11097572189632746,0.11085897500513069,0.11088883919041213,0.1108658645903644,0.11062474728784098,0.11030933727125124,0.11003854666945298,0.10988931402243235,0.10983336096042802,0.1097838648126602,0.10970469973196972,0.10954026075904477,0.10934620837927864,0.10911811122935831,0.10890376347927648,0.10870684159357806,0.10853186135271367,0.10837451471726736,0.1082281852198993,0.10809311919639257,0.10796969899879544,0.10787364027854507,0.10782132483423097,0.10788610265409349,0.10811724946537568,0.10879192973980722,0.10961104888516006,0.11088434233306836,0.11007962506265813,0.10863330573328667,0.10676666270364542,0.10624616163682027,0.10695024437924798,0.1076523405222337,0.10759790577984028,0.10632146749443203,0.10538290078417271,0.1053099309997124,0.10576428451170514,0.10605238443051931,0.10549294596853777,0.10471441765395904,0.10422337323618967,0.10422891990806973,0.10443176588660508,0.10433360116957703,0.10392314920291282,0.10336440523574304,0.10300742044716076,0.10290822417988092,0.1028984380511851],"R2":0.8976112790894789,"Training_Indices":[1695,13823,10811,5549,3182,17404,19350,11119,16316,14929,1238,1051,5007,1647,5117,20510,5273,12896,9292,1334,15595,8923,16961,4283,14609,11203,10046,20587,9926,17935,4487,8773,4421,7981,16751,3136,19687,10095,9367,5235,9557,16533,3257,7100,18052,14232,16878,12648,7948,14031,2073,19555,17364,15995,10073,11407,16222,2830,6488,15957,19969,17065,12229,3707,16874,8335,3030,17370,5987,16006,19123,12827,16975,17190,6009,16199,7161,15064,15615,18562,4161,3455,8002,5965,8008,15914,2175,1823,7176,4149,20521,7348,14150,13298,8990,12881,4412,105,1968,12804,12174,1114,13350,6416,14396,2673,17522,14337,9120,12308,7764,12758,8147,10477,9533,4284,3417,2575,17597,6285,3875,18473,50,8210,3978,7749,2641,11598,14083,16500,1324,14479,13480,20449,5836,5907,19597,16024,10366,10697,2609,460,2684,17003,15757,15490,19064,6503,20061,16760,18000,1945,17241,7507,2868,18782,12049,16107,18798,8053,9157,12868,4677,2890,7141,15057,4195,11036,9954,12306,12688,8642,5876,13035,11238,6042,811,4720,17199,8372,9752,1965,10553,3710,13162,13073,19889,6134,13729,11580,18457,7859,9685,2626,1655,10155,2209,7061,16170,17987,7730,10074,3598,10164,6157,735,2964,18265,19725,4027,20255,1000,14511,9254,4659,4881,20168,7368,1740,8222,18129,19241,7599,14141,4660,20353,8166,18928,16163,3078,759,2017,1347,15125,3818,5216,16171,8920,19718,836,17816,6223,9204,12400,17246,7382,13916,820,6057,12809,8650,12242,14849,11550,14573,17127,12192,12186,1167,16258,14281,731,12021,18093,10695,16499,2048,14535,2081,4408,636,4867,1046,14729,17480,2621,5437,20445,2300,18407,9565,8885,9333,20512,12830,20200,16435,12214,6902,15805,4615,17125,6685,1303,11239,17860,3990,10571,20221,7909,13873,7957,15726,5101,989,8615,15491,12178,228,9073,12016,15692,15938,12658,18943,12479,2849,2094,18078,11083,16386,10612,3001,13277,14132,5697,10524,19569,15051,19467,17012,18462,7514,5028,14710,20092,12327,3017,11340,18287,18710,6909,5751,3067,7240,2975,11982,1326,10206,10957,9651,13561,364,15098,14064,6077,3319,18479,4968,13372,14134,9538,9091,8934,13818,19665,10973,7406,9332,8142,16871,19662,10954,13257,2850,12491,235,3860,2595,19219,15644,14850,1277,15305,20117,9551,2453,8131,14881,17507,6867,17299,2578,11949,242,17043,2195,16828,17669,2810,1466,3507,764,7958,1971,6817,13700,19920,429,15887,5152,8119,17993,13288,18813,18235,14998,12411,15704,305,13671,4824,17126,6150,9126,458,16452,1344,1437,10532,20453,10106,2001,10783,13417,13805,567,2701,3751,18523,20443,16585,7321,16331,3936,2572,772,15673,16143,8425,4846,17147,8299,11700,17049,6679,3536,14116,16004,14242,15533,12316,4016,7839,3205,17122,2812,17533,18318,9168,18234,20358,9016,7340,2832,9800,11773,2,7333,8610,7197,13364,5909,1916,4564,5657,6148,10424,19796,298,18740,12972,12993,15517,13745,14402,7137,564,3602,14734,8596,19093,725,7971,20345,9235,11099,19954,3530,1477,7867,16456,15616,10134,12943,2181,3599,7766,2526,4717,19548,4947,15080,984,7975,4547,5167,8405,11242,19051,17601,4628,14698,1373,3181,11079,18841,17969,9817,18295,12774,14441,657,15907,10705,7871,13639,17813,18454,18601,15366,9115,8180,17715,13300,15738,1301,8098,12602,18164,15288,10813,14329,13849,16919,8379,9677,12976,6962,510,263,9282,12364,426,2417,13504,7270,2262,81,14247,1070,10913,5897,14497,3770,19228,3360,9672,7019,5669,12164,3653,14516,7204,1499,10399,18849,20499,20542,10327,4354,13665,13930,2340,8144,3340,1333,861,9087,13231,1142,6692,4689,1391,14225,14487,16192,13451,6794,950,4686,2107,1271,7736,2762,10748,6769,10462,13565,16822,14695,19001,13237,16627,17994,171,10227,17496,18044,16926,15326,2699,7293,16367,6711,6594,14687,1308,11266,17399,10614,17854,27,12883,5038,3293,8288,4425,5821,16282,12302,3165,15973,690,16603,2863,5350,2636,11908,14214,14233,17971,17216,3204,4508,17738,125,932,4455,2102,7765,1768,11225,20427,20148,11643,15102,2807,1529,10905,5444,6574,9723,14021,3145,6363,5051,9993,9772,13135,15097,11261,16496,9319,9878,3711,14172,18792,12573,4953,3778,435,17756,15465,18352,18816,1700,10230,1485,1159,19108,18872,8670,1588,19628,6212,10065,17633,14313,12877,6569,16022,3152,13669,17391,12585,7224,11246,15783,11913,14717,15661,18459,5842,13308,7574,3920,3617,12064,1626,14927,12937,14198,8242,599,8367,270,18855,7722,7423,15899,4203,7390,12825,4403,13899,13749,15018,1878,4359,7699,946,3084,652,8786,10458,9217,17488,7005,17856,6266,4179,4099,14614,16519,20555,10710,17834,16443,1743,11890,11569,18542,14545,926,6281,3323,1199,13724,3658,14448,1001,10362,5901,6437,16952,19374,17967,14788,12114,2151,2834,18280,19124,2029,19570,8170,11003,18045,14820,12110,10834,13571,2373,6885,16745,1289,19145,18965,14581,14007,18083,6192,5700,17510,7604,18148,2202,19100,18266,6249,17809,4315,4221,6069,14312,5713,19485,13125,15896,455,17594,5569,15952,16974,7033,18905,14669,12797,20346,8930,15979,17454,3828,2143,1063,15728,5541,12203,18491,20046,4625,3877,5589,9507,19257,13353,19538,7277,10793,2479,17924,15285,6649,20491,19313,5774,14880,10338,13958,7584,17118,2603,12854,1495,13219,1309,19934,19305,1523,17865,4332,18949,17511,9119,17911,19371,2152,9459,8623,828,7689,1357,7094,16775,12963,17615,12160,13310,646,19412,419,12966,2032,16454,1370,66,14761,18298,15513,11725,16923,15552,16604,7959,12516,16741,13321,18627,19887,1623,11670,14109,14682,20209,115,3839,5256,19216,18300,1567,16246,12636,198,4667,4877,4535,12438,16882,17753,15643,3986,11496,2769,7000,17144,1262,18584,7467,10974,13968,5286,2512,19405,6014,18638,17290,12293,18571,3871,355,10785,17604,531,6341,19737,13358,18522,11862,2092,3970,3466,1336,10463,12377,7658,8903,4300,7304,16493]}