{"architecture":[["Dense",[4,20]],["Dense",[20,20]],["Dense",[20,60]]],"weights":[[[3.0627778,-0.14073119,0.9630539,1.9252279,-0.29730162,4.5373626,0.68291414,-1.629368,0.07866316,-0.6987973,7.213557,-0.043681446,0.048355382,-1.2567052,2.6272137,1.7256818,2.148214,0.5220428,1.5656258,1.4977559],[1.070898,1.0366964,-1.314545,-0.7346897,0.74707407,-0.6056682,-0.24076103,-0.34322667,0.18820085,-0.18791771,0.67257583,1.0571281,0.3247182,-0.01614517,2.999686,-0.05635145,0.39980364,-0.4934449,0.7276158,0.44153076],[10.779604,-0.029630374,1.6420754,-1.651715,1.3360645,-2.5585864,-0.45851472,0.816759,2.3525658,1.3736895,-1.0705886,1.3931713,3.7978647,0.8279933,-0.17195407,-0.66084725,-3.7973979,-0.6584478,4.7722387,-3.0200255],[4.841198,-0.69394994,1.9247906,1.2970908,-0.98196614,0.6776867,-1.0634594,-0.50567913,-1.0892723,-0.30999917,2.5292268,-1.2775354,1.7962312,-1.0040722,3.1084504,-1.2227039,-0.35483274,-1.5082686,4.092451,-0.17900696]],[[-0.7517418,-0.5303478,0.17236847,0.09460869,-0.096293695,-1.3195984,0.06509251,1.0665874,-0.79890823,-0.62980914,-0.03362145,0.7726338,0.08015715,0.6668929,1.6506406,-1.3907995,-0.16758181,-0.37070817,-0.03415199,0.44698548],[1.0131886,-0.53720456,-0.0505525,0.2696839,-0.13509065,0.112306386,0.2784717,-0.6079838,0.615462,-0.15668629,0.0711169,-0.077838756,0.22325289,-0.09423454,-0.77890474,0.18605563,-0.12378217,0.13236222,-0.3277013,0.12699462],[-0.60408545,-0.45414537,0.05709095,-0.6510962,0.2322467,-0.34859285,-0.38768888,0.17761904,0.04591593,-0.5790306,-0.11563064,-0.13451491,0.0062194695,-0.10741062,0.45036802,-0.430528,-0.30469602,-0.40056878,-0.12781985,-0.5131944],[-0.49532968,0.1890662,-0.47715202,-0.19665211,0.21169205,-0.30134475,-0.53311807,0.169639,-0.17246583,-0.4741488,0.1713078,-0.0035787008,-0.6898449,-0.54133797,-0.782852,-0.1207488,-0.06606271,-0.2361396,-0.18668777,-0.26531312],[0.9277946,-0.1022325,-0.3554068,0.33212683,0.26188272,0.47495782,0.02633552,-0.43502474,0.9969163,-0.001331652,0.24497291,-0.27618432,0.6590134,-0.02976054,-0.14984949,0.6379087,-0.25379264,-0.098725736,-0.15223157,0.4154228],[-0.15633889,-0.585912,0.03670783,-0.20316519,0.13993323,-0.0060958755,-0.74689084,0.39992318,-0.6122742,-0.09747784,0.2296996,-0.19001235,-0.7241606,0.04820747,-1.3693241,0.103061944,-0.025121922,-0.44407377,-0.36158264,-1.0467371],[0.4141479,0.12519638,-0.1733894,-0.45598075,0.21013218,0.047944725,0.20173465,-0.16861524,0.4133983,0.083673805,0.037646092,-0.38561064,0.05070657,-0.3307359,-0.79750866,0.22025889,0.08669231,-0.25138864,0.118107714,-0.6326198],[-0.030489692,-0.2786213,0.14828902,-0.23368621,-0.057780925,-0.28078732,0.12651142,-0.898979,1.02728,-0.3858779,0.16779073,-0.3625849,0.12171551,-0.3715838,-0.37688506,0.6318336,-0.4279236,-0.18751357,0.35639766,-0.10754143],[0.6715339,-0.05499714,0.3198507,-0.21303004,0.38907677,-0.3512278,0.5202531,-0.6631526,0.43670598,0.07260897,0.010942241,-0.702118,0.23777282,0.020394342,0.09476407,0.86093295,-0.26698604,-0.07652097,0.4127769,0.09008824],[0.2787014,-0.3280277,0.038060363,-0.49232146,0.2435259,0.19110309,0.0014762171,-0.80473375,0.57270575,-0.07792997,-0.026633857,-0.36898857,0.5410951,0.11403978,0.109243825,0.2231405,0.14571717,-0.025528256,0.28732786,-0.06705284],[0.0037835634,-0.14847757,-0.5308437,-0.0065903305,-0.22907338,-0.32525334,-0.053679164,0.6286322,-0.6324774,-0.32660392,0.010271349,0.22650632,0.019466627,-0.24849457,-0.3394806,-0.13536392,-0.28925335,-0.34365007,0.03660352,-0.7614656],[1.0619946,-0.5147589,-0.22699896,0.50999504,0.24758105,0.38303116,0.35812297,-0.4702448,1.002303,-0.4920359,0.26573014,-0.34688407,0.23449072,-0.4639476,-0.19191985,0.3911491,-0.0048442786,-0.20233855,-0.026205994,0.31554058],[0.0059594563,-0.53318596,0.027111445,-0.61659026,-0.004828157,-0.50233305,-0.566853,-0.14642258,0.12837435,-0.36279392,-0.22598381,-0.11185107,-0.3013762,-0.21792838,1.0350516,-0.5127552,-0.21284811,-0.46443662,0.035600647,0.3282818],[0.06289881,-0.468301,0.11229371,-0.4459877,0.26244834,-0.26642027,0.46132687,-0.9335429,1.2008368,-0.01676956,0.11237767,-0.64324826,0.33123413,0.17444701,-0.7647866,0.77420324,-0.14603904,-0.6372881,0.22962594,-0.29094985],[0.029168043,0.15396906,-0.21168852,-0.11510841,-0.46249035,0.4489286,-0.10792423,0.4627888,-0.70648277,-0.1419999,-0.4409381,0.61878467,-0.30397424,-0.7352182,-0.20902847,-0.60894465,-0.37750977,-0.08900117,-0.5443725,0.7850002],[0.3572229,-0.5993694,-0.0037018706,-0.14987887,-0.40331405,-0.16105726,-0.19960682,-0.39325798,-0.06398032,-0.10969229,0.15970264,-0.30192602,0.2580691,0.06002551,-1.5040104,0.44512597,-0.31258857,-0.32418174,0.0046702893,-0.6582717],[0.25782776,0.012331672,-0.43993393,-0.4396759,-0.15947758,0.76200515,-0.40085948,-0.2805826,-0.079051726,0.01723569,0.28378484,0.04765917,-0.20356064,-0.4690481,-1.5943698,-0.27841535,-0.5155024,0.06941986,-0.407876,-0.32164395],[0.38029853,-0.14837334,-0.5030543,0.23928165,-0.34040135,0.14217198,-0.26047775,-0.36384737,0.22308175,-0.10598857,-0.0006020472,-0.552267,-0.6228203,-0.6262314,-1.3651812,1.0052093,-0.48850456,-0.25202712,-0.6919253,-0.8075016],[-0.9668408,-0.416992,0.2513961,-0.6949486,-0.5513211,-0.59821135,-0.046521425,0.2825059,-0.6571211,-0.61835176,-0.84723675,0.23909014,-0.35906678,0.26878774,1.148296,-1.1121508,0.1948226,-0.43883348,-0.49917245,0.8201],[0.3874057,-0.34836718,-0.083566785,-0.24127987,0.058781557,0.54165405,-0.63777167,-0.45991763,-0.35984862,-0.11722717,-0.0877042,-0.40937513,-0.2405518,-0.1247942,-1.5979786,-0.20127957,-0.19493325,-0.02977686,-0.77691835,-0.38380465]],[[0.45988733,0.03137202,0.26277813,0.466255,0.021578047,0.44359297,0.09498012,0.15908918,0.37121484,0.5963854,0.5621118,0.5637311,0.23310661,0.5683059,0.6053116,0.5259367,0.19744556,0.2828577,0.09523584,0.23872156,0.5390284,0.34606478,0.4536599,0.13714689,0.5282226,0.30077663,0.55770147,0.13104878,0.19867104,0.09107705,-0.42210728,0.031653,-0.051549044,-0.18756394,0.03286094,-0.15159091,0.06165657,-0.009310051,-0.11281694,-0.28682145,-0.2855396,-0.41340157,-0.031841423,-0.33998618,-0.3923309,-0.42686576,-0.005921488,-0.054501235,0.031969402,-0.037619192,-0.41943958,-0.053661928,-0.41182664,-0.022255106,-0.41652122,-0.11074719,-0.37034157,0.013129493,-0.014144837,0.0037295513],[-0.024332132,0.2953767,0.3817286,-0.27343065,-0.02886173,-0.1264042,0.09278954,0.069801256,-0.18716916,-0.18617941,-0.29975075,0.354835,0.17322057,-0.15265447,-0.06260215,0.0797354,-0.020795356,0.025322264,0.23293748,0.27718928,0.24889362,-0.09066414,0.18708985,-0.098930694,0.06441264,0.20364782,0.18745184,0.1456237,0.09835267,0.1263306,-0.29591936,0.1345723,0.095605046,0.021065062,0.10919031,-0.057053804,0.15138473,0.026145918,0.11914482,0.2512773,0.018149264,0.3866909,0.14402182,0.065183885,0.020037377,-0.044072133,0.1468442,-0.25205648,0.30730903,0.04786776,-0.010147498,-0.10961302,0.021509092,0.10848555,-0.11685614,-0.29061234,0.28244218,0.2975679,0.12337296,0.11680806],[0.0022284696,0.05388139,0.22098982,-0.12753315,-0.04643306,0.24182166,0.19798692,0.2533879,0.4140951,0.032654088,-0.1655491,-0.23425546,0.23468107,-0.21795921,-0.35039052,-0.011741577,0.42022026,0.4045675,0.059853032,0.25998023,-0.26445422,0.0023729815,-0.23344572,0.20090494,-0.21671337,0.16602269,-0.17447959,0.12650311,0.2671747,0.0858246,0.092039235,0.15780689,0.20735724,0.28185305,0.12419918,0.06448724,0.05677789,0.15338567,0.39057836,0.03114566,0.22064658,0.17386182,0.36324325,0.25764212,0.06940854,-0.15994231,0.38813958,0.1975368,0.049900316,0.32040372,-0.08056035,0.2297687,0.0936968,0.40264454,0.030087288,0.25632098,0.105723776,0.058815453,0.10479453,-0.019045377],[0.18538158,0.40140104,0.16724369,0.025439728,0.33150107,-0.15813749,-0.2446404,0.13241108,-0.18566535,0.16026953,0.024573281,-0.1240784,0.16810408,0.13655561,0.012137312,-0.19169386,0.13885784,-0.30508888,0.33485016,-0.23028117,0.017036956,0.118343085,0.21208304,0.09025117,-0.031384334,-0.22661516,0.091900565,0.09895275,0.08867013,-0.1775707,-0.16860545,-0.20016623,0.056659628,0.1769475,-0.08678935,0.3074825,-0.25819036,0.052520476,0.12940757,0.10585289,0.08580507,0.040390488,-0.042685274,-0.054474786,-0.06302017,-0.33640754,0.26129007,-0.028724244,0.20261937,-0.28199032,-0.21396786,-0.19273227,-0.37895283,0.14836714,-0.2025498,-0.1272492,-0.15208647,0.36645168,0.3053334,-0.045763247],[0.094080046,0.17679994,0.33030733,0.46527314,0.36129692,0.17345148,0.038564753,0.46584716,0.1252461,0.22871535,0.2872481,0.16576628,0.27878162,-0.043414503,0.19208199,0.085617974,0.21792948,0.36239785,0.21059258,0.058409244,0.17754865,0.3675095,-0.10591451,0.31188452,-0.200796,0.11813201,0.05750402,0.3260565,0.2648308,0.21757096,0.2740728,0.29617536,0.039909434,0.22400104,0.0153206205,0.29757684,0.11286964,-0.048247408,-0.04040899,0.09580552,-0.14695896,0.25105685,-0.010265266,0.13408975,0.35314542,0.21570128,0.08260181,0.11172322,0.3739409,-0.08825887,0.13045898,0.17177293,0.12112592,-0.11041935,0.35413086,-0.010957866,-0.016639434,0.24381632,0.16806513,0.2381091],[0.5174296,-0.015278824,-0.19083738,-0.4198293,0.03708149,-0.4122352,-0.015762316,-0.064238325,-0.29749992,-0.3889177,-0.4441043,0.24333169,-0.11495288,-0.29227245,0.0019746746,0.482269,-0.13668257,-0.16965577,-0.0037811177,-0.15083542,0.50593585,-0.24735026,0.5820049,-0.058540285,0.2494684,-0.301651,-0.055138174,-0.03725586,-0.06791495,-0.02597511,0.2507335,0.0079857055,0.21315312,0.42458108,-0.021590903,0.30024236,0.06867109,0.089214005,0.23050588,0.61482275,0.5035693,0.45766872,0.14844245,0.5803838,0.6179749,0.3130839,0.1375394,0.19179088,0.06878031,0.1129375,0.32871434,0.25063625,0.18966688,0.088504076,0.40322855,0.21759023,0.5650109,0.11827376,0.15289988,0.01232937],[0.0016042888,-0.05049523,0.4033008,0.33681512,0.17679182,0.054703034,-0.23664168,-0.08878763,0.40384185,0.4156406,-0.02341574,0.0416825,0.19867922,0.15995374,0.09810809,0.11841133,0.0997502,0.2943328,0.19778116,0.23770162,-0.3299662,0.05410338,0.22957672,0.2868085,-0.20440033,0.24068002,0.16406372,-0.13030207,-0.1009554,-0.24789807,-0.18675497,0.15535493,0.3523114,0.32832256,0.07920853,0.3103065,0.27486026,0.047961984,0.19088441,0.012784739,0.14131117,0.15168637,0.25284252,0.26724678,0.18106902,0.33621925,0.26763728,0.1116757,-0.21341087,0.06769224,0.09532616,-0.12612727,-0.031136908,-0.12094705,-0.17659143,0.15444902,0.0915598,0.33067155,0.20264643,-0.1626929],[0.528637,0.077473246,-0.104588054,-0.19218192,0.09680992,-0.13071807,-0.0057669887,-0.07518471,-0.032138336,-0.046428233,-0.1358121,0.32100296,-0.038006537,0.07725133,0.25875175,0.57032305,-0.1117279,-0.07617215,0.114302896,-0.07961439,0.577756,-0.10394823,0.4333724,-0.0012654709,0.34503403,-0.06958487,0.23812927,-0.008039249,0.009584031,0.14688392,0.50038505,0.0864552,0.16580448,0.33042434,-0.009460334,0.32219636,0.0042063654,0.11756855,0.23347409,0.48278275,0.3671198,0.40826854,0.14068434,0.47328356,0.50565624,0.5022867,0.1123495,0.25623742,0.010028723,0.14199042,0.5278132,0.285284,0.45924902,0.04767265,0.4261012,0.2814304,0.46681446,0.078633554,0.04179642,0.037878558],[0.45062336,0.00550538,-0.14243616,-0.113135,-0.0048417915,-0.10402766,-0.056685697,-0.10535931,-0.11728474,-0.045033198,-0.073371075,0.2892326,-0.17049146,0.1315754,0.14412786,0.4541508,-0.120940365,-0.11230409,-0.07599565,-0.13170536,0.41317272,-0.1347115,0.39273593,-0.109744705,0.3265187,-0.06388092,0.20440589,-0.102805056,-0.13685884,-0.011674673,0.60379946,0.008337982,0.0496139,0.23798412,-0.004602353,0.18324225,-0.05650607,0.013871989,0.12900609,0.34847978,0.33441266,0.48577943,0.050544523,0.43747115,0.46318725,0.52431726,0.006518551,0.0767365,-0.02731272,0.09202332,0.55706537,0.1316076,0.5845609,0.025199069,0.5496527,0.15578146,0.45948327,-0.067398556,-0.014674148,0.00838566],[0.24484824,0.16021277,-0.17473873,-0.18602455,-0.05668262,0.17388612,0.22983876,-0.03095496,0.1267372,0.016738608,-0.27104637,-0.09900227,-0.07874445,0.19620018,-0.07361989,0.03155404,-0.0016290006,-0.44505882,0.17468749,-0.085199505,0.11427765,0.0005712315,0.20006597,-0.13021642,0.14555205,-0.0094003435,0.19729596,0.22640383,0.19335333,0.17884758,-0.029390402,0.104019664,0.077906705,-0.14777988,0.27373838,-0.061955586,0.19425295,-0.19054106,-0.33534226,-0.038233172,-0.028890302,-0.21712746,-0.101315826,0.2296256,-0.015275829,0.15549695,-0.31131595,-0.37137783,0.11460909,0.14876251,0.00014006608,-0.09451428,-0.2284849,-0.041372314,-0.00033749605,0.111660145,0.03593197,-0.13761546,-0.1423141,0.11307058],[0.034950223,0.29244542,0.13568033,0.04123709,0.39987752,-0.055636458,0.35732,0.2205879,0.31552,0.07921403,0.100541025,-0.054478195,0.43850735,-0.043949723,-0.13513094,-0.14513087,0.2760923,0.22415413,0.3275008,0.26355287,-0.06991841,0.36440033,0.24930012,0.43172982,0.09668491,0.36483422,-0.06133712,0.22009534,0.3076872,0.12322988,0.346748,0.02984718,-0.15721017,-0.026658738,0.2009139,-0.17378737,-0.016559584,0.069945514,-0.06833938,0.21469694,-0.009188596,0.1389764,0.08854825,-0.07615234,0.06600471,0.261254,-0.2115476,-0.039020598,-0.06858828,0.04946284,0.43398035,-0.20406073,0.2333631,-0.020174455,0.016055377,-0.047303922,0.05877372,-0.0007473011,-0.07441327,0.030725626],[-0.29942372,0.10737098,-0.30461568,-0.31376952,0.14445412,-0.37471408,0.052456025,-0.16438293,-0.3490652,-0.29791132,-0.2588997,-0.10186656,-0.30292687,-0.41052362,-0.33217856,-0.2242693,-0.30453712,-0.23582539,0.005817852,-0.30489555,-0.16888878,-0.20399745,-0.15385853,-0.29648823,-0.1822526,-0.3901469,-0.35950717,-0.11279278,-0.22620931,-0.010945105,0.6606466,-0.04554817,0.0019379148,0.37348896,0.18161876,0.18054777,-0.05237312,-0.2768707,0.116223395,0.23514329,0.20004512,0.4644847,-0.13677536,0.12278301,0.1807172,0.4765537,-0.16171797,-0.075412534,-0.03035194,-0.16464595,0.5561896,0.18554191,0.6335817,-0.21665722,0.41151932,0.091204405,0.20104054,-0.23883441,-0.15997058,-0.07662454],[-0.2862649,-0.16577291,0.15582888,0.21439809,-0.27192324,0.16543858,0.18002744,0.027340561,0.0493417,0.30909118,0.3647295,0.10432499,0.2679705,-0.022493174,0.37397334,-0.3064783,0.124205075,0.024409853,0.05240293,0.11659277,0.163708,0.3489982,0.13865706,-0.019281669,0.2667508,0.011687775,0.117662296,0.1983989,0.27982995,-0.14184773,-0.12779789,-0.33889446,0.26751566,0.14326215,-0.041036785,0.1223951,0.17051801,0.24945886,0.3248032,0.38630232,0.28082657,0.23395269,0.09653248,-0.054374438,0.07269995,0.18261528,0.26171902,0.23896901,0.11479657,0.034441713,0.12488365,0.27332136,-0.045193244,0.28081155,-0.11578415,0.1946855,0.24707323,0.31831247,0.28281918,-0.0138054555],[-0.33120993,0.17759159,-0.04101004,-0.22882947,0.056744028,0.14021297,0.028386235,0.03820671,0.09055643,-0.2771298,0.016872386,-0.051914208,-0.010098572,-0.028019182,-0.13994516,-0.07060107,-0.08726224,0.058564544,0.19233379,0.19259697,-0.09356723,-0.07344987,-0.36445206,-0.07941498,-0.10647917,-0.10025254,-0.19591625,0.025788436,0.05583731,0.40408778,-0.17236824,0.12127034,0.4065545,0.25978425,0.19534668,0.3256693,0.38029867,0.3547195,0.17151965,0.39569837,0.29660428,-0.20256495,0.21360858,0.47150683,0.035147533,-0.24418727,0.29384702,0.51841164,0.116188474,0.4337848,-0.08758485,0.50193405,-0.050175574,0.13238405,0.010505238,0.2642578,0.28303313,0.08176145,0.16135444,0.10600145],[1.0034701,-0.045196187,-0.12670088,0.043778554,-0.034300316,-0.063063174,-0.07301689,-0.113003165,-0.11373227,0.27462587,0.11091857,0.7962187,-0.12657775,0.4352212,0.62168485,0.9950029,-0.10941382,-0.15068303,-0.070349894,-0.123993814,0.98862404,-0.111074805,1.0072714,-0.10256657,0.8069705,-0.09979198,0.62927055,-0.09003792,-0.11930659,-0.07648442,-0.16766317,-0.025404746,-0.203367,-0.3341239,-0.033264868,-0.3092439,-0.033945814,-0.08574968,-0.25118023,-0.32482222,-0.31754604,-0.18245918,-0.12972091,-0.2840293,-0.21904829,-0.16082825,-0.12635791,-0.22877282,-0.012567431,-0.14378177,-0.18531042,-0.29920772,-0.17270616,-0.064167105,-0.19922942,-0.27321273,-0.23935783,-0.026432386,-0.05962793,-0.01404007],[-0.87948227,-0.07729246,-0.09087818,-0.19186875,-0.111245245,-0.124458894,-0.08338948,-0.0903993,-0.15033892,-0.35062212,-0.27389848,-0.74336153,-0.11989451,-0.44548205,-0.5927125,-0.8769824,-0.08034533,-0.1191966,-0.08748853,-0.07889852,-0.90360016,-0.17978112,-0.8920262,-0.10281871,-0.75233066,-0.14730313,-0.5814948,-0.07655804,-0.099111244,-0.0645541,-0.36726707,-0.037322428,-0.027797818,-0.16761576,-0.04012393,-0.098205365,-0.030598002,-0.031441625,-0.05060025,-0.30442673,-0.18602979,-0.3211635,-0.055162016,-0.2790137,-0.34166375,-0.33322462,-0.0049679605,-0.04750291,-0.041697554,-0.046171065,-0.37757358,-0.076630145,-0.31087148,-0.010965931,-0.32016012,-0.06390191,-0.30974874,-0.032277882,-0.031709533,-0.029998207],[-0.14956102,0.06032264,0.470703,0.22469611,0.24036694,0.4234298,0.43347672,0.075956166,0.43220314,-0.15835874,0.10970094,0.15664949,0.32051364,-0.13639992,-0.013133271,-0.18645336,-0.019313477,0.061427556,-0.023971528,0.13619854,-0.10872186,0.42886004,-0.3595551,0.36557528,0.19358744,0.16124748,0.11714406,0.18095875,-0.084909804,0.34086248,-0.15261228,-0.12749591,0.08779651,0.06833493,0.26791888,0.08806876,0.19055212,0.2988901,0.28984326,0.11733556,0.06919503,0.052718315,-0.03378072,0.18208502,0.028466485,0.06417089,-0.029349133,0.35696885,-0.068860196,-0.07738575,0.096018836,-0.046227455,0.27909127,0.105845354,0.13000776,0.012163585,-0.048483223,0.30565456,-0.10438387,-0.093120724],[0.25161496,0.031035265,0.09065027,-0.026306659,0.22558743,-0.20326029,0.20498723,0.31163433,-0.10245876,-0.06383878,-0.24530584,0.33288914,0.30104968,0.0263594,-0.044774678,-0.005830906,0.035513394,-0.12372337,0.14012876,0.1788027,0.2143334,-0.1275766,0.35230473,0.27004972,0.4624652,-0.12021457,0.016048826,-0.018655026,-0.20958012,0.021740051,0.08591921,-0.21388721,-0.25204512,-0.15354434,0.1244313,0.15200125,0.27174228,0.26474935,-0.21725467,0.14726526,0.21911766,-0.19987218,0.0088462625,0.123773865,-0.15064771,-0.42218,0.15504928,-0.01880597,-0.11461234,-0.25014338,-0.25116214,-0.067533754,0.019491205,-0.11070744,0.07142048,-0.12302574,0.04334274,0.0024362144,-0.14601767,0.14048445],[-0.14480999,-0.08297776,0.17078038,0.04609474,0.02927055,0.27102387,0.3723021,0.23309997,0.15719393,-0.087449774,0.14535832,-0.04869394,0.36364168,0.24255508,0.13237616,-0.12990445,0.05362711,0.034668434,0.059271775,0.5122886,-0.088133514,0.36457762,-0.2193914,0.10157077,-0.08174145,0.06220117,-0.3593717,0.22640969,0.3884286,0.25052598,0.27129188,0.036874343,-0.01984868,-0.23793678,-0.28243697,-0.34333265,0.29051507,-0.17913678,-0.52422017,0.09222351,-0.3817097,-0.042093676,0.0046498333,-0.09370645,0.25252336,0.15084611,-0.14242676,-0.52562976,0.22151098,-0.22806787,0.2732461,0.02399192,-0.053421877,-0.08779472,0.48489273,-0.43691722,0.3133087,-0.030723188,0.11072749,-0.17443612],[-0.9375642,0.07377013,0.19556238,0.2733829,0.10136023,0.2427389,0.098596334,0.16945697,0.24052025,0.049909074,0.23004574,-0.6815659,0.21584992,-0.12908667,-0.3913483,-0.97831357,0.17266282,0.21570458,0.08251215,0.1660144,-0.9334967,0.3124303,-0.9644013,0.18628189,-0.6880408,0.29988757,-0.40182695,0.13654168,0.17718552,0.087234125,-0.26413798,0.06375558,0.1268184,0.06433281,0.010019069,0.14778069,0.058248244,0.15593982,0.12763909,-0.07199563,-0.05486855,-0.32564205,0.1691395,-0.23543806,-0.25328094,-0.30763453,0.105105735,0.18649614,0.08699888,0.1631211,-0.28385425,0.19021869,-0.3085726,0.119850725,-0.26066515,0.1899934,-0.2929623,0.106676415,0.11514794,0.08700886]]],"bias":[[-0.73054355,0.5167821,-0.13970459,0.09204285,0.46208745,-0.09143714,0.09283037,0.39163756,0.24487248,0.11012027,-0.91590345,0.7735146,-0.15718059,0.6327361,-0.4237929,0.5663533,0.1886678,0.78997755,-0.24180168,0.13477866],[0.2745785,-0.19849497,-0.19638816,-0.14346611,-0.08377533,0.16496749,-0.08911939,-0.37794566,0.30350372,-0.23197098,-0.08561528,-0.22400087,-0.013455503,-0.18740936,-0.52311075,0.32373196,-0.18040083,-0.2186668,-0.07401212,-0.046416014],[-0.47936863,0.7086386,0.24409205,-0.19512674,0.644045,-0.04077667,0.58316284,0.46638337,-0.030118672,-0.5280608,-0.4305979,-0.6374096,0.24417008,-0.39583725,-0.5970906,-0.5703456,0.41407928,0.1582612,0.556994,0.36485478,-0.67550606,-0.07525685,-0.5422098,0.4680458,-0.5624598,0.115889184,-0.4892792,0.5332957,0.37084952,0.66482276,0.080357864,0.36333722,0.2240344,0.07203008,0.31417876,0.16522953,0.2366009,0.27146566,0.19907291,0.06803026,0.28643566,0.19549209,0.2003834,0.28075722,0.23384674,0.15388921,0.24521677,0.17291385,0.30648237,0.262463,0.05800579,0.08227969,0.14827378,0.33933645,0.27031028,0.19393674,0.25941974,0.2515233,0.2819209,0.40592882]],"Losses":[1.0311913062482372,0.8369401465661639,0.6844949949813889,0.5700373383106732,0.49070951632478715,0.43257800022277537,0.38226384432661575,0.3369421379804391,0.30036141998725163,0.2756634848252289,0.2610988665700178,0.2530828278197318,0.24996342623075407,0.25061257111812335,0.25276413248856483,0.2540539157666814,0.25356269874509596,0.2516229471780674,0.24881097756532358,0.24545247444008741,0.2417146945851251,0.2377857474892405,0.23395244015148456,0.23052412098630384,0.22766322689911306,0.22532034502269377,0.22337577018214613,0.22180366132226081,0.22066007602567256,0.21996407573911553,0.21962159633761466,0.21943659889508033,0.2191958036655764,0.21876785019876255,0.21813705619881438,0.2173531310281127,0.21645493702958582,0.2154467593000275,0.21433334967431109,0.2131482877909942,0.21193939822091362,0.2107408971470408,0.20956900943751927,0.20843705782693267,0.2073638772420656,0.20636401701563237,0.20543120014788208,0.2045348895857161,0.20363466792424606,0.2026982246848509,0.20170986019604698,0.2006668852180461,0.19956860364511442,0.1984100214720634,0.19718859865011884,0.1959135458096221,0.19460221433622574,0.19326802638078644,0.19191451867733064,0.1905375901080572,0.189129799750971,0.18768546549354215,0.18620594304509452,0.18469900651208418,0.18317160838353663,0.1816259405918988,0.18006216733171548,0.17848049165027602,0.17688146768702342,0.17526713880538347,0.17364134719318314,0.17200877198390274,0.1703745413317476,0.16874539322885623,0.1671305736887265,0.16554187682074262,0.16399201612762454,0.1624905378868005,0.16104278512438333,0.15965367483329895,0.15833001466205862,0.1570769370815155,0.15589528421406917,0.15478329886843958,0.15373869739010135,0.15275834838409022,0.15183747480426155,0.1509698380301944,0.15014817265622868,0.1493634941817609,0.14860503461906213,0.1478625899526369,0.1471272698265937,0.1463902803786403,0.14564374052323698,0.14488208518369064,0.14410186777643627,0.14330121478245395,0.14247997359603568,0.14163981008500506,0.1407836214149829,0.13991501911798848,0.13903811681659936,0.13815688161505385,0.1372745494072587,0.1363938539000887,0.13551688972454498,0.13464472765456634,0.13377757977079682,0.13291482942622876,0.1320552288644731,0.13119714712646685,0.13033854423677665,0.12947715354192393,0.12861096763498622,0.1277380999645117,0.1268565645913974,0.12596471996232173,0.12506130729337916,0.12414527891072083,0.1232159542924565,0.12227310893884713,0.12131703076239869,0.12034856910072425,0.11936886074153029,0.11837945227227878,0.11738299113432843,0.11638642896760748,0.11541745323757564,0.11461475712036931,0.11450176187331591,0.11582884877751078,0.11389984351255969,0.11052006198140132,0.11084281221888373,0.11020289839022154,0.10763143640993164,0.10764688225856846,0.10668984301664801,0.10474494961479022,0.10470827237607966,0.10338107056256794,0.1020098950711703,0.10175124412246793,0.10034407384214258,0.09928763417725235,0.0988210782030488,0.09749468912779478,0.0965215729172582,0.09595594937771672,0.09475962795224056,0.09374739255784921,0.09313743901148022,0.09212731459432913,0.09104863786539649,0.09033507161566717,0.089554770964566,0.08855167266896921,0.08765528590402624,0.08692425092097096,0.08615393763835273,0.08531384473164824,0.08450471163429538,0.08372368390950814,0.08296336124020953,0.08226189122148703,0.08163581911635347,0.08104875141020747,0.08042786377592175,0.07979370672755164,0.07916358827817827,0.07859611747360483,0.07808901591385757,0.0776298149937391,0.07719733768235687,0.07679657227975017,0.07643763206122303,0.07617078463647502,0.07605109985755658,0.07622614153078763,0.07641950204613027,0.07630664552943497,0.07523545900057799,0.0745518985945664,0.07470800341203312,0.0748315575812903,0.0741857152078155,0.07337690824523602,0.0733432805528759,0.0735984126736261,0.07327385051392354,0.07276380913008942,0.07272161338608263,0.07292183532114578,0.07279300868444681,0.07238091957868066,0.07229414040626962,0.07243008359549279,0.07232161900721898,0.07200184738928764,0.07185757663061373,0.07190415555971451,0.0718588614251807,0.07162032432132677,0.07146004802610784,0.07147322932846925,0.07148645330380415,0.07137930901128027,0.07123958226790619,0.07119921896047801,0.07123542194934382,0.07123201139368945,0.07117546636857504,0.07114912861449293,0.07124775367863283,0.07146606340216492,0.0718028253440838,0.07210847147036066,0.07234698762919917,0.07205925599517866,0.07153948719388045,0.07100684024211441,0.07083602189197527,0.07101504958980694,0.07130366236890454,0.07143708139901726,0.07118918178359383,0.07083488300708482,0.07063900339905389,0.0707163531816475,0.0709246021329359,0.07100521065522804,0.07088654341337905,0.07064828217135269,0.07050584443061586,0.07053046499831227,0.0706428193818189,0.07071720490039454,0.07066681349594572,0.07054535032514052,0.07043251783486991,0.07039177447259189,0.07041431058025048,0.07045243210703851,0.07046706231935486,0.07043992902312715,0.0703934814278128,0.07034568377969366,0.07031268133576868,0.07029252329922857,0.07027668325694769,0.070258982703284,0.07023675408749971,0.07021495401664338,0.07019806415020768,0.07019025765391947,0.07019136615304511,0.07020109199768661,0.0702174532182581,0.0702410957509721,0.07027391529930503,0.07032125640701517,0.07038567544475018,0.07047590424012122,0.0705722992135744,0.07067409312997217,0.07070019446996373,0.07065619806817698,0.0704779519624694,0.07026140939590182,0.0700531535167471,0.06992674205285813,0.06989325526342793,0.0699349025361868,0.0700199858502877,0.0701112679378697,0.07018520391347154,0.0702047107447298,0.07017596683698614,0.07009308022980025,0.06999284723167847,0.06989999977295372,0.0698361507232514,0.06981206670405991,0.06982183510312281,0.0698634847116311,0.06992015559500814,0.06999543935638697,0.07005570445684199,0.07011513058671474,0.07011592886386336,0.07009059207627011,0.06999261288873632,0.06987898251911445,0.06974645894572816,0.06963857591526719,0.06956083599069485,0.06952019294023903,0.06951142551865208,0.06952845588806567,0.06956777762416268,0.06962286369623588,0.06970048869768955,0.06978213634782839,0.06988573530189872,0.06997034813316838,0.07007857357357086,0.07019957140603547,0.07038784748213572,0.07066707433266088,0.07080111598654434,0.07075322269226712,0.07024457835842267,0.06971709125260506,0.06938857453980422,0.06940101579759683,0.06964208620071366,0.06988015271039952,0.06993794384522045,0.06969333073143923,0.06938262063685785,0.0691840721477244,0.06919474714028295,0.06934350059340148,0.06948208423748026,0.0695006644844252,0.06935750517272345,0.06916463940979474,0.06902107426305314,0.06898739499034197,0.0690452227605307,0.06913347277522477,0.0691928132434286,0.06918060789593507,0.0691098501973581,0.06900866514282494,0.06892056883420832,0.0688683067148977,0.0688536687567872,0.06886546374774191,0.06888533697981052,0.06890187198342816,0.06890117485436277,0.06888757616601611,0.06885579289142842,0.06881828140498018,0.06877460977646406,0.06873427663938224,0.06869690340194427,0.06866669638863271,0.06864321484518718,0.06862956657854005,0.06862833994091046,0.06864980220687171,0.06870646212587293,0.06883393063462269,0.06905432831072819,0.06943465836363494,0.06983242383703941,0.07016651637636383,0.06995161523226041,0.06948607884294307,0.06910929488467508,0.0691887051490841,0.06970573219494854,0.07001785331883809,0.06985794151402075,0.06909114178818523,0.06852118393905673,0.06840884232041805,0.0686065140978203,0.0687774756518658,0.06866721483550874,0.0684678615502247,0.0684170576776254,0.06859795832865342,0.06881654653585856,0.06882752015907069,0.06862629884802886,0.06838507034290967,0.068270980243278,0.06828402562989962,0.06827730029384328,0.06818473187187923,0.06803200948656808,0.06792800132671277,0.06791768965879924,0.06796537366235808,0.06800316623288942,0.06798700246227982,0.06794438071530776,0.06792457552462,0.06797739418787038,0.06811073077325025,0.06832389339470507,0.06860297307097828,0.06895811972135636,0.06925983704179285,0.06944861010051083,0.06917802402567823,0.0686712241799247,0.06805452405647053,0.06766911153958162,0.06758420072145407,0.06775155465028632,0.06804686721657056,0.06827532501014648,0.06833393016915383,0.06811880806529949,0.06780763783095906,0.06752745952597489,0.06739294297850079,0.06740798534726927,0.06751965930586853,0.06765928399044001,0.0677468257595799,0.0677613454155461,0.06767398720177366,0.06754259838665556,0.06739700033026062,0.06728180734795067,0.06720908464592804,0.06717725745595461,0.06717602527611623,0.06719360110529657,0.06722329951716809,0.06725808574074843,0.06730228376934057,0.0673492833198603,0.06741108827243734,0.06747323228422239,0.06754826593610597,0.06760458938621088,0.06765053911411048,0.06764088135999412,0.0675921578548436,0.06747980431075926,0.06734198740825892,0.06718880270726298,0.06705153862298083,0.0669412591617046,0.06686288068057678,0.06681581851229806,0.06679508730062021,0.06680062603752068,0.06683241413030752,0.06690331734523033,0.06702076421918371,0.0672215446848217,0.06748972616112067,0.06786351129659497,0.06815159474680964,0.06833534193114395,0.06810485632336143,0.06770550481889404,0.06721460690224669,0.06690847401483434,0.06682307420292287,0.06693130518583025,0.06714152176000487,0.06725700827042529,0.06721729196096314,0.06693530429276248,0.0666148512907544,0.0663839485582322,0.06632597554801267,0.06641255761342137,0.06655515396172536,0.0666666645065353,0.06666171114913486,0.06656800031761384,0.06642673194817568,0.06633642919710749,0.06635683855882972,0.06652495977059543,0.0668773234010439,0.06741704050810782,0.06815258531853949,0.06870448351780117,0.06882949467593823,0.06810034662945338,0.06718944256326713,0.06651123651929404,0.06630750884173267,0.0665089322543735,0.06685062509197967,0.06710863230177662,0.06702163999877601,0.06673657402809831,0.06640737729120465,0.06620379633977083,0.06617789474610676,0.06625531023917723,0.0663571451931518,0.06638495456183806,0.06633771540916322,0.06622704208541998,0.06611080695737223,0.06602129729650509,0.06596351555642449,0.0659442338110912,0.06594871458556037,0.06597058506623958,0.06598872938449732,0.06600025904158037,0.06599031889682772,0.0659543705518431,0.0658952128942222,0.06582137043682786,0.06575092790668347,0.06569184545267161,0.0656512218957878,0.06563056501577431,0.06562919511300698,0.06564351929214497,0.06566975528449805,0.0657050032478543,0.06575053804894813,0.065808613331865,0.06588695570292573,0.06598986721729501,0.06613018201995678,0.06629593769662419,0.06649416137569887,0.0666419317169931,0.06673817482828948,0.06664670526162816,0.06646051162186327,0.066157381703818,0.06588917214642528,0.06567932612336864,0.06557248539823224,0.06554827881907607,0.06559071127709717,0.06566407535128856,0.06574865451382296,0.06581575741696888,0.0658508741421389,0.06585000380964683,0.06580867286507534,0.06575080139937577,0.06567803791798635,0.06562147244781986,0.06557702274430396,0.06556617243536622,0.06557532102698382,0.0656186769353867,0.06566919958725984,0.06573935187698307,0.06577856165646076,0.06580465057923177,0.06575872898930149,0.06568386177400276,0.06555824176864793,0.06544041633927238,0.06533862182158727,0.06528576828719329,0.0652850975072388,0.06534786191140542,0.0654709324587713,0.06566357937787906,0.06590804446960367,0.06619035263445361,0.06641704586897264,0.06654019050509967,0.06642853176703684,0.06618206758826803,0.06582002772427908,0.06552417602900687,0.06531688062277144,0.06523397163182096,0.06522881204105668,0.06527135340521392,0.06530378235862583,0.06531608420596009,0.06529075447054568,0.06525127362627707,0.0652213541560393,0.06521594137024163,0.0652551369240349,0.0653193817571077,0.06541443218036787,0.06548512494258316,0.06554221206351914,0.06551739720835453,0.0654581794213718,0.06533508097000434,0.06521798645466301,0.06510686331821317,0.06503852874669246,0.06500342993390507,0.06500409284942656,0.06502296607745933,0.06505217873390015,0.06507917230136799,0.065098792996094,0.06510914391925134,0.06511590989973279,0.06512368510474441,0.06515019933357533,0.06519288614373026,0.0652760437376182,0.06537015562565628,0.06550030735732103,0.06558592460179509,0.06565949208440898,0.06560868814286126,0.06551136325203032,0.06530912044168431,0.0651072793250151,0.06490170676449541,0.06474410973804237,0.06463001566005905,0.06456102236889964,0.0645267548681327,0.06451820435134338,0.06452810583978613,0.06455183403727,0.06458887459592062,0.06463856145112877,0.06470948844304551,0.06480051140943685,0.06493390207030886,0.0650950742559165,0.06532142346287496,0.06554061281657404,0.06579012975244848,0.06588885520982228,0.06590503637662186,0.06569378293984296,0.06543169085538789,0.06513890177706005,0.06492937302732031,0.06482722204558886,0.06480965430834186,0.06486116807623415,0.06490041008860359,0.0649221126720565,0.0648638979009778,0.06478142221790711,0.06467376937872775,0.06460668984307692,0.06458201563139804,0.06461863542510042,0.0646927907451412,0.06478346748815599,0.0648593070547461,0.06487987399538302,0.06484329152595704,0.06474281333162418,0.06461925812482325,0.06450394312843716,0.06442405016513852,0.06439713811801195,0.06441307196400844,0.0644716314151317,0.06454145324257107,0.06462727124362748,0.06468686899013729,0.06474919676763866,0.0647719828370699,0.06481124853382343,0.06482396391775382,0.064869728061684,0.06488871966828588,0.06492093684982231,0.06489706991459929,0.06484461840274734,0.06472719163981164,0.06458126197049492,0.0644143610756622,0.06425937649931117,0.06412773853092722,0.06402976221300631,0.06396280233057723,0.06392251640049497,0.06390120454595358,0.06389262684841492,0.06389115488174042,0.06389354363806386,0.06389671154761307,0.06390059884315284,0.06390313933173629,0.06390649854246254,0.06390841153371288,0.06391257812922832,0.06391589408096263,0.06392336979706754,0.06393079436058445,0.06394498369708324,0.06396118960763837,0.0639907585372674,0.06403352214854083,0.0641178454421923,0.06427425514864263,0.06459163903556402,0.06520585781926862,0.06619701898089268,0.06751504558817219,0.0679579513266507,0.06738663795291898,0.06569736836258477,0.06448491845865827,0.06396649015478524,0.0640920685040501,0.06457841414976066,0.06510011607220041,0.06537507962191715,0.06510197660981548,0.06464439792953502,0.06415060248974762,0.06389138714389453,0.06382942880734899,0.06392012527492835,0.06406672526626912,0.06417550493081668,0.06421995680012683,0.06411606317759758,0.06396076542764681,0.0637592344436431,0.06360237891578857,0.0635009832827642,0.06346332868755429,0.06347858016551015,0.06352741604083821,0.0636039602449907,0.06367345246670447,0.06372992473163523,0.06372271873798865,0.06366736603576241,0.06355536928056248,0.06343412459325526,0.06332402853398468,0.06324995282798053,0.06320918634922484,0.06319336495637665,0.06318711798905134,0.06318064495236839,0.06316804004224227,0.06315048040157024,0.06313169272521761,0.06311594068514982,0.0631094574511535,0.0631195006251377,0.06316047606406969,0.06325995747088856,0.0634582470364835,0.06383795358451379,0.06442815152704187,0.06528979817070547,0.06593354090573664,0.06616356340276146,0.06537258942483977,0.06436377680707961,0.06345547121251718,0.0629507694802858,0.0627928417295955,0.06289510765312384,0.06318505439014471,0.06357334770282327,0.06399343862951767,0.06420766349973289,0.06422601040591153,0.06391554030206678,0.06353574110140035,0.06315509988744573,0.06289846732463802,0.06276468658785028,0.06273510343362831,0.06277909927512504,0.06286039917572238,0.0629623392843275,0.06304238770182259,0.06311387134837577,0.06313308633417142,0.06315208455752472,0.06313920017149292,0.06316577964520845,0.06320479640364329,0.0633199676940322,0.0634697492363889,0.06368030936511863,0.06384981968089892,0.06392890609754241,0.063792272527375,0.0634769225132008,0.06306240162824228,0.06269682864166823,0.06245081244002142,0.062334083657891115,0.06230706042380949,0.06233052605102668,0.06236656583995583,0.06239901903814163,0.06240093077648127,0.062378819116606025,0.06231772748850732,0.06225060638812046,0.062190773603753545,0.06218513434340714,0.06226871667081412,0.06252100359132917,0.06301997682987462,0.06390642945810285,0.06498329831111821,0.06588847598196394,0.06552961157131508,0.06444237583621697,0.0630995353608395,0.062243241110239426,0.06183531652446228,0.061777371633395195,0.06196926599775591,0.06235538192537202,0.06287693493539702,0.06334046931883021,0.06363368705086007,0.0634676091178576,0.06309838336141317,0.06256811499949788,0.06215011697483748,0.06183904542773891,0.061659298340791056,0.06157165471085401,0.061557024996737666,0.06159625225749975,0.06168639919581539,0.06183259328743175,0.06204280939833097,0.06234303150308397,0.06266701101765662,0.06301996959084355,0.06314582131064277,0.06312452474812134,0.0627736382731986,0.062380210273450996,0.06194730898413948,0.06162382933971876,0.06138609351563314,0.061236712432606075,0.0611460329858311,0.06109737768540931,0.06107657015154401,0.061076761012845315,0.06109647086040069,0.061139623833626026,0.061217439051325734,0.06134433797177225,0.06154806171570915,0.0618476466260124,0.06227158114596673,0.06280017820791901,0.06335487400730236,0.06386027257760918,0.06398889465188176,0.06390384182072702,0.06324004151381862,0.06256555807010396,0.06178012638450808,0.06120389081014221,0.06079407389542913,0.060590437976889816,0.060577386557994044,0.06075322132864252,0.06112719028171143,0.061647260485598855,0.06230148630578301,0.06272097959642724,0.06292403023395234,0.06257538966523735,0.062116623700162125,0.06161036509599958,0.06125673050197431,0.061003368761823384,0.06080160264881553,0.06060332128250482,0.06040564856939065,0.06023551083944013,0.06011226380345274,0.060043157004701586,0.060020519183308814,0.060034141239887144,0.06007630469694381,0.06014551821171748,0.06025421134532593,0.06043517046231336,0.060769699711107156,0.061390551826730026,0.06237906837282241,0.0636739134291741,0.06426031536045032,0.06389551624061471,0.06237702506892784,0.06107659309359776,0.06019309173912253,0.05976516691612913,0.05962836871838111,0.05969871618993747,0.059958647408353875,0.06042334073889056,0.06112823783304712,0.06185177222794946,0.062426215645286776,0.06224462614517872,0.06165823080661763,0.060820030604868826,0.06017713471944125,0.05975562272946905,0.05952622775472552,0.05941664166899616,0.059375212479721946,0.059376991028301594,0.05941252472510857,0.05949804636837155,0.059650713768583,0.05993227836134971,0.060358777751488665,0.06100291950896315,0.061644128438928115,0.06213989275440544,0.0619717853147228,0.0613781796806752,0.060535616399551594,0.0598470934401913,0.0593701683598375,0.059092776860022386,0.058946670588920565,0.058882066126117676,0.05886635178896831,0.05888434633919647,0.05893446420892994,0.05902944521462371,0.05919852980240741,0.059488348429298114,0.05997033660859226,0.06064943141290861,0.06147693882937017,0.06196868877634336,0.061972289399205974,0.061220740057426754,0.060402582344078345,0.05965470032626008,0.05919521306266948,0.058910844104343565,0.05876284702787502,0.058682439978729,0.05865074456761796,0.05865292467546443,0.05869804014391018,0.0588046006658118,0.05900942351228286,0.0593697328270232,0.05990649700913916,0.06062764843056107,0.06119114357934402,0.06143792788000802,0.060935984515697775,0.06021477007233489,0.0594203507792715,0.05887039193128829,0.05850843676300686,0.05830510824869664,0.05819304210712575,0.05813788819598901,0.058118806457931736,0.05813020220249181,0.058178403300852964,0.05828307390031076,0.058486114709326194,0.05884103619147283,0.05943308150281399,0.060204549687735434,0.06102044728336348,0.06125082052118209,0.060869668587491176,0.05993133877362409,0.05908090385052686,0.058458229696705555,0.05810573150738849,0.0579284294813725,0.05786379951824718,0.057867694743717106,0.05792399900794144,0.058029383882029016,0.05819557070782467,0.05842966837910047,0.05873704791611897,0.05908376396654273,0.05939764920859993,0.05960029700137974,0.05961690123504798,0.059561670775511236,0.059428550297995326,0.05940298243999405,0.0592970937079216,0.05921777872080152,0.05893425945613902,0.05862649825465173,0.058241963392278114,0.05792891698951372,0.057683928927255046,0.05753068372528046,0.05744976524755671,0.05742460744319645,0.05743868617395601,0.05747974813539862,0.0575407437734534,0.057613402154984034,0.05769858653498064,0.05778315832769238,0.0578747395934409,0.05795510782584368,0.05804509690401891,0.058145884593523926,0.05831398613953179,0.05861643088217177,0.05912224722473778,0.05988877645226351,0.06053139040243494,0.06084149584014205,0.06014979909533522,0.05921201406457227,0.0582277962470749,0.05759180913385431,0.05723039941845561,0.05708099266651418,0.05707202376868741,0.057163951785461346,0.05734214032794947,0.05759224399902544,0.05793231953642489,0.058288233980212704,0.05868668141005571,0.058918828951240856,0.0590604249298652,0.05893842154371345,0.05872941583161735,0.05841020517765865,0.058077029117633724,0.05774594780378387,0.05743889975936276,0.05718530980148492,0.056993776394623094,0.056872239566634224,0.05681411201147572,0.05681025015476015,0.05685145934106953,0.05693247832514323,0.05705290934733682,0.05721723084250985,0.05743033508043794,0.05769494428621234,0.05798296174556169,0.058268174268374065,0.05843760998912443,0.05849593667692633,0.05833774020433214,0.058113945416896136,0.057787945354396165,0.05750982471799433,0.057239521422037615,0.05703679692241292,0.05686798729702045,0.05674616155489722,0.05665380976753985,0.056589399654623194,0.05654442938670723,0.05651482385774356,0.05649628292358972,0.05648633648448533,0.056483877168329415,0.056489637320376825,0.05650721613342348,0.056543857782640865,0.0566149788964936,0.0567453154003673,0.056979436637774585,0.05736922087976031,0.05795239434312496,0.0586485233542718,0.059162510683886824,0.05920324111747757,0.05869490065662546,0.05810255042485496,0.05762197402627312,0.057424751937747744,0.05730697411878887,0.05723545751139432,0.05704651900004488,0.056819199688938636,0.05656417585592176,0.056369294613985585,0.05626060687407033,0.05625116683868619,0.05633602485714801,0.05649910876451407,0.05673293229220708,0.05698052981078362,0.05724990511459535,0.05741779818562663,0.05756025814848374,0.05756854065695309,0.057589877448643856,0.057558343451756484,0.057548454309340434,0.05747697228347588,0.057324139590652676,0.05707504787016065,0.05676220718064099,0.05646120888664937,0.05621914804911667,0.056061531932988545,0.05598327855949458,0.05596493159956596,0.05598422207636044,0.05601847675280312,0.0560532095630692,0.056073161009814555,0.056078799028596846,0.05606505114752175,0.056043885028563806,0.0560190904224593,0.05600638153677732,0.05601658113978781,0.056070530354065264,0.05619457599778328,0.05642371455010018,0.056806149987567535,0.05732448448601226,0.057933673593983555,0.058293290337609056,0.0583010347773136,0.05778514553627621,0.05715037872795224,0.05654495556458469,0.05612726544958533,0.05586099624202544,0.05571124281350994,0.05563297464061847,0.05559946140542233,0.055595340905736715,0.05561466553158785,0.05565899985505599,0.05573538248947108,0.055860300638068086,0.05604885890000816,0.05633111509272506,0.056690766770511505,0.05711560239328505,0.057436531147916234,0.05756886358744636,0.05736215670175781,0.05696060476737753,0.056477963365410416,0.056067614098108454,0.05576468722548366,0.05556790436966228,0.05544993052928307,0.05538575821628384,0.05535675075346676,0.0553517460697211,0.05536594890299031,0.05539962012529508,0.05545886355192789,0.05555320666183071,0.05570138700960967,0.0559169510712242,0.0562208044430313,0.056579165898846075,0.05694368170523172,0.05714806918643573,0.057121693663235024,0.05681901198668132,0.05639516199517928,0.05596625792467464,0.05562968669194529,0.05539521180557595,0.05525028669618555,0.05516791264832313,0.05512794223028756,0.05511594847019144,0.05512495291006317,0.055153047736258426,0.055204624940836916,0.055286371587362805,0.055414496562433795,0.05559677409002546,0.05585176584645926,0.05614089063585016,0.05643028012608296,0.05656888484626336,0.05652162798635648,0.05624838943782014,0.05589893643654755,0.05558471978414096,0.05539567662853483,0.05537052055569733,0.05549884760411706,0.055792982818864585,0.056139381154531445,0.05652007441084857,0.056613438668892686,0.056536550719729316,0.056144825261847185,0.05577267428414855,0.055443252822535954,0.05527876959409685,0.055253847107977656,0.055366549863391915,0.055580777384194785,0.055838652196168126,0.05606268008543222,0.05612987482977731,0.05602284758114891,0.055764093232216115,0.055480405348734094,0.05526409617965238,0.055155543807256034,0.05516647907291763,0.05524426423476564,0.05537359575205412,0.05545086776188749,0.05549561741968156,0.05541916691344642,0.05531553950525172,0.05516363297116647,0.05505708086878225,0.054994933874200604,0.05502258187442566,0.05513717415923858,0.05535305555460883,0.0556408522492929,0.05593555686220549,0.0561275734724181,0.05610509631423873,0.055870810157707174,0.055518813163293546,0.05517563770503974,0.05492795288906799,0.054780921043538745,0.0547280141416129,0.054719854753674066,0.054742505322378794,0.05474758887658937,0.05474491546120385,0.05470244398936694,0.054651248160623854,0.05457792519593396,0.0545139760152867,0.05445493659828598,0.054422088612363244,0.05441723758968949,0.05446326713066096,0.054579276136165644,0.05481389956748765,0.0552076527337869,0.05579389740752866,0.05644869531495892,0.05688849264210834,0.05676881320083565,0.056140417100968086,0.05535246147615147,0.054724736876029904,0.054337126849414885,0.05415574496018962,0.0541104238857777,0.054153079181769655,0.05424656752228064,0.05437648049030286,0.054515183251709974,0.0546627449625485,0.05478249252074088,0.05488562184138364,0.05494505344157528,0.05498708935095284,0.05501861235569913,0.055053627678234955,0.05511821301318691,0.055160139393397235,0.05521156996005188,0.055151739835333675,0.05506151954759872,0.05484723295689449,0.0546373303700913,0.05439838491331525,0.05421205685506802,0.054059847514329705,0.05396402424810891,0.05391235831694951,0.05391061808018713,0.05396075985736218,0.05407810602141895,0.05428311903753224,0.05459293333206107,0.05500363048183616,0.0554208595974849,0.05569683255810177,0.05565032306716772,0.05530567556014453,0.054822975472107974,0.054384918512812144,0.05409125876550237,0.05393350576832946,0.053895103798194524,0.05391949504802164,0.053994544551301246,0.054058046143395995,0.054122447003786274,0.054120361814840943,0.05409664803141119,0.054004845043918275,0.053907722200339125,0.053784531619035986,0.05367976077164035,0.053582052103049824,0.05350964055004341,0.05345569852182808,0.05342901256527167,0.053433978106975956,0.05349386584219391,0.053648532637031204,0.053981467551659404,0.05460233932100362,0.055573919639494526,0.05663022767735697,0.05704121497070735,0.05641256464537855,0.05521664462003473,0.05423943920598066,0.05367123337484814,0.05345965848746989,0.05345383555367577,0.053579455538304406,0.05374617361412663,0.05393697761559922,0.054063526430674996,0.05415052651460395,0.05415476646327064,0.054154405710995,0.05417207173387972,0.05425493745118208,0.05441637674267836,0.05456738616844103,0.054694334593759907,0.05459863961653315,0.05440179021182451,0.054034065251355914,0.05369979187357888,0.05339498310753112,0.05318985790453744,0.05306295993956996,0.05301432141082854,0.05303285579000835,0.053121024177249315,0.05329015741147468,0.05354968000474402,0.05391010667903088,0.05430877820300854,0.05465754314755373,0.05477430541251194,0.0546220506358602,0.054269001373742076,0.053876431047793494,0.05357896081620267,0.05338776467101416,0.05331587199351388,0.05328569658898585,0.05329990121955431,0.05327441876203104,0.05324596616692666,0.05315541059417764,0.05306538266943424,0.05294890222768527,0.0528591257191222,0.052785942367639435,0.05276548517606764,0.05280694756856251,0.05296251266004432,0.05328380836134643,0.05385408987927585,0.05464730597732178,0.05540729956589584,0.05562324245918257,0.055050763296754936,0.05409840528134331,0.053239950458980445,0.05267802876933163,0.05236888164762284,0.0522247526803772,0.052178597894552134,0.05219566464564811,0.052267794496159495,0.05240620078316526,0.052642784615443014,0.05300854277605481,0.053530172027191326,0.054106945767069516,0.0545513181563147,0.054569333740801466,0.05417170341098142,0.053585625845543314,0.05307109536511931,0.05276016629216713,0.052631618284019625,0.052675292709798,0.052803056169043454,0.053017721353092455,0.053153344069868116,0.053250847018938154,0.05312208657821848,0.052932719592082275,0.052627703114432156,0.05236838070322462,0.05214036897325559,0.05198922859397301,0.0518986093331409,0.051879149674820824,0.05194824466061833,0.05216871736136483,0.05265896265064463,0.05357740316956975,0.05489825135859687,0.05593873731363776,0.05573410559709285,0.05440482024855631,0.05304164919356085,0.05218306761586173,0.05177488830349964,0.05164899107199272,0.05168439978165302,0.051836513120437334,0.05207546103707889,0.05242000007280376,0.05279106590898647,0.0531866829980204,0.05341393263980341,0.05351871131144087,0.05344758477493731,0.053359052693783715,0.053320345003234626,0.05330810226078535,0.05332494714658906,0.053166124748039785,0.052940512273535266,0.05254257055639016,0.0521847000149129,0.05184684946956681,0.05161800216278229,0.051474508893710164,0.051432761882478376,0.05149681836472314,0.05170643447212286,0.052118056324782606,0.052771961883967815,0.053579621482459816,0.054154974259101964,0.05410359032015085,0.0534158149820158,0.052564697417616886,0.05189898292691181,0.05149152720719299,0.05129162395965569,0.05121849246622665,0.05123471596249801,0.05130070408995112,0.05142459131119912,0.05156374588463425,0.05174937360507366,0.05189446489690529,0.052062017753062996,0.05215129936039907,0.05229985339462484,0.05247728436129489,0.05285065423102678,0.053355187103325104,0.05385615458170727,0.05400310684701935,0.053541606265203524,0.05278441291505584,0.05197935647454026,0.05140583955425594,0.05101569221300135,0.0507855651383203,0.05063976791008293,0.05055109967412876,0.05049189864645767,0.050457169821698046,0.05044189869627059,0.050457879813537894,0.05052535727485755,0.05070398117024273,0.05109369160854221,0.05188686041425812,0.05316650411384102,0.05459787677742036,0.054973896081735155,0.05394452371822613,0.052494587791463126,0.05147811054305607,0.051022722671997464,0.05090573277110577,0.05100974928981116,0.05114888203222581,0.05131463631226025,0.051301833553820404,0.05121924096899873,0.0509600656391351,0.05071360407602443,0.05046482002654423,0.050321848323509784,0.05030476916866941,0.05054228416745894,0.051240025938306295,0.052717165212006256,0.054721561471686074,0.05562303568091951,0.05424328398592083,0.05211130976770706,0.05069398408356527,0.04999547499082689,0.049692097549186694,0.049559457444186404,0.049495792115840556,0.04945891619196462,0.04943576255903053,0.0494257435664739,0.049439082488172116,0.049504820070981774,0.049700184144425535,0.050199827007458724,0.0513613145141272,0.053443303342346815,0.05560608573006666,0.055376584485001865,0.05314842024719352,0.05123289874407129,0.05029836902234444,0.05006861357036419,0.05017111402013433,0.05049303802332633,0.05074342013028803,0.050922249665431525,0.05071257075723907,0.050405777394613736,0.04999467678007277,0.04978551270965511,0.04989018321388135,0.05063452637038683,0.052324373993877904,0.054494634230162854,0.05504978965037,0.053072858317363726,0.05090884042832598,0.0496308335539522,0.049059753077528134,0.0488294564328112,0.04875916288105139,0.04879761318095174,0.04898573179527896,0.04947207293520454,0.050507166389798235,0.05224135293280549,0.05383301827466553,0.05370504177995851,0.0519967500264235,0.050351166482418955,0.04943509493607249,0.049048491850357034,0.048974423831943836,0.04907262851265203,0.04934670249365172,0.049764776212052865,0.05040309834602732,0.05108799915477959,0.051746382148451966,0.051989945218636986,0.051841604719619384,0.05141857243078972,0.050873015655652574,0.05041512723209701,0.04991109040371816,0.04952993815866074,0.04917997715262241,0.049010428847039704,0.04902329501951556,0.04936250745530858,0.05008171305486706,0.05108910253566277,0.05182597755692267,0.05159535826783871,0.050632151776462866,0.04957147738642444,0.04886422949211869,0.04849808359263804,0.04841787699028264,0.048594707321475424,0.04907983170468055,0.04988737815900261,0.05080127554466574,0.051261936469953404,0.05085953402443556,0.04994721583058976,0.049084236204052806,0.04853807444680886,0.04829912943277379,0.04832696245037776,0.0486163485534147,0.04917916991178081,0.04991972656614795,0.05049962532761332,0.050517311810117406,0.049946555237702424,0.049192302707407855,0.04859589585312856,0.048270283158893125,0.04820835069135269,0.04839480215695876,0.04881910071527019,0.0493938372132175,0.0498862645710322,0.04997803765288013,0.049607273384067174,0.04900799304360876,0.04848238826573241,0.04816490638768115,0.04808575302617729,0.048233410284557965,0.0485824857528008,0.04903947155792565,0.049403626281909065,0.049455918286475456,0.049151680798494024,0.04867816030395557,0.048252772825929144,0.04800144789891419,0.047954937705751134,0.04810825753740475,0.04841512957597489,0.048770094116205524,0.048995129938189906,0.04895315316457128,0.0486612148612991,0.04827688561555381,0.047963220017352294,0.047802794525846785,0.04782359957768312,0.04799750301279349,0.04826934241230568,0.04850133903774085,0.04858038925174328,0.04842679273461057,0.04814279106175574,0.04783640503485411,0.047637394156578076,0.047573642214003176,0.04766297255309418,0.04784873716061753,0.04805963063569099,0.04817576687514414,0.04813018736680973,0.04794577969215509,0.04770611731387429,0.04753375049130932,0.047461626894879615,0.04754127145191162,0.04768506475776085,0.04788307674660866,0.04793997735622253,0.04791302820080797,0.04768319185760238,0.04748752826646582,0.04725363885753485,0.047187059529049946,0.047115217601250654,0.04718184790744408,0.04712119276646626,0.047106641591274555,0.04688734171521802,0.046728690434980874,0.04647359215140696,0.046375075164603985,0.04633498973077731,0.046585932967038925,0.04714521708733964,0.048290570063135974,0.049719837536925084,0.050581606336888386,0.05006493628653872,0.048387505884947474,0.047115741453340826,0.04610427117746455,0.045624294934345604,0.04539958962348624,0.04571499189688695,0.04669324743662349,0.04858651313914351,0.0500916187411914,0.049480121314993616,0.04753895068521097,0.04595904332458191,0.04522410097766618,0.045048126019678086,0.0453950581024625,0.046292781302699135,0.04772816861395558,0.048752083067973156,0.048363764778958054,0.0469934383024724,0.04573145463915852,0.04508552726565077,0.04491282256737215,0.045235271159621226,0.04599455687556247,0.04706374014500982,0.047705122076721056,0.04730483206898816,0.046286061426068774,0.04533355184601974,0.04484431630081747,0.0447652822915316,0.04512092850307975,0.04579239929256431,0.04656473993927271,0.04683742466417031,0.04640633346819736,0.04562213843539669,0.04495419817603173,0.044647258144529856,0.044674274041641614,0.04503509996038305,0.04555951743562804,0.04599548629327453,0.04601608925561973,0.0455923859704235,0.04505739559705929,0.04463709068280652,0.04450140454882425,0.04459170253208517,0.04489933478796815,0.04521341640732014,0.04540436170963475,0.04529382828794908,0.04499605076951438,0.044674142964993856,0.04445719860031021,0.04441755752923976,0.044484513809430096,0.04463239376542483,0.04471706116755706,0.04472070490981187,0.04461724631769357,0.044473571953448136,0.04436684551214709,0.04429405850602423,0.044292685748321764,0.04426879454815871,0.04425977865358356,0.04418541198879405,0.044134815588356906,0.04407378588043571,0.04407419328589838,0.04408982988975875,0.044114327949718216,0.04410276058585497,0.044021089691006154,0.04391135539959104,0.04376601138966321,0.04367779750227434,0.043615842946443675,0.04363393769037147,0.04366283755237337,0.04370460656001152,0.043703983556345825,0.04365606982256513,0.04358491033823215,0.04348917556655475,0.04343372750559242,0.04337035559879991,0.043356254491435015,0.04330201292029837,0.04327699471466265,0.04319975087003363,0.04316445841636502,0.043110756676740344,0.043118639273492014,0.043126133559219626,0.043165448388843966,0.04318170621809794,0.043168524031032496,0.04313207594761944,0.04304057035916582,0.042977315820540624,0.04285449481995549,0.04279839176565745,0.04266492684011155,0.042611038259520805,0.04248811029279587,0.042465045267966496,0.042424437224178074,0.042495657194568104,0.04258826318387829,0.042731351654028214,0.042852019029112225,0.042876817055045584,0.042835461576595006,0.04265583137132471,0.04250418301769202,0.042278883621109244,0.04216212257521755,0.0419971631735529,0.041960783308228944,0.041904043642747045,0.041996491957187035,0.0421107985179437,0.042351892095780753,0.042552120735925125,0.042690082457700826,0.042648498815627815,0.04242360048336466,0.042168712894998246,0.04184966300210279,0.041676865995090476,0.04150551226841242,0.041516922156742235,0.04156011693213351,0.04176537946526906,0.04197461673345519,0.042163773098839494,0.042195921841525576,0.04201741041632295,0.04175295841691823,0.04143715680315861,0.041245609694983414,0.04112107224569658,0.041160506355500316,0.04125067334495771,0.04143588245594117,0.04156732431388635,0.04164702544051795,0.041596489089331265,0.04145719621925715,0.0412981046596417,0.041118098563788355,0.04101668570352398,0.04090487588327101,0.04088570615975663,0.04085494206671772,0.04090657716332687,0.04095391015060882,0.041031129787369995,0.04107179481413385,0.04104787680016231,0.04096942191766937,0.040817237055403924,0.040685920617621926,0.04054749006837248,0.040493054909996815,0.040454997920622245,0.04049453928178609,0.040523164119843365,0.04058197406548647,0.040596954023669994,0.040603656784482065,0.040576742363503795,0.04053247275240455,0.04049044421209975,0.04041521366278151,0.040364969444386105,0.04026003990785326,0.04020146907532644,0.040095708342269144,0.04006228355383326,0.040008801069443434,0.04003360881241079,0.04005004483669006,0.04010998413716648,0.04014476834793494,0.04016277722693935,0.04014631578302097,0.04008714911696773,0.04002780681719057,0.03993947440418149,0.039887747935724575,0.039808044210459324,0.03977276217141981,0.03969843250704502,0.039670122893749965,0.03961019483236453,0.03960739946039347,0.03959577900920053,0.03964441413557538,0.039691674521411625,0.03976893948496928,0.03982436005649967,0.039852717457131336,0.03985300686608518,0.03978845563504381,0.03973872228723476,0.039609942856936496,0.039543273920781885,0.039386071446628756,0.03931791720751855,0.0391716794655553,0.03913677304240463,0.03906518428820556,0.03912030923795335,0.03917679841612872,0.03933545284717925,0.03947630034159898,0.03960371423593363,0.039635965204001256,0.0395556045500611,0.039418130907403794,0.03923109519766165,0.039097240035635784,0.03896824354042477,0.03892177703877581,0.038871971036773055,0.03889216682921956,0.03890079866147591,0.03896870681301749,0.03902874527974004,0.03912387861637593,0.03919158470222187,0.039230160233573313,0.03921355547716623,0.03912321430195876,0.039021801313150334,0.03887041206282148,0.038779694161919565,0.03866486411563403,0.03863796594050188,0.03858992306827905,0.03862345039917677,0.03863322463199174,0.03869962508877533,0.038736383810810536,0.0387856739350493,0.038794821352104,0.03877436960288289,0.038722978592139926,0.038639579914378996,0.038562691704129605,0.03847525268159956,0.03842385738179707,0.03836990931439783,0.03835607728151056,0.038332560296387985,0.038339695676505144,0.038331112339486516,0.038344831641468125,0.03834691551682112,0.03836595940072325,0.03838123309781057,0.03840071296449546,0.03841980227288131,0.038418122809497184,0.03842212357297426,0.03837901953908099,0.038361360257215364,0.03827875478350912,0.03824696811735875,0.03814037156456917,0.038102801660933674,0.03799181779196107,0.037961274591127574,0.03787337610024055,0.0378737685468117,0.03784135583130358,0.03789851948520086,0.03794296529486916,0.038056766101144335,0.03815161523688495,0.03825179637779473,0.03829673565973882,0.038280577706072696,0.03821517719419356,0.03810201174940274,0.03800228520864857,0.03789293410993743,0.03783270671600204,0.03776474654598864,0.03774493319834719,0.0377070975505134,0.037711637577548224,0.037702410004880685,0.037737094145661156,0.03777181037171903,0.037844043669352,0.03791266554199304,0.037982286080228016,0.03802281290656211,0.03801702531105433,0.03798704048870177,0.037901902303193666,0.037842199147623976,0.03773672458735515,0.037692647859937374,0.03759755463930282,0.03757219010644857,0.037493360614876924,0.03748801865984566,0.03744581308190319,0.0374818679570622,0.03750247836457713,0.03758802252710603,0.03765388972182778,0.03773070574313822,0.03775432561401137,0.037732636756979535,0.03766188941738892,0.037560068827331754,0.03746514655881103,0.03737946217632608,0.037334660034567105,0.03730539232070251,0.03731180497915392,0.037314612990913765,0.03733235965161232,0.037329573849381875,0.03733123886612809,0.037318232530245445,0.0373167851936129,0.03731986342321967,0.03733879125324641,0.0373711342382944,0.037401752313646786,0.03744100351130892,0.037444932372366735,0.037460531142057066,0.03741432031865036,0.03740276118344303,0.03731625112616201,0.03728839196435214,0.037178556098708994,0.037139475909960584,0.0370234268249894,0.03698557233135503,0.036891572682713626,0.036883610868784326,0.03684668518825743,0.03690216713623235,0.03695167094497329,0.037086627626159115,0.03721319281501329,0.03736775073654722,0.03745986889017238,0.037484072445326276,0.037420654575988574,0.037290713349358434,0.03715024022349007,0.03701178127236146,0.03692301446227283,0.0368581267157208,0.036847509969206264,0.03684858757702261,0.036887395506128184,0.036920122966626875,0.0369705933930886,0.03700432357606942,0.03704190763489932,0.037064842370927685,0.03708384428802271,0.03709693175618812,0.03709372425867988,0.03709434853531066,0.037059580641116585,0.037042820904159376,0.03697484792191336,0.03694348325602288,0.036856950323805406,0.036824053859003586,0.036743921861693535,0.03672845297001211,0.03667974181859641,0.036699415517626274,0.0366980275344222,0.03675718190026798,0.03679617301199385,0.03686771316010311,0.036904177119786316,0.03693194533441103,0.03691524718321456,0.03687299370629843,0.036809160388766596,0.03673795741367032,0.03667840754647045,0.03662883129513511,0.03660447920156393,0.03658892336451032,0.03659281856444648,0.036593407430191315,0.03660120815592246,0.0365969193895755,0.03659439578879625,0.03658398503377961,0.03657970268561494,0.036580086092245535,0.036590612647390365,0.03661528096014857,0.036643005952451915,0.03668792728354545,0.03671474495786048,0.03676198755028664,0.03676009414275388,0.03678903322400531,0.036735593121691536,0.03672767678492157,0.036616425250800715,0.03656538145826774,0.036419937220245426,0.03634880804243363,0.036214511987936925,0.036163141814904036,0.03607785216479348,0.03607850944944546,0.036065288828866206,0.036142780435205156,0.03622291968141132,0.03639536894870468,0.03656892322991909,0.0367830610863404,0.03692840975816507,0.036986340582261974,0.0369179103724203,0.0367520445097814,0.03655877986946533,0.036370812754273854,0.036241063957144624,0.03615559100141382,0.03614050091778453,0.036167534061262184,0.036253297154298814,0.036360471565521794,0.03648546736157761,0.03657930910483098,0.036628335189403116,0.03661749084599578,0.03655809026384641,0.03648971587777548,0.0364125969769653,0.03637642434570213,0.03633358607151159,0.03633587412080154,0.03630252554309553,0.03630282980507831,0.03625337056204711,0.03624089353919112,0.03619716659263435,0.036203562216832144,0.036203014706500544,0.036249387698165374,0.036287652291979146,0.03633911957176304,0.03635645004705984,0.03634890335881376,0.036301821481333735,0.03623503933263731,0.03616248431758767,0.03610077709393851,0.03606238425682031,0.036047746538175454,0.036057733500290005,0.03608079837623972,0.036109470565813075,0.036130767049351656,0.03613809400643031,0.03613189747428377,0.03611245297830122,0.03609718576577806,0.036082058948597354,0.03609235638286787,0.03610290217202305,0.036145382704666024,0.03616261664520744,0.03620509895963593,0.036183641390329535,0.03618639920298872,0.03610599540570408,0.036067210334946406,0.03595718372109744,0.03590897501712788,0.0358105742778748,0.035781902920710956,0.035717895770120744,0.0357230198535079,0.03570340738234738,0.03575166150637032,0.035787244447723174,0.0358883781119444,0.035985524624902655,0.036124418371052056,0.036237583063464356,0.036322829243804644,0.036336459271640795,0.03627534425324537,0.03616585424789035,0.036027206562953176,0.03590969340426786,0.03581019986840185,0.03576099319787971,0.0357363657090237,0.03575776079974001,0.035791340658823674,0.03585203257957511,0.03590414476587889,0.03595770402159561,0.03598697380562492,0.036003977145719804,0.036004036592961856,0.03599673867346172,0.03599365112634198,0.03598396592682574,0.035991220802046635,0.03597304001923167,0.03597409391478458,0.03592562690740002,0.03590256098438932,0.03582541419256609,0.03578976212437284,0.03571672351884321,0.03570048684243812,0.03566674417048007,0.03569421490637898,0.03571326280349271,0.03578051441065396,0.03582959735738124,0.03589224799373813,0.03591520761013438,0.03591782501466833,0.03588104461008763,0.0358260080434781,0.03576211601256018,0.035702808121430896,0.035660418275850536,0.03563312076479564,0.03562702140485255,0.03562981087461665,0.03564359382328372,0.03565355116277098,0.035662430191491595,0.03566144951289152,0.035656821221072346,0.03564965539322702,0.035644878407180836,0.03565036127514349,0.035660419549677684,0.035688328055336865,0.03570947420998862,0.03574892756895552,0.03575693671918888,0.035784109285490834,0.035753201858394694,0.03575074259215266,0.03567554941703117,0.0356440406429953,0.035542640356351206,0.03549804378892805,0.035398850648452544,0.03536396142501587,0.03529348504322746,0.0352910981104163,0.035271295649015336,0.03532263665480203,0.03537253554346765,0.03549009354405926,0.03560721535658998,0.03575356239301955,0.03585827032101473,0.03591182986279579,0.03588484273470109,0.03578854885770437,0.03566259887826234,0.035528238180611287,0.03542765305794018,0.0353529825348221,0.03532768716094416,0.03532649149284918,0.03536483470520139,0.035411326283654,0.03547493220243523,0.03552420709826796,0.035565648125515256,0.03558172743005717,0.035583184603033,0.035573597671558786,0.035558146967925516,0.03555302953826743,0.03553997157820286,0.0355457347658839,0.03552334171203289,0.0355197790739161,0.03546925732765952,0.03544432400861482,0.03537521029219874,0.03534715430116892,0.03529320920651917,0.03529195411659745,0.03528037846113341,0.03531990986384217,0.03535063277043681,0.035412104007815956,0.03544968329896382,0.035484488245490456,0.03548191722401052,0.03545953731702837,0.035413313187000514,0.035360139540132514,0.0353105942251124,0.03527053927484449,0.035248189212139264,0.03523689542236586,0.03524016441702707,0.03524487929584335,0.035253558570771226,0.0352542941759741,0.03525252908261747,0.03524354649246351,0.035235020824578196,0.035228781490352364,0.03522844971685477,0.03523916358721478,0.03525398509563863,0.03528263341330226,0.03530292037174435,0.03533707556641135,0.035343394918581905,0.03536828015716717,0.03534457870313857,0.035350036975058625,0.0352893390725216,0.035269123806877474,0.03517592904459168,0.03513319036136259,0.03502790974987765,0.034981751566103496,0.034894045987475,0.0348714339152306,0.034828362925044626,0.03485494423025678,0.03487973956134821,0.03497751001138531,0.03508511617058465,0.035247854023718696,0.03539528415983605,0.03552077817162594,0.03556505136309558,0.035520040493378285,0.035408081345550665,0.035257717029328096,0.03512409652832994,0.03501089748323151,0.034950062667329106,0.034918439978231255,0.034936425349119345,0.03497302126178637,0.035042103557197855,0.03510886236329426,0.03517846552399552,0.035221056348778486,0.03524215756265501,0.035234766454576315,0.035209217877758006,0.03518048171018486,0.03514530316583896,0.03512813980796059,0.03509921390208985,0.035093003812365305,0.03505915352781184,0.03504818459297438,0.03500386154450058,0.03498913819573988,0.03495168961814527,0.034952692678446036,0.03494465744957631,0.03497391868874041,0.03499584228853909,0.035036938319952915,0.035058194222219785,0.035072702502605003,0.03505914565042902,0.03503048695086404,0.03498770567327412,0.034943368711048535,0.03490627139742979,0.03487976769167141,0.03486884233132828,0.03486687468187275,0.03487433686836162,0.034880200069929056,0.03488490763452679,0.03488067294087437,0.03487190738067202,0.03485830090048407,0.03484594714089761,0.03483923264798156,0.0348389087091866,0.03485090811423487,0.03486556821143796,0.03489288899943768,0.03491034491767763,0.03494032928954621,0.03494439557858975,0.03496747648594846,0.034948013102017686,0.03495880549250723,0.03490843699719864,0.03489708537739945,0.03481114679491089,0.03477147127685619,0.0346627937160397,0.03460922333257777,0.03450778588933014,0.034468126600434745,0.034402233069075625,0.03440156014994226,0.03439238982506304,0.03445356899085128,0.03452412226808603,0.03466896426140956,0.03482962663981746,0.03502839608130715,0.035187806065995766,0.035274196068202944,0.03524965499830314,0.03512293164175152,0.034956648872350664,0.03478066105485796,0.03465214366311493,0.034556795195123384,0.03452507725943093,0.0345259328106395,0.0345828192658895,0.03466107364765509,0.034770725247726196,0.03486755895783689,0.0349441597467829,0.034967316946170564,0.03494243255800193,0.034881747979841664,0.03480291369848788,0.034738646399043054,0.034681212121965885,0.0346594445255527,0.03463798961432831,0.034646835491363506,0.03463963273144518,0.0346529087305541,0.03464460126150997,0.03465377806938631,0.03464885493809617,0.03466016167773032,0.03466347233096932,0.03467380612915959,0.034673218405014465,0.034666582784386175,0.03464712480716943,0.03461873040075002,0.034586307907013315,0.034553656214743635,0.03452914126516336,0.03451195832825803,0.03450690109941963,0.03450771347445725,0.03451479480470341,0.03452039041429777,0.03452367614030018,0.03452145103402984,0.03451450354179216,0.03450696455802421,0.03449876776691511,0.03449931653553957,0.034501384541607796,0.034518316828548175,0.03453020167907142,0.03455832829542781,0.03456574731154532,0.03459079712961624,0.03457526411946129,0.03458329455234908,0.034533258114981515,0.0345165015722839,0.034433711465772406,0.034394717178138634,0.0342964232069448,0.03425100699467289,0.034163175517933436,0.03413347690473768,0.03407862471399236,0.03408438506596689,0.03408119029980573,0.03414334086697747,0.03421485415030885,0.034353396721675936,0.034505160001419344,0.034682311561344374,0.03481641967924375,0.03487524104859221,0.034837169368726446,0.03471337746756176,0.034565219331096,0.03441166826477866,0.03430522268008885,0.034222979791218716,0.034197785463601194,0.03419231289078451,0.03423590569169892,0.034292056938164964,0.03438038208493397,0.03446222808120122,0.03453867747808723,0.034576194823730644,0.03457499514324178,0.03453480294340672,0.034467794021113204,0.03440185924239905,0.034334898403802154,0.03429758150356427,0.0342633794208168,0.03426232185252956,0.03425510510098936,0.034273369974805304,0.034276974047719365,0.034296770313675354,0.03429992799119867,0.03431175077348812,0.03430996641769583,0.03431094784130112,0.03430210438577239,0.0342915087984769,0.03427457120785297,0.034254666263788126,0.034233465035177046,0.03421143004030072,0.03419345512624771,0.03417704601761362,0.034167232377592935,0.03415873982387777,0.03415547516992435,0.03415120632192619,0.034149095984835544,0.034144473756224064,0.03414026005307908,0.034135121664010726,0.034130895093188354,0.03412981786296135,0.03413042872847156,0.034138394466599956,0.03414655122615,0.034165880451563074,0.034180430561431226,0.03421107183311542,0.03422666527650919,0.03426487891484266,0.0342661931750678,0.034293803847347266,0.034247808940949316,0.03422793822611251,0.0341094755797628,0.034028935434148866,0.03387416093034105,0.0337830048857356,0.033664837500421395,0.03362359511620382,0.03357667427760709,0.03359888789072096,0.03360598022631166,0.033666065045441264,0.0336992660621124,0.03378668777125976,0.033873719568431625,0.03404494233519823,0.03425558686301889,0.03451116652748292,0.0346997555746398,0.03472804025221935,0.03457662031468847,0.034301873875940095,0.03403517310740772,0.03382224856481935,0.03371531930296206,0.03369335873375635,0.033775277953389256,0.03392190235035354,0.0341246590837808,0.034297112149070046,0.03439675369428643,0.03437447071769779,0.034267314559408055,0.03413578404904488,0.03402599156015885,0.033972783817475496,0.033958189864438,0.033984033313103686,0.034003473263682096,0.034023045709531075,0.034005898628287554,0.0339834039975332,0.03394704888721654,0.0339316821047526,0.0339334520048126,0.033961686993620226,0.03399785611637943,0.03402813565054574,0.034032191572339596,0.03400365487462756,0.03394881800155415,0.03388161230214675,0.033822775552316574,0.0337820427278168,0.033769253517081044,0.03377929998187241,0.03380780676266767,0.03384051088633675,0.03386615426543538,0.03387560360408183,0.033865181626698916,0.033843124569408065,0.03381512073554642,0.03379761483957269,0.03379063002672394,0.03380601992647471,0.03382844162967115,0.033866176015846385,0.03388726155845914,0.03391015206609789,0.03389028248809019,0.03387241181373184,0.03380124272691927,0.03374716383607144,0.033645389841537574,0.033577300413161836,0.03348083778142958,0.03343462625367165,0.03339151286159139,0.033418824675524164,0.03348064813251091,0.033623393121561165,0.033787153061196104,0.033971115396267744,0.03406701972496109,0.03407520338863677,0.033967717170475226,0.03381846041905153,0.033676708661246335,0.03357138225784275,0.03352786611189983,0.033521417380066164,0.03356397989893636,0.03361728954575349,0.03368812836442501,0.03373926323183804,0.03377592946771816,0.03377375090443575,0.03374970559851182,0.03369791446200437,0.03364418800274316,0.033590066751890184,0.03355272001738899,0.03353282561856941,0.03353318012686241,0.03355407489589271,0.033585919504710314,0.03362972912688375,0.033664927924990116,0.033698481059901635,0.033703442986546796,0.033703504507756415,0.03367152274609772,0.03364874637487884,0.03360488244073693,0.0335855671422438,0.0335520227474475,0.0335456447160258,0.0335212868989351,0.03351719397486929,0.03348936461229876,0.033476357195353565,0.03344177043882004,0.03342370523585648,0.03339368292752104,0.033384760512651636,0.033373096831002765,0.03338417428346805,0.03339655783992563,0.03342891486261005,0.033462360645310635,0.03351032294041352,0.03355828321289562,0.033613706105966326,0.03366812593669087,0.033718392513434677,0.03376215782271083,0.03378306898780993,0.03378189891644148,0.033741453027078545,0.03366111235231505,0.03354912559402813,0.03340084225983067,0.03325562348293248,0.03310313536834992,0.03298980623377804,0.032904298937057395,0.03288646704439387,0.03293681453349836,0.03308969837866044,0.03334324241514831,0.033669821101705216,0.03395386425700999,0.034066541325264335,0.033931618515373865,0.03365744214341549,0.03335794666536357,0.03313842325402744,0.03301081369510424,0.032983434906348995,0.03303517856975624,0.03316937325891925,0.03334202325108575,0.03353677849084864,0.03365227166277948,0.033687510226041044,0.03359368396614733,0.033466023793301804,0.03332249810212884,0.03323492794972632,0.03318815551920682,0.03320092441290083,0.03323383529021351,0.03328823644684727,0.033322997012149184,0.0333464277927932,0.03334086083070591,0.0333315931805907,0.03331952040672128,0.03332475097148936,0.033339293139451005,0.03336439508545293,0.03338178914467443,0.03338511727938143,0.03336894986873775,0.033332891307338255,0.03329514185431612,0.03325251620626814,0.03323184735061968,0.033213958987149794,0.0332239810661752,0.03322738030816464,0.03324982299213413,0.033249594418925235,0.03326028367318071,0.03323973315792803,0.033233372655012215,0.03319510208488232,0.03317934627200015,0.03312989868047366,0.03310782733915878,0.03305037460643661,0.03302329615523715,0.03296637345874908,0.032943380980142066,0.03290307420814893,0.0328982691369964,0.03289021774919169,0.03291374945324735,0.032946226530678385,0.0329986437437889,0.03306968911591518,0.03314585218611895,0.03325467637277661,0.03336467306657885,0.03352410302931566,0.033646503712019736,0.03376919255349479,0.03372342113842629,0.03362524903654651,0.03339901443665722,0.033219910391089555,0.03308100258164164,0.033037772962906775,0.0330768164141516,0.03316364328859167,0.03327355192721592,0.03334408081130495,0.03336609812676522,0.03333395705464451,0.0332805062897704,0.03323441668967201,0.0332101392277595,0.033212917711377896,0.0332180353107004,0.033229230750621196,0.03320227574388012,0.033177163428208784,0.03311104384423715,0.03307547816488576,0.03302486590739191,0.03302857085614165,0.03303089448195177,0.033081460217888825,0.033118058339864496,0.033167784042172695,0.03317877310039413,0.03316972178453968,0.033124059815673235,0.03306445957865383,0.033000992086550794,0.032948015005018406,0.03291540641146889,0.032903105700442505,0.03291222925007317,0.03293370125513876,0.03296113020749866,0.03298489112640439,0.03299693866809638,0.03299853180760293,0.032985462882067634,0.03297320816545649,0.032955173614466364,0.03295300274240319,0.03294853506960381,0.03296503935193311,0.03297143265767737,0.03299629341649387,0.03299953011134139,0.033020089734075046,0.03300855669458159,0.033013938979047835,0.03297140531993871,0.03293904622185236,0.03284405655486709,0.03275716551473593,0.03262272631647257,0.03251212447855019,0.032394620469364206,0.03231778169913394,0.03226874861067294,0.032264063210191235,0.03230709393706997,0.0323781586606547,0.03249303259569173,0.032573503159690695,0.032653745968852343,0.03261793780493093,0.03256233385663631,0.03241078109846891,0.032288812032423404,0.0321468851488659,0.032065154519014344,0.03199470770615533,0.03198146237284439,0.03198017312514235,0.03203102479467072,0.03209183349780999,0.03221679546854181,0.03237190721021214,0.03264786724213979,0.03301758777177161,0.03353277855032495,0.03399948768108064,0.03416522822482312,0.0339356949205258,0.03340285028957253,0.032915868152314405,0.03254789296359691,0.03237685952440167,0.03237826808348736,0.03258741787824968,0.03298974222713939,0.03348574077253195,0.033804552854939274,0.03372469359660053,0.03333018075770303,0.03290398564508045,0.03263010354711484,0.03255373762709685,0.03264510050912425,0.03285910876534958,0.03307718139332263,0.033217021502531176,0.03315939140166903,0.033003084724932026,0.03280467889897982,0.03269661544568441,0.03268785650858355,0.03278667967471025,0.03292867202864455,0.033039506823842324,0.03304848715986661,0.03294015531127528,0.032773261747984464,0.03261179779679246,0.03251325929254499,0.03249250348300774,0.03254915643948065,0.03265747438281881,0.03277387862775676,0.032851656850591354,0.032849436850784196,0.0327822886796406,0.032674064315432697,0.03258518752082407,0.0325314005531006,0.03254062243783849,0.03258809164954779,0.03266880283879018,0.032731000995633044,0.032763721043933054,0.03273689873529762,0.03267713623335851,0.03260030056215193,0.032539461092869246,0.03250863694459445,0.0325062957584265,0.03252741838263905,0.03254148469116415,0.032539677636311305,0.03249710140543622,0.03242655564181841,0.032337238251450816,0.032248548970896775,0.032184553243629926,0.0321388016660599,0.032135576098690465,0.032138666141078166,0.03217761122392867,0.03219743224503178,0.03224376822322968,0.032267811181900016,0.0323359577297043,0.03242213077704887,0.03258316805214585,0.03277685889072641,0.03297315974661287,0.03307401752149572,0.03301009709012968,0.03282466134900573,0.032556502913555344,0.032336845210472684,0.03215948096158348,0.03208930699954315,0.03208594069983194,0.03219146801020571,0.032356696893746414,0.03258569508331694,0.03277282001950876,0.03286939257679804,0.03281722657624065,0.03266623829535762,0.032491746607064706,0.03234933166987736,0.032277114196938225,0.032262283875884194,0.03230491316899234,0.03236613909231431,0.032431465497389685,0.03246324562019479,0.032457513328273124,0.032417800965721034,0.032362359624054204,0.03232211919739226,0.03230005320015005,0.03231882482929869,0.032349460704606196,0.03240525287766319,0.032437598816274706,0.03246732852351396,0.0324568764935957,0.03244346700293182,0.032413154970077296,0.0323927762151255,0.03237728376265461,0.032360748008672606,0.03234686766056234,0.0323061066787151,0.03226470659539965,0.03219093736589269,0.03213097285601065,0.03205795906395734,0.03201563909939367,0.03198034096030042,0.03197840364269393,0.03199249236769985,0.03202577535301078,0.03207436197386896,0.032114975746384944,0.032167522401176575,0.032187774779389396,0.03222529651241738,0.0322311060615157,0.032269937384989206,0.032300624217444666,0.032371650972685885,0.03244485535870856,0.03252212312957727,0.03256223278039471,0.032535584863611904,0.03244835664425164,0.03229903224937344,0.03215365021680393,0.032009526062700765,0.031923804991411536,0.031864046298536446,0.03186749402617882,0.03188720730798966,0.03195143546700154,0.032009269550460025,0.032085193670843226,0.032139975890448175,0.03219981459545999,0.03224851505324986,0.0322994415856959,0.03234586205437458,0.032364064212493444,0.03236384150357777,0.032300071971115514,0.032232462657802954,0.03212090119658348,0.03205060242128151,0.031978407130608864,0.03197104237702066,0.031978624099024223,0.03203712655511082,0.03209172638759963,0.032146957947887765,0.0321610296656033,0.03213385882632058,0.032071644131633006,0.03198962500749857,0.031919390936651956,0.03186812867288075,0.0318544079594472,0.03187114028022223,0.03191911994149495,0.031984467598063684,0.03205547423799902,0.032121087201185526,0.03217256070317844,0.032212732818132986,0.03224645341074757,0.032278954959415816,0.03230747226315224,0.03232382657081647,0.03229771089254167,0.03223645774530321,0.03210832342692132,0.03196924422973948,0.03180463171009521,0.031676719179340534,0.03156978368231896,0.03151723402339904,0.031502625032150226,0.03153309731397493,0.031597194331829774,0.031673037413046404,0.03175839427770206,0.0318065742178673,0.031845966316701765,0.03183883024966606,0.031844202096848205,0.03184436380639653,0.03188475120586259,0.031950670133364986,0.032051879363475054,0.03216317092014698,0.03225957774104969,0.03232231025186829,0.03230780635614044,0.03226947645690411,0.03214419292024008,0.032052740722939774,0.03189658624879657,0.031807812141702835,0.03168511075916088,0.03164770127885771,0.03161492603077255,0.03168511780858534,0.03178539915579635,0.031972548091127984,0.03213677989783933,0.032264682364616076,0.03225607796296552,0.032143363039901535,0.03196458144200913,0.031793430381364944,0.031672474989027886,0.031615839786848926,0.031628096905837705,0.03169412097554946,0.031799175591538914,0.03190809395559331,0.03198796264353775,0.03201203710253994,0.031976268046414305,0.031909146869522356,0.03183217486199218,0.03178342577023068,0.031757360756711234,0.03177188539941868,0.03179595485323212,0.03183867715762173,0.031866329825504594,0.03189278745182624,0.03190198435537019,0.031911009634462535,0.03191692306914506,0.03192197292241763,0.031923958346640434,0.03190918516614831,0.03188926621401889,0.0318519686515441,0.031836857290609595,0.031829064880620345,0.03187844206950517,0.0319379009756611,0.03204006152112518,0.03209077002669361,0.032114847695447556,0.0320415751693697,0.031936817344124124,0.03179964472511461,0.03168639658772772,0.03160066803401591,0.0315528748764496,0.03153590336188754,0.03153848283331027,0.031553674171571136,0.03156800925405207,0.03158081856686173,0.031588427102107616,0.0315956394531908,0.031609245102779196,0.03162830622295283,0.03166245608502775,0.03169441760239401,0.03173541947347598,0.031753404502406934,0.031772148931378134,0.03175735172326451,0.031750997134512536,0.031720299239601686,0.03171028799143402,0.03168335431286016,0.03167337960016898,0.03164057507992444,0.03161100412805856,0.03155451225715035,0.03149904554502598,0.03142724697906518,0.031368802274366864,0.03130858152830739,0.031273698015483714,0.031242376554619814,0.03124079803904874,0.03123902038388805,0.03126744994061056,0.031290877432834006,0.03134673974765254,0.031400017182269827,0.03148812503458448,0.03157815589152996,0.03168555126495063,0.031776353044408394,0.0318310943992951,0.031837453766552004,0.03177613431187404,0.031692411121259985,0.031575005885500114,0.03149465116566246,0.03141083930851,0.03139041644484845,0.03136112521760473,0.031390959490265054,0.03138869935920327,0.03143056008632584,0.0314249334657275,0.031456594309384786,0.03145373121614249,0.03149267092464377,0.03152150594134743,0.03158105788629696,0.03162803457583223,0.03166202396737406,0.03166113115270588,0.0316163317837891,0.0315517042005314,0.03146547190774594,0.03140254251876571,0.03134700974737077,0.0313352351378784,0.03133279493267751,0.03136505573483952,0.031387287230961715,0.03141891246223716,0.0314217250928451,0.03141639898971929,0.03138983567713338,0.031356712975202636,0.031326739259977865,0.03128916389337974,0.0312677199248608,0.03122186930881543,0.031192061226812683,0.031122179379026237,0.031072313563234845,0.0309862568256764,0.030933587250020284,0.030863027699073124,0.030842272208054314,0.03082836101109041,0.03089237317954714,0.03100846110657837,0.031259934028557645,0.03160979406427412,0.03203922210432827,0.032351198585208796,0.03233742793926762,0.03206347000401592,0.03161845230589959,0.031262307539886305,0.03099259333524841,0.030873020187989507,0.030868153846802224,0.031021597062411723,0.031310466189074154,0.03170098404263693,0.031997033956702975,0.032035626350308495,0.031778217033629284,0.03141372230147274,0.031111804619722197,0.030949627138521098,0.030940401052909513,0.03107128260841866,0.031307533350601845,0.03157554300302604,0.03172727180968578,0.03170939409764889,0.031493093485618275,0.0312607752552714,0.031046309540624095,0.03096185805131775,0.03094859125039215,0.031057617069444883,0.03118368826520667,0.03135739621658476,0.03142619294040438,0.03144995896919381,0.031350446184658494,0.03125676551774665,0.03116053886028593,0.031146935322865835,0.031182088531726115,0.031300270401249365,0.03141887109477341,0.03155370771273514,0.03159550204416922,0.03160123591261217,0.03152969006180119,0.03145810986533493,0.031383228656027044,0.031322749773264186,0.03127174878835156,0.031216743878485952,0.031169768054836056,0.03111547810240483,0.031083373607261006,0.031050753556156715,0.031051059520285067,0.031050805935170605,0.03108077269753684,0.031104913201767722,0.031148640594762012,0.031184643046246237,0.03122813643217299,0.031267319003363825,0.03129863679792462,0.031328545107691244,0.031329907320263015,0.03133387969415728,0.03129443137953809,0.03127088478612228,0.031206244255348757,0.031173896755611576,0.031110895970875733,0.031084001876671857,0.03103149423113534,0.03100519621754124,0.03095512322125681,0.03092137478675252,0.0308720971851414,0.030840520291645645,0.030808734405461145,0.030805322382513815,0.030815624960336584,0.030866478768103132,0.030932952079736932,0.031041305679125143,0.031136998379505856,0.031245481555252592,0.03128625063288983,0.03130412709681142,0.031249711825295606,0.031187451166878224,0.031109866235888035,0.031049147092004216,0.031006243080269256,0.030972331275880862,0.030954354447074416,0.030927374156047995,0.030912077719396223,0.030884755649149425,0.03087542724154903,0.030863947782769623,0.030876531148587953,0.030893972720516583,0.030929393106117763,0.0309662249636878,0.031003796579536943,0.03103620880243414,0.031053888484609323,0.031069639657852893,0.03106605466712906,0.031072939058270587,0.03105854534215277,0.031064822329487738,0.031043182429238845,0.031047705067650942,0.031018710933889374,0.0310205691142116,0.03098930672833769,0.030990774577895272,0.030961541290880416,0.030959414817261145,0.03092669711877872,0.030910313461204077,0.030865179539562033,0.03083048971557697,0.030776537369582985,0.030737079946490116,0.03069238933658328,0.030671083195911695,0.030656120334412205,0.030673239916078555,0.03070438440327558,0.030772982558199977,0.030856675239614134,0.03096407201199948,0.031064675435537002,0.03113298212698181,0.031155546673245618,0.03109998861027965,0.031013839572117466,0.030887140741893634,0.0307858698918934,0.030693513497577755,0.030650334550575305,0.030625354707480984,0.030641886545551868,0.030659195965868545,0.030698096948680125,0.030712540722004834,0.030735318632311784,0.03072514682935822,0.030732025138679706,0.030719637294658285,0.03074061645360749,0.030754758494914426,0.03080237784766701,0.030840753447058465,0.030894750322142683,0.030935065171330663,0.03097210126901466,0.031003757715047157,0.031017247305972606,0.031033126930089194,0.03100834288695641,0.030985903429525095,0.030910066124725643,0.030855114023245978,0.030763136836966784,0.030725341800919546,0.030665003201801582,0.030675057266747272,0.030646246537164076,0.030678524852482587,0.03063342872759414,0.030632851686009717,0.03053586963935887,0.0304856655677914,0.030361324174191493,0.030296877579499736,0.03018906142521301,0.030142913467909017,0.030067070334507413,0.030043129688188387,0.029989909164582107,0.02997691058592365,0.02993429915466075,0.029927583630548017,0.02990311648372387,0.029930473932772622,0.02998293045512033,0.030153413652468982,0.03044542853422256,0.030941436575740285,0.03146068702677689,0.031759143349655766,0.03157726570085326,0.03105781741275435,0.030590906418580352,0.030252523093423366,0.03013669205416964,0.030170984899094207,0.030440075893789956,0.03090207349248705,0.03149831480937438,0.0318312327107098,0.03167281345398468,0.03116300470928307,0.030674210737340685,0.03041350930276589,0.030397240755053605,0.030632783635885723,0.031006698460037473,0.03137324647768784,0.03140763875566573,0.031129014976017964,0.030685761098284463,0.030337188085243275,0.030150953312982513,0.030155249828239073,0.030323705322754732,0.030634956279915533,0.030952077698291815,0.031134272119802457,0.03104514435769824,0.030805454855133207,0.03057218537504144,0.03048087085237457,0.03057669215698857,0.03081769792668846,0.031109645267051608,0.03124645863471522,0.031164363280553626,0.03089396094869376,0.03063423092412654,0.030465275560595143,0.030440378374520054,0.030512543530391515,0.03063999852760889,0.03071647270702573,0.030700478342265077,0.030562085458445798,0.03038382788682043,0.030209073152862302,0.030105766837818567,0.03006412691853563,0.030101646841400185,0.030166866920198047,0.03025707135599908,0.030293964978646386,0.030297326780691188,0.03022502081898024,0.03015464753587331,0.03008243583315395,0.03008247836386751,0.030139190564263944,0.03029727820247118,0.030500812856005005,0.0307431464964174,0.030904872506198926,0.030975448125912543,0.030931731089474716,0.030839534624445487,0.030759887186847242,0.030670658649734117,0.03060777442825463,0.03049523600183114,0.03040007798804346,0.030280019295669654,0.03021854949167545,0.03018559752801774,0.030238583800164528,0.030330276595873867,0.030477252742010765,0.030599494421557166,0.030679663375429676,0.030674953447086716,0.030605982226869027,0.03052013056357611,0.030433416225998326,0.030388441783867216,0.0303520035709368,0.030345393557133164,0.030321425703907525,0.03030760367847006,0.030270032795174626,0.030248091289861282,0.03021764222387899,0.030214855832847942,0.030211129895922235,0.030231877359417913,0.030242280048178596,0.030264148684374673,0.030267661743395728,0.03028059823332136,0.030288178523387263,0.030318947697323115,0.030370605910260483,0.030451342840594624,0.030566448666369848,0.030673920211070384,0.0307899396859114,0.03081466026845155,0.030809661931781696,0.0306908311325769,0.030570580517920585,0.0304115164569023,0.030297440981128333,0.03019522582157664,0.030141940934008474,0.0300989579384105,0.030086294103286157,0.03006373177290152,0.030057043382099885,0.03002776956677526,0.030017776862327164,0.029986869257830694,0.029989243017869815,0.0299726888165945,0.029997318819615714,0.02999346202143761,0.03002790499099514,0.030020308245203478,0.03004842803397088,0.03003806076249102,0.030072941130827834,0.03009754122518451,0.03018120142361934,0.030285582360980723,0.0304284111732113,0.03057386367543844,0.030652030135632724,0.030669416424719823,0.03054470335613989,0.030406150127349336,0.030205122208805526,0.03008131293402844,0.029957350485544598,0.029926135071669403,0.029892314801828943,0.029929264505291812,0.029936925683200232,0.02998513505861551,0.029980682722345137,0.029998996320402302,0.02997148368334071,0.02997266917536789,0.029955398097840185,0.02997427441911305,0.029991524067879395,0.030034171426188774,0.03007573957715496,0.030117443333558584,0.030158632110276338,0.03017802338794961,0.030208700739889294,0.03021050766265811,0.030234379130897056,0.030230208126859885,0.03023956877559628,0.030220477586604868,0.030192652686049003,0.03014294186954673,0.030074886025433806,0.030006374623612626,0.02992833713687626,0.029871521379097057,0.029815832526590973,0.029790391742776375,0.029770198628488863,0.029777745838930395,0.029789820313253425,0.029819316545825154,0.02985128187290331,0.02988480497912073,0.029920831088988718,0.02993996137714506,0.029966300800836516,0.02996060849513557,0.029972578717791593,0.02995128232260112,0.029964822051848836,0.02996792527043455,0.030029759330387398,0.03012736807793942,0.030292935939642864,0.030510162523711994,0.030679527576431487,0.030782050052234586,0.03064816381080437,0.03045646553833306,0.03015641379978889,0.029966071161121998,0.029792115448891605,0.029747366393108335,0.029708835542695843,0.029760171939666714,0.02977676140311507,0.029841666707164066,0.029839480877569227,0.029860420353332598,0.029819812359702148,0.02980464048446313,0.02975788898654778,0.02974682136198643,0.029727708713204404,0.029751149823929658,0.029780337604471706,0.029853891233215316,0.029934865815810292,0.030034224874075425,0.03011241942601149,0.03014346837064849,0.030124119920610568,0.03003653103492755,0.029934575522462058,0.029817359514269913,0.029733787344601314,0.029671298127189376,0.029651003684501295,0.029648455698860415,0.029671861469227734,0.029689916102394527,0.029713957646145157,0.029713984687725386,0.02971843945597874,0.029703763863746638,0.029711143136994144,0.02971519965819632,0.029753501647679533,0.029794979414384803,0.029864130893379748,0.02993621675800126,0.0300150873478903,0.030101481329637424,0.03015795234542773,0.030217792952006384,0.03019249147487052,0.030159311637223848,0.030030651569970493,0.029926065508246204,0.02978199292161143,0.0297035080563427,0.029620718281957184,0.029606168402896902,0.02957627709997177,0.029592071138372134,0.029563795698634952,0.029562938628942777,0.02950780791403919,0.029485883721137238,0.029424226465311065,0.029410587564844732,0.0293688758402999,0.029377696315757477,0.029353014746380118,0.029369518694517417,0.029340630701721514,0.029345158144770265,0.0293033955764702,0.029297634530815794,0.029257463396394474,0.029259301928826947,0.029237919841735092,0.029257593633987784,0.029256441569909333,0.02928643876317251,0.029293139913665143,0.02931783549281749,0.0293220663448763,0.02933564018216776,0.029341579293745673,0.029352439431764837,0.029370578006284936,0.02938503582665574,0.029413110127493477,0.02942035015425152,0.029439256728653853,0.029426224865905716,0.029435509888296598,0.02944320504149419,0.02952729674946284,0.029698613298708404,0.030017335355006416,0.03039883226630566,0.03069450626579291,0.030647576997230766,0.030307679131837018,0.0298690561950794,0.029500645484557574,0.02929496753064196,0.029226661203826568,0.029337123660320086,0.0296007438420548,0.030002154091660578,0.030350087890251044,0.03043334247462954,0.030192510231234586,0.029801663720756755,0.029477400072378576,0.0292945505441184,0.029280461326157838,0.029404420786151714,0.029650452475718382,0.029907105071142127,0.03006992691310575,0.03001459253671806,0.029810922407464597,0.02956110429077324,0.029381017892347937,0.029304714807896086,0.029334514251153417,0.029442423437444656,0.02958646570196662,0.029692839334645605,0.029724072892302302,0.02964676850307728,0.029529218487195526,0.029397052298466515,0.029320645524055715,0.029285537813629466,0.029313646738608975,0.029356952637637407,0.029416385382728928,0.029438984477380994,0.029438888199873964,0.029397290745674473,0.029351882376857163,0.02930709684067293,0.029285364208363293,0.029284007971190965,0.0292967067680729,0.029317596120819436,0.02932729492404891,0.02933647128603798,0.02933116114172143,0.029345773956883953,0.029367583219439487,0.029440479516018005,0.02953723458939904,0.029695734044700155,0.029864546217074347,0.030052846661327428,0.03018989374241489,0.03025695475098521,0.030203056291031646,0.030075404738358284,0.029854565336831538,0.029664212011849114,0.02945946857366083,0.029341495701014974,0.029235805726436824,0.02920929634991007,0.0291791541040515,0.02920261494572112,0.029194172298932838,0.029220689510898883,0.02920251924679594,0.029223482973700768,0.029214714071175134,0.029260383947065146,0.02929456831354566,0.029377068949424053,0.02943819410586437,0.029507095861217743,0.02952342667301706,0.029518604337093374,0.029460862063077783,0.02940357246063612,0.029322403938215464,0.029266436909726187,0.02920371086742227,0.029167990620581553,0.02912908034301011,0.029111191452619017,0.02908990021492448,0.029084498988550537,0.029073441595463045,0.02907414737773468,0.029065635173041764,0.02906622313991462,0.02905545842200117,0.029053999390973077,0.02904186248015815,0.029040661680514782,0.029030164247680363,0.029030993655479783,0.029022967583915545,0.02902460924244039,0.029017666013993956,0.029018599254652267,0.029013455811568868,0.029015737887322632,0.029017710392806543,0.029027629967309076,0.029047466312459656,0.02907726697594009,0.02913622230383873,0.029208711973303124,0.029343584057064106,0.029483357769290945,0.029707525946820558,0.029858664762395837,0.030025903272096064,0.030004945917350038,0.029925662847846812,0.029732694147462504,0.02953454797595738,0.02934470010771874,0.029190333508815332,0.02907864233855197,0.029006314229957714,0.028978454091262592,0.028979882327827226,0.029014127462231285,0.029054618342988427,0.029106458637143704,0.029145369194574142,0.029183514670593467,0.029221322899115585,0.029250424751618955,0.0292996464741305,0.029295632962075595,0.029306451254934203,0.029218694608750553,0.029154127628783756,0.029015172713912428,0.02892733479152045,0.028807330965273818,0.02874583326731199,0.028668412762415753,0.028644132300862234,0.028609599421164228,0.028628214533139424,0.028643344788058245,0.028717674558510844,0.02878742433093424,0.02890762253456624,0.028986735227178553,0.029065779697979462,0.02905261147562513,0.029003598025927495,0.02889544541525197,0.028784507509084907,0.02868605073926266,0.028610723194720553,0.028575121540891348,0.028561402931256096,0.028589628805410005,0.02863675741652653,0.028723494368197666,0.02882511732824628,0.02894715202557205,0.029051918189151336,0.02913004813256593,0.029144142036877877,0.029124030627799474,0.02906223964157057,0.029025380162554983,0.02900208396166472,0.029035528347648436,0.029079473178273876,0.029145882947286945,0.029155276738916713,0.029146628558994424,0.029052562503971667,0.028979197876414804,0.028868034148260422,0.02882770461364685,0.028778062048016816,0.028799969364376725,0.028796839504678977,0.028832333670337162,0.02881143504011561,0.028800145007290844,0.0287328462750524,0.028682729924359756,0.028609906980729127,0.028573720605136615,0.028535490592014195,0.02853510635495634,0.028525768672700826,0.02854019636076787,0.02852682583761137,0.0285269691572273,0.02849305088721465,0.028480711623084482,0.028446221912885924,0.028449862629522378,0.028445044114755357,0.028489000743406732,0.02853272966940628,0.028629514434347404,0.028735589396469547,0.028888196791961064,0.029048961736518226,0.029193719219173322,0.029292611667603108,0.029263815374113645,0.029175240491377874,0.028984657753420653,0.028834135473602,0.028675168891188405,0.028608077447345125,0.028556145067681397,0.028587551330499204,0.028614264969920353,0.028691715318850033,0.028725857861809444,0.02877343351539463,0.028761809443393363,0.028761722158949614,0.028732095918177606,0.02873537609143073,0.028735410687323864,0.028768206784507873,0.02879561050547708,0.028834775188085766,0.028865808507561694,0.028892373607187678,0.028927583480651466,0.028943922926555954,0.028978437525370465,