{"architecture":[["Dense",[4,10]],["Dense",[10,10]],["Dense",[10,10]],["Dense",[10,10]],["Dense",[10,80]]],"Node_Indices":[87,88,74,16,83,53,64,69,45,43,44,27,23,6,121,128,10,80,104,109,89,86,66,124,38,60,72,90,17,21,47,130,30,106,114,48,68,92,123,119],"weights":[[[-1.5054916,4.5873203,-1.8339063,-2.5123565,-0.7109291,1.2728497,3.2688298,4.638184,3.4099238,3.7896075],[-0.22581014,1.0519118,0.3271281,0.29421976,-0.20468691,0.22755179,-0.31860197,-0.90849423,-0.35570613,0.7990462],[2.998151,-2.194195,-0.6508136,-3.1329262,3.0457258,5.672245,0.6582554,-0.97676104,-1.5481615,1.8225328],[1.0071254,0.7849344,0.7336327,-0.08266669,-0.4786181,-0.01959605,0.2696138,-0.23953035,-1.40999,0.06357356]],[[0.98918784,-0.9025176,0.746932,0.45455736,1.5374762,0.7634156,-0.41324365,-1.0164115,0.05938476,-0.14187938],[-1.7868714,1.2255576,-0.5798224,0.3664822,-1.5044631,0.10362011,0.69157255,1.2246313,0.09112371,0.78580827],[0.072422214,-1.3185078,0.09445483,-0.05220966,-0.34256005,0.3491587,0.7321721,-1.2980126,0.13206083,0.16158694],[-2.0113702,-1.903055,0.31524152,-0.14637369,-2.3540754,1.0684773,1.2706363,-1.0755109,-0.13855612,-0.023258233],[1.5546781,-0.54936296,0.83687437,-0.30850354,1.4256477,0.54324275,0.20826405,-0.60678685,0.14213607,-0.23474571],[1.8917954,0.2781285,0.4346053,-0.10696455,1.8957533,0.034427844,-0.6424346,0.1766264,-0.20412526,-0.76090735],[-0.311855,1.2382028,-0.50871974,-0.06309517,-0.26762918,0.10383424,-0.2069625,0.6322786,-0.0047091483,-0.23282477],[-1.3030022,1.3440046,-0.2350866,-0.9297153,-1.1576372,-0.3054293,0.3741786,0.931369,0.43005925,0.06202036],[-1.1030247,-0.03488615,0.1365929,-0.8909291,-1.0216866,-0.39423192,0.42654505,0.80284625,0.29663566,0.81240034],[0.42051545,0.8575575,-0.3564232,0.1529175,-0.11054955,-0.67927647,-0.33961904,0.6791811,0.35638082,0.0030908585]],[[0.18387936,1.5968525,0.12028621,-0.4329153,-0.27045667,-0.8919211,-0.81412554,-0.24649663,-0.52023333,-1.6443305],[0.48492104,-0.090353,0.65570146,-0.24101011,0.034346398,-0.092477486,-0.7002316,0.72432494,-0.30218858,1.2336797],[0.36830765,-0.41028303,0.2888345,-0.5888521,-0.2417555,-0.1428907,-0.020582136,0.10477146,0.45231813,-1.0156138],[0.6118287,0.0077499114,-0.07129349,-0.3649253,-0.9397472,-0.110497266,-0.49830133,-0.5006399,-0.53012216,-0.028945025],[0.2732096,1.6351197,-0.07307915,-0.107627064,-0.3504955,-0.6025019,-0.49313042,-0.08778074,-0.9078823,-1.322733],[-0.41726336,-0.49782062,-0.55324197,0.3959688,0.216593,-0.3977938,0.031211723,-0.0058763083,-0.012181558,-1.1548985],[0.37806603,-1.2680706,-0.5865559,0.04631471,0.5704505,0.3006347,-0.12588735,0.2600575,-0.43101427,-0.1294189],[0.6825056,-0.22738296,0.15538535,0.18997386,-0.15853061,-0.084329724,-0.12470558,-0.30966002,-0.0030923146,1.6195672],[-0.20640534,-0.47283873,0.45498493,0.09090681,-0.3523977,0.21120417,0.066073224,0.45006955,-0.123259746,0.340535],[0.48290953,-0.629751,-0.26747522,0.89855814,0.55237347,0.34615374,-0.5519936,0.20553508,-0.58033115,-0.29826713]],[[-0.50332355,0.029294137,0.27887714,-0.47301036,-0.41842404,0.04430562,0.23165703,-0.08567168,0.10733812,0.33555248],[0.34193856,-0.12790631,-0.051991977,0.16787602,0.14074303,-0.23458278,-1.8443584,-1.08002,-0.68714106,-0.88631946],[0.29231396,0.15237378,-0.2446683,0.33148417,0.33093202,-0.001686812,0.2584118,0.72161347,0.102073096,0.6833469],[-0.23628911,-0.2902703,-0.7332368,0.46085498,-0.09411516,-0.19374177,-0.4852781,-0.15356858,0.40499172,-0.4524853],[0.4793828,0.4400967,0.13526532,0.2698489,-0.39181834,-0.42669803,-0.030044237,-0.52198476,-0.2680796,-0.87293977],[0.15669549,-0.19715585,0.15827817,-0.34380192,0.18365185,0.11362762,0.078215346,-0.85710293,-0.20853266,-0.3585366],[0.11083847,-0.1813885,0.25872552,0.50175506,0.47155687,-0.46037194,0.033280138,0.34098253,0.12372321,0.77273417],[-0.23889405,-0.5387002,-0.07620843,0.19355112,0.23802017,0.31401065,0.4404716,0.37294003,0.10548955,-0.7961171],[0.3283021,-0.5602321,0.19828308,0.098877445,0.15698202,-0.20018835,0.03345778,0.19859158,0.10896765,0.06713962],[0.17627446,0.057422716,-0.46218503,0.4625337,-0.7702509,-0.83941793,-1.1642673,-2.0164363,-0.1502785,-3.6898968]],[[0.1360679,0.17017199,0.11921456,0.1636367,0.19302985,0.05052604,0.2528125,0.22696337,0.1340813,-0.055706,0.05986116,0.13524878,0.12243491,0.18796371,0.18175836,0.08416527,0.050143335,0.17191502,0.05978235,0.11756213,0.25654134,0.12803935,0.04504466,0.17584164,0.10800205,0.12315397,0.25026083,0.098192915,0.08669771,0.30821782,0.04784961,0.08011417,0.24896659,0.2099119,0.15985101,0.22881365,0.26563987,0.06516219,0.30026138,0.17406063,0.15804312,0.07682729,-0.08055182,0.5384206,0.09886683,0.04938249,0.0074123438,0.12546772,-0.006548893,0.03462438,0.12632777,0.0056192167,0.75718623,0.09079281,0.070252225,0.34893104,0.12248009,-0.05663191,0.35806388,0.017268393,0.11680038,0.0708616,0.0686936,0.10070715,0.5319129,0.12604587,-0.07508201,0.12261544,0.6933942,0.7036802,0.068467446,0.21894574,0.22145015,0.34402406,0.10005329,0.071779124,-0.06142734,0.11712707,0.035467044,-0.07921994],[0.07561638,0.12806202,0.1900104,0.12683088,0.08962872,0.1564318,0.09833328,0.02770776,0.11135939,0.44068196,0.15443246,-0.0016140707,-0.16517521,0.1563123,0.124320365,0.07251851,0.1257205,0.06678834,0.1817015,0.18518038,0.1631216,0.08370069,0.020793632,0.15613297,0.05083534,0.14466296,0.12329234,0.05926437,-0.10649117,-0.47314042,0.15829842,0.1264177,-0.08094428,0.17840187,0.21562795,0.08684457,0.295308,-0.032758627,0.032235462,0.29113826,0.43866563,0.43345714,0.33081686,0.36564443,0.45502326,0.14372961,0.31578937,0.060753234,0.034478165,0.07443455,-0.005013528,0.3252432,-0.05294834,0.25667682,0.21527766,0.21906951,0.01905398,0.38285002,0.3467604,0.14338066,0.43198344,0.50127953,0.12688984,0.4985799,0.2849176,0.089154966,0.32650658,0.3743344,0.25775197,-0.30856144,0.07589375,0.5655981,0.16149318,0.19482847,0.13205834,0.219247,0.18277544,0.49567568,0.45136848,0.3172361],[0.06810103,0.009358293,0.27280873,0.038682185,0.27717298,0.3619917,0.34399623,0.33384994,0.2286944,0.33479202,0.26268184,0.28291073,0.096637696,0.43279958,0.27955514,0.028187023,0.3134964,0.08528679,0.08971228,0.22391191,0.17674334,0.09191546,0.09563799,0.119672745,0.026986519,0.3144134,0.3655234,0.23593026,0.2808751,0.11021074,0.27866155,0.16927391,-0.00039903016,-0.0272525,0.21725135,0.2577647,0.07480675,0.24479756,0.1740392,0.01593119,-0.09664709,-0.032139897,-0.050270844,-0.13393362,0.12924957,0.15089953,0.15133853,-0.02708169,0.27609023,0.2146938,0.13542405,0.22888853,-0.3683559,0.036130868,0.01648817,-0.055356603,0.10635821,-0.005830836,-0.1450159,0.22883983,-0.020632204,-0.030931057,0.13190813,-0.05393007,-0.25234944,0.06175569,0.19574149,0.052445248,-0.350591,-0.3771073,0.20358592,-0.1461064,0.06138002,0.07219174,0.0760009,-0.034553424,0.13232026,0.08675876,0.0061969273,0.07664625],[0.135699,0.15536237,0.05160024,0.44084167,0.21203686,0.06680301,0.023300989,0.075612694,0.061230417,0.089360304,0.05739162,0.10575226,0.51218754,0.08488086,0.17247489,0.26184154,0.06565928,0.07488411,0.33055308,0.026313785,0.22611217,0.16398934,0.053991895,0.2137861,0.46706188,0.0087634325,0.07127395,0.23614699,0.4749268,0.5454991,0.057557948,0.27938986,0.22912574,0.2713681,0.03317962,0.029710049,0.0009824252,0.23794642,0.1782681,0.08171924,0.18549383,0.1852318,0.14450417,0.03228815,0.2147561,0.068564124,0.12623353,0.13683155,0.048243973,0.040578526,0.029723607,0.24504706,-0.014145804,0.17926548,0.19628917,0.096838914,0.01844852,0.19603448,0.070812866,0.07164856,0.13726354,0.18139945,0.08706892,0.1365745,-0.009391927,0.077337325,0.19837734,0.16476409,0.02032762,0.08145687,0.03786553,0.08158483,0.13699548,0.12308025,0.13041915,0.036314353,0.1709375,0.1499696,0.18303572,0.19949709],[0.27303278,0.12841238,0.058533322,0.11473093,0.025426889,0.019029092,-0.14792243,-0.012583017,-0.06492504,-0.042292185,0.022027321,0.20152496,0.20514543,-0.07195024,0.08915969,0.33562163,-0.051323913,0.20106761,0.2652498,0.085506074,-0.03567513,0.20159698,0.2914146,0.0948854,0.3022072,-0.0096268235,-0.10545706,0.18595114,0.16270621,0.02102474,-0.077043,0.2435688,0.1904477,0.04690344,0.057305884,-0.121300995,-0.15532273,0.3242159,-0.11144962,0.08418206,-0.007120155,0.18004929,0.33164823,-0.04034994,0.10922972,0.100747,0.03547192,0.07942909,0.08509817,0.0816326,-0.004061249,0.11032549,0.21096401,-0.0028492056,0.16935772,-0.0073798355,-0.025449634,0.28938195,0.13437854,0.09282951,0.1352951,0.13314669,0.07107389,0.1685173,0.28236628,0.014743093,0.15403934,0.14621538,-0.020063953,0.37886578,0.0031497364,0.13673156,0.16910306,0.008362573,0.010371343,0.09121606,0.22953242,0.2252975,0.22203785,0.28258044],[0.19911161,0.2500197,-0.0070187715,0.32858428,0.24408403,0.08280569,0.121732056,0.1121519,0.20745684,0.05363403,0.14348027,0.028039673,-0.023574555,0.027318507,0.19188203,0.17059226,0.08987782,0.18514155,0.21130434,0.13472877,0.26551658,0.15118268,0.21113347,0.21500689,0.2303891,0.007928694,0.095538646,0.13810655,0.03456616,0.08205292,0.08582818,0.10280864,0.3387321,0.3572247,0.13043594,0.21780965,0.15089437,0.041825254,0.27728593,0.26535243,0.28375295,0.097018495,0.20376782,-0.5914711,0.09385444,0.21182647,0.24426286,0.27545977,-0.014168253,0.063707024,0.1575814,0.18086681,-0.8545914,0.34022748,0.1603454,-0.1630251,0.13271783,0.24484497,-0.22530656,0.10034722,-0.06892396,0.090147264,0.1908015,-0.062083576,-0.75678414,0.30573115,0.17349172,-0.063172005,-0.47637814,-0.6876229,0.0788102,-0.21111295,-0.15681359,-0.18316181,0.3404059,0.27772212,0.20938978,-0.1894012,0.04216283,0.19126539],[0.19756538,0.25356293,0.19438538,0.5054004,0.23212887,-0.05962824,-0.011413194,0.12680332,-0.1699473,-0.013232615,-0.15532786,0.19425523,0.7612989,0.15483834,0.19627762,0.32768345,-0.09005247,0.14084657,0.39787182,-0.09977999,0.25731623,0.2751533,0.026253816,0.2768012,0.5279019,-0.009798825,0.12438537,0.2973697,0.58800113,0.80047643,-0.06849952,0.34279522,0.22703625,0.33430955,0.044277247,-0.15682626,0.16847788,0.27584878,0.23665771,0.18498167,-0.13140027,-0.14790812,-0.09284607,-0.20442832,-0.17338803,-0.054344594,0.00081539096,-0.087849855,-0.040850308,-0.051785294,-0.086888246,-0.10142061,-0.26083925,-0.068507895,-0.12793191,-0.21132077,-0.058502976,-0.09301709,-0.2705368,-0.03104644,-0.13884743,-0.12788665,-0.06796734,-0.14630479,-0.2897385,-0.058989525,-0.038930744,-0.15088476,-0.26965332,-0.26161006,-0.049068008,-0.18715458,-0.20906721,-0.24029535,-0.07416889,-0.053300098,-0.038400766,-0.19767678,-0.14100324,-0.08743797],[0.06789032,0.14968903,-0.06470212,0.42542106,0.14243908,-0.08270165,-0.03340494,-0.056113143,0.017274646,-0.111866206,0.031043526,0.035878163,0.3928252,-0.029771797,0.079878785,0.31968084,-0.013878513,-0.0263313,0.30338377,-0.027176542,0.2321331,0.123404644,-0.18437786,0.21591929,0.48708308,-0.028803287,-0.01773045,0.18493366,0.52457905,0.30110067,-0.014173389,0.34723502,0.2988865,0.32260105,-0.087138005,0.022029307,-0.1166385,0.3346406,0.18188128,-0.07634207,0.24644883,0.30353937,0.12246187,0.6892201,0.31483412,-0.088745326,-0.06922633,0.11423821,-0.031833097,-0.052458603,-0.013237983,0.1580235,0.7862048,0.07520524,0.22458321,0.5140451,-0.017382905,0.096006565,0.56968373,-0.043764524,0.32907474,0.28519154,0.04621423,0.34686637,0.7820478,-0.036339656,0.05071446,0.34497198,0.7121915,0.6562227,-0.031571355,0.47178656,0.4453554,0.53725153,0.016738558,-0.07359454,0.004318945,0.4288969,0.2915392,0.10174395],[0.20742705,0.07901804,0.23645246,-0.31713617,0.1299333,0.29279816,0.35947642,0.32107154,0.2732625,0.14454849,0.2730139,0.2631588,-0.5542966,0.27533823,0.21809098,-0.033829186,0.21267052,0.28914464,-0.12618256,0.36729214,0.06682516,0.097496174,0.34073058,0.044928845,-0.33158204,0.3143181,0.30661404,0.050136223,-0.40041548,-0.5619545,0.17321424,-0.052339707,0.083203934,-0.098899096,0.3482009,0.3602834,0.22173682,0.055000063,0.09595042,0.22150895,-0.08638548,-0.03606436,-0.07544077,0.12144711,0.0062791137,0.0483947,-0.09764652,-0.070792876,0.08333547,0.08676121,0.09125766,-0.057683952,0.33332068,-0.10844354,-0.04645135,0.05115855,0.057080384,-0.06376017,0.14211328,-0.0023702586,-0.021848012,-0.06299426,-0.03254142,-0.022003394,0.27546087,-0.019591846,-0.112353496,-0.00010230206,0.20693961,0.37108055,0.059772532,0.032144997,0.08313427,0.09923014,-0.06489613,0.0112981675,-0.08184051,0.07026812,-0.030669449,-0.06939347],[-0.35827574,-0.451244,-0.11995233,-0.83196783,-0.469591,-0.060857553,-0.09411518,-0.13308021,-0.1228957,-0.048849985,-0.15432115,-0.2591359,-0.6109357,-0.16410902,-0.3705096,-0.6508092,-0.09311306,-0.20738634,-0.68726474,-0.1129675,-0.5190638,-0.40311158,-0.02670482,-0.513633,-0.8758804,-0.083239466,-0.15496509,-0.49987188,-0.8508627,-0.44728103,-0.08360201,-0.6669569,-0.61310405,-0.6828726,-0.08805764,-0.13148108,-0.032012418,-0.6404381,-0.44656134,-0.18139835,0.25029165,0.27433544,0.13164802,0.7672961,0.24541363,0.050855514,0.1300134,0.2181288,0.00545722,0.017497135,0.0075223255,0.2268181,1.1748593,0.19458577,0.29372263,0.45530936,0.024178222,0.20143636,0.4701083,0.0785582,0.39131033,0.29304656,0.08456768,0.35919085,0.8360321,0.09697242,0.1904351,0.36253345,0.8776631,1.2854403,0.019619485,0.44552654,0.39930767,0.41445956,0.13237548,0.04042967,0.17815042,0.35148847,0.28747615,0.20766695]]],"bias":[[0.57071054,0.45710483,0.63295233,1.5129402,0.27173036,0.20951617,-0.06828254,0.1540171,0.014554424,-0.21555017],[0.1343871,-0.4527032,0.1690924,0.09510192,-0.06328822,0.45648363,0.14354634,-0.31706226,-0.10108359,-0.02752341],[-0.06170831,-0.19907485,-0.055964086,0.009230838,-0.16258413,-0.073154375,-0.08655453,0.0041246694,-0.04750093,-0.23297024],[-0.010624554,-0.040630285,-0.07063178,-0.104702674,-0.1408704,0.14606893,-0.05529815,0.16847834,0.17600365,0.69806373],[0.10980087,0.16659784,0.24683277,-0.07925977,-0.009397485,0.36670592,0.2513676,0.13072315,0.46319488,0.46602952,0.45859703,0.12914895,0.013888742,0.1257446,-0.015799534,0.08216553,0.50939345,0.16873588,-0.0018373945,0.32354325,-0.010187687,0.14887519,0.30789298,0.06327177,-0.09836924,0.3815609,0.11871777,0.05297942,-0.012059795,-0.033237506,0.5561261,0.042961184,0.041515596,0.06600455,0.21252985,0.3545459,0.32682267,0.07002157,0.08766371,0.1594803,0.034894515,0.015365867,0.1558573,0.14464664,-0.108388215,0.16028588,0.14329152,0.186387,0.25124604,0.22447707,0.25128725,-0.073672265,0.15597698,0.08979889,0.057115458,0.13020432,0.2995375,0.032020498,0.06740412,0.20560004,0.099904016,0.03251744,0.20103367,0.087685734,0.12590995,0.2015207,0.069120064,0.03221225,0.10664778,0.033875275,0.2524815,0.118712515,0.049083427,0.02835761,0.15073238,0.24665803,0.118699744,-0.036122344,0.018893782,0.051724326]],"Losses":[1.017019148977823,0.8999504843037643,0.7964392048117425,0.7039640197580217,0.6209241051559559,0.5460980396678476,0.4784545796910942,0.41834840208150037,0.36777100548371394,0.32838614090026674,0.29887617346130735,0.2763475146896534,0.2582792298613854,0.24320903550798573,0.23049955667879887,0.22039431293961392,0.21367810522807223,0.2107342822657084,0.21080514633951497,0.21225584807751063,0.2135603939484416,0.21389358990411522,0.21310072694587393,0.21140579779511987,0.20910679928803474,0.206417863532535,0.20347622784020014,0.2004064772609106,0.19739420397419266,0.19470020491676068,0.19256360356654476,0.19109735543275405,0.19026340647180534,0.1899051467431469,0.18981803565969835,0.18982142741806599,0.1897906991442749,0.18966406328665178,0.18943143321145559,0.1891110324278252,0.18873667739110772,0.18834917352596814,0.18798127055478747,0.18764781888415996,0.18734656825576512,0.18706879486982106,0.18681107480759918,0.18657678576730047,0.1863710773504461,0.1861937766054028,0.1860356798217091,0.18588526906444816,0.1857382359143567,0.18560117618989413,0.18548562825799392,0.1853963156395213,0.18532836781356885,0.18527364772134167,0.18522598877207877,0.18518182821192736,0.18513603145148003,0.18508058692346785,0.1850093147092867,0.1849224952100392,0.18482818794253944,0.18473748548408042,0.18465687653658677,0.18458597922998654,0.18452119741461587,0.1844602517768883,0.18440274034943788,0.18434718653911686,0.18429005768829126,0.1842279217986227,0.1841595624666812,0.18408628979329614,0.18401024453754938,0.18393265828728703,0.1838536196591214,0.18377238772814103,0.18368785967484602,0.183598645336615,0.18350340378130212,0.18340183959608697,0.18329477538730612,0.18318325817598538,0.18306751811389677,0.18294694426978814,0.18282087931908175,0.1826888459021477,0.1825501893983976,0.18240377115698442,0.18224843924713363,0.18208367568137132,0.18190948534020626,0.18172577266699066,0.18153211180597498,0.18132814208604506,0.1811137576320041,0.18088877147923108,0.18065267462099302,0.1804048664251919,0.18014496182736245,0.17987286024746074,0.17958864985086745,0.17929253134572784,0.17898479058072003,0.1786658349629601,0.17833626642987188,0.17799693788140136,0.1776490138808268,0.1772940252149946,0.1769338002795422,0.17657038622494478,0.17620615239303122,0.1758437654833553,0.17548598149331515,0.17513559012601293,0.1747954069433162,0.1744681580375482,0.17415626032854103,0.17386165645889565,0.17358564078944774,0.1733286928426522,0.1730903073300285,0.1728689498380916,0.1726621907801939,0.17246696689572052,0.17227997748697924,0.1720981529452539,0.17191911586581782,0.17174148082560062,0.1715649407639822,0.171390192865584,0.17121859708571718,0.1710517607213073,0.17089113634348946,0.1707377158634758,0.1705918582593393,0.17045326867041474,0.17032111034551733,0.1701941443994073,0.17007091342862812,0.16994989535128963,0.16982965549439202,0.16970894081045493,0.16958676497258035,0.16946243169171973,0.16933555501507158,0.16920603593200154,0.16907400322739494,0.16893976855046147,0.16880375612440338,0.16866641833518775,0.16852818575966447,0.1683894023368074,0.1682502865834975,0.16811090178572993,0.16797116879300394,0.1678308803544132,0.16768973739540513,0.16754739597639867,0.1674035258003849,0.16725783996226448,0.16711013974011457,0.1669603037649875,0.16680829905304698,0.1666541588031316,0.16649794709386706,0.16633972507251724,0.16617954944215263,0.16601741652556293,0.16585329771851037,0.1656871092750862,0.16551873800088576,0.16534805688484958,0.16517493314579385,0.1649992478577449,0.16482089496252988,0.16463979113444577,0.1644558676434314,0.16426904999497272,0.16407927322901902,0.16388643695621785,0.16369042080352608,0.16349106874879327,0.1632882121634668,0.16308166677142674,0.1628714225967615,0.1626580201863094,0.16244462639893606,0.16224488249453614,0.1621047213078943,0.16214032862795114,0.16218351603885003,0.16176801726606135,0.1610734387732854,0.1610853476157357,0.16102939170762418,0.16039223778553907,0.16025465073694525,0.16017944806743034,0.1596188823315124,0.15944132369198918,0.15929196354496178,0.15877359604697514,0.1585589667149303,0.15834976297083544,0.15785273807789016,0.15757289145814618,0.15732804490127497,0.1568416541849168,0.15646387305239223,0.1561816966272404,0.1557215913964195,0.1552327012675816,0.1548587007152835,0.1544456023960757,0.15391738353751835,0.15338321133856714,0.15290991389088662,0.15243532188175457,0.15189310119103544,0.15129560464310593,0.15067101319089343,0.1500412480943274,0.14940524831143945,0.14875805476645337,0.148102795699688,0.14747027947641209,0.1470280987029045,0.14749002714567377,0.15070547871638743,0.14971933760604744,0.14455068393841636,0.14506174672465394,0.14585587246144882,0.14225895833589675,0.14300354687077724,0.1424227256788423,0.14020869584430698,0.14107825826064835,0.13946201344102552,0.13868975181850765,0.13889970394949122,0.137201688999454,0.1372360236595766,0.13676241729956765,0.13544319293135623,0.13565228103893412,0.13485050725462175,0.13387998920891872,0.1340129374927595,0.13317032693466704,0.13238543980670273,0.13242202159620933,0.1316674608898689,0.1309643940084946,0.13092689680488587,0.1303069367916039,0.1296490663732513,0.12955796802763694,0.12907180213504219,0.12845382945314165,0.12831512301720416,0.12794516280930956,0.12737299378649689,0.12717655526900717,0.12690003171839154,0.12638224770135104,0.12611857570612983,0.1258995989954095,0.12545410581914032,0.1251288341360424,0.12492945940359611,0.12457786473440938,0.12422121390643005,0.12400266118433866,0.12374223928591976,0.12340354080666568,0.12313823236249127,0.12292204707885818,0.1226399103221792,0.12234173939994306,0.12210699590232083,0.12187247668728321,0.12158775799352603,0.12131352956731814,0.1210770170554839,0.12082555283709905,0.12054321017943088,0.12027259711976569,0.12002233802250054,0.1197576881952066,0.11947230648542018,0.11919339576314644,0.11892684694757982,0.11865235664325742,0.11836260875009802,0.11807366199943635,0.11779350450993004,0.11751234977604641,0.1172223659627372,0.11692804516351986,0.11663894843437596,0.1163558124459631,0.11607260963428716,0.1157876683268926,0.11550322828835012,0.11522462442287014,0.114953121377649,0.11468697744569317,0.11442498675554291,0.11416607770133809,0.1139123473220189,0.11366464862692593,0.1134242044852199,0.11319075012172071,0.1129634961799407,0.11274201755479092,0.11252513510724277,0.11231286209975178,0.11210421196751243,0.11189936444434716,0.11169743491245253,0.11149864839898144,0.11130240671580943,0.11110924853770993,0.11091936183268972,0.11073445104466563,0.11055748989254696,0.11039379095057032,0.11025648400434329,0.11015733247422388,0.11013595221217054,0.11016249797857439,0.11026803463508164,0.1101466502760088,0.10983860596793042,0.10923753641317553,0.10877159269400553,0.10861547273378873,0.10867612969555442,0.10870804732690358,0.10846614208241127,0.10808751959555667,0.10778659701813671,0.10769313797768551,0.10768996759965194,0.10757384651658947,0.10732384408587256,0.10705171864446694,0.10689460692784354,0.10683161804104442,0.10674286497559632,0.10657020938966624,0.10634814624253389,0.10617138442885356,0.10606500482683137,0.10597654706836974,0.10584991840765358,0.1056766996915732,0.10550509866831932,0.10537069961754147,0.10526810739556379,0.1051647833547154,0.10503611700163965,0.10489000318526792,0.10474707014487201,0.10462335934183442,0.1045171927707444,0.10441495598304337,0.10430521169033616,0.10418436066119824,0.10405976137536767,0.10393943570226388,0.10382838328641748,0.10372568574724816,0.10362738520046845,0.10352951693110073,0.10342912877412294,0.10332663057760946,0.10322222523190035,0.10311811213305039,0.10301491287948933,0.1029136275880273,0.10281431996277335,0.1027168661061375,0.10262094622032322,0.1025262207360303,0.10243247949967568,0.10233968088852903,0.10224797261974959,0.10215784302973162,0.10207056330074542,0.10198806148194133,0.10191631585017448,0.10186050226041983,0.1018434056040985,0.10185279460303422,0.10192339395105138,0.10187505987437577,0.10174552209805397,0.10146132120980857,0.10123020584417065,0.10111228083331088,0.10107597779530776,0.10106808849004895,0.10101010750788018,0.10088455797768772,0.10070294337287286,0.10054938323284764,0.10047374493942282,0.10044829794665298,0.10039750048536979,0.10027495919103911,0.1001216012078314,0.099995235575515,0.09991456420486376,0.09984976261171394,0.09976574681300165,0.09966065866324891,0.09954944864746139,0.09944517346446698,0.09934143052282063,0.09923489365114668,0.09912781279259206,0.09902736789272457,0.09893520639873438,0.0988426221775482,0.09874304281880474,0.09862968390122914,0.09851156764013953,0.09839343255126103,0.09827939472718132,0.09816736822274823,0.09805459800048387,0.09794031455792984,0.09782592464802245,0.09771296175560225,0.09760140728160087,0.09749128500605879,0.09738242666860658,0.0972805539464454,0.0971884084857322,0.09712789379399649,0.0970856437206918,0.09711244729785706,0.09706526324797361,0.09701049602704187,0.09669388990378491,0.09635569199190892,0.09608071117301033,0.09596571059809669,0.09595827591132766,0.09592675903026583,0.09582742951875606,0.09557433893090167,0.0953084835281612,0.09509955324131471,0.09498014852352134,0.09491295999848459,0.09482950961388872,0.09471048870883589,0.09451480380815622,0.09430324141203607,0.09409354821848676,0.09391069949387609,0.0937494397742577,0.09359754995392609,0.09344774921685281,0.09329964937490576,0.09316657495488118,0.093053120749211,0.0929874352414727,0.0929650461754205,0.09301868234380814,0.09306116670395312,0.09304798752719012,0.09272331806753037,0.09221598928784625,0.09166003968950157,0.09132150236679772,0.09122552317506798,0.09126800487029241,0.09130882987003934,0.09118680697411312,0.09089594530317846,0.09045584132116272,0.09006677599239148,0.0898135136529853,0.0896926617732993,0.08963203483192166,0.08954948558086628,0.08940001217356695,0.08914332008805108,0.08883748080175571,0.08850651157129902,0.0882096090104124,0.08795835784632494,0.08775115814880179,0.0875754461021275,0.08742119307126381,0.08728572626110352,0.08716711948787763,0.08707520782280269,0.08698162235128365,0.08688934747564174,0.08669685704886407,0.08641721483600805,0.0859945886649386,0.08554020690747025,0.08511780279819059,0.08478903399010536,0.08455397220332177,0.0843882315873507,0.0842669798349103,0.08415917522120892,0.08405676601995923,0.08389627472147583,0.08368467969244947,0.08335851587516506,0.08299409474714783,0.08260644586381602,0.08228404322745213,0.08206074374200187,0.08198570962114936,0.08211470781867082,0.08250639830748609,0.08290177435807816,0.08281408630168545,0.08171079677764971,0.08050328703477662,0.0800735242916256,0.08038764416676894,0.08064055982700766,0.08007741774940166,0.07918987441901355,0.07876501053983143,0.07889578995782241,0.07895462788644012,0.07845807648875766,0.07781570732761181,0.07752996313512861,0.0775338946888837,0.07740510463500838,0.07696207972090414,0.07648789998827364,0.07623801269835075,0.07611996043030678,0.07590527949775516,0.07553818715090668,0.07515501142839753,0.07488274635202533,0.07469327531359923,0.07451839544083853,0.07435364320534397,0.07428199037271284,0.07445969839486508,0.07513865868990685,0.07591441391140646,0.0761913079924821,0.07435871946230047,0.07277956350328471,0.07222518191815946,0.07234290912623677,0.07269600543022561,0.07281473824362794,0.07239327528979436,0.0712369160300515,0.07041397204502568,0.07054288860628832,0.07097378134828558,0.0708564946089448,0.0702358285553764,0.06971337140780075,0.06926488881827517,0.06894850306594617,0.06892390971655735,0.06905835661370625,0.06899923201350613,0.06853645534666092,0.06810326992870847,0.06777495670014745,0.06745968077712447,0.06716192759502179,0.0669780672039915,0.06690572950740586,0.06685303310884512,0.06680413846664211,0.06678671783702356,0.06682319676784489,0.06679033741275613,0.06676716058025606,0.06649803336393537,0.06618637511032988,0.06567626311861084,0.06521946960621311,0.06482726217612865,0.0645125630536589,0.06425526818668541,0.06406647654242845,0.06394800035626301,0.06387571422363031,0.06383446764325097,0.06384441642008376,0.06398312565114898,0.06419485277151196,0.0645413490266345,0.06455362813951199,0.06440630542346062,0.06372440242768115,0.06301049761696674,0.062383481823031266,0.06202484391043756,0.0619244349707578,0.062007719057324995,0.0621918582409898,0.062349676790357675,0.06246326301484281,0.06229669674797772,0.062001245820789724,0.061510976709091794,0.061082675966120645,0.06076214383139804,0.06057349627340788,0.0604847644315925,0.06046611938146722,0.06050701040944199,0.06058032394174066,0.0607027414866562,0.06077540523891758,0.06082660401902224,0.06067429689655264,0.060444082505916034,0.060062056632072286,0.059711763280831505,0.05938590671245585,0.05913914723134843,0.05896204791721027,0.05884582585452353,0.05877432332542969,0.05873655662447391,0.0587385313198652,0.0587855090838627,0.05892379619378327,0.05911780323146034,0.059434177290112675,0.05960832271278334,0.059681584690738844,0.05926309630581277,0.05871657755874651,0.05809871953501671,0.05767562671865838,0.05745077965106628,0.05739155229192701,0.057445912062262565,0.05756825854792612,0.05773737173099824,0.05785815829292619,0.057950500646022356,0.05783479342476569,0.05766987325093124,0.05734529854726845,0.0570638779479522,0.056797060454668355,0.05661263133803168,0.056496235828750144,0.05643303952481048,0.056419433650292825,0.05642599196422063,0.056448847366297274,0.05644237196562865,0.056406310535766044,0.05630204383063349,0.05617229316900831,0.05601937962841125,0.05592801286483423,0.055918877396972114,0.056121489317921526,0.056522597142541015,0.05722170141447295,0.05763664698586471,0.05740011014076342,0.056293016420215565,0.055251099141366215,0.05480055583633777,0.05497170243740543,0.05549110955011155,0.05590516174239012,0.055815406645890284,0.05521343354635695,0.05464213234387286,0.0544343046798066,0.054609826941717066,0.054926758287533246,0.05509733734300099,0.054876245778909934,0.05444653747233592,0.054081097268257376,0.05397773845116645,0.05410359652972253,0.054309422137472356,0.054401493665766146,0.05432862778353563,0.05410729309682402,0.05393437813483119,0.053905738263827295,0.054110094795314145,0.05446154665179734,0.05485514633423785,0.054929562187140284,0.05470719619879292,0.05422473736916082,0.05392368993746268,0.05379495837254009,0.05382895872573089,0.05375853510916572,0.05352709812307728,0.053178870420273645,0.05287351451576969,0.05271506184672421,0.052709960651747094,0.05280757807050413,0.05294189268559441,0.05305880360261183,0.05311246991840773,0.05313750817619747,0.05313853627546529,0.053261084841156006,0.05342126014121351,0.05372606540980436,0.05380935982125024,0.05373824472292813,0.05325429989382933,0.05272092125711994,0.05224996359985957,0.05198296198720356,0.05190254350849272,0.05195826784060275,0.05209288241634509,0.05224141650953463,0.05236753561471061,0.05239206940327506,0.0523592088198733,0.05224818120285471,0.05220762124422475,0.05224512384655029,0.05250615580724683,0.05286409664090668,0.053264458031585055,0.05324024724089423,0.05278189587918233,0.05203743994577354,0.05145650781032412,0.05118805484134152,0.05121251634585032,0.051418995127755454,0.0516745457292899,0.05182544097706927,0.051775295624428036,0.05156028670856037,0.05129695270625106,0.051143490125039895,0.05112948038005831,0.05126016108192526,0.05143259141642817,0.05158577003897617,0.05156019232983376,0.05141104710603128,0.05114799071242093,0.050941841035407595,0.05082870815667277,0.05085698039831625,0.050970874409918786,0.051151217435580015,0.05127578664366649,0.05133222879953343,0.05122475736653978,0.0510823096478489,0.05089814413058756,0.05081786025574861,0.050781215473052935,0.05083471252855729,0.05085007841504946,0.05084579178606981,0.05071484955263688,0.050541933297139664,0.05032288010962116,0.05014318051054809,0.05001089746568239,0.04994460936537233,0.04993333248572652,0.04997620743524752,0.05006434760787352,0.05020527868149632,0.05038438144080728,0.050607961713166644,0.05079230315819706,0.05094528246752958,0.050899711047792645,0.05081474934299026,0.05058584460887897,0.05047108076249464,0.05035444852761833,0.050353011684210844,0.050287496663641254,0.050199630713750824,0.04998883885280125,0.04975183424267656,0.04951685974343239,0.04935014277651086,0.04926839728661348,0.049271521268439845,0.04935473869497372,0.04949498999621722,0.049697373175144666,0.04987503836261851,0.05005594646149117,0.05006361190278558,0.050029681000635894,0.04983683311993065,0.04969769776024081,0.04956213074635723,0.049543430135820465,0.04956917118161285,0.04964506359523621,0.04967446795935556,0.04962415940923406,0.04946465806352734,0.049234645317440234,0.04899518462604435,0.04879520818743911,0.048658240966883294,0.048582728945300906,0.04855709556066561,0.04856873074378453,0.04860861513043055,0.048671817051684794,0.04875661565052137,0.04886019425234511,0.04898011649033269,0.04909713282274298,0.04920676918627769,0.04926286701464685,0.04930608792978451,0.04929401117674821,0.049371965256540216,0.04947474302329009,0.0497951537008494,0.050009210249093515,0.05023068891572635,0.049880872961845416,0.049376969529295385,0.04873264671784419,0.04829104928115278,0.04808266531119369,0.04809457823157689,0.0482817951715039,0.04856887167990162,0.04890436682139655,0.049054723442423384,0.0490590536889834,0.04876561415641775,0.04845488713287871,0.048169193263966625,0.04802338316418129,0.04799737033915912,0.04806469345705301,0.048175537496364156,0.04827188031826196,0.048318720190589616,0.04827042784549876,0.04815809959220686,0.04799850242064757,0.04784709033689146,0.04772760296033166,0.04765621440099564,0.047637693400602366,0.04767194071188906,0.0477730054153755,0.047943872388140955,0.048238387429154754,0.04858819586854103,0.04906387666196471,0.049275266140650004,0.049361700449658624,0.04893918407221181,0.04848924409239766,0.048015397704008485,0.04772118177169848,0.04757705989019473,0.04756301429965289,0.04764793152742384,0.0477726680146903,0.04793060986016271,0.047998357190359,0.04802654516262183,0.04789798866937181,0.047754209058921804,0.047564106999575445,0.04743362563932434,0.0473477745283376,0.04733449549986702,0.047373146839692765,0.04746267262734433,0.04757688901140792,0.047686805075122886,0.04775648432945261,0.04773731665422018,0.04763663537881026,0.047456746140271774,0.04726146208814517,0.04707693856488363,0.04693651720141146,0.04684007127108886,0.046786450065296165,0.04676798284868746,0.046783113367487236,0.04683393810579019,0.04693759945944685,0.047107108124531165,0.047391349403590965,0.04775073088536436,0.04822171101228019,0.0484688505489512,0.04857316884863558,0.048194734408651095,0.047844974288375385,0.047489950454289116,0.047404382750942504,0.04742674130068747,0.047553374142500285,0.047550304017276654,0.04740598750657587,0.04710102775271917,0.04677100830867057,0.046512139698135065,0.04637046225940389,0.04634788985459565,0.0464240256886603,0.04657772661174483,0.04676615030785868,0.04697252310029259,0.04709828524406199,0.047178286947037754,0.04711333289126259,0.04705688465823818,0.046955433742475634,0.04696467078626153,0.046990397699692224,0.047109456929746725,0.04714368767706952,0.0471483859720967,0.04697349173489694,0.046757014229350996,0.046486813984198704,0.04627274363432902,0.046116047263077095,0.04603219406408917,0.046003810225129504,0.046021235286600716,0.04606940865394128,0.0461464852297852,0.04623801233137529,0.046353742249163506,0.0464629069275883,0.046593481716049226,0.04667661459439507,0.04678445808783489,0.0468052998546307,0.046883402809426246,0.046871631801254816,0.046956053315689264,0.04694093953347051,0.04699359911353211,0.04688916518911413,0.046777961207103855,0.04652513172411357,0.04627731398010605,0.046014395109371165,0.04580905372462825,0.04565893738187823,0.045569749708697156,0.04553370555627037,0.04554465845102832,0.04560400663453599,0.045711955452902985,0.04589284196717957,0.04612321269292319,0.046450290943371636,0.04670334156369804,0.046952883039858555,0.04686268915174529,0.04670411803005871,0.04632781270737107,0.04604677621706526,0.045808804291773995,0.04570658240509305],"R2":0.9803213526007244,"Training_Indices":[8416,14526,3352,14880,19961,7053,3380,19316,4928,13971,16295,18088,1674,19672,8689,15495,5621,715,3314,5423,14225,657,1870,17316,16908,10222,12235,4277,10390,17026,874,5391,17284,12225,18818,3134,19500,2766,1764,7708,4331,18260,8392,5355,6407,17991,15059,13082,14065,12200,12967,11967,15086,12496,8408,555,7501,11972,18017,3776,11099,18026,6788,7359,20276,14098,11727,14984,2137,15338,740,2206,2367,11965,20512,9216,13332,1940,5138,15416,2156,17868,18107,19362,18070,4176,19699,11747,17604,11400,20394,16327,3876,770,1156,368,843,2807,2765,7607,479,8479,4157,403,2616,7938,20381,12224,4671,7884,17154,5466,11917,17844,20379,14373,9214,16567,17449,5234,2938,4192,3202,511,5059,5268,5853,8279,18395,2258,9591,12738,16013,4210,1098,412,12569,20199,17941,19347,12688,17063,14550,14130,1300,6442,19692,12877,1871,6250,6991,11040,8552,1568,12803,14328,11207,4031,17765,17368,18462,1793,17983,2193,15073,17738,3030,13276,1775,2303,3180,14157,19526,16945,6012,4984,4142,4159,5649,6418,9592,3298,14819,3566,16384,1595,5826,14103,5991,18624,2640,7673,6211,11380,8490,17706,20355,2215,8950,14841,9849,14018,19045,1302,13175,10321,19180,353,6841,13953,15919,18742,352,3324,13621,9565,12056,3368,2814,6942,14603,18664,13202,13400,14108,1131,6336,19922,10426,1055,1437,11320,10439,16569,11698,1797,14050,15936,20342,7349,8540,13681,1932,2693,16025,3014,3534,8414,2922,19216,3277,6399,3700,3496,17543,19066,8343,17577,14974,1897,9292,18910,8537,15850,15712,3585,13300,9725,20290,17019,11721,5840,3516,18941,5832,4598,12546,17775,599,264,9735,667,18363,8769,13103,19070,5265,1572,5276,14850,16846,12370,5864,12415,4236,7661,7464,13265,2255,15443,8302,2341,11352,12761,2936,9458,6646,17287,9299,13662,15897,235,17224,26,12057,8459,16220,2876,3531,17098,19781,4920,4306,14667,6891,6673,3935,4616,10974,10629,5730,17480,5576,13205,18359,258,8578,359,2485,15522,13535,907,9636,19031,6572,8463,1384,12485,7671,150,5056,1096,13368,19896,13061,13429,1818,15670,7130,20267,16870,1105,16041,5766,12152,4822,13192,18459,20283,12881,9859,2173,20215,10549,12641,13397,19490,10603,18605,3416,15575,16544,3453,9223,18942,15384,19338,12363,11383,12614,16011,14138,3755,13711,7101,975,6254,3775,15985,15136,2528,17513,19555,10617,15702,5392,182,19459,11940,15396,6813,3253,989,7679,881,6796,18514,16909,15908,1215,3662,15408,4189,7247,11979,7818,2020,162,10465,9163,2057,1382,17233,17727,7008,19590,365,12619,3902,9866,2794,17629,14513,15201,15707,10449,18047,1667,7224,3196,6969,2225,11214,7311,12357,4608,2681,16125,15763,9861,9268,1406,19145,19416,12762,18433,1939,16468,16165,16547,8254,1025,824,1983,7455,10864,11475,3754,15188,12229,18421,4198,17023,10084,19475,10937,6607,3945,15899,10659,18736,3337,6630,1802,9924,6762,11190,11853,18349,9660,18611,4498,14597,3701,12955,4596,4561,20489,14989,9722,1283,19178,9054,14645,12658,4425,13755,14775,13810,9750,9106,15034,17560,17570,10702,119,3339,2633,6397,12016,10794,15782,10483,16364,4942,4605,7214,5776,1517,6748,15103,14904,13248,888,4960,2254,15559,14954,16158,11529,18752,15304,14307,13298,3988,14709,12459,6827,10456,3132,8146,20181,7164,19290,17533,8835,12965,10254,16989,20323,2506,16644,2410,19701,10881,7327,15303,4766,4701,12931,15032,20195,5164,13406,7981,187,7774,9894,2742,1002,11975,541,4186,10697,15366,10053,16288,7496,19581,1917,13172,10612,320,7044,12552,11943,14492,233,3794,20268,8591,19919,7832,5281,11431,946,10730,6975,11929,8633,6022,18117,2772,17471,5211,4587,13749,13062,2880,100,6324,5299,8749,6261,19782,13907,5578,18691,17344,18768,7719,2400,402,7769,17074,11588,7498,6467,11503,862,8539,4982,3928,10170,2032,1018,7718,19443,499,17960,5058,17298,20208,17969,18347,1116,6165,13532,7941,15819,67,2983,12937,7935,6526,11541,6627,19221,6513,7397,6216,8427,14210,14671,6116,10810,5127,8747,14187,16494,3857,6653,8638,18387,4543,86,15274,10953,10257,9208,11992,875,9535,15206,6592,493,20414,11745,3843,4489,13609,5315,17808,9863,5405,3611,6815,4842,3418,17013,2532,825,7146,4136,2580,2243,4820,6870,6507,10624,8203,5919,4817,18847,18726,17378,8334,12514,14258,18287,1782,8111,816,13036,2538,759,17115,13364,18364,7788,7337,11551,10647,17687,1289,17755,3023,2426,238,1060,15253,5165,13465,3877,2244,12175,10770,15945,7144,20240,10132,14893,8022,1169,4615,1708,18590,16732,5822,20152,5347,6222,11355,19817,2103,16711,12919,3915,16810,19519,5771,7625,4406,1222,5162,17589,18801,15397,11399,14686,15692,17677,5861,3524,9190,1862,11938,5415,11624,10986,6502,188,8096,11256,16328,909,5321,19840,10315,11954,19848,4520,3513,464,9979,12354,5468,11241,4542,6832,9724,12739,9916,12334,17745,10058,5551,16712,13651,17399,8494,5,18252,20565,13978,6458,15134,18163,8331,6808,11442,7252,1422,11544,10380,18619,4297,3214,3133,4202,112,8655,17145,12000,674,16413,10557,3423,4961,17621,9171,7683,1380,5101,11480,15211,13548,85,2140,5079,8367,14250,7911,845,19869,12615,14677,13463,13663,13930,7966,2571,3594,12811,12084,9351,18342,13946,14374,2679,15351,13087,15355,11751,16771,1124,11981,6286,9087,14730,14348,20093,5316,20019,17158,9088,10119,7477,4663,16046,8048,5002,11863,18291,7820,18165,11854,16432,19351,17045,17671,10966,6053,10713,19786,3040,3912,5222,2678,19674,18313,8421,13913,13899,4955,3582,2810,12180,626,20143,11369,987,17118,19768,6377,7364,9327,4990,16447,10675,14367,9240,476,11978,4090,4379,15174,9018,7777,13288,15759,14125,8353,6535,20282,18556,8833,5340,20060,18257,1723,10531,6260,12063,8792,15328,9990,11325,9653,1239,16605,20217,18112,19405,19502,14363,456,2606,8614,13666,2789,13737,12185,5956,18539,17853,16689,3632,14180,8635,6246,19651,14832,6109,2293,10387,18272,16486,786,8579,16659,6804,13675,8179,8967,3850,12524,10742,3137,16173,12154,11447,3454,6575,16533,2712,1192,19391,19990,10735,3889,13767,8662,17818,13904,18269,4735,5062,11537,3607,11288,7681,18247,15991,17338,19625,11339,4734,13340,5678,2707,8136,20559,8683,17530,10933,20325,1410,13387,17592,17779,5628,6491,4647,17680,134,10867,11598,18581,11608,14824,14718,387,5139,13419,13801,1913,12449,4862,9442,13007,2462,7998,1563,18588,1029,4554,12502,8105,17881,5829,10369,16055,11593,15404,5047,8089,19783,11684,7441,20313,9159,19225,17469,8103,15658,20564,16479,15237,14042,2969,9031,7200,12511,8258,13370,6099,12632,15451,394,5238,5012,17180,1503,12892,10000,19348,5193,8583,18472,16172,12516,2336,14934,3192,9132,14524,18377,15665,15983,11401,14179,10269,8355,3017,19089,18789,16024,2330,10308,3670,6887,10991,8086,18134,9433,15170,14026,4147,13000,14772,11976,406,19713,13757,12250,18510,2256,3156,13698,8226,16275,8748,7656,20332,3013,10511,2382,15004,9183,17193,2621,6689,6082,14660,5287,577,12127,2835,3561,5835,7811,503,13780,11152,20428,16069,13296,11882,8533,2443,4882,8702,18131,14437,14905,19931,7647,4456,4925,9224,19483,5923,3257,9751,10645,590,19509,6939,10208,16323,19230,9060,9816,5053,10044,12532,10458,20505,2075,19537,10140,17407,1547,20218,15050,4914,5189,12818,9662,19816,15265,10574,10861,11612,1299,2446,10670,4211,3727,16855,6239,8152,4483,7798,5457,87,13375,18413,10958,426,17981,7511,12718,8032,2589,5806,12391,981,4579,2487,8685,142,7077,13072,7447,9741,2263,1270,10385,14362,11174,15271,11068,17870,9250,8560,7908,1519,10292,7950,348,8610,12035,12714,1374,11360,1246,6281,12001,20198,8349,4756,13864,9259,18964,20017,2396,14620,645,6389,2167,5579,20162,1791,8352,8864,20079,10525,6448,5572,12588,10874,5812,17518,6858,5872,18344,572,8386,19437,16884,17833,1411,11175,20061,4430,1580,11516,18807,7905,16774,9815,17348,17939,14172,557,4355,8771,14763,13111,6964,18523,12369,9416,418,7665,17381,5048,9906,18487,15814,12087,19788,6771,17719,13552,20517,7899,1248,15260,17752,18564,8369,8898,20156,12121,13447,7525,12423,3934,15884,18653,13843,13880,3965,19998,18977,15146,19586,3218,12342,9099,15411,6134,14369,14707,9121,9520,12882,8009,7541,3972,15726,1602,13879,13200,15084,7282,10510,8840,12487,16115,19018,3003,329,7300,17015,8116,9577,4201,1698,12573,15266,13085,3147,17014,7014,1005,5518,4436,431,12088,5693,9493,15496,16511,18634,12384,19518,5207,5255,3667,19836,11654,15511,7317,7442,13624,12300,7096,20307,18071,15498,76,8572,1330,8926,560,5548,12276,18702,15117,18925,5451,8640,8937,9154,4221,4158,4636,682,2885,13388,5522,18092,16302,5744,12015,18312,13050,16914,2878,19152,6917,9131,4759,161,19845,18930,1388,3658,7757,3173,6249,11206,6791,4692,6130,18095,3655,18011,5774,9044,2535,6749,6344,6864,9478,19288,6342,5679,5980,1171,17417,13991,7319,12143,8197,2383,3562,2026,16164,3949,19507,19916,17092,10013,4992,10364,2609,16217,9178,9971,11205,1396,19325,13063,2250,13239,6519,3105,18846,9742,13,16812,10064,8656,331,13894,9582,13968,4162,7190,5045,1397,7114,16068,18501,9285,15245,10049,14337,13966,11750,4339,10357,18950,16250,2323,11605,4435,11157,3736,14217,3165,20073,4232,2339,7572,7770,5345,567,18868,5051,9325,950,16329,17847,2761,4618,7332,3032,4689,1390,16560,19703,5603,6320,10849,2307,3365,15220,2371,13287,7639,12061,15029,5075,15946,19750,8876,8229,17893,8828,14696,20235,1882,14828,14389,8445,1947,10852,19795,6540,2856,19420,18397,9475,14993,8190,17519,11766,17922,5655,17546,14058,5898,19574,436,2338,12168,6888,13083,14717,18170,20239,16396,7428,6677,19918,12544,2397,106,1745,5168,19925,11674,18356,1804,15031,14595,20588,1162,16394,16673,11269,13437,10277,4380,3222,19740,15311,19563,15069,1107,6232,3985,15916,9339,11535,8305,6456,2696,1774,12850,11362,14728,13714,7456,1322,16660,20174,10362,20054,2653,12455,2314,7285,1746,10936,14948,14207,2638,11656,683,1219,4575,19561,16314,11814,10657,11774,2066,3723,501,10543,1737,9288,11292,13126,3591,17405,2489,7912,14652,13059,12860,9405,4778,16481,9304,12884,159,17651,3527,4004,1200,3419,15491,3856,17317,7335,8174,18690,6784,16345,1278,16233,4130,3628,8299,3029,2511,13620,522,14044,1133,7,3927,7723,8637,1035,5677,9521,1344,3088,20077,17208,12344,18468,6876,4301,6156,3492,14803,8791,8186,1303,9630,7082,5156,19710,19841,16080,853,782,19323,13576,12251,11726,8602,17988,1267,8922,17257,9167,6372,12021,19609,8300,576,13325,5410,14995,8672,16943,3189,18369,17069,16446,13026,14699,4455,1075,12800,4150,17656,19268,11740,3849,12528,1245,2370,8501,17436,10326,10060,9670,19633,17346,15139,6951,3975,8314,7174,17395,3563,1307,5341,15230,4260,4049,1148,10175,13813,165,15612,9627,16228,12442,5565,528,17850,20287,12371,3220,2077,2611,5203,15126,11074,18687,1587,15981,20387,19688,18744,977,9294,1978,7827,18749,4036,2408,3790,7913,19865,11487,11429,17913,2846,20472,14690,18455,17737,4567,6085,12508,19125,19241,12386,4127,12879,17683,6325,4744,16705,10599,2302,12355,13840,20242,7510,19297,921,18254,18073,19927,12821,19707,1747,17763,11994,7245,19874,10638,12341,15150,3891,18600,10324,13570,12003,11625,16079,4029,3096,19267,2099,3259,5946,6733,13928,2568,10808,6522,16710,5582,4658,8648,15747,13541,7483,15915,14866,3752,9826,19281,2720,7004,2319,12633,9989,14767,10354,9881,16466,4884,15210,1678,265,20223,5558,42,9074,4275,9139,5099,2132,1112,9788,14525,18106,3815,15475,6902,12870,18781,11151,9093,8778,19887,14383,13315,6106,1691,6944,5544,6075,10855,13069,5484,14409,15787,20103,13601,9631,8321,5068,18512,6414,9681,11432,1194,3693,19859,5818,14154,3349,852,13863,11221,8773,12832,10398,12895,3939,14305,9889,17421,7688,14188,16267,14148,2727,16278,7377,11723,11433,14216,2327,20476,480,12940,6388,16557,11969,10361,7518,2420,17492,17303,18773,18701,252,13075,9378,18852,12634,15963,5496,12651,492,17214,8834,16512,13031,7791,6924,11711,3644,4180,4720,378,827,13630,11528,11574,14416,12285,1294,8247,14158,619,3758,7098,6752,3208,17140,5442,12848,7116,4619,12128,19823,5201,1922,19371,16940,17967,17269,5080,13303,19934,9253,508,18424,20433,2521,18144,9367,1431,14795,15574,15249,10595,4287,16388,13366,11517,16745,5429,17179,10793,7076,10171,13204,9073,5962,3194,17000,16529,17885,20360,16307,16101,10758,8446,14029,16067,14906,19300,17711,18926,4062,17030,5555,19739,4640,1632,11329,6739,8199,730,18711,18481,15774,19337,18978,8921,9436,54,10197,19322,11641,19047,374,6477,8148,10444,17106,19128,12969,11857,11772,18130,8340,4204,15676,18177,17675,16053,6868,2631,763,2629,4405,17109,17734,17593,4035,19742,2602,10021,13514,20016,10822,7249,8308,8495,6855,7278,18719,13945,14262,15877,8528,6754,14394,19477,18343,14796,6471,17510,8496,20118,1787,20403,19003,3530,19151,14070,3362,19487,15845,940,10431,5556,7643,20109,1865,18271,5030,3122,13715,11584,15614,19620,1172,2509,14637,314,7793,7931,11182,3414,4509,18339,2134,14202,15679,6231,1185,386,15085,1652,5536,8861,9890,6554,10943,12217,9137,4855,9094,16120,14119,7486,12788,5304,4010,14464,8877,6258,18244,15587,19861,19995,1423,7651,3143,11197,19111,663,19425,8651,16604,16186,13372,164,17424,15646,9836,5798,3834,11193,4630,1257,11663,6427,18204,13193,12534,4823,19025,10056,12499,7996,11253,8222,16963,4727,11601,19833,3212,8311,3456,1794,16964,12742,6074,7751,5118,6044,8188,13599,1204,11913,1996,6798,8363,17254,13441,3491,19911,16180,6391,17867,3158,3336,20590,3345,1968,8429,13440,17389,14346,11030,19373,15060,328,3910,12120,16078,3890,9904,19979,17666,7958,6411,18135,18961,48,19468,12564,6015,9245,13153,1466,9925,2725,11219,10885,17270,15299,4484,19256,58,8716,16380,9249,9720,4872,15123,2072,15033,12018,14580,5006,2488,6050,986,1659,9518,18608,7356,18576,17029,10669,19117,12099,10619,14649,2529,2953,17363,11267,14224,925,15994,2143,14789,20585,14326,2110,8647,72,12383,8913,14769,19776,18819,14729,6508,3381,15179,3083,5710,18174,17369,2883,19634,4999,11907,9530,14783,5223,4574,20322,19090,13973,10141,13530,7162,5605,12968,10678,6295,20225,19412,18179,13911,216,5699,1593,4145,14226,10291,719,3626,4503,13266,18645,2581,13275,1526,259,20506,17722,452,13518,2257,16450,11805,6423,7490,14662,10160,12628,4022,20053,19901,19967,11991,16645,11387,7948,8730,17623,8125,6955,1458,7878,8889,1343,12051,15272,14308,4621,1292,16801,2866,16285,2907,14159,18479,9665,19480,13748,14845,14785,5593,13312,11678,9385,5352,9858,15592,5443,1958,1106,10468,5764,14663,8256,18169,4320,13019,10830,5202,10264,618,4182,5959,16034,12292,12571,11648,2751,11587,3786,291,12125,15049,6881,3537,2236,6663,19826,7491,19559,18808,16036,9853,18494,3954,12926,6111,10831,6424,15168,14222,5920,8902,1188,10304,12470,7599,2917,15725,19535,10470,7398,18235,5001,19124,20184,9691,4254,467,2680,3933,15754,7543,9624,20108,17542,10406,2122,307,12741,12421,6086,17659,3130,2515,3374,18803,3124,3404,7978,7153,7360,12702,2853,13125,9406,1155,13158,20499,15607,3762,8624,6524,8546,11308,2942,14653,17072,6180,13226,20581,15468,14239,6931,7104,12332,18982,11657,13229,7350,3863,4633,14856,10303,6559,5470,7582,5249,12972,20221,13272,13357,5453,19091,17134,9687,17212,16028,5868,17807,3654,15841,19796,9611,9796,8428,3079,3058,6455,17032,12843,15765,6405,5989,4075,1772,13409,16581,4175,17986,4931,13078,9198,17430,9124,11755,13475,15645,14479,3436,12261,10039,4417,18358,3084,18374,392,10105,3315,12286,18915,9411,552,7974,1470,15852,15797,5267,19601,8768,13218,9926,20127,17674,17418,5757,17262,2816,13735,13860,3648,5884,19886,19549,10276,9279,11689,8657,13886,18172,10665,9274,19525,784,12923,3997,19199,15401,3593,5595,17552,4533,12495,16342,8782,1191,14909,11946,4397,19920,9326,4614,20119,14836,1790,14500,1090,10540,19497,281,7362,6839,1665,13998,16438,16549,14452,2351,20316,4760,16559,3434,16515,12219,709,12816,8080,18067,9995,14838,12696,7690,4660,17195,16918,12054,17236,5971,12079,9004,18966,19530,20138,5046,7749,11488,5404,2162,10104,10598,3871,13622,3968,14790,13704,8324,3695,698,12549,19843,4949,5794,9511,4861,19292,17152,1973,19729,7230,13660,9142,818,2896,2369,4687,4695,16911,9887,19394,19229,4028,11136,5134,12831,487,12915,14343,15484,11366,6550,19599,1992,398,13241,14540,4121,18136,13629,18014,6875,2564,1843,4197,4080,8221,11764,15576,8692,4710,13321,9485,16297,18103,1841,15082,15744,14529,2996,9808,8366,9506,9361,263,15779,6205,867,12684,4593,5482,17992,19381,13842,2172,9332,296,19092,5719,8514,1418,8118,18350,6903,4889,8805,1718,7934,18498,2468,19582,15537,14265,14335,4194,9330,15305,3854,15486,18616,4813,3216,3005,16907,15041,11110,3262,14323,15380,9168,10913,1241,7242,8515,11548,5376,18300,12986,18706,17614,13449,6333,9902,19907,3688,10588,18929,5824,7240,7040,5112,10887,10302,6263,11109,18779,12241,75,7984,3971,11869,13827,2230,4352,12283,8230,1495,276,15455,19386,3290,6819,16282,17832,14457,477,12434,20375,255,16994,9169,17920,8129,18082,17774,16189,19096,808,3417,12315,2886,2607,6497,10336,7032,17196,10544,20532,4916,3865,9908,11924,17101,3528,20081,5264,963,17121,19157,16861,9456,18909,10782,16411,2313,933,19649,11036,1370,8726,7068,19959,4178,9807,17354,17384,4627,7437,561,4591,5614,12373,1130,16784,9746,1206,9105,6802,20496,12829,16770,9545,13818,4572,138,2804,12199,562,8875,14407,15998,300,9092,543,3511,16621,3818,15088,8789,15795,6027,13611,3407,13025,13555,20026,17365,14599,2476,13215,18218,15107,11247,2365,972,11230,9834,13866,7640,15392,11571,8323,19690,4076,4555,611,16602,8460,14280,9519,4769,7805,16423,15151,4805,8612,15855,12898,12489,10378,17798,2943,10834,9439,9449,4328,8481,18572,7780,8915,18862,57,593,16399,20212,9181,5786,4629,10551,7576,15695,17778,15072,10317,8880,13800,7250,8348,13885,9993,7373,6064,20385,1969,16763,7331,6651,9585,15024,7459,1874,10124,20400,2610,1807,12333,17653,10982,3413,12456,6417,9963,16349,12854,15306,687,6084,11819,15969,1866,3766,12522,11527,20289,7375,15589,17356,18099,5662,8120,11391,9390,3021,6271,15432,18722,16422,8891,5653,5550,472,18489,15309,17479,3542,11289,6038,14870,15133,6916,5514,6196,1067,1609,6578,10162,11824,3334,5981,14573,15762,1376,14381,16615,12214,553,8044,14737,2830,8959,1884,6691,6357,1119,7597,1582,10787,6206,11078,7826,9639,2956,5780,13679,20503,3213,13203,10372,10628,14557,9976,17854,3391,14064,17037,6131,19704,5027,8690,7184,18811,9841,18680,1681,20493,17308,7042,3467,15699,1164,2349,19000,20163,7652,17715,17678,9799,10704,7515,18346,12845,8801,12237,9999,5512,9424,18212,18018,5367,9628,18256,18323,13669,4006,7710,14186,4764,6153,1811,14907,3741,3544,19792,9731,1725,17055,4712,12780,2227,7637,20096,19753,8145,338,5924,17468,10783,13183,4479,1338,3962,10577,12533,15934,6285,3000,3781,15282,15043,9329,5330,9590,7834,15190,1976,17464,19793,2352,2854,5388,19726,10025,297,15513,10856,219,17423,12012,12756,15348,16910,11575,18164,7385,12457,9267,17597,509,78,9793,17255,8043,8456,10231,3753,14198,3448,16106,5531,19419,7944,8712,7536,11184,11176,6950,10274,14151,5889,1357,5647,9123,9001,12920,1579,20278,15000,7816,9814,7020,13455,7168,3274,4550,12253,19974,7294,11386,12526,9828,3142,12797,12987,6265,11057,13771,5671,3369,17498,19176,15424,8154,1247,16207,8200,11266,4222,1189,15688,7457,3280,13696,2542,19385,18806,12941,20165,8397,16612,16048,18775,16495,15095,8543,16521,6288,16084,9143,16131,17474,8286,3473,970,4363,13089,13467,16203,14289,17489,9597,12359,12411,13442,13677,3366,18055,13008,13841,8063,15800,20544,3569,13371,11138,17171,18208,609,10184,16667,15494,8509,2472,13345,12985,11642,15602,9353,18211,2130,14754,1505,12040,18094,11285,7223,15205,4500,16475,6934,8333,8622,17320,4747,17572,6812,17089,16807,16852,5035,13051,19213,7936,10475,2643,16948,178,2353,4421,8698,16491,4854,999,20302,4600,591,13989,4081,11121,275,14887,8307,5036,20154,19851,769,498,16697,16587,1803,8935,2724,7539,18695,9961,4590,8015,9752,15691,11617,15801,20177,4845,1233,17186,12960,19319,10495,4495,7013,3809,5838,18829,11328,17541,16522,11300,3264,8625,1207,18348,7462,13184,18069,18403,11195,5690,13809,13233,18465,5275,6306,14163,5859,17802,10765,15499,20209,2721,12247,15669,1709,13942,12358,7338,10496,15068,10345,16600,15836,10196,7789,18582,13505,8549,4226,18181,14953,11146,5302,10142,7145,9727,8291,18503,11620,16766,5105,17628,3845,9528,5529,14423,848,19700,13889,11864,14917,10656,18087,2513,18866,18729,17916,4369,17668,10092,2333,9974,3783,6319,1427,9127,16018,11749,2698,18956,18036,7962,16666,5369,15189,12356,624,8088,8947,7178,19868,15171,8462,15229,17088,14350,2927,9502,19542,16862,15864,14536,8025,9537,1342,20580,6735,19679,3587,4565,18307,10584,11545,14120,9068,12957,11363,9170,13807,4655,16767,5723,10005,18767,7451,20210,14837,19638,15217,14246,6410,15952,1091,14360,4954,17213,3309,11140,6379,20182,16782,12048,9784,11010,19340,18738,13764,5109,12158,15162,12196,326,14591,5949,3184,17937,254,17439,10918,14253,20377,10975,20327,2893,11448,12417,18766,17556,8426,5604,15529,7861,12284,16480,13632,681,10534,13133,7109,18973,18013,19015,11444,18372,208,17810,11370,15757,924,5787,12861,20471,6534,8053,7580,9929,8245,19237,16312,19754,4799,18780,13738,19716,19284,3289,12889,4959,7954,10220,3508,7745,6122,127,20556,3185,11076,11569,2368,10080,14791,20012,13909,17252,19578,14504,12750,15383,20458,7917,16299,1154,19355,13970,9266,16756,5433,20189,1509,16915,15497,11706,4648,4307,11398,4024,2211,2495,4332,12789,18326,2466,9363,9480,17099,891,5708,9549,11885,14503,12595,20370,15741,15540,15065,11381,16183,5792,7895,14928,470,12591,3830,13618,8251,20090,993,5775,18410,18517,1038,3501,10984,6329,11361,4378,11039,7111,17525,7680,13581,15583,13941,18205,12847,2269,16930,8435,791,11217,18361,4708,4347,10297,4263,3963,7575,4392,18727,12077,10083,8576,13974,1070,2776,10295,4146,1673,19589,16848,3059,19061,8263,4163,9928,15895,9738,3426,15767,11675,12656,10869,227,14365,1451,16257,10623,14895,1319,288,6598,17223,1738,14759,15385,5983,6641,13337,7533,18030,18419,12932,15356,9748,19912,14627,15615,1128,15377,18495,14961,17437,5773,12190,3048,19093,17386,3679,12654,9091,13098,10414,1600,658,12403,18751,2116,20130,3053,5434,5820,4577,17664,4018,9066,15393,7372,1110,7709,6207,14879,163,4428,14942,10545,7198,8595,3886,19442,14890,1126,6843,4798,15873,7891,11519,2894,995,16926,13993,15118,5166,4846,10192,2818,11951,4683,17801,2660,3631,6048,15944,12151,2385,14155,19418,11524,4055,2615,8013,15904,79,20318,12452,12590,8707,5356,17077,9045,18305,6727,6778,18716,569,4207,10272,14147,1147,5089,717,16221,6495,11953,15770,10912,3835,11330,7342,12978,15912,8644,3549,16317,1367,5108,13439,14666,13012,19266,6742,10314,2161,18660,9141,688,15129,17362,18949,7183,8119,199,5709,11577,6275]}