{"architecture":[["Dense",[4,20]],["Dense",[20,20]],["Dense",[20,20]],["Dense",[20,20]],["Dense",[20,20]]],"Node_Indices":[90,22,49,26,85,70,56,74,98,72],"weights":[[[2.4816246,1.1188887,-1.4451357,2.8437796,1.2639376,2.1344812,0.33385697,0.8910589,-0.7678352,-0.5715577,-2.0811229,1.0800214,-0.6906314,-1.7342907,1.9609387,-0.38075033,3.1425214,2.098569,-1.8980277,-2.2878265],[-0.55579793,-0.42093867,-0.68930334,-0.8828398,0.40853208,0.68621176,-0.84423107,0.6156865,0.09356068,-0.5469763,0.22326891,0.72264236,-0.675119,1.054947,0.35775065,-0.36408857,1.3161356,0.6501726,-0.5872085,0.86799693],[-0.9613957,-1.2519779,-1.1413661,-1.1434019,0.16396831,-0.72656643,2.4852543,4.203895,2.2867174,-1.1563075,3.0512524,-0.84162664,-0.3566505,2.640643,-0.6428526,0.6694052,-1.7327952,-1.5062176,-2.3546252,2.312971],[0.68318117,-0.39082745,1.0800582,-0.47986117,0.34263757,0.8210592,-1.0362198,0.02797632,-0.29796448,-0.682065,0.39167255,0.34944466,-0.16490209,0.3546924,0.36298722,0.06450232,1.2690384,0.055177808,-0.27984866,1.1733443]],[[-0.40959796,-0.231972,-0.28783816,-0.38498676,-0.018134505,0.12274778,0.059426133,0.09784529,0.4371953,0.40964514,-0.19552685,0.0138766,0.012281288,0.013678999,-0.010908818,-0.079481855,0.8157777,0.65568954,-0.3553092,0.09856042],[-0.2901865,-0.27258936,-0.15820713,-0.32028362,0.11753472,-0.18970007,-0.014083951,0.42071316,0.22520867,0.054200184,-0.09995197,0.12277157,-0.10658187,-0.03592071,-0.1928386,0.23001145,0.6571684,-0.13043399,-0.036155853,-0.10755727],[0.40921342,-0.45355144,0.14553495,-0.0064209923,-0.10829743,-0.42314813,-0.008223469,-0.16856234,-0.27100495,-0.22237012,-0.0019176828,0.24489605,-0.52627057,0.11333686,-0.38927075,-0.27686125,0.1616797,-0.77257496,-0.4252529,-0.32804933],[0.14294712,0.11158109,-0.30432388,-0.45500535,0.1866965,-0.33625278,-0.07974413,0.16326863,-0.15776616,0.5746508,0.19044963,0.19323969,-0.34113833,0.4234683,-0.07827132,0.5249559,1.2034255,0.48280218,-0.094678625,-0.009016882],[0.362908,-0.3050454,0.3232397,-0.16323827,0.14363639,-0.05674707,-0.14034334,0.08023025,0.29971924,0.31574532,-0.047827743,-0.23406187,0.5366027,-0.22714634,-0.4768198,0.25192776,0.22051911,0.36177507,-0.46903536,0.24759547],[-0.0031034236,0.15356255,-0.14862256,-0.46974882,0.14187206,-0.3250846,0.17010118,0.5465355,0.3032161,0.21156518,-0.037329942,-0.14428748,0.59371966,0.13029663,-0.25048113,0.32837507,0.82870036,0.4450668,-0.3049531,-0.13170923],[0.36961985,0.40651935,-0.02642761,-0.3495122,0.19968694,0.26514524,-0.34306532,-0.44577911,0.5755731,-0.2780267,0.7356509,-0.36682123,0.0022117142,-0.3007783,0.07909731,0.114848055,-0.22145928,0.12314613,-0.0387546,-0.4189292],[0.508668,0.26179126,0.17787722,-0.029335508,0.2641455,-0.28348887,-0.49735385,0.23130073,0.47517523,0.13917857,0.6480771,0.1105255,0.47623628,-0.12063433,-0.18207376,-0.34410495,-0.3422417,0.005147082,-0.21260987,-0.10936267],[0.38907945,0.32069162,-0.10712622,-0.494514,0.12059537,-0.028282039,-0.049991276,-0.42951426,0.3371485,0.08457203,0.33345205,-0.12786044,-0.19132619,-0.159044,0.3059263,-0.35025892,-0.42393687,-0.30309704,0.2270755,-0.19300975],[0.23351513,0.19326022,-0.31550574,-0.20151831,-0.41543585,-0.1077462,0.34406742,0.6803247,-0.3280176,-0.3538577,0.22705181,0.093327366,-0.4093324,-0.26726136,0.08301969,0.42997542,0.20828491,-0.4084665,0.03919713,-0.41902637],[0.44369552,0.19138633,0.19057555,-0.4780734,-0.27926317,0.28710344,-0.5445796,-0.6849449,0.7798196,-0.5773252,-0.17445362,-0.2856847,-0.33780056,-0.46068108,0.3543918,-0.16222619,-0.9010148,-0.2527342,-0.13215472,0.19903775],[0.025026342,0.30858,0.37708953,-0.18089207,0.30432907,-0.43382338,-0.41407794,0.78620493,-0.076070756,0.021500764,0.06535666,0.24717575,-0.21900186,0.22949338,-0.02906964,0.43540993,0.08344653,-0.016228741,0.14279753,-0.22677642],[0.39653853,-0.25774437,-0.020790337,-0.26674256,-0.2875679,-0.235611,-0.2080543,-0.025868092,0.016703825,-0.16526309,-0.11141896,0.35475245,-0.351341,0.249653,-0.013613122,-0.19389936,0.45236832,-0.5100036,0.15797539,0.27950236],[0.5389517,-0.14178202,0.37030533,-0.22277053,0.092141695,0.277251,0.10816175,-0.36895683,0.14897941,-0.7246239,0.089978166,-0.48528665,0.15629122,-0.27008504,-0.036874246,-0.13008241,-0.7786209,-0.5611134,-0.34926572,-0.24415971],[-0.3589437,-0.37015682,-0.09607026,0.13790296,0.16507766,-0.35189912,-0.20088154,0.53714746,0.27174258,0.010651108,0.02498248,0.29189792,0.35309637,0.14567992,0.19780795,-0.1594837,0.56712615,0.4798712,0.006404558,-0.47506812],[0.32392725,-0.1317024,-0.08412417,0.0161479,0.048031118,-0.061115243,-0.035730626,0.0033773314,0.011283304,-0.20564714,0.36026314,0.028667388,-0.056448653,0.3577338,-0.06459061,-0.10628951,0.12496516,-0.39361605,-0.11067405,-0.40438816],[-0.43493038,0.02408794,0.13206807,-0.058180973,0.44984198,0.011300384,-0.16684379,0.8861478,-0.39859042,0.55967903,-0.43012944,0.30936524,0.4240113,0.22771661,-0.08594395,0.11614312,0.844831,0.81807846,0.21121839,-0.2013636],[0.32282624,0.046773568,-0.3179121,-0.24945675,-0.009570241,-0.2943181,-0.32474354,0.58727014,-0.5406881,0.2777068,-0.094202,-0.059664972,0.35368976,0.09631647,-0.3851031,0.258472,0.61220473,0.39890426,0.23601325,0.14560968],[0.14498721,-0.26559493,-0.08479433,-0.0559743,-0.4172043,-0.2045694,-0.17861424,0.4769244,-0.4375623,-0.45449722,0.033517092,0.34623146,-0.4199819,-0.051787622,-0.12739351,-0.18071373,0.153548,-0.54295945,-0.48228896,0.041585412],[0.46556938,0.13011397,-0.012988225,0.16964924,-0.48402444,-0.15386744,-0.23751205,-0.36704344,0.38399222,-0.5076462,0.0450604,0.09372129,-0.17020237,-0.1445277,-0.31262457,-0.4508399,-0.9603695,-0.57421243,0.02625956,-0.33386523]],[[-0.35538656,0.042521402,-0.19685616,0.1096766,-0.023347175,0.2310679,-0.3267636,-0.23567039,-0.1386474,0.62004757,0.10105485,0.04575358,0.5431728,-0.31885606,-0.22101697,-0.0021956179,-0.27932513,-0.56043315,0.120576106,0.07858226],[-0.25070557,-0.23452348,-0.09441031,0.05018084,-0.09656633,0.22237127,0.3413038,0.15969892,0.0031847325,0.059761345,0.31272548,0.024609284,0.4932054,0.08262102,0.31710804,-0.06093123,-0.12994306,-0.4106167,-0.09579589,-0.07063048],[-0.021382425,0.08793277,0.1164135,0.1696766,0.17527391,-0.19437216,-0.039339308,-0.44522005,-0.26141995,0.32789418,-0.00034224277,0.043434963,0.1866013,-0.07314556,-0.38113698,-0.13132912,-0.034294404,-0.43297318,0.13548282,0.0017525554],[0.36558425,0.056851957,0.31621054,0.4302743,-0.11994562,0.15474065,-0.30244178,-0.08680211,0.28419366,-0.3318763,0.18683153,-0.11147421,-0.16769044,-0.2968361,0.04082669,-0.2651002,-0.28568864,0.09656015,-0.08069481,-0.25697482],[-0.3477716,0.17898907,-0.075936876,0.23905136,0.26002195,0.28190842,0.19148627,-0.13670778,0.2202919,-0.387551,-0.18124077,-0.35597718,0.033197355,-0.46472386,0.31907094,-0.28502405,-0.32653943,0.1693707,-0.037085608,-0.31509414],[-0.38804168,-0.114062175,-0.20201185,0.056201063,0.17942904,0.24861889,0.028367959,-0.04662598,0.27623832,-0.2554792,0.34172294,-0.21218763,0.20583883,-0.15260027,0.066487566,0.2921297,-0.39810583,-0.1465175,-0.006249077,0.24528815],[-0.14267153,0.07445448,-0.042619597,-0.26848018,0.0063757077,0.01664459,0.36922747,-0.098476805,-0.37100586,-0.32757315,-0.19677554,0.27681535,-0.2487487,-0.12921223,0.22915387,-0.112359755,-0.22566539,-0.25020295,0.33236453,-0.007046349],[-0.1797124,-0.26167488,0.19193886,-0.3520874,-0.08754874,0.1156548,-0.029514126,-0.034119282,-0.2637683,-0.6420278,-0.66698444,-0.17634284,-0.644317,0.1729784,-0.13643922,-0.33110797,0.18833178,0.44721222,0.39065224,-0.2058635],[-0.29955825,-0.014828287,-0.25191003,0.23682731,0.045720864,-0.03987375,-0.015905676,-0.22264676,-0.18752465,0.092798896,0.47384647,-0.4418312,0.442844,-0.26487103,-0.092022486,-0.3069056,-0.39520457,0.04364571,-0.11739223,-0.39798555],[0.41497594,0.46906164,0.021421788,-0.1474278,-0.086112686,0.06007253,0.12904157,-0.16313864,-0.029945822,0.1535557,-0.26904666,-0.18443514,-0.5649862,0.39675537,0.36423934,0.31912348,0.1576265,0.41692755,-0.31958675,-0.19832286],[-0.17852928,-0.028408168,-0.26564175,-0.19688278,0.30524614,-0.24691297,-0.05854466,-0.23618867,0.010019016,0.1700566,0.15546045,0.095126696,0.39386484,-0.48182824,-0.36923742,-0.19288939,-0.3474419,-0.0012935626,0.34386772,-0.16684753],[-0.2711152,0.101090945,0.26248953,0.17541288,-0.06622713,-0.19362986,0.26117635,0.070588775,0.012975505,0.18916571,-0.17249285,-0.12312471,-0.3543506,0.009478172,-0.12646969,-0.01474741,0.07754287,-0.34462997,0.30738825,-0.24648286],[0.32355788,-0.43425694,-0.12908907,-0.19304787,0.18694593,-0.34291798,0.14103194,-0.08074553,-0.30670077,-0.65572643,0.120704584,-0.3207917,0.15952374,0.042939153,0.34506163,0.18515056,-0.31867507,0.28199497,0.33721372,0.010129941],[0.18763895,-0.037713192,0.22642337,-0.24614614,-0.038251102,-0.4316638,0.3580028,-0.10424451,0.4154071,-0.3180401,0.16590688,-0.3846945,-0.39786622,-0.07772106,0.23428258,-0.08857718,0.14974083,0.084859475,0.11676312,0.24374115],[-0.0821562,-0.1153822,0.052412733,0.25371417,-0.108095124,-0.19158709,-0.15309665,0.11467648,0.3455193,0.16977519,0.26392138,0.09758158,0.13137026,-0.02196761,0.06110215,0.24460939,-0.2546604,0.36023703,-0.056907296,0.030170314],[0.044277802,0.048646774,-0.1850349,0.29036522,0.07615369,0.012528813,0.17827915,-0.23608662,0.44251463,-0.22843751,-0.14063776,-0.15856329,-0.44846207,0.44170442,-0.18424419,0.18664509,-0.30225995,0.08007073,0.23605676,-0.32897604],[0.20231375,0.50468385,-0.1753294,-0.21840857,-0.24874282,-0.32965827,0.37915534,-0.035199597,0.18927257,-0.3685305,-0.74031705,-0.09255666,-0.80976164,0.2740484,0.39285418,0.25890166,0.05558681,0.52935374,-0.29367924,0.13026299],[0.002182928,-0.0927118,-0.027970519,0.5525566,-0.06395008,-0.30430982,-0.009200688,-0.44684502,0.10728685,0.023081124,-0.20778452,0.26817757,-0.064551584,-0.21454011,-0.2914282,0.025593456,-0.37045518,0.8533346,-0.60606015,-0.093843676],[0.08845525,-0.17973265,-0.16976085,0.22057188,-0.17033939,0.100572005,-0.1428512,-0.23739885,-0.009550491,0.031508885,-0.19180714,0.096660994,0.14144717,0.15898609,0.17283191,0.078199394,-0.41458988,0.05040716,0.08438188,-0.124902345],[0.4054625,-0.06058195,-0.14857635,-0.23738056,0.1676865,0.10215789,-0.29983428,-0.17907551,0.19194193,-0.18200146,0.26196894,0.0882265,-0.33854908,-0.46875814,-0.22780164,-0.065307945,0.03401382,0.28163856,0.18261687,0.0787083]],[[0.026027016,0.15324628,-0.40796098,0.1690099,-0.034879923,0.22621255,0.2773232,0.16409166,-0.050736982,-0.33602953,0.10714987,-0.108969234,-0.15707728,-0.15053804,-0.16908593,0.4360702,-0.37487796,0.21723256,-0.2260418,-0.25036246],[-0.3504604,-0.04343566,-0.31786972,-0.29905114,-0.20276594,0.15374692,-0.09706329,0.21228805,-0.17039631,0.11742209,-0.038457196,0.3541061,-0.07364443,-0.48627234,-0.10177576,0.16601871,0.10443997,-0.11863643,0.10202786,-0.055315208],[0.1494071,-0.3531358,-0.42383924,0.34970933,-0.34131768,-0.13372482,0.06387591,0.33524472,0.277316,0.23956233,-0.0860133,0.4620409,-0.1369882,0.02939842,0.06533066,0.32141736,-0.27310923,0.40150318,-0.3905584,-0.13804752],[-0.1068574,0.18971835,-0.36773738,-0.14706485,0.07794911,-0.3447465,0.35641298,-0.06863987,-0.33131737,-0.46486446,-0.44819045,-0.25103673,-0.4515387,0.15395236,0.29931372,-0.0074915034,-0.37922478,0.07861713,-0.24655503,-0.40970263],[0.16145408,-0.1567362,-0.35218474,0.026054867,-0.25338176,-0.051152494,0.07610604,-0.2896816,0.0325674,0.18256417,-0.48765796,0.18268125,-0.14976582,-0.41994566,-0.20523874,0.12620844,-0.08439301,0.16723663,-0.010488562,-0.4566008],[-0.08983159,-0.2123046,-0.48005134,-0.09436667,-0.4737233,-0.25435835,-0.016216723,0.17536408,0.15124258,-0.057420533,-0.22641152,0.08722119,0.19023515,0.19268486,-0.053234886,-0.20415612,0.30158082,-0.33711398,0.16878352,0.07457195],[-0.1363171,-0.36499652,-0.4979981,-0.23947571,0.26047057,-0.0835323,0.1936895,-0.16029902,-0.048188966,0.09183408,0.008402914,-0.13549788,-0.2219281,-0.4089993,-0.16656151,-0.2661127,-0.42837384,-0.3837059,-0.51467454,-0.4435287],[0.052012265,-0.17426573,0.24866542,-0.15204658,0.041092556,0.0606299,-0.2336431,-0.1665762,-0.14759922,-0.11654735,0.13391927,0.15805233,0.17370202,-0.20376398,-0.19196776,0.27286983,0.20141274,-0.19336805,0.25421134,0.0017294461],[-0.07385065,-0.44953838,0.09613357,0.36664563,-0.40062088,0.21192864,-0.45531622,-0.12046949,-0.086049,0.13977952,-0.02522308,-0.14133124,-0.18452033,0.043208882,-0.33068472,0.37008733,0.21956177,-0.3420619,0.16535711,-0.28553566],[-0.41011938,-0.2660019,0.22904764,-0.44359756,-0.27609292,-0.31702876,0.0626204,-0.48265254,-0.17005748,0.08932732,-0.025668286,-0.42741662,0.22895533,-0.20893037,-0.015426948,-0.065172836,-0.33851367,-0.1304228,0.22332923,-0.09595065],[-0.78525335,-0.5316314,0.009955441,-0.43105325,-0.007970475,-0.10488741,-0.02776572,-0.2519546,0.22929461,-0.4351641,-0.35238227,-0.18173306,-0.113809764,0.19297665,-0.016883206,-0.19870777,0.23402165,0.08715945,-0.19813739,0.18016236],[0.14692983,0.0007601043,0.06201582,0.04729407,0.05161596,-0.2833287,0.2310978,0.22837938,-0.036384165,0.25557074,0.2831936,-0.1400969,-0.35440263,-0.46522367,-0.2686678,-0.14124843,0.24394357,0.236424,0.19252813,-0.36382696],[-1.2470734,0.02450318,0.2587322,0.2580041,0.11421826,0.15911858,-0.21266334,-0.098000415,-0.22834843,0.086611055,-0.08704161,0.17532583,0.059897438,-0.3453192,-0.10863841,-0.12767148,-0.29157472,0.015448781,-0.46161532,0.122486055],[-0.032549754,0.18287058,-0.30903023,0.03750289,0.22819956,0.4590326,0.2003081,0.18479052,-0.22078907,0.11186597,0.00923483,-0.122038506,0.12888667,0.23105161,-0.3739413,0.51205724,0.0956037,0.072148874,0.00073238974,0.21118435],[0.3309388,0.01978269,0.19605139,0.33921033,-0.32485753,0.29942927,-0.10766672,0.08706006,0.056045692,-0.2902135,-0.33901006,0.4594337,0.174474,-0.029460978,-0.13638203,0.3586372,0.15745953,-0.23483674,-0.39630133,0.06409968],[-0.28641325,-0.17673731,-0.30861545,-0.24540475,0.05282943,-0.14008887,-0.1439326,0.28183508,0.1182483,0.0063725626,-0.19678111,0.07169377,0.11973512,-0.48402202,-0.3704512,0.008386621,0.17150521,0.32989928,-0.07342018,-0.07825566],[-0.08808751,0.023172555,-0.28506777,0.4087121,0.2115766,-0.16833787,-0.06927688,0.51802,0.14552686,0.23015843,0.17283355,0.20138288,-0.1801971,-0.03744223,-0.22208714,0.41635737,0.07785965,-0.019374248,0.1341168,0.1152801],[-0.14570214,-0.43846545,-0.20318194,0.05784962,-0.103574306,-0.2736878,-0.13046172,-0.47804973,-0.075328305,-0.08422921,-0.33185434,-0.15979071,-0.015495305,-0.0023819404,-0.13722594,-0.23123153,-0.5969914,-0.106922746,-0.27741998,-0.2962717],[0.64302546,0.12568022,-0.110773355,0.10263287,-0.09074711,0.17271028,0.12366461,0.3333997,-0.2883734,-0.10325662,-0.2292345,-0.09415036,0.029069316,0.118292876,-0.3891654,0.3991824,0.24272199,-0.11404422,0.045155328,-0.41924536],[-0.06027425,-0.27630633,-0.17372517,-0.042365428,-0.37608218,0.31292638,-0.4872723,-0.07426857,-0.20786978,-0.2592818,0.1753471,0.13021381,-0.12588188,0.1281363,0.012085633,0.32246006,0.13521014,0.29724595,0.14473885,-0.12530795]],[[0.11268367,0.28461808,0.063336484,0.21638173,0.04556222,0.05229761,-0.017002054,0.13407007,0.13695668,0.23429373,-0.5316092,-0.9661671,-0.07684773,-0.32109362,-0.38417724,-0.2816632,-0.1810422,-0.29695126,-0.579024,-0.3819384],[-0.20313235,-0.2094095,0.16883554,0.050936326,-0.15416566,0.30272004,0.15094624,0.21845505,-0.028194685,0.39429173,0.13401605,0.39273518,0.26041746,-0.034535114,-0.058469024,-0.1621079,0.2684412,-0.16789243,0.3154167,0.021106714],[0.13911077,-0.09485327,-0.13088319,-0.12937161,0.37878597,-0.019519677,-0.28075662,0.3909094,0.21389364,0.033385422,-0.25065526,-0.29232252,0.010583222,0.27497962,0.26276857,-0.017272614,0.13707896,0.03277701,-0.27720773,0.07531864],[0.0661887,-0.32493716,0.31523457,0.35833228,-0.030058762,0.38019738,0.030151693,0.27184457,-0.09921782,0.09474597,0.07658648,0.2007422,-0.28524935,0.4174944,0.2933028,-0.0480134,0.37271345,0.21960211,0.14200157,0.12608774],[-0.2655773,0.052560724,-0.0276338,-0.07832416,0.08786594,0.14438252,0.021702847,0.13074875,-0.06911366,0.33017242,0.17893924,0.11874758,-0.071086325,-0.26510644,-0.24519832,0.4379317,-0.11586992,0.23400798,0.15832268,-0.19247502],[-0.2701363,0.4298604,0.40272784,-0.0992901,0.101271614,0.079812266,-0.0665615,-0.10959097,0.2881343,0.19398518,0.30647317,0.3179696,0.38372976,0.24708194,-0.19675191,0.04888477,0.25196627,0.21752433,0.027954638,0.24213177],[0.14510225,-0.057713065,0.18935429,-0.023507012,0.20224218,0.29391292,0.37060443,-0.039626826,0.2680378,0.13373144,0.038085863,-0.3058808,0.3052795,-0.026186071,-0.23368534,-0.039219074,0.07283803,-0.17446943,-0.10781032,0.29026434],[0.20881657,0.08989732,-0.20439547,-0.2394762,0.049344055,0.11175847,-0.21177383,-0.23125146,0.2776171,-0.1802531,-0.20469823,0.4538116,-0.29565397,0.20115146,0.23208572,0.42215186,0.08884035,0.35165906,0.18978706,0.25809765],[0.23529702,-0.2558111,-0.18957612,-0.25109088,0.19119231,0.420219,-0.025416147,0.2839995,0.24755596,-0.2972566,-0.25167888,0.28157353,-0.12743533,-0.29655793,0.12022494,-0.1794688,0.028549034,-0.0869897,-0.10736141,0.27181765],[0.054189958,0.16202725,0.42785776,0.29982814,0.15331548,-0.20599325,0.48056033,0.21287096,-0.2546229,0.42673036,-0.22189644,0.07071399,-0.2721909,-0.19138615,0.050982516,0.41994396,-0.20598091,0.073492855,0.30950847,-0.37418753],[-0.21173973,0.332329,0.014065705,-0.069149435,0.37527102,0.21537244,0.2242717,-0.15528625,0.029200181,0.012624618,0.41642147,0.12961377,0.022471577,-0.21751198,-0.017375704,-0.25836357,0.07796844,-0.22027797,-0.0008301799,0.050705798],[0.35085487,-0.17535034,-0.0266227,-0.027884092,-0.01904982,-0.07541736,-0.23021187,0.3510086,0.059643187,0.1530563,0.28085,0.50761026,0.30239776,-0.22409584,0.5294103,0.016189212,0.3267282,0.24276718,0.41088322,0.13479118],[-0.16685757,0.18281513,0.23110588,0.15476704,-0.27124012,0.44286746,0.27528736,-0.1721519,0.31066358,-0.031847235,0.091941565,0.05149329,0.008766282,-0.02775161,-0.059592128,-0.057198226,0.044294436,0.18200223,-0.022766536,0.19384085],[0.32696044,-0.12771471,-0.070099875,0.13360862,0.5264562,-0.06413466,0.15780294,0.4735336,0.4872159,0.044636972,-0.1484872,-0.17359821,-0.23454443,0.37317675,-0.11208919,-0.20188081,-0.07255625,0.058230523,-0.09024811,0.18202637],[-0.21348557,-0.43311715,0.15014605,0.42494458,-0.04699369,-0.054841775,0.087927036,0.09785904,-0.21435419,0.2912525,-0.18422732,-0.17589737,0.25673446,0.39384323,-0.051950682,-0.02205777,0.1887469,0.10880055,-0.007653617,-0.06231948],[0.22951733,0.43940023,0.06276851,0.29142973,0.38050845,0.06435004,0.27441478,0.06587343,0.20203133,0.036896694,0.2673614,0.18368186,0.3007727,0.37477306,0.120035514,0.07591282,-0.15954843,-0.1977458,0.17044199,0.13439217],[0.0248365,0.41551194,-0.24107762,0.22057559,-0.21307439,-0.03610438,-0.12090341,0.17289856,0.21015237,-0.12564144,0.36959702,0.3579005,-0.30012605,-0.20788015,-0.010835556,-0.07123671,0.22845508,0.20039406,0.16775015,-0.082786225],[0.38751698,0.008841413,0.2992351,0.3352635,-0.082709394,-0.23492508,0.20158003,-0.074617475,-0.31180847,0.09900702,-0.032342386,-0.31681463,0.038400006,0.03952851,0.16848184,0.36201784,-0.18261045,0.09418483,0.23965575,0.17554224],[0.41334105,0.3753043,-0.1208965,-0.0357633,0.19810835,0.14939949,-0.1366509,0.43523479,-0.21225736,0.28286722,0.25015363,-0.24478963,-0.04796218,-0.150031,0.32561985,-0.1842621,-0.09542923,0.110727645,-0.24056363,-0.41681102],[-0.25537366,0.19003016,0.14889456,0.35478386,0.1546673,0.24831529,-0.12055492,0.096152976,-0.1273425,0.13768156,-0.15081458,-0.20428064,0.15035023,0.266152,0.4325611,0.076246336,0.19496992,-0.06005815,-0.21082856,-0.23268417]]],"bias":[[0.06463903,0.14651237,0.29819554,0.25563318,0.060408987,0.18456878,-0.016747821,0.23640047,0.024367094,0.06938113,0.21638203,0.010105791,0.11749905,0.46107367,0.10095988,0.13719104,0.33665684,0.23228088,0.47546458,0.6456979],[0.07263542,-0.050962813,0.086735986,-0.118279174,-0.03774551,-0.08470783,-0.08277249,0.12729803,0.040230148,-0.052719396,-0.0200979,-0.018670134,0.04164953,0.033217687,-0.10359939,0.062305976,0.11689696,-0.12949316,-0.13223882,-0.10786903],[-0.01885676,-0.028138489,0.046012037,0.049417373,0.047304317,-0.079537034,0.032438308,-0.10293688,0.008236796,0.012890883,-0.04892926,-0.08346275,0.060257316,-0.087690145,-0.027410176,-0.08153841,-0.06590675,-0.08165977,0.09566798,-0.032515045],[0.07037834,-0.11740071,-0.11637677,0.031073892,-0.13637413,-0.0072051007,-0.093211226,0.018267246,-0.10894865,-0.10616594,-0.11990557,0.05562829,-0.14014423,-0.098704025,-0.13802527,0.047825452,-0.003700277,-0.0479315,-0.08987342,-0.13589127],[0.089986876,-0.14619939,0.08563413,0.055162597,0.058444526,0.06547431,0.26440084,0.092350096,0.031784195,0.027900243,0.10978399,0.036802173,0.10139723,0.06622928,0.07752188,0.14152476,0.08660312,0.13982014,-0.019945705,0.016516197]],"Losses":[1.213802494856893,0.9108843875673664,0.6632515951043374,0.4774691847260565,0.39055117739788,0.3494375451202705,0.29999287870566305,0.269860864865832,0.2776711911200761,0.2889596429546313,0.28364147407024515,0.2683182495621325,0.25344983993060277,0.2431982960507703,0.2349408481118599,0.22614881035255588,0.2184332339203554,0.2141295024082177,0.2121705986014486,0.20952896309453758,0.20521398158538623,0.20082058126588354,0.1981191661769212,0.19724700194343323,0.1973982009091471,0.19814931611195652,0.1992239649717411,0.1998355709259976,0.19915537036214295,0.19710482810509,0.1943453608846484,0.19164194527094366,0.1894162055962624,0.1878632880168926,0.18712671415728552,0.18714041746845678,0.18757901884353795,0.188097754313831,0.188469604250883,0.18854393316299373,0.18826436584776945,0.18773976729484193,0.18714341456878023,0.18655950263627216,0.1860242910701167,0.18559919373321884,0.18529558672421276,0.18504032155184905,0.18480718324554898,0.18467200801101671,0.18465597344533463,0.1846399317891775,0.18453462484071112,0.18440066388196777,0.18431034522578307,0.1842292032699435,0.18409818277453158,0.18391547574526604,0.18370554063086494,0.18349157041210187,0.18330143700339602,0.18314921496667877,0.18302471967005654,0.18291895971462016,0.18283007780468383,0.18274958194506186,0.1826678265910247,0.18257415614522296,0.18245055477528974,0.18229392263507893,0.1821266828155492,0.18196415880981684,0.18180417323591916,0.18165069192968414,0.18150789614408105,0.18136502490606973,0.18121529608271691,0.18106467987752295,0.18091425522331123,0.18075761966338405,0.18058897625096113,0.1804059776007246,0.1802131356836809,0.18001523222533833,0.1798108365613069,0.17960139779096487,0.17939074702717378,0.1791771231568274,0.17895833026271496,0.1787327615541341,0.17849720471218178,0.17825219227809702,0.17799963259726184,0.1777394736388077,0.17747160150105226,0.17719522480946784,0.17691147770596838,0.17662186118364812,0.17632569156906214,0.17602396579136032,0.17571708986829007,0.1754045367547063,0.17508656354694102,0.17476356023811146,0.1744366199457599,0.17410555524527283,0.17377135131845572,0.17343559158158128,0.17309936805223666,0.1727638235967436,0.1724300256364128,0.1720993962818541,0.17177239256598217,0.17144987291836025,0.17113250081084053,0.1708214754270627,0.170517677452549,0.17022230261139296,0.16993606794003682,0.16965983637288792,0.1693940217496615,0.1691389344348431,0.16889461115876922,0.16866103279030908,0.16843809926988654,0.1682255084048034,0.16802294141047466,0.16782976903962102,0.16764543863084067,0.16746933260953506,0.16730063863247557,0.16713854160136848,0.16698222312417157,0.16683090742594198,0.16668382476680021,0.16654020404755793,0.16639937087272105,0.16626066655338134,0.16612348881775252,0.16598733600618126,0.16585171286914355,0.16571618865200602,0.1655804451311983,0.16544418820173562,0.16530717205291084,0.16516926075915603,0.16503038329311137,0.16489049098697278,0.1647496205203568,0.16460783950657287,0.1644652374563879,0.16432194181885026,0.1641780665233493,0.16403371661892535,0.1638890035622316,0.16374404229341039,0.16359891713736005,0.1634537154298505,0.1633085031882613,0.1631633273607834,0.16301821947729547,0.16287319471573913,0.16272825277802574,0.16258338964808836,0.1624385871584013,0.1622938177954355,0.16214906242064273,0.1620042856803485,0.16185946234215878,0.1617145780387465,0.16156961185691504,0.16142456061121388,0.1612794352013142,0.16113425385826433,0.16098905190959478,0.16084387466978367,0.16069879022666,0.1605538693081621,0.16040920291125094,0.16026488377294582,0.16012102051516539,0.15997772136624563,0.15983510101587103,0.15969327137240696,0.15955234946957503,0.1594124409061485,0.15927364790404114,0.1591360650380948,0.1589997733032288,0.15886483098765714,0.15873128699693434,0.15859916562265783,0.15846846614137566,0.15833916749492577,0.15821121613703493,0.15808454083299522,0.15795904112825557,0.15783459046257117,0.1577110502343264,0.15758826235128312,0.15746605780728812,0.15734427271489235,0.15722273366791867,0.15710128410550592,0.15697978196084816,0.15685810353782068,0.1567361414030149,0.15661381879146286,0.15649107940513288,0.15636789527267403,0.15624425291299338,0.15612016445256632,0.1559956541658373,0.15587075663591887,0.155745514883973,0.15561999099843773,0.1554942746759051,0.15536852749393698,0.155243146844295,0.15511917357506486,0.15499957993296795,0.15489307635753924,0.15482471368708864,0.15486576825403628,0.15516623990852962,0.1558967837081818,0.15642067928790196,0.15569657988297533,0.15418010074127222,0.15420155672566707,0.15501520787698866,0.15441338544145466,0.15353976600457292,0.15387626359098305,0.1540479129052386,0.1533445842585059,0.15316008153857333,0.1534749618329264,0.1531199876488077,0.15270222938547606,0.15289670674032566,0.15279874977960356,0.152357576079487,0.15236741424385358,0.15239720947684873,0.1520517184730272,0.15190385877233348,0.15194369207265992,0.15173487482228776,0.15150699711828466,0.15147739462877474,0.15137529803803623,0.1511539776940831,0.1510367595251263,0.15097176899130027,0.15080644029042303,0.1506371222423544,0.1505489292755527,0.1504345619689305,0.15026349165791875,0.15013261879566756,0.15003207771655083,0.14988702124600115,0.14973149748365233,0.14961288443543144,0.14948799588138734,0.14933423910218765,0.14919225510131953,0.14906675178290146,0.14892385066068234,0.14876934608860415,0.14862992912169193,0.1484933438654164,0.14833829158825967,0.14817903808840407,0.148032579675021,0.1478859656980073,0.14772456221882743,0.1475575857948675,0.14739608354038805,0.14723332125858044,0.14706105048987309,0.14688424500327368,0.1467095725724863,0.1465332669575673,0.14634988519431197,0.14616348567412757,0.14598489448466254,0.14583358469031618,0.14576039764156465,0.14597169902777962,0.14664906435596028,0.14812287333770138,0.14680824169700762,0.14495586193019977,0.14456156399965242,0.1454094467947893,0.14535307630758548,0.14392692540149593,0.14386972295847356,0.14439709240765153,0.14357918682823945,0.14286619015114752,0.14296167728712897,0.14287720104531884,0.14220901187310891,0.14164882994885178,0.14174181316023213,0.14158180964022876,0.1407645976601873,0.14035418093342966,0.14031546012332716,0.1399712172757254,0.1394921507544756,0.13894514330945634,0.13839886876434832,0.1380657982550791,0.1378434006141291,0.13755605446079297,0.137217455899197,0.13702778413450198,0.1366695192956797,0.1366021546742788,0.1362908722934694,0.1362224453547458,0.13533355414775677,0.13452631695526432,0.1332367308877219,0.13226392275514934,0.13157764168766753,0.1311159987904424,0.13092362265789662,0.13098925380381196,0.13171331688194687,0.13264350874736422,0.13455759928483543,0.13222708146374726,0.12967999657949655,0.1278683238483198,0.12840760643356539,0.13002149062004342,0.12940053927356618,0.12783895436736936,0.12679057935690552,0.12737482296799219,0.12825044602659516,0.12742246152573947,0.12639652084055414,0.12637433227304407,0.12693112713273086,0.12691674359093413,0.12610497347856472,0.12587911694436776,0.12625370413676223,0.12617348626697072,0.12567574353315186,0.1254701154824729,0.1256584153536545,0.12559845257940794,0.12520143606373985,0.12509154637970635,0.12519363562164182,0.12501947501109176,0.12475429894280175,0.12472371661860816,0.12472204378338307,0.12453610784911207,0.12437261941407413,0.1243632880080395,0.12429563744903573,0.12411642871735308,0.12402498941493485,0.12399692575339905,0.12387774732888433,0.1237381097929794,0.12367499899648242,0.12360900077947581,0.12348400739548841,0.12337196244655758,0.12330596350436378,0.12321958710166932,0.12309688232582398,0.12299651968796144,0.12291991920322089,0.1228209854241951,0.12270382654214715,0.12260332721128639,0.122515430196443,0.12241188923542966,0.12229592706076763,0.12219035087437334,0.12209278144224361,0.12198537340795355,0.12186833242929378,0.12175557960653559,0.12164901662824924,0.12153751417249632,0.12141766946468997,0.12129746948371319,0.12118120743642992,0.12106374116809218,0.12094002289124241,0.12081258351261483,0.12068597333895048,0.12055985832323521,0.12043055030204028,0.1202965142273296,0.12016000965476566,0.12002302556420952,0.11988505209111507,0.11974429774930924,0.11959974881325167,0.11945238361018272,0.1193033060148266,0.11915283471950323,0.11900039238076734,0.11884514070866857,0.11868703108012883,0.1185261829398097,0.11836319063261387,0.1181982320508025,0.11803137611461438,0.1178626029924244,0.11769177656403006,0.11751904850187131,0.11734439396148653,0.11716816511741504,0.11699057966987825,0.11681246851166317,0.11663509752511897,0.11646179719661082,0.11630127570020671,0.11617448978405284,0.11615378640710768,0.11638548107801289,0.1174390694572774,0.11918197705535594,0.12201008740802988,0.1182264719048647,0.11508573231129518,0.1155737441116753,0.11726798545305353,0.11656853904347589,0.11429954161850153,0.11526173488214851,0.1162768450010259,0.11415662349074898,0.11404727255514259,0.11529918607356794,0.11398738531038369,0.11345950104761679,0.11473825642203178,0.11566157949974204,0.11656566699527823,0.11949457217594825,0.11611988674949938,0.11270314834400418,0.11278138615584098,0.11431117254734159,0.11475121482860655,0.11316222461371359,0.11208349566646794,0.11219239884569257,0.11298462940595207,0.11278046719548102,0.11126952243424111,0.11113452043073026,0.11204212097437183,0.1117078308796979,0.11082245346804348,0.11057990070438227,0.11073947592088242,0.11093245266228734,0.11064569929593618,0.10999961204149486,0.10971812048659246,0.10998684668009483,0.11007883055019224,0.10976669223735314,0.10947504807903197,0.10914979877628918,0.1089178589776728,0.10897370546975815,0.10906592441595063,0.1089812828733223,0.10884117129451135,0.10870847169677278,0.10842195866764175,0.10816225238791151,0.1079913162982299,0.10781901081063415,0.10762547093467881,0.10748658278712789,0.1073771980266868,0.1072355537603831,0.10708758884122105,0.10697620394367319,0.10687212309409722,0.10675719377726955],"R2":0.8925142863212769,"Training_Indices":[1059,18600,3037,793,8375,11040,16401,573,2861,17771,19552,10914,1857,18767,19690,5056,4603,19083,13339,18007,609,8265,10014,18862,9509,382,19717,7786,3562,14767,8261,13016,2943,8699,3781,4193,6561,18648,3902,19605,16333,3506,4580,2734,4743,13759,10164,13089,19120,18186,16364,6566,18981,17365,7631,12007,354,15763,12359,6113,14627,702,3236,3299,6333,7678,11820,19888,17906,12392,17128,15875,5146,14403,19029,14801,17311,7906,7943,19933,13050,18501,4043,20445,12964,5317,13262,10887,77,2688,11640,627,1729,8706,13122,4293,18332,6555,6223,17823,4118,7304,3776,20423,8532,1523,16897,6203,11342,12482,14260,1859,2092,20481,10277,14317,2351,9389,6850,6858,14673,12929,10639,13831,4553,12465,11171,12036,1373,13278,2059,8981,19485,16963,19746,2694,12796,11210,11354,13282,14784,1779,113,7920,12148,4629,3073,20558,282,13386,13640,662,15775,1835,12679,13397,16038,6487,16753,16977,18866,1319,4132,11497,1582,4238,4981,3992,3102,16881,6439,10178,17184,20009,12380,17091,17542,5200,6632,13965,10365,13289,11917,2452,15446,4714,12259,441,1672,16734,2274,18295,1375,7582,14135,12822,4555,14744,17125,15046,6911,9229,4048,3807,15714,8871,17328,11009,15177,17352,2413,9940,20450,3617,14356,6913,12854,19132,12508,165,11576,740,17278,13351,9222,20175,8747,10620,13633,13133,8013,2534,13333,9113,15921,16591,6182,7799,11815,18504,3956,17077,17890,10804,19429,8152,14613,12460,3250,14077,18763,10187,11846,18503,7710,4183,15306,2845,10916,9161,3062,8967,10083,2667,4529,8075,5151,5178,6721,5816,4804,12662,9665,153,13920,13684,7457,6633,3969,20437,15403,12716,1085,9959,16350,16356,12624,19222,18340,16580,8332,7743,1490,12641,13087,9921,6841,11757,15030,15804,20580,3461,19340,14967,12258,14457,8416,1806,9188,9252,8994,9873,1381,6678,11424,14439,9973,1422,17818,13058,16530,1452,19106,17095,17496,2982,7857,12331,4457,1424,10963,4371,129,5138,1391,17916,11241,2793,12570,4954,9091,8726,3550,18085,18675,2917,9834,9593,750,15423,10470,735,12967,8499,745,3933,19373,10323,17277,10258,7060,13008,2080,12879,11196,11715,4352,1844,19088,12522,130,18967,4613,6672,16168,13609,4742,19539,2622,11875,19177,15888,19066,4157,18567,13647,14286,2769,18834,7182,11320,20122,10985,8087,2753,1457,10758,12773,4821,19512,17541,3451,6477,19417,14382,14501,13835,14618,9986,7370,16240,18040,11670,5905,2492,1014,20108,15893,14894,3904,15033,5097,6076,19561,7492,15571,19543,218,6806,3161,12218,4832,8006,744,12204,19828,18533,1884,9846,2249,15568,15325,1305,7302,8429,11924,13937,10884,2276,3648,5982,6274,7335,17684,60,15774,19401,4836,11418,4888,16381,16555,19870,10374,2107,9110,13613,4522,14095,9149,10882,13100,9569,13135,12775,11184,15160,4224,9395,11540,718,78,8484,15876,1738,16842,17218,120,15017,7950,1087,5563,19096,3115,18056,5868,3464,11960,16331,11070,852,13796,8999,7603,16921,18314,736,34,6711,18585,11602,8220,13081,18965,19374,13537,10077,5093,13020,703,14863,11384,11742,6734,5590,7318,12212,11939,4664,1990,12961,8,6501,8677,2933,6040,6018,15719,6893,6545,15473,16428,18827,309,13368,17743,7198,7066,72,19692,16170,11266,20433,11795,12142,18935,2665,10691,1295,16124,1199,15733,11028,6007,1520,6191,5600,8768,19308,12323,1390,7844,19763,2831,12601,4679,13575,3791,20046,1401,13102,1696,19453,3471,7329,11616,2261,17837,5429,8901,16078,1522,9164,18256,12847,18629,6295,4977,11462,6325,1784,18676,4376,5196,7833,11763,7436,9878,20336,204,6232,8712,9813,12321,9943,190,8574,8695,6956,15026,3221,16801,19849,10285,20089,6419,15119,9525,12804,12756,17309,12318,18785,1837,12008,20285,618,20490,3953,13366,9374,8897,4668,18076,5134,5310,11666,9081,18033,14530,12620,19915,20203,15639,16500,5838,16360,12991,12085,541,6326,13175,4439,19016,11039,6726,19596,2019,11899,18331,4144,7830,17713,11407,260,19364,19534,18483,15521,6465,20517,12741,1946,2335,10951,8809,10321,15812,7255,20560,12514,1341,13775,759,13704,380,17692,1285,859,6714,2572,3726,8007,5312,9192,11426,12997,1711,7935,11318,13349,18633,8434,15149,931,12472,2005,18047,9496,15680,9247,17299,11051,20359,9796,2594,16682,315,9291,7007,16139,16648,15829,11444,5817,5860,9075,11622,11938,19123,4700,1165,449,14291,17059,2187,17717,6262,3711,18380,977,14696,13428,168,12366,13956,2561,8708,11928,17320,437,4938,7205,2217,15001,19379,5187,19579,560,20186,7043,18429,3322,8419,7651,90,10240,1569,20300,10719,18237,10821,11252,4659,11652,1144,13459,18578,18571,12450,2598,5677,4552,6751,5258,11800,14664,5848,4962,17196,11585,5547,19400,18877,3855,15918,14093,12037,5773,1406,12196,6039,425,9792,14066,3303,438,19394,3766,2171,4601,13791,16699,8197,6106,19297,17768,1688,8537,8643,13849,543,10437,13199,1693,504,17463,57,4531,4942,18988,2866,5264,17422,17529,15587,1445,8182,4568,11490,1877,10730,10594,10661,5394,15652,19671,6083,665,10710,181,20007,19017,2227,4538,14523,16408,18594,13673,14831,9979,8848,12777,19974,5325,17224,12949,6431,6513,18390,2454,1238,777,10834,5503,820,12005,12087,6781,17977,15599,3763,1225,3339,17938,16025,6725,15632,19208,3556,8057,13417,10152,6461,16397,5706,20526,16055,8799,9709,6285,11752,3584,10704,19640,5408,7384,11383,8148,6950,8874,4388,3573,8432,17635,16318,9501,8822,5934,5096,12121,5125,9307,7126,15979,5888,10497,19411,15989,8091,16169,5688,15324,9623,2560,18684,14125,6547,19316,3708,17159,11292,3830,7358,8390,2048,1197,8847,12158,4169,6953,13513,243,8940,3379,971,10382,6342,14527,2601,4265,1720,14161,2871,3652,2018,14419,15212,4426,4258,2459,10399,360,16718,7534,10908,7953,8941,8096,10560,15027,10838,14418,4211,4501,18851,15006,1593,16708,11132,1345,6630,6107,19131,6318,18879,14441,1356,1908,2566,7638,207,1601,252,10485,8055,8541,3847,446,4139,20146,9364,19993,12634,3670,15392,4081,4771,3027,12843,3638,13942,10205,516,12031,12213,8252,13420,14847,5557,9471,3518,6012,14932,9510,17452,17922,12899,6979,11700,7572,12807,11119,16760,7443,5822,15505,7870,3057,15827,15322,17809,11450,10825,7749,11842,6892,1678,13186,12533,11496,19038,3683,10114,17752,7562,1245,11025,15338,108,14585,12856,6291,11133,11950,15606,11331,9718,3515,20429,20319,1824,1916,3308,13361,7186,12376,7972,4969,8142,5737,5519,970,2039,13145,16715,19440,2430,16727,20053,19567,16335,2279,3395,16566,4080,1094,10475,6701,2529,17919,15388,298,2941,2139,18857,9343,10525,12885,482,4226,9236,9928,14724,616,18555,11624,7662,912,11558,6137,3790,9429,11491,591,15939,18848,18614,14534,17291,19684,11565,14516,14207,1562,12347,4113,236,6990,4786,16140,13833,18344,4617,11807,13051,5828,2330,6427,17110,5406,8556,5276,5160,18188,15468,2628,19008,2086,19115,9830,15056,12781,16096,14963,19112,5569,5018,18673,15841,10717,5827,5112,5094,9284,7017,11087,10248,13952,9524,556,18041,3994,11985,7731,13082,903,5416,2254,4923,5826,14774,15341,12478,8555,16185,16581,6703,6697,9668,20110,16501,10707,7519,19290,4678,7858,6679,19258,5281,8938,12939,15676,12373,8283,8752,16851,10573,20116,3494,16471,19057,5153,15122,17993,18382,7789,4945,3447,9582,7392,8718,6156,8187,5099,16649,6287,1043,18333,20589,3214,19862,17960,6786,9156,17408,8894,1663,13476,5244,3046,11290,7911,7337,16814,435,10091,7986,12762,2094,3182,10140,910,10170,4697,12108,17792,11246,17627,15126,11613,10677,16015,18515,767,3943,15055,18466,8208,4657,14132,17766,16832,4606,865,2887,5183,3185,9124,5522,19150,135,8649,13121,15101,5895,14067,8366,15945,19039,18804,12029,16717,1838,9731,5414,15366,16834,15274,2205,19952,1313,4335,6320,12818,14506,14730,633,18144,5700,12653,7847,3697,1667,13447,19877,3706,17653,88,10423,18685,8771,6615,5593,8997,1347,227,12086,17655,4562,5280,46,16817,9154,17867,19343,4304,15410,12968,19732,1326,17075,18339,8125,12838,7438,13603,12344,1096,16775,12328,4241,81,2163,18226,4418,4770,8688,6862,1694,5543,19956,5889,16860,17564,359,87,18485,12064,10174,6718,11773,5742,8463,16352,1636,5285,2607,16969,11053,12414,18613,775,15669,16871,5578,20032,1980,17516,18004,1058,15980,13287,13123,16839,11838,17639,17383,20096,8381,4499,3457,20041,10521,12343,5999,13533,7776,3033,13516,15739,4683,2514,7236,20024,17582,15361,18447,7813,11518,17087,4640,1230,10369,12365,8348,13070,2131,12824,11678,13286,18283,12289,3624,18219,2237,5577,13643,12855,2419,1228,15761,8400,3756,8361,1762,13567,6142,1992,8224,8079,8221,18325,7025,15228,16863,8100,6875,3960,265,2450,14864,12162,5713,5348,11873,13419,2956,2277,18825,20553,13889,17952,5527,15471,5632,17670,16231,12171,5467,16365,9965,12923,7957,13142,2000,9613,4462,7569,10229,6828,16415,4432,17543,15220,10489,5805,2271,5088,19172,13955,2147,10162,11375,5916,2173,9913,6428,12799,1035,18357,3307,626,14814,5446,19864,15715,1549,11748,8227,3334,18768,8355,1840,5458,6562,15512,1204,4010,18098,12314,15674,11125,7796,8029,4255,13098,8887,17587,12782,2994,6902,3540,13300,3542,19722,3499,649,592,7932,3364,19141,1154,19695,2674,10793,18011,642,8340,6879,15417,6537,8743,5360,12728,5886,16542,10614,1324,18893,9433,7977,9857,17238,7038,7429,6776,3832,1526,661,8200,9484,8642,19519,17499,1948,14844,6743,9194,11550,15538,5397,15084,5974,8011,3337,1222,13541,1830,4939,8151,9963,12060,8714,5309,17538,107,6819,18500,14159,8709,17515,2035,17033,14011,10832,5721,15586,15353,1353,14157,15881,12341,19024,8059,13817,13961,17839,9565,7238,14186,18972,16663,1483,17361,15382,14326,5870,8110,19576,20523,5626,268,9988,2843,8736,2865,20245,15379,2374,7031,18663,17680,14367,6883,15083,14906,20292,5651,2596,18591,12154,4614,5708,14820,1383,4532,18442,9966,18258,10433,2756,12284,19742,15850,5509,15852,18960,6359,12697,13851,20277,677,6804,13071,4515,3877,13949,11438,3530,16419,16794,13986,1358,16492,16269,1075,2098,12841,9657,7881,8577,11501,5437,10218,653,10001,11226,1487,8511,5179,3048,738,6976,2186,16683,12334,5409,7354,9514,1537,14010,9318,6906,6683,1860,17986,6474,5102,6075,2111,2978,3647,18454,3839,14175,7773,15528,12002,5245,10185,18807,5825,8756,6452,3084,15031,8168,16162,9324,14766,19040,13586,1617,12356,3988,7668,9542,18553,5980,15602,660,9379,18932,16537,1175,19970,18542,13997,2420,12192,484,8679,10387,900,8539,4773,11238,8322,7079,20405,10281,13702,15904,1466,2221,20364,9678,12738,16910,18971,12525,1865,16643,6737,12046,9628,12917,20163,404,5298,7601,20069,803,6954,9306,8636,3618,5878,10115,7897,14034,1234,6339,12248,7661,2603,15630,19348,13553,8495,12867,19367,19613,17115,4753,16619,8026,15334,15828,12806,2418,13846,8127,4892,2807,11823,7489,18662,15489,1400,8162,17273,13313,10555,4192,4442,17932,8680,12065,11988,586,13347,18898,11089,1430,3777,18853,9637,1325,20338,17282,7790,12335,10117,5906,13970,485,13062,13932,15932,17814,61,5533,4187,12637,13272,10972,17797,6319,16012,10217,5329,17725,8979,19215,17083,18922,234,15675,1419,9688,12326,15048,15638,6860,19339,19482,9043,4000,5170,5745,604,6731,9654,15475,7112,4423,16670,12552,18512,16546,17005,9730,13493,20442,3321,13201,3738,5492,15772,6261,3125,15612,13943,13448,17142,19627,5781,15232,19566,7152,4234,11436,16161,6445,2064,14079,10776,1133,1011,8103,5468,19285,11653,16633,1642,5698,259,6020,17439,19274,14192,4390,20443,5649,17053,7056,13642,6638,4750,15426,9746,19053,754,7293,6024,13468,12110,1072,11573,14226,10054,18588,12910,9045,9676,15275,8451,8976,15801,8544,3233,5587,7382,92,9606,462,6756,12820,15060,8928,19045,4392,3699,17753,15266,3731,10064,3800,13130,10507,19381,8984,14218,20067,1040,10800,2915,17257,6845,12107,8421,6041,14892,13777,1776,7412,20214,10545,3197,10643,11579,8231,11283,6467,12327,9276,3490,3276,4041,4163,12320,1634,5479,12623,4267,9105,12076,18123,3068,2381,3388,222,2299,15357,15127,8607,14789,17399,8519,6601,7912,19080,159,19103,2489,306,8632,16604,1480,10182,20541,10099,10813,656,8521,144,15270,1965,8666,9848,14615,4340,19907,4864,20086,12576,7426,14519,17341,11957,10864,14185,15698,1763,18609,20547,19191,15281,7124,8896,1018,4587,14065,9108,4278,14051,15254,4839,1506,18310,7295,9922,4859,8504,16789,2599,9363,14231,20104,14447,8595,20460,7839,18486,17454,2937,5226,2302,18632,12784,11534,14072,1311,18911,16237,4953,4536,15367,11230,14258,11206,5570,13622,17640,12249,8053,5225,12948,17815,1926,5402,3936,3478,16311,10727,16341,14690,17039,18375,13929,14395,1921,2775,19694,845,9299,14183,10642,8210,2765,10455,20328,14196,17106,10674,15924,16322,15260,15074,7250,12655,11711,1350,10709,15591,17917,19410,18067,3961,10074,1956,12986,15111,9798,14706,7553,7673,142,15125,8022,4092,5892,10554,9909,10830,16598,18364,14137,9034,19980,7964,11495,5037,3689,11002,9383,1392,17843,17213,15230,4644,14061,6575,10278,1797,12351,17696,19860,13143,2723,13781,1603,17032,1418,19925,14798,15054,13340,7369,19149,2409,17810,13460,1409,2727,19304,12468,9599,17432,13972,20393,6805,2490,19774,1241,15788,863,18792,6823,19210,8622,18584,10415,11831,5782,18487,2488,7590,12821,10190,2672,5235,9949,15234,636,281,3649,20535,2106,19383,10017,3930,17658,11227,1673,10628,2397,6163,5307,12101,16562,12089,657,19648,4931,4322,6692,18945,3107,6747,15222,11658,4837,5071,717,14044,1899,11516,7831,9269,7599,15767,20062,16497,5620,9777,5645,9886,16192,424,15157,17325,8787,19320,599,12998,14206,20184,7042,19607,3915,19687,713,5464,10154,2964,15527,7145,12805,10861,9132,10829,17027,14769,2197,13639,481,18294,966,17390,4009,8404,19314,10945,7001,4992,10067,5240,4399,17024,10798,4301,7951,3004,4076,7471,15975,15758,10649,5461,949,1666,5290,6225,19928,7948,6109,10778,20479,10803,17064,15554,20531,12790,11588,7172,11845,7588,7877,14630,19431,7378,1552,19154,17037,18421,19842,12382,15556,9874,5173,17937,8095,10903,2525,1257,2962,2711,18337,17586,11369,12253,4072,16349,17605,14889,17374,6496,18627,9079,2910,17233,250,8623,20109,16071,8353,19199,17873,12610,5541,6250,16062,18117,14531,12636,6761,16782,17862,15150,11739,12317,1021,12360,2149,20422,13605,13063,14807,6305,5872,17970,3005,15117,11844,19868,13804,14126,19647,10596,18689,11949,12296,6198,7047,4327,12611,11160,397,1453,4460,3948,1470,5162,17774,8489,19924,10446,17957,813,17969,3294,17703,17891,2620,3774,14721,10337,18721,9553,14396,19564,18576,8124,2636,12043,20129,13788,11288,7636,3427,18200,16382,10654,14333,18003,14153,13579,948,18592,1489,3477,2666,13078,5681,18020,12886,124,5308,5605,6147,18796,2541,1953,5849,945,17585,13996,3467,9804,13839,15263,1062,3393,12408,13741,19689,20308,15237,14822,19998,12687,4105,27,17678,3826,17679,8262,16130,18638,10587,9453,5583,13912,75,1904,14211,4311,18473,5568,18181,8990,1964,5949,2720,3026,1910,6842,7057,2008,5175,2789,8559,19153,15106,12405,3700,19358,3939,11583,16891,14005,13589,11604,17010,758,17645,5896,9984,10232,20178,17621,6884,5842,12117,9410,19822,3549,19164,10364,19325,13162,1243,11714,19063,7806,16578,2995,2749,16637,6071,9196,17373,13149,12447,9010,2058,7181,8291,5327,17641,14592,14573,7684,10731,16326,18189,19248,1874,10330,16225,10724,13338,14569,18100,4879,10372,17900,20223,10663,20554,10206,13355,18563,17590,3962,14472,9802,19484,9774,1380,6414,8047,357,7289,20229,3661,17397,5305,2491,9749,2213,12731,2174,12432,6927,6298,3973,12280,2093,6293,6251,12141,8238,9812,14541,13025,15520,17255,4542,15258,11091,4148,10577,659,14101,6436,20515,18229,6032,12544,15218,6942,5486,19362,15967,8936,11202,12994,17892,2898,18765,16171,13635,3063,3419,9643,6394,52,11396,3554,5373,7308,7630,6433,5750,8569,3634,16908,7893,20008,5117,12819,8629,1567,9083,6030,2966,18275,17118,5455,15915,19179,14041,19719,9118,11265,4732,4886,7594,15821,9220,5412,17628,19675,8199,7738,4162,19202,12172,9858,15848,9427,18049,15985,16217,20147,18773,4510,9612,2555,12372,8129,15465,17103,17677,8426,18562,19175,8290,6300,11664,6353,15577,2587,7838,851,8702,16146,6668,9038,13348,12663,17060,12640,15843,19914,1928,2004,18282,8043,16989,7739,7854,15628,10093,7611,5133,5922,5449,15371,2192,14500,13453,14263,20085,4036,15996,15495,8485,507,3810,9248,11655,13293,19074,427,17631,8122,5771,14869,327,7093,13672,5440,5231,11784,17364,974,18612,17297,10085,17327,1334,8307,3272,12247,17015,19651,6180,19871,10233,10425,7817,3085,2623,8132,9199,795,16159,20352,14366,576,8387,3187,4235,4198,3013,6364,17353,17220,14633,18916,16952,15020,14903,15558,18245,14075,12759,5639,2716,3782,11478,9254,17156,11284,472,9574,14435,20111,16446,17651,13813,4114,18686,16904,1811,1949,7653,14084,11211,6489,6779,18264,17942,11182,14800,10038,7183,6462,18376,5392,10743,9216,6102,10699,12385,4085,11698,7171,18365,15884,8331,13847,20358,13073,17246,13409,7719,8943,7821,16675,1987,2204,1735,4701,19438,346,17852,10546,14023,1180,5944,10638,19051,20303,10844,8342,10626,14416,8254,8226,11947,14476,18034,7975,4651,13660,13587,17294,1475,3204,18736,5322,2826,17796,13499,6924,1861,13962,9602,1030,3712,11563,12750,14091,7257,15072,20161,10840,4177,13886,14738,19236,957,1816,13621,18948,11399,11751,14449,18063,1399,1507,1748,17308,14114,934,344,15992,11115,9797,10013,19108,15464,14497,11123,3869,14099,5257,3521,19953,10397,4765,20060,17861,8663,20484,4889,4129,14961,9444,17446,19637,9158,18611,14849,19855,6896,13399,12497,16616,12815,11096,20332,16563,10,19546,3536,2209,5263,4138,14338,13882,17359,12151,12395,14952,10260,15288,16172,15173,12813,20563,11818,2017,7150,14670,12897,13980,6960,10543,7197,239,2010,17285,20438,9762,7002,19615,4677,1132,11483,11524,8707,8128,8503,16827,9549,6868,11378,17878,4747,2398,514,10898,14486,18544,8764,16882,16067,7674,9751,2417,5168,5646,19584,4482,12416,18438,261,6473,3208,10613,15296,7105,13868,18286,16200,7121,6925,13854,1302,10009,13179,1206,7899,69,5015,20388,15199,9995,13808,3764,4149,13431,17301,4446,18488,3507,10290,10980,20115,1646,6791,19061,2500,1293,3701,10868,16557,4448,18392,12721,10659,15108,18653,8983,15982,8769,4112,4476,4512,3133,11569,9311,1518,4350,4324,17462,8732,15690,13782,4152,18304,20302,2816,14855,18367,6922,19592,12386,12211,4291,18502,6373,5724,7520,12689,15262,4722,19233,18894,19001,1415,16954,8827,9584,17366,11420,9773,15561,16032,18140,4464,4564,11694,1407,16296,7221,17805,16407,9338,256,12579,7326,17362,11242,10244,697,1449,15756,7448,10885,10772,19152,12455,17339,2886,18950,6852,126,1447,11199,12044,7466,16063,14026,18631,6993,9552,8634,1740,18428,18446,15977,9837,3929,19785,615,12924,4282,3758,9461,8721,8407,2739,11313,7137,1471,7939,17,4698,17714,11515,11360,9483,15508,7702,16271,14458,17718,2590,12725,8715,14893,11299,6969,7336,11430,1674,15831,5076,9883,14374,6371,12384,16000,7273,6051,7556,10754,16830,10786,12055,6642,2891,14933,8274,12224,11192,3449,17464,11138,13921,20101,5907,2317,10326,20298,13056,12772,17975,5005,20346,7375,14823,9619,532,2930,19641,5472,13211,18396,5542,12848,4995,2145,16516,3905,20256,12257,19942,15693,319,7413,9072,7044,17181,16621,15771,7811,4209,6054,6187,6663,8525,9009,12769,2973,5034,12840,8190,16404,8959,16786,6277,812,7447,4393,16477,19161,1669,2295,4474,5597,12740,16862,13436,20579,6589,9722,7305,15431,14919,8667,4625,12369,837,4286,3640,19032,19598,13548,14910,10451,1188,11077,5967,6136,16517,7768,2264,9396,14362,1395,8681,3265,6117,12167,16431,13798,13554,1550,13924,4031,4950,17527,17045,8014,14565,14539,12427,12182,15773,10617,13360,17596,5610,2991,12492,4006,3882,7381,13202,8961,9143,20284,10146,14071,19812,1957,13832,18301,4494,8235,20518,15688,18240,16026,1111,16435,3923,15956,2730,10363,14626,10327,3668,15686,16650,17270,8641,2189,13418,1330,12066,18688,9694,11145,4382,13766,12837,2611,20119,6754,10478,3180,9615,6836,5755,741,7677,5389,5665,12739,15189,11412,17720,11860,1598,13204,3198,5013,4673,15116,5612,11295,3040,13719,728,400,1573,3914,14643,1339,19714,1164,17467,2748,3476,1564,1063,1745,2426,5267,19772,2750,466,3156,10809,16,19788,8222,8687,1783,17951,14144,8845,2556,11116,1093,15533,9867,8409,2815,19685,17375,15928,18218,15413,9063,11552,13330,14499,8914,14663,451,2707,16821,18156,15622,15665,18868,15210,18381,6358,14430,20555,14907,3242,14018,4106,5546,4511,9332,7930,756,569,118,15597,9705,17842,11641,16166,5811,12567,5113,939,17287,20325,6362,6405,13387,14428,6560,14857,19635,12136,3357,2051,2705,388,9233,13566,11925,6025,12530,18714,9800,12504,10756,50,7584,13182,4693,18711,13983,3137,15498,1147,19378,12930,287,4769,12435,15627,13230,4319,10922,10811,16209,19007,15880,5909,14548,3043,2067,20335,4519,2511,4866,16007,19156,15553,3034,17547,19041,17518,16079,5109,16565,17706,7889,3899,10301,8413,18321,6469,6292,5836,7341,3561,2442,15081,2386,8775,9850,2934,10135,8640,15552,14711,1001,10631,16846,2026,13086,389,9902,15316,5894,16877,4333,12130,16572,17569,14956,10968,11373,997,6540,17259,3695,16463,3496,20095,20307,6797,5845,13722,4554,695,6397,9934,6212,15810,11041,14525,14825,18749,4496,8907,8956,5787,3038,12748,13894,6647,1579,12448,14628,8246,19510,6809,20084,9451,9165,15933,8068,13680,19068,4966,16579,10652,1118,5689,11979,5022,442,14459,17833,4430,14636,299,18164,1456,2394,9412,637,1829,6099,10088,4972,12563,9895,11827,4921,15005,5506,11964,4671,14750,11336,17242,3970,2925,3489,10325,14761,2848,5512,1977,16226,4303,11805,14978,2411,5049,19721,19492,6056,8693,547,17879,9908,18532,20318,16164,10530,12188,1812,9758,4713,15749,4746,19447,9335,10559,15078,17205,11416,17460,18252,3188,18743,8960,15066,13810,16386,2175,11371,6221,12945,9759,12506,2632,2428,2778,1517,10612,1113,11816,3112,9699,1265,12580,9578,16011,15137,13435,4503,9946,19709,14404,13291,752,12222,2347,3295,2859,8052,6381,8547,11659,11305,112,10873,9401,12145,16075,10921,5068,17143,10499,15442,10378,15747,19932,15499,19531,10450,6208,6558,14290,7753,8015,13299,128,16716,16224,7632,5532,15792,1778,20513,9855,11883,17907,201,19804,17377,11339,13168,5556,8118,18561,16412,9024,8251,10738,4381,4592,6200,3256,16543,13751,7487,5965,5121,806,5882,16151,19275,15463,4959,3139,6948,2281,8523,17026,11256,18559,8401,17704,17519,19317,127,11970,7050,19574,14620,10814,1323,17610,17210,7853,17625,84,4351,3980,13406,14660,8645,12713,11188,1524,11683,10833,5598,15837,14267,8880,19286,16711,19991,5375,13772,11707,15248,17179,62,2809,19356,6729,2960,12292,7691,8188,14049,8701,10440,3831,9982,14069,1834,14295,19931,10237,20312,19705,11935,2167,985,5904,3955,20028,15496,6820,5971,288,12490,8406,4250,3698,16113,6951,8126,7210,19668,1718,16013,19691,12265,18986,1068,9163,11333,10930,13479,19315,10863,15858,10567,10072,3283,9140,5202,14953,14309,15555,5321,9219,6237,12433,9600,7077]}