{"architecture":[["Dense",[4,20]],["Dense",[20,20]],["Dense",[20,60]]],"weights":[[[3.3079705,1.2537436,-1.0467567,1.9255354,-0.12330849,0.3005918,1.6468359,-1.8206415,-0.36059177,2.3454943,-1.9214036,-0.51445013,2.8189695,1.2178079,-1.5261091,1.9203267,-0.8175273,0.25301108,-1.4392346,-0.7311845],[1.0248382,-0.95781785,0.20548894,-0.006136416,0.17430823,0.12725891,0.3062692,0.69916916,0.892135,-0.66436255,0.6959036,0.60038066,0.36059326,-0.7200792,0.28042558,-0.098637,-0.6018139,-0.44253218,-0.12621798,-0.25223735],[3.0614707,1.2676837,-1.3000579,2.8449063,0.5903917,0.7725944,1.3690374,-1.4705516,-0.8342417,2.6628337,-1.6062242,-0.69079643,3.3346064,1.0372078,-1.3560958,2.303016,-0.4758299,0.38450313,-1.1401737,-1.0688694],[3.1261454,0.44096303,-1.2765318,1.5276635,0.21487246,0.3687444,0.9748342,-1.4320062,-0.596978,1.2381896,-0.5829836,-0.5543664,2.6812613,0.7959807,-0.5407743,2.1628842,-1.3652889,0.51988584,-0.5631437,0.011670174]],[[-0.3599937,0.22236906,-0.33175433,-0.30380479,-0.4364105,-0.23457532,0.10115988,0.23364013,0.23063728,-0.3789244,-0.26829574,-0.6408282,-0.38899252,0.0894927,-0.43963462,0.9516584,-0.47306818,-0.53886795,-0.14518103,-0.66396284],[-0.25928703,-0.16548142,0.06376254,0.17718685,-0.29937032,-0.349225,-0.41131133,-0.49063012,-0.14134102,-0.049115304,-0.24305479,0.20578934,0.21008652,-0.32944602,-0.28068238,0.14554843,-0.27218315,0.06324321,0.15035158,-0.05297688],[-0.030395746,0.4044499,0.28303868,-0.071023054,-0.5771891,-0.19384138,-0.12935333,0.041563004,-0.09743819,-0.07539523,-0.0031513015,0.30976743,-0.27640635,0.32013524,-0.5265027,-0.48011312,0.3556866,0.9936118,0.24440321,-0.26489055],[-0.17017493,-0.2925424,-0.02703106,-0.11283492,-0.15535204,-0.47787833,-0.4526952,-0.045392133,-0.16947499,0.26624092,0.21947587,0.06326189,-0.042065833,-0.472094,-0.07168566,-0.097413875,0.16589437,-0.7487498,-0.09688648,-0.33569297],[0.037163626,-0.2635446,0.43277672,0.18882698,0.2089451,0.25520733,-0.15287031,-0.23390412,-0.2226008,0.24216212,-0.32782918,0.0035230597,-0.045520112,-0.4231597,0.24793486,0.051166676,0.30352536,0.08861673,0.06657062,-0.0020259742],[-0.00658997,0.061144173,0.42628616,-0.092677,0.39980873,-0.23544633,-0.31950635,-0.40892678,-0.23960243,0.066482656,-0.025372548,0.4328686,0.12085703,0.1266966,-0.26464036,-0.34358013,0.38306695,-0.27025503,-0.049268488,0.22758955],[0.20585333,0.31847447,0.059846614,-0.28261897,0.101454735,0.18529215,-0.122299865,0.11960614,-0.4116131,-0.32269815,-0.14460485,-0.11441265,0.349175,-0.17417665,-0.02019811,0.17409177,-0.062131744,-0.13235614,-0.14750388,0.0019768758],[-0.32414398,0.44989452,0.07679962,0.47189614,-0.031985637,-0.2207777,0.019013558,0.18338585,-0.114945434,0.19796339,-0.074181415,-0.17967929,-0.41521677,0.3023631,0.10541873,-0.1248979,0.044326853,1.2679069,-0.24047346,-0.1320965],[-0.21449642,0.2520198,-0.023625841,0.56376415,0.11678908,0.10843144,0.08456151,0.20915794,-0.39943206,0.13768184,0.022030083,-0.12881215,0.23657975,0.32363707,0.10669925,-0.030506302,0.37827042,0.2856717,-0.20328213,0.030112157],[-0.0704552,-0.00424199,-0.349329,-0.25246936,-0.18459263,-0.4216015,-0.08349133,-0.51041126,0.08282885,0.14441518,-0.09577205,-0.05051376,0.49926233,0.055542104,0.19894049,0.019528313,-0.24236806,-0.6678768,-0.24705948,0.26105747],[0.3608609,0.41590396,-0.21826129,0.38126686,-0.011894299,0.06375963,0.3185531,0.09273126,0.115585916,0.10864018,-0.14121042,-0.09214887,-0.35358083,0.113159366,-0.41566733,-0.29925168,0.30059943,1.026109,-0.3393147,-0.42510793],[0.18450892,-0.2116332,0.27179542,0.63592285,-0.035550393,-0.28188527,0.3223271,-0.22031063,0.06094054,-0.13006447,0.21727619,0.08425391,-0.018970964,-0.07427862,0.17660914,-0.013867964,0.50407934,0.49896005,-0.01345326,0.042802047],[-0.511108,-0.16771762,-0.4942528,-0.061859827,-0.3758935,0.030080052,0.1158099,0.077582836,-0.4194336,-0.18160075,-0.43590033,-0.36211985,-0.4140619,0.046335526,-0.077509396,0.74232864,-0.4590208,-0.75380415,-0.52492523,0.052645117],[0.18757635,-0.49138018,0.25550428,0.0480772,0.25344408,0.08071439,-0.55683315,0.07048552,-0.33765474,-0.39949784,0.2211036,0.37038237,0.3142148,-0.09976926,-0.13942961,0.23846602,0.26018855,-0.52521974,0.47725248,0.27812564],[-0.15412378,0.2874765,0.4694097,-0.21542312,-0.3461631,-0.47896165,0.05379118,0.25405148,0.031016868,-0.15642092,-0.12691414,0.109530635,0.21439785,0.121711515,0.28109336,-0.12554754,0.35365742,0.74145323,0.26254442,0.059948932],[0.21917707,-0.25656825,-0.1200501,-0.32553324,-0.16437592,-0.23638523,0.11113224,-0.4640857,-0.4166936,-0.12577848,-0.12465326,-0.1731036,0.054893423,-0.07472546,-0.26162237,0.270211,-0.46517828,-0.5477923,-0.14157471,-0.023073915],[0.11370024,-0.35946688,0.042195752,0.102253005,0.10473527,-0.0053803446,-0.09607454,-0.16444638,-0.18797593,-0.30293953,0.15800911,0.46153656,-0.049859807,0.278467,-0.15354082,-0.11534068,-0.2467579,0.49048257,0.004144636,0.06029652],[0.39807427,-0.04738036,0.3935474,-0.14131391,0.38876322,-0.26200193,0.18964913,0.05296633,0.039969005,-0.2823047,0.18026324,0.39828223,-0.2092449,-0.32617885,-0.1294943,-0.44379577,-0.15158686,-0.21479024,0.23271628,-0.23206674],[-0.04783925,-0.29239026,-0.20190461,0.44525793,0.17767991,-0.46695885,-0.083253466,0.29716623,-0.17354973,0.24537806,0.07279592,-0.24931914,-0.28581315,0.29793948,-0.1512516,-0.37172735,0.36663398,0.5332322,-0.14380294,0.10411308],[0.057964943,0.009346711,0.32151788,0.24975869,-0.019905472,-0.4251143,0.27597353,0.28241414,0.19958423,0.1419265,0.16546449,0.26705423,0.18928757,-0.162237,0.25201172,-0.15985313,0.28685898,0.6212302,0.31101155,-0.00056110416]],[[0.15833588,-0.15698273,0.2261279,0.25866473,0.022382788,-0.2535033,0.17196307,0.1652291,0.15700445,0.073132716,-0.1343244,-0.10813523,0.30801734,0.31429577,0.34751117,0.1594925,0.3066164,0.18624802,-0.09679262,-0.19653118,0.106599934,0.1517598,-0.02964478,0.17226411,0.2644502,-0.08257989,0.047513176,0.0010686095,0.0012652697,0.29647696,0.48815057,0.48751715,-0.0467528,0.10389835,0.108734615,0.12172716,0.15586871,0.0075421934,-0.14195435,0.29881567,0.45201692,0.01617533,0.33339033,0.2759688,-0.16734833,0.21981019,-0.23443587,0.4030371,0.10523232,0.59611845,-0.21516392,-0.08539789,0.12855662,0.1720051,-0.2070798,0.29526335,0.3303293,0.081944354,0.53665334,-0.028340178],[-0.16606863,0.1920261,-0.032122944,0.21933934,-0.010449416,-0.06651469,0.3170073,0.22415781,0.12921636,0.08715338,0.16754219,-0.23393597,0.48823866,0.37701192,0.47055915,-0.12948905,0.36008528,0.52801454,0.20581223,-0.018920805,0.07879968,0.099271566,0.017405313,0.09182576,0.15055299,0.3058141,0.30104238,0.117340215,-0.008983533,0.24887122,-0.1310736,-0.11237774,-0.08318525,0.020560179,-0.203529,0.038243715,0.11165924,-0.06584345,0.16117781,-0.02740562,0.035518892,-0.06900965,0.003080393,0.19101357,0.1531628,-0.01157445,-0.24909492,0.20525661,-0.008265305,-0.076456115,0.06738459,-0.091762766,0.26757884,-0.042512335,0.31625667,-0.07248033,0.054287393,0.03471775,-0.049318578,0.03889062],[-0.13323958,0.12465269,0.13699839,0.24287218,-0.043298926,0.26524216,0.23941271,0.28157148,-0.08417364,0.365385,0.09853727,-0.1130655,-0.049071297,0.106382996,0.16858518,-0.31412718,0.11543999,0.2292377,-0.03317411,-0.13791655,-0.13368599,0.18430218,0.3433318,0.008804713,0.07682679,0.28876245,-0.06670093,0.1934623,-0.18254198,0.3010781,0.5317693,0.45562848,-0.0020431918,-0.090729125,0.30975032,0.4636776,0.29737252,-0.00785751,-0.017092882,0.25596607,0.124606855,0.2828262,0.122403555,-0.04040569,0.24360682,0.54278755,0.00897213,0.25604862,-0.053710945,0.45724258,0.22985756,0.004512812,-0.061740298,0.02427206,-0.1186797,0.280054,-0.024147281,-0.105649166,0.5351655,0.071291395],[0.3530218,0.13129538,0.37637207,0.41274017,0.02625197,0.27840868,0.276924,0.30240643,0.29234135,0.44622794,-0.06637109,0.1582746,0.28217113,0.3652048,-0.029805265,-0.16096936,-0.095898025,0.13396458,0.019593077,0.30151808,-0.2228989,0.16119722,0.10291426,0.34746155,-0.04284242,0.20898642,0.13885947,0.07502849,0.11764027,0.50741446,0.23704793,0.1765518,-0.09014287,0.098129,0.108363874,0.056684587,0.23468545,-0.13970806,-0.08872366,0.1200343,0.020512957,0.17051588,0.18434343,0.17567764,0.022974342,0.046888825,0.07360874,-0.20628574,-0.11558938,-0.010505159,-0.16734512,-0.11147907,-0.080158085,-0.02966997,0.1221027,0.06842952,-0.20088816,0.084066726,-0.15751162,0.015886286],[0.08963757,0.060998566,0.15745972,-0.08716594,-0.09831718,0.27001068,0.10559167,-0.041201543,0.23024796,0.14914529,0.05359664,0.2618507,0.22916195,0.08394336,0.30278525,0.3077018,0.22994053,0.4856329,0.3194452,0.07884828,0.24010105,-0.07065436,0.13644162,0.23271783,0.030873125,-0.11118543,0.29772702,-0.114493035,-0.13743901,0.01625444,0.07446014,0.1941783,0.2835941,-0.37867165,0.49838725,0.4165484,0.17426696,0.33735797,0.14878342,0.19158259,0.6425878,0.50710565,-0.13773178,0.16804689,0.059684113,0.23885296,0.07105902,0.4445817,0.119592175,0.34616104,0.113776214,0.07977961,-0.027563335,-0.22790219,0.026364142,0.03601069,-0.15760154,0.1598705,0.6614882,0.3252402],[0.3402667,-0.12228713,0.20777738,-0.009912879,-0.1882959,-0.13878335,0.22108288,-0.0017309865,0.32950813,-0.039239824,0.012989723,0.09022504,0.16900063,0.25354937,-0.06771578,0.012841631,0.23358256,0.22451662,-0.09865424,-0.03820134,0.09411069,-0.0767652,-0.094500944,0.32550037,0.23912176,0.107035734,0.10049875,0.28110832,0.033915922,0.23111814,-0.024142234,-0.020072544,0.16266876,0.08939896,0.029973429,0.37355173,0.3552023,0.2173363,0.14448398,-0.05383428,0.16779839,0.1490914,0.35077545,-0.14969905,-0.15031998,0.45351177,0.06660377,0.26764408,0.3052315,0.069118224,0.2513878,0.2205176,-0.066335864,0.07603054,-0.10139457,-0.021924075,0.007159149,0.061672565,0.2356726,0.26689643],[-0.4034856,0.04396669,0.2194259,-0.01705623,-0.07607371,-0.0052761957,-0.044651676,0.22904895,0.10011478,0.044293445,-0.0398091,-0.004080082,0.14696014,0.044272125,0.27690634,-0.221794,0.39742652,-0.04190736,0.07390737,-0.06380768,0.4399925,0.40878746,0.29375765,0.40068808,0.23525995,0.08397904,0.054067984,0.3169643,-0.29304203,0.19986792,-0.076966226,0.024730822,-0.02576269,0.3198559,-0.06295396,0.28356755,0.14177553,0.201801,-0.0022667982,0.32265714,0.15319249,-0.18366759,0.049442593,0.32895952,0.024410767,-0.07937004,0.32549858,0.39104933,-0.013299115,0.06631723,0.055520635,0.047418553,0.0045983596,0.21664551,0.19791406,0.19400309,0.21358989,0.05673579,0.021185508,0.12826729],[-0.09698239,0.37158197,0.35022372,0.2798613,-0.37936133,-0.056151252,0.31087193,0.285332,0.33898357,-0.016211,-0.008393835,-0.26528296,0.15467405,0.06561147,-0.036315236,-0.1486008,0.12739919,0.31285986,-0.042353187,-0.19790255,0.12641385,0.37371033,0.3654037,0.12290857,0.13509947,0.4443088,0.18103814,0.042213514,-0.22650214,0.042359762,0.12772958,-0.031185878,0.3201719,0.2093086,-0.07021351,0.0844994,0.0189257,0.09725118,0.14136131,0.08916478,0.3109591,0.11590864,0.14989449,-0.022025753,0.06226677,0.04110112,0.073070996,0.04361834,-0.047958814,-0.13373934,-0.07410832,0.0406004,-0.101270676,0.03393505,-0.13089088,0.21167803,0.17652932,0.17370705,0.09564685,0.3538293],[0.0577948,0.031522773,0.1762718,-0.10591998,0.18462822,0.18699922,0.38450342,0.32367355,0.19365093,0.18671112,0.18008481,-0.10148502,0.11739786,-0.11293096,0.34366256,0.1594215,-0.060607627,0.15836442,-0.0923177,0.2103509,0.23424806,0.008185527,-0.004373746,0.11898181,0.26429558,0.039632823,0.3709176,0.13612546,-0.18272133,-0.051462512,0.16339234,0.37348387,0.23829283,0.21391629,0.0011689056,0.13245438,0.25196826,-0.13071236,0.080706805,0.010160938,0.26812485,-0.021946836,0.28582233,-0.16393304,-0.15442179,0.29264116,-0.10019732,0.12457261,-0.019143634,0.2944485,-0.20776494,0.11124628,-0.11174449,0.26441655,0.3501592,-0.19703934,-0.01298847,-0.116063535,0.4421815,0.124445185],[0.0954698,0.20413613,0.13287194,0.07583735,0.12517731,0.12971473,0.10834896,0.18350981,0.0015183395,-0.057096742,-0.11023271,-0.0055456897,0.41975808,0.012815906,-0.034850024,0.27665257,0.23030157,0.23546183,-0.16050282,0.19596551,0.118183516,0.31101507,0.040135942,0.40297323,-0.1237351,0.27173942,0.35567492,0.17531168,0.07320157,-0.073015094,0.09067332,0.0036110333,-0.15137051,0.2217028,0.4088574,0.05268878,0.26275915,-0.10962703,-0.18505332,-0.057721138,0.2519464,0.13148038,0.11171025,0.2774545,-0.22311023,0.28333423,-0.09652186,0.13973638,0.20416065,0.12414765,-0.047522124,0.013539808,0.2521667,0.14248459,-0.104436405,0.07163063,-0.010605501,-0.018427968,0.29843166,0.13281533],[0.09368661,0.1814533,-0.070536196,-0.030529605,0.14565285,0.17390925,0.09523162,0.20927323,0.11785395,0.25419578,0.21230693,-0.29557452,0.079205036,0.019721065,0.30081406,0.10282834,-0.07015906,0.25448477,-0.117834635,0.14887351,0.053457048,0.079766005,0.26357248,-0.026283434,-0.18517931,0.206384,0.13203114,0.22722964,-0.11568382,-0.11094201,0.054603133,0.27829975,-0.10361908,0.22725475,0.25505075,0.035404168,0.31875977,0.09974669,-0.07820638,0.08270875,0.1625746,0.533482,0.05299952,0.039190605,0.118675694,0.57049537,0.050301984,0.028704632,-0.034654167,0.32663152,-0.22639564,-0.2271798,0.19166149,0.24167937,-0.041437436,-0.20401296,-0.14745663,-0.028586555,0.5633043,0.07290122],[0.04198845,0.08667052,0.11352169,-0.04782356,0.1475923,-0.110956565,0.033299267,0.126882,0.056586955,-0.29043138,0.01607321,0.1448329,0.23293312,-0.013468314,-0.10691305,0.14266713,0.1393556,-0.023017386,0.14266995,0.13600838,-0.055675842,0.100590065,-0.022332849,0.16648905,-0.13687487,0.17004125,-0.029284555,0.011434775,0.19469756,-0.021829292,0.6634117,0.19310053,0.11228287,0.23155336,0.38721466,0.6332071,0.41904837,0.25038388,0.11044549,0.38254732,0.64822257,0.74524987,0.34385955,0.18220817,0.016280482,0.6891216,-0.005877036,0.35048556,-0.018396325,0.6545235,-0.01653914,0.20162524,-0.08637919,0.021118727,0.18431635,0.18661216,0.30662984,0.057812396,0.59840405,0.33255637],[-0.055706643,-0.35131168,0.12914516,-0.1535845,-0.2175937,-0.2994124,-0.1445305,-0.3559298,0.29628363,-0.33633858,-0.18971331,-0.05462379,-0.38870883,-0.27451965,0.1262473,0.023898643,-0.046544995,-0.36741173,0.12933919,-0.15119503,0.259985,-0.03335711,0.00019866673,-0.1988266,0.39748976,-0.15296239,-0.0003090052,-0.13014904,-0.036307972,0.07162454,0.26747113,0.14509565,0.062082373,0.084354,0.3122956,0.18850671,0.2784418,0.2944789,0.31674245,0.15350468,0.13140029,-0.020936543,0.17652832,0.06505427,0.42000058,0.07921105,0.11455117,0.22308038,0.05808846,-0.116931185,-0.0053426265,0.20172665,0.40744877,0.16950472,0.0184865,0.013666755,0.15253764,0.30486608,-0.10028768,-0.037676446],[-0.16092034,0.1544818,0.21392053,0.27478322,0.044292502,-0.19599167,-0.102020904,0.2024097,0.098617606,0.14304037,0.21068649,-0.15495391,0.010289399,0.31161276,-0.006626092,0.10799527,-0.1168479,0.041625086,0.2812433,0.045046847,0.31183058,0.3393768,0.19813837,0.3901197,-0.06798433,0.050360225,-0.017920252,0.28920892,-0.16381273,0.19757718,-0.23986708,-0.14669076,0.107522234,-0.019636082,0.02354937,-0.14838924,0.17044069,0.16288628,0.12811016,0.108377725,0.07100851,0.16160324,0.26322228,-0.15104163,-0.050673045,-0.19936739,-0.008480658,0.3196794,0.25679433,0.2452506,0.2561707,0.3458371,-0.04037849,-0.08491819,0.01595515,-0.091373995,0.04509278,0.013306727,0.189374,-0.06841224],[-0.10022314,0.004054939,-0.17673638,0.14405787,0.4112087,0.06460756,0.103877835,-0.05438796,0.10510164,-0.03707651,0.23714821,-0.04611683,0.34981492,-0.071514525,0.26483613,-0.1256899,0.18507597,0.10161852,0.1738488,-0.14161095,0.23225003,0.0111249285,0.33799988,0.3049448,-0.048451364,0.07496788,0.11833078,-0.10995743,0.11843811,0.105784625,0.19138548,0.19567281,0.3344011,-0.03980043,0.604531,0.078050174,0.3782482,0.16643779,0.122218505,0.13057108,0.56860787,0.075524844,0.35692635,0.003092934,0.035698112,0.39470625,-0.2743446,0.3701232,-0.014144025,0.14533123,0.14608967,0.16144828,0.088271186,0.017008802,0.086718194,-0.014783746,0.23754643,-0.021807356,0.3785784,0.19544914],[0.25896597,-0.04981484,-0.104472645,-0.2255233,0.20505454,0.111183785,-0.13964766,-0.19671068,0.020816408,-0.139418,0.057855833,0.2680209,-0.20009573,-0.20317431,-0.116750605,0.2709497,0.0857307,-0.19093983,0.14029358,0.17777066,0.05709392,-0.18101184,-0.14432634,-0.13766737,0.09839021,-0.23812868,-0.035219833,-0.083258405,0.2626234,-0.2399529,-0.51701254,-0.45370722,0.10359077,-0.053618066,-0.51070493,-0.52857536,-0.4587557,0.0077404766,0.11169395,-0.3528547,-0.5222154,-0.5293744,-0.17890546,-0.09126009,0.0685565,-0.5427673,0.10181444,-0.28698367,0.10529767,-0.4827916,0.11339738,0.035380412,0.003624265,0.017805303,0.08089682,-0.09473779,0.11895583,0.081138715,-0.5820847,-0.06766089],[0.006574837,0.052419476,-0.013472595,0.2501929,0.50706273,0.34552738,0.18600978,0.15168802,-0.043437812,0.46206358,0.32547727,0.2908707,0.41371408,0.39367035,0.14952008,0.4703282,-0.13231972,0.28007016,0.27830976,0.18244585,-0.10125831,-0.039740857,0.2245742,-0.03527144,0.0014515136,0.37965074,0.09964323,0.28410262,0.3619132,0.070449665,-0.027488327,0.2243307,-0.017017467,-0.29579785,0.39759856,0.0030607004,-0.17514952,0.24519205,-0.06892309,0.026137874,-0.041127168,0.15209016,-0.03267054,-0.091667786,-0.18553749,0.12922145,0.0236153,-0.13894433,0.109310344,0.09899188,0.12629956,0.108575605,-0.0018432263,-0.029907966,-0.073808074,0.010534546,-0.027784068,-0.13240677,-0.010902826,0.001847099],[0.3947336,0.017482007,-0.23446685,-0.37973917,0.21107852,0.09438321,-0.11022629,-0.37616944,-0.13062225,-0.25651714,0.12494711,0.383329,-0.35707211,-0.39233258,-0.21409652,0.3681991,-0.06381701,-0.28239733,-0.1120396,0.23762147,-0.0015476719,-0.25945094,-0.28178716,-0.2836706,-0.01838128,-0.36295062,-0.18248269,-0.27091888,0.36953098,-0.29766816,-0.6578353,-0.64526993,-0.06406795,-0.15067682,-0.70996165,-0.64495784,-0.57343,-0.2117012,-0.0007238319,-0.502,-0.6566143,-0.73579764,-0.39174822,-0.27268967,-0.024717037,-0.7319975,-0.008308757,-0.41687474,-0.025885489,-0.6975865,-0.036087055,-0.12451646,-0.08533614,-0.09856004,-0.031735457,-0.28212142,-0.01763346,-0.04214334,-0.73329425,-0.28689694],[-0.08224281,0.18147485,-0.04146435,-0.08383359,-0.3178904,-0.11133745,-0.26912808,0.110007696,-0.057864487,-0.10861292,-0.07886519,-0.27234018,-0.06533533,0.29577547,-0.0072691515,-0.26269668,0.13550499,0.17156665,-0.006262977,-0.06587955,0.48281327,0.1618341,-0.113282226,0.23325782,0.4205355,-0.28271443,0.36252072,0.10314632,-0.35022482,-0.068472296,0.4262837,0.32206622,0.13720341,0.36921194,0.30463868,0.42004618,0.14341435,-0.051352825,0.23890752,-0.0031478205,0.4126549,0.29415306,-0.051176272,0.32234544,-0.06153929,0.33053887,0.29446507,0.30881795,0.23237796,0.26291636,0.1808048,-0.0076116095,0.15831614,0.006444028,0.1814227,-0.014781774,-0.16346592,0.22899644,0.15810102,0.12201963],[-0.31003508,-0.2531523,-0.31766284,0.35422194,-0.29817748,-0.13645473,-0.49277845,-0.033883624,0.116007484,0.0132864285,-0.08421916,0.100613415,-0.32424894,-0.049694013,0.14062823,-0.183886,0.22245228,-0.39075497,0.1685145,-0.17177176,0.13932829,-0.023156168,0.05560272,-0.27847624,0.11981263,-0.029193662,0.08444262,0.25340104,0.062552504,-0.27495444,-0.021491896,0.3526764,0.3514803,0.27791205,0.36119217,0.1062385,0.03308099,-0.11834519,0.012412952,0.39101782,0.1872958,0.36818215,-0.07833203,0.2679578,0.21464333,-0.069291405,0.1151549,-0.2629558,-0.03439666,0.19104843,0.2387732,0.14495659,0.43891755,0.50637686,0.26526964,0.25822258,0.11924739,0.22391361,0.3642167,0.20662776]]],"bias":[[-0.42980784,-0.061876167,0.6654594,-0.0968878,-0.08941545,0.007327171,-0.261772,0.4019577,-0.057181824,-0.35552752,0.29377612,0.29123724,-0.27479646,0.03324861,0.394334,-0.15137625,0.44115695,-0.087601736,0.06484673,0.2843963],[0.13066465,-0.015593341,0.199951,0.15926863,0.016364811,-0.10667622,0.07797076,0.016313773,-0.11044362,-0.048502315,-0.015293926,0.22152023,0.08047687,-0.048345078,0.008046446,-0.18287967,0.06333495,0.2204747,0.15718715,0.08904555],[-0.09264574,0.020459566,0.171495,0.09991736,-0.1399388,-0.12065295,0.06286893,0.055562556,0.11421995,0.013853448,-0.0477311,-0.106815904,0.048503783,0.036063533,0.16565347,-0.17390214,0.12168414,0.01186627,0.1639817,-0.13668364,0.33419633,0.12704304,0.08883262,0.101365216,0.23211129,0.10224412,0.24356103,0.16131303,-0.10691902,0.09605085,-0.07660881,0.074085176,0.13836636,0.28604972,-0.04525234,0.06405909,0.087714046,0.14753187,0.077543184,0.13577174,-0.036132228,-0.00019648141,0.0821165,0.14573683,0.1315352,-0.059670687,0.23431674,0.04617759,0.15365894,-0.077107124,0.04889792,0.24292614,0.21007468,0.230618,0.06878667,0.22727048,0.077890955,0.13036266,-0.046756487,0.12449784]],"Losses":[0.9537594616953871,0.7788871539411834,0.6272004825403674,0.5027677359163054,0.4148913047470757,0.3616391220532928,0.3258669304254138,0.29617338392748316,0.27331095566653246,0.26205282752631254,0.26064522312243765,0.2636522804864975,0.26682831925719236,0.2679643606058805,0.26622215170408053,0.26180920764998294,0.2557141842586551,0.24921536114397055,0.24334939904727398,0.23857800999854675,0.23480924286633886,0.23174443014343088,0.22921177212914626,0.2272135471708091,0.22577918951697762,0.22482798464634182,0.22416736493298456,0.22359508188488955,0.2229865686001034,0.222299146649396,0.2215240301371313,0.22065489270668562,0.2196954264501304,0.21866678759855385,0.21758737712239032,0.21645258893238542,0.21525266521112998,0.21401350157840757,0.21280466614017185,0.21169893794625882,0.21072999401777087,0.20988469837596468,0.2091148632199737,0.20834917716623633,0.2075132350265227,0.20656048212929737,0.20549023161144575,0.20433356923103274,0.2031226887238326,0.2018722851440247,0.20058146790557177,0.19924536918496322,0.19786406080526142,0.19644141404189372,0.19497525783509245,0.19345131161213536,0.19184991295519294,0.19015566804748085,0.18835946423946295,0.18645888069603325,0.1844615093530652,0.18238257083414636,0.18023606290312208,0.1780305427339972,0.17577325259789647,0.1734775445771631,0.1711648723809137,0.16885573348653782,0.16656120541437305,0.1642819554706392,0.16201308333459738,0.1597540004191023,0.15750794549564004,0.15527533183770503,0.15305132385145753,0.15082566904282632,0.14858495900826163,0.14632089831696554,0.14403728658076637,0.14174394330471668,0.13945587620270025,0.1371951905702405,0.13498797310883087,0.13286180634060166,0.13084589413875714,0.1289623231025527,0.1272201633507321,0.1256185863077245,0.12415021283020328,0.1228016901646482,0.12155513842442676,0.12039231303580301,0.11930131104847175,0.11827670545884701,0.11731692488253101,0.11642319835973367,0.11559782923771107,0.11484280401071452,0.11415564064740744,0.1135286180897619,0.11295127927396899,0.11241446959733087,0.11191099585194675,0.11143309364362511,0.11097367321022594,0.11052862307330558,0.11009697013034807,0.109678518592274,0.10927336906808122,0.10888271559661253,0.10850780746223017,0.10814907849560798,0.10780598622217373,0.10747771744830828,0.10716347453113328,0.10686231255705239,0.10657341103318232,0.10629620338660328,0.10603030012022634,0.1057750231063845,0.10552936500322276,0.1052920704808216,0.10506183899316679,0.10483742486853333,0.10461788254612338,0.10440268983372304,0.10419174439634822,0.10398523198203594,0.10378360072007306,0.10358727495822742,0.10339640946445108,0.10321083724292544,0.10303017664070298,0.10285386648845687,0.10268126241274037,0.10251180642701986,0.1023451550093137,0.10218113178277224,0.10201957592765053,0.10186041571763808,0.10170363579621768,0.10154924222461931,0.10139734063727998,0.10124851528280994,0.10110488813190367,0.10097375667610915,0.10087949659379726,0.10089663034964202,0.10121783707361397,0.10192636550807582,0.10216886236333007,0.10076704785455731,0.10002025534326812,0.10082500746318963,0.10063010586186283,0.09961637756113599,0.09992371332067558,0.10007113823087578,0.09927895157879318,0.09933996478294743,0.09950813122312674,0.09890556902549978,0.09887554360722688,0.09899539247127633,0.09852377317681275,0.0984614226796377,0.09852414069350068,0.09815098358153114,0.098070061425335,0.09808886138869367,0.09779081784441786,0.09769346777407852,0.09768511074782264,0.09744254237511454,0.09733186822194356,0.0973066143350833,0.09710639157373488,0.0969853451710803,0.09694771141631446,0.0967833670011444,0.09665398885776176,0.0966057590611283,0.09647366211863175,0.09634002971197185,0.09627997111676305,0.09617631082063087,0.09604545959619738,0.09597101550507252,0.09588949653287467,0.09577031449210707,0.09568154146832576,0.09561177069645999,0.09551198200781019,0.09541454965384272,0.09534423802092556,0.09526471447276615,0.09517010253057556,0.09509144781135513,0.09502314242729089,0.09494204825620683,0.09485842483817043,0.09478818825352732,0.09472008467128026,0.09464311656173145,0.09456729018876484,0.09450037244539221,0.09443404167529257,0.09436213337293656,0.0942908553763092,0.09422534402150398,0.09416129758314515,0.09409404630455456,0.09402587805011331,0.09396091049954006,0.09389848103655168,0.09383524508934299,0.09377044873493252,0.09370626448134298,0.09364424061142672,0.09358353521917204,0.09352254445580482,0.09346094477284725,0.09339967750764569,0.093339616924394,0.09328074881961493,0.0932224285223001,0.09316419077205682,0.09310602235150764,0.09304824804252636,0.09299115085205117,0.09293482615618609,0.0928792083296837,0.09282417381700872,0.09276962902704458,0.09271552949883068,0.09266187445419413,0.09260866801488762,0.09255594453688787,0.09250373572743485,0.09245211360793162,0.09240117405639822,0.09235113413440524,0.0923024055512641,0.09225599309150848,0.09221403855297712,0.09218215831628725,0.09217240790035805,0.09221679838999332,0.0923655133435909,0.09270378491877006,0.09309377082704143,0.09321617379379342,0.0927643620237241,0.09235502818889982,0.09229896828375024,0.09219335387937218,0.09194208808423307,0.09184350037285137,0.09207609347922319,0.09218691175478057,0.0918063834767218,0.09149176650300611,0.09159295661872856,0.09175560270813925,0.09165212512395098,0.09145224917339839,0.09143796912063709,0.0914674655135117,0.09134498547914557,0.09123398248329852,0.09126844745285366,0.09131612546510535,0.09124080779498271,0.09110158906132182,0.09104042204502046,0.09105485543754202,0.09105439695603046,0.09100863608866736,0.09095072268084997,0.09091574232931918,0.09089831414307302,0.09085989361563836,0.0907936205798341,0.09073516911500193,0.09071408062613083,0.09071390140342518,0.0906985215894462,0.09065836449163811,0.09061051076412352,0.09057349460819354,0.09055066884012282,0.09053806707542106,0.09052923682653188,0.09051752442894377,0.09050687651137641,0.0905056126098975,0.0905339233383251,0.0906072134931719,0.09073516391963897,0.0909254706307916,0.09113853464887617,0.09127285068710067,0.0911976451640262,0.0908562272587017,0.0904236118746237,0.0901240880734231,0.09007374069565417,0.09021924193857912,0.09041430880447818,0.09050740419089877,0.090416090836379,0.09019820824250212,0.08997615781798049,0.08986386447567789,0.0898770105150626,0.0899595635246374,0.09003632598409722,0.09005033784948177,0.08999260797976502,0.08988247633071966,0.08976998929916412,0.08968311474792728,0.0896349492429072,0.08961596369531805,0.08961215647335945,0.08961287245511822,0.08961665403913548,0.08963071456002805,0.08965908476845955,0.08971430028107222,0.08977725400238838,0.08985392649202517,0.08986591742679786,0.08982132016679267,0.08966005131051422,0.08946685691006892,0.08929196874643734,0.08919459297643012,0.08917646701765816,0.08921037238252776,0.08926544893077405,0.08930696443370383,0.08933141595856853,0.0893116908436471,0.08927187197115165,0.08920443438460172,0.0891466332592706,0.089106982881288,0.08910960391839153,0.08915884675224943,0.08924963752162146,0.08936483141707663,0.08944539279766239,0.08945248497846778,0.08934606864749046,0.08919627183782189,0.08911073760179593,0.08916217646352752,0.08936507069516987,0.08949855665189572,0.08947003892120389,0.08909027727124445,0.08865631446942039,0.0883800000123588,0.08836934578751968,0.08853413692003075,0.0886980787486428,0.08875420861641893,0.08863334298122301,0.0884597071035354,0.08832032340065132,0.088280667502779,0.08830388469607767,0.0883064169958477,0.08823785936299461,0.08809579454063597,0.08794817744202939,0.08785101100179704,0.08782351467884657,0.08784246868418533,0.08786623733847328,0.08786484206574105,0.0878305230353515,0.08779868401241976,0.08784361167948186,0.0881131113753266,0.08890609727228417,0.09041851692141868,0.09216994581387239,0.09110516518433509,0.08859723117310003,0.0876108345413048,0.0887255366936635,0.08961958088568575,0.08837052329550991,0.08748977203487351,0.0882088427381835,0.0886494002779557,0.08777380992050324,0.08701613490807533,0.08755179100455973,0.08813127858898057,0.08748948335321759,0.08682714011921171,0.08707589449813725,0.0874688803164935,0.087189504257351,0.0866842657674114,0.0867316961677745,0.08703837983504946,0.08691723017132838,0.08652842646996844,0.0863930384240109,0.08656085797195125,0.08664496201641667,0.08644624528062238,0.08622438811335476,0.0861887262753664,0.0862426224340146,0.0861948309489079,0.08602878969918325,0.08590001755837255,0.08588740400429287,0.08591862965993102,0.08588530423074821,0.08576965921039933,0.0856575031394976,0.08562835302200492,0.08569616901678456,0.08585470877752058,0.0861297189884621,0.08670367680274804,0.08765527607391571,0.08886981495881836,0.08910876775319976,0.08787027944940022,0.08594179212257096,0.08489331581192594,0.08508814568149461,0.08605860020845095,0.08690559782822553,0.08667454232025448,0.08563410457267252,0.08468565703480105,0.08445961063067275,0.08483968465368959,0.08536405651712432,0.08558290495754464,0.08522985751346437,0.08461877702710421,0.08409457229467854,0.0839090662517011,0.08404158845930136,0.08433474904122888,0.08460909977859063,0.08464362216314762,0.08445675346257316,0.08407394799907675,0.08369373002627113,0.08338842158243315,0.08318517884711804,0.08306498755772716,0.08301137359047242,0.08302447296334103,0.08312515977201929,0.08338254126556331,0.0838997816228868,0.08487472421581423,0.08606452050328059,0.08693498056911922,0.085902943570746,0.08399693789865445,0.08242343921728883,0.08199020886709009,0.08252890384829044,0.08354296519116912,0.0843989132300464,0.08413969390802922,0.0830938581946834,0.08195140816020788,0.08139075731441424,0.08144722258863307,0.08190190346663148,0.08249711912306855,0.08281302652607919,0.08271203118989405,0.08210416390668562,0.08139063084271564,0.08079927985999674,0.08044713002243385,0.08030924777787418,0.08034373782905685,0.08054945167591518,0.08096313270063214,0.08169563439038866,0.08264278145599306,0.08361603624706686,0.08353260089486196,0.08253740399262137,0.08092214342668004,0.07976547292955251,0.07922234117291402,0.07920425328816025,0.07955898915208598,0.08019497793233443,0.08104177640892295,0.0817334330548431,0.08202863781511473,0.0813903011202586,0.080497383023948,0.07960916294762596,0.07919969606590663,0.0790238318848104,0.07891385215606553,0.07859696304454847,0.07821438818097638,0.07805235370386991,0.07844315372452489,0.07969993358276209,0.08148488360448129,0.08301865937070958,0.08187862004871814,0.0797406221252183,0.07784713877482241,0.07698169225369215,0.07678859999624253,0.07691349839721248,0.07730471109739864,0.07804407094895953,0.07942629081995885,0.08062447618420246,0.08069318816584665,0.07879040758620046,0.07675406067693892,0.07548522168683937,0.07509656855604059,0.07531237052915063,0.07594667872560311,0.07695479402010434,0.07814674246464896,0.07927930513581606,0.07924702848438887,0.07840494988055899,0.07682695001358388,0.07559671254601553,0.0746615222726396,0.07408725817786806,0.0738244283414021,0.0739317412462637,0.07456322206104034,0.07593191471606094,0.07823294608010073,0.079863606584373,0.07966275077330258,0.07697064621892383,0.07467786582913169,0.07336603114260372,0.07285300060701017,0.07280686698658234,0.07314915824613633,0.07410974913142847,0.07589244790340588,0.07836031813409865,0.07891260187661756,0.07712520199825987,0.07421081203906761,0.0723770795979317,0.07159148073809209,0.07148583228572629,0.0718713173021169,0.07282508017573365,0.07460784794346734,0.0767382339754049,0.07801555152696496,0.07640674335008167,0.07421134638527888,0.07251875415490709,0.07177526686117874,0.07144374609133812,0.07128749167789288,0.07124152417553016,0.07150019254105901,0.07250847070076015,0.0745372904175295,0.07715805935892565,0.07710866142263365,0.0748385296188993,0.07198118100076627,0.07039698133055887,0.06975992057471996,0.06962056496578034,0.06969740356908911,0.06989634339075425,0.0703145110541713,0.0711848150908358,0.07310914811267323,0.07583759711630605,0.07788258582818715,0.07572799802382488,0.07246595508844679,0.07008213052188175,0.06896647046254646,0.06855303745740811,0.0685125735861378,0.06876984603024743,0.06948399388376861,0.07110873459711299,0.07386628865688391,0.0767810827950863,0.07591974814610827,0.07304807098832546,0.07033627701165641,0.06898476892590634,0.06835472195914027,0.06807852769550445,0.06800153813932414,0.06819228769842112,0.06895178819183684,0.07078948612367914,0.07405905604749372,0.07607408113135233,0.07480546587371968,0.07110237385052623,0.06871953798121672,0.06764731541643265,0.06728721097063559,0.06722314513687931,0.06731275872365468,0.06759935248811969,0.06829643155878994,0.06993346347513422,0.07267455406635553,0.07548889850052899,0.07441392976068523,0.07139494571572677,0.06873731231130711,0.06739533293442304,0.06679400246185813,0.06653768210387573,0.06642921239816284,0.06640249723483058,0.06646991380538962,0.06673863634460024,0.06751781913183726,0.06940894091738785,0.07304614698596607,0.07583891667186829,0.07473885736239713,0.07047111866971845,0.06776668061271805,0.06656817729196088,0.06614897648583692,0.06602580538900173,0.06604151538541769,0.06620721533387748,0.06669283178682693,0.06795226339501279,0.07051858108972116,0.07409555961845372,0.07453429585133009,0.07181860190766118,0.06847810025841734,0.06671111385567904,0.06592721353552518,0.0656083151548579,0.06546602555726327,0.06540830999296916,0.06543561660810474,0.06563351435800586,0.06625589863169383,0.06783195161086358,0.07106909405821295,0.07423915508499374,0.07409724137712996,0.0700514073319452,0.06710210581362776,0.0656994746374979,0.06517238895832418,0.06498343845466178,0.06491726496990183,0.06489960539220467,0.06491897349601068,0.06501029976295385,0.06527973504609469,0.06602664400102272,0.06782357392254977,0.07137159165553372,0.07434425748676632,0.0736409856553872,0.06957312030661145,0.06690099588094396,0.06571635722212621,0.06531328240103586,0.06515928008190798,0.06505589596174859,0.06493390634938884,0.0647928650416225,0.0646729397699276,0.06463181742886241,0.06480836896485352,0.06552362851879663,0.06755297584012936,0.07143144356052293,0.07508877569696706,0.0726088377820088,0.06841672345012753,0.06576492354608719,0.06471411068574309,0.06434761791810502,0.06423383538892236,0.06420290134148564,0.06421444236288375,0.06428867453869869,0.06454340850063389,0.06526389318301593,0.06711698692490853,0.07048953071950956,0.07380577790316782,0.0720771529399694,0.06842197720295931,0.06577293166243514,0.06460252750846937,0.06413740206247531,0.0639679869237693,0.0639329993359731,0.06402731608782375,0.06436458078088672,0.06527251788198614,0.06724095227810951,0.0704447909872066,0.07211116525782237,0.07061376680195956,0.06733767825448365,0.06527034227321236,0.0642972124680979,0.06392091703229728,0.06379542405823695,0.06381032480619858,0.06397865566107654,0.06445733216180713,0.06553819669273289,0.06762012146788438,0.06997760097097165,0.07089369738295685,0.0687794501162137,0.06639602604159707,0.06481210295810248,0.0640763005289761,0.06377368391610187,0.06371203615387243,0.06383396054838245,0.06423644909155422,0.06510656579433015,0.06671849333479252,0.06860494866416181,0.06968422725373304,0.06845147447991544,0.06656236396096653,0.0650122149663364,0.06419407834037244,0.06382057125047567,0.06373305951714736,0.06385352745104197,0.06425838853799597,0.06505287949550853,0.06638641697841252,0.06776151201579063,0.0684902152879393,0.06760437013097585,0.06620774307576376,0.06493807127436471,0.06420590563471458,0.06384342380576738,0.06376390625441875,0.06389872360114367,0.0643141806979741,0.0650424697598385,0.0661343582131097,0.06708617973866311,0.06749416797616403,0.06678689028572103,0.0657562810490579,0.0647695968194311,0.06417203626392279,0.06386057201990998,0.06381072201618396,0.06396162706053259,0.06437173988606898,0.06500545829957023,0.06585775782522889,0.06647596874630664,0.06667182646015155,0.06611035051017088,0.0653575412870122,0.06460716263997199,0.06413863768342284,0.0638830358484815,0.06386057354467488,0.0640106126420378,0.06438501257344556,0.06489886548140777,0.06553592582462636,0.06592522446587674,0.06601603727698233,0.0655859881014539,0.06504090783808357,0.06447012386621276,0.06410599582680296,0.06389696014976311,0.06389092595081046,0.06402415048156959,0.06434316610949187,0.06473867016924395,0.06520456319819211,0.06545024471706729,0.06549729756507087,0.06517593488457249,0.064785392289014,0.06434925216205714,0.06406855001600482,0.0638949090953294,0.06389586242248459,0.06400141992158413,0.06425969730625934,0.06455225057876032,0.06489266910527088,0.06505196279227039,0.06508597217988994,0.06485126551882729,0.06457458595044535,0.06424052524173852,0.06402427811573946,0.06387692158776788,0.0638770722576833,0.06395114772508298,0.06415123958222622,0.06436057730316791,0.06461082856081264,0.06471713015741663,0.06475108879408517,0.0645825273103295,0.06439156712272975,0.06413530996498717,0.06397031538631735,0.06384244031070808,0.06383856767523986,0.06388225943556738,0.06403211102894432,0.06417697270111278,0.0643626716818714,0.06443563171371877,0.06447266594477864,0.06435375536101212,0.0642259927393172,0.06402969377991512,0.06390488553149178,0.06379232298738644,0.06378344218708258,0.0638007910812739,0.06390970203663697,0.06400546565946404,0.06414487781667919,0.06419511314240114,0.06423560342883387,0.0641524825377971,0.06407182308762076,0.06392161031593938,0.0638293187064098,0.06372981600939412,0.06371729475916954,0.06371391730722839,0.06379076047135829,0.0638497791591309,0.06395464902917483,0.06398835083148861,0.06402964656854974,0.06397168145465121,0.06392449688131564,0.06380969838366805,0.06374319695100839,0.06365547469488451,0.06364134932020549,0.0636228130226045,0.0636759945571257,0.06370750152349204,0.06378715728625249,0.0638074834998437,0.06384831792496054,0.06380669517717431,0.06378370318643636,0.06369560730535738,0.06365036730085535,0.06357385248476204,0.06356062844097199,0.06353249014803464,0.06356867260922179,0.06358041570056797,0.06364029992223655,0.06364983239407992,0.06368705557669012,0.06365541774854959,0.06364716964313583,0.06357851616328979,0.06354879916311776,0.06348242102084714,0.0634715924497427,0.06343834886242593,0.06346403870669372,0.06346221138627349,0.06350902271609186,0.0635095712616957,0.06354382004215575,0.06351649372870974,0.06351801851503,0.06346163648237865,0.06344389259727531,0.06338551546290731,0.06337844759064207,0.06334374290508374,0.0633640243879121,0.06335525108456097,0.06339387003636164,0.06339003420798264,0.06342093553495978,0.06339652173645807,0.06340077364666158,0.06335067260070315,0.06333578656868422,0.06328035426472345,0.06327210212454569,0.06323600681638358,0.06325326867481307,0.06324297439414733,0.06328144434565355,0.06327913361629356,0.06331384845717891,0.06329219060157928,0.06330036372814009,0.06325007557480232,0.06323527464584856,0.06317588823315225,0.06316454415328668,0.06312425440107136,0.0631392579196941,0.06312932732241762,0.0631705550848338,0.06317595844590254,0.06321877339199797,0.06320815124674542,0.06322214250613514,0.06317553536604169,0.06315467291364259,0.06308596591315448,0.06305790404456618,0.06300377890944453,0.06300557790856799,0.06299291287178352,0.0630386741459883,0.06305872404176396,0.06312159593557316,0.0631286590371677,0.06315703526800742,0.06311018769442213,0.06308387327981621,0.0629986536628745,0.06295653016676386,0.06288864515610704,0.0628841380431715,0.06287131341226197,0.06292270074680956,0.06295429004431272,0.06302882672000547,0.06304950858425803,0.06308406263989881,0.06304104358498867,0.0630078010955398,0.06291524646560197,0.06286012751336893,0.06278517899446234,0.06277489557241592,0.06276411986960964,0.0628204118050801,0.06285838487024366,0.06293838120350863,0.06295734739998068,0.06298871147102977,0.06293736174365232,0.0629019285069362,0.06281075781374074,0.06276596025742463,0.06270397641282285,0.06270746299802134,0.06270472324492297,0.06275999538142586,0.06278781318861304,0.0628472287738547,0.0628469519985362,0.06285914840882242,0.06280569472481376],"R2":0.13853114254014598}