{"architecture":[["Dense",[4,20]],["Dense",[20,20]],["Dense",[20,20]],["Dense",[20,20]],["Dense",[20,20]]],"Node_Indices":[44,83,62,27,50,94,51,30,96,74],"weights":[[[-0.4861135,4.154715,-1.8266511,-1.183633,3.8587904,3.574908,-0.21489397,-1.540517,-2.6537426,1.5389967,3.4079573,2.8890028,1.2737406,2.2919595,-2.399154,-1.7850243,1.324285,-1.3311781,-1.0268396,-0.9148191],[0.62983525,0.6629385,0.4413125,-0.08397689,0.6875665,0.10369878,-0.45515248,0.25817809,0.8379099,1.5097524,0.43764818,-0.3174434,0.57245106,0.09144232,1.1010586,0.12434348,0.0333741,0.3757833,-0.49327487,-0.16802198],[3.4897335,-0.697804,4.040474,-2.245971,-1.6997607,1.6570454,4.1700554,-1.9558431,-2.3881397,-1.4285779,-0.10927006,-0.47401702,3.4842699,0.44483763,0.29742327,-1.7330741,-1.836649,4.4787536,-2.4228299,-1.7647575],[0.008428346,0.38864306,1.0069382,-0.15989354,0.97896206,0.02544936,0.28218323,0.2648165,-0.07558211,1.0600102,0.26628214,-0.42167732,-0.5014055,-0.47155595,0.7451943,0.4936105,0.27504364,0.22218762,-0.06344685,-0.7782492]],[[0.36186415,-0.0584694,-0.3018528,-0.059877045,0.015011765,-0.19510786,0.3712894,1.2304447,-0.03737293,0.26433596,0.11899788,-0.5589352,-0.31867033,-0.14942892,-0.2832627,-0.25391683,-0.2498834,-0.5539919,-0.48860997,-0.4886669],[0.1930192,-0.22080457,0.4911178,-0.5531518,-0.24032427,-0.25999755,-0.3163874,-0.66182065,-0.2801787,-0.15675369,0.89778936,1.1578739,-0.096637815,0.16620685,0.45500842,0.014088652,-0.24996287,-0.16951087,-0.32666862,0.99875927],[0.28802344,0.20156467,-0.3335942,0.5396444,-0.49831563,0.02855246,0.8986805,0.9366374,0.5529696,-0.18910253,-0.7409006,-0.66859686,-0.365483,0.111812115,-0.20339704,-0.13539079,-0.48391208,-0.24177544,-0.28786424,-0.35604697],[-0.05400292,0.36788592,0.12797514,0.2152323,-0.26654172,0.21473876,0.08115567,-0.9765238,0.3857923,0.1342612,-0.6961426,-0.2531496,0.1920638,-0.24997497,-0.30506447,0.079477705,-0.36020112,-0.17691207,0.0324386,-0.23318323],[-0.29375294,-0.107963055,0.01806902,-0.30692935,0.13172844,0.0580728,-0.44667095,-1.0993884,0.001415714,0.051092315,0.40855816,1.321767,0.076205164,-0.032928284,0.17520411,-0.013226323,-0.25483057,-0.35129404,0.03604735,0.8768545],[-0.15239845,-0.3809856,0.40158847,-0.35981944,-0.08589772,-0.13296011,-0.39733145,0.61050844,-0.34869438,0.24164903,0.5314022,1.0505004,-0.3758416,-0.25302538,-0.04933832,0.05670817,-0.16191281,-0.17546332,-0.15776908,0.9204507],[-0.1373059,0.124727026,-0.28698736,0.49411258,0.065751165,-0.00571038,0.18295848,1.2563752,-0.17806353,0.0069433986,-0.34919083,-0.52581084,-0.08102743,-0.22689173,-0.21697587,-0.092057526,0.16807391,-0.28946218,-0.3802765,0.102298774],[0.20697814,0.52385193,0.120379426,0.065290235,-0.33702046,-0.007417627,0.2405114,-0.7290282,0.4098707,-0.18132749,-0.5931004,-0.6932386,0.28041932,0.07132567,0.04881996,-0.40553108,0.035011377,0.13176596,-0.1960341,-0.6157676],[-0.4089483,0.08859907,-0.5826404,0.93540645,-0.2035049,-0.03998675,0.25463697,-0.9628964,0.45373818,-0.434861,-1.0475062,-1.2804075,-0.25962502,-0.3058371,-0.013514119,0.11360759,-0.15927556,0.004067225,0.10645611,-0.8391832],[-0.055603847,0.23603985,0.4083052,-0.11743126,-0.068043366,0.3965041,0.1003165,-0.39641038,-0.20204996,0.3260177,-0.005406457,0.2702846,-0.038928345,-0.016112834,0.39711326,-0.31464717,-0.4880913,-0.4906404,0.17120013,0.120068945],[-0.27605262,-0.38886547,0.59172046,-0.10604923,-0.030347822,-0.24855214,-0.076621234,-0.40898293,0.30753493,-0.23059544,0.9268478,1.0289693,0.21597186,0.012971987,0.37320644,0.041027304,-0.26641268,-0.022145867,-0.4821891,0.97293186],[-0.26009506,-0.17882542,-0.12700687,-0.21348001,-0.1838201,0.21061409,-0.36522773,-0.35961422,0.032329466,-0.13765575,0.6666072,0.874998,0.13436165,0.18875965,0.30500552,0.18171725,-0.18878977,-0.2242718,-0.3971832,0.26359588],[0.08648897,-0.05401625,-0.04523075,-0.1910713,0.058146562,0.5350722,0.14328636,1.0217266,-0.34983525,0.21681264,0.33754128,-0.1318344,-0.1289872,-0.13124211,0.35409993,-0.16859204,0.2614657,-0.0012960903,0.120003395,-0.014915807],[-0.41165963,0.1546881,-0.002179161,0.21290353,-0.14993668,-0.3175734,0.054397523,0.044960167,0.133964,-0.42394483,0.63582337,0.25781128,-0.26368156,-0.24250646,0.4529531,0.2186058,0.32281703,0.13365445,-0.4286929,0.5533093],[0.1639475,0.086828746,0.1608187,0.61999214,-0.15222126,-0.21404868,0.046254262,-0.06970173,0.16862942,0.097018376,-0.6305895,-1.2008295,0.092752315,0.015747452,0.13671441,-0.28868967,0.14767049,0.07865396,-0.5946193,-1.1751666],[0.24448831,0.6408891,-0.4609916,0.71383524,0.2227292,-0.32382625,0.36138093,-0.8383517,-0.047412127,0.1719598,-0.5305264,-0.62161094,-0.19926332,0.034725267,0.034565922,0.11075429,-0.4461382,-0.2009847,-0.309641,-0.5950012],[-0.04583939,0.47597,0.11625895,0.38954943,-0.013634949,0.030379377,0.35116678,-0.9062456,-0.04639811,0.04143552,0.08225067,0.57716984,-0.34300408,0.12534814,0.33267766,0.056258004,0.21307157,-0.4343246,-0.27643678,-0.21304837],[0.1723734,0.07553996,-0.3421513,-0.081365384,-0.38905916,0.006378062,0.8748417,1.5467927,-0.011216832,0.1271095,-0.07305817,-0.78541887,-0.4023308,-0.25485286,-0.40383637,-0.13126259,-0.3015802,-0.18202302,-0.3102469,-0.8442255],[-0.015507317,0.49381864,-0.025962085,0.25946832,-0.31438622,-0.10520022,0.27677032,-1.0077559,0.7160618,0.06126262,-0.6179962,-0.44488508,-0.22755246,-0.1295782,-0.2749852,-0.14375684,0.14339672,0.09860807,0.046619304,-0.0033542993],[0.114409894,0.32154512,-0.21032247,0.47562167,-0.24476202,0.18843606,0.045747876,-0.6564775,0.24943246,-0.49931026,-0.020471336,-0.26951206,-0.40973717,-0.18220253,-0.37795812,0.11852884,-0.010995602,-0.16108914,-0.5417451,-0.33735767]],[[0.19103874,-0.24419957,-0.32579792,-0.3480868,-0.3736745,-0.20217687,0.11961323,-0.26483572,0.167632,0.07800571,-0.37124348,-0.2989162,0.22662838,-0.3127145,0.12772097,-0.09758702,0.24036983,-0.27869526,-0.46018797,-0.09665878],[-0.35036817,-0.53834367,-0.26884648,0.09081156,-0.5716597,0.19129308,-0.14603072,-0.0028176177,-0.14687124,0.2834184,-0.50720894,0.17490193,0.17711212,-0.41346264,-0.47262785,-0.25849232,-0.24084929,0.1848536,-0.42196015,-0.26282933],[-0.014240944,-0.071212225,0.3918945,0.20588116,0.42576635,0.27104872,0.15703785,0.48249698,0.09992243,-0.43049332,-0.006369049,-0.24508132,0.29579875,0.28649178,0.2258385,0.076185375,0.23669873,-0.47370014,0.03612158,-0.37831587],[-0.28823432,-0.56786644,-0.24931465,-0.06324634,-0.62605417,-0.036361378,-0.23307046,0.5526479,-0.1496226,-0.07476265,0.124571316,-0.18263696,-0.3904089,0.1034623,-0.067056485,-0.24351113,0.04491367,-0.08826322,0.2033622,-0.2800089],[-0.117360294,-0.41723192,-0.19039808,-0.21881208,-0.24407826,-0.21079826,0.1212222,0.48016477,-0.30283698,-0.33857948,0.2778413,-0.2740028,-0.07217057,0.007898077,-0.32630157,0.10392128,0.21640696,-0.12852994,0.034251884,0.26503715],[-0.19320181,-0.31551468,0.31193045,-0.44622952,-0.6683089,-0.30573457,-0.5030261,0.27127677,-0.3938597,0.22664237,0.057686213,0.14035657,-0.13610065,0.43558627,-0.46429843,0.18439643,0.016578276,0.00011813149,-0.5047756,0.4819323],[-0.38520986,0.034892622,-0.16411617,-0.16989447,-0.74403983,-0.060122907,-0.40869975,-0.18257676,0.12375849,-0.20266864,-0.28375697,-0.38600925,-0.12890077,0.21236378,-0.7813787,-0.12979963,-0.6239708,-0.048424404,-0.24316898,0.13654023],[0.16262181,-0.6147868,-0.7826851,-0.13805723,-1.565609,-0.25454104,-0.21009985,-1.5803591,0.30783275,0.25608537,-0.55145127,-0.23910692,-0.19073938,-0.6192029,-1.3133752,-0.6729751,-0.89129364,-0.37751782,-0.075877026,1.4831102],[0.06999009,-0.062354248,0.06863303,0.13833988,-0.7369616,0.118979886,-0.35645485,0.117010616,0.11079013,-0.05641605,-0.45486304,-0.51040906,0.16813533,-0.31361115,-0.6369133,0.055126406,0.12936366,-0.27891618,-0.47232792,-0.19828305],[0.23937328,-0.43147945,-0.030473294,-0.18877113,0.12081803,0.2186622,0.08021657,-0.19350685,0.2839802,0.30532798,-0.16992366,0.076151595,-0.37867063,0.06269302,-0.23163645,-0.22483292,0.19915457,-0.14010781,-0.35950407,-0.119599536],[-0.19328466,-0.34268752,-0.007803492,0.17964116,1.1223311,0.24090387,0.2329127,0.018021204,0.28469607,-0.59312487,-0.35122228,-0.19068426,0.027913336,-0.072242506,0.62774795,0.30070892,-0.18737595,-0.030262532,0.19565247,-0.096396185],[-0.21023741,-0.45091593,0.22179148,0.091072336,1.2091826,-0.10457799,-0.23125418,0.5643981,-0.21893315,-0.32711488,0.014666889,0.24141301,0.099800594,-0.5675228,0.7877328,-0.19921753,0.28228468,0.21470253,0.16759486,-0.91696435],[0.22158459,0.22709608,-0.09375504,-0.08797595,-0.25175166,-0.33162406,-0.22230595,0.1623817,-0.27090442,-0.19118267,0.004998041,-0.38877466,-0.022915812,0.23668335,0.12185347,0.22670823,0.3613842,-0.15590078,-0.39750415,-0.15740848],[-0.45978075,-0.50793403,-0.33863327,-0.19528238,-0.07413806,-0.04424832,-0.2957469,0.21353875,-0.2944629,0.26770195,0.105068676,-0.3676705,-0.008255857,-0.28327948,-0.0024401895,0.0357646,0.20105727,-0.2811094,-0.35866925,-0.013518937],[-0.22689125,0.029597722,0.060400374,0.14844778,0.41250968,-0.11335815,-0.48058224,0.2972584,0.1854445,0.051052928,0.079942614,-0.44424626,0.3002327,-0.2616937,0.045982517,0.15580781,0.23826806,-0.34370005,-0.15357429,-0.01879884],[-0.48687738,-0.52521724,-0.3285163,-0.3783144,-0.01634627,-0.16735747,-0.45915264,0.469095,0.10886781,0.016809868,-0.13520248,-0.12474477,0.16592737,0.18395002,-0.26918954,0.20466644,0.23549153,-0.18542783,-0.4330306,0.039440032],[-0.3728705,0.24138868,0.012216567,-0.016860822,0.2075472,0.20137273,0.15511446,0.33529478,0.081517115,-0.2723286,0.021116693,0.2123356,0.14976199,-0.33313128,-0.3562595,0.35949096,0.16852692,0.115764655,-0.12322948,-0.04959973],[-0.087064326,0.22934112,0.02132442,0.044439483,0.09993691,-0.16116431,0.24922204,0.14320253,-0.43150678,-0.3993652,-0.043949474,0.17150861,0.20168234,0.24991924,-0.35441455,0.11084457,0.03341289,0.23568308,-0.009084969,0.051489532],[0.27622834,-0.19041614,-0.47612476,0.25759056,0.08025313,0.04728919,-0.19460185,0.21679473,0.2818821,-0.2823898,0.124501355,0.15789746,-0.0012897671,-0.09399918,-0.04785718,-0.031181412,0.014968795,0.16715111,-0.038814016,-0.20933883],[0.32538193,0.26665667,-0.3753144,0.1943292,1.1168438,-0.05269337,-0.21334925,0.54582036,0.32950893,-0.37730822,0.32141355,0.1827561,-0.29498073,-0.03080011,0.8755226,0.07876367,0.14787959,-0.38247424,0.37494993,-0.81773496]],[[-0.30341843,-0.22281745,0.27012366,0.29452342,-0.12835841,-0.0890381,0.25669828,-0.24073945,-0.43538472,-0.038779784,-0.39264426,0.29934064,-0.14508939,0.1416261,0.32353938,0.037084498,-0.07863254,0.15408291,0.16286774,0.1415474],[0.13323383,0.1146171,0.20239553,0.01220725,-0.20667312,-0.18079261,-0.3107347,-0.0583362,0.18614694,0.19293575,0.17700481,0.012100261,-0.39390007,-0.23692009,-0.41415206,0.36064965,-0.3703962,-0.1122498,-0.06041946,0.21902567],[0.009899401,-0.070595935,-0.10638831,-0.5957638,0.03488627,0.19529599,0.096331075,0.048786998,-0.13947392,-0.36320522,-0.114962086,-0.34460878,0.10701258,0.03939248,-0.44519484,-0.36325172,-0.034287225,-0.13262238,0.00039026956,-0.24540809],[0.07853319,0.22171237,0.048809532,-0.23027419,0.20966786,-0.013155248,0.07316731,-0.31344518,-0.1321624,0.31945288,-0.17736395,-0.34100273,0.026628962,0.035964474,-0.10150763,0.2699779,-0.1667131,-0.09457415,-0.106309526,-0.3426638],[0.29538557,-0.28456566,-0.40204072,-0.8657068,-0.8084925,-0.20754118,0.08764143,-0.018223867,-0.77303904,-0.35770875,-0.10086532,-1.4853953,-0.7067748,0.16407326,-0.6673313,-0.35181776,0.10216589,-1.8111104,-0.1176049,-0.07706728],[-0.3167709,-0.01522664,0.22205962,-0.25785768,-0.06255687,-0.32435375,0.11186907,-0.51938915,0.14909038,0.32900375,0.17060009,-0.15418243,-0.11652953,-0.19727501,0.11952237,-0.11352027,-0.099410444,-0.0895872,-0.16187367,-0.35482973],[-0.14215995,-0.3809717,0.30970317,0.03858141,-0.28672585,0.16190213,0.27137607,-0.3805697,-0.06716762,0.011124994,0.29582354,0.07916188,0.2983311,0.1268055,-0.077044696,0.06776333,-0.10367011,0.19306189,-0.19010246,0.18512343],[0.031819385,-0.12483265,-0.28683278,-0.3588153,-0.65373087,-0.45003694,0.19104679,-0.20441982,-0.46569693,-0.11674977,-0.15160233,-0.25727364,-0.2525239,-0.17982905,-0.19730347,-0.19959465,-0.06839299,-1.0075654,-0.03437928,0.103701845],[-0.14425683,0.077068634,0.019592255,0.014870392,0.14373574,-0.22073077,0.08672986,-0.39591056,-0.33833188,0.09952239,-0.3890802,-0.24778669,0.028530588,-0.284796,0.0070334175,-0.19860876,-0.08610831,0.5669996,-0.0020288897,0.26049468],[-0.19840948,-0.03578449,-0.10666068,-0.15687498,0.1475614,0.11207498,0.122203894,-0.16831253,0.038428117,-0.24271788,-0.12596668,-0.18017115,-0.090362206,0.17450081,-0.2952912,0.19551386,0.058278464,0.75404453,-0.14579758,-0.33977848],[0.012538702,-0.16744922,0.116252564,0.17690293,-0.21478881,0.13132332,0.16530976,0.14705107,-0.34661373,0.0012290385,0.22420919,-0.46211997,-0.20480959,0.34949565,-0.39250886,-0.07972363,0.25293854,-0.3833621,-0.44473758,-0.031948246],[-0.18530244,0.18524809,0.19371605,-0.21686551,-0.031200806,-0.22514181,0.031167319,-0.0067488835,-0.48650336,0.26473585,0.09051957,-0.20273015,0.13116662,-0.31434655,-0.19096865,-0.051542785,-0.09890783,-0.14219497,-0.43667856,0.25144067],[-0.31360984,-0.22720914,0.10249719,-0.2844961,0.31359866,-0.22654054,-0.41025767,-0.07493778,-0.052810367,0.21805407,0.23855066,0.058372922,0.031239236,-0.0459639,0.12951031,0.11959806,-0.15526815,0.030882051,0.054160632,0.17460129],[-0.001657296,-0.38550064,-0.31288552,-0.15004191,0.30495414,0.43983513,0.18744403,0.03481539,0.24873681,-0.28406465,0.11812181,-0.17350765,-0.5051822,0.19594172,-0.42891112,-0.050750315,0.23483783,0.16639704,0.13431963,-0.191413],[-0.7411769,-0.635808,0.17067192,-0.36581907,-0.7295306,-0.50475633,0.0064722165,-0.053888086,-0.089068204,-0.34848565,0.21840519,-0.4249837,-0.13770029,0.14589565,-0.21981777,-0.023961695,0.021171868,-0.47679105,-0.014005491,-0.27908775],[0.13828963,-0.046661347,-0.31659523,-0.4423955,-0.0813602,0.121371806,0.073409185,-0.2296149,0.14243445,-0.076184556,-0.036992934,-0.2261692,-0.16455942,-0.016421378,-0.39982927,0.25039592,0.21685298,-0.4652546,-0.13432693,-0.31429213],[0.20610544,0.20254377,0.087932795,-0.4362922,-0.07545016,-0.38047454,-0.23776565,0.19250023,-0.23268057,-0.10194087,-0.21103646,-0.64613014,-0.10829371,0.3467956,-0.21299669,-0.15682729,0.24894239,-0.49151832,-0.15801896,-0.058440138],[-0.064463235,0.14619163,0.13488778,-0.35986444,-0.13277248,-0.014541874,0.22181614,0.077728644,-0.07031196,0.1359334,0.06692369,0.29073676,0.14642246,0.09097806,-0.07759835,0.056573227,-0.1353638,-0.32622516,-0.47237873,0.10531839],[-0.0031366032,-0.09151922,-0.22968274,0.35046685,0.22877294,-0.13187717,-0.16304848,-0.18674146,0.103620976,-0.18182248,0.035307016,0.16701329,0.03021808,-0.5022599,-0.1134178,-0.23946612,-0.14962626,-0.059846707,-0.47717416,-0.25641406],[0.1611476,-0.31366912,-0.59528977,-1.0709289,-0.99576914,0.053251207,-0.20048559,0.32435793,-0.44194576,-0.55448633,-0.058391947,-0.7565127,-0.97318995,0.07467224,-0.5372266,0.0069384603,0.30871913,-0.7250852,-0.31007108,-0.17716669]],[[0.22317775,0.0839111,0.22109798,0.21050104,0.19012153,0.0246631,0.34997275,-0.33846486,-0.33127448,-0.038336996,0.060765315,-0.1717692,0.20339556,-0.29618365,-0.12176594,0.18014143,-0.24229695,0.35554937,0.2778387,-0.009502133],[0.17031942,-0.1305072,-0.13700442,0.27239558,-0.013689488,0.3228493,0.011436339,0.10080542,-0.04133174,-0.11678288,0.36066103,-0.15885353,-0.28493625,0.35013354,0.3692925,-0.3780117,0.07139653,-0.4093213,-0.18504722,0.026300844],[0.25108263,0.34233108,0.3083477,0.076060295,-0.12869678,0.4208757,0.31288004,0.3019237,-0.12683061,0.31738392,0.03259233,-0.024446208,-0.0060361796,-0.12889306,-0.26481497,0.048110683,-0.16555542,-0.2592678,-0.13576832,0.10567019],[-0.011720747,0.18803805,0.022074677,0.22620036,0.04976458,0.38898185,-0.06785064,0.743409,0.22877894,0.1587243,0.3859358,0.42403117,0.055437844,-0.004926477,0.14257716,0.4334787,-0.08479234,0.21560355,0.5221827,-0.06559748],[-0.037707087,0.16734865,-0.12487266,0.3695013,0.3761109,0.09107275,0.21774137,-0.024895791,0.39147,0.08413832,-0.26688585,0.37194607,-0.29095292,0.39581698,0.05383777,0.27575195,0.20354563,0.66447383,0.4647131,0.0856188],[-0.05068612,0.30961636,-0.2754465,0.45048553,-0.26197457,-0.16543716,-0.16902679,-0.031986877,0.41702345,0.0027537062,-0.16819826,0.03498094,0.13390125,-0.13772486,0.23115748,0.15218411,0.10748799,0.23295286,0.12544203,-0.2152483],[0.20923938,0.25560948,-0.024831148,0.20276672,0.044921514,0.06254127,0.12807426,0.16821525,0.3161718,0.10453623,-0.070044465,0.3494796,0.13259867,0.14930671,0.1361013,0.39391592,0.09030667,0.35988662,0.25589585,0.1240702],[-0.005632852,0.31074113,0.09074983,-0.19415425,-0.25225374,0.18947785,0.13691266,-0.025927166,0.17697574,0.112370685,-0.02702521,0.12728469,-0.2824916,-0.10156699,-0.29218018,0.2829509,0.13700736,0.43677706,-0.1857596,0.02067216],[0.299767,-0.16778632,0.3547997,-0.13034636,-0.21835183,-0.18126804,-0.3955056,0.07418682,0.040717598,0.32514927,0.03962129,-0.16696727,0.4402138,-0.0008587433,-0.22222649,0.07909081,-0.36184677,0.45726198,0.48339695,-0.04592022],[-0.13053715,0.44752023,0.31293356,0.3310093,0.035809584,0.055552527,-0.16819942,0.11809639,0.1338809,0.290433,-0.2559113,-0.25123617,0.23471875,-0.3214595,-0.17043553,-0.08001846,0.22050042,-0.11256583,-0.27496204,-0.23924908],[0.20099194,0.026336158,0.2880155,-0.030686487,0.21977678,0.35156333,0.2762935,-0.0012063992,0.15680662,0.17828548,-0.06265203,0.40822947,-0.25451815,0.4230235,-0.04670159,0.113781705,0.20418875,-0.153001,0.23488969,-0.03141844],[-0.20895156,-0.08519644,-0.36010608,-0.26543793,-0.3272005,-0.1981879,-0.13220601,-0.2573413,-0.23263235,-0.041021984,0.30460373,0.3662677,0.007302299,0.20543274,0.18557207,0.637007,0.17480686,0.8490811,0.59441185,0.21781625],[-0.19435643,0.08795533,-0.04076882,0.1571546,0.04008541,0.44798967,0.115599096,0.40153503,0.53726554,0.07627492,-0.1964528,-0.038462903,0.022582617,0.13374631,-0.23280588,-0.15942952,-0.28940842,0.4302546,0.2168134,0.16763185],[-0.01655382,0.2203684,0.2678629,0.20351,0.268108,0.29611278,0.34553072,0.21641792,0.06326548,0.25044405,0.2521939,-0.07846378,-0.14829054,0.04719971,-0.18505803,-0.21188387,-0.044356525,-0.09913281,-0.24207865,0.17706893],[0.17856279,0.47817174,-0.050076194,-0.19329284,-0.44435763,0.43649805,-0.26283494,0.41089895,0.68292236,-0.3980115,0.046290807,0.28525034,0.42206502,0.0775058,0.06350263,0.35419253,-0.07665679,-0.19487375,-0.009518432,0.21700168],[-0.14517856,0.09711436,-0.1661631,0.34194386,0.36745068,-0.15838294,0.3225958,0.29348668,0.049350206,0.15350395,-0.015542291,0.16163284,0.24634388,0.06178962,0.13538836,-0.01109264,-0.04453399,0.064397745,0.049427025,0.4281664],[0.2567044,-0.03454224,0.08593864,-0.11134437,0.14689186,0.32301068,-0.27351186,0.4668049,0.29709497,-0.06161137,0.108107045,0.16922109,0.33204037,0.30175093,0.3988413,0.070751995,0.23408392,-0.23703663,0.21277118,0.035680577],[-0.015847875,-0.73314935,-0.055925403,-0.6157721,0.028124575,-0.7473487,-0.004240143,-0.90333885,-0.9994106,-0.33932772,0.00950931,0.331941,0.2642117,0.28705627,0.04747351,0.4180523,0.13033678,0.2951584,0.29943335,0.27808186],[0.012356104,-0.21052802,0.55482876,0.006263761,0.73980665,0.016177483,0.1179659,-0.11301514,-0.16205756,-0.12542385,0.029360585,-0.09720554,0.06746002,-0.07649367,0.41674867,-0.013878276,0.3118182,-0.18766126,-0.2954254,-0.060108796],[0.39900607,-0.13341746,0.03162351,-0.18342736,0.22146024,-0.19593374,0.35820648,0.056430127,0.24345449,0.42790705,0.40830866,0.044633,-0.31240386,0.0063567148,0.17809483,-0.18394968,-0.017258719,-0.1105896,-0.06775814,-0.034267243]]],"bias":[[0.11050988,0.2294628,0.42783132,0.72285855,0.51231617,0.09126243,0.07644359,0.44754425,1.2531089,0.09804473,0.11886344,0.12506059,-0.13427617,-0.0012441077,0.4395545,0.542649,0.3463261,0.3901821,0.70081455,0.5373595],[-0.08286879,0.18447447,-0.065394886,0.312139,-0.055290464,0.076583326,0.2022117,-0.12071272,0.26441312,-0.12090518,-0.14450291,-0.12015138,-0.08133855,0.044972245,-0.04027564,0.039160453,-0.07417238,-0.14647673,-0.1567855,-0.23087671],[-0.091393754,-0.1520091,-0.053864267,-0.06241664,-0.10415836,-0.007601379,-0.10867665,0.22084036,-0.05862271,-0.012183317,-0.12696534,-0.08930187,-0.081221074,-0.0074362657,-0.20117494,-0.0002838269,-0.05662008,-0.17188355,-0.09814807,0.11008378],[-0.0913715,-0.043794155,0.02850809,0.045386642,0.037974946,-0.031537805,-0.11438712,-0.19695862,-0.15026511,0.103060365,-0.035371367,0.013419907,0.010092471,0.011804574,0.0923431,-0.012482823,-0.10681633,0.07533968,-0.10755604,-0.089687034],[0.18116015,0.07192833,0.22838143,0.19038507,0.19333375,0.033074893,0.24651329,0.02775623,-0.029057201,0.23772447,0.17144507,-0.089092664,0.11105566,0.08878003,0.047602795,-0.0597495,0.16908468,0.101988286,0.062388085,0.11575695]],"Losses":[0.9457045316089495,0.7278636768295352,0.550805051008675,0.4164192111982875,0.31931360512454754,0.2504560318133427,0.22175714818525713,0.23594989647679754,0.2539258524760513,0.25378194626321965,0.23972510701236832,0.2218597752149771,0.20651122031695304,0.19562635169123793,0.18836148434588446,0.18298570172338602,0.17801056809975768,0.17317527397231924,0.1695048689727127,0.16780966637949501,0.16775862544594244,0.1683289298830569,0.16843731853596222,0.16734312369795712,0.16489073052207576,0.1615320281696465,0.15811107241779412,0.15550958309407992,0.15432015621778172,0.15450317613042577,0.15528715464104456,0.15569819122042194,0.15525496508070358,0.15413192089698946,0.15286293578390428,0.1520004763272837,0.1518000567135271,0.15200944889177587,0.15208697058648166,0.15170352768725429,0.15095148835712513,0.15016718443610608,0.14967743985629658,0.14960323618001353,0.14979702246249477,0.1500096792230449,0.15008607975404425,0.14997162183176893,0.14967425531225043,0.14928399651001817,0.14892764801914693,0.14869177701753178,0.14861856085606598,0.1486934272169787,0.1488165435248523,0.14886367706077164,0.14877710116874077,0.14858896291155965,0.14839323328826368,0.14827395899101434,0.14823431929766037,0.14822087605127038,0.14819258057359178,0.1481381798307209,0.1480698718894175,0.14801011829061184,0.14796341658671666,0.14791653383686393,0.14785952288976986,0.14779028627139162,0.14771600229502466,0.14764841200644058,0.14759148483804732,0.1475441036684428,0.14750169763899054,0.14745275649782044,0.1473894116900408,0.14731289934891426,0.14722928523122247,0.14714831309925347,0.14707628160333874,0.1470109587283249,0.14694510102159603,0.14687061589616474,0.1467850783523899,0.14669139521978591,0.14659235630735368,0.14649125205781782,0.14639001337116275,0.14628753884724663,0.1461813449565844,0.14606823319150045,0.14594701230323998,0.14581807224674997,0.14568207689855792,0.14553983108471805,0.14539080845255048,0.14523461640550434,0.14507125348414518,0.14490073206104254,0.14472240990807106,0.14453459664393659,0.14433619994002803,0.14412691173185163,0.1439075875193043,0.14367889645521467,0.1434408394948867,0.14319274678379462,0.14293409875416693,0.14266473673163832,0.14238470214756546,0.1420944151442865,0.14179469041984222,0.14148641298787581,0.14117036044601966,0.14084726945995385,0.1405182683869228,0.14018473838505993,0.1398481221536079,0.1395097694375958,0.13917124287131083,0.13883411861191383,0.13849987327681057,0.13816991954490024,0.1378451539826058,0.13752601872255177,0.13721258106261575,0.13690429486040354,0.13660010687499832,0.1362985082162556,0.13599759890859714,0.13569517350075003,0.13538890962786607,0.13507663254422567,0.13475667762473714,0.13442795735144467,0.13409008768857528,0.1337433157355599,0.13338869755359367,0.13302788549358435,0.1326633441123074,0.1322986126018968,0.13194073917103277,0.13160902519646858,0.13135310578195974,0.13129043357614745,0.13138514663068332,0.1311995875463883,0.1301937181493264,0.1294674549710518,0.12954547218399906,0.1293769194881435,0.12858091489573892,0.12811699753279351,0.1280946446381623,0.12765161555847956,0.12695868592473392,0.12670153349472013,0.1264842292960295,0.12587770809671686,0.125353319054027,0.1251120744837929,0.1247448456638349,0.12417518029589186,0.12372595104588359,0.12344439774711022,0.12308640583199612,0.12259432511859196,0.12215704732921194,0.12185213620608451,0.12157100689349612,0.12122609596000732,0.12086681471755607,0.1206386789951249,0.12061503510047662,0.12053092645104937,0.12005008341163263,0.11933678749686161,0.11906103967433815,0.11911243841325297,0.11888914106470642,0.11837006345182789,0.11804344712538103,0.11801554265032946,0.11786136941728788,0.11743239574396869,0.11710309338190393,0.11701875956526187,0.11688360482643138,0.11654280288648904,0.11623434543882173,0.11609827043093743,0.11595074411561891,0.11566093122200694,0.11537601560825043,0.11520621021725533,0.11503896219351262,0.11477732015287104,0.11451494057235409,0.11432715190770913,0.11413826231526861,0.11388384988650596,0.11362161926989368,0.11340836784990474,0.11320029917335674,0.11296452798665048,0.11277807733941286,0.11276472632286509,0.11306756103423961,0.11402955894313387,0.11506864127886203,0.1149049085154762,0.11193256668534271,0.11063674257044896,0.11183409872541626,0.11217487194226203,0.11051137534739448,0.10927452905638346,0.10992790817485042,0.11017474145236587,0.10864107703071212,0.10774637714582715,0.10808154335270026,0.10795208975435516,0.10684482862674531,0.10584412693471437,0.10572198112359706,0.10574266231067901,0.10505964500421125,0.10398395646158087,0.10308732526506441,0.10262582868826158,0.10241503746793751,0.1022305145908572,0.1020332597447102,0.10155095014571353,0.10102606732375208,0.10018032284548534,0.0993913245333278,0.09852158824901433,0.0978114342696611,0.09718416960536981,0.09670613804370445,0.09634011124832026,0.09617319203486405,0.09625317854314189,0.09687554326968195,0.09773449429650448,0.09873742964406097,0.09727507742237085,0.09513548277785522,0.09373077092741845,0.09405944369937193,0.09509840131925529,0.09480305436263063,0.09352867878163464,0.09277345462555293,0.09320101724412048,0.09358465001485401,0.09283039931094487,0.0921071374410248,0.09223784964597892,0.09245795778857341,0.09204101278103946,0.09148449215974239,0.091502287401757,0.09164183881786263,0.09129242679646939,0.09088252447227124,0.09084537072929794,0.09088812281144368,0.0906526113528377,0.09032420048160772,0.09022981489582306,0.09023836976486344,0.09007240521336055,0.0898071618641435,0.0896566584559003,0.08961889617036005,0.0895239366268577,0.08931759373838134,0.0891286094958563,0.08903165133601199,0.08895579410655313,0.08881814291544385,0.0886341962924062,0.08848232695780542,0.08838097246819547,0.08827845126520607,0.08813633980759467,0.08797255487199844,0.08782951585563561,0.08771466610288121,0.08759879788121756,0.08745991591808701,0.08730564876577894,0.08715934057365378,0.08702899242542461,0.08690189252232368,0.08676307388099103,0.08661123776452195,0.08645728153533068,0.08630999646476145,0.08616773387086839,0.08602240443574072,0.08586835676066058,0.0857067961973297,0.0855427575084862,0.08537988733691114,0.08521750738253718,0.0850522103264156,0.08488090013353297,0.08470283073766592,0.08451934182711539,0.08433222951791888,0.0841423079464063,0.08394918990868806,0.08375173468060045,0.0835487611428129,0.08333947719995599,0.08312374443212256,0.0829015744705373,0.08267326437365387,0.08243883891969227,0.08219840172268518,0.08195177710831886,0.08169900353234882,0.08143998065117417,0.08117484606548334,0.08090371560458959,0.08062697281475859,0.08034498911753796,0.08005864729471086,0.0797689637089803,0.07947900287453515,0.07919534280182759,0.07894366672974379,0.07881284708924594,0.07916879901906644,0.08121883639826724,0.08657206608118985,0.08800125748953627,0.08048094240648629,0.07760354622097364,0.08235571027622988,0.08207937474595074,0.07698506796772138,0.0788529104183019,0.08015556331678945,0.07658281901080698,0.07714334168857649,0.07859151996648632,0.07588021765116786,0.07605318129917463,0.07727050472052488,0.07530074477074761,0.0752279766926871,0.0761476269680358,0.07482951129541275,0.07455010681366227,0.07524108083476057,0.07433566516205849,0.0740499481872742,0.07446704804269408,0.07385598684850753,0.073556918902612,0.07383450044536195,0.07335375600368506,0.07305327611949056,0.07326541747752437,0.07287981261791927,0.0725390632203964,0.07268944522894852,0.07248056697957332,0.07207571119423695,0.07210768738911791,0.07206207720762074,0.0717118417854154,0.07158023856672509,0.07158773992835979,0.07136953658452007,0.07114485200652106,0.07111973878730392,0.07099740450676863,0.0707604906648617,0.07065923620931212,0.0705994966985422,0.0704218804147797,0.07025468519355907,0.07017767119791064,0.07005503092919704,0.0698796567122285,0.06976386999425509,0.06967535737464907,0.06953859331047775,0.06939124365544658,0.0692926748115331,0.06919611341492714,0.06907195418875221,0.06897606027484501,0.06895613599579246,0.06902692285908701,0.0693736392710515,0.07019364097589534,0.07220586350210671,0.07277052507206484,0.0724335494675881,0.06929837943106387,0.06793394448423785,0.0686351647843099,0.07016994383146194,0.07100229058691226,0.06886901665677111,0.0674641628027371,0.06784762115468479,0.0689455001074592,0.06931766960264148,0.06782738391148252,0.06692718536766747,0.06724852431803897,0.06794687512580695,0.0680933143593394,0.06708260743065515,0.06641629433497229,0.0665482020799409,0.06700971693590813,0.06715927083998888,0.0665604247192603,0.06598082133445643,0.06581549828382759,0.06600553998517864,0.06621899439188125,0.0660844000393918,0.06573264133902317,0.06535032871955308,0.06515344087110404,0.06514557488672562,0.06522595199464744,0.0652859020293039,0.06519792338090465,0.06504902194883577,0.06480076384935225,0.06457828948172481,0.06436902122956392,0.06420877429789391,0.0640789010825307,0.06397371346708423,0.06389136197613232,0.06382687156527526,0.06380973951975862,0.06386148656267088,0.06411417799749766,0.06457845026759518,0.06568230516123101,0.06632195696101768,0.06703722151083992,0.06514330826621388,0.06358960675681333,0.06273303664610773,0.06279428836463787,0.06350391307741238,0.06412956929217664,0.06443793867844214,0.06345770283381785,0.06251488152662266,0.06195781181710952,0.06198020698573808,0.06238118117661983,0.06271916443724711,0.06286169852174965,0.06232995708547976,0.06174443273435831,0.061255799430349214,0.06106975207012883,0.06113381158292424,0.06130029707695414,0.06147544978821854,0.06139284183889511,0.06120715955874857,0.06082463183259937,0.06048356577703818,0.06020310778864864,0.060018554375093465,0.05991022322608702,0.05986026573295492,0.059861503895293385,0.05989578131349092,0.060018721440874,0.060149826919236635,0.060446590342704776,0.060526198142105615,0.06070118449449226,0.06029116586948464,0.059893245160229855,0.05925070927745379,0.05876930650131225,0.05839566864514062,0.05815450737413578,0.058008705127651855,0.05793475283774005,0.057928167855010565,0.057990117440607634,0.05819354730734048,0.05846477150172619,0.05899339713233483,0.05913704267700977,0.05927558875701237,0.05845504840057564,0.05768710147570489,0.056907719218397795,0.05643961222417668,0.05621776321180998,0.0561823535273486,0.05629434404984984,0.05648360577872132,0.056810943006979725,0.056943549955806166,0.057087751593213124,0.05668387677351106,0.05623940171479931,0.05560322852066609,0.05510891569622585,0.05472809938268888,0.05446818880508035,0.05428978768241239,0.05417012332181176,0.05410583598355496,0.05410023651186534,0.054228561760846436,0.05445249727876422,0.05499820234703178,0.05531359508334404,0.055768532576544676,0.055043633997391574,0.05432053452335208,0.053430156036770406,0.05299165904703015,0.05296434066159262,0.05331481879279911,0.053579449023572465,0.0534010367088196,0.05253857939554413,0.05160090019012524,0.0510831744400651,0.05109806714137398,0.05154434388791515,0.052070982203561524,0.05240872278087494,0.05228302744983116,0.052367431478711673,0.05255031420055315,0.05312532017362984,0.051891643695821256,0.05054842186363096,0.049312705990836175,0.04876858247306166,0.048716451052190524,0.04891258501813959,0.04916453676253148,0.04920265876699269,0.04933008542471752,0.0494500711715944,0.05020661669854716,0.05072921248980159,0.05066806078768324,0.04918523177778049,0.04768508931887103,0.046652612502139916,0.046165985762860004,0.04602358754470159,0.04609381662445269,0.046368128612475586,0.04685339891228087,0.04767227046678579,0.048390090908788895,0.048945859936976366,0.0480633271723968,0.047137807208003625,0.04575771486610416,0.04493596449249587,0.04431135106952844,0.04391959110357951,0.04370760077626999,0.0437348952610449,0.04423666427618144,0.04538630864503173,0.04717711985185254,0.04717602308921769,0.045803118799902294,0.0435619543103439,0.042285144989901685,0.04163103976900996,0.0413424995738485,0.04126860284663927,0.04146555687393044,0.04220940930526368,0.04360843303820665,0.045300334375575284,0.04474635362395076,0.043417025077778545,0.042317500647481895,0.04256205745810964,0.04246171072287378,0.042027078320543594,0.040515343330305396,0.039301490300591546,0.03858798128028383,0.0383820018265144,0.03867999572120433,0.039703800416725214,0.04140145237025014,0.04313659891231992,0.04243815381767849,0.04149851245199271,0.040307424742096205,0.03960432394986497,0.038329313631744424,0.03729294005269673,0.03652453024735376,0.03614987413666896,0.0361576386949986,0.03677323810930215,0.03848088066896037,0.0414245472807441,0.04157193096308777,0.03957215443511598,0.037292427563911906,0.036467469340797344,0.03610528913255614,0.03589103050127019,0.03554611761577638,0.035351671538329604,0.035579944625672384,0.037033589922182815,0.03916827121965163,0.04004545720992745,0.03699825686524854,0.03475437219961853,0.0336765239853663,0.03326165229347492,0.033148278188378094,0.03341902630115741,0.03449666069506739,0.037032181876718535,0.038552652361713256,0.03728914287363015,0.0342918233476738,0.03284916502277109,0.03234224973070341,0.03237799825206738,0.032857344552665,0.03412340599067172,0.03552389327423039,0.036226635724731386,0.034656843783030765,0.03366495646315035,0.03344757096307134,0.03382885875670095,0.03345754357729156,0.03258318311422338,0.03168448911753159,0.03160634737107958,0.032625336513426875,0.034788864033308504,0.03493078737180227,0.03329484792252037,0.03133124778881954,0.03056393211930734,0.030579193749586595,0.03128315635767616,0.03230094814192979,0.03314557263800002,0.03264194608391177,0.03208361461089387,0.03158847823575984,0.031551079401198744,0.031160534579103907,0.0307449820333385,0.030327342125137432,0.030439819774035478,0.03100080173940778,0.031952832008228634,0.031808852515825096,0.030958890279231387,0.029827690104857692,0.02928208547381231,0.029210157532248534,0.029726523405696984,0.030539983457209804,0.03132545291602833,0.030731119936291473,0.02982412532445529,0.0289826116031649,0.028714670802530966,0.02883672303002974,0.02943582916944587,0.03002342088901164,0.030316135466644935,0.029620067053366315,0.02890361893574286,0.028367144426151264,0.02832142535091735,0.02857839576972557,0.029196299482129578,0.029462997053212325,0.02938186262879303,0.028641661633185683,0.028105957541486953,0.02776426367465529,0.027824806813235917,0.02808216766406971,0.028586323269693875,0.028721714252975265,0.02861325103399689,0.028038484251938296,0.027670874074731955,0.02748045031430574,0.0277033383086262,0.028098127762249597,0.028597065392692654,0.028430738848513153,0.027906228767898483,0.027151467545079418,0.02668438592838341,0.02642650315652392,0.026376202622416026,0.026402870244750593,0.026459691551717325,0.026509622786256716,0.026608372137580164,0.027085928069786363,0.02802319862275789,0.02922688155459719,0.028585998558952507,0.027272967183950246,0.026127912062636347,0.02561792122095931,0.025523990789568574,0.02592261428677956,0.026870657565412466,0.028222879477315353,0.028158667044723702,0.02723815009118471,0.026144112704871506,0.025756514515274064,0.02581795046367239,0.026212333468664976,0.02656723871636341,0.026710616586779756,0.026542992246159552,0.02661120100701357,0.026541722708769398,0.026462361297786854,0.025968394318333723,0.025579623665640233,0.025340173292404122,0.02552475309334855,0.02592310030815444,0.026456613086100995,0.026354693674700964,0.025960694649947578,0.025326814299185877,0.025033525179540734,0.02495573846789843,0.025260873492771434,0.025632310197539778,0.026007789484914022,0.025708784158608437,0.02527218334855261,0.024765554330747605,0.02461378771386687,0.024695804680247072,0.025113481332050408,0.025433230998243208,0.02558874389296182,0.025163419908711935,0.02478857021639837,0.024534031966717294,0.024664402402894633,0.02499580658800973,0.025420630929209945,0.02534401840216615,0.024887029001137245,0.024235560020306156,0.023780269932673914,0.023520873623106207,0.02344094689392731,0.02345982285711397,0.023531184517257435,0.023554236276205155,0.02348269526204959,0.023289799147665453,0.023051222820431358,0.0228283520813688,0.022667227377191127,0.022597324541818214,0.022653312576209287,0.022987825430506915,0.02381051215307641,0.02542118492505975,0.026322454860471092,0.026002867564831566,0.02467069710290977,0.02408982972045518,0.023904136950703963,0.023864203589672044,0.023847747755773877,0.02401742415703394,0.024431296472877558,0.025144481724778508,0.02501587458621459,0.024556039248598352,0.023807547343244643,0.023503847135649875,0.023430611220127184,0.023654750988715535,0.0239004442345568,0.0242662208573479,0.0242973963280567,0.02426598999767066,0.02377389016948959,0.02343191562754303,0.02307897722279097,0.023086606963134894,0.023263827675037,0.023777224226298244,0.02394691461067147,0.023832980431333174,0.023253362009799182,0.022905710828129623,0.022758951143052587,0.022977566637781333,0.02320531608024537,0.02346294195738517,0.023238879381286316,0.023038492347388945,0.02279827781270049,0.022892273311314368,0.022984892569110096,0.02315408709347555,0.02294068773981145,0.02272266698805395,0.022433640273863412,0.022409967641366667,0.022495091740060594,0.02279297763737808,0.02288904804256172,0.02290089829803997,0.022584917250346892,0.022407745762579392,0.02225335762279621,0.022356182376008688,0.022403623369253334,0.02253473185722998,0.02237975856168672,0.02229002412004507,0.02209695047758882,0.022131511557749294,0.02216228642648898,0.02234842865835751,0.022321850893440943,0.022300077521786168,0.022073592702971025,0.022007485938871547,0.0219219964375397,0.022050836823097542,0.022075288443928986,0.022208554505352408,0.02216658268690689,0.02226987549626102,0.022301090048339793,0.022349284435272565,0.022072352138605603,0.02173231014692047,0.021373906373001947,0.02125024271272938,0.021240191893885926,0.021300610174638267,0.021350928417416874,0.021326703968929817,0.021547427266808254,0.021842112994033595,0.02230684066467484,0.02219092386311068,0.02180652278373496,0.021433698053047862,0.02157755373857459,0.022013620541646288,0.02242001905095001,0.021743949580188843,0.021002051370725732,0.020444408005522,0.02045793181175469,0.021010483991175832,0.022180793856220512,0.022563005821609528,0.021943617674789653,0.02085996829257894,0.020403002049704907,0.020445865843080044,0.020977868459509597,0.021584320299992344,0.02187295286872916,0.021342053976812818,0.02091713233258584,0.020745425425476503,0.02104687437853848,0.021282405255628238,0.021400651937985245,0.020968696856303065,0.020667106285964534,0.020504163074115334,0.020716126865608198,0.020975130345783348,0.021249446707909233,0.021047670873339985,0.02084774720229527,0.020611439793686497,0.020671376635883795,0.020710571552984832,0.020823583076525397,0.02066970491841806,0.020607279553419334,0.020487240593361607,0.020564948988811695,0.02051264215379831,0.020499810442846104,0.020315267828739752,0.02030558597954753,0.020286582329219035,0.020489185720155064,0.02049185905989134,0.0205434891376047,0.020372522886533125,0.020443754202751494,0.020499942408315753,0.020768081086351985,0.02063069961973317,0.020438015010328027,0.020039861790414837,0.019849242012135837,0.01976553051805872,0.0198325964839516,0.019857097766721503,0.01983564573849814,0.019716604478570102,0.019706543227772114,0.019829694128476027,0.02022527955061937,0.02048235332691365,0.020515260894362255,0.02010906994888235,0.01983853137045781,0.01978778157534274,0.020057485319743384,0.020164747903833106,0.02036793659914683,0.020286183377841886,0.02041146513012256,0.02022911260853758,0.020046787329546997,0.019579164842461104,0.01939939640818689,0.019399693418659505,0.01982458305477957,0.02021347521408995,0.02044544916857589,0.019981002336576677,0.019657659353544864,0.01938422276892698,0.019480230684070947,0.019498234587961284,0.019669996007158633,0.019613481211084305,0.019753256576497468,0.019704782525221808,0.01975833977066327,0.01948265171082923,0.019311872683507966,0.01910488448331442,0.019197646876785573,0.019326352334090174,0.019618200668143293,0.019565292077797333,0.019510161878284547,0.01925046313421076,0.01924408461340655,0.019182093210751455,0.019287939996650474,0.01918899967908477,0.019190854504362427,0.019093722780665148,0.019161067805431184,0.019145536728702443,0.019184937377216753,0.019050081819655885,0.018987206745061012,0.018870913726555298,0.018922071985704763],"R2":0.9962009796025005,"Training_Indices":[14860,18924,17929,3442,9355,5251,8645,9566,1339,10584,20537,20310,18355,6946,20278,1486,1808,3009,8514,18412,10415,16129,4863,12579,8917,15143,837,4926,3864,19242,3657,17636,16791,10829,5592,4882,1685,10844,12341,20461,1082,6214,1352,1492,18714,19195,1460,4894,18984,10176,15108,3025,12446,2469,11264,12350,15643,10882,15883,11085,8241,18464,12926,4807,12171,16712,320,3087,17650,20283,5086,3698,10581,13193,13377,15211,6321,1238,11259,1311,6950,13816,4006,522,1871,7052,16103,19584,11471,3908,9241,16249,3767,14720,16272,19860,1345,3967,5889,8375,6305,19703,9003,1589,14797,18153,8051,7080,17596,5366,17044,3949,13930,10068,17010,11302,17263,18158,17558,12562,10954,12129,13801,17864,7109,19829,4007,9682,10973,17999,9134,14009,17807,3801,19705,14617,8790,12964,6464,7433,402,766,18728,5472,20341,12965,12724,18757,1021,11296,4177,1572,14178,3335,9879,18177,6511,14427,7122,16082,463,11717,2338,2673,11342,20423,1480,10919,5142,8866,16482,18436,1799,2572,15968,7679,16379,19444,10816,8090,6878,5261,8723,4902,3391,12866,7234,15175,15779,14468,7983,14989,6361,18817,7004,698,6339,262,20245,17128,13348,16030,11185,6550,11071,3870,8795,13366,4242,13135,15522,3992,7511,17071,7056,8893,1590,15882,16385,18090,15260,12615,9832,11883,4724,17014,15762,16722,3928,7182,9303,19108,5132,13251,16479,13895,8175,14287,19013,8504,20466,15016,2839,5564,7676,14519,17211,5408,5983,1439,1454,6406,11446,12629,12896,4152,15038,6428,7360,18795,7512,9814,11745,14196,11230,16748,7675,17610,3959,16702,13234,19534,11177,14729,18229,47,10672,2656,12447,4239,19410,7515,13496,11256,147,4810,8653,1733,18378,8531,9622,19509,12061,6412,18421,3980,1497,13882,14098,17207,13977,7100,4216,14050,18535,13613,7569,14203,18126,3761,10848,6806,19389,12314,14005,14004,6494,1744,15461,16736,19214,19279,8170,5873,2132,9462,13577,4559,17444,2116,2045,835,6923,14002,15935,9118,19466,992,15112,17494,15735,12751,13877,4304,18238,15236,7084,8732,2176,896,1096,4063,2729,19267,8754,8157,19095,4328,9615,9419,18654,18151,14686,3469,12064,14130,2945,17194,15782,11036,13854,7035,4119,16293,20013,19718,4848,4052,14273,3664,4569,19485,20468,1343,1080,15015,16579,13438,20051,5945,15458,10345,18949,239,11776,9498,1333,1981,4725,9023,13915,6,18321,18043,13301,10449,1224,17481,11511,4945,13134,9538,19020,20040,10079,17154,19270,10693,11508,4076,15748,18112,1710,7729,9183,20277,4675,7502,11083,14230,18693,13732,12343,12515,17611,2576,6375,19096,19812,2675,4254,13442,1102,12962,3910,3234,17161,14077,14951,9780,3294,16904,2844,8533,7278,9881,7202,11402,7416,846,20373,351,8106,9418,4932,17034,3993,10798,8714,7904,20365,20396,1095,817,15366,6250,9502,6069,4758,13755,1346,14543,2317,9859,10622,15121,5599,15998,17149,15659,9818,3637,16083,521,14587,13973,11251,16741,11544,15195,7352,2097,2465,3093,8831,1732,666,17135,3629,11399,18025,13265,12502,19356,12194,10633,9001,16948,14302,16337,11873,18168,8699,14290,19715,11434,9779,341,10821,11461,10015,13379,17902,16965,100,5497,15101,8794,11427,2379,18420,19433,7796,701,19129,17183,10887,16587,16975,12291,6499,8290,9340,17804,13274,19346,13616,2382,18778,6585,786,6175,5771,10111,16240,20512,203,5478,18567,6719,11178,3559,8057,3387,4144,15223,5877,14356,8055,3961,11297,8970,6620,15840,2580,3104,5867,17240,18304,19823,10085,17204,16601,3508,11792,15006,20370,1272,3501,9035,11020,6183,4826,3589,14219,13003,5158,3563,5601,1789,6199,2236,8927,5332,2801,5835,3939,12132,12648,11312,10745,18395,14371,18485,10588,11742,14262,3526,453,19821,13070,12229,12316,20239,9765,17826,16496,11358,5375,5837,4833,8878,12057,5697,2503,14391,11129,10650,7452,10302,8517,18907,19854,10613,6029,8340,10292,3749,10121,875,3837,7770,9928,18060,9922,2641,8522,9392,553,1786,11007,12892,15454,19999,12259,1318,15895,14393,5883,14044,9472,865,12574,2676,17036,19302,12499,3754,5619,15239,13504,12752,4051,14973,1243,15924,19845,16924,14470,143,8936,20548,19166,3529,10786,20119,10543,7418,7327,9480,16332,8683,17812,5109,1353,33,11422,2588,4278,2942,9106,10051,4921,13707,19039,9193,14442,16465,5838,7975,1918,18628,4416,18285,14193,1765,16979,3830,1046,890,18930,10948,4506,1399,9546,17771,8853,980,2261,8084,9950,6721,5937,8243,1069,4008,6591,16538,20076,887,7821,12547,16545,3896,11740,4408,220,3457,17225,4870,9721,173,11828,15657,18751,9190,13254,19069,2108,19836,2414,3725,8330,9177,8128,19028,13228,8544,10241,9967,7534,17787,5888,10135,9573,6570,130,1261,520,7139,17339,9359,5575,12695,6605,19217,16563,13868,19348,16305,1539,2399,3372,3434,17009,15909,17925,3483,5201,8404,6918,9161,12323,19469,3337,4515,18572,6888,19400,5382,17710,3016,17849,1022,515,5296,801,6308,16554,11963,5660,7190,8845,513,3608,10169,15586,15888,16413,4232,9207,5338,1448,2163,20321,3492,16480,179,12454,12311,2352,1283,6251,3382,13107,9515,20413,878,15040,14877,10823,18869,15758,15114,1128,664,13289,1114,19112,1881,14293,12571,6891,531,575,4486,4876,19448,18919,15092,4181,4495,4049,18969,19290,42,8101,6699,20539,16283,2242,13211,15562,4521,11047,1547,11794,9063,18634,11445,7424,670,18809,5175,16010,8935,2270,19955,4271,841,9111,17150,3118,4213,14641,5633,14699,616,15315,17510,20089,17377,14539,3447,13227,70,11767,11492,8409,2395,16280,12106,17583,20333,13661,4351,11553,12462,20255,11400,10017,15025,17474,6457,11595,13403,16995,16329,2744,8500,12611,1635,12324,15547,11509,6829,87,19314,17088,20474,19963,4990,1554,9944,12053,12903,1898,11016,18864,14048,4155,15979,14297,20318,13863,16501,18606,20036,8374,14576,19981,5921,411,7549,6642,8982,7712,7572,19060,5046,6496,6988,4967,3693,6598,13634,17878,13008,14145,15515,15544,5956,11984,12255,7055,19136,1236,9415,8887,9282,5881,17731,4178,4203,20026,18958,18696,20498,4240,2848,10299,18655,17276,10175,10047,18128,266,7840,4288,1409,119,3013,11927,10942,13141,14392,9657,18702,10308,19357,18028,9158,16934,14819,19918,3051,9670,7277,1007,9199,4042,17896,13636,19008,1824,18148,2453,15159,19840,17646,15853,7154,7367,18428,8209,16146,11626,4313,4344,4353,5187,12383,4613,13778,8150,175,7732,5734,6866,8550,7326,20267,7952,17234,15364,16341,10720,11040,2930,2632,9749,8127,14909,16996,613,3685,7536,7641,18263,17715,15598,12630,3551,4465,2552,17535,19355,9660,19128,18552,11028,11371,7908,4182,10941,15729,3965,18213,2933,19647,16383,3509,18413,11442,19976,19988,2190,6023,14328,431,1278,8165,18287,8622,20292,11443,12755,9152,8586,5420,12933,17670,16194,17297,167,1956,20105,18408,3320,12886,10818,15874,8755,5460,15168,8097,16420,565,17202,866,19414,12090,9825,14632,8326,1178,1146,941,15518,2251,5639,10626,4901,10756,8791,17322,15381,6492,9537,14336,4962,14351,15343,15610,12556,18914,1629,18326,12309,18329,55,3461,3770,13069,9313,9644,5126,7453,10146,6894,5284,9912,839,3069,3724,6618,14731,15212,8910,14307,11847,6238,4283,16763,6377,19548,517,1473,16436,5661,14937,12883,16031,20359,18045,8237,4706,4286,118,19016,19119,11571,3587,17420,5936,7183,2087,16628,17718,17825,5514,8253,17881,7857,4483,16397,8939,13753,6801,1140,2717,18305,5886,636,16769,5786,14261,19111,17284,11487,756,7066,8294,6211,1623,11948,14169,7354,1225,4514,2680,893,15620,2073,12351,17544,3503,3619,18493,14986,10012,2545,4205,11439,4339,3112,17064,17913,1368,3660,5935,18945,3291,13202,2845,17262,18596,5295,16586,7082,7567,3042,19202,7701,10331,12583,19318,974,2128,476,7809,10371,6834,12589,1636,11819,17084,16180,2762,6790,16245,12882,7616,4669,15900,3425,19866,1004,15844,5417,19816,2050,19931,5708,15213,16134,9565,356,8641,19418,7547,11975,18623,15404,15374,15228,4477,17683,13813,19502,8655,9411,7301,4340,12002,12272,12847,19609,1396,3282,1673,18123,576,4238,6019,20535,5625,10739,17639,12093,9571,4823,4003,483,16811,2096,17500,8297,742,8647,10579,2039,15254,8828,18018,14363,1,2328,3305,5148,20313,19245,11167,18671,3708,10163,10391,18511,10293,11816,6617,12763,16393,14677,13131,16267,12975,17873,15576,2497,9466,16361,2615,9785,7631,12995,19451,10837,6296,3836,945,8299,16203,17600,15438,12099,13982,18662,1277,6833,10667,11193,7746,8938,5051,6697,4850,13454,9504,11481,4938,12817,10112,2063,5698,112,8206,12375,3258,16973,5290,11750,3984,19838,12762,7803,8777,2772,3557,12525,7479,10947,3923,6353,18866,743,17571,13376,6185,10214,11628,2938,17568,18681,4100,322,573,1910,11330,754,2731,3931,7428,7103,1153,18046,10906,71,19691,4448,11390,17047,8656,8854,9019,11336,9089,1369,8086,1728,20518,8888,114,19634,12734,4787,13407,3905,9223,5964,17838,1784,9953,3012,9648,15146,16876,19018,6985,5832,15020,7114,16571,8825,5551,15914,4542,5439,2606,19862,7274,13253,14574,4253,6611,10635,15897,14984,2728,281,12626,2188,15502,8223,4056,10420,2785,14014,6129,14190,7748,13413,13809,17068,3167,12410,18604,4820,10826,6594,16087,17423,5285,16026,7880,4661,8123,6461,16367,4754,15423,2398,13120,20211,2902,13764,20106,6360,18483,12840,13428,3424,3477,16025,2827,10306,642,4318,16113,10983,11760,14228,20170,7827,4123,16826,15424,17643,10063,10041,1057,15021,20588,4890,7580,20266,19463,15425,11566,15801,11677,5014,8619,16594,6475,9983,7720,5725,730,20215,6706,738,14100,16555,15323,13143,16759,12657,12844,1599,12516,17834,14536,19975,14333,13645,10249,14531,363,9836,9422,10605,7537,7332,17974,17182,1431,11334,717,14814,12263,10186,9197,15253,11211,6886,8742,5404,11005,4103,17711,9866,8967,9595,2704,16270,9920,577,2322,16583,3176,9586,6039,15596,15080,13721,17827,1575,17584,19575,8115,4695,9568,18214,122,18832,7289,19783,16458,24,15115,8034,879,7519,1074,15508,20125,9181,278,18234,8665,3845,13394,15430,1220,6349,13808,20262,13495,16439,6571,12453,4274,12245,11535,8191,5045,19261,15889,7104,18032,4385,11689,8537,9109,16674,4284,13741,4936,13128,4999,17891,7310,9326,4166,11099,8710,19660,9559,6832,3144,4371,16065,14757,6395,5340,9264,6794,15962,12639,10470,1756,224,14719,10504,8926,9490,18207,2466,10427,4279,6179,7690,14116,6482,13621,7225,9304,12437,13931,12356,6209,4442,8230,19476,20231,18668,12475,7244,7314,7640,5192,18554,934,11651,9045,10054,4326,11066,4048,17085,6657,17702,435,5993,9854,17503,4955,9694,19740,12943,19985,131,2881,16663,8488,9534,18439,16871,18506,11450,15978,5840,3340,619,2148,516,1154,7255,18582,5418,849,5845,14318,2081,14482,14257,16448,15380,14812,12683,1259,11588,6909,5347,6860,14361,3439,14702,11886,8288,12678,6691,19724,3673,2002,15776,12134,19141,13154,20131,7382,10131,10591,6613,16417,510,6373,19831,14915,17914,5122,4748,12445,19461,19003,16138,13567,2058,11806,1977,2663,20234,7275,13622,9481,11616,14660,7263,2563,1711,15839,16898,19696,16609,8941,14558,6664,8880,17302,11804,4321,9608,12922,1667,17077,20261,4432,18070,8838,2652,14502,5224,17828,8922,12622,836,3951,7926,14398,15548,12772,17472,7662,8411,15107,18221,14321,1522,15740,5384,2158,13401,2507,16052,17716,8414,16639,3782,327,679,4375,9549,279,19956,9869,548,5989,17837,2502,18836,4525,3376,1545,15077,20399,7864,3826,9442,5410,17586,15601,14201,20320,11692,13024,10512,19259,5098,8830,6854,17358,19946,17115,292,10517,17944,982,15663,8368,8518,10233,6287,2998,3395,10836,20005,17776,17678,18766,9039,8644,13914,11482,16713,19733,18679,13509,3506,15902,13118,19817,15462,13124,10555,331,12821,4687,5613,19011,15386,8609,746,12603,7440,13505,11996,5819,3297,19848,6589,3014,12598,12969,15785,20580,5902,9726,17859,11547,10257,2233,5995,2239,8444,7749,16517,20249,18878,4653,7905,15792,2093,454,15685,4767,10946,7628,11954,15932,9438,19924,13262,15684,16544,18352,678,6180,54,6730,75,4433,2144,9535,16846,10804,4354,13426,16191,7854,12398,2740,12290,10913,750,17193,1271,15582,9465,3797,13282,17127,18901,14415,2793,7163,12812,16967,14557,19641,2748,2805,11673,16212,3139,19294,8304,18005,349,715,10908,4294,4788,6037,13492,3838,8610,5923,4970,18388,12676,13163,8761,12887,14246,7091,20304,17499,5875,20037,11179,11658,18053,13474,14706,392,7380,16286,11629,13615,18873,16451,11841,5990,1216,8476,16218,7318,18798,13655,7411,2218,10747,12156,7518,6328,10434,4097,4404,19979,1912,7592,777,8631,20427,15384,1509,8396,6547,10005,10360,9268,3816,10013,4281,14152,18456,16297,3919,2823,6198,10940,3952,9862,2292,19557,11332,15605,6881,12033,6784,7195,3494,6947,16648,18807,16539,90,703,15067,6110,4458,15382,1876,8681,13711,10842,10962,7773,8372,335,10759,5673,15407,15245,15987,14564,8748,6063,14420,20414,84,13494,11516,18323,18077,5078,15823,5012,11860,18243,15392,11630,2620,17153,5735,14789,984,18999,13676,4436,6077,2917,8559,10839,19929,375,1325,3661,16349,17668,5288,6231,12172,12363,8327,17502,5343,20198,6904,728,5405,22,10239,9033,2105,4536,3015,13932,7204,1008,6265,9495,12299,11732,15375,1859,16830,14897,34,744,17272,11825,16115,3285,19084,17875,11966,3254,12567,1288,20073,5140,16127,6453,1813,16714,19683,13117,1472,5900,3400,2298,4965,2834,18284,16883,18563,8869,20265,11843,168,18080,3811,9993,18782,14259,5001,3082,4285,11290,5230,18429,7745,17532,10671,1770,605,17488,15938,18437,2484,12798,7934,3912,3256,3593,3776,16111,4544,8070,6685,9467,13611,18975,15022,12262,199,10162,13876,13700,9969,8632,15231,4645,8315,3164,13046,3251,2368,10444,15113,8345,19607,16765,138,487,14060,19970,12895,18788,9931,16072,11725,7172,2353,18581,1121,12732,11775,9802,5982,1987,10277,12560,49,792,16546,3417,8098,15764,2970,1692,6698,3640,19308,8800,10624,7799,14286,11982,17203,19333,10713,12175,9707,4114,15725,10180,17367,11654,9446,16841,9379,18993,7403,14323,2758,1159,10641,8944,19687,2840,15476,4760,16036,4558,5249,14535,3573,159,19089,11389,15724,16734,11624,17592,5736,14892,6288,6576,1985,8187,8472,12640,19266,13604,18630,6898,9334,9813,3306,14839,14809,14498,14978,15486,4736,1477,18717,7410,11505,11609,7992,9633,9166,10334,12667,931,15744,5632,20324,10067,17381,2553,5934,1120,4819,19756,14367,5269,15341,18824,7483,3357,12960,10098,5750,13200,12674,14969,17576,3671,14211,6292,12367,4226,1823,4019,1061,1856,19000,346,10113,14652,16941,5019,6059,8440,8140,9261,13788,2898,3261,17388,11574,4367,12508,16107,1498,1511,8219,11186,3001,3153,2875,8065,14329,9476,5252,5766,14661,8323,3451,13866,11753,805,15251,1536,2764,500,2489,8328,8011,14242,617,6031,6474,11607,9408,18948,18098,604,17131,9699,19019,1736,14934,3990,12103,4029,16655,12974,16565,7657,7053,5868,15473,6652,5213,15614,19280,16117,9748,3699,17028,6303,17332,2206,9154,19104,15299,12330,3515,16869,11333,10141,5679,13453,14381,10116,18308,7991,14568,6795,14741,2315,14730,11217,16578,1689,12996,12905,14186,20499,12066,8605,18980,7449,8654,19113,8788,19934,328,18069,15330,9397,14159,7684,4756,8412,1468,16781,9626,2533,6793,4773,16054,11365,18342,19322,19174,9756,13113,4655,17114,4209,2611,15936,190,1899,5267,15096,9258,11799,20570,252,7881,3410,11252,18586,17460,6850,13139,11691,5852,8255,17740,11597,4030,845,8581,11113,18157,6385,16837,13981,11890,20444,8934,6775,19941,17467,19746,5555,10795,7085,17198,16569,11881,15778,15100,5390,11292,2562,1614,11614,6900,19148,14759,19277,2361,14598,13078,16135,10290,1433,11862,20410,2866,15313,11958,19324,13547,3322,18649,4246,17130,18796,19790,9029,14103,19869,17309,7668,14872,8548,7076,13521,11369,4248,19135,16142,15717,16091,3885,16750,18913,1896,8208,6740,13216,15856,9332,16452,9280,5020,13530,9875,18680,2684,12797,6115,11026,15048,17390,12784,11752,13387,3133,13318,4447,18607,10824,1907,11218,19144,1077,10394,13455,17144,10735,10072,18230,10128,8042,5180,1890,8737,9426,19052,290,12394,1894,14697,15460,6027,19814,8225,2339,373,17329,9713,19552,20542,5653,6122,16884,7023,348,13311,17355,17424,16013,16269,4778,4644,16507,388,13862,14942,2551,17588,17013,19915,18639,16716,6158,18356,8621,17333,20560,20061,15520,19664,16360,15028,9443,12902,4958,421,16271,14933,367,9667,18692,8839,10430,8181,7699,108,12347,20182,12842,11888,7283,5434,10398,19723,12411,19802,16585,9680,19662,16368,8289,16309,2962,8408,659,4791,3628,9096,8774,7771,10910,2141,19668,13189,9248,7337,7560,17968,18336,12807,2325,439,2616,13733,16471,8416,16833,309,19744,12003,5181,18302,10664,4256,6836,20178,2634,3312,15397,18943,18612,13640,1181,609,3739,2565,18657,9791,16892,5428,10794,11899,4002,7644,2263,7058,5817,18996,19375,18264,13950,12528,16873,12362,13001,12396,5056,16303,17737,10158,19204,17971,7279,6127,6400,821,7941,16889,19736,7626,12397,18689,9483,17411,18013,8254,10686,1865,10931,20568,12214,10405,9346,16145,3190,5973,9242,17726,18051,18685,18952,18367,4817,12723,20309,17644,14793,17067,10037,9075,15534,18638,11032,2581,8139,20469,18094,17954,3747,15145,10236,485,8122,7257,10511,758,859,15774,16576,6580,14173,18368,10327,10760,15102,15960,7298,8316,687,8342,4014,3639,14895,11460,13944,8608,16120,11301,753,15826,3049,20552,20361,9095,5931,17050,9439,2036,14496,1105,10191,8160,6624,15661,10777,339,10352,11538,11023,7266,12771,6861,10520,7688,7774,1394,6586,12701,15151,9107,4693,4255,12880,8417,11755,4396,2186,9575,15339,797,12426,1228,19150,19236,6350,18847,10101,7184,18499,4561,19149,695,10247,19939,19197,11602,15875,11962,3548,8091,11227,6727,2821,15024,507,4424,1612,9091,7571,20041,12006,5897,18736,12130,17249,20000,15057,2444,2702,9795,18222,2701,414,17806,8636,5615,759,6422,3002,2919,10514,7574,20189,12275,7993,9493,7251,6312,17242,2387,6817,14888,11426,863,7663,1506,15452,3324,6119,17979,7867,6162,8312,14396,10792,2795,1917,7220,475,9762,12393,6554,1851,20124,10451,11876,1695,18320,3277,6668,2647,12885,13246,10761,11875,18747,6275,14006,7917,14597,13418,13463,883,18750,9456,732,13444,11635,14175,5822,20084,3825,3441,16027,7920,20356,14679,16340,9402,15885,16690,15879,7217,11722,17888,629,884,8040,4618,9786,16905,6142,15565,4450,68,16412,11747,12539,16372,4133,17366,7379,12879,4799,692,16971,17805,10103,17385,6451,20543,14779,6363,1376,3659,8113,19535,17689,1534,9076,2522,4877,6504,15691,6649,5631,5171,5682,1269,14225,14374,10188,10559,2088,17519,17537,6654,7635,8259,12564,20203,14240,18145,10160,9013,5150,13055,18712,10229,14848,5185,19697,6676,12596,7815,9026,757,20218,3184,16548,16237,4228,17697,13692,5102,3809,17563,14223,14430,7871,10500,12213,2963,19927,8004,8145,1196,1009,12688,15,7638,806,14245,10658,10092,10634,17293,6574,9732,11730,862,5798,12803,18361,5166,13338,8180,14062,4247,10869,16744,6629,13224,19995,10550,12378,16150,7436,18016,15182,4900,3753,5389,11770,19213,15628,13087,7290,13906,3916,6509,8730,12228,13635,4596,14317,19379,18458,9454,5449,13581,1777,17458,467,8997,18344,19123,2123,10714,19815,1391,18601,10446,15597,10532,13431,2222,18409,11970,2974,11854,10939,2415,13607,1850,15418,8302,20458,15426,11898,16001,5608,6995,16901,13386,19303,14952,15530,15359,6425,7167,19283,16909,2918,19392,16131,19569,1326,1820,8589,9855,745,6331,9321,18061,4161,16033,3316,3819,14189,3404,1606,3668,3140,9360,6100,4551,8009,1757,11872,15165,8460,17113,18562,9536,14886,3067,6224,19630,263,17166,8445,17835,5146,11449,17158,8249,8143,19785,10900,18726,15247,12050,5808,12274,14831,7800,9269,7108,9299,10780,10295,9287,18931,17574,16159,12651,11874,11285,8154,13561,8789,13219,5053,7273,4082,8195,6200,16011,1528,6318,1874,15971,2953,11905,7233,13011,20561,10563,12110,18226,5554,11500,17564,17054,20315,14487,10143,2916,6376,19987,14517,7203,18902,14855,9105,10799,8310,19695,19896,6160,6009,16034,17937,9905,16600,3063,4173,16937,17579,6067,19890,11914,13578,8437,9730,9681,16772,10547,3547,5341,19540,17456,8292,7368,8900,14353,17517,6667,17394,18799,644,17029,7824,18457,8142,14334,15282,3902,1624,555,8673,3813,10456,14271,16882,5255,11769,4492,9194,1202,14678,19115,5787,16908,20066,11006,5974,16838,20213,18012,7348,5646,14265,9309,10763,3359,17209,3122,14689,10402,20067,6401,13994,3989,1059,2420,6975,11759,13221,1906,533,5548,4180,7388,20096,20507,18475,5583,1350,3213,6135,14418,12158,4332,17990,19336,8158,2187,15419,12599,8911,7216,17861,15156,14671,6973,16780,11078,9317,7769,20522,14444,8301,1746,15465,11527,4020,1559,3527,8820,4600,14750,20090,13032,18734,5424,12131,18589,12954,10081,15499,15791,12835,778,6367,11282,16449,17195,19458,917,2383,271,8817,3342,1070,20205,12016,19754,13685,7706,8850,13750,8652,7087,13071,16573,6639,3643,17018,13637,14438,14580,17815,12186,6759,3575,9941,5279,2994,1049,16441,11466,8722,13712,16784,13680,17318,16403,9086,9778,469,2629,20547,2535,2067,16617,19974,17622,8352,6159,13964,16528,9796,6431,16251,17250,10629,5635,9037,15344,4648,7162,1838,8248,17305,7551,14364,10710,17723,18095,15728,518,1244,1931,4423,13983,3879,20545,14608,19495,8993,13543,7447,13856,2410,2700,12485,11408,7430,10202,13115,4977,6597,16613,3107,8595,4657,11386,12368,13465,10990,6916,8736,5007,15687,9655,16606,9506,1415,14362,18036,14526,17797,16785,19361,14875,6575,13208,19595,12080,11437,4069,19962,5211,11738,4950,10988,10689,13409,17833,820,939,11618,2817,17323,13774,16404,14218,242,9589,10244,9054,4868,13672,11981,4930,8475,18245,2332,5812,8246,11715,9093,17931,17244,10025,3542,16634,1653,20448,16098,15456,19632,5535,12527,6213,62,13925,18900,8640,1989,5504,11475,8403,7634,6046,14134,10164,15898,5563,7781,11812,3585,4130,2666,16509,15244,18088,11137,8919,3278,15098,15736,1751,20002,14454,8190,17466,897,11964,10903,2447,10142,1829,12819,3705,7775,18159,208,16143,1390,15403,5802,19907,9363,8835,1683,5172,7687,2230,192,3024,9209,11809,12919,8172,20459,4138,15029,14019,12412,16229,3228,8013,5664,17721,7826,2427,9837,12078,227,6599,14447,19708,9743,2100,11867,2905,17235,12538,7647,4505,17107,5183,13490,1180,8487,9338,3175,9525,18354,3238,7898,7024,8556,18537,4517,3613,6746,5871,14648,19059,8001,18619,6567,8569,10011,13725,881,5879,17076,12169,13451,10885,7135,15068,3450,15144,13067,17022,15261,15320,2090,14241,17126,15389,16943,7642,10297,14773,15862,7535,16224,9220,15147,2600,860,19859,18240,458,2518,13534,1647,8035,14927,6824,12505,11106,8925,11647,1258,13886,8484,9793,16753,4245,8382,19597,12234,8350,3764,17256,14921,11507,8812,15966,11833,9895,4016,8996,6146,14931,10269,20110,6128,13406,7915,16683,10724,14296,10493,4054,20219,16462,8698,444,7965,20012,20058,11558,1969,10998,257,14038,14403,2978,5530,12317,18042,9020,18905,13916,20554,14460,17606,892,7320,14929,15037,6562,19510,6253,10281,5396,19704,15328,2937,19311,4316,10409,989,2662,5493,6234,8923,2241,15516,4998,9971,6079,59,217,13470,6938,601,5377,3860,8005,799,7866,818,10316,19517,9514]}