{"architecture":[["Dense",[4,10]],["Dense",[10,10]],["Dense",[10,10]],["Dense",[10,10]],["Dense",[10,10]],["Dense",[10,10]],["Dense",[10,80]]],"weights":[[[1.8120575,1.2750365,-0.32779416,-0.8335933,0.9348439,2.1958454,1.9779983,-0.9657772,2.0374033,1.7835487],[-0.92855173,-1.692447,-1.8124571,0.68335545,-0.5921181,-1.7299888,-1.1728251,-0.25354564,-1.6896123,-1.3261733],[2.225524,1.7536526,0.94152284,-0.8445418,1.9387538,1.860795,1.7315999,-1.1886294,2.3565776,2.1521113],[0.9884804,0.5634996,-0.70592225,-0.9184821,1.0150411,1.4898322,1.1360178,-0.83055556,1.5951186,1.0614299]],[[0.17153019,0.14618964,-0.24806994,-0.3462389,-0.3201642,0.16330609,0.007259288,0.5417779,0.81989604,-0.16610713],[-0.28297874,0.3534904,-0.558639,-0.040323716,0.4961208,0.038999997,-0.07329951,0.38085297,0.3871566,0.42176384],[0.2856476,0.16853788,0.2860636,-0.31038797,0.13566236,-0.16359775,0.0010999534,0.3787645,-0.5462539,-0.25108966],[0.7607434,-0.37294063,0.32371855,-0.29028183,0.4118712,-0.39862674,-0.14498153,-0.7097916,-0.7493422,0.45992148],[-0.0037932913,-0.13296518,-0.27078927,0.4151125,0.5212585,0.5043661,-0.09371691,0.42829233,0.49701288,-0.50447637],[-0.20025545,0.33756396,0.28778028,-0.082319885,0.17844954,1.0752897,0.51543754,0.63168764,-0.12003146,0.25371954],[0.30683634,0.5671611,0.38525572,0.29797155,-0.3284612,0.7618139,0.27610508,0.17020331,0.117229976,-0.29104432],[0.6170401,-0.7532342,-0.25853267,0.81819135,0.41411537,-0.60963804,-0.1785042,-0.0358909,-0.41996786,0.20063241],[-0.26736057,1.0437721,-0.24983694,-0.10779595,-0.49653956,0.8578233,0.17466865,0.5728773,0.72044945,0.26860505],[-0.33356872,0.8190417,-0.23113981,-0.31364423,0.23160912,0.481062,0.46326578,0.43903506,0.4784738,-0.56445014]],[[0.055322595,-0.21319547,0.008062361,0.3195265,0.21010455,-0.67077625,-0.008867132,-0.23343553,-0.3124949,0.9149817],[-0.18570364,-0.5815494,-0.16489622,-0.6001154,-0.24500516,0.39846808,0.74751586,0.20605619,0.30427176,-0.2853326],[0.15917219,0.19174814,-0.1255352,0.36227536,0.009533663,-0.5461906,-0.07985513,0.16818427,-0.5400277,0.030895123],[0.06995484,0.06628123,-0.42278847,0.75800633,0.48152915,-0.6733313,-0.47295123,0.67209274,-0.44998005,0.836555],[-0.4010705,0.15221351,0.0897089,0.68988943,-0.6478728,-0.6312904,0.08093556,-0.33267617,0.050326258,0.6973821],[0.065483816,-0.37844494,0.088633515,-0.00012333877,-0.036150813,0.34239885,0.69605315,0.032514825,0.3076185,-0.06966745],[0.49018353,0.041272983,0.2481836,-0.055567414,0.39791965,-0.0316684,0.4350787,0.1738662,0.33693847,0.0789588],[-0.21770895,-0.47920576,-0.5085672,0.08446437,-0.19053915,0.37711185,0.43298322,-0.41575062,0.6654098,0.1535074],[-0.29782188,-0.14066796,0.27484155,0.20738088,-0.017675832,0.5388224,0.002765929,-0.29930162,0.46994454,-0.2610797],[0.10208782,-0.13663182,0.4451796,0.68274516,0.33909637,-0.7430452,-0.24693757,0.16240866,0.104658075,0.380626]],[[0.18710607,-0.4660576,0.34698823,0.06919271,-0.13340196,-0.44070745,-0.27215222,-0.054276552,-0.040411122,-0.057989907],[0.30436173,-0.62036526,-0.534289,0.18652639,0.4542443,0.1295746,-0.24326462,-0.13221188,0.30358747,-0.15873906],[0.7646773,0.24644524,0.3156021,0.2537672,0.29409412,-0.06444032,0.060885195,-0.66109407,-0.044434752,0.5118573],[0.42864367,0.21306247,-0.20811649,-0.12853436,-0.48847422,-0.05552414,-0.3115839,-0.7221527,0.10766266,0.757643],[0.61758226,0.3154947,0.13258179,-0.027493212,0.39076778,0.3591467,0.10833702,-0.967736,-0.00010333865,-0.07494287],[-0.5568294,-0.38095576,0.10202153,0.876531,-0.35929063,-0.57091737,0.86607605,0.072374634,-0.3204938,-0.05079725],[0.11943785,-0.3225116,0.09753247,-0.17389253,-0.1408535,-0.35768247,0.28552544,0.3737093,-0.36313793,0.03743255],[0.097904906,0.34424445,0.049006324,0.4279612,-0.028076677,-0.17852427,-0.6966179,-0.41903907,-0.31788343,0.72492784],[-0.07122593,-0.46145415,-0.40774155,0.36005968,-0.3864862,-0.03382183,0.44538018,0.4911512,0.47587764,-0.21927187],[0.77272993,-0.3511364,0.38407776,-0.4338269,-0.2044972,0.07998488,-0.840887,-0.22746967,0.15449193,0.08961571]],[[-0.041176997,0.23471062,0.042514686,-0.33688956,-0.4478251,0.0694868,-0.050304774,-0.9102712,0.5357259,-0.39974397],[0.13650504,0.08380311,0.26157346,-0.07790241,0.3721213,0.24427854,0.35172862,0.3388326,-0.19726744,-0.5254013],[-0.49131995,-0.031873517,-0.12173421,0.19017625,-0.13413154,0.27682164,0.49217176,-0.932454,-0.39363953,-0.0025911974],[-0.1327017,0.49427944,0.003459186,-0.75643086,-0.5606063,-0.67503333,-0.24968243,0.0581704,0.1256622,-0.53268725],[0.36678526,0.3242865,0.18641122,0.09970397,0.38242283,-0.6283174,0.06557811,-0.52186054,0.055850938,0.020073578],[0.40963915,-0.6258527,0.28134194,-0.14008659,0.16262312,-0.090488285,0.3770977,0.23549236,0.5199109,0.077442676],[-0.11675082,-0.29035076,-0.16123433,-0.0289356,-0.6420621,-0.07327018,0.04828725,0.78897756,0.38371134,-0.649329],[0.12737523,-0.58169854,0.118736394,0.31968656,-0.4257575,0.23555908,-0.96210605,0.4080152,0.33536595,-0.5210452],[0.25588116,0.22780682,0.11640751,0.28928962,-0.38124374,0.2038198,-0.20816736,-1.0204135,-0.09521238,-0.42896792],[-0.5694005,-0.10813385,-0.39413768,-0.26397514,0.48717898,0.066205904,0.5495713,-1.0468227,-0.44033742,0.108744144]],[[0.3057833,0.43447578,0.17950773,0.2219646,-0.11777667,-0.24758936,-0.18227509,0.033050135,0.23062207,-0.13620952],[-0.5390208,0.13398631,0.23350109,-0.725925,-0.052575897,-0.16929868,0.3176229,0.104461595,0.22623032,-0.40358442],[-0.20245785,0.3011577,-0.30930656,-0.05023169,0.35245344,0.07428922,0.31588134,-0.051006775,-0.0027872163,0.120187946],[-0.20759982,-0.34069124,0.3843095,0.3043124,0.22264996,-0.42381054,-0.42313763,0.1858166,-0.033364132,0.43952146],[0.46672726,-0.018019581,0.059253473,0.24481638,0.4190557,-0.54880095,0.24291873,0.08638892,0.00897508,-0.29739892],[-0.19171628,0.0760558,0.5245299,-0.16454604,0.051639777,-0.3106448,-0.52819395,0.16919754,0.056836717,0.35767633],[-0.15145163,-0.426275,-0.13869368,-0.09867081,0.2900903,-0.46423045,0.25232956,-0.2582812,-0.53709966,-0.5451887],[-0.4825231,-0.95722157,-0.57504743,-0.2722355,0.091266386,-1.1124766,-0.55917686,0.5335481,0.03272869,-0.85451794],[0.4561705,-0.13302374,0.034999423,-0.14592057,-0.3637424,-0.27458814,-0.36003602,-0.23725219,-0.20535119,0.07391388],[0.29375213,-0.14474417,0.32731807,0.43664834,0.40055126,-0.90210503,0.26817724,-0.43609783,0.12441303,0.11205911]],[[-0.25117275,-0.0065772682,-0.012642281,-0.41237226,0.19659862,0.17574888,0.020913687,-0.23291488,0.0983177,-0.23445132,-0.23283182,0.14294192,0.049333673,-0.039921734,0.17688341,-0.38859132,0.20735371,-0.11498656,-0.25209334,0.34785363,0.10712899,0.050442178,-0.23860945,-0.31463313,0.23582308,-0.09788728,-0.3348926,0.28170854,0.055895686,0.29824433,-0.29681325,-0.25240597,0.06854904,-0.36833435,0.20723148,0.15618953,-0.08907592,-0.14723581,-0.10728317,-0.3654358,0.3231703,0.39638275,0.2617664,0.28249082,0.1333073,0.22877663,0.37181365,0.5149054,0.1744247,0.4733619,0.4931671,0.3594742,0.4842149,0.34239063,0.18102565,0.36231345,0.22686425,0.40568608,0.3798416,0.092696555,0.33756328,0.31625175,0.37794095,0.30387792,0.057526436,0.15195666,0.30391243,0.105827704,0.34866554,0.04524127,0.30411,0.53070873,0.4305393,0.30760902,0.18448693,0.17519024,0.39753094,0.46628025,0.41960737,0.2164977],[0.22685625,0.077283196,0.39374933,0.23963115,0.05915008,-0.018298542,0.1125098,0.6633272,-0.01643986,0.36117193,0.048387725,-0.028967598,0.038985897,0.29729772,0.23714714,0.45448536,-0.024731811,0.1184995,0.5902479,0.02771726,-0.041350722,0.34402043,0.35807887,0.52469677,-0.015070387,0.3963498,0.47649503,0.18883757,0.16301449,-0.080843866,0.37822378,0.1485444,0.20325746,0.12555036,0.26163632,-0.082758866,-0.0129577145,0.5013331,0.31245273,0.52553463,-0.2694559,0.06634127,-0.103657156,0.06369706,0.039758902,-0.124805376,0.16495976,0.030683596,-0.14398545,-0.06055066,-0.19006628,0.12916154,0.17623474,-0.38394645,-0.016490972,0.052608654,0.19351088,-0.18424638,0.20872398,0.0066166893,-0.023404911,-0.18708661,-0.15795156,-0.008521116,-0.196307,-0.24762213,-0.028112825,-0.27164733,-0.17486487,0.030275254,0.12211122,0.17797443,-0.18537232,-0.08627053,-0.2812349,-0.35036743,0.23517115,-0.11111055,-0.17796835,0.3010078],[0.41270375,0.31218636,0.035201937,-0.075377874,0.06753476,0.047904417,0.23370065,0.38010004,0.12306598,0.031139335,0.06001725,0.24591836,0.30772862,0.4195372,0.17052773,-0.12493465,0.33217815,0.39353964,0.15567662,0.16120191,0.44968376,0.13648738,0.1560273,0.24359807,0.36821204,0.071206175,-0.019717582,0.0558936,0.22940905,-0.040799156,0.084273666,0.2836515,0.1686232,0.14758833,0.08903443,0.28668368,0.47611302,0.19931643,0.22019921,0.21751614,0.2687385,-0.07076143,-0.11215523,0.23227283,-0.21085356,0.17081758,-0.155412,0.16080666,-0.058778938,0.24390694,0.32453364,-0.10566154,-0.0072386623,0.25537965,0.039678164,-0.10962034,-0.13158993,0.07110043,0.1220581,-0.15119185,-0.052749958,0.032254174,-0.025113782,0.15377471,-0.03581197,0.25379968,0.15867455,-0.0010319513,0.0816467,0.04437114,0.14166725,0.071124814,0.15146247,0.045451377,0.175058,0.09543481,0.14837682,0.1547509,0.22789896,-0.03099957],[0.070103884,0.019592943,0.34719303,0.23500283,-0.0634524,0.1340493,0.21401173,0.007819857,0.10202844,0.29616407,0.14308544,0.09842807,0.29649827,0.27403462,0.28134057,0.16306509,0.05599336,0.14550097,-0.3987737,-0.024296427,0.13635388,0.05757762,0.19239417,0.122943744,0.0142855635,0.1212122,0.1048653,0.12430368,0.020999614,-0.13592175,0.052816696,0.34641075,0.2706776,0.24686733,0.25492945,0.01698903,0.09061032,-0.13972439,0.3765803,-0.19696714,0.371252,-0.008976368,0.17451458,0.2993782,-0.06343841,-0.22047324,0.039800704,-0.07083363,0.2308614,0.10322468,0.035419174,-0.073189065,-0.016567383,0.2899623,0.42802292,0.24380575,0.17882262,0.18840697,0.017747309,0.3308912,0.0065651787,0.39580727,0.25221887,0.20814744,0.22664467,0.31212634,0.31788984,0.18880714,-0.0954995,0.21593586,0.44593194,0.04948578,-0.11037256,0.20950957,0.10930464,0.29884535,0.12212654,0.3722716,0.04951309,0.3114838],[-0.016872711,0.18956931,0.2219222,0.007081917,0.1633868,0.17359184,0.1596833,-0.022532482,0.092680275,0.31375143,0.08269172,0.22740857,0.2689174,-0.048607275,0.34795287,0.1850037,-0.021579757,-0.024567163,-0.12610722,0.043055054,0.1614752,0.12331958,0.048197754,-0.117498204,-0.037497148,0.34517625,0.24240766,0.23212807,0.22461596,0.39531153,-0.07068283,0.18262598,0.3058705,0.17505133,0.05922024,0.05542462,-0.010805963,-0.015384692,0.14803106,-0.12830049,-0.0036191908,0.34776273,0.24723896,-0.12124723,0.30959436,0.020398248,0.10632505,-0.1633854,0.117160186,-0.08512335,-0.043604735,0.069100305,-0.06182625,-0.076769635,0.06711221,0.086885795,-0.05908729,0.33789584,0.12862352,0.23711796,0.16361219,0.008675957,0.20198697,0.0030118544,-0.09287172,0.24332613,0.0715638,0.28498182,-0.043548975,-0.06484988,0.08797075,0.09939744,-0.024385005,0.28961286,0.13840984,0.21116827,0.07098871,0.03221963,0.19323258,0.09965058],[0.54910177,0.1366795,-0.344207,0.81501067,0.10731465,-0.003843816,0.0658118,0.24919571,-0.028004088,0.46070507,0.2356032,-0.22830272,-0.3163799,0.020344751,-0.3971858,0.8957246,-0.15773089,-0.18974362,0.6902474,0.0112204,-0.19683997,-0.17536952,0.73785347,0.839952,-0.09829899,0.1437455,0.6742401,-0.13493702,-0.31051007,0.088521115,1.0449136,0.23945707,-0.6548048,0.1953888,-0.18346207,-0.08003049,-0.04915328,0.5676494,0.14438339,0.8092149,-0.3473819,-0.38771445,-0.27580607,-0.30087027,0.030790396,0.33639348,-0.5024988,-0.417511,0.03594809,-0.37428066,-0.5429909,-0.13354653,-0.2214748,-0.4340049,-0.028718002,-0.14516495,-0.19258524,-0.46515316,-0.420632,0.18297274,-0.26162702,-0.28963616,-0.46586895,-0.25057858,0.06432362,-0.71438617,-0.42538866,-0.07109553,-0.3614524,-0.16325709,-0.55879813,-0.7833446,-0.13991265,-0.52716964,0.21569061,-0.0187721,-0.42720643,-0.4593752,-0.85630137,-0.8210818],[0.08537596,0.19904052,0.18463612,0.41423053,0.10254973,0.15018404,0.15115288,-0.046191387,0.34645548,0.1183375,0.37836957,0.120321564,0.13425313,0.19900252,0.08061481,0.17344512,0.26557547,0.21198802,0.24536741,0.33173218,0.03594764,0.36583516,0.2401476,0.12855905,0.1605894,0.17252669,0.12463207,0.31358796,0.30388573,0.1999973,0.27015793,0.14334989,0.14781523,0.13193972,0.22776905,0.15889023,0.053881645,0.25637695,0.21438922,0.013673361,-0.34595436,-0.19112891,-0.008120883,-0.5984025,0.10416421,0.035334338,0.1918409,-0.009646491,-0.0032498473,-0.09978403,-0.024390448,0.16694134,0.24546416,0.056546044,-0.10012999,-0.33850712,0.19995627,-0.14711428,-0.5786095,-0.008337881,0.04918869,0.10677812,-0.18637908,-0.5610622,0.20978303,-0.57030314,-0.47749838,-0.1413236,0.07544065,0.12572406,-0.57180774,-0.026860796,0.12742406,-0.38219008,-0.09822935,-0.051531423,-0.2162603,-0.1462273,-0.16835232,-0.5601549],[0.42856273,0.18048342,0.08765546,0.5621406,0.2995692,0.17076597,0.2277439,0.42752472,0.2917696,0.2766675,0.18137473,0.05657071,0.16220714,0.29402587,0.11748692,0.42273524,0.1978691,0.1818503,0.5613894,0.17725004,0.18723242,0.25302017,0.42059103,0.631576,0.2930555,0.24984889,0.5125959,0.14659145,0.2095228,0.2164288,0.4341222,0.40914017,0.14375378,0.33043897,0.09856061,0.10466559,0.12946972,0.38621956,0.21047862,0.42518914,-0.023361763,-0.0740436,-0.004335412,0.060682565,0.053696934,0.11652466,0.061218105,0.049954943,0.08473004,0.0339363,0.033069637,0.043276116,0.06766348,0.01586225,0.09327334,0.032790475,0.09558707,-0.08128967,0.07715316,0.07861256,0.023966003,-0.018596413,0.063251756,0.05061095,0.17845507,-0.10168667,0.01433005,0.10835666,-0.10781652,0.08001228,0.16440155,0.0543561,-0.04356003,-0.09357245,0.20117286,0.12528083,-0.07153647,-0.087438114,-0.0424684,-0.011741237],[0.3600766,0.09410368,0.44969386,0.021937931,0.2501464,0.1876493,0.018984286,0.26604292,0.04412988,0.35568166,0.41664633,0.3289405,-0.063194655,0.036033142,0.14231582,0.28810233,0.033749558,0.15207571,0.27118826,-0.10487737,0.059845686,0.15288088,0.06933227,-0.11854285,0.111000195,0.2109808,0.10700621,-0.079384334,0.22771998,0.15239488,0.3554923,-0.04888046,0.33582094,0.2663738,0.33913288,0.24483506,0.37972316,0.26638427,0.20768133,0.3768879,-0.117282785,-0.05549243,0.23481366,0.075144336,0.15358067,0.1706438,-0.04274894,0.04057353,0.120568104,0.18271488,0.02690255,-0.09897362,-0.0027036276,0.0048702466,-0.09032713,-0.16003509,0.15520668,0.24305706,0.15125504,-0.09564886,0.07749091,0.09433184,0.09446523,0.17564742,0.11747007,-0.004317792,-0.018606601,-0.035538957,0.28299016,0.059074398,-0.17459805,-0.11272778,0.18300758,0.2440907,-0.20242456,-0.0964023,0.10830224,0.048789013,-0.10041236,0.21627267],[0.16908598,0.18850216,0.16949697,0.39214298,-0.0066636833,-0.07043692,0.23579237,0.08421002,0.3214372,0.23737198,0.4038452,0.054124236,0.25679147,0.09683007,0.022640577,0.17275068,-0.0039449227,0.2654849,0.22479674,-0.23800069,0.16745473,0.26665524,0.09116008,0.07728416,-0.0881056,0.27295986,0.39704233,-0.043152444,0.3237018,0.0043017264,-0.04951816,0.40828386,0.2949352,0.54557174,-0.22536856,0.0026037171,0.18863997,0.09284092,0.081360996,0.1000351,0.41362303,0.18229838,0.113737464,0.5389462,0.042759907,-0.22972818,0.09182107,0.32279724,-0.0011004047,0.17487374,0.15115802,-0.16747674,-0.21303375,0.17905293,-0.14925696,0.6896246,-0.16146223,0.121359184,0.5735904,-0.08960975,-0.049886078,0.019083213,0.6995968,0.60668284,0.06829371,0.46049058,0.5299571,0.14337508,0.031830166,-0.058667626,0.75108415,0.32518157,-0.28278917,0.4103152,-0.03759626,0.0056776525,-0.23003788,0.21515496,0.35717764,0.71500784]]],"bias":[[0.108043365,0.07578713,-0.0067859357,0.13127317,0.06437486,0.22057642,-0.081922315,0.21977088,0.4926649,0.11702907],[0.23330322,-0.11186269,0.09136137,0.16430813,0.30581546,-0.2493741,-0.33529264,-0.076206364,-0.30019742,0.08578784],[0.11867564,-0.11569525,0.043689672,0.2602897,-0.017675484,-0.08457399,-0.07111905,0.2082091,-0.110808164,0.3726494],[0.3301062,-0.10878331,0.12980852,0.41963235,-0.09427042,-0.10077916,-0.16021922,-0.2731861,0.1045801,0.30966836],[-0.1435345,-0.11498129,-0.16052596,-0.103412725,-0.12514408,-0.15492195,-0.0019356633,-0.46877927,0.0028128475,-0.16208376],[0.05024204,-0.016128834,0.013564474,0.046875726,-0.12734924,0.30322444,0.01129077,-0.05247606,-0.08985556,0.18122594],[-0.1020709,0.10408694,0.15609057,0.01106938,0.31962627,0.44945663,0.14134887,-0.055193186,0.17501453,0.0031139597,0.17393512,0.25112432,0.1525895,0.026703654,0.17229636,0.03820632,0.27342525,0.17975491,-0.082332686,0.4189662,0.1366932,0.02958767,-0.004930733,-0.07253594,0.24602303,0.0027506067,-0.05180975,0.27622738,0.0020107673,0.33112237,-0.01594822,-0.012005779,0.08612584,0.09818084,0.3296624,0.34296504,0.18442361,-0.038316347,0.04068201,0.096326284,0.13377385,0.2492571,0.24492611,0.0019880584,0.262978,0.19052316,0.23498453,-0.028931074,0.30001226,-0.054005783,0.0028153127,0.34751618,0.16733724,0.16596065,0.33712074,0.046134997,0.29437172,0.08362854,-0.107245974,0.3593772,0.28365958,0.22931898,-0.110978164,-0.045501884,0.29930356,0.3416009,0.057151,0.33895943,0.33028606,0.3307964,-0.12529254,-0.0447941,0.28506184,0.117467985,0.2486367,0.26850614,0.25267208,0.031345636,0.13664125,0.0702514]],"Losses":[1.083903912070733,0.9478777109071305,0.8343190097031657,0.7345961016158179,0.6444311978721701,0.5625724035140167,0.48953013326609285,0.42678305808715516,0.3765874010185637,0.3407635388436391,0.3176043357507288,0.3024892687892513,0.29209226001834426,0.28524637942270803,0.2809397674747112,0.2782480474317331,0.27645692929036075,0.2749665286245327,0.27328351780496335,0.2711396338308175,0.26854399093398795,0.2657193625514881,0.2629540847589554,0.260433649807861,0.2581887476434353,0.25615415855705703,0.2542648012007247,0.25251244114109195,0.2509186421971078,0.2494872318517272,0.2481903505918056,0.2469962162611036,0.24591681226667375,0.24500921504743486,0.24432085738193451,0.2438376706467828,0.24348514960691547,0.24318639454204546,0.2429120845612887,0.24266861491653777,0.2424540578331544,0.24223822828200547,0.24198989763533152,0.24171285349134983,0.24143949189877947,0.24119501596098827,0.24097844251626624,0.24077723525312034,0.24058921706027805,0.24041841710666853,0.24025792382504155,0.24009149431683457,0.2399131005636425,0.23973616422297372,0.23957602512634169,0.23943024820687106,0.23928514072600174,0.23913560110265436,0.23898861050345926,0.23884876471234884,0.2387131734067509,0.2385812919081801,0.23845544516680525,0.23832913809638762,0.23818694147610434,0.23802030249201542,0.23783265973741094,0.23762660639302594,0.23739936486554084,0.23715236787613508,0.2368908635878243,0.23661339955879404,0.2363166084455272,0.23600313943819645,0.23567027027127005,0.2353084218621615,0.23491485174307808,0.23448620308266127,0.23401607446073538,0.23350599894036994,0.23295077609849843,0.232344368953216,0.23168533152992665,0.2309658435038339,0.23018324944902524,0.22932938052581314,0.2284041871304828,0.22740364948307312,0.22632427267194494,0.22516559072541253,0.2239326347397806,0.22263013881916946,0.2212702836214117,0.21986870893757118,0.218447239991074,0.2170843898380998,0.21645022805862638,0.2163622969811815,0.21368885032137336,0.21148661640786492,0.2111276043804395,0.20784448987333212,0.20666998943875686,0.20448933840263653,0.20135708004415726,0.1999595799950429,0.19632366423143707,0.19374968447666716,0.19114148169293738,0.18714822622080612,0.18448217359479335,0.18112899533117918,0.17688689690014506,0.17354444371536146,0.1704483580542517,0.1665374996992361,0.16202106199247915,0.1577293809470876,0.15394543087636323,0.15087577309675163,0.15009533784609724,0.15198857067249377,0.145565674529934,0.1368630208672413,0.14121040009484542,0.1347985484822198,0.13045258544701502,0.1333029631736159,0.12603870503005984,0.12809465163789505,0.12507940411727855,0.12316112443093985,0.12452546657630871,0.12060584244687854,0.12269500183047401,0.12002578006091515,0.12007154452564177,0.12009721088732066,0.11811605629571131,0.11938714900125902,0.1175001851354693,0.11803512045419871,0.11752007546235864,0.11673939846721815,0.11739064627579093,0.11615659139249014,0.11667037595961512,0.11617777997416243,0.11586131685590204,0.11618886321365825,0.1154663489323118,0.11580926806486393,0.11548629922282547,0.11527462689772476,0.11547202184488269,0.1150030963090658,0.11513513960227344,0.11500080950361931,0.11473215991711674,0.11486737725918526,0.11458848902382612,0.11451102266655756,0.11453312352403323,0.11427143410472772,0.11427453592788167,0.1142124485059455,0.11401565354419249,0.11403378853423364,0.11394041110501277,0.11379562187128857,0.11380343380157379,0.11371109241128674,0.11359590106432776,0.11359005590159468,0.11351186693572302,0.1134087242140937,0.11338792433476773,0.11332766601798352,0.11323026163475045,0.11319194145026495,0.11314695688299711,0.1130583559656913,0.11300134736902631,0.11296332761208205,0.11289036353005086,0.11281829779888834,0.11277364223442368,0.11271830973157912,0.11264416417449039,0.11258313616220736,0.11253405877036407,0.11247103985008891,0.11239992236279961,0.11233980248545769,0.11228430880401509,0.11221923584319296,0.11214839669093299,0.11208367470071141,0.11202285764942022,0.11195656652154298,0.11188453908954735,0.11181339547231364,0.11174579157420349,0.11167717682088293,0.11160388703990484,0.11152733009885042,0.11145094168177812,0.11137547783425632,0.11129901925344725,0.111219363071079,0.11113643932315581,0.11105131767843598,0.11096511584117223,0.11087789634935487,0.11078889832794107,0.11069740214133605,0.11060272463402526,0.1105049708525207,0.11040399654057506,0.11029998081933318,0.1101927159795663,0.11008217344278579,0.10996800987815789,0.10984997783537043,0.10972773530526102,0.10960104338358254,0.10946957332051187,0.10933317512910154,0.1091918654078893,0.1090468191271749,0.10890163866908614,0.10877033315494111,0.10869712478766544,0.10883181869634649,0.10955592570123003,0.11144880193638382,0.113868623887856,0.11219609174171287,0.10854944029925266,0.1074280514779341,0.10946487761386382,0.11046034870887066,0.10774875754343671,0.10649370601717321,0.10799908908923878,0.10814194530079287,0.10628779355190607,0.10553477825436426,0.10644055540010178,0.10643463110594231,0.10478125101782164,0.10435659263989347,0.10495710476934177,0.10449537506293893,0.10328807127797222,0.10270744215016268,0.10287980502279186,0.10278304874031065,0.10191857500772875,0.10100091618065091,0.10032029060216006,0.09977127037975057,0.0993604834337916,0.0995128775284421,0.10174744736747625,0.10755926640618237,0.11116020041981609,0.0999028445054356,0.09693122277868495,0.10271676280958164,0.1039662193986933,0.09769330717543813,0.09437371501016066,0.09968488547183958,0.1020591306313736,0.09506817714661459,0.09371554450184315,0.09594811039414022,0.0991210135560706,0.09582983085871513,0.09062217652808295,0.09291340530219043,0.09521107015880964,0.0955045044827968,0.09249368569150059,0.08832466704701177,0.09025192426971905,0.09140164529813748,0.09472511627397728,0.09416097351236999,0.08885523923759794,0.08766258664787115,0.08590194840603851,0.08999916171400058,0.09223861338586971,0.09204658354433431,0.08839363040149609,0.08433188788828182,0.0848901857690136,0.08514654853451274,0.08948670706222901,0.08899520982535919,0.08631982554871823,0.08255404633361038,0.08146689674080491,0.08245275988184285,0.08384386246335349,0.08584581024414918,0.0842723095715992,0.08198246167189811,0.07939028475732657,0.07891236722430243,0.07894296131021379,0.07996841390997295,0.0814999498699085,0.08231833957497847,0.08117117304686865,0.07907794770551808,0.0773436111244849,0.0760094289116408,0.0755244967397368,0.07535546557523723,0.07555268839809301,0.07649273771418238,0.07836361203841354,0.0801997399628782,0.08057483918598275,0.07723852777110783,0.07439905283492604,0.07267173292400801,0.07215012690709798,0.07234584809386167,0.07341180986199351,0.07510891775662053,0.07598086944168746,0.07566522548338438,0.07294387269403552,0.0708638201590594,0.06966262514986836,0.0693700234855937,0.06959443661592014,0.07044938812755078,0.07199929012753863,0.07282287618052495,0.07281983635907117,0.07067928227175788,0.06885669191846282,0.06748311452692145,0.06678140193215572,0.06646674465610786,0.06639758475536402,0.06670508743121581,0.06753505643512049,0.06939788446518473,0.07105700980623482,0.07186018992138313,0.06890082143045358,0.06627850649947632,0.06466752746803311,0.06403007041825409,0.06398445297153527,0.06447573766872788,0.06563861852159966,0.06705325156366419,0.0682774615760244,0.06696987065372965,0.06515681110318551,0.06337459887181779,0.06240276001628421,0.06196188172620681,0.06185704486294028,0.06206575700518501,0.06268364798637627,0.06402297639953483,0.06552713928870804,0.06679955419500598,0.06508837757771642,0.06306510067121898,0.06130760842397124,0.06038528463925884,0.05993269830963743,0.05975962262914759,0.059800382472963126,0.06012433618575972,0.06101974692990946,0.06251342074362562,0.06459912894818758,0.06420030705240513,0.06268637777547528,0.06027484691709959,0.05885591872827558,0.05812554401783884,0.057824097066861015,0.057782613225144296,0.05800659694919944,0.05869647173576002,0.05994156801807652,0.06191681217843911,0.06215054662479451,0.06126634671756503,0.058849907541294176,0.057282440707598616,0.05637059889609997,0.055922048986532566,0.055703003792463984,0.055637783604992115,0.055783840792125505,0.05632278424304191,0.05772199696518453,0.05960834985414082,0.06150991225077695,0.05935380714361468,0.05696535427611911,0.05501834264743711,0.054058978089538315,0.053589507237759404,0.05336387336995017,0.05331230181355257,0.05352145735620986,0.054321982843376096,0.055961161022928835,0.058639446061516255,0.05840330741126091,0.05664118780485382,0.05377232976618034,0.052187114865510864,0.05136979943402274,0.05094176274119784,0.05066768472004742,0.050487440133384964,0.05046375124379526,0.05084362734457581,0.05236689440299533,0.055572102770967254,0.05935265323745384,0.055545036773647485,0.05162155298773159,0.049367513152486685,0.04845546787555676,0.04802835924783612,0.047764570098120296,0.04762685301802059,0.04784423350035049,0.04921977036800059,0.05337497724746906,0.05951793828873641,0.05476524656712817,0.04930622422950854,0.04674427855595601,0.04587237555573701,0.04547086951520508,0.045197021910932604,0.04502215196544905,0.04513692677449805,0.04641664448447377,0.05172928150430833,0.060839723524504716,0.05366797336264201,0.046438485565707385,0.04395552713676887,0.043330259600506654,0.04342420863485349,0.04509010437725271,0.05141711412438901,0.05769290389607089,0.050536423023964196,0.04391816881249416,0.04192857791954558,0.04167673945608282,0.04221036467533905,0.04504902845092185,0.05201580695857196,0.05305454918287781,0.04520416239219273,0.041265017019300715,0.04020141845420904,0.03984537220755036,0.03949063378562001,0.03922605156354162,0.03900343181957456,0.038722420670548915,0.0385707414682705,0.03913924793031268,0.04387550241212346,0.05856727236684916,0.0509962302122482,0.040578971335878775,0.03766507716980433,0.03703038834350552,0.03676355940679858,0.036531928241729746,0.0372496420389022,0.04281971488426497,0.05939344236367435,0.046410179137953644,0.03840154093787233,0.03707460887400839,0.037324591137528555,0.040139360189730605],"R2":0.17862850829443921}