{"architecture":[["Dense",[4,20]],["Dense",[20,20]],["Dense",[20,20]],["Dense",[20,20]]],"weights":[[[-0.62388074,0.26428747,-1.2057371,0.26094353,0.69159794,-0.61750346,0.9975447,1.0816317,-0.68088907,-1.4258416,-0.14324373,0.8832109,-0.6080374,-0.49461886,-0.8992938,1.6169906,0.25962818,-1.6289034,-0.6318375,0.94207394],[1.000836,-0.78024906,1.4105787,0.33389333,0.75847924,-0.4400801,2.336259,0.79732025,-0.725013,0.93771434,1.2802244,-0.07174028,-0.17978692,-0.16726716,-0.0069000614,-0.17716466,-1.6851684,0.72977126,0.06653151,-0.8745986],[-1.5227239,0.22967458,-1.4670298,0.7588218,1.6375297,-0.874155,0.9087627,1.7251265,-0.66180557,-1.4873073,0.27581665,1.2471027,-0.22307575,-1.0743362,-0.5944225,1.0664306,0.025712857,-1.6991252,-1.1367948,0.46136695],[-0.74399334,0.32850003,-0.7555563,0.9300403,1.1138415,-0.42480665,2.16693,0.77368146,0.07218811,-0.1613083,0.8732611,0.4230296,-0.9241916,-0.34050786,-1.1191813,1.3023534,-0.10878065,-0.90567464,-0.94118613,0.7878295]],[[0.023845602,-0.08105905,0.028428152,0.5506268,-0.21507742,0.30981106,-0.42299893,-0.37669912,-0.05803129,-0.35099763,-0.48238948,0.17152885,0.060514882,0.005549296,0.08691891,-0.26044178,-0.23912264,-0.25960556,-0.39106905,0.037493568],[-0.19872366,0.113210306,-0.14274065,-0.25028613,0.011376651,-0.3094831,-0.010203232,-0.29795966,0.26517928,0.18697968,0.22102486,-0.07526243,0.3195438,0.24217054,-0.17014119,0.022886284,0.45767003,-0.22495227,-0.30131164,-0.0717505],[0.22352776,0.13084479,0.27969846,0.075067356,0.3655891,0.09419023,0.049699266,-0.10538764,-0.22271155,-0.37713623,-0.069181256,-0.032842927,0.31228766,-0.08652861,-0.46135637,0.076561935,-0.28446886,-0.056209713,-0.19455649,-0.2667146],[-0.482731,-0.20171925,-0.3014302,-0.23770647,0.041602857,-0.0075309575,-0.0946142,0.21266608,-0.0947796,0.16080277,-0.401243,-0.18317665,-0.088371806,-0.29159456,-0.034426387,0.030981136,0.25899723,0.36630407,0.008618985,-0.3277511],[-0.32255614,0.037226442,-0.41304666,-0.28743464,-0.2335348,-0.22004232,-0.3907331,-0.234609,0.18345256,0.07956938,0.18384416,-0.12273886,0.60351366,0.19176263,-0.35673705,0.29602277,0.02358651,0.13736333,-0.3365879,-0.20491101],[0.22352476,-0.215455,0.1577001,-0.2704181,0.21334705,0.39314494,-0.20450269,0.066923656,0.21545748,0.08600192,-0.037997797,-0.013020317,-0.4620289,-0.048451375,-0.025590668,-0.021327924,0.23947011,-0.32464153,-0.49611816,-0.43868053],[0.025084956,-0.16621818,-0.05873331,0.44999918,0.18255678,0.041618668,0.07928487,-0.1325241,-0.35594082,0.024792664,0.19365996,-0.04220412,0.4856386,-0.08434628,0.16260555,-0.055077653,-0.4446371,0.5988923,0.020198977,-0.2842746],[0.23386452,-0.48033008,-0.25452152,-0.16252945,-0.021782728,-0.4260052,0.1110743,-0.13352798,-0.101131424,-0.16359569,0.11505126,0.25395745,0.21097656,0.3404028,-0.40703842,-0.19084229,-0.23110543,0.34984446,-0.20878066,0.025640279],[-0.2998752,-0.29524103,-0.019667627,-0.23651122,-0.016430886,-0.09533704,0.05535351,0.0071551357,-0.17631783,-0.123393044,0.2656605,-0.4137078,-0.109982274,-0.04608072,-0.35673606,0.20868032,0.03369336,-0.27842632,-0.17099464,0.1950454],[-0.09336742,-0.1701041,0.5576154,0.5208524,0.4552013,0.49099612,-0.12301059,-0.10933678,-0.0040144627,-0.30846202,-0.38469872,-0.41428325,-0.058799736,-0.49626938,0.07342643,-0.33311236,-0.37439674,0.039536174,-0.17852336,-0.27012634],[-0.23237595,0.19407687,0.38268748,0.24728587,0.30437315,-0.27247968,0.18061647,0.1833448,-0.10800176,0.22507925,-0.40143102,-0.41313335,0.24084912,-0.1943513,-0.10110957,0.13742605,-0.36194542,0.42052484,-0.04245612,-0.45845234],[-0.3410839,0.12973456,-0.45479122,-0.48013267,-0.4383322,-0.35239816,0.21315923,0.34195447,0.26926982,0.25913408,-0.28088775,-0.23018226,0.11510846,-0.03481631,0.15439095,-0.18384472,-0.34564134,0.19159932,-0.43552142,-0.1098486],[-0.28394994,-0.045698833,0.08517059,0.14474009,0.30442962,0.042000312,-0.3207407,-0.1375569,-0.08367586,-0.11473316,-0.070869565,-0.3722128,-0.19430532,-0.04843707,-0.2325195,0.0969497,0.022198148,-0.5341935,-0.06518134,0.003069496],[-0.37553564,0.21061085,0.43440259,-0.024742965,0.25494263,0.011705942,-0.26807886,0.058810968,-0.06796581,-0.20144968,0.19844341,0.211504,-0.18369903,0.16240253,-0.086830996,-0.08080148,0.12281985,-0.3997387,0.07772925,-0.25474215],[-0.3235904,0.12184112,0.5243162,0.34428254,0.41703242,0.22772984,0.10784919,0.34250382,0.11740737,0.22219037,0.28279153,-0.027426247,-0.059203543,-0.053874046,0.21305352,-0.29531273,-0.09395896,-0.52072287,-0.4746612,0.012215905],[-0.14072214,-0.03300917,-0.39487168,-0.18984051,-0.3808539,-0.07432727,-0.07375334,-0.086575374,0.01910988,0.16213086,-0.2475012,-0.308057,0.29254332,0.2586909,-0.10690001,-0.2032344,0.25875655,0.545751,-0.03218148,0.019631248],[-0.3086009,-0.13916807,-0.2551558,-0.3201515,-0.07749388,-0.5409644,-0.17332628,-0.031351257,0.2294948,0.4814002,0.028978862,0.35194588,-0.09059774,0.0821541,0.16241747,-0.37070495,0.3114289,-0.48370767,0.08239509,-0.2490182],[-0.03904901,-0.4905833,0.34676123,-0.006348798,0.3177786,0.6548716,-0.10984704,-0.38119528,-0.2800175,0.15018989,-0.36095002,-0.33561662,-0.10427741,-0.4771195,-0.111885294,-0.40529066,-0.37672073,-0.13692194,-0.04366781,0.031590953],[-0.06357617,-0.33450806,0.030748416,-0.07948413,0.50949186,0.4282626,-0.2357941,0.053911906,0.15539564,-0.18496166,0.104767434,-0.25450492,-0.019872354,-0.35833094,0.19615783,-0.2525548,0.2346783,-0.38936397,-0.047645904,-0.24353676],[-0.29121557,-0.38905832,-0.3995119,-0.29319042,-0.19156681,-0.4504044,-0.36569592,0.32621336,-0.19646266,0.22954902,0.18619357,0.2599037,-0.16259362,-0.31175357,0.16808335,-0.32338583,-0.16555564,0.27839366,-0.20829871,0.030313823]],[[-0.41163903,-0.19400129,0.075263046,-0.037607264,-0.22367199,0.113671266,0.033349305,-0.12560242,0.14340812,-0.43232152,0.21022746,0.1364268,0.23485374,-0.29442546,0.21317242,0.16419189,0.12882102,-0.20979352,-0.13913868,0.1830931],[-0.2778445,0.29034057,0.4372698,-0.33961248,-0.15887341,-0.0016665473,-0.28506437,-0.26037657,0.10350888,0.006061833,0.1138061,-0.19802165,0.021345615,-0.32062545,-0.11680716,-0.1558007,-0.20131572,-0.13915592,-0.07189402,-0.009479077],[-0.02254037,-0.45557153,-0.0040201168,-0.47609136,0.09674248,0.2648669,0.5155362,-0.6045003,-0.16397627,-0.3352738,-0.12726311,-0.48137867,0.06258499,-0.35714048,-0.05168011,0.20133315,0.036710642,-0.0038432393,0.083370194,-0.34802607],[-0.23539554,-0.05288879,0.26580378,-0.3796833,0.06323983,-0.12306632,0.093471095,-0.17168994,0.41071272,0.07611208,-0.16140658,0.23943771,-0.02087662,-0.225003,-0.47580507,0.1635055,-0.29582575,-0.04459508,0.16016957,-0.2520908],[0.06876901,-0.47732267,0.4386449,0.040807176,0.045539908,0.05430319,0.29548162,-0.34069312,0.16168723,-0.2108311,0.11398689,0.096935555,-0.4505045,-0.092754334,-0.07749865,0.31439823,0.099422716,0.0612106,0.15951082,0.1921551],[-0.3318039,-0.22545806,-0.018106826,-0.037660316,-0.19701026,0.24955039,0.01743987,0.1441049,-0.34099734,-0.35513666,-0.3119025,-0.47979704,-0.38493195,-0.38564363,-0.41272336,0.16391493,-0.44570604,-0.19617888,0.19601746,0.024446255],[0.16986677,-0.17042422,-0.13664812,0.30630332,0.014813839,0.26572987,0.20362695,0.28213194,-0.09899923,-0.3836679,-0.24366939,-0.324425,0.06923773,0.04735171,0.13951606,-0.4690983,-0.5234386,-0.13865788,0.08346665,0.31898457],[-0.5042062,-0.3783637,0.16864824,-0.05672154,0.4655603,-0.2969833,-0.2058657,-0.10634119,0.1838253,-0.07802357,0.1442632,-0.38583267,0.2701443,-0.030587908,0.15088336,0.09835804,-0.5020235,0.031792045,0.16038951,0.01835077],[-0.00427334,-0.012454399,0.2621369,-0.13396984,0.4218463,-0.2509297,0.02736563,-0.01975615,0.06835352,-0.15780814,0.025956014,-0.043183398,0.08730057,0.19111532,-0.16384007,0.20731774,0.21390189,0.2539673,-0.16423856,-0.28481585],[-0.04698424,0.19434837,0.10762536,0.36266574,-0.2341013,-0.2233195,-0.46926937,-0.25699714,0.033104375,-0.4658876,0.0065890756,0.026462276,0.019715931,0.27960753,0.21955648,-0.28615126,-0.54501784,-0.40514946,-0.37697476,-0.1959309],[-0.12903088,0.13335389,0.2098579,-0.08560792,0.2157477,0.3698539,-0.43429086,-0.26664567,-0.21266721,-0.33435214,-0.0031992595,0.27952182,-0.14300092,-0.09129553,0.056670398,-0.33915836,-0.44921976,-0.2600499,0.20095474,-0.22260273],[-0.27764913,0.048624724,-0.010995047,0.21153015,-0.01947872,-0.10409125,0.08615131,-0.13729067,-0.23177585,-0.22072372,0.02378981,0.047820844,0.13376209,-0.007912417,0.21778028,0.076847374,-0.41223803,-0.13882363,-0.3499291,0.05340664],[-0.2754797,-0.16496262,-0.16196424,-0.3285998,-0.18437737,0.007977048,-0.02192853,0.3510438,-0.2912814,-0.0732932,-0.3550346,-0.17936954,-0.07508737,-0.22529748,-0.007781476,-0.06929397,-0.44479573,-0.524492,-0.1105526,-0.061309163],[-0.11814451,0.049824238,-0.15047766,-0.04691456,0.01038719,-0.02502011,-0.05660466,0.016518062,-0.3748567,-0.40433127,-0.16717362,-0.26544026,0.21862847,0.077898756,-0.25411034,-0.0059410785,-0.077048644,-0.15988396,-0.27365747,0.27633604],[-0.3253504,0.028564028,0.2788704,0.102644,0.40416023,-0.24068785,-0.1978628,0.1332207,0.13610795,-0.04736236,0.18216017,0.1673048,0.2514643,-0.28582984,0.19584453,0.32009107,0.19164596,-0.029826034,-0.07521701,0.3181822],[-0.26416066,0.20480113,-0.09593816,0.07503976,-0.014684057,0.27380514,-0.41761208,-0.004108174,0.022790907,0.0907787,0.16838749,-0.09433105,-0.24252616,0.18431054,-0.27945194,-0.07581477,-0.03003298,-0.13876641,-0.23269193,0.06074584],[0.040465236,0.14619355,0.45703894,0.12278172,-0.20950584,-0.12868194,-0.58211195,-0.17255758,-0.22246051,-0.08942379,0.31754065,-0.42932987,0.32631722,0.10697323,0.042406652,-0.4324961,0.08629803,-0.42940208,-0.41064766,0.03319485],[0.24672619,-0.46444404,-0.6307413,-0.45348793,-0.010412666,-0.24244465,-0.37410614,0.45078376,-0.02794477,-0.5681093,0.024803871,-0.34264207,-0.2157433,-0.3860818,-0.63443106,0.16068926,-0.50131935,-0.1652032,-0.28381753,0.13962646],[-0.09331059,-0.43678945,0.010044096,-0.3743901,0.018506978,-0.26586413,-0.27572495,0.312627,0.19833224,-0.037836548,-0.025013696,-0.06337808,0.2816581,0.12042581,0.057030898,-0.12427856,-0.02791547,-0.33672005,0.10872417,0.18291868],[0.0023447867,0.110442854,0.46602613,0.16495873,-0.011901362,-0.04032953,-0.022154175,-0.33600992,0.10616904,-0.009117176,-0.1796103,0.13039954,0.3085073,0.09058676,0.33152944,-0.42873487,0.08197109,-0.03823297,0.05110943,0.19453326]],[[0.085689805,0.26527387,-0.20143518,-0.30925253,-0.197269,0.21535577,0.3730463,0.36068094,-0.08117368,-0.27235654,0.28145763,0.3818634,0.2932452,0.38120025,-0.09574229,0.24799389,-0.22254315,0.26442477,-0.13907345,-0.17878006],[-0.25256568,-0.24342673,-0.054670252,-0.281271,-0.13456193,-0.33789825,-0.42843992,-0.35210857,-0.090658635,0.24143542,-0.2004722,0.052407246,-0.23971166,0.23676519,0.349686,0.10732468,0.08752282,0.0917831,0.1710787,-0.23948222],[0.34952822,0.29131114,0.11805934,0.4545715,0.11573288,0.438361,0.3569256,0.2775385,-0.048924472,0.07108289,-0.30483043,-0.25126195,-0.14610986,0.33405685,0.12578905,0.114116326,0.3775508,-0.24611053,-0.025278777,-0.11281877],[-0.0048975516,-0.11293084,0.13768347,-0.19147523,-0.024787245,-0.3047027,0.09932698,0.034193996,0.035459574,-0.028296914,-0.05224469,0.5825718,-0.29983088,0.6313274,-0.103711486,-0.28350094,0.21136902,0.61514306,-0.22080633,-0.09386893],[-0.14093362,0.41617414,-0.2154494,-0.21004672,0.30943277,0.044664584,0.02989093,-0.06786496,0.09572294,0.32961273,0.39631844,-0.27016595,0.4560726,-0.24967772,0.11543397,-0.15626515,0.4999006,-0.03949788,0.29375264,0.13354975],[0.21701254,0.21564065,-0.049905133,0.38644093,0.15739189,0.3670629,0.37006804,0.28963396,0.10090267,0.2887007,-0.05323746,0.21989127,-0.19254504,0.2348499,0.35087687,-0.07589239,-0.25082824,-0.1781391,-0.15702203,-0.05640323],[0.14112301,0.0025692193,0.06874516,0.53203946,-0.33735117,0.25419763,0.47291872,0.26429266,0.30990198,0.18612306,0.18384917,-0.231064,0.26465687,0.011199114,-0.10242348,0.2316251,-0.49449483,-0.21807753,-0.048346974,-0.14606236],[0.3298573,-0.2611456,0.17479055,-0.24010871,0.22839493,0.053528666,-0.4325921,-0.18156505,0.10968362,-0.14634229,-0.06833072,-0.022114132,0.07278991,-0.3153923,0.34299973,0.38727236,-0.5231391,0.054245096,0.27924854,0.2265726],[0.076308355,0.46123916,0.36425856,0.1956206,-0.022877233,0.045022666,0.0009799064,-0.11311182,-0.22234696,-0.035486,-0.23443143,0.30682328,-0.23892502,-0.18958585,0.41274983,0.3855248,0.14209099,-0.26201674,0.049958702,0.17180817],[0.14771362,-0.06589026,0.39365357,0.30424806,-0.15603581,0.40557885,0.048734684,-0.31897017,0.53693825,-0.07469592,-0.04342434,0.02731256,-0.19151112,-0.111854754,0.01101228,0.2068669,0.47976944,0.24668996,-0.3050145,0.24044628],[-0.19833644,-0.15697904,-0.018396107,-0.14513497,0.30022803,0.3212309,-0.28937882,0.34170184,0.2861585,0.41878006,-0.04399972,-0.12446646,0.43095365,-0.119459614,-0.122832805,-0.17725697,0.61399686,-0.08624492,-0.095378764,0.35826558],[0.46891832,0.17288919,0.18831278,0.10131464,-0.16087602,0.17058517,0.20866793,0.37305158,0.31043243,0.22960745,0.3223378,0.13772658,-0.24158539,0.54111314,0.038110934,0.008352718,-0.008183828,0.013984306,0.06934196,0.3456605],[0.4476191,-0.18398446,0.19817732,-0.20916817,-0.100021146,-0.3119841,-0.17198105,-0.2788592,0.2073193,-0.06851254,0.37630248,0.109576076,0.3262616,0.49808815,-0.13099322,0.41714197,-0.08002432,0.48318094,0.00064430776,0.28597996],[-0.19958873,-0.16898043,0.098620966,-0.26994905,0.44557214,-0.2886131,-0.091067344,0.06864936,0.32783052,-0.16670366,0.22904238,0.66837305,-0.014133608,0.47894084,-0.14246024,0.17951742,0.3079367,0.14592257,0.17760362,-0.1639868],[-0.1367956,-0.28184465,0.2643921,0.21968362,-0.1234801,0.15606397,0.19263175,0.2271825,-0.21160977,-0.2204369,0.18922213,-0.019637482,0.327013,0.6029243,-0.07095599,0.3007482,0.5107892,0.26341948,0.44934803,0.22185375],[0.022899846,-0.043204904,0.47977266,0.19862561,0.41201386,-0.09384635,0.6056877,0.42459735,0.267505,0.32035655,-0.03977668,0.17936024,-0.008554503,-0.40065303,-0.21872444,-0.26536125,-0.15997425,0.34524655,0.17777547,-0.0026940412],[0.059170276,-0.2611488,-0.24302733,0.49737865,-0.20176753,0.008063835,0.34444493,0.2589577,0.4074503,0.3654458,-0.04667002,-0.18475452,-0.087404095,-0.097070664,0.32083923,0.36404103,-0.07604716,0.04801488,0.33509547,0.27840492],[0.18917121,0.3812787,0.056900322,0.2743721,0.031049585,0.028149135,0.25840613,-0.35822907,-0.1689286,0.12322308,0.05502181,0.1455801,-0.23185945,0.058892697,-0.048904892,-0.030026386,0.016108517,0.22853087,-0.22652864,0.102295324],[0.26976007,0.06012729,-0.036733024,0.36023203,0.07329085,0.38423717,-0.06509221,0.1009033,-0.025328614,-0.18392976,-0.0112896245,-0.12411481,-0.0155431535,0.06692524,-0.21553165,-0.27210024,-0.3221749,0.17595027,0.04793766,-0.18684088],[-0.044972237,0.32083774,0.08681483,0.09115992,-0.10399326,-0.04575279,-0.39723176,-0.21504332,0.21860401,0.09429659,0.4088599,0.20517774,0.04406863,-0.254022,0.05700452,0.17036873,-0.004942385,0.16419736,-0.065067284,0.05463534]]],"bias":[[0.060467713,-0.081424035,0.10136878,0.06529167,0.111131474,0.090053745,0.0054666507,-0.027134694,-0.020463651,0.15159935,-0.12654229,-0.008377002,0.05740389,0.0056245173,-0.061856486,0.046015304,0.1475918,0.31805527,0.018734261,-0.0005057591],[-0.11628049,-0.16168319,0.010500474,-0.043118373,-0.0024183257,-0.032306876,-0.109499134,-0.0078013055,-0.11451404,0.026822831,-0.09232685,-0.033469953,-0.025508182,-0.093865246,-0.09930359,-0.044436645,0.059969075,-0.021120273,-0.13048832,-0.059735127],[-0.13506512,-0.0676598,0.117345,0.008607183,0.08027998,0.024178484,-0.032337468,-0.0267399,-0.039297,-0.07188617,0.021696717,-0.05478354,-0.080987774,0.022341313,0.017917693,-0.09781905,-0.16887914,-0.12112403,-0.11308376,-0.06452422],[0.07047597,0.14585157,0.044078775,-0.14571987,0.18868828,0.037887685,-0.062429875,0.10298752,0.10602235,0.12957618,0.0881529,0.121627666,0.13801154,0.011537414,0.11705705,0.046098817,-0.004569043,0.07579384,0.071464844,0.15184233]],"Losses":[1.2982749801545237,1.0283557397352778,0.8129893485662657,0.6360952286470851,0.4849716106987387,0.35746811534687595,0.2715067000283395,0.25240927580267375,0.2753299964278198,0.29518148956203205,0.2958795918410224,0.2802572542540778,0.2557349322786272,0.2303290496261775,0.21156163068277417,0.20321170048239104,0.20338055524049894,0.20718695240336887,0.21067275215314127,0.2116503406093109,0.20908282692349606,0.20297464930000492,0.1944079608423642,0.18524311242910127,0.17765874334442686,0.17348859613821047,0.17322849112818994,0.17565618111712009,0.17869582920438185,0.18057463894467457,0.18045399799859246,0.17843605501061857,0.1751883604326358,0.17159323214929365,0.16851495455614482,0.16650886262484502,0.16563016749970608,0.16555027287624227,0.16580367293624562,0.1659728526822624,0.1657967178949109,0.1652251427767107,0.1643670970498654,0.16336711783503466,0.16233908999536792,0.16135919247291142,0.16048075932605393,0.15971472468762696,0.1590371114521346,0.15843749687399514,0.15789654790437047,0.1573813061612176,0.15687101662669203,0.1563480711454948,0.1557871267006056,0.15518399842046215,0.1545535909246919,0.15391314788878022,0.15328037786105403,0.15266886131764934,0.15207620436067487,0.15148091429969507,0.15086217910905886,0.15021045326916554,0.14953037108475428,0.1488467242296223,0.14817391674444771,0.14750132637208976,0.14680060394941444,0.14603874494040128,0.14520235616866778,0.14430659472746027,0.14338198225599869,0.14245850775777613,0.14155088810435415,0.1406499447699162,0.1397289425151795,0.13875926764042315,0.13772481558010083,0.13663409520456074,0.1355121459885175,0.13438052916085377,0.13324422442074957,0.13208922176640991,0.1308974889544353,0.12966020029906555,0.12838114637421139,0.1270731398737386,0.12574883528255082,0.12441306088347,0.12306239497753613,0.12169075704403691,0.12030002469660854,0.1189008074007277,0.11750489044639958,0.11611832600982043,0.11474179331326805,0.1133756655170668,0.11202307425647806,0.11069090552161269,0.10938828116370468,0.10812262594218514,0.10689833695445572,0.10571805047911327,0.10458440102667213,0.1034994551537458,0.10246448263591773,0.10147931916659965,0.1005417615870265,0.09964805003773175,0.09879481508261057,0.09798071837341234,0.09720527480275544,0.09646706345148261,0.09576434100706599,0.09509628019084877,0.09446406298504029,0.09387229633677484,0.09333806407660673,0.0929350248421553,0.09299532709148142,0.09419462471261174,0.0959601253334728,0.0932256619725538,0.09086351779357439,0.09256982654152922,0.09242404582424456,0.09023584484619171,0.09089452273172907,0.09136584147507483,0.0897897826384651,0.08999081794357806,0.09054259978819366,0.08943017224976034,0.08940791777560364,0.08991390568272967,0.0891657425287801,0.08897976568457024,0.08943167078223993,0.08895156245457793,0.08865934660386131,0.089023027817921,0.08876187601381974,0.08841989377785371,0.08866435604846121,0.08858491391538226,0.08823612649734565,0.08834908404342336,0.08839199429221255,0.08809893092972158,0.08806923105758879,0.0881667904740122,0.08798661380648663,0.08784155197484843,0.08790790776816101,0.08785969549919569,0.08768952274754561,0.0876485653420526,0.08767244688576611,0.087581755501801,0.08745560578375422,0.08743115233393471,0.08742389969363072,0.08733307433136273,0.0872309387451495,0.08719271195872105,0.08717056406924428,0.08710048200123083,0.0870069247600721,0.08694540564433337,0.08691191371393278,0.08686297658364009,0.08678609062716133,0.08670636721027093,0.08664660419742744,0.08660115135757862,0.08654941307213707,0.08648280646922187,0.08640773308764443,0.08633666701178834,0.08627497726586093,0.0862194630719236,0.08616398668797415,0.08610362667762883,0.08603822162385127,0.08596897717626423,0.08589894754486777,0.08582924514242146,0.08576097207245056,0.08569378303882749,0.08562745444762404,0.08556171124066311,0.0854963648946345,0.08543193172636206,0.08536916639824017,0.08531066147746116,0.08526126333438235,0.08523442130157535,0.0852574923337156,0.0854063881955965,0.08580743519443461,0.0867383623427311,0.08791338922229762,0.08864051535834021,0.08686921345805787,0.08497458352802333,0.08473306974254463,0.08588311652029866,0.08657574175895123,0.08540661742275849,0.08435247146498173,0.08466180286433336,0.08539688641113481,0.08519451572510657,0.08426701306417408,0.08408430392526996,0.08460703779815727,0.08468221732465776,0.08412854658556038,0.08374959522486787,0.08396206399711094,0.08419460362786807,0.08391431287947045,0.08352644127528705,0.08349208654534458,0.08366754487342275,0.08364178954889044,0.08335485575071473,0.08315656692672808,0.08318754846330001,0.08325311395542577,0.08316142508501276,0.08295064607191688,0.0828122777362011,0.08280235228742944,0.08281768955060828,0.08275385692851432,0.08260658172928134,0.0824667486341359,0.08239181942852856,0.08236677317725301,0.08233727441882766,0.08226225283645003,0.08215120161078572,0.08203323861748509,0.08193746354643107,0.08186936086472564,0.08181701547300667,0.0817645219926621,0.08169919393336565,0.08162044812543161,0.08152925635191084,0.08143369374569469,0.08133695889069147,0.08124296488724336,0.08115180056276743,0.08106336062442775,0.08097655056553327,0.08089058678436956,0.08080481633759293,0.08071895177992047,0.08063304124685261,0.08054748255002335,0.08046363099313354,0.08038424646374494,0.08031681007534582,0.08027763882180304,0.08031197362930528,0.08051435482184649,0.08113626691752912,0.08239702640855591,0.08443088984221836,0.08453501460579974,0.08258642955175852,0.07997089886414956,0.07952048045536238,0.08093212379588566,0.08193474072214299,0.08108921751282921,0.079339643102735,0.07906462536549703,0.0800658657553209,0.08044681054752144,0.07957786418268639,0.0786076810000915,0.07872003880788184,0.07936030355902861,0.07928707790454806,0.07856143488558066,0.078082239129697,0.0782755619187458,0.0785975187833545,0.07839728685299173,0.07788848811599168,0.07760547373816049,0.0777077136091863,0.07786709594789278,0.07773787659669754,0.07740138885557754,0.07713078051293655,0.07707804016067678,0.07714764560452461,0.0771501926090632,0.07700980812227842,0.07677524452162651,0.07657184750781935,0.0764617618246641,0.07643113177504275,0.07642708232656897,0.07639387068556668,0.07631479241947854,0.07618804182337933,0.0760437108271517,0.07589962630911767,0.07577195701266698,0.07566303978856884,0.07557071561689499,0.0754913825262609,0.0754222070223722,0.07536405288669362,0.07532061676278488,0.07530436279322819,0.07533500358136598,0.07545960437574228,0.07573473123349837,0.07627240944434163,0.07700434960231804,0.07776015402456958,0.07763431067878536,0.07670420899656219,0.07537169268024063,0.07457736248289043,0.07452637421080004,0.07501404339803171,0.07561106158722354,0.07572828468047249,0.07528764072340033,0.07457565430956796,0.07414291444455859,0.07415186155914168,0.07444601957546326,0.07471969774896575,0.07468273430381263,0.07437566271799324,0.07400278133951152,0.07380433217384355,0.07383002538109908,0.07397778161702546,0.07409520854708267,0.07406294287796157,0.0739035759097023,0.07370018559560931,0.0735570986748265,0.07351213200480577,0.07354524059040211,0.07360600212883024,0.07364102501681728,0.07362643572592684,0.07355693232111037,0.07346126262068105,0.07336440235899426,0.07328935650542119,0.07324351390601529,0.07322436709004881,0.07322372503311705,0.07323218791099549,0.07324273213393122,0.07324910750815593,0.07325065354970138,0.07324428619412618,0.0732337929938926,0.07321704828655928,0.07319933496394895,0.07317838965270397,0.07315936803442759,0.07313960985811555,0.07312379555559428,0.07310886204804462,0.07309935277439729,0.07309168177984622,0.07309075619913027,0.07309207264917328,0.07310123665073742,0.07311168438431236,0.07312974027679486,0.07314502741134213,0.07316444339213457,0.07317240792434913,0.07317682848291096,0.07315919131770476,0.07313075228285183,0.07307706187084952,0.073013951767954,0.07293599146910057,0.07285877237603881,0.07278233505716614,0.07271564517849764,0.07265860098639595,0.07261304223400267,0.07257727783900049,0.07254982734999782,0.07252867533403248,0.07251215672460536,0.07249899503368205,0.07248843302608063,0.07248024451106447,0.07247467404693686,0.07247270274475857,0.07247572483199093,0.07248677815484647,0.0725090249835916,0.07254977994228418,0.0726144485987069,0.07271753175683701,0.07285982039733259,0.07305674332032638,0.07326504649464512,0.07346857806166907,0.07353259024820663,0.07345250360988251,0.0731646196551178,0.07281077250818113,0.07247331139708711,0.07225087222671887,0.07216331637348984,0.07219243388082197,0.07229539201632934,0.07241618310935209,0.0725072460650893,0.07251978968395995,0.07245783016793834,0.07233152647733442,0.0721923784008145,0.07207405991812978,0.07200124326508164,0.07197640458620021,0.0719884381716633,0.07201942389592775,0.0720498489281213,0.07206647672394804,0.07205868865236562,0.07202929425066928,0.07198078655076426,0.07192474370269364,0.07186800226415917,0.07181802973101648,0.07177755626705443,0.07174720385201643,0.07172557616394741,0.07171046662900765,0.07169956881233809,0.07169087704733915,0.07168309682785258,0.07167506994490591,0.07166680979131362,0.07165765860193536,0.07164863096450833,0.07163907280027447,0.07163072239411755,0.07162255524178628,0.07161693191573924,0.07161210846156948,0.07161108502955808,0.07161083571222877,0.0716149630650126,0.07161825141858644,0.07162476605282236,0.07162611551247618,0.07162681593973001,0.0716154333304602,0.07159778626219944,0.0715622182567584,0.0715172991939357,0.07145541015351205,0.07138744915076324,0.07131119216801825,0.07123627327656153,0.07116303553278895,0.07109665394964579,0.07103706766092062,0.07098525373603781,0.07094012993172825,0.07090069687378135,0.0708656013403978,0.070833641993284,0.0708038626533328,0.07077559983125968,0.07074848444945774,0.0707224919276604,0.07069793002610326,0.0706754259130064,0.07065628187187323,0.07064212354275112,0.07063622105619166,0.07064204607067037,0.07066699281646883,0.07071689247308922,0.07080529270381147,0.07093295668578363],"R2":0.5083025203227671}