{"architecture":[["Dense",[4,20]],["Dense",[20,20]],["Dense",[20,20]],["Dense",[20,20]],["Dense",[20,20]]],"Node_Indices":[123,88,42,77,36,40,110,83,11,95],"weights":[[[-0.6168691,1.9573495,-2.2625444,3.474016,2.4595518,-1.3398172,3.7116785,0.15790251,1.0018395,-0.14808239,3.5843222,-0.8480906,0.32905513,4.2557044,1.5349547,3.7416005,1.5592268,-3.216984,3.4247472,-0.53825563],[0.9628098,0.8670536,0.2919486,-0.025076726,0.074256174,-1.1126077,0.3627386,-0.41007432,0.62608474,-0.6922987,-1.445312,0.20663176,-0.54955167,0.8345577,0.09226744,-0.28859875,1.2412233,-0.040508464,-0.3325152,-0.7218065],[-1.6049073,5.6499686,-1.6898068,0.08983557,-0.55658895,5.1217465,-1.349142,-1.0271044,-0.25668785,-1.7749933,-0.6737726,3.4152462,0.81505966,-1.7773937,-1.4216568,-0.6191316,-1.796612,-1.6364723,-1.4113371,-0.13272284],[0.32977453,-0.25044847,1.2383324,0.062108357,-0.39379168,-0.32564202,0.5694027,-0.7116263,-0.6524521,0.28563508,-0.5636569,0.86498874,-0.12544282,0.25636435,-0.9082961,0.38501954,0.19204937,0.3045758,-0.17180827,0.42044365]],[[-0.103771284,-0.7004903,-0.36663312,0.40458435,-0.11675833,0.30664966,-0.24494575,-0.16172227,-0.5993679,0.37596124,-0.26910096,-0.17188387,-0.15310104,0.0968747,-0.049838625,0.021633273,-0.13074937,0.43594405,-0.26080713,-0.40586868],[0.27665812,1.5860672,-0.21394725,-0.4251358,0.14037475,0.082135566,0.058533367,1.0632304,0.30962726,-0.19051735,0.18172921,-0.42306778,0.10350641,0.20367797,0.20148532,0.055433262,0.25517365,-0.56255627,1.1407325,0.14513555],[-0.841194,-0.86650467,0.17996483,0.32583228,-0.30591545,-0.49067038,-0.3963441,0.123975314,-1.1495146,0.06423653,0.16528897,0.44575572,-0.2295625,-0.004177222,0.011236688,0.4754395,0.04358035,0.22091618,-0.08892861,-0.79841524],[-0.038454536,0.10711443,0.09733051,0.18102543,-0.109489545,0.5851974,-0.0742739,-0.15609668,0.8466825,-0.22462536,0.23362796,0.2820197,-0.04606442,-0.46498117,0.31655344,0.006206802,0.102572724,0.3949614,0.1351799,0.1543089],[0.1471355,-0.09314479,0.19266313,-0.049310315,-0.08756749,0.45635623,-0.024123091,-0.1882373,0.17849603,-0.29019257,-0.35200146,0.102104306,-0.010847406,-0.42245758,0.11428937,-0.10428218,0.3322641,0.35477078,-0.011330846,0.4875149],[0.16020945,1.4795607,0.2738943,-0.336846,-0.36220452,-0.6461134,-0.3717377,1.1691728,0.040956967,-0.09086196,-0.077521004,0.014465982,-0.26748157,0.04486756,-0.055223882,0.7178801,-0.278476,-0.7725835,0.4321859,0.5313775],[0.023264285,-0.53404796,0.1779335,-0.18091305,-0.31477222,0.73881984,0.20034826,-0.22531632,0.800297,-0.23565258,0.17945099,0.27442157,0.17099813,0.058656268,0.03099983,-0.33682302,0.3575626,0.59920484,-0.58971363,0.7013199],[-0.51908225,-0.5022221,-0.0145768,0.07827739,-0.083299756,-0.31470215,0.13231075,-0.023213813,-0.17336375,0.21931636,-0.22211239,-0.035391025,-0.15223783,-0.16501431,0.18668759,0.6271877,0.22465482,0.2913387,-0.34891868,0.33032945],[0.1802747,-0.40157834,-0.11578498,-0.25532293,-0.25539833,0.17759134,0.14646257,0.3334822,0.030606411,0.19817019,0.3158057,0.20675081,-0.47832128,-0.015344786,-0.3696456,0.16104253,0.39069167,0.2393692,0.12007105,1.4038698e-5],[-0.33523116,-0.4280628,-0.35598218,0.48513624,-0.24669825,-0.24222797,0.09655503,0.2952409,0.10025164,-0.31083328,0.16915926,0.3666841,-0.37462565,-0.0016231483,0.024411097,0.7016662,-0.27395436,0.44177917,-0.46466845,-0.14535893],[0.081773154,-0.089030586,0.120401464,0.138863,-0.049663942,0.03240843,-0.15405965,-0.5115996,0.36196196,-0.05602362,0.0631047,0.42065603,-0.28738177,-0.39704144,0.31097934,-0.32803112,0.46033752,0.477074,-0.13721824,0.5416207],[0.47364268,0.8522723,-0.21967831,0.23404202,-0.07899173,-0.26434588,-0.22153094,1.1627463,-0.66433066,-0.12404679,-0.09272803,0.3677256,-0.243622,-0.44105452,-0.27931014,0.6053984,-0.40701744,-0.5081003,0.7908415,0.31423095],[-0.43016058,0.3141825,0.18241844,-0.13139139,0.43366763,0.013019095,0.25962722,-0.08448932,-0.0860554,0.3023519,0.35192278,0.41246682,-0.2256058,0.15010302,-0.111799404,0.4348057,-0.2933493,-0.22405154,0.29606238,0.42337847],[-0.14921966,-0.66132784,0.020896098,0.14698425,-0.4522546,0.5645656,0.40103832,-0.6296686,0.7731369,-0.25577137,-0.5105543,0.101956315,-0.53229094,-0.1275263,0.19518064,-0.5497232,0.039658315,0.77624285,-0.16215736,0.016008193],[-0.371458,-0.20347887,-0.5588366,0.049660742,-0.42197746,0.22431226,0.033310864,-0.3484387,-0.04024846,0.18392117,0.10503781,0.09156847,-0.35770735,-0.40157148,0.10296361,0.1497196,0.37819088,0.30445772,-0.42720982,0.24881046],[-0.23597664,-0.09920263,-0.30154678,-0.1515462,0.304569,0.45987108,0.06542288,-0.47840026,1.0115021,0.050205484,0.112172246,-0.26534814,0.17761049,-0.25188342,0.00408085,-0.21998712,0.048299223,0.63419914,-0.47866374,0.6820982],[-0.183399,-0.4939123,-0.38253605,0.15130973,0.22820413,0.19125785,-0.23137021,-0.42601216,-0.22629452,-0.18571068,0.02872389,-0.27636793,-0.4468221,-0.021239001,-0.2470372,-0.18757738,-0.019142307,0.6572101,-0.062055714,0.10951231],[-0.50557095,-1.0894895,-0.1350564,0.79859126,-0.3601593,-0.42499334,-0.44283018,-0.06456987,-1.22334,0.3658307,0.037946012,0.39436457,-0.59478027,0.009475775,-0.42286018,0.8477759,0.15373336,0.54009277,-0.92981356,-0.42523235],[-0.5062834,-0.7436649,-0.44023827,0.25766972,0.1857275,0.47006285,-0.36074847,-0.6226313,0.87129945,0.32818487,-0.4801068,0.3329398,0.049778588,0.17841014,-0.19102903,-0.30986243,0.44739357,0.6009816,-0.5553251,0.13188425],[0.05756544,-0.33335787,0.13362266,0.604285,0.23645937,-0.44889086,0.16315599,-0.051133204,0.013680674,0.34314653,0.05062882,0.3049676,0.25331116,-0.26353353,-0.34133685,0.17080034,-0.14065105,-0.087301,0.050705798,-0.49095404]],[[0.439423,-0.22744337,-0.03885063,0.60076606,0.18967043,-0.2487971,-0.5062224,0.1795972,0.07169522,0.047000527,0.2591887,-0.2809954,0.07700759,-0.102762856,0.35308403,-0.45208126,-0.10412554,-0.11382475,0.27742344,0.22133847],[-0.2637203,0.16121635,0.04197867,1.8488808,0.030078132,-0.11059891,0.008179528,-0.43909216,-0.11807707,-0.0215478,0.08542427,-0.46236193,-0.14926074,0.19870503,0.27643678,0.16543394,-0.27581868,0.24604955,-0.36278352,0.2814269],[-0.0922792,0.42915815,0.018105397,0.031762097,0.05640935,-0.074974805,0.14078207,-0.013981224,-0.18219982,-0.36282584,-0.028034374,0.16721629,-0.1809255,0.16619633,-0.06828773,-0.18550381,-0.2449946,0.23408945,-0.0971194,0.27565533],[-0.2635873,0.62942934,-0.1479512,-1.1044391,-0.3578083,-0.19349098,-0.5077192,0.24369249,-0.3514525,-0.12646303,0.24527046,-0.7149582,-0.45257565,-0.110080615,0.29514375,0.28830057,-0.009583834,0.1176497,-0.03777352,-0.3186829],[-0.19542596,0.1536333,0.2469237,-0.11623409,0.30943763,-0.28902313,-0.37654486,-0.33438596,0.15466268,0.21629146,-0.19417821,-0.077051945,-0.48981735,0.058709126,0.5672277,-0.29168746,0.10455922,0.2605541,-0.45657668,-0.07254158],[-0.011304753,-0.5672964,-0.07824365,-1.128582,0.35474315,-0.5032222,-0.3226554,-0.09211725,0.03878063,-0.31105822,-0.39770603,0.58550805,-0.044742078,0.08138715,-0.17899582,-0.08486304,-0.11550782,-0.4500786,0.1527499,0.0971777],[-0.26880243,0.09924596,-0.38561702,-0.5728423,-0.18552263,-0.26563376,0.035354458,-0.27197987,-0.18173228,-0.34460112,-0.08222571,0.26210982,-0.20288487,-0.33625096,0.6440663,0.041399334,-0.07663698,-0.30375543,-0.09757039,0.18255962],[-0.077402756,0.978167,-0.103532165,2.107217,0.054815367,-0.12721351,-0.1948924,0.030693159,0.17172451,-0.29142797,0.021953743,-0.33547533,-0.1479092,0.361702,0.145092,0.17738202,0.90902877,-0.12395734,0.0074218647,0.46588126],[0.20386507,-0.61863726,-0.3486792,0.09526919,0.20161764,-0.37317082,-0.5503661,0.7730933,-0.41207755,-0.10396684,-0.09991064,0.68901235,0.021258846,-0.40276965,0.4752983,0.20484473,-0.74734664,-0.09220756,-0.31652498,0.2731899],[-0.07487023,0.4077035,-0.21328017,-0.5415688,-0.16300228,-0.2643364,-0.0095041245,-0.3573826,-0.04664772,0.29191333,0.25959554,-0.2437543,-0.21928999,-0.19347921,-0.05562948,0.15887842,0.19494425,-0.4657203,-0.26867726,-0.069678575],[-0.21587756,0.20151114,0.35366374,0.14698748,0.067206845,-0.12602288,-0.4602855,-0.051627543,-0.40420642,0.010653977,0.2773189,-0.47467813,-0.20563243,0.3390599,0.13945223,-0.034026325,0.27731186,-0.316022,-0.29912433,0.33496743],[-0.20767039,0.19828252,0.20706448,-0.53549814,0.09420648,0.29042402,-0.28797203,-0.00038093555,-0.0024383455,0.13522454,-0.47385767,-0.09905623,-0.41469043,-0.10544874,-0.047675923,-0.39210734,0.3123091,-0.030119315,-0.32004118,-0.43215656],[0.0078591425,-0.026431106,0.3794099,0.18673234,0.24764425,0.24735077,-0.21473321,-0.2285207,-0.27384546,0.15783577,-0.09536361,-0.26679748,-0.044251658,0.23917541,0.16079466,-0.037585266,-0.18603815,-0.11766494,-0.07765681,0.18551928],[-0.25795394,0.113845766,-0.12422911,0.14746857,-0.059234954,0.011482293,-0.049278427,0.048270285,-0.017614104,0.056895018,0.058908146,-0.5787819,0.18403137,-0.045980707,-0.11282437,0.07019478,-0.27438575,-0.1622544,-0.010692298,0.11831858],[0.10658292,-0.03527253,0.39176783,-0.056334972,0.09694278,0.34447816,0.25722027,-0.03475205,0.21853207,-0.41878724,-0.0014808862,0.30105746,0.086371,-0.16251281,0.617863,-0.2955185,0.03352672,-0.47950262,-0.38460335,-0.3958187],[0.045013618,0.27209353,-0.3307667,-0.043955613,-0.3416691,0.18627681,0.17894791,-0.049306966,0.28730708,-0.17273371,0.06110359,-0.8035695,-0.23230065,0.4106993,-0.28811893,0.22436434,0.67880684,-0.015134368,-0.18729298,-0.39303228],[-0.32214662,-0.09642951,0.13229999,-0.61898345,0.034089565,-0.037306234,0.0045623453,0.24241678,-0.41845843,0.223695,0.061151788,0.10273761,-0.35504892,-0.27991375,0.31429687,-0.3721488,0.35442838,-0.46137214,-0.14740044,-0.315957],[-0.31775707,-0.05336631,-0.037587486,-2.1516604,0.24262664,0.29370993,0.13584217,0.11533491,-0.45931733,-0.30591866,-0.3022011,-0.028198859,0.07096963,-0.31561956,-0.34174854,-0.3642609,-0.3182394,-0.30727726,-0.012763957,-0.40038174],[-0.07444103,0.16129899,0.08366288,1.6132683,-0.20532766,-0.01643359,0.102566354,-0.29005736,0.44461074,0.00873585,0.2908316,-0.5230966,-0.45511356,0.38435882,0.30350086,-0.4696463,-0.17738894,-0.24843371,0.0022493247,-0.001770837],[0.19790915,-0.4856076,-0.3894331,0.2790459,0.23779136,-0.37641734,0.026303198,0.31740594,0.09665806,-0.037924796,-0.17241082,0.46089566,-0.3138787,-0.06795683,-0.15067717,0.10904829,-0.48569712,-0.16334216,-0.30815884,-0.016203888]],[[-0.42441684,-0.05027777,-0.026308123,0.031600274,0.2983701,-0.42027336,-0.31539172,0.29933918,-0.15616041,-0.3582416,-0.16617481,-0.22891894,0.1451367,-0.14119166,-0.05877029,-0.3312611,0.21234044,0.13763507,-0.18537481,-0.10108681],[-0.25175875,-0.34264657,-0.03964323,-0.42401606,-0.47882146,0.021169525,-0.15277548,-0.29492414,0.25408718,-0.35603446,-0.26039407,-0.079576194,0.1450995,-0.28402656,-0.3846013,-0.1476641,-1.4168768,-0.4029645,-0.0030585495,0.25428754],[0.042643588,0.08979344,-0.17980862,-0.04358241,-0.20619464,-0.53111595,-0.124815375,0.08115694,0.2867899,0.010788533,-0.28068557,0.20288798,0.489745,0.07353781,-0.21046059,0.068140164,0.043217387,-0.29791072,-0.06425086,-0.45923713],[-0.5749787,0.052163884,0.01913117,-1.056587,0.047984734,0.20941782,0.16911788,-0.21335413,0.09468529,-0.7511706,-0.5804382,0.11046314,-0.31560686,0.059838228,-1.3625182,-0.6001573,-2.6662836,-0.66484123,-1.0145513,-0.0920295],[-0.35471845,-0.37500986,0.28766093,-0.2265694,-0.29070795,0.02743171,-0.19818889,-0.034908924,-0.35333526,-0.22179791,-0.33640078,-0.5289464,-0.2488092,-0.09812712,-0.030936172,0.0010255682,-0.0073352936,-0.3405343,-0.168386,-0.020431917],[-0.14359261,0.13074617,-0.35096228,0.1334354,-0.16433878,0.24226215,-0.08436055,0.15364954,-0.35641867,0.12424913,-0.3165228,0.10080689,0.31543374,-0.028972652,-0.17152883,0.20662616,-0.34379804,0.35854533,0.43530658,-0.5840533],[-0.5206119,0.20671476,-0.08430874,0.056371596,-0.03648313,0.19298355,-0.04936098,0.39522985,0.20947407,-0.36360562,0.025325438,-0.26167637,0.071369156,0.17799237,-0.088338025,0.0059887394,-0.14457977,-0.35759798,-0.36257747,-0.1382703],[-0.31528518,-0.2900785,-0.37979776,-0.35589093,0.049284413,0.15970036,-0.46091184,-0.27510053,-0.32584867,-0.20799749,-0.39870507,-0.09476303,0.28788146,-0.50296646,-0.3706474,-0.005730839,-0.11804269,-0.079967044,-0.26569083,-0.30778894],[-0.10553117,0.22284949,-0.1409209,-0.4364936,-0.39148015,-0.12556383,-0.16728999,-0.30225143,-0.4347361,-0.23378827,-0.4745988,-0.09519339,0.30830872,0.17787135,0.2552947,-0.023608953,-0.28600377,0.2215482,0.025551675,0.20271854],[-0.14162743,0.11742689,0.110227644,-0.21601532,0.004914571,-0.19335262,-0.25901726,0.4014124,-0.25889832,0.13998573,-0.056068808,0.078668654,0.45908242,0.20856512,0.07925944,0.18359418,-0.26436815,-0.30426067,0.25636664,-0.24345368],[-0.43431842,0.18424891,0.24473326,-0.40728602,-0.2869471,0.16905105,-0.013653635,-0.14603181,0.0611689,-0.3652825,-0.15180764,-0.36905608,0.37903023,0.21204798,-0.11723991,-0.09618096,-0.24968031,0.1093486,-0.05384094,0.0044704843],[-0.65259355,0.07911194,-0.28445527,-0.13040394,-0.27339086,-0.3602111,-0.48941657,-0.46102378,0.029652199,0.08769169,0.08203052,0.11196275,0.096063964,-0.024902407,-0.4018495,-0.14450046,-0.71347594,-0.32692456,-0.667977,0.041652914],[-0.4697812,0.11045766,-0.17267983,0.23717315,-0.28074694,0.027588699,-0.32734036,-0.16871507,0.26329967,-0.1272234,-0.3422412,0.09688932,-0.1563279,-0.120813884,-0.21597765,0.14985938,0.172533,0.01755361,-0.27792507,-0.18685207],[-0.3202449,-0.1849417,-0.31063136,-0.15450823,0.19417685,-0.34237435,0.17888269,-0.005611504,0.283934,0.18257208,-0.27786484,-0.08390036,0.22188878,-0.30497658,-0.39392745,-0.11245374,-0.4800263,-0.2910882,0.04072327,0.24756335],[-0.14640841,-0.043532103,-0.19797625,0.18234313,-0.3029654,-0.41665396,0.061179888,0.21952231,-0.114721365,0.21988447,-0.311558,0.09712004,0.5039244,0.114116795,0.4177933,-0.012218799,1.0746086,-0.09097528,0.8229351,0.22640665],[-0.28599143,-0.23181397,0.17637059,-0.08696148,-0.48050478,-0.29992798,0.0617408,0.16436498,0.14717616,0.20481187,-0.18908638,-0.2112331,-0.06591836,-0.2205562,0.074580796,-0.072424546,-0.0097504305,0.2717549,-0.13484669,0.073801704],[-0.17089167,0.06051576,0.055013996,-0.35923922,-0.026612801,0.043070327,0.16598946,0.24400382,-0.32373184,-0.0015215422,0.17066158,0.057147615,-0.23022196,0.015218555,-0.35246724,-0.02578149,-1.4926419,-0.09509538,-0.27484372,-0.30805987],[-0.26421022,0.11491505,0.0865464,0.021742562,0.095770806,0.005570646,0.22539592,0.03591992,0.24290377,-0.3206374,0.23095477,-0.29884183,0.16443326,0.09694413,-0.48857087,-0.088838905,-0.51338494,-0.25059652,0.12991412,-0.11938348],[-0.24236736,0.11583242,-0.042303607,-0.015539597,-0.052728638,-0.11102543,0.10646137,0.31091547,-0.33800724,-0.18210307,0.0044332556,-0.08097553,0.068357974,-0.38105068,0.28440562,0.10372409,-0.11374376,0.21494396,-0.107205704,-0.040789068],[-0.26154307,-0.24685481,-0.23568036,-0.17918058,0.116203025,0.009751937,-0.1707055,0.37727603,0.24800828,-0.1539662,0.152414,0.2994836,0.16787666,-0.20994212,0.008335713,0.06637422,0.17812426,-0.1494421,-0.3123636,-0.25625283]],[[-0.04737411,0.072130084,-0.2045357,0.2975588,0.4972803,0.29822874,-0.48910838,-0.005501488,-0.085160896,-0.06507521,0.029885687,0.49575415,-0.18434761,-0.07031265,-0.2099916,0.10842412,-0.12909226,0.30683106,0.24289244,-0.29962888],[-0.1613861,0.20917322,0.43220556,-0.18141161,0.011293702,0.07392688,0.3814669,0.51307446,-0.2049045,0.110982396,0.26570615,0.43501478,-0.023897076,-0.16634266,-0.24189143,-0.0059774197,-0.14889486,0.32593617,-0.19424734,0.3018383],[0.20178454,0.14605655,-0.0471841,0.16204898,-0.38025424,-0.45967773,0.14099804,-0.064739004,0.31500134,0.2333438,0.02425387,0.014290118,0.28898084,-0.27243543,-0.03954402,-0.54856676,-0.13597715,-0.45930034,0.0060250675,0.06479566],[-0.09628275,0.16660641,0.04278645,0.018673198,-0.15361181,0.20687144,0.22641835,0.5625752,-0.30335122,0.056164797,0.28581473,-0.025485288,0.15486082,0.31887662,-0.2696536,-0.40636006,0.16867381,-0.3667367,-0.04020704,-0.045703396],[0.38728297,-0.08676769,-0.12043687,0.15089174,-0.08230091,-0.20622715,-0.018147837,-0.047697235,0.013032163,0.01179821,-0.11595877,-0.016448196,0.075817354,0.20078859,-0.14664301,-0.26062918,0.4889543,0.1060142,0.44556856,0.2401267],[0.2980578,0.19018155,0.400219,0.008622002,-0.13368338,0.33546206,0.32781118,0.07573983,0.26045352,-0.16642351,-0.2684011,-0.21500154,-0.026656836,-0.08248141,-0.22688016,-0.20491941,0.058109265,-0.13043743,-0.12577856,-0.36905012],[0.2288517,0.14253373,0.09842474,-0.19025603,0.4688081,0.27229175,0.17108203,0.16138512,-0.041580353,0.3235791,0.3081271,-0.02047259,0.19633234,-0.04174753,-0.12561296,0.24069458,0.03155041,0.14328104,0.030195832,-0.021855067],[0.45084792,0.22038619,-0.050845068,0.38189128,0.31842607,-0.0464489,0.35597426,0.60316,-0.042381104,0.13827536,0.08275998,-0.2138909,-0.048623398,0.20802872,-0.14162926,-0.0919359,0.25996137,0.2753485,0.36739516,-0.010236486],[-0.00836676,-0.14289469,-0.17057821,0.35171637,0.11533406,0.055451203,-0.10743749,0.39624563,0.27171102,-0.21231575,-0.20364878,0.31435898,-0.28803897,0.1238986,0.49818075,-0.056830626,0.04364937,-0.0645875,0.20221357,0.29187799],[0.38260338,0.17293426,-0.26752967,0.24488738,0.08861345,0.60617596,0.26967317,-0.03226323,0.27671298,-0.19055855,-0.38384503,0.11314162,-0.13243818,-0.26290956,0.12214422,-0.17361487,-0.13520694,0.19065721,0.2849735,-0.38487166],[-0.05099124,0.05459101,0.012792297,0.055629067,0.15671022,0.30818528,0.19613892,-0.19531089,0.29532713,0.40922183,0.05799697,-0.12159936,-0.0016288277,0.19311468,-0.17056163,-0.28938,-0.0016178369,-0.3029288,-0.092732415,0.08176614],[-0.18490922,0.051217917,-0.21087359,0.2846339,0.16762872,0.23554456,-0.23463994,-0.25528076,-0.31777352,0.31550008,0.06522728,-0.20392135,0.27466267,0.18634948,-0.0031081792,0.014726184,0.3396157,0.22539972,0.026377475,0.13771923],[0.1327558,0.10009706,0.116460524,0.11417665,0.29689947,0.28843164,0.16498561,0.2550179,0.17251807,0.13916963,0.3095793,0.29704288,0.079624906,0.23604207,0.4848439,0.56644386,0.12878647,0.2867537,0.02503768,0.31709528],[-0.14885466,0.087086715,0.2357587,-0.020281218,0.1534731,-0.24834609,0.26990587,0.18781927,0.3452391,0.1621588,0.3805104,0.33299205,0.33923692,0.20089361,-0.13681822,-0.25330666,0.008811134,-0.10579677,0.023085343,0.18655105],[0.115598425,0.27498317,-0.17755993,0.29387772,0.17093754,-0.11577419,-0.070641235,0.4241844,0.23073776,0.24209037,-0.138439,-0.29389182,-0.03771842,0.28826925,-0.2763672,-0.46002203,-0.20535448,0.16102727,-0.066259965,0.12160253],[-0.111944854,0.033940293,0.49867505,0.005066399,0.3656464,0.038045723,0.07783591,0.058716323,0.040217623,0.46639425,0.08042209,-0.11525381,0.28411087,-0.25043797,-0.20082463,0.04519993,-0.15846983,-0.08418762,0.06894163,0.08151086],[-0.13601063,-0.16443355,0.050502192,-0.091724485,-0.4594915,-0.56015307,0.056017566,-0.21175058,-0.034939557,-0.22594903,-0.4144567,-0.4581868,-0.02930011,-0.40724406,-0.72402966,-0.8332494,-0.023682185,-0.47234362,0.014599445,-0.49115753],[-0.06453446,0.27832946,-0.2013955,0.35329643,0.5870612,-0.04156299,0.1137037,0.24237414,-0.07555179,0.1768103,-0.12236783,-0.24495575,-0.084682405,-0.14978385,-0.25047562,0.28669038,0.07813856,-0.10631959,-0.15051213,-0.35844505],[0.2939385,0.24142098,-0.09899051,0.032754123,0.44658095,0.81510293,-0.28184727,0.0669702,-0.18412487,0.27710167,-0.17038216,0.02603684,-0.10957961,-0.1360923,0.047374476,-0.060285594,-0.05151266,-0.24159725,-0.25127566,-0.08093339],[-0.16989318,0.18051037,0.58696043,0.031355564,-0.49307576,-0.33325648,0.3321628,-0.35242414,0.18122126,0.0054469537,0.22670837,0.30193973,0.25014243,0.19129477,0.02739202,0.41176367,0.03942739,0.30227363,-0.057055913,0.13401873]]],"bias":[[0.26278034,0.080366254,0.34671724,-0.013480541,-0.017663237,0.24295546,-0.044268876,-0.01935472,-0.19062829,0.46542338,-0.12135639,0.28960386,-0.24763513,0.14783448,-0.059495576,0.03030534,0.0779498,0.77988464,0.08513817,0.06426211],[-0.21211828,-0.13136508,-0.16591938,0.19009957,0.06777401,-0.18045218,-0.020098073,0.28466418,-0.26083973,0.013703887,0.008986934,0.1586363,-0.09651093,-0.1597657,-0.07984762,0.3471875,-0.017363358,0.09713016,-0.00785443,-0.1201301],[0.02221484,0.15473354,0.029946584,0.03893422,-0.051731016,-0.078506686,-0.12843503,-0.08098941,-0.027221076,-0.092134394,-0.098515086,-0.22002617,-0.15779212,-0.0011734219,0.27446142,-0.09796454,0.12063823,-0.13056353,-0.09819423,-0.057371486],[-0.16292207,-0.092578545,-0.045522057,-0.09039873,-0.12411247,-0.22576143,-0.09232263,0.09661117,-0.042247143,-0.15445629,-0.14230782,-0.12111248,0.10730462,-0.061124478,-0.10620568,-0.15096514,0.09196581,-0.105835825,-0.027861843,-0.05642799],[0.19850379,0.1505319,0.31652105,0.19476229,-0.067657866,-0.12952173,0.1627334,0.052873902,0.42697915,0.11373245,0.06666711,0.10730722,0.08809089,0.18737517,0.13352795,-0.024817187,0.12964357,0.046119142,0.31226376,0.09003241]],"Losses":[1.6998500317919243,1.328847512752172,1.0380548234571338,0.8393694839591628,0.727353654189124,0.6434674759460987,0.5463618166483746,0.44094654343080714,0.35273160904521805,0.30655468326198015,0.2967512439207455,0.29062915412989,0.27276522370105394,0.2501383502067682,0.23914337453581055,0.2446175804745616,0.25284452134895424,0.2537042790668165,0.24812513454159169,0.24054417585657453,0.2330231961102731,0.22533903541817202,0.21798148630239675,0.21269592345336266,0.2100400305932481,0.20802625506301733,0.2045748783285571,0.2001735842343294,0.19720092342172632,0.19712663611230885,0.19886352299129528,0.2002199973018593,0.2002256852608769,0.19950982556801508,0.19899070546035985,0.19866810531198698,0.19790822118377652,0.196599998677912,0.19536285985038004,0.19462895714256104,0.1940742493851429,0.19319068660137836,0.19205834903097846,0.19123404397297417,0.19100098325970052,0.19104341026961363,0.19095147090381606,0.190730578365255,0.19060984165060285,0.1905969775509876,0.19050214170953056,0.19029160026582137,0.19013620088953023,0.19009782946929907,0.1899989718258822,0.18969731160439413,0.1893057435065772,0.18900796248600915,0.18879850453336788,0.18856412670737527,0.188315664222586,0.18815839144152116,0.18809234768507893,0.1880180348799357,0.1879121779793286,0.18783514882400104,0.18778185660889457,0.187676030426725,0.18750551532591567,0.18733119905960646,0.18716847192256023,0.18698093513186922,0.18677983159391862,0.18661333118765935,0.18647545065360216,0.1863263940332136,0.18617165092411023,0.1860361843221225,0.1859038065888232,0.18575266736188792,0.18559771834213865,0.1854476785558129,0.18528360025094406,0.18510566015432833,0.18493337595226148,0.1847611410743709,0.18457542900862,0.18438758613728484,0.18420487560642484,0.18401701428466077,0.1838269164701777,0.1836422684002268,0.18345365672996872,0.18325823534552158,0.1830639845094627,0.18286589209034743,0.18266018641593842,0.18245387436002744,0.18224443190682652,0.1820294692406446,0.18181556174652136,0.18160071262051122,0.18138369320106715,0.18116898390005248,0.18095273857877983,0.1807348219182683,0.1805181257600331,0.1802998009571491,0.1800826437897493,0.17986668331430308,0.1796503470992354,0.1794368816526293,0.17922472687727578,0.17901566804653413,0.17880976568147494,0.17860625480558973,0.17840714734565555,0.17821122673826964,0.17802048579410465,0.177833783581225,0.17765233048410975,0.1774756227505032,0.17730399668231742,0.17713722119794006,0.1769754358120018,0.17681879714156137,0.17666715005083128,0.17652019716417922,0.1763778055644358,0.17623970531227287,0.1761058398747993,0.17597545695784286,0.17584861456601303,0.17572453759580045,0.17560328768670105,0.17548413557438927,0.17536705423929938,0.17525162636522265,0.1751374364941311,0.17502441306148284,0.17491213141270012,0.17480059617665233,0.17468955439437744,0.17457883532488055,0.1744684336585549,0.1743580892031732,0.17424781352624463,0.17413752387147638,0.17402706848366256,0.17391648096924187,0.1738056412359273,0.17369446614277145,0.17358295896414874,0.17347098843930292,0.17335848101913645,0.1732453789408285,0.1731315459525845,0.17301690589016352,0.17290137823995935,0.17278484063921593,0.17266722241603832,0.17254844260486507,0.17242839977311789,0.17230704766784355,0.1721843196365332,0.17206014130445835,0.17193447954668165,0.17180729536774425,0.17167853744501188,0.1715481986614189,0.17141625106970051,0.17128267789975885,0.1711474713820355,0.17101062713127105,0.17087213382709857,0.1707319962624253,0.17059020307686626,0.17044675483603464,0.1703016357219533,0.1701548446105313,0.1700063656691418,0.169856184028703,0.1697042858865119,0.16955065265309963,0.1693952633164223,0.16923809729395123,0.16907912642217635,0.1689183333891111,0.16875569652835645,0.16859118926550745,0.16842478819291587,0.16825648272721913,0.16808625322903883,0.16791408608970812,0.16773997575618488,0.1675639153498706,0.16738590773041326,0.16720595825379078,0.1670240717731314,0.16684027034071183,0.1666545758128219,0.1664670129138801,0.16627761768543758,0.1660864321717631,0.16589350595781174,0.16569889451416522,0.16550265785295037,0.16530486847940107,0.1651056051657381,0.1649049465073073,0.16470298293283595,0.16449982463188112,0.1642955590650619,0.16409030501672403,0.16388417174510855,0.16367727614476624,0.16346974133901832,0.16326171147261462,0.16305335817792996,0.16284506847707872,0.1626378592997245,0.1624358526426248,0.16225609322098053,0.16217243671759593,0.16251712505085525,0.16408809071489971,0.16739964808313407,0.16425185023872466,0.16103013108646544,0.16292644722329122,0.16285247374396275,0.16053999912617167,0.16137243025108156,0.16146639057569281,0.15993828534934668,0.160504993198318,0.1603409527161816,0.15935450972896517,0.15979040224405683,0.15942554232418824,0.15881431066581012,0.15910134242420013,0.15867316808476994,0.1582807921538354,0.15843376722857716,0.15803279476115764,0.15773720492812984,0.15779865468040585,0.15746562349526513,0.1571904319458089,0.1571925451368699,0.15694814463576837,0.15666395005063913,0.1566072994264216,0.1564595246864381,0.1561883780102015,0.15605011846701253,0.1559689479594642,0.15577179253043263,0.1555631342650357,0.15546040330292593,0.15535767920249247,0.15517411481168894,0.15500133787865614,0.15489694593425182,0.15479808193163003,0.15465401530376963,0.15449793791080602,0.15438057042304,0.15429119790561774,0.1541880198922834,0.15406212947342127,0.15393668707900657,0.1538337126638629,0.15374884757270826,0.15366334747727922,0.1535672909925532,0.15346409706521924,0.15336533208057976,0.1532776302281963,0.15319994544944476,0.15312671856010932,0.1530525860462536,0.15297586805950228,0.15289685123092073,0.15281812238299036,0.1527413585569637,0.1526677035343472,0.1525973005420296,0.15252978103114426,0.15246464544239774,0.152401546902905,0.15234037927808555,0.1522814442062024,0.15222572073900367,0.1521748085437181,0.15213310892873597,0.15210662874411066,0.15211402758321163,0.15217558416779953,0.15236810208525903,0.15270980302872258,0.15340333651047072,0.1539190586641708,0.15430894706206286,0.1531799095221749,0.15195923684771948,0.151472339132514,0.15197562836022555,0.15261703235420393,0.1522529713466173,0.15150046750528176,0.1512225291241478,0.1515891606384883,0.15185270498950004,0.15144135898286587,0.15100897366914387,0.15104555257156263,0.15127878020809418,0.15122867184702982,0.15087619212592882,0.1507074063267137,0.15081694992415282,0.1508835596421761,0.15073554416358015,0.15050186745454008,0.15042431395496952,0.15048201184411414,0.15048641485868527,0.1503688302502389,0.15019822191722118,0.15010142279173333,0.1500916210772075,0.15009201066967034,0.15004093405767907,0.14992540650308808,0.14980082721359342,0.14970642708946785,0.14965206426010652,0.14961897480473516,0.14958045607036619,0.14952541329038038,0.14944514947813808,0.14935418400724748,0.14925487165703313,0.14915797781111326,0.14906398833305462,0.14897387316969507,0.14888611269679555,0.14879911192738146,0.14871179817582852,0.14862316662949174,0.14853286376184016,0.1484405389606342,0.14834630262610657,0.14825046962340468,0.14815497809496764,0.14806558759702879,0.14800221562145677,0.14803937552635682,0.14840569254228778,0.1500716457231102,0.15366290014478085,0.1609081623855805,0.15186444371895264,0.14779651834354596,0.15150240022192993,0.1521498099961555,0.1477763212460239,0.14810132602865686,0.1502006650429558,0.14783849567443674,0.14725641022129904,0.1486444435865814,0.14782772090851143,0.14642458341331557,0.14814521731857297,0.14741021311309008,0.14589702267474142,0.14774287828391414,0.14671531573363114,0.14552066891384705,0.14683288199277253,0.14624310636943902,0.1447959706316464,0.14600137358592252,0.14567232927644777,0.1440805786412953,0.1450968591057098,0.1450570780578923,0.14350553770226346,0.1438216704458439,0.1443844866321713,0.14291702328358075,0.14246539000392777,0.1431091974657081,0.14239739924499462,0.14141760298234698,0.14118538819868728,0.14135132725092736,0.14103143517439237,0.14010531736685827,0.13944104341863264,0.13920111103583419,0.13914355982632967,0.1390728459948467,0.13862764484366297,0.1381831940575736,0.137471135271235,0.13693682951248073,0.13633697238986636,0.13603026069084456,0.13587076649159144,0.1366907495895772,0.13777181582698556,0.14124446545669778,0.1380655400223925,0.13514455903622438,0.13209198066254751,0.13196727456705112,0.13401866580439012,0.13469974658652356,0.13448223684257368,0.13107846435301146,0.1296275512250915,0.13045040993280202,0.13155052936352551,0.1318541210038842,0.12958322049926566,0.12821330933445593,0.12831718230778555,0.12915530630929264,0.12985872514817648,0.1287960845338898,0.12766043954568593,0.12699134291598657,0.12715654457462494,0.12773446743953998,0.12777055483035984,0.1274081964506196,0.12660060721232083,0.12614738742061257,0.1261731216694407,0.12638662077303375,0.1264566732972005,0.12606531936249907,0.12561941220604042,0.1253755933107156,0.12539492456591522,0.12546042863440066,0.12529401814406807,0.12499507837052799,0.12474106940396643,0.12466120430950528,0.12465333421695977,0.1245382950506915,0.12432170371519849,0.12410484510939036,0.12398720853522194,0.12392667327438947,0.12381684586616977,0.12363954274752816,0.12344816188223298,0.12330781438206456,0.12320975281010642,0.1230973969967785,0.12294479053854634,0.1227682130303414,0.12260939439514748,0.12247945042466284,0.12235727323594846,0.12221887672675662,0.12205700820192407,0.12188970517363475,0.12173332504258251,0.1215905865568956,0.12145075806525733,0.12130125406870633,0.12114057873363268,0.12097484952560776,0.12081312257007594,0.12065832360416283,0.12050706643940275,0.12035385072747862,0.12019488902055658,0.12003154665549273,0.11986707236305791,0.11970477096242811,0.11954557092819394,0.11938828630901281,0.1192309388926661,0.11907198071177434,0.11891130780660797,0.11874941015107571,0.11858744959203571,0.11842624241580986,0.11826621574800109,0.11810734591346655,0.1179493849118719,0.11779200885832615,0.11763496121250959,0.11747811908446965,0.11732140616674838,0.11716494960253161,0.11700875340526043,0.116853169778803,0.11669832913817708,0.11654509637234987,0.11639401193925206,0.1162478366306812,0.11610875038083592,0.11598679137127635,0.11588972592114502,0.11585875578055421,0.11591160129015225,0.1162187035817006,0.11668216963319009,0.11781477320896142,0.11815935211449928,0.11871881206376617,0.11683609692747189,0.11526925025131614,0.11426214859015547,0.11428425697789686,0.11498194915306315,0.11541094146456089,0.11537290267496803,0.11433850175667434,0.11348232535988523,0.11316831488741085,0.11336350844453846,0.1137567868809616,0.11383667157817011,0.11369398424776267,0.11314251755688394,0.11264253888978867,0.11221855191704208,0.1119427245065538,0.11179997436982696,0.11176893451279522,0.1118881264720042,0.11225665559826653,0.11329796722668864,0.11483496163960875,0.11751546183657514,0.11612545484014511,0.1138991850352212,0.1112286083262376,0.1107876745830511,0.11200387610169797,0.11304355914691712,0.11306794622483773,0.1111080243964559,0.10997863483523186,0.11038322595095094,0.11134039355124944,0.1116017800165217,0.11039129268540272,0.10952643558304433,0.10953656671280437,0.10991533720625869,0.11017820504404001,0.11002553161590434,0.10975311843377654,0.10925570903945465,0.10875207326173779,0.10861613938781925,0.10882903803864766,0.10908157265276569,0.10920770235592751,0.10931141334340616,0.10926119446970767,0.1091796511530063,0.10878517255025286,0.10846925783137247,0.10820277812239086,0.1079797769808839,0.10775616220963258,0.10758445173260833,0.10749141956966296,0.10742459798657499,0.10733721673029033,0.10725944129467395,0.10722955101522955,0.10724022397522544,0.10730468712869604,0.10747608892110617,0.10796658404663662,0.10882065974832103,0.11027090572362933,0.11088874864618511,0.11072749501779171,0.10844070052682192,0.10684184304947736,0.10653505814487624,0.10735256272312062,0.10826694728743017,0.10770740709507123,0.10662868623530726,0.1060599760846033,0.1064716005400768,0.10705450231994537,0.10672930098603853,0.10604395504272689,0.10572269423540302,0.10596649345961562,0.1062561623337096,0.10604022329953813,0.10560772946672421,0.10535650779125186,0.10543824234618415,0.10560823983589039,0.10553694661128114,0.10527281998002047,0.10501386280637932,0.10493769711367239,0.10499681678670056,0.10502762665308484,0.10494967323886951,0.1047645465879531,0.1045846600755355,0.1044738758027469,0.10444059020525606,0.10443852334793491,0.10440506662207655,0.10432274748846715,0.10419249759998617,0.10405920453494415,0.10394604003506708,0.10386353785725258,0.10380589473562528,0.10375863747072966,0.10370818180756206,0.10364174462936498,0.10356206733159933,0.1034689353155928,0.10337281423693652,0.10327474731145704,0.10317987927724308,0.1030886934004799,0.10300212044173375,0.10291923890954036,0.1028386964153022,0.10275974151849337,0.1026822175772505,0.1026062915548612,0.10253251850617191,0.10246208293485055,0.10239801807752433,0.10234760782919917,0.1023235582285776,0.10236200993321001,0.10251432051701548,0.10296380225216313,0.10380084961435207,0.10563968800955488,0.10691945620151604,0.10821623317348024,0.10525938775547974,0.10277412272226949,0.10155113090373924,0.10207438532253578,0.10346480988519215,0.10372614453708304,0.102953605918359,0.10158114812851712,0.1012312241565856,0.10184874974093917,0.10235678545894691,0.10219665161651381,0.10130506281279836,0.10081056879867001,0.1009903140076271,0.1014037333444828,0.10154514140291152,0.10109519393164251,0.10061621051977998,0.10041666072356625,0.10052875770851274,0.10073876689083792,0.10076057656958784,0.10060635510318892,0.10030661102450485,0.1000696211033097,0.09998024065471252,0.10002040817911201,0.10009417639395435,0.10007766058025687,0.09996693987808872,0.09978551278756889,0.09963010938728782,0.09953597563823052,0.09949887625306808,0.09948895455669826,0.09947057931525316,0.09942808927097968,0.09934334296215824,0.09923820073053338,0.09912712356325433,0.09903395342030286,0.09896497356376475,0.0989148064389329,0.09887338676603347,0.09883231129667493,0.09879027224580866,0.09874238006149891,0.09869363350652476,0.09863726122778906,0.09858382906690762,0.09852739524622824,0.09848299103038964,0.09844178136091365,0.09842392739829266,0.09841463904505379,0.09845324990401849,0.09850792916297374,0.09866104624010977,0.09880696813615157,0.09910373508221336,0.09922551316192689,0.09944638351538257,0.09919093536541089,0.09892658936065553,0.09832610519732578,0.0978333753661382,0.09744033264825025,0.09724427253236416,0.09721822054151817,0.09730267415716155,0.09743855958257253,0.09751442834237141,0.09755356534119003,0.09743068629133515,0.09727706367381447,0.0970332056318419,0.09681424766903714,0.096609453680374,0.09645131235943681,0.09633297897840512,0.09624847847505595,0.09618888885906879,0.0961466662938697,0.09612084778535589,0.09610536802618871,0.09611853914164659,0.09614280736332458,0.09623162261350196,0.0963208538252284,0.09652251875585406,0.09663103434815698,0.09683699338965585,0.09671069019015423,0.09657632638761247,0.09607580912229464,0.09561531085096409,0.09513929714494028,0.09481285074850711,0.09462623065024875,0.09456113641722186,0.09458448750139363,0.09465879157874345,0.09479483611662408,0.09491862726787427,0.09513777618870699,0.09523671859251036,0.09542764440503033,0.09527822343793382,0.09511513569348438,0.094582497862075,0.09408139786505906,0.09356932741385035,0.0932110580953693,0.09299340868577241,0.09289493223101938,0.0928892669915344,0.09296542150375912,0.09317963891384881,0.09352186018169165,0.09420189214023998,0.09476626858351786,0.09541734439036925,0.09470715804338287,0.09369045311262487,0.09238441490039745,0.09169216857277096,0.09159557975106077,0.09190980867765533,0.0924294373148416,0.09273861997480849,0.0928969517553596,0.0924164209689028,0.0919183768724846,0.09132015926178211,0.0909836883041701,0.09073931034161084,0.09058780535018332,0.09044892723356465,0.09035147749261695,0.09039509681186626,0.0905722121659903,0.09106773273655608,0.09151282433603582,0.09218065796768667,0.09186284591687185,0.09138610715260782,0.09018100670945382,0.08928250472964844,0.08868527836417787,0.088448416734156,0.08841309789101182,0.08839653728008763,0.08836209235087492,0.08823770594582152,0.08824751514220255,0.08846616088266313,0.08929240551753488,0.090424696024973,0.09175129558694652,0.09091329123543108,0.08904152964086197,0.08703820638515176,0.08630723213962345,0.08665591342116484,0.08745092311558492,0.08795976008407765,0.08756695121226038,0.08688949364312097,0.0862790227685688,0.08620118313330354,0.08608537465372175,0.08578175974229399,0.08512512715439903,0.08458886350459828,0.08443763843600316,0.08466642552602953,0.08512014342412064,0.08525582865239781,0.08522132175459267,0.08476518408534385,0.08462607424817939,0.0846700103453239,0.08504068093939189,0.08497583012194075,0.08447356428463283,0.08346766892641423,0.08263461499846574,0.0821054492394233,0.0818947552261,0.08175191163782579,0.08157274807716955,0.0812761432356408,0.08098329706495712,0.08079453537705454,0.08080903651681288,0.08115562264097416,0.08177667759729035,0.08292110214592238,0.08340253653323289,0.08360703081975132,0.0819880572376177,0.08049358875321092,0.079424157049669,0.07909182996348349,0.07929334930116815,0.07945089655174065,0.07939639499124393,0.07874363677018545,0.07807785693898656,0.07760104477128174,0.07762166976111834,0.07822273449036854,0.07915603331400926,0.08026210977444619,0.07999567783284496,0.07917900911568823,0.0778630172469128,0.07694063271500609,0.0764562901817396,0.07600087626784455,0.07560916524665488,0.07520342081404485,0.07501706642966885,0.07515042082897318,0.07573820644135748,0.07661303257568479,0.07720447853834764,0.07698438533677499,0.07588519286928713,0.07465421225367294,0.07399847107399248,0.07378079146022792,0.07384459705902753,0.07367677324657038,0.07329204871556298,0.07262988897598298,0.0720427078453001,0.07163987585650998,0.071453117924184,0.07142797603775405,0.07148886952853424,0.07160002354138391,0.07164898535845537,0.07173729740255966,0.07179320527412338,0.07228904214505895,0.07383481439082365,0.0770557743585789,0.0813094421308597,0.07673844484049026,0.07193276204251307,0.06965453180944106,0.07042513602188762,0.07340058152749078,0.0747379403176838,0.07312109396465767,0.06971177405843802,0.06863859211607241,0.06984198573397635,0.07146324015695388,0.07155131575515315,0.06950769203668207,0.0682400862736737,0.06843670276071284,0.06926308527999821,0.06955573998419673,0.06867934719488653,0.06787000508325797,0.06768893617984947,0.06793712089559023,0.06807784759291383,0.06774760410842066,0.0673108932787163,0.06705157254201348,0.06702549722959743,0.06705754686952453,0.06691722130471592,0.06666527302428839,0.06642279450855663,0.06631098614588432,0.06628298439871735,0.06621467956491972,0.06605733292902434,0.06580562724614661,0.06557473299918508,0.06543890956198788,0.06541426841709107,0.06544647418269016,0.0654654758900425,0.06542626404657219,0.06534189154803349,0.06526317170433528,0.06532093822167519,0.06555489075514233,0.06611242553090374,0.06674717207473274,0.06739789633071522,0.06716995345856214,0.06654128385275877,0.06545196979188887,0.06465607283964551,0.06409332364728994,0.06376745775320973,0.06360545349510757,0.06359031445541949,0.06374573244860107,0.06406585242280782,0.06457601288873563,0.06498131149685242,0.06532660118561828,0.06504981539239803,0.0646140434615032,0.06391114536938977,0.0633277963069311,0.06285402022453626,0.06251648689866908,0.06228523078778647,0.06214385188326498,0.0620829155632575,0.062103283713031844,0.062225353546924725,0.062477277632451096,0.06293392931937793,0.06353730255645869,0.06426652225526192,0.06446184634588063,0.06421390107122057,0.06319576043479845,0.062258680955518106,0.061483035650884824,0.06102298632275408,0.060792351316174914,0.06073575752221094,0.06082537199679025,0.061061100808539714,0.061490600500705934,0.06202542283936717,0.06268188652516903,0.06287637133286213,0.06270914918932602],"R2":0.9630558555477479,"Training_Indices":[17451,10390,19674,53,9058,19982,5491,11221,3118,6972,14339,18632,14151,15006,15539,16278,1807,4006,2073,9016,11472,13455,7249,14132,9889,14127,8670,8428,2147,5898,1490,15672,7659,15844,14479,13979,13840,3203,16772,17537,8432,18426,17468,7060,18658,9755,5712,5676,1174,9857,874,575,2413,1329,8204,13347,5505,142,8563,4289,11706,15042,4800,1517,2064,10962,619,16054,890,1822,1060,4318,11384,939,16001,14377,5317,1342,13816,4462,1296,17675,13125,1515,12910,15168,9903,19737,11030,5885,9114,14941,10250,16658,18896,12623,16996,4645,14637,17103,4945,19529,14462,13506,10089,13236,2368,3075,15829,883,15281,19321,2715,14014,8169,11245,13501,18393,18930,20576,19975,6682,7104,16714,11454,1065,6450,17497,1693,4069,3304,18885,1547,11868,18199,5854,20348,6875,14591,5315,5348,13514,4795,10242,18625,3219,14148,11844,10739,5324,18790,15037,5439,17261,229,15239,16773,1347,9419,13839,4708,14443,5791,17813,18221,10304,13382,4237,16104,20363,7092,11828,16729,14708,8046,2378,6414,12212,14331,14284,7459,11081,3615,20495,1756,8753,20344,16161,791,19857,9324,5911,1449,15554,14189,4885,3132,12398,5010,16369,10987,7444,16654,10626,9830,14519,6782,4804,1882,11339,9653,10723,1405,4959,1150,12271,8000,12318,8920,9535,7348,20122,2944,4588,89,9920,8184,9264,3769,14505,2748,14167,1072,18474,5956,20560,4581,10163,9018,720,15621,6356,11322,3330,9492,10444,9837,10322,13100,7449,8549,45,15762,17673,13371,10156,6837,12370,17904,12615,13626,16934,4816,5494,19391,10824,532,17967,9875,9081,5240,15524,12265,3884,15384,6802,7837,16523,16048,4194,8995,5692,16385,3097,12311,2963,647,12056,5368,6777,12957,2518,9192,19302,18250,17965,4,5058,417,4117,12633,13802,10150,925,801,9201,9150,6581,9565,3665,15492,19699,17392,12611,6184,10255,2043,9636,20412,4504,20457,7540,10394,20094,202,10110,9791,1403,19990,1341,1983,6974,7830,12960,5528,6345,11234,13903,1278,16239,9377,6201,5741,4220,6574,20003,4490,1276,11809,10026,16209,1236,14954,15787,14616,6543,17523,2403,5661,17446,2165,10858,14528,14238,4531,11462,16169,3030,20524,10534,7436,3940,770,7526,13281,7397,7495,9646,17923,162,2150,17145,14031,14135,10982,12860,2323,10373,6511,14133,13538,20250,5084,11405,19863,20000,393,12590,18445,17717,17529,12562,18534,16819,4384,10134,15233,3298,9541,17727,9395,2092,1133,17492,8371,19505,17954,7969,16345,1223,19902,16746,9980,11231,6405,3557,14258,5832,2445,14588,19071,6124,976,6397,12892,13196,3951,402,7409,2326,5917,306,12055,11915,10335,6568,4555,16531,18609,2616,239,19336,6250,3785,3333,8599,16648,15208,8309,15906,16951,7668,5123,17983,13889,16575,1048,18752,11869,6625,17634,15354,19410,17256,10726,10745,5947,15780,16988,15889,12274,4639,17778,6228,16809,13594,14644,12254,17236,9546,18911,7646,5845,5389,18240,4763,8140,11693,17433,13783,14997,7656,20144,14050,7422,17066,10152,4641,17784,7752,16174,5179,5669,1532,10145,6672,13051,19935,16024,5448,16229,858,5256,4526,12955,17329,12146,15462,4963,10348,1407,6942,7307,8301,12029,2184,10069,7387,14301,3131,16244,6157,18239,3593,14,16611,2593,17733,2643,11059,839,1115,9113,4535,16948,19105,14877,5808,584,2182,17788,12021,16026,6067,11459,7354,18656,14870,3573,14959,3682,1222,3020,8798,2248,12756,919,10312,343,12709,6891,3973,10109,11486,16122,15799,17496,17701,18587,7479,8626,1664,19504,5757,2402,16559,8211,10252,15191,866,9986,17947,9650,9090,5133,9191,17609,2917,13952,19657,19015,18825,840,7738,6010,1537,3392,13769,13430,15156,9325,6768,11369,6685,9725,18188,17861,12315,11348,13536,10644,3601,18922,18910,18775,9991,209,14508,17854,16562,2526,2261,4058,7453,1354,13171,12161,8640,16539,454,8700,1603,16549,18592,17090,7419,14011,15302,8512,11788,6219,2926,9132,5407,18486,16844,12214,16724,15002,7057,6576,5564,6983,394,684,11751,7177,7548,7493,3025,273,1363,10169,18887,8836,12752,7293,4812,17264,12102,20224,4359,12722,4699,10684,18305,3857,2978,19370,4680,16214,19503,19080,17161,20116,2240,2762,1899,12182,8217,6514,17092,12245,7292,9825,11229,1930,6963,16740,16340,9918,11848,2705,2289,13654,9906,17547,14744,9171,15358,5716,15092,13157,17099,3919,16212,15109,20499,17737,4584,14771,18220,13934,16105,7245,2037,6342,16848,17402,6366,14141,12412,18872,12332,11166,7636,2411,6943,11021,13556,16787,326,1615,6270,18208,14297,6509,5413,18991,2945,1920,2487,8029,7447,8505,15590,16207,8008,17751,1587,3570,17561,11031,6731,2898,18068,1657,14530,19252,5080,10334,16642,19978,14900,19473,10485,4445,5843,7605,16140,6829,1257,3766,18837,11381,915,13510,5547,19650,12554,11223,3189,7627,19651,6939,10791,18532,12671,19861,16269,20217,1488,12085,1935,11356,13683,20127,11016,8308,3700,3312,20527,15456,13558,1767,6938,5,2608,2615,19385,16011,6978,3590,14628,6599,19696,10641,18269,11020,18813,20384,645,705,1583,2965,620,14095,6605,14590,3873,2751,6652,14918,961,4830,4097,18484,17240,14776,6061,19793,1953,9979,16482,17910,13006,14510,19466,17750,7420,2423,14958,15069,9704,4756,12033,119,7812,1359,16779,17538,4802,5028,11775,18871,15124,9588,2733,8598,13424,9231,13792,11296,3404,16137,1311,18358,3168,3559,2377,8467,3492,20566,1178,16669,13092,8954,10466,2069,4412,18826,14841,8924,10846,11879,172,6052,9363,18326,7877,1241,17924,17251,18990,16577,16515,12287,15060,2191,19239,951,9860,1872,15426,13786,12968,2389,7304,12943,19036,7143,601,20546,17334,19588,4145,6634,4129,8388,16470,13789,3279,17175,2816,1481,5775,17915,3890,1458,1805,15201,12491,4941,19995,6100,3955,12385,19698,3240,11471,8750,20411,1570,18538,11566,11096,3885,7018,17467,1912,9075,10680,14087,17520,1864,17354,1931,1310,6102,4253,7200,3539,5793,5591,10100,1361,8360,4352,20289,12855,20187,5590,14838,1220,15021,3021,8243,7710,605,7253,6233,16923,17007,7137,1505,7807,5750,11502,5833,4877,4027,618,15542,5828,7053,9659,8584,8014,20297,5944,7155,637,14894,11542,13600,7962,19248,18864,7901,4226,8839,7606,2127,2494,20151,11443,6797,9958,7666,17640,15978,7722,16262,5654,7021,14797,12419,5253,19407,252,5953,3845,9436,13867,4694,7854,728,3073,10181,12942,16503,11717,5062,1516,6550,922,6410,3066,15395,19701,10560,13515,15093,6365,14929,18831,9851,9105,11824,14695,16193,4438,13075,16126,14619,3113,3943,16898,12730,5414,6851,5799,12006,11032,4574,10713,15738,3986,3794,8631,15371,310,10284,10617,1514,945,12927,19988,1387,967,13992,7405,388,6955,8392,12469,17048,2272,7267,6438,19928,18748,17569,9879,11148,4988,18285,12464,1494,19149,6710,19021,8743,14353,11195,6914,689,11891,9118,13405,20189,17020,15954,20134,9120,4497,12715,8849,3115,19275,10852,5000,9166,20361,15945,5624,14846,4601,683,15454,11786,10742,5725,9046,389,7145,12768,17921,1395,5032,12661,7641,20085,17485,16541,13977,17553,13975,2292,3264,2152,2685,12299,10418,6960,15381,16130,1904,9769,3606,4994,10402,4304,6808,7146,3303,691,9853,13713,6171,8998,6580,18660,12624,3147,3486,14612,4849,19045,5572,11812,5877,6351,7997,12153,8574,6883,18090,11645,8847,18049,7188,5622,14007,2320,11108,14279,5844,6308,20282,14287,13722,11243,10515,11104,10621,12023,5445,8320,6649,9039,5612,4596,9442,17895,9431,10571,5430,17143,13481,6175,13208,1083,7274,16283,12013,6501,7917,19613,20571,15085,5668,18301,10922,3496,10050,968,11714,5878,12980,12242,19937,1138,15696,16743,3901,4919,17013,14875,19642,18794,1415,18061,2400,18116,7639,16643,18573,17296,5980,13665,11530,1127,7196,17303,1326,4562,17726,5174,13266,19057,14620,11671,17242,986,16204,16723,10788,10475,5206,4626,626,14993,20338,17687,19721,11658,11944,808,9221,5826,106,12289,7537,5436,2130,2196,8755,1624,3638,16202,16558,10463,7855,7778,8118,14895,16046,8378,20474,13521,17796,15959,11862,13299,8548,19395,1413,18840,716,11251,2651,5014,19215,76,2985,18361,8326,10032,5443,7268,10257,18889,17060,19817,1753,11161,14731,1325,5066,19579,7209,8040,20293,7170,12918,9299,6505,9210,929,6579,9775,16827,16982,3109,13398,891,10933,18350,4135,18022,16883,4261,15681,11553,941,6165,13049,5306,18921,16277,18429,5856,19530,7303,1725,14326,19980,421,1093,16552,9532,2734,14010,7865,3770,1199,10020,8653,1468,14205,8729,10012,13283,19329,19125,12644,4021,785,10214,1497,2340,7195,9790,10767,9731,281,9051,13810,13828,3322,12542,15361,19205,20542,12074,8250,13569,5567,12047,11470,20156,7546,17697,16373,13427,5157,17455,9613,2491,18836,1884,16554,11572,369,16792,2798,20168,17341,3453,16781,12509,17999,11883,614,10662,3065,19840,20395,549,3230,4939,4915,869,18980,15078,6524,9794,2107,6353,3444,13173,14295,374,19685,6224,11004,11682,13996,17093,11866,2132,13964,13883,18818,19165,12891,6494,13221,11169,14642,13817,20591,19604,1283,20417,16745,20367,18859,1027,10692,9465,5615,9276,15691,13,10464,11777,12563,20226,4593,5002,3001,1261,2282,8197,1265,15597,4224,5902,3808,12396,13942,14283,19178,4859,8194,13864,4417,12912,5825,15809,2827,15260,12587,9867,19890,1715,7647,11378,8198,18883,2611,13799,4655,2801,1788,10458,3907,4989,14657,8521,15876,18827,4607,8769,1172,7971,4518,20349,9657,18559,7089,6088,7182,2405,9084,19117,17716,18650,5300,12035,7094,12780,17826,5063,19247,13354,19532,6780,5634,13567,7220,7056,928,12209,11246,9319,6191,15333,1667,10161,19100,10740,16259,5795,3409,9905,2696,13435,4276,7977,3531,17780,7185,19887,9891,9746,250,14680,18665,15123,2250,15192,17376,19337,15440,6839,7013,16431,11129,19884,11726,1867,14986,12280,1411,13130,6321,8060,12290,4909,6466,13284,99,18600,15400,16867,503,5536,16381,7610,19715,5922,9771,12662,11044,10716,19903,11534,9967,9814,15317,11241,15912,4818,14093,9387,16490,12844,12880,4904,18704,14748,1626,14930,17142,9493,18633,20482,6403,2068,17415,4025,9298,800,1726,14705,19756,1898,9376,7926,18626,7433,19006,4993,15485,9745,4151,3521,3282,9580,5085,8185,6452,15285,20041,5367,15843,17671,1555,13524,13085,9871,7909,15678,14559,19128,5435,14514,7038,2986,19236,11825,17522,14073,5680,12777,6872,18511,557,4821,6658,12853,8928,12746,11465,19102,17361,9372,114,6149,5649,1812,12983,19254,10057,5507,10436,13913,14474,6053,4173,14255,6744,31,15309,18798,254,19774,2551,3163,992,15411,13805,2868,9184,7999,6423,18951,7975,1425,3935,15833,353,9694,16802,13047,4749,3095,16695,17847,7544,3514,6467,10837,7480,7779,17011,5842,11615,12154,17102,15893,19418,8005,11912,9458,3373,10839,17397,15661,11840,6647,17852,16142,15933,3504,11567,5732,6416,9109,4150,17837,8452,14053,17966,8132,15410,8347,2764,8235,18920,18555,2448,9181,325,10831,5188,14152,17830,7900,18328,8883,7700,11113,17493,7897,17832,11273,3736,20409,18038,127,18401,9666,3058,3572,8675,4847,20437,371,18347,1916,17355,13602,18743,12837,3177,8824,2225,12574,16980,8424,14791,13493,11604,13348,9576,17454,12843,4112,16489,15989,4734,4638,11562,7105,746,913,3142,8356,18498,10406,17417,6065,15648,2610,3087,13644,3433,4463,12601,16008,12627,9439,10843,4493,6260,14269,12135,11758,8357,14852,18391,2003,8673,3016,17543,18947,11469,811,2531,15997,768,2139,4571,724,11950,4789,3980,8720,4874,13274,11757,4295,10717,1929,4365,4773,18924,14992,8870,12602,747,8248,5746,9071,1896,17322,4707,8107,9846,15537,19919,6378,11904,19924,19948,2672,15907,4824,15852,4713,4470,18648,18413,4223,5363,2899,5059,4813,3803,11068,16628,4790,6013,3182,13442,4046]}