{"architecture":[["Dense",[4,10]],["Dense",[10,10]],["Dense",[10,10]],["Dense",[10,10]],["Dense",[10,10]],["Dense",[10,10]],["Dense",[10,80]]],"Node_Indices":[133,22,44,59,78,110,24,111,123,105,65,116,48,121,83,63,93,7,109,82,6,94,124,2,132,125,23,28,100,107,75,114,37,90,71,38,117,88,39,41],"weights":[[[3.0439703,-2.317518,-2.0882483,-2.0596366,1.3059245,1.8710297,0.14371149,0.28736562,3.1366687,3.319793],[0.25386307,-0.69807035,0.34240252,-0.7527277,0.44708553,-0.62222165,0.37097657,1.1891158,0.0607022,0.30297515],[-1.1733462,0.33607158,1.7024574,0.20685183,-1.4253592,-0.26567975,4.3344445,-2.6969857,-1.4207363,0.4489668],[0.1438171,0.991068,0.25452435,0.87848455,-0.7162076,-0.2755202,-0.32734072,-0.5361951,0.39202076,0.10049836]],[[0.756667,-0.05101541,-0.6850716,0.6999849,-0.10462048,0.8785141,0.70410836,0.71629727,-0.41088262,0.49798432],[-0.19170223,0.089767806,0.19752067,-0.36237365,-0.08583126,-0.35306272,-1.2185934,-0.7405082,0.6295033,0.8360348],[-0.96838975,0.54895777,0.58093023,-0.4994454,0.5027432,-0.06583203,-1.5197153,0.062623,1.0764842,0.44648919],[-0.5791924,-0.12981588,-0.04689903,-0.49394968,0.09715025,-0.9118631,0.05003627,-0.6500587,0.54445714,0.54196054],[0.39137205,0.111206934,-0.5107789,-0.20327796,-0.26630923,-0.3219918,0.44725785,0.6195791,0.5627146,-0.24300261],[0.60324574,-0.30803403,0.5171843,0.72728324,-0.03124558,-0.33734068,0.7066248,0.3283215,0.12645723,-0.37541246],[-0.54339504,0.67561525,-0.18136916,1.4580419,1.0898926,-0.26776412,-0.49238062,-0.67295235,-0.2945446,-0.18504329],[0.464501,-0.3182759,0.30469966,-0.85502934,-1.0125768,0.44702858,-0.021273121,0.43198693,1.0326113,-0.3183198],[1.0796765,-0.4066937,0.2599264,0.1627572,0.11559598,0.7455189,1.5549103,0.6531016,-0.14715156,-0.19707023],[0.36206537,0.024011517,-0.23112778,1.3359196,0.48081648,0.7209329,0.64457774,0.8696963,-0.5055532,-0.25376305]],[[-0.065661855,0.92685616,0.4013584,-1.573817,0.41175663,-0.5041221,-0.8468805,0.45244247,0.7029883,-0.021535639],[0.5984701,-0.6043042,0.5813545,0.8531798,-0.013188625,0.1795082,0.75630724,-0.3315081,-0.3372699,-0.14384387],[0.64144963,0.17087007,0.38348562,-0.31952423,-0.28142235,0.4555533,0.56989145,-0.20986494,-0.30433393,0.34697914],[-0.48973474,-0.18011563,-0.8603005,1.125225,-0.29669726,0.35409188,0.602856,-0.104795285,0.60517204,0.31033644],[0.0055027343,-0.6158433,-0.26421168,1.0227685,0.45024464,0.058204,0.34183586,-0.5704325,0.07180991,-0.28370947],[0.39002037,0.38227427,-0.026161842,0.28681087,-0.6495202,0.41138533,-0.3736477,0.09570233,0.4877569,-0.04360246],[-0.3659231,0.5301933,0.1993174,-1.3675555,-0.2960208,-0.5660307,-0.018698258,-0.1071988,0.84218585,-0.52604175],[-0.10471483,0.7639532,0.28723708,-0.55362016,0.31022504,-0.50909126,-0.66183776,-0.28568432,0.8239001,-0.5617199],[0.97214496,0.6960591,1.4199188,-0.62238044,-0.29026031,0.21891293,0.16895284,0.09188391,-0.9156984,0.9821285],[0.07192488,0.7891538,0.46317896,0.6193443,0.18498114,0.6866491,-0.16068715,0.49457115,-0.3147075,0.8403463]],[[-0.43153968,-0.4759865,-1.0822954,-0.112904884,0.17397979,0.14715837,-0.24922751,0.41751787,-0.44011694,-0.52300054],[-0.11391747,-0.23001476,0.22928737,0.08375956,0.04490652,0.23324005,-1.0031943,0.0407354,-0.6013406,-0.44786265],[0.059912466,-0.23392142,-1.2587513,0.011458207,0.2747706,0.05764603,-1.328949,0.13651097,-0.23501018,0.035908375],[-0.27985895,1.0091245,-0.4957827,0.14126487,0.51632476,-0.25747225,1.5189881,-0.23722057,0.3711435,0.14302778],[0.39693072,0.22600222,0.029443834,0.47335076,0.30584204,0.05371093,0.23322935,0.19269836,0.23758276,0.34560958],[-0.17690513,0.3532351,-0.3691668,0.38454437,-0.6299554,0.37325364,0.7811045,-0.44977984,-0.84604335,0.47765285],[0.7255883,0.9880177,-0.6976055,0.3840646,0.11807199,0.079919554,1.3653297,-0.4260559,0.11958412,-0.26107356],[-0.29010853,0.34686774,-0.38076207,0.7006045,0.1612066,0.44303998,-0.20565182,-0.053559095,0.21353464,-0.49785396],[0.1533877,-0.1718756,1.0544486,-0.31431764,-0.38503456,-0.31590196,-0.22165489,0.14535703,-0.15712489,-0.5519333],[0.2834879,-0.08553748,-0.5059733,0.697098,0.123411484,-0.16225943,-0.6302054,0.109406285,0.01940208,0.33064175]],[[-0.18854366,-0.5280178,0.42797238,-0.39457345,0.2795513,0.44396532,-0.46120322,-0.33487368,-0.11329865,-0.0021184979],[-0.2363272,0.7558474,-0.50798845,-0.52582574,0.27064174,-0.62444425,-0.79022473,0.20344312,0.24746346,0.6409286],[0.17781554,-1.2297484,0.8480262,0.8343066,-0.16408353,1.2724102,1.0842578,0.5867289,-0.6790943,-0.04912223],[-0.31519505,0.38774478,-0.5709693,-0.7919708,0.21475239,-0.44065958,-0.5620229,-0.3791662,-0.093856804,0.3342653],[0.5183711,-0.58875597,-0.379327,-0.6364109,-0.055543676,-0.46784183,-0.20220743,-0.011909742,0.25214967,-0.74596477],[0.37032446,-0.1488365,-0.39762437,-0.39794493,-0.19780305,-0.26526228,-0.2028838,-0.66209024,0.46105918,-0.4587481],[-0.40479785,1.1127349,-0.33088163,-1.212225,0.7066956,-1.4705111,-0.98836213,1.226466,0.39717817,-0.53370667],[-0.110460445,0.00571488,0.3264356,0.2952701,-0.42148533,0.45183364,-0.09927104,0.0069481875,-0.15788905,-0.1716756],[0.35919806,0.37834924,-0.25007218,0.104276925,-0.39166367,-0.40441656,0.1389792,-0.20181344,0.39486808,-0.0138916755],[-0.22581755,0.25479782,-0.24021177,0.23670983,0.23880814,-0.6679165,0.20663975,0.039215878,-0.8092146,0.23867863]],[[-0.6182806,0.18737443,0.20399506,0.33251113,-0.16370006,-0.39055973,0.058102865,0.380776,-0.42884794,-0.36105403],[-0.6410264,-0.23829378,0.11601218,-0.6341874,-0.9323635,-0.096472375,-0.13976271,-0.13498986,-0.06907021,-0.6797796],[-0.2627881,-0.28562012,-0.19620082,-0.7896037,0.2212733,-0.36647946,0.03042327,0.19435555,0.2609921,-0.5320386],[-0.73419553,-0.6482366,-0.39799225,-0.44197813,-0.7393622,-0.9326506,-0.5518192,-0.28413177,-0.28425872,-0.22076108],[0.13460577,0.30799952,0.008439445,0.093577065,-0.42407832,-0.19314538,0.46525338,-0.34339675,-0.43070972,-0.43750075],[-1.0722266,-0.37033537,0.23822287,0.06704346,-0.28139284,-1.2165931,-0.80217445,-0.26842302,0.43692318,-0.6434924],[-0.920131,-0.37191686,0.080038436,-0.42829052,-0.783984,-0.75611395,-0.7985275,-0.22248136,-0.023574796,-0.42787707],[-0.47201777,-0.021438202,-0.25367486,-0.42165157,-0.372952,-0.10694578,0.23407058,-0.51831645,-0.58883166,-0.4771003],[0.11078589,0.43949175,-0.36265847,-0.3084853,-0.024655808,-0.3295969,-0.12423101,-0.61394924,-0.23843676,-0.104482576],[0.74850243,0.26347175,0.1392117,0.4764144,0.75716305,0.72923344,-0.4920444,0.35724223,-0.42098105,0.9301746]],[[0.033502914,0.09729561,-0.12701935,-0.027455978,0.17612542,-0.03985516,0.011352794,0.017115526,0.05665654,0.02697059,0.16380958,0.16347656,-0.05339454,0.113159746,0.10239702,0.11410026,0.13084333,0.20600991,-0.0046555945,0.065320045,-0.034392666,0.15936315,0.11746211,0.04143218,0.111567535,0.027882991,0.006427916,0.09403496,-0.01022811,-0.019975904,-0.0017780056,0.08107825,0.15824278,0.035958283,0.0901302,0.1058724,0.106867805,0.02859915,0.06468585,-0.07291901,0.37953338,0.8036183,-0.06287272,-0.13210732,-0.095716566,-0.13878883,0.9677581,-0.13305226,0.080568224,0.22930403,-0.18663557,-0.19894238,-0.060730297,-0.102167994,0.011596107,-0.06753825,0.29662767,-0.1168655,-0.077860616,-0.07511367,-0.18729362,0.1230679,0.13827342,0.892686,0.35391304,0.1097893,0.7735213,-0.117671005,0.3243012,-0.19485706,-0.1408502,-0.18112078,0.8450732,0.112900324,-0.20406967,0.7738791,-0.18365788,0.043506183,0.89752185,0.03280186],[0.44800147,0.3982655,0.06576643,0.057965808,0.22484739,0.04905989,0.4036848,0.09700739,0.24128081,0.31552294,0.06962353,0.13280223,0.070353255,0.18756093,0.2666628,0.15793861,0.34180155,0.09805146,0.04081965,0.2770446,0.17553644,0.24987806,0.2770364,0.369474,0.37354282,0.2760641,0.34571677,0.17889245,0.32499793,0.07343278,0.1698654,0.11511401,0.4880684,0.2721803,0.13981128,0.49362954,0.13011529,0.27212584,0.46415406,0.07731219,-0.11352345,-0.49421862,0.048758104,0.07330693,0.21889533,0.12935008,-0.33594605,0.1465337,0.068578795,-0.0063230526,0.14220223,0.15526174,0.11422792,0.13853754,0.16015042,0.21499217,0.06812408,0.15554264,0.14442874,0.17361252,0.17373711,0.036721252,0.07888627,-0.42795157,-0.109795526,0.070950195,-0.38404226,0.2178873,0.010117033,0.09991633,0.19992016,0.15120314,-0.23910107,0.100457706,0.22297348,-0.247542,0.23649776,0.18421257,-0.30857065,0.0492615],[-0.019003673,-0.27893886,0.34627345,0.34480414,0.14762644,0.3674551,-0.14312,0.32210234,0.0010736515,0.09998845,0.31412497,0.3309901,0.4200707,0.09697264,0.14025381,0.2923736,0.070832565,0.27828434,0.3833474,0.08595971,0.18397054,0.065714754,0.059475757,-0.3095338,0.020882225,0.11258357,-0.31762204,0.20828648,0.061853644,0.4483174,0.2557092,0.30750933,-0.10813125,0.119131126,0.24424437,-0.165386,0.2117977,0.06925067,-0.22474632,0.37386245,0.19643381,0.20338531,0.22904745,0.15631886,0.14066327,0.1717329,0.29969734,0.19889256,0.14615975,0.26853535,0.12561367,0.11341921,0.2372935,0.14846663,0.24944487,0.15757668,0.21851642,0.16175231,0.21437715,0.13217153,0.10271686,0.25622258,0.24059363,0.109564565,0.21207313,0.30612597,0.31087065,0.19053584,0.21296851,0.24361263,0.05548486,0.1305615,0.36353347,0.24573973,0.08851493,0.2131644,0.13838483,0.14239211,0.36169934,0.13929902],[0.1654579,0.23010504,0.050419107,0.21063712,0.10872268,0.09731621,0.27341267,-0.023571778,0.18648976,0.3238946,0.27374235,0.35676172,-0.069636375,0.12639503,0.4312385,0.0948942,0.25547978,0.11743092,0.26342034,0.1602494,0.04634597,0.48077783,0.23115149,0.1723248,0.3281715,0.38312078,0.47128734,0.1740105,0.3465667,0.066225454,0.07256863,0.09489844,0.23942156,0.29763877,0.22421858,0.16096894,0.23826763,0.25668356,0.08727305,0.05305875,-0.20030618,-0.15879627,0.07216799,-0.038471147,-0.027928235,-0.031967327,-0.35521257,-0.021665253,0.10710216,-0.21623163,0.09816263,0.20942448,-0.034188565,0.09312058,-0.06121523,-0.06691639,-0.23947597,0.27897564,-0.22705804,-0.014442294,0.075388044,-0.045763653,0.0029864807,-0.3046885,-0.20313434,0.113936484,-0.49638033,0.08744592,-0.37102243,-0.022525758,0.130293,-0.020842042,-0.25164092,-0.026734585,-0.13127306,-0.2739176,0.09615829,-0.16948919,-0.32664973,-0.045786966],[0.452367,0.47404608,-0.02389533,-0.07597175,0.18228877,-0.04785166,0.4995971,0.07893092,0.31466085,0.29563954,0.090338305,0.0018188981,0.10091138,0.30173942,0.16742265,0.0011812366,0.2805866,0.18357119,-0.04156044,0.19669469,0.095667586,0.1464862,0.3239956,0.54469913,0.41498438,0.14800724,0.3476438,0.26923046,0.20052318,0.023385284,0.19485137,0.110516496,0.49832067,0.31738964,-0.012629608,0.5068032,0.089362614,0.16812436,0.55396724,-0.02373992,-0.2489224,-0.81046367,-0.039831515,0.07852837,0.21058483,-0.021562966,-0.5346241,0.019075338,0.07486481,-0.08260844,0.090129085,0.07645409,0.025306487,0.012525575,0.01860325,0.14079784,0.084137,-0.02141117,0.11400968,0.09550074,0.017826252,0.053365964,-0.08518243,-0.76346797,-0.20581359,-0.09393066,-0.5595925,0.021694599,0.006661296,-0.106897,0.07029907,0.13103075,-0.5087731,-0.090319864,0.19153254,-0.5106521,0.033495143,0.05201193,-0.42829955,0.066356584],[-0.2953361,-0.29540294,0.09587823,0.015225618,-0.15594144,0.0121651,-0.27023786,0.032009583,-0.085416004,-0.22213186,-0.03971159,-0.10370598,0.09638877,-0.0815425,-0.21075769,-0.13366133,-0.301836,-0.065084666,0.032060925,-0.1340863,-0.023502255,-0.26406926,-0.17789383,-0.20289549,-0.34364513,-0.14663675,-0.2347193,-0.052589756,-0.24204372,0.0024946681,-0.012708836,-0.0027983526,-0.47896996,-0.10403726,-0.08099954,-0.45339182,-0.059629392,-0.18764225,-0.3456582,0.029576218,0.38375813,0.5232785,0.06258211,0.20423763,0.39958155,0.12048485,0.29102033,0.15268701,0.42218736,0.39620897,0.32597777,0.390556,0.078778856,0.4459383,0.36892465,0.20423104,0.34261155,0.24768268,0.115902446,0.45635477,0.3560649,0.42889395,0.33644804,0.4259942,0.36315575,0.37243393,0.46156007,0.36525816,0.33369517,0.0996271,0.40371346,0.3166867,0.17713739,0.3339507,0.39256245,0.24031729,0.3516991,0.35752916,0.2908477,0.018323673],[0.038021777,0.26664576,0.13710774,0.09502285,-0.014601281,0.09020236,0.24199718,0.08910076,0.03631762,0.09093764,0.090681225,0.067399986,0.17134969,0.07651116,0.025653759,-0.007496155,0.01446638,0.07947799,0.12557922,0.005655853,0.010736672,0.026075302,0.056149248,0.28981996,0.061949197,0.0840657,0.2430082,0.09428084,0.052838054,0.12731352,0.078466855,0.08076458,0.07149849,0.10328685,0.030212779,0.042861283,0.047102425,-0.010591577,0.13732426,0.12733306,0.34251583,0.7522783,0.11893064,0.10860026,0.041011494,0.057523794,0.634245,0.06064097,0.13040619,0.26081273,0.052944284,0.048095077,0.103531316,0.07415205,0.11786392,0.01682222,0.19732529,0.046697125,0.085346274,0.08267406,0.0184416,0.19640176,0.14804797,0.6692431,0.2954339,0.17565991,0.6973075,0.028820762,0.22264785,0.101722665,0.0025777796,0.050852757,0.5034886,0.14324786,0.034876697,0.4520575,0.004418002,0.0736201,0.60516024,0.07760914],[0.04900751,-0.05222583,0.15178907,0.1711134,0.41130805,0.1664297,-0.1629992,0.35361758,0.25785023,-0.02417481,0.19772343,0.27087247,0.26845726,0.29409632,0.099028096,0.34886962,0.07844863,0.28015602,0.0988827,0.39754334,0.42608613,0.0018750017,0.14852232,-0.026394384,-0.17492762,0.18833554,-0.14913848,0.28916493,0.008557356,0.05205031,0.3654298,0.3577096,-0.18785231,0.14228317,0.38580382,-0.14462647,0.30851525,0.20351446,-0.027779518,0.08679282,-0.11757825,0.15213326,-0.02924886,-0.05727679,-0.24042657,-0.0013300112,0.08665183,-0.070919566,-0.43671054,-0.18518639,-0.21889862,-0.2815154,0.016475048,-0.34348798,-0.27637768,-0.11158885,-0.19048275,-0.26409793,0.055733655,-0.23650412,-0.23162183,-0.36127105,-0.30350658,0.27609232,-0.27115214,-0.37640578,0.15606037,-0.30470845,-0.14160773,0.08897176,-0.25978065,-0.17479631,-0.10416232,-0.27348796,-0.026860232,-0.057225574,-0.17961629,-0.15585746,-0.07787187,0.018996604],[0.4255942,0.5410743,0.11969827,0.078512155,0.1615421,0.06251391,0.52656966,0.10732088,0.2331686,0.32909378,0.08205561,0.118043184,0.1343426,0.19377968,0.23254022,0.09516344,0.30055144,0.09979754,0.080540195,0.2303581,0.13435301,0.2273547,0.27305627,0.53382075,0.36922386,0.2854839,0.4886871,0.1885436,0.3150512,0.10840133,0.16509487,0.116956756,0.48628342,0.29640317,0.10452289,0.4796427,0.11459109,0.21827549,0.5179625,0.122752786,0.123069465,0.08426534,0.035947114,0.036684606,0.20712383,0.04615468,0.1200078,0.064561605,0.15815032,0.16038652,0.09452492,0.12589811,0.05852547,0.17911986,0.21644002,0.12582818,0.18968241,0.09894103,0.07363364,0.21720673,0.13296264,0.16059375,0.16314119,0.09372242,0.102979966,0.17261931,0.1317545,0.20518117,0.15214589,0.052850734,0.17441002,0.09819024,0.10199642,0.17891105,0.17481633,0.08115273,0.18154745,0.21790168,0.11986444,0.03275045],[0.47262815,0.6408951,0.015335256,-0.047271356,-0.16019978,0.04578496,0.71763617,-0.1196888,0.021887459,0.40604827,-0.3011752,-0.24697918,-0.08991575,-0.049852114,0.06611229,-0.051442135,0.27866164,-0.3363574,-0.11261906,0.020204717,0.07043002,0.14832278,0.094022915,0.6033345,0.46408597,0.18779173,0.66273844,-0.11690074,0.49940374,-0.015840458,0.016893663,-0.19725731,0.67127097,0.09005665,-0.12636815,0.7474389,-0.14777073,0.22033145,0.7132359,0.016412111,0.09295712,0.1261339,-0.0060970467,-0.009830051,-0.096936114,0.08170752,-0.031106222,0.060632057,-0.092468806,0.08702478,-0.037828162,-0.09235868,-0.024801532,0.07729382,0.121854104,-0.071316466,-0.11363092,-0.086087726,0.03410172,-0.005915999,0.09644236,-0.03026987,0.060650926,0.07512307,0.1921405,0.019208344,0.22917894,0.09204096,0.043711003,0.17676696,-0.049863677,0.0032239503,0.10395688,0.10940549,-0.051326957,0.13086139,0.0075678565,0.073485136,-0.0017645054,-0.10358135]]],"bias":[[0.25742784,0.42972147,0.405053,0.0981129,0.03781434,-0.026959188,0.25220972,0.49081686,0.32224345,0.25486177],[-0.024990743,0.0965804,0.1966822,0.09343309,-0.09447466,-0.09016863,0.02533511,-0.08286032,0.47535193,0.08796635],[0.26758623,0.13090363,0.37958077,0.39089683,-0.123030625,0.12790643,0.1304045,0.09821086,-0.12521969,0.28445712],[0.07646066,0.13235727,-0.059472296,0.45510504,0.058983058,-0.0068818806,0.024731733,-0.088518955,-0.26989332,-0.06851393],[-0.20949583,-0.3278664,0.005955491,-0.102972016,-0.31772694,0.42749152,-0.0051491656,-0.4927819,-0.0070703896,0.21507818],[0.1372199,0.14450882,0.11276272,-0.09711793,0.28891134,0.08145958,-0.13845308,0.06926481,-0.050328307,0.14773123],[-0.13189135,-0.28546607,0.4673593,0.45693502,0.25851458,0.47030252,-0.29610544,0.37541807,0.21164723,-0.021338487,0.3707761,0.26332507,0.33575013,0.21803425,0.12990335,0.35412455,0.047424354,0.3590679,0.43179038,0.15588637,0.30425635,0.19103147,0.10597165,-0.25761232,-0.04436877,0.04386391,-0.140369,0.16456142,0.026782962,0.4069591,0.18375102,0.30403686,-0.20533817,0.024857854,0.33546257,-0.15703513,0.324436,0.19444099,-0.21431597,0.46810693,0.16967154,0.26488334,0.22902578,0.24140134,0.012694905,0.21265408,0.1311923,0.16517809,0.13887812,0.05542776,0.1830132,0.15194455,0.14924593,0.087046705,-0.044443805,0.09936286,0.031532593,0.15134524,0.1349895,0.021776041,0.15199247,0.06539146,0.06499044,0.2973321,0.2144002,0.012005721,0.109880604,-0.00060406514,0.10474828,0.16563982,0.12735003,0.17036404,0.12027058,0.03093861,0.06105875,0.25588846,0.044009153,0.015754903,0.099718034,0.3059057]],"Losses":[0.9653907816619745,0.8974677890728713,0.8311404268335789,0.7625714751006919,0.6909856317761165,0.6177681089465676,0.546245285618087,0.48150149439373396,0.42867053193615345,0.38844388826278725,0.354790093517561,0.3224082309721216,0.29111305724751146,0.26451907551384096,0.24691321599321447,0.23975874658413998,0.24027209313566228,0.2437631726452158,0.2465300555133473,0.2468659189323966,0.2447253402612568,0.24101179886606103,0.23687202207225616,0.2330954083416605,0.22979924904957882,0.22661479421485864,0.22321629694146872,0.21970426406470583,0.2165658552003978,0.21431058355129404,0.21308728802597693,0.2125860667871486,0.21228791164637725,0.21182309679060188,0.21114809973409146,0.21045539149283377,0.20993810371919572,0.20960822149429859,0.20930613136492293,0.2088702277878354,0.2082918204451823,0.20771184800898995,0.20727979503504387,0.20701945330306318,0.20682425211508665,0.20657041954606448,0.2062282863492108,0.2058727645671976,0.2055998500347461,0.20543721858738317,0.20533124480057896,0.20521244177053913,0.20506465860507767,0.20492878225996866,0.20484728383942363,0.20481508430798384,0.20478640630375738,0.20472299898915883,0.2046289410576227,0.20453853995654103,0.20447600035894975,0.20443214452370614,0.20438029934205035,0.20430901658175063,0.20423375233568122,0.2041776541803268,0.20414677916819282,0.20412737234234657,0.20410433451637028,0.20407694281126174,0.20405499746210393,0.204043271841208,0.2040342662887449,0.20401692721924983,0.20398920637248574,0.2039592018965404,0.20393493698968793,0.20391612334023887,0.20389692772568954,0.20387447953164184,0.2038519867564477,0.20383367098172192,0.2038190932585349,0.20380408403799147,0.20378621342698863,0.20376729644535682,0.2037501755408566,0.20373465804796317,0.20371787474067868,0.2036979630303414,0.20367590093937438,0.20365347819266527,0.20363067161143042,0.2036059562293627,0.20357866635409988,0.2035498695707059,0.20352072886396252,0.20349088634042253,0.2034590363868193,0.203424546347994,0.20338772981815237,0.20334861849202798,0.20330625400742608,0.20325950900216874,0.20320808219427897,0.20315218130755625,0.2030915088826324,0.2030250921904635,0.2029520594318677,0.20287197716957484,0.20278424539730144,0.2026875751542982,0.20258036246769165,0.20246119346381838,0.2023285324720799,0.20218013690774447,0.20201322496798527,0.20182507819874795,0.2016129884864346,0.201373715986914,0.20110350489901294,0.2007983793672098,0.2004537601966498,0.20006430881978418,0.19962528934385884,0.19913382804477242,0.19858866587677565,0.197990339376276,0.197341546243089,0.1966480632665789,0.19592250698259006,0.1951834524341318,0.19445359953539185,0.19375919123922225,0.19313213589339184,0.19260300638144684,0.19219562679473567,0.1919243772881302,0.19178516837031556,0.19175065967061605,0.19177101640381392,0.19178602887746773,0.1917962862760126,0.19228215907683519,0.19428902914984772,0.19241754860557625,0.19141438675711583,0.19232837064762276,0.1905283625505675,0.19169530954506056,0.19012523263276498,0.19106155391395094,0.1898928827141743,0.19061932572880322,0.1897764391721493,0.19021247532051508,0.1897564250274522,0.18984018726228052,0.18973714759382954,0.18951145112822546,0.18965241143456227,0.18924837668446295,0.1894590458508856,0.189053304577091,0.18917756429336896,0.1888860130781874,0.18886318806903532,0.1887041794428263,0.18856420096473575,0.18850155586206102,0.18829513040659732,0.18827984180297003,0.18805875643021236,0.18805313575084137,0.18784072190998188,0.1878252094899037,0.18762912293832315,0.18759584118985237,0.1874129227179339,0.1873587807990264,0.18718429894559457,0.1871111327272005,0.18694096862614287,0.18685043316360797,0.18668290841802146,0.18657886012434238,0.18641326899396882,0.18629809873586817,0.18613410099784886,0.1860101881857728,0.18584675418481925,0.18571441126472904,0.18554995652948844,0.18540963477058858,0.18524214402463976,0.18509290216211857,0.1849208280287978,0.1847631508941103,0.18458525088908853,0.18441873558174104,0.18423492713727732,0.18406083611441332,0.18387099785242764,0.18368926030917646,0.18349412760054903,0.18330563081040102,0.18310510115930242,0.1829092395213454,0.18270398464111187,0.18250088375519188,0.18229052180096497,0.18207984865095356,0.18186514848798982,0.1816475464770381,0.1814283127439405,0.18120492600854227,0.18098197501686267,0.18075419619292032,0.18052739288224817,0.18029698624060883,0.18006693642968025,0.1798347643884743,0.1796019415866282,0.17936917269129643,0.1791348055252774,0.17890162282998778,0.17866763930718896,0.17843492637753278,0.1782027756286608,0.1779715516002634,0.1777424873718564,0.1775142539553356,0.1772883876575721,0.17706461551226674,0.17684253494675897,0.17662317030043356,0.1764057970108716,0.17619042759763429,0.1759772656124647,0.17576541691777084,0.17555459505885487,0.1753443561927959,0.1751335076121734,0.17492119469547077,0.17470648247758494,0.17448776395448906,0.17426343491614074,0.17403196397489282,0.17379126558566463,0.17353894462230818,0.17327266356812623,0.17298981212071515,0.17268739122748383,0.17236225025522678,0.172011121247347,0.17163104216467462,0.17121921841392093,0.17077337850293736,0.17029198694993494,0.16977426617352015,0.1692213243430433,0.16863518464602906,0.16802389733512266,0.16740589947912243,0.1669099068062501,0.1672983074866208,0.172002669436489,0.17271958438338642,0.1652733757774597,0.16694279393686162,0.1669073281979968,0.16302365322691298,0.166038013275059,0.16233616647029997,0.1637613417141005,0.16270405580680083,0.16163483863826647,0.16250263464301393,0.16024427103419073,0.16156577133848132,0.15960903498904405,0.16010621745364909,0.15934298910346648,0.15862351853625847,0.15878281541166964,0.15739946942716126,0.15778631506534885,0.15658294707720818,0.15644592349186587,0.15590021048463662,0.1551535127385802,0.1550525689488232,0.15405384638662406,0.15395921047132977,0.1532000873578392,0.15268601337733662,0.15234740748964676,0.1515349340937933,0.15126513825743287,0.15059187605949936,0.1499989454807002,0.1496248343002997,0.1488756258829014,0.1483603238527007,0.14788918495907402,0.1471644177597693,0.1466355462125948,0.14616621432275817,0.14549924367681813,0.14489509274532347,0.14443612688462173,0.14390945546238396,0.1432806018150297,0.1426977337520053,0.1422033253698547,0.14173215149262017,0.1412163390395118,0.14064669679363537,0.14003361186475485,0.13941033434896766,0.13878892410104246,0.1381656438917174,0.13753901527818496,0.13690299936994232,0.13626072805459202,0.13564176990677654,0.13512224297707023,0.1348826660143993,0.13533263398564263,0.13624888723553696,0.13756181355084962,0.1379352992212929,0.13572990456126421,0.130935744760897,0.1341904935899819,0.13509284243443065,0.12969594738192297,0.13254850677860108,0.13176668017455226,0.13065747802764854,0.12884602068700737,0.1302565959428573,0.12748148703982332,0.1279580272965494,0.12801992147661687,0.12639929653521917,0.12685474811040257,0.12608943402033604,0.12524266986578939,0.12535155095346467,0.1247962271039497,0.12395855513144739,0.12429129287162094,0.12309921983377582,0.12311022931109598,0.12251348404877242,0.12215529048091245,0.12158224844739726,0.12148407692896272,0.12052408638439131,0.12053405713037449,0.11973418445948067,0.11941781530018417,0.11888092234078064,0.11841250830716596,0.11775144353909239,0.1174249979037443,0.11663542807559064,0.11621167180157725,0.11556554686352229,0.11491260222336516,0.1142835428631393,0.11362694980361492,0.11292017073260738,0.11214795724922634,0.1115180895387752,0.11066864821089653,0.1098997314262952,0.10912654315012003,0.10829735375572193,0.10747837652866003,0.10657758486056548,0.10574304235342089,0.104923233658934,0.10401911061755933,0.10313402378283493,0.10225688334283643,0.10133445222154917,0.1004222585196721,0.09954500942508017,0.09865983961313775,0.0977632540403529,0.09691202855841756,0.09622919613575684,0.09619253407341581,0.09912769309851974,0.10726440440789484,0.10842993151259066,0.09309983052785947,0.10058138646456036,0.10342022449768881,0.09191390132253538,0.10290578534895398,0.09425773670949925,0.09465405713229666,0.0962516256841325,0.09064592403395849,0.09481137434210365,0.09068478894591862,0.09146804748653664,0.09153469158100563,0.08864488295216609,0.09137382240125405,0.0877168145306159,0.08922638450755374,0.08797878165201072,0.08679566096250314,0.08818338422502207,0.08546085621888656,0.08730520342562495,0.08542021699429328,0.08538290892675039,0.08542868170522486,0.08451810770024999,0.08415536792612938,0.08437701264076143,0.08351815333500139,0.0829622424379929,0.08356339107843967,0.08241398526475664,0.08212107797548461,0.08224840839812782,0.08174998878494302,0.08139430279884391,0.08080862976717341,0.08079556851430693,0.08069353509105892,0.08004047170530149,0.07974856483082246,0.07947680992338896,0.07921115551479403,0.07920278062424933,0.07899208685216297,0.07865093390610915,0.07861561646676274,0.07829949362287639,0.07812049516179809,0.07816621843575582,0.07844294507305849,0.07868192360708941,0.07977299031933108,0.07921151991220969,0.07874482271232361,0.07710499105228925,0.07580948982451773,0.07497222279173912,0.074739694187162,0.0747455744721049,0.07507638997337536,0.0763855115992494,0.0775873291507868,0.07942835583667125,0.07670904877912503,0.07443514117656858,0.07268583502516703,0.07243030241664355,0.07332671842422804,0.07471534476658924,0.07701853989187019,0.07554505489416502,0.07374084900614324,0.07145370693969771,0.07076707405099959,0.07117616431766528,0.07218715502305649,0.07426939935566988,0.074225402372651,0.0734791502474378,0.07082545791354243,0.06957808862052231,0.06937244122178542,0.06987521958597409,0.07133994733771104,0.07261718962491867,0.07394119624612627,0.07114139853931177,0.06921558000235917,0.06827518169950435,0.06822611358206625,0.06879271876116863,0.06991221079963296,0.07210191462104922,0.07173176305162549,0.07076283010525862,0.06841554643859368,0.06736273883923755,0.06721965410979076,0.0676575166778068,0.06875699284068694,0.06987031526280334,0.07130798173981398,0.06985478614200803,0.06853915677916518,0.06705273323890126,0.06639216958570242,0.06638095693735002,0.0669491783881132,0.0682197731147077,0.06928388017049067,0.0704300053634254,0.06883943744364711,0.06752531534049609,0.0663853640636441,0.0660383314981703,0.06622097962381611,0.06660058711187741,0.06725712711799704,0.06753994754068418,0.06815517674946858,0.06792551789564558,0.06776854919600453,0.06666605466558091,0.06576458928812072,0.06522794557992995,0.06522149181232242,0.0656844087363983,0.06639762947906751,0.06729551253353594,0.067224800155252,0.0669351883847496,0.06618588293582325,0.06599722320411511,0.06582978363801421,0.0657441512003738,0.06523784511097343,0.06478248756931083,0.06457361544874943,0.0646906497729165,0.06501042528994805,0.06525804529941576,0.0655330531516146,0.06567885718690765,0.06644000175588079,0.06736562817454352,0.06864091105585966,0.06736057478617323,0.0659140059224855,0.06475074403779475,0.06452683594334718,0.06471314718346795,0.06492236396768877,0.06521070488994617,0.06558581043869874,0.06641008193290902,0.06639702067893363,0.06618038017200172,0.06507458499922722,0.06446907210035224,0.06423526907720252,0.06419618147681994,0.0640700431786332,0.06386992115932141,0.06379416153766514,0.06393707519309907,0.06428208598413698,0.06463832857918035,0.06509746206428964,0.0653692470486786,0.06594760776601762,0.06589715987409059,0.0658893351716923,0.0649211587631309,0.06421050860533747,0.06369630182444176,0.06350342088967773,0.06344679839742316,0.06341296724695791,0.06340156401167996,0.06346653426065102,0.0637396083231681,0.06423408509002596,0.0651364399907759,0.06578590780572159,0.06646262235522767,0.06564829866375867,0.064902993515695,0.06387399383008659,0.06329754924673929,0.06301465457278223,0.0630372733111608,0.06336310908774534,0.0639097219359421,0.06473446763516653,0.0650677969521091,0.06539490596521194,0.0647411577258677,0.06421588363021855,0.06351654148745225,0.06304333415710246,0.06272485228785012,0.06259599959333882,0.06263320085374453,0.06280576584633275,0.06310486095972834,0.06343918386708366,0.06391833421028333,0.06420942624901971,0.06465334475769498,0.06445638447641265,0.06431056696936745,0.0636153651255422,0.06310669709916837,0.06263877342254552,0.06237641302803269,0.062244825658855446,0.06220161622811541,0.06220847665123098,0.06224703359689341,0.06233680058693415,0.062494760899396144,0.06285310431872629,0.06339685320604058,0.0644340629028866,0.06505399320010741,0.06556667311925221,0.06434186227670226,0.06321860136364629,0.06228536274381306,0.06191273360566664,0.061933933932613754,0.062233499995089515,0.06278833569505804,0.06338255889304206,0.06412020849611129,0.06411484964206055,0.06406818074385744,0.06326542619372044,0.06268964017643493,0.06211014349777053,0.06177931091669625,0.061604853447267086,0.06157294929053243,0.061661533600498336,0.06185712968604638,0.06220840204993697,0.06261020989566887,0.06324425396287181,0.0635162694597453,0.06385760884647931,0.06335380862532919,0.06290918760992502,0.06223385063900698,0.06180195800073092,0.06151032119974849,0.06136876540670484,0.061318832906040524,0.06132658736759729,0.061395256597344745,0.061500505072881954,0.06172673159127836,0.062023728960813984,0.06262550370738659,0.06315393501836954,0.06393933835740367,0.06368599727739653,0.06326099265360072,0.06221134085000704,0.06147076799763282,0.06103535585447542,0.06091915747036778,0.061054387280829125,0.061392381814262986,0.06200102067482033,0.06258539513421657,0.06331836943625614,0.06316822884903935,0.06288670349767253,0.0619897413224115,0.06133291731126292,0.06084458203372942,0.060603860558686225,0.06053218053647174,0.06058561701945851,0.06075175571580673,0.061018299131520654,0.061466947233738675,0.0619503277686346,0.06267444599221698,0.06284551563667075,0.06293696415412058,0.06213927167596007,0.06146052682503268,0.06080601076872597,0.06043853455427239,0.06025737302789239,0.06021734904729528,0.06029030608948828,0.06047845636200825,0.06084142779843154,0.061383545252560553,0.062228874448437485,0.06275766888049482,0.0629027777882049,0.06187423085858841,0.06086242448491928,0.060207620780554694,0.0601247790933781,0.060476015913308305,0.06112410488058191,0.06164523640690538,0.06163262888769658,0.06092071242268636,0.060278950965408126,0.060162781663221705,0.06073824335066499,0.061682897090021664,0.06275246800746169,0.06256318710041595,0.0622732368647208,0.061693499811967804,0.061699386305596314,0.061252965448255446,0.06064384378414654,0.05991245139829649,0.059579239016120965,0.059720464184962,0.06012784321290226,0.06052980480780426,0.060617948531560224,0.06078266932087724,0.06108872990077908,0.06197395678729846,0.062327005986207606,0.06231033573196447,0.06113714226595041,0.060290336616814606,0.0598035684376177,0.05968471310969154,0.05964656378660712,0.0596072944690113,0.05964127464211517,0.059856268428238206,0.060400006825236545,0.0610383941711048,0.061842382797238735,0.061776766325067456,0.06159023339014592,0.060782542768041854,0.06022030474614322,0.05970608148100167,0.059386412267827406,0.05918309862534592,0.059099294697164705,0.059143119660063706,0.05932227757834061,0.05968256868245465,0.06016161192927919,0.060882088467144185,0.06129356334084717,0.061659642543663795,0.06108582554936548,0.060509383555201815,0.05977015892801416,0.05932636871668475,0.05905494527198916,0.05894035157448268,0.058921609588791196,0.05897996052690744,0.05912069757593084,0.059347631814720435,0.05976776989328539,0.06026840585014083,0.06102502665652169,0.061247106647004564,0.061296425732005215,0.06047196138665739,0.05977794023696694,0.05916658226920923,0.05886397650546545,0.05876646617564589,0.05885520586847407,0.05909868103351861,0.05947935860348651,0.05997162202756064,0.06031698363001791,0.060504525777047985,0.060160014660927484,0.05980894317136379,0.05943975026472481,0.05944610333704762,0.059635057305907006,0.06007220638875436,0.060167546181558174,0.06009747206630313,0.05946983834515317,0.05889969665423543,0.05848814915175392,0.05836194243488598,0.05845188783389738,0.05868745963435053,0.05895487343681805,0.05916193559721376,0.059195495118178766,0.059176953866937776,0.05915358715515724,0.05943646224379777,0.05989221012643557,0.06066602835078647,0.06078159258190106,0.060597917137796026,0.05964699521271797,0.05891049299766984,0.058391919499488396,0.05816721362324872,0.05811406330960364,0.05816042186661774,0.058249450579459204,0.05832895684096697,0.058397731933321775,0.05840701634127207,0.0584150365004788,0.05838422767653066,0.058414192167997744,0.058496935670230794,0.05879602598927046,0.0592977857044349,0.060250217274078664,0.060939037115077324,0.06149381218633815,0.060531102949119266,0.05951725064632958,0.0585210307145296,0.05798975320299396,0.05775973690136995,0.0577229883303399,0.05784038468896962,0.058119896086915826,0.05864204041140123,0.059343319307437234,0.06034908605024336,0.06068899860730735,0.06066041474825352,0.05953770250726986,0.05859268562064316,0.0579148828858887,0.057647870390676516,0.0576704806123446,0.05792528968455957,0.05844476748661291,0.05907075801759288,0.059817490300251665,0.05992159315184698,0.05976400068420275,0.05896925654031032,0.058314993609464544,0.057782860333756875,0.057498766662109554,0.057394135674945855,0.05744403295262216,0.05765243428112657,0.05806143701050502,0.05875001591325669,0.05952300240338835,0.06009126771039507,0.05984815992431004,0.059043484564461776,0.058605654309958524,0.05876414226283567,0.059559576751564466,0.05981175898578571,0.05948021581098802,0.05839743446909538,0.05766599980984295,0.057431701258391685,0.05761100119155128,0.057911140975193884,0.05802412336059619,0.057872941687018856,0.057494652297007,0.057165668878547675,0.05703105509224613,0.057108156342726264,0.05733948700919056,0.05762904136774695,0.05796695646333466,0.05823799101074097,0.05870605008262954,0.05925900647482408,0.060258073384050176,0.06047893312755364,0.06026233909733935,0.05888292808184657,0.057753614719921575,0.05705322321934409,0.0568130304985789,0.05685280047306061,0.05709393473478791,0.057533388331705765,0.05809254804028633,0.058815210699808475,0.059270067533532304,0.059719153942666685,0.05933429387470399,0.0588548884723624,0.05803433250225259,0.057426174048216476,0.05699017037984566,0.05677149891772937,0.05670725039590848,0.05679158541179731,0.057053374890137405,0.057510414956255626,0.05828738487940332,0.059062077927277974,0.05983660502133238,0.05945653056680942,0.05875831235042089,0.0577038517483429,0.05703604229961931,0.056683776145925395,0.05658235443590403,0.05664038676572385,0.056814965477655424,0.057108384923668355,0.05743110318964824,0.05783834091932623,0.058069713122355475,0.05827150346469982,0.058082286359423724,0.057875435400854894,0.05754941538681827,0.05747761363949862,0.05762649427227662,0.05825472274113601,0.05901143827590184,0.05960329994222634,0.059113536708843964,0.05794964219773365,0.05684460456560214,0.056269346129093956,0.05617287198149861,0.056405314290455866,0.056840945229398414,0.05733963198293829,0.057604028598951695,0.05753597417700075,0.05728311725813076,0.057112779640876514,0.05739522700256035,0.058021319207214414,0.05890182460786337,0.05893913485359596,0.05843058289938834,0.05738440539536891,0.05670759752694849,0.05639439184724305,0.05638663952749405,0.056509274780003525,0.0566415629156632,0.056697532479883725,0.056608224827725435,0.0564508950322964,0.056289578348272654,0.056210161456344755,0.0563034148854189,0.05663759127066412,0.05738990146006247,0.058361528976981124,0.05946823007159654,0.05925499749926215,0.05848525242327873,0.05723454106689514,0.056470295300089894,0.056088686327279716,0.05600341709356177,0.05608125165739267,0.05623376548683152,0.056436543152651154,0.05656278428658655,0.056673780233898984,0.056662485102545075,0.05668736915075607,0.056677948329705345,0.05684517529181467,0.057139265125235046,0.057818818446587705,0.058469371940332956,0.059194647893840144,0.0587779398009525,0.05797921122267739,0.056877632263701856,0.05611359684469403,0.05567669222512878,0.05547719092009789,0.05543486128780797,0.05552762499048641,0.05579052707253589,0.05629680029829318,0.0572343362206734],"R2":0.9707566796769407,"Training_Indices":[8285,5057,13925,15049,18203,14212,10818,5485,15589,169,8540,7545,7706,15779,2116,19730,478,7264,1125,3563,14025,18151,13933,6492,9990,10042,13786,17382,6133,16977,1481,7610,259,17126,1585,12028,1775,15699,12736,4881,8457,2308,13016,396,1659,12755,9484,18852,14995,20418,1182,18913,15488,10057,1532,3225,2802,17554,17086,6931,1373,15411,3898,17036,13501,10319,307,17281,14302,4003,3733,9723,14826,10621,19502,6188,4417,8133,10285,14337,11126,2565,15035,12539,5692,10443,9958,19332,8147,19127,9932,2544,12273,324,5373,1037,15175,9048,4694,8797,17235,681,5499,18409,9502,792,714,6401,1028,6009,1829,12931,6003,17754,15813,13997,9041,9779,9815,17102,15757,17514,20104,7276,8747,17345,19259,7033,12400,15514,17044,19662,10769,1923,818,14343,2323,14285,17920,1964,16130,6823,6044,8760,362,13767,16910,2573,14318,14673,17890,17350,16350,19554,16635,6579,9114,3998,8414,7427,12166,14989,2591,5909,1892,434,16731,20398,3550,16632,4651,2825,13488,1311,13256,12188,6915,8303,17066,16387,897,2519,16523,19010,17934,17971,7407,8211,5029,18259,9631,18011,6733,331,18088,16967,14042,19164,19234,1327,20505,1495,17730,8292,6728,15735,8253,16053,16497,15184,3900,3330,9064,4808,7539,14442,12515,15888,13698,7989,19469,3942,4096,6687,10409,4035,18923,17500,6434,8855,4982,4072,5923,6671,6227,8929,10212,15402,16282,20342,3128,2927,14481,16701,9879,9948,17625,14693,4007,6782,17737,6234,15566,6568,17057,5750,1047,17144,2529,20149,6658,19641,12748,7393,2201,10854,20272,15401,12140,16592,13687,9867,16775,15015,20358,4049,7418,1120,16874,14625,3454,14496,1655,1401,16879,19171,14254,2833,12161,1389,4797,2083,6385,16514,20511,7736,6778,7526,13752,800,6268,1455,2304,13901,20537,2786,20420,17548,15235,7485,3916,11630,1513,5227,20448,4403,1740,16311,5882,6237,12431,10283,18573,12502,19556,287,8384,16367,12691,3778,20357,15246,9548,827,12258,18158,954,15520,4013,12802,15881,13793,11578,6660,11856,2367,8370,18066,6517,8755,3418,15796,18098,16229,6050,3063,7116,12229,918,11430,19534,14682,11142,8190,12944,7659,14467,7214,9544,10119,11327,14520,11876,20474,15720,7918,14356,2552,10195,6422,3460,4157,3480,8694,8079,20228,1323,6220,18410,8887,9880,4134,4521,15608,1724,3510,19516,8011,17726,4231,19501,20233,13883,1078,2940,16937,19443,2600,15841,20007,6320,12025,6490,6820,13586,5965,17702,9182,13807,1275,13055,14937,18435,16020,3631,11723,8594,14468,10092,18711,15054,16327,14445,959,17365,19061,936,7601,16994,6064,2800,12752,14990,3065,12330,1022,2202,4427,19535,8265,18625,17838,8647,11472,15506,7688,14758,8069,15057,17827,14709,721,3440,11447,12243,15425,16308,15296,19719,6949,2382,12387,15615,17539,13919,3971,143,10302,2205,2073,15654,1154,8260,15893,5678,16952,16633,11484,3648,12398,11086,2186,15310,8158,11073,8629,6171,4822,13780,9213,14073,8767,15690,11156,7647,271,816,11911,19260,3713,6925,7667,9987,1384,8516,13897,12741,15371,19769,17965,14797,12806,8045,16584,17644,1641,12248,10233,17542,6162,7747,2947,19225,5062,92,20114,15738,18669,13982,2199,3327,18843,4368,15398,11721,20145,12477,15001,15010,11266,10768,10625,3712,17131,6502,7471,15648,554,13206,11505,14769,4793,7083,13727,19447,1163,7018,7371,3152,3260,18868,15858,5685,17065,6723,10729,2607,9373,7483,5858,6692,16281,7691,7459,20373,7658,747,17627,6074,17919,20332,2590,16057,10079,2428,4247,1864,16398,13909,1484,6719,10377,8676,11270,8088,1012,8340,5245,3531,11511,18925,11125,1733,6584,2616,17379,11724,4637,7306,19237,7305,5332,20175,10145,16479,8916,12104,6216,13560,14652,12613,6368,1718,18295,12023,5903,4744,6128,3542,3635,9302,20438,6073,13254,17687,14027,2192,7175,3297,15971,3310,18710,245,15630,14327,10919,4120,1189,15,5973,11979,18992,899,11168,1381,13009,15995,9382,18437,14359,1545,5986,1179,13406,5513,14372,19248,6405,656,4665,13816,18566,1258,3444,14734,757,3136,13837,13613,9792,14276,418,2370,13804,15193,10226,2079,11370,18505,7983,122,1048,13061,7321,19753,13080,651,13616,8645,17074,4074,14591,10933,12886,17516,274,8800,14236,20539,16318,2913,993,20504,17590,1256,10387,15820,14046,5890,11594,19591,8628,14366,15789,19505,6548,3001,10801,10700,5999,4676,2647,7669,19531,14208,16636,8531,16713,20216,9098,13885,17706,3137,4812,5545,319,17219,2738,13528,13970,19780,16242,13459,14687,222,9845,3628,18609,6176,11482,20280,20130,20209,3148,18032,19165,8931,4383,12340,5417,1503,3317,2218,1295,7823,6536,18904,9659,19313,17094,9877,14573,19409,7508,613,1966,11536,7139,8635,11891,3817,16001,19912,15094,17580,15793,4158,166,10762,5473,5380,16088,4306,20169,4235,2906,6187,6257,3447,9714,16913,15782,6930,12311,10913,1343,1483,13211,12826,9917,19857,3789,14541,13557,14340,6685,7941,14213,5700,5116,9275,12099,17360,14623,4398,5340,8264,4531,7091,16034,10214,13481,2996,4452,8279,9522,17534,16443,3992,12910,9201,2777,10043,14127,16349,7132,14957,4906,5852,7631,8112,18170,10636,10222,12654,16226,10230,1058,7192,11890,8932,18730,668,8029,19595,1600,17041,13025,15861,19835,4655,19310,542,9859,12473,3957,18888,17715,17795,10398,16049,11490,10263,17059,14509,11213,11955,16971,16489,10350,3835,16249,19970,12698,17540,16590,11855,960,4430,7853,6252,6703,12546,7250,8468,4837,4296,1547,6730,2725,8568,17913,5638,18490,8023,3743,9736,15437,9884,11436,10680,10310,14463,17145,665,10473,3757,14550,5779,472,13620,10552,5387,3241,10395,728,6066,11284,19537,19232,11116,17470,11982,7898,7437,18013,2327,20330,8523,2001,3921,17546,14609,18217,2105,750,11220,16894,14564,4810,12605,2812,6971,91,15391,11043,7189,5612,16412,13602,16746,14108,5789,7076,15822,19836,7806,11987,18204,615,10423,9940,20425,314,9995,9836,3524,13907,4943,2521,12809,5960,1307,488,18375,7887,5649,12517,11688,767,3928,3097,19709,8906,17361,859,15894,16710,12158,9652,786,5536,13889,1703,13001,12288,20043,17331,19998,5887,3893,11229,9553,4136,1615,12097,7152,9924,7577,17938,4585,6468,3132,18548,5399,2559,20535,5946,15185,8322,9798,6552,14945,13115,19732,11647,3694,1428,13671,17310,17944,1020,19478,15806,3861,5773,3201,1468,13333,18641,8374,11041,17356,15941,7693,8345,1941,10788,18356,12016,14657,1569,13529,78,5394,13112,2968,6383,5897,3543,405,14905,6508,20404,20467,20110,12209,19691,9329,10660,1062,1869,10432,19479,16687,6181,843,10295,13120,8736,334,1601,6581,11713,14117,6673,12302,1246,1239,19181,17433,13509,13500,6722,5843,11289,18240,9850,1798,8773,18765,898,14503,18716,822,10938,16528,1198,17404,11919,7450,15987,18920,3768,19294,1702,1177,3300,5287,3397,14253,16012,17575,10942,18547,19860,4088,16742,1464,15385,3497,17592,18996,8667,7845,9305,9698,1302,9516,539,10262,7916,18431,4311,2114,19241,1035,19184,14434,7507,16891,925,15768,8054,1756,19400,7282,9371,18457,19036,12004,9755,7496,3467,1325,12323,11347,10598,13023,10130,12168,4214,1205,9136,863,12927,20011,18145,6629,473,11010,2662,16988,18999,1368,5093,8169,12578,12882,2520,9150,3349,4277,14425,2638,19895,4485,7136,15767,3291,5523,17927,9504,19167,4508,12915,7524,14778,16677,9955,18894,3739,7010,5079,15435,10156,11808,11893,18246,4314,9919,17352,17079,13357,19573,18671,621,7654,6465,9808,11222,3790,5929,1713,8122,5759,17424,9758,7540,1338,11375,1452,6191,2907,8212,3569,4270,4626,18839,13374,14150,10086,5637,13634,13868,6059,5658,15400,14904,8828,12307,1346,49,2245,3415,11207,17599,14959,6284,13880,11509,14857,6924,123,14963,12692,7098,8460,18955,15364,13438,14149,17192,13777,6310,16845,9244,6189,1172,17267,17958,10122,11735,12274,14804,3243,7352,5261,15926,11099,11888,14743,1454,6873,1559,14486,51,10703,18161,14019,16658,9203,14376,2161,19348,5336,17005,13143,18017,4939,11658,13607,14219,15662,19608,6281,14595,17889,3800,2324,16776,4515,16984,8056,16507,18358,13504,14336,277,17038,16763,18261,3832,10203,6688,4970,2682,1168,18307,5633,391,11689,12788,19148,16832,5560,1539,1296,9166,9984,2969,11667,16814,7172,296,5031,1555,17056,1538,16477,17671,5936,20305,15736,645,11200,5683,14018,20463,20111,7448,10526,17915,17095,8436,11968,1931,14864,12651,1160,17023,7309,16522,3163,10961,8307,9843,199,19671,6990,4746,2418,188,13626,11224,16799,270,6980,14865,8765,3906,12564,282,10055,6855,986,3574,8849,1856,10454,14039,20235,16136,6219,13058,6681,7854,9508,11714,13468,1643,4305,17833,5533,14660,9326,4207,7996,17475,10344,11975,8182,4696,13448,13821,10260,14587,11867,2650,673,900,12092,18458,17288,3000,14594,9518,6510,19807,2494,3125,7170,19875,5879,14530,3780,20340,1306,4715,6497,19353,20399,16834,2181,19507,13951,18254,604,19625,12621,10872,19352,20334,13792,11080,19847,538,11183,8439,19666,14585,11421,19291,6014,9303,9565,1995,17109,202,3157,16810,10069,19058,2734,1965,3365,16267,13410,10016,1158,8991,17704,13262,5128,1089,8499,14417,4066,6764,20572,17972,11926,9623,10113,17665,2609,18897,11429,7069,746,11332,13690,19685,20442,8005,11925,6560,5216,15317,11916,16154,8927,17112,5385,15169,16684,13641,17695,7681,13008,10640,11500,13181,14559,18542,18917,18639,18180,18168,10298,16570,17842,6479,11677,700,17519,13938,6400,4750,6774,7302,9183,8611,12059,19328,13721,17652,13121,19559,14960,20371,8316,11355,11817,1999,1240,13521,5677,4938,15567,13351,4264,14745,4537,10955,5646,8481,4940,10348,15055,17261,17187,7642,5941,11901,18944,17313,9141,136,17696,15853,4402,18146,6605,9612,4621,5682,10742,3680,15253,6884,13881,14290,2431,4633,14770,14358,17191,3962,17998,12197,3367,2373,6459,9732,4654,5458,19397,16805,4798,16741,20136,19410,18322,16177,17506,18848,670,5695,18282,20379,16152,2233,19865,10180,9829,564,10400,8717,19758,12660,8434,12574,13957,7081,16402,17472,2407,2384,5349,4440,6079,19493,4482,11499,13350,15967,9385,2675,20146,14215,10309,12758,7565,18319,17766,16665,9097,11343,20281,11067,8986,19509,627,7967,4827,7367,13399,9337,375,16727,7534,11081,16519,14969,18558,9870,18060,13361,7308,10234,13795,4473,15568,14759,3715,3308,3219,11902,10782,12122,294,20247,16764,18373,15347,15513,12386,2293,1229,20219,86,2941,5956,11751,11720,10881,14931,4885,6640,14713,7661,4960,10579,12994,12333,2344,14663,16490,17020,10255,14246,15327,18480,810,9545,16453,9306,9007,18833,18455,14885,16647,971,8537,10902,17434,3940,20192,18374,2922,4983,9925,4796,9558,12823,14341,16372,12922,16756,8742,19049,9112,8320,16612,20070,17901,309,16911,243,20347,16841,19064,11526,12713,18238,17259,14583,6868,3107,17454,11321,10787,12822,19581,12490,19464,11922,57,9162,12489,10880,7831,10052,15499,18428,19433,15287,16393,15156,17686,9515,10873,11367,5978,16588,2706,8053,4873,12768,20526,13455,1737,3036,632,14694,11265,16394,4064,2027,3685,2704,4546,18801,10391,7403,12683,425,2173,5432,8469,7190,18831,11727,14054,9372,17248,619,2119,8563,10504,3903,12301,12839,11830,15758,19023,6143,10921,14664,9448,4709,4499,11950,16243,3867,4418,6442,5388,17096,13303,13320,13423,17349,18686,3959,11115,15688,14588,17408,20085,15659,218,4956,18320,5321,15992,18154,7777,8614,2925,2549,766,20029,16558,16890,1186,10248,1883,16299,16132,6491,4225,1070,18681,4918,17778,5867,18768,13642,20350,13701,5537,20513,1292,2554,3544,20150,16233,2933,1921,3031,2457,17936,17846,7472,14061,8592,10824,9144,14472,8010,17441,5985,6283,19393,2383,10852,5580,15096,14867,2175,10920,20263,16532,17355,1411,18399,58,9360,10495,2466,9137,7769,5393,13319,12415,11699,6223,14715,8418,5716,3289,13494,1254,9209,10250,4062,8940,19663,266,11522,18430,9979,15632,13570,3120,9013,17761,20127,12934,19201,3530,16099,1491,15288,5033,18545,18481,16948,20177,7394,15280,6819,4302,15304,19673,17155,5877,16724,8153,13033,9328,4634,2699,1817,8306,14333,15702,911,16524,4219,14029,18382,1102,8222,12511,12635,14320,6335,3197,3892,12071,6520,12456,14800,17015,4364,10133,6827,3539,12036,7700,12525,19378,2381,7199,6222,8532,7085,2872,4754,10081,6342,364,12830,17522,3103,19545,6838,11845,17292,18600,3240,17339,13710,5500,9416,14619,20385,9214,7852,10045,9770,8159,10484,17119,12029,664,8365,10832,5143,2503,7994,7229,12566,12205,4051,18142,7735,4692,14173,19586,20161,12993,14955,20096,9149,9440,1096,7888,3083,14349,11504,10257,1113,8076,17497,12631,6313,16002,6525,11687,15883,12793,20180,14414,18270,20172,12422,14760,12155,1077,1558,17068,15869,5918,953,20413,18362,920,11852,3028,2076,4071,3806,11127,12404,18326,4376,7445,13567,5412,3620,4723,4525,1682,12501,3490,3714,4448,9719,8186,15355,7824,6951,8553,462,14010,14119,3481,11091,13884,1431,534,12753,2673,11042,20194,7191,6562,2368,3279,69,12582,11471,2024,18317,439,2295,12051,7036,10096,10862,8231,19448,1143,9358,8947,3009,17077,11929,4916,16430,20168,16498,18968,13059,566,11514,14572,6648,4227,20431,7044,11439,19770,7973,18062,17831,18841,11779,12697,16953,11342,5892,19682,825,10231,6550,2801,2980,13217,19518,437,11221,9511,17658,11188,14012,19368,14681,8621,2926,20292,3113,12170,2985,18119,15111,7313,1519,1139,15457,16310,20488,10002,16785,1523,3502,11033,17596,4307,1211,2111,12472,1164,17177,8556,6514,6770,15356,7404,16210,15338,5996,2657,17253,19018,1426,842,14245,3138,20014,10943,7978,11643,6545,5313,8390,18572,1486,16283,10668,15764,2524,2267,14171,1151,9449,3547,16908,15034,8544,10706,20166,5283,11958,15397,18526,19754,11315,13252,14705,15473,18724,10758,2839,6616,14605,12620,20389,3073,8914,10508,7613,8086,8557,2203,7588,11933,9186,3943,8695,18446,17467,4601,2751,17318,6360,16754,19031,111,11028,15329,9395,3533,9445,1141,6435,9894,5639,15045,603,17285,17560,7650,386,18076,10041,1746,283,14941,15290,17039,8795,18948,19990,2174,11304,3299,15626,4243,12240,4863,19831,18422,1955,1479,11838,10013,10458,10210,15311,3280,6045,7265,13810,16215,17683,16863,1597,16069,17391,8124,9491,2526,3162,16129,935,20320,2187,3244,12640,10275,8923,8015,2722,4263,73,10879,8689,16858,9773,12718,9107,9975,2998,16623,18889,6813,11617,6151,4380,11841,3830,4031,10162,10385,5780,17025,15062,1419,8558,13134,12893,9781,8649,6544,19335,12115,7117,18828,9747,10336,6253,6299,16060,14314,19731,2184,12677,3412,13371,4644,8397,17963,15877,15955,10435,1903,6717,16336,4596,5407,19191,20200,3477,5664,10518,9318,3014,6042,3616,3675,18870,5870,2222,5325,6084,10246,9681,12537,17212,11174,19425,11296,1762,14111,1167,11945,13674,19670,736,1418,6078,4457,5209,13875,15939,7045,8432,19025,20099,20487,7310,4781,262,15666,3875,11611,19499,10100,261,11124,887,19227,5621,13284,4373,293,18023,17966,14224,18081,168,17447,16168,19100,11474,12201,10550,2864,11485,3170,6549,8448,5424,2356,16096,11161,10401,5220,5015,215,5838,9245,8559,20527,17810,19861,9054,4690,17828,6193,16887,7851,2527,5945,14324,8681,1732,5127,16366,13993,18700,8189,1716,19141,13923,660,5640,4575,2230,9718,8474,5502,20269,11076,16449,17783,13699,6611,16189,89,14522,14426,11610,10834,5069,1614,10529,15366,5053,11976,7415,1377,16171,682,431,16751,4164,8598,11163,1006,16028,15306,15481,5263,17393,10868,11395,11097,18608,10228,9233,1227,765,8995,9904,19991,4367,16993,3224,16179,12139,19523,6025,3956,19110,19760,19271,674,10494,4292,18736,2853,2456,11801,5025,7628,3135,1938,3436,13493,8752,2889,19080,17565,7926,105,2611,3313,3448,618,7927,17942,6372,17328,208,11515,4666,12478,18350,13362,6913,9231,14888,6619,4481,17826,19159,4027,2180,17323,4421,6408,3936,19584,221,9155,17606,18534,15085,18919,5964,3196,5829,15892,184,3512,6471,18269,17224,1782,17078,20430,5059,64,4747,2740,612,8453,19602,7884,9261,19252,15866,16631,1529,3575,15742,12653,9586,3188,19827,13072,17694,17422,11593,20384,9600,1194,13605,10410,11666,14935,17273,17272,20000,16579,10359,17280,16149,4238,17816,16339,17335,7679,7749,18222,1147,13772,19432,6460,11273,8548,12646,5118,6194,8199,20155,7548,16675,11980,2718,12317,14678,7217,17051,4431,11547,11411,68,6420,328,18351,20199,20395,7829,3145,11084,6885,8491,20364,7892,14363,14691,12385,7232,4937,14698,8964,12341,1826,7141,19416,16109,14106,1736,2866,891,14352,16700,12349,12101,12402,18536,16143,15922,8106,18454,1207,10177,15502,7804,13187,7608,9293,20331,9295,6830,19371,11487,12425,8403,10898,7517,19775,17872,18767,7074,1233,3319,9530,5046,187,6012,6524,6791,13029,11954,16798,1174,15878,4187,4707,16531,5081,11904,19896,17115,3845,13189,18911,15164,2425,8496,3529,3779,5868,20119,18,12874,17073,812,2811,8116,16537,19762,16073,1607,11742,18817,16678,10376,10436,18372,11257,16429,13259,16037,14299,5944,17677,5250,3595,4286,14105,5534,2732,16425,13803,12048,5034,7881,12990,10826,19745,11656,7464,1382,10967,3424,11384,146,12105,13502,12319,16071,2478,20170,4498,7320,16681,6090,12148,5315,14534,17595,13955,9561,6757,3838,7215,19746,8305,7873,18728,16190,3255,12508,6226,13545,3496,7559,20208,7830,4054,9486,16569,4276,15728,3181,6047,517,12228,7627,6305,13565,16400,14982,11255,13913,8864,3338,4682,17395,532,10428,17476,6628,11525,1385,13379,17605,8013,18511,1630,16273,7389,4697,15483,15155,4342,6672,18670,10289,5984,1126,11706,14716,574,6364,226,5739,1145,13322,6164,4855,10103,17363,12124,19727,17346,19904,18449,11859,8830,449,16338,981,4340,12181,18597,413,11354,17538,17480,5841,13532,5711,12467,12007,14667,14453,16390,14473,2997,6758,19585,3489,13004,16265,1425,14789,8327,18234,16321,7738,14820,849,19494,1649,15275,6496,11662,15595,9359,1284,8706,16823,2720,9944,9608,12221,14470,11320,19228,7495,8258,12200,17591,20468,7067,3912,19901,11872,7324,5702,10253,17979,5162,3882,16904,19029,18027,11783,7134,11580,11008,9733,2448,223,13076,18082,2170,10521,16456,1212,19815,20213,10635,1638,10922,5938,11162,13921,2776,12202,5314,6186,18471,20002,42,16405,13030,18914,20341,10800,7366,15360,12833,3398,1247,12399,15643,10271,19913,16786,11729,18553,17666,18959,10505,13808,11746,6964,17061,8238,15884,18342,12359,6300,8908,1540,1815,4899,12808,9986,499,8679,15077,11403,442,4977,171,16388,3290,6154,1504,17513,12039,3737,11868,13198,9793,9463,18473,13116,1959,9296,7440,17189,19576,18997,17884,18152,5281,12500,16027,11070,16876,1255,15886,1660,15652,12046,10053,12370,231,15029,13730,15929,19526,19651,12852,13400,14943,17918,20078,972,11002,8504,17306,1339,964,9376,20477,20518,16260,5182,4104,12189,13290,2880,8971,12008,7626,10116,17348,20483,19941,3410,13947,19838,2239,15826,10493,5922,17007,17819,18364,18941,16447,7870,9276,1111,16343,16651,16040,9487,7952,2258,10414,19388,12438,10232,14976,17410,8240,12114,11944,16609,10067,17528,14785,3726,18141,7414,19486,813,2917,17641,99,10440,3347,20437,18121,16193,2403,20106,19,9760,3361,16395,4166,9931,11131,12195,2311,11663,7042,11846,12405,17128,19791,15214,11811,12429,15348,5924,8308,53,4677,19215,2069,320,11539,13788,2039,16964,7058,1100,19714,15658,8489,8653,7381,3632,16838,8703,5008,1410,3074,16709,6704,14856,10733,15512,10434,20109,4921,2046,6224,13243,224,7041,1697,3485,7698,14048,2728,18407,19569,12009,256,11866,4308,4524,1807,4671,17376,17875,327,14201,16439,3503,2882,11308,8745,19302,6293,412,17870,924,4479,475,12978,11424,12804,5736,5607,15978,6406,12454,6138,6091,9421,6901,7815,3634,20125,15585,344,13124,14186,7002,3482,14602,15381,718,6321,5470,14974,8527,17532,8666,15056,18533,16092,9601,14382,8216,11696,14401,13447,20456,6391,4046,8156,4281,17501,19435,4205,1321,6620,9501,7,12576,5706,17446,9537,6857,1132,3012,8515,3501,16446,2820,14821,16912,15668,3117,14707,3641,19007,4685,4106,6720,15203,8402,10199,15212,20285,6324,4794,20406,19722,16942,1897,10353,1192,10543,16509,7656,8472,4540,2423,2241,16135,20378,1711,13098,10657,61,3622,2840,18499,8118,10869,2360,12549,19218,11740,12627,6036,4934,8007,6535,4602,7216,1613,6427,1880,5673,18991,75,16469,18507,1180,1636,10049,4554,1530,16224,18477,931,12057,18557,2491,16734,5876,2714,9428,9864,17070,3283,10689,17946,19614,9260,14903,16296,7354,9848,12190,9123,5943,17492,15491,14130,11444,19211,7730,16883,8162,1114,18500,961,14543,15896,7382,1515,15264,18192,10722,8637,351,19572,16607,7581,5776,3472,4304,17657,15126,12955,20186,13100,18229,15177,10809,17198,4251,9085,20236,7240,13135,15580,13910,1108,18376,10062,5916,16669,13794,4360,15160,1744,19419,8959,12544,7549,3734,10469,9920,3041,7409,13761,9901,11691,9173,13388,8642,11066,10585,19740,12362,12263,19030,5342,10252,19286,16927,20048,6816,11565,3752,15572,4573,15297,14582,13216,19751,723,1054,14272,12916,5735,12783,4760,1091,5074,6137,20586,13258,18436,2782,15909,6715,11269,2828,5874,8512,7019,1596,7503,7380,13675,4335,3889,3002,9071,13064,3980,3611,6314,5275,15170,16342,8507,5987,19102,9640,5096,456,10767,10389,11425,8272,8161,17947,17869,14429,20439,7602,14639,16424,14576,11388,125,16191,18297,11585,14347,11772,5090,16289,7761,20446,6815,6623,16679,11252,45,2322,888,15692,9669,5486,14261,6676,9821,9587,13128,9325,6547,8737,16559,11942,13596,7999,14361,3580,11640,6165,11932,3166,9743,5060,4156,5396,11753,913,8785,9045,1328,5289,20025,5654,6274,3450,13748,4466,20282,18850,9826,8144,11541,8049,12819,9903,793,11228,6780,12117,2013,2244,20365,17840,7346,14298,5030,15004,1950,19340,9514,19887,1191,7290,3523,2533,7431,12050,13789,4437,3965,2144,4463,12068,3071,9457,8881,13149,4807,9483,17667,9272,1947,20212,5269,2097,13111,145,5741,15695,1456,3167,19082,4948,8824,19561,20158,12295,16550,8665,19343,19226,10516,2766,19582,4595,15545,10378,4877,2291,11157,4642,17473,18475,10192,13291,19659,13574,890,14740,9693,15951,9311,10837,4224,18645,13305,2183,1358,8530,13003,4154,20300,17423,9206,7791,6100,6152,11319,8335,7550,8415,20376,2628,18072,6067,5023,4070,11263,16192,20232,10567,15837,17802,10325,5794,1084,12610,18388,15555,16230,4460,9344,8526,11694,16540,11301,1669,17738,19423,6322,10076,16551,14662,8003,17381,8191,18075,17892,19994,998,2852,16527,8353,16885,16535,9156,3825,7836,12342,16803,6802,17263,3403,2113,16692,14143,6737,18751,14828,505,19057,8809,10860,19114,9024,9538,16973,8394,16949,11181,17153,13711,7683,605,9300,13832,16650,12701,354,19739,2658,19044,4454,7155,861,12348,18100,14717,17125,2604,6934,12750,9791,12941,9590,4513,3168,2758,7106,18647,13367,9787,15875,1312,1635,15285,7176,9188,16004,19867,13154,1217,2345,9350,8298,7773,5626,4505,149,10710,4892,8202,15503,15095,7932,18859,9180,16003,3084,11882,11678,3683,13089,10669,19874,11060,4355,7484,3527,20541,9560,591,11941,16276,16794,2893,4210,16048,13176,6437,14877,4181,726,13136,15907,12266,10855,9248,19475,359,7913,867,10646,29,582,16309,9159,6475,10746,10018,17576,14475,8802,19107,15448,13417,12717,13193,426,15239,11985,9709,2091,10318,6225,15794,14059,4638,8844,10265,44,15365]}