{"architecture":[["Dense",[4,10]],["Dense",[10,10]],["Dense",[10,10]],["Dense",[10,10]],["Dense",[10,10]],["Dense",[10,10]],["Dense",[10,60]]],"weights":[[[-2.323469,-4.416402,5.3752723,-2.7948995,-4.212566,6.012834,-0.04160475,0.79251766,1.3627642,1.3933052],[-0.62511593,-1.9640505,0.7134655,0.24897438,1.940081,0.527788,0.53946567,2.8818378,1.4728049,-0.2900427],[-3.3114383,4.688639,-0.93837756,-0.61934954,3.6727133,-0.8370329,4.703683,2.92414,2.339833,-2.9326916],[0.3685323,3.4920478,1.1227018,-0.09438542,1.8762863,0.2542663,0.5860625,0.37494585,0.7416704,1.8962674]],[[-0.07739066,-0.06106202,-0.9541722,-1.1631207,-1.3060603,0.95264935,-0.7453486,0.30873096,0.39174974,-1.4241893],[0.58750135,-1.6865553,0.38421315,-0.62758005,0.47296703,0.2096797,-2.037866,-0.82052404,-1.2925098,0.9061785],[0.7327005,0.16493325,0.65542483,1.0926325,0.5952637,0.2594752,1.5442765,-0.04868817,1.2182175,-0.099408954],[-0.93338287,-0.84436387,-1.0771626,-1.4958044,-0.9666818,-0.06283616,-1.0939873,0.49483997,0.060178842,-0.8174852],[-0.8592882,-1.0449355,-0.009107187,-1.2543031,0.115194865,0.02421859,-1.7898282,-0.02534784,-0.013710228,0.43911237],[0.5571542,0.8496151,0.4001557,0.97549635,0.83283496,0.784736,1.5456729,-0.19061697,0.8097461,-0.3849132],[-0.3745627,-0.008994626,-0.11429547,-0.582784,1.207303,-0.8099526,-0.4227462,-0.19782966,-1.0463568,1.4963732],[-0.035063963,0.4735974,-0.5345957,-0.41894773,0.89133084,-0.59384245,0.16096924,-0.13836813,0.1477895,0.4185679],[-0.111923486,-0.18472494,-0.24773988,0.33349645,0.4120029,-0.22977106,0.24639022,-0.63004476,0.5977187,0.82632333],[0.6292911,0.140992,0.050892174,0.35428324,-0.4752096,1.3273456,0.27473727,-0.029424617,0.43782663,-0.4107659]],[[-0.43918243,-0.17261717,-0.53866994,0.62432367,0.82894003,0.60935074,0.32689866,0.13930626,-0.49593136,-0.47580716],[0.2241037,-0.33668014,0.73723876,-0.08096982,0.3161512,-0.22749688,0.14411153,-0.13926081,0.4281489,0.61661845],[-0.059487853,-0.41703922,0.025991557,0.54854226,0.8061539,0.38736686,0.73251516,-0.35086212,0.16370839,-0.7888196],[0.06266563,0.5952428,0.70035225,0.43813655,-0.45488784,0.63730997,0.70778066,-0.6475207,-0.58698636,-0.7291829],[0.38201457,0.6469832,0.13871226,0.406955,-0.2749599,-0.4816231,-0.81727344,-0.024347229,-0.06282591,-1.1512774],[0.12448324,-0.43284076,-0.5492117,-0.7354924,0.07029781,0.02894522,1.7097368,0.562127,0.48097515,1.104672],[0.741077,0.89661926,1.301767,0.36359233,-0.5338052,0.5053868,0.47758242,-0.2574278,-0.006762608,-0.0896],[-0.65593445,-1.0657889,-0.3572595,-0.3662526,0.9800194,-0.8758542,-0.6794942,0.2257664,0.19929211,0.80716485],[-0.086464785,0.31325585,0.3340785,-0.9340457,0.16831572,0.48769814,0.9719701,0.9614591,0.74212074,0.25105232],[0.25771216,0.37763485,-0.03264491,0.83142257,-0.080354616,-0.14501423,-0.8982396,-0.05194776,-0.39633173,0.39826354]],[[0.5185105,0.14606372,0.22941236,0.4616594,0.4999536,-0.014237954,0.03974284,0.039746232,-0.54184264,0.41353077],[0.45514318,0.23911984,-0.22411978,0.36753067,0.16840336,0.22316433,0.4193187,0.030369418,-0.16065876,0.95400506],[0.48674756,-0.12518288,-1.1141816,0.771214,0.23989308,0.08447569,-0.9557553,-0.45440552,-0.5263655,0.11670102],[1.0644895,-0.5857299,0.5348749,-0.49438593,0.14209527,-0.44282278,0.14309712,0.35026753,0.11374476,0.506182],[-0.4672878,-0.28716305,1.1209923,0.18963316,-0.288987,0.7864498,0.1331189,0.42727843,0.7881031,-0.97393435],[0.1680314,0.3903838,-0.62790805,-0.32594824,-0.44198272,-0.15619446,0.12059267,-0.32482925,0.3028256,0.4831936],[0.23806493,0.14354089,-0.8136166,-0.6533224,-0.0072182347,-0.70166,-0.06214457,1.0825772,-0.19542669,0.01861391],[-0.7242184,0.52359086,0.6348188,0.23966737,0.09455198,0.5447741,0.68374056,-0.40126964,-0.2935187,0.32931247],[-0.70216954,0.3654833,0.43764004,0.7273404,-0.14044596,-0.12472086,0.3015915,-0.20667724,0.72395575,0.10482415],[-0.6359914,0.46423867,0.21107084,0.42786956,0.49615258,-0.38397127,-0.3179016,0.11224905,-0.0076470617,-0.90389925]],[[0.42780766,-0.35440767,-2.0916429,-0.24927124,0.30557787,-0.5683645,0.76091945,0.49984425,-0.23469,0.8517029],[0.031147946,-0.45354772,0.0059307534,-0.9056598,-0.14740802,0.23520343,-0.21657176,-0.3651043,-0.58500904,-0.32965955],[-1.1007129,-0.51078653,-0.43826902,1.531748,0.14937149,0.35500148,-0.6744908,-0.4572406,0.42880934,-0.40271398],[0.14327668,0.6586984,-0.07995124,-0.36222485,0.43934757,-0.5125294,-0.7506106,0.543777,-0.4789736,-0.5851246],[0.16000395,0.02743775,0.032708395,-0.35893595,-0.51989925,-0.31197435,0.2730244,0.6970423,-0.16677612,-0.4141388],[-0.40122342,0.8255996,0.967518,-0.46912798,0.72153425,0.3697498,-3.0612369,0.057271045,0.8286749,-0.21377894],[-0.47708312,0.28721818,-0.44024476,-0.30277923,0.23990718,-0.07289349,0.20596191,-0.50077045,0.051539037,-0.9401847],[0.1810338,-1.0503241,0.2376257,-0.48155946,-0.2053152,0.35061297,0.0009436138,-0.29144657,-0.17896824,0.34023815],[-0.1704478,-0.7685426,0.29800487,0.41154605,0.80643034,0.41402677,-1.5375599,0.010849804,0.9762408,-0.20841718],[0.38578507,0.3336893,-0.2031492,-0.4724078,-0.51773024,-0.45678613,0.45407993,0.06667976,-0.3809326,0.309546]],[[-0.04520576,-0.07030305,0.32909167,-0.9792234,0.039892696,-0.55236423,0.48273405,-0.13943668,0.12501116,-0.36955214],[-1.2351528,-0.25330138,-0.34272432,0.9278643,0.02766868,0.71502095,-0.36565295,-0.13897847,-0.9447141,-2.2345],[-0.43464148,-0.029399998,0.003167695,-0.05536827,-0.49220785,0.024957132,-0.41823334,0.7816819,0.6294138,0.04513351],[-0.8324402,-0.11723664,-0.24028687,0.5049494,0.8446044,0.21572502,0.11600152,0.32107162,1.0450542,-0.0907826],[0.8200377,0.76970255,0.26600707,-0.5303159,0.29147297,-0.343848,0.1711501,0.16428415,-0.44829038,-0.4178194],[-0.863858,0.28179726,-0.364041,-0.30208775,-0.61564875,-0.11053882,-0.8871797,-0.64580244,0.07029692,-0.1085],[-0.8673713,0.38962835,-0.7121298,-0.42239162,-0.8769463,-0.8620698,-0.9129812,-0.89935803,-0.22866614,0.66035926],[-0.4813283,0.15707162,-1.5194622,0.37906796,0.1318987,0.07872877,0.66129184,-0.4354763,0.59279054,-0.022328893],[-0.88359904,0.5675474,0.45917454,0.50245905,-1.1552961,0.14466523,-0.10466435,-1.0790325,-1.1172026,-0.034722634],[-0.01139108,-0.36622742,-0.16610003,-1.1606128,0.00041526812,-0.98936087,-1.2561972,-0.855084,-0.65575093,-0.479899]],[[0.3923851,0.49020907,-0.021227686,0.28466448,0.10147437,0.25317279,0.05526931,0.004198933,0.5123042,0.4042989,-0.018662568,0.40012938,-0.016222624,0.0038648164,-0.011141781,-0.014272876,0.00041729002,0.17923008,0.0006504599,0.28991142,0.055703707,0.2801061,0.10204524,0.5386652,0.004214342,0.2508625,0.09592879,-0.01625186,0.5143635,-0.0036096794,0.14203048,0.035950497,-0.010498412,-0.7592698,0.16345917,-0.7768518,0.09737559,0.058066107,-0.33699307,-0.55523455,-0.028956557,-0.5514295,0.017930837,0.058000106,-0.033030197,0.018530702,-0.012638857,0.1769522,-0.0029053323,-0.7559286,0.097386055,0.18516591,0.16351904,-0.13340938,0.05361282,-0.7709073,0.13634345,0.017898964,-0.33847544,-0.0252103],[0.19449711,0.19436908,0.11460515,0.20433389,0.18624292,0.20786797,0.1811749,0.17124246,0.19602948,0.20144953,0.079548314,0.2015111,0.14792947,0.17126383,0.04601837,0.14502741,0.0053510265,0.18963619,0.00039596562,0.20380595,0.18110225,0.19269715,0.18621358,0.1952239,0.16748963,0.21064629,0.18619244,0.14791884,0.19676705,0.020190326,0.18043058,0.2121995,0.07752971,0.31636682,0.13061841,0.31275842,0.14026625,0.14132547,0.2748497,0.297236,0.04094497,0.29715323,0.11685031,0.14133409,0.014203805,0.11407533,-0.00037740538,0.13938618,0.000684156,0.31512806,0.14026998,0.15482685,0.13060996,0.24622545,0.13802335,0.31084743,0.13654813,0.11685808,0.27474222,0.0016673005],[-0.17153428,-0.14133115,0.09996569,0.19991644,-0.101880334,0.2095532,-0.049429435,0.027504863,0.0027380695,0.103527375,0.0916428,0.10256081,0.07865186,0.027445896,0.062819764,0.078266315,0.009047976,-0.1429792,0.0015070839,0.20069705,-0.0493977,-0.17105943,-0.101773046,-0.080684975,0.030524127,0.21176389,-0.09352563,0.078623265,0.003980437,0.030428177,-0.35608804,-0.40550536,-0.04553739,-0.52570915,-0.20898414,-0.4918508,-0.15800475,-0.12548618,-0.48352656,-0.5036716,-0.025046328,-0.5028937,-0.07956281,-0.12549432,-0.014815821,-0.08014757,-0.0050515737,-0.2559466,-0.0012223809,-0.5261622,-0.15799713,-0.3052645,-0.2089769,-0.4494254,-0.12649639,-0.4923633,-0.20943394,-0.07956207,-0.48397002,-0.009384081],[0.33793622,0.3993681,0.057188623,0.45430887,0.17001669,0.43901294,0.1505976,0.17968717,0.45772374,0.44654047,0.013992992,0.45935404,0.12281022,0.18069838,-0.00634958,0.1166387,-0.005336666,0.21016386,-0.0024030395,0.44000825,0.14945693,0.26689035,0.16827539,0.4400549,0.1719083,0.4358772,0.18240407,0.122888826,0.44848493,-0.009006009,-0.16808398,-0.14296916,0.28168777,0.058520835,-0.09805734,0.08315565,0.034889597,0.17046455,-0.058979895,0.011552538,0.25826824,-0.0003580819,0.26204526,0.17062986,0.1960274,0.24992943,0.054953888,-0.15171374,0.013853742,0.052385088,0.03484957,-0.17607363,-0.09820646,-0.098639235,0.1632397,0.071220204,-0.07972794,0.2621185,-0.053837553,0.12039867],[-0.5682129,-0.61718947,0.14230125,-0.47864768,-0.2583071,-0.44307482,-0.13107769,0.0017014788,-0.5969596,-0.5315604,0.1326631,-0.53619236,0.10352723,0.0013556692,0.085697815,0.09504772,0.0022474383,-0.3773032,-0.0039381604,-0.47392032,-0.13073741,-0.48467624,-0.25770393,-0.62530524,-0.003919747,-0.43914747,-0.2556082,0.103483096,-0.59283596,0.033349395,0.03774518,-0.040736094,0.26492327,-0.32923448,0.2369422,-0.3085069,0.28051397,0.25951537,-0.18961453,-0.26050642,0.2401492,-0.25631535,0.27084693,0.25946453,0.19072224,0.26675144,0.061586007,0.18090238,0.017603364,-0.32826522,0.28053227,0.11404483,0.23698625,-0.11911161,0.2554414,-0.30612078,0.23093599,0.27082795,-0.19156834,0.1253354],[0.10943003,0.11373734,0.040551443,0.269445,0.10567726,0.28094772,0.07457522,-0.035405938,0.18470864,0.24894708,0.064513855,0.22406873,-0.008082174,-0.03733907,0.06326289,0.0010490282,0.023007387,0.123228006,0.008716906,0.29685774,0.076712705,0.122851916,0.10901812,0.14279264,-0.024641905,0.28948042,0.08855394,-0.008267342,0.2033104,0.044242218,0.36860237,0.35131386,-0.548751,-0.08995576,0.16465974,-0.13700795,-0.062210735,-0.27593142,0.1936214,0.0316988,-0.55136514,0.054691967,-0.46488452,-0.27624917,-0.45590627,-0.4440457,-0.14344369,0.27434397,-0.036414824,-0.079188876,-0.06212723,0.34711695,0.16494516,0.28005606,-0.26610026,-0.11559409,0.1367653,-0.46501836,0.1835586,-0.30051148],[-0.018025804,-0.04883678,-0.03327997,-0.19650543,0.022138383,-0.20685583,0.02196627,-0.022675788,-0.12297347,-0.16129468,-0.025568742,-0.16087452,-0.03267599,-0.022659464,-0.01364741,-0.032797776,0.0020559547,0.016608119,0.0022779766,-0.1968347,0.021967113,0.0046855137,0.022104856,-0.08530204,-0.023706948,-0.20801607,0.016696889,-0.03265279,-0.12356208,-0.0030853758,0.3356383,0.41374665,-0.14234424,0.69890255,0.08728066,0.68046385,0.0008281292,-0.07204975,0.5611872,0.62793016,-0.13205591,0.62765986,-0.12726793,-0.07204608,-0.10014238,-0.12032518,-0.028581468,0.17282954,-0.007836754,0.6992193,0.00082378334,0.25529516,0.087277554,0.48905492,-0.0658637,0.6808749,0.08925005,-0.12726952,0.5613638,-0.061444607],[0.59899276,0.4798986,0.12117767,-0.08281063,0.58406097,-0.07736347,0.48291808,0.4078376,0.163239,0.023637392,0.039381992,0.039032258,0.2553023,0.4090453,0.0051496737,0.24894424,0.0041365,0.6398011,0.003518099,-0.10023601,0.48153943,0.65174836,0.5819848,0.32165533,0.39631674,-0.08006555,0.5838427,0.2554123,0.15245147,0.0012208768,-0.4627447,-0.3415077,-0.0872247,0.48265347,-0.44844574,0.46147916,-0.32359034,-0.17949608,0.055413146,0.2844708,-0.071479164,0.2703895,-0.10882114,-0.17929403,-0.05979704,-0.11963351,-0.024357386,-0.49743617,-0.008144222,0.4749804,-0.32363868,-0.51519156,-0.44862577,-0.15181664,-0.18357317,0.44669938,-0.41810244,-0.10873078,0.061452955,-0.043769203],[0.28463537,0.3139732,0.14992432,0.2968041,0.19459762,0.31231838,0.17119652,0.21244319,0.33330807,0.32264116,0.11050511,0.3208147,0.18690068,0.21237707,0.07057514,0.18369623,0.014900047,0.22010261,0.0036300574,0.29758278,0.17113085,0.24961641,0.19474624,0.3345923,0.2099037,0.3209058,0.20307776,0.18680486,0.33687162,0.03722479,-0.33149147,-0.37572306,0.08130687,-0.6599033,-0.09612591,-0.66008466,0.059061725,0.16875923,-0.48777223,-0.5683771,-0.017887488,-0.5669535,0.17200047,0.16875145,-0.084184445,0.15637319,-0.05094843,-0.20001788,-0.012166532,-0.6626895,0.059085157,-0.27784032,-0.09611793,-0.42279753,0.14945479,-0.66400045,-0.08713773,0.172016,-0.48882213,-0.089261755],[0.015205929,0.058382913,0.081754684,0.460279,0.05795204,0.46361074,0.12727562,0.11812666,0.23178881,0.34675685,0.049664818,0.34644702,0.11616409,0.11807129,0.020891204,0.1045802,-0.003524648,0.02174449,-0.0023569225,0.46073386,0.1273554,0.00448772,0.0580352,0.13227393,0.105563805,0.4626178,0.06026905,0.11621264,0.23174249,0.002741763,0.5738499,0.6763125,0.003986088,0.95797795,0.22752282,0.95660114,0.11865721,0.013312611,0.83936733,0.8965562,0.042171232,0.89703745,-0.02225228,0.013313222,0.06884748,-0.009893546,0.036039412,0.3480996,0.009200087,0.9587174,0.11864833,0.4628441,0.22751541,0.76512265,0.030038744,0.95779765,0.23535407,-0.022261318,0.8392346,0.0641425]]],"bias":[[0.7855953,0.87665606,0.6740573,0.79563296,0.825626,0.53464127,0.26244372,-0.03653097,-0.03370083,0.20838173],[-0.012012736,0.065540284,0.028844945,-0.13472886,-0.06361121,0.24213257,0.07305267,0.25749254,0.24445894,-0.22590035],[-0.24366397,-0.15343462,-0.057778258,-0.34440568,0.5868153,-0.61004704,-0.26173243,0.085511036,0.48349154,0.5691818],[-0.0060362383,-0.2854177,0.16896848,0.25575086,0.0918658,0.6696287,-0.08529453,-0.1416803,0.36856082,-0.2647516],[-0.0040749055,0.26020774,0.14980797,0.005260897,0.3604112,0.32500407,-0.38720968,0.28558925,0.45764467,-0.27120745],[-0.10276756,0.099978976,0.12240122,-0.060496792,0.2913325,-0.42023477,0.08639067,0.101908185,0.07487048,0.5037469],[0.19147678,0.1580238,0.4056166,-0.046271376,0.22105454,-0.06919575,0.20547365,0.20325358,0.06184752,-0.0016246173,0.5605925,0.00084380247,0.2719554,0.20337288,0.72070956,0.2879145,0.92567956,0.22337821,0.952593,-0.047252577,0.2055293,0.21479867,0.22081348,0.11031013,0.22071497,-0.08072656,0.21593484,0.27203026,0.057016745,0.8498051,0.10670791,0.031526886,0.36112395,-0.08628508,0.21971881,-0.08189886,0.16590448,0.15755382,-0.07711379,-0.08661345,0.47666577,-0.08875245,0.23278108,0.1575577,0.5487951,0.24147911,0.5385063,0.2075391,0.5128916,-0.0826971,0.16587988,0.17146786,0.21971785,-0.037019555,0.16889079,-0.07688437,0.20108482,0.23276493,-0.07562613,0.5626933]],"Losses":[1.0295625848640428,0.918722632144989,0.8176408165279402,0.72530192308584,0.6419185780548075,0.5685729744426288,0.5071854868482624,0.45823176413497446,0.418227484523105,0.3841199271366431,0.3543882436463941,0.3278454227832053,0.304773926831896,0.2867759988038238,0.27533694605235803,0.2708431326070293,0.2719309309626746,0.2759521186129178,0.2803528255323405,0.28351455421986765,0.28473943479660924,0.2839664689003225,0.2815369859655719,0.27799965316301006,0.27392622400547745,0.2697894978637817,0.26593710967723744,0.2626171641483631,0.2599742966085843,0.2580247701274872,0.2566774008345578,0.2557961902037233,0.2552453723002644,0.25489934057661784,0.2546480224090376,0.25441525425490563,0.2541685831389664,0.2539051256943194,0.25363017180456376,0.2533481447666525,0.2530648538244862,0.25278818106955087,0.2525228402484905,0.2522657944990475,0.25200796887611504,0.25174084185681334,0.25146252953938913,0.2511786175885002,0.2508976409907262,0.25062729361194325,0.2503767407029394,0.25016044237177404,0.24999416963899343,0.24988416458003324,0.2498211854484775,0.24978629444678732,0.2497617529659641,0.24973683564854296,0.2497067133394194,0.24966889638204282,0.2496203964119134,0.24955694091621358,0.24947538024911162,0.24937768196155494,0.2492718352359273,0.24916795106886708,0.2490733341901675,0.2489905320410873,0.24891816746858117,0.24885263343267466,0.2487899238195044,0.24872697533154087,0.24866144920402927,0.24859052838027923,0.24851074669078735,0.24841932629647223,0.24831532445974733,0.24819935659304107,0.24807236466276306,0.24793452378330083,0.2477848902547778,0.24762167413227681,0.24744255899429243,0.24724480884277844,0.24702538407918687,0.24678099459178537,0.24650773904081283,0.2462007612211325,0.24585440170165837,0.2454624431530241,0.24501798699110355,0.24451329570835656,0.24393973119096624,0.2432875602713737,0.24254582753407014,0.24170255273071722,0.2407453699740583,0.23966275722035676,0.23844541482820825,0.2370880045360363,0.23559230558884053,0.23397144801088993,0.23225447167012336,0.23049059553239165,0.22875519887089577,0.22715176924560274,0.22579958899303332,0.2248042572896987,0.22420248193383413,0.22393663442325135,0.2242231594481136,0.22856958561802965,0.23040436329243721,0.22273049931134897,0.22818043542992864,0.22130848504034517,0.22533844972087502,0.22064449652700305,0.22224820280336563,0.2207163953088418,0.21931596504095408,0.2207002927187157,0.21789404772272047,0.21947595840861792,0.21820930338193398,0.21764714111642167,0.21848972807315462,0.21688302623659042,0.2175123743231084,0.2171043425221918,0.21626476175350337,0.21682978799159125,0.21587031378744198,0.21580037537525673,0.21577776620121805,0.21496857476959347,0.21520583210232033,0.2146683817282215,0.21438264087773495,0.21440889182831793,0.2138262110479071,0.21391187496685649,0.21356575907147377,0.2133455994034754,0.21331557603003876,0.21291705683869067,0.21293026987127037,0.21262730737824123,0.21247325179769933,0.21234878878746297,0.2120589370829181,0.21200047674144257,0.2117242895136597,0.21160025871599264,0.211427313189658,0.21121812262967898,0.21111820884715754,0.21089447507491288,0.2107881260822818,0.21061599560024558,0.21046317661818528,0.21034479216841342,0.2101669374332824,0.21006128571255894,0.20989821113006815,0.2097717783287313,0.20964015259016355,0.2094928456884603,0.20938034507510284,0.20923154476071953,0.20911852486615404,0.2089845650082234,0.20886244005653093,0.20874536970685817,0.20861756917001242,0.20850973484455426,0.20838424967982208,0.2082774218930134,0.20815932568860704,0.20804939467011596,0.20793902060904018,0.20782656491394133,0.20772142395173887,0.2076089445483327,0.20750593874625964,0.20739572275500834,0.20729274412944726,0.20718562423200615,0.2070817840535463,0.2069774179745969,0.20687275269578362,0.20676999636910806,0.2066647384278734,0.2065623647260642,0.20645670098295985,0.20635368853675484,0.20624759565556192,0.20614331856199092,0.20603656349225272,0.2059306028367224,0.2058228191696084,0.20571492802692914,0.20560566712989067,0.20549559126805106,0.20538441576744604,0.20527196050245577,0.20515847201988094,0.20504339278514638,0.20492724532123063,0.20480934462376676,0.20469027772055248,0.20456937317363746,0.2044471936104969,0.20432317825113502,0.20419777583415422,0.20407055972752,0.203941875278573,0.20381145832516265,0.20367950651006644,0.20354591972502734,0.20341077451570838,0.20327413926393037,0.20313595020343375,0.20299642562452588,0.20285542129452214,0.20271325760926392,0.20256973834679562,0.2024252223505104,0.20227955311026682,0.20213303299957694,0.2019856093567491,0.20183747405593735,0.20168871047713535,0.20153937824751875,0.2013896778085306,0.20123959131900906,0.201089330534682,0.20093891440285025,0.20078844879136193,0.2006380345391178,0.2004876789590836,0.2003374916051531,0.20018745360393195,0.20003758019643306,0.19988788650669356,0.1997382687839851,0.1995886800839157,0.1994389980981884,0.19928901571649568,0.19913853133537723,0.19898725069008832,0.19883476882970882,0.19868063850211343,0.19852427775415932,0.1983649459293339,0.19820177367206113,0.19803366592553898,0.1978592805982465,0.1976769796956396,0.19748468645704842,0.19727989879023028,0.1970594250985586,0.1968193291595543,0.1965545849040826,0.196258894851654,0.19592414075373854,0.19554024224493802,0.1950943018101024,0.1945797833985396,0.19409160112905613,0.1948996919908859,0.20132713629298968,0.19800072742481545,0.19174255660944522,0.19517059975437326,0.19284539701161565,0.19089105088280892,0.18933358612021786,0.19218934567543464,0.18829886776141874,0.18725946499933463,0.18530587987224847,0.18373709336061475,0.18072913609062438,0.18194702313492425,0.17695777640068364,0.17693212390055643,0.17364810041824755,0.17464536945531944,0.17222070046167012,0.1728723557641139,0.17340455370307256,0.17447839064514203,0.1669950493022629,0.16793367023795935,0.17410028793536816,0.16440487831196393,0.17330359381682028,0.17864413322701017,0.17034420411215292,0.1740384376828003,0.16244041035709667,0.16894284382488436,0.1614131486880943,0.16698014451504925,0.1589341636740033,0.16403838892489053,0.15743416264757892,0.16246001492776868,0.15640155163509226,0.1599784585447075,0.1555363682964224,0.1578714821326119,0.1550964944060364,0.15567146376542873,0.15441942959130928,0.15346734255803388,0.15371779911884983,0.15188658059213914,0.15294217375412297,0.15079971212638443,0.15152314737674272,0.15015469942787935,0.15015481233072264,0.14932968791691936,0.14936842246972984,0.14822996368743885,0.14855116805663313,0.14761953641393338,0.1473951620824926,0.14699787234841838,0.14673786587593826,0.1461482505270813,0.14594288663191002,0.14564956455607897,0.14528577555169148,0.14490838586030966,0.14463748103054214,0.14443738079396787,0.14412555837711785,0.14383784806403094,0.14350234347888433,0.14325853383400317,0.14300534512052546,0.14282027735275818,0.14266232424374142,0.14259823883150463,0.14279229806859528,0.1433761768539182,0.14544999496645347,0.14626944951781898,0.14755102727014513,0.14300267774678482,0.14106513937886583,0.1422230191678084,0.14357799583327785,0.14360615698241624,0.14096434603469352,0.14055977390721522,0.1421332012698999,0.14189658852335416,0.140640847860357,0.1397198027192574,0.14039734812118174,0.14121908971304323,0.14028654169979288,0.13929465047143683,0.13929516204004522,0.139800097603009,0.13999947533911217,0.13917194077300343,0.13863940879115694,0.13872778939967267,0.13901881788742695,0.13896761705933272,0.13844219595238966,0.13806777421442645,0.13808657898374865,0.13822550229726335,0.13823762290648378,0.13792729440485782,0.13761285645246832,0.13743087119634986,0.13742922965614388,0.13749126755641713,0.13747227051468805,0.1373758592872305,0.13716885108367335,0.13696149546213035,0.13677546761206508,0.1366413250732517,0.1365524774673664,0.1364990792488081,0.13646999307051066,0.13645573905374503,0.13648251828681693,0.13652374656601907,0.13667575773900492,0.13681732909129787,0.13719219965344145,0.13732178313391355,0.137662938544006,0.137233588640235,0.13683348904627227,0.13601243916917982,0.135452314961918,0.1352074840095605,0.13527439900503901,0.13553539313360294,0.13575704791699925,0.13597231654613512,0.13578725489118,0.1355444905551862,0.13507446149241928,0.13470694370086883,0.13447285318504348,0.13440240219347774,0.13445117314171418,0.13454135298053715,0.13465404834756511,0.13465532308309075,0.13464505635629245,0.13446483867514772,0.13428798304408943,0.134038133217876,0.13383193490065776,0.1336495224654044,0.13351108582961355,0.13340384282892567,0.13331976014776906,0.13325315315993924,0.13320340289736546,0.13318082056867364,0.13320116044243874,0.13333301955226942,0.13361389391011572,0.1343360931170154,0.1351968681000255,0.13676327384958034,0.1361879073989506,0.13513255363723606,0.13303005900760007,0.13236540857737228,0.13315698941423457,0.13402128886547635,0.13416195747375875,0.13284830966149033,0.13198283124397034,0.13211440579217626,0.1327388960567478,0.1330828124386527,0.13244024377551594,0.13174327225396046,0.13152773728163877,0.13181320598075563,0.13211254820519466,0.13188114025733602,0.13143582660293168,0.13113579910243664,0.13118510612410686,0.13137218986393254,0.13134990472981362,0.1311322539101059,0.1308331157333151,0.1306691837575097,0.13066860973871938,0.1307310211473549,0.13075835991114532,0.1306599672847917,0.1304968813869847,0.13029937500090355,0.1301426925123066,0.1300437660610531,0.1299957589062337,0.1299770960699327,0.12996244535108284,0.12995194995962098,0.12992368120145908,0.12991286767949872,0.12988774826032567,0.1299141808434123,0.12993228001428833,0.13005377768529786,0.13014055766900295,0.13037402453959882,0.13041294693719882,0.13052750756790044,0.1302056369736085,0.12986566505415112,0.12930006152975276,0.1288598422693322,0.12856593273543834,0.128453405169947,0.1284826480138551,0.1286035340526416,0.12881417933325703,0.1290189583551295,0.12932568270323522,0.12939967069306155,0.12947250435311222,0.12906215784266659,0.12860509288606875,0.1280317014353323,0.12764758529188033,0.1274859242825171,0.12751897233763182,0.127681855398211,0.1278772002993172,0.12813348322329746,0.12823914109168544,0.12836113589511927,0.12813961264230334,0.1278764938779153,0.12738637053738278,0.1269683118254142,0.12664582127981514,0.12648107061188768,0.12644983185004713,0.1265108075852336,0.12664826997734457,0.1268135057687404,0.12709254959125163,0.12730693034663224,0.1276546681539362,0.12761138825547017,0.1275148513090115,0.12686462312788094,0.12622898599029758,0.1256512978487845,0.1253574684574962,0.12533120277914625,0.12549230318627758,0.12578522463012914,0.12606758934877282,0.12643261532995326,0.12648756025600966,0.12649563589918913,0.12598126065785714,0.12543063518061628,0.12481782604284145,0.12442533523108527,0.12427144657320392,0.12431544720441082,0.12449935766313229,0.12474171517726385,0.12510400801904228,0.12535830687828656,0.12571658577933395,0.12558814410723773,0.12537806854112832,0.12464149825964689,0.1239680668814472,0.12340821309063273,0.12313282490923196,0.12310922831248956,0.12326831279493164,0.12358798447568617,0.12396977494929061,0.12457065065678752,0.12490087083183204,0.1252728536147055,0.1246685209255301,0.12389948461982185,0.12284771953773659,0.12218996183735706,0.12199659095819404,0.12219135632202688,0.1226479962745637,0.12312241620187805,0.12368995903457422,0.12372106671743457,0.12362408229851846,0.12282114477096012,0.12205455854494407,0.12136982511767831,0.12102141577240982,0.12097943329856797,0.1211601193026127,0.12152165881112192,0.12193600748609534,0.12257352089095179,0.122903068101703,0.1233200193877028,0.12275078298956901,0.1220695618558563,0.12098773877952539,0.12023688306703038,0.11986791416257182,0.11987180655963603,0.12016202020837743,0.1206296757358887,0.12137404759475459,0.12193861192144857,0.12267197049152792,0.1222170125013306,0.12154893087604993,0.12021535034391506,0.11928673825050014,0.11887801445856909,0.1189837429933025,0.11946258392843434,0.12006398440095792,0.12084420058163343,0.12103798225360857,0.12113035621780718,0.12023672271436624,0.11937197490676028,0.11851719274644874,0.11806283617638905,0.11798005297360456,0.11818230654781597,0.11861679430764663,0.1191305393362477,0.11991951932236272,0.12029637078667758,0.12078617371439064,0.12006726839652493,0.11930066816951698,0.11815033963868644,0.1173966456965554,0.11704567453333911,0.11707108074693527,0.11738880278116544,0.11789174502580735,0.11870322541022477,0.11930486542225349,0.12013435577853733,0.11965347244131601,0.11904186269025488,0.11767631558140522,0.11671736309587911,0.11621341810947204,0.11619510580380321,0.11654872994838572,0.11711453845312496,0.11796947503710883,0.11847513629630095,0.11909294936834958,0.11843121302634323,0.11770828039921287,0.11651903531071395,0.11572892227832061,0.11533766110308036,0.11533123904278644,0.11562420243537974,0.11611644801826279,0.11693746328603373,0.11760367428144605,0.11861238243381848,0.11827122738897158,0.11786538905637906,0.11638776518437821,0.11529797376422235,0.11457371346886028,0.11434820074474693,0.11450949258093589,0.11494804414923805,0.1157172717801529,0.11645188369132493,0.11757683197375664,0.11747680370338404,0.11734032105538764,0.1158485959715615,0.11469354675219212,0.11378793742302173,0.11339752418473993,0.11340668453496257,0.11371564210593733,0.11434732088453471,0.11512048410549891,0.11645148505401136,0.1168990132788447,0.11751189497475573,0.11596642902990141,0.11466098111284406,0.11324773153998796,0.11250220234813497,0.11228114808055618,0.11246463439960502,0.11300006536468785,0.11375482392241704,0.11506092868100234,0.11571534176299704,0.11666026443529182,0.11530529222606684,0.11413748137104683,0.1125289083792805,0.11159706565217176,0.11117062873377413,0.11115626158211381,0.11146803332172958,0.11206223822488004,0.11322680909353061,0.11432024782309928,0.11619365172120809,0.11551668266594681,0.11493203449720636,0.1125530283165966,0.111038896634265,0.11012235066511868,0.10986211953455331,0.11007748852682075,0.11066459301912616,0.11179796341743652,0.1128583214883837,0.11459184066971007,0.1139618653617221,0.11345790435377127,0.11126901874495017,0.10986483305795235,0.10892801735590026,0.1085551903784692,0.10856728284570998,0.10889434851918883,0.10968108330820465,0.11080952573323408,0.11308794431744297,0.11382379419124997,0.1150214760840088,0.11191087185650261,0.10974797326234023,0.10793999965151767,0.10720082537598723,0.10719724872048522,0.10775184234037365,0.10894661498061624,0.11017870213415971,0.11213476470029674,0.11138958586553656,0.11073953722619091,0.10838868565982349,0.10693455119149434,0.10604087908182935,0.10572991235716073,0.10582582341672751,0.10627785960979802,0.10733679011018915,0.10872161221022611,0.11142969650183086,0.11140542757767939,0.1116116454380123,0.10815485048276541,0.10601309722392974,0.10464715332709605,0.10422181427959763,0.10444639344742815,0.10519344703910845,0.10671110762798462,0.10800072516725688,0.10992626320983002,0.10833481922351261,0.10694504708185146,0.10468296374148967,0.10343463087275301,0.10286349888444156,0.10282557227643638,0.10321980313478861,0.10401142217957947,0.10563868186265835,0.10690084155272168,0.10886977938646993,0.10702865384989994,0.10548889463871923,0.10317721619230162,0.10192635972055003,0.10135089452516818,0.10129007835707123,0.10163334050592025,0.10234158537420564,0.10375623448580813,0.10486630302920469,0.10652963033840253,0.10513263578086535,0.10386711529746652,0.10176716526544868,0.10055262206544073,0.09991292616343521,0.09973444316970731,0.09988349544107974,0.1003251959337292,0.10124985142707174,0.10223867665256271,0.10388248993928474,0.10363972944447766,0.10342848185724482,0.10140110671419125,0.1000021407570362,0.09890022331002196,0.0983387882759275,0.09811704305798231,0.09813463851540528,0.09837673592528666,0.0988335723349418,0.0997317459828329,0.10058217892950767,0.10198901543888522,0.10170214259387375,0.10148981265271607,0.0996501321100566,0.09835460229122074,0.09726811019425925,0.09668628421275278,0.09643312823912864,0.09641670249062735,0.09660091617468909,0.09695683529084012,0.09763084481646478,0.09828110797530136,0.09934799676207065,0.09935571232349294,0.09944002862245964,0.09810088600168887,0.09706578800181741,0.0959607764649965,0.09528769635722381,0.0948817122140405,0.09468981220866853,0.09464632125606319,0.09472514934436316,0.09495885952657483,0.09532528588470698,0.09603587378517216,0.09671114460131823,0.09783572795561951,0.09777361110269168,0.09772906780450835,0.0961951650878769,0.09508003146368758,0.09401019780795342,0.09352305319026412,0.09339715052394904,0.09359709434264199,0.09413110467133036,0.09432131851125813,0.09457552936270518,0.09389280882787306,0.0934220038818868,0.09314717795515141,0.09342690478736113,0.09360467814439567,0.09409573110100723,0.09339312709931481,0.09295950747144856,0.09242322014546724,0.09245594901083447,0.09266226175373873,0.09301006590549046,0.09268237215344924,0.09244915133066044,0.092157991734913,0.09233503609217375,0.09243706672601104,0.09287439765716438,0.09234025245848201,0.09213117695479617,0.09171997442438919,0.09169028083123726,0.09148813095014846,0.09131697862929858,0.09077510951663892,0.09038205767087955,0.09010041490814323,0.09000857516855502,0.08989593756815811,0.08982983295264764,0.08962362043841639,0.08950761754007107,0.08945175398025995,0.08963215473735979,0.09000968152747493,0.09085267135425829,0.09156093537207158,0.0926780466505043,0.0922818871463872,0.09178559199369307,0.09014960139649213,0.08901382799481299,0.08810763439871622,0.08770852737529791,0.0876898157426564,0.08797497900535846,0.08853081408745377,0.08901581058739304,0.08953524198815048,0.08925882572799099,0.08889312004575324,0.08806399151906819,0.08747681425620107,0.08696864826737284,0.08674493616573252,0.08659452572781015,0.08647343565181606,0.08633154713405719,0.08606293033279655,0.0858077179517725,0.085535433563391,0.0853429656887388,0.08525397900807999,0.08537517826620732,0.08587219992057515,0.08751334233987813,0.08954702390546944,0.09346860344263375,0.08972766363591528,0.0873038779145053,0.0856177648785681,0.0854732230211704,0.0850657423211872,0.08484221189378727,0.08550379341778375,0.08635920332241116,0.08755691352468442,0.0859994076821352,0.0841967525988293,0.08261261374800377,0.08219916042241904,0.08258598386414313,0.0829159229572274,0.08312643261255291,0.08261394537825442,0.08265873759311407,0.08337571210671758,0.0856258856650463,0.08545234344415056,0.08545731998688293,0.08293448194097175,0.0821814133058156,0.08148303445174762,0.08081632054947865,0.07963716408589375,0.07904313294230615,0.079133983142613,0.0794788636690862,0.079765569658442,0.07999889071220073,0.08108578727375312,0.08570115909314677,0.08756368601629404,0.08846651197098665,0.08049612370996354,0.07746585256935215,0.0777896445540952,0.07910137300856389,0.08163617216788281,0.08365562365621262,0.08665613984485307,0.07936026468656666,0.07572621735077334,0.07745277660387387,0.08191877722536652,0.08564605978514517,0.0794560206662475,0.07711045891088968,0.07599124612568302,0.07766684845037611,0.08224847818739563,0.07984225125724635,0.07688345901614972,0.07493547574881844,0.07461340984064846,0.07445099125153665,0.07499293640023791,0.07720314556552844,0.07820131377676065,0.07833855539513952,0.07621891936965991,0.07509567347361533,0.07331132674249939,0.07253250552144813,0.07269853962842918,0.07273862206919068,0.07255109581588286,0.07298195794359666,0.07506399275283719,0.07780611182393203,0.08194570910523175,0.07802748830769907,0.07593036366198723,0.07287896981152506,0.07136380483390292,0.07121671111930042,0.07145225046428526,0.07142178284135395,0.07168058551711311,0.07375414602666369,0.07679636885656306,0.08072091466685365,0.0760499489515407,0.0737445764082828,0.07132542645383952,0.07005688113739193,0.07052687872280407,0.07233580148794219,0.07519474969422398,0.0768719493226608,0.07988953809096525,0.07328459365012452,0.06982911676055113,0.07048349820961243,0.07218459403799403,0.0732549214535859,0.07379644758543606,0.07421734409627155,0.0707197538134267,0.07004889588195351,0.0705526680289312,0.06923354737196381,0.06865853047869411,0.0695539205796682,0.06971022318066876,0.06925076633122722,0.0700337247318302,0.07127619388723824,0.07275152874587384,0.07280852458400604,0.07490366280489695,0.07219674081344044,0.0702185303338164,0.0691879188764907,0.06887401139217099,0.0677956285659869,0.06733641167213004,0.06767621170902827,0.06766815372333726,0.06722296669965545,0.06715227908722493,0.0676378452840771,0.06819436139827434,0.06943371431289971,0.07148641891754859,0.0756237953765941,0.07244536213284193,0.0707856574516122,0.06850447429422725,0.06741381422634812,0.06663714984520806,0.06640620591874534,0.06636110772310926,0.06624926912216454,0.06611516032355545,0.06627260340333835,0.0667806862792592,0.06802131838417858,0.0697330639243389,0.07346819236735787,0.07150693421913298,0.07013855823481566,0.0672988545116385,0.06613500641886014,0.06556425609923484,0.06525731207892366,0.06505221183114385,0.06496883243940209,0.06494867154771647,0.06491093298526288,0.06490434656478285,0.06511364343163699,0.0659628252006234,0.06779618952608257,0.07238564311425928,0.07234229912818288,0.07270500315172991,0.06716433797835229,0.0648160738559256,0.06420588176876663,0.06470845553348997,0.06638570152656827,0.06859470273435656,0.07171177911922082,0.06792667184123607,0.06537557948831267,0.06394255967399555,0.06384871860161996,0.06478243948314764,0.0663773085541167,0.06893294511894099,0.06782130230997815,0.0668026404700908,0.06467981375409965,0.06359602712690338,0.06321458290853492,0.06329287821282784,0.06379465036397083,0.06478960939008026,0.06690732647378929,0.06760886059776094,0.06834647750358892,0.06559507486041244,0.06400371495446829,0.06298938093932223,0.06259903931834446,0.06252391803527015,0.06266389863559058,0.06311733777901093,0.06395277526663316,0.06577960413158764,0.06682922807543973,0.06856882201097125,0.06590029552986588,0.06431999785786685,0.0628779220630411,0.06225626152485635,0.06194735918929101,0.06178343061832353,0.06169341633391167,0.06166471396256021,0.06170623089182322,0.061877638261896135,0.06242251574985985,0.06362008083174596,0.06677778814916255,0.06822242442942522,0.07008579387981667,0.06457836188806859,0.06195978905803808,0.06125446716272354,0.06181309024060398,0.06358087142136794,0.06578366814949414,0.06857041642038418,0.0645176423210816,0.062042542498188816,0.060993359584074654,0.06129504196384165,0.06292547838212388,0.064768281622194,0.0668429101475619,0.06378209571010943,0.06175638509959181,0.06055575794815684,0.06031037633901711,0.060944627511534025,0.062290837180003604,0.06470492791808688,0.06498899914095432,0.06499493224050207,0.06208055987251537,0.060484945581588026,0.060037371370050364,0.060520315194686196,0.06170629161640572,0.06327058173487918,0.06567479169380164,0.06355059819212493,0.06180919611449277,0.060223175092225925,0.059601859889822355,0.05979361255447085,0.06074516454091757,0.0627745809425516,0.0637756166318448,0.06460128322244142,0.061728158374016184,0.059852882360228475,0.05895638802112957,0.05902678554138656,0.059707893035244805,0.061007582504250195,0.06363845806864246,0.06360022894011977,0.06280262307968165,0.060221251149680716,0.058979637314162094,0.058742193801528765,0.05907980819907216,0.06009132272804302,0.06183114312159125,0.06439543926068633,0.06226387339770904,0.06029933514708749,0.05865022368740267,0.05814021998358812,0.05830663969195427,0.058976160225578264,0.06076581382962884,0.062328015471052836,0.06372971053356677,0.06088945194121377,0.05885768113599895,0.0577881638005875,0.057599718776597454,0.05767953461839666,0.05809449542766695,0.05935798961916554,0.0608107135706985,0.06269023512565773,0.061360087738521016,0.06019483886357965,0.05868474766709945,0.058106397625123256,0.05772966907715446,0.05772443062293362,0.057874478902503516,0.05827852283720956,0.058792777309110554,0.06000738429392498,0.06052347636900753,0.06155377822747673,0.06019736916746424,0.05930909198867568,0.05805438432556692,0.0574064847491827,0.05697789459417626,0.05686946662022389,0.05689261041109609,0.057207306579058925,0.05780416752364939,0.05921954712330855,0.0602323760589959,0.06150436462682671,0.05981582003502022,0.05858979180742464,0.057287779928180266,0.056774764894042075,0.056483586402016076,0.05650825360634359,0.05668161724137651,0.057342206873589166,0.05821682762755557,0.05985914336218113,0.05995502101142743,0.0599322734393653,0.05811830674444575,0.05708479906633595,0.05630710597612233,0.05606188897608618,0.05595570323728968,0.05615421614327117,0.056515038640274934,0.057556488222670794,0.058563256549604516,0.060165796150779945,0.05930498594300565,0.058326140665658256,0.05671782062248487,0.055898796120314495,0.055431942087198934,0.05536236987737178,0.05546316677426449,0.05595810817147791,0.05665216224157339,0.05817724816841555,0.05875322747027355,0.059527710690637434,0.05793138260429996,0.05688529687572103,0.055929622134362984,0.05550842018630902,0.055328931399578944,0.05536104807707229,0.055566502949511626,0.05602670068857956,0.05660971497156465,0.057492325676065534,0.05759116568079942,0.05791241220560244,0.0570041312050991,0.05694646031318955,0.0562110518585068,0.05610051500455498,0.05540939557277838,0.055082696891159355,0.05459161848111419,0.054424133044685546,0.054377819855113405,0.0548888009344471,0.05599538247471563,0.05848229294814707,0.059877987341953834,0.059385635688938156,0.05627649980076663,0.05406168399392768,0.05319103111266299,0.05324052153015158,0.054033676423203406,0.05564676000443652,0.057942043507229056,0.0583359629052997,0.05684338356206759,0.05455111747192087,0.05372357099544727,0.05405135170707966,0.05524585411501097,0.05593352854146665,0.056477966049394174,0.055222520577456746,0.05423167231978726,0.05382202941316862,0.05462404056386536,0.05720819574067839,0.057986420107749244,0.05826924369034314,0.055469145806694875,0.05444021067505392,0.05441147977537282,0.05443365504231655,0.054184111113857784,0.053291192025826356,0.052612356492552845,0.052288272275858756,0.052356203994866374,0.052825601961850197,0.0535551311089774,0.054888909071491424,0.05583093052853127,0.05772007247943987,0.05750885744938174,0.0572773240724535,0.055737985466891286,0.05391721915455468,0.052631244633742635,0.051893506502370894,0.051728892960386116,0.052055997343164385,0.052984906453975036,0.05462877182831947,0.056587888574832844,0.056668050247367215,0.05568663224602674,0.054089335833705246,0.05393242749040692,0.05363570631639265,0.05358668711658184,0.052778634225883414,0.05222705499838506,0.05175527951057866,0.05159536712499907,0.051755184024787904,0.05258733970902813,0.05444020204486727,0.05755696671430326,0.058120225403753174,0.05608933309976945,0.05299353112229825,0.05185890119229897,0.05187459776084753,0.05266784116246656,0.05323668849303807,0.053671878909952876,0.053275425561338574,0.05301639147650869,0.0532090308270217,0.05407746207332572,0.056078437076345286,0.05539332129071746,0.05458962674278593,0.05266576732371882,0.052136706322488235,0.05246468747418162,0.05312355111789631,0.05357195414890115,0.05318142091532889,0.05265216498917898,0.05258286055329208,0.05294343600234902,0.05403331472361746,0.053861000795923084,0.05374274986781812,0.05249140226811659,0.05190873211191047,0.05166717726051692,0.05210185879936658,0.05291733544332087,0.05378368911013747,0.05393466055637668,0.053228253214021234,0.05221884970176748,0.0518522808185,0.05187793065518068,0.052576846920484255,0.052785084769778584,0.05326271859562489,0.052505213499455,0.052200831766586214,0.051719228540729446,0.05187938130559997,0.05230995594449084,0.05326318022903006,0.053878898343259145,0.053601238032359576,0.05247397172312908,0.05127758911325731,0.05047474008128985,0.050102716533156635,0.050020486566208264,0.05024570241059447,0.05079659738516753,0.05207764171655765,0.05323222927881406,0.05469061813067195,0.053287519767926006,0.052266989704201704,0.051094727760684924,0.05080651257614638,0.05106651976339361,0.05206960945705291,0.05348755235483536,0.054096410461098754,0.05333223808889005,0.05144056413900271,0.05009063814321509,0.04934927240733105,0.04910892580993707,0.049207188225162506,0.04971919176004148,0.050849415503262135,0.0529042932466061,0.05433337798366683,0.05438923586119557,0.05204859511520189,0.05058869685859282,0.04988502874856312,0.050058672932528775,0.05069485443333499,0.052266901640055666,0.052824955498902794,0.053256254061627956,0.051139859633486856,0.049794671630144276,0.04895768218434121,0.048764150158805426,0.04909380084665876,0.050086486131680846,0.051904561515333555,0.05370903744003794,0.05401285734465562,0.05281830155153407,0.05124523983093274,0.05122360080247065,0.05118368106351773,0.051373762438498345,0.0502272669571368,0.049333310693439755,0.0486408900141773,0.0483634390587862,0.048381389889901545,0.048727359790092184,0.0495628039235899,0.051064307872957945,0.053172735041356035,0.05420967372640973,0.052718842064882095,0.051372274528608125,0.05063281514420891,0.05115364919826305,0.05067887094829747,0.050085987112658804,0.04894134455099095,0.048307399036418355,0.04799692794973352,0.04795528759394149,0.048229347615015516,0.0489686380081281,0.05048069725731272,0.052700675233515515,0.05415747316413345,0.053237110834895844,0.05082270514782366,0.05024256507377,0.05034137124376987,0.050870213649025144,0.04974624600800055,0.04870199078707153,0.04791995111853242,0.04759604723817661,0.047567203588476326,0.0479299115032901,0.048819221687315645,0.04998446907193286,0.051983461665992846,0.05251955433199269,0.053259899649615056,0.05205302363708076,0.05088529362985879,0.05006794286058541,0.04926729650081261,0.04868915701128255,0.04809512248578936,0.04772740811877152,0.04752737397677092,0.047576103861348897,0.04804063819358737,0.04909885232442864,0.05125792679053789,0.052582165602544854,0.053049489753676786,0.05063319334122689,0.049056811684627506,0.04835445459758265,0.04832813498008759,0.048790967202074716,0.04928976721442509,0.049861310646720426,0.04964061962696562,0.04917455775328646,0.048591336714428474,0.04851389926921985,0.04939048511697737,0.0505292846810999,0.05200772629334786,0.05058366390957904,0.04935943684983393,0.04810699074562083,0.04767457912346897,0.047721472269658526,0.04835849658528325,0.04950507741378267,0.050736737315184785,0.05091490863901542,0.049731839806294455,0.0483015015818537,0.0475369684133066,0.047356632862273755,0.04779789182979408,0.048545758677126606,0.04995284677167672,0.0501093840010286,0.050207527742409976,0.04880591182335456,0.048119294090432106,0.04777147255930713,0.04831075726760747,0.04948437996896895,0.05083046942960386,0.050979019228318274,0.049434662871948365,0.047831256491468466,0.04680116194866483,0.046314502913876864,0.04610040895916156,0.04602474277251909,0.0460664658372385,0.04625621023884483,0.04678766355586905,0.047836305842863434,0.049946907493709586,0.050971225034739574,0.051536630682192414,0.049218161965614717,0.04803159723310285,0.04779783315934585,0.04867754801286947,0.05046368481145781,0.050728741302979906,0.04979476239260507,0.04747482399486919,0.04612310651243023,0.04558207734736323,0.045643126161152,0.04620596638606068,0.047334303038084724,0.049048135698404216,0.04999868555580771,0.04964715872004436,0.04859747378439782,0.048031588450964266,0.048680096585425624,0.04895535723277352,0.049332505526645955,0.04788955035876986,0.04694891779974138,0.04618033062661249,0.045953959645481136,0.04611827199182766,0.04684705419120145,0.0481068860427305,0.04960894039500211,0.049822606714788505,0.04857571416004773,0.04705851627240968,0.04627745447663189,0.04607411844745546,0.04642877403400916,0.04698445931619819,0.048079267266969886,0.048347533737818346,0.04858284009755177,0.04760302978664066,0.047127861078440754,0.046848967639334084,0.04738762022086487,0.0483348954993055,0.04899924959166813,0.048860371511462455,0.047471912264437706,0.04637460227182027,0.04558781457522628,0.04520915354585184,0.04500709755026987,0.04496005845794642,0.044992168940574506,0.04519021116968171,0.045537172623565686,0.04631418753877814,0.04700662508151473,0.04805314487034742,0.047476843346962984,0.04698776161131051,0.045890183974997806,0.0454069379361533,0.04538555050325361,0.04621053025506212,0.04836062546563734,0.05041662281252314,0.050835838493848755,0.047682319989154835,0.045722119481269086,0.04480475661426907,0.044508762189016775,0.044404448353449304,0.04439207768136145,0.044420934703309954,0.044577747666203094,0.04506020851602905,0.046349927118326875,0.04868986730062844,0.05081628718424497,0.04986687027315912,0.047108248514011415,0.04599868321890899,0.046294828988193405,0.04779418808107286,0.04757272562387011,0.047136305539017646,0.04546256074489585,0.044524873294038196,0.043987368836517216,0.04386503050971605,0.04408662839345574,0.04492680390653085,0.04694041250697791,0.04964352801400289,0.04992506302499564,0.04747601209254398,0.04544056001296057,0.044858635735737694,0.045076490391305214,0.04596352081753584,0.04629415221006088,0.04672279467116437,0.04579387422454308,0.04534385683708617,0.04496711925411754,0.04538376595165315,0.046644827893728355,0.04870198971599317,0.04912864625146698,0.047137019946634204,0.04518703110316743,0.04398308505174312,0.043514282157215346,0.043345063807291216,0.04335806578374375,0.04362819820196101,0.04425711028247447,0.04573537349023635,0.0476843111788223,0.04888952977207432,0.04738024080457622,0.04584612456359136,0.044884603925736836,0.044763437577752356,0.04548533801036074,0.046231120032083885,0.04723984811915124,0.04606071879305331,0.04504768308974292,0.04376338887979732,0.043042397352544476,0.0426806201577603,0.04255281306098948,0.04255305912874119,0.042715736022318956,0.04322240432895935,0.04460706917925762,0.04740560338201716,0.04989212197161401,0.0485825415371583,0.04562441859103392,0.043794014547479526,0.043410374080566236,0.04386423936029639,0.045412196436310746,0.04650719908476995,0.047766000519775226,0.04534768976925056,0.04398501251759175,0.043145925025962824,0.043177913401886855,0.04390897771250552,0.045783581153459915,0.048135352305341335,0.048533262985943876,0.04643666379067445,0.0443445149927234,0.04326383593400957,0.042890304373977436,0.042846416674368684,0.04319823360040067,0.043941687179287266,0.045420472650097146,0.04617851941161744,0.046402332299570866,0.04470930527945146,0.043632818127763345,0.04320575077915269,0.04380794910500278,0.045603217638991736,0.04743435793820613,0.048285561558926146,0.04513718742294134,0.04299583472388003,0.04190356740208085,0.04153856724426098,0.041502885595674,0.04169956737625099,0.04233677460260263,0.04366226158648385,0.045923531016882346,0.0470062299679441,0.04661024082128094,0.04447959939520535,0.04337563021878876,0.043631623345644334,0.044909271569400395,0.04699490082492811,0.04566705765543,0.04449365885830761,0.04289457179759386,0.04227405045271147,0.04197496451109929,0.04207881440378814,0.04250330776149492,0.043646912097278674,0.0452835524837882,0.046872639241820044,0.045838390888467556,0.04436784460795347,0.043630283447637884,0.04429200138699277,0.04593465764268996,0.045834980534182994,0.04518279951473279,0.04283927716359938,0.04165986009908684,0.04116090399929288,0.041298539634169296,0.04222600062675296,0.04424670854555202,0.04676769262981505,0.0462598711688738,0.044109383954351315,0.04243549046382997,0.041613549177246745,0.04137295107892453,0.041486979656334945,0.04212035240013407,0.04348729353644697,0.04502257298960156,0.04571047041363545,0.04435018989413062,0.042869876715140635,0.04210010552843185,0.04190746123231224,0.04233958287991183,0.043597560216780795,0.04505455671131676,0.046486963433805366,0.04413266028049898,0.04260388019805311,0.04174696168567603,0.042591102649683424,0.04444737389305081,0.046713250698531036,0.0453286632288123,0.0430634138801934,0.04150417758319988,0.04100325959352785,0.040957210348412085,0.041381815615088184,0.04252524630892704,0.044213464989870374,0.046257400472842505,0.04398766505974356,0.04209567885908566,0.04072816733724796,0.040434307898056826,0.04094949430034391,0.04270807503032035,0.04584605718969515,0.04697870692497596,0.04406954789391086,0.041895647255169095,0.04103424575414344,0.04088730332618515,0.04079346424125622,0.040674808844100595,0.040629784353869026,0.04107754016519943,0.04244424981786014,0.04530718085592524,0.04598392139816677,0.044477272247675316,0.041481255460699654,0.040171704148836224,0.03999626186402286,0.04045685439282183,0.04187824653230984,0.04386341562775612,0.045841599683065684,0.042742156877268386,0.041227752929271576,0.041518231652758635,0.04392242726768121,0.04679498215214126,0.04490640828177256,0.04187104335587531,0.040175092365624596,0.03961428421273738,0.03962284141335021,0.040062960524572075,0.04154194465301494,0.0435209358893141,0.046255441809513145,0.043520634469660625,0.042106237602853154,0.042066263487379726,0.04332328426900662,0.04517549914349431,0.04426260582869863,0.04228277645236968,0.04059579691767831,0.03988596957541908,0.039710590059171116,0.04001373876137418,0.040747667612046894,0.042386570126493495,0.04350899554085766,0.04414207332444572,0.04296837705002432,0.04166521358072787,0.041275897847034726,0.04131175332097234,0.04251093545605187,0.04308806921042225,0.0441742733899074,0.04236627570836413,0.041480019405575844,0.040593490210099795,0.04061163508076287,0.04076980604848787,0.041737388810297614,0.04208548367618837,0.04279070722541959,0.042011131836825255,0.04176542249142593,0.04206584410608372,0.04296013080678906,0.04369542328317385,0.042248527390731386,0.04111102837083666,0.04016804555620765,0.04011470510910341,0.040261132247214663,0.04119009925174142,0.04166579482962661,0.042686260461446454,0.04143485370055477,0.040633110760366666,0.040059111712452286,0.040929575658304046,0.04320927598950112,0.04474674752251993,0.0434369043628832,0.04055319676638061,0.03906870917999693,0.038485543369140604,0.03827981655206682,0.03823076714743088,0.03827632374712814,0.03846504006484548,0.03909882910569056,0.04066594048386565,0.04347900702831512,0.04416662777618312,0.0422643391468608,0.0399259763238592,0.03922818229871075,0.03970782207102081,0.041591146650641855,0.04473386601899281,0.04428199899263305,0.04306511752426265,0.039975231626609625,0.03874732542703982,0.0384746764626388,0.038897214540745254,0.04001488991368517,0.041785070407946795,0.04373144097699219,0.041464077595298424,0.04007809988555647,0.03906865578041002,0.03904173190959845,0.03951084097399521,0.04094542604612985,0.04283754219119256,0.04384790908190988,0.04326430413027084,0.040343729982169174,0.038951496277004484,0.03831932684675532,0.03829147637942976,0.03875281988344011,0.04019908181837041,0.04233093223644866,0.044363514249290976,0.04178176217442676,0.03985450122625659,0.039242600899993665,0.040571890900955,0.04298285043024641,0.0434116874484372,0.04200102171739014,0.03954239185357031,0.03864521693352494,0.03826645735742525,0.03834818381817259,0.03870917441116598,0.039966781818962654,0.04134548303670131,0.043356485087890376,0.04147611204380642,0.03993749588034378,0.04000644906501827,0.04127780303058189,0.043421390029747396,0.04235541118501686,0.04081554158137625,0.03951243222180774,0.03856914356452282,0.038025325441453345,0.037681216449816306,0.03760087704112787,0.03787533325118933,0.03872414544913087,0.041078149646012224,0.04226811514124066,0.04334703814459759,0.03957168110469194,0.03798092792028171,0.03807897956588604,0.03926137236689965,0.0413723914524465,0.04220694905680456,0.04319968034197288,0.04242446777405871,0.039886761362835234,0.03893983690893559,0.039349032466442106,0.04208721735785076,0.042197929475881614,0.040958814779553473,0.0384383087638351,0.03736625024408134,0.037358688773582054,0.03821007000912877,0.040232282177422654,0.042466181840987494,0.043240290492061885,0.041261145831249235,0.039990848352913846,0.03995662191667251,0.04012201723643261,0.040554116223774736,0.03960419164968689,0.038953621027449974,0.03804359506320772,0.03766518447441279,0.0374811522378615,0.03775876138937777,0.03829614114754005,0.039537766998940994,0.039935798380574344,0.04044885373919391,0.03959674957254637,0.03935505932783559,0.04003476101441277,0.04145216460080481,0.04307408296952448,0.04176245927556548,0.04009610049205838,0.03870318285339469,0.03805820254855572,0.037760797030122834,0.038072419079866214,0.038579072648647614,0.03985158103870776,0.04005771788460637,0.040549621492780435,0.04027328273848694,0.040775018616636655,0.04133420018696699,0.040333277138131236,0.03921703680593115,0.038054301663290234,0.03762810303721941,0.03753662534269021,0.037826972676012954,0.038377922125299564,0.03932429460023802,0.03988502161414818,0.04019367458037503,0.03939968142111941,0.03904470311998822,0.039052565598953655,0.04012003955957707,0.041744928992662106,0.04168165942867946,0.04120458887346565,0.038647702291838816,0.037492844719385576,0.036822270930166816,0.036674269288313195,0.036727450384913284,0.03727270192012216,0.03826322044265173,0.040032340146576514,0.0404392336388417,0.03982047502478977,0.038127480696548095,0.03731008013923086,0.037178381609858646,0.037908981295176156,0.03923196133344251,0.04121042159744872,0.041608275639829294,0.04044432315679077,0.03994146906897576,0.038807406852000174,0.03878425102196357,0.03823506187321869,0.038655407027485406,0.038573055824171,0.03901556497385209,0.03869735257476475,0.03815142664857364,0.03756379766909412,0.03706217697179847,0.036820258474604135,0.036830334981161,0.03726240616617092,0.03850260724695148,0.03988724868411572,0.04157128963701003,0.0397765478813858,0.03883819576334081,0.03886316818382255,0.03999209683770186,0.040968707163662604,0.03922521760565738,0.037860697328281775,0.036900307205645376,0.03675949441355034,0.03722431888924618,0.03863425958490504,0.04055786529090119,0.04100584851736776,0.0396820635228632,0.038163564673581216,0.03780510403396453,0.03822080028705127,0.03960968237913932,0.03964674903380478,0.03961581631901588,0.0377123222826919,0.036679309421369696,0.03603142817199639,0.03582853430521865,0.03583624819151416,0.036173411862536524,0.037068125584356536,0.0388065239592906,0.04063268738282647,0.040934603344309345,0.039132616161932886,0.03805822876470041,0.03770853616705091,0.03835365003626637,0.03910769574670115,0.03936320293880942,0.039378883793304856,0.03823249394051927,0.03810343443333601,0.03753218803826576,0.037723954708438284,0.037417472929165495,0.03785651686042282,0.037695504760269206,0.03822424823989838,0.03816931105014247,0.03807928649738007,0.03785221604796911,0.03720265401054915,0.036725176928076184,0.03626598976610205,0.03622390884450078,0.03675855698153798,0.03834745173446735,0.04094745078987313,0.040650188558245336,0.039217826483726126,0.037358669400773516,0.03695443881483528,0.037709419706515555,0.0388683948847603,0.04018870519312785,0.038531243953428405,0.037326082819716284,0.036433179848286444,0.03639343611404402,0.03701204685121022,0.038365923120129,0.039818283795511354,0.039591455971854414,0.038344124160426714,0.03739010885417483,0.03734063408425951,0.03810799922903894,0.03957334881535773,0.03930145463228869,0.03910438142711394,0.03713046955390087,0.03632162302588564,0.03578514480561415,0.035813535787904,0.036152053663116794,0.03739318915842997,0.03910530991741286,0.040391910673936104,0.03906881672382034,0.036935818116639596,0.036138782698304256,0.036631504009382046,0.038838731533056454,0.040005252456117045,0.04030616162545573,0.036986823581665815,0.035430265763968814,0.03504356007712347,0.0355873106327273,0.03730945504161577,0.03977089724510445,0.04105406857417667,0.03865783459494855,0.03656790987071622,0.035899543017521365,0.035828299281868294,0.03610444188045849,0.03627207094943573,0.0363902390414244,0.03627171891487743,0.036524439162880014,0.03712991002389014,0.038798503425186134,0.03971244379427695,0.03872411755122835,0.0370770613179285,0.0357483899085864,0.03520857628893914,0.0350964955765747,0.03548336368886544,0.036803688733325436,0.03899032917802766,0.04204760588356687,0.03829815276063586,0.03657634161367693,0.035958739254145486,0.036974824416690914,0.03902791463312038,0.04046380172946197,0.03886519296386072,0.03667207869302679,0.035506733826566134,0.03508028296354061,0.03500578311420556,0.035171468625554925,0.03570780957777528,0.036732806870974986,0.03833242606563551,0.03889699397974335,0.038010052926414316,0.03641747015108664,0.035454889322063025,0.03518694201275688,0.03563671804371778,0.0373280785909451,0.04001659263156127,0.042315219959131394,0.038074024604925906,0.0361191648810323,0.0357495137780195,0.03727061246205128,0.03915549720717659,0.03903399105369182,0.036947756681826587,0.03545036439258804,0.0349630304529559,0.03534901137579015,0.03702456001160357,0.03972929679777423,0.0420797145065411,0.03738923596018202,0.03523371452840011,0.03489116244819867,0.03632252052008359,0.038619356130197215,0.04013571173530126,0.038156198669131454,0.036221070076716363,0.035779428430579206,0.03600766079095518,0.03696582397174486,0.03705091035994534,0.037352431686465015,0.03676892145647761,0.037611073860911455,0.03878459332520072,0.0381722767922291,0.03687568895267508,0.03516526905028563,0.0344692573022418,0.03438518148011805,0.034924559578004256,0.03645008066979075,0.03869541894141025,0.03953489594474103,0.03808430759490183,0.03600338747500549,0.03519907383102793,0.03502671027903051,0.03532672857419726,0.035506523204827216,0.035821785791360604,0.0358012256809559,0.03611768349042586,0.03646780140190263,0.037513892339653486,0.038365698362448075,0.03761421416270654,0.03677345707806571,0.03560688063471886,0.03508932314387137,0.03492371468274364,0.03547797289280642,0.03662965185857508,0.03838736425370875,0.038357912114554436,0.037382829165075564,0.036134702516850296,0.036678437554294126,0.037881406020726684,0.040054712485017706,0.03757376250798947,0.03570693797080903,0.034991746749138485,0.03558940540695045,0.03717750066413224,0.03799151666735516,0.03762645997362152,0.035852826284438366,0.03512743061746596,0.03514670934012459,0.0365199942814357,0.03800848190750036,0.03942727481909604,0.03672692050680525,0.03492477834454921,0.034400274715370674,0.0351781061377693,0.03714442228982171,0.038195946292557084,0.03780012088108693,0.03559193140646453,0.034369488355277165,0.03382841738136265,0.0337000130839568,0.03388340013235076,0.034538577299445726,0.03587398589949878,0.03780952781099801,0.037827423174620275,0.036936884809781016,0.03526347977766997,0.03477258881253716,0.03500756157451887,0.03635653430121686,0.0377765968254105,0.03852649959877334,0.03712573277814938,0.03569214385934692,0.035421671912632006,0.03545699262994038,0.03583086230913176,0.0356352923354004,0.03554869155561418,0.03523871384814692,0.035729418699485184,0.03635072914862223,0.037191367305938985,0.036995308683324124,0.03565327925594774,0.0347151874461955,0.034179374856173145,0.034271424874079866,0.034936414672740605,0.03655523518145943,0.03825530140831305,0.03835750102054795,0.03675814302769683,0.03554850249189233,0.03514162973810235,0.035752784608447635,0.03638476253820435,0.03745838401293538,0.03619894894840856,0.03540964760320998,0.03443582495422338,0.03419141927612907,0.034278630157762835,0.03502866546413304,0.03614920831683334,0.03739087468442757,0.03705003593297363,0.03599568541151721,0.03516618267558442,0.03528663374909846,0.036301648152282984,0.0372914748774492,0.03761357693745701,0.03575553373974699,0.03466251635443341,0.033926306899464784,0.033857642360467004,0.03395559450745915,0.034501844169928124,0.03498716244865938,0.036009949231881055,0.03611806938683331,0.036619599810584616,0.036490820215290785,0.03626396202805861,0.03628085539992727,0.0359672793750266,0.036195768225674774,0.03613084084184518,0.03624630776210158,0.03581310356159202,0.035337543762181754,0.03498893210992318,0.03473930846458047,0.034748791738922244,0.034709878561775695,0.034831929517320115,0.03477823839137813,0.03484560530093032,0.03484300486801391,0.03504994229440651,0.03551156405053583,0.03598679878266505,0.03664375840128191,0.036371823708705384,0.036336412698560604,0.035817126043318465,0.035795626480422775,0.03591734636142266,0.03572707907337606,0.03605791984657826,0.03536519886540537,0.03515643859612221,0.03449614296429418,0.03430683955124724,0.03408755678046036,0.03438491458265494,0.0349004040030568,0.03636487677172496,0.037389101358172874,0.037048554179705,0.03580152817282932,0.03453620724762281,0.03449212551588323,0.03518877260457303,0.03677268686771751,0.03649217809054972,0.03575742720183249,0.03445809138047798,0.03383778618047961,0.03382047575965346,0.03416132650782806,0.0348933390019038,0.03510972229130249,0.03527944472846561,0.034736768327589096,0.03481347972004366,0.035563857859057954,0.03654761078597006,0.03729825856858427,0.035629941546834486,0.0343917793820532,0.03362595172667507,0.033644247585383494,0.034392171367451124,0.0358403258935043,0.03741158330021184,0.03631797697631692,0.03492086922708882,0.03381799388760231,0.03351911503150286,0.03379958052638057,0.0346215916797392,0.03592563393416337,0.03644192661907499,0.03606234246803343,0.03497588393378857,0.03427912544669751,0.03412821558955031,0.034436636741088045,0.035140838901650616,0.03607024379533846,0.03610313797403544,0.03641912214856383,0.0353228168899625,0.03547631444119108,0.03484839013273049,0.03497637602403085,0.03458978509448183,0.03481949299356144,0.03522101063292541,0.0358532581675899,0.03635901745292861,0.03561160664377582,0.03498991720081771,0.03430923677862527,0.03445068783106526,0.03473493850265792,0.035792988338695535,0.035658914182394724,0.035646922111255926,0.034613513367548296,0.03410408269512534,0.033811520636369885,0.0339149190492868,0.03425595949063692,0.03459594695870807,0.03478148803717858,0.03453033995379182,0.03422642739733584,0.034011438698735935,0.034212256842782986,0.03486094321068277,0.035816747304342166,0.036448921499505044,0.03573813950593422,0.03486778139259448,0.03417756339497894,0.03402936632517247,0.0345866769311363,0.03493417325859961,0.03573700630688326,0.034763339984618495,0.034249001093302964,0.03344363783766104,0.033247245148028036,0.03329543674617112,0.03409021804989138,0.03535709700402723,0.036950975730407704,0.036541213574539676,0.03482882326368863,0.03374286858163686,0.033345425408703146,0.033777873040090174,0.03440399301822638,0.03551420608840631,0.03499383703726051,0.03459756065073616,0.033778799212695616,0.033607500252660315,0.033993235024277514,0.034578258217781405,0.03516015225942627,0.03455549547199503,0.033839780369438945,0.03306177141334674,0.03275007983593784,0.032728138470848274,0.03321066448946017,0.034236379028582266,0.03575981254511152,0.03662950991521637,0.03558696431837106,0.034840309890202134,0.03436220771133691,0.03473324179751709,0.034734068359825926,0.03482757950233446,0.0344607807959003,0.034449573510684284,0.03484084732473431,0.03510359126149486,0.03546452091574372,0.03454497860001935,0.03399256834502851,0.03356648813229386,0.03376358065882469,0.03451307031102439,0.035058644569118516,0.03565285967324512,0.03454922887907242,0.03393743189903156,0.033241327906375656,0.033244373988885405,0.03337078860543336,0.03421895038692895,0.034626168981659135,0.035330627244826746,0.03467686493856899,0.034080685866815195,0.033651328614212946,0.03341595287665902,0.03368893309356132,0.033954647040449794,0.034675366887263005,0.03501665341764522,0.03527193440517947,0.035273651376743737,0.03478960990356285,0.0344011144614309,0.03384709476852336,0.03351636532137555,0.03342671176233075,0.03351997545937566,0.034045960601894736,0.0341442339931884,0.03446737773658801,0.033742417455062866,0.0334052430525015,0.033020111154720214,0.033253343074603724,0.033794314578230664,0.03506020852495827,0.03553061794605296,0.03528759730244416,0.034677493739578104,0.034060778030683636,0.034289335967497864,0.0341612165404446,0.03405725837778488,0.03341752610683242,0.03306794461144287,0.03287189118603768,0.03340482803303037,0.03436447485367399,0.03595617137263954,0.036144556738373704,0.03458901743154286,0.03338567279620175,0.0326699877546979,0.03272911824610077,0.03324651530457451,0.034470703618363754,0.03521816276712946,0.03532216065000405,0.034292544076625936,0.03337657101053018,0.03308033523110269,0.033090228643228116,0.033466907152157846,0.03360574841979571,0.0337894553779379,0.033603854399484843,0.03385112868398772,0.03418744613929269,0.03486787520971872,0.03521199110444997,0.034374408897636925,0.0336881309694195,0.0330483357573586,0.033108023789632554,0.03375425617563418,0.0345943253125577,0.03581495511710598,0.03443470394548991,0.03369465732865699,0.032643672329280754,0.032315190983964306,0.032121688739979545,0.032330515270320985,0.0326258046524634,0.03340164862986746,0.03377939648082907,0.03426192054286233,0.03385102987098875,0.03358254530046644,0.03363322811701554,0.03385709238420035,0.034580406380432194,0.034669943557031,0.03513615720215655,0.034944233698232116,0.03489247949924013,0.03458995733985956,0.033618943069587445,0.03303307874327362,0.03253615003319027,0.03248701525313576,0.03265537599252739,0.033273442321990414,0.03411402370859161,0.03466828613191223,0.034765956298732054,0.03404090966335561,0.033924631205651076,0.03393143177903665,0.03446466836049453,0.034209295170351504,0.03391633550477514,0.03343118283376452,0.03328542376376978,0.033556523367919096,0.033699860271992975,0.03394023587560098,0.03345285089344935,0.03319748516005041,0.032944738461482354,0.033145642248684756,0.03361555271048913,0.03400467550627513,0.034308294029991346,0.03373901545481327,0.033413102534455445,0.03294335664519357,0.033054295749562534,0.03318811769055061,0.03391248326476664,0.03400431587290946,0.03431613330495311,0.033645643309912716,0.03331186330728204,0.033007572777967155,0.033062760158888684,0.0332395473417639,0.0334660992935518,0.03345241963962453,0.033409130581373216,0.033060666240782875,0.0331028149248496,0.03292648826123377,0.03329528171429604,0.03318308599210866,0.03342342287468934,0.03310189774185572,0.033164048772582486,0.03319025613224803,0.03386566207435483,0.03439442919781135,0.0346215448328821,0.03440249322008593,0.033499884182819004,0.033268462527193905,0.03295632147519015,0.03297113400066525,0.0327775322266586,0.03276641947191762,0.03270024619610396,0.033091720036870075,0.03355455531238981,0.0344850920274514,0.03469917210778981,0.03414286988110661,0.033480778985314076,0.03266268284688772,0.03243532026635204,0.032293280659601735,0.03263915874271152,0.03296792505253774,0.033601807391294695,0.03379141242501164,0.03358529115594533,0.033423622370077566,0.032955743850954726,0.033051638525950104,0.032812719791491855,0.03292293453307507,0.03258863374488616,0.03258291209342503,0.03238906416018231,0.032734317764020866,0.03308572856251432,0.03377664517885989,0.034020891270792594,0.03336564337790532,0.03271942209588597,0.032050093708124526,0.03194126391565443,0.03224833478579453,0.03327497895343408,0.03451471677020074,0.03502796028903014,0.03407567683352711,0.03287322737782624,0.032246243530710546,0.032128138117595385,0.03245412432435286,0.03281747087695772,0.03316422041897137,0.03297022449261124,0.032642792506837104,0.03239326914300887,0.03230624196692345,0.032763776849255466,0.03294083572469483,0.03344953034985631,0.03282109679939996,0.032447624301757384,0.03187354982744212,0.03173669522069355,0.031782265659629404,0.032307536218542494,0.03296404888015095,0.034206635180371266,0.03440907417144329,0.034309982561037504,0.034211070241526496,0.033725046229869944,0.03375077244901367,0.033079113460068775,0.032620127273494434,0.03218831659036505,0.03234868495714194,0.03287940055305087,0.0339590293367033,0.034431704083959395,0.03399997504193345,0.03318318909562696,0.03262499284293733,0.03276390498508698,0.03318834106328653,0.03358074268875419,0.03361686235973747,0.03287345778741366,0.03254727589692758,0.03212406488934101,0.03230588029259999,0.032302804550417,0.03274113762236198,0.03265315135285913,0.03298944927033041,0.032959305509218474,0.03329208500883475,0.033516761913958124,0.03335884999063905,0.033159196828067145,0.032832715580055634,0.03286338298809005,0.03314078865151064,0.03342574012688613,0.033351161602365335,0.03284623390290548,0.032308535275598356,0.031897053185534874,0.03178330224820664,0.031848462368604204,0.03215719881741852,0.03247900547677111,0.03282614242419719,0.03286622487419931,0.03289506375587136,0.03287122029746839,0.03312325548351746,0.03351070874319793,0.03351751633297933,0.03328991792929298,0.03272913872806739,0.03228568334328056,0.032425134080886736,0.032497475837844146,0.033125912141121705,0.032723852177713966,0.032567708370876705,0.03183991240178659,0.03163960441059216,0.031650541834269276,0.03246855412456822,0.033679506790666294,0.03473653149402637,0.03409990799465897,0.03254561598630014,0.03164574163481482,0.03138492508500502,0.03173626659381927,0.03238588411397309,0.03323638577161565,0.03317464813318931,0.03271256388336671,0.03206970833232357,0.03176260483467617,0.03198421662237091,0.03239716301071155,0.03308144538723954,0.033043361987783314,0.03305444612334381,0.032698040844299246,0.032964415412192964,0.033409359357538526,0.03342212412720201,0.03322930999077751,0.03220327496093146,0.031649607884843105,0.031305100288952566,0.031389710203170704,0.03181720898116883,0.032464749828447326,0.03330607223922876,0.032957444720513734,0.032644036725083495,0.031872139249710614,0.03181937751688032,0.0320965200781982,0.03311544401312419,0.03368043957948453,0.03383453092160914,0.03283090787032561,0.03208234586087706,0.03174645328713328,0.031793747730220014,0.0321870283176706,0.03244426081191428,0.03266104300172788,0.032321098528435344,0.032046344666730245,0.03178760842197877,0.03185449221528676,0.032227702373304294,0.03275044887999816,0.033273205082993806,0.03303933111623302,0.032712767357794006,0.03212124883692732,0.032039496050189915,0.03198029107366828,0.0323995574094853,0.03243851892003561,0.032709043293384234,0.03237717171369197,0.03224549613109874,0.032065665882022455,0.032025281441685455,0.03220020643188612,0.03216165947578835,0.03229025649610716,0.03195632520484141,0.03183659307289235,0.031608491382777285,0.031711528345062225,0.03204433113847527,0.0325401493379837,0.03318188569515237,0.03299493428699283,0.03276700218388285,0.03207343868785327,0.03176378928521004,0.031530726260940674,0.03160808508962309,0.03168176255482009,0.03191870495556114,0.03194121015915569,0.03202945527557066,0.03189644767331109,0.03196136186941012,0.032002510721083184,0.03227501623821858,0.03250533792125868,0.03250962755020769,0.03243348745246212,0.03195508196175239,0.03176075172478305,0.03147835312878986,0.031562249223212054,0.031594672867217975,0.031922247252524266,0.031987319349359625,0.03223140519761609,0.03197339001526949,0.03200134421825014,0.03167602021300998,0.031881003180254074,0.03190453234577999,0.03253660951220855,0.032947432094460445,0.033083620540203036,0.03303339463264196,0.03212376372074898,0.03180818698894449,0.031724785535583944,0.03229407359274199,0.033248888279537724,0.03340289637660337,0.03317557816984813,0.03212552842871378,0.03171604970597827,0.031562095050972516,0.03200280798837265,0.032226639551735645,0.03278372370866942,0.03235572634686754,0.032398178075582845,0.03237361173714465,0.03244101775372075,0.03265172107362303,0.032010711678932914,0.03161357225890154,0.031184137933324075,0.031237523910330103,0.0316891376618927,0.03236955743639362,0.03300532809044427,0.03257007372488909,0.031996685671738405,0.03127625296064212,0.031049741341596375,0.031049308159678324,0.03152232591565188,0.03202974735603374,0.03274094131736794,0.03254696978726006,0.03222329007843554,0.03168236310848947,0.031446832437515344,0.03151529690860195,0.03175283202814052,0.03205606607318951,0.03224673442559324,0.032039004765579776,0.032045534775439456,0.03166212890746361,0.031822996832466206,0.031541275969447925,0.03166005011180792,0.0313304847605788,0.031296840691380876,0.031105914517605807,0.031238158507965116,0.0314781972579589,0.032023631916823135,0.03264369336869987,0.03281129626083635,0.03277066367634853,0.032105463125521184,0.03189292872475454,0.03153767535685409,0.03166838012384922,0.03147713677393612,0.03165820442241593,0.03147036933761586,0.031721116549809046,0.03190384044742988,0.03229161981327168,0.03263911327635038,0.0321341403775407,0.031747222542219705,0.03110109013052012,0.030917461777933898,0.030941878820897613,0.03136469060245053,0.03198050878679795,0.032441508043265996,0.03256088281530035,0.03198327357609951,0.03161482969752876,0.031261997361193165,0.03130159639440434,0.0313165255130652,0.03150173673236789,0.03143217194157617,0.03146511720502269,0.03129886694169809,0.03141107230042689,0.031464078173975146,0.03182603682471657,0.03198364873249636,0.032045889729975255,0.031885724523687896,0.031460396400325205,0.031294502529356005,0.031058228041126866,0.031253318983456076,0.03136805181065595,0.03185136283474239,0.03207980509546763,0.03214920475719506,0.032247100118700654,0.03174991960588987,0.03181849158950236,0.03136143484230354,0.03134988251503162,0.03101345350216075,0.030976553214618695,0.030883183339997705,0.03109137425854665,0.031427529647586966,0.031942450405560006,0.03243163530134036,0.03233544461892798,0.032219414314642585,0.031636907763869196,0.03151630858140811,0.031231665497839064,0.031355194192994186,0.031180585463082947,0.03135887506188528,0.03122164927251013,0.03155526933795069,0.03178921130127354,0.03221267082025345,0.03252769338574473,0.031834702661634705,0.031388322976234784,0.030662065250934078,0.030436450048322544,0.030265423389831004,0.030444852912943188,0.030601216395054108,0.031075653790571537,0.031165894264909438,0.03141523551666511,0.03110753941572966,0.031001409903559946,0.031078163479964508,0.03128901753598434,0.031975972452178356,0.03184380648336506,0.031818433567382114,0.031157902157977452,0.030965752499509138,0.031039571887143978,0.03178708905004925,0.03250266621706491,0.032922894479958394,0.03227210930694843,0.03138510617895441,0.03085713414274414,0.03059518657128121,0.03069813652748017,0.03087614577405528,0.03126816647045873,0.031494756043975496,0.031660892990548306,0.03167010156790669,0.031545010717374596,0.031628348660537,0.03150011010085298,0.03160203057418943,0.03135144645263546,0.031397836068898295,0.03125111280370408,0.03151963580980485,0.03166986045527569,0.031855590000887536,0.03184628094568776,0.031367726339352614,0.03110056379829576,0.030714914223191444,0.03074550968518327,0.030799606123502667,0.031159868618783896,0.03140023817326346,0.0314661812086941,0.031357187288943725,0.030911009810960084,0.030772231710048448,0.030516545654222942,0.030686224831875275,0.03063142890988679,0.03090551902631898,0.030737194368242394,0.030859123435371897,0.030683444305127747,0.030974050464350547,0.031287459467399324,0.032149354765885395,0.032481665059801615,0.0325456670444426,0.031845479435731114,0.031280872590933775,0.03100074248050249,0.03087308394932012,0.03098308345091348,0.030969335706109557,0.031049439093594457,0.03101601764925489,0.031012369300102857,0.03108710453489152,0.031124467597829036,0.03134127215489181,0.031371275553006166,0.03165440435934693,0.03159606170108394,0.031779674048745696,0.03162290956472968,0.031368880451960776,0.03113725782839276,0.03073170564860235,0.030617225669153005,0.0304633038280329,0.030640564828852603,0.030833490303045538,0.031239816566589713,0.031528002830323046,0.031549159202205856,0.03149880377542233,0.031155042751741586,0.031080612355762576,0.030911474222113242,0.030979846202968432,0.030912646561474483,0.030985927026703608,0.030902532643064723,0.030954354964732807,0.030909113217371994,0.031007198350691635,0.031023341719764917,0.0310990750487479,0.031070852415692202,0.030994729601958614,0.030899111134099565,0.03075395568914375,0.030724349253144233,0.030661236262606882,0.030758517794615935,0.03077907620363065,0.030919757385465804,0.03095802652664887,0.031025222552453324,0.03112932908496004,0.03111496648329317,0.0313794551262677,0.031208794476278407,0.03143072098398333,0.030985875623772238,0.03099843835441759,0.03057006990031079,0.030648951611125855,0.03049218753247745,0.03087060381126144,0.03103277868012383,0.03155091729778313,0.031718633940567585,0.031459046241690776,0.0312142369194186,0.030614835215427665,0.030405546357509562,0.03022285485188711,0.030370778436423423,0.03060956472396443,0.031117697086954936,0.03133208182047911,0.03169117177062641,0.03136465666049936,0.03135963170464095,0.0312598388893083,0.03107316260852145,0.030983780223208295,0.030567031220820724,0.030415032957928974,0.030324102320037332,0.030568462489819634,0.030956557182289995,0.03135153556324166,0.03141473835352966,0.031072262203685745,0.030698410166203168,0.030384872170548805,0.030394225447898594,0.030494595547475786,0.0308632234076209,0.031004883102676992,0.03125553793700669,0.031042787409916655,0.031039600830489438,0.03089584863764761,0.030904937389195728,0.030911324769014346,0.030754674300602275,0.03064432354425039,0.03042947941977756,0.03037527637095886,0.030449012548123856,0.030579882720071134,0.030911274361656936,0.03083868874161309,0.030944590849509807,0.03049584801629013,0.03040792392120758,0.030112389659461825,0.03022154899548938,0.030206925917128518,0.030542559634379827,0.030615120517180076,0.030922382003738508,0.030869566808353524,0.03099898160918335,0.030978777439016957,0.03113637979489083,0.031211139896202268,0.03124039488972391,0.03118778049427268,0.03088705839506069,0.03077042718748417,0.030490974537812257,0.030511448536817132,0.030463416854520264,0.030549553157579654,0.03057526193300214,0.030428008475054447,0.030308513910146127,0.029994797195416395,0.029871331537575332,0.029688800661335422,0.029725994635641163,0.029743904344985396,0.02995963200226332,0.03014486380068667,0.030506333631099544,0.03075852366362186,0.03121689114687983,0.031256802902475525,0.03159616397683262,0.03137701846287675,0.03115935909578445,0.030923844094189485,0.030483862659340562,0.030395585573927814,0.030376430519682994,0.030713718634400772,0.03104555382701948,0.03128073706053619,0.031019850798590643,0.030594265052340086,0.03022723751779405,0.03007397338492158,0.030265471239457515,0.030577179337896214,0.0311346441487435,0.031202787814584014,0.03125835411949919,0.030797905502420415,0.030585452060907896,0.030396661792280108,0.030384388538481678,0.030414848087115334,0.030454803636541048,0.03043830111480564,0.030494925746964146,0.030433485292892408,0.030602938613250443,0.03052090239417755,0.03068917222741523,0.030513806296910424,0.030579788459484426,0.030429280881565417,0.030557984547746872,0.030584796479089335,0.030807092136859664,0.030856058884418378,0.03085146375276244,0.03072727223025552,0.030504060707827997,0.030419961357102728,0.030262839579487173,0.03033209202128327,0.030218697763156,0.030319828781419818,0.030141478316144547,0.03019735409805399,0.03002661977892246,0.030124478404269715,0.030086816060414936,0.030266619985573565,0.030334000130597217,0.030411076393016788,0.0304131869343764,0.03023584893885717,0.030156981901374866,0.029934847102901545,0.02992582443191327,0.02985178454140422,0.029993401684996368,0.03008765342794048,0.030380734409442316,0.030483776625862644,0.030885275300713107,0.03085787025985394,0.03141268320546922,0.03161547155404913,0.031571576213858824,0.03135464274818891,0.030444747100762445,0.030004493218621586,0.029810476399114022,0.030065303475031575,0.030486225951212066,0.030888205841167252,0.030872357859426894,0.030511519940772534,0.03028531460234399,0.03021617052809723,0.030658394248672147,0.03093438351344082,0.031349600284283644,0.030850066984759696,0.030479622726949873,0.03005654166696312,0.02991762189597652,0.030036350329687458,0.0301851452067133,0.030454466815207068,0.030465313430330303,0.03042483561158924,0.030403522621770887,0.03035640079890847,0.030610883017610203,0.030595534470851334,0.03066889974370019,0.030338931199641185,0.030153319936925372,0.029957998878231033,0.030041323601509854,0.03020658602840472,0.030478514685461536,0.030571351355663346,0.030471892860418345,0.03021512480137747,0.029952308310185048,0.029821962282530663,0.0298050232369482,0.029934374393602158,0.03010043053351669,0.030250175494958398,0.030329677714156122,0.030253833408448155,0.030254421508744012,0.030145255721649753,0.030297034417312935,0.030247729475974438,0.030476930855386188,0.03028040606775009,0.030395190282844948,0.03009174682548371,0.030232094466312087,0.03007922557356216,0.030393190834647973,0.030413826349860007,0.030635071852144032,0.030616452926034397,0.030382507529465703,0.030235231921843218,0.02989526398883551,0.029815427085987334,0.029711943880885286,0.029825447014791763,0.029985788798438568,0.030269673493943758,0.03046837202854511,0.030697448258886456,0.030608983405036896,0.030525665339981144,0.030284906240504957,0.029941645742989968,0.029697459390141255,0.02946758379936317,0.029432540435678563,0.029653481852556115,0.03000075381712762,0.03068395393006369,0.03069097558204088,0.030669950101259703,0.02997881977660564,0.029618829881200185,0.029326952549885633,0.029375631685018114,0.029495759276490924,0.02983903307579977,0.03000938908249314,0.030241522266073333,0.030139834599422922,0.03025353983777648,0.030312580745504473,0.03061729899876794,0.030778524971035802,0.030618783699699132,0.030335705190852307,0.029889177277384743,0.029732761451984842,0.029613328663477382,0.02981967077408872,0.029849111082632166,0.030140552913805733,0.029961831767748276,0.0300501863061568,0.029864675844392362,0.02993384845008424,0.030003364571548462,0.02997227160509998,0.02998050146272732,0.029604021206163848,0.02941131620583335,0.029067421160717047,0.028991496284824343,0.028897133409613675,0.029047192597865083,0.02915477168731362,0.02946709929629269,0.029572094350317563,0.0297784640432283,0.029716634723009994,0.0298417892177822,0.029976420991222122,0.030397911948976036,0.03085079289191056,0.03102567704183168,0.031081077341937838,0.030627954016004762,0.030622399185802757,0.03034684404835299,0.03058454845480513,0.030236550654534823,0.030223696626981492,0.02988629418036979,0.0298073803119871,0.029824470314403263,0.029994873835215156,0.030279424803590676,0.030547996159312366,0.030565839868887376,0.030597711561846545,0.030303064513959935,0.03017188988915811,0.029914938637184158,0.02980986294238115,0.02970610254146206,0.029775636355477367,0.029878371426619314,0.03011816899687927,0.030212329624782118,0.03027702053816601,0.030107787758722346,0.029938358229185905,0.029778350479274924,0.029737643207088715,0.02976259102102682,0.029957828152868744,0.029983120638004998,0.03019279268851046,0.02992915616298503,0.029931667641443276,0.02957637566064378,0.02958483958996033,0.029412315744380267,0.029608387712479013,0.029618346753700807,0.02993996666557262,0.029963448646037515,0.030109472024449253,0.03002169675738033,0.029892446963873068,0.02979494944898901,0.029700319923211982,0.029763324085938028,0.0299125039052648,0.030158530783065584,0.03029205792146809,0.030377475893993717,0.03009849726204275,0.029961531745415045,0.02972942650361348,0.029651981448866608,0.02961045007522024,0.0294449351283469,0.029325314969186608,0.029050209087972862,0.028906971278456838,0.02880246761533184,0.028854839261422224,0.029137187866930737,0.029437059888373873,0.030112257522161682,0.03006240545287567,0.03031611650928795,0.02982265997187611,0.029808306143805866,0.02975981475150616,0.03011154107824236,0.03033738601012424,0.030601143334643824,0.030517100724485664,0.030394164693887542,0.03019706769900557,0.029950141673317367,0.029777772709955443,0.029452598682313345,0.029343463241963227,0.029227225971332493,0.029408909101704843,0.02978479113992746,0.030203910549894762,0.03061951947706107,0.03027368821647171,0.029933724329736767,0.029410054866886685,0.02924681389891501,0.02918946136082383,0.029451747685990615,0.029675866159379043,0.03005813424836079,0.030007868623443228,0.030020624058538923,0.029760654590826326,0.029714744514628785,0.02968663440053889,0.029693631191958995,0.029693197021556164,0.029552387334778375,0.029457778076412026,0.029378706160049894,0.02942301224380533,0.02959001976647142,0.029753138119400144,0.02989844903277921,0.029830091956853134,0.029681472825723317,0.029490755230192563,0.029373218046376298,0.02935622360827782,0.029397419570026947,0.029470888294469692,0.029473938110442122,0.029448194728355803,0.02932810181919338,0.029288275509572352,0.029213811454071082,0.029314533531833203,0.02932387769513436,0.029489430924833252,0.029421149778972446,0.02947479788668402,0.029312312164962266,0.02931861973126928,0.029223763232637735,0.029303193332434183,0.029268419015543935,0.02935887781589426,0.029246251856680533,0.029273394974987262,0.029087130447742204,0.029134783845338436,0.02898247060196232,0.02913292430590773,0.029022633927337126,0.029248988900713143,0.029158243053274382,0.02941668082897606,0.02953789875307197,0.029875400515714585,0.030582636039199234,0.030628710909686108,0.031158089217694133,0.030460506834787134,0.030190262171378515,0.029792518453775278,0.029788562929621374,0.029814411628615603,0.029970512026255912,0.029968638879065805,0.029956878605323995,0.029822915632733593,0.02974795549199266,0.029734884722269688,0.02994973710476168,0.02995312570257315,0.030277661376096093,0.029815294915746554,0.029683767654695825,0.02914367618380308,0.02903441848540709,0.028906107897528704,0.029240613127375983,0.02954093177254185,0.030207368649598124,0.030252352405404036,0.03021261365591696,0.029774428461467203,0.02944583605732259,0.029275358938170015,0.029249909919459565,0.029343989233617068,0.029455055076257272,0.02954370958880475,0.029549107770034076,0.02950194783541305,0.029441126029783642,0.029379226346744346,0.02937369192400872,0.029314034533730743,0.029330411351675998,0.029259038751725166,0.02935945293539282,0.02936821574231313,0.02965659263386625,0.029698055669357366,0.029958313232766584,0.02980884611919845,0.029682350195486772,0.02944914071685416,0.029210449474614326,0.02913397064623215,0.029076881932038,0.029153078530710058,0.02924735839442809,0.02924453423317462,0.02933260710996782,0.02910160250447043,0.02917358694009185,0.028922322861749415,0.029085157624593943,0.02892541912069333,0.02914222349643104,0.029031664784911024,0.029271199176708906,0.029291933544819883,0.029679802747575337,0.029868975294785115,0.030181410648115664,0.030081075424110953,0.029830949967184855,0.029508774476874826,0.02917724093057922,0.029032660788510335,0.028887791048722872,0.028920398098168584,0.028939400740852106,0.02910185802981822,0.029264919489995378,0.029468730104861517,0.029675147956520185,0.029704604406583304,0.02978675561153696,0.029548956257585187,0.02952293360045594,0.02920801889430335,0.029215393218093133,0.028998725654388807,0.029135200291248442,0.02908709434861276,0.0293621298569293,0.029434880964659293,0.029630562639602478,0.029610056812295473,0.029476120787712067,0.029319471041696864,0.029113132030851037,0.029037660330674293,0.028998227709516836,0.02906279464764933,0.029166409693482654,0.029270222568157672,0.02939055072095871,0.02942876436056194,0.02948469040780782,0.029468787364979408,0.029463631960724216,0.029372524379926712,0.029306367361466523,0.029118803732495237,0.029044019395778043,0.02885653912990637,0.02884195640244521,0.028737188122320862,0.028792772411927237,0.02878219690686033,0.0288560085066631,0.028914331428446575,0.028945304502835202,0.029045623137455547,0.029059096311464958,0.02918032101026772,0.029265314522389486,0.02936711222388234,0.029450933365908268,0.029458652258427722,0.02934267209413932,0.02925927540136971,0.02924370005792332,0.029269495599664214,0.029716066714004088,0.029643605440954048,0.02986208028612329,0.02926247365102864,0.02897235847232289,0.02858311599409058,0.0285730294772505,0.02864089459407776,0.029016405030786424,0.02928101145598462,0.02962621404768744,0.029567495650709527,0.029606362603921566,0.02951935224624119,0.029585679216975153,0.029526911763075796,0.029290795086844047,0.02901475043646942,0.02867751400413267,0.028553733674440404,0.028509328413806826,0.028707532145918493,0.028942528696609963,0.029237745766943227,0.029421993851567116,0.02934729247781123,0.029374512562461774,0.02915243234237496,0.029239669983304115,0.029030124716090705,0.029056594529171507,0.02879401591323281,0.02878915727981723,0.028635235170630526,0.02879920771667127,0.028837987820258922,0.029187014324790837,0.02926623824517785,0.029503109684220354,0.02942602531448041,0.029321943780782598,0.029159485449637177,0.028922210481711504,0.028800677374841783,0.02865272806668778,0.028648511231245892,0.028679269132903792,0.02884193097039849,0.0290429078042468,0.029327557057754913,0.029471161886085583,0.029660333512057144,0.029576768889571205,0.029500527424581705,0.029388627179190926,0.029005974466983147,0.02882735744438748,0.02840176022590289,0.028288894674257607,0.028173424175957293,0.028382315516387115,0.028836484566902073,0.029303759361231793,0.030020046863509207,0.0295362218513152,0.029419044951076306,0.028906299187275785,0.028916648858446355,0.028952753628461034,0.029235550801532947,0.029384510065724876,0.029501113825860688,0.029501363399161998,0.02943033730879317,0.02933925020978526,0.029167245066881873,0.028951720265765164,0.028699512864528078,0.028541066015424676,0.02849272995448363,0.028630042329423677,0.02896180671462741,0.029292575015850007,0.029630689499212888,0.02943063809815088,0.02926452074111732,0.028855848344499016,0.02879250109006429,0.028673078320406584,0.028874127379534906,0.02884703749447329,0.02906914771088067,0.028901151013441078,0.02904560918416918,0.02893304189286798,0.029139036381984288,0.029180783581472178,0.029207827024089052,0.029088109110691752,0.028807007532105355,0.028623367067746916,0.028505244129057975,0.02857973595965155,0.02881013944332797,0.029104499157322685,0.029351969809927717,0.029409325683403965,0.029233905434086976,0.029105473247048045,0.028962510499930167,0.02890012804966161,0.02884890990622071,0.028638692037565555,0.028469174655406174,0.028234521094418465,0.028136905451296698,0.028206949237078914,0.028360261685371067,0.028815109130786887,0.028889356435469433,0.02914479165886893,0.02874848152073145,0.028612402722689376,0.02839758670459591,0.028442058729704248,0.028452883278827664,0.028536696575117454,0.028371684679628792,0.02826544579165231,0.028020633168812183,0.027983542038684365,0.02799435870577212,0.028322485812182677,0.028752675604772977,0.02955258104573879,0.029834057924344935,0.030248905056401626,0.029820308777158553,0.029663054348307384,0.029342377333503117,0.028937966573995198,0.02857964559195619,0.028352328612355274,0.02841443385424808,0.02883561483824298,0.029423653034011066,0.02994234284119814,0.029646290472276255,0.029231127686708682,0.02867224942459866,0.0286212414302165,0.028598100589856377,0.029006405573333862,0.02899357362539829,0.029260422212506538,0.028967244321280124,0.02900152356710493,0.02891979098488827,0.028960087636596302,0.028920532326791676,0.028798300514849856,0.028669645916882893,0.0287058631151805,0.028849565157910467,0.029176606831191006,0.02931349924669264,0.029235285958719406,0.02893424331688524,0.028639381299885604,0.028494793827381654,0.028498343321002793,0.028610387290345214,0.0286823828951214,0.028715250703687998,0.028568510561652435,0.028515841820887837,0.02840844516151619,0.02851110267833115,0.02859497242476788,0.028737087172791873,0.02882701824943451,0.028830107232452835,0.02891111466379694,0.02896063499058374,0.02918780723446435,0.029129901048387308,0.029315890494811706,0.028863031416578394,0.028869334966747606,0.028439830697963745,0.028486784386276512,0.028271474815940324,0.028464427521324515,0.02841357005477789,0.028758864302835453,0.028817406915438992,0.02922140320476647,0.029269420892099343,0.029383996027545253,0.029152499770428112,0.028867216662659786,0.028564483735571,0.028351952974244074,0.028294124070661356,0.02832160937988924,0.02849717699840797,0.028643383178314066,0.02883394863219295,0.0288633405303089,0.028847552829931934,0.028781928451781624,0.028660982970345018,0.028637641698590958,0.0284951049315909,0.028512406445327435,0.0283830988848626,0.028493873717659542,0.028443385822284596,0.02872749704084848,0.028750341804753284,0.029112511469603704,0.029141671089675802,0.029191321791616688,0.029111755125831276,0.028669589433731723,0.02848442792867792,0.028084452774325523,0.028078580617385124,0.02793465958961774,0.028137068275440512,0.028109855129357996,0.028285945065179653,0.028215396215794043,0.028156109597641744,0.028222610408550033,0.028128856018453045,0.028462131370555293,0.028332538482527793,0.028528539120754565,0.02824639273852734,0.028138933780571005,0.02791303872337284,0.027844979419986062,0.02775477433721488,0.02778896077300782,0.027718507595678607,0.02774165709995489,0.02763776000220737,0.027670071976586816,0.02766695799061733,0.027901697169911994,0.02819263249053331,0.02886220332314159,0.029341923660332267,0.03003621414466397,0.029846612436047866,0.029640807382625572,0.029092547435604573,0.028583467864956566,0.028189248271562405,0.028027394913171636,0.028184967858912616,0.028689142904706567,0.029349600251216437,0.029726965491351943,0.029317160887919292,0.028829389445284397,0.028324670504227392,0.028338220531409358,0.02836920921208271,0.0288153635128302,0.028834619628142707,0.029058174333996836,0.028826013801948828,0.028798330524581493,0.02868247396121799,0.028683140705337222,0.028615448057221455,0.02861375200758741,0.028606283400861323,0.02869965341060135,0.028806325386682888,0.028855251820015356,0.02877474936277026,0.028595722186936616,0.02839101880339944,0.02828585259082498,0.028266577400245,0.02836898314278128,0.028487972723216605,0.028591473520873573,0.028591570435931003,0.028567943753322902,0.028484931484378136,0.028535903672227008,0.028537908266303334,0.0286603109482135,0.028628854995647685,0.02862773094383068,0.02847945871083013,0.028463663309319313,0.02831724518661294,0.028432998702435368,0.02826921853105954,0.0284182182853866,0.02817542355406354,0.028287231491408094,0.028081312497372085,0.028260192963839158,0.028214654258352206,0.028510475553131024,0.02856307764722695,0.028803779520653005,0.02877728290071141,0.028816573790887798,0.02876345464464196,0.02866666584455426,0.028684860513567598,0.028470657452876257,0.028489826880764037,0.02826128085409487,0.028245627674539198,0.028095241115704835,0.028030920114560202,0.027934076743983502,0.027877443387005,0.027906741491493307,0.02805943203924588,0.028404983819140577,0.028760087495653872,0.029170050751122847,0.028925224254982267,0.02876296474374549,0.0282515001725594,0.028029473231596005,0.027841268951563622,0.027875731438100543,0.027979483875886575,0.028285223766453316,0.028507975041276837,0.028825761488432564,0.028759862511743433,0.028693007358941796,0.02845693841718978,0.02828520729642473,0.028192713032512466,0.02813050128661743,0.02816694407722151,0.028186076216912468,0.028268118447501347,0.0283458525596156,0.028399966368836006,0.02849663354360398,0.028430138662048993,0.028425253826971277,0.02823397982551267,0.02815364439242178,0.027994716778910876,0.02804380467954198,0.028033288187766757,0.028294321889047555,0.0283061670610862,0.028520237867038434,0.028305870380581563,0.02828851077159729,0.028060882173530578,0.02808613710772985,0.028036794582613718,0.02815778176283607,0.02814819498286107,0.028190092765385807,0.028127647381978284,0.028113681908415553,0.02814767317504597,0.02820913309474214,0.02837043945876333,0.02839831913968383,0.028461805023654186,0.028353752091766223,0.028284360755708227,0.02819215858674859,0.028145178242774776,0.02805980345600472,0.02801760681035448,0.027839187609254447,0.02779025156025457,0.02759734638982498,0.027607935688280263,0.027489096699309972,0.027574637976291828,0.02751235624216266,0.0276160598971824,0.02756312729041097,0.027637670881545714,0.027623628090329182,0.02771647823814956,0.027818697944856113,0.027991760019184856,0.028147819418254106,0.028332509836680377,0.02832248353313915,0.028447814216169466,0.02842905379459253,0.02859379369663563,0.02879617351336539,0.028822179533602478,0.02901340301114406,0.028689757175190615,0.02883992832250242,0.02834555316783025,0.028418859140887074,0.02801822590252546,0.028053731808495956,0.027963815431926487,0.028151301846245886,0.028266523308895473,0.028500547615243933,0.028515052262738323,0.028672771074327003,0.028610761068814626,0.028579193252879928,0.028405314434646545,0.028161948070090776,0.027972839356742406,0.02785375485872329,0.027873386004426494,0.027999450813890037,0.02816497748929881,0.028365041557026537,0.02837662053413578,0.02846662105467167,0.028284388773811536,0.028311778550179658,0.02809895133807915,0.02806643103032558,0.02786934236646023,0.027870608542289687,0.027785538139505905,0.027970986840986225,0.027999072892571423,0.028268334236155473,0.028188364800243476,0.02826538171574781,0.028087948887331512,0.02808024291901457,0.028039070438722,0.028091263952246554,0.02814848973459816,0.028115469029562225,0.028117180875421536,0.027982939932539894,0.027998404156297858,0.02793323266398045,0.028007463578810583,0.027986598992666947,0.027978113530745714,0.027904267210413638,0.027813505616526953,0.027747225137891098,0.027709590236555823,0.027698758753082475,0.027722804970460136,0.027740379913417178,0.02778984387863133,0.027912858109748823,0.02803208966053723,0.02838422611326807,0.02842967300168606,0.02870610087187712,0.028349618751132222,0.028269673232654793,0.027915497063571784,0.0279025027274865,0.027790504552068166,0.027917308401278155,0.02784132742878279,0.02791879113727056,0.02775313258219454,0.027795258402683584,0.027702154259151002,0.027820135358857672,0.027891806581912766,0.02797117552332046,0.028125614647315528,0.028038140246617285,0.02814649757807854,0.028070470362519192,0.028063896145357058,0.02801538817281352,0.027881996552215682,0.027694938863371665,0.02756858126850044,0.027473919884468012,0.027582883603382773,0.027976885843456027,0.028332709620000125,0.028954741171606728,0.028550403995715703,0.02829274781162916,0.027687586061530843,0.027508624889665673,0.027388529395689382,0.027583659144636632,0.027693911034495932,0.027934533758477494,0.02790470545879554,0.0280055335739149,0.0280404222013771,0.028330036526616805,0.028505901472072475,0.028576341417963887,0.028248108629501063,0.027826910552352157,0.027468849264228504,0.02729227231518688,0.02729156815232344,0.027427387746558663,0.027622192620536216,0.027791622918538914,0.027886808469876883,0.02785438373737522,0.027871432429912375,0.027876336282910134,