{"architecture":[["Dense",[4,20]],["Dense",[20,20]],["Dense",[20,20]],["Dense",[20,20]],["Dense",[20,20]]],"weights":[[[-1.7351888,1.6303488,-0.18405595,1.6934192,1.7509407,1.0415957,-0.025706924,2.0028348,1.9989883,-0.3851858,1.1112878,0.9889413,1.462011,-0.9871278,-1.6291828,2.0660346,-1.7271065,1.4124478,-1.4527454,-1.0054588],[0.30569327,-0.17277686,-1.666672,1.5941449,-0.6204407,0.8923311,-0.90168065,-0.72559416,2.3355346,-0.50532573,1.5140446,1.0254343,-0.8755297,-0.5236929,0.20162952,-0.23452882,0.076235056,1.2418741,-0.017332217,-0.44248444],[-1.3484418,2.326188,-0.026531126,1.5757972,2.019927,1.4720699,0.14829768,1.8480861,1.4168946,-0.9664745,1.3624686,0.49620742,2.1447568,-0.97579443,-2.0983038,1.8833729,-1.7655941,1.7573093,-1.7138147,-1.4777875],[-0.84840876,1.0673925,-1.2249852,2.1383536,0.82087296,1.515521,-0.14449494,1.4788826,2.5818095,-0.92235786,1.2736284,0.91928875,1.4985337,-0.74430585,-0.7761853,1.0787499,-0.12714607,1.7125504,-0.43919793,-0.89183563]],[[0.05726053,-0.18490882,0.0029601452,-0.2651091,-0.26646134,0.40466708,-0.11012207,-0.27934614,-0.7729076,0.5317048,0.6793273,0.40874884,-0.49128824,0.27449864,-0.33890077,0.2376513,-0.28852355,-0.1630193,-0.5158163,-0.17521077],[-0.22385369,0.3429614,-0.353184,0.17322388,0.73275065,-0.5080411,0.54976475,0.27502272,0.8627126,0.14188203,-0.15350862,0.3264251,0.085498154,-0.43913713,0.29710206,0.074370354,0.2697898,0.09080172,-0.0048458437,0.008316371],[0.69336265,-0.24832416,-0.16608304,0.31685323,-0.08940721,-0.1883257,-0.43512174,0.08447394,-0.39952108,0.6841685,0.63983405,-0.11039777,-0.6782863,0.14695427,0.5370417,0.4761422,0.5258979,-0.47118247,-0.06512669,0.5363378],[0.13705923,0.69694495,0.020455612,-0.015903685,0.16063121,0.14349097,0.31915736,0.051077887,0.4561732,-0.42993316,-0.5467625,-0.14589319,0.8252284,-0.29676595,-0.33197126,-0.3810194,0.1259534,0.48696604,0.072441265,-0.46612975],[-0.3350348,0.28765428,-0.036274076,0.2186971,0.55381966,-0.4161486,0.083677806,-0.31951082,0.64410126,0.21436094,0.26233298,-0.22182734,-0.1459361,0.2848759,-0.15729372,0.19211607,-0.3053232,0.25240147,-0.029111631,0.31383088],[0.07320177,0.5766925,-0.08529264,0.23011273,0.5139861,0.21521203,0.18581545,0.14236398,0.01730141,0.11037191,0.09049339,0.2006648,0.3155452,-0.3801091,-0.030952645,-0.14527473,-0.017275972,0.33219928,-0.45377252,-0.11759069],[-0.050841536,0.20951967,0.11137903,0.2638665,0.1972636,-0.14329386,-0.35010496,-0.24728842,0.07974756,0.33455712,0.55505294,0.40847194,-0.3692987,-0.16713436,0.07714941,0.3985705,0.41353834,-0.40850976,0.044068903,0.51082224],[-0.2539962,0.59673125,-0.14450793,-0.1303618,0.35133567,-0.4920542,0.37757388,0.21044159,0.62072974,0.2259043,-0.09492778,-0.07425736,0.18736535,0.071061574,-0.19667251,-0.08600362,0.01936852,0.09879119,0.14352183,0.19527027],[-0.32903326,0.3884926,-0.15189765,-0.4997317,0.09895533,0.4878602,0.7120896,-0.59057313,0.6134682,-0.27196625,-0.5662854,-0.3052463,0.82188123,-0.02631537,-0.28699362,-0.3575873,-0.50238764,0.72134024,0.011416286,-0.17298116],[0.35502127,-0.7410427,0.3570502,0.3035041,-0.08898224,0.34749526,-0.11389453,-0.24108744,-0.54860234,0.2928269,0.26202804,0.03235751,-0.541261,0.08093759,0.22267814,-0.031330198,0.35565096,-0.082774974,0.19286047,0.60861695],[0.08873254,0.10255936,-0.46431485,-0.4548203,0.31775564,0.124288335,-0.14253081,-0.39869615,0.29340667,-0.2000714,-0.41657227,0.2647983,0.5103659,-0.019884372,0.036291502,-0.38384157,-0.18029137,0.2995238,0.073489964,0.05862465],[-0.0494702,0.0008422158,-0.16398029,0.1983265,-0.025386315,0.33839586,0.3251384,-0.17642884,0.045102086,0.031089291,-0.3514229,-0.35093746,0.2422398,-0.49074426,-0.03021366,0.39018294,-0.03725672,0.15330248,-0.16022602,0.12611647],[-0.15027831,0.3758845,-0.17964517,0.36762157,0.7291984,-0.58420897,0.57924736,-0.11007625,0.65138644,-0.28571147,0.31538177,0.13450779,-0.1378617,0.1909186,0.22713177,0.14448842,-0.30412257,-0.2414222,0.13973872,0.041009508],[0.78538805,-0.6397602,0.02811451,-0.12746967,-0.12217488,0.07065448,-0.32199925,-0.38221964,-0.47497207,0.65952045,0.6571608,-0.16008244,-0.20395127,0.39841005,0.072161086,0.21348372,0.11536953,-0.14288096,-0.069643736,0.42418334],[0.81618357,-0.9434287,-0.20444094,0.06779606,-0.8728218,0.70182997,-0.76263714,0.092101015,-0.90472674,0.63670397,0.11445258,0.3689932,-0.4329396,-0.2780844,-0.13368236,0.4070152,-0.28734863,0.026060158,0.05065712,0.13026796],[0.08108801,0.5258381,0.08026879,0.3202254,0.6138034,-0.3545089,0.41429818,-0.13970488,0.2099214,-0.10182299,0.23318362,-0.38491553,0.19641156,-0.05574718,-0.18455699,0.27170807,0.030002967,-0.1999456,-0.12596382,-0.2890586],[0.23476782,-0.090792015,0.011797392,-0.38602212,-0.58194894,0.46785912,-0.21992108,0.010287517,-0.5261442,0.5940978,0.459095,0.054751415,-0.2391473,-0.32716727,0.027440371,0.366612,0.2630185,0.23380288,-0.41253096,-0.07340633],[-0.33752495,0.03735284,-0.19784302,-0.34792343,0.20622641,0.4692563,0.3161758,-0.0868479,0.6609728,-0.19032021,0.11451525,-0.504355,0.5498718,0.12533444,0.013975076,-0.22882836,-0.09004546,-0.053945914,0.09743476,-0.43177795],[0.7369453,-0.43148568,0.05581881,0.17173918,-0.3895901,0.30821517,-0.22309607,-0.44385237,-0.75163275,0.21763356,0.6305557,0.1268342,-0.044095192,-0.046925537,0.049036182,0.054569043,0.21999845,-0.09368315,0.053805258,0.15673643],[0.4331439,-0.38328326,0.06791399,-0.11890355,-0.60362285,0.3646916,-0.78684086,0.26296377,-0.28285843,0.49008915,0.837885,0.62959784,-0.026923317,0.029662017,-0.12270629,-0.03075854,0.27598396,-0.3779846,-0.1558228,0.028986633]],[[0.10601415,0.5450384,0.16837117,-0.25219065,0.1062718,-0.34488422,-0.18667981,0.03538948,-0.24666844,-0.91976744,0.0998029,-0.285579,-0.31711087,-0.2139006,0.91595745,-0.46427608,-0.39427236,-0.062437404,0.093016006,0.06645623],[-0.22190692,0.12184443,0.2307702,-0.1989126,-0.32950416,0.19315428,-0.16565098,-0.014888023,-0.39142624,0.5793946,-0.1490689,-0.11463246,0.26592097,0.04499401,-0.5346899,0.25578734,0.2255116,-0.025592078,0.077499665,-0.30532607],[0.3357233,0.16151136,-0.2503673,0.09988714,-0.30329382,-0.15620561,-0.18411073,-0.060043026,-0.03821961,-0.18637595,-0.27569783,0.26354927,-0.19352855,-0.250584,-0.18984096,-0.47447273,0.16545826,0.08703962,-0.30290717,0.065075025],[-0.12592232,-0.33651662,-0.3664296,0.25358364,0.026942786,0.24047278,0.094355546,-0.5009093,-0.45661348,-0.1778179,-0.3630023,-0.44747385,0.05866551,-0.2753489,-0.06717186,0.096199125,-0.10241485,0.2648397,0.14496334,0.17427365],[-0.43670374,-0.11091405,-0.23505951,-0.10018965,0.25090358,-0.19766943,-0.12812647,-0.44380984,-0.21619917,0.608201,-0.4126006,0.16184394,0.31604424,0.4019334,-0.35565484,0.25754765,-0.40066516,0.27554342,-0.25136846,-0.36022592],[0.39403677,0.6028082,0.30199447,0.037126575,-0.101536326,-0.39300546,-0.28481922,0.03367332,0.14895558,-0.57184607,-0.1092676,-0.61524886,-0.19423239,0.2491222,0.59840685,-0.45024577,-0.5350947,-0.23728274,-0.11853513,-0.36532465],[0.1806746,0.15485457,-0.023255453,-0.020795248,-0.33295333,-0.46551216,-0.33827698,-0.29358897,-0.29420307,0.5265825,0.09457958,-0.3313592,-0.04226762,0.4912642,-0.5513002,0.26155514,-0.22118084,0.2880377,0.04407494,0.11089372],[-0.22386444,-0.14208776,-0.06775423,0.31949118,-0.054886665,0.39203036,0.2819399,-0.27709302,-0.07999117,0.19702606,0.2460488,-0.17663015,-0.18303108,-0.5094187,-0.15417805,-0.30657747,-0.07373332,-0.123131365,-0.3711034,0.1056124],[-0.12537763,-0.58973163,-0.42119336,-0.34945056,-0.19871348,-0.07925064,-0.21424015,-0.23615652,-0.18829991,0.5578221,-0.07601304,-0.2288995,-0.058917526,0.3398725,-0.29626125,0.7410648,-0.2937377,0.07370355,-0.3514041,-0.06471754],[-0.31580597,0.11731563,0.15683213,-0.24921297,0.17580315,0.023471998,-0.022120696,0.03957926,-0.42836687,-0.53656405,-0.15024522,-0.35827988,-0.093636595,-0.68736684,0.634955,-0.5361977,-0.48194525,0.17101115,-0.3327829,-0.31741408],[0.1028928,0.10958518,-0.35106656,0.037843797,0.17200774,-0.14073232,-0.17152713,0.09955552,-0.24993454,-0.24693258,0.29839844,-0.42856887,-0.023978915,-0.58307004,0.5498046,-0.15783843,-0.31842175,0.03998313,-0.33015424,-0.48805457],[-0.21922214,0.10200897,0.16956942,-0.4149767,0.15907894,0.26521635,-0.010083833,0.19701786,-0.19577065,-0.21303561,0.12864465,0.113632336,0.38689286,-0.27354723,0.25894487,-0.53411597,-0.10855725,-0.20642582,0.112828344,-0.04846505],[-0.12862442,-0.17042726,0.3169437,-0.24308869,-0.44173113,-0.24347001,-0.1636602,0.28902924,-0.3155277,0.3365366,-0.73267037,-0.22967066,0.06494117,0.60983557,-0.58770937,0.30084136,-0.05486148,0.05344426,0.07976214,0.08631238],[0.021204384,-0.30860656,0.12153178,0.06632136,0.016418098,-0.046199076,0.07142311,-0.21263039,-0.33329043,-0.3555689,-0.18114692,-0.23077062,0.1581252,-0.4317737,-0.04272096,-0.0023811348,-0.039861266,0.1507908,-0.054293454,-0.16968073],[-0.22394913,-0.25861347,-0.27179754,0.093040265,0.35049123,0.39370114,-0.2645344,-0.4423934,-0.47026503,0.12112108,0.32010224,0.21455747,-0.21374601,-0.42323154,0.41101068,-0.22942771,0.10053255,0.31122354,0.15664499,-0.12306025],[-0.09007561,-0.4316301,-0.35467175,-0.18585332,0.49069923,0.20230027,-0.26608834,-0.01993762,-0.4075057,-0.511852,-0.24048378,0.26762888,-0.26774466,-0.40968683,0.36076248,-0.7067147,-0.17335494,0.08248057,-0.24260883,-0.29325014],[-0.2719229,-0.37802294,-0.11192892,0.1377227,0.38521656,0.13364804,0.25738564,0.23095219,-0.41198456,-0.35604644,0.26330873,-0.35603428,0.30060634,-0.14981052,-0.07183692,-0.50513095,-0.20401718,0.26708838,-0.3691664,-0.27500948],[0.19605745,0.2632509,0.12489202,0.14043666,-0.17780353,0.23571926,-0.29091302,0.08928618,-0.26839614,0.17393713,-0.27906632,-0.34475797,0.046463408,0.4691813,-0.22763269,0.230717,-0.058067344,-0.34321913,-0.32610404,0.027665265],[-0.15034373,-0.09978988,0.23026626,-0.39713168,0.25386024,0.037784588,-0.13167353,-0.18987694,-0.32343575,0.3304092,-0.0128973145,0.11936991,0.10994727,0.027634535,-0.052407783,-0.32872456,-0.29138932,0.15885468,-0.0857443,-0.21920353],[-0.0852396,-0.37360886,0.056502238,0.21605934,0.33902785,-0.011077156,-0.34871665,-0.49163684,-0.40248355,-0.46380827,0.33943757,0.0156222945,0.20941758,-0.5029654,0.28677404,-0.4488536,-0.06700985,-0.07191379,-0.25150388,-0.029989365]],[[-0.015345674,-0.0001382078,0.023197643,0.14535385,0.16233087,0.18911883,-0.31636214,-0.24655223,-0.014782741,-0.2948749,-0.36190292,-0.20814092,-0.49519634,0.0018365983,0.2186467,-0.13772197,-0.32205397,-0.26217446,0.0018289158,0.031322468],[0.39313996,-0.33028632,-0.36853343,-0.15730679,-0.06621064,0.13343447,-0.12394414,0.074853264,0.0218246,-0.23054518,-0.20386106,-0.228579,-0.112339325,0.11468685,-0.15482943,-0.038580116,0.02272836,0.24842268,-0.25766432,0.049153656],[-0.111542195,0.17805806,0.11856664,0.3539409,-0.22338799,0.44163558,-0.51239085,0.18363124,-0.65341365,-0.09162518,0.33672696,0.039040912,-0.15597941,0.1615284,-0.32295156,-0.11000015,-0.09647651,-0.32463577,-0.19577256,0.11794846],[-0.22367391,-0.16010752,0.3517042,-0.008403131,0.0559951,0.23609045,0.09988274,-0.41867486,0.042557783,-0.20032835,-0.32275337,-0.14002347,0.18933319,0.10728921,0.2993491,0.065990336,-0.07354797,-0.5244846,0.49042815,0.107885174],[-0.49264443,-0.143409,-0.10625701,-0.4316339,-0.105533846,0.07298562,-0.079563186,0.23261438,-0.3176846,0.19493063,-0.29531944,-0.4596044,0.14062086,0.19607814,-0.046210364,0.27667472,-0.12171674,-0.47315872,0.28151944,-0.5618002],[-0.24412283,0.12784928,-0.37589177,-0.08326531,0.3325564,0.4237981,-0.3496455,-0.2936016,-0.25949392,0.44919994,0.1896126,-0.48129767,-0.01717504,-0.17013045,0.056538094,-0.07394415,0.36502975,-0.16354185,-0.023585219,-0.23510341],[-0.14130254,-0.108104646,-0.16314308,-0.026067674,0.014837939,0.5189861,-0.099197075,0.0009589151,0.057303444,-0.10180976,-0.21716996,-0.18735588,-0.2176686,-0.10338923,-0.25426647,0.013411314,-0.011920726,-0.63052726,0.70295465,0.11188604],[0.13241228,-0.003650189,-0.07902414,0.12128634,-0.19516139,0.24904047,0.0038093207,0.03115109,-0.48415697,-0.30602258,-0.23086274,-0.039554656,-0.10844741,0.01670561,-0.34186542,-0.06940355,-0.10099769,0.24886274,0.25454414,-0.35048646],[0.21885338,-0.18913628,-0.36817223,0.16388859,-0.12873836,0.068348885,0.027517466,0.17266953,-0.2188689,-0.015572507,0.005873592,-0.32192943,0.045685615,-0.14080891,-0.17809501,0.038731623,-0.00042380963,0.20762764,0.041586887,-0.4055045],[-1.0796791,-0.22015446,-0.13022974,-0.33423576,-0.30726978,-0.8449386,-0.09433148,-0.18383281,0.34531578,-0.19325568,-0.45306167,-0.24360602,0.04170904,-0.5213185,0.1688698,0.24474078,0.111848295,-0.11503667,-0.5354205,-0.10536645],[-0.2573147,-0.4627146,0.095743805,-0.35345316,0.08796888,-0.24062745,-0.05979833,0.27730027,0.011232223,-0.033173617,-0.006110877,-0.3275349,-0.08145378,0.16066262,-0.20286167,-0.34851187,-0.13155986,-0.027863655,0.47447187,-0.38065496],[-0.31376976,0.060124416,0.12591666,0.08879318,-0.07657418,-0.13646445,-0.31785423,-0.057751615,-0.20893598,0.476856,-0.09691144,0.19759984,0.032681767,-0.038613956,-0.3620282,-0.191002,0.34927523,-0.047036253,0.4691988,0.069514565],[0.43318045,-0.49091274,-0.3815908,-0.1875944,0.12873705,-0.36384773,0.017930502,-0.097146034,0.077578925,0.29917002,0.24698564,-0.33390808,-0.41886267,-0.4520321,-0.29859892,0.06358779,-0.051322386,-0.20495777,-0.1688674,0.23939249],[-0.8405539,0.22254935,-0.510442,-0.2083363,-0.4230981,-0.052987516,-0.47075817,-0.5178323,-0.0878075,-0.4086733,-0.64995784,0.40330446,-0.07739604,-0.13851899,-0.23176783,-0.13431284,-0.031216573,0.040789463,-0.35133937,0.12946214],[-0.24805078,0.1028577,0.07255061,-0.7946867,-0.5800965,-0.04350952,0.0028258094,-0.17249694,0.27932036,-0.24024518,-0.12538132,-0.20288876,-0.033238944,-0.11602169,0.08324578,-0.022184985,-0.16671889,-1.3594831,-0.62432027,-0.6731064],[-0.49842405,-0.510978,-0.17253053,0.09990212,-0.18765466,-0.40642712,-0.029097104,-0.39305535,0.5544104,-0.6916851,-0.10814331,-0.38023007,-0.25869334,0.090895824,-0.52699256,0.14165705,-0.47083992,-0.27307227,-0.2555635,-0.30951902],[-0.44813928,-0.12714511,-0.35596603,-0.40103018,-0.116968855,0.047828276,0.27149558,0.050814606,0.28466868,0.3719124,0.16553316,-0.26440433,0.21023203,-0.30635297,-0.23044929,0.026604295,0.19331104,-0.2910829,-0.14591154,-0.037174962],[-0.31457147,0.09626656,-0.19869225,-0.042711794,-0.15166025,-0.29785803,-0.1958411,0.13158578,-0.27564195,0.12825666,-0.11284349,-0.21387534,-0.24966551,0.19114664,-0.23745601,-0.32461026,0.26839662,-0.08576441,0.2423434,0.033355806],[0.40841424,-0.5492947,0.15880643,-0.1307668,-0.38014507,0.4345945,-0.20482132,-0.2919424,0.24063675,0.098178655,0.26902115,-0.22290735,-0.07597805,0.26010135,-0.23949435,0.31287286,-0.23832564,0.13505864,0.058609918,0.29384434],[0.0038266494,0.20881183,0.3395198,-0.07799208,-0.040035356,0.09257207,0.25001445,-0.24633537,-0.15102698,0.09609186,0.15209107,0.101884186,-0.34782,-0.05323021,-0.011602591,0.3414584,-0.2492529,-0.14323664,0.12219901,0.06854358]],[[0.15050021,-0.0392952,0.47840255,0.10848799,-0.15939091,-0.02680603,-0.018975338,0.024089757,-0.4745349,0.64968175,0.089373566,-0.03723742,-0.61457604,-0.018975422,0.19994806,0.12249194,-0.03163516,-0.27589744,0.13526602,-0.20259969],[0.21426646,0.500385,-0.27372685,-0.08236984,0.27144068,-0.07158636,-0.020429587,0.3441721,-0.031420518,-0.31173238,0.07266065,-0.17862709,-0.21550833,-0.36778066,-0.079257175,-0.06923636,0.34734404,-0.080238536,-0.0964091,0.40384775],[0.086280935,0.39109364,0.42874482,-0.09800966,-0.21543153,0.13743663,0.36699152,0.2561394,0.21738705,-0.20438696,-0.21570222,0.13026577,-0.048868455,-0.29377958,-0.046015773,-0.1380905,-0.04179175,0.2869107,-0.17956233,0.5434137],[-0.04029953,0.13251683,-0.35547948,0.4612715,0.24350733,0.42350113,-0.021624928,0.03352843,-0.0977009,-0.39007518,-0.15603861,0.0246552,0.014188965,-0.17011794,-0.03247615,-0.1696847,-0.048572775,0.28080273,0.023089286,0.20400895],[0.12215963,0.37201887,0.29067495,0.26024646,0.269015,-0.06554381,-0.13789071,0.056415193,-0.042330634,-0.3845895,-0.099575676,0.15549713,0.49022552,-0.20479411,-0.25732744,0.32960567,-0.18516104,0.06537123,0.028943202,0.2688773],[0.051914494,-0.015658807,0.3714172,0.33794406,0.19211872,0.43716934,0.1377337,0.28195313,0.64518666,0.34285325,-0.041963197,-0.03709162,-0.4289225,-0.018209547,-0.049856715,0.14200445,0.15902103,0.15504146,0.11557457,-0.7334242],[0.17635657,-0.14447558,0.14878884,0.15279599,0.113186754,0.17113371,0.31317136,-0.062155828,-0.11283915,-0.055238154,0.0015931275,0.49790123,0.23520567,0.15473555,0.01663915,0.0666111,-0.15184766,-0.17113082,0.08906664,0.045568883],[0.411988,0.25319254,0.14607552,0.27677375,-0.25543085,0.010980336,0.0024261314,-0.09422777,-0.06978579,0.20990022,-0.2824327,0.15273602,0.65109515,0.38763577,0.072222136,-0.166231,-0.12749591,-0.0032290507,0.17957462,0.15223907],[0.070796065,-0.12951651,0.5419362,-0.04700283,0.016004836,0.088767216,0.12978195,0.11732907,-0.044604547,0.2734383,0.013726672,0.039818052,0.44681042,-0.047670215,0.10233979,0.062119924,0.09400218,0.050978195,-3.8357306e-5,0.2316995],[-0.08812788,-0.17125846,-0.29026785,-0.11653454,0.13855724,0.46354565,-0.13321787,0.35713923,0.2955823,-0.25574172,0.28329062,0.18141393,0.655984,0.09667885,0.19683424,0.08653869,0.20717835,-0.15337473,0.3067498,0.82676446],[-0.25187853,0.23614843,0.72717935,-0.16319416,0.4408491,-0.09419952,-0.13892734,-0.069927365,-0.09720803,0.7020802,0.04126108,-0.047358304,0.23220247,-0.33778524,-0.0848734,-0.2153136,-0.19901334,0.06878817,-0.37349305,0.1966815],[0.089808874,-0.11074294,-0.33439162,0.22901328,-0.12975873,0.24188727,0.24343883,0.2537022,0.2766113,-0.3556077,-0.25683096,-0.09760594,-0.18368322,-0.0643556,0.28873357,-0.22954118,-0.044300314,0.26936603,-0.06359022,0.26051107],[0.06147511,-0.16110365,-0.20357032,0.29314926,0.43240234,0.12320177,0.039840296,0.2338749,-0.0652212,-0.35738477,-0.16353938,0.37911826,0.16139708,0.29161018,0.10740327,0.3562589,0.116555184,-0.16545624,0.10178769,0.18417554],[0.28793883,0.34156677,0.39045084,0.06941145,0.18600765,0.09898603,0.37992853,-0.11712246,0.19888923,0.38071698,0.24516186,-0.084472105,0.3139689,0.26432762,0.028154524,-0.09951656,-0.18227534,0.08549442,-0.18724243,-0.17132796],[0.2017094,-0.016913109,-0.2265152,0.35009187,0.10835706,0.29022616,0.12442094,0.061487235,-0.13567184,0.23278095,0.3473814,0.033486184,0.19311698,0.2033282,0.34974557,0.39265028,0.10225948,0.021784985,0.4099592,0.25155458],[0.06877964,0.46342224,-0.13606907,0.27965719,0.30641934,0.10863183,0.033069752,0.26059315,0.31224146,0.4593684,0.127732,-0.106150195,-0.27729627,0.18157004,0.036902923,0.10548474,0.029070206,0.28272164,0.23512892,0.33933014],[0.25244233,-0.18624948,-0.2053107,0.071277276,0.06474507,-0.14494729,0.391246,0.013584504,0.16334912,-0.17732479,0.22909708,0.25371784,-0.10795653,0.37060148,0.07428598,0.33609372,0.29781255,0.33829114,0.22705011,-0.54382294],[-0.1724436,-0.16766636,-0.19221695,0.1319529,0.13450807,-0.02118406,-0.016097747,0.41369638,0.52764666,-0.5835365,0.11782154,0.0093630785,-0.16195218,0.017520193,0.29475343,-0.030656805,-0.0992239,0.30567324,-0.25889745,-0.32307768],[-0.18866035,0.026733058,0.15293963,0.19562733,-0.31690374,-0.09179584,0.14909963,-0.047666047,0.30550507,0.19803123,-0.23877808,-0.43534923,0.4093017,-0.06739075,-0.09973954,0.08683592,0.103901505,0.24545227,-0.15127885,0.53157055],[0.5056032,0.4815027,-0.260741,-0.046085186,0.18063277,0.5916698,0.34229833,0.27685207,0.029111387,-0.2693245,0.17257378,0.39851606,0.038678754,0.39042962,0.17816743,0.09153474,-0.0110883545,-0.34525034,0.3094723,-0.07155351]]],"bias":[[0.43433955,0.09263239,0.28896174,0.030521944,0.036313567,-0.0341856,-0.026921406,0.11921172,0.14748704,0.077516675,-0.051270552,-0.12561683,0.14605857,0.3000562,0.6177351,0.061107997,0.39806074,-0.088835575,0.26297897,0.3706187],[0.2758352,-0.113808565,-0.07839882,-0.051849015,-0.058315177,0.23576938,-0.22145066,-0.04513101,-0.12115857,0.21856257,0.23876666,0.13142313,-0.09342759,-0.02648609,0.012745627,0.18578899,0.045191724,-0.10462194,-0.10129557,0.13821846],[-0.03785687,-0.04028582,-0.04128588,-0.06036725,0.012905081,0.04203826,0.02547127,-0.06473093,-0.12201414,-0.06756669,-0.049356773,-0.10652429,0.023588661,-0.14146334,0.0753042,-0.22587195,-0.14239517,-0.10043226,-0.0026967514,-0.14108887],[0.16105673,-0.22481832,-0.022921154,-0.12163222,-0.026908062,0.050113168,-0.13246955,-0.06421068,-0.18626717,0.034901895,0.04291802,-0.11417962,-0.109188765,-0.11830827,-0.05617776,-0.043146394,0.031957574,-0.16678804,0.15841824,0.019862246],[0.11497512,0.20846364,0.10045348,0.17395027,0.26758167,0.131407,0.14126842,0.18869813,0.22239174,0.071640424,0.25218037,0.20540468,-0.11660885,0.0682357,0.15653418,0.123825185,0.20880441,0.096796505,0.09336181,-0.03619014]],"Losses":[1.0734785633426922,0.8210997533444572,0.6357775956611913,0.516020407898696,0.430910087589824,0.3574639089934877,0.29525020498860355,0.24713871948902472,0.2230042773945536,0.22406416747525817,0.2329308618874782,0.23790363931959355,0.23757630671540264,0.23425436699178373,0.22987262515048584,0.22458715313890912,0.21806972265682578,0.2105351757590238,0.20256597883040323,0.19478591443358345,0.18789146312134522,0.18259082899042353,0.17924774106188912,0.17775772798008474,0.17784773928230155,0.17925222698834092,0.18143643110753474,0.18341125248546356,0.1842125066959207,0.18350024327811537,0.1815763540044479,0.17899829620833724,0.17627495506335183,0.1737834078992123,0.17178234049416824,0.17043119243663155,0.16975802213443142,0.1696037009577192,0.16968871553095832,0.1697636251685374,0.1696624961502724,0.169308513264137,0.16874574175590373,0.16807736677497961,0.16733938552419944,0.1664858346067486,0.16548423920904762,0.164383502640535,0.16328075092301458,0.16222645482788192,0.16119286538341612,0.1601365807044308,0.15902707951615638,0.1578377383725354,0.15655957417916794,0.15516824888801323,0.15359964849655128,0.15180195840343205,0.14978207361321239,0.14759630075151642,0.1452834389047671,0.14286513029701142,0.14038508583188214,0.13792608548364627,0.13559556534562828,0.1335367981038441,0.13187942197866645,0.1307075173323222,0.12997504595532883,0.1294671596715796,0.12906110941060137,0.12956844059676614,0.1311804260794853,0.1258510754841939,0.12297083293244292,0.12330738823097151,0.118216698600426,0.11861881137207911,0.11563387015548632,0.11443690825925246,0.11346670452345496,0.11132802875809915,0.11131818925597507,0.10892786999122411,0.1091017538287991,0.10693638985164886,0.10673326345443447,0.1052063572646889,0.10429208596673928,0.10368245585681603,0.10216057810723794,0.10204676738045243,0.1008439351827782,0.10018310563978838,0.09998618436976882,0.09892988313727163,0.09862899347993592,0.09829989066033634,0.0973974382893536,0.09709976051072455,0.09670679157827126,0.09594105363574998,0.09565131613292517,0.09534312823178985,0.09476436021624725,0.09453973166159158,0.09433040952395345,0.09390382236077482,0.09370281509041378,0.09354429540997862,0.09319904094589473,0.09298634853963607,0.0928699795114853,0.09262409431908245,0.09240880931846109,0.09232050406618407,0.09219605028010869,0.09200843212318721,0.0918891801510353,0.09183017885230804,0.09172950968985392,0.0915872316085212,0.0914770806822223,0.0914111118629065,0.09133387890554631,0.09122355235030152,0.09111364515739352,0.09103449035780482,0.09097444518556039,0.09090294449649587,0.09081237895343827,0.0907181788284687,0.09063596838664739,0.09056606949761578,0.09049803091171194,0.09042466381339916,0.09034487700139048,0.09026215342654549,0.09018041941591187,0.09010149960180097,0.09002537492905337,0.08995140040068836,0.08987876494307205,0.0898071307043916,0.08973692376135818,0.08966938491789057,0.08960813907157045,0.08956192468573,0.08955445598035248,0.08964798749138951,0.0900077793954065,0.09096351000710452,0.09280783887358479,0.09398058498984659,0.09219673857082132,0.0893411206237253,0.08943476504556334,0.09141965839475673,0.0911932390597269,0.08913181934256337,0.08896991781614771,0.09032770308696648,0.0900092744631037,0.08858363176721619,0.08876779306555016,0.08963694982486504,0.08902879485262247,0.08815868568321346,0.08849169456352995,0.08890473554895044,0.08834960834269871,0.08782026537472576,0.08809947317269705,0.08828879047182453,0.0878126047186874,0.08746826693731381,0.08764117058770025,0.08770765371134714,0.08735769663586991,0.08707515239252117,0.08713126864256407,0.0871716368994652,0.08692733585801542,0.08665048065634808,0.08658229792750408,0.08659734927178322,0.08647919599502774,0.08623370052507376,0.08603803820195166,0.08595681739636726,0.0859042695693697,0.08578244570353219,0.08558568768785832,0.08538352569201642,0.08522503911023907,0.08510779262287402,0.08499677757813541,0.08486552614381951,0.08471091644972313,0.08454675431476318,0.08439867623438531,0.08429376081535753,0.08428943809872616,0.08449652642007557,0.08511196005687155,0.0860211336256937,0.08640834597624406,0.08508643704481064,0.08382746773134869,0.08390870332433414,0.0846502836635445,0.08445558472255395,0.08309812000997842,0.08240700479205657,0.0828989472219855,0.08345341487899731,0.0830810672539092,0.08219255160868429,0.0819593287454361,0.0824753615828693,0.08287172204356086,0.08271125810629076,0.08232676847307623,0.08263117045878983,0.08315832993301388,0.08312650494160811,0.0820169719922754,0.08111842816075027,0.08093283986629562,0.08109753852329075,0.08086728374221563,0.08030009994069548,0.07992655289333274,0.08004235859461216,0.08043214710198028,0.08063091378803454,0.080631946383928,0.08056837346352232,0.0808690290519045,0.08097605796823788,0.08067133353841995,0.07967682084160638,0.07889982506782107,0.0786294991728252,0.07868512087798007,0.07867772783101984,0.07848350344385109,0.07833621121041985,0.07842237479566692,0.07875640906879329,0.07895549927204736,0.07891789189613926,0.07847580292696926,0.0781225538141868,0.07785272448487073,0.07763766869474518,0.0772718189243165,0.07687889089776181,0.07661709498248391,0.07656013754381023,0.07662763614899896,0.07668280716470566,0.0766965813302758,0.07671481734174058,0.07694896736425652,0.07740260394421336,0.07814458291068907,0.07829742428640898,0.07794322441332965,0.0767797435755014,0.07591420676143465,0.07553558142590214,0.07554677045419841,0.07571907405394696,0.07586426418365289,0.07601147364237254,0.07595867023438324,0.07575396586210469,0.07528509434894204,0.07482568798222362,0.07455223516571971,0.07454557759960258,0.0747251137736674,0.07490855951697242,0.07499304107496588,0.07488521502552577,0.07474706293754721,0.07460724104298966,0.0745633207688446,0.07450428531851769,0.07442789042546423,0.07424393956656902,0.07405110964733096,0.07387603662032025,0.07378659993269798,0.07376217903737346,0.07379166833087394,0.0738265114953227,0.07390424063131676,0.07401693168591808,0.07430596920727894,0.0746908202019602,0.07529799122320006,0.07544113292991898,0.07523199937173145,0.07422380394814142,0.07331075487905807,0.07278450606636873,0.07276326254260441,0.0730973097461884,0.07350356285618172,0.07377140761198855,0.0735795952481191,0.07318161819033098,0.07272183582130053,0.07245000916223802,0.07238031393340169,0.07244550086109854,0.07256225540229716,0.07263388443162383,0.07266633001583167,0.0726039518483175,0.07252347213663966,0.07239360519774826,0.07227088793064122,0.0721259461479349,0.07198871018673564,0.07184693916836063,0.07171876475204854,0.07160394721623811,0.0715078590869596,0.07143033977159677,0.07137233380446924,0.071339494984629,0.07134916752183545,0.07145353611784985,0.07176271164691798,0.0725796495739055,0.07411551556284789,0.07655709575821906,0.07649919821148964,0.07449136467193536,0.07162535466117882,0.0707602093287019,0.07178518011220933,0.07331940304814318,0.07363249324020535,0.07183346018551229,0.07051134318819947,0.07067595423612277,0.07168860632184906,0.07217485579861055,0.07125890514204875,0.07027690793292078,0.07014152850806672,0.07069296091918577,0.07112099027696014,0.0707476607713801,0.07007577468266832,0.06970203739079084,0.06981741596229395,0.07013465521840254,0.07022067095955757,0.06999062148108455,0.06958100224001637,0.06929408290768362,0.06922512864708268,0.06932351454147921,0.06947028193677197,0.06952301394391353,0.06947206109256143,0.06932492306875696,0.06928070524134085,0.0695727305998488,0.07055004933275394,0.07265350440954109,0.07395727860376518,0.07341968325975617,0.06999071027084902,0.06798837160944429,0.06801806367516001,0.06946320489078926,0.07106627757604143,0.0704479678451798,0.0686699882754668,0.06730156980160301,0.06725296204142317,0.06806561093255085,0.06869202436828692,0.06846366028112828,0.06749138389370155,0.06682952169993422,0.0666702284667081,0.06672209960443658,0.06654838709481675,0.06623608009423433,0.06610005929380368,0.06633378012516726,0.06696332632004832,0.06744312136313284,0.06766583073614243,0.06728120753778136,0.06714140027247165,0.06680699195346226,0.06641366977190045,0.06551996454054346,0.06468469524699533,0.06413352587303864,0.06404763639555841,0.06419008109777229,0.06458661437617294,0.06518883116512388,0.06665173096378621,0.06775119408130022,0.06786353510151417,0.06511260170825173,0.06270131998705246,0.0614379458781454,0.06109599631358996,0.06111337564761126,0.061337379553647535,0.06207832370353566,0.06409340808122502,0.06778199193240615,0.06765581686031431,0.06467107522027583,0.060896263733022836,0.05920404272268411,0.05881261654180883,0.05920803931517391,0.06049053208716301,0.06292073934006659,0.06624229712562725,0.06496201446432712,0.06159170904324687,0.05866078677882924,0.05749236996545104,0.05741370130673752,0.058180546907954905,0.0600138576759866,0.06251906647940178,0.06412533751556695,0.061391868024567864,0.058644016069427686,0.05692926912802475,0.056290529180911396,0.05635422042688752,0.05713098289493376,0.05886220454103109,0.06079933457176745,0.06188780358756059,0.0597070246095778,0.05742464901111529,0.05594221028556529,0.05532248479699853,0.05526417573483784,0.05568293948018913,0.056690169431858964,0.05809509623432669,0.05938400176561409,0.05873414597733942,0.057302574459589875,0.055711536592020085,0.05477404112293326,0.05431173317594588,0.05417201091039942,0.054290206515899234,0.05467647351042241,0.05542011755221981,0.05631868080494338,0.05722556604581235,0.05697844851175889,0.05615957451058829,0.0548764955066843,0.05393682435130932,0.05334405307117972,0.053030856145652394,0.05288896914214259,0.052855171451960566,0.05292807815715295,0.05315249566282671,0.053651859464487583,0.05443158518833447,0.05553339974341149,0.055875721671657025,0.0555568743665367,0.054167558485827785,0.05302414994708742,0.05220178171755057,0.051738976166662454,0.05147342795846652,0.051315039430945925,0.051216510178039874,0.05117180081206849,0.05121266879629006,0.05141872983799548,0.051986675747726245,0.0530254545262151,0.054683807441814065,0.05520158296478376,0.05464316855244075,0.05260320310053772,0.05113524261486193,0.05025744728123992,0.04982500396976639,0.04961877718078593,0.04954518362888044,0.04960337078587149,0.04986939224973888,0.05054244863019918,0.05164434775934304,0.05313876464367865,0.05315636248810668,0.05222081923452834,0.05044189312611077,0.049272784396571685,0.04859856762101534,0.04829970143785536,0.04825965228751792,0.048556019732335635,0.049323198586690535,0.05082966489683964,0.05143022838837602,0.050861293257994517,0.04867307755375468,0.047313166598079326,0.04706653214018048,0.047908373094910514,0.04963767612781223,0.05125766493875092,0.05080384779834439,0.05001444225535474,0.04988169768098319,0.05067747496247408,0.0496620091293617,0.047690076493897844,0.04600170977654687,0.04540718926782592,0.04558789570652485,0.04609966463909485,0.0464923862615581,0.046319526666803376,0.045880770738896175,0.04596750272536882,0.04713343611249646,0.04944703828191528,0.04960881223564447,0.047608366894527125,0.045184455469163456,0.04407070733830094,0.043761710099179334,0.043920755881618145,0.04427437769640359,0.04484036913042701,0.04541373270806711,0.04637906439401314,0.04668847085279935,0.04656060477157973,0.04507960482936771,0.043690758884730625,0.04245806068755415,0.04181068861584069,0.04163450536257256,0.04225355973939334,0.04385428395578429,0.04606451949104979,0.045400072967541116,0.043299382966307545,0.0412569252784956,0.040396392082150546,0.04037410696483654,0.04143518709938905,0.043292553915306634,0.044692140225930994,0.04273560696690211,0.040522998058309466,0.03917943382401417,0.03902659939118989,0.03990661652361019,0.041983900016738615,0.04282673479159063,0.04153676622294128,0.03914391399129538,0.038031052284250605,0.03811055454484521,0.03956802815582187,0.04116542421889033,0.0411238205128813,0.03876991344077975,0.03727008350155346,0.03711873126799343,0.03858119274836251,0.04029764115750428,0.040314364271695456,0.037513962294102844,0.03622733752432026,0.0361673554500129,0.03774406670604222,0.03800014518591781,0.03717129838342618,0.036484534873556344,0.03775422979400263,0.03948884659836126,0.038669317406811364,0.036190627426238596,0.03557924316290118,0.037057057158093244,0.03703717715334656,0.03603165654598414,0.03580659915525548,0.03590006993657992,0.03497420227314205,0.03451414352764505,0.03606351923978715,0.03762680233452997,0.03596631802769606,0.03330622658581208,0.032169800698219585,0.033375593259582746,0.03550031231950277,0.035845141558548656,0.033408366639159325,0.03303251944643179,0.03493266247039068,0.03525933691184679,0.03335614301972533,0.03161238441710951,0.03164174016506672,0.03324083819733985,0.03391622378742348,0.03359921573310562,0.03269845040365758,0.032942127560889926,0.032940812011992705,0.03172138417548851,0.031128284088366105,0.031762984573880444,0.033441099014254023,0.0333401906685072,0.030874777238399327,0.02962233621501656,0.030038346499103717,0.032313284183523396,0.03355288248295529,0.03185562233166643,0.02954865373777529,0.028840880496787073,0.02973357385723374,0.03191140294652495,0.03325394043893193,0.03119189665090101,0.02916241163731222,0.02874388147400675,0.029441643219581468,0.03093375074975902,0.031020198211074886,0.030048927205468166,0.028713176296066737,0.028340948966119245,0.028558635569700383,0.029046534366340675,0.029141009494289397,0.0287855803269966,0.0285103837289171,0.02900358699404994,0.030500612856379047,0.03161855798275732,0.030387475943148227,0.0294751981660047,0.029405983607282853,0.030148537973967007,0.029931676996670667,0.028857711542014306,0.027763906325139618,0.027300869843647275,0.027486440149074663,0.028433144960755496,0.02976370857304698,0.03041887434091876,0.029551098537895816,0.028974408017095853,0.028657413520206565,0.028734396779233427,0.028577780301284397,0.028623248710271297,0.028489159398316134,0.028172599381228285,0.0274788251357227,0.026888115983850627,0.026930806951010224,0.027855107674720738,0.029556698543508887,0.02987765991151739,0.028101695424839784,0.027020911910326014,0.026929509354626593,0.027881093341295515,0.02857709324931463,0.02832663314223816,0.02705903961995637,0.02636426419382172,0.026336014286657446,0.027075235604551575,0.028012305730168472,0.028428894576004986,0.02784284052743375,0.0275907398616673,0.028003432206637147,0.028631761115898186,0.028077956299663507,0.0272385816775633,0.026507620993201253,0.026500869193900854,0.026541078491636453,0.02664571066365334,0.026311566276608436,0.026150729294313946,0.026126251223621236,0.0264776109964561,0.026710988930158674,0.026725880522509113,0.02650179634950475,0.02676233623332107,0.027577156594013275,0.028315192965309946,0.02764462821506525,0.026381476416631185,0.025523253804803442,0.025350022713687848,0.025573878370179083,0.026157521922042803,0.026425853197155492,0.026589661884736968,0.026424234574455686,0.026797673793509415,0.027146369793094732,0.026989782962860892,0.026164966157944825,0.025490474306523278,0.025130880185890894,0.025202621261605312,0.02533213411010483,0.02545771065754839,0.02554767736484619,0.025742361328917805,0.026287234279975567,0.02664491251830938,0.026175936814329247,0.025606703757410233,0.024984673483815625,0.024997028701919485,0.02516149617601844,0.025615425950510567,0.025546229260382716,0.025400730746067586,0.025197577164900356,0.02513617464024425,0.025400009063091946,0.025420596697884774,0.025449750955117943,0.025381414077914402,0.02531189642428369,0.025277888455907123,0.025017526359951213,0.024621967750175725,0.02426775734903664,0.024057457273114632,0.024069762089322856,0.0242069778649739,0.024405603159443554,0.024599115557968093,0.02470952925768025,0.024840431964933803,0.02471862094420857,0.024290370012813714,0.02405345466959176,0.023952973240601295,0.024520680731154175,0.02527464319917063,0.02536380485604034,0.0250599749908119,0.02413070272790151,0.023703495335056342,0.023460292151292195,0.023468479714560588,0.02348276902312839,0.023744815577132112,0.023986978622920957,0.024572919104682893,0.024543742539325196,0.02434369466468333,0.02401134402787808,0.023639954310337614,0.02383339320703977,0.024086284388019016,0.024415670796621824,0.024412234349997477,0.024021905770083413,0.02361776892093734,0.02328631864629319,0.02299078950584028,0.02287583428738392,0.022951764963984645,0.023313035717479537,0.023770763862025653,0.02384590510136985,0.023519997847364117,0.023092352697111643,0.022776987560788383,0.023043388469472275,0.0234192181346562,0.023950000368958772,0.024209335936201185,0.023591142567511398,0.023293192480193025,0.022757258123819898,0.022434098557272165,0.02218473433033188,0.022259498984396713,0.022499238376801036,0.023001293211739438,0.02305896815301378,0.02323555370128846,0.022968698299995535,0.022820359356051756,0.022805688033285018,0.022622218972724942,0.022907178890901266,0.023165588318285486,0.023254114421778726,0.022979106240920474,0.022494337440510184,0.022086085883730303,0.02190438885186107,0.021799615594899006,0.021859860830677157,0.02205307300937653,0.02239976584846435,0.022760944862706335,0.022785856390730663,0.02229997315400647,0.022104678467161316,0.021905386198603032,0.022034935729356282,0.022300673226093293,0.022300304017585388,0.022549677255725566,0.02211722682122566,0.021835468187731626,0.021352127464866085,0.021171749236337876,0.02105887772828932,0.021224447544673782,0.02128110990237213,0.021633843743170914,0.021689284192954305,0.022161896869738625,0.02206412845126843,0.021792924124629017,0.021764306486234182,0.021633084763888547,0.021938163903931062,0.022065238826966555,0.021730559622400242,0.021454224651227344,0.0212202263314008,0.020927636505323834,0.020763537236660853,0.020672224198097923,0.020921758914974685,0.021365410342662188,0.021676735751778732,0.021603271950587397,0.021475808535956938,0.0210481201169064,0.02098318207579714,0.020951319672949616,0.02086837753631816,0.021190197375198946,0.021054062074781166,0.021123353284667155,0.020539676964330823,0.020372473988714283,0.02016519924837779,0.02036458231238327,0.02036629322633498,0.020762556101283136,0.0210266806431511,0.021333466541589297,0.021258975396053287,0.020444915065304152,0.020176895450089535,0.02017011781138554,0.020231278244056277,0.020202159074825768,0.020053372459189294,0.020255406933924226,0.02027774378056986,0.020190659469311773,0.019992882228711855,0.019974548680498614,0.02017575120474001,0.020617591935057248,0.020715976659141207,0.02093792014762945,0.020372546626569316,0.01992998135389056,0.019410277270358715,0.019447790491660972,0.019449739326537024,0.01970146591927797,0.019713229134295903,0.020148182163594666,0.02034107818325796,0.020480889872374734,0.01987771532716572,0.01953508433428793,0.019561604902667572,0.019784673690225327,0.019919653425271203,0.019926760191557084,0.019657029480876942,0.019263117790548484,0.01906770418213524,0.01883445900075074,0.01891719770706612,0.018966803673185036,0.0194203207841003,0.019658135736392548,0.020048756011009555,0.019934126380113302,0.019369788483750667,0.019307312444819324,0.019141379025708012,0.019440548917272264,0.01918491463350038,0.019174132003446424,0.018799439052093515,0.0188296914922219,0.018623512193716784,0.01885850443376971,0.018911667420706137,0.01940317761683902,0.019566140984511992,0.019611598300224038,0.01935449307909308,0.018992018694245858,0.01878938410917502,0.018823554305080693,0.018716545939899795,0.018655183282236372,0.01850326087426358,0.01844074118762245,0.018650271464062767,0.018645548480829027,0.019061697673661983,0.019204159434467537,0.01913400684093486,0.019083036920451407,0.01836594091065204,0.018288938924211094,0.018176873832376265,0.01837622685361786,0.01817315871296922,0.018478664293726386,0.018606387094156945,0.018955487644339856,0.0188216129484877,0.018409436467013807,0.018492862246979207,0.018253213239765847,0.01809027973416108,0.017919550929223677,0.01803730043173189,0.01815060199879126,0.018233437741388137,0.018231677199385003,0.018398532750365734,0.01850189237892029,0.018195342682297253,0.018243039255751083,0.017981085605804394,0.018130909013578916,0.01780136421302157,0.01787788155055534,0.017777162880413793,0.01793900860958897,0.01793447897841609,0.017922573836585354,0.018184652374768132,0.018112554420538506,0.01804235232975426,0.017797416362464066,0.0176230279796486,0.01750663391926637,0.017462154436181168,0.017418687552857914,0.017483246197229997,0.0176101410784994],"R2":-0.49722932303373146}