{"architecture":[["Dense",[4,10]],["Dense",[10,10]],["Dense",[10,10]],["Dense",[10,10]],["Dense",[10,10]],["Dense",[10,10]],["Dense",[10,80]]],"weights":[[[-1.3716153,2.4655533,-1.5698816,1.006819,-1.948432,2.4269037,-1.6921252,1.6151364,-1.3881763,1.655806],[0.8657114,-0.6556467,0.37006906,0.35136306,0.75139296,-0.24068008,0.79040223,-0.14142942,0.42874905,-0.06637942],[0.53597426,-0.115717635,-0.124788776,0.6628135,-0.25934926,-0.15343735,-0.07055858,-0.02956546,0.39698076,-0.85999405],[-1.3927947,1.1227382,-0.59066665,0.9810325,-1.4298055,1.7267183,-0.9408766,0.9296302,-0.47651792,1.4991782]],[[-0.48676035,0.0530566,0.5102985,-0.45670992,-0.7861779,0.20461251,0.116803266,-0.7299447,0.16864383,-0.47557703],[0.20014915,-0.051035732,-0.4906823,0.6641811,1.1741083,0.6808759,-0.7865327,0.8649476,0.49715832,0.8211218],[0.16073582,0.37703183,-0.13248657,0.251766,-0.6491034,0.07905017,-0.040025517,-0.76358664,-0.2446964,-0.25402993],[0.14756645,0.23511055,0.18875436,0.29554093,-0.04411867,-0.11259858,0.6524135,0.7232014,-0.11408207,0.32052618],[-0.4643773,0.112618715,0.83160025,-0.7487653,-0.3470771,-0.029995719,0.7187983,-1.0120984,0.065726206,-0.8806845],[0.14409955,-0.6057702,-0.0033072894,0.1902491,1.0897056,0.65226287,0.25769702,1.3949383,-0.54977274,0.21729158],[-0.57820714,0.5009723,-0.2597379,-0.6421354,-0.21430667,0.23859933,1.0441425,-0.8552319,0.15005958,-0.5327586],[0.30106005,0.34433636,0.5079757,0.5713744,0.31014985,-0.1283275,-0.32250422,0.6948613,-0.055311903,0.6235007],[0.098034315,0.16088912,-0.15413761,-0.3972718,-0.7444376,0.29159874,0.39878455,-0.5883654,0.34108648,0.09570345],[-0.44539467,-0.38728163,-0.21375056,-0.04496262,0.927504,-0.22109853,0.28676954,0.62395495,-0.45043197,0.80042475]],[[0.24596065,0.6164228,-0.4913978,-0.37545162,-0.41494092,0.01512118,0.17798813,-0.38515374,0.009691944,-0.045254987],[-0.40757838,0.27651277,-0.36576366,-0.4961837,-0.34739268,-0.26815897,0.39241734,-0.08663449,0.5032682,-0.68068635],[-0.2892567,0.9691077,-0.0033784169,0.1016985,-0.2938135,0.15676527,-0.120769344,0.34453487,-0.330157,-0.6118712],[0.1943134,-0.36239934,-0.21457046,0.45234317,0.15379655,-0.043464698,-0.07524742,0.3195189,-0.4473744,0.36059695],[0.50938886,-0.57489896,-0.08140689,0.735197,-0.46883368,0.6981789,-0.13725662,-0.10129719,0.21074508,0.9515485],[0.15239479,0.6101088,-0.02670953,-0.368527,0.04575887,0.33790186,0.14915872,0.20986705,-0.57562745,0.08827537],[-0.37119973,0.9001551,0.35926053,0.15883037,-0.75808686,-0.868935,0.84968406,0.40357146,0.4199708,-0.031984568],[0.9553193,-0.42073298,-0.04418524,0.52740115,-0.29577047,1.1911877,-0.6033313,-0.3705801,-0.62749815,1.4501256],[0.20413473,0.42062098,-0.43716785,-0.58411515,-0.04558996,-0.2814605,-0.12644452,-0.20964207,0.093688056,-0.36365405],[0.14587063,-0.1292109,-0.23289326,0.33354118,0.051297706,0.22299169,0.33698887,-0.16652353,0.37979808,0.70979923]],[[-0.0123459175,0.028427612,-0.12832226,0.5219028,-0.0038347251,-0.5913204,-0.32228222,-0.08631474,-0.14763285,0.26241574],[-0.11801194,0.120661415,0.0111072175,-0.5301247,0.013310095,1.1290492,0.070336506,-0.51962227,-0.49291292,0.7313923],[0.0040840115,-0.29624906,0.2893168,-0.26014993,-0.20308039,0.6654309,-0.6752682,0.11860472,-0.025979107,-0.12732294],[-0.5191718,0.18730271,0.4764423,0.27631867,-0.65572876,-0.067462124,-0.14176542,0.0009633289,-0.507568,-0.6741863],[-0.1861974,0.43814754,-0.20727031,-0.072825514,-0.30448636,0.06587739,-0.11771599,0.20526344,-0.036641832,-0.3309174],[-0.11230565,0.11743432,-0.4991725,0.63023555,0.16312473,-0.79347837,-0.31070778,-0.35789877,-0.4355624,-0.19537814],[-0.4961866,-0.18975976,0.4685617,-0.8101051,-0.40132496,1.4815191,-0.35807014,0.3643085,-0.86546224,0.68199056],[0.4669345,-0.1541689,0.25087884,-0.4717872,0.09157468,1.4014071,-0.0941733,0.075479984,-0.004622571,-0.0029224667],[0.11376673,0.2374667,-0.11284129,0.008466493,0.13037589,0.8299236,0.24916856,-0.45351133,-0.70246595,0.37453312],[-0.10189483,-0.26504838,-0.19755863,0.67661947,-0.5805938,-0.23474279,-0.1596324,-0.19128379,-0.29755035,-0.7296883]],[[-0.47842056,-0.6668193,0.011918224,-0.7296663,-0.49871203,-0.5788415,0.29388112,0.1678732,0.32419446,-0.05672065],[0.27015468,-0.6682286,-0.6319835,-0.095824584,-0.46707493,-0.17434415,-0.3646366,-0.17411076,-0.15802328,-0.4883853],[-0.42911926,-0.6366407,-0.44354823,-0.40375584,0.14132808,0.42914715,0.40192804,-0.38896438,-0.58485717,-0.13406244],[-0.13368471,0.5633313,0.22112651,0.8318117,0.50420105,-0.0149606615,-0.026905855,0.65128285,0.5453724,-0.04764309],[0.31817472,-0.32489422,0.5099225,-0.4376278,-0.11803253,-0.11102579,0.2671824,0.031187318,0.308488,0.35507932],[-0.84732264,0.4145932,0.65371007,-1.9427122,-0.22724363,0.20980279,-0.06929845,-0.20835522,-0.16601026,-0.097420804],[-0.6222453,0.33712274,-0.3133032,-0.6004996,-0.06232118,-0.1047967,-0.21972562,-0.5676563,0.3162421,-0.08485104],[-0.26232362,-0.6130942,-0.10141681,-0.22279413,-0.2917791,0.59442055,0.14396435,-0.3468519,0.3634442,-0.38533047],[0.16094327,0.1311894,-0.2158677,-0.4240214,0.17905931,-0.049642097,0.012899121,0.29273477,-0.06235415,0.001824735],[0.04404721,0.24248439,-0.44838926,-0.55095583,0.47575843,-0.9861177,0.5102685,-0.15836833,0.3719761,-0.22957373]],[[0.12543938,0.37794343,0.078379415,0.1447931,-0.40034112,0.20597097,-0.28879115,-0.3191103,0.054974295,-0.45185408],[-0.42718542,-0.57147926,0.024774376,-0.20532675,0.07203244,0.33988214,0.16871281,0.009230277,-0.52350116,-0.59286505],[0.25388563,-0.46831265,0.03649429,-0.2992584,-0.28358653,-0.09017276,-0.3740252,-0.47638375,0.32491848,-0.034488596],[0.07623471,0.35174856,-0.84779805,0.3891035,-0.07467791,-0.49885583,0.36369824,-0.586209,-0.7949781,0.14521992],[0.024405656,-0.5397259,-0.610364,-0.40203264,-0.13096134,0.15285349,-0.42967343,-0.037357025,0.0019342487,-0.24833281],[0.047083173,-0.11570441,0.17506616,0.56072915,-0.2391897,-0.22284582,-0.23219489,-0.23672253,0.064990126,-0.06721799],[-0.039955046,-0.42414153,-0.08196253,-0.19362697,0.43233472,0.26088896,-0.118458316,-0.3157348,0.48525053,-0.105172135],[0.37620726,0.090952896,-0.40602407,0.39600074,-0.18128636,-0.25406462,-0.17230795,0.28998056,-0.07394689,-0.5740661],[-0.4815606,0.4337268,0.15031284,-0.5324481,0.3934769,0.5182292,-0.06608925,0.34123784,-0.33080092,-0.14686641],[-0.24840526,0.20384787,-0.2984671,0.11243887,-0.16523232,-0.041180972,0.21973729,0.028797887,0.36913916,0.07072735]],[[0.18522884,0.26646918,0.21815468,0.17960015,0.11062442,0.012553058,0.30552495,0.060169987,0.1357599,0.16356829,0.12965354,0.00034476252,0.1663338,-0.083919235,0.05665041,0.05156826,0.27673173,0.18590446,0.31923822,0.19813295,0.20791253,0.31659457,-0.10697556,0.23939446,0.2838319,0.20128681,0.34675628,0.015477312,0.1771141,0.19302823,0.099617496,0.3991316,0.3141132,-0.053044427,0.20717758,-0.0032675816,0.11097639,0.123689264,0.31064424,0.20079273,0.11984145,-0.14962164,0.09046195,0.13282937,-0.117750384,0.38736746,0.10895498,0.054070868,0.023001662,-0.07528443,0.053008154,0.1636511,0.06299793,0.3795931,0.003062656,0.0369922,0.02300505,0.12988882,0.016714698,0.06704767,0.28156012,0.15562737,0.09207464,0.1656485,-0.050390404,0.038568612,0.033120465,0.16886623,0.14817001,0.23822808,0.066183455,0.23829661,0.2332107,0.06735271,0.2112754,0.32839832,0.13555439,0.15081804,-0.0063301735,0.21531309],[0.2182637,0.28995773,0.23058404,0.011514428,0.23230526,0.075792104,0.11822296,0.052962586,0.09109402,0.4648416,-0.09788783,0.41574997,0.119890325,0.075962655,0.11868705,0.4609413,0.035712767,0.15018348,0.43200904,0.13834131,0.051296126,0.3254288,0.07636906,0.3053444,0.48850226,0.37634873,0.267434,0.47168496,0.24195111,0.28313625,0.2917187,0.28397733,0.35724157,0.13471308,0.09869221,0.10875556,-0.028905598,0.28882712,0.46690148,0.18864653,0.07373666,-0.04469236,0.24613634,0.07948719,-0.031132322,0.1351557,1.6135164e-5,0.14036843,-0.06914389,0.1911172,0.2483896,0.17378983,0.22587933,0.09018689,0.13702337,0.15029159,0.09493668,0.23358077,-0.043504972,-0.036188196,0.16157767,0.38739187,0.078036405,-0.070016816,0.21470936,0.061920065,0.18107869,0.08604632,0.27590698,-0.065553345,0.00074391044,-0.2720602,0.12980731,0.08187326,0.07014399,-0.011960025,0.24009487,0.0123882275,0.020295605,-0.090990454],[0.36386478,0.2498388,0.11325508,0.4733628,0.3864697,0.028185671,0.40547222,0.11066422,0.23090515,0.11432782,-0.062480632,0.3413209,0.106510244,0.047195297,0.071607076,0.45703173,0.40568042,0.2586994,0.12406106,0.23666202,0.3557198,0.2625282,0.091154225,0.14444502,0.085724786,0.36229765,0.06216788,0.2911891,0.029312123,0.18478203,0.11552628,0.2557092,-0.06882932,0.30237108,0.40674403,0.09987652,0.33035198,0.46105456,0.4482613,0.1049349,-0.16849682,-0.08273908,-0.17904912,-0.007732519,0.021724282,-0.2715732,-0.25780284,-0.44171867,-0.0046793316,-0.3258266,-0.07686302,0.025601914,0.11772,-0.061115697,0.06868153,0.08808561,0.064460546,-0.048063155,0.03091799,-0.0039662975,-0.08867839,0.15843028,-0.16584483,-0.02764556,-0.13447946,-0.44009465,-0.17084658,0.00071247073,-0.069809616,-0.21157472,0.067102425,-0.14693181,-0.12882501,-0.24475151,-0.1514398,0.031557783,0.05824714,-0.22898749,-0.17134218,-0.13336621],[0.20330885,0.25559726,0.2585401,0.16817884,0.31931308,0.4684075,0.16591571,0.13782924,0.39358717,0.18167214,0.4269786,0.14473213,0.28853235,0.46426836,0.44885764,0.2656841,0.20914023,0.27721384,0.112422176,0.31674418,0.48107272,0.24009298,0.4170785,0.2778006,0.2540303,0.23490107,0.26582944,0.25331894,0.25902274,0.15805106,0.2567495,0.07202592,0.3731691,0.2487999,0.34159833,0.40573847,0.31862825,0.19017659,0.087477595,0.3231351,-0.36394843,-0.2953163,-0.119893484,-0.36996818,-0.38350952,-0.18709144,-0.12618941,-0.20555852,0.020349279,-0.20247059,0.014536213,-0.024620704,-0.13936539,-0.30193287,0.090438575,-0.13167933,-0.2018681,-0.2433914,-0.26090765,-0.032861345,-0.08511548,-0.26553318,0.088623375,-0.11934686,-0.117578864,-0.42410633,-0.3367462,-0.3035893,-0.3127509,-0.19688414,-0.019389598,0.0019748856,0.10694107,-0.2291243,0.014706161,-0.22343409,-0.27645415,-0.24137452,-0.31699625,-0.40245613],[0.16191982,-0.06709489,0.15294108,0.2407066,-0.036544055,-0.11784762,0.34026483,0.025291273,0.33836368,0.16554862,0.25109074,0.17084984,0.30561814,0.4484045,0.26828706,-0.04318871,0.08969016,-0.15562874,-0.048818093,0.19718963,0.08468029,0.22374617,0.05078783,0.11022182,0.21993643,0.27581954,-0.10532755,0.050040234,0.029512128,0.026619734,0.027480485,0.29469573,0.072229594,0.096241735,0.26539677,-0.046517357,-0.0073398906,0.21483645,0.12023719,0.18917307,0.023428828,0.18517841,0.2168194,0.15727685,0.067153364,0.11982462,-0.025316194,-0.108054325,0.12126545,0.17756642,0.3507795,0.087382615,0.2929186,0.3839762,0.064947635,0.097528756,0.048955116,0.053049605,0.041682065,-0.014203249,0.24180117,0.17902108,0.15642561,0.2497036,0.1958555,0.117016636,-0.0070938524,0.3185614,0.3397757,-0.053885538,-0.042384956,0.12849422,0.14246887,0.31747034,0.29320762,0.33840248,0.14377843,0.2581241,0.37991932,0.41876245],[-0.033783462,-0.13093422,0.09675697,-0.031962983,0.07409589,0.30930975,-0.099033386,0.09874697,0.006941307,0.118850194,0.15217903,0.20402253,0.078726776,0.05559966,0.12892579,0.110226415,-0.025141302,0.14872529,0.11996208,0.10933567,0.03844551,0.015061272,0.21736975,0.14286424,-0.01581756,-0.019473584,0.030017313,0.01922316,0.10252821,0.20026445,0.14910388,-0.07611332,0.057125226,0.061708726,0.059486486,0.33727634,0.069811,0.07287359,-0.093099535,0.10313454,0.53629273,0.48980936,0.34957683,0.32891023,0.34120288,0.19742315,0.49593398,0.44028515,0.2274007,0.5211724,0.032797933,0.38715386,0.024031766,0.16958986,0.09839539,0.36239183,0.28783476,0.37715724,0.37734345,0.41235498,0.104197904,0.12111549,0.18994975,0.16678104,0.31293932,0.4578455,0.40362242,0.2534742,0.31786108,0.2627901,0.28034467,0.30719408,0.16463017,0.36972478,0.27612007,0.27004832,0.35945368,0.30982882,0.36148113,0.16451283],[0.13663448,0.3413591,0.1565004,0.20886022,0.16335388,0.36520338,0.12722138,0.4004921,0.17227554,-0.07319084,0.41934675,0.2011222,0.34904665,0.082884766,0.1229094,0.02235824,0.29874262,0.34781998,0.28743306,0.27924222,0.31989172,0.35899743,0.38380533,0.341733,-0.039023567,0.027269743,0.3198627,0.14839223,0.30049145,0.31165537,0.16011262,0.28106022,0.1591466,0.19770077,0.30257526,0.45750183,0.47916692,0.1369379,0.09716935,0.027615748,0.062557824,0.110963665,-0.19575489,0.24270174,0.19677563,0.064972326,0.07184974,0.07096898,0.14043783,-0.0043539554,0.03993414,-0.11087436,-0.03136761,0.090100326,0.20897378,-0.10212061,-0.09822555,-0.04498575,0.20659791,-0.0278211,0.03967211,0.008104409,0.21308926,0.086893536,-0.16679575,0.068532154,0.10281727,0.07292113,-0.038647365,0.25685057,0.2658513,0.07130191,0.13294825,-0.11398887,-0.16445257,0.046401735,0.16695252,0.18975998,0.10843077,0.14433682],[-0.23182973,0.15419143,-0.10815662,-0.25530648,-0.23204115,-0.12610532,-0.1026656,-0.12643653,0.11779447,-0.2883985,-0.040639244,-0.20432486,-0.0036100666,0.0061423606,-0.0040863375,-0.0017894761,0.03319614,-0.08615896,-0.18863323,-0.079245314,0.198398,0.12951586,0.051810976,-0.01632378,0.020546276,-0.15499464,-0.045336872,0.24360256,0.028878516,-0.17164949,-0.030583277,0.0492528,0.15772288,-0.26573694,0.019519249,-0.17061113,0.17092372,-0.14929196,-0.0665178,-0.23620556,0.21640018,0.33222687,0.18425104,0.5919608,0.657457,0.15468435,0.27860805,0.41980445,-0.08752259,0.1671364,0.09999632,0.27232927,0.42132705,0.052913763,0.1099471,0.3650569,0.46521094,0.37945136,0.50025135,0.14675815,0.3617187,0.5173261,0.18895091,0.38998452,0.3758456,0.22375657,0.49139586,0.2728258,0.11898839,0.45026386,0.5591749,0.28749317,-0.23653057,0.37375158,0.08278917,0.0028388738,0.20828518,0.441277,0.4193087,0.39703637],[0.26042128,0.45489874,0.3766024,0.16035344,0.23590155,0.17680456,0.31094715,0.5343355,-0.07676089,0.50912017,0.10758134,0.27954054,0.089359015,0.2515948,0.051826123,0.31045163,0.27027094,0.39415276,0.45953995,0.24165381,-0.006363954,0.13774614,0.11151923,0.2529731,0.54259235,0.37704724,0.54875356,0.3849192,0.41899943,0.23793359,0.31732377,0.3183748,0.14714059,0.35618004,-0.0027579335,0.18954337,0.10394377,0.2797254,0.30311498,0.46124542,-0.12865669,-0.06427854,0.084304206,-0.079959005,-0.07029705,0.08974556,0.047483396,0.28977713,-0.1113175,0.14980921,0.15996896,-0.070960134,-0.03697314,-0.10166663,0.036559165,-0.13503344,-0.070996255,-0.007790395,-0.08782447,-0.11297745,0.050524205,-0.08718865,0.13544898,-0.04085499,0.08774721,0.18293047,0.07862682,-0.044466283,-0.024134474,0.08581595,-0.010040789,-0.010472603,0.04647986,0.040795304,-0.009312336,-0.19351771,-0.14882192,0.14744145,0.06866567,0.043814026],[0.46681532,0.27985218,0.15946062,0.41175428,0.47244436,-0.06383569,0.17991303,0.065292835,0.38878554,0.19679405,0.030126344,0.34390342,0.20750405,0.24614307,-0.10167514,0.04338585,0.08333763,0.031428978,0.46897534,-0.005131568,0.008926792,0.03922205,0.017295823,0.057623256,0.095175564,0.20657331,0.23939954,0.34443888,0.0863975,0.4782845,0.18558258,0.4835472,0.027015977,0.20505233,-0.041849066,-0.03607577,0.20931347,0.17627065,0.072045386,0.14538902,0.12025487,-0.065181136,-0.08346713,0.0111492295,-0.08235636,-0.09774248,-0.042175986,-0.29776138,0.26966578,0.16303268,-0.087165155,-0.2595391,0.10808063,0.06915596,-0.16554758,0.073825575,-0.17220682,-0.28744042,-0.10192345,-0.22326034,0.0075093866,0.09129205,0.03998838,-0.011166088,0.15425336,-0.08029068,-0.20279971,-0.17941076,-0.016549982,-0.14355953,-0.2729908,-0.21401428,-0.059550177,0.102147065,0.102151096,-0.08796155,0.07625708,-0.19747786,-0.08515127,-0.123175204]]],"bias":[[0.3595961,0.3428068,0.27679893,0.11228534,0.56999105,0.7860562,0.26056227,-0.005429041,0.048200425,0.46689907],[-0.02313523,0.1645588,0.12356497,-0.06471624,-0.13189532,-0.0713406,0.23725113,0.14391975,0.033309214,-0.12828863],[-0.15337797,0.34432048,0.07666966,-0.03222928,-0.23374483,-0.21856774,0.3566492,0.108512014,-0.10478408,-0.11579566],[0.0033961039,0.14165191,0.13258973,-0.240107,-0.13170363,0.5950161,-0.040633954,-0.07673163,-0.29537365,0.037646886],[-0.120094754,-0.26971895,-0.1660942,0.23865849,-0.15362464,0.09045766,-0.055417012,0.020944193,-0.2121607,-0.19056556],[-0.057079904,0.047135994,-0.018010177,0.23754974,0.064768285,-0.09472852,0.062438384,-0.020081786,0.097783156,-0.07652165],[0.06726231,0.005323977,0.1416137,0.10316732,0.041626442,0.2933611,0.06583162,0.10982082,0.3856869,0.106119156,0.32927778,0.101886004,0.2947146,0.28564465,0.4049432,0.14162457,0.1232117,0.06522354,0.016818214,0.120334394,0.24644013,0.16971911,0.36858198,0.12916885,0.08322587,0.001691606,-0.0152716115,0.16350618,0.17986827,0.14960922,0.23721293,0.078643896,0.39255232,0.09936053,0.20670165,0.19245628,0.24233437,0.056769192,0.08327856,0.08039514,0.05877438,0.04164286,0.14948389,-0.014729711,0.119816065,0.19965513,0.027417375,0.092535146,0.27018514,0.037878122,0.18688981,0.060802106,0.25652024,0.18274945,0.22380944,0.13246472,0.23509379,0.107536055,0.084788755,0.21330588,0.12965651,0.20137943,0.083672754,0.18574122,0.15837531,0.14716291,0.09176016,0.161142,0.16352682,0.180438,0.089431174,0.100956604,0.17474598,-0.009312553,0.123055905,0.16175275,0.14564769,-0.0032633047,-0.026841044,0.15634996]],"Losses":[1.0920990717904917,0.9817749788080028,0.8876958195977094,0.8038149158619496,0.7263688243140891,0.6532661545410301,0.5842405995824357,0.5208181708328484,0.4658002703295725,0.4222928036859799,0.3912150811431213,0.3683524019088248,0.34775797344137344,0.3273782571954908,0.3087123608711822,0.2937758771227436,0.28352056040973794,0.2775873741364604,0.27459949820389756,0.27293692622879867,0.271515427723412,0.2699943628848232,0.26850123008092114,0.267215559239156,0.2660812853222583,0.2648147144175606,0.26315927316753557,0.26109888600527076,0.2588702469746289,0.25682380038182,0.2552307658363605,0.25415075126132136,0.25343960508778524,0.2528684907522593,0.25225915052913417,0.25155521745383963,0.25080140115578864,0.2500720041652314,0.2494113612559083,0.24881876339827338,0.24827493976440104,0.2477823858587572,0.24737685488650046,0.24709554208433973,0.2469365684722416,0.2468498001337677,0.246765964424371,0.24663941725245175,0.2464720716613295,0.24630230210097057,0.24617085541571232,0.24608987874529953,0.24603646714543168,0.2459741064614086,0.24588171046715335,0.24576459967191608,0.24564256790054897,0.2455308495846304,0.24543074785957342,0.24533526173269443,0.2452411487227474,0.24515407280725224,0.24508284273756434,0.24502976908471694,0.24498713382679138,0.24494341179347173,0.24489231392393185,0.244835515659013,0.24477786503816243,0.2447208349598163,0.24466065464259243,0.24459244740982217,0.24451506860276373,0.24443106899846653,0.2443422315566628,0.24424573824284226,0.244135126696757,0.24400474793647023,0.24385254025314762,0.24367827315581683,0.24347926959928426,0.24324817434767687,0.24297482771359688,0.24264916926021207,0.24226104939919654,0.24179725143525482,0.24123967933297255,0.24056679877919154,0.23975472181248833,0.23877349856591273,0.2375818217238642,0.23612857544743537,0.2343600262664575,0.23221954829701733,0.22963892519521528,0.22653778494449667,0.22282750708535784,0.21841640209363059,0.21324405348460485,0.20731665916133601,0.20076347058125477,0.19394727117723037,0.18760372577657974,0.18290186564087815,0.1810043934136197,0.1833060378406506,0.21006040817683044,0.184812543298394,0.1974643409268171,0.1775135917895321,0.19052297342781704,0.17516046869555918,0.17735589503181373,0.1768025236586738,0.16677974985118552,0.17401808897555104,0.1670800173035093,0.16577601383401316,0.16876565124339374,0.16210633190928123,0.16388799009365546,0.16368107720738656,0.15905759589171733,0.161246434958584,0.15875516719358698,0.15603617306706988,0.15735382837912898,0.15393165635144898,0.15325598036226037,0.15316121404679475,0.15032130281191192,0.15091610024441432,0.14928029137641094,0.14815831689959622,0.14838462592001775,0.1464815026273475,0.14682553166898546,0.1457736921409081,0.14505835335420939,0.14499336052494938,0.14369300961150283,0.14383587274244206,0.14284153296880392,0.14254067886285318,0.14217902389989612,0.14146367948815658,0.14147904225459088,0.1407665741301862,0.14075474600149518,0.14033480186549752,0.1400926771892985,0.13996450349315423,0.13955623101597145,0.13954459108429565,0.13915918709094827,0.13910624062589347,0.13884382114366114,0.13868766763694973,0.13855572121914742,0.13833324734369107,0.1382791530366693,0.1380549583893231,0.13801878747296425,0.13783140569033675,0.13778005134328464,0.1376391356005539,0.13755802328396605,0.13745852613200987,0.13735816827296854,0.13728912177098268,0.13718189132573155,0.13713122847896925,0.13702755238522205,0.13698501529141713,0.13689185284377386,0.1368517986255702,0.13677076650599138,0.1367290999572637,0.1366582850466737,0.13661253223268358,0.13655018182824488,0.13650218510496115,0.1364466620692709,0.13639734751091703,0.13634725423388955,0.13629853697148867,0.1362526055827844,0.1362052710183599,0.1361623075079657,0.1361163954944807,0.13607513050533535,0.13603035333016003,0.13598995657095922,0.13594642657337355,0.1359068686123319,0.1358646215380031,0.13582576485406253,0.1357850453744166,0.13574701519135446,0.13570761264664602,0.13567022792716088,0.13563201849208437,0.1355950754002137,0.13555773555464776,0.1355211062554191,0.1354845376341095,0.13544816993498845,0.1354122461164676,0.135376181128183,0.13534090248710018,0.1353051736394734,0.13527038147708312,0.1352349931015838,0.13520065423620925,0.13516560878448483,0.13513155384107714,0.13509687948581414,0.1350630825204043,0.13502878579557354,0.13499517897701074,0.1349612985475476,0.13492785539723157,0.1348943377050644,0.13486103779192543,0.1348278786435311,0.13479472171607118,0.1347618241059955,0.13472883682551207,0.13469617059350344,0.13466338201785635,0.13463087982026256,0.13459832926174814,0.13456597393654315,0.1345336450934989,0.13450141970813964,0.1344693192536664,0.13443723415112846,0.13440530835989098,0.13437338724972428,0.13434162087373266,0.134309872146997,0.13427823444902898,0.13424667002695168,0.13421516010102089,0.134183749752464,0.13415237365175675,0.13412110479896894,0.13408986918365476,0.1340587123121552,0.13402762350340897,0.13399658258458177,0.1339656182137189,0.13393469982597464,0.13390385325412357,0.13387305279344847,0.13384231206716646,0.13381163236600788,0.13378099203334018,0.13375041499607318,0.1337198831328953,0.1336893992924649,0.13365896068013777,0.13362856285716987,0.1335982123635669,0.13356789465078722,0.13353761516277057,0.13350737217541317,0.1334771549114791,0.13344697084515694,0.13341680942452416,0.1333866707116169,0.1333565521491334,0.13332644693318463,0.13329635348617164,0.13326626850482484,0.13323618563044662,0.13320610238613254,0.13317600957567108,0.1331459058776131,0.1331157849311105,0.13308563809040735,0.13305546171061075,0.13302524727564574,0.13299498525816222,0.13296467277741233,0.1329342964473601,0.13290384890419082,0.13287331979851832,0.1328426967300598,0.1328119712999817,0.13278112965360547,0.1327501586202587,0.1327190440529742,0.1326877728713899,0.13265632524412088,0.13262468373595865,0.13259283173997016,0.13256074901648943,0.13252841255089187,0.13249579950722795,0.13246288508754217,0.13242964452999922,0.13239604857513362,0.13236206941525225,0.13232767544471108,0.13229283505020212,0.13225751628126134,0.13222168248853217,0.13218529795723188,0.13214832942515906,0.13211073513500785,0.13207248256482254,0.13203352585020273,0.13199382736388982,0.13195334291309802,0.13191203130617704,0.13186984430991483,0.13182673676814127,0.13178266272750871,0.1317375801333529,0.13169144407741046,0.13164421427705397,0.13159585434747118,0.13154633197048596,0.13149561845380486,0.13144369631218533,0.13139055227343213,0.13133618199921784,0.13128059066307823,0.13122379292423947,0.13116580763833838,0.13110665701934032,0.1310463664030739,0.1309849560609039,0.13092244200379433,0.13085882777817626,0.13079409867543135,0.13072822253126518,0.1306611432962133,0.13059277363867505,0.13052300369587044,0.1304516921737594,0.13037866929935402,0.1303037522251577,0.13022672834334334,0.13014738464300282,0.13006549566271658,0.12998084078649602,0.1298931989774945,0.1298023627094788,0.12970811961755188,0.12961026846573825,0.12950860378391366,0.12940291266837392,0.12929296082398925,0.1291785284169269,0.12905941183244965,0.12893614606519188,0.1288117623255365,0.12870950316834825,0.12864094391851294,0.12866239119143794,0.12872401620384336,0.1286882887816877,0.12839149680255169,0.12793355722968008,0.12757543494853266,0.12744573041538193,0.12742888062680266,0.12730668675803167,0.12699431003346004,0.12658147328445676,0.12623969551429703,0.12601675223541942,0.12583345189334832,0.12559439564828223,0.12524265949654662,0.12480610842622694,0.12433758052782899,0.1238794953069708,0.12343652444497176,0.12299338414729358,0.12254867084260225,0.12214327817442955,0.12192165281480165,0.12229800914096658,0.12345938865858558,0.12524089920981088,0.12301836068935851,0.11914055874281987,0.11796680937707603,0.1196459608462614,0.11998235447125742,0.11699582759389134,0.11495850137775841,0.11493913103385248,0.11566066683398855,0.11586891348363593,0.11292049953891348,0.11084503473423407,0.11022887452336055,0.11033314226183116,0.11154999317641631,0.11216452678235779,0.11132073571315047,0.1079281630120292,0.10522231057647724,0.10380240103783885,0.10417244529006585,0.10605140299875165,0.10662726769343159,0.10591908248201555,0.10226110443142565,0.09944166107260811,0.09880882305471511,0.10019005753688037,0.10221381231461184,0.10075009435316333,0.09738949833958807,0.09520889581504002,0.09500667337694582,0.09519905992516255,0.09506454368502562,0.0956879160654413,0.09672241742581751,0.09699176372037575,0.09251708435620001,0.09013793148112098,0.09120167740605707,0.09288486398736225,0.09266788390773902,0.09012107808838461,0.0890134090238206,0.08894944051570504,0.08827439740415369,0.08851891258472926,0.08919438161194501,0.08891274759627037,0.08681428665442754,0.08552608712265596,0.0854829196402014,0.08540771861604217,0.08447580801204063,0.08355419984654919,0.08324376472105878,0.08332988549053147,0.0835350361555415,0.08362427226513831,0.0860501941230039,0.0965121618773088,0.10430086227583489,0.08878367328665963,0.08188583894703585,0.09391894303426301,0.09126070537017354,0.08165636498211228,0.09058702008782453,0.08789568675215244,0.08094348610491028,0.08814101060105269,0.08539032477725517,0.07966088375928115,0.08526894814232454,0.08464405847794639,0.08049879028498111,0.08130472677401207,0.0816012606148985,0.08287654008526453,0.08027027999834517,0.07831394511178727,0.08164665476610329,0.08022879804437487,0.07786155125940544,0.07878426729152484,0.07881124152615694,0.07866049506940598,0.07793097837988303,0.07659185530594997,0.07754973748662047,0.07842301190396841,0.07684612059721312,0.0764417504663922,0.07582352330307689,0.07527261898053123,0.07628973228484155,0.07678685462773356,0.07662710377196454,0.07773074099354571,0.07819415489156659,0.07694663310577309,0.07620875494953921,0.07465434302459151,0.07368531800870787,0.07379161801470695,0.07318589484649085,0.07260444854240163,0.0727239999533426,0.0727106801193046,0.07251533849190818],"R2":0.34648627303799817}