{"architecture":[["Dense",[4,20]],["Dense",[20,20]],["Dense",[20,20]],["Dense",[20,20]],["Dense",[20,20]]],"weights":[[[0.703584,-0.98662066,-0.0015766572,1.1342086,2.2618678,0.8918639,-1.6637315,2.678039,6.2756786,-2.5181684,-1.151057,-3.1023376,2.588781,-2.2199264,-0.55830437,-2.0761166,-2.2871408,4.420015,-1.274967,2.7589207],[0.18409185,-1.0727731,0.051470667,0.41573316,0.62026066,-1.2244949,0.18525308,-1.3488739,-1.9986008,-0.59541136,-0.8243677,0.511714,2.0239727,0.750597,-0.5019539,-0.016471332,0.59418964,2.255515,-1.6854659,1.5920701],[-2.8028913,2.1854777,2.5635123,-2.4241047,-2.0146964,-0.39518762,5.459476,2.2328517,-0.78110486,-1.5240252,-1.492423,-1.9083188,-0.61620724,-0.95274705,5.2489753,-0.34438017,-0.04037092,-2.9860137,-0.36349523,-2.0639062],[-0.5662203,0.90389955,0.020854997,0.13834621,-0.4757641,0.86067295,2.9034255,0.3239947,0.87444615,0.66471535,0.3206546,0.3663097,-0.038658656,1.6022673,-0.11861564,1.296281,1.0180329,1.1667401,0.98613364,0.25814596]],[[0.41422135,0.3283467,0.7205069,-0.22164537,0.23956986,-0.06608183,0.26552474,0.24256329,0.6612417,0.23615296,-0.30961847,-0.2038366,-0.16151488,-0.35921112,0.26636627,0.22168207,0.0514381,-0.18395631,0.46830255,-0.28103355],[-0.9765779,0.4503035,-0.22786951,0.051554613,-0.07762793,-0.3410194,-0.110161625,0.2017939,-0.24095282,-0.07407348,0.42840865,0.2856308,-0.085782856,0.20517401,-0.3108667,0.11012848,-0.1809204,0.092698686,0.31336787,0.36238948],[-0.2887672,-0.26863682,0.29113963,-0.006412812,-0.01304104,0.23144133,-0.0076164505,0.10932963,-0.051934592,-0.07018586,0.16110028,-0.039116476,0.022837069,0.6446439,-0.19165309,0.009828639,0.065193325,0.5166895,0.2599289,0.37455788],[0.57852817,0.71993214,0.3617101,0.2544569,-0.44201353,0.18644905,0.27311304,-0.11976688,0.23405553,0.24919055,0.02407864,-0.010338467,-0.18004997,-0.52972215,0.22284456,0.25189483,-0.39575016,0.25768068,-0.23784918,-0.26751927],[0.9491283,-0.08182166,0.15442094,0.29832584,0.026495315,0.032857463,-0.23255612,0.008460089,0.5595095,0.3569145,-0.5475766,-0.18394643,-0.5619717,-0.23150548,0.38470635,-0.13384466,0.41571698,0.0072707823,0.26596013,-0.17131352],[-0.043628987,0.32901296,0.17812137,0.10688155,0.21084072,0.17361979,-0.39724523,-0.35931396,-0.12140191,-0.059794873,-0.044735324,0.14405711,-0.11497627,-0.30646706,-0.14623918,-0.2444558,0.12743904,0.46486157,-0.040843837,0.26233152],[-0.7740686,0.2655821,-0.54274946,0.15390973,0.26513323,0.17974278,0.22966605,-0.18507074,-0.00094597787,-0.6915739,0.46010268,-0.18688284,1.0548851,1.2484901,0.3732817,-0.3543264,-0.021808779,0.49297798,-0.35231012,-0.10361698],[0.21075684,-0.6218324,-0.69074535,-0.6052995,-0.08563454,-0.02347245,-0.14398716,-0.21897659,-0.46241063,0.38716984,0.17251894,0.08851093,-0.5183478,-0.18396024,-0.021861972,-0.41513,0.97515696,-0.11414062,-0.15984085,0.41474846],[0.5649429,-0.47852114,-0.59317774,0.13926369,0.35128713,-0.4093246,-0.27289417,-0.5968112,-0.46312204,1.0674579,-0.45807618,0.2572713,-0.28461933,-0.9698523,-0.16316049,0.12446726,1.5491449,0.57792646,-0.67898273,0.24746265],[-0.43325934,0.5940338,0.24510631,-0.14481154,0.078409486,-0.3086768,-0.45898402,0.7079101,0.75207305,-0.3617839,-0.34330857,0.10108964,-0.15030603,-0.28437498,0.29538104,-0.42980546,-1.0139779,0.36804888,0.64694136,0.11124042],[-0.32696015,0.6735361,0.6408895,0.2553867,0.18417048,-0.16724575,0.2152896,0.49188748,0.12357495,0.083409674,-0.48123255,0.26324642,-0.17303619,-0.1092813,0.37891623,-0.3726749,-0.20981944,0.11570296,-0.0025541713,-0.124032296],[-0.77273583,0.49884957,0.8883252,0.29652134,-0.31096974,0.26261508,-0.22381765,0.835789,0.80191517,-1.0765587,-0.05039241,0.042746186,0.0357785,-0.16603294,0.36107877,0.2993038,-1.3629588,0.12815793,0.9178733,0.090321444],[0.778472,0.40551016,0.26303393,0.36351687,-0.54556125,-0.40997732,0.02765489,0.25361335,-0.06154988,-0.004061227,-0.08689292,-0.15001342,-0.19557366,0.08189682,-0.4645537,-0.3039505,0.23046464,0.02048171,-0.0045329384,-0.12382402],[-0.30225772,0.41312405,0.34420207,-0.21637371,-0.37066054,-0.35372508,-0.42497244,0.24697249,0.4561187,-0.7177494,-0.094833545,-0.24639532,0.6681892,0.1965333,0.43315253,0.067889385,-0.9724457,0.024575358,0.19806498,0.063210174],[-0.8628092,-0.6742781,-0.64840394,-0.54820627,-0.489689,-0.052582573,0.27563453,0.055512864,-0.4047496,-0.34736764,0.5839551,-0.455985,-0.11888778,1.3041248,-0.20819563,-0.4009612,-0.056272764,0.1721487,0.12975629,0.0272484],[-0.6862783,0.35402837,0.13172953,0.045131676,0.07630103,-0.2916904,-0.42354867,-0.08098039,0.49913657,-0.38082156,-0.44456187,-0.021941846,-0.042899195,0.36279428,-0.044774484,-0.3647126,-0.94295704,0.3939214,0.12198301,-0.14514072],[-0.67229104,0.7327395,0.5086819,-0.25238043,-0.032217808,0.023489462,-0.31507817,0.46180838,0.56256855,-0.68047744,0.08160391,-0.35860583,0.14941537,0.2760372,0.2371857,-0.32478178,-0.8258991,-0.29568937,0.20041165,0.31939173],[1.4481323,0.30384648,0.22029154,0.59412915,0.28738508,-0.21411869,-0.47038215,-0.52001977,0.67384076,0.9844936,0.12401293,0.028686654,0.37583062,-0.9709868,-0.4185273,-0.25551036,0.68558997,0.10092433,-0.7371121,-0.0693733],[-0.30983105,0.45034415,-0.03706088,-0.51498187,0.19321737,-0.43426573,-0.019251868,-0.104185574,0.5059338,-0.2858317,-0.18229957,0.29427338,0.0016031546,-0.18825729,0.33214936,-0.11773606,-0.3068185,0.26779372,0.531254,0.10010725],[1.3205401,0.26884845,0.59551203,0.28302217,-0.36422864,0.2657401,-0.09156602,-0.41563448,0.5295807,0.27270508,-0.11424626,-0.12721309,0.046127193,-0.33806306,-0.41343403,-0.4638242,0.376085,0.21694854,-0.011333967,-0.44212964]],[[-0.5665161,-0.38066164,-0.8622726,0.36095738,-0.5244989,0.18583915,-0.45854506,0.55628985,0.17387575,0.68117833,1.3357165,-0.63354594,0.015784707,0.39097896,-1.2673006,-0.51334924,0.31800932,-0.8528463,-0.49043462,0.1903502],[-0.49167103,-0.09324557,0.09104035,-0.2216295,-0.18615906,-0.25453228,-0.118436806,-0.5429232,-0.48627698,-0.4245842,-0.5571548,-0.7556687,-0.018998325,-0.47652978,-0.17135195,-0.5365807,-0.022131503,0.47735614,-0.4032343,0.11530602],[-0.46697554,-0.0925541,-0.13592607,0.18610898,-0.4870726,-0.20694132,-0.032421622,-0.5673407,0.13237023,-0.4466028,0.15805863,-0.95567137,0.04933065,0.20120525,-0.105795644,-0.56528527,-0.42005837,-0.14415586,-0.30835187,-0.30690882],[0.19583818,-0.15828532,-0.21376032,0.43829432,-0.22872335,0.2980156,-0.39795128,-0.34246618,-0.5090376,-0.20858742,0.24860972,-0.58192736,-0.2859123,-0.43421954,0.086306326,0.004238491,-0.27151448,-0.18959445,0.28903773,0.20369174],[-0.050511498,-0.15117234,-0.2964011,-0.20266081,0.24858287,0.29082367,0.028853443,0.36890358,-0.27691668,0.47285196,-0.3077602,-0.55289054,-0.28539482,0.25995734,-0.24119008,0.25051346,-0.0059775366,-0.23035555,0.15066989,0.15990569],[0.27298683,-0.3362458,0.2682658,0.36730692,0.21082272,-0.40959743,0.27148423,-0.30704767,-0.2244856,0.098626666,0.028351827,0.19113861,0.2833475,0.113111824,0.09495412,-0.13528048,-0.32643056,-0.7583826,-0.4192012,0.017868109],[-0.07628382,0.017223118,0.056816783,0.28629485,-0.20163849,-0.29441896,-0.26046094,-0.21259367,0.15900272,0.20591679,0.30844033,0.66580683,0.099415384,-0.14268787,-0.19149606,-0.2933719,-0.27451494,-0.5610018,0.2071241,0.04701525],[-0.34698707,-0.055139042,-0.12852313,0.11932223,-0.36276898,-0.6507316,-0.18299872,-0.23765264,0.003951067,-0.15953855,-0.57353586,-0.6377482,0.23257649,0.119851455,-0.12938559,-0.45648718,0.107567064,-0.87633336,-0.0854445,-0.08261004],[-0.109601915,-0.07896681,0.04252254,0.21358436,0.034646533,0.037345648,-0.023694996,-0.4732423,-0.37892509,-0.84639466,-0.6792317,-0.9656759,-0.27721348,-0.45645472,0.29731473,0.080731496,0.10029919,-0.43434748,-0.08416475,-0.17190482],[-0.028281128,0.28063732,-0.186307,0.45257497,0.2311969,0.26062977,-0.3247647,0.12939326,-0.17818499,0.8007987,0.80112684,-0.6809826,0.0739772,-0.256771,-0.15779051,-0.16309151,0.38205084,-0.39574006,-0.1685202,-0.20359503],[0.14576535,-0.08023618,-0.39880833,0.08528934,0.23883657,-0.10934437,0.14790635,0.2674302,0.1594564,-0.17876862,-0.1021988,1.2296996,0.07319965,0.32815698,-0.36304808,-0.2347908,0.39125016,-0.044278212,-0.17686373,-0.13027835],[-0.22946468,-0.38621953,-0.047103878,-0.29366,0.009717081,-0.06160983,0.3902874,-0.023780579,0.20401044,-0.18414602,0.021809455,-0.5794085,0.22581995,0.018890636,-0.19694456,0.07322572,-0.114151895,-0.44610357,0.20966278,-0.031808246],[0.45328587,0.12778983,0.0864484,0.1974011,0.33148232,0.123904645,-0.00403077,-0.36615998,-0.36749247,-0.5486025,-0.38931933,0.2561726,-0.13892116,-0.10733678,-0.2588007,-0.1273832,0.057959408,0.8794016,-0.17496438,-0.041558538],[0.008445114,0.7276495,-0.42212966,0.63181305,0.26710486,-0.7417739,-0.14048071,-0.012397339,-0.523871,-0.42701957,-0.5441536,2.8661013,-0.54513836,-0.33283022,-0.86840534,0.3785557,0.017606799,1.3657659,-0.33181065,0.20401908],[-0.38122797,-0.4391329,-0.48471805,0.14298376,-0.16891839,-0.21116228,0.26190728,0.007033685,0.20923832,-0.44600576,-0.82998013,-0.91521406,0.08980135,-0.21183185,-0.0936796,0.20756409,-0.26864055,-0.4044906,0.16916335,0.16514178],[-0.38275188,-0.034012932,-0.24085248,-0.07577112,-0.16542336,-0.082681105,-0.15380083,-0.14342475,-0.10612643,-0.24343222,-0.052018758,-0.04537508,0.1905778,-0.3766957,0.38808724,-0.2207037,0.17145577,-0.17219608,0.22665688,0.17777282],[1.0199695,0.11399923,-0.002410241,0.47909057,0.38556954,0.49476713,-0.058477525,0.54978395,-0.074842215,0.837404,1.1970223,-0.23428354,0.2354786,0.33612138,-0.22148064,0.27411377,0.088404715,-0.55283964,-0.18993796,-0.42808384],[0.4627845,-0.23061396,-0.03618349,-0.108186595,-0.1970882,0.20130545,0.27290982,-0.09180753,-0.17714855,0.25951514,-0.4674161,-0.122435294,-0.10284447,0.014106998,0.325322,0.03707536,-0.23469229,0.016075257,-0.48566666,-0.20136908],[-0.4321844,-0.03866798,0.20203824,0.5880195,0.13542372,-0.4707044,-0.06186141,0.3651284,-0.08871595,-0.29555616,-0.8298114,-0.86182547,0.10356975,-0.40661785,0.109838426,-0.28392303,0.005533593,-1.0349051,-0.010480948,0.0010547048],[-0.20593764,0.3893447,0.19279304,-0.22512467,0.037756905,-0.09907511,0.3557996,-0.10969755,-0.40405136,0.41323623,0.13552725,0.026054997,-0.30088136,-0.20189303,0.015219629,-0.37073264,0.09699768,-0.20544755,0.14705375,0.05762921]],[[-0.26335877,0.199843,0.28237343,0.40668145,0.8460686,-0.3756779,0.20746739,-0.10108357,0.2907558,0.048288856,-0.12050642,-0.19584562,0.21053115,0.009153594,0.42922324,0.5436806,-0.08261715,0.6738779,0.07741148,0.29566064],[-0.5448766,0.03267483,-0.07208176,-0.5686003,-0.43091094,0.28255796,-0.18769561,0.2795868,-0.15032639,-0.22246711,-0.22994255,0.06448216,0.28924245,0.040389784,0.30239797,0.22172512,0.06903564,-0.39586705,0.0456546,-0.25119996],[-0.100772485,-0.37211803,0.119228505,-0.030671597,0.07323834,-0.38891444,-0.100168444,-0.18591541,0.264932,-0.11062795,-0.38871023,-0.21607299,0.11474802,-0.23611385,0.4170807,0.38218468,-0.16064522,0.20500882,0.30487823,-0.12775263],[-0.46882468,0.19376306,-0.28136316,-0.1839819,0.12586223,-0.005553536,-0.3030291,-0.07994085,-0.29784852,-0.35193458,-0.06126582,-0.15440607,-0.37048715,-0.11340406,-0.3177205,-0.26133826,-0.20977105,-0.38061255,0.13897327,0.031848468],[0.2062018,-0.17452517,0.17376819,-0.07594878,-0.19842927,-0.2373142,0.1678123,0.08063736,0.21780868,-0.17045614,-0.23780832,0.17924863,0.38688007,0.2435812,0.23059069,0.33823064,-0.36739543,-0.37539467,0.14933364,0.03398329],[-0.35828644,-0.16326506,0.2839278,0.02182942,0.60799825,-0.3191198,0.32263362,-0.20617303,0.13839255,-0.38143474,-0.15461117,-0.613184,-0.30174828,0.1598926,0.09687077,-0.48266026,-0.2387071,0.29611078,-0.32521033,-0.053570066],[-0.560567,0.20226707,-0.21790424,-0.21399623,-0.17846416,-0.18230723,0.14104295,0.12113615,0.3656348,-0.17885867,-0.09490704,-0.4259678,0.25343904,-0.16701894,0.3334602,0.3896798,-0.30035245,-0.26842657,0.33306915,0.11937234],[-0.4015998,-0.34154198,-0.45196748,-0.25005943,-0.5743708,-0.3225975,-0.30453002,-0.045349937,0.3330953,-0.06897368,-0.016056389,-0.18457738,0.072983794,-0.25945434,0.1797692,-0.18852095,-0.36415613,0.2163189,-0.31325328,-0.29073274],[0.17635061,-0.3419967,0.09174809,-0.057931315,-0.28191683,0.2618259,0.07561317,0.067407735,-0.05635658,0.25605428,0.21164714,0.044295363,0.20082611,-0.05720058,-0.30703515,-0.13508837,-0.34395224,0.19253385,-0.10355097,0.06188371],[-0.20622888,0.022038803,0.058752317,-0.8471624,-0.9389245,-0.38759708,0.041329008,-0.62238485,-0.0513518,0.15631631,-0.18433987,0.12194927,0.25666606,-0.11593304,0.03299648,-0.37158245,-0.39461213,0.07660782,-0.19237676,-0.11805052],[-0.34221023,-0.28200823,-0.14601055,0.014054356,-1.1576324,0.32837164,0.0020757979,0.38488668,0.19590992,-0.33053863,0.14512745,-0.27972502,0.017656447,0.11816765,0.36378592,-0.70933986,-1.3548862,0.5731321,-0.047352977,-0.24339859],[-0.046441056,-0.19071795,-0.72522515,-1.2790095,-1.4242823,0.17014743,-0.4687183,-1.1205993,-0.3298493,0.2989283,-0.17261231,0.05975546,-0.6877372,-0.54305744,-0.69855464,-1.0587726,0.22183916,-1.001866,-0.0575701,-0.78378534],[0.26088893,0.011104662,-0.09241249,0.04712314,0.19519325,-0.024326222,-0.13824788,-0.09728689,-0.35330063,-0.15943003,0.19609596,-0.30178332,-0.17737232,0.2774862,-0.3911208,0.20841868,-0.46752015,0.23645273,-0.115385525,-0.36438575],[0.06514341,-0.3768135,0.05155198,-0.40292487,-0.38478836,0.07663202,-0.2025581,-0.34652954,-0.26100066,-0.36519986,0.28475204,-0.2705439,0.35148633,0.26093036,0.24420148,-0.11542229,-0.0056162146,-0.14253166,0.24148695,-0.06766094],[-0.15223943,-0.51298946,0.09558527,-0.6955888,0.27851203,-0.30682355,-0.39164743,0.4332693,-0.04952575,0.276226,-0.20789109,-0.10557067,0.07457908,0.0926089,0.27908644,0.329858,0.008972488,0.09926425,-0.3932866,-0.70576054],[-0.36105642,-0.4321505,0.19539858,-0.3723457,-0.11731018,0.3040531,-0.14330581,0.37857684,0.3537774,-0.0171369,0.1762625,0.13776682,-0.1812251,0.25015455,0.29376534,-0.051358312,0.34180626,0.16892923,-0.10845992,-0.050017],[0.09382679,0.1024921,0.12011021,-0.08229348,0.12803368,-0.16625686,-0.19313654,-0.12553358,-0.22861487,-0.38268185,0.031571064,-0.14252119,0.23351839,-0.42243004,-0.19861218,-0.34247062,0.018309817,-0.55241895,-0.33626187,-0.19400842],[0.34225208,-0.0578597,0.14911267,0.26633236,-1.3540698,0.027808957,-0.2675303,-0.46838656,0.37230796,-0.44649565,-0.18171291,-0.32707733,-0.26903543,-0.131154,0.24773091,-0.28966245,0.06350303,-0.30160055,-0.20653306,-0.14836276],[-0.37724352,-0.2529661,0.19384342,-0.3596266,-0.10474983,-0.12753662,-0.054163598,0.03597652,0.35499024,0.06609166,0.19629674,-0.12632698,0.23591958,0.15306222,0.22869559,0.27402094,0.033946987,-0.2970712,-0.08719671,0.2378484],[0.21645701,0.26795396,-0.0052371547,-0.12821737,-0.1387928,-0.13096702,0.0019435353,-0.00058309274,0.17433988,-0.04264137,0.29243442,-0.48215196,-0.034204084,0.05610945,0.26714256,0.26984525,-0.13009651,0.12880969,-0.121287376,-0.24420157]],[[-0.02148295,-0.094505675,-0.040946964,-0.18348865,0.15508993,0.42678267,-0.20355748,0.3124262,-0.27595326,0.046061132,0.37055343,-0.12091358,-0.096592374,-0.2198949,-0.019943483,0.35104144,0.05805839,-0.19871044,0.004971789,0.14688945],[-0.10223241,-0.04900434,-0.32716495,0.10013435,0.1413233,-0.074269,-0.47675058,0.19126385,0.20423575,0.08205811,0.47104338,0.25079587,-0.011823277,0.20193194,0.2970751,0.41498828,0.120496765,0.1870384,-0.071960814,0.15517862],[0.197958,0.08605986,-0.1062883,0.20872368,0.29653078,0.16311105,-0.2245914,0.009781219,-0.177927,-0.10614744,-0.24624324,-0.26844817,0.36133152,0.20684706,0.09967411,-0.046965033,0.27397573,-0.19306092,0.2784376,-0.31590867],[0.058617827,0.22266395,0.21796876,-0.2872213,0.010570399,-0.10499378,0.11904804,0.3708047,-0.19993642,0.025796184,0.3411711,-0.114311196,0.23825686,-0.034114476,-0.01630927,-0.35803276,-0.26961935,-0.11893034,-0.17970923,-0.089564815],[0.1364066,0.09618269,0.30711642,0.0340116,0.08152239,0.08597374,0.25381598,0.071887575,0.06433915,0.09733678,-0.0510628,-0.13478334,-0.6905881,-0.035062946,-0.031002939,-0.18379605,-0.67570084,-0.011162108,0.054290604,-0.13848943],[0.29087502,0.40773603,0.17804557,0.39605808,0.26535255,0.1040458,0.34321776,0.34169167,-0.019078005,0.042248555,0.30100724,0.20100233,0.26510686,0.25992933,0.16654311,0.107307434,0.41627112,0.05400004,0.2662265,0.26468238],[-0.13643979,-0.09294123,0.07412897,0.15588132,-0.017171822,-0.0696834,-0.18710716,0.31327564,0.08996838,-0.17341176,0.17259312,-0.20130403,0.35613933,-0.021145558,-0.11923292,-0.11711592,0.5072066,-0.2184922,0.30201498,-0.19433624],[0.070440434,-0.1905152,0.5550461,-0.30263296,-0.064982966,-0.08770882,0.380914,0.17700644,0.23751794,0.25170866,-0.06664165,-0.12278066,0.031558517,-0.3578015,0.07331453,0.023983922,0.0036040437,0.07739748,0.035364427,-0.13875127],[0.36379772,0.047675442,-0.081143826,0.05810603,-0.04288787,-0.17543663,0.5045776,0.19682114,0.4573867,0.1950892,0.17277737,0.18823694,0.02083495,-0.12280305,-0.07733576,-0.075369276,0.21966226,0.30767933,0.024540355,0.23263456],[0.34407517,0.33488855,0.18587163,-0.0281004,0.017801024,-0.13374633,0.053597204,0.14335656,-0.083717555,0.031053413,0.52594274,-0.08462656,-0.15408537,0.25658664,0.19273788,0.3932435,-0.32864356,0.03294692,-0.020773258,0.43904686],[0.2519652,0.028749853,-0.10235504,0.19666049,0.16504496,0.0962698,-0.3035029,-0.14113237,0.21383573,-0.046705842,-0.06927389,0.029224811,0.2566049,0.26737097,-0.044099733,0.24070157,0.24501432,0.014154752,0.12886997,0.015593801],[0.06817078,0.2592487,-0.34076473,0.1371817,-0.11557677,-0.09736367,-0.041193556,-0.21819803,-0.07311325,0.14660467,0.3234144,0.33532456,-0.43808773,-0.3740207,0.20376071,-0.037990082,-0.015020214,-0.16539146,0.24287133,0.1283224],[-0.06437562,0.08175603,0.07868706,0.10059514,0.2650987,-0.050778903,0.38835818,0.2801482,0.061942227,0.0038046814,-0.17159551,0.32161698,0.48597655,0.2746068,-0.01372005,-0.23282358,0.20239735,0.2955082,-0.2416011,0.13024789],[0.06789879,0.121144526,-0.07529509,0.32676762,0.3448958,0.1871198,-0.045130998,-0.13714913,0.18044114,0.19251381,-0.2920194,0.2445895,0.33345306,-0.060331084,-0.25140208,-0.388405,0.30358258,0.11323097,-0.29996935,-0.1364723],[0.2594841,0.15960608,0.41682813,-0.040499143,0.167141,0.23328249,-0.21469155,-0.037444945,-0.012053844,0.25118276,0.19775392,0.08623863,0.49748516,-0.2199594,0.13133623,0.3120444,0.39204505,-0.06930202,0.3028686,0.08418003],[-0.22084916,0.17279905,0.48383704,-0.010961463,-0.30661085,0.1632694,0.5490499,-0.20400602,-0.2390531,-0.22849736,0.15686029,0.076046936,0.077284575,0.25275335,-0.039164722,0.15835613,0.36712325,-0.16529049,-0.11694889,-0.003307986],[0.071778975,-0.08873347,0.65575576,-0.15774499,0.05890601,0.31159404,0.2344527,-0.25035962,0.38308913,0.40910983,-0.26104057,-0.054194618,0.33491254,-0.1814282,-0.023194723,-0.05972846,0.09090366,0.21842876,-0.01731799,-0.22177543],[-0.100865506,0.11635639,0.070087865,0.058416255,-0.02670628,0.09972325,0.35484317,0.10832388,-0.029334456,0.024202814,0.070061445,-0.0049205096,-0.512327,0.15629989,0.03596395,0.010034318,-0.49546632,0.1154389,-0.09686032,0.0980201],[0.1686739,0.28288332,-0.028536107,0.29456198,0.35642937,0.4364693,0.08773103,0.4026807,0.03181541,0.16056164,-0.14116697,0.03304173,-0.06895284,0.24391094,-0.023094807,-0.032111187,-0.32870254,0.30612165,0.3686717,0.11449559],[0.118440256,0.13348503,-0.2479096,-0.13941774,-0.42025012,0.18291007,0.3242891,-0.24294405,0.045961183,0.25838667,-0.4216112,-0.17215905,0.11792589,-0.2604821,-0.12646444,-0.019989101,0.24731705,-0.14138633,-0.289609,0.2631225]]],"bias":[[0.17142633,0.04661286,0.047776327,0.1676469,0.1423178,-0.12913413,0.73879343,0.045772582,0.3247237,0.58157706,0.10847989,0.64234954,0.2539642,0.47449237,0.44237977,0.4241709,0.44866112,0.50905603,0.20964932,0.33062977],[-0.12551633,0.21092382,0.23721409,-0.077896945,-0.09275853,-0.06250133,-0.05334625,0.12371444,0.24365833,-0.09408964,-0.022138827,-0.0884385,-0.16337427,0.17744231,0.041159708,-0.08039373,-0.113210045,0.16629623,0.1386986,-0.042952057],[-0.012862141,0.0042556645,-0.04178967,0.005425677,-0.09072991,0.0034464377,0.050123557,-0.00088337227,-0.16539638,0.025820017,-0.1398293,0.020178447,-0.082827106,-0.10799453,0.079906195,-0.15104508,0.005082934,-0.31348124,-0.13059556,-0.110722154],[-0.20093285,-0.032803994,-0.025242185,-0.33182967,-0.021765057,0.057787817,-0.053010665,-0.06166008,0.0028761665,-0.010292581,-0.065921985,-0.108240776,0.021996211,-0.055050943,0.04163459,0.011401547,0.02907004,-0.2534523,0.047605135,-0.12839614],[0.07535176,0.009264069,0.0130941495,0.2909293,0.18169984,0.07581572,0.012205991,0.112681925,0.27586165,0.067114174,0.060629535,0.124092266,-0.021081408,0.18948011,0.23064879,0.1779949,-0.028395118,-0.0033437507,0.05063105,0.11549855]],"Losses":[1.5193283684813754,1.1317669635581655,0.8186051795563695,0.5640748105002839,0.4048278348100643,0.3751322570436626,0.3741750173315669,0.35597685584347255,0.32998135373535514,0.31612230501502764,0.3147508045880065,0.3145419300944386,0.30855862892619723,0.2960002787037421,0.27940210801174176,0.2625736560560597,0.24883828441996642,0.23925910031782652,0.2323002403419707,0.22584401519426747,0.219353102600463,0.21411834268972363,0.21177927276283784,0.21253782361861126,0.2148398639212447,0.21670348240867782,0.21701264212445992,0.2157309519266831,0.21338358464085264,0.21047972146925878,0.20728671873058088,0.203992042280488,0.2009295363824942,0.19856275056199277,0.19727206545628506,0.19715482259130143,0.19794440967129492,0.19908071236145977,0.19994916322901188,0.20017168657481493,0.19973854745846661,0.19889596427759712,0.19791988319155804,0.1969781151709899,0.1961446833597826,0.1954593271915805,0.19494274682542836,0.19459532538958316,0.19441088749796276,0.19437597248333288,0.19444650712653241,0.19454387999503395,0.19458618504109362,0.1945218356356742,0.19433879453285718,0.19405629105226074,0.1937147999632996,0.19336700389752223,0.19306404105484673,0.19283789923435374,0.19269243662155888,0.192609362822237,0.19255805384333405,0.19250207618967694,0.1924111408212424,0.19227729454476505,0.1921154668259524,0.1919451359993314,0.1917757244809213,0.19160712907507174,0.19143558197767152,0.1912590261315665,0.19108162155841335,0.19091196562189236,0.1907548483510318,0.19060605067055647,0.1904556026519993,0.1902950108231077,0.19012102259758554,0.18993374124974358,0.1897342769505771,0.1895255110087134,0.18931206965810882,0.189097736684117,0.18888369668337215,0.18866813005645675,0.18844712433715405,0.18821818150823466,0.18798266460304303,0.1877429276377029,0.18749856064588658,0.18724686023983475,0.18698593575562825,0.1867164147332912,0.1864408382291648,0.186161907991987,0.18588121030216967,0.18559898755771545,0.18531513405371858,0.1850295770083115,0.18474188239252265,0.18445208748550324,0.18416165289918376,0.1838730684155794,0.18358862856709324,0.18330949355941092,0.18303607839795574,0.18276912416102434,0.18251036874137705,0.1822617184206024,0.18202399579203518,0.18179713670242217,0.18158117703511553,0.18137663206525484,0.18118387901672584,0.1810026267171341,0.18083191357741177,0.18067068547896675,0.18051793567945423,0.18037241926261496,0.18023262067382817,0.18009712617066692,0.17996475536361783,0.17983447028694338,0.17970528661967156,0.1795764438076557,0.17944763703058625,0.17931901142358536,0.17919082398097144,0.17906324579421606,0.17893649662021727,0.1788109205519938,0.17868690853590669,0.1785647467198385,0.17844460402068668,0.17832660463339897,0.17821083819700323,0.17809729778481329,0.1779858776610972,0.17787640847469502,0.17776867522812584,0.17766243832278208,0.17755751678522208,0.17745377222279576,0.17735110781043215,0.1772494379293014,0.17714870581021122,0.177048902891301,0.17695005954662368,0.17685218415988865,0.17675530042858384,0.17665945079060297,0.17656468571479894,0.17647103902897399,0.1763785055318958,0.17628708870919355,0.1761967584283526,0.17610745267320987,0.1760190855117494,0.17593155281858705,0.17584474516101942,0.17575854077149597,0.1756728012501732,0.175587405559733,0.17550222836764107,0.17541716608075833,0.1753321041574027,0.17524695522036154,0.17516163555064118,0.17507606882296078,0.17499018207345401,0.17490391814607525,0.17481721193879918,0.1747300044144073,0.17464223333123557,0.17455382885942955,0.1744647174743671,0.1743748151729658,0.17428403122510977,0.17419228291138597,0.1740994722124167,0.17400550310403318,0.17391027941435536,0.17381369392987772,0.1737156529382561,0.1736160592172991,0.17351480689924578,0.17341180273223677,0.17330695152633446,0.17320015816869963,0.17309133038468952,0.17298037264485414,0.17286720171362985,0.1727517142558602,0.17263383047279252,0.172513457107424,0.17239050795939542,0.17226490837123437,0.17213657435812887,0.1720054367577278,0.17187143596898063,0.1717345147491013,0.17159463425433977,0.17145175977718496,0.17130587742928088,0.17115698800059542,0.1710051124215722,0.17085028912898162,0.17069257812896832,0.17053207493567846,0.17036888415416854,0.17020315365267952,0.1700350513263061,0.16986478810053687,0.16969258936294587,0.16951872863060843,0.16934350176226984,0.16916723692166855,0.1689902824783981,0.1688130114342887,0.1686358138171816,0.16845908125998255,0.16828320358411802,0.16810856560581794,0.16793552135560624,0.1677643975269208,0.16759546444890747,0.16742895110170786,0.16726500484461543,0.16710371224789403,0.16694508382096515,0.16678905212074388,0.1666354824480277,0.16648417243640498,0.1663348791503024,0.16618732421644758,0.1660411957501643,0.16589621253609654,0.16575208660363444,0.16560857591845593,0.1654654860199778,0.16532270804843874,0.16518026978908695,0.1650386088908366,0.16489950433825173,0.16476970712282216,0.16467539066377407,0.16471570910982777,0.1652373378320353,0.16695808245177918,0.16940953344457133,0.16753578463966093,0.16397788475162178,0.16525858537921967,0.16657565365492633,0.1639981301050505,0.16413864657948285,0.16536819499663974,0.16349362480453675,0.1637418857330623,0.1643635789240584,0.16294979486930647,0.16344503463709095,0.16350087127558094,0.16254488512748697,0.16312306345000002,0.16279505137346714,0.16226474459339635,0.16271406814351538,0.16225384376575847,0.16200599967609491,0.16228734719588875,0.1618379797466703,0.1617435053733463,0.16188676525205656,0.16150755101305744,0.16146364552393794,0.16152667532846665,0.16121515305761047,0.1611767897087962,0.16119544151723222,0.1609429493708178,0.16089424529395907,0.16088886660718282,0.16068599234915487,0.16062099293519397,0.16060590577059455,0.16043915206288364,0.16036189323215885,0.16033790747278676,0.16020440585085371,0.1601129731370672,0.16008375396134789,0.15997654043054174,0.15987730855223156,0.15983811796578337,0.15975546336221982,0.15965401449944427,0.15960110316497875,0.15953794880162353,0.15944248226800753,0.15937467939809633,0.1593205657241011,0.1592400516514222,0.15916076593904044,0.15910403611817436,0.1590393875484374,0.15896025490343843,0.15889312419633952,0.1588352202011582,0.1587669062377549,0.1586936798759699,0.15863057159548188,0.15857080047578803,0.15850316210012982,0.15843387854220486,0.15837114931930418,0.15831038350552223,0.15824461825470557,0.15817700923068395,0.15811321701989225,0.15805152966490918,0.15798731679909256,0.15792056320863,0.15785496156318346,0.1577914967272657,0.15772765742205802,0.15766170378456051,0.15759458715061114,0.15752815949708532,0.1574625076282866,0.1573962994215221,0.15732862349336474,0.15725966299400515,0.15719030517777424,0.15712092188483784,0.15705115653041252,0.15698043856810537,0.15690832816764236,0.15683488813201998,0.15676024668250735,0.1566845700425927,0.15660782173988208,0.1565298160451558,0.15645037397966563,0.1563692120268917,0.156286260145681,0.15620122723679125,0.15611422375192271,0.15602491372764438,0.1559337608771538,0.1558406937318961,0.15574786737177246,0.15565804332229005,0.15558451478317392,0.1555562356763124,0.1556788444576592,0.15621592790277355,0.15788720011562057,0.16089111605306866,0.162910902897822,0.15819845594699372,0.15474028433132092,0.15710237159815915,0.15862127762500242,0.15546944324462542,0.15484300332386966,0.1569673065147648,0.1556641925852246,0.1541668878278243,0.15577057409131279,0.15531506215896648,0.15375756160619,0.15493995118425188,0.1547876334357909,0.1534089679162713,0.15419084513575085,0.15425655006352543,0.1530640787682122,0.1534679619895059,0.15373103870701443,0.15272479631906638,0.1527652931324566,0.1531310273463639,0.15242327380401036,0.15210372394397728,0.15239648290964794,0.15211755878734015,0.1515827551355955,0.1515630806458074,0.1516371096869749,0.15126233271667525,0.1508693187200117,0.150851251410015,0.1508367815620743,0.15052347612196534,0.15015560399086786,0.1499915966308172,0.14995414382836977,0.14982822304833796,0.149553431895533,0.1492422793835361,0.14898029936604162,0.14880882795464292,0.14869622817459374,0.14860947273910988,0.1485665713377717,0.14856847339852772,0.14869409463834385,0.14892620012357252,0.1492999366581711,0.14937603690681422,0.14905610559781823,0.1480333002793176,0.14707583560223994,0.14664387372009843,0.14679459848426493,0.14718179484914345,0.1472833731917536,0.14695837881947357,0.14627941962581356,0.14575698211579222,0.14560228269154277,0.14572058931398327,0.14586617904883883,0.14577565945150361,0.14546846460490684,0.14502850428147485,0.1446725453420626,0.144481003631054,0.1444322557093811,0.14444770117693992,0.1444307262028887,0.14435111594679984,0.14415493425732198,0.1439002125067682,0.14360246799764942,0.14332838461637046,0.14309738088681767,0.14291882386113697,0.14278272704677106,0.14267526502056435,0.1425893429443524,0.14251633221692497,0.14246772692372758,0.1424293227912768,0.14242816054831275,0.1424102752992285,0.14240270699768662,0.14227453867444048,0.14206990768810857,0.14169125036994237,0.1412766794628619,0.14088090064051287,0.14060044198052765,0.14044735546284792,0.1403878271758516,0.1403698148241951,0.14032971748191786,0.1402480653708956,0.14007824023035617,0.13985774000652104,0.1395880970082669,0.13932583323892184,0.1390907322340549,0.13889928088039413,0.13874747072721305,0.13862441373737003,0.13851884508496448,0.1384187206206006,0.13832198566675824,0.13821544799864,0.1381073406279594,0.137977804717333,0.13784211719162057,0.13767546802074648,0.13749872193601168,0.13729327622846016,0.13708320165327575,0.13686271010863574,0.1366497611001722,0.13644386942891792,0.1362506094971847,0.13606760161712664,0.13589314700675068,0.13572426649703406,0.1355589846893776,0.13539632900946502,0.13523659550291833,0.13508260691074464,0.1349386353837168,0.13481708825548852,0.134731615432751,0.13472309552149367,0.13480953138505697,0.13506437740647587,0.13529959182224635,0.13540709989346777,0.1347898670458867,0.13384936661113317,0.1330851739361331,0.1330300276966373,0.1335232568924944,0.1339282913830073,0.13414107022850202,0.13426833810789832,0.13509740050976438,0.1358720908918645,0.1336911578448898,0.13137633008761124,0.13127404561104328,0.13219026181998111,0.1320101353489456,0.13105129992532571,0.13094532561806474,0.13075461386979698,0.12976233329582465,0.12954726932360705,0.13007283613244328,0.12968682379186247,0.12868965442137084,0.12833306840435146,0.12848708285828148,0.12823514487712617,0.12764652002178628,0.12745903153080973,0.12755481178747188,0.12727904112252536,0.126736053456849,0.12631072870011956,0.12618519876754986,0.12611373112013097,0.12584121572294404,0.12549874345615392,0.12531288572788962,0.12554001997900618,0.12646237897026183,0.1282254903834004,0.1308678979974096,0.13177460515838704,0.12883041414733168,0.12575384848534504,0.12425722135920934,0.12511735160015147,0.12644518427703516,0.12573648585568276,0.12401833965379847,0.12317402564353791,0.12405251438759958,0.12459876023762852,0.12322144772487942,0.12234900520546522,0.12298782263391886,0.12325535644235712,0.1223362985198519,0.12171405802451613,0.12222445065655431,0.12240412927811979,0.12157694999458227,0.12122359846843493,0.1216075071623162,0.12154303552660889,0.12097849979332247,0.12078907746111311,0.12097744852426053,0.12086809008346022,0.12048570324885531,0.12038640962919116,0.1204466686695066,0.12027011497812014,0.12001926680180916,0.11996678152016453,0.11995657341706108,0.11978288589069051,0.11957736636157405,0.11952474818446758,0.11950552562066584,0.11935736918230411,0.11917182065661305,0.11908496853236879,0.11904976199966036,0.11894958857021734,0.11879342811525104,0.11867626487112223,0.11861043664850936,0.11853057086627931,0.11841031456766743,0.11828806178359054,0.11819687009501093,0.11811682470913071,0.11801720863021582,0.11790177576940723,0.1177950823115312,0.11770628404247979,0.11761942296560968,0.11751908992515506,0.11740843741295529,0.11730173102888211,0.11720664605438894,0.11711705661528934,0.11702306094199806,0.11692032004092179,0.11681357213248217,0.11670941633483062,0.11661099215623973,0.11651609733057025,0.11642038662136946,0.11632128802600582,0.11621872387056256,0.11611497523668497,0.11601195626667522,0.11591089530221484,0.11581140314738436,0.11571256554253066,0.11561342797369545,0.11551336067937111,0.11541236417322005,0.11531066167001779,0.11520888245416885,0.11510772225377337,0.11500830779863692,0.1149127843322527,0.11482506187089113,0.11475504081167238,0.1147213911401422,0.11477519968602261,0.11499855065917175,0.1156150293311107,0.11665798202237157,0.1182067208653605,0.11806524561115807,0.11646361348166098,0.11428671441659291,0.11403487229415706,0.11524414604050981,0.11541828117624663,0.11418578499635,0.11333024414001308,0.11392312881823782,0.11444830262564555,0.11361675638775587,0.11292418661832024,0.11323547034077912,0.11349283952819933,0.11297647059009312,0.11248101057121578,0.11266268494804645,0.11284883739638811,0.11245291707533871,0.1120708684682443,0.11213209902584882,0.1122087305246014,0.1119414581394921,0.11162400170485984,0.11159629358335293,0.11163746941227418,0.1114462855995006,0.11118319073660594,0.11108905735998424,0.11108690273067895,0.11097223122643518,0.1107557708210811,0.1106148508760086,0.11058350510023827,0.11054413903050445,0.11046278813230412,0.1104395606407624,0.11066688377278334,0.11122034846080177,0.11231318598269632,0.11332546703269772,0.1141623935046107,0.11254608414991504,0.11061471241231051,0.10934605393808533,0.10954231976160277,0.11055035833885139,0.1107728152282653,0.10999204602578351,0.10886606074272029,0.10864999270167236,0.10919285036813424,0.10942363050355727,0.10896625017463327,0.10821746742365894,0.10798187883295346,0.10823258468961634,0.10838368350165851,0.10814794290337965,0.10764965624885235,0.10734550971608449,0.10734065834201593,0.1074271124495922,0.10738609572371008,0.10712930072748436,0.10683588497252657,0.10663264257527076,0.1065524408865913,0.10651983223504816,0.10644011156031864,0.10629977879653676,0.10611533226457852,0.10595011436245666,0.10582348038527487,0.1057314395407148,0.10564134139677918,0.10553156194311829,0.10539228276071419,0.10523142356304943,0.10506751069308756,0.10491467489135077,0.10478066546168552,0.10466461078773943,0.1045612373039545,0.10446466188426415,0.10436947983192145,0.10427494934624638,0.10418042765016897,0.10409307745094615,0.10402249666122042,0.10399394496498668,0.10406621939348273,0.10432849232906195,0.10504861776751472,0.10612611328047121,0.1077301709070252,0.10700433357275561,0.10509178756675201,0.10312441428053525,0.10326847822032262,0.10458266285181017,0.10440971371007127,0.10308605648817903,0.10256016026553727,0.10324572704863,0.10346516728972453,0.10250639281188934,0.10207631436957686,0.10254938892858304,0.10262831173349479,0.10202890452118211,0.10164306173018828,0.10188309231607393,0.10200538319963375,0.1015656751357582,0.10123748380319177,0.10134668385480022,0.10137807108605101,0.101081069627535,0.10083212988937283,0.10087052053778135,0.10087179343663133,0.10062976758025016,0.10043952603366797,0.10043785304441596,0.10040770205879107,0.10023779590031277,0.10009698933666047,0.10011324960646675,0.10019708098844644,0.10030103218561606,0.10061883814587312,0.10143452325271066,0.10244158286565808,0.10353291499643387,0.10293140861929043,0.10146068496322695,0.09972141566179289,0.09898184750472581,0.09942802905446681,0.1003050031935529,0.1005492010317665,0.09967417450115432,0.09868694333026215,0.09838982079946254,0.0987671088061566,0.09918611476292602,0.09901222916529367,0.0984048978412161,0.09786949089863907,0.09779121060549925,0.09802406031526126,0.09814510374079935,0.0979524579820379,0.09754184001796276,0.09721555050354169,0.09711363159655846,0.0971601640317279,0.09719542396824356,0.0970962727773765,0.09686393024954557,0.09659957218130714,0.09640152202838648,0.09630733936048867,0.09628032931239609,0.09625000062077906,0.09616692964152943,0.09601558033308029,0.09582719231684952,0.09563514178312685,0.0954654721547738,0.09532798963231638,0.09521897527290764,0.09512852600974701,0.09504570602947533,0.09496336210947501,0.09488177111238723,0.09480751668570603,0.09474375372990476,0.09470732249069413,0.094690332306489,0.09472939062371627,0.09478944856480848,0.09491307988709191,0.09498211607067195,0.09501082196914938,0.09480517131520892,0.09445016984155467,0.09392101373108189,0.09341198221321227,0.09298403134424617,0.09268408207511411,0.09248919039547987,0.0923688799035692,0.0923077970788914,0.09232144538960921,0.09247563358811578,0.09283336915052329,0.09358266802853453,0.09426822231247024,0.0948053819650033,0.09370972832721253,0.09222092156563325,0.0910976839748566,0.09085296625807503,0.09128180290966804,0.09192393006894328,0.09261712977148714,0.09241911316737021,0.09155938912368304,0.09030833089787577,0.08950445217949846,0.08940268221033355,0.08980101054486506,0.0903606092418863,0.09057169440582413,0.090337388142935,0.08946725090279478,0.0886271351201122,0.08805578006234419,0.08789872368839137,0.0880308087584272,0.08834303999194203,0.08887198284627046,0.08918181571663357,0.08939273366280333,0.0883145529139418,0.08711943157957441,0.08625393390133056,0.0860978310637437,0.08650079602742573,0.0871771679668466,0.08819473700576415,0.08804261731975009,0.08730922742334347,0.08573775824350538,0.0849192455817336,0.08497714892966193,0.08534203110616388,0.085811252308638,0.08565398000441851,0.08551510472318599,0.08508748475086364,0.08472795223187375,0.08432702213908108,0.08358729291537376,0.0828186696254818,0.08232889777653171,0.08232650989510157,0.08279002580110735,0.0834782932689542,0.08402031934195793,0.08426769517084041,0.08404744715468829,0.08399809325991095,0.08251485415910627,0.08113849707972065,0.0801393575332099,0.08006023986995849,0.08075328900325206,0.08166526359764298,0.08263146272630292,0.08157197192625007,0.08033446697243224,0.07941066619242085,0.07911471240455109,0.07904963689734955,0.07883287523830006,0.07877041421365237,0.07893912341194013,0.07959059292524777,0.0801338039691355,0.0798934147716589,0.07881212966799449,0.0776120268390063,0.07681929634848461,0.07653781201730529,0.07643317670943954,0.07630207739525033,0.07598607986540519,0.07562444356273929,0.07535679740738876,0.0753462489878783,0.07585621328066208,0.07697220875024917,0.07928443097866544,0.07944923767988768,0.07886222516759926,0.0761593623252815,0.07491490531567974,0.07505836036011496,0.0754695081781767,0.07589346133297721,0.07529199523791845,0.07511225502501112,0.07527733923426795,0.0757565857545988,0.07562789675996007,0.07405518765214471,0.07251991756808908,0.07178182045501787,0.07201138172244212,0.0727883969197806,0.07339497523545031,0.07352645210044857,0.07303748902454378,0.07298368624607203,0.07443797389014921,0.07564668969893774,0.0766052156135107,0.07285378960671385,0.07055272662041574,0.07050058253590251,0.07201724106849222,0.07433988429991717,0.07403122431752199,0.07296418891236009,0.07135523429854673,0.07141247183339657,0.07194218545723778,0.07124490038859209,0.07033190641094864,0.06993692703207721,0.0708889598036586,0.07237590634671252,0.07230536299742309,0.07084073894721721,0.06933919508748962,0.06884446620120416,0.06927224907987033,0.0695966521632305,0.06934888861775887,0.06846339350880447,0.06775564734468034,0.06752793638197077,0.06774284875855008,0.0681840399742243,0.06847145133649929,0.06866720029528717,0.06879680814427164,0.06998585787451969,0.07175944974531373,0.07452737764581131,0.07197668810016372,0.0686574944049907,0.06666965507782495,0.06670208408837487,0.0684207905204636,0.07082606569526019,0.072496021848958,0.06913845130020733,0.06655794437584502,0.06621951574981609,0.06772708359941595,0.06969455096622847,0.06938910050161151,0.06805475524133146,0.0665944364025909,0.06677908575691288,0.0674120315382444,0.0673851982589106,0.06642601280221093,0.06559385826933067,0.06574777042389392,0.06667859714971323,0.06755883400344384,0.06702404388482347,0.0659494551705488,0.0650762880301462],"R2":0.8824852598728897}