{"architecture":[["Dense",[4,20]],["Dense",[20,20]],["Dense",[20,20]],["Dense",[20,20]]],"Node_Indices":[25,84,20,125,71,80,127,13,58,104],"weights":[[[0.5175989,0.7615313,2.2269688,1.1147726,-0.6380657,-1.0537348,-0.57964647,-1.0634038,-2.3991098,4.0787306,-0.039960843,1.5750496,1.2693031,0.43613258,-0.69367325,-0.061444923,-0.020136865,-1.2482848,0.5285117,-1.0631262],[0.031733003,-1.0441589,0.33034936,-0.6753161,-0.109412335,0.8346709,-0.44686747,-0.41596863,-0.36521804,1.190421,0.8697763,0.18199006,0.4973521,-0.08152033,0.43309197,0.3401974,-0.5431406,0.8811756,0.18830895,1.4115789],[0.1726701,-1.3708962,-2.2815635,0.377948,1.426417,0.7581445,2.1035058,-1.827628,-2.6714938,-4.4869075,0.6776197,-0.591363,-0.8392952,0.8254944,0.89333934,-0.13081212,2.54771,1.432627,-1.761086,1.2310152],[-0.07560335,-1.0762818,0.84521055,-0.67917377,-0.11214796,0.56290454,0.01565635,0.2108497,1.8156756,1.6251174,0.418248,0.69486076,0.5588111,-0.14150007,0.5597617,0.25073797,-0.25880867,1.0876554,-0.14563607,0.30862987]],[[-0.0035093646,-0.4490292,-0.3674468,0.3233051,-0.04368691,0.05820824,-0.116410285,-0.44632134,-0.40733922,0.22475041,-0.08920897,-0.23825328,-0.28235248,0.1523629,0.14380294,-0.097067915,0.038746767,-0.12786299,0.27814704,0.14847828],[0.23439616,-0.111352436,-0.29835564,0.1332164,0.0014499634,0.005248008,0.23870674,-0.12746775,0.035225913,0.04838739,-0.015958931,0.43091995,0.22562036,-0.31351656,0.022393322,0.78076816,-0.27831993,-0.1710123,0.22132605,-0.2528942],[-0.34032297,0.11015597,-0.21623755,-0.029930783,-0.3616077,0.3026499,0.7681244,0.090405546,0.036897197,-0.13282306,-0.39036304,0.2615899,-0.0240256,-0.08093887,-0.28183022,0.35459197,0.31621552,-0.35827354,-0.3570424,-0.09204023],[-0.17751753,-0.3615098,0.36881003,-0.37337774,-0.36696368,-0.07522617,0.1592896,-0.47784126,0.219635,-0.17376266,0.34947032,0.24903011,-0.34349918,0.07330405,0.19016363,0.4771353,0.04905026,0.060861163,0.2947222,-0.36095595],[-0.33504584,-0.101260506,0.30569318,-0.39163864,0.28829616,-0.12585086,-0.41915172,-0.36106557,-0.3040505,-0.015897602,0.27091146,0.20328872,-0.363189,-0.48654974,-0.3286212,-0.23980747,-0.38501957,-0.32015353,-0.03776141,-0.31543908],[-0.28309885,-0.44168985,0.24673925,-0.16933824,0.20336491,-0.01747427,-0.35446712,-0.24550997,-0.20893548,0.35120547,0.5117805,-0.03770051,0.2611252,-0.4635333,0.16523932,-0.4876772,-0.12704428,-0.3076849,0.11837118,-0.3759116],[0.029801086,0.16049582,-0.24224435,-0.33228698,-0.23732093,-0.3219544,-0.24733773,0.16699177,0.014978744,-0.31692407,-0.057435725,-0.44218484,0.20227817,-0.27306953,-0.23919989,-0.07148633,-0.33715463,0.22840865,-0.24582627,-0.35113925],[-0.13212302,0.25781345,0.23903756,0.4474155,-0.005974518,0.047653764,0.06906495,-0.104728095,-0.1772437,0.51664567,0.2977055,0.41631028,-0.38322848,-0.29237646,-0.13570555,0.32565427,0.014118296,-0.04067138,-0.39109382,-0.25543886],[-0.38452476,-0.17454696,-0.14107557,0.16604178,-0.18004367,-0.4928852,-0.32087418,0.0074750264,-0.2131423,0.8789754,0.5657384,0.2818848,-0.24465632,-0.35675904,0.35343447,0.14786114,-0.42420763,-0.32964927,-0.31492633,0.113864474],[-0.40952167,-0.185637,0.13973597,-0.22562002,0.31360534,0.8842331,0.94892144,-0.1008988,0.1299551,-0.23815982,-0.5856362,-0.31499937,0.23994716,-0.4794394,0.12444742,0.8350241,0.15885581,-0.05158407,-0.39307708,0.8241817],[0.18459526,0.13746421,-0.16837056,0.22803596,0.12898421,-0.1273525,-0.21173881,0.092945956,0.09240442,-0.012954871,0.4379316,0.08922357,0.17626362,0.054760493,-0.090136245,-0.39082056,0.37848714,-0.16809809,0.36330077,0.27145445],[-0.27520674,-0.32242757,0.11864044,0.2462713,-0.20708415,0.1623258,0.4254766,-0.037661765,-0.32708874,-0.23580752,-0.22034703,-0.20224883,0.30965263,-0.3884773,-0.2233657,0.038068857,0.31803134,0.20923309,0.15092671,-0.060575936],[-0.29738855,-0.15733986,-0.1591678,0.19806513,-0.4007601,0.42908353,0.103566624,-0.30632776,-0.006414141,-0.13062507,-0.11669124,0.24918164,-0.36758053,-0.48166117,0.23191142,0.4068003,0.35421386,0.020170748,0.049527865,0.18597981],[-0.18463354,-0.44318065,0.30964115,-0.006731124,-0.45556676,-0.27450982,0.25347996,-0.09014257,-0.21486785,0.16695838,-0.01406024,-0.3662663,-0.23764145,-0.30128533,-0.28747177,-0.27415034,0.09794696,0.05153241,0.17862605,-0.19131744],[0.16179124,0.011134111,-0.143955,-0.15004478,-0.18737946,-0.15173462,-0.33380964,-0.023006812,-0.1555327,0.0075771776,0.23812734,0.043422084,-0.22468255,0.039611407,0.06781577,-0.47598,0.25839853,-0.19423968,-0.12094141,0.045606375],[0.106993295,-0.32121572,-0.3181282,0.09672944,-0.2899241,-0.37625024,-0.08630763,-0.06307806,-0.20035022,0.42832297,0.17749175,-0.26025108,-0.052121192,0.14652893,0.17172992,-0.12847163,0.25458682,-0.10884702,-0.30944747,-0.28072515],[-0.32824203,-0.005548967,0.09450809,-0.389063,-0.32371822,-0.11740677,-0.010961121,0.10537775,-0.16199188,-0.6536599,0.21845792,-0.49054378,-0.30337986,-0.059956755,-0.32692817,0.096095406,-0.3712165,0.4102308,-0.09697112,0.047599606],[-0.34509882,-0.3141565,0.0499444,0.14536104,-0.39916953,-0.101314105,-0.3264839,-0.16930582,0.07940486,-0.06837957,0.33312297,-0.10555592,-0.12307082,0.10771584,-0.33493483,-0.4394042,-0.062253144,0.17363642,-0.3324513,-0.012333707],[-0.03056708,0.06327264,0.21743335,0.40122294,-0.022957841,0.27448076,0.300144,0.09535989,-0.120536834,0.249836,0.015111826,0.29837176,-0.22923525,-0.4697315,0.16806495,0.74308044,0.055472538,0.13556175,-0.34168625,0.15754984],[-0.15263999,0.0031285197,0.06292291,0.028011281,-0.40186203,-0.10658527,-0.54685503,-0.08222126,0.08672935,0.044190098,0.30510178,0.17084657,-0.5185352,0.10545936,-0.43207544,-0.5413672,0.25156012,0.020831298,0.11890979,-0.5109548]],[[-0.06273141,0.11389836,0.23191449,-0.32204562,-0.22001565,-0.05810784,-0.059432615,0.26021865,0.28877422,0.20894922,0.28095588,0.19791149,0.16466993,0.13385814,-0.008918751,-0.13027713,0.33391494,-0.42873582,-0.030295735,-0.3752087],[-0.09795998,-0.17466208,0.1817482,0.21539292,0.23471761,0.24149245,-0.21244137,0.30418158,0.19804394,-0.3603273,-0.25760046,-0.3025301,-0.45259517,0.178305,-0.22253314,0.28833568,0.019478483,0.2864223,-0.07084635,0.09354127],[-0.22958201,-0.10778204,0.18404016,0.053816788,-0.14140016,-0.43508804,-0.14579746,-0.17819269,-0.3953728,-0.38889882,0.21219943,-0.4624687,0.1090421,0.20906948,-0.46154347,-0.11985361,-0.22882037,-0.11545426,-0.07140942,0.19632384],[0.44267648,-0.19322488,-0.1589208,-0.12458212,0.3002071,0.1027554,-0.12555103,0.34446117,-0.16069505,0.2893311,0.26897496,-0.034320436,-0.4608934,0.3694527,-0.35965833,0.43064883,0.5198149,-0.057600643,-0.34704536,0.06405065],[0.13291971,0.111040436,0.17176169,0.023832941,-0.0886302,-0.15404959,-0.18281797,-0.015477425,-0.08138504,0.12655081,0.342803,-0.39373973,-0.36539564,0.25371093,-0.003670601,0.24984848,-0.32458553,0.10970489,-0.13204645,-0.43066546],[0.17446682,-0.43302622,-0.08051315,-0.15426333,-0.21674743,-0.24548444,-0.09375011,-0.028762797,0.21652043,-0.031636123,0.33332324,0.2299734,-0.5209036,-0.08236654,-0.50259584,-0.42649218,-0.13261741,-0.0042556785,-0.42577532,-0.5287151],[-0.082302704,-0.054347374,-0.104674496,-0.08045143,-0.4324646,-0.23404907,-0.59028494,-0.41052073,-0.08506916,-0.526039,0.15661187,0.19180024,-0.71276885,-0.08763355,-0.39244816,-0.42206565,-0.43609476,-0.078500934,-0.24007326,-0.22108963],[0.35646802,-0.022622494,-0.30218473,0.14967227,0.26191828,-0.113871515,-0.040312927,0.26936084,-0.41493964,0.24394366,0.19903475,0.06886316,0.21911526,0.12422345,-0.11929173,0.009443535,0.18910518,-0.33642504,0.083923355,-0.019261668],[0.16967115,0.039587,-0.42842156,0.21319531,-0.05944858,-0.036939465,-0.12848186,0.1087201,-0.19413354,0.22492339,-0.069529735,0.08499027,0.15350698,-0.4401896,-0.22775294,0.012032381,0.23078011,-0.08564567,-0.056787346,0.1692064],[0.49154383,-0.20682257,0.34617302,-0.13399667,0.4853024,0.22523633,-0.03471469,0.11197456,-0.4786137,-0.39414823,-0.1344157,0.14971833,0.50607854,0.21605317,-0.50784826,0.3511725,0.22061855,-0.16137564,-0.15718496,0.5715447],[-0.1452226,-0.32691148,-0.162315,0.01873405,0.10030924,0.18685558,0.3638587,-0.12310497,-0.1771812,0.087929964,0.23424338,-0.49224782,0.8201322,0.13367692,-0.1265883,-0.25785923,0.0069314213,0.043473016,-0.35479775,0.25697887],[0.10945918,-0.00062574545,0.21993966,0.18801796,-0.05741993,-0.47109666,-0.57847446,0.26744708,-0.302147,0.0017707117,-0.02314592,-0.2917993,-0.2500418,0.29790023,-0.23517935,0.25490382,0.47519675,-0.40066808,-0.30349556,0.30730876],[0.19741917,0.23170117,-0.11858298,-0.21994501,0.19372563,-0.03355619,-0.30282706,-0.076708905,-0.35388035,0.1443681,-0.28517246,-0.3865893,-0.47199017,0.21354084,0.048145976,-0.05517539,-0.1601131,-0.058600556,0.2469089,-0.44889724],[-0.3470891,0.18162726,-0.1855492,0.11181524,-0.22970362,0.25656354,-0.2895894,0.15979792,0.1532258,0.18441738,0.14264642,-0.24607912,-0.30530113,-0.31263554,-0.025912609,-0.24318177,0.34820008,0.16656983,0.19653377,-0.092255965],[-0.23560351,0.25230268,-0.22134042,0.25664625,0.4333476,-0.19631058,-0.38960615,0.3130276,-0.016527299,0.2975837,-0.07135812,0.18961379,-0.57431793,-0.11478544,-0.31520993,0.36373758,0.046683077,0.17574309,-0.028378468,-0.043055993],[-0.54303604,-0.01396775,-0.21151711,-0.055566147,0.1830326,-0.3666707,-0.39473394,-0.2573794,0.7230041,0.21556696,-0.15048747,-0.115394406,-1.0787445,-0.57352036,-0.29744285,-0.06573847,-0.22581823,-0.13057709,0.37589404,0.006179437],[0.37177953,-0.46874735,0.01927835,-0.37088636,0.10419312,-0.121543534,-0.15664537,0.23473972,-0.0783461,0.0039276946,-0.335678,0.28898987,-0.5136156,0.23870002,-0.4114788,0.07971442,-0.24394852,-0.22669208,-0.18532945,-0.062595464],[0.26422873,-0.23140737,-0.3746749,-0.4792106,0.0656757,-0.11351971,0.10391571,-0.10059583,-0.5015176,0.24407187,-0.2892097,-0.2747944,0.067710705,0.29090476,-0.33575276,0.13380943,0.26836738,0.08113244,-0.032784373,0.27168068],[0.22700119,0.09056013,-0.23244585,0.014668026,0.03189335,0.3516194,-0.352367,-0.32846186,-0.2347661,-0.2444248,-0.07949432,0.068276234,0.41437832,0.024648322,-0.37733412,0.14072661,-0.13539526,-0.34663343,0.23213163,0.035422318],[-0.47326747,-0.45145234,-0.51496226,0.07450276,-0.26837543,-0.3884301,-0.19437198,-0.084093116,-0.056832686,0.1343226,-0.15712816,0.12886053,-0.18147826,0.20400716,-0.4001906,-0.03825543,0.17053959,-0.061354548,-0.40433824,-0.23682815]],[[0.24649352,0.43352094,-0.25577307,0.26124215,0.41868907,0.18941727,0.29475525,0.106234424,-0.18669377,0.29664734,0.23642214,0.12420366,-0.11057957,-0.24912137,0.331729,0.15898593,-0.06585741,-0.1962465,-0.2622089,-0.23445985],[0.23153971,0.09973965,-0.0890849,-0.04780281,-0.24587701,-0.12427886,0.16122675,-0.12155263,-0.22893591,-0.09021295,-0.13040414,0.059775054,-0.01938784,0.2068817,0.13702314,-0.098782904,-0.108134784,0.0100354,-0.253004,-0.036487263],[-0.23354004,-0.03402904,0.29445842,0.45937964,0.2686439,0.12006703,-0.2119815,-0.0775951,0.006458391,0.4259346,0.22199418,0.3019967,-0.3577329,0.15518679,0.12974188,0.16630803,-0.11271483,-0.38299662,0.2530907,-0.0850114],[-0.028155588,0.08280539,0.061698362,-0.2796376,-0.023506334,0.23614402,0.31777677,0.2438471,-0.12694398,-0.010336976,0.1618835,0.16042207,0.34072438,0.15099747,-0.08356177,-0.074795485,0.4307945,0.09686747,-0.2359108,-0.19409004],[0.30296028,0.15035263,0.4200859,0.16971304,-0.036531396,-0.049674764,0.44957,0.26012316,0.049636234,-0.03818631,0.067247584,0.2595688,0.29182163,0.23818837,0.014289873,0.21545552,-0.061523277,-0.08011732,0.121033184,0.3430946],[0.2823317,0.07802445,-0.122539215,-0.34615004,-0.1067239,0.26043105,-0.024339607,0.042421617,0.22580265,0.056034278,0.2918787,0.20281777,0.4269595,0.07204592,-0.014013402,0.47475183,0.7221702,0.20528612,-0.19078182,0.4365169],[-0.0493477,-0.15573467,-0.39934954,-0.41972983,-0.031672765,0.024242327,0.016613819,-0.14340821,0.14499213,0.013617502,-0.20267336,0.086820275,-0.026561847,-0.033508,0.32429594,0.22970207,-0.22011304,0.17793216,0.2885865,0.28079417],[-0.0843435,0.32739052,-0.19057198,0.31304324,0.09059789,-0.20058446,-0.18733174,0.4951476,0.48970646,-0.14140224,0.13292268,-0.20971635,-0.29745948,-0.34483403,-0.2524107,-0.26555184,-0.06825147,-0.21829456,0.26597086,0.23792975],[0.0699867,-0.0640886,-0.2725905,-0.2565062,-0.01274611,-0.2878163,-0.07031231,-0.3889832,0.2182136,-0.21656606,0.032064594,-0.065305054,0.062110815,0.17872213,-0.042439286,0.5422497,0.0752788,0.56679946,0.22263058,0.15234178],[0.0043530525,0.3463348,0.038001303,0.11574577,-0.054332376,0.016692543,-0.15992182,0.34222698,-0.12535727,0.13133527,-0.031469222,-0.16712774,0.19532613,0.09308828,0.27547526,-0.2536038,-0.22311722,0.12068146,0.3255133,0.34277815],[0.3527534,-0.25717145,0.0720248,-0.017426582,0.3566544,0.11494956,-0.22121435,0.07746556,0.31426337,0.14031416,0.3534234,0.28118935,0.07362062,-0.084354416,0.37115347,-0.23918162,0.17848396,-0.19798848,-0.18184984,-0.18050751],[-0.19879028,0.09810416,-0.47209254,-0.122314565,-0.30416438,0.12168326,0.018360557,-0.26022556,0.2959694,-0.46616378,-0.3582109,0.07269355,0.052122377,-0.15581967,-0.16344272,-0.19930162,0.06509594,-0.01000993,0.1271393,0.32000157],[-0.30254373,-0.39349666,-0.54866457,-0.16958718,-0.35822004,-0.47710276,-0.3104145,-0.41441947,-0.2294513,-0.73293483,0.12715475,0.31843048,0.2698823,0.1414797,0.010337252,0.09254895,0.08708849,0.09919156,0.056663755,0.19105199],[0.13892087,0.007740558,0.14054395,-0.07426073,0.11293118,0.23389801,0.205415,0.03439101,0.06104325,0.3321101,0.029319923,-0.18682888,-0.31528413,0.3383855,-0.2885656,0.08488181,0.07746532,0.22089322,0.31434718,-0.29074925],[-0.113200374,0.07137728,0.22025974,-0.1760351,0.22873011,-0.23625375,-0.27916753,0.25041005,-0.21138598,-0.3628902,-0.22284082,-0.28600937,0.050069872,0.3602365,0.36938044,-0.21402414,-0.17813611,0.4684058,-0.29192612,0.13567285],[-0.056026295,-0.22615287,0.05884637,0.29904398,0.0513079,0.26542357,0.49752453,0.45267567,-0.18096825,-0.11005956,-0.13709301,0.37551084,0.23949473,-0.0102219395,-0.20213047,0.35907927,-0.104784235,0.043881673,-0.14745389,-0.105357274],[0.40238371,0.4039488,0.3894648,0.26098746,-0.01801091,0.11647299,-0.08535024,-0.07608427,0.16441007,0.55623674,-0.13714446,-0.19916444,-0.028188953,0.03704884,0.18143725,0.101801716,0.0071623563,0.29778984,-0.109431304,-0.24616985],[-0.19946697,-0.05573535,-0.105111346,0.23260158,0.37913236,-0.06294162,-0.058901653,-0.30730647,0.33551398,-0.2617216,-0.33550674,-0.35214743,-0.04415671,0.26899073,-0.16604863,0.27691954,-0.16304466,-0.18668589,0.14982046,0.3243293],[-0.069212355,-0.10189922,-0.22749901,0.2699382,-0.05710165,0.17526835,-0.1681026,0.28755417,0.45317632,-0.07277479,0.33865833,0.095303036,0.35577825,0.054792732,-0.091436885,0.17345874,0.3236151,-0.22975476,0.11890574,-0.0636121],[-0.2230276,0.12218858,0.42058554,-0.023280438,0.09561226,0.1468154,0.020313194,-0.021021372,0.14784782,0.20449185,-0.067110054,-0.15211132,0.18536234,-0.06642749,0.13228224,-0.23086187,0.20805241,0.2550361,0.08760689,0.2936643]]],"bias":[[-0.028739734,0.08984031,-0.0055667777,-0.003866126,0.086272195,0.16589734,-0.009487496,0.16895688,0.47236747,0.056909136,-0.059400823,-0.0025943085,-0.0159248,-0.0010200321,-0.03936037,-0.03331137,0.16716094,0.24787827,0.10471965,0.28498992],[-0.10167753,-0.111705296,-0.0010596308,0.03447491,-0.053503416,-0.024364525,-0.024559462,-0.09486518,-0.09567979,0.08205396,0.09161256,-0.018495688,-0.04685902,-0.12889102,-0.047111068,0.12632157,-0.013435131,-0.00088888383,-0.033118624,-0.04202148],[0.050707575,-0.14712216,-0.11157424,-0.15115099,0.051690903,-0.082454346,-0.09419303,-0.048558865,-0.0752396,-0.100395955,0.00087745686,-0.11841312,0.015006804,-0.098816484,-0.21724115,0.028893456,0.014145553,-0.057846677,-0.120378606,-0.097222745],[0.119631946,-0.017927708,-0.02870582,0.10984732,0.08280887,0.13135676,0.06369552,0.0091558695,0.06793756,-0.046417624,-0.0063337013,0.04613601,-0.03266256,0.053274535,0.021174325,0.015876563,0.022149399,0.09769712,0.003342012,-0.0053980565]],"Losses":[1.263445607611442,0.9408253918359554,0.6935259833594078,0.5093600928572791,0.3977525396633109,0.3518047280854482,0.35113590496166774,0.37099781435623796,0.3812562426705015,0.36982259449323085,0.34101031395940257,0.3048907431907362,0.2719667265821589,0.2506598112821246,0.2432397667047969,0.2446313198131151,0.24795346331140103,0.24941095128969248,0.24827494891552523,0.2452687341414602,0.2413964335446286,0.2373587647086558,0.23345652524519367,0.22970820469605238,0.22597279016333416,0.2221334968154764,0.21838274244026462,0.21538504560964222,0.21394194902198005,0.21428513417080272,0.2157428757629029,0.21717991023951003,0.21768486952254154,0.2169034681651909,0.21501666559474927,0.21258435911958695,0.2103226144052685,0.2088088883564401,0.20823620256655395,0.2084059266445692,0.20894250494319236,0.20949808459119287,0.20982119017460635,0.2097644234133133,0.20930831284984586,0.20856859258698668,0.20774156396783172,0.20702478636155638,0.20656512678713845,0.2064259736404601,0.2065582613346,0.20680957645690728,0.2069986817631339,0.2070102196567122,0.20683589287117665,0.2065450173453879,0.2062284956475665,0.20595943437687442,0.205777287206371,0.2056865692934535,0.20566753230232418,0.20569273989725012,0.20573367734631348,0.20575521644963202,0.20571875921457694,0.20560485433048697,0.20543335223324943,0.20525559513994848,0.20512469521172047,0.2050685399719025,0.20507802579519446,0.2051120025123064,0.2051199886827315,0.20507248807447226,0.2049755114237777,0.20485934273957204,0.20475632274460173,0.20468480010639686,0.20464365883541252,0.20461702236646664,0.20458659271528518,0.20454226087324684,0.20448319824260713,0.20441318063594305,0.20433767541983702,0.20426299385433286,0.20419437328645432,0.20413354047716845,0.20407804588383258,0.20402261237898106,0.2039617813552413,0.20389291363098486,0.20381746466001407,0.20373911718077245,0.2036607776559949,0.2035834446465831,0.20350684583185022,0.20342986145165862,0.2033507233398658,0.20326779728159483,0.2031803185745546,0.20308844005789325,0.20299305355452785,0.20289544000587634,0.2027963841692801,0.20269555037700418,0.20259179076381165,0.20248388575793655,0.20237113703458742,0.20225367901129715,0.20213212835554692,0.20200676684992602,0.20187725369135898,0.20174309022691714,0.20160402081498843,0.20145994699528,0.20131065275977517,0.20115568011977464,0.20099447338678442,0.2008267354171725,0.20065250138579896,0.20047184264073456,0.20028455203281678,0.20009014203970107,0.19988804504081206,0.1996777948835235,0.19945912317887857,0.1992318871356747,0.19899589652724156,0.19875086291633093,0.19849646468633447,0.19823239775188875,0.19795838366815607,0.19767416779087757,0.19737951630537007,0.19707427689259174,0.19675841071659586,0.19643195627844703,0.19609498090933355,0.19574759140327425,0.19538997861677573,0.19502247389269645,0.19464558419772393,0.19425999133834593,0.19386655075765913,0.1934662742769852,0.19306032677984383,0.1926500461484675,0.19223694571898003,0.19182272478677817,0.19140926050451604,0.1909985666370163,0.19059270202882192,0.1901937116557027,0.18980356578069627,0.18942409660089846,0.1890569386487261,0.1887034046090322,0.18836441776932022,0.18804046057059645,0.18773151404393526,0.18743705397513202,0.18715607240331655,0.1868871580650333,0.18662859062148934,0.1863784597840423,0.18613480418379091,0.18589575629591104,0.1856596770211721,0.18542527763086256,0.18519167389417598,0.1849584171543983,0.1847254620641239,0.18449313504633003,0.18426201290913685,0.18403285741761882,0.18380649491988973,0.18358372435817352,0.183365234697899,0.18315156440303687,0.1829430563987036,0.18273984039631322,0.1825418707575699,0.18234892968698588,0.18216068201183397,0.18197669786082388,0.1817964978326454,0.1816195991590065,0.18144553222920254,0.18127387620802837,0.18110426812827382,0.18093641154572968,0.18077008567416983,0.18060513792571703,0.1804414683347514,0.18027903737491852,0.1801178298541136,0.17995786997238764,0.17979917466823012,0.17964176986007083,0.1794856658003782,0.17933085099808568,0.1791772924477305,0.17902493100523298,0.17887368120263497,0.17872343341195673,0.17857405953172187,0.17842542807103345,0.1782773887379464,0.17812980024126343,0.17798251801770512,0.17783541703526307,0.17768837593715112,0.1775412882537457,0.17739406045842857,0.17724661100466887,0.17709886792901167,0.17695076383432387,0.17680224353447627,0.17665324555835535,0.17650371696490968,0.17635359804749898,0.17620283244886514,0.17605136380231867,0.17589913256524628,0.17574608496047087,0.17559216673312805,0.175437322565643,0.1752815145924272,0.17512469994630558,0.17496684805817403,0.1748079344517873,0.17464794290945096,0.1744868647650935,0.17432469585648283,0.17416144613311757,0.17399712285758723,0.17383174835712964,0.1736653400345792,0.17349792820242146,0.17332954512898996,0.1731602241198845,0.1729900020922455,0.17281892380800376,0.17264703061923503,0.17247436934245972,0.17230098329600008,0.172126925866166,0.17195224125991215,0.1717769772069545,0.17160117937240968,0.17142488613536003,0.17124814087722265,0.17107097376576536,0.17089341723909263,0.1707154915624224,0.17053721201885125,0.17035858749604998,0.17017962627789027,0.17000032307008603,0.16982067510208687,0.16964067106789912,0.16946029942216284,0.16927955013856838,0.16909841237365394,0.16891687834004063,0.16873495113543574,0.16855263273295829,0.16836994333777705,0.16818691588860138,0.16800359340868787,0.16782003592100864,0.1676363227620699,0.16745255415280416,0.16726884253084562,0.16708533944018367,0.16690221062777497,0.1667196925996558,0.16653812179137092,0.16635820339373536,0.16618169751679107,0.16601393215643645,0.16587158119011414,0.16580952476286157,0.1659688708187085,0.16665388401344727,0.1674471853786504,0.1674063623594238,0.1654420757734222,0.1648352954447886,0.16581281472761475,0.16564054986487492,0.16452542009589854,0.16438907526021287,0.16492050430190291,0.16452666962116466,0.16381703838766506,0.16411301477749834,0.16425364666175063,0.16357492482635042,0.16349692033677227,0.1637844107961823,0.16338542495523306,0.16308782909366368,0.16328022896202737,0.1631608557068,0.16283693283607126,0.16284678890106918,0.16288776984029188,0.16266947917072172,0.16252997252943757,0.16258769110713298,0.16250925024429946,0.1623193959784911,0.16230424728608936,0.16231254393750164,0.1621664304047921,0.16207505842185033,0.16208756997999482,0.16201827376065825,0.16190523240634475,0.16187230355526594,0.16184926824785792,0.16176639875387808,0.16169392113352277,0.1616674576666086,0.1616241290498939,0.16154847725481045,0.1614956846411313,0.16146593169858356,0.16141237546670642,0.16134585458723594,0.16130350770735766,0.1612670640180231,0.1612092807273772,0.1611520307057154,0.16111282622131862,0.161069208370628,0.1610120434653813,0.1609611405450366,0.16091969474958026,0.16087181517347104,0.16081723836468714,0.16076805663377827,0.16072355674285158,0.1606740556298552,0.16062054456146738,0.1605709269273954,0.16052395779895087,0.16047302003653602,0.160419479505034,0.16036863097665482,0.16031908740763878,0.16026664981533736,0.16021245726737016,0.16015961075219867,0.16010730728152728,0.16005324837979312,0.15999768434241723,0.15994223030946825,0.15988707207267286,0.15983096620227544,0.15977330232766265,0.15971495322224935,0.1596566804532471,0.15959782015843071,0.15953749377070303,0.15947605873284001,0.15941422849399595,0.15935185254400586,0.15928831825355627,0.15922348175630954,0.15915767079694768,0.1590911037384642,0.15902360459418216,0.158954820894789,0.1588846735714629,0.1588133759543643,0.158741013098075,0.1586674171549089,0.1585924104492285,0.15851591611721236,0.15843795261256666,0.15835855907898233,0.1582777004376439,0.15819524556570114,0.15811106241022763,0.1580251054454978,0.15793733904671828,0.15784773346227807,0.15775623504156877,0.15766275402636448,0.15756718573147957,0.15746943731019894,0.1573694316915517,0.15726708998678987,0.1571623316940538,0.15705507729916537,0.15694523408100772,0.1568327041141917,0.1567173878381904,0.15659918119140576,0.15647797107654518,0.15635365491087744,0.1562261217275323,0.15609526782868888,0.155960998023933,0.15582325399055474,0.15568204635985852,0.15553761071309796,0.15539075284122925,0.15524388325455218,0.15510423917422744,0.15499235279390117,0.15497027892791793,0.1551827428270781,0.1559324273217006,0.15694833469068822,0.15733947351098393,0.15519197266373194,0.1537443541334447,0.15439751608737712,0.1551000224629241,0.15421294736647406,0.1529972051178102,0.15340182956057277,0.15388820300969985,0.15285214534456834,0.15219687087910214,0.15260494128923008,0.15248357073743804,0.15168921416722064,0.1513779969431998,0.1515664014554108,0.15132024494378213,0.1506612483594956,0.1504367961630472,0.15049890523266132,0.1501701897047762,0.1496346319120033,0.1493762867301176,0.149317660810374,0.14907926176112787,0.14861917948537978,0.14825467563761735,0.1480803323100425,0.1479121961554371,0.1476094384333009,0.14720654978334125,0.14685821178742897,0.1466102875393128,0.1464069598321027,0.14618389488882713,0.14589625347360216,0.1455709517195532,0.14523255719235117,0.14491232368688683,0.14461403918986668,0.14433727315167144,0.14407840721792592,0.14383570588565303,0.14362114622788144,0.1434610270149219,0.14343795103458884,0.14368871102018949,0.14463211115090452,0.14617793246751123,0.1481935835474917,0.14617251436086823,0.14295049771407067,0.1413702451013642,0.14267970375689715,0.1442445746094202,0.14260785509837956,0.14065991996389543,0.14085353852082302,0.14192397291322328,0.14155545475659229,0.1399867580579736,0.13978758790065604,0.14059814207770238,0.14033896664590897,0.13930100641491244,0.1389166311459139,0.13934975673302427,0.13944326204160068,0.13872724493057562,0.13821369672119888,0.13834728791695514,0.1385188540442157,0.13822741653889006,0.13770645506196444,0.13751934858894393,0.137638711423065,0.13763654090985683,0.13735893183567036,0.1370048060924485,0.13684717516734096,0.13686969527420242],"R2":0.8247367843603353,"Training_Indices":[12282,19055,10428,19754,5935,3957,12741,16538,1178,14284,8504,15812,16461,15323,6267,18661,17619,17233,16476,4365,20572,1432,12401,10545,18022,8425,16814,17262,14259,3910,13775,2336,452,6403,4600,896,11103,16214,8923,2203,17686,7883,10323,16338,4324,1483,18333,4984,18275,2968,6191,4967,12806,12033,19549,10208,13270,19151,7791,1607,2838,16051,2963,5306,872,6025,2706,19686,4486,19356,10959,7443,18062,15702,2992,3441,9965,3099,19104,6442,4115,17460,11947,5936,14042,12760,15904,14740,7059,7795,5244,9688,4460,14283,12794,7245,998,4734,18737,7276,9770,4792,7355,15618,9470,6524,20442,14035,8476,9468,9566,10757,10762,20112,8436,11978,16350,3018,20541,4719,1072,15811,20508,3083,15879,7643,2938,17957,17865,14915,5135,9761,58,13619,19916,17884,5191,199,8011,2478,3602,10473,19125,2227,640,16323,9523,6391,1184,2071,4559,20501,14753,677,18864,8249,16630,4006,6389,4819,3135,1909,19212,12014,9779,8692,11029,1985,9789,11108,3312,17930,8546,12385,12914,17146,13159,7710,13176,3089,2382,5630,4276,8738,10021,10493,11055,14269,20560,20457,1353,20546,20435,5011,10555,12180,12228,17598,7285,17117,15116,17892,19147,9214,2627,13517,19452,18212,8968,19400,5009,4718,16615,7705,989,7845,14133,5228,17759,14883,12226,16559,18415,11223,704,13627,8208,19973,7758,323,9452,8886,19481,14700,20397,4418,4995,5189,1025,1671,2563,1870,19960,18854,17166,6573,5663,8248,6787,8541,13971,16468,17533,11131,20163,12340,5019,20235,5428,9466,19705,11612,9709,18271,19747,7346,16513,14252,8273,15762,3863,7581,17625,11733,7423,6951,8749,8536,7109,8754,8182,13809,5979,17019,15397,11482,11187,10101,9460,7454,4017,3915,19563,8918,20150,13,17518,16855,575,13865,5543,20417,11740,10093,15346,19145,18944,10876,19180,20072,12967,2477,9592,2084,8153,12556,13900,5480,18856,10506,15943,8871,3592,5577,2975,259,12658,2814,3077,1430,9196,19695,12057,7389,18694,11211,5483,7143,20373,16927,13028,11364,20122,14360,16770,18942,11916,1177,7878,19048,15985,12405,3409,19351,12920,13417,14229,940,20068,7640,11230,2107,9113,11418,11551,20479,6722,14517,18463,6510,8402,4974,11077,17463,18016,18172,5185,399,18464,15947,104,16665,2612,10280,715,3684,6110,16250,12182,11794,918,19592,8135,6946,8531,20130,15073,7523,16788,14384,1405,19115,5573,19739,7760,17505,12826,19381,1073,17308,12294,4675,19019,6659,10516,10965,17449,2156,20319,12890,10256,10645,12995,1264,12560,6517,3539,9680,11776,15787,8621,15917,5409,14896,5446,1550,12281,12926,11943,17493,10763,13844,856,16712,11550,18717,3129,15836,12042,6880,4121,12131,17740,7783,9609,2177,13056,15737,2222,14010,20238,9804,11357,9781,7148,4558,7564,12382,13513,10734,12144,7093,6758,3192,11748,17843,15425,7750,16971,2506,20436,15145,402,13454,17537,1367,19885,7535,7802,10475,18017,1220,9225,916,6142,11657,16745,13165,15922,9981,9071,12636,16632,19039,1930,7419,9011,5498,13190,9674,10611,9706,9958,6041,6562,20273,20542,3747,12377,15181,13015,5461,2660,8043,8817,11146,18247,16414,12650,2765,14926,13840,8145,16366,5163,14922,15435,12468,19226,9394,652,18094,8409,3298,6742,17156,6465,15625,6991,3767,9369,8598,14470,9502,16848,19499,10121,9835,847,19817,3832,4456,19410,11730,11659,15510,5281,13725,4862,13309,18934,19612,19352,4642,19282,17727,5037,11363,3571,5153,4069,5472,3613,12747,7852,11404,10333,3412,12499,14897,13793,17427,4414,3437,6013,9207,18000,12868,8422,12320,10831,14386,16247,13041,17317,793,18894,19366,95,2818,20504,11558,19538,18244,4290,14196,8493,13983,8373,2545,15966,1944,12589,5177,18332,7121,7041,9929,13432,17438,6454,13537,18801,15779,18852,902,5966,14117,14661,7593,18492,16006,8913,6807,6783,6486,1334,2644,3555,14843,16334,5411,6827,18873,13201,4194,10847,3471,12871,1997,15689,1332,12233,17370,17513,12646,716,18296,19583,8047,13231,19835,2645,14015,1166,7269,10483,3126,12787,20494,6381,5402,13312,7240,303,6053,9288,20014,19522,16091,17731,8843,13662,16737,2897,7598,7464,14914,9180,11751,1677,16873,13404,19951,19426,18797,10568,8974,11648,8419,13440,19716,12533,10322,3884,143,18674,18324,10315,15502,12698,6568,15588,18303,16372,5742,12034,17941,12927,4990,11815,8768,13531,348,6728,10049,11067,3469,6105,20051,19116,5825,5763,8390,6309,1441,15297,19709,5500,5443,3101,2374,7418,15830,9263,9368,7089,3139,14333,14302,9593,3859,206,2944,7026,11983,8258,11425,1004,1650,19193,9416,5754,5032,9341,15467,1666,2359,11022,6829,492,3000,14354,12243,13509,15872,2351,11821,16480,13875,5751,5181,17580,18042,13305,14991,18982,8650,6677,1057,16543,6708,7074,13409,1304,5801,397,11838,6559,16669,19896,18253,17061,9175,7706,8445,6617,13553,13170,5272,3236,7835,6123,3398,2469,4725,15668,15038,5610,7460,12175,19802,3545,15535,8246,308,11955,2230,11924,8154,17596,1039,6832,4760,16030,2977,15937,10803,10816,4248,1775,9588,12813,18128,13810,13980,6158,10207,15901,17421,8509,8486,10305,5534,16741,15362,16629,2800,10811,4627,18941,697,439,17270,17722,14629,8770,8348,8312,13251,15664,320,12579,8005,6710,7679,20290,14282,1645,10461,1144,3820,3199,19818,20383,3569,3964,1238,14128,8740,6004,10311,6208,17461,6023,5894,17027,17689,1829,5864,939,8730,16501,6814,8629,13039,951,17447,2310,4647,12844,13707,19181,5328,5421,18684,13016,14344,15988,4026,12139,5730,8468,15264,17119,803,15017,19411,6746,10286,9351,11486,5097,1951,17488,11013,10328,2081,5329,9524,6189,13680,7251,1460,18805,1407,14515,19195,9268,16896,36,536,14292,17995,17115,13427,7667,7717,4637,11457,13901,8778,10730,8532,2021,1423,9254,1568,6120,18365,658,17296,17724,10133,15053,16905,1472,17618,16924,16302,16126,8813,10406,14923,12256,12774,4317,13540,17393,6825,2767,1839,15215,7666,9043,3981,11316,13853,20230,13021,19123,15941,5593,11296,5636,154,14084,17342,19510,4383,18879,5876,2466,14972,2658,15798,9980,6850,6949,1399,8056,19378,17158,15104,15705,3548,2878,5454,3189,15734,8294,6768,10422,4518,15282,1456,17242,1041,554,19845,5502,10884,12024,15242,17339,16786,18908,15255,18928,10179,11398,19624,18196,18447,381,18842,19110,6702,10914,12483,11434,3953,19425,17499,1296,10909,8276,7420,14638,19730,6940,13761,14104,581,18720,9644,13122,3830,17018,3310,8846,12481,13847,3821,7767,11754,14261,15942,13066,18958,13567,12158,1464,8203,7662,19897,17823,6884,10407,14798,17428,6895,3509,6972,18398,8952,2182,3278,12504,4603,6785,9519,688,17794,19825,6930,7699,16809,9336,8349,87,14846,875,18752,4278,7167,164,1664,8134,16080,15414,3223,8097,8291,4604,11918,14033,9323,14226,8588,14578,5408,20219,14116,7887,19801,2839,6610,18890,9917,2895,8587,15803,12628,4644,12019,16655,16751,71,17692,19041,13229,16822,2217,9873,9417,4463,12959,11441,13851,9638,19243,13365,9714,17798,4523,425,6997,14018,17495,5071,5783,10569,11119,18505,12407,428,13234,14431,7765,2922,10388,16537,7909,1146,9285,12356,16585,20306,20525,18681,18822,13062,4517,9156,10083,1381,12675,17163,17105,7256,1796,3926,20299,309,18409,4700,17523,17752,1726,19087,12818,4215,7620,5708,1191,7048,7738,19113,19606,9973,7465,3956,5253,14985,17613,19911,4751,15944,3147,13732,871,16633,15398,843,3433,11158,8999,12835,5067,13720,18145,18577,18887,7994,12296,16795,11002,13398,6148,11137,11586,15247,11992,17134,5407,7808,19567,14860,14191,10532,8256,18451,1536,11106,20285,3013,4628,17205,18789,20583,15232,6238,11545,2198,3324,4412,6643,17123,5586,2746,19445,6437,2066,1322,5361,12733,9246,6034,12299,17299,2330,11312,12021,4043,6020,3576,19635,9817,9930,474,8983,7100,14345,14199,10941,15532,3329,9561,19280,8186,10522,6764,16454,19587,8606,16740,12714,17672,18048,1185,19492,9860,4019,13068,9411,13470,1758,14599,9232,14540,17257,6346,2504,2091,17301,11442,16121,11152,545,10531,3351,1474,8173,9582,16914,17043,18735,6757,18351,1468,13559,11988,12065,5998,5740,18614,8816,19217,7351,615,15910,5572,12903,8098,4364,11345,7958,15818,12836,2624,17095,13762,11212,5857,8404,14193,16950,3429,19763,9168,18358,1806,13841,15690,3582,19006,15603,1895,16138,84,17836,13814,8206,1259,18830,1748,10713,16821,10022,1065,9851,9415,14814,1380,13936,2704,15063,19655,2785,8028,1539,9280,1249,12713,11973,8459,7941,9258,17065,6109,15144,2361,10009,8170,6349,6926,8095,3416,8031,11914,18576,20082,3712,5431,17111,967,4219,6450,15874,5341,16675,2301,17140,15319,4250,13644,4367,19355,46,7050,14822,2537,2442,9482,2143,16047,11937,2362,3880,7155,3585,2664,11781,10596,5052,2244,9990,6219,9279,535,4667,947,6815,19421,19786,5782,16653,15802,9474,13436,11222,13716,8335,5075,19699,8702,19335,3663,1174,8709,20213,11036,20236,20379,18024,8785,8962,2281,17103,5259,6898,16823,17340,17165,10691,4980,1415,5584,274,2628,10976,20288,5908,11003,15519,10395,2655,12434,1718,6499,7809,14423,11304,16888,13857,3286,9418,20054,10287,10360,8053,1702,4877,18878,11589,13008,12437,3644,4002,1050,14977,10247,10125,14539,4157,6744,8889,6358,17846,6100,3016,7486,3936,9317,15271,11900,6804,15619,5263,3243,507,7300,18249,762,15754,1162,13777,19105,16497,19719,4579,528,20327,12793,15016,7539,4783,16265,8879,12361,14554,11728,17435,8475,12466,7354,15560,539,8695,16401,2719,6276,10044,17932,16728,9296,14567,9914,9000,14518,5893,11755,20088,18631,493,14592,860,8369,7635,3138,3355,7200,5993,16794,20325,6419,8544,17025,1999,13169,74,14523,12328,20069,14497,2822,17226,17705,3980,8117,2912,16211,18218,10613,11390,7576,17090,9793,16720,13267,8309,9439,5868,18692,7527,18921,6480,1196,12849,13708,15344,10514,2499,9510,5729,20463,19902,20255,6185,6156,8263,6379,1433,2141,16494,13094,9161,4491,14729,14072,18285,10459,4455,15064,19674,5716,5664,6551,11503,2139,3145,13967,10916,488,9548,17564,2110,14894,5028,1867,16098,12644,9349,19229,282,16719,15379,1875,10828,10453,1563,7727,6457,19320,13769,15469,5365,4828,13997,11682,12246,17935,19183,20415,5813,9443,913,6062,10097,6302,933,404,2732,13736,17772,18347,2428,8281,15003,9100,6541,6662,14731,830,14675,13897,8247,18115,1786,7390,2354,20046,3504,6435,16628,1599,18284,12107,11415,18459,2562,2969,15396,8631,12261,3406,4775,11330,14730,11501,19458,8350,16908,7609,3127,722,20386,3745,2862,11484,14682,19661,12359,15179,3352,10119,7554,11604,12442,1313,7341,1098,14888,16025,14877,3401,6655,19662,9788,1784,18432,7248,9321,10815,20292,6288,19177,4709,3739,125,16827,13146,17910,13884,5308,15466,8077,12062,17795,17046,9390,6928,1278,12316,1564,4475,16048,10982,18298,20038,19237,5852,13424,9698,4283,13501,11600,19341,10647,9888,4801,9054,5419,8589,10389,13252,968,19766,6858,7216,9604,2611,11707,15800,6887,9927,13017,13776,19776,4442,14066,19875,18141,4087,10394,9392,2910,16033,2443,2256,5725,15158,18356,13951,11207,3672,771,1294,20369,8915,13355,714,14285,3065,6738,1465,1575,11938,7234,20485,4746,16064,16878,19982,13913,4474,8251,8191,3456,12044,18857,4609,12602,16610,1923,13728,14426,5613,5594,3948,2518,18795,12786,8347,13574,943,11269,560,8893,9103,3055,12115,16981,11825,7189,17789,8590,19505,4498,8868,8133,5619,2112,6461,19539,11422,8322,16904,13259,1492,9570,6210,9750,15868,9303,5109,12357,17908,12772,246,2962,1027,7796,12664,13523,3037,13572,3774,6168,7197,9810,7905,11464,14880,10827,1565,11317,12893,12445,7111,4939,13226,8580,15177,10767,19209,18846,19815,5877,3502,3699,4728,11663,13895,2482,17383,18667,6502,17643]}