{"architecture":[["Dense",[4,10]],["Dense",[10,10]],["Dense",[10,10]],["Dense",[10,10]],["Dense",[10,10]],["Dense",[10,10]],["Dense",[10,60]]],"weights":[[[0.7160735,-0.678482,1.8071411,1.4737471,1.3397578,2.1825,2.2626348,-1.921679,-1.247627,-0.799509],[1.2513231,3.3139079,-1.026759,-0.41583222,0.3871263,-1.7929845,-2.2745452,2.93848,1.7052503,1.4619272],[1.6742764,-1.9682792,1.8623137,1.5166582,1.3536944,1.1272215,1.6096495,-1.577994,-1.0857006,-1.6919487],[1.3640552,-1.0418503,1.2395974,0.5977661,1.1398479,1.3502129,1.0101547,-0.45342043,-0.8463119,-0.8227805]],[[-0.017022189,-0.24794142,0.48039985,0.63327605,0.08899049,0.72296804,-0.2930431,-0.1118203,-0.40908787,-0.5644054],[-0.88143355,0.17597829,0.95966005,-1.0541519,0.84260726,-0.80125535,-0.22365512,-0.75351816,0.11173222,0.32631785],[0.46021813,-0.05749615,0.24472433,-0.2432476,-0.23013599,0.59796345,-0.19440135,0.94146734,0.12707081,-0.41015834],[0.2586735,0.094165854,0.2913628,0.17121413,-0.123736665,0.48469448,0.013264039,0.5156104,-0.08025908,-0.224805],[0.15256359,0.12342326,-0.29604542,-0.4000127,0.53608394,0.2383337,-0.33339036,0.3809828,-0.41324323,-0.004698605],[-0.117608875,-0.7279426,-0.6085639,-0.3215594,-0.07891269,0.7997165,-0.16397385,0.9746161,-0.07498893,-0.36356437],[0.5437782,-0.63487077,-0.62006205,0.2685369,-0.44435653,1.1344218,0.567417,0.62052804,-0.2942373,0.07017215],[-0.39151955,-0.2407765,0.9093348,-0.7845305,1.2168572,-0.5678719,0.23879762,-0.69871694,0.8738906,-0.18634641],[0.14981583,0.040838387,0.52428037,-0.08598664,0.6014323,-0.7248711,-0.18926838,-0.5420072,0.6440441,0.15118568],[-0.09313426,0.44631138,0.5354509,-0.14513026,0.5855868,-0.6495562,0.28928676,-0.47464022,0.814051,0.18067464]],[[-0.113482796,0.41984832,0.18527131,-0.08576284,0.22564353,0.41795844,0.42805803,0.37606242,0.68287224,-0.19700588],[0.22208415,0.43852755,-0.30875576,-0.0797605,0.17969407,0.15944566,-0.59115756,0.0066739824,-0.44211638,-0.61974436],[0.65086144,0.06673478,0.109665066,0.50520337,0.10356461,-0.31494936,-1.0566936,-0.4849851,-0.3012016,0.3889517],[-0.4490148,-0.21129096,0.12989177,-0.6892784,-0.010035316,-0.035455085,0.4674639,0.28293326,-0.033509485,-0.09405376],[0.29804537,-0.02353477,0.580077,0.2619875,-0.5310111,0.04031431,-0.79154164,-0.5305016,-0.34976444,0.15246947],[-0.21014398,0.528311,0.20185019,-0.5635475,0.23473623,-0.19217692,1.1051943,-0.49851897,0.6321795,0.04763044],[0.077134565,0.46865338,-0.017148362,-0.6497728,0.5932578,0.050526064,-0.21728453,-0.27957618,0.22992393,-0.21622726],[-0.18910263,0.4831382,-0.42943946,-0.20765463,0.09442823,-0.36279333,1.0916239,-0.17936592,0.32138026,-0.3305598],[-0.31163645,-0.1447256,-0.13322984,0.30597803,1.0061351,0.118931666,-0.97646004,0.13244678,-0.49010763,0.3777677],[0.018281698,0.7314225,0.24457859,-0.089722596,1.4201461,0.5916273,-0.7262152,-0.1058405,-0.1921587,-0.34810808]],[[-0.21217856,0.17374013,-0.42565918,-0.4634619,0.021143066,-0.08259056,-0.32575044,0.5326049,-0.32668492,-0.1303565],[-0.48130032,-0.51701504,0.13982706,0.20691241,0.101920724,-0.23944359,0.16027436,-0.3159947,0.28976387,-0.49702448],[0.112852514,-0.44094208,-0.35540733,0.09208862,0.37340045,0.47963712,-0.065590255,0.04516218,0.24479131,-0.51468813],[-0.18563269,1.1814875e-5,0.09452448,-0.7845674,0.184749,0.32819247,-0.22069967,0.42415836,-0.3054997,0.16898371],[0.5070294,0.35990912,0.40747416,-0.3941797,-0.026531657,0.072130986,0.7207446,-0.18402064,0.21871714,-0.9867798],[0.54907835,-0.25575432,0.60374975,-0.16056108,0.29887286,-0.7031788,-0.2037629,0.2979602,0.8010483,-0.69611514],[-1.2397888,-0.035477266,-0.48290887,0.9593252,-0.09428538,-0.39359024,1.2977529,-0.028030917,-0.46167734,-0.5060116],[0.6663321,0.3679224,-0.45830238,-0.6701421,0.7660679,-0.12998204,-0.10576584,0.27430522,0.3274079,0.38592035],[-1.1587782,0.119632974,0.3825537,0.5901959,-0.0055246223,0.43867156,0.5147145,-0.24263953,0.029478988,-0.21222042],[0.027225373,-0.49595845,0.13818994,-0.49797213,0.22904944,0.03259564,-0.033882692,0.52308595,0.16646641,-0.040587872]],[[0.1539467,0.040300027,-0.6439836,-0.4877136,-0.653484,0.07978345,0.7031787,-0.414909,0.39806616,-0.36328924],[-0.46745098,0.12511003,-0.5216031,0.112624876,-0.52363294,-0.17216319,-0.22344038,0.18935363,-0.1505529,-0.39227635],[-0.5387931,-0.52834713,0.030985419,0.28407973,-1.1109364,-0.004713378,-0.030535575,-0.08228803,-0.6157247,0.23132725],[0.8182791,-0.4809768,-0.6439004,0.19064212,-0.540422,-0.36531514,-1.409034,-0.051169515,0.3901179,0.19950671],[-0.07846428,-0.35460988,0.19020975,-0.36505416,-0.029401354,-0.4617033,-0.054476317,-0.12947509,-0.6751272,0.51050377],[-0.3439402,-0.4556253,-0.21667096,0.3438005,0.21391529,-0.21216135,-0.37503257,0.14083251,-0.5310678,-0.26263815],[0.16569875,-0.6046094,0.035422243,-0.21488538,-1.2922528,-0.37780282,-1.114924,-1.1102555,0.7271854,0.65269035],[-0.5214295,-0.0008832674,-0.23271182,0.05758595,0.5490696,-0.045589022,-0.13553825,0.24991335,-0.70432824,-0.14797635],[-0.4482185,0.25335687,-0.18290877,-0.7060648,-0.55830866,-0.47583854,0.30002803,0.14176694,-0.6351983,-0.42895564],[-0.26074517,0.29518667,0.16413416,0.115401946,0.25574985,0.5139968,0.09942942,0.19170107,0.122774184,0.30899578]],[[-0.07072087,-0.13741098,-0.21702848,0.106484525,-0.582492,-0.5008423,-0.5003818,-0.4237923,0.41979542,0.6843989],[0.40343878,-0.4179254,-0.3288948,-0.22972836,0.32072833,-0.17361523,0.32718834,-0.19699943,-0.77233875,0.39760676],[-0.08152699,-0.2684353,0.11809131,0.12861958,0.30621716,-0.1190414,-0.17185888,0.4177321,0.03598836,-0.42070767],[0.39954236,0.30371433,-0.0657236,0.23768985,0.16693865,-0.46417695,0.21602382,0.18861698,-0.22778222,0.5189385],[-0.4109969,0.1478819,0.12202923,-0.29462728,-0.8940738,-0.49952945,0.16450351,-1.0218333,0.2294986,-0.56518024],[0.15782185,-0.56902087,0.15995057,-0.22251149,0.7470047,-0.39323047,-0.31816417,0.27306607,-0.40111247,0.38276348],[-0.20041858,-1.0686836,-0.32085547,0.3185182,0.71496904,0.06521963,-0.06996166,0.039765388,-0.52447337,-0.021963954],[-0.050367586,0.23652491,-0.625496,0.044322856,-0.36332226,-0.46957207,0.115050875,-0.4103572,0.3143634,-0.2737589],[0.16932172,-0.75611454,-0.523539,-0.30005798,-0.6822107,-1.4093413,0.26130694,-1.1756397,-0.64630055,-0.00203724],[-0.029116243,0.2245976,0.30578047,-0.7097747,-0.5879471,-0.21307553,-0.5262001,0.18048868,-0.4251392,-0.18472123]],[[0.2087922,0.085257195,0.027735997,0.289966,0.44667676,0.2832285,-0.043112654,0.16615692,0.44104147,0.14897397,0.22192903,0.35777652,0.24106574,0.0704798,0.2431322,0.24788967,0.3658948,0.33531952,-0.072437406,0.03363496,0.17102194,0.2183328,0.20924164,0.27218175,0.14955729,0.2947425,0.06463027,0.20437813,0.19723083,0.33514616,0.052165255,0.22258502,0.33505255,0.4310031,0.075980425,-0.035764173,0.046080165,0.10573427,-0.011295032,-0.06560327,0.30299327,0.29761395,0.16271906,0.17909081,0.24779055,0.22876784,0.25171864,0.14902917,0.27523184,0.1556123,0.36275208,-0.056769628,0.13648802,-0.022616426,0.09707323,0.16870442,0.5639866,-0.024125462,0.2226927,0.34244102],[0.3211211,0.20327923,0.19568607,0.17642996,0.30783635,-0.50273263,0.27877063,0.3000743,-0.5895152,-0.011000142,0.20070553,0.2908743,0.25780946,-0.4523631,0.3112029,0.19622082,0.27533934,0.10870985,0.401017,0.06374417,0.3559376,-0.53154725,0.015958782,-0.5402684,0.30659455,-0.23691718,-0.53880495,0.28266388,0.5198239,-0.22140439,0.23956567,-0.0018924655,0.19232407,0.12515643,0.4114067,-0.04187554,0.3074724,0.052547038,0.12203154,-0.16392693,0.065977536,-0.22384045,0.11764153,0.23158868,0.27547592,-0.023150325,0.1656559,0.39971006,-0.149737,0.25299636,0.059733782,0.109869,-0.21300477,0.23113413,0.10337633,0.3579717,0.20714144,0.0018112405,0.33769998,0.45314124],[0.21614729,0.2506145,0.24040277,0.26278895,-0.29032263,-0.3869286,-0.20255218,0.18324217,-0.35180843,0.2560879,0.3029376,0.059174705,0.28343308,-0.23252335,-0.19713373,0.30229327,0.0057982737,-0.38999784,0.19308588,0.2540304,0.26231188,-0.277815,0.3380243,-0.26560286,0.17553227,-0.27815044,-0.32331234,0.22084332,0.040703084,-0.34590092,0.20749466,0.101828285,-0.032281034,0.0087091625,0.3101553,0.26000154,0.34106234,0.20194478,0.11142366,0.2566154,0.11628558,0.33216497,0.36995444,0.12249724,0.44594467,0.19509704,0.38953897,0.2714303,0.37301648,0.4041543,0.10610207,0.25510556,0.19881453,0.1695316,0.32373446,0.18198152,-0.0749865,0.2668804,0.2791215,0.18787761],[0.2685249,0.15710652,0.050871994,0.17200474,0.09766311,0.01857802,0.05619573,0.32758406,0.18097405,0.09198352,0.2672712,0.035557754,0.24419019,-0.028187793,0.39770627,-0.013841854,-0.0048846086,0.018424083,0.00844416,0.3796551,-0.010759153,0.03452355,-0.0436318,-0.051304944,0.44173515,0.40267804,0.28259677,0.2674685,0.44528222,0.32988068,-0.031633098,-0.13751966,-0.0068771546,-0.22114788,0.09822764,-0.31630692,-0.055783857,0.11349294,-0.25878894,0.28877717,-0.17433488,-0.070579335,-0.2257151,-0.4561757,-0.36568892,0.11440955,0.14584374,-0.121227555,-0.21741223,-0.07330009,0.20221108,-0.12504357,0.25491774,-0.2637864,-0.07830518,-0.37397045,-0.33522287,-0.12246585,0.009390529,-0.5961952],[0.17914556,0.103964135,0.16109826,0.05456392,0.13577871,0.98199487,0.07783556,0.0035488475,0.5246566,-0.10852395,0.05231015,0.24499053,0.16389929,0.5185867,0.11644947,0.16538028,0.029050957,0.12918709,0.3618662,-0.024906661,0.25668633,0.39920694,0.15417236,0.6605078,0.17152473,0.11938993,0.8420401,0.092972144,0.20499215,0.23860209,0.03875627,-0.102113694,-0.005775626,-0.034993246,-0.059102822,-0.6784282,-0.023415707,-0.12858741,-0.62527156,-0.29375336,-0.14835387,-0.27971137,0.013725948,-0.18753372,0.015631057,-0.14683439,-0.13726601,-0.14502566,-0.11418835,-0.118324324,-0.22148553,-0.39012426,-0.25149724,-0.44672647,-0.1026686,-0.13717298,-0.5045479,-0.1582904,0.0056325123,0.17083494],[-0.0031928609,0.1476359,-0.0077073313,0.16026604,0.021195909,0.25018418,0.4131278,0.30454227,0.42309943,0.13898036,0.24645917,-0.08787996,0.025754405,0.28453428,-0.018734839,0.12209503,0.22089775,0.32297155,-0.07765515,0.053123403,0.1404374,0.22437179,0.09466004,0.50163764,-0.1338216,0.33940512,0.34776708,0.221443,-0.00033844216,0.18743768,0.13261539,0.108568795,0.2045584,0.042469814,-0.09644866,-0.2714225,-0.31024164,0.21656899,-0.3071069,0.19398536,0.22014633,0.008227787,0.08344236,-0.6292717,-0.047520462,-0.0069475695,-0.108271934,-0.21426561,-0.11290088,0.21812144,0.1023823,-0.5728736,-0.099225014,-0.3871796,0.0022595902,-0.37146008,-0.4728549,0.14561294,0.053907093,-0.7415499],[0.3981431,0.12797911,-0.08064247,0.30178162,0.19443865,-0.24787597,0.0791918,-0.11325885,-0.036648512,0.21923018,0.03286961,0.42038321,0.07626381,0.1414132,0.09503872,0.2732092,0.31557375,0.35156965,0.3612292,0.18229216,0.24754286,0.41934106,0.14455207,-0.02764716,0.067485064,0.119089,-0.16678026,0.21491651,-0.011301102,-0.15358277,-0.13349168,-0.04197081,0.019143052,0.044791475,-0.34428626,-0.003141617,-0.19789006,-0.045231197,-0.051614337,0.16714716,0.1606163,0.13196562,-0.049359355,-0.21705249,0.084199056,0.027299777,-0.16299155,-0.27180192,0.011712071,0.04373174,-0.07395698,-0.047896475,0.02268621,-0.3687004,-0.11956797,-0.106880985,-0.27615607,0.1498358,-0.15552916,-0.18178597],[-0.07890521,-0.1850509,-0.1922779,-0.12794328,0.27330074,0.57597953,0.18472615,-0.25057077,0.6383342,-0.11580666,-0.19308709,0.003604218,-0.08782059,0.5452013,0.22041416,-0.18732174,0.05523872,0.39853793,-0.06328213,0.04632643,-0.21119288,0.6432468,-0.18083,0.54282326,0.022768123,0.49669403,0.5738984,-0.13566889,-0.029739792,0.51914716,-0.22132178,-0.083392195,-0.10586442,-0.066357106,-0.011373982,0.8043623,0.16522038,-0.1529476,0.8269714,-0.049435984,-0.12077442,-0.046011467,-0.23829587,0.6871635,-0.12473349,-0.066166595,-0.09987641,0.2522751,-0.0866968,-0.25578308,-0.081891745,0.7091935,0.03827182,0.73800707,-0.14663173,0.4580275,0.8707239,-0.11973244,-0.22830607,0.4655555],[-0.13966164,-0.013887835,0.25521845,0.035601713,0.4933246,-0.13513434,0.60046667,-0.055287562,-0.004296794,0.08996089,0.19154322,-0.13579762,0.41478494,0.21446294,0.25281683,0.11895642,0.4610824,0.24329084,0.040237546,0.43162793,0.058809035,-0.008873071,0.20428132,0.09720932,0.37085223,0.23205112,-0.36531374,-0.0029253545,0.18575504,0.48914346,-0.15133809,0.17073353,-0.1384567,-0.12120143,-0.17144072,0.08506115,-0.17351592,0.14634852,-0.15538931,0.028405488,-0.17664969,0.19172786,0.10047859,0.105138384,0.045263007,0.012951508,0.036292065,-0.12753493,0.29109696,-0.10001018,-0.13654497,-0.10714372,0.18906944,0.14152217,0.08125918,-0.16788395,0.05822173,-0.1309784,-0.11830306,0.12449124],[0.19729136,0.22902778,0.3440865,0.11002863,0.18946075,0.18457364,0.52140623,0.2423778,0.25050494,0.1954817,0.14041084,-0.008949068,0.19722025,0.43420565,0.14628392,0.19772649,0.12649566,0.32103854,0.31250054,0.22061232,0.24038827,0.32853746,0.17383084,0.38479713,0.28346938,0.35169032,0.27700976,0.14141667,0.2561842,0.29753417,0.12721531,0.031233668,-0.03399556,-0.12200876,0.10205575,0.5595011,0.1536651,0.18927602,0.47078428,0.15757486,-0.04651228,-0.055605926,0.07612619,0.35135654,0.09512257,0.09323959,0.0159015,0.22078875,-0.074123636,0.13191724,-0.055233322,0.47416195,0.077747874,0.59116894,-0.015034934,0.27178106,0.25124073,0.09020723,0.036406063,0.34500775]]],"bias":[[-0.046421852,0.74864906,0.10555434,-0.034290325,-0.0017484322,0.1712826,0.42946866,0.63257384,0.1613115,0.23208213],[-0.10794634,-0.030774022,0.13654117,-0.11390838,0.2717779,0.032190844,0.2330429,0.032851107,0.34273657,0.22343992],[-0.22297838,0.04905417,0.012608884,-0.11467561,0.30419087,0.08413486,-0.09922587,-0.092319526,0.100336574,-0.06750281],[0.21776076,-0.011271633,-0.020653801,-0.11499203,0.27997926,-0.07007278,0.05874246,-0.055569448,0.25167075,-0.19596215],[-0.15406094,-0.07869681,-0.19607438,-0.1607293,-0.17344373,0.0027075622,-0.016101876,-0.23774174,-0.33734766,0.08637943],[-0.095451705,-0.043827146,0.060987495,-0.2054765,0.08683996,-0.051313825,-0.25086066,0.29634687,-0.13651738,-0.010425224],[0.13994753,0.40637976,0.43788555,0.23122813,-0.02760999,0.30635393,-0.009108436,0.42618486,0.10909342,0.5137669,0.23702918,0.3043873,0.018556757,0.12885961,0.15820563,0.22169772,0.016716493,-0.0009002916,0.17522988,0.15137877,0.17178836,0.14548545,0.38915867,0.060780432,-0.0036278048,0.010876195,0.3654699,0.20645876,0.02171035,0.06535138,0.34458682,0.3530579,0.28171897,0.39608905,0.14794311,-0.17544985,0.09190844,0.17664436,-0.06674067,0.31124184,0.3827155,0.33083764,0.24605149,-0.12289351,-0.0074671456,0.26585674,0.15002507,-0.053572062,0.34065184,0.1215077,0.3535843,-0.102360316,0.33442616,-0.21829355,0.37787023,-0.08312917,-0.22144452,0.4409388,0.21453379,-0.31396848]],"Losses":[1.071858990782048,0.9522870025420223,0.848998315440951,0.7577171524611366,0.6757781569884627,0.6019528444522136,0.5360454058574767,0.47875062784646333,0.4315233555793205,0.395301529823625,0.36765612888585175,0.3437006387266623,0.32075150812270004,0.29890087419976685,0.27975270173886907,0.2649639624462194,0.255238434829832,0.24997311768297484,0.247598448428882,0.24649588498356573,0.24570711312253576,0.2449392803716985,0.2441891790718649,0.24344051382095358,0.24258440135077947,0.24146952594146132,0.24002930210701187,0.23837211010095802,0.23670759799931512,0.2352062583439095,0.23392540061779052,0.23284005608031486,0.2319168383446193,0.23113014209998495,0.23043096474838304,0.22974759925676977,0.22902703671061508,0.22827111971102063,0.22753021887542188,0.2268612606278674,0.22629899195839365,0.22585668090540595,0.22553146924436177,0.225305850091446,0.2251526486988564,0.22504299326968186,0.22495400125855286,0.22486926842945723,0.2247756838889601,0.22466689490087538,0.2245464605086006,0.22442121070895446,0.2242924523181274,0.2241559114391429,0.22400873313879568,0.22385239604573204,0.2236901977261085,0.22352490685509807,0.22335590676021527,0.22317846323257354,0.22298921363374624,0.22279076001191964,0.22258879591687805,0.2223858978879576,0.22217942285946027,0.22196433349405284,0.22173515755389386,0.2214849710103503,0.22120568936750162,0.22089074097579656,0.2205357288121162,0.22013568663518535,0.21968387867174258,0.21917333927947671,0.21859753975585852,0.21795015211932334,0.21722570026163554,0.21642072428119433,0.21553414588931752,0.2145671491347136,0.21352453683191758,0.21241682735673043,0.21126037347793009,0.21007573626580112,0.20888543448858266,0.20770940752262487,0.2065562733137893,0.20541232902728704,0.20423564837789407,0.20296489273493218,0.20154335092566877,0.1999448357641654,0.19818408138651408,0.1963068602002468,0.19436688213492878,0.1924097715612441,0.19047749382753681,0.18871514353417876,0.18715862920311094,0.18501133695239774,0.18243432679068053,0.18075041111631188,0.17851664178279836,0.1758618181651065,0.17389827567200536,0.17138247719610047,0.16863082959640022,0.16640726235888859,0.16378335211107506,0.1608906544846291,0.15840711375414807,0.15583315239206966,0.15290079516733568,0.15014501667636707,0.1476583989746611,0.14505039125114755,0.14232484792083394,0.1398438117967268,0.13769056320873022,0.13569113352559514,0.13373153297045448,0.13183559196256353,0.13014102766546917,0.12869873288165137,0.1274744130687889,0.12643316105614383,0.12555523955661846,0.12479676896047737,0.12380162992469418,0.1224496507555652,0.1211149797054707,0.1202917437676117,0.11979807156541052,0.11912056240635677,0.11810852776640814,0.11713568635381084,0.11658028996940724,0.11627670537610679,0.11584041737196701,0.11518067630024413,0.1145411440124963,0.11416814797779246,0.11398591352273431,0.11375879479844117,0.11337153460250954,0.11290350451081213,0.11254391848474415,0.11233914903498643,0.1121864678003337,0.11197019411290285,0.11164857383154261,0.11130305224416467,0.11101889619354655,0.11081762158540047,0.11065485101511693,0.11047038765996071,0.11024533606691941,0.10997750192882436,0.1097077754030627,0.1094515643777985,0.1092161652902428,0.1089944260844996,0.10877916092871702,0.10857205179820298,0.10838762914973162,0.10827396619799524,0.10830167719725049,0.10827186047806936,0.10793201474432826,0.10768048519176121,0.10736716986885342,0.10675773922148861,0.10632890725665507,0.10629313425997247,0.1061307699376027,0.105631783538604,0.10519862471413409,0.10497436397760035,0.10461327035744612,0.10404879256695991,0.10355929697013361,0.10325499098124902,0.10296238565940219,0.10250571046406372,0.10197006750451328,0.10139988223904116,0.10071755781058918,0.0999358164747864,0.0991486903408242,0.0984382128615017,0.09773815521554496,0.09694492977197301,0.09608032882400687,0.09558438651696104,0.09872361290922356,0.11371803229520389,0.09956995897214795,0.09561134123007235,0.10454380045496645,0.09263521970447658,0.09971787782537035,0.09553887999286545,0.09359159415958297,0.09734800824845014,0.09031269274159828,0.09634463889068304,0.08948996300613497,0.09398602029824875,0.0899732808291775,0.09078555781169514,0.09059279912717916,0.08833407855542251,0.09045438235469477,0.08747760667167846,0.08877372650374787,0.08761916939986997,0.08675618564572503,0.08760106466516716,0.08595386978711697,0.0861498333832476,0.08612901441820787,0.08468380156930162,0.08542306066371327,0.08455286389077023,0.08382795443747018,0.08439980262202854,0.0832481800830053,0.08300085452399693,0.08306253218275138,0.08226674141645138,0.08186798508073574,0.08192867535711834,0.08124153012931061,0.08073706517217605,0.08078161474866986,0.08021537302463995,0.07967012628709302,0.07947538925875423,0.07922636037820348,0.07859806781328144,0.07821780635544531,0.0780130788927233,0.07761194964806499,0.07708157457183955,0.07667688894228188,0.07642594802700006,0.07605031820653876,0.07558484142330507,0.07510044001873009,0.07474068361113087,0.07440520953108229,0.07406578665979317,0.07364840753452426,0.07321160214076283,0.07275357056602184,0.07232377153099322,0.07190243006909487,0.07150572594723564,0.0711132758681971,0.07074639542511503,0.07041036055829464,0.0701740739404731,0.07017380914508506,0.07072381702134695,0.07234666068072822,0.07383622011751174,0.07299443187820887,0.06913695415149475,0.06722685127201836,0.06811123337784623,0.0696325219856484,0.06891714304795465,0.06637902194881742,0.06558660297614245,0.06662046403523432,0.06694954186551713,0.06556870938983787,0.06412568512380606,0.064114007464281,0.06478925625078247,0.0645247890477153,0.06337618116092138,0.06241074805520841,0.062287839172986414,0.06261089383178266,0.06257351275170701,0.06196300401584583,0.06107365602878407,0.06047884815744402,0.06028939599567371,0.060343094042062013,0.06040417973578503,0.06020436860678689,0.059784404392148174,0.05918123618419235,0.058621977004396156,0.05817738703716192,0.05786355760573261,0.05765364832812828,0.05752147329842413,0.05746539506755687,0.05746824875589096,0.057569402745083736,0.057621617518675165,0.057652230699488695,0.05730012458169596,0.05677643187055462,0.05602885234504629,0.055374577885199595,0.05486309232000853,0.054513473085778696,0.05428822344209298,0.05416088447952041,0.05414266688666418,0.05426607533874989,0.05464987484705271,0.05514134481817043,0.055696221076029014,0.055234692826035846,0.05422760305410362,0.05287574070797525,0.05196463066163535,0.051542965392142336,0.051515475143720034,0.05179586460320359,0.05224846198368925,0.05276392025670227,0.05267307519195221,0.05210780624134322,0.051028931863897946,0.05010626245529556,0.04945313901793978,0.04906170305640743,0.048850615875758854,0.04879438210333036,0.048968273584416154,0.04953842933022623,0.05076186771690392,0.051895740278835506,0.05181642877537781,0.04964098223026262,0.04765095741831808,0.04661559328306774,0.04640742541002755,0.04685434795779805,0.047946807494493364,0.04936143894813199,0.04957920670565264,0.048047721852685195,0.04606712721490951,0.04479755694552322,0.04420364732130307,0.044038282421450865,0.04429200425326772,0.04528419591718697,0.04737785426831359,0.04926457819486598,0.04761608322903318,0.04443460602926901,0.0424683994450691,0.04177074173517783,0.04186856444913624,0.04291845493543093,0.045368309356922876,0.047525394425635525,0.04616598295977506,0.04245939967380529,0.04041074681821586,0.03981611834150452,0.040050111310703206,0.04143278442995824,0.044108219536091446,0.04590611403867858,0.04317536007168131,0.04032887098812519,0.038787224369454996,0.0381015470558194,0.037852326172872486,0.038371696988530386,0.040684182263113156,0.04421564160694244,0.044070796841792194,0.03915821930847551,0.03661611974706731,0.035923825084743795,0.0360205352438644,0.03706061752167844,0.039741100360557495,0.04334338540626244,0.041135662756529634,0.03768308287415121,0.035513637590405406,0.03452230766730582,0.034037036078246534,0.03397881930640783,0.03472047806405954,0.03749841367531743,0.04268029784897719,0.040404458224509374,0.036058377622394465,0.03403742581528312,0.03353619497810607,0.033234021713977324,0.03312237985882486,0.033727797753004385,0.03661726390786512,0.041598428868470476,0.03795571939573618,0.03361451395264715,0.03200947493567583,0.03163613714410743,0.031792342040466624,0.032574378892888015,0.03501869064061091,0.03878684221562016,0.039099519097718326,0.03367560561030915,0.031200942124655188,0.03096482190595907,0.032184669796851986,0.0358485419893742,0.03755668160059412,0.03483005896261747,0.03171391497904195,0.030635331384495437,0.03031628590837063,0.030272102254883138,0.030388566412579338,0.0310891538514769,0.03308029061754222,0.035715912359048606,0.035795611680507634,0.03225741805515013,0.030282711587989758,0.02964889251018632,0.02952952923640667,0.029823607642387017,0.030762584737846446,0.033038017579911025,0.03511942111921366,0.03434830002620371,0.031213808234889957,0.029686521484776077,0.0291949324547986,0.029192853493744085,0.029684600588838365,0.031134721921990672,0.03376723646013475,0.034158633887562795,0.031987271168983845,0.029864080032167544,0.029010814952727778,0.02874462056583363,0.02874860709402658,0.029012249833424247,0.02976183982533522,0.031439890774827284,0.03305586935337045,0.032850855440727834,0.03064552326785785,0.029250819730152394,0.028654571206691466,0.028444270977545833,0.02840230924036008,0.028500813353040597,0.028860891581715703,0.029797157672501396,0.03157666724359882,0.032548485073875186,0.03163688701340159,0.029724743636604174,0.02866168957617663,0.028203533200803096,0.028025962211005263,0.027952961820080117,0.02790953342140457,0.0278753808785438,0.027866257067613087,0.027940546561671296,0.028235931452197844,0.029102020289511515,0.030879274035254985,0.03281607391081533,0.03165498258737839,0.029693583283489214,0.028460511226770322,0.028005387141098195,0.027884859520496363,0.027961338113909138,0.02826331932592461,0.028990277120911366,0.030147838054436514,0.03129652453392032,0.030814192551104753,0.029737605922581144,0.02879094708938035,0.028302688586619017,0.028073136863492224,0.02794629076205174,0.02795057717990377,0.028195076455107913,0.028860576650796773,0.030006346835308426,0.030504947735018106,0.029937896627418484,0.028644597958962566,0.027806509352627747,0.027395646484916474,0.027298876982511686,0.027432100581168982,0.02788754753357074,0.028735305640412014,0.02982526473271459,0.030001014178854337,0.029300337598406376,0.028254686626331606,0.027653102304705343,0.027367387293928857,0.027311740948603558,0.027415174261441164,0.027787825715476343,0.02844606908099654,0.029345965658570693,0.029483870340732594,0.028887421875080352,0.027928935640254577,0.027291243136927025,0.026981501390488584,0.026955091767305945,0.02719624087008544,0.02783475470349377,0.028718160237525815,0.029420755794076565,0.028844139144114954,0.027910214022710888,0.02712622478654907,0.026765978635535564,0.026678440375225747,0.026835140673044097,0.027252695909690886,0.027982928616695907,0.028662676226968914,0.0288740855765854,0.028188102768439506,0.027495571711991632,0.026993857942809788,0.026808781986136024,0.02678055695967496,0.02689183285766447,0.02707491531840673,0.027424852099309224,0.027805196892474463,0.028226784364292237,0.028140466594740843,0.027686209059082978,0.02708934714987695,0.02662698903069169,0.026395828635843614,0.02640932965363965,0.026707358200397713,0.027375536881642477,0.028082410125322418,0.028412365530621052,0.027717232548189905,0.026916106775377206,0.026299039069787977,0.026030893918838324,0.02598606624472324,0.026210105827565458,0.02670985222539569,0.02752304831220087,0.027990899324788394,0.02782164072426154,0.02699275229700633,0.026320854846441703,0.025941999463662137,0.025852968143748285,0.02599586476110186,0.02642713365019391,0.027073251861429358,0.027706419115563832,0.02761273951902523,0.027106271618720566,0.026472385032290484,0.02617987601931194,0.026142589364815092,0.02631891941172777,0.026481932490820318,0.0265012287664666,0.02627574108167017,0.026083924438974115,0.026072203743146956,0.026497950379818128,0.027137189022484635,0.027471904047353266,0.02711519581996748,0.026287208391491616,0.025686754787074374,0.02540812110872005,0.025449860060553855,0.02585102048720243,0.026567012522276917,0.027377443627475084,0.027303023637239868,0.026652172245277234,0.025832300785678188,0.025386571117906008,0.025226470899877937,0.025355140468039994,0.02575695719172443,0.02643330191755464,0.026959288446733225,0.026924836778008106,0.026279054944368177,0.025679072408123314,0.025326478524850912,0.02529343922825829,0.025516028665282985,0.026045871845466598,0.026575926518829337,0.026790745008769202,0.026276008512140674,0.02563188184311946,0.02513426766593483,0.02496571437493059,0.025081049441353035,0.025537333431207194,0.02624692562062675,0.026760089219638346,0.02659119479987188,0.025860964063288527,0.025227075176936186,0.024874217664843545,0.02480044911342542,0.02501059749118732,0.02554165871882395,0.026398589422424217,0.02694474131054703,0.02676896639079641,0.02591561716339162,0.02523765942190284,0.024870463814299585,0.024768818424529597,0.02482015853271088,0.02496085483856052,0.025066880453553174,0.02513144003674733,0.025068048779206795,0.025111868755662195,0.025292320528708816,0.025847146888728908,0.026486743055091088,0.02660800812090603,0.026145495426249124,0.025385918528895504,0.024901031692383543,0.02464616210673668,0.02460015723470154,0.024689903403585095,0.024940612837250662,0.025296094463383385,0.02573669441898271,0.025934314689525343,0.025915656075034744,0.02564077480613485,0.025306105135806237,0.02507374101112684,0.02484233563065399,0.02472999521412894,0.02463319407619813,0.024668210470480133,0.02476776840926095,0.025010899712149995,0.025304541026434285,0.025572738362594747,0.02575017807509279,0.025752500235628605,0.02570934008210518,0.025547691710692856,0.02523972058736141,0.024809064400708118,0.024374042972298716,0.024024390368486227,0.023792135845255285,0.023653755876566363,0.023592198967396297,0.02360080508066157,0.023707601930607627,0.023990632028929513,0.024586667901557828,0.02550327624743857,0.026337547413001875,0.026158008112687797,0.025424328401824358,0.024815898960943314,0.02450633542053274,0.024461449410817605,0.024421429477787603,0.024446410138779524,0.02439958724026477,0.024455684520439662,0.024552030958652965,0.024832083665993605,0.025190489472499206,0.02552103611518098,0.025676994035956344,0.025541538934402124,0.025235317477751342,0.024860198145139546,0.024438739603881193,0.02405953628565275,0.02375099639480317,0.023536250483340324,0.023412854421774272,0.02337912484851094,0.023454720939315808,0.023708387916312714,0.02425423550619877,0.02510666364362605,0.02589260914610857,0.02580336601228154,0.025092678205614175,0.024457392911102178,0.024082344786016306,0.0239773747930018,0.023938273372542267,0.02401472498207547,0.02408700320024358,0.02427068548238543,0.02445172098266331,0.02471455435897828,0.02494123891175693,0.025126514885515414,0.025237109111457302,0.025220316492177684,0.02493101175228893,0.024494034003031958,0.02396187475647756,0.023537969912002105,0.0232401488403108,0.023066765552149232,0.022987936398866492,0.023003704986251754,0.023141033778631765,0.023495675289823506,0.02416964535635502,0.025079267199976274,0.02561767696550534,0.025251357321202393,0.02453243596926528,0.024075840007821668,0.023853924716661576,0.02384442612848633,0.0238094145387926,0.023837630954892,0.023808029795366954,0.023890192179888376,0.02401084028071878,0.02428941499647723,0.02460398082427831,0.024894087135072556,0.024990762021568656,0.024915476291959924,0.024558631005109497,0.02417534357521696,0.02370410381748026,0.02333945318361897,0.02305680128788793,0.022886989758428476,0.02279690701933742,0.022788485763581934,0.02285253248092844,0.023023691123570826,0.023300470765019524,0.02373438762377584,0.02418616114328771,0.02460615880630568,0.024816993207669277,0.02484542667827445,0.02462730516311525,0.02429886325598839,0.02375309559956061,0.02336371089600484,0.023082262093345393,0.02303920205571495,0.02320666575318259,0.023706426839333904,0.024385576003154594,0.024898299188992484,0.02471081651541087,0.024237543800382465,0.02388691492687682,0.023914810136799438,0.023944418193159435,0.023917450375120844,0.023519623429474543,0.023113016090676734,0.02276314000570305,0.022627738007580913,0.022720006034280302,0.023182732058378248,0.024069957018101343,0.024991446381167043,0.024877245713915856,0.02401496578190643,0.023179398904963556,0.022797461426080117,0.022709820677594406,0.022904994027226736,0.023286540016015742,0.023829781344267637,0.02406966928875993,0.02398789926760927,0.023665103999941105,0.02364927571327791,0.0240881776915624,0.02498279440518036,0.024905868663184498,0.024170167267503408,0.02303544477203761,0.022395295295024834,0.022112706060108636,0.022080214673564642,0.022300116808048383,0.02285351554673841,0.023866783961744364,0.024587668075672968,0.024465076057598557,0.023602635854829048,0.023147975485415823,0.023300838969367372,0.024077439268108142,0.02442463333925647,0.02416818765885772,0.023071746189643107,0.022353619785613215,0.02198631632021263,0.02194878203804458,0.02222011086807004,0.023001583669752888,0.02419482767340725,0.02491435677443603,0.02408078122910603,0.02301987895038372,0.02240630924014913,0.02228694692221772,0.02246941381552436,0.022977675665235786,0.0234515094283288,0.0237046942204351,0.02325908747405173,0.022791790373052772,0.022465602245878465,0.022551784877886734,0.023131711936820544,0.024408047499243524,0.02525009933432986,0.02522501069493644,0.02356820344501831,0.022763983275027388,0.022498672959233936,0.022618593831099328,0.02298213320974313,0.02319910289848314,0.023371720009852392,0.023248936298176193,0.023272279542593276,0.023420612723847323,0.02387208536478452,0.02380696668945554,0.02369086347679803,0.022898842209029432,0.022433188973688116,0.02206196908482695,0.02198197824180017,0.02199826764178597,0.022219690460716292,0.02238620292921717,0.022640740373266115,0.022551393907431258,0.022606204310293653,0.022703610204662515,0.023284879573416357,0.023923098217863842,0.024072637443771343,0.023158751698630933,0.0223868095434497,0.02187777346250309,0.021766129603023036,0.02189053504089026,0.022346641000416854,0.02286402962617022,0.023312299051756077,0.023069172716923204,0.022812438042900257,0.022834004384781805,0.023664833145876956,0.02431492377895522,0.02458976161398618,0.022824553366707672,0.02183392502013559,0.02136068907355694,0.021326963996885627,0.021580469169000697,0.022096664739453667,0.022767808712356237,0.022939117161596384,0.02274012412365452,0.022240859439205365,0.022221035043595294,0.022728355187462242,0.02391371346920968,0.024406651164069607,0.02430964468084191,0.022799201438650885,0.02222175934663654,0.021880890852714333,0.021954806098550075,0.021986247631023956,0.02209584935313759,0.021952619815284145,0.021882344227661846,0.021669715239520878,0.021745337168793448,0.02186985337173368,0.022566405689659078,0.02319233398208529,0.023853148099817357,0.023423527472751237,0.022823620353310835,0.022161062152551887,0.021893041012692422,0.021704010228300628,0.02180228092745214,0.021960646854481642,0.022387072397710508,0.02267878399510643,0.023111002826074634,0.02337052369713073,0.024099620265104,0.023535049957745774,0.02332635924374887,0.022015350839527607,0.021392610750767874,0.021018918758501252,0.021059118065767497,0.021268029494682372,0.021800648674280557,0.02203774912966924,0.02234105146275799,0.021922363952764895,0.02220568108240143,0.02279566878155578,0.023827834097456337,0.023335771195409832,0.02232376157535927,0.021421248582317864,0.02120434544893545,0.02139882293581521,0.022148480633090516,0.02286833253891554,0.023313487665471696,0.0229903760465333,0.023460404375644194,0.02320232106606409,0.02341366829046551,0.021799817425221135,0.021019822939142594,0.020622966273355026,0.020816593678862762,0.02126979900018256,0.02228190591023314,0.022253260254957438,0.02236798204573034,0.021953350321530913,0.022577774684973222,0.023181747445496486,0.023033576516578017,0.021634577192024294,0.02086570237701404,0.020659248255476683,0.021164913210188638,0.022141972778326868,0.023225651254542366,0.02294288263043909,0.02299731292202513,0.02317972176004065,0.02440412587862113,0.02190277479688871,0.020679746228555177,0.020212791248320483,0.020429854947514987,0.0210848778279252,0.021945899348248362,0.02199487497685505,0.021467687834219436,0.020705614395734467,0.020653784388843174,0.021103561468337133],"R2":0.1231496832339638}