{"architecture":[["Dense",[4,20]],["Dense",[20,20]],["Dense",[20,20]],["Dense",[20,20]]],"Node_Indices":[97,1,50,123,109,58,12,22,115,6],"weights":[[[-0.24469087,-0.0018565825,-0.2972649,1.3596015,1.9144939,3.0743783,-0.06503834,1.3850204,0.09489372,0.36003396,0.92928016,0.867075,-1.6372112,0.33636144,0.23024923,-0.11655834,0.37945864,0.5957927,0.6926964,2.5144393],[-0.36997944,0.24770512,0.65969443,-0.14721507,-0.6736374,1.0658797,-0.36115828,-0.3319954,-0.171574,-0.12408565,0.25545248,0.23756935,-0.22282355,0.060543846,0.4137475,0.24388269,-0.4738162,0.2277088,0.8826771,0.8369983],[-1.9154577,0.1652244,1.0840305,0.104786545,0.77046293,-3.36384,0.14952719,-1.0657,2.0430884,0.826209,-1.3137541,0.7305553,-2.219799,0.9542096,1.8924766,-1.3725429,2.2129614,-0.20811202,-0.15914929,-0.5678756],[0.11168633,0.06212601,0.55289394,0.18814693,0.6789491,0.43604746,-0.066454425,-0.017475242,-0.47507107,-0.4998628,-0.024378184,-0.009638195,0.8843207,-0.19664441,0.07771001,0.2843689,-0.4085182,0.036197297,0.26740178,1.237582]],[[0.021367442,-0.1757873,0.13172135,-0.0511559,0.10712029,-0.23288338,0.35775387,0.25870723,0.3265579,-0.1629483,0.2521318,0.25653356,0.5173099,-0.4997151,-0.10066667,-0.019552192,0.17224264,0.10088936,-0.40384692,-0.4352633],[-0.29705563,-0.19279782,-0.20447813,-0.32618234,-0.21573544,-0.22087722,-0.24509197,0.14584239,-0.064128384,0.04020888,-0.20632203,0.28654492,-0.22812672,-0.37352815,-0.08401662,0.1209664,-0.275043,-0.4079718,-0.12698086,-0.080791935],[-0.13097826,-0.5418123,0.21620147,-0.48313308,0.27570966,-0.0008583223,-0.42726254,0.038293347,0.23689392,-0.54139465,-0.20603645,-0.20089194,-0.31551665,-0.027713258,-0.49131158,-0.07758567,-0.1374677,0.12675875,0.3214088,-0.30581236],[0.115899816,-0.43140936,0.0049911607,-0.5146192,-0.17262807,-0.019996205,-0.18211478,-0.22399329,0.11719583,-0.052192174,0.016302904,0.21980755,-0.12257006,-0.5190581,0.109257475,-0.014007264,-0.18472669,-0.07692604,0.1434808,-0.4513489],[0.4595404,-0.47762865,0.10961774,-0.13208443,0.060337104,0.1672866,-0.20710188,0.07570373,-0.18114488,0.08195257,0.039636448,0.06869873,-0.07614367,0.20462482,-0.25538287,-0.5785661,0.019946715,-0.44627216,0.424068,-0.3730532],[0.87610584,-0.02174156,-0.020671446,-0.37695685,-0.5236912,-0.0862247,-0.27229163,-0.3724164,-0.21579373,-0.041165784,0.30753586,-0.2649924,-0.11946701,-0.2385462,-0.2296797,0.0679542,0.16001922,-0.2643126,-0.056955144,0.10101108],[-0.2171414,-0.09975852,0.22099406,0.24332882,0.04617213,-0.2627433,-0.0032917156,0.07230548,0.16275984,-0.12576076,-0.4334272,0.40230727,0.4564422,-0.49397922,0.21883388,-0.3405277,-0.12046533,-0.040423546,0.04562189,-0.07986138],[0.54519963,0.200462,0.32999584,0.2077276,-0.1005374,-0.3445191,0.32532904,0.2852408,-0.054307375,-0.4280881,0.17026484,0.3262824,0.39804867,-0.45234263,-0.38094106,0.2176162,0.19582936,-0.3872836,0.118977256,-0.10011254],[-0.08224201,0.12411173,-0.18399082,0.09549141,0.1604296,0.2492319,-0.13961324,0.09534283,-0.18607987,-0.012785325,-0.39630246,-0.16144818,-0.027603773,-0.48850995,-0.2782796,0.16550334,-0.3109077,-0.2754558,0.14772512,-0.37263665],[-0.2263388,-0.34993318,-0.32623515,0.009717689,-0.1679194,-0.031386554,0.057116028,0.13597749,-0.10606099,-0.019910205,0.16649039,-0.016516242,-0.0014745193,-0.09373656,0.20710522,0.09864382,-0.43743494,0.16696891,0.31396797,0.061220102],[0.138738,-0.055986494,-0.22724262,-0.07942925,-0.16674566,-0.25452065,0.14671564,0.14217128,0.35862887,0.08245477,0.0691133,0.3248488,0.33355764,-0.18672037,0.011186135,-0.11703227,-0.046751168,0.13495874,-0.33905107,0.005496638],[0.31987044,-0.15436436,-0.32545006,0.064877145,0.18449292,0.13130654,-0.3991869,-0.10594826,-0.24238086,-0.043969445,-0.11787724,-0.09960337,-0.2941013,0.15185161,0.18102677,0.20683745,0.15287443,0.05805313,0.35621718,-0.14487022],[-0.356252,0.134662,0.4095814,0.068364255,-0.35800558,0.22735639,-0.15798026,0.42441022,0.21859717,-0.032242503,-0.3069324,-0.17691469,0.4211375,-0.41161832,-0.35319462,-0.16846895,0.2225116,-0.37644008,-0.4042751,-0.28618452],[0.27149636,-0.22512454,-0.24677299,-0.43063396,0.11468983,0.086865894,0.09934221,-0.14749777,-0.17325725,-0.21274795,0.12570257,-0.275041,0.19978046,-0.113381304,-0.29226494,0.20871234,0.09470892,0.104414046,0.37383318,0.11163804],[-0.30056602,0.12909171,0.034675315,-0.025511537,0.5353849,-0.31688714,0.17871192,0.3880531,0.040223368,0.0036270053,-0.14911501,-0.13987596,-0.3112328,0.089131005,-0.2223458,-0.42006963,-0.43237376,0.2163671,0.4378807,0.14307564],[0.1623153,-0.0011658728,0.4123706,0.23710822,-0.20805444,0.19356431,-0.34913144,0.19541562,0.15621392,0.08138383,-0.304123,-0.059011918,0.26711622,0.062088095,-0.13081081,0.1964756,-0.07812386,-0.04492976,-0.22144812,0.20525669],[-0.17912556,0.25276154,-0.14180878,-0.3364886,0.48204494,-0.15734166,0.049882926,0.29076192,-0.36967677,-0.24795708,-0.14782968,-0.1380937,0.14344317,0.045544244,-0.3837161,-0.25711858,0.22130994,-0.37776777,0.17500487,-0.3390784],[0.22760603,-0.1646728,0.11292034,0.03664178,-0.35508987,-0.4145105,-0.029866109,0.42167023,-0.0012979883,0.0039353264,-0.06866654,-0.11630499,-0.19732448,-0.28138155,-0.3004692,-0.24070041,-0.29961345,-0.2512564,-0.27638432,0.11916276],[0.39973706,-0.35700604,0.2967465,-0.35240334,-0.42327818,-0.37807772,-0.35505432,0.45421645,0.3801713,0.08489279,0.15586637,-0.059754748,-0.3477299,-0.5412879,-0.07872088,0.27469754,0.0012632604,-0.47486496,0.28801277,-0.06518446],[0.7398725,-0.12860407,-0.26792213,-0.32294458,-0.42027077,0.0035297156,-0.17999202,-0.12852731,0.21952365,-0.28261545,-0.0806394,-0.1373882,-0.4057157,-0.085933276,0.03882348,-0.17951432,-0.3696013,-0.31803855,0.09092413,0.21440674]],[[0.02721075,-0.35001662,-0.2264666,-0.0653551,-0.36225563,-0.40904826,0.1432093,0.27041987,-0.4001771,-0.16338716,-0.41726813,-0.35668457,-0.35663727,-0.28039464,-0.11155248,-0.29324776,0.036373552,-0.4881238,-0.42955145,-0.3490971],[-0.15011278,0.04219682,0.029645752,-0.37095582,0.03992406,-0.14140141,-0.043597378,-0.3501921,0.21845737,-0.16495344,-0.114939705,-0.12406426,0.20576096,-0.3647234,-0.15621522,-0.027752634,0.16640168,-0.14160636,0.26440963,-0.41124442],[0.07915871,0.38370213,-0.08509804,-0.48451355,0.29653347,0.120934695,0.032081805,0.008203393,-0.40915188,0.50021845,-0.21030055,0.025850827,0.17941071,-0.11523666,0.29787007,-0.35072535,-0.23356788,0.2087262,0.11332523,-0.019341059],[0.21060318,0.052533023,0.09664705,0.18576157,0.0038664145,0.13524123,0.08709374,-0.11511462,0.11711789,-0.10162479,-0.46400717,-0.21011885,-0.10548599,0.27967954,-0.08252778,0.0053088474,-0.47789145,0.3387323,0.2340295,-0.28041014],[-0.2595578,-0.3423396,0.043028213,-0.342063,0.1312395,-0.35451165,0.086346835,-0.14023738,-0.5093173,-0.11419246,-0.21834998,-0.3492946,-0.1011804,0.30290735,0.086900555,-0.21898188,-0.34815478,-0.0750078,0.24808195,0.26483265],[-0.28902432,0.22724068,-0.14745378,0.030798025,-0.089850254,0.020962099,-0.43722066,0.102259345,-0.36882347,0.3708247,-0.13477084,-0.19341384,-0.0197562,-0.14456195,-0.027880404,0.2761493,-0.0021439814,-0.2881096,0.19504225,0.032217734],[-0.14999014,0.34320763,-0.13175061,0.178407,-0.05005082,-0.29337138,-0.27475947,0.121961705,0.01251603,0.029721018,-0.021034379,-0.3601555,-0.116694905,-0.35247988,-0.30192828,0.011863639,-0.100133866,0.06990392,-0.49556,-0.41026965],[0.08134391,0.18992086,-0.10129521,0.021591596,0.08839147,-0.0718878,-0.08298503,-0.103898816,-0.27543858,-0.17361772,-0.25905573,-0.1197519,-0.26644024,0.16418044,-0.33218578,0.021571837,0.22416466,0.20417747,-0.44765636,0.11914549],[0.38762996,0.43803516,-0.015306632,-0.047554042,0.02785761,-0.22526743,-0.27527282,0.1588656,-0.111574344,-0.26058054,-0.31332403,0.11932866,-0.37351385,-0.31540993,0.21214291,-0.24729036,-0.06616743,0.13222578,-0.08650543,-0.21974188],[0.31280172,-0.21783814,-0.027307574,0.03382638,0.00858412,-0.10451434,-0.32580402,-0.11420762,0.13788569,-0.012767644,0.22257596,-0.031753305,0.051710546,-0.12581398,0.18058527,-0.22512208,0.14652623,0.1063698,-0.47630474,-0.47209102],[-0.255322,0.22367904,-0.3058635,-0.091776446,0.2997198,-0.3859486,-0.2744063,0.28248143,-0.509427,0.10168925,0.0997917,0.13316382,0.15327828,-0.2499175,-0.40714228,0.17916462,0.13861898,-0.27698967,0.057534378,-0.31657553],[0.052843764,-0.2953188,-0.5385157,-0.015605476,0.1744708,-0.43068516,-0.44575155,-0.30344138,-0.21841367,-0.044466462,-0.058694042,-0.12540354,-0.27392873,0.12140086,-0.020609193,-0.0318685,-0.41223857,0.0057830443,0.25980416,-0.1339791],[-0.013580713,0.48272392,-0.2109831,-0.16146564,0.2704451,-0.24813482,-0.32459244,-0.3740285,-0.2167045,-0.00078578125,0.14050275,0.3056559,0.16442774,0.08528832,-0.2830731,-0.44080177,0.011878016,-0.060221165,-0.31258923,0.13943209],[0.17200798,0.14221127,0.1116727,-0.0044131028,-0.107838765,-0.47594166,0.21505223,-0.20755632,0.051600885,0.23831451,0.051353563,-0.1360545,0.21230629,0.23208852,-0.12020724,-0.041020934,-0.27991566,-0.23187521,0.21006292,-0.37777123],[-0.18239379,0.48388368,-0.24518007,0.025853407,0.1812768,0.15191163,0.24214134,0.16640303,-0.11506495,-0.077178895,-0.22304182,-0.35516483,0.10450242,-0.28041425,-0.18360862,0.1942282,-0.39531705,0.1837109,0.11570686,0.22294821],[0.075154796,0.3842971,-0.27989912,-0.22403134,0.22076622,0.22990178,-0.30310947,0.1360661,-0.016595965,0.3163703,-0.030926943,-0.4073545,-0.33578998,-0.29407176,0.14868338,-0.24380109,-0.42883164,0.21548492,0.11572532,-0.2827349],[0.42201763,0.0077376887,0.20288199,-0.19581372,-0.026344102,-0.23285283,-0.48117825,-0.043725908,0.19659168,0.26307052,-0.14886282,-0.028365243,0.003257896,-0.32042864,0.14627486,-0.09281769,0.19374672,0.01370701,0.25036508,-0.22942297],[0.33957252,-0.16865131,0.041748673,0.17335615,-0.16905142,-0.00058915216,-0.34785193,-0.091582924,-0.05476415,0.031685434,-0.2852432,0.12398377,-0.17467351,0.18948646,0.3551256,0.2536076,-0.30398643,0.1979917,-0.07915114,0.2673518],[-0.442267,-0.23690143,0.22027302,-0.13914517,-0.28344637,-0.274112,-0.005663238,-0.032366015,-0.36448276,-0.35650054,-0.024388177,-0.08530463,-0.26190948,-0.2953395,-0.029232142,0.17962487,0.3367772,0.40447584,0.19412914,0.47361776],[0.13664447,-0.054229796,-0.16986564,0.22540487,0.39915258,-0.39645398,0.19703065,0.035164967,-0.092938006,0.12009993,-0.25433263,0.0043579964,-0.4280445,-0.124360524,-0.07610011,-0.22550225,-0.048273884,0.13825877,0.15012127,0.23636463]],[[0.54748344,0.14227355,0.14730075,0.07134887,0.18967661,-0.21652478,0.42725188,0.37503645,0.31911844,0.33337024,0.1353887,-0.39138588,0.3698225,-0.21245019,0.18922852,-0.04560425,0.11805803,-0.20755239,-0.35935095,0.3300672],[0.13881624,0.6733848,-0.19619709,0.49681535,-0.0507252,0.39329332,-0.017741565,0.106786534,-0.14813922,0.1389865,0.23264469,-0.027092583,0.010365224,-0.059743818,0.13155401,-0.14978461,0.10047538,0.36214155,0.24002352,-0.099696495],[0.046883024,0.011114986,0.49297035,-0.050687604,0.058622073,0.20820145,-0.12157327,-0.11485182,-0.022637827,-0.17865123,0.3901395,0.27608567,0.3085631,0.023514856,0.050167438,0.39541203,0.08321488,-0.09711838,0.5443613,-0.045470096],[0.045903753,0.17536238,-0.13275242,-0.18979742,0.01194457,0.27068782,0.007037063,-0.22586034,-0.10460443,0.39246267,-0.0077349027,-0.2292419,-0.2339093,0.31133848,-0.060257256,-0.2941495,0.12325682,-0.08835629,-0.037702825,0.35621276],[0.32720217,0.040541943,0.12110029,-0.24325442,0.35128346,0.009376626,0.19511794,0.6152343,0.4373496,0.2347164,-0.3712888,0.47182375,-0.13548842,0.25956973,0.03834665,0.23335473,-0.17701983,0.2580072,0.15226996,-0.24457276],[-0.044365115,0.055207357,-0.24092093,0.0276071,-0.22171658,-0.13755852,0.26858824,0.1429444,0.09568585,-0.11469012,0.24238417,0.17072047,0.11211696,-0.23389897,0.275887,0.08808642,0.28512257,0.11136227,0.16863875,0.073333986],[0.026461594,-0.21831849,-0.1965462,0.025132705,0.2930199,0.12688164,0.47274533,-0.3095131,0.07875031,0.4126373,0.32434466,-0.022272721,-0.4337597,0.009314541,-0.015338418,-0.04576835,-0.2464156,-0.100947246,0.1283894,0.18729731],[-0.04166413,-0.33724546,0.48314095,0.07872911,-0.1274323,0.104154736,-0.13385136,-0.10327916,-0.08652742,0.19607715,-0.3648251,-0.06548138,0.26969346,0.10478787,-0.1874998,0.3598521,0.1576107,-0.38237616,0.22078855,-0.243389],[0.38564268,0.2682618,-0.22334687,0.042034063,0.1074002,-0.20142823,0.1325124,-0.14173892,0.035142522,0.062174976,0.1635969,-0.26246575,0.40745604,-0.11104144,-0.08133985,-0.22393863,-0.35850158,-0.022719083,-0.03423621,-0.053938255],[-0.2450516,0.3568498,0.07733058,0.45965618,0.30255035,0.08634181,-0.15402196,0.4244312,0.14984287,-0.3135047,0.32753187,0.28726256,-0.2371602,0.04094849,-0.3333055,0.09120493,-0.36295986,-0.16303466,-0.0015821274,0.09484391],[-0.06667675,0.17012896,0.041405488,0.00089947577,-0.24886554,-0.1840106,0.26519397,0.2712893,-0.12953715,-0.13824749,-0.08228962,0.12613185,0.09409999,-0.17154033,0.29871228,0.38824126,-0.16178419,0.33146647,0.32297024,0.12451763],[-0.012423606,-0.023023,0.39775154,-0.12200458,0.43391156,0.24289943,-0.14049482,0.18444172,0.3552547,0.38707796,-0.053056307,0.21371697,-0.012132065,0.40162838,-0.016814465,-0.047404483,0.34941828,-0.118212916,-0.17901859,0.058066014],[0.41123086,-0.1395555,0.43354535,-0.069433704,-0.23697267,-0.19097814,0.36583155,0.47566226,0.042872954,-0.14729954,0.09982881,-0.19964774,0.09192398,-0.27146628,-0.24408607,-0.076706104,-0.38585925,-0.09983145,0.0034933933,-0.19453226],[0.14893928,-0.17349328,0.04904279,0.36865962,-0.28901157,0.06689226,-0.005604376,-0.028713092,-0.29435232,-0.29180107,-0.03293423,0.295094,0.05264753,0.39608324,-0.1362281,0.38563827,0.38465762,0.16185506,-0.1543987,0.2738973],[-0.24242131,-0.23434173,0.48136926,0.14980008,0.34064174,0.111024335,0.047940638,0.12119134,0.19238316,-0.07173569,-0.077779114,0.21558751,-0.20184642,0.081462115,0.13750029,-0.037046857,0.19701442,-0.30407643,0.23441505,0.4104857],[-0.36530137,0.21270323,0.38438833,-0.07558659,0.02124347,0.1772344,0.4765546,-0.018327037,0.12514403,0.4516036,-0.08009969,0.4121962,0.4508946,0.27049172,0.31065655,0.29514146,-0.099531434,0.048236962,0.25875205,-0.056612357],[0.08779077,0.1303253,-0.087987125,0.034520634,0.4641951,0.4270108,0.35635415,-0.21337914,0.42166734,-0.19131696,0.071974486,-0.06759542,-0.13306533,-0.24479875,0.20993137,-0.33564466,0.27370897,0.27990243,-0.2948721,-0.3213397],[0.13020518,0.113411665,0.26988813,-0.0020584608,-0.06273724,-0.010852148,-0.17683893,-0.14582859,0.09504165,0.14509235,0.488004,0.49501905,0.36931783,0.38267934,0.13444,0.42425525,0.32240546,0.31940272,0.31186122,0.37471527],[-0.34181488,0.054285973,-0.10287739,0.008741498,-0.18730222,0.31708297,0.19525497,0.057342995,0.047425576,0.108123854,-0.109992705,0.09832289,-0.17179802,0.37230694,0.3607746,-0.24085443,0.043601427,-0.037827745,-0.11128964,-0.12929182],[0.1982973,-0.34909335,-0.2506916,0.09879795,0.06923408,-0.32991484,0.06079849,0.16694053,-0.16099651,-0.017966837,0.25185075,-0.09230052,0.19398256,0.0962841,0.04633841,-0.019562162,-0.30000117,0.28850317,0.063106574,0.46008304]]],"bias":[[0.16345417,0.08243999,0.2295072,0.107924804,0.037785105,-0.11793567,-0.08919868,-0.054662276,-0.0826175,-0.08989583,-0.019583918,-0.0814207,0.15369546,-0.06939553,0.0146690095,-0.10782278,0.06744947,0.039571885,0.114034906,0.0055699507],[0.033335272,-0.14969766,-0.021748504,-0.13259955,0.0039891563,-0.12110811,-0.06599124,0.08566607,0.023826187,-0.16303346,-0.0862975,-0.017633874,0.106824435,-0.14926177,-0.12766504,-0.037266977,-0.110519975,-0.11931243,-0.021030422,-0.10425091],[0.082900815,0.10016341,-0.13978566,-0.16273484,0.07539144,-0.1439316,-0.089314684,-0.10563774,-0.18504499,0.084835865,-0.12313649,-0.13081947,-0.17822011,-0.07133076,-0.045735065,-0.083069734,-0.09325222,0.06293868,-0.1249469,-0.0886303],[0.11973275,0.05403455,0.14968047,0.17607948,0.11486775,0.15069968,0.2164275,0.04081593,0.12552856,0.1459683,-0.15688176,-0.1760297,-0.042474348,-0.09360723,0.003549615,0.029807955,-0.030326804,-0.0020241675,-0.03136388,0.027131803]],"Losses":[1.8094815931446215,1.4437711621576281,1.1499664795478863,0.907533723599868,0.7025567535432724,0.5321838936398332,0.4128477303871161,0.3571724770392834,0.3344059580434117,0.3239435613642617,0.3139830349722812,0.3036461014731487,0.2963255140062939,0.29160481874519234,0.2869535908933929,0.2801152767255403,0.2702026081356369,0.25801647280966633,0.24549544926365138,0.23474401167878664,0.22717095137036125,0.22301853334051788,0.22146278616893095,0.22121949697682897,0.22124348960074805,0.22105246393055528,0.22058691889696966,0.21988675715273973,0.218877730758209,0.21737640043615744,0.215248753330384,0.21258267504832923,0.2097465512218886,0.20726652272915116,0.20557051985459346,0.2047795307947472,0.20470946909090942,0.20503458093064814,0.20543515284238892,0.2056632234940676,0.20557618850156564,0.20516459726259517,0.204544266902973,0.2038864148167178,0.2033161354714946,0.20285632952512442,0.20246034866025522,0.20208614534889646,0.20173513979349245,0.2014402958384429,0.20123866145003366,0.20115116673326772,0.2011664306658059,0.20123119385714108,0.201265684873426,0.2012060579682393,0.20104020175739237,0.20080395254404576,0.2005480187779564,0.20031259387913217,0.2001248754048486,0.20000190002122942,0.1999435067264904,0.1999268174437094,0.19991798433385027,0.19989242923639094,0.19984194047594134,0.199766200436273,0.199666213014035,0.19954790192377775,0.19942572334715203,0.19931748254946974,0.1992352051023646,0.19918004884335777,0.1991422064560627,0.1991047087832923,0.1990519221552231,0.1989790683903488,0.19889391251087446,0.19880830079794354,0.19872895475638513,0.19865645317008343,0.19858953256313466,0.1985269228586803,0.1984660979185471,0.19840347768719363,0.19833658667291082,0.19826505980644324,0.19818993244025118,0.19811313019086307,0.198037058555072,0.1979633606235948,0.19789196447362975,0.19782172222958494,0.19775142639841425,0.19767980385897976,0.19760556392193532,0.19752837121370412,0.19744933079382745,0.19736992777832124,0.19729082880118562,0.19721192714829308,0.1971328937897707,0.19705330836141588,0.19697279758010114,0.19689126735891432,0.19680879641190344,0.19672532121883327,0.1966407039056794,0.1965550260424582,0.19646852722141542,0.19638139126183993,0.19629370273014668,0.19620541907590092,0.19611633430029907,0.1960262438071995,0.19593521724065813,0.19584346566582606,0.19575105416444344,0.19565787184645686,0.19556381328951022,0.1954688554560341,0.1953730589341128,0.1952765333598759,0.1951793557318652,0.19508150997501839,0.19498297538353046,0.19488375042179637,0.19478381537353698,0.1946831383933137,0.1945817441993626,0.19447968425069606,0.1943769876003415,0.19427367021238412,0.19416975673227962,0.19406527531261117,0.19396024819200633,0.19385468325355124,0.19374856576706598,0.19364188245225306,0.19353465587306248,0.19342692034645495,0.1933187021056241,0.19321001937161247,0.1931008860694716,0.19299130471915604,0.1928812826307689,0.19277084040440098,0.19265998493815353,0.19254872650470922,0.19243706945946978,0.1923250198287503,0.19221258452934414,0.19209977745224763,0.19198660102017615,0.19187305586983994,0.19175914348873913,0.1916448690335535,0.19153023149514098,0.19141523034578475,0.19129986126321066,0.19118411867722424,0.19106799985374223,0.19095150202929073,0.19083462193155598,0.19071735219809188,0.19059968923860524,0.1904816247873059,0.1903631511860365,0.1902442604192793,0.19012494315258344,0.19000519072758967,0.18988499905598383,0.18976436008849729,0.18964326983678767,0.18952172117024732,0.18939971181016896,0.18927723925107634,0.1891542942718516,0.18903088355481013,0.18890700705462873,0.18878266641707664,0.18865786315592972,0.18853261646698102,0.1884069251717575,0.18828080443241466,0.18815427074544544,0.18802733968770483,0.1879000293625955,0.1877723636316272,0.1876443695053297,0.18751607234926038,0.187387509200215,0.18725871182678733,0.18712971277920498,0.18700056053484104,0.18687129152414758,0.18674195206044442,0.18661259162161764,0.18648326070146942,0.18635400778398833,0.18622489482880622,0.1860959722090083,0.1859672952989862,0.18583893435262855,0.18571093802553326,0.18558337086247667,0.185456292121927,0.18532977247100443,0.18520386374863437,0.18507863040927705,0.18495413184210543,0.18483042453690646,0.18470757281746147,0.1845856244583226,0.18446464142763203,0.1843446669036223,0.18422575578457034,0.18410795280245001,0.18399130119492016,0.18387584462797046,0.1837616192856968,0.1836486576793594,0.18353699340071786,0.18342665427309524,0.18331766539593483,0.18321004701028418,0.18310382468040662,0.1829990025185227,0.1828956077065293,0.1827936407811906,0.18269311098811317,0.18259402756021098,0.18249639130611567,0.18240020214951544,0.18230546385888718,0.18221217318834196,0.18212031930497632,0.1820299069035448,0.1819409203899503,0.18185335112725853,0.18176720050268347,0.18168245031107458,0.18159909327936644,0.18151710421104283,0.18143648365180828,0.1813572029825148,0.18127925185798738,0.18120261182235758,0.1811272578914687,0.18105317668194126,0.1809803420975525,0.18090872278051076,0.18083830500979042,0.18076904923635367,0.18070093490162398,0.1806339322444506,0.18056800517048455,0.18050312553150352,0.18043925916855277,0.18037637384059504,0.18031442549679863,0.18025339093069478,0.18019322503947882,0.18013389493419957,0.18007536844652186,0.18001760219601742,0.17996056416356393,0.1799042206236483,0.17984853226753394,0.1797934660356787,0.17973899522130188,0.1796850780006078,0.17963169002059298,0.17957879403369983,0.179526362565023,0.17947436941254333,0.17942278142685225,0.1793715761194538,0.17932072523527454,0.17927020236382418,0.17921998159194086,0.17917004335353973,0.17912035711579244,0.1790709030816186,0.17902165888441213,0.1789725949616462,0.17892369743840372,0.1788749416860393,0.17882630543456227,0.17877776290139286,0.17872929267132937,0.17868087747908212,0.1786324884121434,0.17858410964703034,0.17853571161790235,0.1784872783573375,0.1784387808847983,0.17839020259567615,0.17834151681942606,0.17829270124901253,0.1782437347619734,0.1781945848647507,0.17814524463220813,0.17809567476949503,0.17804586142334972,0.17799577734636532,0.17794539352272162,0.17789469544751618,0.177843654004754,0.1777922446923775,0.177740446264154,0.17768823322030575,0.17763557922024045,0.17758246446022968,0.17752885941349603,0.17747474392001983,0.17742009285809932,0.17736488275648524,0.1773090872256256,0.17725268342843647,0.17719565025760614,0.17713796196100334,0.17707959328227343,0.17702051981506484,0.17696072401151805,0.17690017478842587,0.17683885351760556,0.17677674127155943,0.17671380986160054,0.17665003998031414,0.17658540801898392,0.17651989564842588,0.17645347778166687,0.17638613823630622,0.1763178586975091,0.17624861163955974,0.17617838547200917,0.17610716322564793,0.17603492336326645,0.17596165482927723,0.17588733556912464,0.17581195505635747,0.17573549417890288,0.17565794800462725,0.1755792975553074,0.1754995339035929,0.17541864667859575,0.17533662386959897,0.17525346250990986,0.17516914828576277,0.17508368132940944,0.17499705132133167,0.1749092545690617,0.1748202880381983,0.17473015000578201,0.1746388418475844,0.17454635966445928,0.17445270266447072,0.17435787444031642,0.17426188221606867,0.17416472577663838,0.17406641173698742,0.1739669457232106,0.17386634010221327,0.17376460145922548,0.17366174335999632,0.17355777918063195,0.17345272104575893,0.1733465900847028,0.17323940725090026,0.17313119377002295,0.17302197389515878,0.17291177676423825,0.1728006337937844,0.17268858269483253,0.17257565879811557,0.17246190794650745,0.17234737563957309,0.17223211243258216,0.17211617678522045,0.17199962469703672,0.17188251914005184,0.17176493547913643,0.17164694220977264,0.17152861283204668,0.17141003711182415,0.17129129667822895,0.17117247162810859,0.17105366277404033,0.1709349575683696,0.17081645257109265,0.17069824639798734,0.1705804297136293,0.17046310125643852,0.1703463595784797,0.17023029420433355,0.1701150012479805,0.17000057419833572,0.16988709207563932,0.1697746430683165,0.16966330236171692,0.1695531519997756,0.16944425621548614,0.16933668367253196,0.16923049275593846,0.16912574028560481,0.1690224796297413,0.16892075947336793,0.16882061563244039,0.1687220930029723,0.1686252251700555,0.16853004150240933,0.16843657495347555,0.16834484915289613,0.1682548852794082,0.1681667079427301,0.16808032791314265,0.16799577119345915,0.16791304322594675,0.16783215655987185,0.16775311708068819,0.16767593243338097,0.16760059967497015,0.16752711529859599,0.1674554759069953,0.16738566571724156,0.16731767431442626,0.16725147483601344,0.16718705233088665,0.16712436344877235,0.16706338516297803,0.16700407674679588,0.16694639738283082,0.16689029919528153,0.16683573016150272,0.16678264016044786,0.16673097680014365,0.16668067722598004,0.1666316895592835,0.16658395116082247,0.16653740064539085,0.16649197389657597,0.16644761810219352,0.16640426760187027,0.16636186981715065,0.1663203636534855,0.1662796949795277,0.16623980607442873,0.16620064814206909,0.1661621688071888,0.16612432522807474,0.16608706491943726,0.16605034841955135,0.1660141286969841,0.16597837636880583,0.16594304380396194,0.16590809926889502,0.16587350742213916,0.1658392397960575,0.16580526550463584,0.16577154965076024,0.16573807152178166,0.1657047980489396,0.1656717098699276,0.16563878051511874,0.16560598653743855,0.1655733077294011,0.16554072036779754,0.16550819842050718,0.16547573139866417,0.16544329300395771,0.16541086273193753,0.165378420081596,0.16534595058036317,0.16531343362746193,0.16528084843099825,0.16524817316434928,0.16521539363527532,0.1651824875778077,0.16514943487675154,0.16511621880819713,0.16508281790982293,0.16504921360547448,0.16501538193692264,0.16498130399693606,0.16494696171029544,0.1649123292307708,0.16487738858830855,0.16484211654039138,0.164806492230282,0.16477048942005457,0.16473408359462371,0.16469725782997013,0.16465997906676225,0.16462223222168565,0.16458398232291993,0.16454521220185342,0.16450588522857562],"R2":0.7742934500107195,"Training_Indices":[15063,17381,678,13232,15435,16358,11455,14249,1532,20141,14312,20114,17760,13015,12489,5613,5017,3948,1704,1067,12309,11181,10398,8158,13002,11880,6750,12534,11326,8048,12181,7111,9597,11378,12937,13768,19533,19625,11021,3027,10138,20337,9528,16967,12555,11184,500,4067,3076,12556,11074,3261,3859,18344,7184,6719,10917,3997,15771,8592,9669,11437,3929,4346,17742,5794,690,18438,12739,16173,12429,752,4429,18561,13522,5719,8150,16955,720,8685,12000,17738,9074,15518,19758,15801,20437,7705,6794,13338,1768,4644,5681,3380,9891,3347,18389,19477,940,11134,8334,15521,9462,13146,15777,10312,2571,13076,15442,8219,18368,19242,11815,7848,1889,9515,4441,15019,17017,13145,2650,1850,7507,8702,10372,13584,10628,921,10426,15737,1242,414,4277,1887,18079,20200,19800,1661,14624,6850,3166,15831,5946,19136,15482,4890,18512,15254,19919,9825,2654,19301,19556,5585,19386,11390,4054,2247,8449,5838,1150,6730,20479,4811,1254,8262,4698,1884,15697,8944,5937,7720,8849,19207,10980,20516,2791,14133,17484,2142,14501,2738,5039,715,7834,16260,20355,4396,2626,12163,2575,14545,10758,7833,5410,7201,10471,456,17637,7149,11859,11421,19476,5184,5853,9108,14450,7180,4780,15834,9241,19880,18648,12058,3511,14914,16695,13531,12102,13370,15243,1062,4499,11807,18238,3045,11878,10648,17497,1784,4769,13533,18317,2453,5484,463,5574,19601,2981,17928,6988,16160,472,7255,15882,12904,16317,12380,2958,20442,5025,16687,6596,16736,19546,6265,778,6407,17924,5215,5787,3734,16049,1769,7797,16218,16352,6351,19053,17965,19328,471,15683,17401,5936,12371,3497,15080,19327,5818,13951,9894,13801,10403,5636,491,496,2909,9001,15441,19267,14815,9413,15346,16716,13475,6149,2128,17620,4404,5263,16129,9905,7839,8057,9094,18641,16223,13360,20067,17339,3971,19912,19773,1029,12984,10868,421,3551,17434,18247,4689,5792,8816,8293,5216,1156,15754,5105,6122,11693,13239,13271,2377,9068,2656,9768,14801,13151,14481,7118,12824,8547,13566,12091,10077,13616,13421,6325,10351,9789,5850,19962,20281,12894,16152,19952,3308,15447,18269,8651,6348,2112,12818,5152,20113,10216,10329,13542,8881,7946,854,1098,7871,17243,8583,12854,4854,8511,12160,13606,13822,11868,6561,8946,10323,8578,8295,7004,14997,16838,2693,4788,18938,17483,13541,18227,19887,10557,931,20377,10782,19938,16638,16322,18823,14961,16017,12601,11323,16369,3335,15727,11490,15619,12180,11549,13875,16390,7341,1451,19399,12378,3368,8598,16655,7293,10155,15562,6630,14216,254,6721,4575,17728,12254,13762,9657,15426,797,18370,17239,13664,17377,11949,6044,7531,322,7625,11694,18732,2437,2588,13222,10572,10793,2282,2037,19326,2046,3039,16282,3032,9595,13107,19518,17832,7633,14757,9599,9180,11098,6359,7739,9070,10114,11928,9472,14431,17839,8689,6201,12041,2129,6150,11547,1751,13877,12699,9500,5127,16485,1944,18490,4548,10508,18766,5521,4731,17293,8058,4596,10844,20278,12334,9445,11029,7378,16255,4102,6350,18940,7973,5879,860,19424,9228,13000,2141,9138,15824,14148,8136,2765,7198,20375,7165,11729,1555,2574,14692,19809,20001,17003,8804,3984,19868,12388,8363,19958,5422,9896,11351,11444,19544,8518,18111,14752,12320,2541,747,2966,9461,14115,12747,14147,3001,10872,3912,17310,17673,8118,15828,18964,20466,6144,6518,20587,1500,1725,12406,17952,1079,13035,10702,16827,6573,13387,7634,18376,14686,14130,7487,6704,7052,2776,911,6267,9373,16904,5192,12519,18522,1036,18413,16619,14385,14043,573,8953,14521,10091,1514,8878,2702,18961,11194,14676,12691,10004,9468,7259,14335,5325,10779,18909,10247,10258,8900,11188,19102,18628,7176,13288,10906,15748,1411,4601,511,14876,19114,19766,16681,912,16263,13644,12520,15542,1876,1882,4044,18904,11245,13123,6463,5540,9122,1774,5366,1983,14627,6870,5262,2246,6194,15036,2720,1537,18658,6973,4409,19099,12398,11828,5775,675,6139,6599,6499,6592,5496,14574,17296,4410,15991,10297,18535,3224,10446,9646,8813,8015,2327,12008,13256,4392,13425,11560,7759,19215,1796,15855,1593,13385,18003,189,11956,2412,16054,2658,8335,11926,11567,20274,18973,7127,7047,20270,17697,5914,1408,16401,19143,7297,1549,1943,15764,9887,16389,3008,5750,18314,677,10003,16024,16874,5364,66,18733,14619,18499,19726,16087,10374,20289,6429,18656,8683,12842,13865,20586,4210,11010,8968,18886,16362,20003,1434,4505,10585,20097,9580,2924,15724,19204,2074,7150,18181,15438,18716,7891,9648,325,303,19194,12426,18952,10887,2198,8402,14313,9564,2555,15433,4369,18618,6897,19840,17529,4193,1997,18378,4887,9331,1929,2902,4898,19329,11544,5045,1670,15880,18443,2803,8639,20275,18586,12017,6639,7231,15992,1,12938,14075,4341,9144,19661,10067,11738,7829,9645,10934,14963,861,12596,3896,6941,7375,7294,13589,5721,11986,3504,14454,9105,3639,14092,18086,10952,10139,8471,16900,8767,17987,18000,9621,9830,1656,11585,9290,15680,1120,361,14441,9237,3327,17466,56,1695,10961,15561,6393,2663,3081,574,9100,20438,9384,15984,20580,10239,6154,2048,4593,7872,17566,1999,436,18896,7517,14871,7967,19298,2990,9312,4792,11465,18322,1376,10833,11554,7602,10665,2163,8818,15785,19814,4892,7583,7101,10716,5442,4580,19128,16558,15110,13230,9837,8386,9556,3906,235,7737,5974,8240,3116,11611,13326,16330,12766,8432,12019,697,16058,15068,17185,17476,15983,12570,5190,1844,13405,14443,12133,16707,9309,1643,2203,20002,17672,938,4776,14609,12713,8673,15406,20497,8141,15498,15352,12138,10104,19265,4824,8246,6725,9581,3187,11185,6566,20455,12125,4503,12717,128,20567,6494,7945,11618,20217,11388,17935,19098,2845,20568,14964,16690,12785,1922,8901,7399,18289,20030,10270,12175,16188,15391,873,18163,178,5015,15914,6979,16392,9924,10491,1014,16157,12517,10023,12762,1312,20390,2673,18956,739,5560,5414,6444,1533]}