{"architecture":[["Dense",[4,20]],["Dense",[20,20]],["Dense",[20,60]]],"Node_Indices":[43,20,129,93,69,106,66,9,32,113,29,126,122,1,5,26,70,110,58,71,104,131,12,65,72,19,57,90,4,105],"weights":[[[-0.11804914,1.3049821,-0.36775118,0.6318609,-0.5808073,1.6142143,-0.773253,0.47726148,-1.7279779,-5.6858096,0.8887854,-1.7411304,0.74057984,-0.19773693,1.7204536,-1.0232384,1.7262444,-0.4334244,3.693173,-0.7870883],[-0.71879315,0.65138,-0.26673973,0.9317345,-0.3194571,-0.19812745,-0.15869361,-0.41104215,-0.5018559,0.002564234,-1.2077545,0.4009375,0.96744406,-0.07421397,-0.9414834,0.4439186,0.36398935,0.045257814,0.7338361,-0.2072795],[-0.19852251,2.1853964,-0.7552968,1.1153232,-0.6252231,-1.2007312,-1.0701419,-0.8619187,-1.0450463,4.2300406,-0.19452026,-1.5703578,-0.60067606,-0.010641837,-1.6469477,-0.637971,-1.8190734,-0.5997876,-4.7357354,-0.9251563],[-0.30542383,-0.8643273,0.06866885,-0.9204447,0.61687475,0.49193105,-0.70064753,0.06183869,-1.632749,-0.82289535,-0.798215,1.051478,1.0363276,-0.19039814,0.108249016,0.9748895,0.87235594,0.07382661,0.82963246,0.13292989]],[[-0.075186074,0.21316746,0.10190969,0.10234164,0.13762274,0.050211992,0.47675666,0.030784111,0.44245523,-0.32385382,-0.37467635,-0.33756432,-0.17992173,-0.20904016,-0.4335346,-0.03154046,-0.19814514,0.02518648,-0.2194295,0.0073105856],[-0.38988703,0.47471666,0.20037894,-0.10446732,0.47243208,0.24372166,-0.9623664,-0.57646763,-0.16413668,0.10653532,-0.13399993,-0.390144,0.07809868,0.3585431,0.35763785,0.37734994,-0.4199478,0.56822413,-0.030980507,-0.11005022],[-0.14050017,0.14408161,0.2147648,-0.21767958,-0.064745724,0.023425007,0.99684995,0.22153683,0.22871058,0.22182845,0.18488525,0.22349708,-0.22641121,-0.061541878,-0.066973105,-0.13892603,0.13597363,0.0048385793,-0.37477654,-0.23905706],[-0.3188128,0.37345904,-0.23344949,-0.058054607,0.20402764,-0.07316533,-0.028586224,-0.08947469,-0.1494929,-0.0070914533,-0.111790046,-0.09842899,0.16076635,0.10633095,0.016727038,0.20492056,0.17349297,0.48908812,0.087726764,0.29559004],[-0.17212203,0.3816194,0.31613475,0.1680151,0.048417866,0.11551814,0.43714088,-0.15218908,0.611235,0.24212903,-0.06777716,-0.28933132,-0.16190138,-0.19893801,0.23717281,0.023911942,0.26180014,-0.07237835,0.09847017,0.048189733],[-0.42002273,-0.34396377,-0.249951,0.12041533,0.090040445,-0.11428038,-0.5361374,-0.20963034,-0.37419805,-0.22922897,-0.19105221,-0.22829646,-0.084817015,0.08791501,-0.30326745,-0.25536337,-0.039571125,-0.35993755,0.10625098,-0.047628433],[-0.23650357,0.06791359,0.16387068,-0.2968099,0.1744241,-0.21432897,0.8912476,-0.110492066,-0.028167535,0.31850344,-0.4171139,-0.12214956,-0.19919229,-0.08880013,-0.08759097,-0.24331522,0.09633571,-0.30497396,-0.38740867,-0.21283945],[-0.08016007,-0.14790513,-0.40473464,0.011105902,0.11556688,-0.20563467,0.40603617,-0.33317363,-0.06791626,-0.2792887,-0.17563549,0.012992944,-0.41432846,-0.11091791,-0.18982431,-0.41465464,-0.06842474,-0.33853987,-0.42435107,-0.39898852],[0.1262834,-0.450003,-0.28601888,-0.16567492,0.10852607,0.17453551,1.3562874,-0.08049478,-0.11572529,-0.2700319,-0.090669006,-0.31616342,0.26440784,-0.29935294,0.16595386,0.15114981,-0.5270985,-0.41408226,0.08522811,-0.08996271],[-0.4542021,-0.7279568,-0.6275655,-0.17769746,-1.290882,-0.029775755,-1.6146077,-0.20776658,0.08891648,-0.59996235,-0.053615425,-0.3385923,-0.06411558,-0.43540916,-0.5000262,-0.7265652,-0.26168507,0.09084976,-0.5446303,-0.70044047],[-0.088348255,0.38234988,0.20999464,-0.31199166,-0.42027232,-0.48905095,-0.23920116,-0.46065876,-0.09442663,-0.06257818,-0.30899435,0.12443164,-0.005310527,-0.29957604,-0.28774172,-0.21329673,-0.29795286,0.13894741,-0.10935631,-0.13286144],[-0.29284725,0.21864042,0.11678814,0.08986451,0.24632993,0.03504623,1.2517681,0.12844001,0.64672214,0.0030961058,0.04223796,0.18233867,0.17286061,-0.313441,0.044678852,-0.16549306,-0.25521356,0.3321469,0.37797368,-0.24301402],[-0.075541206,-0.38675544,-0.1658522,-0.1466745,0.43466127,-0.27574763,0.35436633,-0.441673,-0.36114702,-0.0272729,-0.1515028,-0.39741394,-0.37898445,0.10411009,-0.00036891983,0.13047123,-0.40264958,-0.48373064,0.23142363,-0.3607112],[0.02015661,0.19115733,0.4012297,0.07057156,0.18957877,-0.2210097,0.34875038,-0.17984287,-0.014458182,0.004031315,-0.044839997,-0.27491593,-0.06879168,0.18631431,-0.26657942,0.008038405,-0.42601553,0.088177264,-0.06323971,0.135025],[0.062394325,-0.27923527,-0.39947957,-0.49524635,-0.15315816,-0.28783637,-1.0356066,-0.38393047,0.15676245,-0.3621765,-0.039515164,-0.5908731,-0.35265654,0.10324412,-0.412157,0.023761109,-0.11360388,0.13000405,0.09076152,-0.20787473],[-0.35155892,0.4652687,0.12373016,0.34539312,0.31566676,-0.22352195,0.56420577,-0.21878071,0.5403219,0.048779402,-0.47771478,0.19157772,0.30628967,-0.025026575,0.31879318,0.28513613,0.17390247,-0.19333296,-0.065218054,-0.09428361],[-0.48135403,-0.5522677,-0.5111926,-0.47471744,-0.24124382,-0.35818157,-0.8033905,-0.124183156,-0.4912934,0.036201846,-0.49684805,-0.24372357,-0.122559436,0.13057083,-0.14366905,-0.26212654,0.06324669,-0.38876072,0.024777615,0.07907228],[-0.22388521,-0.18635762,0.1907755,0.22450905,0.30999908,0.22235177,0.49793693,-0.20772986,0.018822948,-0.17650865,0.20193109,-0.13996655,-0.021865584,-0.43798596,0.16169998,-0.12227919,-0.29896003,-0.197507,-0.29103673,0.070996836],[0.01878682,-0.7151349,-0.45817715,-0.32223904,-1.1229705,-0.1810951,-1.2669318,0.11771476,-0.24316587,-0.555125,0.0052844766,-0.32927257,-0.38742694,-0.69972134,0.15854296,-0.51151156,-0.24979532,-0.80332285,-0.43441737,-0.2827245],[-0.19012117,-0.14221984,0.074974075,0.2592746,0.1533371,-0.010631963,0.5984657,0.27872828,0.41803855,0.02100153,-0.08983655,0.18224275,-0.2273697,-0.32118082,-0.1594908,-0.018694779,-0.04660136,-0.24850246,0.26479664,-0.17678468]],[[-0.04326085,0.06168205,0.1601758,0.09317423,0.27563092,-0.1913246,0.010220235,0.06770762,-0.090161175,-0.05488024,0.007073467,0.077117726,0.15545319,0.016277272,-0.0070337704,0.1424215,0.19269834,0.15898882,0.23645101,0.35100114,0.27718824,0.0050501837,0.20010126,0.13838163,0.09417711,-0.11928826,0.011802152,0.17236757,0.06317383,-0.10280438,0.17050435,-0.057602014,0.012454159,0.005168103,0.2086663,-0.12674105,0.017415756,-0.024734877,0.10622881,0.14176884,-0.043713596,0.0450579,0.2146515,0.059993237,-0.23594321,0.1392337,0.022540256,-0.13269562,-0.1615625,-0.12797071,-0.14325605,-0.20627072,-0.13340671,0.1077148,0.18249676,-0.05834405,0.14844395,-0.14026746,0.034352772,0.054737844],[0.067904994,0.23422873,-0.030377649,0.20872304,-0.14703463,0.24847092,0.07288484,0.021058436,0.40847462,0.101339184,0.049650453,0.029762996,0.12249328,0.010203699,0.040173113,-0.0407662,0.28233078,0.2655484,-0.08339019,-0.019136682,0.0022005076,0.122446954,-0.10279695,0.14652674,-0.065448664,0.38473782,0.1962683,0.28901717,0.10000004,0.07225765,0.17611839,0.6198007,0.09461197,0.29020637,0.35523698,0.1347988,0.25231224,0.12757911,0.14435263,0.028386375,0.40853155,0.09597417,0.42246526,0.26686484,0.23082039,-0.11687279,0.28030849,0.2654762,-0.01702803,0.0008844562,0.23290384,0.3967707,0.13200127,0.16652884,0.20733316,0.3765987,-0.09604076,0.2704028,0.21197695,0.38012192],[0.045221686,0.16013312,-0.10667303,0.26059264,0.2553998,0.18304515,0.10465303,0.20350662,0.04772222,-0.052516103,0.020269664,0.047588725,-0.05991234,0.31478283,0.105529875,0.37537843,-0.05616148,-0.009947549,0.010604631,0.12435252,0.1188004,0.3503732,0.22959448,0.12426766,0.34204298,-0.09833821,0.0052851476,0.19307545,0.25834766,0.14094804,-0.1376051,0.357189,0.21787852,0.2008506,-0.13271591,0.00570279,0.17620802,0.054592907,0.2754041,0.004914932,0.2476782,0.28358957,0.12073113,0.36932445,0.13378538,0.36525178,0.29500276,0.3216963,0.05744616,0.25805214,0.1677694,0.26025325,-0.09140147,0.28786203,-0.13484026,0.4955414,-0.11417661,0.28669608,0.39164498,-0.0063497685],[0.26764384,0.20172323,0.21502197,0.17144875,0.13555048,-0.12340846,-0.16446966,-0.16879494,0.16902424,0.15970033,0.32592306,0.1571971,0.02141022,-0.24345164,-0.17956592,0.02623676,-0.11015136,0.18373781,0.04135508,0.32992107,-0.10595555,0.107826844,0.13855606,0.030732058,0.010017759,0.23307325,-0.14834844,0.098280616,0.066443145,0.263111,-0.061993413,0.04330969,0.36797604,0.2162933,0.2677307,0.44809857,0.30575043,-0.10122303,0.09959593,0.28896773,0.25990856,0.33854553,0.029431554,0.21639726,0.08356289,0.30537727,0.09913112,0.16681144,0.16421258,0.24446106,0.2762751,0.3193755,-0.07888034,0.05792579,0.1534652,-0.01505441,0.15142182,-0.02736871,0.04972185,0.21103382],[0.23202653,0.10452337,0.28832623,0.12437618,0.252043,0.34354743,0.2628382,0.24955226,0.34850773,0.1370672,0.29269025,0.37921163,0.4031854,0.32599735,0.18091151,0.42014247,0.40753114,0.12370455,0.33720398,0.21238953,0.30640328,0.2337496,0.22756618,0.13034715,0.32422364,0.2851824,0.1847539,0.22154664,0.35579488,0.3337258,-0.13244751,-0.29136518,0.024999749,0.03507316,-0.13149522,-0.18158497,-0.16690609,-0.13397934,-0.12609588,0.1282348,-0.051845845,0.13675852,-0.21208623,-0.09192185,-0.121578835,-0.008501771,-0.2680663,-0.2212335,0.04595869,0.017618716,0.105355486,-0.05902815,0.03266442,0.063166566,0.08809432,-0.088744335,0.11440913,0.001514599,0.051840205,-0.18870312],[0.00904656,0.39231908,0.25031227,-0.13944237,-0.15565145,0.010065858,0.16491519,0.14806587,-0.059115984,0.2060101,0.09896164,0.014160569,0.09790631,-0.06835349,-0.06938801,-0.0654535,0.07663162,-0.03888373,0.27446848,0.04910832,-0.097550936,-0.16461827,-0.040538017,0.29256496,0.08492082,0.045423836,-0.025686309,0.062313482,-0.07524629,0.0989082,-0.0023870417,0.23262517,0.28435224,-0.11855274,-0.162262,0.08621858,0.26433015,0.2708545,0.27204332,0.15625621,0.105642125,-0.10241021,-0.04698761,-0.06494982,0.21983658,0.25506964,-0.042159297,0.10474789,-0.029613022,0.16845442,0.07711839,0.08797097,-0.09741936,0.3151967,0.06298441,-0.05520958,0.2554735,0.26232627,0.31811017,-0.067053504],[0.098266296,0.55745775,0.47318637,0.45570496,0.24258788,0.43067455,0.13077986,-0.0034825252,0.43311125,0.20090598,0.43658525,0.2896569,0.3412443,0.5772012,0.33544067,0.19010288,0.22400938,0.085493326,0.09908846,0.2571689,0.44266865,0.3472062,0.022332074,0.29033127,0.29380554,0.5108764,0.124460444,0.3997119,0.4232361,0.39848736,0.0035284315,-0.03978664,-0.025566274,-0.030577632,0.030754376,-0.019968577,0.06691457,0.015712334,0.0072935545,-0.03925951,-0.0019023839,-0.038869396,-0.03007213,-0.011644925,0.02563566,-0.008430415,0.046341214,0.012837876,0.0067970557,-0.038789682,-0.04980026,-0.052396394,-0.019984238,-0.009530579,0.020337116,-0.06638828,-0.029941637,-0.015684612,-0.057689406,0.031811923],[-0.037468947,-0.07297599,0.23372428,0.02076447,0.2526221,-0.010201362,0.18591022,-0.05407873,0.23446342,-0.068312176,0.331809,-0.12998892,0.103101976,0.285481,0.10624024,-0.03948293,0.26633826,0.15696436,0.38515738,0.12964779,0.33008,0.06252834,0.25126743,0.00941404,0.24764171,-0.12490704,0.047464915,-0.14185277,0.24332051,0.0039160666,-0.10240811,-0.017150622,-0.15821277,-0.024848795,0.005477287,0.16993761,-0.13648799,0.16635795,0.054644752,0.013741253,-0.124767475,-0.056502506,0.026646974,-0.0072464193,-0.07857463,-0.108408056,-0.069179416,0.14760633,0.36324894,-0.10619511,-0.1136283,0.11310393,-0.13812448,0.10782363,0.24364907,0.24554977,-0.11380294,0.04284516,0.15223971,0.028963894],[-0.014048898,-0.3891715,-0.42458388,-0.41173977,-0.17316492,-0.20049873,0.017835217,0.1653754,-0.3072408,-0.16867493,-0.34919006,-0.11646777,-0.16739622,-0.32876432,-0.19233757,-0.13284224,-0.11830628,0.042679213,-0.032860488,-0.19434126,-0.23269176,-0.120497935,0.039919846,-0.34432307,-0.30693704,-0.25309697,-0.030610278,-0.3118166,-0.4290053,-0.22915351,0.14328876,0.47623417,0.2914414,0.28982812,0.14419636,0.25212905,-0.007327755,0.12268697,0.22275037,0.24834125,0.24962269,0.26818705,0.3341358,0.34682226,0.19236115,0.20256048,0.12276336,0.057019673,0.17712837,0.2548307,0.3871035,0.36220714,0.15244542,0.15860882,0.14581393,0.5229375,0.22441679,0.31477404,0.35631508,0.18999179],[0.27641287,-0.097426854,0.25654843,0.29790568,0.2567958,0.0019323847,0.017651785,-0.16989051,0.41561934,0.29500988,-0.070927896,0.14849268,0.022537401,0.2041883,0.25175914,-0.099430755,0.16480143,-0.06560892,0.18367186,0.0085861115,0.0073291822,0.4238319,0.19007948,0.10820451,0.19377507,0.22567776,0.07521745,0.28108943,0.21128878,0.099436976,0.014469689,0.12318959,-0.16655733,0.2660094,0.02539659,0.38728744,0.11883512,0.118529886,0.14609021,-0.14366807,0.026835432,0.10014699,-0.023188775,-0.11371479,0.060334615,0.17744625,-0.08580393,0.3250588,-0.111270316,-0.057952575,-0.20197533,-0.10798761,0.2310959,-0.11549219,-0.019048007,-0.114112504,0.073703416,-0.07531941,0.092852,-0.037779585],[0.26183185,0.04065996,0.101793595,0.15602112,0.1239541,0.039941333,0.1320542,0.012538493,0.016206974,-0.105235815,0.3783479,0.081720605,0.020599162,-0.20347472,-0.113670886,0.11278499,0.109550916,-0.12447177,0.23480672,-0.042837664,0.025414566,-0.08026647,0.03170424,0.06882562,0.27778113,0.098655164,0.0788679,-0.10191989,-0.0082560405,0.051964298,0.17242,-0.00023160968,-0.22672813,0.26655644,0.005455008,0.23670742,0.23423217,-0.036941767,0.022571364,-0.13237485,-0.13055396,0.041385688,-0.10213558,0.28478068,-0.09530834,-0.19570263,0.035087693,0.13180633,-0.14154106,0.19245055,0.11488011,0.2851262,-0.08498751,-0.14581764,0.2053031,0.0028262376,-0.12559736,-0.06539212,0.10128188,0.0889296],[-0.080914006,-0.019955993,0.11509422,0.3631363,0.39973944,0.14495364,-0.14465353,0.23536801,0.07391574,0.05611519,0.014918415,0.16811772,0.08955279,0.23489536,-0.060273357,0.22314301,0.22203399,-0.09581867,0.36936986,0.004031091,-0.07998857,0.11833615,0.23717108,0.021412455,-0.033491947,0.37986505,0.17714414,0.1672366,0.35352567,0.02017014,0.31876364,-0.24782276,0.2314222,0.054618575,0.28539902,-0.14300865,-0.055792503,-0.12438469,0.15100513,0.09204179,-0.14956142,0.24271658,0.20246127,-0.055628076,0.076978445,-0.0793318,0.25510165,0.2916509,0.23353215,0.3149753,-0.13113783,0.23786192,-0.11923512,0.1618439,0.21495533,0.27008054,0.10022669,0.17090565,-0.007392814,0.24463335],[-0.18398088,-0.028340911,0.19870554,0.029575562,0.1326794,-0.08110149,-0.08156864,-0.14061692,-0.14631458,0.11150378,-0.2020318,0.26277715,-0.10798274,0.16452812,-0.013492865,0.2806441,0.03719019,0.059222855,-0.03368332,-0.26195946,0.039168626,0.207801,-0.11576513,-0.17881678,0.012503421,-0.20470706,0.13777946,-0.0051307026,0.0950145,0.049689427,0.13539621,-0.0777311,0.3834598,0.33724982,0.30588254,0.20551114,0.22013988,0.36402497,0.37402135,0.11523395,0.12151521,0.3338204,0.3179297,0.117299,0.33406788,0.17980848,0.21498321,0.021346431,0.07453697,0.35132954,0.012918361,0.2147249,0.2270878,0.3592251,0.37311244,0.06730531,0.41301262,0.04227394,0.052476197,0.26635343],[0.20759988,0.017463023,0.4904739,0.26188934,0.35327303,0.27984416,0.101668246,0.03779978,0.07956306,0.30488268,0.22849718,-0.016250502,0.34398755,0.24278787,0.2913391,0.0032862476,-0.13558657,0.09002083,0.254662,0.26099822,0.14386861,0.27133802,0.1927888,0.14786568,0.089051425,0.009973888,0.25928923,0.0030301032,0.08087077,0.3544496,0.1765585,0.03117205,0.20913865,0.110688634,-0.14785308,-0.0043256953,0.10089322,0.31396824,-0.08953987,-0.120397955,-0.11231052,0.09177853,0.16995335,-0.04761773,0.18935329,0.020486934,0.1930334,-0.14125706,0.11422977,0.18211569,-0.09652411,0.29669708,0.15928695,0.09163849,0.075230576,0.13966717,0.11578719,0.18480964,0.027997281,-0.062053658],[0.03954958,-0.12667753,-0.05093766,0.113532715,0.2080322,0.13826749,0.23772961,-0.15123934,-0.048776478,0.13492356,0.17012337,0.18418674,0.09152594,0.064439274,0.27583218,0.2266291,0.061033666,0.4638308,-0.08225762,0.04609357,0.120164014,0.2571381,0.058883995,0.3592799,-0.0040245247,-0.073747225,0.24285944,0.3160303,-0.02592707,-0.022854006,0.20280947,-0.22388539,-0.26448396,-0.25741163,0.2151571,-0.25860482,-0.08813451,0.16070679,-0.18962401,0.034483965,-0.13642749,-0.22690867,0.022474555,-0.39036858,0.1714257,0.15390511,0.17155161,0.120606564,0.015215372,0.12626822,-0.1287638,-0.23330665,0.10558822,-0.04133384,-0.22505796,-0.3322803,-0.19163424,-0.0992787,0.057419315,0.05640233],[0.1855656,0.2628351,0.009121274,0.06664367,0.38539943,0.38635904,0.29516837,0.25353503,-0.02428741,0.07676564,0.21600474,-0.0013350105,0.311969,0.19428323,0.259675,-0.008706574,0.05319559,0.2754945,0.026319593,0.4234873,0.26096243,0.0004922652,-0.17804721,-0.07950147,0.2699361,0.06548809,-0.088421874,0.14737278,0.34361258,0.1741612,0.0019455225,0.14059065,0.016151687,-0.18746555,0.027156452,0.030180221,-0.0549417,-0.08356835,0.2730574,-0.14173886,0.08531775,-0.2861529,0.0895082,0.02571487,-0.13429439,0.090475164,0.20780095,0.13812742,0.083965294,0.05106278,0.14754958,-0.22422908,0.032690074,-0.10948372,-0.13794136,0.16585551,0.26474577,0.021052083,-0.03693559,0.14484644],[0.14323005,0.14332671,0.20512716,-0.12636226,0.10648486,0.11176537,0.21637921,0.11364567,0.2845523,-0.11688456,-0.031536702,-0.015799422,-0.013236634,-0.20955354,0.32732135,0.41973466,-0.07885425,-0.104234666,0.14555095,0.319276,0.036433183,-0.15049973,0.027876412,0.36991152,0.13097468,-0.14800549,0.067844845,0.22422314,0.21255213,-0.11429719,0.34695065,0.34103933,-0.12614357,0.08665375,-0.13004869,0.29234415,0.023819283,0.09752115,0.00785165,-0.104518786,-0.15798843,-0.09295254,-0.008679815,0.2750381,-0.06255195,-0.11483005,0.14842774,-0.16639917,0.13847725,-0.026201349,0.06345075,0.29634306,0.10332992,0.33562508,-0.13236472,0.38604602,0.34179628,0.24713625,-0.13429959,0.08308181],[-0.050032526,-0.060930904,-0.06111506,-0.020371504,-0.14925659,-0.17046487,-0.1475998,-0.24787354,-0.16052435,-0.1589448,0.06435784,-0.22803256,-0.09377867,0.19297045,0.03597674,-0.18188302,-0.13579915,-0.23233458,-0.18124436,-0.021592634,0.10764995,-0.36569977,0.036657095,0.14074017,0.03570718,-0.12364675,-0.12853593,-0.12121341,0.034238853,-0.23797084,0.01852012,0.2466353,0.27008286,0.24029396,0.3925632,0.38039568,0.17612684,0.033359963,0.37424868,0.30751044,0.34090975,0.37239146,0.15853965,0.5362812,0.32436377,0.33734605,0.2987842,0.11432221,0.38014704,0.09050917,0.3910337,0.12580045,-0.19242333,0.13563776,0.3451445,0.32319054,0.015704943,0.29501694,0.24256054,0.47441372],[0.13428481,0.22346717,0.078695014,0.3362355,-0.08537032,-0.10607237,0.3386403,0.296044,0.13440508,0.3726264,0.22256874,0.32558003,0.26576903,-0.2538227,0.05257171,0.037219185,0.3600569,0.13104904,0.17889298,0.227303,0.35940975,-0.116796315,0.0873437,0.15997815,0.19791424,-0.045410838,0.28018025,-0.05479792,0.13776854,0.12130727,0.0599375,0.059387695,0.144682,-0.29707098,0.14933434,0.15436998,0.02392817,0.10732654,-0.20360658,0.14453708,0.13777608,0.012568795,0.24208449,0.13350366,0.22562338,-0.21818683,-0.06784614,0.021290347,0.1440542,-0.23094967,-0.19556768,-0.123497486,0.15088746,-0.08592665,0.17728455,-0.053771432,-0.07061064,-0.25741795,-0.21377419,-0.17195714],[0.28400648,0.24514097,0.07496755,0.21731381,-0.049386304,0.11302769,-0.17341053,0.09687723,-0.115873955,0.20393865,0.12977362,0.17797415,-0.12474346,0.039233044,0.36607486,-0.05474976,0.18171722,0.016829768,0.09403908,0.33019355,0.22851485,0.14029117,0.43067208,0.2905738,-0.0642413,0.3094857,0.27673137,0.32937112,-0.14681832,0.09231673,0.17969611,-0.06415576,-0.115708396,0.081625484,0.015423621,0.24679358,0.16333938,-0.122843586,0.17000492,0.26438016,-0.20753315,-0.065222524,-0.19167742,-0.13048728,-0.19388054,-0.0059947013,-0.15028115,0.061074506,0.05980993,-0.18309209,-0.14100625,0.2165087,-0.11759697,-0.26621625,-0.17967223,-0.13019533,-0.086863734,-0.07627262,-0.12041912,0.20361456]]],"bias":[[0.13626671,-0.031223807,0.0018943088,-0.07339948,-0.07876111,-0.097488485,0.40096325,0.13885355,0.13277708,0.02193268,0.117409974,0.23962168,0.14939608,-0.0044452236,0.09942279,0.13995399,0.025589755,-0.09446493,-0.09892321,-0.06352397],[-0.15265186,0.04616077,-0.03762184,-0.0084453495,0.108532086,-0.14675005,0.23869218,-0.15996769,0.10177788,-0.07205179,-0.1541186,-0.16079359,0.022899538,-0.08344863,0.020376336,-0.059090596,-0.10768232,-0.005529549,-0.037108816,-0.0824814],[0.30190235,-0.16573054,0.058817737,-0.0033716212,0.16412623,-0.095730536,0.21690997,0.50609404,-0.06262981,0.30714113,-0.023615224,-0.03223344,-0.01839927,-0.27059868,0.10838725,0.18878803,0.10575148,0.29489183,0.33304623,0.16353567,-0.12497909,-0.058877233,0.46,0.29599747,0.20535025,-0.1832568,0.3237964,-0.02293505,0.044230744,-0.027922371,0.15992707,-0.24514215,-0.13485323,-0.077652656,-0.053404883,-0.10240827,0.09161195,0.11157104,-0.07486829,-0.021463739,-0.11255151,-0.11377277,-0.11806005,-0.15765208,-0.11303375,-0.045893405,0.013740218,0.10343843,-0.010404493,-0.035616312,-0.11711582,-0.19344006,0.21763194,-0.0063243336,-0.002737768,-0.28636527,0.06665995,-0.092229426,-0.17215528,-0.05356262]],"Losses":[1.0267815761171193,0.8492283333957873,0.7019838147970013,0.5808937860503182,0.48403256382627136,0.4107651543180974,0.35809863874027564,0.3182606660163985,0.2864195455679109,0.26251600446414936,0.2469262354254555,0.23851213775216393,0.2350832367040403,0.23412246485032012,0.23314815805831313,0.23077669137502366,0.22702236889748606,0.2226828984736418,0.21867109164423854,0.2154333454060326,0.21280922169693187,0.2103574864812029,0.20779562578007896,0.2051821817234017,0.20277995451139452,0.20082846436633148,0.1994135782033716,0.19846404530334716,0.19781616566365356,0.19728713993423486,0.19672987344466733,0.19606662767007804,0.19529996965796798,0.19448835949075677,0.19369530881512265,0.19295729692127325,0.1922938123447051,0.1917252666083634,0.19126561902758868,0.19090485222916945,0.1906080673194975,0.19033143040356515,0.19003989024281095,0.1897168541742167,0.1893651046313651,0.1890025834206678,0.1886540701682936,0.18833793670989507,0.18805534010703617,0.18779252286344258,0.18753349920308313,0.1872699886635143,0.18700206391634208,0.18673391208599904,0.1864711835473184,0.1862205103973072,0.18598790126865603,0.18577647187336815,0.18558603160824946,0.18541290303431815,0.1852487896500849,0.18508179755005233,0.1849008585146539,0.18470092233731988,0.18448562918874314,0.18426505157538628,0.18405006463888926,0.18384781028774916,0.18365978842472305,0.18348244464597677,0.18331040159030046,0.18313958895256996,0.18296771869190026,0.1827936493799416,0.18261712790011125,0.1824389574244666,0.18226124023861143,0.18208664902063232,0.1819169947963476,0.18175237783900633,0.18159119171121282,0.18143119325924023,0.18127092949584453,0.18111006820923942,0.1809490088029647,0.18078850392867207,0.1806292670997339,0.1804718414239478,0.18031656468243082,0.18016362052594564,0.18001307966248895,0.17986486413837002,0.17971885969367857,0.1795749910001185,0.1794329847903064,0.17929232433008346,0.17915245053488205,0.17901305105389387,0.17887415842676097,0.17873610464211356,0.1785993530896814,0.17846419304844138,0.17833053216529124,0.17819805687658943,0.17806645862629727,0.17793556979108988,0.17780530072297637,0.17767552477694526,0.177545954953448,0.17741618381744123,0.17728590651246184,0.1771550355375516,0.17702360805683978,0.1768916022489799,0.17675885036138939,0.1766250606066233,0.17648989921682515,0.17635309670327984,0.17621444662726143,0.17607377491803178,0.17593090429427702,0.17578565021562415,0.17563779418556186,0.17548708724417147,0.17533327504355564,0.1751761335856836,0.1750154779102871,0.17485115865379072,0.17468301986843845,0.17451088695959874,0.1743345719499934,0.1741539014831051,0.17396872413156356,0.17377890918837935,0.17358434929165045,0.17338494655090286,0.17318062147989025,0.17297132331953224,0.17275702516448685,0.17253772120438982,0.17231342337646116,0.17208416955619377,0.1718500261142504,0.17161109551048856,0.1713675187934664,0.1711194638735568,0.17086713917138172,0.17061077601627941,0.17035064070084194,0.17008702218820096,0.169820241481566,0.16955063855291225,0.16927857589293632,0.16900443445857893,0.16872860104742346,0.16845147465729976,0.16817346009523026,0.1678949715789055,0.16761641409055386,0.16733819553191112,0.1670607242293022,0.16678440360212426,0.16650964004430213,0.1662368370308644,0.16596640286095826,0.16569875178522825,0.16543430297182546,0.16517348722163544,0.16491673264059373,0.16466447258898054,0.16441712932783795,0.1641751123913159,0.1639388013111791,0.1637085365636213,0.1634846135481395,0.1632672582184869,0.16305663587450503,0.16285283975627246,0.1626558869769579,0.16246573329128294,0.16228227465909562,0.16210535938301499,0.16193479810403008,0.16177038507915395,0.1616118834982403,0.16145906069993013,0.161311664411493,0.16116944190840757,0.16103213159178079,0.1608994611881811,0.16077115014301202,0.16064691035966452,0.16052644520531603,0.16040945446348837,0.16029563988093634,0.16018470157494147,0.16007635980962642,0.1599703423539022,0.15986640314574482,0.15976431808275993,0.1596638890937423,0.1595649392815725,0.15946732635660302,0.1593709244594112,0.15927562948402982,0.15918135456485313,0.15908802529194346,0.15899557658303068,0.15890394758385604,0.1588130870980221,0.15872294080921376,0.15863345948207327,0.15854459234867943,0.15845629362431615,0.15836851246723646,0.15828120186403952,0.1581943235186965,0.15810783334331327,0.1580216949578072,0.15793587276772755,0.15785033923926145,0.15776506913821492,0.15768003643004447,0.15759522507426402,0.15751061672400254,0.1574262013739536,0.15734196717425405,0.1572579065656713,0.15717401433917016,0.15709028484436258,0.1570067122070413,0.1569233012293299,0.15684004249180714,0.15675693766156226,0.1566739840208688,0.15659118436152825,0.1565085334313052,0.15642603051691817,0.1563436734855331,0.15626145484288007,0.15617937811120078,0.15609743207967824,0.15601561359047067,0.15593391408515944,0.1558523301023631,0.15577085048068265,0.15568946687100105,0.15560817017794956,0.15552694664561117,0.15544578985660729,0.15536468603979864,0.15528362055360673,0.15520258381643728,0.15512155934443117,0.15504053667294523,0.15495949780627075,0.15487843379899696,0.1547973255785464,0.15471616092057225,0.15463492684804392,0.15455360757015627,0.15447219266538273,0.15439066327965767,0.1543090121911131,0.15422722398759497,0.15414528962563184,0.15406319257605974,0.15398092447534234,0.1538984754195473,0.15381583100781104,0.15373298336886376,0.15364992405558353,0.15356664305336873,0.15348312688791854,0.15339937351056684,0.15331537090540714,0.1532311116219069,0.15314658588077912,0.1530617900886596,0.15297671804288418,0.1528913596554116,0.15280571344456398,0.1527197710302464,0.15263352819362455,0.15254698129616043,0.1524601297329449,0.1523729670538722,0.15228549273222167,0.15219770292075746,0.15210959900572082,0.15202117902682363,0.1519324478057125,0.1518434078384282,0.1517540680698521,0.15166447274803133,0.15157471332472644,0.1514851573018512,0.15139686957052154,0.1513135966052412,0.15124751957745422,0.15123226828863967,0.15134573097194995,0.1515484428281226,0.15159325605193283,0.15100367639880843,0.15068280737992745,0.15092023113739902,0.15085664562890452,0.15044892145988753,0.15040256441149158,0.1505027542327238,0.150250251400246,0.150060544813621,0.1501420880685182,0.15000580674623457,0.149780819907562,0.14980471624926486,0.14973163278476137,0.14951777602223243,0.14948935711267888,0.14944397670918974,0.14925610420616753,0.14918944821335936,0.14915108799822774,0.14899228564071823,0.14889801907496863,0.14885642528643658,0.14872535312294857,0.14861312939784949,0.1485599277757393,0.14845269822081894,0.14833282814526608,0.1482631692633441,0.14817326206997194,0.14805416955709177,0.14796668670710567,0.14788455364487577,0.14777312995382375,0.14767080282919465,0.1475867033557977,0.14748521318517185,0.14737495460493508,0.1472811242122112,0.14718577119502202,0.1470758238757334,0.14697062559989865,0.14687394692292866,0.14676981894165297,0.1466624257171815,0.14657080239152587,0.14651207817510922,0.146536440674793,0.14680868782432666,0.14718868211093392,0.14715610252815936,0.14611413274368823,0.14597438950153802,0.1465191296819377,0.1460122487691384,0.14552227939996495,0.14584907595274046,0.14568561415974854,0.14521831472189434,0.14533300623165524,0.14531502725294573,0.14493645383486944,0.1449010834994655,0.1449380132963981,0.14465673634677534,0.1445156537645195,0.1445537924885087,0.14437045036714183,0.1441634136664004,0.14415751265571725,0.1440627680080579,0.14384152599944822,0.1437556713245464,0.14371092264828572,0.14353733922979256,0.14337701376476705,0.14330999072968406,0.14320952111015806,0.14304487560439158,0.1429100911626722,0.14282082848626346,0.14270812231204108,0.1425605119420095,0.14242640013146196,0.14231278277492343,0.1421916496652313,0.14205978893352014,0.14193183378840735,0.14180674770754112,0.14167223164134612,0.14152959727812567,0.14139445275709703,0.14127183961752166,0.1411509808682729,0.14102307445372772,0.14089192517911311,0.1407725473816648,0.1406808375700634,0.14063613484669543,0.1407015830439855,0.14093989286844172,0.14141654256544572,0.14152056637221114,0.14080027905684328,0.1397803002836678,0.13974665340058598,0.1402942008474271,0.14014032174316232,0.1394109431375923,0.13915619065387755,0.13944391321005054,0.13942275442085347,0.13894524725502005,0.1386969548077127,0.1387504606800497,0.13872330550618137,0.138514462013603,0.1382557890907646,0.13811352186875545,0.1380870428415814,0.13804772505234755,0.13786961724162156,0.13759287133856837,0.13745587226579395,0.1374664142512743,0.13741649067481357,0.13725015433885068,0.1370622054002324,0.1369268311759727,0.13679211062412686,0.13664326486484737,0.13654081230491844,0.13649497167719182,0.13646033978971017,0.13644294147938502,0.13652695878795823,0.1367623008264981,0.13720822754000583,0.13745013010436938,0.13729206074609632,0.1363611326351371,0.13554820616231048,0.13548745384182348,0.13596818293057186,0.13626587883870472,0.13582380960789184,0.13516143192176733,0.13494450377002537,0.1351966639154897,0.13542736914682807,0.13523137017750847,0.13479959758242932,0.13449624628593357,0.13451968464346228,0.13469950476895293,0.13472525815197262,0.1345266831069651,0.13421494524776284,0.1340093075849648,0.13395928156783216,0.1340019417496121,0.13406650319080782,0.13407897347176573,0.13401050646769605,0.1338539987298619,0.13367011188065628,0.13349481464836319,0.1333506956403334,0.13323558662358614,0.1331509076632607,0.1330914188518272,0.13305027909311887,0.13303729432014083,0.13309136423881857,0.13331246293356186,0.13387133293766554,0.13502876162553085,0.13626506692168489,0.13623576005936158,0.13383229865888768,0.13243485046242434,0.1334064697661398,0.13450071713687609,0.13363982482799622,0.13227915954651104,0.13275863332112314,0.13362420737519642,0.13283942407292262,0.1320306123716289,0.13252128592542667,0.13288517966305655,0.1322450755521731,0.13184740640739206,0.13227339615605926,0.13238392878782676],"R2":0.8378229405869256,"Training_Indices":[12859,20374,11722,6195,13248,19232,18445,1198,18211,697,14634,12825,8312,12492,20163,15811,5137,5905,20032,1754,9433,20396,4498,12979,1827,11315,5541,14868,15948,11975,12718,16926,16837,17922,13752,19835,3047,12370,2860,10710,19373,2542,8169,6741,3737,13957,3859,6252,15001,18626,3322,10708,15143,3696,18558,9857,11143,18311,15992,12594,7629,20424,1199,14518,5767,9282,5199,16884,15097,11386,19137,14482,15084,19618,7037,7987,14493,12118,4139,5810,19968,11415,1343,12698,9659,3516,6216,11568,2255,17395,13604,3068,7371,9209,19411,14060,18248,13127,8320,13838,19402,16268,5896,9472,19236,9572,10416,9791,16134,8731,18649,13036,8569,16679,18378,7818,4557,9225,1625,12977,10845,87,4304,7223,10576,16677,18364,17590,9239,19478,17550,15314,10185,7599,2450,12475,1853,568,12480,20525,18011,19331,10076,15545,73,1356,230,1399,6698,5705,16947,5792,1515,8651,19262,5760,5607,11805,15876,11393,594,6566,3605,2511,14173,562,11607,8646,3565,11918,4602,10938,18384,18092,3559,1869,12847,17210,2909,7906,6799,8184,12651,2392,7802,11267,12160,17540,10868,15924,9186,11156,6267,12297,14700,13946,20189,19654,7759,5805,2041,1889,12706,11905,17182,15606,17414,1915,9480,19900,1235,13902,12670,20152,14812,5991,1062,8501,8452,12444,17285,7420,15272,14095,5770,14265,17116,12935,1428,16967,10173,8168,9106,10606,9899,20376,17537,8517,16129,13574,16461,8097,3738,138,16259,2362,19729,5776,5737,11659,7385,20044,6444,12667,20196,2774,15007,15185,19285,13357,14912,17877,1118,18147,16823,3690,18493,17035,15908,8090,4902,16108,15068,3735,14941,19981,11360,17065,5907,17255,13668,1846,10251,12375,18003,347,2942,7445,12021,4536,14765,13658,11673,7531,245,6912,5191,690,19983,1114,12727,11066,17136,5520,19944,10805,15088,16499,7768,257,14760,2534,1204,16318,16136,18490,1505,13541,16971,17603,14084,18945,6366,846,9777,14725,3084,1908,4742,940,19123,15751,5074,7441,14646,12921,9525,15322,14214,14395,5518,7827,2762,2437,5418,10975,12539,8948,3642,4822,867,18126,18544,14693,20399,14495,15926,16438,8856,12854,9895,4763,14254,17795,18107,9568,16095,15577,3686,14279,19352,3305,15031,17162,12704,12080,19237,17956,3878,9661,13008,11912,8600,9249,13936,5900,17934,19621,14535,554,17901,3210,17851,13968,13652,11434,5554,3466,10631,17714,4570,3383,17215,16501,11554,19087,2062,7649,10406,292,4657,2943,15993,14905,3922,19361,18837,5218,10216,20542,5838,18742,13135,13435,4726,5298,18889,17599,9850,7133,10144,2761,15958,5610,4247,7006,5895,13477,12494,928,10992,17627,16561,16351,6569,3901,5150,8837,1642,7073,19286,20546,962,3364,446,8429,19515,9846,20501,7742,482,15620,20500,9312,163,5143,849,19457,9486,17232,14159,1822,16368,393,19198,4588,15697,18784,1369,5323,12352,10183,2358,4257,4246,1708,6652,14909,3963,4666,588,20119,12839,12213,20418,7897,2951,769,7311,6236,11225,246,6066,5164,17052,11274,3326,18113,8635,13362,19341,7312,15698,14689,7646,12232,9079,4863,15763,5613,15673,9311,5808,17687,13701,9264,4444,14416,6056,11941,2354,14269,10969,15693,14234,5120,1849,18812,1615,19170,15325,18587,6464,16624,8448,3787,16703,12134,13879,5184,182,14449,16231,1843,13558,3442,5723,6358,20452,4665,8544,10230,10998,62,18245,6819,15104,10834,15711,18258,14732,12858,7025,18,704,12802,15248,1755,6508,9833,12614,8734,5054,4395,9858,8485,18740,14464,19360,2240,7442,20584,17345,1468,4276,9773,19199,5070,14953,18814,9387,14372,13711,1836,19296,10982,7861,12725,13561,16895,11734,2072,14741,9689,19562,1917,16998,16429,4629,5435,9198,15953,17953,9677,8026,7726,7988,8337,17208,16262,18434,1861,16718,6232,9099,1424,18529,3138,6866,557,553,1030,11284,14034,7732,9140,605,19795,2662,5068,17467,18333,1943,9475,14950,13500,9202,8456,14943,10676,13263,10339,4477,14103,16813,12611,14785,4811,19483,15842,17022,13009,13579,1945,19362,8525,11248,19930,4800,18577,56,10954,16674,808,2415,12528,17553,12884,16607,4381,3802,13596,16586,5694,10799,7357,12733,19292,721,1171,4230,4553,2479,20580,3734,16377,10229,5079,10959,17056,20534,6555,2724,1386,11868,5082,10682,13748,4345,11569,1922,14846,3624,13241,18951,13663,755,9271,19619,7248,5038,2659,3830,7462,8095,17853,4440,18033,18118,16295,3599,19779,7881,8597,10214,14326,18666,2357,8342,16566,8066,17477,2117,4180,20443,9316,17625,15977,10068,18527,18846,7446,2186,15029,15650,12103,2647,12115,3281,6705,9554,19308,16264,15935,18438,13949,6580,1909,675,16063,6686,18272,18171,13000,6968,8132,4322,9736,7332,9449,2746,10691,11867,15835,767,5430,16071,11599,2851,5420,4429,15448,18022,9342,11785,11703,11016,17820,19967,18564,5611,19585,19209,1407,3555,6285,143,15408,16711,6991,4996,18261,5168,12668,17778,13363,12128,11751,11383,13520,8397,19663,7308,3007,5132,3682,1979,9912,12282,19733,5188,2192,9214,12123,18565,8565,3368,13404,9126,17452,16269,870,16340,6789,19681,8842,5645,5356,14834,10328,1305,10355,6078,2595,11588,3080,13385,4030,8896,949,12923,15453,19935,12565,20454,970,9287,11336,17040,18325,11009,13274,4302,8716,12486,1831,20224,18797,5732,43,10054,4142,19557,2840,10922,4226,9845,1270,7528,9533,20270,16744,4608,1565,8394,4998,1656,18625,17513,19103,16392,19221,7596,17443,8996,12023,18339,12738,12215,3135,6965,3183,4460,19272,16707,4722,3532,17977,574,15417,14656,5464,13669,2013,1068,16720,17448,15559,8443,12166,8346,8277,12432,4913,9171,1467,19854,14439,18959,1209,12589,13254,11443,5109,10012,3625,7505,11642,2745,13514,9080,13549,804,12726,677,15889,14358,6832,13461,19629,5197,4951,459,10745,15179,8424,2273,8724,9100,4157,5365,3174,4101,15336,16839,17547,14379,11812,2405,2230,9228,8292,14794,13029,4947,5010,7571,5949,19531,19883]}