{"architecture":[["Dense",[4,10]],["Dense",[10,10]],["Dense",[10,10]],["Dense",[10,10]],["Dense",[10,10]],["Dense",[10,10]],["Dense",[10,60]]],"weights":[[[-1.8724841,1.5566232,-0.60121655,2.661024,-1.6699752,2.6465032,-0.88743776,-1.2833194,3.7146158,2.075538],[0.56523275,-1.1502963,-1.6645818,0.8470454,-0.0902837,1.0988557,-1.4978911,-0.052531753,1.6036825,1.2399902],[3.5163014,-0.06428535,1.2863721,-0.59130335,3.1174204,-0.86720693,2.7052996,3.9046924,7.100561,-0.6054341],[1.2709392,-0.48396274,0.932783,-0.23090743,1.1215531,0.8398008,-0.4230785,0.33473283,3.1789753,-0.41261598]],[[0.47029242,1.3264986,0.07640577,-0.7533457,-0.18962905,-0.36946508,1.3542404,-0.2361032,0.5363582,0.52237314],[-0.96152675,-0.38639522,0.29986554,-0.05350501,0.8189761,0.3643021,-0.2956626,-0.46539754,0.14324012,0.24903138],[-0.20971702,0.25132397,0.09220476,0.40188402,0.8736825,-0.152948,0.8998881,0.40726888,-0.9652048,0.41200402],[-0.3660294,-0.41762918,0.14499609,1.2014006,0.31672022,0.8587356,-0.94858253,0.66229516,0.41313213,-0.6640404],[0.17546931,0.8193705,-0.36596227,-0.29468125,0.44654384,-0.8759859,1.3134638,-0.20640722,0.5184246,0.33703107],[0.8521125,-0.7824824,0.8086509,0.9141168,0.38625777,0.8721417,-0.664611,0.09407374,-0.070866,-0.5898018],[-0.61352676,0.24922335,-0.35393047,-0.3277952,0.75086945,0.0120911915,0.8810853,-0.6787039,-0.660288,-0.010936854],[0.63778716,1.125057,-0.29089898,-0.74217856,-0.036432646,-0.03133293,0.9006673,-0.21090063,-0.04559716,-0.08554764],[0.5017509,0.7141602,0.075936906,0.4256066,1.2775978,0.56561583,1.0410929,0.43910152,0.8191795,0.040124223],[0.1446982,-0.35336524,0.042402577,0.9084365,-0.0781827,0.1663232,-0.7254786,0.48553556,0.15624154,0.35259223]],[[0.26697627,0.12734765,0.36489412,0.23655619,0.38115764,0.515576,0.82638544,0.45615527,-0.63201624,-0.16462532],[-0.050913904,-0.61836666,-0.082637385,-0.30640098,-0.6141658,-0.35580674,1.1131443,-0.121519186,-0.28133118,-0.22140191],[0.034847304,-0.09035661,0.6502215,-0.13895883,0.6086243,0.5668106,-0.47652584,0.11924317,-0.11869998,0.32906157],[-0.09188463,-0.011806169,0.30865067,0.24467663,0.84313774,0.7060645,-0.9593383,0.52152073,0.5016155,1.2257072],[-0.49056628,-0.5218218,-0.28815326,-0.644764,0.55081105,-0.18442139,0.120603845,-0.50173855,0.5802084,0.24129765],[0.07428931,-0.16090843,-0.3190268,0.18243179,0.42197043,0.4448119,-0.41002145,-0.36230004,0.3688596,0.9627814],[-0.7224498,0.024649715,-0.04729904,-0.8749727,-0.45756415,-0.39645296,0.9637938,0.10285328,-0.12745127,-0.8252455],[-0.33149204,-0.37752122,0.16152067,-0.3441104,0.728925,0.18707272,-0.25795165,0.5773241,0.07053633,0.68865675],[-0.50981015,-0.15393807,0.042837698,-0.3001479,0.10494189,0.48339862,0.40847763,-0.18208742,-0.6755336,0.42280832],[-0.28693703,-0.6588445,0.37051576,-0.010776343,0.17401798,-0.38532355,0.055712376,0.42713934,0.27630195,-0.33531705]],[[-0.21533446,-0.43554458,-0.5692133,0.026281994,-0.067474715,0.16654956,-0.08825255,0.30251244,0.6488053,-0.24727567],[0.19662806,0.12720618,-0.2810699,-0.24293861,-0.3946421,0.30148697,0.24532075,-0.119243026,0.16480352,0.1730354],[-0.014201665,0.31137526,-0.30829045,0.64927006,0.5364675,-0.707108,-0.54130745,0.39663365,-0.061579492,0.29600972],[0.31683123,-0.59807247,-0.31658167,-0.29953068,0.16906148,0.39877805,0.14727105,-0.5508901,0.34179732,0.48592016],[0.37335864,-0.04627063,0.2745309,0.0010134142,0.33689132,-0.74535424,0.81481683,0.1524403,0.13182497,0.037225187],[-0.028184338,-0.03408134,-0.24777952,0.44623137,-0.09028841,0.43231308,0.7989202,0.17545319,-0.16425785,0.16585119],[0.12819077,-0.29669154,0.11849563,-0.78500336,-0.17712009,0.8189005,-0.78731346,-2.570189,-0.32399914,0.1807969],[-0.41611966,0.17160884,-0.3043145,1.1326721,0.6881533,-0.5406125,-0.39343813,0.22545874,-0.6253602,-0.564227],[-0.44470742,-0.2639664,0.38464922,0.018139103,0.32001162,-0.8286073,0.06473329,0.48954555,0.028248258,-0.6336287],[-0.25345013,-0.16853297,0.52188236,0.27607298,-0.24731997,-0.5685174,1.0003911,0.6749197,0.6032309,0.24920434]],[[0.42455104,-0.20758232,0.23465452,0.58590776,0.4764542,-0.24369234,0.1034523,0.17920165,-0.22347423,0.07537839],[-0.5922559,0.08964648,0.19122003,-0.31800342,-0.11319762,0.08511023,-0.48309988,-0.39259523,0.21509118,0.49183542],[-0.38112447,0.23746355,-0.73984325,-0.30720252,-0.18054886,0.1966431,-0.26075628,0.48096243,-0.24003991,0.32629025],[-0.3045379,-0.50834197,0.36267477,0.7891197,-0.34133276,0.8157388,-0.07726144,-1.2463971,0.361087,-0.2258696],[-0.26495376,-0.5593161,0.7025016,0.3006949,0.37594023,0.29154477,0.7222008,-0.073926315,0.22329508,0.087569706],[0.5725554,0.08207587,0.504288,0.30770683,-0.12575112,0.5242791,-0.6643611,0.055019937,0.5977316,-0.49969158],[0.6333834,0.052389376,0.27191594,0.7623252,-0.21350266,-0.67841,-0.81287915,-0.1197485,0.22411829,0.64995885],[0.30692434,-0.03730572,-1.4047765,-0.17914514,0.36972594,-0.44871777,0.13788168,0.08114999,0.3654848,0.6160185],[0.25960255,0.03254935,-0.06326009,0.32197785,-0.17267488,0.0045343507,-0.49639812,-0.31745794,0.13787505,0.4192659],[-0.060462262,-0.1597647,-0.56116366,0.5638478,0.27633256,0.47690827,0.45155594,0.060936034,-0.45137587,0.0042210724]],[[-0.57785213,-0.039763056,-0.33220407,-0.20763433,0.030377707,-0.49775046,-0.27209565,-0.56477964,0.3369647,-0.3362943],[-0.46594003,0.02965611,0.4703291,-0.14709999,-0.117468655,-0.3034811,0.24527557,0.5742888,0.20605375,-0.29705286],[0.36177617,0.6767916,-0.5516744,0.9030851,0.3837673,-0.015046145,0.10579634,0.6379947,0.52835715,0.34905195],[0.40494815,0.20973775,-0.22418919,0.0646843,-0.4178051,-0.5975045,0.00054334477,-0.45397586,-0.4798135,-0.40368974],[0.31437016,-0.6280181,-0.6238901,0.39919043,0.5077932,0.72745794,0.46111968,0.24756965,-0.11855181,-0.2423678],[-0.30431473,0.012121221,0.5999705,-0.47002393,0.33955193,0.5755745,-0.02090799,-0.3244918,-0.3977297,0.17385854],[-0.27181256,0.018853433,0.176256,-0.48190057,-0.26968065,-0.54277277,-0.45501584,-0.59653187,-0.6852495,-0.13072884],[0.493964,-0.6874361,0.08560501,-0.10913219,-0.3389116,0.43384826,0.0014076016,0.44866598,0.3388683,-0.51040965],[0.27887398,-0.6490305,-0.1572042,0.4089742,-0.15152515,-0.58850384,-0.36120373,-0.15510964,-0.48679325,0.3473263],[-0.22423624,-0.36288524,-0.92182046,-0.07627294,0.45867336,-0.92204154,-0.028937012,0.2361306,0.025931375,0.26263878]],[[0.052754335,-0.068027034,-0.030936375,0.06939508,0.20267498,0.020732306,-0.055492062,0.05199842,0.18214686,0.3539593,0.37192175,0.42950106,0.1956061,0.35847348,0.088974185,0.100389674,0.27603263,0.2548948,0.2642322,0.18760672,-0.020632569,0.269309,0.30189702,0.21239544,0.008144426,0.2319304,0.15137935,0.26596025,0.32713938,-0.040710244,-0.32127386,-0.30712545,-0.45043445,-0.24731962,-0.14975029,-0.35634196,-0.21914023,-0.20034978,0.054823827,0.19345205,-0.020256186,0.057980318,0.121511936,-0.16692807,-0.28925878,-0.443897,-0.13827798,0.16850406,0.005412464,0.018720958,-0.18083341,0.06601543,0.01689778,-0.11030181,0.013364641,-0.08529344,-0.05899669,-0.16445892,0.09131796,-0.26504564],[0.014305416,0.23739795,0.073552206,0.16756126,0.18625517,0.2325635,0.15536796,0.23646425,-0.00025539665,0.055658933,0.24014665,0.1583293,0.30885422,0.30333665,0.005131636,0.042678207,0.34426758,-0.21098197,0.25198254,0.35556945,0.2109687,-0.035711996,0.16079982,0.1303096,0.036072336,0.3157266,0.40048325,0.3271766,-0.020026563,0.25236768,0.18812461,0.3390236,0.32126117,0.08162919,0.23324907,0.40075845,0.16025274,0.08184294,0.022208588,0.13967651,0.10948891,0.24227187,0.031454306,0.25995207,0.07102883,0.4231747,0.0693488,0.14067608,0.00021711669,-0.086315915,0.18858704,0.17292786,0.029978978,-0.10415514,-0.06406216,-0.03285692,0.03152952,0.060760655,0.15073276,0.15623134],[-0.20032561,-0.19816154,-0.20894544,-0.32847103,-0.24606341,-0.25280792,-0.1453516,-0.356994,-0.057882022,-0.0371095,-0.1966173,-0.15537566,-0.037773818,-0.34234676,-0.21762031,-0.24741666,-0.26612827,-0.021196447,-0.13478044,-0.24953277,-0.23934306,-0.018759854,-0.11404048,-0.290157,0.031775292,-0.30289388,-0.13134345,-0.3830834,-0.022202985,-0.29858464,-0.022471428,-0.13562518,0.004990167,0.17811045,0.5064486,0.10010783,-0.08958038,0.3684088,0.28877974,0.49330232,0.5297845,0.54667544,0.6238685,0.5289154,0.03889009,-0.10846646,0.59370226,0.08129473,0.58218074,0.5819325,0.05227277,0.4140128,0.5828114,0.5247232,0.06942019,0.49652988,0.5918693,0.38443875,0.55600053,0.3070233],[0.45133296,0.5526725,0.512994,0.38721064,0.26570824,0.42220515,0.5616748,0.3573251,-0.02791249,0.02637342,0.11322324,0.047232483,0.24806647,0.13887306,0.42861587,0.42905757,0.21424514,-0.0959091,0.2206669,0.24786273,0.4566171,-0.041081417,0.13994306,0.2281622,0.067566074,0.21747324,0.28595743,0.22471508,0.0930617,0.44352695,-0.048313547,-0.06584961,0.0583315,-0.06530349,0.09317961,0.010804285,-0.12883362,0.01912967,0.047440175,0.0053231493,0.08622819,0.060015697,0.028738108,0.09753938,-0.04633114,0.012970732,0.11906861,-0.048803244,0.055297542,0.020061817,-0.14033529,0.091522686,0.066012055,0.034165416,0.03075961,0.023616023,0.09378508,-0.0065288837,0.05176301,0.01578696],[0.18953842,0.028399324,0.025393153,0.23031446,0.1339787,0.16458887,0.043430697,0.15506738,0.12959823,0.14056483,0.110790126,0.10120395,-0.089329444,0.25275075,0.21311529,0.16299094,0.11188205,0.23682119,0.0315566,0.036497604,0.13232058,0.1374647,0.006042228,0.17461853,0.058005977,0.14106506,-0.08046748,0.31933573,0.064839326,0.1321015,0.5074779,0.55777854,0.45111376,0.48034355,0.2510163,0.45589927,0.6104947,0.406636,0.052738946,0.22565074,0.27523068,0.26524195,0.3336073,0.22257806,0.5551584,0.44912264,0.20730138,0.16703269,0.2956625,0.34110865,0.58859265,0.088750474,0.21119717,0.3400322,0.032992113,0.27071843,0.23232478,0.33164102,0.19950303,0.42704487],[0.3426982,0.38856012,0.37944925,0.37783843,0.20782594,0.36280048,0.337228,0.32444447,0.06377108,0.08412099,0.19772013,0.16867422,0.09106447,0.29944658,0.3731464,0.4331872,0.25712588,0.048587766,0.14684485,0.2231884,0.35101497,0.041589268,0.13052443,0.2393552,-0.014241544,0.25425413,0.14182211,0.33808666,0.06327403,0.3000277,0.57768315,0.70289546,0.5767099,0.37660939,-0.06865012,0.4734559,0.6679144,0.1688225,-0.14933279,-0.1944335,-0.13895188,-0.17001475,-0.23351268,-0.09102516,0.53649074,0.6598065,-0.17326052,-0.014010679,-0.18481387,-0.14851639,0.5097431,-0.19462352,-0.2181948,-0.043378048,-0.040286295,-0.07365777,-0.19479057,0.10099294,-0.21422371,0.25137138],[0.12805949,-0.08004153,-0.10655409,0.2113922,0.5197803,0.11439565,0.03790934,0.44727907,-0.10753434,-0.048594873,0.122414105,-0.0065691373,0.27114427,0.2065262,-0.0069969087,-0.2798914,0.23427404,-0.20579079,0.3397489,0.38192743,0.16431886,-0.037945528,0.17552713,0.4748366,0.10380801,0.38882902,0.385253,0.33625734,0.1527576,0.5536284,0.13704127,0.059465464,0.42512324,0.052997418,0.109193996,0.15436663,0.03238358,0.042386405,0.07847793,-0.11998543,0.04331123,-0.03850435,0.04866494,0.1215669,0.22041142,0.27573678,0.20121133,-0.122285806,0.088686,0.029313302,-0.037596837,0.075785585,0.059812296,0.11581137,0.07292499,0.024477921,0.12708028,-0.038193576,-0.027631082,0.12258324],[0.56069934,0.7440606,0.67149484,0.37588462,-0.012937602,0.5615533,0.7174013,0.16347557,-0.023512386,-0.0026611662,0.030790515,-0.008077262,0.073520936,0.03102138,0.5881067,0.6945049,0.028519895,-0.03395346,0.015675897,0.012463765,0.553572,-0.009016461,-0.012190763,0.017830094,-0.0012704812,0.02023143,0.059148934,0.118345045,-0.0330345,0.2645225,-0.41084847,-0.44827685,-0.43325794,-0.2250021,-0.0038005877,-0.22190803,-0.454177,-0.0889339,-0.0021458094,0.054157622,-0.028385896,0.05106369,0.01817496,0.02239798,-0.41812852,-0.45229948,-0.036170844,0.024040593,-0.02839966,-0.05028117,-0.27621654,0.02628939,-0.015911067,-0.080160476,-0.021315724,-0.07732748,-0.019178918,-0.07648716,0.04218122,-0.11793421],[-0.10171413,0.20467727,0.32667515,0.30492973,0.1778905,-0.007139529,-0.03294707,0.39007843,0.17771515,0.14267363,0.20486058,0.28691787,0.2210058,0.25127062,0.031950824,0.27295417,0.46017745,0.060176905,0.18265961,0.3474377,0.057189863,-0.12588242,0.29852873,0.10869022,-0.029782217,0.22022113,0.27876687,0.11306018,0.09944362,0.15832238,0.39419198,0.5551221,0.106658824,0.02021197,0.044737246,0.040123764,0.28554147,0.030935533,0.001327297,0.06601604,0.29656255,0.12750003,-0.17902608,-0.042007565,0.13963103,0.4310707,0.052759267,-0.06225022,0.028457727,0.01954974,-0.006388539,0.10109864,0.17126185,-0.07690119,-0.018732479,0.20452492,0.10863293,0.18237866,0.11328177,-0.12505448],[0.25536737,0.23018417,0.38923895,0.067893624,-0.06217494,0.14505284,0.24631803,0.024036193,-0.10409523,-0.043454994,0.008226145,0.11629491,-0.10175602,-0.022869477,0.28697512,0.40609258,-0.121639684,0.009266312,-0.10271983,-0.11658269,0.12586766,0.01155254,0.016938541,0.11774112,-0.23204644,-0.03894236,-0.17270571,-0.065842226,0.051634334,-0.049346797,0.31136364,0.2666116,0.17529167,0.32739383,-0.046895146,0.10311503,0.44927627,0.14855744,-0.026303375,-0.03974961,-0.0882094,-0.13557746,-0.0388528,-0.025803888,0.33796805,0.19087254,-0.020693948,-0.11714236,0.020820925,0.098440975,0.34893864,-0.15401758,0.02501436,0.21352075,-0.039726213,0.20564908,0.00297792,0.22973806,-0.043080397,0.14466546]]],"bias":[[0.6011029,0.030912038,0.21658467,0.40123785,0.49918604,0.39946818,0.35592762,0.3365369,-0.094190896,0.17823406],[-0.17243342,0.013566935,0.054384887,0.38201103,0.11795992,0.05444081,0.015138562,0.0904071,-0.16388768,0.12066982],[-0.07028263,-0.074627556,0.17363483,-0.103344396,0.16609551,0.0014393514,-0.22444455,0.50673264,0.1242481,0.09655927],[-0.25503474,-0.042528603,0.08329329,0.12525216,0.034992576,-0.4285357,-0.13022314,0.11130866,-0.17907532,-0.12609449],[-0.13735926,-0.1742704,0.30856144,-0.17306261,0.12715915,0.18003424,0.12153511,0.04375617,-0.20523022,0.37733614],[-0.057570815,-0.11246612,-0.1484234,0.026410427,0.18771939,0.09720299,0.0025675166,0.33798045,-0.17133506,-0.19697],[-0.25629637,-0.1402972,-0.12473081,-0.1959693,0.08466803,-0.15884554,-0.17256773,-0.035028376,0.7228055,0.45390806,0.2337867,0.30993545,0.4455126,-0.00013122306,-0.276051,-0.2544648,0.15424202,0.66300696,0.26969707,0.24605478,-0.13505138,0.62818825,0.39311355,0.03375198,0.8353123,0.1058236,0.38539195,-0.16196613,0.4165693,-0.067168854,0.08040971,0.035126545,0.09705084,0.09664277,0.14961436,0.10836159,-0.016258849,0.08019116,0.3203977,0.06377672,0.054533653,0.043888874,-0.0359185,0.18318737,0.010444528,0.14443032,0.16669871,0.26554814,0.044451237,0.03799739,0.016034149,0.21078388,0.10920353,0.0851837,0.42920783,0.15382618,0.10817158,0.16274647,0.09519753,0.09336871]],"Losses":[1.0919548049099985,0.9910387656165855,0.9085743856840196,0.8371957562869771,0.7697801566021159,0.7013660959758489,0.6300024473795853,0.5570035474400361,0.4879530905883791,0.43304667824438176,0.39866311506622437,0.3732546791804155,0.3460212415590842,0.31757840847518864,0.2933534846896982,0.2778820827289547,0.2715810773871902,0.27168548109488544,0.27465757636959964,0.27762422735072245,0.2789606883213849,0.2782023224471224,0.2756781857366766,0.27215216957827815,0.2684882805721573,0.2652980452885033,0.26268770311921175,0.2603195042963115,0.2577823164093042,0.25496311575056746,0.2521295238212844,0.2497218563707902,0.24806755721373994,0.24722263550978069,0.24699544220239905,0.2470740624805587,0.24715599639780345,0.2470363343093047,0.24665218959404336,0.2460783931000701,0.24546969077454112,0.24497042532299498,0.24463769900004834,0.2444219237267391,0.2442143850997451,0.2439266815293091,0.24354729519171467,0.24314165930635,0.24280356496799357,0.24259457140101698,0.2425100520571352,0.242489962583734,0.24246177071683025,0.24238251878827935,0.24225273510651113,0.24210087725617935,0.24195787170655855,0.2418407821398842,0.2417504469313917,0.24167742940150763,0.2416098342367847,0.24153983961855563,0.2414673481747196,0.24139926558163885,0.24134426035205406,0.24130577742115428,0.2412781876224232,0.24124950780754728,0.241209315087486,0.24115590051427405,0.24109686915363085,0.24104276125474255,0.24099911713613803,0.24096336145917732,0.24092817449084222,0.24088746582454096,0.24083986879045854,0.24078800787789853,0.24073560293863253,0.24068519061273544,0.24063731977487313,0.24059061582179678,0.2405423879153906,0.24049004460728604,0.2404327777909576,0.24037201338572384,0.24030985473902003,0.24024685572031354,0.24018128458745958,0.24011051571833641,0.24003294696935804,0.23994859223027054,0.23985817218229058,0.2397620100334693,0.23965971567524577,0.23955040523182194,0.23943291434206912,0.23930596744993432,0.2391684849258403,0.2390196827361994,0.23885858665515927,0.2386834274519819,0.2384917472119091,0.2382811245044628,0.23804950969136576,0.23779477510482883,0.23751424991049902,0.23720478610925894,0.2368628342600151,0.2364843070704409,0.23606479125606117,0.23560006702936326,0.23508606456292702,0.23451877762810217,0.23389524571752396,0.23321472935157617,0.2324795722948798,0.23169702300433923,0.23088116184563284,0.23005526404817045,0.22925466656509266,0.22852564105923726,0.22792153606598162,0.227491722703383,0.227262475145843,0.22721144220208983,0.22725465904428388,0.22726482212486732,0.22712407655044056,0.22677833929510996,0.2262550883820713,0.22563855466696164,0.2250258327835724,0.2244930386712889,0.22407632030454394,0.2237714218370085,0.22354593215953783,0.22335050174636992,0.2231326848064565,0.22285098738254955,0.22248257471148478,0.22203004464889928,0.221520042092091,0.22099587812818594,0.2205005673247817,0.22005679105235,0.21965561953969273,0.21925829956413811,0.21882102116177585,0.2183289405741026,0.21781390766114933,0.21733927856299284,0.21695170211203504,0.2166299856402496,0.21628958208653964,0.21586762976749738,0.21539992049154874,0.21496807704944454,0.21457796602992765,0.21415291495599448,0.21364845157490475,0.21309503552841327,0.21250872759362707,0.21185855964875713,0.2111700166488868,0.21047493464735034,0.20969858255277815,0.20887261103190993,0.20809434494061796,0.20725351903539715,0.2063419961065716,0.2054424421959728,0.20447489073386396,0.20356063931582172,0.20267044585712904,0.20222945654872693,0.20486052274078262,0.21070241987688637,0.20091154582822454,0.20906138789584958,0.19926247774293884,0.20524091676723416,0.19773711222445178,0.2025564064379595,0.19677497427519527,0.20006951051083052,0.1952734716302935,0.1981874927549186,0.1944090567842412,0.19535241004334328,0.19407253952806555,0.19288514449821303,0.19310713899123103,0.19094578952979924,0.19194679385073846,0.18949469997975268,0.19033270092909252,0.1885978158961054,0.18858978036724144,0.18767619970697122,0.18710918786055142,0.18662193108328337,0.18567000374071127,0.18557667119576185,0.1842970102578973,0.18430205429870283,0.18309457853887373,0.18288613141701127,0.18184572681218683,0.18151353087686264,0.18052879176709496,0.18010328000476367,0.17921552187043244,0.17865896465073805,0.17786087266998932,0.1772170810926661,0.17645000839859412,0.17578782650694533,0.17500202469477355,0.17434514124646275,0.1735549682888492,0.1728836285248224,0.17209103681335222,0.17142405601050506,0.17061892775436077,0.16995998721315,0.1691422130121434,0.16848235095140943,0.16767647622475626,0.16698201762118042,0.16622793473357553,0.16548151420140403,0.16478797097683975,0.16401816884261508,0.16334165966465486,0.16262311948798147,0.16191118934813592,0.16126314339154602,0.16057110739389502,0.15991071852417968,0.15929933779306027,0.1586663000196093,0.15804684711774142,0.15748423691344493,0.1569312791305904,0.15637683147057344,0.155842670547937,0.15535351441456544,0.1548940787409862,0.15445205614406338,0.15402750710527816,0.1536218782125089,0.1532441279304877,0.15290825130606958,0.15264128096674306,0.15255487403957207,0.15292913470572006,0.1546470368142474,0.15730451835212167,0.15888067384978222,0.15250649225606247,0.15156902297871433,0.15589334764477264,0.1534057632184375,0.15045007595889137,0.15248031379860313,0.15224624047784965,0.14976715904942592,0.15100699098381945,0.15107058037342325,0.14957239452351828,0.14985463018579967,0.15025917756759788,0.1497158170870753,0.1489056378952477,0.14998399967651124,0.14973103461574014,0.14857080653101007,0.14957809265881108,0.14955060050478028,0.148660291867762,0.14865349863957367,0.14915925322424695,0.14854002532447644,0.14788442996407056,0.14863772777071713,0.1481822024652383,0.14760485382168698,0.14790430895199014,0.14788040338009056,0.1476444712116206,0.1472535882669248,0.1475391597125588,0.1476037996683102,0.1470219499635116,0.14710074089588882,0.1471958501947204,0.14707709035890126,0.1468276228881766,0.14658459617400327,0.146809861535749,0.14676556670549207,0.14644831344849327,0.1463522698791561,0.14623200302547493,0.14627460768506811,0.14634054922912845,0.14605212643458462,0.14588568849922193,0.14579728996147406,0.14567127538467356,0.14568042319943333,0.14570538403450173,0.1456422822696191,0.14558979458359525,0.14561384094094307,0.14551156795133857,0.14553826789790014,0.1456521289993365,0.1459692695441418,0.14634957920930527,0.1473245980200438,0.14747260764024167,0.14759680226020175,0.14618945633621716,0.14496353626336086,0.14425022045615946,0.14440264697166846,0.14507580196570416,0.14559741961409234,0.14593551304689745,0.14518327221292762,0.14435511611124013,0.14374530753228087,0.14361429317123478,0.14384074102650093,0.14424689002882915,0.14480938303843988,0.14498500604452674,0.14506738845435652,0.14445578514844518,0.14386906282534728,0.14322035280449238,0.1428621322947948,0.14276928118250581,0.1428606879462003,0.14312583169059337,0.14351451886421895,0.14421126445997956,0.14475009402500802,0.14549954719842212,0.14486084711881275,0.14397105103631924,0.1426441401520168,0.14202314785067457,0.14215130157388403,0.14272299095735994,0.1434112717148465,0.14339331596571087,0.14302338316630347,0.14220186646433822,0.14164233358571074,0.14149019863093576,0.14168039235368157,0.14204051768802095,0.1422837156032888,0.14244238228451164,0.14216321724769204,0.14181874828505842,0.14137488658799274,0.14106539367458568,0.14089011160431242,0.14084523174789054,0.14090086567671517,0.14102767378408199,0.14125618547635507,0.1415252583327543,0.14200515336514175,0.1423131608509199,0.14277474776317367,0.14242226397023383,0.14195187299503628,0.14100035247655715,0.14033744841058512,0.14008234784504764,0.1402229282521705,0.14058857529268454,0.14086103257177174,0.1409931152855642,0.1406769196618048,0.1402818166623468,0.13985353141038318,0.1396066881114053,0.13955461122419646,0.1396436685614756,0.13980522276421772,0.1399262573120489,0.14003381951574911,0.13997068077084981,0.1398838944386534,0.1396551653482291,0.13944356071756717,0.13920734611740226,0.13902111624696387,0.13887291292652687,0.13876590368136962,0.1386880259621773,0.13863117521318696,0.13859249652300973,0.13857574369164974,0.1386013310518719,0.13869451615349693,0.13896307467517077,0.13945350998805303,0.14055830559983717,0.14163444209409462,0.14307583350092426,0.14156374085119952,0.1396586284948524,0.138102243198441,0.13821197874116894,0.13921429877735744,0.13937279041546924,0.13883297130713798,0.1381019748911612,0.1381008055273807,0.13826718882973088,0.13790852268312337,0.137630606795336,0.13774974460470674,0.13794010511225596,0.1376203261765368,0.13707454214096457,0.1369992155627311,0.1373090828529005,0.13737770545114278,0.13699895483344354,0.13664345428984423,0.13664108344064715,0.13679531255884364,0.13673776503464563,0.1364899603825684,0.13629515264081532,0.13628268673138955,0.13634340657521574,0.13628282868773087,0.13611374808573629,0.13591237704334685,0.13580301526105326,0.13579096853104666,0.13580683775297528,0.13579738814094405,0.13571246693563624,0.13560849887020623,0.13550374420256142,0.13544358673341167,0.13542525638704,0.1354687708480939,0.13553505365330193,0.135695821042455,0.13584249766853487,0.13620708647164084,0.13649801822615448,0.13714377213572052,0.1373308956354343,0.13766267367079243,0.1367562808554588,0.13579489991693075,0.13472026345337312,0.13436114540437194,0.1346912296037167,0.1352206420221455,0.1355146033187457,0.135006211595507,0.1343433704674181,0.1339170885662993,0.1339587623891976,0.13424218619679812,0.13431018763284042,0.1341174810435533,0.13372151016528172,0.13347740039916695,0.13347930138731748,0.13361887053091087,0.13375569274165064,0.13367644278446494,0.1335526070535845,0.13340046740945322,0.13339067240795974,0.13355463439890325,0.1337243890546361,0.13395261801600186,0.1338359459050686,0.13365225244897833,0.1331660688906408,0.13274195259859406,0.13240541327054653,0.13224161270038348,0.13222983798268956,0.13231157151115022,0.1324461254310483,0.1325283967456476,0.13261821440640664,0.13255088714409133,0.1324985882943969,0.13232499549482693,0.13225335133664534,0.13221114169891252,0.13246514696063655,0.13277779401919382,0.13370362666865188,0.1336563974281523,0.13375303365163044,0.13221076567015935,0.13115459176192115,0.13076751800053343,0.13107713187677,0.13179319146422305,0.1319005010174786,0.13166181518526882,0.1308271158941883,0.13032918030355065,0.13026353342862562,0.13050127090682645,0.13083419579009084,0.1307765544069517,0.13057195531923252,0.13009468282496867,0.12978823737513528,0.1297248328263565,0.12986382367753319,0.13019232857801596,0.13052431641282725,0.13124261377562277,0.1317769814973896,0.13299031849529055,0.1337454591340353,0.1349415635950803,0.13223513625744407,0.13002031812599193,0.12924856820829198,0.12998675846651972,0.13156067926363604,0.13141156326035597,0.12982023684489777,0.128485921140671,0.12888678790172914,0.12981463252511602,0.1298431795269951,0.12937882077743398,0.12857594596755165,0.12870689074185568,0.12906199363881446,0.12877057665922692,0.12797264509934406,0.12781675453012842,0.128234720919988,0.12851648145517758,0.1287567844694833,0.12824819783919095,0.12795357801218182,0.12798885975587268,0.12826633550431832,0.12808834727483887,0.12774525280777577,0.12747719560068524,0.12752139438120186,0.1276219676088785,0.12805977462896898,0.12785842748824264,0.12789770647669246,0.12743342623298454,0.12742589169863514,0.12735323956079087,0.12751386242669177,0.12751377661562432,0.12757840407022902,0.1272835578459499,0.1270262853613304,0.12667228226542274,0.1264955880098451,0.1262833711620481,0.12628349689864088,0.12630067652475585,0.12658095448766407,0.12666549944600153,0.12724905449015608,0.12702668238721637,0.1269959759309144,0.12626966291102942,0.12575768334225632,0.12523087132975586,0.12498903027955571,0.12508772255775688,0.1254548022420415,0.1264750827629998,0.12807812100698812,0.13171178308647824,0.133222972690032,0.13452473713539584,0.12813923912756758,0.1249211196600007,0.12671499030882716,0.12953479922505737,0.12975553548608357,0.125103921687236,0.12446204653179478,0.1275089420805049,0.12757363393172697,0.1253956143324801,0.12424611709561334,0.12583552346819138,0.12636690659103095,0.12435087671086704,0.1237639597464604,0.1250946642071627,0.1253708041312925,0.12395659888519009,0.12352924433528369,0.12419807825151756,0.12439284318777916,0.12339512428985867,0.1229863041768034,0.12344583891394689,0.123640609890369,0.12325138829194929,0.12275268357568682,0.12289161555378143,0.12340273898214404,0.12405340007876593,0.12489484544128507,0.12789758880860722,0.12966511530075145,0.13128655851462823,0.12469478191512663,0.12218419366101563,0.12445357579168827,0.12692416775892862,0.1267300696618883,0.12255590827503067,0.12272782183017393,0.12590331587986137,0.12433913731412873,0.12197115580819957,0.12239348630176197,0.12345113379049093,0.12274628419935488,0.12153395065195097,0.12191771565721193,0.1226076117035003,0.12189520673665828,0.12129412036507674,0.12156611140731272,0.12179388342622094,0.1215130237095989,0.1210549498403834,0.12086215843299812,0.12111336610561023,0.12124742373510529,0.1210153746376213,0.12051498130494737,0.12049769584836706,0.12118068269227497,0.12304660674083645,0.12493099238155388,0.1298117921010559,0.13021719361038947,0.12850348197336894,0.12147833694552136,0.12425220922346766,0.12703386197957348,0.12345618391221595,0.12312672929532816,0.12185964530237187,0.12362410361468434,0.12385295930411143,0.11947071877898072,0.12348005649422593,0.12443480342174361,0.11992383768030614,0.12376531007200223,0.12223869158622432,0.12193994952725992,0.12261585574501667,0.1195327710132933,0.12276469811743711,0.12002664029570184,0.11922019276518611,0.12105749585995979,0.11931273363933448,0.12020346199083913,0.11918362277063586,0.11945063634282761,0.12014342778704368,0.11827306818608482,0.11878842150402424,0.11841411959089553,0.1183571722357543,0.11850798508714354,0.11758574777007721,0.11827948400871834,0.11871998557390544,0.11978298627968377,0.12238735710431645,0.12747330336075333,0.12819084933662928,0.12035206349201562,0.11766956363374514,0.12029902161131868,0.12379151773116066,0.1214080206584789,0.11864372391285642,0.1185126407730704,0.11987954245707462,0.11982564226101348,0.11817730089732457,0.11764404861034315,0.11914480380228026,0.11940478477388519,0.11697537308622497,0.11614451172465663,0.11759865902164321,0.11864272450734485,0.11698473621762065,0.11577494735983795,0.11630357035171666,0.1167626260952407,0.11676788172691699,0.11603070810840023,0.11542866623019439,0.11576231179559081,0.11612331470574126,0.11635844341334449,0.11585848490153204,0.11516480954620396,0.11499761820308148,0.11495515181099956,0.11512150268038449,0.11545454895033727,0.11573861665647318,0.11621128961966255,0.116792274959485,0.11757770726176786,0.11783510841384028,0.11794255446443863,0.11633625418246936,0.11551345873287018,0.11473521416594355,0.11499246783350107,0.11574327234966475,0.11687469127123472,0.117540570414139,0.11576035491726021,0.11462835913631633,0.11432109331684576,0.11522930040151386,0.11562012984366253,0.11565298261678222,0.11459982681156217,0.11341400418075978,0.11317268113625323,0.11353217995378408,0.11459478556295538,0.1141885845151187,0.11377151500813147,0.11255412386698015,0.11172920115731431,0.11149350584581487,0.11180338514748896,0.11247249019180244,0.11308409721742767,0.114383500927754,0.11547779398331515,0.119939397254061,0.12230719465122546,0.12209148793695654,0.11366756915236988,0.11322598173456884,0.12051462538685455,0.11962443620746513,0.11300537657577707,0.1132028859610324,0.11712188186254206,0.11597459125019974,0.11107072709964157,0.11239328826657563,0.11582290002792989,0.11223744224901579,0.11091529535152313,0.11317926737285333,0.11248665418588454,0.11058913625036801,0.11117716326160108,0.112030345169811,0.11072636769563085,0.11002049565914884,0.11087555956547417,0.11120019621964954,0.11021292461176099,0.10953835880230181,0.10998646018988309,0.11057253612464824,0.11041432619107136,0.10951560857339548,0.10908393147699509,0.1094132977941383,0.10984878811612352,0.11000235272361723,0.10960048395419597,0.10900089150973832,0.10870707220232875,0.10876445258642842,0.10903405292595068,0.10927021866506538,0.10930716413367689,0.1091625715341663,0.10886072734469938,0.10857912058117711,0.10834473033787993,0.10817825147362788,0.10818253704261965,0.10839891496919349,0.10932267107634064,0.11142335552925585,0.11697634275648398,0.11836895467463118,0.11854206956444298,0.11041080962366105,0.10795268439339922,0.11094059418954469,0.1136106087573548,0.11342664024822227,0.10899936212768639,0.10823542422113235,0.11112930308965666,0.11117425947626702,0.10914785063201952,0.10776770858525933,0.10908025595659522,0.11067485126333255,0.1085337022808667,0.10711875870133186,0.10794570877745856,0.10889926377737608,0.10853989973255934,0.10712786056368351,0.10703565102960073,0.1080046511429209,0.10798237276460683,0.1072078644850461,0.10657862592219271,0.10682280131108779,0.10732055683508133,0.10708910403979603,0.1065543063664855,0.10624239115625198,0.10641299323064769,0.10671644253142312,0.10664856987525774,0.10639966540210914,0.1062203592437853,0.10648827686675322,0.10746463956616387,0.10923346950137074,0.11284117174590075,0.11455871837507285,0.11396874465293545,0.10882716666486404,0.10627179353804483,0.10784458357188326,0.1108135142043364,0.11239002865044001,0.1087423626241648,0.10611311131256511,0.10836805376963375,0.11104997334887007,0.10995058356785095,0.10653856368473422,0.10661442382312825,0.1093458395654877,0.10826085251226931,0.1058954766454041,0.10580030011369246,0.10709882952785517,0.10718801290079329,0.10569204831684068,0.10556634692307582,0.1061314868856604,0.10597860607551966,0.10575084382305511,0.10557971375834743,0.10568962208907169,0.10537627043251538,0.10500885772200981,0.1053232512084795,0.1055169405327429,0.10533764318963036,0.10484004275266118,0.10463460192754039,0.10483774400795975,0.10493945379937424,0.10482223307300317,0.10462431245899223,0.10465885173296391,0.10474444619425159,0.10472276660240991,0.10449794492794973,0.10423038160124655,0.10420344288064182,0.10424769327581526,0.10424933737567776,0.10418274690769001,0.10405944896586104,0.10405484750850967,0.10415289494034492,0.10429422452210059,0.10457483662617885,0.10490502741337676,0.10581139967165859,0.10672908211071658,0.10857542647772343,0.10823107970620956,0.1075409197658878,0.10517504532551378,0.10388594986800738,0.1037244606813362,0.10437159488216845,0.10552260690875839,0.10599493081902112,0.10643957455303939,0.10547730727457458,0.10460804466103452,0.10373966967764839,0.10352759049346931,0.10384997560638769,0.1042041800937947,0.10464493665909082,0.10453902632397054,0.1045855570846386,0.10458394889182003,0.10439343709096476,0.104141418924439,0.10366624852338595,0.1032923043829396,0.10304126784204522,0.1029139947630777,0.10285749926292538,0.10283808624165892,0.10287710984288391,0.10300631650692055,0.10326340107088801,0.10367793121508785,0.10422102422092981,0.10500315474773052,0.10576824967846954,0.10656575964491379,0.10635134348749664,0.10564371008317527,0.10404894485325308,0.10299368536853709,0.10246973514834658,0.10255873404667568,0.10307018326073013,0.10390416000009381,0.10487875648777341,0.1054697954793558,0.10577327275154226,0.1044467751370458,0.10321671586171609,0.10226226385595551,0.1020366742230215,0.10240476298830443,0.10313250299147834,0.10425804261805559,0.10497089015017651,0.10556736417796578,0.10470914015516226,0.10344302691815332,0.10232249436101423,0.10188092019284184,0.10214344612189642,0.10272318174908182,0.10356556048647965,0.10354108922351532,0.10357405518705147,0.10272078140121314,0.10212598556344604,0.10171267260814214,0.10170981084579554,0.10210816653729292,0.10273569187010173,0.1037374757468855,0.10390411528836131,0.1039526512894775,0.10294216189692132,0.1023187920709573,0.10244359791138445,0.1032433892774403,0.10482241039465968],"R2":0.7122982279765188}