{"architecture":[["Dense",[4,20]],["Dense",[20,20]],["Dense",[20,60]]],"Node_Indices":[84,104,102,107,22,15,74,24,29,124,40,65,111,127,9,77,133,68,47,45,59,50,82,38,13,32,23,117,89,119],"weights":[[[0.33541775,-0.5958185,1.0776389,-4.37969,-1.4976588,2.572101,-1.1936328,0.7235394,-0.3772762,0.0363612,0.12786706,0.95630497,-0.54367,1.270427,1.7833365,5.207964,-0.9968257,-0.26575243,-1.2075443,0.8774484],[-0.16933179,0.2704738,-0.043879837,-0.8162866,-0.6155974,-0.2073596,-1.2644362,0.97483635,-0.6695794,-2.621414,-0.20560013,-0.04264362,-0.44667554,-0.50501823,0.12529024,0.49398392,-0.6324227,-0.86984956,-0.43042782,1.7743043],[2.3897445,-0.6137895,-0.70511085,-0.33536896,-1.5248802,-3.7163913,-1.3208585,-2.444669,-0.8648391,4.7955704,-0.48804867,-4.3978696,3.6066225,-1.9338435,1.0780298,-6.822371,-1.9642398,0.18603566,3.3836453,-0.77174497],[-2.3116539,0.4879949,0.61552507,3.8678677,-1.2995708,0.66633004,-1.9123292,0.8387935,0.50366795,0.13370538,0.76226217,-0.35555792,-1.7839508,0.72955024,-2.5020921,1.5576894,-0.27191886,0.3354793,-1.7341875,2.7466118]],[[-0.302947,-0.29408538,0.1505204,-0.34747446,0.1909655,-0.36693048,0.30293858,-0.514323,0.9695836,-0.49298474,0.28528956,-0.078193024,-0.17272286,0.07461537,-0.13585418,0.265479,-0.4157593,-0.16514437,-0.2584281,-0.25270337],[-0.034258336,0.63518,0.075719446,0.29885504,-0.0734989,-0.11357856,0.29712847,-0.04577681,-0.23634674,0.29402113,-0.31863305,0.3544503,-0.320091,0.23255515,0.38862938,0.75657797,0.23126502,0.068163656,0.29362693,-0.137206],[0.25706112,-0.11399712,0.01178664,-0.23397,0.066153534,0.43013215,-0.23794855,-0.2419058,0.35298207,-0.28477043,0.21021889,0.11672537,0.30641037,0.020541934,-0.04895087,-0.076340236,0.18716186,0.18132818,0.22415687,0.012640194],[0.26181725,-0.5162268,0.010604346,-0.26760152,0.060306914,-0.32115272,1.349482,-0.26158148,-1.909417,-0.024351327,-0.32614082,0.72543913,0.007963111,-0.09706484,-0.05310057,0.3975022,-0.23157014,-0.22288519,-0.3332076,-0.4607686],[0.14779073,0.6735011,-0.14576156,-0.12448183,-0.019628938,0.23794048,-0.18693896,-0.10999436,-0.83417505,-0.1325218,-0.5721135,-0.54872215,-0.293016,-0.06271153,0.4788996,0.27371934,-0.24769992,-0.2526376,0.015587842,0.3773729],[-0.09733742,-0.270348,-0.31625,-0.35088438,-0.20993868,0.20293835,-0.5673269,-0.02751026,-0.61959356,-0.32264572,0.7180949,0.34658036,0.15128988,0.030259278,-0.35599375,-0.37810996,-0.4124476,0.11082058,-0.3260131,-0.56049556],[-0.38587052,0.67536324,-0.19859499,-0.43446317,-0.53804344,-0.031092454,-0.3665865,0.20286909,-1.2049937,0.24174994,-0.51068985,-0.13706462,-0.123773396,0.017816484,0.4002828,0.31626523,0.5175601,-0.26116276,0.33772132,-0.28400666],[-0.023388425,0.5409377,-0.44959125,-0.34418643,-0.11148129,-0.3043497,-0.35904285,-0.15573055,0.14756954,0.05642961,0.049325485,-0.35659584,0.0075340364,0.07186831,-0.08882854,-0.4275109,0.06896998,-0.33412883,-0.27648896,-0.10109232],[0.27126896,0.23454861,0.18341658,0.18722376,0.286385,-0.3487835,0.45757285,-0.41522947,-0.4553937,0.033095095,-0.2826227,-0.34398332,-0.033578042,0.16744679,0.75535285,0.64923865,0.4700716,-0.23507564,-0.037144236,-0.08802049],[-0.319922,0.40189582,-0.19659838,-0.531194,-0.17158006,0.3900978,-0.3355642,0.03699899,-0.8325032,-0.10821329,-0.32241657,0.0073785484,-0.29935,-0.5458649,-0.4562198,-0.34133756,-0.03197318,0.030220611,0.24320309,0.5434549],[0.21726291,-0.053077787,0.19142395,0.031956278,-0.40429428,0.25746286,0.18200666,0.20580421,-0.17285891,0.028235637,0.11981039,0.2749348,0.08755948,0.17218679,0.69666684,0.36935568,0.08261397,0.24955353,-0.14767146,0.24900313],[0.21481831,0.33574706,-0.031270478,-0.22693796,-0.26351973,-0.09737121,-0.51202554,-0.5889035,-0.29005626,0.13920599,0.45919296,-0.40013963,0.16332848,-0.15700227,-0.4234408,-0.10398392,-0.26761124,0.22668082,0.03828718,-0.40946448],[-0.18077949,-0.045000397,-0.4291026,0.07310403,-0.14201415,-0.21666536,0.19289887,-0.37704086,0.7566952,-0.1868555,0.096359484,0.18801293,-0.3269866,-0.06872882,-0.5946684,-0.82659495,-0.18333648,-0.02416719,-0.40816876,0.11614738],[0.1809176,-0.30663908,-0.08823448,-0.015760412,-0.28775507,-0.06425027,-0.23061742,-0.57677263,-0.45125538,-0.41511762,0.31463337,-0.31467214,-0.31983274,-0.12566228,0.32657382,-0.3949171,0.40019855,0.22500913,-0.1314555,-0.47996995],[0.011185592,-0.48981932,0.015378464,0.2240184,-0.09756317,-0.46048474,0.081570305,0.0035660139,1.4736869,-0.082850546,0.38147616,0.49251962,0.18080935,-0.2305588,-0.3180458,0.13507211,0.07055393,0.014743449,-0.091387905,-0.4002468],[-0.77225775,-0.7854432,-0.045122888,-0.44605386,0.3637821,-0.9417232,-1.3048811,-0.117204025,-1.8530554,-0.30848464,0.56759715,0.2604087,0.05841788,-0.42279574,-1.2326088,-1.561904,-1.1746589,-0.16879982,-0.7217457,-0.19631645],[-0.004206616,0.6144272,-0.3394839,0.10877811,-0.072999835,0.3185117,0.19679567,0.15511176,-0.53969,0.07066967,-0.34778774,0.13439034,-0.04458354,-0.3874891,0.7853857,0.38651472,0.5659834,0.13729349,0.3100822,-0.18293951],[-0.33991617,-0.10170597,0.21579748,-0.37700397,0.28992346,0.14115523,0.26515126,0.1071115,-0.3961946,-0.1725123,-0.11662419,-0.32919595,0.27150404,0.1467489,-0.032515835,0.4108027,-0.020061448,0.057663325,-0.30702683,-0.29140013],[-0.08249773,0.2298515,-0.26346153,-0.10640285,-0.27564496,-0.3698594,-0.05821495,-0.0063198213,0.21421234,0.054822333,-0.20872739,-0.011447604,-0.11810052,-0.29204598,-0.49793318,-0.7160647,-0.6134088,-0.2103195,-0.20221245,-0.05306295],[-0.32683542,0.84312695,-0.2576016,-0.12517385,-0.2600086,0.3552778,-0.093364626,-0.09613314,-0.020591453,-0.23832682,-0.2983464,-0.46291795,-0.27604577,-0.1264548,0.042487174,-0.04127279,0.5147933,0.11569988,0.59122056,0.38644478]],[[0.2605276,0.23231322,0.3528844,0.12541212,-0.118864715,0.2594208,-0.09146739,-0.19581392,0.15669478,0.016411526,0.16797072,0.16701807,0.14769618,0.03182233,-0.065681316,-0.025131933,0.11858168,0.11509045,0.03687537,0.35067257,0.061160002,0.20993155,0.12646581,0.17230411,0.3507636,-0.03613863,-0.12545857,-0.072399795,0.07862794,0.1688972,0.28851372,-0.03042677,-0.1614834,-0.18885046,0.18066597,0.118599996,0.11530502,0.14780596,0.18037096,0.30047584,0.12488945,-0.17100105,0.13703138,0.14361215,-0.2254164,-0.13496783,0.19479519,-0.0048973504,-0.085079454,0.1482887,0.028183162,0.26874807,-0.054763325,0.1404056,0.12573786,0.06338822,0.29561114,0.32052562,-0.008977998,0.11302207],[0.010151268,0.060365308,0.081213884,0.202426,-0.14738642,0.09995017,0.33944687,0.22388403,0.06120135,0.19015414,0.03950831,0.28625712,0.24983884,0.13629657,0.11706628,0.14537093,0.11254017,0.10572195,0.22345753,0.18494523,0.12231335,0.13917565,0.16575232,0.09444157,0.08226528,0.16015865,-0.1855809,0.17846127,0.21489233,0.092364974,-0.29465955,-0.41460687,-0.20312524,0.1079819,-0.63691103,-0.46252292,0.053531736,-0.65787554,-0.25992236,-0.28068393,-0.6304484,0.16552642,0.2265193,-0.30415234,0.23717208,-0.13782951,-0.32278928,0.029935753,0.20016281,0.14814202,0.08022991,0.07448639,-0.12070158,-0.49543005,-0.3723071,-0.17720193,-0.85004044,0.015820617,-0.28095078,-0.09215509],[-0.09922026,0.05819275,0.10279005,0.20526323,0.028179066,-0.13067375,0.17302923,0.10999115,0.15224361,0.0021824942,-0.08071046,0.2257223,-0.07271888,-0.07394636,0.04861098,-0.18198705,0.08112399,0.12390553,0.28593063,-0.0796761,-0.15783134,0.050122302,0.11735626,-0.22471347,0.17676517,-0.21292956,0.3192524,0.061992396,0.09256585,-0.18494554,0.30517018,0.3117038,0.37170404,0.12383631,0.040481184,-0.027794141,0.26124397,0.31644237,-0.033995975,0.096455246,0.427907,-0.07413369,0.08382148,-0.06300372,0.20155856,-0.018462442,0.30260965,0.23046985,0.19040655,0.009293023,0.15516663,-0.13052288,0.18618645,0.21630453,-0.08904909,0.12850668,0.36498445,0.22326685,-0.03795651,0.3212657],[0.17022124,0.091957636,0.00041060036,-0.15316443,0.03960063,0.35094425,0.0027502605,0.054855056,0.3215047,0.016288,-0.005487488,-0.2196131,-0.180398,0.25169083,-0.07903593,0.15010658,-0.0084183365,-0.10552392,-0.07988917,0.19465865,0.12623902,0.033865016,-0.102440804,0.22494039,-0.119724974,0.14095703,0.029498486,-0.13086243,0.07562373,-0.02011533,0.15823376,0.33865532,0.061949097,-0.04080805,0.38031116,0.3234632,0.0022878973,-0.05506998,0.3715434,0.36515796,0.023627197,0.13911828,0.129194,0.32329324,0.030161334,-0.04284446,0.19117679,0.3263475,0.07697039,-0.079269685,-0.12661153,-0.01751072,0.1950219,0.42857978,0.06117474,0.12358029,0.38068518,-0.057319395,0.4970354,0.16624548],[0.12053823,-0.18362801,-0.17203537,0.04579247,0.02646895,-0.18078956,0.13384873,-0.18695837,-0.12218836,-0.16442788,-0.14469701,0.0912511,-0.22316533,-0.0788892,-0.17255352,0.15522671,0.21155204,0.1577617,0.171244,0.053219806,0.04423029,0.05026354,0.076931626,0.02810039,-0.03247846,-0.25525406,0.013678469,-0.06533035,0.1834703,0.12667681,0.052848924,-0.13122223,0.3624738,0.35344088,0.36270642,-0.0038391952,0.06988149,-0.07069223,0.30845824,0.09406252,0.18713902,0.33115098,0.22070073,0.18649861,-0.049007654,-0.06209034,0.13751425,-0.04605842,0.18549256,-0.026490286,0.27727765,0.18088497,0.21708935,0.2306023,0.33560336,0.14893396,-0.029624712,0.28474712,0.25402924,0.29676944],[0.5574888,0.44750327,0.4322406,0.2605435,0.49213538,0.19569981,0.39909217,0.10605809,0.35870117,0.22106051,0.06724473,0.021143802,0.22015388,0.4346308,0.20942982,0.443227,0.1331909,0.4198795,0.045503285,0.20713033,0.3230959,0.29790762,0.23815408,0.41165102,0.48482376,0.19451655,0.38873774,0.37514222,0.20254934,0.357075,0.10452107,0.16339639,-0.028248034,-0.10990558,0.18468536,-0.110292256,0.0052239075,0.05176435,0.16455837,0.1079497,0.041878074,0.011851873,0.008717265,0.17820202,0.024426565,-0.1800316,-0.15397498,0.03328881,-0.11239174,-0.12699805,0.02366627,0.09518293,-0.026195085,-0.054939535,-0.020350415,-0.08325911,-0.076337725,-0.038518533,-0.006709877,0.06700501],[-0.34628627,-0.38436842,-0.31851476,-0.10764735,-0.6005755,-0.3830843,-0.18001147,-0.44795686,-0.38564348,-0.34642547,-0.46220356,-0.24115188,-0.21118337,-0.35560468,-0.14779398,-0.31928736,-0.38717678,-0.19527498,0.042006567,-0.03039062,-0.1425115,-0.12563874,-0.2392267,-0.363649,-0.365264,-0.3755799,-0.5883248,-0.24410829,-0.36930555,-0.29839677,0.3447536,0.41532683,0.30004022,0.010197056,0.5039726,0.46580052,0.24226871,0.5159302,0.35658792,0.33496562,0.44844666,0.1938978,0.19118708,0.37353268,0.04485299,0.2539574,0.4053719,0.18341745,0.044174813,0.085546546,0.15530257,0.07080066,0.32292086,0.3820458,0.33163252,0.31081152,0.44457647,0.21057643,0.27171323,0.25211596],[0.09947359,-0.035759617,0.2909286,0.03167845,0.23534794,0.15191855,-0.12646908,0.0189753,0.2598469,-0.049117632,-0.033977635,-0.13473561,0.25684914,0.14166638,0.13295536,0.1435405,-0.064072244,0.059869323,0.20598663,-0.009953454,-0.003858333,0.16185121,0.0042172903,0.3234826,0.27555612,0.12115454,0.0718531,0.002921699,0.18980496,-0.081333764,-0.17743732,-0.063638285,0.19880448,0.11042851,-0.105984084,0.01770451,-0.28457156,0.2458231,0.10235019,0.16580857,-0.16597919,-0.020049576,0.12839359,0.14672858,0.086935304,0.097384594,0.20885402,-0.03429426,0.14040397,0.1239112,-0.11332339,0.14674096,0.24675177,0.1670246,-0.16511728,-0.09711505,0.2613792,0.19113065,0.24224557,0.042647973],[-0.07674426,-0.049333535,-0.057973985,0.061995547,0.0798643,-0.12631735,0.033525392,-0.07969206,-0.11397572,-0.09656778,-0.09343914,0.045919213,0.036073297,-0.08821916,0.07531702,-0.022336194,-0.09676601,0.09686037,0.090308815,0.037608936,0.05930539,0.08338955,-0.01851721,-0.03527146,-0.07408416,-0.16445473,0.04159679,0.049814954,-0.10719204,0.016012508,0.5238174,0.5963869,0.4852129,0.12548693,1.0866143,0.60133094,0.4443019,0.94923943,0.57477224,0.50711405,0.8779556,0.37973368,0.28465828,0.51696616,0.14027715,0.48380283,0.5850258,0.35993293,0.09722585,0.08375174,0.29337496,0.21705936,0.52709615,0.6700265,0.5681102,0.4843898,1.0069205,0.39578015,0.49182338,0.45801717],[0.22045688,0.29734528,0.16644621,-0.1154,0.1971104,0.08341694,-0.028823862,0.11319857,0.03619106,0.17480634,0.20152873,-0.17935969,0.14840607,0.17461805,-0.12784478,0.017242063,0.27379957,-0.013662549,0.051119484,0.053637788,0.32690316,0.2410326,0.01837825,0.21640678,-0.038203698,0.12740983,-0.016715711,0.07789554,-0.11279948,0.18880095,0.25084195,0.14741501,0.08621873,0.09593287,0.049865548,0.052378714,-0.06120078,0.044667743,0.077617906,-0.1046132,0.10405176,-0.16108352,0.1695606,0.28359684,-0.000569306,0.010060356,-0.05739144,-0.025646308,-0.06010429,0.18363516,-0.023176232,0.3359791,-0.026438473,0.18951052,0.17656569,0.1771917,-0.15678033,-0.026235176,0.23639323,-0.23556684],[0.07260061,0.0024900637,0.17035957,0.09799491,-0.08429184,-0.015008825,-0.008513408,0.0449189,-0.014359388,0.0062542525,0.097822905,0.082968034,0.028440299,0.040952343,0.05539889,0.0450453,0.0073198853,0.026673,0.03986832,0.079273306,-0.028697396,-0.099017546,0.06584565,0.050513007,0.04910012,0.12583536,-0.022696238,-0.010208746,0.05968476,0.030750455,0.21708034,0.36607385,0.28065234,-0.14319871,0.42462748,0.48740056,0.13960457,0.558776,0.3260899,0.3112863,0.5223005,-0.0022743992,-0.0061320816,0.38407224,-0.0444911,0.2279208,0.2883222,-0.001343088,-0.09567008,0.15243454,0.029360358,0.074934684,0.2144282,0.34386417,0.29840636,0.3629955,0.48882836,0.11576012,0.18665424,0.14651176],[-0.20362923,-0.07409304,-0.30842787,0.22167861,-0.013229431,-0.1381713,-0.28080776,-0.3719413,0.0069666416,-0.2697582,-0.4173484,0.026142107,0.16739736,-0.16293973,0.24824232,0.02190251,-0.30745175,-0.11273885,0.016760295,0.14128026,0.105746344,0.2194687,-0.38679639,-0.31420457,-0.18451403,-0.21431641,-0.15625034,-0.167638,-0.11083574,-0.18827412,-0.04774245,0.09021113,0.06697787,0.14185028,0.24641281,0.042567194,-0.024546087,0.15930742,-0.050098494,0.04938093,0.32319054,0.12211424,0.066128924,-0.025810529,0.08100871,0.11448679,0.16703367,0.08710602,0.12924919,0.00303072,-0.011886487,0.050354876,-0.05480896,0.41645098,-0.019359987,0.18949333,0.43645844,-0.10581241,0.26135728,-0.088863656],[0.023982765,0.30552167,0.20292233,0.025224626,0.11836321,0.37829491,0.24608451,0.04484431,-0.0037413575,0.1874158,-0.0855965,0.008780645,-0.036631905,0.27779514,0.07302357,-0.14007486,-0.026688166,0.20496428,-0.13838026,0.31562477,0.25735644,0.35711047,0.10116958,0.07222631,0.13502055,-0.10108594,0.20140268,0.045223493,-0.054838143,0.11389377,0.09111675,-0.045699686,0.0048201713,0.2659768,0.41102207,-0.037327714,-0.047922716,0.2884981,0.03171155,0.15429461,0.17340705,0.27552208,0.12121655,-0.12873808,-0.110488385,0.21076499,0.37462714,0.22150972,0.12530874,-0.1516319,0.088433094,-0.10043999,0.2935506,-0.003833631,0.25602877,-0.10200542,0.3371633,0.27212453,-0.056704354,0.22085977],[0.2365986,0.25236368,-0.12767802,-0.12814713,0.3140305,0.21760683,-0.16766617,0.19296087,0.13383901,-0.039401557,0.12334999,-0.026340228,0.19429947,0.16510867,0.28961828,0.276057,0.08106202,0.068354405,0.09041078,-0.004665693,0.14066243,0.048266497,-0.10956264,-0.0007494668,0.34312922,0.35114753,0.2391559,0.19318004,0.26322302,-0.1122862,0.33441865,0.3364772,0.068444625,0.30348295,-0.16952537,0.046472125,0.23818709,0.121258855,-0.039439578,0.1745639,0.08443021,0.2381951,0.098489776,0.10846558,0.094045825,0.3989872,-0.0099044535,0.22191484,0.03555581,-0.04557498,0.19299889,0.037494905,0.06265268,-0.07152327,0.31740236,0.031268027,-0.08738015,0.09285348,0.13022324,0.028151253],[0.454436,0.3828753,0.49753594,0.22657573,1.0457995,0.43679106,0.24302658,0.49438366,0.48888788,0.1731389,0.5225521,0.0859141,0.0376441,0.2550955,0.06167746,0.39124984,0.33877552,0.39503363,0.051632058,-0.062926605,0.11056438,-0.08171538,0.41098556,0.6270388,0.3309578,0.42783397,0.7922956,0.17803577,0.17331395,0.27254564,0.29055536,0.39641297,0.18967304,-0.055242244,0.35900494,0.41642907,0.08864116,0.2836904,0.16263336,0.2941117,0.20726795,0.15152074,0.10094031,0.34175074,-0.06117521,0.1051889,0.17544635,0.025823992,0.0036029527,0.12790889,0.20016237,-0.014689258,0.07962516,0.21687691,0.1214588,0.084802575,0.39570674,0.03738318,0.21786045,0.22808622],[0.04312332,0.09882016,-0.01783231,-0.087824516,0.27920917,0.0066250484,-0.089928746,0.33902848,0.030785237,0.29229984,0.43227193,0.03481777,0.018192634,0.16211458,0.048016086,-0.039629582,0.1807164,-0.2006997,-0.19078729,-0.055554092,-0.07270926,-0.042589415,-0.0156487,-0.0112048695,0.09593066,0.19507314,0.47547957,0.032649655,0.21375908,0.065611325,0.05057002,0.20766175,0.3848181,0.09988944,0.43813184,0.1775845,0.0661697,0.50284594,0.3144594,0.15575124,0.49217683,-0.058220547,-0.30694693,0.06360278,0.080610014,0.21905659,0.2450179,0.116238035,-0.08416846,-0.1879172,-0.18770179,-0.08330616,0.19754086,0.35588604,0.3560122,0.3451716,0.59828025,0.12607297,0.20640609,0.08695813],[0.25955448,0.45949993,0.51203233,-0.16955592,0.08999319,0.58919144,0.0076489635,0.55268717,0.24066056,0.37016165,0.5357153,0.32338154,0.12233372,0.50073546,0.15094738,0.2403333,0.51736885,0.19359215,-0.07016473,-0.03599053,0.07218044,0.033882298,0.13543093,0.50315577,0.3225963,0.3750864,0.47173575,0.3558786,0.44195798,0.24733599,-0.2461267,-0.22907354,-0.16658445,-0.26170257,0.16817309,0.14537634,-0.11713009,0.18991221,-0.12145425,-0.2829306,0.37120426,-0.27598163,-0.15583542,0.031719677,-0.214149,0.060265683,-0.08275914,-0.2879418,-0.08114444,0.0487968,-0.16342275,0.015389252,-0.021178177,0.16828828,0.016189795,-0.014185614,0.057051912,-0.18473071,-0.15128389,-0.13660339],[0.021789223,0.09807136,-0.16148277,0.18128937,-0.07816814,-0.26243204,0.059963554,-0.24719909,0.1180408,0.21778937,0.08240877,0.011296912,0.29408318,-0.08432285,0.16858889,0.00209649,-0.13566655,0.04167868,0.3176401,0.08960942,0.27900368,0.25300857,0.041311968,-0.21254477,-0.21836565,-0.053691,-0.16629782,0.2368479,-0.20388736,0.05088871,0.18218237,0.31282058,0.0217242,0.039044693,0.13562869,-0.012596887,0.15455523,-0.10339329,0.29717612,0.014388268,-0.19132045,-0.010464946,-0.11619546,-0.008383657,0.06658752,-0.058281697,-0.047354437,0.17564958,0.04310529,0.04937814,-0.1007503,-0.09398425,-0.025482673,-0.04571113,-0.031127121,-0.14802231,0.19552708,-0.13306797,0.25839397,-0.06413485],[0.13640621,0.19224305,0.14582393,0.0307954,0.2677793,0.14614998,0.36035913,-0.098088235,0.372674,0.12394541,0.122897,0.1673897,-0.086570516,0.05643503,-0.03913273,0.27401733,0.31856757,0.24142082,0.052794203,-0.12323643,-0.09152651,0.051083058,0.47585967,0.27134702,0.3103275,0.2518091,0.11119821,-0.05391867,0.22705604,0.34592435,0.054270025,0.06566389,-0.15152508,0.19478531,-0.4155629,-0.20621972,-0.2482851,-0.1291846,-0.040937394,0.19389519,-0.23292458,-0.058489908,-0.13176626,-0.30941078,-0.076392725,-0.04152977,0.2026849,0.034779597,-0.20272778,-0.1492006,0.11815918,0.017987777,-0.0031324346,-0.2784555,0.05828809,-0.09526072,0.35569686,-0.16589107,0.07434592,-0.25897124],[0.37296653,0.03711011,0.27566117,0.29229707,0.28775415,0.14154342,0.0063719223,0.13658224,0.10677042,0.14387657,0.2753095,0.21390583,0.12973371,0.072101176,0.044351958,0.12110282,0.0606783,0.19709225,-0.20890218,0.041937362,0.13035807,-0.18973449,0.22595134,-0.11774353,0.10680683,0.27315694,0.2784744,0.062609166,0.072072,0.20219943,-0.07799292,-0.18613285,0.08843991,0.018347243,-0.43684688,0.08173383,-0.06714536,-0.3537724,-0.26077065,-0.056103088,-0.3193252,-0.01570814,-0.078437656,0.046185445,-0.10039869,-0.014674112,-0.23413314,-0.20373742,0.04659182,0.21442072,0.034919657,-0.09658738,-0.26611042,-0.22179379,-0.06176855,-0.052118164,-0.5007387,0.15298407,-0.21785231,0.14611305]]],"bias":[[-0.07392157,0.16892572,-0.22431247,0.3532057,0.18996951,-0.286185,0.08658227,-0.18692353,0.25131515,-0.33810887,-0.05896445,-0.23383784,-0.0700627,0.0013766303,-0.081770025,-0.22727594,0.3356751,-0.22415286,-0.14936544,0.32752207],[0.017385203,0.19933642,-0.09568175,-0.0055416794,-0.051673423,0.007690088,0.16939107,-0.15982892,0.18202879,-0.041184556,-0.00045369624,0.02276331,-0.08872291,-0.13132796,0.28034234,0.31720516,0.13062026,-0.13292965,0.01868802,0.005358048],[-0.012409381,-0.25788763,-0.151009,0.10575801,-0.13356486,-0.105347164,0.020859335,-0.091076925,-0.1347791,-0.004944133,-0.09169135,-0.06526976,0.05315857,-0.10395249,0.24467601,-0.06680838,-0.0018553906,0.047079332,0.2927519,0.24738486,0.18355241,0.21850692,0.067563795,-0.12670512,-0.03094676,-0.098499395,-0.02711849,0.13476366,-0.10771574,0.14005597,0.12995954,0.04608374,0.010894698,0.11063007,0.04946552,0.17462488,0.032738283,0.15169182,-0.030242383,0.021891195,0.053976063,-0.0687341,-0.03791053,0.11176391,0.18519427,0.0764819,-0.0013517261,0.0804534,0.122375295,0.03295056,0.099287614,0.112734884,0.053501073,0.08594308,0.15707007,0.012872816,0.026534308,0.09026136,0.0012007894,0.1543398]],"Losses":[0.9389325706628897,0.7556925958969853,0.5967818778547395,0.4606539333030701,0.35761695924870074,0.2974074444695954,0.28134089317775746,0.28903971419849966,0.29590518403646254,0.29313360209422584,0.28325975549775007,0.27083400301707033,0.25919417129610894,0.24983860059353982,0.24277595186316991,0.23747921852922768,0.23363331626175904,0.23109654866621127,0.22957176622679393,0.22852948581621105,0.22737668234642983,0.22570913661879669,0.22341959460731528,0.22069655317461695,0.21794089758972496,0.2155614869933772,0.21379398599778487,0.21263899304851044,0.21193291617748544,0.21147876972303076,0.21111348314817954,0.21071555766786332,0.21020891934076047,0.2095733230309476,0.20884210360400415,0.2080724946142614,0.20731862872355153,0.20662130190781094,0.2060018827152255,0.20545575977706132,0.2049555395805887,0.20447964468788415,0.20403433515488376,0.20363974498277893,0.2033010734357398,0.203001793231279,0.2027188324477565,0.20242556242572476,0.20209008595412045,0.20169362571212393,0.20125138770886009,0.20080412168502346,0.20038761359158125,0.2000171462839082,0.1996902040216734,0.19938988607649635,0.19909082228266392,0.1987743717478731,0.19843906777438888,0.1980924335271141,0.1977399899289336,0.19738492579208353,0.1970308664180935,0.1966796455884494,0.19633024645790187,0.19598168845562403,0.1956337031917827,0.19528565924135313,0.19493654196390617,0.19458479110692609,0.19422763998533654,0.19386365974659908,0.1934953385522113,0.193127000663226,0.19276146691944065,0.19240010341167957,0.1920431260499113,0.19168825127713632,0.1913316152887528,0.19097076344929897,0.19060565876502397,0.1902380191225127,0.18987108220221038,0.18950844872469325,0.18915208623729488,0.18880182011130708,0.18845630086981385,0.1881136213304013,0.18777214771681763,0.1874316893781576,0.18709352620824163,0.18675942779108018,0.18643094084952105,0.18610896885848613,0.1857936017776918,0.18548448163040349,0.18518127248019534,0.18488369030670196,0.1845915646489681,0.1843050067952702,0.18402431637463698,0.18374987673366572,0.1834820583027972,0.18322100346707088,0.1829665403780669,0.18271839988486047,0.18247627983045173,0.18223984248026404,0.18200881038773312,0.1817830030156233,0.1815622530419249,0.18134640212790543,0.18113522323522746,0.18092835856796352,0.1807253773534166,0.1805258550544107,0.18032938386318184,0.18013560148156502,0.17994416271997826,0.17975467243432283,0.1795667219871161,0.17937996039438786,0.17919409747218212,0.1790088620142243,0.17882395743983462,0.17863905040948397,0.17845385533393027,0.17826816009904922,0.17808180535740817,0.17789465854221742,0.1777066000980525,0.17751751125410017,0.17732729571299566,0.1771358912113364,0.17694325607081654,0.17674938271179558,0.17655427050640055,0.176357938550282,0.17616041425665235,0.1759617262729275,0.17576190344195314,0.17556101246950395,0.1753591156919425,0.1751562874767807,0.17495260322831563,0.1747481466742838,0.1745429975668766,0.17433725593816304,0.17413101855125723,0.17392439354952385,0.17371749960962443,0.17351045588822264,0.17330338966167513,0.17309643032786234,0.17288971564121572,0.1726833891073928,0.17247759712321942,0.17227249272504452,0.17206822622707366,0.17186494636806005,0.17166279978902227,0.17146194380763646,0.17126251085143804,0.17106463965961446,0.17086846240718503,0.17067409378457096,0.17048164199190552,0.17029120712370574,0.17010286618875795,0.16991668193033996,0.16973270723967612,0.16955097755283524,0.16937151031798883,0.16919430998151117,0.16901936510241794,0.16884664728536106,0.16867612594116646,0.16850774431588653,0.16834145106035542,0.16817718069516696,0.16801486834332482,0.16785444612992795,0.16769584514983016,0.16753899935628588,0.16738384965715739,0.16723033874903104,0.16707841850154273,0.16692804833849115,0.166779190706901,0.1666318259466167,0.16648593539501882,0.1663415099289238,0.16619854821148033,0.16605705241564234,0.1659170299316923,0.16577849577843046,0.16564146266133326,0.16550594681143768,0.1653719627010114,0.165239530173726,0.165108656389536,0.1649793552266524,0.1648516369393321,0.16472550389612653,0.16460096502023475,0.1644780189240718,0.1643566637053091,0.16423689717677648,0.16411871497389777,0.16400211661346392,0.163887092207645,0.1637736536303272,0.16366181455527498,0.16355166678672653,0.16344348161088196,0.16333818920837376,0.16323846185482155,0.16314954376525906,0.16306893759098018,0.1629710377343438,0.16285431911627832,0.16273837272907865,0.16263301445944825,0.16255271131913207,0.16247228302797578,0.1623679682180293,0.16226487224057634,0.16217820677221947,0.16209715571024605,0.16201792821656139,0.16192853840430949,0.1618363814861496,0.16175903377089912,0.16168418443337393,0.16160824589962614,0.16153057923851463,0.1614493103617122,0.16137687688718702,0.16130880293218913,0.16123920796973734,0.16117066377035763,0.1610995070577502,0.16103143357309396,0.16096831059804279,0.16090558630768875,0.16084437167424837,0.16078261933763452,0.16072040468253626,0.16066092064057455,0.16060310753142984,0.1605469343352342,0.16049237770187946,0.16043773596695984,0.16038343570266625,0.160330076129605,0.1602772746627906,0.16022577661720303,0.16017568706716867,0.1601263082322989,0.16007791868594415,0.1600303233283759,0.15998301119987107,0.1599364084944074,0.15989037501738193,0.15984465530998304,0.15979967349139657,0.15975521754028318,0.1597111733945783,0.15966786349074347,0.15962511291952716,0.15958293770267987,0.15954172804238892,0.15950158651477764,0.15946316062146237,0.15942757042484984,0.15939698860423424,0.15937393456406518,0.15936435449497252,0.15936660716682968,0.15938030736168404,0.15936336099806875,0.15929993827606384,0.1591759152583233,0.15906705394696957,0.15902264229542615,0.1590305148744879,0.159035768848346,0.15898825052381443,0.15890398202379663,0.15882885040298866,0.1587966422994999,0.15879005774565103,0.1587685279978594,0.1587165205953033,0.15864907058710345,0.15859734190989025,0.15856945706359535,0.15854874465356655,0.15851586949077448,0.15846529785139057,0.15841051311773027,0.15836509990791345,0.15833177566497705,0.15830232423947166,0.15826685317379455,0.15822276557356957,0.15817377642784144,0.15812680144383756,0.15808533997854854,0.15804826823777793,0.1580118694156663,0.15797275687682846,0.15792991124111955,0.15788405388604104,0.1578372686324267,0.15779118408658646,0.15774656612270785,0.1577032596795837,0.157660640222446,0.157618002951936,0.1575748801081806,0.1575310767857086,0.15748654589412062,0.15744155171848873,0.15739617988898477,0.15735099282845336,0.15730613358256085,0.15726266071761033,0.15722087669902665,0.15718310017321577,0.1571495720803145,0.1571249522452183,0.15710564880900926,0.15709649818206978,0.15707472372438802,0.15703859647283638,0.15695117226608402,0.15683684612887389,0.15671474443767383,0.15662536956475107,0.15657832313017392,0.1565586336518178,0.15654219624698415,0.15650326194415298,0.1564383262609863,0.1563478893306057,0.156255623573421,0.15617703640522723,0.15611850311323397,0.15607449217977934,0.1560345104773691,0.1559903589813353,0.15593449002840018,0.15586868732172543,0.15579259298226067,0.15571339752358856,0.15563435901385242,0.15555904676311585,0.15548809263898503,0.1554207691172802,0.1553559482704351,0.15529294250048215,0.15523181457538665,0.15517359999349215,0.15512154172224435,0.15507879785990267,0.1550559433802746,0.15505390073958752,0.15509050412929654,0.15511490254848026,0.1551135173553784,0.15494648381450102,0.15469416537143604,0.1544482068019863,0.1543411531472939,0.15435930218913121,0.15439296372396755,0.15435285042806726,0.1541893681051695,0.1539990082709874,0.1538684465385067,0.15382422125054862,0.15381666050576157,0.15377379057643195,0.15367389020750805,0.15352708024492928,0.1533894084261788,0.15329138705492676,0.15323097715167436,0.1531844672887572,0.15312492291121452,0.15304349434115375,0.15293509775481073,0.1528161383438915,0.1526964835451539,0.1525863970906078,0.15248788316053852,0.1523989147346134,0.15231661272022026,0.15223966517401433,0.15216999677275475,0.1521104987344178,0.15207398815732107,0.15206327198741482,0.15210838325227152,0.1521629076334695,0.15223326971083775,0.1521009619860416,0.1518181612668533,0.15141213968292747,0.15115018701476807,0.1511076369108273,0.1511881859062048,0.15124310195633503,0.15111853321202556,0.15087441589097775,0.15061420524874783,0.15047069424953247,0.15044617748808575,0.1504581337671692,0.15042992474312789,0.15030100911076388,0.15011662897275946,0.14992402270278626,0.14978036312161985,0.1496945041836022,0.14964621202124034,0.14961030733332328,0.14956039631186172,0.14949544581256202,0.14939539901042373,0.1492802494353942,0.14914083182560253,0.1490009551993589,0.14886039823491623,0.14873010551284496,0.14860853726432802,0.1484954327928769,0.14838799221007182,0.14828411328975885,0.14818246211154956,0.1480824079151763,0.14798452177561605,0.14789090074305491,0.14780784439376754,0.14775333489930315,0.14777482590497962,0.1480177836679898,0.14874281102131182,0.15040183733663132,0.151172216851799,0.14968433623151747,0.14716057421760834,0.14793575413265686,0.14955814794530567,0.14787386836257646,0.14678554122720244,0.14805762914936102,0.14783726486726004,0.14656696298293276,0.1470168932254102,0.1474241446837271,0.1465222820899983,0.1464017672221214,0.14692982636619534,0.14645417458624885,0.14603557872429326,0.14644185649768462,0.1463150799539966,0.1458122378752427,0.14598840074280173,0.14609108614859065,0.14566632761207032,0.14560092744147035,0.14578003024058994,0.14554392480120765,0.14531408476862345,0.14541300668228388,0.14538094355759704,0.14513907400987477,0.14506832795264715,0.14512414323731188,0.14501390446883947,0.14483486986409472,0.14480530984386117,0.1448135866832048,0.14469850336149398,0.14455981000673837,0.14451890829129216,0.1445049946056697,0.1444194482843341,0.14429871137494027,0.14422833571556024,0.14420069025863783,0.14414845406197652,0.1440550169053188,0.1439603626360096,0.14389795293867233,0.14385638282508337,0.14380399247670117,0.14372931473360218,0.14364443893190804,0.14356813650828992,0.14350720688737922,0.1434554925435919,0.14340335675262783,0.14334445415683944,0.14327862142727507,0.14320840175578875,0.1431375853738191,0.14306810998872685,0.14300098446440923,0.14293586545839335,0.14287228096818633,0.14280973646759382,0.14274787623869728,0.14268671075512845,0.14262652846082052,0.14256830411733618,0.14251458731478484,0.14247208954496404,0.1424582752286707,0.14252311792034722,0.14279461879806007,0.14361921873827044,0.14545597944487917,0.1482356960087008,0.1477556171640755,0.1439834533596559,0.1419696887253584,0.14411232368569704,0.1456124391947794,0.1429849821700485,0.14190630912034283,0.14375686518663067,0.14357087736725227,0.1417789705916388,0.14223477538411297,0.1431488324753339,0.14208959060735177,0.1415460577138042,0.14242820892875838,0.14221206298952954,0.14135593406369412,0.1417694715571372,0.14205889747242287,0.1413620219439388,0.1412955610417191,0.14171655102933342,0.14137952321536434,0.14103312566849538,0.1413013703976465,0.14130782469393338,0.14094115268832896,0.14093575125381844,0.14110220709134344,0.14092018923191704,0.14071371625713697,0.14080216002982635,0.14083276218126836,0.14063695057499323,0.14054052342834383,0.1406084876984803,0.14057445137807298,0.14042187623736938,0.14035782335198171,0.14038903827428081,0.1403518412012148,0.14023459249023945,0.14016524907742475,0.14016637696348208,0.1401437134715551,0.14006004926212834,0.13997828254480857,0.13994527840543822,0.1399301528231703,0.1398846169280588,0.13981070609389226,0.13974534324944327,0.1397067374279983,0.13967954009495323,0.13963986028018263,0.1395821826794828,0.13951938508404924,0.13946535789545034,0.13942351280832024,0.13938733060267364,0.13934815863433683,0.13930202887444035,0.13924995535474693,0.13919548482505148,0.13914220467852362,0.139091664382303,0.13904413984305725,0.13899893887521966,0.13895528617001304,0.13891304904903215,0.13887253953589496,0.13883514515439455,0.1388036989427146,0.13878423833553857,0.13878836814119067,0.13884213678413962,0.13899459452964671,0.13935335679943317,0.14006181174762794,0.1412900779449664,0.1425547088754045,0.14285673848035693,0.14104422864228547,0.1389179155006839,0.13828283012643913,0.13926863173134568,0.14041176343976824,0.1400497346835626,0.13871258599876557,0.138065605215737,0.13864098618171758,0.13933758918155553,0.1390143244893903,0.13817361410568005,0.13790973959713543,0.13834814539639237,0.13866541511250105,0.1383239219012293,0.1378167096938884,0.13775059072481013,0.13803954611603123,0.13816120852961464,0.13789595660855936,0.13758303795790702,0.1375444868470608,0.13770585557971374,0.1377773436066069,0.13762645213514982,0.13740894569894624,0.13731489159440816,0.1373657236171486,0.13743640269777982,0.1374086256334028,0.13728549303956697,0.13714975812233732,0.13707723269127478,0.13707547900893866,0.13709969181931392,0.13710108770936982,0.13705654430457984,0.13697763174600913,0.13688883527633933,0.13681322575044144,0.13676042648478196,0.1367287891053838,0.13671093421164682,0.13669986678290658,0.13669188286156292,0.13668616526067337,0.13668669505036365,0.13669787201881559,0.13673171163050332,0.13679930894860445,0.13692741203839326,0.1371331828623692,0.13745485563044108,0.13785313291830598,0.13827380914808157,0.13843338765993043,0.13819901210117763,0.13749355354373893,0.13669940097640146,0.1361507451463991,0.1360186435399052,0.1362327799607257,0.13659221261738685,0.1368723714919829,0.13687562858160843,0.13660869370222348,0.13620073130976426,0.13586964541851543,0.13572967516697093,0.1357773430982647,0.13592945199418244,0.1360781542771933,0.13614489222570852,0.13608609244762593,0.13593341168642484,0.13573664173104064,0.135561173152675,0.1354405970080872,0.13538256143581423,0.13537543930255344,0.13540197116775995,0.1354484034751789,0.13550542386833475,0.13557292798929144,0.1356475378610569,0.13573703590442232,0.13583103209598005,0.13593462612505242,0.1360145692803389,0.13606530030802275,0.13603430009782036,0.1359276731907699,0.13572669375379043,0.13548248762544454,0.1352267622342196,0.13500888605293956,0.13484759628513027,0.13474771278563322,0.1346999467652331,0.13469177049305117,0.13471331324982594,0.13476013220458655,0.1348357788766657,0.13494722140566323,0.13511223861800267,0.13533615997851822,0.13563052514694532,0.1359349202406408,0.13618247929686458,0.1361878004790958,0.13590912698158641,0.13536124531673835,0.1347816042820509,0.13435747307377965,0.13418744109679576,0.13424621576747675,0.13444421605934223,0.13467495099883395,0.13482931213691088,0.13484669242911126,0.13470064914032853,0.13445616912197048,0.13419176597907795,0.13398835350822744,0.1338794692196736,0.1338608978532768,0.13390573434162356,0.133981710679463,0.13406326561247592,0.13412962116849733,0.13417335057154056,0.13418333543282096,0.1341641242739494,0.13411135671867735,0.1340377306668766,0.1339462532610577,0.13385202937997218,0.13375931697670132,0.1336761937202527,0.13360259466781732,0.13354061747831092,0.1334891097156824,0.13344933973737746,0.1334214806117422,0.13340869515292358,0.13341514824246506,0.13345172987374804,0.13353396798801373,0.1336924681373494,0.13396136476615966,0.13438759155438407,0.13494920895632145,0.13554056119620722,0.13580222481496215,0.13547969766107215,0.1345567479340485,0.13355659042251938,0.13294242279752488,0.1328899244165669,0.13325696726461383,0.13372479690451097,0.1339608488181621,0.13377042769210892,0.13329559880300942,0.13283827021986525,0.13263870740806416,0.13272225339045818,0.132949168447047,0.13312804140858703,0.13312147908199773,0.1329363019962903,0.1326787147328324,0.13248104038120093,0.13240905886074844,0.13244912788959262,0.13253948279002373,0.13261111730450756,0.13262073184227083,0.13255781690398974,0.1324474346968419,0.13232354968152232,0.13221733300220567,0.1321445221197765,0.13210673242356757,0.13209639928884703,0.13210339909915517,0.13211942904766835,0.13213928405527112,0.1321623740540602,0.13218979350249377,0.13222618697837588,0.13227510145073462,0.1323433205040939,0.1324327774085276,0.1325473243085419,0.13267609269137168,0.1328042461200941,0.132890098364706,0.13289644363186123,0.1327818127006601,0.13255480639183484,0.13225104486569272,0.1319417071001081,0.1316835647609748,0.13151045205917763,0.13142552932662896,0.1314137506993652,0.13145350566483494,0.13152490918907034,0.13161364050682856,0.13170889713108308,0.13180256275421073,0.13188317014595313,0.13193862754935085,0.1319530647105202,0.13191633795263405,0.131824059825556,0.13168476525232248,0.13151522122875756,0.13133846935695975,0.13117462136098895,0.131037307990773,0.1309306563607388,0.13085198587108057,0.13079521728495916,0.13075440217702253,0.1307253269491309,0.1307060275453728,0.13069722995127644,0.13070318880090334,0.13073351115207782,0.1308063432863635,0.1309518437322413,0.131218601192912,0.13166161658880177,0.13231600947733627,0.1330532170726824,0.13352968741623897,0.13324173803697253,0.13220211128676854,0.13098942472373498,0.1302487942428805,0.13019736868632706,0.13065465781708813,0.13121137300295307,0.131416148207639,0.13108151527467077,0.1304553157463122,0.12996810098508316,0.12985627607613226,0.1300572481779743,0.13032813033116444,0.13042770387780697,0.13027131617402282,0.1299549087869703,0.1296676056964209,0.12953507633600894,0.12956676078456827,0.12967930115248277,0.12976217078431027,0.12974529010742647,0.1296205827273602,0.12944384191739539,0.12927673470926296,0.12916281687634218,0.12911091787270546,0.12910560985824537,0.1291224193573939,0.12913856272607105,0.12914064931766692,0.12912066764348537,0.1290823376955607,0.12902762124467812,0.12896663717549287,0.12889982344658757,0.12883616255840244,0.12877517281712708,0.12872500935209352,0.12868526051941684,0.12866425568073347,0.12866380840488276,0.12869904978600602,0.12877346320284427,0.12891188587927674,0.12909775194979464,0.12934100616778962,0.12953067231635215,0.12961671331425978,0.12942978129441046,0.12902971269916746,0.12849145009055318,0.12801443401030035,0.1277089248391866,0.12760587862635026,0.1276672875526294,0.12782111157649295,0.12798828677843166,0.12808604414020153,0.12807622573274252,0.12793581806687418,0.12771682309570784,0.12746418909658905,0.1272433004579677,0.1270822198774541,0.12699018837564977,0.12695673669022783,0.12696439010819097,0.12699655874678215,0.1270375635767422,0.12708261870221224,0.1271157874551567,0.1271423862679178,0.12713898390624206,0.12711662506400273,0.12705006323141502,0.12695901927845707,0.12683013703430623,0.12669043215654138,0.12653877757418977,0.12639649818512724,0.12626386108223658,0.12614886833370492,0.12604850826418512,0.12596213809618326,0.1258858549666632,0.12581704219682435,0.1257530632393269,0.12569213520868885,0.12563301466433674,0.12557486194244147,0.12551726632868232,0.1254600935571145,0.12540349723452313,0.12534796533445505,0.12529457836322827,0.12524576887765654,0.12520697506437883,0.1251912102688274,0.12522759115278762,0.12538878851052704,0.12581981538835293,0.1268460289712979,0.12864729061535418,0.13096675644528863,0.13084372716359105,0.1281564938537253,0.1252331622201261,0.12484105654938843,0.1265117829499919,0.12765554915174251,0.12668954847423486,0.12488751367651797,0.12464096086278574,0.1256959498541255,0.12602520265058503,0.12510980284648227,0.1243211660285513,0.12463150854347009,0.12519369646206294,0.12487633818881554,0.12420204075569992,0.12411260020612555,0.12449364605529252,0.12455159165587636,0.12409765729711032,0.12381211430026318,0.12397634522327428,0.12414940596312017,0.1239730145134838,0.12365512496693018,0.12359377314917175,0.12374009828247937,0.12375692352539051,0.12356351965645182,0.12337609437135635,0.12337040791750231,0.12344664488576904,0.12341521407854478,0.1232693995910018,0.12314269555125691,0.12312218380367942,0.12315048623828484,0.12312437669682459,0.12302788876297424,0.12292396001715034,0.12287268371842575,0.12286576145127558,0.12285207763059863,0.12280034994207427],"R2":0.8366839417810329,"Training_Indices":[9098,3251,8593,12447,19397,6678,18753,2076,11187,7208,2381,10333,8865,4031,4247,10272,18692,13302,305,15772,4107,7872,11712,5842,17515,18967,13712,10289,16612,15017,8567,2705,19570,14524,12710,8901,10787,7088,5587,10669,18010,11645,3966,14502,6153,9730,1524,18913,1715,9163,7829,14647,7432,7742,18688,17831,1159,3560,3332,3079,18784,17865,7199,19050,14841,6742,3948,16763,1655,11993,11500,16685,3142,977,1584,3673,853,7057,20265,14226,12088,14826,11730,1745,4777,8447,9045,14959,5470,20057,2211,3559,16610,7779,14967,20422,12434,16168,16940,10900,938,1297,12590,15851,18494,3293,13214,1389,7952,15250,430,2587,3585,5390,8113,12396,6325,474,15726,20059,16046,2180,596,11158,18575,10488,14621,3648,9629,13409,10417,19648,1523,9071,33,10487,3628,6511,8888,19806,6369,10810,10444,8443,4795,2349,4584,10579,2056,12557,10462,14395,16226,14574,13121,20020,10901,10442,10850,13225,10742,16335,981,14876,11124,19821,8030,14429,2195,1434,20532,14184,5782,16787,17479,10516,7097,4989,12641,11933,6242,1775,19191,3579,9161,12700,20092,7451,13194,6767,2406,5456,13948,4284,19058,5431,13708,3872,19981,9202]}