{"architecture":[["Dense",[4,20]],["Dense",[20,20]],["Dense",[20,60]]],"weights":[[[1.7918863,-1.1488619,1.4115201,1.2830926,0.8297155,0.0117844455,1.6346718,0.025045877,0.052429147,0.80165297,0.20556775,-1.8805149,0.013736729,1.3629819,0.98582447,-0.16858791,-0.22487585,1.5587555,0.0886535,-0.7795334],[-0.2405618,0.51666546,-0.17489867,-0.6743195,0.054242842,-0.39459032,-0.75108904,-0.78318334,-0.18530051,-0.6109118,0.57010865,-0.1488153,0.8296013,-0.092871025,0.023035359,0.8814938,0.6539238,-0.2262071,0.85058016,0.5375405],[-0.18796743,-0.20343117,-2.0200973,1.5693318,-0.57735497,1.2752069,-0.99677,0.870701,0.7374983,0.869569,-2.0282798,1.3354402,-0.5479863,-2.4922323,0.52783114,-1.3304718,0.07795124,-0.49702424,0.002247198,0.6317514],[1.9310669,0.40131998,1.0209556,1.6591,1.2369853,-0.8653305,-0.2897258,-0.86354184,-0.62245184,0.85652745,-0.5639416,-0.14051156,-0.7861968,-0.5858996,1.1624796,-0.27745906,-0.7844426,0.6515538,-0.397951,-0.4504032]],[[-0.4086399,-0.19453228,-0.47913218,0.0669448,-0.23935291,-0.07897179,-0.076647855,0.019215487,-0.77426237,-0.6253659,-0.003908151,-0.56719875,-0.31672895,-0.41034952,0.29436916,-0.46762782,-0.6464068,-0.052640643,-0.28476894,-0.47076938],[-0.46775913,0.21944578,0.26533502,0.006083414,-0.15853816,0.22933143,0.21947283,-0.21341209,-0.18920879,0.44352448,0.15388434,0.12807381,-0.011353217,0.032892182,-0.16987862,-0.46023834,0.4499658,-0.015277895,-0.14469305,0.20757166],[-0.43239757,-0.21253803,0.11307074,0.14242774,-0.1227645,-0.41440287,-0.36086366,0.07173276,-0.40661636,-0.6837909,-0.3728933,-0.15634029,-0.45384514,-0.24876794,0.018938184,-0.042922772,-0.016183235,-0.106120944,-0.51229477,-0.058075044],[0.11997839,-0.465211,-0.5341661,0.13213345,-0.81569237,-0.57481825,-0.5032106,0.08029562,-0.62223405,-0.117559515,-0.19206086,-0.10057813,-0.580634,-0.21005748,0.3126323,-0.34318438,-0.647386,0.020685494,-0.40176696,-0.3074047],[-0.29296735,-0.3195312,-0.35489124,-0.22215977,-0.18985038,-0.36897153,0.054041587,0.15611824,-0.33674332,-0.30395615,-0.3312089,-0.10725405,0.112268224,-0.01888057,0.3605723,-0.33571953,0.08077335,-0.51197803,-0.2697752,-0.36032626],[-0.21514255,-0.46686992,0.10553148,-0.026572539,-0.18378042,-0.12833565,0.022696296,-0.30927128,0.5808243,0.2291542,0.10748937,-0.34433138,0.31527492,-0.05391362,-0.064458296,0.29599124,0.10062846,0.13928059,0.19165532,0.016288662],[-0.008401969,-0.60146433,-0.22670656,-0.13051625,0.18543565,0.1942267,-0.39180395,0.068610445,0.15371706,-0.47102556,-0.037111636,-0.05413997,-0.28457922,0.10878996,0.0842169,-0.15344493,0.010337381,-0.103743695,0.28928763,-0.32943502],[0.28820604,-0.27252468,-0.124080054,-0.1063838,0.36741143,-0.5225598,0.0009938327,-0.08383333,0.6403319,0.5441662,-0.008349319,-0.3454452,0.09464709,0.18699744,0.10667325,-0.008266374,-0.2432235,-0.3920366,0.33112293,0.011145713],[-0.042302378,-0.41149682,-0.47973093,0.025670564,0.34314722,-0.25774032,-0.47718188,-0.44280186,0.5655527,0.5923628,-0.4766931,-0.023467245,0.15562926,-0.264281,-0.28439468,-0.106430896,0.4011116,-0.06449312,0.03862415,-0.4309051],[-0.13330878,-0.31913522,-0.091821,0.21155514,-0.3363021,-0.36891145,-0.13893782,-0.2702063,-0.37549198,-0.056226242,0.06975144,-0.22526197,-0.32952526,-0.2912798,-0.30231285,-0.27185893,-0.026652772,-0.325832,0.24958351,0.0050927643],[-0.4173678,-0.18832412,0.17322099,-0.36906657,0.5278856,-0.04489974,0.030858565,0.2144519,0.3997552,-0.2659957,0.10429584,0.11215263,-0.25341323,-0.35019004,-0.24434757,-0.372379,0.45847297,0.25983277,-0.34002554,0.26175842],[0.030021518,-0.20398879,-0.01733457,-0.1585137,0.22537749,-0.070152864,-0.26268584,-0.16415466,0.23781092,1.0291264,-0.1188701,-0.3924558,0.57485074,-0.3644026,-0.41129538,-0.24807265,-0.17754462,-0.2559183,0.3975061,-0.21879685],[0.20682259,0.30944523,-0.22434223,-0.24407384,0.6259815,-0.08729748,-0.29365942,0.3719017,0.63207674,-0.18319806,-0.36864242,-0.26890478,0.6664588,-0.15317938,0.0240804,-0.104224585,0.44138646,0.11209582,0.1046896,0.17980817],[-0.4444898,-0.081247084,-0.028755754,-0.5595809,0.4502598,0.35040098,-0.2986349,-0.2342701,0.33600745,-0.46429363,-0.06924431,-0.31360868,-0.40521482,-0.13782237,-0.052578516,0.12789585,0.06616245,0.18421642,-0.5296966,-0.12931907],[-0.4902588,-0.12288594,0.044347405,-0.33712924,-0.41412225,-0.17914255,-0.19184224,0.20152946,0.08456761,0.18030459,0.11361771,-0.50273126,-0.13436982,-0.12253298,0.37737527,-0.4681594,-0.23182023,-0.48330906,-0.3381658,0.17982258],[-0.103385486,0.17201425,-0.23611093,0.25875908,0.13158724,0.51913476,-0.30698493,0.078458905,0.44497478,-0.108565606,-0.057332195,-0.01105305,0.5005173,0.11615076,-0.30372438,-0.4818235,0.47997537,-0.1267731,-0.1874682,0.021050494],[-0.2666764,-0.079346314,0.029513981,0.09415339,0.380211,-0.10107873,-0.3228821,0.34244752,0.32022712,-0.0062276945,0.14140879,-0.41087162,0.74207157,-0.4686675,-0.3481184,-0.072158605,0.6628055,0.2315006,0.3527998,0.13199718],[0.042906724,0.027780425,-0.23949605,-0.44232,-0.13965216,0.1503993,-0.2515214,-0.14555675,-0.29359385,-0.56137323,-0.48225963,0.032797787,-0.6856139,-0.20643458,-0.13604183,-0.008273556,-0.4449484,-0.074490935,0.10324884,0.08054439],[0.29759938,-0.22273952,0.11103392,-0.06640118,0.26036602,0.40683168,0.23333871,-0.16919145,0.22491801,0.10761553,-0.27043226,0.02273262,0.47702664,-0.36973056,0.15346485,-0.47423023,0.31820118,0.041427676,-0.12806912,-0.4305895],[-0.1703375,-0.18757331,0.1092942,-0.3454227,0.3556097,-0.36666173,0.23729305,0.13782242,0.4913978,0.55515265,-0.51117426,0.20310082,0.44321266,-0.2790918,-0.13161413,0.15047391,0.55690134,0.3291145,0.30798146,0.27607748]],[[-0.22375612,-0.1523293,0.08585754,-0.15646595,0.10148934,0.2645776,0.20028996,0.22345303,0.072979406,0.17129351,-0.0931983,0.17043912,-0.06501432,0.09118772,0.02859237,0.3917466,0.04026519,0.31030905,0.27547017,0.25966808,-0.0370074,-0.027793314,0.35021827,0.12119004,0.28927368,0.23085296,-0.0966307,-0.15896766,0.1574208,-0.053347647,-0.13693339,0.46559456,0.09770805,0.12870504,-0.04532275,0.12734646,-0.016541917,0.16520713,0.3614193,0.06135973,0.0156243695,0.290602,-0.14160088,0.36724034,0.3018139,0.20769842,-0.072944075,-0.06602762,-0.009229566,0.17850463,0.2458505,0.34476405,0.03590072,-0.023554834,0.052753933,0.39991063,0.36705142,0.45041946,0.15441346,-0.20478411],[-0.039371677,0.04476617,-0.010811954,0.1674247,-0.047058176,-0.0043554218,0.15995885,0.0535479,0.17299403,-0.070390925,-0.024886852,0.16015619,0.02803852,0.098228134,0.11612299,0.12800166,0.124376245,-0.09571338,0.22725168,0.46203455,-0.06615196,0.37007052,0.3455414,0.25566614,0.2542523,0.28667438,0.1878384,0.101067975,-0.08275078,-0.043472607,0.26509276,0.042664558,0.24671671,-0.1256653,-0.02647239,-0.24221775,0.12791622,0.21283713,-0.05575006,-0.05580796,0.22069632,0.28092664,-0.05638681,0.24697414,-0.10401179,0.010125012,0.26611242,-0.051770523,0.22490424,-0.08199949,-0.22653463,-0.011565531,-0.032247625,-0.090076394,-0.023481717,0.28467748,-0.24882019,0.23027611,-0.18217354,0.16950008],[-0.10624312,0.27117696,0.008500672,0.15754732,0.078650214,0.25083554,0.30199888,0.4041226,-0.1323627,0.102413416,0.29891986,-0.012474014,0.41222104,-0.08520023,-0.016095547,0.24880505,-0.1597121,0.20346394,-0.03158236,0.26215148,0.30634767,0.058167715,0.21304685,0.39361063,0.3101078,0.34047794,-0.048507735,0.22122239,0.003713244,0.1452442,0.26795685,0.321749,0.076409295,0.03877929,0.08249063,0.17451915,0.1762251,0.2424547,0.18777597,0.22679317,0.07670112,0.33366403,0.18768021,0.004828269,0.19101186,-0.08892379,-0.05452016,-0.15269713,0.1581956,0.009272577,-0.06792375,0.27718294,-0.14498651,0.25132394,-0.008155249,0.056793667,-0.20403408,-0.057957094,0.148299,0.1810191],[0.09360773,0.13151936,0.07593999,-0.1047467,-0.044516705,0.09854242,0.0625194,0.37688023,-0.16378878,0.17075893,0.020240366,0.01990621,-0.07682866,0.17159523,-0.059147947,-0.028566178,0.1683698,-0.23327826,0.29809085,-0.25999987,-0.07248663,-0.039533023,-0.009901568,-0.29119852,0.25015405,0.03156476,0.023145469,-0.34290287,0.0862682,0.2567295,0.26420045,-0.15883514,-0.069230445,-0.03858246,-0.074278116,0.10854549,-0.105317295,-0.020716764,0.23175688,0.16089694,0.30417565,0.38130435,0.2714067,0.24256851,0.37488288,0.36332768,-0.066014186,-0.036063477,0.24064402,-0.15748456,0.17112613,0.04623568,-0.06344455,0.118054144,0.042048667,-0.07268486,-0.05876554,-0.20577917,-0.0517691,0.20522006],[0.2960175,0.42190087,-0.1447411,0.4934984,0.33815393,0.5967888,0.18485692,0.1890395,0.13740605,0.14371298,0.048562374,-0.02572056,0.25681,-0.086635776,0.21337032,0.104348995,0.16441807,0.35364592,0.09494375,0.14294247,0.42992523,0.24675918,0.016706849,0.14805454,0.08863438,0.10947987,0.209205,0.45897958,-0.096090265,0.23081061,-0.2700185,-0.19720094,0.17482431,-0.28281972,-0.06684572,-0.0028421981,-0.16275965,0.20332605,0.014951577,0.16360725,-0.03546171,-0.15872018,-0.036483087,-0.12068057,-0.27168193,-0.07216964,-0.06816403,0.12791878,-0.18284027,-0.068219736,-0.05397931,0.091433145,0.19900136,-0.15930754,-0.22566359,-0.007535354,0.119478166,-0.2400747,-0.09950091,-0.11280919],[0.19891912,-0.09871321,0.24500716,-0.10962881,0.24910513,0.1693269,-0.19815478,0.18892242,0.34736437,0.15729755,0.14592573,0.37274796,0.24752778,0.31449112,-0.13395402,0.07383453,0.15312645,-0.22277316,0.044645414,0.20196536,0.18621887,0.29147667,0.1305,0.16451919,0.12331732,0.31638372,0.13453893,-0.1195317,0.35297644,0.099340476,0.05143745,-0.31300953,0.020993123,-0.266259,-0.099519335,0.04410301,-0.028395524,0.07892215,0.026060477,-0.054887734,-0.093597844,0.34897012,-0.22003517,-0.05819944,-0.06644017,-0.22345325,0.1067629,-0.033015527,-0.15133604,-0.25181428,0.11311858,-0.41941383,0.004340818,0.24399884,0.01461806,-0.13821697,-0.28120506,0.010842057,0.18352196,-0.0055605085],[0.17763968,0.14089851,0.29637513,-0.11387189,0.08228206,0.27918983,0.20508945,-0.09050651,-0.115524314,0.07861947,0.14007367,0.299829,-0.079217695,0.16221263,-0.090698846,0.015160204,-0.10106146,0.049694914,0.16207837,0.2587242,0.08708653,0.30815536,0.05228419,0.30832642,0.36177745,0.10464765,-0.087648846,0.04825651,0.20362945,0.097243346,0.013624046,0.10576127,0.10179593,0.024618708,-0.028839443,0.13183445,-0.0033200465,0.0017571688,0.06861533,0.076951146,0.38544074,-0.021878496,-0.17785701,0.37873286,0.18198197,-0.033476867,0.267922,0.20786956,0.20943648,0.22327952,0.06760484,-0.18684144,0.20588052,0.14361642,0.08088833,-0.07616604,0.30063155,-0.12026699,-0.11546364,0.036160637],[0.2765593,-0.17104137,0.09937127,-0.13931476,0.016910212,-0.2770235,0.10776293,0.5097506,0.0671928,0.12026951,0.16149193,0.20539227,-0.09688106,0.27070233,0.023068799,-0.024890272,0.033589106,-0.039937273,0.17926852,-0.02383419,0.22083722,-0.21710603,0.14967613,0.012870089,0.07577123,0.04308789,-0.31071964,-0.17931493,0.3252884,-0.0013519597,-0.04637421,0.0016836147,0.16120347,-0.11369665,-0.0062747914,0.0302887,0.022652542,-0.017981414,0.24382468,0.3127976,-0.08177726,0.0020979717,-0.13699329,0.009321776,0.25481728,-0.11340009,-0.005607472,-0.026923293,-0.079206474,-0.30271226,-0.32867676,-0.14825217,0.29895848,-0.030716484,0.12864956,-0.03890836,-0.122892626,-0.18817757,0.20520803,0.29955474],[0.085523605,0.51352984,0.15127207,0.18525217,-0.11126557,0.36210132,0.18458731,0.16697466,0.057488214,-0.017027024,0.27335042,0.0186345,0.3463805,0.06863038,0.234179,0.08571385,-0.02458736,0.2787653,0.029509159,0.2524617,0.6096556,0.5204599,0.007835805,0.073995784,0.19698969,0.025378108,0.63804203,0.14757237,-0.0084298765,0.07946191,-0.12894754,0.45190755,-0.1663314,0.37620774,0.098319866,0.31302693,-0.16192581,-0.060098883,-0.13108492,-0.2833808,-0.15784138,-0.076565936,0.22656862,-0.03592555,0.0063649127,-0.147641,-0.11982287,0.21320306,-0.1438077,0.007247253,0.32968572,0.052928768,-0.11829219,0.03939203,-0.16984653,-0.2620519,0.3977292,0.17935668,-0.046190348,-0.04501619],[0.04771396,-0.21211758,0.07676185,-0.2565665,-0.03543926,-0.18017429,-0.116943575,0.09125682,-0.097908214,0.14865772,-0.0463808,-0.073618,-0.11575981,-0.15746798,-0.1875898,-0.20377341,-0.09275888,-0.343458,-0.049435474,-0.13168344,-0.20298477,-0.2086508,0.15639544,-0.14359191,-0.19906284,0.0033210274,-0.44245297,-0.20668474,-0.012316732,-0.1433794,0.38364267,0.40096,0.19488515,0.55878407,0.23961474,0.56944066,0.4274785,0.11213633,0.48922378,0.31016493,0.3741952,0.35066164,0.4017946,0.48119769,0.45059755,0.55981606,0.6249236,0.5644918,0.47976825,0.42223048,0.33730254,0.52444446,0.21573712,0.51363134,0.51213783,0.46711725,0.477579,0.5847504,0.24112345,0.4540417],[-0.008743819,-0.21044095,0.26626796,0.081872724,-0.0810322,0.13369812,-0.12265788,0.13459992,0.021549338,0.3703862,0.26686546,0.038005237,0.13378891,0.010844633,-0.028338205,0.05362995,0.049921356,0.11664786,0.044312213,-0.09274021,0.16626745,0.33419493,0.1994148,0.06973626,0.12026236,0.20981885,0.06442237,0.025953092,0.26126486,0.05723958,0.24714032,-0.19315161,0.15283065,-0.09752578,-0.063899666,0.16688398,-0.19109344,0.031025738,0.3063899,0.24076535,0.1826171,0.02924094,-0.14256631,0.1566752,0.19211201,-0.15572296,0.034499586,0.05474697,0.16686505,0.07891327,-0.21690345,0.18095881,0.0044583115,-0.005395409,-0.10479354,-0.15171343,0.122345105,-0.08796672,0.16611138,-0.15911834],[0.16145042,0.20616491,0.37915945,0.33912802,0.008227834,0.0758666,0.14815183,0.0145080285,0.0007350864,0.022091432,0.03388177,0.16410734,0.16079655,0.27062923,-0.09916491,0.22328962,0.34738106,-0.1796253,-0.020004852,0.030782769,-0.22740483,-0.031060202,0.22395375,0.30800742,-0.11585212,0.1725896,0.1698553,0.29249778,-0.1453366,0.042636413,0.07257038,0.26435488,0.14459287,0.044070233,-0.044073045,-0.04271843,0.19975239,0.027163992,-0.05328722,0.040855877,0.08902158,-0.11775204,-0.06275068,-0.03375807,0.31664145,0.10589833,-0.066611096,-0.31702483,-0.019842869,-0.12792893,-0.09565217,0.020284029,0.17339037,0.21283428,0.1852073,0.16776735,0.03510282,0.2288303,0.09251736,-0.1738486],[0.14515607,-0.070799574,-0.07322057,0.39463064,0.1844072,-0.13987453,0.29958504,-0.17707336,0.12998427,-0.11968338,-0.052124757,0.024284173,0.090483576,0.14441396,0.4167058,0.36835548,0.25469017,0.19934036,0.11060147,0.14890839,-0.012120923,0.09724502,-0.22500966,0.27130002,0.27801767,-0.1288258,0.13649507,0.28644398,0.04023244,0.42170435,0.3875574,-0.00964115,0.14457837,0.055455886,0.19180228,-0.022743115,0.4081086,0.13432513,0.061743684,0.10054435,0.23472817,0.33644396,0.3135954,-0.044601426,0.28778368,0.15110527,-0.009562233,0.15680014,-0.029446762,0.39440957,0.24756989,-0.009787599,-0.07710768,0.29616272,0.3161281,0.29864478,0.07712016,0.112601645,-0.16924451,0.31850252],[-0.21383907,-0.13245758,-0.043861568,-0.008352635,-0.055404555,0.18232499,0.16506454,-0.06305404,0.18536776,0.10868141,0.21071064,0.42538258,0.046460986,-0.0804428,0.002881065,0.2369529,0.074780665,0.14562945,0.40439242,-0.23845953,0.12596856,-0.03509402,0.33848026,-0.23376395,0.07529664,0.3537812,0.29003802,-0.19683327,0.12231966,0.32227704,0.07153834,0.14847685,0.2115722,0.17737502,0.0444923,-0.16984552,-0.10757821,-0.025224859,0.20850138,0.21447536,0.13877775,0.26400962,0.14651902,-0.080977134,0.16244856,-0.008512316,0.11282168,0.06007821,-0.16662885,-0.051277176,0.25032255,0.26183572,-0.069154084,0.093524165,-0.013348011,0.018553238,0.09578097,0.16637397,-0.031118244,0.16350143],[-0.19794652,-0.23500773,0.40084165,-0.30459937,0.3613315,-0.17137145,-0.0839044,0.08236564,0.18031168,0.35936132,0.23911487,0.030904457,-0.28490975,0.060357485,-0.20413339,-0.09409527,-0.14605695,-0.15483828,0.14402075,-0.316195,-0.37510878,-0.14015606,0.326889,-0.3249338,0.005888907,-0.033345286,-0.08782136,-0.106857754,0.23227155,0.14612255,0.1328987,0.120897435,0.13140813,0.32365063,0.18274888,-0.12329178,0.20201196,0.23657703,0.0067103724,-0.10051359,0.028225433,0.23709106,0.09643614,0.017056348,0.065055035,0.16537368,0.04271255,0.13075414,0.07331611,0.3192735,0.26438257,0.07449481,-0.012109282,0.14652106,0.25437874,0.115336776,0.119161315,0.13693261,0.16880468,-0.061182264],[-0.0010348159,0.15456906,-0.10395316,0.024667833,0.31196555,0.012763188,-0.27041706,0.16293563,-0.07939494,0.11368702,-0.047115274,-0.034938294,0.24668077,0.12175978,0.046629205,0.3653896,0.21664394,-0.015988475,0.00934112,-0.0066207824,0.29617447,0.32657826,0.30578065,-0.082476,-0.17389196,-0.19413714,0.34225652,0.15384908,-0.018634574,0.1450182,-0.092118494,0.47227114,0.24396287,0.4250811,0.10974393,0.007505829,0.11384503,0.30550146,0.06173766,0.06850899,0.0061700726,0.17779706,0.12042816,0.007906062,-0.059976432,-0.12301823,-0.033323806,0.35097453,0.06848066,-0.13637365,0.0549051,-0.09592878,-0.011735506,0.25719577,-0.14630936,0.009281839,0.36189452,0.16939348,0.30190223,-0.13290858],[0.20140436,0.29156417,0.13927339,0.13737322,-0.0744517,0.3068191,0.29748788,-0.23900242,0.019556858,0.1303108,0.04189585,0.30577338,0.451861,0.24264446,0.27357915,0.23877342,0.35927412,0.36949682,0.06611059,0.45385417,0.02841939,0.36026588,0.11562347,0.43880704,0.119478785,0.27515855,0.1681357,0.38498506,-0.013848519,0.044232022,-0.009788226,-0.22182783,-0.14973298,-0.0049262624,-0.101976536,-0.34852064,0.027549595,-0.18497771,0.026370741,-0.039793544,-0.064289995,-0.03759867,-0.26178786,0.14348085,0.03107801,0.16786966,0.16292258,-0.33251098,0.26425546,-0.023601057,-0.35545534,-0.035239197,-0.099861644,-0.10677214,0.13661319,0.018343642,-0.3904078,-0.0026975279,0.2162892,-0.2235139],[0.109146506,-0.22171217,0.1419425,0.3549457,0.08994903,0.07532598,0.17645021,0.060344435,0.38052097,0.34158915,0.21359259,0.29937956,-0.18814841,0.013774895,0.0075116064,-0.05469076,0.20058335,0.16236287,0.32943138,0.30510044,-0.121747054,-0.13780008,0.32432228,0.25818864,-0.13226603,0.3113782,0.1429686,-0.007186122,0.3824488,0.046149965,0.20899165,0.0052444544,0.11083017,-0.24593836,0.05295842,0.16955401,-0.045915063,0.020722752,-0.020027932,-0.0159928,0.23072073,-0.14325288,-0.24555653,0.051112443,-0.37394777,0.22022156,0.020264376,0.023829054,0.25386307,-0.08634005,0.050086338,-0.16596846,0.18262734,-0.21091084,-0.066701695,0.108067445,-0.3131318,0.17256968,0.1406292,0.107752904],[-0.08983089,-0.13262078,-0.143052,-0.12353798,0.16773656,0.043774653,-0.17232718,-0.04456853,0.21881932,-0.060175743,-0.012598855,0.31868854,-0.11861944,0.29765537,-0.18684365,-0.09609668,0.09331263,0.29745442,-0.08309727,-0.0099395225,-0.24305199,-0.20219025,-0.010615202,0.10645246,-0.10233954,0.1680879,-0.03938702,0.17079017,0.2397766,-0.19257855,0.18633786,0.59920204,0.18424061,0.21131907,0.10801913,0.3679395,0.3811282,-0.19634958,0.07093889,0.30189228,-0.019847073,0.1324462,0.22080702,0.1550734,0.13740344,0.06242755,0.27297068,0.39166856,0.16529673,0.31026882,0.5277568,0.60883456,0.21791275,0.080780946,0.18910861,0.109894626,0.2722972,0.19069567,-0.09675006,0.06248301],[-0.07349789,0.0681856,-0.10328893,-0.02263168,0.35339132,-0.15502335,-0.11463055,-0.007424217,0.114674054,-0.039887965,0.20275863,-0.05666224,0.062147535,0.38085368,0.07025153,0.19027144,-0.075052544,0.16943844,0.40141007,0.26356626,0.0048825927,-0.10500902,0.12785316,0.3568734,0.0027743797,0.045219768,0.21832229,0.16227616,-0.044952087,0.0891565,0.28347677,0.010646641,0.14162275,0.10409287,-0.1368282,-0.016317215,-0.006016856,0.05099675,-0.1820373,-0.06566119,0.2570749,-0.07410131,0.10744534,0.07605437,0.23650149,-0.101944655,-0.18361399,-0.18858044,-0.039641686,-0.11688622,0.040843386,0.26075932,0.32731813,0.2742415,-0.17578863,0.18433408,0.017967269,-0.19632223,-0.19462873,0.2456038]]],"bias":[[0.36662486,-0.11293624,0.17867808,0.38322183,0.10490962,-0.06874639,-0.0013847756,0.037109576,0.2042737,-0.114459604,0.035198092,0.4342559,0.30749232,0.19964312,-0.05883835,0.13463466,0.11467984,0.0801689,0.16493331,0.13132228],[-0.061048202,-0.025326453,-0.11504882,-0.090620115,0.034613427,-0.05994361,-0.12956418,-0.029402204,0.17955276,0.22015934,-0.16320142,-0.15840599,0.1268912,-0.13912378,-0.0903217,-0.1224172,0.10742146,-0.071651235,-0.031072598,-0.1179709],[0.0037726376,-0.20537053,0.37043884,-0.13843736,0.27117822,-0.3320512,-0.13430588,0.37818712,0.2551897,0.2191064,0.12247714,0.11167958,-0.22914629,0.08674908,-0.053184576,0.14152734,0.07468356,-0.3995936,0.17245694,-0.23655123,-0.29882333,-0.30350456,0.36063308,-0.14725779,0.13134137,0.22863816,-0.25547358,-0.30112725,0.40712672,0.06399522,0.039479163,-0.2730293,0.120327845,-0.2858414,0.17043734,-0.12032216,-0.0046697985,0.26063094,0.012539385,0.17691326,0.20488568,-0.048254833,-0.027967095,0.063520014,-0.14879312,0.019009203,0.0898614,-0.22678222,0.14222407,-0.04059193,-0.19045119,-0.15248325,0.16000682,-0.07022617,-0.029993199,0.13989906,-0.13189161,-0.07696345,0.16394788,0.09614525]],"Losses":[1.069875888655009,0.8770265443950441,0.7304304037786299,0.6161334561588159,0.5199505992196234,0.437363808190023,0.3714444428124773,0.3242199892969765,0.2934179399485111,0.2751707026818016,0.2655395838772881,0.2604031558929894,0.25690428617920136,0.2538133321403908,0.2508082647944932,0.24795847019603662,0.24546699191206842,0.2435225921165363,0.2420695910179285,0.24068237971021128,0.2388362063592665,0.2363087123154857,0.23323535278668978,0.22988390269480286,0.22652284704766135,0.22343875414939685,0.22088466673396087,0.21893538245565292,0.21748476133333128,0.21642452686477384,0.2157107502570364,0.21526109775555174,0.2149190151992441,0.21453680408826933,0.2140287331810504,0.21335191260670922,0.21249104566600022,0.21147265376584098,0.21035626757026027,0.20919948330138613,0.20803933014374737,0.20689825893373945,0.20579505943392037,0.20473789709881124,0.20371208827636728,0.20269509864422547,0.20168436397720205,0.20068717987676443,0.1996975387778349,0.19871056383038657,0.19773257570712674,0.1967551113733519,0.1957545440002181,0.19472215896959957,0.19365982120920813,0.1925609025487087,0.19141906397786657,0.1902359064076141,0.18901590696937343,0.18776811613167882,0.18650866143906042,0.1852531615131229,0.1840036164619994,0.1827510052863536,0.18149005811858773,0.18021704417736636,0.1789293286659209,0.17763180436892181,0.17633069668382176,0.1750304624655349,0.17373499475382215,0.17245016717092188,0.17118021486194426,0.16992806015502823,0.16869863826074522,0.167494589624812,0.1663184683914715,0.16517429550571222,0.1640668335296436,0.16299992398497687,0.16197826567656828,0.16100338699427647,0.1600742148931038,0.1591892944733426,0.15834625914003683,0.15754214134652728,0.15677365610445468,0.15603614914005606,0.15532377897211008,0.15463150332316777,0.15395458715476767,0.15328816979686008,0.1526278792401791,0.1519695338639841,0.15130970305952313,0.1506457413056131,0.14997508028223128,0.1492958810680922,0.14860723316494545,0.14790889442950134,0.14720137514262482,0.1464853270021843,0.14576151226969333,0.1450309890030416,0.14429476238663094,0.14355377266348343,0.14280865294572745,0.14205954066347068,0.1413061654099016,0.1405477299945841,0.13978298049467572,0.13901021022084895,0.13822699979303266,0.1374305194272347,0.13661751830141428,0.13578443279427937,0.13492720698035648,0.13404123711136762,0.13312161872381761,0.13216282753412834,0.1311592663715071,0.13010463934796568,0.12899472121194225,0.1278287325144701,0.12663788212452573,0.12557202195008552,0.12509107424396926,0.12518085607684884,0.12215920826739915,0.11974377725372706,0.11968806339003316,0.11731003515575122,0.11502706679656696,0.11436514320206709,0.1120538491333436,0.10989728152882129,0.1088860286219643,0.10673287663446598,0.10461488844310138,0.10341837379842553,0.1017088981493498,0.099648031118475,0.09823122324584817,0.09705497336881964,0.09548013953028435,0.09377550123381778,0.09249383499504496,0.09145987431845998,0.09023871822686517,0.0888094498165951,0.0874238801243525,0.08632966615075378,0.08544414229554596,0.0845554666636864,0.08361095418223496,0.08260828818742941,0.08166189063950399,0.08081549782238161,0.0801162120216428,0.07956170974196056,0.07911114457689102,0.0787444822580357,0.07844093914750278,0.07823354353858797,0.07793426836830936,0.07752519803713626,0.07690027788148115,0.07632314745247867,0.07585937548444352,0.0755488043122043,0.07538965320390226,0.0753234162075478,0.07526510250712014,0.07506552119564161,0.07477908736203961,0.07442142802775005,0.07410717446582774,0.07385211618651545,0.07368067740120168,0.07359479527812507,0.07356744685768198,0.07356058676407544,0.07350674841745743,0.07341231207606391,0.07325287989775604,0.07309102467806702,0.07292502855141232,0.07277839844827892,0.0726509113302595,0.07255513521123078,0.07249507497320476,0.07246667090705265,0.07246153517511783,0.07246553217204459,0.07247860270616331,0.07247998063292252,0.07248496154197107,0.07246027676636464,0.07243389990438975,0.07236837649106552,0.07229896690877768,0.07219666912265087,0.0720937963275495,0.07198270144551334,0.07188878435454275,0.07181822206251622,0.07177715162713619,0.07176287989746917,0.07176957603535754,0.07179479097659662,0.07183241556760217,0.07189404693764082,0.07196456714364016,0.07207367178510252,0.07215983703885048,0.07225412963112386,0.07220663556777196,0.0720896282881533,0.07187341635048872,0.07173764405721748,0.0717501566301233,0.07184560253278854,0.07191427680484809,0.07177005741604131,0.0715448856816261,0.07137504690566827,0.07137146245784433,0.0714739647296679,0.07153023406223775,0.0714556488625583,0.07126368422827495,0.07112223738234755,0.07111498862779786,0.07119754265338081,0.07126239091569722,0.07122722170726518,0.07113154823562119,0.07106034142912385,0.07107041076093516,0.07114461074383793,0.07120718920346615,0.07124136270585155,0.07123189073346912,0.07126065992744199,0.07131017206317641,0.07139107090572602,0.0713884116185532,0.07128119961234049,0.07106296443303513,0.07084504887640039,0.07070136702792379,0.07065524854915813,0.07067180883761541,0.07071047000511708,0.07074754868166018,0.07078161356548954,0.07082490973769302,0.07085388516782315,0.07087117924555932,0.07081939032443334,0.07073116939973441,0.07060127492823905,0.07048622499708367,0.07040134214127726,0.07035407856726653,0.0703319493168439,0.07031814391618402,0.07030317968542196,0.07028314174775935,0.07026513930600874,0.07025639896990502,0.07027230244662475,0.07032640016778206,0.0704502157651804,0.07066900416557596,0.07102206994320691,0.07141801534593893,0.07168982299407484,0.07144845676905809,0.07084280476702244,0.07020572262187676,0.06995543391227484,0.07010649176964436,0.0704358121759745,0.07064540712070795,0.07053063196540744,0.07022131358737006,0.06993410326468898,0.06984908688451864,0.06993095372909727,0.07005200958284843,0.07009073740997615,0.07001533697420348,0.06989538622927857,0.0697849070940251,0.06972730016797911,0.0697026393203635,0.06969238352497541,0.06967669488492848,0.0696612215282706,0.06965520466868684,0.06965275051942366,0.06965156651727274,0.069624356787202,0.06957713975047827,0.0695028187762744,0.06942503688747653,0.06935389214418591,0.0693014585208489,0.06926882456937856,0.06925223180423859,0.069245743314557,0.06924362609270857,0.06924381077192739,0.06924413576129859,0.06925128919517771,0.06926892993378696,0.06932240669846464,0.06943354850747507,0.06968763336972496,0.07012835557045596,0.0708903580130579,0.07156047359704165,0.07174672350081035,0.07084491326430868,0.06971998526899643,0.06923481179388129,0.0695025410902739,0.07007760139516032,0.07013843703746102,0.06965650557647156,0.06912197108703891,0.06904527061183682,0.06934387096793955,0.06950663252166403,0.06933048760302873,0.06896528532464151,0.06880654826544705,0.06892735196836686,0.06907853972974076,0.06905306481586009,0.06882953770387211,0.0686472921459876,0.06863606735340447,0.06873589415281993,0.0688001747035529,0.06871862647707705,0.06856498940755892,0.06844827645480919,0.0684377954418559,0.06850029767865355,0.06854667407972433,0.06852481358457958,0.06842737477419435,0.06831789508838955,0.06824726523371623,0.06823441730586208,0.06825967022871311,0.0682862215740315,0.06828888224634093,0.06825471456280055,0.06820042147786104,0.06814265283421102,0.06810296847391382,0.0680912438996809,0.0681134679141789,0.06817855790537111,0.06830486924914408,0.06854545288620108,0.06895609451875931,0.06960990921663239,0.07031332413510744,0.07060076677676817,0.06996775314972624,0.0688060960307964,0.06796423277952968,0.06784871381152528,0.06833017903218852,0.06894174563684606,0.06912789689061208,0.06867412289421193,0.06803467432923731,0.06770565510739641,0.06781127503606774,0.06812784580037648,0.06833605397463066,0.06825388559850641,0.06798113529106276,0.06775649351706771,0.06769114317904858,0.06774882184300535,0.06779874035565694,0.0677725612355254,0.06767443699564997,0.06758893111716933,0.06757498171817189,0.06762425310154797,0.06768918291907287,0.0676932202283005,0.0676287497666193,0.06750527468325954,0.06739130892187448,0.0673229052652128,0.06731077224041651,0.06733408246751535,0.06736208787865446,0.06737510638124992,0.06736447646330405,0.06734825281779915,0.06735149979916898,0.06741116569538065,0.06757650914196403,0.06788503535232035,0.06840198447552977,0.06896857511871199,0.06943251217385096,0.06919956561512075,0.068523763774957,0.06770562105825059,0.06722930816384395,0.06715611985846137,0.06732607450506647,0.06755612824113773,0.06765394265251318,0.06764669656843156,0.06756325553668872,0.0675077525649575,0.06747588231621399,0.06737035973687952,0.06718731717306492,0.06694468567704258,0.06677389426937533,0.06674051240476485,0.06684028873619084,0.06700766917887538,0.06714460691493189,0.06720932561076332,0.06717993283511438,0.06713593792612493,0.06712973503208211,0.06717003424376893,0.0672342057419121,0.06722866753978228,0.0671592384920805,0.06701333954475817,0.06687986567652932,0.066787319604141,0.06675198543791978,0.06674860467701227,0.06673801759478651,0.06671110643399988,0.066664433922267,0.06663277713220159,0.0666404375395356,0.0667069896291037,0.06684543987636696,0.06703775042880884,0.06729249176089487,0.06753181572735618,0.06774587257877165,0.06778888021195778,0.06766523782294298,0.06735238121738353,0.06695506767177714,0.06658226100051773,0.06629936275673805,0.06614141198440256,0.06610108300967647,0.06615981972879696,0.06629391798718148,0.06647958396964065,0.06668896527249629,0.0668845478513944,0.06702340286479803,0.06706987539272967,0.0669970469681122,0.06684115936052433,0.06661903564866196,0.06640152304107978,0.06620078814315594,0.0660468728595135,0.06593416188408167,0.06586212272567848,0.06582282959791379,0.0658108530731975,0.06582285300018867,0.06585944260305618,0.06592816890449837,0.06604199706800132,0.06623221181103893,0.06652242501735058,0.06695730249395639,0.06746402413760276,0.0679263228022164,0.06800074291112028,0.06761412055047855,0.06690068338156953,0.06621827337323138,0.06578213396543683],"R2":0.3761836549275983}