{"architecture":[["Dense",[4,20]],["Dense",[20,20]],["Dense",[20,60]]],"weights":[[[2.94497,1.2132242,-2.2725585,1.8985763,2.5332198,1.9958858,4.678244,1.1473873,2.2313085,-0.927313,-0.9665473,2.455132,-0.8066597,0.9446044,1.7711014,2.2092586,3.5193398,-4.670525,4.757647,2.6060567],[-2.3276143,-0.05924533,1.2601923,0.6915124,-2.0101995,0.9842374,-2.2942894,1.3672289,1.7546046,0.72636,-1.6796675,-4.3627,-0.1296555,-0.37318552,-2.9985137,-0.8319463,-3.3105004,-2.1837149,4.2195826,3.5266998],[-0.44612598,2.431588,-0.76902956,0.61975217,0.32008076,0.36647123,8.4224615,1.6944973,1.1187743,-0.48037204,-1.0940938,4.203938,-1.4065174,-2.359762,0.80312026,-4.886888,-0.08776996,4.3391867,-6.746556,1.6961993],[-1.0146275,0.40278092,2.274637,1.2197319,0.0559778,0.22508056,3.1862295,1.9384787,1.8467708,0.32565373,-1.1330777,0.15298253,0.31350312,-0.8101534,-0.7175599,0.4394112,-0.5365941,-1.0312986,1.3588308,0.6969358]],[[0.061009075,0.09773415,-0.16563195,0.24046072,-0.09428137,-0.23584132,-0.23887347,-0.024899622,-0.66075355,-0.39066246,0.045584474,0.2879887,-0.49749336,0.23781914,-0.45216852,-0.007701616,-0.4564871,0.2909702,0.19351415,-0.2925662],[-0.03645658,-0.09404281,-0.066217035,0.20069848,0.13479033,-0.30761585,-0.13635927,0.1055237,0.37826633,-0.06302181,0.13006361,0.22603707,-0.29418644,0.011697649,-0.19545631,-0.24507271,0.096533515,-0.11301383,-0.11096115,-0.05566646],[0.25981867,0.34242654,0.16081406,0.5663732,0.31760815,-0.32743174,0.06812595,0.123140045,-0.7646126,0.7498816,-0.26196468,-0.51279676,0.33936426,0.59308946,0.16463295,0.41506538,0.8254015,0.22922641,-0.48840493,-0.5403109],[-0.428233,0.5187351,-0.33064938,0.23453598,-0.18893293,-0.21400404,0.049760506,-0.019759467,0.22140689,-0.19600496,-0.034613915,0.21076271,0.1854391,-0.2601291,-0.050007503,0.36765143,-0.028427059,-0.05263191,-0.073884465,0.1509303],[-0.39551386,0.5644062,-0.15028498,-0.07255823,-0.60949653,-0.51579314,-0.24666558,0.25514784,-0.4085229,0.107598074,-0.35056388,0.3051603,0.04585985,-0.36386752,-0.18877368,-0.5267199,-0.2059462,0.35155597,-0.18723041,-0.20433336],[-0.39231342,0.11938549,-0.4716196,0.2820426,-0.095385075,0.28548422,-0.036902487,-0.496539,0.14812452,0.16860534,0.017293898,-0.26954612,-0.30150595,-0.18237475,-0.29862893,-0.30935985,0.059771292,0.1382286,0.18794325,0.13274425],[-0.52867424,0.59885913,-0.88421726,-0.07557531,-0.32636145,-0.36083642,0.12498782,-0.2355627,1.0426925,-0.20045213,-0.36065972,-0.045535628,-0.14688995,-0.97808677,-0.33414218,-1.0806053,-0.40516388,0.4216472,-0.18141761,-0.45161617],[-0.09795344,0.29518253,-0.17675404,0.38904434,0.22854124,-0.37469858,-0.18649222,0.12490292,0.34787098,-0.010364581,0.19691592,-0.17691788,0.02338606,-0.32330984,0.41080612,-0.026180012,0.21912886,-0.33409134,-0.053610377,0.21863858],[-0.32596713,0.560019,-0.22542349,-0.21678205,-0.26890665,0.08843484,0.093714565,-0.14068313,0.55675054,0.512834,-0.34389257,0.3046601,-0.2540944,-0.44809684,0.21853815,0.52005684,-0.010464134,-0.0034523155,0.16093752,0.21394606],[-0.15430833,-0.08760913,0.76141775,0.14283079,-0.28014988,0.08119971,0.2800785,-0.36336106,-0.29499245,0.35081825,-0.23062816,-0.5228379,-0.022172889,0.36130238,0.41103074,0.90710264,0.36045063,-0.30165473,-0.018263945,0.2607137],[-0.005613027,-0.7528986,0.53159845,-0.19654964,0.063006274,-0.06641686,-0.1975386,-0.09281993,-0.9623922,0.10381292,-0.4549365,-0.41198072,0.17358461,0.19164476,0.29694986,1.1317551,0.26720008,-0.41531268,-0.3023321,-0.06136472],[-0.49075392,0.20228775,-0.59318525,-0.025137989,-0.23938206,-0.16539045,0.67164874,0.12466213,-0.37229672,-0.58080447,-0.32805833,0.06812708,-0.07965783,0.017231945,-0.2949205,-0.96331406,-0.9148302,0.023849307,-0.17952499,-0.4344921],[-0.043529402,-0.28017458,1.220811,0.047209434,-0.2762941,0.38094267,0.38889417,0.058591943,-0.9223291,0.07055264,-0.34883776,0.20628554,0.23603137,0.6605623,-0.0055266554,1.4821814,0.1713181,-0.59516925,0.18541428,0.13597658],[-0.054588787,-0.28431314,0.341097,-0.4931622,-0.23034139,0.007815343,-0.27032158,-0.52987194,-0.8229615,0.14351878,0.05005624,-0.18263325,-0.48366624,-0.06597465,0.06750322,0.36301965,-0.26855078,-0.061630152,-0.32502553,0.15261553],[-0.05014013,-0.32561323,-0.56882477,-0.477057,-0.42750633,-0.16351876,0.39826813,0.081871375,-0.61084473,-0.10227839,-0.05405447,-0.041410454,-0.2076831,-0.07813879,-0.45139143,-0.1811718,-0.3808924,0.35082176,-0.054655463,-0.5058449],[-0.036458876,-0.6478721,0.6169498,-0.17551276,0.16412735,-0.5796248,-0.5282949,0.04413614,-0.6684444,-0.58797157,-0.47392404,0.4401751,-0.23991267,-0.036891356,-0.27677208,0.4553397,-0.4687614,0.073419616,0.012933735,-0.06562394],[-0.33906272,0.1309176,-0.5580885,0.16397771,-0.604395,-0.0389083,-0.3241232,-0.04584954,-0.93503964,-0.2145261,0.13778156,0.35965,-0.22136399,-0.25500914,-0.26525474,-0.5271307,-0.45634955,0.7332803,-0.5468578,-0.27541944],[-0.3316134,-1.3409133,-1.3530501,-0.8802471,-0.3190996,-0.1819406,-0.17461371,0.20377403,-0.5440946,-0.5075553,-0.08046873,-0.49100497,-0.3024395,-0.14320469,-0.6833854,-0.7467228,0.29906473,-0.5413745,-0.5525184,0.053499155],[-0.02075566,-1.0189253,-0.21706563,-1.3862598,-0.20021637,0.15471713,-0.100440666,0.090376675,0.6560489,-1.7270744,0.26130456,0.4248975,-0.98957384,-1.3086109,-1.3423402,-1.383379,-1.787936,0.024901228,-0.11630472,0.10693483],[0.19029608,0.006045861,-0.502658,-0.120990254,-0.18209259,0.062795475,0.39621043,-0.30868253,0.92348325,-0.09685322,-0.13144727,-0.09133245,0.13105014,-0.0763754,0.380847,-0.27438426,0.67421037,-0.2161217,-0.2473155,0.056882378]],[[-0.020357905,0.1667363,0.2664578,0.33502054,0.019596726,0.07047197,-0.1232157,0.043982014,0.29325536,0.13610946,0.15744412,0.18172637,0.035222065,0.007904517,-0.19992732,-0.10862192,0.07174752,0.24447002,0.17356288,0.0796733,0.26278675,0.34973592,-0.0050820177,0.075157575,0.31339237,0.06891011,-0.05757321,0.17542231,0.16721271,0.107834876,-0.15326442,-0.16807947,-0.15424976,0.13495533,-0.18295361,0.1161057,0.014299845,0.14949529,0.044136625,0.32882464,0.285459,-0.1575407,0.3032283,0.24887972,-0.081901126,0.24003121,-0.009260108,-0.23177752,-0.48390812,0.19484809,0.14211755,0.049944,0.13662602,0.02553095,-0.17370266,0.06003978,0.39375824,0.019453837,0.07203457,0.08971434],[0.29077274,-0.16098842,0.36466047,0.38567543,0.46693778,-0.11512294,0.44470993,-0.00040470497,0.31749803,0.4854877,0.2591864,0.4010052,0.11945444,0.5380217,0.32979998,0.43496752,0.14358537,0.51047987,0.26164806,0.27876553,0.23002186,0.33997217,-0.12178309,0.13141534,0.014945,0.40950587,0.2522734,0.30196506,0.2890824,0.4983324,0.074948765,-0.14300272,0.5296169,0.32271177,0.4355265,-0.016621035,0.48737606,-0.062492747,0.071426116,0.035538428,-0.0378181,0.06902996,-0.09855075,0.1869273,0.54287404,0.23844747,-0.01775286,0.46175566,0.50186366,0.04012261,0.032985132,-0.04965875,-0.10170137,-0.089415774,-0.08843582,0.46860304,-0.10896476,-0.057633314,-0.196261,0.49733612],[-0.4105268,-0.102184914,-0.28619623,-0.32531002,-0.27734187,-0.04073938,-0.3395714,-0.23668793,-0.387185,-0.3887358,-0.4350866,-0.3633989,-0.27178302,-0.43612772,-0.2061116,-0.36273965,-0.20006244,-0.3223429,-0.21984726,-0.3267326,-0.39845654,-0.36878708,0.008408837,-0.37606233,-0.091113426,-0.2929953,-0.34606296,-0.41495165,-0.4187448,-0.210159,0.06344754,0.010487816,-0.532387,-0.26011202,-0.3323996,-0.00051837333,-0.4529681,-0.024490984,0.049210034,-0.14252038,0.032989446,-0.016653406,0.003425789,-0.01311814,-0.5663558,-0.18101427,0.029148903,-0.37700462,-0.4013809,0.066820875,0.032061804,0.031039292,0.0057432675,0.004010253,0.07698613,-0.4215787,0.046752594,-0.018488016,-0.005015518,-0.5338298],[0.15762526,0.2476479,0.16326745,-0.00777904,0.10878775,0.1115535,-0.066475384,0.28727785,0.10067079,0.2425293,0.24403465,-0.01604985,0.035596255,-0.013741709,0.16629215,-0.041473195,0.09095855,0.28405306,0.08774855,0.29113516,0.12881126,0.021886311,0.40978828,-0.015916262,0.24371013,-0.089223504,0.08276647,0.053301767,0.019465214,-0.04798891,0.14767489,0.09059312,0.3365549,0.503421,0.3984191,0.1186774,0.23880368,0.08866609,-0.13847324,0.3303398,0.04530762,-0.05723708,-0.1164186,0.023644393,0.45528314,0.49429038,-0.15359406,0.6121598,0.5528306,0.080532014,-0.048763942,-0.22541963,-0.103656046,-0.11736677,0.04469801,0.5306201,0.11641809,-0.106202506,0.15552194,0.43905097],[0.21964854,0.25568932,-0.23694983,-0.071611576,0.2879807,0.041777663,0.27353036,0.23582864,0.18646832,-0.13720831,0.010057137,0.0072092433,0.14606903,0.09683594,-0.0778374,0.3572589,-0.07411779,0.23980936,-0.071927235,-0.07421419,0.17198293,-0.067653075,0.106780306,0.32640597,-0.041305777,0.20095877,0.28069335,-0.30590174,0.24688229,-0.04235458,-0.0754741,0.12439568,-0.08285203,-0.03237532,0.16658106,-0.06734481,0.005209312,-0.10557209,0.17426439,0.40545484,0.29989234,0.10374658,0.27500093,0.16982745,0.086972326,0.2986248,0.16941434,0.031124432,-0.4715863,0.16657905,0.16944733,-0.0036415022,0.09453377,0.27309176,-0.0020214457,-0.051783197,-0.024767522,-0.100937545,0.05394717,-0.27251354],[0.31108648,0.051926572,0.021698361,-0.10987163,-0.080059014,-0.019759892,-0.01295497,0.06579204,0.39984152,0.2228276,0.4297328,-0.012706829,0.009490485,0.08993672,-0.013768453,-0.08949435,0.2913083,-0.3342174,0.057393264,0.2864057,-0.062226344,0.4255284,0.05577581,-0.13094139,-0.07165387,0.05489526,0.033105686,0.2410718,0.015041943,-0.13960904,0.14848393,-0.098565705,0.13865642,-0.18358308,-0.19452229,0.008059963,0.007909186,0.22408421,0.11609479,-0.1311552,0.13208847,0.33144984,0.11116667,0.1916012,0.19475521,-0.16659491,0.33249387,-0.036352154,-0.29763398,0.11872929,0.14635453,0.10953524,0.112310655,-0.024239238,-0.09806766,-0.19045766,0.13416465,0.1340061,0.24534647,-0.20331863],[0.31328076,0.1758728,0.08309484,0.070227206,0.13328497,0.12441598,0.07743827,0.28694224,0.15174907,0.17313695,0.25029132,0.13118769,0.33074844,0.17966935,0.1906496,0.10557989,0.2736058,0.091231994,0.20332979,0.1687833,0.28745013,0.27177572,0.19832245,0.39055425,0.0828466,0.17772196,0.3274263,0.28671685,0.3751953,0.08850844,0.09719845,0.2520977,-0.17426799,-0.26411444,-0.39035976,0.064673975,-0.35639778,0.34719273,-0.08350547,-0.0962625,0.10042951,-0.034858055,0.3635693,-0.15502827,-0.28234065,-0.24460317,0.17909758,-0.3750655,-0.39297706,0.005479375,0.14818273,0.12034726,0.1554777,0.2316242,0.23912822,-0.4041623,0.12282907,0.19382706,0.29702216,-0.32157072],[-0.120944686,0.11565946,0.16985826,-0.29364806,0.045449425,0.43393338,-0.15161777,0.059320785,-0.22378638,-0.16624771,-0.19102949,-0.1920113,0.14903638,-0.25493932,0.05771487,-0.055356182,0.13920693,-0.027210541,-0.2429659,-0.19608642,0.28479123,0.061399158,0.050128788,0.19180451,0.18384197,-0.23212436,0.1410168,0.1911841,0.41467226,-0.07796937,0.30409464,0.18285492,0.050498724,-0.20033574,0.018003065,0.19527191,0.21586551,0.26746458,0.2629774,-0.054291066,0.03289742,0.254449,0.06636247,0.036747288,-0.37472096,0.15952946,0.23676024,-0.24327087,-0.34124836,0.11696633,0.39669564,0.32044977,0.1792123,0.06126978,0.24566753,-0.18738057,0.031512067,0.10080979,0.04002584,-0.23141244],[-0.019614164,0.16644815,0.09495476,0.009658371,-0.021767473,0.10813224,-0.018508324,0.09266942,0.014359907,-0.13511781,0.029482255,-0.0533114,0.03656222,-0.19967662,0.07416623,-0.037813045,0.13594504,-0.07204613,0.13037883,0.027710827,0.02014278,-0.02974996,0.06544952,0.06634058,0.05560484,-0.0053153327,0.0017800324,-0.011926422,-0.055406403,-0.062449347,-0.30102718,0.052428268,-1.0450513,-0.7542692,-0.86222756,0.0019018602,-0.8887678,-0.063154586,-0.31026208,-0.39562237,-0.23838937,-0.3335803,-0.08472491,-0.48300818,-1.0919658,-0.6029216,-0.20524448,-0.9670445,-1.0749801,-0.31348717,-0.18182978,-0.16518517,0.077934735,-0.10255409,-0.009049268,-0.93777746,-0.095346406,-0.13525909,-0.018055739,-1.0479709],[-0.13446292,-0.120893195,-0.09240364,0.116703294,0.10256078,0.20097092,0.03962459,-0.058104318,0.2472592,-0.15414867,-0.11990751,0.25616542,0.16551892,0.14369425,0.002353361,0.18908925,0.07323987,-0.30922475,0.1758077,-0.16652845,-0.11487185,0.1778333,0.045453575,0.17729351,0.03410051,0.2283817,0.04399346,-0.091929786,-0.13804278,0.17224911,-0.011692221,-0.08531225,0.5098867,0.20534992,0.6722587,-0.04179229,0.23050134,-0.11565823,0.2850356,0.27421117,0.20188057,0.47520196,0.18594599,0.40876555,0.43296912,0.33578756,0.14877862,0.43761548,0.7307669,-0.068057254,0.27336904,0.1635353,0.22578439,0.1853924,0.11279678,0.3259863,0.19302872,-0.086618684,0.15930666,0.60723007],[0.26869506,0.21619019,-0.036059987,0.20258974,-0.034231026,0.44584432,-0.18163472,0.29393518,0.28363407,0.067882724,-0.09714344,0.08599103,0.1335442,0.12516265,0.14505674,0.27825764,-0.05511719,0.18835844,0.089636095,-0.050527133,0.21170844,0.28911978,-0.08369334,0.19177583,-0.0849552,0.14049698,0.39703774,0.27331913,0.1844721,-0.108694434,0.028311718,-0.1119841,0.24245231,0.2028022,-0.11411116,0.030218653,-0.12505499,0.22539122,0.07144033,-0.118512735,0.15283021,0.15757126,-0.09407406,0.064225145,-0.10402842,-0.14646477,0.33030453,-0.09577156,-0.21577951,0.17860472,0.3169293,0.21084835,0.14216542,0.038726002,-0.10164457,0.19878648,0.15237673,0.23705426,-0.17477036,0.09728085],[-0.074809365,0.014355235,-0.013448558,0.019593898,0.034118965,0.085702136,0.053136222,-0.0887982,-0.13094077,0.08831198,-0.13101062,-0.03969243,-0.107695185,0.014818965,0.1596591,0.078797996,0.06193515,0.09862881,0.13549446,0.038559407,-0.21405105,0.004476992,0.24037966,-0.13720106,-0.025050707,0.118708506,-0.028587708,-0.17270237,-0.02750016,0.14341536,0.075600155,-0.019939426,0.48756906,0.45327282,0.41401994,0.0775801,0.31334144,0.0009237027,0.058159657,0.11154982,0.12684819,0.11731484,0.058100864,0.2576421,0.40120414,0.3979401,0.1278953,0.5181783,0.52713114,0.099963024,0.048469294,0.060574908,-0.008099334,-0.030585332,-0.029207785,0.4303336,-0.0024587645,0.06516994,-0.020134445,0.47073025],[0.097787015,0.14204349,-0.052474838,0.34555328,-0.06384892,-0.086171955,0.21764237,0.16733909,-0.02213264,-0.05508628,0.06942733,-0.011333763,0.18520625,-0.1915534,0.076281145,-0.26043883,-0.059589326,-0.13651927,-0.061392877,0.1670301,0.14177729,0.030183626,0.1602097,0.020328939,0.0076647736,-0.068304546,0.04780639,0.2239559,-0.11773311,-0.02716868,-0.18723707,0.18951763,0.067686036,0.35181478,0.11060046,0.036146466,0.042317126,0.21955319,0.24004234,0.25531217,0.08742741,0.11053516,0.26504657,0.3593616,0.3084503,0.090403445,0.15525216,0.088925004,0.47360954,0.18899135,0.25403732,0.3626208,-0.048550516,0.24625154,-0.07623758,0.52181387,0.08794902,0.44263285,-0.02511864,0.025205608],[-0.11288521,0.0502204,0.1425483,0.18600215,0.14777823,0.13709237,0.28152975,0.039350074,6.318971e-5,0.13882343,0.049693517,-0.06119323,-0.17305146,0.21084023,0.34123492,0.17742759,0.17388226,0.25141716,0.2627195,0.170541,-0.23127772,-0.1311281,0.16892068,-0.059425782,0.09054056,0.2513761,-0.046972122,-0.1742419,-0.055077907,0.25867912,0.28904244,0.11833045,0.07869714,0.33732998,0.2976044,0.016667007,0.22160281,0.18895765,0.39795676,0.018678017,0.18895124,0.23819767,0.20783018,0.35659766,0.3939605,0.26651642,0.38861343,0.38141474,0.5082865,0.38718265,0.3515627,0.13830657,-0.12562348,0.31827343,0.13772961,0.2731346,0.16004857,0.11973589,0.29484668,0.32500646],[0.14771228,0.05507662,0.025529867,0.42735958,-0.014562439,-0.0038491553,0.10794996,-0.13076764,0.059474383,0.41287497,0.32772726,0.37008497,0.12511775,0.17470858,0.1485984,0.39065915,0.33650082,-0.15387087,0.027519591,0.37931448,0.055345222,0.13392211,0.016448688,0.22375433,0.13535243,-0.009865585,0.28055233,0.116169475,0.1400103,0.0001788279,-0.023770913,0.31034172,0.21697372,0.17584711,0.17124589,0.13960524,0.3328603,-0.06231572,0.4139052,0.022026079,0.05254185,0.030363433,0.14916019,-0.016103419,0.1645917,0.05725444,0.48343393,0.35034007,0.5314645,0.3795631,0.07505501,0.2802066,0.078337766,0.13789845,0.20131679,0.1842678,0.026363058,0.08902744,0.041246004,0.4672456],[0.354234,0.04536818,0.36702546,0.33539572,0.3729626,-0.019045336,0.34666213,0.16191621,0.3091599,0.36599103,0.33243585,0.34129247,0.2399875,0.35285372,0.33359912,0.34848595,0.20871885,0.37970304,0.35180226,0.27889135,0.31144765,0.326715,-0.001239485,0.28068084,0.047892094,0.36534843,0.29688355,0.33328494,0.30117813,0.3436184,-0.08528331,-0.01087102,0.12679467,-0.01589429,-0.011244482,-0.00043081533,0.035570323,-0.011865155,-0.15687145,-0.0066198483,-0.073975295,-0.087772004,-0.033808425,-0.119753085,0.06866913,-0.045572955,-0.10678197,0.004210198,-0.011047885,-0.1348633,-0.1066384,-0.07596753,0.019816836,-0.0726406,-0.03704047,0.02348561,-0.073090285,-0.024604512,-0.053149693,0.06291065],[-0.42805982,-0.08304054,-0.27446994,-0.25897273,-0.31258878,-0.058853615,-0.16380028,-0.3598125,-0.41607267,-0.2282355,-0.41547966,-0.38897485,-0.6081992,-0.31150785,-0.30232552,-0.16266504,-0.36066094,-0.09458034,-0.26099044,-0.2180187,-0.5913257,-0.4629091,-0.08788836,-0.6503935,-0.24092832,-0.26608354,-0.5340063,-0.54561716,-0.48433623,-0.30628204,0.38882974,-0.13020228,0.5372946,0.77539593,0.65109843,-0.041804917,0.7158543,0.037745237,0.3455781,0.5150015,0.41891158,0.42582223,-0.029539274,0.5866994,0.5370857,0.73347336,0.20952779,0.7305893,0.55051965,0.43037704,0.09765055,0.32061347,-0.11584993,0.103839494,-0.08502009,0.7549032,0.28207102,0.3776793,0.13432784,0.5961764],[-0.01185943,0.21897915,0.023058137,0.2096489,-0.052002143,0.17326011,0.12085671,0.07746853,0.11817898,-0.02580728,0.16119666,0.07494497,-0.03863347,-0.057302978,-0.03275225,0.1700967,0.009728772,-0.15503477,0.06184807,0.120638706,-0.058753878,-0.07039405,0.01655639,0.057065498,0.0453718,-0.018830037,-0.05187052,-0.041895624,-0.15819865,-0.20746137,0.09746185,0.067539096,0.22969425,0.38573974,0.4290758,-0.027544746,0.40567887,-0.0033937683,0.3785285,0.5586698,0.3423027,0.44440243,0.049985114,0.34723642,0.3075768,0.43285087,0.22105186,0.36346078,0.4248969,0.2764289,0.11057402,0.3714055,0.06379445,0.22911537,-0.0057491446,0.43600118,0.32101464,0.2880377,0.30242294,0.42297557],[0.16477033,0.28895512,-0.24281687,0.16015986,-0.040901083,0.37307194,0.29223844,0.32503277,0.42888382,0.06675541,0.008449637,0.02810013,0.21693064,0.34074372,-0.11834111,0.21846904,-0.02499696,0.11987408,-0.16105075,0.20579398,-0.11734374,0.110257156,-0.08415161,0.09298966,0.17563175,0.053053427,0.14863926,0.018980915,-0.12333289,-0.077323005,0.03698707,-0.034023978,0.23757616,-0.3067211,0.019280896,-0.2685656,-0.059048217,0.34285074,0.07792701,0.14198627,-0.06385774,-0.22210051,0.07581058,0.31888175,0.0373589,-0.07003486,-0.040506102,-0.106210575,0.122057326,0.102287345,0.39482185,0.18952745,0.16353002,0.3312549,0.20795713,0.39945567,0.3260381,-0.15891159,-0.11299061,-0.16019808],[0.08553398,0.16387326,-0.16464564,0.033556957,-0.14605257,0.30500895,0.03851888,0.33511144,0.12405374,0.050698537,0.3185009,0.13449703,0.22803436,0.25740072,-0.15916684,0.07299957,0.07535183,-0.22519551,-0.32823122,0.1691195,0.31968972,-0.0021685674,0.16027777,0.45345467,0.2472945,-0.24894495,0.21329197,0.30085495,0.3308944,-0.3324468,0.044199504,0.20368367,-0.2591462,-0.07265449,0.08604199,0.045148015,0.041064892,0.10188888,0.19680162,-0.13207822,-0.10596981,0.16051202,0.011437905,-0.07511031,0.061793905,-0.040434327,0.060210958,-0.057676036,0.31840062,-0.01311446,0.19926211,0.018157536,-0.13385852,0.21723033,0.100318044,-0.056624006,-0.05437208,0.015705837,0.24782188,0.08462638]]],"bias":[[0.012053994,-0.36061046,0.5588104,-0.064653635,-0.089407526,-0.3956089,-1.1249945,-0.36228615,0.0068051587,0.6417598,1.9386034,0.014716416,0.8176619,0.44319797,0.34966293,0.39947549,0.04230738,0.36964178,-0.5249007,-0.52639157],[-0.15825492,-0.08853944,0.13386047,-0.020045538,-0.13733365,-0.024803067,0.09420144,-0.048977435,-0.25566238,0.086492345,-0.115561694,-0.13851413,-0.13527352,0.03636924,0.04895837,0.44084734,0.28279793,-0.12383549,-0.055854663,-0.048483156],[0.043883916,0.49720493,-0.1076505,-0.16891392,-0.13397004,0.4638969,-0.19259258,0.33994886,0.09711786,-0.18458849,-0.030673914,0.035565194,0.27972844,-0.07581824,-0.28865167,-0.2602149,0.09240691,-0.06875871,-0.22301689,-0.030497199,0.27354324,0.021012124,0.48563826,0.068553165,0.6279152,-0.18072128,0.035664443,0.13818741,0.07515645,-0.014526262,0.15024732,0.15779763,-0.27905405,-0.06941676,-0.08061999,0.33886468,-0.05624433,-0.0081340205,0.1211478,0.010304294,0.029530613,-0.040421482,0.0068785376,0.049371965,-0.09388783,-0.12205609,-0.05569499,-0.08175569,-0.18703578,0.13741854,0.0036043455,-0.031074062,0.28150344,0.05283631,0.20574972,-0.091110505,0.10170293,-0.0076445625,-0.038471203,-0.18488622]],"Losses":[1.029043343723977,0.8504071921942219,0.7090542588913854,0.596571616129756,0.5052975668483299,0.43129566662956753,0.3753560259862125,0.33801230452022923,0.31521140753222315,0.3007000069178853,0.2901469466479441,0.282713029027409,0.2787439592524002,0.2772999833493992,0.2763480518729134,0.27431654943657346,0.2708386669876979,0.2665220228447508,0.26234606067448424,0.2590963856907957,0.2570273387157436,0.25589033368802067,0.25523330685422446,0.2546509966226399,0.25386059417777945,0.2527129400678207,0.2512117326636339,0.24950151441787385,0.24778791451739648,0.24623094973851853,0.24489455351021822,0.2437805638038956,0.24287988541778469,0.2421824603466592,0.2416658822626668,0.24129755991983096,0.2410435615130866,0.24086351780726908,0.24070198198404089,0.24050273712512818,0.24023861873559818,0.23992067257892027,0.23957732443937044,0.2392306435965221,0.23889100404118327,0.2385626301433695,0.23824518815325613,0.23793287205274025,0.23761890285784357,0.23730337170732627,0.2369957437287708,0.23670933119586243,0.23645293337149764,0.23622458745232744,0.23600982996162137,0.23578806164676436,0.23554634468745908,0.2352888297984437,0.23503098954570148,0.23478526977553557,0.2345536114674932,0.23433049576284623,0.23410854547685986,0.2338819891541914,0.2336489789576028,0.23341181013431905,0.23317376704966705,0.23293610638602957,0.23269827117106265,0.23245894405958656,0.2322160064910651,0.23196748698863828,0.23171373763814296,0.2314575465525677,0.23120129736394485,0.23094470422863836,0.23068563086239638,0.2304224090382595,0.23015506850816572,0.22988491454617488,0.2296130892794434,0.22933938486044372,0.22906258188830614,0.22878174855103237,0.2284967642909646,0.22820802255375622,0.2279162133663155,0.22762189102867594,0.22732477883218555,0.22702381055480078,0.2267180446090594,0.22640733076710523,0.22609219209915407,0.22577341744414767,0.22545164668499368,0.22512703304826537,0.2247992837816193,0.22446805993257996,0.22413324548521724,0.22379495796046664,0.22345342629464388,0.22310885030589475,0.22276136460760418,0.2224111176820902,0.22205828829758206,0.22170305770208856,0.2213456803111842,0.2209864824381125,0.22062573389450954,0.22026364172665036,0.21990049457212762,0.21953668020063402,0.2191726042417112,0.21880865244801875,0.21844518509355967,0.2180825791309461,0.21772124130925402,0.21736160266682125,0.21700408230401388,0.2166490602457586,0.21629683442120223,0.21594763111635903,0.21560165513070775,0.21525908541411498,0.214920102352124,0.2145848631607534,0.21425346330272552,0.21392592671183155,0.21360223160105116,0.21328234202818794,0.2129662062834202,0.21265375555347535,0.21234489890489433,0.21203954137842038,0.21173760198630381,0.21143901734603093,0.21114374683866816,0.2108517747775307,0.21056311036682102,0.2102777843770027,0.20999585744587485,0.20971741859563636,0.20944258717850123,0.2091714994545671,0.20890429997155785,0.20864114870855716,0.2083822061214014,0.2081276266815632,0.20787756746649158,0.2076321669230983,0.20739156459881866,0.20715588316792594,0.20692523305910132,0.20669970777927085,0.20647938393870718,0.2062643148297667,0.20605453669230986,0.20585006818630508,0.2056509007543407,0.2054569992708772,0.20526830594374085,0.20508473761823773,0.20490618481915351,0.20473251231567363,0.20456356703755346,0.20439916998911511,0.20423913231441315,0.2040832463725529,0.20393129864006518,0.2037830686158776,0.20363834132521877,0.20349689786168945,0.20335853157573536,0.20322304393668758,0.20309024658722244,0.20295996559154633,0.202832043672035,0.2027063265796662,0.20258267779025407,0.20246097510469743,0.20234110282682682,0.2022229513568841,0.20210642414229746,0.2019914265625124,0.201877874298907,0.2017656868591245,0.20165478785815885,0.20154510326001576,0.20143657181125255,0.20132912644086495,0.2012227091019154,0.2011172652017989,0.20101274215996803,0.2009090908752554,0.20080626743873956,0.2007042272316124,0.20060292922581877,0.20050233679551235,0.2004024147926814,0.2003031294049417,0.20020444754747982,0.2001063424765923,0.20000878392074448,0.19991174847058876,0.19981521251042814,0.1997191532442301,0.1996235518353103,0.19952838842972606,0.19943364805424307,0.19933931191389745,0.1992453710944142,0.19915180680943978,0.19905861164678385,0.1989657716934387,0.19887327897593665,0.19878112253298671,0.19868929354894962,0.1985977847169979,0.198506584400912,0.1984156893022159,0.19832508737513468,0.19823477355465877,0.19814473762689033,0.19805497472829334,0.19796547535365489,0.19787623324013304,0.19778723770923076,0.19769848240568355,0.1976099580458421,0.1975216562780555,0.1974335700988262,0.1973456885825403,0.197258002512374,0.19717050317066545,0.19708318119776042,0.19699602771490238,0.1969090322003477,0.19682218448770217,0.1967354744105096,0.19664889255557783,0.19656242694479736,0.1964760705447738,0.19638980858455626,0.1963036320330676,0.19621753016294846,0.19613149237579863,0.19604550290581654,0.1959595559945602,0.19587363573325886,0.19578773257842916,0.19570183306232727,0.19561592494514785,0.19552999594271114,0.1954440335197108,0.19535802721240803,0.19527195999662816,0.19518582373462928,0.19509960185219793,0.19501328451535627,0.19492685693722703,0.1948403065359967,0.1947536190208695,0.1946667842108522,0.1945797858788171,0.19449261290482198,0.19440524891385275,0.19431768387814238,0.19422990211636498,0.19414188915805555,0.19405363292082423,0.19396511635956404,0.19387632920836054,0.19378725292055934,0.19369787600170485,0.1936081795501498,0.19351815131965425,0.19342777744365713,0.19333703553174678,0.19324591506409317,0.19315439840302126,0.19306246633328578,0.1929701042425445,0.1928772937260354,0.1927840154380409,0.19269025228276007,0.1925959847781529,0.1925011934015377,0.1924058588189906,0.19230996022356728,0.19221347673711878,0.19211638642204404,0.19201866871703527,0.19192030085936762,0.1918212583828114,0.1917215215547108,0.19162106302911636,0.19151985856657713,0.19141788469617238,0.1913151168142411,0.1912115261932722,0.19110708764936266,0.1910017752538455,0.19089556050624762,0.19078841406229155,0.1906803099914333,0.19057121851045422,0.19046111072372074,0.19034995576586453,0.19023772673810715,0.1901243983867768,0.19000995658232042,0.18989443675065795,0.18977804799418968,0.18966165433745064,0.18954861439152212,0.18945146292253634,0.1894084219574877,0.1895301568933957,0.18996413574093382,0.1906911926960808,0.19006956958199248,0.18885688088961217,0.18888544651507325,0.18946733658669407,0.1888956470376481,0.18827592459506945,0.1887242271170909,0.18861423928334345,0.18792328383168996,0.18815877197661604,0.18818174949377645,0.1875913256101403,0.1876784109373746,0.18772816488756824,0.18723792505012612,0.1872366676825836,0.18727513605756374,0.18687056249054307,0.1868078803499608,0.18682553593242468,0.18649573430351074,0.1863769467911928,0.1863770710332278,0.1861098528402548,0.18594537840580522,0.18592109731929254,0.1857130178625827,0.18551351706491961,0.18545310675612736,0.18529918868129278,0.18508424272070623,0.18497467938524972,0.18485733688086148,0.18465747360464424,0.18449392836719564,0.1843814447272373,0.1842173008063961,0.18402415413585216,0.18387733299739673,0.183739621965718,0.18355870744840974,0.18337326729073913,0.1832182451741491,0.18306269087973273,0.182879797943756,0.18269081295834194,0.1825197360795345,0.18235340396892466,0.18217091190117843,0.1819763617489697,0.18178672353688927,0.1816054674123386,0.18142230005049892,0.18122860038789385,0.18102738301727533,0.18082578731054794,0.18062765802018468,0.1804306179151612,0.18023057709675383,0.18002520531535005,0.17981488197241893,0.17960124028134575,0.17938573986050738,0.1791690726235039,0.17895137425998106,0.17873241227391037,0.1785121249855594,0.17829058404008805,0.17806856196717066,0.17784768883160793,0.17763244213933826,0.1774330910740286,0.17727811528601753,0.17723386436333483,0.1774651454922208,0.1781235622616606,0.17898043907066533,0.17824472441890948,0.17634987838731575,0.17574950320125918,0.17668907536981177,0.17660730831238072,0.17519107533043918,0.17505525825423046,0.17567395531498023,0.1749654839699677,0.17414961281412264,0.17447022611093446,0.17441710485460835,0.17363159658679525,0.17347663482544684,0.17365615673551674,0.17318801656614102,0.17269955607498383,0.17276872605179516,0.1726449741511294,0.17213114934472942,0.17191518979489578,0.17192820760916225,0.1716412549638869,0.17124572935257648,0.17111386437360054,0.17103868779490564,0.17076319845294768,0.17047147949577932,0.17040965353676743,0.17047480732633608,0.17058886586402913,0.1705665076699977,0.17037602590034176,0.16959528325327322,0.16908305427105275,0.16917190642589686,0.16922336412031355,0.16879965880001616,0.16827296166589753,0.16825635527575242,0.1683169801656785,0.1678900257752291,0.16748127883399688,0.16746058590079232,0.1674173667194639,0.16707282745766067,0.16672701159137432,0.16665866771592514,0.16659986448294814,0.1663069719974776,0.16601683787935964,0.16589975632615148,0.16579777703505494,0.16556944671657894,0.16530181973978816,0.1651428336507852,0.16504549883654013,0.16488170820736656,0.1646542058255705,0.16444889415721992,0.16431049177191484,0.16419298793214257,0.16403702786389843,0.1638547116958179,0.16369245219392584,0.16359589138490893,0.16358734535651048,0.1636788713150845,0.16395368657351625,0.1643752047920042,0.16484257557163928,0.16460772657919256,0.16356587284454926,0.16244652519782946,0.16224419583538893,0.16278458159153675,0.1630200295817604,0.1624479468941981,0.16166474047233362,0.16155838260468064,0.16191561598217086,0.1618999982392089,0.16138267035300896,0.16097079607882914,0.1610327596080676,0.16117000591215822,0.1609447433724086,0.16054444774376384,0.16038182259560543,0.1604554025866595,0.16043551266095632,0.16018748097875568,0.15993173901616284,0.15985951636831214,0.1598840773098289,0.15982549776735952,0.15965937727469098,0.15955670722631585,0.15963727003369488,0.15992437812463314,0.16018865594382625,0.16033322094999952,0.15985424832654332,0.15928160349391862,0.1589892265547047,0.15902589280651663,0.15903175562123026,0.1588306345035736,0.158690018409006,0.15866626085776886,0.1585747181225018,0.1583076196266367,0.1580897662637077,0.15811510322476954,0.15820877186202595,0.1581042739953715,0.15781774162693024,0.15761659978587128,0.1576129712745289,0.1576575694601247,0.15758564402874012,0.15741862220467356,0.15728921990470854,0.15723541412513883,0.15718802983336272,0.15708453479800052,0.15696235368927292,0.15688441933549352,0.15685579309720063,0.15682658095194213,0.15674808823694336,0.15663826167924816,0.1565353705980626,0.15646524196039707,0.15641190726558055,0.15634761504018466,0.15626268477611802,0.1561709008635164,0.1560909447693858,0.15602828032962313,0.15597369068262634,0.1559146515663216,0.15584501627665034,0.15576888622331275,0.15569374955115942,0.1556253641074765,0.1555641603536208,0.15550693904236298,0.15545032188969546,0.15539382314314604,0.15534237789365635,0.1553104502771886,0.15533136645544762,0.1554919392222,0.15596898423462946,0.157171950475851,0.15896618896763481,0.16048931282687237,0.15811465958115808,0.15532267089331575,0.15522703371735705,0.1569164100714431,0.15712312995333594,0.15524716928727153,0.15489374738462947,0.15597596449299495,0.15572757691094646,0.15472688466575166,0.15475157292148187,0.1552360660603829,0.15492581987591098,0.15436107060427032,0.15454083624905487,0.15476158981518237,0.15434403287998832,0.15410146137194783,0.15432704948436735,0.15428365362564453,0.15394243375914302,0.15390811568403495,0.1540559490954144,0.15389189177157678,0.15366086197351422,0.1537333419752522,0.15377613768265502,0.15355930836272783,0.15345522114431256,0.15354126253504038,0.15347828475103364,0.1532986417621577,0.15327519687258745,0.15331377841051655,0.15321249501070522,0.15308855562108564,0.15308650749051247,0.15308215169471992,0.15298024298199478,0.15289659880207826,0.1528860817729701,0.1528547023210465,0.1527721176208378,0.15270782793699078,0.15267998323966103,0.15263915629702127,0.15257439176824866,0.1525186178848311,0.15247678080006505,0.15243046663821885,0.15237855535376965,0.15232892144448126,0.15227964157916327,0.15222816406540512,0.15218040753200274,0.15213664110122965,0.1520880168956694,0.1520333088112982,0.15198232617290294,0.15193912378678243,0.1518953143084587,0.15184407487066298,0.15179036521509942,0.15174164540613652,0.1516971960779836,0.15165109966678791,0.15160132186055209,0.1515509503970413,0.15150224777209517,0.15145438901411176,0.1514062007084152,0.1513579879880906,0.15131033331853624,0.15126251270887794,0.1512135176066003,0.151163708071174,0.15111436498639266,0.15106615211319707,0.15101845972271777,0.15097035225204578,0.15092162036637444,0.1508727048667508,0.15082395183001948,0.1507752117756291,0.15072615811007656,0.15067675414175427,0.15062725141261,0.1505778977990652,0.15052869742782493,0.15047944602552352,0.15042999992798475,0.15038036423514303,0.15033066546513177,0.15028098411958554,0.15023130831604053,0.1501815526416928,0.15013166440532458,0.1500816725104374,0.15003168746073978,0.14998189055751743,0.14993262038192004,0.14988454870464235,0.14983929500619111,0.1498007299777848,0.14977810881095963,0.149794973158422,0.14990428479687107,0.15024137556570002,0.15100445343501998,0.15249091587456012,0.15366061826800007,0.1533734266499647,0.15086695492256608,0.14966857169052156,0.15041351677173068,0.1509948418497678,0.15048155158460824,0.14986239510221783,0.14989687046233585,0.14978558354612745,0.1495690274980006,0.1497658297507875,0.14958555664257567,0.14904532661612266,0.14913273584227882,0.14945722699205008,0.1490957078544918,0.14866294185550613,0.14891021983153122,0.14907345513641282,0.14866791655415235,0.14848151326844564,0.1486961564800245,0.14864571842884003,0.14836808840972454,0.14835041584617636,0.1484203561657481,0.14828498961498307,0.14816623177687438,0.14818350992934207,0.14812730158314869,0.14800533027787696,0.1479776836267987,0.14796968458088422,0.14786945058053313,0.14777361736028463,0.14776763855633485,0.14774759099478388,0.14764449637634663,0.14755911051937848,0.147543937670677,0.14751723806297115,0.14743425242129726,0.1473531454286313,0.14731666218214337,0.14728584671001027,0.14722257180764617,0.1471485223060984,0.1470948239628928,0.14705499031168554,0.14700397358566597,0.14693849783862814,0.14687703734166271,0.14682760073350334,0.14677951664051306,0.14672250486917437,0.1466599398412703,0.1466013939981058,0.14654917347853444,0.1464977998790476,0.14644181771327638,0.14638113344709822,0.14632012499425276,0.14626234283198425,0.14620768063884462,0.1461534422653572,0.1460971155706643,0.14603812769031593,0.14597728443669275,0.14591600472508734,0.14585541003788086,0.1457958650549978,0.1457370943642559,0.14567863404272033,0.14562017563680138,0.14556178160395086,0.14550382481459745,0.14544707694544542,0.14539324561359673,0.1453453576826107,0.14531041574490214,0.1453017133390963,0.14535138625424535,0.14551222374775086,0.14588855111752774,0.14648204709681015,0.147105652762049,0.14696711892277328,0.14595009877570672,0.14491191286293584,0.1448011950133164,0.14539785923573606,0.14568914699255928,0.14513899516619108,0.14450696305738836,0.14454681979147851,0.14490653538213144,0.14487216738833045,0.14441038481072715,0.1441384132566079,0.1442808014202802,0.14444187528123192,0.14427356364438615,0.1439349922938516,0.14381898289823117,0.14393655680690476,0.143972486416513,0.1437897092603479,0.1435728355132339,0.14351464061896085,0.14356294648094095,0.14354825269420965,0.14341208246652132,0.14324825956512122,0.14316840570667227,0.14316551487732537,0.1431509309202963,0.143073457066888,0.14295452632466327,0.14284828304926345,0.14278416263714622,0.14275046246539655,0.14271384240518187,0.14264853990258142,0.14255706805681612,0.14245859628331056,0.14237215267329018,0.1423047311139222,0.1422545850715044,0.1422159632983657,0.14218632066638504,0.14217366876749815,0.14220762351484842,0.1423393456001673,0.14269197936881342,0.14334269904601346,0.14440459520286192,0.14494186942228124,0.14440333843747707,0.14254359120924573,0.14146938626975367,0.14193120625807,0.1428863858801345,0.1428905384095311,0.14175137706770838,0.14112895746145,0.14157825408173708,0.14207006786895,0.14174273805302784,0.14102687995626317,0.14092542074638897,0.14130365375337223,0.14132469275369308,0.1408929112162661,0.1405993334245807,0.14074110884319183,0.14090333258907997,0.14069413946243678,0.14036994722025958,0.1402938945339169,0.14041626149115236,0.14042725280674573,0.1402218160875219,0.14002596368199857,0.14000099592040527,0.14005678576948616,0.1400249033073629,0.13987826616964652,0.13975056210626075,0.13972775021084233,0.13976669984400952,0.1397881435914827,0.13978301628376283,0.1398781986604198,0.14020631231026434,0.14092391276109914,0.141860105115404,0.1425126766526956,0.1417513014382814,0.1402138579285958,0.13920236547112075,0.13948047300054606,0.14025553348141262,0.14030133187034965,0.13958339018258495,0.13898710133723177,0.13911926750773765,0.13947222565239578,0.1393682616317265,0.13893559259216476,0.13870373589578242,0.1388306861511322,0.13893539123042714,0.13875765357576186,0.1384981321430402,0.13842351449336068,0.13850796593831338,0.13851245722342068,0.1383526228383203,0.13817595799178578,0.13812295104093805,0.1381670284619758,0.1381727457052398,0.1380743948171004,0.13792812160464132,0.13782812743978096,0.13780967595578333,0.13782817625605873,0.1378189329447104,0.13775060972437392,0.13764281184948762,0.1375398047442751,0.13747268226869358,0.1374454940358836,0.13744065552460683,0.1374358161185808,0.13741577098961974,0.13737616186939713,0.13732224506381951,0.1372623288131388,0.1372034409163308,0.13715040415765345,0.1371036166710484,0.1370653146024197,0.1370365889276746,0.1370263692726194,0.13704654653870926,0.137128161580287,0.13731512215883412,0.13769303422923426,0.13832130704019596,0.13916141038840923,0.13970686760042134,0.13930768487154838,0.13793408384201974,0.13670742984913659,0.13650860551270358,0.13718201279283576,0.13781812924284642,0.1376309614819429,0.13682178015638544,0.13627689754150502,0.13643260091397988,0.1368781019717357,0.13696702370253722,0.13655206029701442,0.13611941050637769,0.1360805828961732,0.1363265560355873,0.13646364525180169,0.13627427397958433,0.13596184890404275,0.13581492594276717,0.1358948530694957,0.13602690667478456,0.1360172466888625,0.13585514018503714,0.1356665679195444,0.13557903319807554,0.13560288607812704,0.13565863605727482,0.13566300532286246,0.1355872888923557,0.13546848862483887,0.13535986897655128,0.13529577061590048,0.13527656048982598,0.13528133181489801,0.13528618170616227,0.13527477439998462,0.13524370975000466,0.13519615663412643,0.13514095425389258,0.13508651006987152,0.13503963975952818,0.13500817306685226,0.13499884507247759,0.1350279140163022,0.1351148718171479,0.13530741409356298,0.13564031527386922,0.1361849173347033,0.13677979012664737,0.13725579737358093,0.13695086742090967,0.1361157012898176,0.13517567075232267,0.1348871002508583,0.13534597073241286,0.13601543529361423,0.13630000812763207,0.13572021185974176,0.13500597553481378,0.13473835700969958,0.1350082439649282,0.1352878434191871,0.13502703329541454,0.1344599831455981,0.13408003242017802,0.13413449028149543,0.13436630302486352,0.13438313913411978,0.1341419324172669,0.13388445059084303,0.13385129523851308,0.13400905901152854,0.1341441427110294,0.13414638550656613,0.13406831687405293,0.13413145759510758,0.1344295578691846,0.13492871053980962,0.13545629406104964,0.13577453240210166,0.1356807794100124,0.13522268639925944,0.13443655603306928,0.13375897743744844,0.13338470316495624,0.13342595445347594,0.13376104887843984,0.13409112330833273,0.13415664314805556,0.1337949541065198,0.13331242596123516,0.13299643575672962,0.13299555452687278,0.13320310560115928,0.13338588375839158,0.13339767136067857,0.13319880992622268,0.13294477461152623,0.1327600151426908,0.13270029864536223],"R2":0.6831355489533573}