{"architecture":[["Dense",[4,20]],["Dense",[20,20]],["Dense",[20,20]],["Dense",[20,20]],["Dense",[20,20]]],"Node_Indices":[129,131,10,91,110,92,16,9,64,25],"weights":[[[-1.7167286,-0.6930855,-1.1803579,-1.5847524,-1.4043683,1.2918639,-0.86523724,2.464207,2.666778,2.4308007,-0.35272437,-1.3197114,-1.490257,-0.45444497,2.246364,1.9538858,-1.1324935,-1.6349638,-1.5070912,3.8482924],[0.12156253,-0.3132632,-0.088687904,0.74186784,0.677885,-0.40395567,-0.026101993,-0.14471321,-0.38500327,-0.15871204,1.1049227,0.011467165,0.15227921,0.16875687,0.3606007,-0.0070441794,0.59691447,0.2271201,0.5360457,1.0693736],[1.4778227,0.46001905,-0.8257315,3.4524689,-2.5167449,3.3706584,2.1571002,-0.21978615,-0.44734585,-1.3360336,-1.3638554,-0.5311513,-2.1764874,4.460192,0.3145556,-1.6031762,0.52538615,-0.7767467,2.494349,-1.6848216],[0.34835118,-0.37178358,0.56393147,0.48758137,-0.42970666,-1.1615933,0.39564204,0.035928074,-0.5055658,0.14791569,0.22677697,0.7485156,0.15237337,-1.198441,-0.034549516,-0.118353486,0.09743272,1.0114803,0.28418663,0.74603134]],[[-0.42453438,-0.38375226,0.11975097,0.18718192,-0.37021694,-0.25670224,-0.49794382,-0.21643592,0.42260697,-0.2615015,0.34714872,0.086293474,-0.33964497,-0.09722989,0.17357725,-0.401437,0.038963456,0.50201815,-0.45701692,0.47368908],[-0.29963395,0.18664956,0.011713109,-0.334199,0.06440387,-0.22350964,0.051795248,0.37509504,0.31884712,-0.19910873,-0.15978947,0.014008862,0.32548937,0.20985767,0.22632833,0.21490966,0.26635525,0.26148126,-0.42900404,0.026669806],[-0.45403972,-0.4697222,-0.32593784,-0.08846996,0.065878086,-0.1623652,0.007960737,0.022824021,-0.4685338,-0.2117939,0.20072348,-0.35375988,0.22341844,-0.1782648,-0.047258373,-0.0875182,-0.190901,0.34258384,0.16858922,0.5485328],[-0.10437847,-0.464196,-0.024588203,-0.50739753,-0.6008863,-0.36001116,-0.59904456,-0.17979416,0.36834398,-0.2888759,-0.07736835,-0.4556412,0.16635014,0.54347754,0.1286244,-0.29702407,-0.080159895,0.032452915,-0.017879702,0.72468746],[-0.35207492,0.106463164,-0.21701987,-0.343413,-0.27854642,-0.27165973,0.85544604,0.39553767,-0.29548597,-0.12828307,-0.24834324,-0.3112603,0.34463423,-0.77218753,-0.160083,-0.14015816,0.19150776,0.67311805,0.15363845,0.12813489],[0.525655,-0.41700235,0.08741717,-0.38458598,0.003927956,0.13132475,-0.3875773,-0.122589335,0.5079401,-0.38560128,0.2280024,-0.021356475,0.25533694,0.9969626,-0.11449919,-0.23987713,0.18288851,0.085010506,-0.41825166,-0.25783506],[0.20050448,-0.31217495,0.06807293,0.21245947,-0.42913273,-0.18093404,-0.30133197,-0.10941425,0.124036096,-0.21842456,-0.17718169,0.02099722,-0.08746534,0.19853753,-0.35266453,-0.18876247,0.21751998,-0.04864523,-0.20001513,0.5058359],[0.6327597,-0.21627674,-0.4203244,-0.08464083,0.43291005,-0.42615744,0.6740968,-0.102599934,0.008097172,-0.3994501,0.04150262,0.19599542,-0.10268198,0.06594886,-0.23390888,0.572454,-0.20883588,-0.12661137,0.29992518,-0.23769781],[0.42400503,-0.3751592,0.1430308,-0.042535402,0.85173655,-0.4536382,0.6244925,-0.25320554,-0.24161583,-0.34283572,-0.12138213,-0.04266883,-0.25359786,0.24827322,0.21596183,0.59100485,-0.1365032,-0.2867619,0.12388235,0.25464472],[0.22571905,-0.0060245083,-0.19894235,-0.28574932,0.86906165,-0.51192135,1.0965184,0.20493592,-0.3098397,-0.15076822,-0.11734768,-0.39703012,-0.029496253,-0.23547651,-0.42708886,0.47626144,-0.052721296,0.2522412,-0.20962596,-0.19938077],[-0.085230865,-0.10025013,-0.18882465,-0.037103865,-0.2561684,-0.26780522,0.54804236,0.14501132,-0.3450825,-0.14801942,-0.13662265,-0.42079768,-0.20353295,-0.152606,-0.08946504,-0.13985814,-0.41314822,0.14931066,0.2807492,0.29886302],[0.16032667,-0.051193964,-0.16454008,0.03563906,-0.68124396,0.03083661,0.4058808,0.067026414,-0.071937434,-0.24439645,-0.29753473,-0.050888956,0.39510748,-0.21454985,0.04330735,-0.4216807,-0.21257663,0.52938384,0.15642595,0.4982249],[-0.5135627,-0.47293055,0.18313828,-0.5518533,-0.08356182,-0.417534,0.13265052,0.038804784,-0.2734359,-0.37048206,-0.23827842,-0.41722763,0.3719368,-0.63095737,0.14143361,0.4018284,-0.41946143,0.5450941,-0.07950285,0.6019101],[-0.035722706,-0.30927375,-0.38494933,0.08704293,-0.2544521,-0.37903804,-0.7994887,-0.20473571,0.6067256,-0.2760917,0.593566,0.1368512,0.34777647,0.86740685,-0.28101492,-0.3860448,-0.08794575,0.2355124,-0.025285589,0.35705236],[-0.04264212,-0.18834913,-0.5120294,-0.25600687,0.5981333,0.008056212,0.7214632,-0.29469904,0.35651705,-0.055061527,-0.26171714,0.1213762,-0.34526896,0.44855666,-0.08267797,0.29796997,-0.0482608,-0.33112967,-0.12259948,-0.41125184],[0.27367666,-0.058089767,-0.005538807,-0.07521081,0.61695045,0.21938063,1.0415505,0.19275104,-0.46118426,-0.42819554,0.17004423,-0.08469721,-0.3068418,-0.38543928,-0.0582885,0.33142644,0.3012667,0.15108301,0.30481568,0.11604571],[-0.41877037,-0.0774209,-0.034566768,-0.39417604,-0.33344713,-0.05902609,-0.07092725,0.42785308,0.1570133,-0.30478784,0.095663965,0.1683647,-0.37468103,0.01957147,-0.14634402,0.022460822,0.028623456,0.2680928,-0.014212056,0.48929283],[-0.17956258,-0.33812094,0.101650596,0.020685958,-0.2708942,-0.2551009,-0.3901952,0.4109233,0.13106692,0.09766063,-0.35565197,0.21993583,0.008104585,-0.41552466,-0.27776867,0.24732533,-0.4173923,0.80734324,-0.26767826,0.7222941],[-0.21537416,-0.3569316,-0.48205268,-0.039537944,-0.7422289,0.24795556,-0.38047993,-0.13690072,0.5351868,-0.36520523,-0.012481665,0.09229006,0.106491484,0.11741882,-0.0161385,-0.5096051,0.26161325,-0.020587401,0.01837615,0.71473014],[0.7481676,-0.41635305,-0.14038897,0.036310192,1.2382258,-0.4046811,1.5500443,-0.07410909,-0.3121795,0.26099077,-0.18698883,-0.23252381,-0.14922498,-0.3181158,-0.42439976,0.871662,-0.314793,-0.17807926,0.5481733,-0.1637648]],[[-0.032216564,0.0069576646,-0.24643539,-0.3797853,0.045391392,-0.40352052,-0.026618047,0.6557195,-0.2112195,0.23184465,0.1808367,0.86258674,0.053681772,-0.17337622,0.3155192,0.03102923,0.069966026,0.15042402,0.038315337,-0.15394261],[-0.10381506,-0.35051516,0.13372043,-0.4653362,0.21465918,0.34686753,0.35598892,0.0075769657,-0.01578073,-0.18103544,0.182923,0.14737783,0.12404937,0.12031396,-0.04491132,0.016450368,-0.28375664,-0.218251,-0.13528956,-0.062905975],[-0.14129476,0.22527017,0.2559474,0.10714152,0.101852186,0.094259314,-0.030898001,-0.4613735,-0.02129651,0.10805744,0.24249333,-0.08476026,0.034649506,-0.1948256,0.25474325,-0.2223322,0.2235638,0.39087996,-0.21776028,0.1239872],[0.19182304,-0.4318344,-0.2070845,0.031640124,0.17098947,0.33464393,-0.09282685,0.340104,-0.1028036,0.19499828,0.019640407,0.0050975317,0.040514458,0.05951695,0.12841372,0.026463984,-0.36479616,-0.05168242,-0.00036383228,0.022222098],[0.21140268,-0.135767,0.1769882,-0.3050743,-0.48773485,-0.08447746,-0.23928224,0.45472783,-0.28182158,-0.29116958,-0.21329346,0.47197014,0.118775144,-0.07022607,-0.5431506,-0.19778654,-0.3607898,0.23917629,-0.5721054,-0.107291505],[0.13787232,-0.131645,0.024154516,-0.19445461,0.17732272,-0.18022291,0.40547737,-0.18126637,-0.2475557,-0.30176675,-0.25512365,-0.25246716,0.21700601,0.041736897,0.4470336,-0.21702057,-0.010786736,0.44499573,0.13274293,0.19464895],[-0.317202,0.16973908,0.05255156,-0.3891662,-0.034516424,-0.37492824,-0.095877245,0.21462432,-0.23789111,0.056273967,-0.42177016,0.572007,-0.55347276,-0.3186518,-0.7719486,0.12710524,-0.32058087,-0.2794739,-0.93852055,-0.10309653],[0.0653019,-0.14976569,-0.2626392,0.11857525,-0.14648567,-0.11413517,-0.17854394,-0.19824176,-0.30325007,-0.026108062,-0.19132371,-0.537117,-0.2979534,-0.24369593,-0.34589678,-0.20284893,-0.029558629,0.17864892,-0.44184163,0.17806645],[-0.24603711,-0.31301516,0.03548973,0.16190253,0.056256946,0.046929207,0.102848135,-0.09828782,0.31448233,-0.090993166,-0.1458351,-0.399768,0.22156104,-0.07505418,0.65758914,-0.065329246,0.028593194,0.18939035,0.60109764,-0.26648912],[-0.14825891,-0.15364945,-0.50440145,-0.23007482,0.053729255,-0.005706757,0.20647326,-0.24816963,-0.18923031,0.14237224,0.035502765,-0.08136584,-0.07840165,-0.05009763,0.16902879,-0.071463495,-0.46565843,0.4173344,-0.21913835,0.100144245],[0.054451246,-0.3864298,0.19089271,0.20817563,-0.3805224,0.15110058,-0.09806831,0.044519793,0.12759818,-0.325416,0.17149751,0.10104388,0.24573553,-0.38195667,0.14653486,0.328781,-0.23314732,0.44526714,0.36429754,-0.046718795],[0.03189245,-0.4235561,0.14300065,-0.0059781084,-0.22503155,-0.21381538,0.31620172,0.1824928,0.14268194,-0.2883259,0.24589531,0.12566198,0.22526588,-0.05879353,-0.026666936,0.17649466,-0.35818127,-0.27868694,-0.04608907,0.082836874],[-0.064197086,-0.0139510045,0.016390456,-0.0148653025,-0.4924974,-0.01560545,-0.30780476,-0.37162775,0.0054609897,0.031779822,0.07961386,-0.39714116,0.24561857,-0.12969397,0.27858636,-0.16270486,0.37079647,0.023089524,-0.17292958,-0.31456995],[0.12613979,0.2911514,-0.007975575,-0.37836558,0.6649836,0.19226696,0.043138683,0.015866065,-0.1669603,-0.36525303,-0.47725105,0.13850853,0.3964835,-0.4063118,1.4854404,0.28198454,-0.25013053,-0.08583477,1.4082923,-0.056369893],[0.0098938495,-0.3926957,-0.0055229696,0.22361705,-0.009662803,-0.024389762,0.3379615,-0.41238075,0.058893714,0.09069293,-0.24987993,-0.4743841,0.08497983,-0.18335523,0.0075096735,-0.18746346,-0.1359829,0.22067212,-0.078540236,-0.27902612],[-0.084552,-0.21275178,-0.093191355,-0.40559778,-0.41768056,0.07227462,0.34633663,0.34878758,0.06413022,0.04989313,-0.32126436,0.3869852,-0.386154,0.040312987,-0.5768224,-0.3195914,-0.40601575,0.20214543,-0.61593956,0.09660359],[0.36886355,-0.45248196,0.23565373,0.13714275,-0.44878384,-0.21635336,-0.1863299,-0.24931186,-0.35428584,-0.040847663,-0.2332342,-0.10642033,-0.11407702,-0.10058043,0.46612766,0.021534592,-0.26738253,0.37091023,0.32381365,0.071574464],[-0.25837544,-0.09336426,-0.2788331,-0.25424978,-0.37787023,-0.17083444,-0.025616432,-0.7479983,-0.12105574,-0.17404298,-0.39801928,-0.86451465,-0.5514326,-0.23936142,-0.044542983,0.29726583,0.621983,0.20572752,0.28665388,-0.38141286],[-0.29866552,0.14427555,-0.1153085,-0.21594533,0.20320839,-0.14142759,0.043087162,0.17438802,0.26367614,-0.079862066,0.18649095,0.04112159,-0.19231443,0.030955987,0.032257512,0.10344719,0.09080732,-0.17140159,-0.5844728,-0.32762247],[-0.18760036,-0.5058627,0.15651381,-0.16547593,0.08640774,0.28376958,-0.11686074,-0.43541372,-0.3521729,-0.31020474,-0.32762578,-0.770654,0.18403625,-0.44532463,-0.09114733,0.2944534,-0.061785556,-0.1059301,0.3269422,-0.16468176]],[[-0.4546055,-0.51103896,-0.11026286,-0.116143055,0.19372694,-0.31918725,-0.00066743244,0.20209032,0.1618124,-0.043214798,-0.509335,-0.029985694,-0.14243169,-0.37512377,-0.0145980455,-0.02923916,-0.111749604,0.12182328,-0.11154703,-0.058086626],[0.18388996,0.16717601,0.13357829,-0.33117852,-0.15308838,-0.23268488,0.06557182,-0.11636671,-0.068940036,0.018047456,-0.3234943,-0.34403965,0.25487742,0.033243075,-0.29072627,-0.4720582,-0.21637757,-0.14755401,-0.21819311,0.19856626],[-0.33991796,-0.50684977,-0.6251876,-0.38041762,-0.2866702,-0.29208487,0.114012085,-0.13395004,0.3473121,0.43383887,-0.14496037,0.39899918,0.20254785,0.09550619,0.018144095,-0.059199736,0.0043015457,-0.14952357,0.022678072,0.20285684],[0.19113179,-0.18803357,-0.08794956,-0.2843444,-0.1438926,0.34592983,0.24517262,0.041845966,-0.18353418,-0.23781845,0.06399232,0.39919406,0.13665143,-0.07406833,-0.20266242,0.06478558,-0.012735269,0.08335431,-0.015590448,-0.46176365],[0.04631933,-0.47438017,-0.24170318,-0.0014158251,0.2082351,0.40443864,-0.008611176,0.5190415,0.2024012,0.41314626,0.046576243,-0.15439925,0.19227453,-0.3044361,-0.30012053,-0.16016747,-0.13203208,-0.16540359,-0.4666996,0.16069508],[-0.28428286,-0.34181887,-0.34142518,-0.39133838,0.23875093,-0.3717374,0.27208143,-0.2610505,-0.35849094,0.33481956,0.10753359,-0.21669988,-0.50145364,-0.2748824,-0.06468675,-0.3798604,-0.29086348,-0.02297515,0.15639794,-0.117200114],[-0.21769132,-0.47568262,-0.42612958,-0.48465252,-0.13922963,-0.209083,-0.26884094,-0.16790137,-0.35000166,0.052315906,0.1771189,0.21516012,-0.31517413,0.099466495,-0.3915067,0.12561184,0.25672662,0.2962989,-0.09889868,-0.0389291],[-0.4107548,-0.09131631,-0.13538426,-0.21705182,-0.31480384,-0.7708651,-0.35042953,0.51070863,-0.11077102,-0.25946856,-0.48574853,-0.027789382,0.1292725,-0.18094121,-0.046332125,-0.109222695,0.17333072,-0.26757976,-0.32713825,-0.3061611],[-0.0006075112,-0.032386333,0.11486604,-0.19353448,-0.27488437,-0.30494425,0.28897393,0.41651934,0.15283164,0.2573331,-0.4157333,-0.22568507,0.14065927,-0.2454449,-0.068165675,0.07367106,-0.21479125,0.10624707,-0.11781976,-0.25779545],[-0.054763805,0.23962587,-0.09209825,0.23266774,0.34737948,-0.2890768,0.051647395,0.2864658,-0.2858831,-0.09357938,-0.1938854,0.200842,0.23448057,0.03642875,0.18033959,0.20941296,0.0065379473,-0.43785807,-0.08775117,0.014683734],[0.11536638,-0.08878598,-0.06561287,-0.27213618,-0.14802678,0.40232688,-0.37701112,-0.18229887,-0.2051341,-0.25087342,-0.51918525,-0.25421298,0.23057324,-0.06739049,-0.08834846,0.11443039,-0.2383695,-0.26373696,0.2657833,-0.11403081],[-0.060759474,-0.520536,0.15368688,0.11011959,-0.28220573,-1.1715759,0.22718653,-0.11772813,-0.8795043,0.09267743,-0.11890468,-0.3281199,-0.25867006,-0.4901297,0.03186006,-0.41712433,0.020465694,-0.20907748,-0.32985258,-0.2517489],[0.2563171,0.25468493,-0.24429215,0.23106083,-0.28762248,-0.031271685,-0.44758025,0.1148133,-0.2300038,-0.037410438,0.039553247,0.23018728,0.13484666,-0.48551783,-0.50904554,-0.13305031,-0.31426838,-0.14718433,-0.10333083,0.114825085],[-0.4166966,0.23673311,0.19225156,0.13460514,0.017707275,0.049776196,0.17209944,0.36701787,0.16762,0.28363103,0.0405721,0.16127239,0.24951275,-0.30394915,-0.48291445,-0.028870111,0.13313648,-0.22153859,-0.28631893,-0.15263832],[-0.06351817,-0.31267413,-0.3124772,-0.27012804,-0.0707922,-0.17266108,0.019922113,0.24673101,-0.35792845,0.026190052,0.029194912,-0.20719844,-0.28329852,-0.68469185,-0.07773759,-0.13032304,-0.011026462,-0.07483681,-0.1598398,-0.27563846],[0.08465014,-0.60682786,-0.14451149,-0.45453247,-0.2309218,0.4948576,-0.24079272,-0.38036007,0.36679673,-0.09280605,-0.50425506,0.23173614,-0.24645357,0.6079907,-0.3811473,-0.41416332,-0.26096576,0.2037686,-0.22222081,0.13820185],[-0.0035226636,-0.44306785,-0.42048714,0.24887642,-0.31724128,-0.5640479,-0.15380245,-0.3773071,-0.015969109,0.040013097,-0.34112525,0.03659976,0.02520044,-0.11172754,0.08844319,-0.30064207,0.25232825,-0.13843931,0.21190274,-0.34506312],[0.049289014,-0.5012237,0.030921595,-0.32824817,0.062491614,-0.31616575,0.28617644,0.29682332,0.13946655,-0.23248963,-0.3163902,-0.06784876,-0.43591863,0.01398772,-0.33287033,-0.17247789,0.100844696,-0.27264214,0.22754793,0.19603972],[0.12010027,0.20470053,0.30747488,0.19101828,-0.033669308,-0.74835086,-0.0649543,-0.21079251,-0.373293,-0.023423519,-0.35996082,-0.2321743,0.079314135,-1.3406358,0.4613905,-0.38996035,0.395673,-0.0023462926,-0.08907919,-0.7115279],[0.2014169,-0.13302314,-0.20071441,-0.23112671,-0.04010956,0.30445662,0.20228334,-0.034333367,0.31624073,0.11917831,-0.27717462,0.2234835,0.2105706,-0.13757254,0.18585865,0.15568964,-0.42622924,-0.018272191,0.10956238,-0.36652833]],[[0.05529806,-0.34868848,0.05290598,0.0021159798,-0.1278891,-0.13563475,0.19977395,-0.020793628,0.108469784,0.35145435,-0.109780036,0.27833843,0.40344125,-0.30642608,0.37919948,-0.09492354,-0.08447446,-0.13465936,0.4122855,0.39684457],[0.27230626,-0.08330139,0.08062896,-0.3204358,0.072247855,0.021944273,-0.107667856,-0.20595868,0.23886289,-0.29136178,-0.22211272,0.18757737,0.06926881,-0.2411173,0.24543062,0.06753097,0.13020721,0.0921549,0.03341618,0.19907257],[0.36309233,0.21523958,0.12205403,0.08083716,-0.23397104,-0.1532104,0.15547039,0.2301525,0.198932,-0.30836418,-0.15414418,0.11297961,-0.21963774,0.27066106,-0.1756066,0.26426,0.34490493,-0.26579148,0.0028620209,0.08339721],[-0.060991935,-0.0013660499,-0.13993187,-0.058921095,-0.04989918,-0.27870786,-0.222874,0.029941155,0.0396178,0.2087393,-0.01396911,0.019976703,0.32884985,-0.34910953,0.18930855,0.15023129,-0.1464042,0.01986787,0.45792434,0.14122936],[0.3457307,0.2448075,0.2155581,-0.06568936,-0.14029185,-0.25892928,0.07634865,-0.14567119,0.23888353,-0.13918273,0.115832664,0.077518776,0.030772155,0.23948832,0.38345686,0.33225548,-0.22062151,-0.04011365,-0.16519304,0.36731043],[-0.09980414,-0.00640098,-0.123725034,0.025265183,0.0028057564,-0.046087846,-0.15065013,-0.06828843,-0.33972904,-0.42509648,0.6859957,0.6963141,0.08108376,0.7834071,-0.043401606,0.43163416,0.75226426,0.018362958,-0.057132926,0.27030787],[0.23401082,0.07416482,0.3362865,0.26119572,0.4756913,0.2177005,0.19999751,-0.04451141,-0.26962978,0.32485825,0.07764659,0.23322877,0.15387443,0.23092175,-0.12419522,-0.18457802,0.19038631,0.12562458,-0.2313992,-0.16636674],[-0.07158567,0.00135022,0.124180414,-0.066290796,0.05873404,-0.03361255,0.17562644,0.36320317,0.33886743,0.2674096,0.39873642,0.40799615,-0.06910452,0.100735724,0.3138061,0.2684072,0.38225368,0.0010271191,0.33169124,0.43160415],[0.24026643,0.45744908,0.2353933,0.038392026,-0.22667785,0.18074445,0.6277256,0.010844585,0.17351238,0.3306938,-0.026290517,0.39091393,-0.16242772,0.024787564,-0.07005751,0.37223065,0.28261134,0.15052159,0.36643064,0.24054995],[-0.04076224,-0.2655812,0.12353103,0.19966729,0.42883676,0.04043858,-0.5566188,-0.014861909,0.2563646,0.18434553,-0.03644709,-0.15560849,0.44375718,0.22468096,0.23235631,0.07603603,0.2518808,0.34882942,-0.0021051343,0.4222043],[-0.00032581788,0.05471379,0.29609644,0.17352676,-0.17110217,0.22752549,-0.08079554,-0.06262465,-0.07224192,0.15929456,0.3802799,0.37176844,-0.035453904,0.16674559,-0.1759474,-0.21468595,0.030241292,0.32100108,0.13037874,0.34430274],[0.11902176,-0.09991622,-0.018065697,0.2375635,0.15302676,0.3148989,-0.22868206,0.46140674,0.32876185,-0.02583515,0.41147545,0.116880514,0.0335972,0.11836158,-0.10644314,0.10073461,0.11979839,-0.013068009,-0.19317178,-0.2565053],[-0.28355867,0.0034699617,-0.054320466,-0.28715816,0.42109853,-0.2625759,0.2892873,-0.17586268,0.12747364,0.116535,0.009553712,0.0038881032,-0.037792027,0.16367693,-0.15559614,0.25353193,-0.26927236,0.30235353,-0.02802216,-0.26284128],[0.097304136,0.028027369,-0.10338601,0.010875651,-0.0071156775,-0.046390746,0.22447845,-0.025087133,0.015182112,-0.019494165,-0.46179494,-0.5683258,-0.1258124,-0.55470157,-0.022881007,-0.46732977,-0.65298086,-0.08526402,-0.22627291,-0.1490815],[0.38556376,0.36830017,-0.08779068,-0.3018679,0.21419299,0.22986151,0.04953589,0.3401734,0.040286962,-0.29460448,0.24939726,-0.14848699,-0.25702733,-0.21860038,-0.26524824,-0.119811915,0.103297144,-0.22650698,0.2404097,-0.2093877],[-0.01467939,-0.07911539,-0.12790716,-0.30216545,-0.23894843,0.37124708,-0.11319872,0.33716708,0.23973922,-0.1459744,-0.24224287,-0.1825277,0.20206073,-0.1419634,0.34918666,0.263069,-0.19893275,0.14054634,0.3124724,0.003494092],[0.11598242,0.512195,0.34885886,0.38571423,-0.1332298,0.37815282,0.5277094,0.12535444,0.053625505,0.10576272,-0.039379112,0.21629266,-0.0012109773,0.29323477,-0.07772099,0.07994519,-0.14133202,0.27325943,-0.02278676,-0.11395992],[-0.24624841,0.2278716,-0.107443415,-0.13095716,0.34374455,-0.20825683,-0.06271702,0.46823746,-0.036410186,0.08340655,0.17560406,-0.1796559,-0.34179604,0.015508879,0.14189924,-0.008179166,0.028895592,0.2415222,0.2835121,0.053883404],[0.32743427,-0.19633389,0.028884714,0.41716626,0.36524713,0.4070992,0.25723034,-0.17722735,0.3177971,0.381186,0.17414103,-0.23856556,0.24603698,0.18744303,0.41646504,-0.05570065,0.3023317,-0.25493777,-0.1460117,-0.22129291],[0.08986676,0.3447008,0.269093,0.39332017,0.08468078,0.34173304,-0.11654499,-0.07310576,-0.10926025,0.3013739,-0.29670486,-0.12307892,0.26077023,0.0758731,-0.1588235,-0.2590412,-0.0799673,-0.05003571,0.14857435,-0.2532486]]],"bias":[[0.14351659,-0.06940545,0.24389523,0.4446621,0.5474267,0.14573753,-0.041621916,0.12475641,0.23159799,0.43959993,0.290838,0.1648483,0.45449552,0.15584786,0.119359694,0.41205585,0.106274486,0.18347389,0.16322015,0.6318339],[0.011408117,-0.15127766,-0.12616894,-0.119872995,-0.0049961256,-0.123297215,0.24794686,0.083851606,-0.016920995,-0.06306371,-0.08819052,-0.1335992,-0.025628712,0.10167659,-0.10222684,0.041275356,-0.055108115,0.26006335,-0.018595517,0.16609085],[-0.00958621,-0.10937244,-0.106168054,-0.12054911,-0.103723794,0.010910539,-0.0024852855,-0.03811861,-0.045568552,-0.13919115,-0.109507285,-0.06924278,-0.085057005,-0.11036139,0.104595274,0.13444372,-0.01606145,0.0574923,0.037563656,-0.14463063],[-0.12847082,-0.16717471,-0.28280422,-0.11350061,-0.051065397,0.086153194,-0.04544203,0.07572177,-0.013394699,0.09821583,-0.16419588,0.03462277,-0.11275381,0.115689896,-0.24603261,-0.15860462,-0.10470743,-0.09060607,-0.05766052,-0.10880025],[0.0625722,0.06889142,0.23667568,-0.023581306,0.17035992,0.06312019,0.013570713,0.12684098,0.09984782,-0.023041308,0.117698014,0.06101323,0.1199271,0.037017446,0.10991358,0.21528079,0.09649233,0.046675928,0.052605186,0.10833045]],"Losses":[1.3779135361166677,1.03842839517161,0.7723543626143907,0.5717959034059161,0.4410071835109615,0.37717365148802096,0.34627976004756733,0.3186271496887177,0.295162267919677,0.2791539387888673,0.2683277753088229,0.26210038906488653,0.2593015518975119,0.256442736342654,0.250227305698015,0.2396962906261919,0.2261774627006916,0.21218400075816513,0.2004385270475297,0.1931161717138643,0.19093602722483533,0.19258722498821804,0.1957210124656738,0.19841594847447316,0.1995396780018477,0.19856143270388835,0.19553523626738897,0.1911218032567539,0.18637894888456905,0.18236342803286437,0.17977196838189358,0.17880410491393814,0.1791876127419748,0.18029140573181032,0.18140028778771766,0.1820238852182997,0.18198118987157558,0.18131268067242678,0.18020770174601425,0.1789351134376983,0.1777391312688814,0.17678983470508133,0.17620844423569573,0.1760516203380152,0.17624390008817042,0.17659191962254145,0.17689409493039732,0.17701506965874828,0.17689306304941885,0.1765477983425393,0.1760795978738236,0.17562061990803263,0.1752799680459648,0.17511765408770255,0.175124637315912,0.17522211630319656,0.17530997393153597,0.1753250101305206,0.17525608932347378,0.17512891971405734,0.1749890032501986,0.17487642149918625,0.17480258065220416,0.17475572285275576,0.1747185033412429,0.1746758671571447,0.17462246680251034,0.17456656393744904,0.1745195355800914,0.17448485229178998,0.17445899733928563,0.1744347667403627,0.17440264717650758,0.17435650344041942,0.17429758082093166,0.17423240316996386,0.17417123604129323,0.17412377691314543,0.17409112110551248,0.1740653159502154,0.1740364247344863,0.17399804027632193,0.17394946245280868,0.17389444326364867,0.1738366813548209,0.17377795552519504,0.17371997800514005,0.17366427818871266,0.17361102698938877,0.17355889263151206,0.17350477105835346,0.17344533319857894,0.17337936666725312,0.1733075556085057,0.1732312539129667,0.17315189415943288,0.17307047519296945,0.17298768100517026,0.1729036016559978,0.17281663701525282,0.17272420284606552,0.17262447349873747,0.17251718824944362,0.1724033959406705,0.17228414700826566,0.17215962754602437,0.17202942260412366,0.1718927099005571,0.17174844719541354,0.17159565461834486,0.1714334718062613,0.17126135368061507,0.17107902476396747,0.17088624019127996,0.1706826988318786,0.1704678579673146,0.17024102774072428,0.17000152491851275,0.1697486579487269,0.1694817839635029,0.16920029443090467,0.1689037889656801,0.16859213149296134,0.1682653327637061,0.16792349386563324,0.16756674697519955,0.16719539680135082,0.16681003063487648,0.16641152561770428,0.16600109712656996,0.165580227225011,0.1651506795966644,0.1647144353718904,0.1642735538419129,0.16383007436260674,0.16338594875781498,0.162942869469148,0.16250210391023115,0.16206438827658348,0.16162990001366945,0.16119826608425422,0.16076861942361464,0.1603397743907244,0.15991044553952866,0.15947947542387939,0.15904607362750706,0.15861007375243663,0.1581720101059548,0.15773329362673472,0.15729623604552267,0.15686606593211225,0.1564607663250339,0.15616659540322758,0.15639563075117582,0.15771119292442046,0.15810401610430222,0.1548680183556673,0.15531791742588244,0.15605727491054938,0.15362842172168653,0.15474670250386124,0.15399379672940372,0.15294259003610478,0.15382832651207443,0.15225568830589034,0.15268844704390833,0.1521580720705097,0.15149190148167066,0.1518324494470863,0.150777486892766,0.15103176231711116,0.15044287837449888,0.15005229542998286,0.15006082817707167,0.14930084158369997,0.14935248548637495,0.14884010884749002,0.1484764441645905,0.14836693705081322,0.14776521246367183,0.1476383356085809,0.14726176341033062,0.14681941421295344,0.1466676389732434,0.14618581852576745,0.14587220537941878,0.14561756865192182,0.1451457765458994,0.14487396399486804,0.1445476185767442,0.14411232483839706,0.14383501329459178,0.14348145298568374,0.14307295614111393,0.14278002808950657,0.14242804724608146,0.14203676970914456,0.14173117231526522,0.1413982689239617,0.14102372552462114,0.14070869260354762,0.14040336657178776,0.14005765298489595,0.1397351435302265,0.139450606760566,0.13914962952917528,0.13883470275075205,0.13854734000325977,0.13828061344417505,0.13800265866023328,0.13771485191281202,0.13743920128138842,0.1371787627313565,0.1369181946789646,0.13664650907949644,0.13636724006919482,0.13608884687002432,0.1358137137322147,0.13553711854043124,0.13525235780846584,0.13495626739435007,0.13464810483737738,0.13432967728540263,0.13400137123797948,0.13366314213791436,0.13331346626762683,0.13295042200054424,0.1325725466956848,0.13217781885653657,0.13176651647836604,0.1313373618941171,0.13089598641603647,0.13044800746101345,0.13002981734510258,0.12969539804510477,0.1296624901453952,0.12999205001037237,0.1308257293626511,0.12962847415542897,0.12730603167099777,0.12562581653550153,0.12586125994742287,0.12637701002414584,0.12480082660778342,0.1228453773343907,0.12212112757127808,0.12225771927629588,0.12193294331825512,0.12027029051633303,0.11874169225984195,0.11805801775449,0.11798613196030486,0.11803122217529036,0.11740512913472789,0.11646648138907675,0.11528305232898303,0.11448295293642412,0.11413001530761746,0.1141366096606405,0.1144051495006039,0.11467745931168859,0.11488637046141528,0.1143297287636564,0.11344449739679972,0.11255548591957282,0.11222306621042188,0.11233854630430982,0.11233397403777896,0.1118992011822509,0.11121378290902392,0.11087201960184456,0.11088316783417569,0.11076133338985039,0.11035098201086262,0.10997210918905594,0.10988018693850563,0.10983930536809093,0.10957644765839174,0.10925343715148766,0.1090891689246497,0.10902284450304489,0.1088689266607476,0.10859768483871496,0.10836307895273428,0.10822907080557752,0.10812350952112304,0.10796823242921003,0.10774811332458839,0.10752826073182044,0.10734938355480668,0.10721232698428146,0.107090519162249,0.10695215399073735,0.10679173152937434,0.10660751210438207,0.1064173687401045,0.10623061208874252,0.10605535552925874,0.1058922418189353,0.10573804141363109,0.10558788883332472,0.10543674319421871,0.10528201175518344,0.1051210665077206,0.10495547979375454,0.10478536278564274,0.10461384822955225,0.10444217351371327,0.10427204239185671,0.104103957416097,0.10393790721532273,0.10377354750574729,0.10361045352948654,0.10344836632967169,0.10328727956395731,0.10312759424352073,0.10297002091555309,0.1028164620710378,0.10266929447875459,0.10253544190703537,0.10242253298298687,0.10235598614411122,0.10235322817190881,0.10249307473670421,0.10271903103833248,0.10312201964595374,0.10306453146900724,0.10268515627466634,0.10167943877028811,0.10096252590869327,0.10085008036121236,0.10113224723413561,0.10129812510755834,0.10088279046504367,0.10032308972920644,0.10005148121314143,0.10013768592543908,0.100231343033464,0.09998864820682396,0.09960856588441516,0.09937457327035096,0.09936681382162701,0.09938673507317261,0.09922435676272315,0.0989612029213337,0.09875900733366237,0.09869219244591856,0.09866539693375775,0.09855295681850616,0.09837062643157653,0.0981995448582455,0.09809932440146153,0.09803576957695626,0.09794340303656175,0.09781461263771715,0.097680803868691,0.09757424990203273,0.09748376288763173,0.09738262787680538,0.09726858158137996,0.09715905191693563,0.09706808727302706,0.0969847551062762,0.09688932365528688,0.09677735231953685,0.09666125776696181,0.09655504814944814,0.09645889673137324,0.0963620329404898,0.0962590857730483,0.0961532673317551,0.09605225193145402,0.09595758105256023,0.0958641112301792,0.09576925666431216,0.09567490055419947,0.09559213505682987,0.09553138184885625,0.09551544955467128,0.09557520084163747,0.09579038302957243,0.09615222986965315,0.09660483162934834,0.09643815508034212,0.09567668101019272,0.09482335894087224,0.09463965217496957,0.09498185032893547,0.09516805515989492,0.09490647111141312,0.09442965461936145,0.09417967912258875,0.09418747494147851,0.09420136775670326,0.09410927002939154,0.09391846204029926,0.09368727693494,0.09350032990000859,0.09340603602781222,0.09339639114288258,0.09334951504291668,0.09315680059216894,0.09289715701570984,0.09271244875779941,0.0926571437026548,0.09263741632268238,0.09253706105822125,0.09236397237236052,0.09218991939724766,0.0920540019907962,0.09192662815638895,0.09176580855189298,0.09159047799058699,0.09143903590241056,0.09132091756237208,0.09121010246038509,0.09108317669912365,0.09095736039403933,0.09086852370375324,0.09086441045689764,0.09099460858395819,0.09137218693839783,0.09203642314595468,0.09280664566604487,0.09255347068867353,0.09118037494006498,0.08976626912515814,0.08943299884344653,0.08993473591906209,0.09037572618398815,0.09017995454275733,0.08942818561800328,0.08867468209154826,0.08834475247301725,0.08845326955586234,0.08868964416366965,0.08857914642384992,0.08794420434246912,0.08727206680734091,0.08695335798616988,0.08693212004000903,0.08693215614117443,0.08680891646813628,0.08662833302697531,0.08639218884276975,0.08599777495763745,0.08550974772025305,0.08505884432834451,0.08471596220986286,0.08441641981601367,0.08409114799985948,0.08376070049546988,0.08347446076953706,0.08325376852955751,0.083141248814915,0.08334691252684975,0.08451342310725071,0.08766268908253229,0.09033898334386235,0.08727471630094916,0.08197295345249797,0.08121600488320041,0.08380208567566785,0.08473669584799129,0.08231248560015261,0.08037052431038567,0.08015097063795554,0.08070848795652841,0.0808398208252981,0.0796322567838061,0.0780288642684206,0.07760450869013645,0.07854197293720244,0.07865083166893733,0.07690480472513093,0.07568183804680578,0.07584957557760712,0.07610422422419372,0.07570780335927853,0.07523945465366351,0.07506368971933998,0.07454929421909923,0.07354622214865349,0.07282539273811886,0.07265933186624865,0.07261010428127371,0.07236704826533061,0.07211354696305099,0.07225269131333514,0.07277724005842223,0.07328742203157348,0.07325594194693973,0.07253944031004983,0.07134724543485019,0.07016860808792216,0.06923692425228423,0.06870191021600662,0.06855748060039465,0.06874139039695944],"R2":0.952465924599071,"Training_Indices":[5756,8258,18204,19345,18384,13124,5263,2442,5278,3652,14630,12847,17728,10879,4956,6524,11008,2961,1059,3864,3429,679,5861,6596,4329,20012,12196,15082,16856,14147,12089,20085,15906,15416,13115,11956,4811,672,16994,7889,3382,10665,13773,16182,18610,19057,7906,4582,8298,5342,13369,10783,15415,11284,485,8773,19810,11730,5395,10780,9678,909,15284,774,4184,12108,12326,792,1797,6346,8585,15143,15280,8266,18620,178,3852,13168,6698,3285,12518,11753,2389,10976,19875,18523,2793,11878,18702,11829,13610,4230,13365,13117,19684,7183,12864,13575,18528,4891,17826,18890,8840,18018,3060,5129,1676,16107,5138,17563,17949,8301,11530,15745,8007,17691,12501,11189,19799,18069,17007,832,8015,15938,12393,8572,15410,2596,7014,4820,10175,17656,1170,7359,18206,12276,18606,3368,16321,14961,3497,9272,6983,5274,15687,18202,1402,15189,19457,14083,14278,11820,17878,20449,20441,13749,7085,2808,15851,20342,18281,6845,6531,6960,10250,2145,509,10309,11308,11791,10029,12147,5493,1218,16240,2856,579,19708,17943,4078,12996,15923,14098,416,4954,8490,8444,12860,10658,3507,18436,11795,1093,9596,13553,3943,11981,10357,1858,11019,7274,18692,5181,10020,9553,5383,9795,13349,8907,9846,9102,8065,12052,6264,15539,2873,20200,7982,20031,7494,3075,966,16505,16358,19042,12637,1692,3796,14043,9539,18175,17661,1813,4401,8155,10754,17643,17663,2719,17669,1886,2570,2024,1491,7031,4799,12619,2853,2146,20001,16384,5615,6603,5364,17789,2878,4248,2140,1943,2450,3212,3447,13604,10267,6322,264,9463,746,14891,7408,2005,15423,10701,5771,12026,4863,19557,15174,12740,12948,4008,15983,15167,8238,8641,12636,4492,4457,9428,1006,6805,13086,16533,8211,7475,18946,4116,18864,5405,6016,17105,13721,2862,6302,18051,7296,11507,4263,13175,6592,14876,2510,14970,6407,15498,16008,13776,7111,419,8193,877,2214,17955,2865,8332,6585,19468,4451,16360,19530,7039,5155,2955,294,5984,16936,18201,7110,13649,621,7692,1357,14273,3739,4720,12566,16987,3424,5627,668,3642,13421,19185,6432,16216,19571,20171,5817,11436,1451,15249,10894,19281,13473,6638,6636,7604,13503,14692,1657,10068,11163,2066,10062,8617,13032,14265,16515,10725,10047,9195,8109,8429,18411,11121,17274,3944,3736,18657,11135,12330,17320,9213,20381,17295,8903,7737,20310,16805,10612,4491,12083,14695,10177,15037,19826,12556,8767,20397,4554,3228,17208,20413,18005,6008,6974,8216,16340,17738,5837,3163,4070,4546,9170,4309,14650,8395,12798,10248,2569,2231,17926,5450,7295,7309,15789,13445,16238,11287,19545,12072,15514,19490,11590,1081,18369,17711,9379,16149,15378,18962,8982,19529,383,12115,6630,13797,17808,12035,3515,8127,15381,3908,16964,18727,16520,8529,10855,13429,1369,9760,8166,7802,4437,19183,6526,4021,1972,6789,9041,15407,7535,3615,8447,323,20214,18857,16294,5496,7463,12059,9324,3610,17625,17296,9120,1135,3555,11988,15402,16628,12816,4370,5394,16071,19054,17725,6985,10865,16298,10635,15192,14437,5995,15870,17925,4879,18801,15123,10319,10021,13617,7653,14148,10650,3076,7882,12977,6122,16709,15710,13347,16860,15053,7406,15555,5947,1458,9724,13936,605,14926,18226,4978,9050,18077,17844,15495,12472,16589,7393,4976,9117,7783,2138,20152,8863,10035,15843,20529,18486,9629,6610,17913,19191,4553,12034,11246,17366,9210,16186,17788,8378,9734,10511,125,14705,20256,19251,180,14459,1617,1931,1569,2679,7240,7968,11731,9499,12857,1429,19089,438,19833,17782,12736,16469,3316,628,2459,10806,2248,2733,7102,7453,3265,11119,8576,5883,5842,1361,116,17701,9784,13107,4620,16382,843,11570,518,15134,9398,19093,20338,82,1162,6315,15869,2721,9674,4041,17971,233,19228,19890,4829,20126,12200,9635,2262,13186,19556,13816,10329,13880,1476,15486,16119,6812,13322,3839,14456,5869,16982,16200,15591,18359,3308,10706,15217,14178,18747,4166,20484,18789,6756,12709,18003,5418,2187,14514,12355,15622,16997,9132,4534,6839,500,17894,19503,2059,13081,16804,8628,12872,13723,18423,13559,19500,14721,6797,10555,19837,16206,12062,15621,16794,7550,13401,1038,6483,8861,14232,4336,10548,10911,5689,5442,3553,3783,12229,10709,16282,10826,11754,5182,1216,16771,13550,8887,3109,18483,16229,12596,3021,15600,10937,17193,3257,1235,7766,11334,11671,15029,8083,2807,15739,14261,1343,2078,2325,9582,2498,5904,10280,17847,772,20378,14700,17539,5354,11480,664,16464,12598,16454,14402,3759,4475,6770,15934,3229,4973,15715,9341,5717,1933,18376,12604,16499,19680,7595,8839,3824,3384,15093,891,12084,3493,12019,3187,296,1002,15101,16169,19220,5173,8165,5302,7572,8179,3519,13136,2425,10632,8680,19816,490,19603,11960,11203,10549,12561,12177,8217,1282,13030,16244,20394,20343,12277,4253,10617,1078,431,17560,8367,2919,307,2274,12045,17228,819,19997,14636,7187,16826,6383,14444,855,4550,8248,14382,19509,6649,7223,8547,19591,19027,8390,15852,12927,6356,345,7371,17127,15769,3683,4612,617,8667,12843,4376,15765,3315,18198,3116,3503,12107,1643,19567,4980,17445,13827,15396,14787,15902,7503,16121,15747,16590,14942,9032,15268,11471,10213,8028,19308,9451,10430,4751,10521,5121,16426,16042,16841,18496,5931,1529,19525,12778,13035,15083,16665,4083,17427,12400,17113,20270,11128,9551,13273,17472,13076,13979,10269,13196,390,4995,5838,3554,9966,13209,8061,16671,6665,10438,15046,17842,9095,4630,1226,17044,16602,13950,489,6868,15256,4308,7368,429,4407,17097,8838,1304,13382,1513,4108,1843,14386,16308,18028,19493,19777,151,19238,17224,16027,19905,16277,3954,6627,4986,19206,18096,6086,18080,13684,4997,9249,1871,8039,2531,8018,20390,8896,10310,5688,20371,3342,20345,451,12350,5097,4616,15091,20438,19725,11491,18804,282,10508,9988,1050,51,20246,7162,2485,183,7594,2169,20254,17697,16541,6146,11064,20055,4568,15526,7193,5285,16766,15995,16451,20532,10933,4919,12684,8559,15960,11010,10835,16870,706,19811,6944,5603,2934,9633,18845,7874,14561,6323,10952,13283,9246,1474,15728,5597,80,1515,7987,18159,11578,2970,13381,18002,7957,52,126,17233,15236,5475,11799,9418,17276,7199,1220,6939,2002,875,833,17823,20120,7852,13191,11345,3538,13819,3866,2860,18103,15980,14845,19295,1954,13882,17148,16234,11281,12964,7334,7676,18113,8379,20260,6481,3720,9524,16811,16331,14686,3697,10163,16293,10522,20282,2738,140,14600,18563,3373,16353,5063,5075,2625,781,18377,19466,20005,12517,2927,19616,10515,15426,6422,14369,7122,7316,1244,7612,14841,3293,19971,19064,279,18777,6615,16051,3419,16385,19555,10292,19596,8016,6611,3016,17219,8144,2198,18596,3575,9182,15387,9085,19476,19246,1493,11274,17384,12521,19969,4026,5279,18993,13540,6675,12153,9513,15077,1619,4291,12530,14123,1372,9176,8619,11109,19692,17191,7319,5225,9300,841,10166,19731,15571,4438,13313,10001,4728,28,2709,1365,19410,8568,15379,7289,16305,9711,11297,16791,5998,10545,9586,4362,3687,13856,13542,5388,303,16065,10230,8807,19437,2159,7972,1110,10340,11242,18185,1031,8512,4386,5865,15345,10188,17502,822,4277,4138,2127,2559,3018,9007,17378,15287,19412,18379,11591,644,3542,10263,3714,17761,8748,17346,2417,16694,2997,5362,15002,14642,8710,1117,10507,19889,9177,9107,9000,20433,5052,2587,20475,13659,7553,1346,17606,6523,16140,19892,4003,16339,17721,18603,19894,10558,12233,19848,2457,6670,5782,19870,11310,19227,16123,7245,4316,7262,675,20293,10075,19961,6816,1339,7955,2497,14070,11264,10945,15596,14549,13774,11083,9196,5244,6786,1706,1944,17576,18743,5270,3150,6497,17580,906,801,6360,558,14298,4371,4899,4617,18776,5798,1440,14080,10264,4914,20383,9965,6809,2766,7728,2700,1303,18834,9746,4562,6408,3761,8341,9771,7485,495,4367,4684,8477,4278,14451,8214,7372,15898,3014,20224,15723,14576,10171,7080,9331,765,5914,12582,3004,15366,15917,6641,11020,10540,4548,1437,6235,19687,20425,8548,18083,18313,13870,6779,2370,9816,19411,14594,8608,5010,5404,14440,17278,7514,17525,740,13068,9314,11457,11512,7093,17653,5885,3983,8101,4665,5458,2599,11839,19222,2464,4328,3726,12836,13942,1468,3807,6950,2196,4134,17373,19448,13974,5945,15513,14357,6319,207,210,18261,16952,7015,11733,3589,10784,15086,2523,19018,17596,20090,6500,17130,4994,14121,7013,4591,6726,16723,4156,473,8600,19154,10468,19416,1058,11474,8706,8021,8308,1367,6161,17161,8324,19800,18232,7167,14160,20429,6646,18233,18645,3127,7286,11677,18046,7252,5230,15429,2483,3294,10744,16438,15907,15079,9787,8766,1980,4359,19158,14151,8249,15444,3371,7096,17294,7306,6312,10529,6416,10132,10449,106,17479,18948,9273,16722,9864,5198,6811,357,16423,6475,4414,2468,3008,4603,13607,15392,9666,5025,8636,14552,18625,7739,15698,3787,9381,2556,458,8254,18919,2888,19115,18731,16844,12212,7311,13277,4877,398,18417,15925,20382,493,5888,14448,10777,1312,3643,3413,17620,1534,18310,5373,15149,10372,14328,3389,18095,19999,766,16656,18090,9900,17257,20107,1311,17315,9614,1519,7433,18413,982,10590,19540,4831,5628,9572,11721,9669,17464,12465,11580,16840,18565,10461,8792,7490,17745,12875,9291,12397,8522,19300,14447,20478,16979,18389,10683,13516,1836,12538,2302,8709,14722,16777,3103,10351,7707,14119,18543,12602,8484,9298,14969,5152,20589,8824,11669,13662,5232,5398,14536,14370,539,6498,16400,3549,18881,9308,18166,15965,18760,12891,2019,17410,2820,4393,16127,4613,13589,10526,3607,15237,5582,11079,14582,11052,1731,16194,17393,192,5907,19526,5868,5435,18038,13346,1238,16630,2624,3361,8289,10689,13390,3460,1691,7154,6614,846,14283,20524,10615,355,5250,12673,5698,15684,17321,1388,1210,12713,6036,6755,18145,10077,12779,6967,5879,12707,13495,19794,15606,7382,9243,17676,3343,4449,8163,20403,15282,11115,2306,436,8584,3452,9148,12982,12103,9925,10051,13367,14825,17807,8642,6832,269,16356,15773,10886,7615,10125,14263,19655,8181,16681,19310,11355,2076,18854,10085,17968,8812,9887,15936,3922,19638,19918,10979,12966,11267,14839,3891,14853,20351,19498,3985,15875,10157,3440,4130,9768,8734,15281,5678,19186,5548,11619,19038,8476,19480,5293,16189,16131,8068,12943,12613,13881,2363,17903,6819,15778,15315,17354,10418,17101,11272,9043,10840,16868,1539,5739,9654,11422,17279,7902,15404,8078,16347,439,12614,5016,9326,12419,3831,16996,20334,8739,63,19991,19187,9877,15553,8168,19923,17194,2548,4695,13802,15317,4010,4716,15403,20288,14618,15406,15573,17252,6109,236,9199,15924,3386,15830,958,2944,6568,9811,1457,14163,2794,5790,6835,14744,15139,10647,4402,5928,1511,15559,10130,13538,9895,17180,18278,251,15880,12919,9770,19337,2536,2911,13435,16524,10420,13867,11462,12925,9079,13314,18474,20479,3955,4618,11534,9525,9031,8759,15583,20240,5636,4606,4908,4145,18679,10797,10257,1733,6330,3858,17052,17985,7121,524,13527,10286,568,970,7884,13129,11935,10048,11056,19541,10881,16910,4477,15432,13586,1114,5781,5033,18250,7360,15615,3520,11026,676,10330,18178,10141,3444,11442,4429,374,7965,18412,18824,11581,10339,6108,7232,18506,16596,20313,3656,15394,10386,19240,13987,13574,1912,7034,13483,6310,3272,7703,11006,14272,10704,17496,18352,117,6820,18156,3850,8873,11402,4654,4133,6184,593,642,16038,17034,12529,4162,16927,15298,10659,7131,14282,10439,1269,9930,652,13906,20447,3707,19760,12385,12758,16941,19983,10733,16196,14495,4764,8415,18963,15811,19862,14516,14340,15767,18248,16378,3081,8212,1251,16088,5876,10953,18089,5699,11695,3703,5843,11660,8455,11447,2104,5553,3421,4576,14933,6293,11631,3001,19672,13027,17494,19070,11785,3250,4571,89,14980,4730,8487,2415,9701,4955,14221,937]}