{"architecture":[["Dense",[4,20]],["Dense",[20,20]],["Dense",[20,20]],["Dense",[20,20]],["Dense",[20,20]]],"weights":[[[-0.32667175,-2.5546145,-1.6521393,-2.120522,-1.4714434,1.0604607,-0.5827012,2.1340742,1.5024079,1.2026403,1.1604886,-1.6490055,1.8837668,-0.9649756,-1.4000194,2.293011,-1.8801149,-0.63745344,1.6286294,-1.5243697],[-2.1700613,0.20195067,0.7838707,-0.49966383,-0.7030002,0.5663594,-3.3900912,1.0300213,1.6997678,0.90127283,3.298583,0.9329116,-0.22406945,-0.50662833,-1.4917678,0.78427076,1.3460246,-2.112982,-2.021667,-1.5258893],[-0.87558925,-2.4488506,-1.7804737,-2.1658676,-1.3623838,0.9299994,-0.6707768,2.3562658,1.932007,1.9230475,0.0921486,-2.3610096,1.714965,-1.5885534,-1.3415664,2.1478527,-2.733056,-0.97927403,1.829098,-1.5479652],[-1.3531841,-0.84544694,-0.2968519,-1.695323,-1.0129735,1.2318325,-0.9079535,1.4228517,1.3051312,1.9738482,1.3673402,-0.6627103,1.3520558,-0.61618984,-1.519106,1.8789495,-0.7077146,-1.2675388,0.20056127,-1.5294214]],[[0.3140259,-0.17098351,-0.021639261,-0.43468705,-0.20012179,0.77451646,1.0151584,-0.041337807,0.3038638,0.3085729,0.21245578,0.6535985,0.39646348,-0.711722,0.54715323,-0.5825696,-0.029639928,0.24283287,-0.4105607,0.4539014],[-0.44438833,-0.008319559,0.34887686,-0.45796615,0.29984605,0.31832743,-0.03179406,-0.52260876,0.33720404,-0.45046946,-0.29126093,1.0208484,1.0500332,-0.07134442,-0.06986606,-0.6217972,-0.39468163,-0.83376485,-0.3575734,0.44441935],[-0.21401168,-0.061505347,-0.23250023,-0.09623666,0.079889685,0.346067,-0.3037006,-0.0259851,0.31109485,-0.47596997,-0.029436698,0.43815994,0.32908934,0.12095028,0.27242765,0.17490661,-0.17409888,-0.38287386,-0.5543438,-0.14212577],[-0.3168091,-0.051901978,0.5290109,-0.92254126,-0.5268344,0.6707203,0.5173336,-0.75980467,0.3683501,-0.22120455,-0.5261536,0.9760294,0.5525767,-1.0530136,0.04349777,-0.88221455,-0.5202905,-0.70962566,-0.34474346,0.7479447],[-0.10975231,-0.021863658,0.3298852,-0.23408337,-0.31688172,0.15856928,0.36646834,-0.19911356,-0.10864619,-0.018314425,-0.46873438,0.9092108,0.38728026,-0.36976004,0.40830708,-0.16574967,-0.233162,-0.6413695,-0.46791798,0.58447814],[0.036710393,-0.57715654,0.049440775,-0.09085598,0.32296336,-0.25741243,0.07073389,0.4226986,-0.19442958,-0.094878815,-0.086114906,-0.076244555,-0.36123437,0.21609256,0.17001787,0.4380633,0.116705485,0.40610525,-0.39333764,0.26605722],[-0.15814155,0.009738779,0.22073677,-0.11950311,-0.99234015,0.27872732,1.083679,-0.17677712,-0.42470428,0.22938038,0.059746575,0.8984368,0.217233,-0.55966496,0.17338215,-0.60906273,0.31493455,0.25741673,-0.092080876,0.106953606],[-0.15949349,-0.58495104,-0.43618083,0.3178032,0.1964037,-0.09064115,-0.14215456,0.6418181,-0.63893545,0.25711393,-0.44610053,-0.6618706,-0.55086696,0.40231583,-0.11980438,0.6095155,0.080677845,0.5108035,-0.1592548,-0.16445391],[-0.14063795,0.077677086,-0.17253813,0.6379401,0.3287722,-0.6020949,-0.29167578,0.45428395,-0.37039056,-0.044933934,-0.45261362,0.026301723,0.1304374,0.5362726,-0.38794056,0.6274555,0.43167794,0.4319203,-0.13040186,-0.32990262],[0.078742616,-0.46924603,-0.22482726,0.31516686,0.50956964,-0.5940722,0.04214351,0.3095354,0.039258104,0.14887732,0.017945915,-0.16569467,-0.2970903,0.6982014,-0.6950749,0.30552167,-0.112625234,0.5988568,-0.21082689,-0.2530268],[-0.38298783,-0.21177727,-0.2112426,-0.11472316,0.6527818,0.13473777,-0.44571382,0.57683057,-0.4389635,-0.5361096,-0.39099964,-0.21568878,0.2126719,0.48388377,-0.24229713,0.48428246,0.09231434,-0.10229535,-0.24359517,0.30492416],[-0.51536787,0.05824009,-0.23576874,0.049035665,-0.115345776,0.43377784,-0.42329422,0.1272096,-0.09464632,-0.36654446,-0.49463072,0.32720405,0.29318306,-0.37918818,0.20231418,-0.24987924,-0.64771503,-0.73091567,-0.2817797,0.5660966],[-0.032285623,-0.570416,-0.16577542,0.5761574,0.16989674,-0.060584635,0.32986498,0.3263691,-0.09043078,-0.18907617,0.21576385,-0.5096381,0.24555974,0.5575967,-0.15551049,0.06850867,0.0969971,0.496957,-0.2829804,-0.5295543],[-0.23777029,0.23595983,0.33614752,-0.45207682,0.20933366,0.3659069,-0.07204411,-0.26290298,0.08422147,0.2957349,-0.042095218,0.45283723,0.3990477,-0.025602542,0.046891958,-0.16754241,0.0043236413,0.14180675,-0.17449303,0.5319401],[0.2535442,-0.47798744,0.51585144,-0.63651574,-0.6322486,0.18458721,0.81470805,-0.6391689,0.2610834,0.18957996,-0.25656173,1.1034622,0.8388891,-0.8086812,0.04428473,-0.520923,-0.5798544,-0.049134064,-0.18308312,0.6134308],[0.0905836,-0.24891527,-0.36297604,0.6297465,0.51758724,-0.0007174126,-0.03758695,0.654421,-0.2161608,-0.09774003,-0.43698418,-0.76626503,-0.6812849,0.9296466,-0.4452527,0.094754815,0.63715595,0.030842254,0.21042366,-0.32821855],[-0.78698236,0.47912735,0.105126634,-0.47729555,0.14654204,0.3567002,-0.6111701,-0.4850382,-0.08857932,-0.80752265,-0.65082014,0.70970184,0.49904126,-0.19292705,0.30040237,0.09012562,-0.9130912,-0.25273007,-0.22363418,0.12036582],[0.30401558,0.05799245,-0.022564378,-0.12381569,-0.41735145,0.57751006,0.7364174,-0.6766089,-0.16147815,0.048282087,0.08706055,1.0103285,0.72724736,-0.11955557,0.11201159,-0.20723969,0.21090144,-0.19753052,-0.12947279,0.3541071],[0.4634292,-0.6577959,-0.4283706,0.29683384,-0.4824122,0.031459384,0.91395694,-0.33215418,0.048827436,0.5050253,-0.10438832,0.1705025,-0.22978315,0.4679776,-0.19142748,0.34131616,0.5360044,0.16713159,-0.19037011,-0.44725698],[0.3274598,-0.06922631,0.3406976,-0.51128215,-0.7476931,0.65921104,0.35808188,-0.77595705,-0.06499216,0.48523206,0.20077518,1.0397342,0.7277122,-0.8931147,0.00011269498,-0.13169217,-0.30693752,-0.53631675,-0.4797951,0.57790726]],[[0.4459674,-0.106644325,0.20409565,0.12853576,-1.0725563,-0.06850707,-0.47123796,-0.44151917,-0.20789959,-0.5042114,0.189783,-0.08109024,0.2590988,0.0136687,0.15746626,-0.37229228,-0.26459095,-0.40112755,-0.36990255,0.62569195],[0.534158,0.14363739,-0.25544283,0.2896977,0.3560411,-0.06515425,0.21460873,0.22572424,0.065271914,-0.095924415,0.14672619,-0.3892731,0.02326912,-0.0033383588,-0.37566018,-0.22600336,-0.20989741,-0.02407983,0.14917208,-0.4499079],[0.2308989,-0.12496622,0.122508995,-0.38471374,0.35679567,0.20733683,0.0037375519,0.1530289,0.25187695,0.02725393,0.2819424,-0.44514573,-0.28090927,-0.41074276,-0.05428325,0.05708205,-0.1623054,0.094234504,-0.09389846,-0.09994238],[-0.45276344,0.30690074,-0.48421755,-0.039894696,-0.70925087,-0.31085292,-0.45337448,-0.3513143,-0.26710206,-0.4194109,-0.389218,-0.26231447,-0.06808724,0.40311986,-0.5377325,-0.01230577,0.2727312,-0.5003085,0.27535143,0.08479079],[-0.77174705,0.012937212,-0.37812018,-0.5895303,0.5661661,0.14108811,0.15362357,-0.2557533,-0.47872198,0.3939643,-0.3233926,0.0050898837,-0.4610699,0.63057774,-0.08162085,-0.27284762,0.28520557,-0.029148411,-0.50960016,-0.06290159],[0.34447238,-0.29544792,-0.21566565,-0.007951384,0.3677816,0.060691964,0.018401245,-0.3164915,0.055256914,-0.23385532,0.33560577,-0.24543445,0.015672017,-0.68839294,-0.58878773,-0.3914977,-0.08473243,-0.18774717,0.028522573,-0.40889055],[0.46815208,-0.4125826,0.1606814,0.08378517,-0.7846544,-0.6945515,-0.38644797,-0.38126308,-0.057351217,-0.6979338,-0.3763619,0.22984537,0.5048924,-0.7043088,-0.3016355,-0.5543328,-0.62123615,-0.027994713,0.096028365,0.7335021],[-0.781736,0.26281086,-0.15857156,-0.23504172,-0.42882898,0.14725871,-0.23438805,-0.29663897,-0.34126797,0.2946309,-0.25540724,-0.08276948,0.28504077,0.9676586,-0.113657966,0.3505381,0.33859193,0.09767173,0.1804298,0.12821475],[0.37031087,0.045781814,-0.2696487,0.03129323,-0.4108278,0.23556831,0.29972228,0.11127051,-0.12847085,0.13975635,-0.27822122,-0.41044483,0.2741498,-0.1829662,-0.012637314,-0.07685133,0.03274291,0.06154073,-0.35653308,-0.16980034],[-0.17898239,-0.08532944,-0.43955866,-0.41402245,-1.1353165,-0.019940142,0.04202448,-0.3369614,-0.077281766,0.07086303,-0.04162755,-0.45164806,0.4504679,-0.08562055,0.18495642,-0.46094957,-0.29962152,-0.15617305,-0.24592467,0.118327335],[0.07288887,-0.45410666,0.1683144,-0.30380502,-0.04749227,0.045286626,-0.21076123,0.20057301,0.25372535,-0.022042308,0.23154455,0.26931655,0.3470357,-0.3135164,0.25425392,0.043103293,0.11779216,0.062490046,0.05891746,0.5673008],[0.88431823,-0.53262705,0.45588484,-0.060673796,-0.054629415,0.10808106,0.6947542,-0.055797473,0.03621251,-0.40694487,0.18945952,-0.45788032,-0.35826713,-1.0215516,-0.46610463,-0.26797688,-0.23660745,0.016094763,-0.4626835,-0.28411603],[0.8281369,-0.5264989,0.007039674,-0.21470568,0.4375393,-0.263233,0.5719004,-0.46781367,-0.05966654,0.27597484,-0.04156127,0.0670168,-0.03096022,-0.64478093,-0.3801706,-0.062702164,0.2708378,-0.35210356,-0.65477896,-0.3739212],[-0.7448767,0.5428283,-0.65409404,-0.42341393,-0.14189716,-0.070144586,-0.5699258,-0.5386237,0.075398035,0.28521505,-0.38819304,-0.6211014,-0.23979786,1.0083869,-0.16809744,0.0047697085,0.13018607,-0.6009776,0.1797,0.07303215],[0.16603373,-0.054327846,0.2859707,0.12853606,0.004366353,0.20571128,0.0742984,0.19859006,-0.22102328,-0.096028484,0.25050014,-0.027940532,0.19240314,-0.57753253,-0.08157542,0.016356178,-0.05841101,0.26739648,-0.4610005,-0.19185288],[-0.24760358,0.42076877,-0.4324948,0.11921317,-0.2070283,-0.39732197,-0.48512542,0.052298587,-0.40211588,-0.079451375,0.07262669,-0.5637381,-0.14992242,0.8485771,-0.27349907,-0.10677573,0.43993258,-0.38624787,-0.3055045,-0.020784505],[-0.11592852,0.26468906,-0.1378845,-0.07716002,-0.16295314,-0.3981411,-0.35722753,-0.09381557,0.31467402,-0.5279134,-0.38720047,-0.28084505,0.12705554,0.462763,0.020322394,-0.42403564,-0.47287714,-0.30570427,0.13744655,0.5508212],[-0.10812782,0.09596825,-0.49516422,-0.043850813,-0.4637781,-0.5151214,-0.2793218,-0.48985937,0.041985434,-0.3931524,-0.1996347,-0.11755305,0.38215518,0.4649278,-0.06768156,-0.41775241,-0.079364784,-0.16433127,-0.06999792,0.16572718],[0.013253661,-0.07824901,0.23099971,0.24962878,-0.24119703,0.025093777,-0.3592954,-0.4970584,-0.33000454,0.20491242,0.25763208,-0.3663897,0.016058829,0.24915755,0.1268857,-0.37455237,-0.41851932,-0.28592122,0.14417474,0.04611258],[0.025901314,0.083392896,0.054627135,-0.09264298,0.28382874,0.042660683,0.07019678,-0.42826185,-0.401026,0.13104881,0.20168357,-0.025146674,-0.22981222,-0.754182,-0.030685758,-0.22886275,0.021203611,-0.10903597,0.029910501,-0.6016402]],[[-0.010768602,-0.22532876,-0.11882302,0.052142303,-0.049180217,-0.30893615,-0.32345235,-1.1188922,-0.03826659,-0.024157787,0.053210992,-0.78420645,0.12918842,-0.8318491,0.13067538,-0.08748272,0.08305508,0.0022274423,-1.5077612,-0.005355171],[-0.1782026,0.3699509,-0.57024795,-0.4676451,-0.37229806,-0.2248675,-0.7800295,-0.68596214,-0.22639419,-0.03721487,-0.20012584,0.18794714,-0.18249281,-0.6886246,0.17082974,0.13493519,-0.11755262,-0.26734725,-0.3203269,-0.15781334],[0.051413435,0.3538752,0.26484904,0.024453966,0.2399331,0.39797395,-0.03826053,-0.16366534,-0.1887645,0.30969995,0.27579442,-0.07116425,-0.16193819,-0.3797779,-0.026485829,-0.08134777,-0.3577019,0.024065053,-0.21670693,-0.08781446],[-0.38874304,0.27705896,-0.377125,0.20082182,0.20985672,0.20281036,0.20093544,-0.27086622,-0.55095685,0.2947823,0.21392937,0.050635293,-0.26629958,-0.042220235,-0.08364401,-0.33468476,-0.39695573,-0.20979787,-0.32006106,0.25269586],[-0.009927862,-0.24903286,-0.2600037,-0.12155912,-0.7251235,-0.25088787,-0.46136567,-0.15606159,-0.084106445,0.09644805,0.1581579,-0.48291573,-0.30560082,-0.30154547,0.2757763,-0.62471944,-0.20215742,0.039372407,0.7559189,-0.10616842],[-0.08191783,0.11736317,-0.09485565,0.0026859473,-0.14859304,-0.41438153,0.047001284,-0.30435827,0.13743587,0.103513174,0.43655118,-0.07512111,-0.6578405,-0.25306055,0.004420835,-0.085318014,-0.47720844,-0.31407568,-0.1400786,0.18252553],[0.13193446,0.10020845,0.019640906,-0.20381919,-0.62314343,-0.0233561,-0.7807369,-0.6606251,-0.5365346,-0.17232177,-0.2801753,-0.34247726,-0.66396224,-0.51800656,-0.23587403,-0.33898857,0.06339698,0.0068558035,-0.681181,0.07623667],[0.10932359,-0.3538944,0.096026435,-0.3583045,0.105818905,0.24345265,0.01667504,0.17023937,-0.24788983,-0.23706254,0.1826437,0.12378449,0.19624344,-0.11791618,-0.27192798,0.057183653,-0.17967327,-0.034918148,-0.3122398,0.4476787],[0.21155514,0.29192713,-0.10063893,0.42764217,-0.107194304,-0.44415963,-0.10126241,-0.2528465,-0.2871783,-0.37411398,-0.24101287,0.17337507,0.12167697,-0.2262594,-0.3542857,-0.19509901,-0.4218791,-0.1990414,-0.105724014,0.2940004],[0.15316088,-0.06719444,-0.4023954,-0.4057227,-0.11043682,0.08110576,-0.31179896,-0.63609576,0.30712298,-0.40162832,0.21697171,0.21233435,-0.6334673,0.26715723,-0.15710457,0.11487887,-0.35840428,0.21654361,0.25997442,-0.06079692],[-0.41407573,0.23013486,0.08419022,0.10727701,-0.08356951,0.22646561,-0.37741864,-0.6019656,-0.2034685,-0.13516842,-0.16386081,-0.14675972,-0.63303334,-0.4517873,-0.084867656,-0.22742893,0.11814901,-0.11528351,-0.19291876,0.031228447],[-0.43298587,0.09798605,-0.4826835,-0.098593265,0.15978672,-0.22974148,0.22764115,0.11864961,-0.44501588,0.1974852,-0.23859185,-0.046243005,-0.15440212,-0.09298884,0.07083774,0.09265393,0.005423517,-0.07559687,0.19008869,0.3316412],[-0.42079785,-0.067095615,-0.038754,0.15084119,0.31616315,-0.35439295,-0.29456946,-0.1114495,-0.4961336,-0.07091859,-0.52038527,-0.040473368,-0.2643294,-0.079799905,-0.18253489,-0.45305344,-0.3051496,-0.00501189,-0.34011078,0.28866407],[0.05207819,-1.9908414,-0.72757727,-1.2441273,-0.82437,-2.0501049,-0.5565631,0.0845633,0.010849718,0.047023147,-1.4306949,-0.11258767,-0.20409255,-0.6815273,0.00043306858,-0.49667525,-0.041194882,0.18497148,0.33691585,-0.28439307],[-0.10726591,-0.37691465,0.104980424,-0.07699839,-0.12920678,0.003715084,-0.006464679,0.07782097,-0.26794153,0.13954422,0.32801446,0.12988488,-0.23249042,-0.015566144,0.20685199,-0.2012082,-0.32484764,-0.08078223,-0.3464801,-0.008579392],[0.029225277,-0.1214488,-0.47019005,-0.00083909964,-0.18523885,-0.042688698,0.114502646,-0.6701089,0.06656191,-0.13516483,-0.08690034,-0.19750421,-0.5193065,0.2741378,-0.37981072,0.36187106,-0.21128692,-0.2909428,-0.046750423,0.08746165],[-0.45036402,0.018802695,-0.4423781,0.16447735,-0.7084574,0.19477142,-0.42708442,-0.85465026,-0.31619477,-0.31457666,-0.14042656,0.18465666,-0.6083008,0.32636392,0.23714592,-0.096698895,-0.2113501,0.033681042,0.0787416,0.12702042],[0.19494419,-0.011690301,-0.46293524,0.12772639,0.23848286,-0.0510232,0.1348567,-0.16877763,-0.40602088,0.04949356,0.23549774,-0.30517036,0.14695092,-0.23387727,0.11552032,-0.35119677,-0.15160544,-0.1754646,-0.19935872,-0.06954891],[-0.4067157,0.17550166,-0.04048866,0.06282711,0.096754335,-0.30034336,-0.55608344,-0.22514878,-0.03861744,-0.27681395,-0.4423348,-0.089237295,-0.4627344,-0.05240598,-0.07299117,-0.1137742,0.16159062,0.28092954,-0.005210403,-0.09778909],[-0.61090815,-0.7145096,0.17739546,-0.022422174,0.11985144,-0.43357706,0.09255886,0.17710738,-0.45789996,-0.020683574,-0.32235196,0.116864175,-0.06569947,-0.3754127,0.0070724105,-1.4077199,-0.18531436,-0.31497046,-0.13650823,-0.18665579]],[[0.01046845,0.48613492,-0.35554436,0.053539645,0.1672044,0.1763621,0.17813976,0.071391046,0.35088086,0.432211,-0.1744033,-0.015799515,0.19564615,-0.2697338,0.1109413,-0.012041563,0.08948866,-0.30017576,0.021278339,0.16084786],[0.05128316,0.036973827,0.16001305,0.15223311,-0.11968361,-0.063255794,0.022901803,0.3969087,0.5713694,0.015519681,-0.0935316,-0.11976372,0.30214953,-0.0008434381,-0.063232556,0.26576394,0.2181864,-0.7760083,-0.5604589,0.14445975],[-0.2645627,-0.0040155156,0.067935996,0.11576206,0.033990256,0.111783996,-0.1437422,-0.21785712,-0.10734306,0.16911833,-0.05827613,0.34370542,0.09809778,0.048017193,0.027459793,-0.052170724,0.3465461,0.52327,0.13255303,0.12069635],[-0.04954662,0.09951055,-0.1562013,-0.03742553,-0.20749693,-0.07593789,-0.103814654,0.2890187,0.328354,0.10688812,0.0032923003,0.023494788,0.13671464,-0.11473437,0.11257505,-0.05665841,0.08820971,0.50681317,0.704038,0.04729003],[0.14086577,-0.040034804,0.021942304,-0.11706727,0.2069405,0.07062411,0.22466776,-0.5047437,-0.6052386,-0.016056877,0.22094977,0.05961046,-0.12686457,0.18461417,-0.08099883,0.2454828,-0.16973324,0.27025205,0.38461852,-0.009313917],[-0.31981537,-0.09876864,-0.10283688,0.03434751,0.0038870564,-0.08859627,-0.020316446,0.6145901,0.22383747,0.12504314,0.16714256,0.13537607,-0.26236773,0.22150977,0.33146644,-0.18801185,0.10829716,-0.59158885,-0.5157075,-0.116329625],[0.01425451,-0.00029754458,0.27613556,0.047782168,-0.048602175,0.26468042,0.09824176,-0.47094265,-0.41940188,0.076931596,-0.23548588,-0.21057609,0.17071483,-0.27177873,-0.04636151,-0.19796145,-0.17554876,-0.095744565,0.14827323,0.0745783],[-0.30516598,-0.13529997,0.19906372,-0.23430984,0.1915776,0.15978679,0.1499198,0.69539803,0.6811321,-0.031034986,-0.11284215,0.2564792,0.10225558,-0.0564462,-0.046946157,0.25992915,0.18658398,-0.75477767,-0.47093087,-0.03908067],[0.3834806,0.20668885,-0.055690553,0.3527422,0.012717158,-0.1872899,0.36327055,-0.36975834,0.05908939,0.33465236,-0.20451991,0.16185036,0.21082187,-0.11962142,-0.12599733,-0.15021056,0.0672545,-0.020258304,-0.07856295,0.10807865],[0.12868223,0.3340219,-0.154979,0.07343982,0.45775843,-0.17071444,-0.15976228,-0.003563297,0.30705097,-0.12734845,0.46479622,0.048943307,0.13776255,0.29510435,0.22877702,0.07815425,-0.08662366,0.03829773,0.071648546,0.25213715],[0.26487088,0.24203286,0.31532755,-0.04654791,0.16711143,0.30803195,0.036008332,0.37501648,0.23512405,-0.3181158,0.16345075,0.117676206,-0.26112607,-0.119957335,-0.2431815,-0.21988775,-0.44890907,0.32042983,-0.30836836,-0.027903156],[-0.098110065,0.42270622,0.18127404,-0.033638347,-0.15746333,0.3856507,-0.018460665,-0.08735856,-0.23982862,0.22725771,0.54785734,0.34506887,0.17430104,0.38565478,0.21632944,-0.035958443,0.3634103,0.061832063,-0.13738765,0.4864142],[-0.17505766,0.15661517,0.126103,0.18765186,-0.20940089,0.1900405,-0.113901354,0.06841477,0.0640867,0.080905244,0.2306385,-0.043919,0.12344981,0.19395493,0.21100286,-0.17916796,0.59052163,0.30033213,0.280861,0.22351237],[0.11761418,0.1559799,0.07604783,0.3720149,0.080892004,-0.35624835,-0.03231264,-0.64351237,-0.7572641,-0.17082085,0.11570892,-0.051413417,-0.20682126,-0.120896764,-0.11729873,-0.16189474,-0.19231282,-0.35539147,-0.35692692,-0.24546598],[-0.020776575,0.092973486,0.3566952,-0.09226378,0.19354387,0.20074838,0.23603626,0.19522107,-0.15733293,0.4303809,-0.2020792,0.45177636,0.14850909,-0.00954187,0.15124024,0.3316532,-0.14124714,-0.027476102,0.096373975,0.2253275],[-0.083857164,-0.16221188,-0.22702695,0.15085392,0.29395032,-0.100500405,0.32946765,0.20176673,0.120198324,0.18826966,-0.31202888,-0.23266396,-0.10365571,-0.22766268,-0.46810398,0.04603016,-0.5356119,-0.038410705,0.49302182,-0.139862],[-0.0999777,-0.11403463,0.30248678,0.45000163,-0.026423706,-0.26482108,0.35644802,0.54633766,0.1849718,0.296662,0.29225075,0.14426392,-0.120966345,0.25462055,-0.109952144,-0.15756632,-0.117513746,-0.15629254,0.24349554,0.048455667],[0.45747802,0.19792484,0.2912982,0.1926154,0.06961228,0.446133,-0.029591126,-0.22983935,0.075068094,0.10593666,0.49569926,-0.18660952,-0.08722254,0.005392787,0.16822498,-0.019310467,0.14431792,0.23459803,-0.001316394,-0.15686882],[0.102030806,-0.22676957,0.036883812,0.20004685,0.07575991,0.043915186,0.15955618,0.22634628,0.30173776,-0.17464145,-0.4676831,-0.17814717,0.022852654,-0.14281558,-0.07590285,0.083145514,0.028361246,0.875323,0.7955597,-0.15555617],[0.54451895,-0.08839312,0.2513167,0.30342454,0.28338435,0.39076078,0.42500943,-0.020136347,0.053953353,-0.18071614,-0.26823723,-0.20431511,0.051038712,0.3340015,0.0423266,0.34930393,0.41887918,0.33512095,-0.089580745,-0.07618852]]],"bias":[[0.2966017,0.46623716,-0.045295253,0.5210697,0.1725982,-0.15210964,0.4715717,0.18443304,0.15450992,0.17514744,-0.03924196,-0.016042419,0.036516998,-0.08385531,0.341486,0.15348876,0.35238445,0.38338405,0.17053725,0.3730866],[-0.059617113,-0.15752485,-0.07032579,0.0055543324,0.04403816,0.08635964,0.23462255,-0.0063609523,-0.1148056,-0.01390548,-0.13085248,0.22575513,0.21594729,0.07624982,-0.078570895,-0.006204697,-0.08527413,-0.021146027,-0.2375501,0.070918284],[0.10053569,-0.087959625,-0.092267394,-0.123731114,0.010995347,-0.13880877,0.019912435,-0.18237649,-0.06641648,-0.10230324,-0.1376627,-0.13438338,0.0069429195,0.050144736,-0.20437643,-0.09431785,-0.04650864,-0.13349697,-0.19857311,-0.011481039],[-0.1300998,-0.0626403,-0.28740782,0.04247817,-0.01765926,-0.15447327,-0.27815926,-0.1174854,-0.23884007,-0.1387776,-0.07700599,-0.15274781,-0.35507265,-0.031459376,-0.23735064,-0.24832447,-0.18926984,-0.215718,-0.059482098,-0.077053644],[0.2891883,0.34651327,0.31573373,0.24608497,0.38638157,0.3147587,0.2428933,0.115090474,0.08159801,0.3396704,0.2658751,0.22450328,0.2675708,0.21257783,0.24684165,0.19660014,0.23550925,0.019434715,0.103472255,0.19292365]],"Losses":[1.4038794616908692,1.1101034062753186,0.8841604816102342,0.7041517354224467,0.5647140319981908,0.46511369765753396,0.3871110498837091,0.32545229029913075,0.27603293377541854,0.24202861808211068,0.231674091502787,0.23875165544404195,0.2498942133219944,0.25651487911212584,0.25722575101032125,0.2530312868515081,0.24463886566943407,0.23237446995919753,0.21724470066821047,0.20160167278128005,0.18863483705055117,0.18093625438377933,0.17904784603183227,0.18132082002378447,0.18523568388905803,0.18866908114124406,0.19051422525709125,0.1906708906698439,0.1895545921551737,0.18757700139783456,0.18498851929318527,0.18206848816672205,0.17925636071133874,0.1770037089567476,0.1755135334743186,0.17465372152411193,0.17418619556266832,0.17404392449431297,0.174288482985671,0.17484449150808265,0.17541803038852288,0.1757164486750328,0.17565070135783847,0.17527258681104582,0.17461456841528422,0.17370906998119398,0.17273174538569108,0.171974498185255,0.1716142033738779,0.17158408993178054,0.1717095773400885,0.17188646244461703,0.17207533415289708,0.17220277291370933,0.17217009708735756,0.1719585925364738,0.1716568112165566,0.17136203796942243,0.1711010398828321,0.17086781757342737,0.17068418976728392,0.17057423165492355,0.17050973189434993,0.170434722487722,0.1703325953553648,0.17022571981678497,0.1701192838543737,0.16998759363868435,0.1698141319546043,0.16960984433850249,0.1693873658907317,0.16914595430716164,0.1688903049143138,0.16863843246465124,0.16839718376063098,0.16814859583489528,0.16787208412133034,0.16756248750926703,0.16721643664190167,0.1668209909329851,0.16636843964571194,0.16586520847285133,0.16531627054963427,0.1647147630688282,0.16405043532348204,0.16331444037882945,0.16249435942425244,0.16157532153548232,0.16054574997804205,0.1593946077790679,0.1581055789433334,0.15666114911201523,0.15504930823672253,0.15325919673858526,0.1512772267423912,0.1490940156304517,0.14670475954574766,0.14410470834754424,0.1412953281692444,0.13828811491996731,0.13510569011532628,0.13178984474632519,0.1284080685531801,0.1250564611464456,0.12185692724991598,0.11893875033104973,0.11640913119042563,0.11430779566992778,0.11257185939607883,0.1110512988154411,0.10957909873787522,0.1080437778856473,0.10642684540071869,0.10478075402067887,0.10317274895356084,0.10164475050262674,0.10021320055042288,0.0988971091320853,0.0977572837586839,0.09700535384114777,0.09745077787696944,0.10013756934482533,0.09862415987696341,0.09505563063212545,0.09724397024030276,0.09654041400160725,0.09439678813994218,0.09613535684454491,0.09423517457268271,0.09411978437718713,0.09448718762301102,0.09290052453417116,0.09388886783557593,0.09286908455579362,0.09285199432203932,0.09318478775407366,0.09230745115675155,0.09297221709312692,0.09249171555479976,0.09238490233768547,0.09271701558094131,0.09209906530812068,0.09238312872069754,0.09221322103335032,0.09187812086086045,0.09212258354013086,0.09177220597676022,0.09172908962919632,0.0918164213974569,0.09151019413960373,0.09161899953384627,0.09152863906773917,0.09134993309941014,0.09143821453843522,0.09127738185530382,0.09119026217863786,0.09123034404786504,0.09107105820585093,0.09103237013212118,0.09104072980593252,0.09091174410087537,0.09088046457387369,0.09088012964569403,0.0907756003811245,0.09073738678169203,0.09073413361705342,0.09065411933762348,0.09060397762719488,0.0905989179638608,0.09054092596155548,0.09048185682526014,0.0904664732260631,0.0904300307976335,0.09036919952299893,0.0903388482446957,0.09031649229455808,0.09026933017603714,0.09022445157702018,0.09020106524311101,0.09017152612191875,0.09012676578804842,0.09008856099015874,0.0900626209132891,0.0900312079959445,0.08999033930640525,0.0899534025983799,0.08992493017192867,0.08989543422206785,0.08985923851087703,0.08982265267233373,0.08979111561789348,0.08976211740314642,0.08972998788634227,0.08969450620329515,0.08965946241450798,0.08962724516672828,0.08959635051040532,0.0895641209437463,0.0895298550201654,0.08949486330051806,0.0894608050425734,0.08942792982186601,0.08939543290458232,0.08936218793857882,0.08932779575989212,0.08929252545135523,0.08925693295910891,0.08922145909534335,0.0891861374089449,0.08915080087695093,0.08911514738257617,0.0890789685974049,0.0890421422095058,0.08900465941807816,0.08896653516193472,0.08892781870596783,0.08888850956937089,0.08884864663416375,0.088808173818418,0.08876710155892324,0.08872537277948152,0.08868298438574906,0.08863990353999958,0.08859617810260627,0.08855185975477349,0.088507170264173,0.08846248442242707,0.08841874062721995,0.08837771028201415,0.08834337265109347,0.08832373383208714,0.0883360257144896,0.08841384534754695,0.08861948059132999,0.08903043446935721,0.08964860528707097,0.09013010506067501,0.08983352510858386,0.08873411021401136,0.08783414522341011,0.0878534642257585,0.08844324330879819,0.08866357902056647,0.08811020276505041,0.08747525968889909,0.08744697512789627,0.08779747630376755,0.08783763094969883,0.08740607593026346,0.08702961586915474,0.08705859023294005,0.08722297184343838,0.0871089361502105,0.08676525921799783,0.08655608143850357,0.08658363818875384,0.08659964083138999,0.08641310963907235,0.08614652892779047,0.08599933560606213,0.08596746720682122,0.08589716703947266,0.08570830842218981,0.08547463327545257,0.08529451120546905,0.08517955326309615,0.08506937992213848,0.08491129210586036,0.08470498948546662,0.08447764536368546,0.0842546247736733,0.0840375332903157,0.08382284645717618,0.08360555462142803,0.08339156781589778,0.08320844142330998,0.08314878553280612,0.08348535730727184,0.08507273373066647,0.08658608116365005,0.0859927476775028,0.08220404813736726,0.0820919887584745,0.08450699482798667,0.08323830498201482,0.08096478037384329,0.08124895051019848,0.08215297468303433,0.08108643261405692,0.07979497272416047,0.08043612923734164,0.0808867513025196,0.07979110065982822,0.07929399315343257,0.08093206191311896,0.08245119445201263,0.08338327764771976,0.08186287833907681,0.079113451372602,0.07670758874722727,0.07781772060623876,0.08008412901992759,0.07935201321726762,0.07817309792641623,0.07666031009057485,0.07501752534493344,0.07511288779951861,0.07654988821073747,0.07737612259613254,0.07665269078859151,0.07580075135024053,0.07379676665329647,0.0724119251258637,0.07242695216127971,0.07237414567681973,0.07263002384678484,0.07426800510421354,0.07658634380060407,0.07600651995370089,0.07392404797564794,0.07074608688808236,0.06886718755001948,0.0688440255589762,0.07001064179532428,0.07190729125410693,0.0734181538093769,0.07254122651118017,0.06844529846309755,0.06613302509282214,0.0657425827747602,0.06645974621768087,0.06853505934254749,0.0707499167778137,0.06938733122954642,0.06579934567409619,0.06348731095897373,0.06267165537325213,0.06291132383631357,0.06457044404746363,0.06742149649726333,0.068778481090411,0.06535956745612065,0.06180829610953566,0.06009904537501835,0.05970785078565859,0.06038119257023045,0.06256809646266266,0.06570993053350684,0.06632415274276858,0.061596733612482246,0.05839051580476278,0.05764887823129933,0.058408188672394924,0.06062740411162164,0.06289968788865487,0.06231469062047895,0.059189038177382886,0.05647583504454011,0.055597190353162004,0.05623180881731862,0.057983124886176275,0.05982265994089703,0.05952973242372293,0.057360734613654214,0.055555096946642804,0.054393570204583255,0.05401805015056592,0.054419455343931174,0.055524450423132296,0.05702958424814771,0.057065732050328374,0.056066389634045,0.05460371705604629,0.05337266315061243,0.052581780602283315,0.05217788938612814,0.05209567609454452,0.05228029962109046,0.05276203573475825,0.05380081196620694,0.05543747429091601,0.05629280608043751,0.05561296443476211,0.05326682949187389,0.05151353975742883,0.05061905442425027,0.050218867882940055,0.05006936058823625,0.050121387526096545,0.050500787165218344,0.05157723166449638,0.05366845975741667,0.05521016084208322,0.054300275971761604,0.051408847342155575,0.04941366022209204,0.04848996447122832,0.048117473695430533,0.04806320933516699,0.0483369348724016,0.049130405331995454,0.05085782030256063,0.05309681824159483,0.05316618429027014,0.05128442268346764,0.048953493566387125,0.04789730889658596,0.04763346220831139,0.04766247290200654,0.04765179117061125,0.047432920644876864,0.04700622644576931,0.04719301041097757,0.04882213407779197,0.05107411942016135,0.052100976814227914,0.04843755874983177,0.04556562296409001,0.04433416237720131,0.044152789169043104,0.044642234532391564,0.04560641008502387,0.04687513611128215,0.04775111443058982,0.04821968594696875,0.04738412267927645,0.04749324995920967,0.04752206325586222,0.04553474941126162,0.043592964102133515,0.04247751527839458,0.042219937357062524,0.042630876596882514,0.04348445615044639,0.0442124291148354,0.04462060155585518,0.04603107121090098,0.0477488256314853,0.048670374014446786,0.045001004239843975,0.04195654406664257,0.0406606823151364,0.040402352453095154,0.04084606242915477,0.041912650241949206,0.04366322579086737,0.04581745717839603,0.047224069018505475,0.04411837551091453,0.04206350623154415,0.040925411549910036,0.0401114564764687,0.03951296250746902,0.039185155005800776,0.039067718246370585,0.03937081361587677,0.040945421770888765,0.04459414014550792,0.04886539588417506,0.04289798972425266,0.03958508074753682,0.03893339366602096,0.03946936769937967,0.040474107793212304,0.041846657960850304,0.04353097580599738,0.04326400536728393,0.04278671990554449,0.04117439203899276,0.03911713836466322,0.03778827140684775,0.03725255115911412,0.03722621856368475,0.03756499768456101,0.0382727238868206,0.0394454993079129,0.040883940427187265,0.04353050573891564,0.042912036258657124,0.0406022113415929,0.03828813884887957,0.0369481024221156,0.03639471181925172,0.03629032584576892,0.036633659648903735,0.03785827843987986,0.04003826162350971,0.042776209794831856,0.040913415010956765,0.03869729697585901,0.03740199973536007,0.036683976306462855,0.03631618405445923,0.03623738705879009,0.03698088412050255,0.03922585286868843,0.04083018995014077,0.04046980925182324,0.03734615578486539,0.035749972700358325,0.03526707535119349,0.035306282445451025,0.03567956284640612,0.03641132299331916,0.03778780909533014,0.0394026805718005,0.03892422915947121,0.03771578621254106,0.0359678497052767,0.03508747245270524,0.034678563714746626,0.03483777568411737,0.035589312014924615,0.03724303311281336,0.03841581306086556,0.03789080936546537,0.03591851146763402,0.03464283612929685,0.03408153061001673,0.034132119585260176,0.03469595250013267,0.036038615802421056,0.037079630303407524,0.03719116722840895,0.035572140627179664,0.03438258506420711,0.03383895009226255,0.03386284749402761,0.03434498997644178,0.03510098654632036,0.035660311631867544,0.03548324031064524,0.03485910188789505,0.034544136122070884,0.03444433294826153,0.034801413457160035,0.03457059821855873,0.03421040409585897,0.03344436180295797,0.033108402115945124,0.033046694478093816,0.0336468866904707,0.034529725549365405,0.035264484744548553,0.034859769182671,0.03368741300995738,0.03277230298361366,0.0323029977249809,0.03229652316168235,0.03269522870573349,0.033434098312554394,0.034086788037277826,0.03401776446324237,0.03345897990834523,0.032781255216127715,0.03280068107991078,0.03305734995797116,0.0336797632446598,0.03347318564341893,0.03266678723941183,0.03175721985499224,0.031163661900270558,0.030876328565809952,0.030858506756723345,0.03112628834132189,0.031834841922109024,0.032684501731264304,0.03334167361660793,0.03259098554411602,0.0322805119666944,0.03254656181997046,0.03357105773697999,0.03388247070028457,0.032481056935263576,0.0308914608351565,0.029993551896553908,0.029645254036837005,0.02969938135505974,0.030307104074196484,0.03173035142866663,0.03351027324085188,0.03375520983415857,0.03172483061220248,0.03073829618480392,0.030645187880747632,0.03144714406630694,0.032022261009471996,0.03126113670392052,0.030164121020700783,0.029390061044533098,0.029191893539555838,0.02976359913648113,0.031012661998811454,0.033027441830046335,0.032449959326497545,0.031161817354590966,0.030200913279382693,0.030020983215264578,0.03045631652967665,0.030942972104957802,0.030775352199013215,0.03008562592187935,0.029247825558098146,0.028803098099146208,0.028837560989954037,0.029419327379285178,0.030543187158307315,0.031591646888870464,0.03131153124424151,0.03125762726235167,0.030753797982245545,0.03065396851634108,0.03027928758147848,0.029118213616737554,0.02842980848186627,0.027971061988939897,0.028049760201578757,0.028381065020377926,0.029212690787874855,0.02959503122003006,0.029779335609869218,0.02947916341996706,0.029597944307898277,0.031012430320713096,0.031082473635268566,0.030015494054998055,0.028596352777587326,0.02772057914661218,0.027467241394953386,0.027696842890644044,0.028470471322901533,0.029573131165371417,0.030082648334014254,0.030136666278428207,0.02931749778990479,0.029465003449801536,0.02938788632747355,0.02854737622450125,0.02778758361212117,0.027065929361073927,0.02690980641838606,0.027101238811483436,0.027917585005108384,0.028853869748881412,0.029207605659544462,0.02893719480297865,0.02815316207237199,0.02848441372681061,0.028934992596433874,0.028753692633797286,0.027885630102989518,0.026954111172676647,0.026534223682892426,0.02660605539279405,0.027217573118531478,0.02813493320772129,0.028588601501139645,0.028540768689306908,0.027866485323660907,0.028195819835797487,0.028476041164826976,0.027990816786991408,0.027262094338064927,0.02632478901629257,0.026028459397151243,0.026035542818734693,0.02661420957491773,0.027104695830957294,0.02761991605376566,0.027112391053786683,0.026827735930983757,0.027115582308989507,0.027696088625439583,0.02857317439879809,0.027557904681734278,0.026562083666178227,0.026085562806562455,0.026117074428519394,0.026483468670844685,0.02663792961671394,0.02649057799180303,0.02604269241667913,0.025906081612143222,0.026268557087961143,0.02727191100693049,0.028396262852875925,0.027619991843711666,0.026512128522198034,0.02576218531915539,0.025417877995562152,0.025435351616243374,0.025420626445152226,0.02562941388813714,0.025897345636692833,0.026601803618931157,0.026884988810277493,0.026674708613573638,0.02591994634391482,0.025496492922679536,0.02576076276817313,0.026514159807846924,0.02719102444213453,0.02664789824860109,0.02574200669009188,0.024988243333692938,0.02473664145656016,0.024771307760980285,0.025098110919950692,0.0254559155994226,0.025675820992619405,0.025625486313603056,0.025457672887943684,0.025355824794424487,0.0255669949768709,0.02593906699063158,0.02652799899887831,0.02661111355561092,0.025839348471215176,0.025261482365175246,0.02461544849302945,0.02449340239736443,0.02444477281095385,0.024845070056092912,0.025056612659849088,0.025458531667673808,0.025069151106121408,0.025006770055165436,0.024875252706425807,0.025188775859907045,0.025724735972927258,0.025571211626515135,0.025412522347096428,0.02478614008585016,0.024493938793230256,0.024300415569686266,0.024248497804666487,0.02415749562400665,0.024130125772636193,0.02414151244324192,0.02438673966804133,0.024604514205894826,0.025051868956268052,0.024921368368466087,0.024878960176254385,0.024684651176766,0.02433464758554393,0.024328751736005228,0.02401790086120653,0.02408724770919181,0.02388429555087609,0.02398872855091857,0.023816653270436337,0.023872090073954914,0.023689399973480425,0.023758891358949978,0.023846323654741004,0.02406182266007673,0.02444567856462083,0.02424931185766026,0.024178181411645083,0.02380702878823113,0.02356457620784625,0.02342100483102931,0.0232414966748556,0.023178536403386425,0.02312038927180309,0.02325931152388797,0.023492806114909642,0.023737540725053997,0.024006439637114557,0.023796928161964447,0.02374305331327306,0.02344729080338307,0.023173255378695724,0.022915204411386527,0.022656954319170752,0.02263843125345478,0.022786085119917185,0.023314364153604744,0.023824477388031343,0.024243404614570578,0.023819659546011594,0.02362587659748048,0.023102175323503046,0.022926365263230886,0.022723184629099634,0.022892805689584184,0.023341922446775226,0.023729026750011383,0.02347589911815075,0.022663978018539987,0.02210911869988127,0.021887682046833366,0.02209234096697629,0.022476060274554246,0.022989006472042495,0.023505534929284127,0.023461786044000097,0.023613273659308938,0.02314592762092714,0.022558482592639012,0.022462360771977843,0.022522119026136756,0.023215230510663515,0.023097127457941072,0.022816113822232482,0.022056387952425472,0.021738414165328266,0.021623671185630185,0.021809172729656257,0.02188567584315061,0.022101749653612734,0.022107319297885345,0.022560815234083684,0.022633041753239325,0.02290526337837983,0.022741948254350604,0.02254687171451008,0.02285935501202132,0.02269708536808634,0.022392659450264873,0.021839276221955105,0.02135161973475894,0.02120445248198948,0.021312540530760423,0.021717092416079713,0.022242158711539017,0.022409461387548023,0.022738722221255003,0.022358797255018232,0.022112947513292906,0.021843247057067677,0.02139840789807365,0.021432399400145716,0.021480293417916428,0.02197322280874326,0.021834971273638037,0.02175461024339984,0.021280318021757356,0.02116790040506693,0.021020168369514276,0.021077510495078784,0.020958628137580853,0.021088065233332825,0.02131946475944167,0.021889302830465793,0.022436796716054197,0.021976563230308624,0.021585676672401074,0.02115808812022671,0.021044100325201435,0.021075280949754777,0.021139280686286344,0.02125875046704845,0.02124973187876491,0.021154179846891,0.0208544859103036,0.02064199528209974,0.020464797581061324,0.02049667210531136,0.020571137772539595,0.020744977961507767,0.021056409720093323,0.02126253972889619,0.02182549866118574,0.021607710988786503,0.021177995938314483,0.020920416241481495,0.020531262882640622,0.02059967031505141,0.0205257099526156,0.020742505415426618,0.020643188576363672,0.02079482652003159,0.020623885221409646,0.020738099534857297,0.020541712154158107,0.020580155549014517,0.02051750396920166,0.020650391966025687,0.02097660669590644,0.020931598930629486,0.021151731903874503,0.020677450730198416,0.020459430272007906,0.02027143779780352,0.020112746833195548,0.01999750404536924,0.019838300869014325,0.019812509708593145,0.01985399177234019,0.019998238815509977,0.02010800220175217,0.020119555564114024,0.020162428848433875,0.020095587989479025,0.020101512818354643,0.019959517505000007,0.019792294578405943,0.019747291012668127,0.01988281408701055,0.020263566178512712,0.02060060180260076,0.020878462186585203,0.020449735225640274,0.020300413597201278,0.019776081553900995,0.019618463681625516,0.019454002850082787,0.01963793807750607,0.019744514348727867,0.020029978725142727,0.019862221589515675,0.020030144192682134,0.0198997395884252,0.020072786923567617,0.01991614136824463,0.019744428540859168,0.019812687019143585,0.01971272989569312,0.019961395972392985,0.019546190257788983,0.019476287333776366,0.01924048179058213,0.019325316811073745,0.019242359892655908,0.01918781347165789,0.019013946576759415,0.01900376867583481,0.018999581046558398,0.019093860782171977,0.018975897176550436,0.018934397591125994,0.01884057983261921,0.01896986358837797,0.01907792820817606,0.01910814799986058,0.019136510646336397,0.019136341153424934,0.019273814827818106,0.019604521891641385,0.019517091079386328,0.019765891729759302,0.01969301519009543,0.019514517275241353,0.019359264883029314,0.019260048362953818,0.019047028583754948,0.019035888877019326,0.01887047722768195,0.018950661885410454,0.019002239834966513,0.019344037260303017,0.019378765116214544,0.01965635188570289,0.019257030883591736,0.019195871485823326,0.018840134452973445,0.018681402041375816,0.0185820071167438,0.01854543164930685,0.018753359400959384,0.018766879691067415,0.01897563936501897,0.01892287828500766,0.0188203748435589,0.018814620675978784,0.018552478863248456,0.01852217888609418,0.018402017577265506,0.018583066754350654,0.018609166235547474,0.018807166707742424,0.01861080524184847,0.018680232415982705,0.018420564060548587,0.018407847480571962,0.018144681442936166,0.018135397998924243,0.01806669902998545,0.01820757522976365,0.018276447588396846,0.018351617090620526,0.018461883130433506,0.01846141256750829,0.018488482695774577,0.0183609320796146,0.018131936755505663,0.018035816875467646,0.017921170868834727,0.017977820507374828,0.017968777007908346,0.018050864405055104,0.01818680791838835,0.01817877276100424,0.018379920613583702,0.018017341461997034,0.018034944859698736,0.017766635284026815,0.017796834349666793,0.017691191049394542,0.017712170132733494,0.017735867830993516,0.01782009623945882,0.017995556134599404,0.018132401039118617,0.018268141436172204,0.018493285040624568,0.01827359430125332,0.018354166899756368,0.01801271573078018,0.017683677439106944,0.01762007717622696,0.017478622653787093,0.01774631383102837,0.01770280474391925,0.017868311009635096,0.017870114302586133,0.017795563233296948,0.017845385661414054,0.017640301325067713,0.017668636127379823,0.01764577252905519,0.017926823869636625,0.017943095319854725,0.01804277542485219,0.01772185318138245,0.01770346895601385,0.017464263948024115,0.01740031420142426,0.017170408960117144,0.017200736367566166,0.017225125760403342,0.01746628094599802,0.01747420617179687,0.01763103742664274,0.01756545171396765,0.017713869533542422,0.01749985031240711,0.017411707670775732,0.017174936388668596,0.017223226489795015,0.017216871722625055,0.017341240462730972,0.017393477225312953,0.017377172959493262,0.01757496944169588,0.017229485764453913,0.017283719533555186,0.016875466840908404,0.016954774331251216,0.016762551572560028,0.016939619874289446,0.016745557140445663,0.01692222109433701,0.016781294227800107,0.017045241866930502,0.016950597931130268,0.01706631390690799,0.01705204338023078,0.017021327187360664,0.017118877600682182,0.016996208214033953,0.017095133667636847,0.017122949445878187,0.017404300861415242,0.017467779385205422,0.017539099934755623,0.017252624669619403,0.01710533163792434,0.01686823109368728,0.01678108192442261,0.016631570927944563,0.01667836818314444,0.016680443014404092,0.0169286865364827,0.016951683093092057,0.017211122537908023,0.017074527998507134,0.017153218260850266,0.01685525334486242,0.016775793638564365,0.01655914181097192,0.016624046672606887,0.016597781104787646,0.01677256912222903,0.016829883692986,0.01692578614803943,0.016976806505606172,0.016741419552104654,0.016601895922284875,0.01638652330639508,0.016343584208949918,0.016340342178838608,0.016359131908537324,0.016462031947212165,0.01646471665996599,0.016695369472513447,0.016594641252460778,0.01670168942193335,0.016474851302717582,0.01639479385301674,0.01627278976580721,0.016208147287497417,0.016165453150684714,0.01612354266885411,0.016148636002344837,0.01616482698280756,0.01624034962041744,0.016255277478715916,0.016341598850928153,0.016320269547010224,0.016391837003762663,0.01627421716129413,0.01630703610654356,0.016202571348073427,0.016338237852792214,0.01642208200661086,0.016723829178778148,0.016888544645594694,0.01681608862018312,0.01656333610189612,0.01619681996059223,0.015987689600674333,0.01590936836626293,0.01593420865194073,0.015979864202086247,0.016078441289987228,0.016188882137621485,0.016339617591126707,0.01637732964397103,0.01627302952624287,0.0162108135490753,0.01602714945370819,0.01601888532850114,0.01590137828181417,0.01596961164898791,0.015980410406808258,0.016046453454574155,0.016105082458957844,0.015926026903642736,0.01602653639059101,0.015750180967253266,0.015890634821345645,0.01564634850780129,0.015849028490802403,0.015747539856214222,0.01596834292332002,0.016008757633445073,0.016003173685186885,0.016136825063435712,0.015906584086311577,0.015901372693287633,0.015727055679193486,0.015720876416917214,0.015663862029913815,0.015706577628364925,0.015678747944925873,0.015774512072031344,0.0157110998408149,0.015817402080597773,0.015664191985324667,0.015685588711903176,0.015559966753901219,0.015531021657767593,0.015526176316329847,0.015483151996706022,0.01561625977888991,0.015581389047855675,0.01578678768753808,0.015792921622023975,0.01584201565215694,0.015874399700918605,0.015649672260161708,0.015594184897976619,0.01539563610132957,0.015406040152983335,0.01531732084910638,0.015417933881445755,0.015387681485715623,0.015551354848521968,0.015592687698706439,0.015628539839326765,0.015735181698291318,0.015393700722657,0.01550238230488265,0.015235127485426648,0.015417278681280558,0.015332097215724132,0.01548225529246061,0.015615715276806377,0.015561563931885035,0.01569434946517628,0.015429670823983681,0.01538825267892945,0.015241692602424792,0.015219311470895008,0.015167239216072716,0.01520670227623774,0.015209374672676051,0.015335836394549886,0.015271679154471163,0.015403094399543462,0.01524661875206312,0.01526974996651212,0.015158304059995053,0.015086127468538954,0.015149832362805076,0.015098626717466807,0.015309532506012965,0.015259282845210526,0.015416531879751302,0.015422960847055885,0.015297700961727457,0.01526617230387999,0.01504520392866664,0.015047006381065419,0.014939706162791682,0.01503552750623418,0.014976953896588324,0.015096995226592119,0.015080589571085674,0.015125369527561624,0.01517104126696919,0.014966741181088221,0.015099138185766314,0.014859392981398446,0.015105651241281798,0.014988890740493423,0.015190221053540148,0.015264603311108446,0.015158544820513821,0.015263439025246173,0.015003873471944332,0.014978733584480089,0.014840698959492356,0.01486061705184907,0.014809779161007137,0.014897854127666867,0.014858459807190486,0.015038328742654133,0.014925511003823647,0.015026204265261961,0.014893402765698952,0.014789344256125745,0.01481008522045448,0.01468235200418741,0.014850826269913249,0.014774937312441068,0.01494875496147105,0.01496622840272076,0.014934256770582653,0.014958547303800996,0.014748818037526356,0.01474102382048556,0.014594638793368387,0.014645869867711781,0.014552263278963438,0.014643411588835871,0.01458324267769336,0.014717873931173681,0.01470419488055133,0.014730152848371685,0.014802551698874693,0.014589408320044576,0.014763114598721724,0.01451220272982044,0.01475330284631697,0.014661762011867321,0.014823652671696896,0.01495380684238232,0.01478809807421071,0.014890760342761093,0.014651817991912237,0.014573305730686109,0.014460748640447729,0.014448519285502018,0.014446362618816702,0.014505602460939886,0.014499052458661177,0.014667618122950622,0.014577782706393802,0.014695253259385586,0.014541964240843109,0.014449821765046809,0.014494916962038761,0.014379480438212576,0.014556215728458303,0.014486010228807309,0.014617100023236582,0.01463861859804854,0.014508563752172786,0.014509753707181364,0.014322172524571916,0.01435062138937078,0.014228625651378798,0.014321284671288195,0.014261419186552715,0.014402043355313076,0.01438262986922779,0.014440025513334837,0.014499440373749475,0.014307457029518406,0.01441854521275956,0.014188100694596298,0.014325933521168158,0.014266469307460687,0.014336441132261797,0.014442234795203481,0.014328116044759741,0.014469672134723732,0.014273118179952202,0.01427196244631472,0.014151192374856758,0.01413484777735279,0.014101477292393827,0.014109182141001448,0.014098542922773561,0.014150154931019381,0.014107681286044641,0.014175156463165606,0.014058969380072537,0.014105093059546256,0.013997293710042491,0.014023290060837001,0.013995544118338013,0.014019430765452558,0.014112128319297298,0.014132574101107288,0.01429694792937931,0.01431715740696276,0.014337973681062693,0.014358939591968935,0.014126393752124157,0.014105126342269389,0.013931929674001076,0.013991962279173579,0.013899065012461886,0.01403266565038918,0.014012239581854746,0.014122133201768116,0.014168197300368727,0.014017213284010755,0.014167494242334388,0.013875981506069005,0.01404327674414089,0.013939932715478671,0.014045586817777907,0.01411604195931123,0.013989460499126973,0.014105136306522121,0.013902818309530851,0.013909338650922006,0.013761610621768885,0.01381961137357214,0.013756163941038803,0.013884519312773408,0.01381057124189875,0.0139936503148137,0.013901675051136358,0.01392337714899856,0.013885586996658742,0.013702174987350007,0.01382381519294951,0.013652919164961804,0.013854161897475816,0.013728913458703916,0.01387612764900341,0.013866847392690184,0.013814806114798508,0.013836720519940086,0.013670948313157938,0.013712425870910632,0.013569891675021624,0.013629019813064174,0.013521865661815685,0.013613019334110247,0.013527157621031086,0.013632091203739979,0.013561530693897372,0.013634204279516287,0.01359280620341023,0.013543567622428329,0.013570795210182738,0.013433750166253165,0.013598132835180205,0.013427521236646464,0.013810367770835672,0.013707099652502412,0.014144335209594737,0.014211248856640381,0.013920002723344321,0.013995200933798238,0.013662035691714553,0.013452224782959415,0.013425952725164628,0.013577249550672871,0.013634732766270788,0.013830632837784329,0.013807605035090178,0.01406154711163222,0.01381595393894844,0.013379308394576343,0.013541017796334253,0.013454101479462313,0.013634802970594126,0.013510808954385096,0.013645558652719957,0.013811082570962967,0.013521368234800817,0.01346256843304298,0.013384778781154424,0.013553543417105022,0.013428628667703038,0.013575356190497722,0.013568583919318934,0.013712251357366059,0.013504034528715592,0.01333332025045333,0.013358744038165199,0.013320969650242322,0.013290994425451725,0.013301082441642303,0.013321560884446266,0.01348298040656001,0.013271615082645563,0.013340424882944596,0.01322427085312811,0.01329801466412169,0.013125542613353072,0.013158673981866686,0.013110799198059745,0.013234263938534736,0.013089148095508572,0.013201754675843651,0.013128018329391861,0.013262334356472663,0.01316700374356298,0.013149411308581396,0.013277112758562127,0.013227207795839422,0.013435419808195131,0.013453639157720507,0.013561469470585346,0.013663661164387757,0.013314746376111419,0.013276826883031284,0.013160143251374984,0.01312095287961228,0.012989251359371852,0.013027337409751993,0.013037152482753464,0.013108894672115238,0.013002458782801393,0.01319683369980869,0.013238706958712517,0.013360812298879565,0.013464656273154425,0.013248739601930957,0.013476462068885031,0.013211419301522306,0.013070954668503129,0.013161280739299997,0.013068693120459106,0.01314767896951632,0.012958576884332598,0.013108218888379913,0.013025442847893387,0.013117440594687472,0.013001885743148927,0.013189522907461523,0.013180856530421031,0.01315410873812061,0.013149043743726834,0.012974064852542691,0.013088199415573975,0.012855565094403386,0.01296267323019655,0.012857363648868756,0.012983145110711018,0.012889074782923792,0.012931577638473848,0.012950792567585903,0.012955181852545645,0.012972000000039719,0.012922062102080542,0.013026198632144891,0.012960340292039602,0.013046164737491407,0.012928793701875779,0.01305761276700637,0.012892335685990974,0.012981339141938459,0.01281154777558387,0.012918279500151513,0.012758930952912464,0.012847025903137275,0.012711468353976988,0.012827264482094175,0.01269368222329818,0.012807371078175851,0.012683268255318427,0.01281756853588621,0.012691090988227573,0.012816639700757103,0.012715767969503487,0.012837825506415632,0.012761799272020131,0.012848631393764909,0.012811854967952228,0.012856958191669519,0.012818472016199319,0.012820560835168374,0.01277336048629563,0.012763305044568822,0.012700359314569544,0.012687184385226395,0.012643970621591902,0.012624989838546619,0.012613562093140114,0.01257723960131782,0.012641711145602282,0.012576307677295178,0.012731678425399622,0.012641974078704448,0.012829573605298551,0.012771978438888304,0.01278111306369865,0.012834744931899438,0.012645161288083323,0.01273566406763127,0.012565426691687696,0.012660230712722058,0.012510386820099192,0.0126425749427119,0.012520542461571126,0.012664730645486792,0.01252402761069039,0.012610386899206613,0.01254425472507347,0.012479312827363963,0.01251881219996259,0.01237709817169432,0.012524026828174464,0.01235905652213111,0.012545308519672258,0.012461705294717084,0.01260283326674887,0.012646529421989638,0.012600750129942362,0.012716550728798003,0.012513171110605351,0.0125326525431241,0.012388448018002325,0.012402336593722045,0.012291958769391292,0.012326783162715514,0.012261544479373632,0.012331786210620907,0.012250667300812876,0.012395988981118473,0.012340166169347248,0.01251144308537548,0.012505303579877258,0.01244999421472637,0.012667346736437352,0.01221636047305023,0.012600283972366969,0.012304561573512353,0.012642757116231891,0.01259183937544802,0.012595047912217069,0.012785706993913896,0.012388936485990267,0.012295359866231327,0.01226590525331827,0.01223749849417807,0.012150350441647285,0.012329355067755465,0.012453374336493588,0.012678213105894327,0.012446740555784678,0.012441995435579053,0.012503142250095538,0.01201754849747923,0.012264669104355922,0.012199676524578174,0.01252540156746188,0.012194136869502818,0.012340025263856273,0.012473342147074141,0.012175786397783273,0.012104359813783584,0.01213141013322268,0.012319695462525941,0.01213204523768121,0.012212302803063436,0.012362535820936566,0.012293535979961802,0.012212005377936559,0.012070936992823177,0.012240571636012587,0.01213109017166397,0.012085375925759744,0.012212850554686652,0.012179057350415842,0.01226427978701075,0.012038768760268942,0.012178886788960288,0.01210277051884241,0.012075241548223394,0.012002342051049861,0.012083633021659929,0.012081116555301284,0.012041843476782601,0.012012120212748606,0.0120537005289752,0.012013209535607375,0.011928783278591294,0.011942051553750586,0.011918724853505014,0.011963878325057197,0.011859017893224742,0.012047039477648458,0.01204095606127043,0.012260266389066464,0.012421987319750619,0.012300246997896927,0.012649532103567755,0.012034882060520597,0.012038754723134733,0.012191051545455373,0.011903627481394858,0.011896606749929003,0.0119256172282307,0.012133445616242368,0.011871176735861355,0.012011785218690308,0.012145854273246437,0.012215303314785559,0.012081437258046394,0.012020630249278286,0.012200880403835742,0.011884707622843946,0.011874879679748982,0.011891962846528718,0.01197749811254332,0.011795506785977745,0.011860229958492364,0.011959845566630009,0.012004212759947492,0.011891801130661338,0.01199935132235178,0.012073644702633285,0.011960970897948339,0.011939263726166964,0.011910726638880677,0.011989271153590364,0.011773151390866399,0.011861883181877047,0.01181710583087114,0.011879077026104122,0.011716645392266432,0.01181292183503582,0.011813458970554603,0.01179798514576462,0.011747551340277062,0.011795963076676094,0.011842796177008182,0.011785094878237949,0.011781588459659504,0.011845210521812609,0.011791132132644492,0.011791771272584347,0.011717931510571673,0.0118142854369158,0.011689934081693986,0.011734929147880362,0.011677630021805926,0.011735795443906308,0.011654840787892307,0.011647579437829963,0.011687272927092936,0.011608678607111329,0.011702379606997113,0.011555967312902237,0.011824547921577482,0.011587037963175185,0.011896215179472128,0.011746144886961605,0.011876204241980732,0.011900116618154676,0.011706306246343806,0.011849680762276512,0.011660796214854679,0.011685362476708738,0.011587063236462733,0.011674234617536795,0.011570627386528363,0.011668399749884225,0.011565343555373158,0.011719881227049615,0.01155284090893242,0.011636728550471428,0.01162205754137057,0.011551530472698636,0.01166295234532697,0.011517791568284743,0.01174077238645807,0.011585189562321293,0.011700508998182894,0.011710157771888332,0.011595992571570034,0.011657308400234467,0.011486956245646161,0.011572781844183574,0.011409379159365591,0.011527765294021504,0.01141427428561919,0.01155938179367027,0.01147833217019283,0.011587298221922627,0.011649099274453376,0.011482347722548048,0.011753193176373574,0.011320345959871103,0.01166920972474246,0.011344128089651353,0.011571431344297202,0.011465046035472999,0.011509187960427126,0.011632147065663264,0.011438629135358242,0.011551031403769318,0.011424505354527426,0.011391551232368924,0.01131624215972211,0.01133541545874106,0.01131725776794123,0.011339087283528459,0.011319193376521404,0.011466190402114548,0.01135225778219417,0.01151287676117325,0.011405898969378344,0.011408041009699313,0.011475109125816986,0.011202967581350396,0.011534450292725474,0.011195182889325648,0.011593130920314061,0.011358194879234479,0.011570484084447307,0.011577992878700299,0.011329918462498229,0.011446162009594993,0.011261809979124772,0.011294644100531373,0.011159190666862568,0.01133393695069327,0.01121292440569196,0.011349161947916051,0.011261034841519331,0.01139898768670716,0.011361907319985995,0.011228391102956332,0.011540514031720342,0.011150304558536836,0.011611859693306362,0.011287310797855235,0.011518767549169516,0.011476814694645489,0.011237699972065519,0.011372751839253693,0.011213019030032731,0.011202881116850754,0.011115537407776798,0.011275665329937436,0.011169362676583382,0.011298281736304074,0.01122211451963548,0.011317593836377374,0.011262498515947733,0.011087772605548682,0.011350732198894473,0.011058761378940291,0.011332025667264562,0.011173388079118416,0.011337487516259494,0.011276601542815503,0.011156206613919927,0.011281355657242835,0.011076858175144439,0.011153359109586824,0.011027516743244927,0.011179526728201526,0.011011167676858795,0.011154743584607984,0.011090232643653724,0.011153561473513138,0.011138791282735377,0.01106104432045429,0.011312806066603958,0.010971200141548792,0.01140379029803032,0.011094828261190338,0.011365507072439461,0.011288746599176901,0.01113156710185357,0.011298495740771814,0.011057553700985875,0.011070004845395666,0.01102160652723782,0.011078126465617271,0.010962514314116031,0.011087952811102041,0.011018719311275743,0.01114774539581403,0.010970931407158841,0.011097940163782747,0.011093191814399467,0.01095224788195505,0.011151693999233107,0.010973067126726736,0.011212305870007435,0.011014424493024507,0.011148464552848807,0.011149227459263961,0.010967493134050361,0.011069055945294724,0.010927375452884686,0.011013458303019983,0.010844303764461317,0.01102538178762532,0.010911294964409889,0.010999519195351286,0.010974491948646579,0.010963641496780656,0.011095410271730175,0.010799391642225643,0.01117694681965206,0.010799134882383304,0.01115031713131246,0.01092560351707154,0.011050657734779652,0.011072605536433503,0.010884147453452437,0.011017383115451506,0.010863815780779726,0.01088818043347679,0.010799293310648972,0.010900534704038439,0.010799026745536218,0.010903452617363972,0.01080823205391292,0.010956699902760386,0.010790621995409101,0.01087750677747713,0.010860562451388294,0.010764277855120685,0.010887665410145795,0.01071494746809258,0.010974404041671092,0.010727736500214207,0.011005116168983042,0.010920122781273125,0.010921991666641142,0.011007590355449574,0.01079102696214473,0.010913887916803259,0.010721071665206975,0.010842320020646917,0.010692206900457257,0.010853538476845783,0.010691647771030866,0.010842423019644302,0.010711243728274384,0.010778976697819211,0.010786142039449416,0.010675121717849734,0.010975446668616,0.01064575837399086,0.01114252680599773,0.010790517575322262,0.010978511364479696,0.010967205007660331,0.010675004158102956,0.010802025056567802,0.010708767839753832,0.010708417054193588,0.010595812754170372,0.010809734385163926,0.01067673734740723,0.010759811993240612,0.010725707777777814,0.010722724878654737,0.010772061122365926,0.010522191640964837,0.01087069166485618,0.010547562121541077,0.010827170010605193,0.010708788269648441,0.010780825816317943,0.0107942828698898,0.010614268759734794,0.010773934822412614,0.010545223146529557,0.010655673315844485,0.010521408047453145,0.010682790266209063,0.0104886657514151,0.010677270501006062,0.010557976566538216,0.010657061202781903,0.010611919512365627,0.010576187713745314,0.010813591754912463,0.010434102943339846,0.01098412529071836,0.010543577231291117,0.010920344234226362,0.010806074343307595,0.010602660900302001,0.010789781071017945,0.010547105434715973,0.010533891513340433,0.010520152213193211,0.01059332561917717,0.010455427400783856,0.010619130233828468,0.010543171812457437,0.0106524301828265,0.01050994339400928,0.010581186969713415,0.01066900345899526,0.010378556894606303,0.010736304748850236,0.010467586757364767,0.010711095402198044,0.010552702696796068,0.010615198133007334,0.010646215590054749,0.010410761783212062,0.010571743400905059,0.010411176967791261,0.01051258524560061,0.010359637853956691,0.010576081780282976,0.010425340073949161,0.010508088535556364,0.010556249283400074,0.010407179750752624,0.010655214812319168,0.010259510315034798,0.010740198177862138,0.01029552216863954,0.010663593832087676,0.010518327381867972,0.010489824820750298,0.010583465923628806,0.010387738590085115,0.010478882853439331,0.010361451204097606,0.010422417916777383,0.010333280924913165,0.010448912923025596,0.010336208315136198,0.010462963779710024,0.01031668869750626,0.010444377153026409,0.010308368941360098,0.01035464829394958,0.01034335206439362,0.01029289612272388,0.010380350228372762,0.010279703947166865,0.010455553239540434,0.01031430197282485,0.010490389097671889,0.010446836159480858,0.010428035031660043,0.010525632308571281,0.010320983712239487,0.010480704956818994,0.010273969550408118,0.010436409517698435,0.010246448945167274,0.01041767353790066,0.010229114508639631,0.010334789541679802,0.010262929942142831,0.010238381920816103,0.010367281691092346,0.010206793087838159,0.01056023496867723,0.010261599031882767,0.010595905137214767,0.01040262780299954,0.010323171685802658,0.010417209924688928,0.010226968334035802,0.010285227210236192,0.010225125146786054,0.01033128106655795,0.010169324247753905,0.01030154094429665,0.010252100294638253,0.010181352089734768,0.010254317692155514,0.010128183186444902,0.010304651435452564,0.010067307508553456,0.010350825145867758,0.010179879767229966,0.010294350127393641,0.010308601639588836,0.010226489968711009,0.010346083389718808,0.010134367924485747,0.010322684776052506,0.010106204392824222,0.010278214344652968,0.010090991165729648,0.010267860191757308,0.010047769354737068,0.010210661952316296,0.010030100545915927,0.01013559006853793,0.010017213274204692,0.010100683846308916,0.01009047890121886,0.010101300874772687,0.010298243424693968,0.010176490746584705,0.010519043941315245,0.010275055145994015,0.010391589418221254,0.010385268514739115,0.01008723926476721,0.010279480431142593,0.01012389835090414,0.010157865165537919,0.010034037210628734,0.01022808424519986,0.01000401934294077,0.01009875141389941,0.010112750019792649,0.010067071192084508,0.01011764229265435,0.010081383066883833,0.010253691758674289,0.010050128920636473,0.010233520679261282,0.010192552511687835,0.010061046311230002,0.0101759419623089,0.01003309776246751,0.010115963632674611,0.00995993831915079,0.010149596647873545,0.00997655359877922,0.010075948093029577,0.01007945485672218,0.009990869394233607,0.010149628683709402,0.009873896667565123,0.010258181874078677,0.009817256510662337,0.010240283420155486,0.009973562629752089,0.010101357496404173,0.010080144807509293,0.009984528593953441,0.010074113211258602,0.009921915184086666,0.010026337085256217,0.009907730602103126,0.010013034398745055,0.009893203697497762,0.010027712291655723,0.00988275534475347,0.010011092015555173,0.009878310484952857,0.00996259807157968,0.009880687871181917,0.009890669245219252,0.00989684632443739,0.009830818737993012,0.009913573848232047,0.00980803734019652,0.009950833329332387,0.009830421925724126,0.010005538887753148,0.009939250041846976,0.010020063495055203,0.01009458687735808,0.009930535828000072,0.010138325144064332,0.009852096851656321,0.01005015738724855,0.009841985796261082,0.009996684512564235,0.009770559499619814,0.009958477533746393,0.00975546990603175,0.009857049958687358,0.009821100278788405,0.009823456118425935,0.009985470529677392,0.009842573275619734,0.010231107591685214,0.00987041880164158,0.010114598327136692,0.009994965987768997,0.009769415544838176,0.009928181483021433,0.009813707048551671,0.009803491220262342,0.00977169138536107,0.009912392039989363,0.00976426351956874,0.009778205065187038,0.009942745133233663,0.009629204026815585,0.009944074504765003,0.009665137223231134,0.009987009290178275,0.009712756114194903,0.00994263285849361,0.009959284855164459,0.009699328216010399,0.009987871426307159,0.009700618555919515,0.009812189910281594,0.0096734522690972,0.009834020751849595,0.009587308728634324,0.009796318880030968,0.009636401964542324,0.009767120765219676,0.009563275102933986,0.009807567447910216,0.009583415514543283,0.009723386248468423,0.00977427402792405,0.009687718512061502,0.010073844162451417,0.00965392128616688,0.01031095964702561,0.00975365537759989,0.009853816608430578,0.01004978420654197,0.009477111685775358,0.009708868866217257,0.009801570284729066,0.009606325204088474,0.009524977840412266,0.009941652913555912,0.009593129774348834,0.00967854070521474,0.009920553174417887,0.009579191305026047,0.009873345818134718,0.009598297139797977,0.009971635931052499,0.00955547352814384,0.0097948495157011,0.009851356147869328,0.009474109245672055,0.00975073945062679,0.009622336890993306,0.00962751083736732,0.009497246713046017,0.009804084570310541,0.009546986557961212,0.009674571368471857,0.009846909613571916,0.009544818841209474,0.009881616495692474,0.009469828318151385,0.009871030564489501,0.00942114319150189,0.009732047955353302,0.009625138884582305,0.009539831902880344,0.009668357936263533,0.009547274304449009,0.009605195389038668,0.009484861000883056,0.009610398561775889,0.009450177431337236,0.009547760226893156,0.00947872239153662,0.00956129401220857,0.00944114520224779,0.009606659155557288,0.009503441817124167,0.009549549809306005,0.009624904670176382,0.009435743260648364,0.009748125119553235,0.00929653061279455,0.009843787688699389,0.009371237952202797,0.009764036843244377,0.009686161940225384,0.009500657720671943,0.009793646858999597,0.009402206328573791,0.00957947842312505,0.009450943443739857,0.009504300214595304,0.009338514947869523,0.009564419841537275,0.009346393476024523,0.009542079878009585,0.009387126834937733,0.009632324490476367,0.009464084323614307,0.009586154362236579,0.00988709955211967,0.009248656121084796,0.010064115371718002,0.009329002799380343,0.00957985434042953,0.00968242437286565,0.00929226859673186,0.00946122443017864,0.009496110508399469,0.009383765265393019,0.009278960957829567,0.009571301311752895,0.00933871783909358,0.009403161259295651,0.009553760733988446,0.009436341436429926,0.009530482112224351,0.009424190071844397,0.009681048280400426,0.009272784321763594,0.009573358514200757,0.00950636466814375,0.009272387316804518,0.009505539234172293,0.009345606663694947,0.009396229037658441,0.009260031731853895,0.00951892810947705,0.009208056822261543,0.009453288367593692,0.009389834854681048,0.009434786664632426,0.009455801676418367,0.009461844790262656,0.009634302122808375,0.009252361842476527,0.009671278993084634,0.009300931173270265,0.009371503967383564,0.00944080114124574,0.009281204557879912,0.009338385811287224,0.0092974886553287,0.00937598245683281,0.009171148039639913,0.009382694724500503,0.009227235052855644,0.009282765723344051,0.009221179363334367,0.00934124413187928,0.009167490675443053,0.009331606827723833,0.009287578687964978,0.009308687580671415,0.009393977911989395,0.00933612156367635,0.009537228946515932,0.009249030941366835,0.009566203139205979,0.00933158583259233,0.009277423170569083,0.00946408883528583,0.009135983168829402,0.009338581671279215,0.009197651539918342,0.009337788543422007,0.009096462319895244,0.009422856283632089,0.009158732227221666,0.009361580835247234,0.009302338374980627,0.00938004218431114,0.00939522570878798,0.009302733965824801,0.009534685824017817,0.009097150579216914,0.009448312443700502,0.009135120028104248,0.009260699093938235,0.009107179648868934,0.00929225402251433,0.009039057154950503,0.009242935838290276,0.009149982986532195,0.009185006172623938,0.009162034113676812,0.009242765739232614,0.009202335765046296,0.009173828239093492,0.009316043137125316,0.009119451507418224,0.009309575252805173,0.00914832332236678,0.009331192793960667,0.009113026523867886,0.009374577200930491,0.009124222064458632,0.00926602302437951,0.009182277974043536,0.009101934413327366,0.009199981782051513,0.008982399507929997,0.00925924314153376,0.00891009775692745,0.009394298835844424,0.00897450534337347,0.009482820263594835,0.009147298735791749,0.00927984498450972,0.009287413959458243,0.009033397934356828,0.009204590701070603,0.00911267648533799,0.009130292377183961,0.009102030050300955,0.00926401068350081,0.00906396624357365,0.00918502642524004,0.009172158651940187,0.008990901939759339,0.009156748400921337,0.008970150757415946,0.009110447409790213,0.008953325913496844,0.009124651776838086,0.009001226298621105,0.009039327532880184,0.009097603795168331,0.008988618661113692,0.009071866016904432,0.009019251616526665,0.009076677495461946,0.009011837516663512,0.009175308954736106,0.009089808622082909,0.009253303848451133,0.009187004886408534,0.009293691825512335,0.009083417271228994,0.00924766748754393,0.008938408867746708,0.009124704580715848,0.008916038197782078,0.009092218774488924,0.008890213424872472,0.00916091607110234,0.008911753842044292,0.0091835883892304,0.008977582502843843,0.00920801014570812,0.009052716321104857,0.00921176481576533,0.00924046872462505,0.009028137821859976,0.009349935905783247,0.008822533944222673,0.009178979827540418,0.008874212973440378,0.009021074516166409,0.008854304723454729,0.009050494099324045,0.008872574642567898,0.008967623163835281,0.00899391424739222,0.008922762680360201,0.008970798074019322,0.008984241335957504,0.008997606940860685,0.008953252270322438,0.009116117882917392,0.008976488017890348,0.009130708867860536,0.00900909456086291,0.00910764394600078,0.008896717930748739,0.009052953028755752,0.008838513717894432,0.008949984898103025,0.00884638097713361,0.008966647569677482,0.008836930078823994,0.009041715103884383,0.008923422263181548,0.009045597430663906,0.009016103933669925,0.009021471062860383,0.009046127414963046,0.008979593711493854,0.009068242921685914,0.008918071983532404,0.009019082859537151,0.00888594226560715,0.0089193936286655,0.008855108616781003,0.008874135144046136,0.00883451738803098,0.008838818643453192,0.008864520541101852,0.008800065829870871,0.00887187918799302,0.008800263737188594,0.008855573791673293,0.008801062192918622,0.008864230858836482,0.008826513737341881,0.008879290589392125,0.008918136702957795,0.008911786592789846,0.009010071171502676,0.00896639725445381,0.008981002392967079,0.009019813716887481,0.008811860413043292,0.009011639652608374,0.008717394208882201,0.008923656621977652,0.0087180239759238,0.00891595068087372,0.008684548270933857,0.008970006855660982,0.008723140625567219,0.00897629954006859,0.008830231600524171,0.008975644277208102,0.008959238722672581,0.008886915999764721,0.00908957040972204,0.008711426008616638,0.00902987248673882,0.008707972657219813,0.008851765230375393,0.00871844581605916,0.008837181713161054,0.00865862738378859,0.008827756664931312,0.008723203136420103,0.008765401712890227,0.008760176542968057,0.008805771343545469,0.008761770099929775,0.008809273306301327,0.008862574119924957,0.008762680750040934,0.008929856180994837,0.008764388518990328,0.0089305664203967,0.008716095421270605,0.00891598232152561,0.008646859307074508,0.00883532545599047,0.00864840175037551,0.008761831716322267,0.008649036652356319,0.008772383517175643,0.008699400970890997,0.008790909080331788,0.008846362178163925,0.008794323633305307,0.008928998451482819,0.008780471227239003,0.008862410909383922,0.008781821445706278,0.008765698255604049,0.008770643038685454,0.008729949180962265,0.00873051786529766,0.008696899325281202,0.008697956926819215,0.008664565111534336,0.008653150586653094,0.008669972958581929,0.008617028045571335,0.008671669919175121,0.008618116157006903,0.00867820110461798,0.00862084656779943,0.008712281749097538,0.008645517431442675,0.008740953767366357,0.008724435435364289,0.008744934567490785,0.008825685963666563,0.008695851146438376,0.008892421450272641,0.008611266686963801,0.008863603841647968,0.008567402798006612,0.00877761090676543,0.008535404038806564,0.008736812564970942,0.008514746285157814,0.008724085832919403,0.00858455288440862,0.008723747549184653,0.008724817356782193,0.00872867591163189,0.008849026348825189,0.008672386525547486,0.008827148813934737,0.008655453735568834,0.008676888629496508,0.00866865693267663,0.00862163812419532,0.008596317844930632,0.008648059264354928,0.008553385962385644,0.008632298896849995,0.008529275558215563,0.008676079087382419,0.008465694099406004,0.008737433647429104,0.008502292156954345,0.008720944960093726,0.00863070488162132,0.008655603145852979,0.008746758153307955,0.00854295376226208,0.008789512308699243,0.008469605279383266,0.008723119842782536,0.008470345290559077,0.008666979327344664,0.00842664108750704,0.008678089510951913,0.0083972385559549,0.008663765756559033,0.008448356405346778,0.008654152969587447,0.008561287900138633,0.008632541087178666,0.008810349839650712,0.008482979133371241,0.008988253290959152,0.008432259766401764,0.008734155147648697,0.008670307799514526,0.00841333555569465,0.00862631488165904,0.008529082002561902,0.008462733348878216,0.008480936732474596,0.008596304629599769,0.008372333055006056,0.00855394139493029,0.008542647797961309,0.008455598748352626,0.008592497501599305,0.008529392943905392,0.008653026889350943,0.008460993536285289,0.008775870547628278,0.008485576627506892,0.008581000180452528,0.008711298547192449,0.008339800483380951,0.0086576394393959,0.008428292723781513,0.008534987141702288,0.008377877173585676,0.008649154771113726,0.008314542711359403,0.008630832801666898,0.008498058872876978,0.008551986706223575,0.008619694871635013,0.008525676216822676,0.008714301650882222,0.008361360419347288,0.008742033749692497,0.008332141858175237,0.008553101740528871,0.008445188803456875,0.008455170298831308,0.008386465061377597,0.008498733534377963,0.008380229260094903,0.008422596814220378,0.008457095275801099,0.008416792665661938,0.008419074112795426,0.008486245839727714,0.008447652019558795,0.008446531918263483,0.008543487775310643,0.008431838436540797,0.008551026415944192,0.008444769879222682,0.008567570695248753,0.00837548201284346,0.008576723482701767,0.00835359303852439,0.008487317061698148,0.008387506578886879,0.008413510236055112,0.00837316337134439,0.008380122677764024,0.008426514749884513,0.008337905089767604,0.008594253677887949,0.008336322852732241,0.00866990624276346,0.00837898019758705,0.008526324520540115,0.00847689848471985,0.008370096514510554,0.00847007120924904,0.008384801427915218,0.008403291469499485,0.008374342485995202,0.008441118099719012,0.008344236337835426,0.008412606514009293,0.008421230145418812,0.008276075361959134,0.00846651103331441,0.008200563457889585,0.008447078734703975,0.008169804068104703,0.008450023816856916,0.008161676797731152,0.008425997488698817,0.008234868521515315,0.008374964396040635,0.008320282256362829,0.00837502265130469,0.00840037993130515,0.008375674962803444,0.008518908356781613,0.008332467259906846,0.008600233325274036,0.008304313600101273,0.008572987768527955,0.00828375410446415,0.008505877113504305,0.008214807130374972,0.008452868497178464,0.00817954872150071,0.0083873266708938,0.008224102445397783,0.008372091337987803,0.00831053935691248,0.008433581214760054,0.008480381339663704,0.008422240969244087,0.008581973663439635,0.008330718336001273,0.008432876819658002,0.008370764148517517,0.0082726056003286,0.00834018306598245,0.008331887658811746,0.00823457353501441,0.008351263991838507,0.008227022688068185,0.008347194093131683,0.008152174177370516,0.00846119895066777,0.00809188492521764,0.008486110047290876,0.008259098447068344,0.00836850984387906,0.008453506397073918,0.00822935176351486,0.008492634336155222,0.008166956439942632,0.008401892249807667,0.008172194549523231,0.008340794674580434,0.008133377298285165,0.008359398743346746,0.00809709363501278,0.00836948159565499,0.008125683638266434,0.008385230850116433,0.008231641144693392,0.008362778163386863,0.008503309282769054,0.008152967201016603,0.008715133695924457,0.008051843435788787,0.008453601998563695,0.00834696383520725,0.00808692438112828,0.008324481582768961,0.008233106182944408,0.008121042245724993,0.008208611804766081,0.008282230646568849,0.008064336701210725,0.008268169870320972,0.00826664054366943,0.008131083008029552,0.008353190028542358,0.00823048333121319,0.008340549978579874,0.008229270790556421,0.008396215580272693,0.00822161791013514,0.008220765798686407,0.008376044477425475,0.008029304304770184,0.008327197728424168,0.008125352512724912,0.008236085035350565,0.008106266543684347,0.008349634305092302,0.008079230139458377,0.008329430676645017,0.008277657499567884,0.008198679841925457,0.008389366796575528,0.008163116045769593,0.008358381792280642,0.008116184593510586,0.008320650828975734,0.008073876204164832,0.00824706756955843,0.00810002913604194,0.008185434615494779,0.008091379629974872,0.008192870653276235,0.008075085176285229,0.008181399867051015,0.008111137855482455,0.008170211994461864,0.00813482971906394,0.008198089591445839,0.008170566615920019,0.008187207160273569,0.008254098177102752,0.008133001722710757,0.008305088188513133,0.008089726963762091,0.0082940532052085,0.008049243020899646,0.008262688911660208,0.008016420151670365,0.008221307131243059,0.008017250530553294,0.00818240938953187,0.008041932898756595,0.008169910642593262,0.00811464893408477,0.008165045646843208,0.008262157190186765,0.008123016908116624,0.008363980880204736,0.008088813394319234,0.008275939306892575,0.008157807505969549,0.008117585272707553,0.008175203300182768,0.008100345544517289,0.008107640493824947,0.008095895347157836,0.008113347290867741,0.008041723562658875,0.008098438251783305,0.008073801325537498,0.008010537963935409,0.008113337399609136,0.007977414025859785,0.008112278959668222,0.007957727242914187,0.008166494388348496,0.007929126776324432,0.008222477385240007,0.008013063093057467,0.008207607139580223,0.008184971477274022,0.008116649873189394,0.008307005720108344,0.007991482543648107,0.008276604385883025,0.007971468725230317,0.008169973283778645,0.007964219580317922,0.008173778143169972,0.00789706011749749,0.008215436748140976,0.007943398351979,0.00817685519500841,0.008125187530317057,0.008082153723656643,0.008337274838087792,0.007933684990378402,0.008402621864312438,0.007930707098046897,0.008181153507403864,0.00809065642226556,0.00799232286513769,0.008056267603656006,0.008054054721429189,0.007985502875798736,0.00802415663853103,0.008082932704854792,0.007983156579676874,0.008082715938778597,0.008098164783240797,0.008045724145977758,0.008112710267774555,0.00812436258305247,0.00802481545523004,0.008128233566148902,0.008002762387393334,0.008056700165994314,0.007963872170728635,0.008060723816413179,0.00791429551292971,0.008063350371244555,0.007966735059291264,0.00804637783672135,0.008033028101192169,0.008072753345507862,0.00807067010795029,0.008054268386511132,0.008115768312429961,0.007993513596377783,0.008103626545294696,0.007989652449392629,0.008041687418647107,0.007979287847862492,0.008027633304785673,0.00792612323250655,0.008020281214711844,0.007907894007434673,0.007982439122249947,0.007899960961508752,0.00797387138183896,0.007872235296271252,0.007972698041608817,0.00787600793965039,0.007956243374451001,0.007890355657065484,0.007973260268615763,0.007896010492175441,0.008006492982059125,0.007947932786983926,0.008015321916407669,0.008048564936520473,0.00799079119735805,0.008146584151067771,0.00791570955373187,0.008181382470669797,0.007847266519756963,0.008120700801862453,0.0078337725669147,0.00805033362788737,0.007807040213950093,0.008041812708088476,0.007788527256607985,0.00803549730022626,0.007849394719573482,0.008030843186024175,0.007978820044254214,0.008025118634008769,0.00815579075969627,0.00791291467821704,0.008215855956817574,0.007862248178848343,0.008021717495043452,0.007973494445143711,0.00786598143286213,0.007921753489766162,0.007943149330723109,0.007829195720908231,0.007930940846184535,0.007882590019975735,0.007911167072817034,0.0078265295447366,0.008050218332882,0.00774321360649162,0.008094092911606829,0.00787227343902462,0.007989145369036325,0.008039575611893654,0.007862987130934838,0.00809630935769538,0.007775937632077584,0.008045321563850072,0.007769740850654071,0.007968435175535936,0.007763503249355457,0.00796568256510945,0.0077262917656664536,0.007996970915025034,0.007743137155443579,0.008028671396624588,0.007841378279338085,0.008044463508804124,0.008061984573108928,0.007843194363528642,0.008309003897377164,0.007555309358949695,0.008195375001868111,0.007759092716304222,0.007831508513534981,0.00789102849599936,0.007855375500411906,0.007737602941361089,0.007912494564483348,0.007832124552696813,0.007751820157894764,0.007929400716965173,0.0078107453352709326,0.007825844852900327,0.007901433116512377,0.007892551232640026,0.007808174043941383,0.00800725364314349,0.007838264583061368,0.007947056543810916,0.007928725813843095,0.007912994448340344,0.007869996673212755,0.007892466237689197,0.007866982386209045,0.007738833945935081,0.007935873559771071,0.007669920706295368,0.007935547273743373,0.0077509994862899265,0.008006821191327493,0.007766837877584756,0.008029040046323386,0.007819245017513556,0.007827458153945898,0.007926814119998946,0.007726095820672637,0.007851755487393032,0.007822455062538564,0.007795231165228449,0.007817660680763937,0.007860544535964313,0.007854290106671448,0.00773341377873414,0.008035382439880423,0.007507241005959176,0.008071269264344798,0.007528735968613199,0.007977633864392382,0.007618208666830906,0.007951016999312178,0.007702931755385427,0.007851745481341498,0.007887793215540723,0.007682435227835698,0.007959247094271754,0.007686524899179457,0.007892294760025441,0.007713108596136055,0.007919993725510431,0.007639053970792651,0.007958771337095605,0.00763199550154687,0.007891602469563703,0.007647862142193363,0.007851219416861968,0.007592269370121703,0.007838516562526321,0.007580113783432257,0.007785400779767915,0.007601560544476588,0.007774921054040848,0.007583378372193775,0.0077787484056965625,0.007609393207222897,0.007713584810200701,0.007684838984036054,0.007666160207434015,0.007748201349833207,0.007731279984811936,0.007831780797099319,0.007985241421806686,0.0077892702623492335,0.008331677354570789,0.007581427615762286,0.00809942921859713,0.007910038617535151,0.007373298471438888,0.008037305165841838,0.0076015073807645245,0.007645297289002206,0.007921574241483823,0.0078080222065071226,0.007790673154843919,0.007846456488583602,0.0080776571496686,0.007327656764103549,0.00817701131900823,0.00760724241729691,0.007648897773511809,0.007962613124816671,0.007650872143569186,0.007653604762205489,0.007940386147793304,0.007641085860511747,0.007703230986440528,0.007920180505642783,0.007667219041862635,0.007707270945011775,0.007965598756260132,0.007525233489974988,0.00785376737191361,0.007725289016254017,0.007690553360493288,0.007647396815087244,0.007864245942944513,0.007518230034872193,0.00783816978431019,0.007709849153784545,0.007712035851121321,0.007728434964280495,0.007816759172544778,0.007613004804714703,0.0078047492151544,0.007707652946720963,0.007676628259316241,0.007726474954038586,0.0077445341940001865,0.007601836040154506,0.00778652541799404,0.007617674951009217,0.0077101054218732794,0.007631537159828844,0.007751240533288188,0.0075387791445302435,0.007801948992720517,0.007556652991082103,0.007739868902454694,0.007626745551324301,0.007721616128397603,0.007624125217881023,0.007726339569666625,0.00767057849680515,0.007653653789564474,0.0077477610961228,0.007610509427037803,0.007745821880081538,0.007614202471957971,0.007734572452893816,0.007572279868495239,0.007743990998179367,0.007544229156634322,0.00770791086933987,0.007566876450987088,0.007676775794034708,0.007572388216283147,0.007689923923866154,0.007600263656857749,0.007679239838816998,0.007698476810527721,0.007642449180055843,0.007792918737704012,0.007627712249808584,0.00781095108246949,0.007651399060582982,0.0077436561237849665,0.007697740630875583,0.007652208382446414,0.007707853287119574,0.007611670266113427,0.007671919654394062,0.00759520762045047,0.007648387940532861,0.007562577001615364,0.007636063324401627,0.00754541885525927,0.007609281517859831,0.007542129591366129,0.007597674445585676,0.007532369868823652,0.007604297264277224,0.007554184770877752,0.007603692350692879,0.007637164199306927,0.0076032517179222565,0.007760863281161468,0.007613045194637564,0.007824611224263837,0.00767934292449365,0.007667238508437604,0.007801306450167848,0.007440079744626971,0.007773935449210092,0.0074685686344300554,0.007651307734393796,0.00751397882772238,0.0077055933091760235,0.0075031500937061,0.007732127923859688,0.0077048560558691265,0.0075518463743060715,0.00789465290294647,0.007463451861835733,0.007757702191349589,0.007601757218309011,0.00756649335014447,0.007593883204884945,0.00763795577379483,0.007494198062093591,0.007663930204760404,0.00757466443823824,0.007598542939200404,0.0076146906241388816,0.007650368237132328,0.007564614626837532,0.007637256177561278,0.007637921748650185,0.0074906734824008265,0.007692021845843571,0.007468900461222096,0.007614177296172409,0.007520274295793499,0.007599674790129352,0.007504814261930638,0.0076264813488088065,0.007576594738205213,0.007546286211186653,0.007715348642796552,0.007471017530156347,0.007725042050375183,0.007496810436056512,0.007640726312063977,0.007512201642110656,0.007597770100852958,0.0074886279818105585,0.00756864039635934,0.007496441994443126,0.007526576457998644,0.007501383100222991,0.007528586616993693,0.007475263590230648,0.007548927405272493,0.007475498614659753,0.007551161627473742,0.0074970224759469345,0.007568594465353576,0.007513995397668205,0.00757957201889681,0.007564566179587697,0.007531392638721505,0.007636917965161628,0.007456742966106151,0.007660471863994138,0.0074147496330969915,0.007634126810911579,0.007392088496663408,0.007612925305857731,0.0073692719832957375,0.0076038747569989055,0.007372379677362232,0.007592778642199578,0.007411176627526346,0.00758863231929556,0.007492205850739051,0.007566245071543355,0.007626582206449741,0.007488061814616526,0.007725926868368855,0.00743492225897906,0.00766298851381827,0.0074947960863310055,0.007520250297080897,0.007522644507600993,0.007490165253243198,0.007462578554559232,0.00749480227475224,0.007455634747253564,0.007442085534238321,0.007463971591785016,0.007442563884638127,0.0074034217763872005,0.007481704240871515,0.0073667192433947105,0.007480494143864923,0.007361491772556443,0.007515896055948068,0.007318552440067205,0.007606514091472685,0.007322640068017429,0.0076570517498223195,0.007461773783707912,0.007595542897548017,0.007659358337805841,0.007399270923955249,0.007717981539657512,0.007306775457997822,0.007565754147770795,0.007377634387259186,0.007491699561885915,0.007324492745203551,0.00761851781654485,0.007285130368705923,0.0076722548825417835,0.007466800067955213,0.0075668580382107576,0.00771694964090663,0.007300488306551002,0.007838438123439794,0.007148885602254725,0.007677622801751038,0.0073174531646778085,0.007493543732369365,0.00735951345355299,0.007569193877295655,0.007319709895866249,0.007554220084986726,0.007490421422460509,0.007382548907779752,0.007595201892150985,0.007359416123716268,0.007515193666030975,0.007384742145519136,0.007526148498864707,0.00730880905077123,0.007606499148449062,0.007333413958431174,0.007554099834963383,0.007500367002027396,0.007380147386097489,0.007653150533483502,0.0071865796245597375,0.00770001336919045,0.007130118496490708,0.007643153741392946,0.007202008112626133,0.007633924855707328,0.007261095419724946,0.007623452415062193,0.007374617473526838,0.007432557591711902,0.007522874201463249,0.007276414010251925,0.0074803709570273125,0.007334112530068863,0.007390206457236658,0.007334699795601381,0.007468213992418037,0.007312117312955917,0.007494177852877534,0.007467229464431463,0.007340607815357092,0.007641521841770897,0.007129902782786287,0.0076927932125915605,0.0070523625378014106,0.007645851930477152,0.00714086667982029,0.007569154081663725,0.007304884628697393,0.0074439382963268665,0.00749352705186477,0.007276300590246196,0.007568676452241218,0.007242595419533185,0.0075007458854676285,0.007287768370216682,0.007495181974435476,0.007240303543133074,0.0075591641995690784,0.007198674734490403,0.007519090339191017,0.007230162405080939,0.00742692153220555,0.00721973611511716,0.0074025030423846925,0.007174059873032729,0.007396993563567714,0.007173307770092746,0.007385010525924857,0.007177466648744663,0.0073875819903572,0.007189738952708537,0.0073470018661554535,0.00727020304992135,0.00727490150986979,0.00736033120953451,0.007324989890273464,0.007390096705258792,0.007610502729691009,0.007299698159852571,0.007927543063422112,0.007208932890257336,0.007639171438959476,0.0075577584452746465,0.006963536546150555,0.007635345128117126,0.007204530473373919,0.007254633275894788,0.007510849317343843,0.007429272928790262,0.007364122216402163,0.007524580122169697,0.0076008086753672575,0.006988307397343608,0.0078089285192757246,0.007095517085529392,0.00735433600707614,0.007569001817118614,0.007184959132143538,0.0073639084517953405,0.007543133141517797,0.007178253703001262,0.007422871350112674,0.007499114747985838,0.00720617083981188,0.007444524985341201,0.007480889959694802,0.007130971290181493,0.007527689246278278,0.007264647822897699,0.007291610746825268,0.00736057092844685,0.007398748235777577,0.007178918930235323,0.007533880135991514,0.007245193297498103,0.007361540230097337,0.00741050000419099,0.007304536295965452,0.0073041456162266415,0.007428055329912555,0.007226135912420447,0.0073733177734247,0.00731780984926879,0.007316515809872433,0.007252068167759563,0.00743663601417304,0.00712975875735409,0.007450948475255553,0.007202222741246707,0.0073588980149345996,0.007255657088828122,0.007372373762790732,0.007225193123048913,0.007364953044607643,0.00729480009778406,0.00725870789633663,0.007367664538615351,0.007235193189997878,0.007329252043187458,0.007270160207042849,0.00731415517842277,0.007236422744084603,0.007338807811619382,0.007233686908760931,0.00728916498059168,0.007306952281799074,0.007230172670281435,0.007344213035576855,0.0072341433284111075,0.0073587005609423856,0.007223257680136092,0.007397505667285927,0.007201029689275867,0.007388786176156052,0.007237262380868975,0.007322010172979535,0.007280193483305929,0.00728351138710166,0.007278656438926094,0.007270681409444699,0.007282904357383866,0.007234980189562139,0.007298877740178272,0.007209820483717457,0.007282592141675453,0.007210310486957559,0.007257719357813378,0.007194751432968544,0.007250003392298892,0.007172631881695923,0.007229716129056466,0.007169437617029769,0.007200219090206648,0.007159420094103453,0.007189870739981493,0.007137026299271149,0.0071839000349874504,0.007130160536954297,0.0071740847763099485,0.00714244848010859,0.007182546343545172,0.0071971533764884224,0.0072038911270492475,0.007364511739284236,0.007215752761409051,0.007573773602656445,0.0072709987631167615,0.007422980390533467,0.007475293016525853,0.00695044090502349,0.0075006699756151474,0.007021599042978721,0.007223075176204945,0.007240527722058538,0.007331874705378833,0.007133306661039609,0.007569951641130168,0.007275040598330863,0.0072470962965876795,0.0075956958186468,0.006919014006382466,0.007423453523109878,0.007225173948623558,0.007135421603109735,0.007249923427103816,0.007421604466328011,0.006999556613027059,0.007521689495298969,0.0072431544137166225,0.0071269925888995745,0.0075064212796764,0.0070015935186471204,0.007308854791481593,0.0072114436604948425,0.007209042602449744,0.00712123469209493,0.007418524976461081,0.0070605867737779885,0.007358653043959663,0.007342116209609868,0.007093696138261706,0.007457147121638737,0.007081059135455314,0.007312367231019366,0.007133410377856783,0.007311388341380792,0.007013790796386636,0.007401616247232943,0.007022159189248978,0.0073123592220911355,0.0071975891767113885,0.007195721100937822,0.007260309330069895,0.007174364994938874,0.007259907086342333,0.007103128703716021,0.007307099417827784,0.007032000416366858,0.007301207833192277,0.007076212132058457,0.007259387658286327,0.00713749556245031,0.007256643931036373,0.0072151196825014545,0.007172550164277245,0.007375697301881496,0.0069886161119394104,0.007454131032188006,0.00695471506770558,0.007338824932916407,0.007059699501938523,0.007238273419827391,0.007068410679945731,0.007251881291793682,0.007066655673848785,0.007202237458457156,0.007164484891729087,0.007115210618637473,0.007210840445860014,0.007120229863559426,0.007190256787770612,0.007122154725483497,0.007230773910071895,0.007078115553085127,0.007280061251065413,0.0070949682181910235,0.007252013256927514,0.0071539762019583114,0.0071851501858656245,0.0071873114245486576,0.0071035429609394,0.0072210167988394835,0.00701783270458755,0.007254429308463908,0.006992644250632548,0.007271572218976762,0.007030184985323773,0.007289602710857897,0.007076340038700795,0.007253473515354947,0.007141289063009602,0.0071361804686105495,0.007197279752700812,0.007067062019764881,0.0071719215604045174,0.007096084820044763,0.007137432230284603,0.007116929072703454,0.007151853619235601,0.007137579233870021,0.0071088753763271445,0.007217902989577569,0.0069814715247577515,0.007284366850751709,0.006900064906132551,0.007271547925286104,0.006905767374872722,0.007238735796713156,0.006926453247970826,0.007218488227494474,0.006974869594527447,0.007166221886056401,0.007063251137479641,0.007105449921548385,0.007130313987001021,0.0070857630186918685,0.007177427794716332,0.007077717963508758,0.007257562591918309,0.007054816453468756,0.007345841033827159,0.007017202933166447,0.0073566745855014725,0.006977451263545503,0.0072660091896832755,0.006978444360884802,0.007165092054250107,0.006974902752880931,0.007153382291673451,0.006936022742036342,0.007191006969422672,0.006920782655296015,0.007205978330556059,0.006930743401346101,0.007210637656278203,0.006933242501612646,0.007225155470285327,0.006962585236809387,0.007258049585924965,0.007075528664510664,0.007275392349785934,0.0072832986614830425,0.007072833093695963,0.0074648252961650955,0.006769111701326897,0.007377370117744846,0.006885206496841526,0.007093143449308174,0.007032359801706501,0.007096084675726179,0.006917931206242197,0.007203634631653415,0.006958816383358782,0.007088868732489203,0.007134969210602521,0.0070444492381818696,0.007123900625487901,0.007156282512058128,0.007102427592869109,0.007099693343654037,0.007233062182394277,0.006941366363306265,0.007250588900218658,0.006968996628648529,0.0071097734164861865,0.007050485001502098,0.007071595659275188,0.007057091811391376,0.007101330697011501,0.007160535316006487,0.007019264046520691,0.007290002122537625,0.006962627701527045,0.007191428858878209,0.007071776791610328,0.007010090237559076,0.007098197257680433,0.007050955216113113,0.006986989399005713,0.007135781625836682,0.006982740413954598,0.0071116258754436714,0.0070135381554051685,0.007151419063680638,0.006944940042507532,0.007205440053912789,0.00697422862323571,0.007083413709090671,0.007135358170332408,0.006927032039276217,0.007178757624314232,0.006934165507018083,0.007115368486933755,0.0069500028575867805,0.007134714226345837,0.0069008324196732015,0.0071694355516651485,0.006947200459676804,0.007112549048980626,0.0070805341777109764,0.007030129602170378,0.007184245476935318,0.0069403000514549566,0.007243299794897836,0.006855139886298604,0.0072237886769068475,0.006872735128707618,0.007121556839793879,0.006940212979830273,0.0070529613792740115,0.00694842703893922,0.007040933212090292,0.006952753860906804,0.007000008747830783,0.006993034565076566,0.0069620777697630976,0.0069989442916967536,0.006984444119631912,0.00698079995912954,0.007016767351027319,0.006997705987713039,0.007045189921436186,0.007018981434364355,0.007093815717618355,0.007030877850199378,0.00708510675706675,0.007092926649157597,0.006958724566155927,0.00716989178067113,0.006849632380291104,0.007153773945609204,0.0068594331086094095,0.007106360696865693,0.006859121202572319,0.0071378798300982494,0.006821704394405994,0.00716549300786228,0.006858864487616925,0.0071313040361164265,0.006949571233911779,0.0071031173891906154,0.007042500728632139,0.007049856016029203,0.007166610969235591,0.006895593630878302,0.0072509864431391955,0.006786973392882242,0.007179751326757361,0.00683599488913839,0.007063683936998058,0.006854778268223477,0.007061008250612515,0.006815194986704814,0.007054366187963372,0.006865451967755051,0.006979874556331484,0.00693564767107166,0.006969415339228286,0.006938612050080327,0.007008276115241486,0.006977225544101653,0.006985813344594913,0.007074846891623061,0.006938345537087566,0.00713017707818153,0.006910866918830422,0.007135610279583376,0.006862148130401895,0.007126860090103365,0.006821539707581078,0.007084912258581357,0.006848192584816346,0.007032191732923867,0.006908665679240522,0.007016726179918673,0.006993770635084415,0.006990824241346981,0.007109921860509758,0.0069162328929866426,0.007140751213881024,0.006907883440544562,0.007018615043771226,0.006977188349309593,0.006921814639720379,0.006951919458999343,0.006970775017572461,0.006874664819656992,0.007009022712375961,0.006875829533453465,0.007008281899701066,0.006860467553074689,0.007073798737408924,0.0068021609112144076,0.007111735555764133,0.0068668507085558605,0.007003681976527583,0.0070372750517324455,0.006853055163340697,0.007119882740857194,0.0068083694101178874,0.0070825328221405075,0.006815469250374241,0.007052406266490717,0.006782125947828021,0.007061477082389473,0.0067611164175199225,0.007054009855271598,0.006789619170956473,0.007056835755842352,0.006835085872768655,0.007076366754100862,0.006950577347904457,0.006981516837104059,0.007172784265426392,0.006725595150535666,0.007299950233729923,0.006644120727806837,0.007131761188565447,0.006843060399455674,0.006919344818808098,0.006896726818844366,0.006947669215011846,0.006815627895545636,0.006947165997592661,0.006888939935386338,0.006822527706196589,0.006961275572388438,0.006833921556588367,0.0068928924769705935,0.006923441696543191,0.006892626483546679,0.006918864881051653,0.006980635690980667,0.00694352885951705,0.006976356136352846,0.0070167305406877946,0.0069436664717032045,0.0069406148655388935,0.007008863424423651,0.006778735869136248,0.007027050411059619,0.006783398521847372,0.006948368390698685,0.006859200170029303,0.00696369093093838,0.006855588715905707,0.007030050102818241,0.0068896280383091224,0.0069682885791329625,0.00697770276850761,0.006880165402015785,0.006969355092124744,0.006899706380342144,0.00691508666259081,0.006884561869478884,0.00697341354480434,0.006767376906964933,0.007058934833433585,0.006692901656530687,0.007059208970977173,0.006693426452576388,0.00704636899681717,0.006697711203708302,0.007042197839626291,0.006769554033236334,0.006959024446356678,0.006934551243662356,0.006822479218008179,0.007046456860043824,0.006757063773073452,0.00702590394446823,0.006762981926455917,0.00697860001361732,0.006741372690190114,0.006988263289931591,0.006702832996429436,0.00700285810590953,0.006706913863006895,0.007004100078639673,0.0067366189113906615,0.007013086303215172,0.00682345532011234,0.006940741967520527,0.007052506926516377,0.006696214222178181,0.007279244004210158,0.006547266033546791,0.007182384717305679,0.006785753012809529,0.006848956779109805,0.006970215753942257,0.006779826699807067,0.006839250178306603,0.006887588421691407,0.006781325253739861,0.006793243757054276,0.006906781277762918,0.006709611546202663,0.0068811993014260405,0.0068430879597527645,0.006779481539221776,0.006941359116701014,0.006808896188089646,0.0069728815762029215,0.006807071086271519,0.0070548023626785285,0.0067658224700771355,0.006983313152162821,0.006926459623255366,0.006696129136143172,0.007084086047902232,0.0066197350272499894,0.006978603757016258,0.006769378239228167,0.006900439452994297,0.006748792267837896,0.007016522132240206,0.006691338784767988,0.007015313256756946,0.006851962127240771,